0.099822140665930481
0
0.0032737649326223381
-0.0084792829720868306
0
-1.7335322198043456e-07
0.09999602774065279
0
0.0082551951372554413
-0.020798669227409607
0
0
0.1000012707465304
0
0
-0.00015812725156029984
0
0
0.099332455608003689
0
0.0073687276261831889
0.0086638614699490451
-0.00010241489607593985
0
0.099711005282279913
0
0.00019068183893675879
-0.0038870464254432604
0
0
0.099553930930110418
0
0
-0.0013492695472657964
0
0
0.095816379036773119
0
0.016860625127002191
-0.0003505307881475032
0
0
0.10189221347722029
0
0
0.0067614657689705673
0
0
0.099307687606340497
0
0.011870204465541444
0.021359516349589644
0
0
0.099933652203251302
0
0.00029945337089189552
0
0
0
1.7673381328833854e-05
0
0
-0.020284116914952629
0
0.0002445141209207131
-3.9743354659171459e-05
0
-1.7911112880506422e-06
-0.00091212869016566724
-3.1905534562375783e-05
0
0.0003404705961723682
0
0
-0.0029940094408743801
0
0
0.00059059262604041127
0
0.0005799203907356353
0
5.3394498972672666e-05
7.0562132970171095e-05
0
0
-0.0018476844859420236
-0.00064326358914391902
0
0
-0.00084746620925740855
0
0
0.0095960110195746212
0
0
0.00025231846190074825
0
0
0
0
0
-1.9319037832899198e-06
0
-1.3555468207979283e-06
0.0097722496669216535
0
-2.4752441219600355e-06
0.0010501680433991679
0
-0.00030897671690900214
-0.0044703196687130922
0
0
7.9343072500353041e-05
0
0
0.02046542319246596
0
0
-5.2318407582751685e-07
0
0.0001665871812202319
0.0012649721532075361
0
0
-9.4292423014074863e-07
0
0
-0.00071241457709089642
0
0
1.1901151934962919e-05
0
0
0
0
0
0.0015259547977241499
0
-0.00081202055188235112
0
0
0
0.0052184948099915701
0
0
0.0040577534138990685
0
0
0
0
-0.00013730841176038555
0.0049257416257411108
0
0
0
0
0
0
0
1.2988813243357837e-05
-0.00089222337159286893
0
0
1.0503916627587322e-05
-1.8711753339212874e-07
0
-0.00020014321416477097
0
0.0013560102347469226
8.2957016646592537e-05
0
0
-4.7869250744658528e-06
0
7.5262178695637033e-07
0
0
-0.00020204713719259947
-0.080710592653417942
-0.00015548040071688065
-0.078027344342996893
0.23664813077917607
-0.077627225555094548
0.05000309118773328
-0.030958583656825998
0
0.23176416262925004
-0.12032667859576587
0.0084474096567327215
0.10000000000000001
0.11921667458874149
0
-0.25746003483605295
-0.28525228509254674
0.014147964094327567
0.12005560523084313
0.173805893475521
0
0.23444217695361985
0.51752708957505456
0.060229665085318344
0
0.089869680810998609
0
-0.26331627151920817
-0.058088893315610866
0.15245395229412476
0.072451134908814704
0.12607885344643047
-0.00041271436272562651
-0.61826965819287416
-0.29748010862517799
0.19530760994331464
0.0052828721512295828
0.32873310967964059
0
0.090675721520883421
-0.15120928629796787
0.10070530898638391
0.12661965323062624
0.59729962501058576
0.00020373541951894825
0.22362789898982702
-0.21802645410321053
0.12457915241659359
0.12665875278189712
0.52211532562486973
0
-0.12679851784283128
-0.10000000000000001
-0.099482422629404807
0.10559222689496262
0.77372829035051494
0
0.024912544839853345
0.033627828419590021
0.093570863437595561
-0.003469127002315242
0.84518330162597222
0
-0.25872359253949728
0.043909128068863663
0.013170972457217281
0.00018943040179549258
0.61789643584773701
-0.00011448488869010409
0.17177982933171082
-0.088886130727275248
0.16188926426137559
-0.0022764163781859095
0.8734374943511054
-0.00030299779684768473
-0.073187617969131216
0.043920147746977396
0.17562361689640696
0.0023206918119573804
1.5915643162391975
0
0.20198311530847918
-0.16875269699762721
0.0028263804094173358
0.022175584499696501
0.23238906400082565
-2.59481175847357e-05
-0.073907750732341904
-0.091715294442420908
0.20121805807172854
0.028105075638937063
0.38226705286831447
0
-0.0005092317210018824
0.24806369864496969
0.10000000000000001
0.16522903767753869
2.1366602398317562
0
-0.19741990417188027
0.1278532648830151
0.056147541249660898
0.097639313552191742
0.42454107153660109
0
0.13742155065964487
0.21251313224945631
0.017316832764471112
-0.085387648778095071
0.49178862491405195
0
0.384633029749474
0.56025814737697066
0
0.10231447806286134
0.8170907170860312
-0.00014560267053395767
-0.078133108335721665
-0.0917922245868662
0.10000000000000001
0.018087921562018439
1.0559343699201222
0
-0.09334717615961502
-0.55997798215621508
0.11633241301862228
0.087253941620386702
0.9165186727426391
0
0.29660371506439076
0.0032705471971328642
-8.9183562450967409e-05
0.07198125098286523
0.85022815049047185
0
-0.24694050307624643
-0.13983115066895652
0
-0.01969215115037655
0.88332608225347453
0.00019821574487189809
0.086792933288052626
0.14353730692531916
0.10000000000000001
0.0020866420032717883
0.84522674304066758
0
0.047087238939717523
-0.014770621768246686
0.063858864270129753
0.03364063523718358
0.63569183038650068
0
0.10384356332097661
0.2530943958822921
0.10000000000000001
0.099935973512233878
0.87729424309140192
0
-0.1890101101486848
-0.54455743216624686
0.010453296253535846
0.10000000000000001
0.64186856379778778
5.583423951988237e-05
0.14176271683024402
0.37136471406768534
0.10628675877259178
0.11803948179966758
0.7430824713901294
0
0.52763364799028534
0.24566819882618657
0.17987328986873624
0.015424159769433236
0.033633069683702402
0
-0.2610967464388142
-0.10098955964550008
0
0.0062007078696177127
0.053583345468910623
0
0.010283347936898651
-0.022198772282160648
0
0.012560166056349801
0.027167694967860326
-4.5843278281340362e-05
-0.30433479099276645
-0.27481560257416243
0.005846808633331646
0
0.15561738826071153
0
0.27609286139329364
0.38150179189797256
0.021581730069017702
0.00038923346252697419
0.078679405782630371
0
-0.045876420770761192
-0.14823893408437333
0.01031015549649735
-0.00021497101204721598
0.049576608660251015
6.5152258898288701e-06
-0.38052718052201634
-0.14205304532893018
0
0
0.090369021213641806
-2.2968596046405128e-07
0.50258722728259275
0.57076786650382327
-0.10000000000000001
0
0.12436488717628899
-1.327565066966369e-05
-0.054573427064943031
-0.10951740026714399
-0.0038679019112353194
0.0028908931397909647
0.013969153168196064
0
-0.2203884980563332
-0.2823858223986932
-0.018776300308444484
0
-0.013465245053727594
0
-0.17705612353892639
-0.2934477039140817
0
0
0.040371034556248998
1.2409231638436357e-05
-0.19099293554651647
-0.23147349353061236
-0.063701773125400568
0
-0.33940799879607292
-9.8117690559089101e-05
0.14759794915616323
0.02729029518486107
0.0084266059930604119
-9.769284873456695e-07
-0.19695188546370121
0
0.058990287596529953
0.16225822348901545
0.0038463936310830088
0
0.47396695850307624
0
0.16992315557185494
-0.13841238232040581
0
0
-0.014914827921817992
0
-0.35795725421604374
-0.0039270598436560843
-1.6345373334206787e-05
0.0029363608051638595
-0.42697338775655819
-4.137814817035009e-05
-0.22873948092846128
-0.0064218693691605044
-0.10000000000000001
0
0.66993126027082806
0
0.12959231350512521
0.067650204341194883
0.021466671186345515
-0.019860600347577691
0.12040615495476294
-0.00016928675073342114
0.18951237205081845
-0.016903880907299777
0
-0.02563662166511638
-0.28664410435764093
1.1227124560320579e-05
0.58713286642315587
0.22627747280114441
0.026825415332254375
-0.00013199169020131933
-0.34710372435012954
0
-0.48058650610816678
0.098100138258615785
0.004221536830660436
0
-0.037348620713068242
0
-0.30327318881653959
-0.25740853019554677
-9.2773523870429222e-06
3.6417350361112912e-05
-0.067268048245814657
2.7051882364981876e-06
0.075666988037063856
0.28249254145916525
-0.0084403593624080321
0.022539139988402967
-0.17413563997004908
0
0.07095539128970639
0.15626557671977825
0.0026879953972473157
0
-0.11764888259124906
0
-0.21211705421419616
-0.40142094428470465
-0.0056722020662967835
0.001066630332102636
0.097130747813204785
0
0.11402546291760365
0.45184729560084602
0
0.0087838604160149561
-0.056025500234309293
0
0.34911255372760269
0.12636791484019913
-0.016145424356567302
6.5410907704910234e-06
0.065362421900895779
0
0.04062452395310278
-0.22386795280170305
0.055790992985835432
-0.00045893174261102057
0.045763031573274528
0
0.12739567583850162
-0.06993043585775631
0.11151095295936467
0
1.9035787752506491e-09
0
0.0023483726916519268
0.0037371221828735269
0
0
0.00040008688622382563
0
0.00061720065391165663
0.0012870737260392607
0
0
-2.2844342725849206e-05
0
0
0.046977835734703467
0
0.00066338861863703179
2.2620750374712392e-05
0
-0.0061037254756312045
0.0099826680001635013
-0.00022723150572673435
0
1.2591989481542453e-06
0
1.3422763998691027e-05
-8.9213069757552993e-06
0
0
-3.1320478280494682e-05
0
0
-0.00096152702862560438
0
0
0
0
0.00056378318576132385
9.5576649044283053e-07
0
-0.00019484444335375272
6.0902947736001061e-07
0
0.025758734115102482
0.0036900545966923274
0
0
6.0628327176445407e-09
0
3.7813703347454428e-05
0.0093013063073845124
0
0
4.0464543934424217e-08
0
0.0025545921997357835
-0.024387823507219672
0
0
1.4292667590566732e-08
0
0
-0.00091578235345144126
-7.7927607459722092e-05
2.8232801130736962e-05
1.0886335023459452e-07
0
0
0.001347834347295347
-6.3717751608029571e-05
0
3.1814219528175942e-05
0
0.014334952991028181
6.2811804189384632e-05
-8.1103622172738608e-05
0
1.3704399057621325e-08
0
-0.00022880757226511174
0
9.8487230812182516e-07
-4.5978160029926562e-07
0
0
-0.0044007551017539023
1.1302464137426583e-05
0
4.4796594219165473e-05
1.7039652983912224e-09
0
0
0.00095162944747442183
0
0
2.328060231303889e-08
0
0
0
7.6115527403178691e-05
0
1.2297177565184232e-05
0
0
0.0042443550438300325
-5.7330738087950637e-05
-3.0163565435351826e-06
2.4564998014738226e-08
0
0.00089664671959176353
0.0008886939197763204
0
0
2.7413768183174281e-05
0
0.002659555733933052
0.0016993372357357389
0
0
0
0
-0.00074108703054047865
0.011002808392495983
0
0.00034873559033510543
0
0
0
0.00056242971143898621
0
0
7.147779777533038e-06
0
0
0.0040321509995225931
0
0
8.7859944559459454e-09
0
0
0
0
0
2.1357456037643973e-05
0
0
4.3340949123795591e-05
0
0
0
0
0
0.00036330647990324364
0
0
0
0
0
0
-4.5623467271327243e-07
-3.3729929255297973e-06
1.6910208006581447e-05
0
0
4.9676014688719801e-06
-6.053102806309322e-06
0
-1.2924897903372812e-05
0
-1.4379273592500493e-06
-2.064038489780813e-05
0
0
-5.9464472971590773e-07
0
-0.0010165001834977416
0
0
-6.1331699460531026e-05
1.9803997418540654e-07
0.0013902610876213512
-0.10642171154190189
0.0026887413534173159
0.022781479960089737
0.0033336627310823204
0.00055252293735174229
0
0.020808583223996618
0.31919505191362185
-0.0026068459750674621
0
-2.125477662942418e-08
0
-0.050580490171874395
-9.1547284024300701e-06
0.049099269676652568
0.015961246201079776
0.012201622614600111
0.00084207119626895639
0
-0.13319690146897922
-0.053575371685518493
-0.02929048971793783
-1.9039833494517808e-09
0
0
-0.016341558101419539
1.2314963285047577e-06
0.015903898514673196
2.2109965738451382e-10
-3.1676888953098008e-05
0.036103139692834303
-0.031137600460470934
0.0020826643948504814
-0.0099759004875007717
-7.1970316204294465e-12
-0.0024388724457615383
-0.010822013905857616
-0.015788278628968911
-0.0014486351618738611
0.01913533454068192
1.7316084708805573e-06
0.00010717503466520822
0
0.0030665729433678457
0.00061491204802622277
-0.043344633298757797
0.0037631084037824955
-0.0055051294858575591
-0.008335434457925955
-0.37224500517127884
0.0019773158078066726
5.8583063868444921e-05
4.3937638366764841e-05
-0.00033902126964896289
-0.096398309528617873
-0.0016097080072869159
0.01432523266335107
0.00014075564843188325
0.00087029885956678757
-0.0030543448874490145
0.0073726912630628326
-0.0019129710843959829
0.010083315749108791
0.0044229364424682232
0.0035594922089015428
0.00082856066533489557
0.099739777949402073
0.23825807436618329
0.01126119405480981
0.0010789928141156978
0.0014812415757144909
0.00036782377443001548
-2.6991213629666904e-05
0.00020769987771664889
0.0055599589188534632
0.0032629928620115764
0.019580290599035446
0
0.00055799562629789445
-0.058722439362933782
0.00074667273826134343
0.0046267438992337474
1.9244762796703536e-07
7.6637561981265849e-05
0.052198053937117371
0.0078463685635651627
0.38012115028845112
0.00042025020596895418
-0.047052455319855843
0
-0.0010115284943117571
-0.028538652670860566
-0.070675496619438977
0.0024098421764390228
-0.0043359121886098933
-0.0019528834481862833
0
-0.017613035682551407
-0.07916939262488297
0.11232237387253251
-6.8381687280373761e-05
0
2.7606989280244712e-06
0.0067134857549279222
-0.056148697620146522
-0.020095671566598701
0.0010561238157499374
0.001597769118293655
0.0028748236695576076
0.048040671489657558
0
-5.5111960371993676e-06
-0.00022090082308317481
0.00037235021674196555
-7.3884568424928e-06
-0.018980396679077492
0
-0.16324515072157
1.5905279395874887e-07
0
-0.0018389599481225783
0.0002020515987732356
0.010775947233985382
0.00028248167433736981
0.0022252134378114219
0.017725613391390047
0.16595074204071586
-3.19651215391951e-05
0.26835577144391198
-0.0025484055400392426
1.1559511223736726e-05
-0.017019422953325671
-0.041258608106731071
-0.077334548555768171
-0.070407629632557492
-0.0095553126373854776
2.7950926424918069e-11
6.359324386986664e-07
0.00075779717868967433
0.30374680604754922
0
0.004167743772720299
-0.0025251996218286061
0.010853239379086332
-0.0028400384545465788
0.00014897551004143099
-0.0014619464857127599
9.9564240893893223e-05
-0.00025456867472829141
-0.024426233951412055
0.0055821707541364425
-0.010425913061080573
0.011910225681341688
0.013499699114272262
-0.018451892725599845
0.0026908203361976531
0.0014834731931666959
0.01071934206473751
-0.010363452950695981
0
-0.00017517765819312643
-0.00025310022431799004
-0.45051829805787036
-0.037210547478256216
-0.02151803566869994
0.0014218497820809735
9.2760243943977797e-09
0
0.0055617560848930051
-0.023470401101504876
0.007864960877221501
-0.0072294067721885083
-1.1848901374661924e-09
-0.0019510851535071796
-0.15837579271162697
-0.006224294949460525
-0.12037296390890062
1.1093792747809453e-05
-0.0010374117810227684
0.00024932243393591737
-0.0016225443411971704
-0.034733001703989623
0
-8.0672226163324176e-06
0.0017862534692264234
-0.00017542983838063925
-0.029491857752356024
-0.04011530822715359
2.0634224313151036e-06
-0.055136362263580603
-6.6684089061806878e-08
0.0033408716998044245
0.12138784433189012
-0.042266087764483436
0.010982870466020997
0.001409089119349227
2.7102486337805391e-08
0
0.33290695000573883
1.3604468025594389e-05
-0.0072690013488507926
-0.00078903850935717367
-0.00087791309593056332
-1.8959944203848458e-05
-0.019548435777402694
0.010287483042989381
-0.017307489494215653
0
6.0645128804813911e-06
-9.7028219398833458e-06
0.025889579199117205
0.0050748850229451279
0.026793159309673815
-0.039926796244635319
6.866217381875659e-05
0.00034665531130124609
0.0076375974965752578
0.0052025949952305417
-0.042998386850173591
0.012588443839321161
2.1581219455826486e-05
0.00045382192258831085
-0.10200172498971627
-0.0072610134135576224
0
0
-2.5379454231096077e-11
0
0
0
0.070294693996353297
-0.051402772027776419
5.2012152048168438e-06
0.0012801876776572113
0.064758869464842356
0
0
0.0021400791484932897
0.00019613812195116856
0.00012990055995454897
0
0.019898148341275755
0.012850186004720581
0.092826248116016558
0
0.005492339681424833
-0.0022862621556639894
-0.0031465457689378563
0
-0.0093777143773899098
0.0040170407419473069
0.011561540878956495
0.019948067829873371
0
0
-0.026849499483379276
-1.9332621840618535e-05
0
0.057208396319857462
0.030828051277989928
0
0.002477217549428591
-1.6710830232787354e-07
-3.0141920758734192e-05
-0.015216728516874089
-0.024345251578043438
0
0
0.064294933817929528
-0.0013195567022825441
-0.015804876522717563
-0.017871807542583981
-0.0097330019361068238
-0.0011987456550463474
4.9822520317533354e-05
0.00048347118661789222
0.0057858719826254668
-0.081182671657465788
0.11661495291486473
0.0031248024322323943
-0.063695848029901497
0.0024076630192157431
0.14611482616863575
0.0057680604761156887
-0.039998614654267337
-0.0001901010489372831
8.6904706379542173e-05
0
-0.017442874102621228
4.9722906772928699e-06
0.0018754143212693112
0.074186603976907226
-0.012450458161999314
0
-0.00023703029846672708
-0.00076726714595824774
-0.00031178928981584952
-0.014340476715986081
-0.00093411646072443454
-0.014000973568971028
-0.038743953932533368
0.00048691533461056775
-0.00070310435870723793
0
0.00061459376730311013
-0.0054271907913464694
0.0065536921603208797
0.18542657517023564
0.0049372802259407805
0.024938508700929167
0.00086834017833514168
0
-0.034468496672607513
0.0024198726838508865
-0.11711473269882464
-0.00071047377187750135
-0.00065275477083516975
0.036304175150090524
-7.8601690116502876e-06
-0.13257610343542056
0
-0.0037508374402324351
0.0049463876033284931
0.0040736629631742301
-0.018715131540891942
0
-0.0018244596672083696
-0.027242384859698734
-0.019671023171379132
-0.034139209987977905
-0.051332040817298738
-0.0098118596056627049
-0.029845318260909817
0.0030862054170975924
9.8159659010727641e-05
-0.0013821471513133974
-0.22113695004855372
-0.013447605210192785
2.5955899209106838e-05
-0.0088100252494654318
-4.1055374568043332e-10
0
0.0034614395665545942
0.0077224989215657633
0
0
0
0
0.0032369786483039211
0.00049264551538301957
0
0
-5.8800279922703777e-05
0
0
0
0
0
-1.0290883646151179e-05
0
0.0072862430616086977
0.0074434634499403541
0.00010025449124902078
0
1.1736907276051871e-05
0
0.00030869944484074942
0.00081382754416090399
0
0
-3.1167953012372023e-05
0
0
0.0017042073724094361
0
0
-3.6405276364194775e-05
0
0.0010269562855833637
1.8157173530055468e-06
0
1.2484949690668746e-05
1.2156108092044484e-05
0
0
0.0036506711194036414
0
0
-7.5934753761436286e-08
0
0.00043652430813904383
0.021348938377228888
0
0
-8.5320233651524227e-08
0
0.0014511111675214799
0
0
0
2.5664118735483111e-09
0
0
0.0064270546796342939
0
5.038381068587254e-05
-3.774837726289161e-08
0
0
0.00069030721858547072
-1.3038701509787022e-06
0
-2.0773476599361765e-05
0
0
1.6075114857484205e-05
5.4044325464033634e-06
0
-9.9607146447772983e-08
0
0.00024345638668842875
0
7.5614986854626447e-08
1.7298484721955689e-06
0
0
0
7.7687369024650542e-06
0
0
1.4949302644320091e-10
0
0
-4.2067848435720719e-06
0
0
-5.4435636680526028e-09
0
0
0
0
0
-8.6554868430646661e-06
0
0
0.0021634270312395568
0
5.6844777291460479e-07
-6.2527673410383579e-08
0
-0.0005345013076437778
0.00022100602647224257
0
0
0
0
0
0
0
0
0
0
-0.00019077712335046932
0
0
0
0
0
0
0.00088248558740542206
0
0
-1.2039973278228016e-07
0
0
0
0
0
1.4179451019127278e-08
0
0
0
0
0
0
0
0
0.00044302965014089506
0
0
0
0
0
0.0015871071847979631
0
0
0
0
0
0
0
3.7836046753945113e-06
0
0
0
0.00016256080485722217
6.053102806309322e-06
0
-1.0203777896431182e-06
0
-6.3156405089295733e-07
7.7879777847922304e-06
0
0
-1.6168156507946884e-06
0
-0.00022007598855053681
0
0
-1.2887256938546618e-05
2.0518277201153644e-07
0.00028112629529050156
-0.050715799998346349
0.0080684337612258791
0.0068486595696841115
0.0095525903878659127
0.00010105598609548547
0
0.01998810977588943
0.14225403115098201
0.0044977004999065756
0
-2.3479571830978796e-08
0
0.094912491856805115
7.3773751208379471e-06
0
0.0037756791832346116
0.025688679451832598
0
0
-0.096415190594578148
-0.019651538962224185
0
-3.3002169157359244e-08
0
0
-0.0072752952928498921
-3.0560186877617743e-05
0.0007061428535642322
-1.0631099154498799e-08
-3.9946268987008581e-07
-0.087111770146515721
0.00071261239152229424
-0.0034902269525068992
-0.011850210248635204
1.4483236897957965e-11
0.00021470046467913763
-0.003001914578282013
-0.0086260160149113207
0.001158057160846752
0.024008350252286606
-2.926019690837898e-05
-1.6886807626247021e-05
0
-0.0031660722877099091
-0.0012831675990362312
-0.030785599211330082
-0.0020617942129844452
0
-0.0086266581747121585
0
-0.00035271922418101954
-1.1900096324513014e-05
2.9253143233172826e-06
0
0.050043028534822509
0.00099159973401542864
-0.0060816203445059874
-0.00034092711340596429
-0.0014927352055399761
-0.0010258003096508333
-0.025284354930174724
-0.0086883095064729278
0.0074369334914944187
0.004224524515653639
-0.0019447295895393013
-5.9912135225757165e-06
0.0025814666333551705
0.020428045552901827
-0.0044275299106845273
-9.4972041264030195e-05
-0.00075413739237229589
-0.00057597016327052945
-1.7830453768564341e-06
0.00054230599559159244
-0.0025866919710698416
0.00029304166268632814
0.00062985902175615057
0
-0.0001048214712353728
0.072167841750433184
0.00092637460575564334
0.0055258383926582071
7.3512563801209993e-09
-5.6320614703731638e-05
0.011379791611768924
-0.0061431314175451352
0
0.0049398165133888762
-0.071320053105201592
0
-0.0010871803906555486
-0.018656094469352735
0.028461086924124999
-0.0027590908902560764
-0.0043810164089080365
0
0
-0.030864544072489092
0
-0.0075379880451565085
7.4708321133256736e-05
0
2.6815528829072157e-05
0.037720927112317039
-0.036460456864398388
-0.005547533822466675
0.00023106930014269773
0
-0.0040173150011454783
0.0089226712425514408
0
0.0008958491623957506
-0.00027900494573882722
9.0957345194334627e-06
5.1838427750815956e-06
0.064200743595249479
0
0
1.1776052627741928e-07
0
-0.00025078434276082872
-0.0088499701910792188
0.0086782149130713131
-0.0013017370675355519
0.0021180914551670962
0
-0.22174543025932056
-0.00039097240199385835
0
0.00036979506912887257
-0.00013668736361637028
0
-0.02990801768140065
-0.2875292008683612
-0.029084560738520268
0.029424900545371033
4.3289595795976632e-11
6.9900744343190348e-07
0.0026451425386313605
0
0
-0.0011097810396782893
-0.00082101316990058567
0
0.0024339947082241149
-0.0017753521141216427
-8.1999995045800231e-05
-0.00028704020745068539
-0.00011779345468230094
0
-0.0019688903183450266
0.08183853978958737
0
0
0.041902519567304335
0
0.00290027235577514
0.015006930231208809
0.0046928123940008946
0
0.00011353501746927175
-5.2833536248298073e-06
0.17328917825724233
-0.00036336047951190573
0.0011291604191301511
0.028915718679828135
1.4305603200752629e-08
0
0.016696378121386239
0.22044433967172641
0.0072319338358074019
0.021612078290563219
-5.392480974177667e-09
0
0
0.00013579185897607052
0
-1.0644628015729676e-05
-0.00054926580791801239
0
0.0027332411254758905
0.028563918140068693
0
-6.941535880326501e-07
0.00049716506391795561
0.0003702831728296306
0.026233721740933327
-0.012076224756008407
-8.9755115584591226e-07
0
-9.3216247909034082e-07
0
-0.040569080139672836
-0.084826250068735315
0.0041514169423775976
-1.1794241833776138e-05
-4.5660293699846656e-07
0
0.018563676379656585
-7.2890328675301731e-06
-0.0052325295817022771
-0.0015533403803395284
0.00099034783886476686
1.3808061537734717e-05
0.0015367711993409991
-0.0057703835992775629
0
0
-1.1344787498630894e-05
1.6257387285632506e-05
-0.00876789374475552
-0.005275767462717568
0
-0.019464918904337474
7.445199374625756e-05
1.766714843173e-05
-0.017864678741572586
0
0.037944931675190391
0.0044300241244840475
7.4557216452882552e-05
0
0.065755524877539481
-0.061358005050036045
0
0
-1.3747422783938949e-11
0
-0.09347269738370767
0
0
0
5.6634524958209776e-06
5.6060923976799567e-05
0.064758869464842356
0
0
0.0021201533690826057
-0.0026125772956592072
-1.8253278516266896e-05
0
-0.013295999607992843
-0.024907871594944925
0
0
-0.00056456506888091632
0.030895566372817564
0.003887329083755641
0
-0.0014545874378163232
0.00063277295454106574
0
0.0058818643579165797
0
0
0
-3.2956838646059202e-05
0
-0.072593514893051103
-0.021624541005285738
0
-0.0010840780396034894
-6.9861182285479317e-08
-2.0863970817983675e-05
-0.0056679461949749946
-0.013324119195772158
0
0
0
0
-0.0043312109577308029
0.022245810540150249
0.0063643116618677274
0.0013246751208643409
-0.0001520036972407777
-2.4561305198302114e-05
0.011624482606080198
0.081182671657465788
0
0.0029627420661755815
-0.042604452405061249
-7.1067018610245571e-06
0.073470156479893189
0.0022416462831445845
-0.015353012352137891
-0.00068233451643658777
0.00010586682702591384
0
-0.029702530415883832
-0.00033639585516899987
0.0012647940524296746
-0.0016474297611935146
-0.021802968306258646
0
-0.00023703029846672708
-0.0013696710033551992
0.0001792515450824146
0.011507240753453496
-0.0017414045967305469
-6.4600480231853983e-05
0.0056567145605430792
-0.0006526282704628504
0.00058240512263496905
0
0.00084534071574250246
0
-0.011725465867594256
-0.1233136168102294
0.0013604657897570982
-0.012158518158608939
-0.0074911622800205224
0
-0.11496423255245933
-0.0052608846535302329
-0.01584275346538299
-0.0040346532213030783
-0.00012380440349499464
0
2.4034450027105858e-06
0.046317602576041166
0
0.0043598364435364937
-0.0019477886586438593
0
0.0017938077011767114
0
-0.00055498872159897151
-0.0014620096037234655
0.019518597694858059
0
-0.0088070633636191751
0.0063834035575821568
0.017082071021314895
0.0022156639962322947
-6.0489132035193119e-05
0.00050744273350466552
0.017844078273892283
0.0075353753480927113
-1.9490994199961196e-05
-0.011031042593741462
8.2508532970207722e-10
0
-0.001675820038128197
0.0016458031468921254
0
0
-0.00016349300476172881
0
0.0009691010064952002
0.0001889002027368265
0
0
0.00019800361147289755
0
0
0
0
-0.0036442049131904016
4.3749231874208141e-07
0
0.014145777856424829
0.006754094522348303
-0.00012338359533401065
0
-1.4097161864201476e-05
0
-9.1759682017095428e-05
-0.00053431581219463354
0
0.0017732192384204328
-2.35548738095209e-05
0
0
-5.0410042096977278e-05
0
0
3.6413994188812017e-05
0
-0.00044340122995827335
-3.67766421073053e-07
0
0.00026229110590573378
-1.1617032579281308e-05
0
0
0.00082680503770747571
0
0
-3.4581138457640911e-08
0
-0.0023180512611729008
-0.00041881676042972334
0
0
1.0823265491462297e-09
0
-0.0014911361764002448
0
0
0
1.4474892727549043e-08
0
0
-0.0021006013789994782
-0.00027632823819174416
1.3926321331269944e-06
7.6161308103186105e-09
0
0
0.00112181487248066
-4.9448358200922228e-06
0
1.4108313582793517e-05
0
0
2.3161491722930922e-05
0.00024007186890191958
0
-1.3169228425334351e-07
0
-0.0001080842853867141
0
-9.0824604134197566e-07
-7.9958224284970015e-07
0
0
-0.00081318948958408049
1.1913493638113584e-06
0
0
-1.3831240621492003e-09
0
-0.0060388943083776962
-8.5717473809517058e-06
0
0
-2.0456517301151554e-08
0
0
0
0
0
-4.7845132290560805e-06
0
0
-0.0079622521864747067
0.00018733427405933056
-1.9366012198220375e-06
-1.2585014186870536e-07
0
-0.0014228335088369698
0.00059400595045323336
0
0
-0.00034293921179680959
0
0.0015855455245993625
0
0
0
0
0
-0.0010768848109162761
0
0.00050760690292889579
-0.00065373563163118064
-0.00049458717533911616
0
0
0.0011990488621019387
0
0
3.5907571182856713e-06
0
0
0
-0.00012140967024117047
0
1.081519553713195e-08
0
-0.00036476095818240207
0
0
0
7.3937311373384725e-05
0
0
0.00039477068317036204
0
0
-0.0014942235254508244
0
-0.00063299462106461857
0.0021062996270970295
0
0
0
0
0
0
-4.4389219468563248e-05
-4.6288634956308025e-06
0.00014644470136110957
0
0
0.00046831339186013477
-6.053102806309322e-06
0
0.00019294266588184644
0
-1.2425551282292487e-06
-1.389016687522077e-05
0
0
1.8263388580909666e-06
0
0.00062978692456260575
0
0
-3.1277522072570892e-06
1.630659566027719e-07
0.0015024122804007352
0.085468329372168472
0.010496730363589227
-0.015088730371255063
0.011891063499543022
0.00065589477204760474
0
0.028349895914363217
0.22724353380650608
0.00051638184262132319
0
3.343349989318847e-08
0.02935996708253661
-0.12408238112971004
-6.3383185173808625e-06
0.33029117755833504
0.01664036475607519
-0.021837562927314258
-0.00035611378082157333
0
0.056620104492328897
-0.024467175821334682
0.15811078940088233
-3.3839868793435523e-08
0
0
0.010631770944724492
-3.382170963612154e-05
-0.088729630872337484
1.0247246291486128e-08
1.6469778832696199e-06
0.14802117494417624
0.00070911871125591366
0.0037925991705625608
0.024471335095558027
1.1289037908604909e-11
-0.0023193211005529861
-0.0076354743265007905
-0.015252816683777322
0.0016118766135067109
0.082395566464730688
-1.97282925180614e-05
-4.1782362585136287e-05
0
-7.6450871633594771e-05
0.0010072199630986249
0.070825473542097339
0.0069890832251216653
-0.022056878816275067
0.0087133799874703297
0.18450398387315617
0.092380018848202988
8.5385971373207466e-05
4.0995183652136792e-07
0.0053142573437044652
0.067779853011571189
-0.00046633909125244844
-0.036623192181831223
-0.00029340651392768206
-0.0015166988887200851
-0.014856669532227838
-0.032017722850687554
-0.0068923233692411478
-0.0070991102983715736
0.0028584286435453313
-0.0032318446572321986
-0.00020781758502052151
-0.11385460997907784
-0.37523365331206104
-0.012385808806740502
-0.0043306681885629545
-0.00093920865631841907
0.00072825279056296837
0.00011468074579566545
0.003212120205116329
0.0015027355548409909
-0.0032907248607423568
-0.022326721526282806
0.040918697769232487
0.00061238282172282289
0.032388401253493043
-0.00081571309685284424
-0.0062137942044622552
6.662227479815245e-08
-4.1371165785543673e-05
-0.013769513381193858
-0.0077924170658661591
-0.12831104814848726
-0.12633649802701344
0.019898462092003914
-0.046343615829161508
-0.0001585599270277663
-0.0030683777609262276
0.013753322771188976
-0.0026474223322255118
-0.0039459073621825064
0.00079740125538579312
0
-0.043194145704908767
-0.1808393180711447
-0.22578483070140362
-0.0001676962862703425
0.0053745024066550844
5.5744803200815976e-06
0.01047381454769292
-0.0042642914785573759
-0.0044798188965170602
-0.00025349913493127624
0.042004586099824645
0.07430317453283726
0.20627650150972304
0
-0.0038474794090831042
-0.00027900494573882722
0.00046163899832328396
1.7514760984879117e-05
0.010300223248673787
-0.6827104162581551
-0.057501658745374426
3.1082272403148297e-08
0.00097633073361924161
-0.0012290009149528455
-0.016598867018681993
-0.016482685165123748
0.0019906293258451805
0.0032725118961206001
-0.038022452174680373
0
5.5027589881942785e-05
0.24688052842785485
0.0072653046640003783
7.7296003166139429e-05
-0.01456520822911026
-0.052774305952575346
-0.13269910824605818
-0.10634051808037956
0.06880301193198847
-2.8066738600820113e-12
1.5344382096894585e-05
0.0044767566697888218
0
0.50191915601850057
4.320763186878632e-05
0.0027866885653474688
0.010853239379086332
0.0064146917523218334
0.0023933601994004018
-0.0011004634170751462
-0.00033727424633359283
0.00025456867472829141
0
-0.0001666848774072748
-0.12107182910620909
0.2380624654835955
0.17643983601629043
0.10813183537175092
-0.032693972375100473
-0.0033801806502890106
-0.042688009489573402
-0.010820122385496922
0
-0.0001007232946972189
-0.00011850103118270196
-0.12653493210936012
0.021962183933248756
0.016365235117486422
0.045421873953677118
8.2655756777719312e-09
0.22094759246996873
0.021565202179899445
-0.171534445305592
0.0061421031659603682
-0.05717886615315336
-3.0108979024446254e-09
0.0034179842128246561
0.15837579271162697
-0.002029512164155979
0.17508743938148313
-1.335030376506553e-05
0.00095011998027672018
-0.01326320895955066
0.0029802527757157526
0.023978452385509757
-0.40332500970052115
9.6977349446532522e-06
-0.002568645901962019
-0.0018662247854344157
-0.014555522892196325
-0.02092045703113626
-2.7053940131635738e-05
0.055136362263580603
-5.2695692481577745e-07
0.001223700922691599
0.0053542230482962125
0.17074402163981797
-0.029043187265929634
-0.0022992257515229032
4.9964831278774982e-07
0
-0.11908289756574221
-2.0601837877219959e-05
0.040506928779744343
0.0015277382546981461
-0.00016541668784608423
-4.8006138204297088e-05
-0.033227066432083695
-0.017274676523892904
0.13180901904918868
0
-1.0545019844010973e-05
1.7627901730856236e-05
0.029888125858684281
-0.046258298674933238
0.0709032143210344
-0.032373314298791735
0.00013647585744778522
0.00041408134681436917
0.022092355798235295
0.0052025949952305417
0.020293469319396722
0.01449753534682593
-9.4759967522715054e-05
0.00023875855928430978
0.17482099735533393
0.18423577174473688
-0.25955732864498893
-0.15912348722271108
-1.3538277423595072e-11
-0.02038562243696462
-0.033113764777405276
0
0.088622761284646301
0.051402772027776419
5.6494587403444456e-06
-0.00075500639803366908
-0.11348496259474691
0
-0.19082545190311706
-0.0066108228652692128
0.0025487457671788871
-2.8563795500775703e-05
-0.17454591640456896
-0.022503987923895664
0.060144992421567837
-0.10091867282930651
-0.058581007326416988
-0.00084089347180618277
0.021931458867133338
0.00044996797475934459
0.014181864850244655
0.0080982585195877223
0.0017086425643215149
-0.014378528994427729
0.0066103629284236928
0
-0.29632746924773412
-0.086335861698009761
1.555812464240223e-05
-0.029476688331515413
-0.090103214696796233
-0.047785886698797256
0
0.0043629400724811349
-1.6710830232787354e-07
3.7970986968946902e-05
0.0064379044282905171
0.012509896035036213
-0.19472572178697078
0
0.19305418848736328
0.0023046032364595829
0.016045561951662547
0.020638987330223103
0.0183215003683159
0.00016198355995284184
0.00015092266896557743
-0.00035530795961855765
0.019334250725065043
0.1700115706066942
-0.1533878186508551
-0.0070321738288398787
-0.088144694913575197
0.0036779022060705719
0.073470156479893189
-5.2408775487388379e-05
0.00085895927796564384
0.00097928429923234482
0.00010586682702591384
-0.030647986631419155
0.026003111017213264
-0.0021250038224556087
-0.00015271107284140127
0.10178125993451799
0.031775349699347817
0
-0.00023703029846672708
-0.0013696710033551992
0.0002833014730575066
-0.0019399115799355281
-0.00075094951149971075
-0.0032058617544501152
0.041354964538299205
-0.00038132000291882121
-0.0016460757344386664
0.13683224543094513
-8.16496078311904e-05
-0.0018431909403292326
-0.005851886917920459
-0.2640549280942644
0.003513325812747734
-0.093715674482755459
0.0011194272167912868
0
0.061114211780851704
0.0025557872812170305
-0.007553780970565264
-0.0031931468717312098
0.00068445995611445367
0.036304175150090524
-5.8615558047951176e-06
0.066951365875059066
0
0.0077721443893392682
-0.010822945240201151
-0.010641698661813033
-0.018597647092585698
-0.15360039910112297
-0.007525394530594802
-0.019718037511822339
-0.02766798100620823
-0.034139209987977905
-0.011835887482969952
0.0010651023554258251
0.075823661437084189
0.0011852532056742318
3.0598355723280788e-05
0.0018895898848180631
-0.053832770186316409
-0.0037569791992591679
-5.7433132436409308e-06
-0.11498387737119797
1.4814102623356324e-09
0
0.0010422786515485243
-0.0066907794160056622
0
0.001736237839595732
0.00079795185912998751
0
0.00012740678501683072
-0.00071202089912620183
0
0
5.4011828319572697e-05
0
0
0
0
-0.00032193252709391195
-7.5739541117704365e-06
0
0.0072862430616086977
-0.001963579007138198
0.00021655417996235661
0
2.6603773269649477e-05
0
0.00026430264991326985
-1.3273112724696581e-05
0
0
-4.3750552079630946e-05
0
0
-0.00087605130661783939
0
0
-6.649956697576827e-05
0
0.00015824693639768253
-6.4085811001794604e-07
0
-0.00085655601363269042
-2.2066852571996984e-05
0
0
-0.00063061668215879979
0
0
1.1337614701521781e-08
0
-0.0019713222046778946
-0.021120567416975398
0
0
1.0491613700973456e-08
0
0.0040545015899321512
0
0
0
-1.6972664971873283e-08
0
0
0.0034106709471833745
0.00035425584565146627
0.00015397452088329814
-8.7806306661147832e-08
0
0
-0.00061698854920815688
5.6647835947214548e-05
0
-5.9135182598504251e-05
0
0
-1.4360263572345262e-05
-0.00015663204755703085
0
7.5899161385251349e-08
0
-8.6077921067928209e-05
0
-2.3973418057549904e-06
2.1394190206790826e-07
0
0
0.00081318948958408049
-2.8871056333937145e-07
0
-4.4796594219165473e-05
6.3866168481023081e-10
0
0
0.00061390817016618792
0
0
2.1023497374851971e-08
0
0
0
0
0
5.2279938438745179e-06
0
0
0.0021634270312395568
-0.00016808801322060063
1.5835021124943655e-06
-4.8208381602252916e-08
0
-0.00056731292063870009
-0.00021752681215203682
0
0
-0.00029313337074623531
0
0
0
0
0
0
0
-0.0036019280019255213
0
0
9.2816443572609497e-05
-0.00025616990893730757
0
0
-0.00032602402024804923
0
0
9.6743923938378891e-07
0
0
0
0
0
-1.7719322837417467e-08
0
-0.00060647231142440974
0
0
0
4.9380647888388919e-05
0
0
0.00079851635102219242
0
0
0
0
0.00064660247050238946
0.0014552775894053258
0
0
0
0
0
0
-2.0404238698827888e-05
-5.0189024462580157e-06
-2.8720602223851004e-05
0
0
1.4234468056225654e-05
1.8009529237687891e-05
0
-2.7126150204726594e-05
0
-2.7572245060497881e-07
-1.5825207501007687e-05
0
0
-5.7038667512939229e-06
0
-0.00075146276697293812
0
0
-2.7785523081683117e-05
1.9912439066569644e-07
-0.00080107009571751592
-0.0055936429119253436
0.0074421402380978417
0.017665354729518228
0.010664287591127961
-0.0011989572910146133
0
-0.003940172647535543
-0.02673039354101641
-0.0046207226773532202
-0.081243692273672632
-6.9104182219067598e-09
-0.01180738018322277
-0.1056802772448695
-6.9713725194278285e-06
0.036985212561843846
-0.0059306467775754211
0.012480934587704873
-0.01133567550293851
0
-0.0784188274226989
-0.033923832723294307
0
-2.1757663175220174e-08
0
0
0.013106882609442413
-1.1699337577468857e-05
-0.03309656459576038
-1.2464792281180276e-08
4.3983266357152929e-05
0.2092975826652971
0.058943404907387004
-0.0072878804449491089
-0.040774484704402501
-1.349735596341821e-11
-0.00078771536218663802
-0.008195259005892944
-0.01638713249316167
-0.00030594298776006977
0.063218484643002629
-6.9450451784443516e-06
0.00010717503466520822
0
0.001591782686213055
0.00078212271213167839
-0.011645842869623732
0.0056194643174004195
0.0071005535439236621
-0.0083425610782142338
-0.38296657506287701
-0.016395569361258314
-6.8071896077302058e-06
-1.2139756438989494e-05
0.0034224273773177556
-0.074247104019851989
0.0021690055280364747
0.022140164350308602
0.00015176575364328105
-0.0021511214229463661
-0.003054344887449015
-0.023466745329927589
-0.016532631869794891
-0.013003638812098279
-0.001848039807316927
0.00091177238714017933
0.00049960595335806943
0.0358906301671129
0.20686194902861268
-0.0014182095908203164
-0.0030506722650458762
0.0019709388505997367
0.00037786835694524035
1.9868571625035738e-05
0.00070173524668281544
-0.00095986862799796375
0.0011281125915592208
0.027464627073204989
0
0.00049483227962114499
0.072167841750433184
0.00068353084737057281
-0.0037783715550138586
1.7995531069590216e-07
2.1744025023297552e-05
0.018698985921207372
-0.019830170013639542
0.073198601804202901
-0.019399556639820618
0.12167099734758892
0
0.00024411246684418906
0.025490316563439815
0.028461086924124999
0.0019001416677284419
-0.0035344182552730558
-0.00036410638233329599
0
-0.045192891948095455
0.050499282049792898
0.049753436396110379
-0.00020328053791803809
0
4.5916437350692155e-06
0.017733392603225907
-0.092169431605847549
-0.025353759007844104
-0.0029153042327037912
0
-0.013687353372230045
0.017908553710984855
0
-0.0043072841564369656
-0.00027900494573882722
-0.00086805167279144094
-1.2179642981557909e-06
0.00032182267607496276
0
-0.057501658745374426
2.8288401418033464e-08
0.00097633073361924161
-0.0011540591103810058
-0.0064777202144082162
0.0057549696166182785
-0.0020336755687641161
0.00046357897774306487
0
0
-0.00019151428327430294
0.015364366476002471
0.0048667849171917313
6.9163882247617913e-05
0.0069618054837492626
-0.051946805870474698
0.15217938648254509
0.07961890496379001
-0.0010775245904482405
7.9778354509413365e-11
-7.899467884450859e-06
-0.0050536905486711012
-0.2939640954131274
0
0.0074992896079029833
-0.0023142717970506699
0
0.0068674225395828443
0.0027502372270504145
0.001673329540591036
-0.00025348224146351598
-0.0001921104547133615
0
0.0031106332981182126
0.14704640240551925
-0.11307611990112691
0
0.041902519567304335
0
0.00072270368604978479
0.026266582751408515
-0.0089777142115991838
0
3.8383517670919404e-05
8.973808662409337e-05
0
0.0012364232788488361
-0.00080082848974445718
0.0046514880863808873
-9.5810538419611607e-09
0
0.0041735211751623459
-0.029485277801742212
-0.030871123202053142
-0.021612078290563219
-5.4622093717741012e-09
-0.0085385878775766609
0
-0.0059042280991538189
-0.054714475472582486
-1.9130616708826328e-05
0.0023343313715106849
0.0022296536466542612
-0.0010722468775314815
0.012150442734437555
0
7.6367851846049695e-06
0.0022352292425397132
0.00010889539190373596
-0.030489219123673809
-0.052676855933746491
1.9257993283212719e-08
0
-5.8314090428293718e-07
0.0021598371503474662
0.017607428545688312
0.10547363231809589
0.01083085514089299
-0.001991888608966695
-2.581494850243342e-07
0
0.10051922118608562
4.2185115485458832e-05
-0.029355084975199293
-0.00066856928474253385
0.00024042140436963776
3.9229171838764341e-05
0.015401944320896976
0.0082015475301207355
0.076115085659878234
0
7.3367660050274888e-06
9.2470348309312342e-05
0.063449670099648192
0.109438757891703
0.009404624213078739
0.0021482628643204934
0.00012160421493864056
0.00081654232155131624
-0.048652021206300931
-0.24676987028904154
-0.027027963612334019
-0.0081561905808704167
-5.0322175878808828e-05
0.0037858139618371597
6.0474279937567516e-05
0.13013878010825844
0.070711861401106274
0
-1.4260019483290759e-11
0
-0.15383162999001007
-0.12498735288559955
-0.10427525941688215
-0.051402772027776419
1.9072421379359458e-05
0.00010565939505280057
0.02895531636014332
0
0
0.0065908970858585287
0.0081795958751606657
0.0001630733879006878
0
0.0084803304406086619
-0.021050008309809114
0.063423860195808188
0
0.003787708356863376
0.075163517023003862
0.0056399389304498497
0.047485121248633494
0.0054975276732591952
0.0044409609256436146
0
-0.0026219641719027954
0.20346771215940815
0
0.064125390819114378
7.4859627361332869e-06
-0.0066067529640088159
0.025114894009924581
0.0018798958018119514
0
0.0015558604847577245
-1.4527124920532254e-07
1.5826787462674146e-05
0.0033582192752005901
0.013673855290924079
0
0
0.1360299258180582
-0.0032619018170520751
-0.023000688704505404
-0.004207022077877794
-0.026014509164145556
-0.001018338130515155
2.7248209737468049e-05
-6.1801922995031018e-05
0.00014603131799489943
0.059196927893835107
0.0018131246893639719
0.00090797984036716903
-0.060450209387977114
-0.00071690443067908244
-0.088613197766104629
-0.0046341824365104941
-0.018310832462397706
0.00014376573804019985
0.00010586682702591384
0
-0.059328178413112775
-5.6874289200100714e-05
0.0012966341796844234
-0.0027806967932189914
0.0097163549029495935
0
-2.2956608503416765e-05
0.00050526602063673308
-9.2286352133050468e-06
0.014812092160362432
0.00079686082463104502
-0.0020982334026349867
0.055236394464403593
0.00056490762346459919
0.0029116920932920711
-0.069497051866397458
0.001163897431085205
0.0013320061396672608
0.0075289964993342758
-0.055006534158580138
0.0011797099974399548
0.040755059625762986
-0.011091142689775077
0
0.22632578502518524
0.0083764761720243573
-0.018319786311814176
-0.0044559154684547311
0.00013691158223598878
0
3.0447974149006186e-06
0
0
0.00093426778670232472
0.0077912465836465408
0.001736766074103273
0.0012009638433055033
0
0.010327149027927513
-0.0016154223665648993
0.018257489293203762
0
0.041950326707047167
0.013088819597090186
0.033962546963337885
0.00051156773056302814
-8.9621677568383495e-05
-0.00013458503931408039
-0.11988622927630577
-0.0043195978364134538
-2.8101661438161625e-05
-0.011031042593741462
-6.6341445774175578e-10
0
0.00085745513618977942
0.00071542538104286892
0
0
0
0
0.00023811974650209266
0.0042529198199233141
0
0
-0.00018446035125262983
0
0
0
0
0
-2.1758704399708249e-06
0
0
0.011915103387273102
1.0544593447727326e-05
0
-4.8743684890288557e-05
0
1.418872444196494e-05
-0.00074777638168811017
0
0
-3.1167953012372023e-05
0
0
-0.0011253793505279185
0
0
-1.2507928950039342e-05
0
-0.00021405948888902849
-1.0996645189137966e-06
0
0
-2.8013500486162402e-06
0
0
-0.0013412183384399231
0
0
-1.026732304638272e-07
0
0.0020377073099741754
-0.00085505587093687651
0
0
-1.124939510871007e-07
0
-0.0005615242686419161
0
0
0
-1.4453531528706034e-08
0
0
-0.0034106709471833745
0
-4.2469002522791671e-05
-4.5342944431538067e-08
0
0
-0.0020229670544837743
2.5264920677835003e-05
0
1.1327954307805174e-05
0
0
-4.6747339399979744e-05
-1.5335805951779867e-05
0
-5.742332250023608e-08
0
-7.3763015856067414e-05
0
-5.2830958276786272e-06
-2.3176320765906246e-06
0
0
0
-8.1366424022745382e-06
0
0
-3.4514801234200497e-10
0
0
-0.00099584551357161143
0
0
-2.3507185493662851e-08
0
0
0
0
0
-7.653433208334332e-06
0
0.0039758292955976438
0
0
-6.3707791201724793e-06
-1.9371582974339373e-07
0
-0.0014871824974289534
-0.0015186886397397146
0
0
0
0
-0.0015855455245993625
0
0
0
0
0
-0.00059005162986659353
0
0
0
0
0
0
-0.00033001105495856592
0
0
-3.8882521874951348e-06
0
0
0
0
0
-4.2505200393382284e-08
0
0
0
0
0
-4.9380647888388912e-05
0
0
-0.00060707531525717605
0
0
0
0
0
0
0
0
0
0
0
0
-1.4842311616607126e-05
-1.2618997198803326e-05
0
0
0
-0.00042707588336511973
-6.053102806309322e-06
0
9.6690117780058168e-06
0
4.0540249306181531e-07
-3.1036121712752126e-05
0
0
-5.1881007574697344e-06
0
-0.0002107466860197744
0
0
-1.6516756493763976e-05
1.1684414727785817e-07
-0.00018302336784828104
-0.010307412692131875
-0.013446942620176781
-0.0054977471751980287
-0.0020059576038510942
-0.0010722365726597478
0
0.019706176751322399
0
-0.0077730070624812703
0
5.1825991425800131e-08
0
0.055337593626400602
1.0242634337487885e-05
0
0.006144649762903044
-0.017552566999010207
0
0
0.018653280923585418
0
0
-3.7565076190431806e-10
0
0
0.012385814478654059
-3.2520578431060279e-05
-0.006701358589284858
9.7896791157152047e-09
2.7863363127841951e-05
-0.088008744839074657
-0.017146737364241219
-0.00042636340918563765
-0.0031438469187076322
-1.0469128394583238e-11
-0.00021470046467913763
0.006944813625407064
0.016915742887256918
0.001554521265343792
0
-3.6650819484360358e-05
-5.4871956752999746e-05
0
0.0011650693032243219
-0.001482810152547938
-0.011645842869623732
0.0047562650142078137
0
-0.0065494323229748049
0
-0.0056420289300004025
-3.8203786863707428e-07
4.4708150710017728e-05
0
0
-0.0022083236836918886
0.0038362189919084544
0.00045817516541796016
0.00012869209277573332
0
-0.042470187058985684
-0.0171432488736975
-0.0011288320564187806
0.0010555686523694365
0.0011684471411278583
-2.2012212002305412e-05
0.011966129699519532
-0.025499359715852356
0.0034824505423261959
0.0051882877754531043
0.0010261282921945854
0.0005016068867743661
-6.6357143606137143e-05
-0.002165592945417274
-0.0013344215615952756
0.0020101299824206303
-0.0015693673763048179
0
0.00011434565596857316
0.12694767430858134
0.00092975597367033857
0.0024932667896835066
1.4347176651448027e-07
-2.2345953065686918e-05
0.0004241055090141695
-0.015007645832876474
0
0
0.0017972822627789471
0
0.00015631827873133772
-0.0028560933721465979
0.028461086924124999
-0.0015166118874834901
-0.0019334020421751755
0
0
-0.0046743202203553859
0
0
-2.6193660527624917e-05
0
2.712882876159679e-05
0.0014535906952847727
0
0.00038066532573467369
-8.6485178945927273e-05
0
0.048260658168009264
0.0081622162218367451
0
9.2262089839921193e-05
-6.2387124575860299e-05
5.9245025565691301e-05
-6.4831346297488321e-06
-0.07292881730254358
0
0
-9.5954456999273196e-08
0
-0.00059747377526787892
0.00018946246221896996
0.0019063703007025192
0.00073889333565829718
-0.0025524100806085664
0
0
-0.0002895982716894882
0
-0.0053460074473828901
-0.00015291611459337443
0
-0.0028912462104817406
0.0014347101633990847
0
0.001273033933411199
3.3056533600104576e-11
-1.1708132734956819e-05
-0.0082746398679262329
0
0
-0.0019124785070777103
-0.0028892298521852747
0
-0.00095522593610574964
-0.0017711582034323204
-0.00016416932681738555
-1.3350110376225882e-05
6.7727463298368701e-05
0
0.003123263288843527
-0.014616645822877857
0
0
0
0
-0.00039876852198657303
-0.01685280201964803
0.0007740032483071202
0
-2.2823104544438964e-05
5.5939453572886106e-05
0
-0.0084748718989707938
-0.0071817638672032709
0.0038194195458799581
-5.9587790650421104e-09
0
-0.029047052912244197
-0.022307543718921474
-0.0048315185019716742
0
-5.4622093717741012e-09
0
0
-0.00085344294494486416
-0.019922759646291328
-7.4657892723232233e-06
0.0017491575116544476
0
0.0029581916757227891
0.018901315014396586
0
1.2437246505434193e-05
-0.0018565814608534638
0
0.039886090951089102
0.014475983836148098
-9.3749742345358402e-06
0
-1.1554519974098609e-07
0
0.017607428545688312
0.020156457140417833
-0.0041846106596964538
-0.00059779456271660618
4.8037389157313387e-07
0
0
-1.7686076593965623e-05
-0.010704054352209941
0.0015277382546981461
-0.00047438154589039274
-1.3499175310905813e-05
0.0032359140976008943
0.0032103961991702709
0
0
-9.744366577688728e-06
-1.8408429547458825e-05
0.017718185849316379
0.033577892289179137
0
-0.0096636850847853645
0.00013883170298930665
-1.3039888882262326e-06
-0.017609424590095544
-0.0052025949952305417
0.030825579367750298
0.0009018157303764963
1.25390673320168e-05
0
-0.065755524877539481
0
0
0
-1.1240030556959384e-11
0
0.060358932606302394
0
0
0
2.6025724457353679e-07
-5.6060923976799567e-05
0
0
0
0
0.0027098328119553668
-2.0161478140188794e-05
0
-0.023934237965421656
-0.0078931006189315416
0
0
0
0.041769544467656315
0.0041996905000498885
0
0.0050302178635520979
0.0019951921642293912
0
-5.9297474334034763e-05
0
0
0
-9.7313404970372925e-06
0
-0.025487040198608903
-0.0037366349456798395
0
-0.00097761822747058076
-2.8918290891250202e-08
2.6583965980750013e-05
-0.010790425009916367
-0.0089744657193893875
0
0
0
0
-0.0008638454390284074
-0.011295450814309726
0.0078334366135396176
-0.00016519444221156044
9.449877484722275e-05
7.147240119307332e-05
-0.0072239502403242725
-0.081182671657465788
0
0.003519444194937897
0
0
0.015423078996264212
0.00055414473604192545
0.018723900795190953
-0.00082584784401147919
9.2640818329739923e-06
0
-0.011411348516872276
-0.0011677121035054267
-0.0010161693252131729
0
-0.0041441742884355598
0
-0.00019546486776805846
-0.0012041524807545601
-0.00023304837075323139
-0.0086634908563029342
-0.00082164826403129674
-6.4600480231853983e-05
-0.030871552630827626
-0.00034130563122192469
0.0029116920932920711
0
9.1613448786947185e-05
0
-0.00076141238385403747
0.011010358608457442
0.0004594570616102181
0.006896088668245713
-0.0058253465353819657
0
0
-0.0058823772589619121
0
-0.0019146378467162562
9.5940964693594911e-05
0
-6.2482122423713706e-05
0.046317602576041166
0
0.00099258242779924621
-0.0071911619951049548
0
0.0010931553949198691
0
0.0017798332405479669
0.007345457147785556
-0.0019700883740244798
0
0.048991210381297778
0.020950069666159702
-0.0071566486882196417
0.00047150555152617986
-5.5059735663145923e-05
0
0
-0.0049023629500817472
-2.5900546151929853e-05
0
8.5435566779027558e-10
0
-0.0029293698640389591
0.010129839970645411
0
0.0023900476835099042
-4.8581598826186e-05
0
-0.0022022681815786777
-0.004253749813854066
0
0
0.00010273263524264778
0
0
0
0
0.0028933881112848917
1.8507961999623818e-05
0
0.0072862430616086977
-0.0067504222250565548
-0.00012467434890820947
0
0.00024412616966473083
0
-0.00032323624218510147
-9.572945155724089e-05
0
0
7.6211870715776518e-05
0
0
-0.00064567298607200792
0
0
-1.2064310037956088e-05
0
0.00069245341786773346
2.3527340654742832e-07
-0.00091569306976483646
-0.0004696204989501553
4.3701532856899501e-05
0
0.025758734115102482
-0.0010692697003069848
0
0
3.7405793419889238e-09
-5.6417485315346867e-06
-0.003431543406428185
-0.021767755137658613
0
0
-9.6647169058715777e-09
0
-0.002215113819965123
-0.069717896085607342
0
0
-8.5369393613379102e-09
0
0
0.064305479427765225
0.00027632823819174416
-0.00052199252328895285
-4.8180369351786773e-08
0
0
-0.00035812088783747988
6.7371588382682707e-05
0
-1.2461419592536712e-06
0
0
-3.383930674700996e-05
0.00036997802961707417
0
4.1030394097841852e-08
0
-0.00027809482000414873
-0.047357377702527993
2.6096232954955476e-06
-7.5691930310087944e-07
0
0
-0.0079883207139237241
1.6277341844994056e-06
0
0
-9.0116081013937053e-10
0
-0.0060388943083776962
-0.00023290170053970682
0
0
-1.7820887891239466e-08
0
0
0
0.00071408013487765827
0
-1.4604663643916013e-05
0
0
0.0021634270312395568
-3.8084477249220717e-05
-8.6975276742135357e-07
-1.5160565833618017e-07
0
0.00058688438027249912
0.00022100602647224257
0
0
0.00012612876241555764
0
0
0.020541062137488502
0
0
0
0
0.00020970749711435674
0
0
-0.00052401333791697341
-6.3070728972488782e-05
0
0
0.00088248558740542206
0
0
-4.9972839424807132e-06
0
0
0
-0.00014757861002262466
0
-3.4193992436420947e-08
0
-0.0018821732344262905
0
0
0
-6.0863587579944854e-07
0
0
0.00040195887890797619
0
0
0
0
-0.00063299462106461857
0.0015871071847979631
0
0
0
0
0
0
4.5708309673188246e-06
-2.973517060099761e-06
-7.8126391048900791e-06
0
0
0.00015038496943184203
-0.00011919142800445249
0
9.1511482018002754e-05
0
-7.7639532221792449e-07
4.4967253209437641e-06
0
0
2.9966478471296649e-06
0
-0.00013600378896839722
0
0
6.6919547679283111e-05
-3.9188878619824292e-09
-0.0026549832551738175
0.048322967425442558
0.015665959778791649
-0.03410621496758319
0.0034187565152227844
0.0009223966947875873
0.12558090906395072
0.023332409930824975
-0.02673039354101641
0.0061731199549209231
-0.15677823615813016
-5.7878242042762943e-08
0.0003597707535149923
-0.034176981481922344
3.2546844134823258e-07
-0.086084482238496407
-0.010488463704929493
0.055906913739008336
0.0077068772989948272
0
0.0848257953519026
-0.06379075387628938
0.1884754571493128
-2.3840413989814128e-08
-0.025079613063499838
0
-0.00051772095732607599
-3.198172841397654e-05
-0.021364499999362168
-1.6461001499320035e-10
-1.3138056087634274e-06
-0.049888060956233111
-0.014052751074572531
0.0054434765439188241
0.0035674034325872935
2.5018004237216577e-12
-7.6429166321604827e-05
0.0033742622575148418
0.014491163425182869
0.00079108399735397191
-0.055281100202228484
2.5041417349073879e-05
0.00010717503466520822
0
0.003367320787304584
0.0011833463222803778
0.11950294004778209
0.0029554303153090764
0.0039097054277914562
-0.014294558634529095
-0.18450398387315617
0.062446844140219192
6.2383294860971267e-05
4.1613092234164868e-05
0.010311344922666093
0.14037254827717366
0.00058563558387684307
0.015016562281641645
0.00012273310310509754
0.0012770459858429902
-0.0088492324569718877
-0.063360839398880153
-0.016953103337938244
0.013005089400493173
0.0087022747898811703
-0.0016142355847719495
-0.00031461731640731674
-0.044366352355736299
-0.13534235554736823
-0.00027042595483811144
-0.0051883753476355291
-0.00065110073827115813
-0.0020183967424294838
-2.415163179606116e-05
-0.00022125308467854478
-0.0027813261064521567
-0.0017889542890881037
-0.036926231084821889
0.024377677156845308
0.00062859229565104659
0.21962698655057841
0.0011283894781977685
0.014975967197655019
-6.3744322848963767e-08
-4.5244030157255717e-05
-0.034174326833707427
-0.014515783107165543
-0.25603563044087846
-0.093186729825755668
0.014723838822923508
0.01593807546197264
0.00047364651759102666
0.0017909618443325069
-0.070675496619438977
-0.0039774325987135322
-0.0043810164089080365
-0.0061488363577571559
0
0.062757718906625348
-0.12966867467467585
-0.11566821008884018
-0.0002189355248569774
-0.057293259815780699
4.3815356379552794e-05
0.020705303895355742
-0.073298185815617908
-0.027309532698161672
-0.0021304746929699772
-0.04294853524137271
0.048671442836384068
0.018798055894722981
0
-0.003815393868486814
-0.00010225674971596153
0.00020580892133906356
1.736871659436254e-05
0.032933501389528344
0
-0.057501658745374426
3.6105036533276396e-08
0
-0.0022102695481925907
-0.023364284784676337
0.015480588345739213
-0.00053236511899549665
0.0043330488421269983
0
0
-0.00024202254762609247
0.19930873904636756
-0.0049805999491363256
-6.4990157149625316e-05
0.0081621239306824845
-0.027972205823381911
-0.096402244799018086
0.036285103086051047
0.028092522360166135
6.6728934616309595e-11
6.1195675570724103e-07
0.0043523215893919989
0
0
0.0048417710358660271
0.0042026108319550993
0
-0.0065292295653086195
-0.0019342903364961881
0.0013407083558690325
0.00015938272120197142
0.00025456867472829141
0
0.0092812982407757417
0.23413982169016437
0
0.072915664560652682
-0.099727153527418039
0.0038030839470569924
-0.0013508106913664125
-0.018737835539819534
-0.007138180887637304
0
0.00015559740428054851
-0.00025310022431799004
-0.34993884913995765
-0.048729483192740584
-0.013264356046346102
0.038372556875484951
1.5167643794778912e-08
0
-0.039766389116328738
-0.26748111949515274
0.048128435928865627
0.049376478852885083
3.1371615677271133e-09
-0.0062233250470358657
0.15837579271162697
0.0053399200834247703
0.17508743938148313
-6.2895126829898132e-07
-0.0021904519228500819
0.020656047296308603
0.0031610798733842267
0.027007128879044679
0
1.5472482311045517e-06
0.0035918341844571569
0.00097318128118202432
0.077742440752205169
0.055372724328800901
-7.1791008158332277e-06
0.055136362263580603
-9.3216247909034082e-07
0.0029119188877335376
0.040569080139672836
0.062166041745820924
-0.014805615249678588
-0.00027588976114712225
4.7874460723746674e-07
0
0.21960211875182784
2.355289997565447e-05
0.028259479079259603
0.0011259992830474894
0.00011998937801856422
-1.5623601059870461e-05
0.02799462020490464
0.010376973467518362
-0.076115085659878234
0
-1.4707484485989234e-06
9.2470348309312342e-05
0.1443841434699446
0.15921122716117861
0.25641285785828338
0.029128603989122839
-9.1746530578863802e-05
0.0028145126467672382
0.0089979486554766334
0.0052025949952305417
-0.029986142146263377
0.0032978357652201093
3.0875194977184007e-05
0.0048726831109838845
0.049555934041858388
0.13013878010825844
0.070711861401106274
-0.055697742028049432
1.1316493010288234e-12
0.00079563294064801087
-0.15383162999001007
-0.39377530076412393
0.059121697323368638
0.051402772027776419
-1.8392254036737588e-05
-0.0015451989044307373
-0.14115792510410125
0
0
-0.015321873320210349
0.0048555362353750681
-9.7347026023821663e-05
0
-0.035996821302389043
0.0043240443797237802
0.0018017980828703998
-0.10991030782504185
-0.0031429655820512793
-0.016282370514588976
0.00077701935446979086
-0.0071433661963401784
0.0059284452738824194
0.00067265868867937516
0
-0.0060967276133750657
0.20346771215940815
0
0.06897083297505778
1.6966584873893908e-05
-0.0066067529640088159
-0.022525325789477683
-0.036744512456008002
0
-0.0054939945333935388
-1.1976822245293753e-07
9.6871164633118327e-06
0.0049772473377080878
0.017323119244329156
0
0
-0.21298465108803158
0.0026440043869470401
0.0083821674821801494
-0.028062058043125639
-0.013735220578717991
-0.00025331971355966633
0.00020907125061800328
-0.00038348467032904749
-0.0038906405958225986
-0.01137804488842644
-0.19207264142424793
-0.0064426007688923783
-0.023700457507498923
0.0035632921743884295
0.10610236626927338
0.0032494361587854024
0.082547459861452871
0.001257188723472883
9.2850971861770362e-05
0
-0.0077119291182017081
-0.00081809264182264351
0.00042836773606825379
-0.0002204961946076305
0.02192732615028499
0
-6.7249018251764459e-05
-0.00094641344078104123
-0.00010172441520776122
-0.014216086318818568
-0.00098178247079236565
0.0049059690348190977
0.012215215440612858
-0.00045004682543871202
0.00060739626548790776
0
-0.00014640849102316459
6.835517068933748e-05
0.010198947217389924
0.087779419717908452
0.0023401775527083922
0.052960614856992459
0.0099165524130183629
0
0.17607844433331105
0.0048636130310844173
0.074643817822321837
0.0024350453337009565
0.00076335876275905514
0
-5.3162312816672082e-06
-0.11104566730539273
-0.16358204214074432
0.00040035400226282568
-0.020266554261991501
-0.0032840178493194023
0.0057216328943098041
-0.12636791484019913
-0.0089902083600147953
-0.00050816938421571842
0.041368483807919472
-0.034139209987977905
-0.061262820731881718
-0.012335178373979195
-0.0042821933419648012
-0.00056337614356232228
-1.738781114132658e-05
-0.0023882681548587532
-0.11909610317098272
-0.00089871146754570317
3.0716548560400089e-05
-0.024479526542321408
