0.09982071948768946
0
0.0044367772493711785
-0.0068174949513194819
0
0
0.099996138063962695
0
0.0082795935777660971
-0.02027043502557882
0
0
0.10000207784248227
0
0
0
0
0
0.099323837517140329
0
0.0073687276261831889
0.0086911802475810838
-0.00010241489607593985
0
0.099711204497329814
0
0.00025511145280055164
-0.0050890255570297787
0
0
0.099553951242888253
0
0
0.00014277782555082428
0
0
0.095816479101484303
0
0.016874880403497401
-0.00035130296734484263
0
0
0.10189252709550366
0
0
0.0068067228976027181
0
0
0.099307129100747002
0
0.011870222840972619
0.021452838097114197
0
0
0.099933028586172604
0
0.00029945337089189552
0
0
0
1.3483516551957393e-05
0
0
-0.020284116914952629
0
0.0002445141209207131
-3.9624455650318663e-05
0
0
-0.00090126586083622473
-3.0758316100282891e-05
0
0.00033640847467075312
0
0
-0.0029134624861539213
0
0
0.00058812995917626072
0
0.00073179056557488907
0
5.353141105058307e-05
7.0968174271679379e-05
0
0
-0.0018476844859420236
-0.00095367914536941369
0
0
-0.00085474411993963434
0
0
0.0093004936565238196
0
0
0.00025222635409535068
0
0
0
0
0
2.8801515446135794e-07
0
0
0.0097722496669216535
0
-2.6470311733570188e-07
0.0010519322529332041
0
-0.00030897671690900214
-0.0043102310535488722
0
0
7.9343072500353041e-05
0
0
0.020505480139446603
0
0
-5.2318407582751685e-07
0
0.0001665871812202319
0.0012649721532075361
0
0
-8.8229090787540035e-07
0
0
-0.00067426252790056627
0
0
1.2586198702046688e-05
0
0
0
0
0
0.0015294756920825603
0
-0.00081202055188235112
0
0
0
0.0052191340161879957
0
0
0.0040577534138990685
0
0
0
0
-0.00013718961777302123
0.0049546374410044504
0
0
0
0
0
0
0
1.3530487024261878e-05
-0.00089172725574714485
0
0
0.00034133270315599081
0
0
-0.00020014321416477097
0
0.001356512989766862
0.00010993260050521607
0
0
-3.4160883284857558e-06
0
-0.00028303644957443418
0
0
-0.00020202360117780796
-0.08129696193865249
-0.00015548040071688065
-0.078071652391482171
0.22511603765911645
-0.077627225555094548
0.051124651970534354
-0.032060168091819261
0
0.23176416262925004
-0.12032667859576587
0.0074883724247512386
0.10000000000000001
0.11981343719608363
0
-0.25746003483605295
-0.2871680926565619
0.014147964094327567
0.1200145951367267
0.17369970847275615
0
0.23444217695361985
0.51744207828788913
0.060229665085318344
0
0.090202473293776592
0
-0.26331627151920817
-0.056412804571483059
0.15244260204607235
0.072451134908814704
0.12539830983297773
-0.00042770366479159334
-0.61826965819287416
-0.29714392144279961
0.19416593101351692
0.0050606463386726353
0.3286283599556295
0
0.09124707878554475
-0.14508324601871009
0.10096065567317759
0.12661965323062624
0.59728555016023654
0.00021482717999752444
0.22362789898982702
-0.2181331384739566
0.12342114378803951
0.12665875278189712
0.52105519880058071
0
-0.12215965352422133
-0.10000000000000001
-0.099471942441852521
0.10539779872144418
0.77265829618598336
0
0.02498899546919979
0.035580467198607982
0.093570863437595561
-0.0032569798573692643
0.84407814748412147
0
-0.25872359253949728
0.048367132114031257
0.013200916658919053
-0.00050419835276712299
0.61778086806724797
-0.00011448488869010409
0.17177982933171082
-0.088886130727275248
0.16188926426137559
-0.0039122118586448016
0.87274336235198524
-0.00030299779684768473
-0.075054595052817599
0.037244097227305969
0.17514526787090814
0.0023087422071105534
1.5916423710503638
0
0.20520762692625472
-0.16875269699762721
0.0029208641264659579
0.020619293592151769
0.23164902612191998
-2.4078650563813804e-05
-0.08199858720316186
-0.092116757893004275
0.20121805807172854
0.028105075638937063
0.3822921402823854
0
-0.0058123598342998571
0.24871588205633804
0.10000000000000001
0.16686527166112736
2.1358947897745209
0
-0.19741990417188027
0.12428712991706531
0.056147541249660898
0.097631938658292131
0.42445880568790356
0
0.13569274839431858
0.21227524101195519
0.017200845442994699
-0.085387648778095071
0.49088323930300626
0
0.38605600251069255
0.56019068401061123
0
0.102443471459386
0.81719692128378463
-0.00014560267053395767
-0.078233767487138853
-0.0917922245868662
0.10000000000000001
0.018087921562018439
1.0560733736950441
0
-0.090934139356372318
-0.560904565286093
0.11633691347605346
0.087795238407309684
0.9177954454756615
0
0.29685618920512585
0.0029302875482100196
-7.232002467495892e-05
0.072307623602005877
0.85049519566689191
0
-0.24694050307624643
-0.1403759167244249
0
-0.01969215115037655
0.88340009499405314
0.00020046104796968639
0.089495900103326434
0.14353730692531916
0.10000000000000001
0.0024262442827264075
0.84648509641486769
0
0.041352037708058023
-0.014864450798459881
0.064882279061074272
0.033728864015005008
0.63526000980055497
0
0.10458878612111282
0.2530943958822921
0.10000000000000001
0.099935973512233878
0.87729424309140192
0
-0.18414049024516774
-0.53107413499962131
0.010453296253535846
0.10000000000000001
0.64138220791287626
4.7230697374166498e-05
0.14176271683024402
0.37111633640045677
0.10628675877259178
0.11803948179966758
0.74241148709504678
0
0.52761988622092704
0.24566819882618657
0.17987328986873624
0.015424159769433236
0.033688948898710491
0
-0.2610967464388142
-0.10374351575829492
0
0.006189570286364199
0.05427360028372627
0
0.005117366383819209
-0.033007696139502302
0
0.012655377471655977
0.027422245442935395
-4.5843278281340362e-05
-0.30430224340981354
-0.27481560257416243
0.0057896364658816691
0
0.15560623038612839
0
0.27609286139329364
0.38150179189797256
0.02164309226998291
0.00054986466567935198
0.077961736769165194
0
-0.045876420770761192
-0.14759641788755054
0.010279480774763077
-0.00051980275458489216
0.049811006931483014
6.4617923744717857e-06
-0.37974499856692789
-0.13486457025467716
0
0
0.090996676881897234
-2.9121877848889217e-07
0.50258722728259275
0.57076786650382327
-0.10000000000000001
0
0.12403530631481564
-1.327565066966369e-05
-0.049222769736193543
-0.10951740026714399
-0.0038679019112353194
0.0028908931397909647
0.013932087150093093
0
-0.2203884980563332
-0.2823858223986932
-0.018774026776003802
0
-0.01308492403391878
0
-0.17705612353892639
-0.2934477039140817
0
0
0.040286910903002023
1.2409231638436357e-05
-0.19099293554651647
-0.23147349353061236
-0.063701773125400568
0
-0.33942575058802349
-0.000103530431116658
0.14759794915616323
0.033325227580644073
0.0085112633609952127
0
-0.19693017929443074
0
0.058990287596529953
0.16056210971419321
0.0038463936310830088
0
0.47321441766362399
0
0.17178131400336641
-0.13841238232040581
0
0
-0.015164652795812522
0
-0.36290498411934208
-0.0041870656388513922
0
0.0029363608051638595
-0.42690317212502354
-4.1345808871110911e-05
-0.22848084842141275
-0.010086049812060906
-0.10000000000000001
0
0.6699304663847403
0
0.13134441989825243
0.072171771438399118
0.021466671186345515
-0.019896706590904773
0.12043864432252689
-0.00016928675073342114
0.18920815263544996
-0.016903880907299777
0
-0.025167055064200999
-0.28663650142068997
1.1227124560320579e-05
0.58713286642315587
0.22316559930471341
0.026825415332254375
-0.00021027183036498971
-0.34751235175690237
0
-0.48058650610816678
0.095354372429630366
0.0038572091088221508
0
-0.036277865438106398
0
-0.30238751391574165
-0.25493412297561063
-0.00013735545125587127
3.5919681289157535e-05
-0.0668483337443532
2.7051882364981876e-06
0.075666988037063856
0.28300917357212113
-0.0082257970545598271
0.022539139988402967
-0.17391799546199982
0
0.074358935507730553
0.15626557671977825
0.0027346300620262991
0
-0.1176380471769663
0
-0.21211705421419616
-0.39681560966018026
-0.0056722020662967835
0.001066630332102636
0.095303997720006056
0
0.11394769088650757
0.45184729560084602
0
0.0086785564600405946
-0.053724816191570705
0
0.34327631157460764
0.12636791484019913
-0.016150506904576919
0
0.065314639540273695
0
0.041066716704888637
-0.22287761209548193
0.055790992985835432
-0.00067881297908420888
0.04580399603340797
0
0.12739567583850162
-0.07619439207136508
0.11089058053355443
0
2.4212596248871608e-09
0
0.0011573574309755815
0.0060732372656838451
0
0
0.00040008688622382563
0
0.00079153049374389769
0.0024788403960338181
0
0
8.4111144771056384e-05
0
0
0.046977835734703467
0
0.00066338861863703179
4.380508711981212e-06
0
-0.0061037254756312045
0.0066257929068463508
-0.00022723150572673435
0
-3.8720966071633005e-05
0
0.00012841690720280416
0.00018374314686667306
0
0
-1.1791621987022785e-05
0
0
-8.6890385100666745e-05
0
0
0
0
0.0012519897416038981
5.0844449107605234e-07
0
-0.00019484444335375272
1.1125621523474881e-05
0
0.025758734115102482
0.0036900545966923274
0
0
1.9289485080599523e-08
0
0.0003210516055046045
0.0089895384372455402
0
0
2.8402488594769524e-08
0
0.0025545921997357835
-0.024387823507219672
0
0
-3.2406203908060215e-09
0
0
-0.00091578235345144126
-7.7927607459722092e-05
-4.7559584368557812e-05
3.9656191711602013e-08
0
0
0.0014263808399662941
-3.103869072313068e-05
0
1.4247036277241693e-05
0
0.014334952991028181
9.9874596784725607e-06
-7.6576681313765462e-05
0
-6.5282922620204139e-08
0
-9.0167485160896259e-05
0
8.7844499165208415e-08
-2.0332988766028108e-07
0
0
-0.0044007551017539023
4.9878298207986014e-06
0
4.4796594219165473e-05
5.3107810836752602e-10
0
0
0.00099407477518125096
0
0
1.1046248735799861e-08
0
0
0
7.6115527403178691e-05
0
3.5123893896377565e-06
0
0
0.0042443550438300325
-5.7330738087950637e-05
-1.9546064815099278e-06
9.5120690506208445e-08
0
-2.3222857198489818e-05
0.0008886939197763204
0
0
2.7413768183174281e-05
0
0.002659555733933052
0.0016993372357357389
0
0
0
0
-0.00074108703054047865
0.011002808392495983
0
0.00034873559033510543
0
0
0
0.00056242971143898621
0
0
2.9556168055779179e-06
0
0
0.0040321509995225931
0
0
-1.5735622698342749e-09
0
0
0
0
0
0
0
0
-4.9968684820711755e-05
0
0
0
0
0
0.00036330647990324364
0
0
0
0
0
0
-4.5623467271327243e-07
-3.7310160643252075e-06
9.2522746265406759e-06
0
0
-8.3532444769254588e-05
-6.053102806309322e-06
0
9.6134802988337475e-08
0
-5.4434532394698252e-07
-5.0601887593775631e-06
0
0
-6.1396104704562036e-07
0
-0.00026870850301636927
0
0
-3.2695254463692655e-05
6.4411590658751476e-08
0.00016536144000526507
-0.10642171154190189
5.053221447622817e-05
0.019528229819931402
0.0014176247020466909
5.4950765194505301e-05
0
0.016702827395647497
0.31919505191362185
0.00056968495393245255
0
-1.192481588487982e-08
0
-0.050580490171874395
-3.4320609807128418e-06
0.049099269676652568
0.00502476342557669
-0.0028689221680661542
-0.00097232790570288556
0
-0.14095219244805637
-0.053575371685518493
-0.02929048971793783
-9.3370023835198907e-09
0
0
-0.0050801078443309918
-1.5295190385136863e-06
0.0045230206365362638
8.431260510687022e-10
6.2091615659162076e-07
0.036103139692834303
-0.032615542874385409
0.0013872172965414453
-0.0060322221711565215
-5.3915281912102038e-13
-0.001157653889775082
-0.0049260795974991256
-0.0079125069575154555
-0.00042356925345359486
0.026951931437716153
-4.936804979070243e-06
4.1994381392835809e-05
0
0.00019246160585273051
2.0933927750022122e-05
-0.043344633298757797
0.0025898280176861878
-0.0055051294858575591
0.00141185489096521
-0.37224500517127884
0.0023094935990575971
8.6769664755290048e-06
1.2091347311541894e-05
0.0002994645312126117
-0.096398309528617873
0.00035216280990804107
0.0037327919080183992
0.00013953765289127597
3.1147887062263899e-05
-0.0030543448874490145
0.019238951386368334
0.0032300811856903226
0.0079821671575270627
0.002857910434896885
0.0014009567897688884
0.00029393955476156975
0.069857561721089853
0.23825807436618329
0.0036292390644169703
0.0028212481070274895
0.0003008252492935777
0.00035658074725302189
-2.5592761636036176e-05
-0.00089392853493366626
0.0021095270924678215
0.00088412984889199499
0.0059857937144203333
0
0.00014248569799922166
-0.058722439362933782
0.00049275880504821227
-0.002161170111909928
8.1316328536530505e-08
2.2345953065686918e-05
0.022703370373783647
0.00039183585113369016
0.38012115028845112
0.00042025020596895418
-0.047052455319855843
0
-0.00046791617139304805
-0.012919950294799162
-0.070675496619438977
-3.3216251723149488e-06
-0.0014413788052434625
-0.00087775403478386536
0
-0.015027746184432866
-0.07916939262488297
0.11232237387253251
-0.0001065372017784249
0
5.5812009831244129e-06
0.00066577036179099602
-0.056148697620146522
-0.0088062173901632089
0.00043160002820375343
0.001597769118293655
-0.013783900392219493
0.021706809857431952
0
-0.00065918213134538804
-5.2253213400364399e-05
0.00027179383407417983
5.4069464060617418e-06
-0.009142546443884271
0
-0.16324515072157
4.367291259981745e-08
0
-0.00096041776647835613
-0.005274268119707156
0.0069570833312354334
0.00060268705966473851
0.0023956439052782311
0.017725613391390047
0.16595074204071586
-7.7958195900656036e-05
0.26835577144391198
-0.0022249712937801166
-5.7560260102408129e-06
-0.012311412849343334
-0.036048708321276692
-0.078023223772984901
-0.070407629632557492
-0.0095553126373854776
-2.5179345977588822e-11
4.336466211224364e-06
-0.002121473859213525
0.30374680604754922
0
-0.001224513138811636
-0.0016996795083960884
0.010853239379086332
-0.0017666175993722134
-0.00080334023892116089
-0.0010114101782229185
-3.3459342159875614e-06
-0.00011895647575123549
-0.024426233951412055
0.0065406038482274638
-0.010425913061080573
0.011910225681341688
0.013499699114272262
-0.0080881631123630882
0.0026908203361976531
-0.00035904605886158007
-0.013331642135692389
-0.0041097169501976213
0
-7.0354827167343935e-05
-7.064277191405727e-05
-0.45051829805787036
-0.018286679636085396
-0.007277860104292818
0.0090809481437328435
6.9736422462736574e-09
0
0.01234530310446068
-0.0040772447649794954
0.0091526360613731865
-0.0072294067721885083
5.4982026558619954e-10
-0.0019510851535071796
-0.15837579271162697
-0.0016773059322409683
-0.12037296390890062
-1.2555578667079755e-06
-0.00025981738541973326
0.00024932243393591737
0.00069146941246627956
-0.012601100333284196
0
2.0301821264532154e-06
0.001074189028117868
0.00015586097807855645
0.007654798736189127
-0.043826247779521203
4.7348241005084888e-06
-0.055136362263580603
-5.6849431196339336e-08
0.0033408716998044245
0.12138784433189012
-0.042266087764483436
0.010982870466020997
0.00051607968125973636
1.2837209872122398e-07
0
0.33290695000573883
3.0924027845016982e-06
-0.0044101815347370125
-0.00033592344159922709
-0.00026320208366028647
-9.5220085960890061e-06
-0.0090267070146010184
0.0067329649771276897
-0.017307489494215653
0
1.2264367137605023e-06
-4.9555266662044197e-06
0.0047693470851884467
-0.011197158611403182
0.026793159309673815
-0.043513507088013242
5.053584027386106e-05
0.00034795930018947235
0.0077549610066148826
0.0052025949952305417
-0.042998386850173591
0.0064285742494370468
-1.9350688841583613e-05
0.00045382192258831085
-0.10200172498971627
-0.0072610134135576224
0
0
-7.2579854178768929e-12
0
0
0
0.070294693996353297
-0.051402772027776419
-2.4617641490910753e-06
0.00043206346203478738
0.064758869464842356
0
0
0.0021400791484932897
0.00089617010843238217
5.5795816479395124e-05
0
-7.1795369560035066e-05
0.0071005550272804311
0.092826248116016558
0
0.0039418576115519497
-0.0075449029455135442
-0.001212673497945042
0
-0.0040722621141143656
0.0015537131619960272
0.011561540878956495
0.0066892301779975481
0
0
-0.026849499483379276
-1.5527140334996105e-05
0
0.052576190880855724
0.0027487042508112279
0
0.0010192942341417694
-5.7699946249637507e-08
-4.8299290711737767e-06
-0.0053530402606663504
-0.007392744482753638
0
0
0.064294933817929528
-0.002460459874344836
-0.013144907994025569
-0.011648697735822153
-0.017936704346748832
-0.00048965908137483041
9.0013686185123608e-05
0.00016937934248508659
-0.0051284722132469663
-0.081182671657465788
0.11661495291486473
0.00065808758148593462
-0.0587053866201903
0.0014656822636414583
0.12610988127355027
0.0018709726879462263
-0.027530397203544957
-0.00019952812164236768
2.7746451486238676e-05
0
-0.00732195637868625
0.00068460903893343057
0.00083497801383075859
0.077481463499294259
-0.011332134374209418
0
-6.6904921255678726e-05
-0.00055245443175268825
-8.3110545756994754e-05
-0.01144504555486974
-0.00058567151411683424
-0.013936373088739174
-0.038743953932533368
0.00039161460948312812
0.00017786500824512488
0
0.00014545837115022438
-0.0022666818141254081
-0.00030495504751001077
0.13855496464758771
0.0016085812604024821
0.01013414457026654
0.0041595307907434107
0
-0.034468496672607513
-0.0006687429640668827
-0.10189320277879536
0.00053187219536477825
-0.00017963809410221767
0.036304175150090524
-1.937211045453039e-05
-0.09540562929242502
0
-0.0013911423606562151
0.0016382094301772726
0.0040736629631742301
-0.0091683079198605476
0
-0.0043437103324419071
-0.015606612603511703
-0.016866669730146416
-0.034139209987977905
-0.051332040817298738
-0.0086243678867960003
-0.029845318260909817
0.0013001164567191803
4.4866812162467623e-05
-0.00049918707951760908
-0.2039797908172617
-0.0043921734091377567
7.2945528007289797e-06
-0.0088100252494654318
-5.422814483484528e-10
0
0.0015200019847680312
0.0065395986206184323
0
0
0
0
0.0018996010766766267
0.00045082459525559693
0
0
-5.8800279922703777e-05
0
0
0
0
0
-1.6103763538350142e-05
0
0.0072862430616086977
0.0074434634499403541
0.00010025449124902078
0
1.1736907276051871e-05
0
0.0001661936886328546
0.00041766030150585737
0
0
-3.1167953012372023e-05
0
0
0.00081863395156187338
0
0
-3.6405276364194775e-05
0
0.00116109544162689
8.4077422302315708e-07
0
1.2484949690668746e-05
1.6496412264634058e-05
0
0
0.0036506711194036414
0
0
-1.9522569022910604e-08
0
0.00043652430813904383
0.021348938377228888
0
0
-4.6949934673107151e-08
0
0.0014511111675214799
0
0
0
-3.8567004063060162e-09
0
0
0.0064270546796342939
0
5.038381068587254e-05
-3.9656191711602013e-08
0
0
0.00069030721858547072
1.6978627031209091e-06
0
-1.2697874024737443e-05
0
0
2.7144749411681762e-05
5.4044325464033634e-06
0
-3.9038856050216689e-08
0
0.00015275717796574845
0
-4.6353288314329288e-07
1.4008026545467336e-06
0
0
0
3.7882569976612684e-06
0
0
-9.3715129443748406e-11
0
0
0.00030667364331361455
0
0
-6.8646612439837418e-09
0
0
0
0
0
-6.1382722593269009e-06
0
0
0.0021634270312395568
0
8.3350454129687234e-07
-5.3012799360773896e-08
0
-0.0005345013076437778
0.00022100602647224257
0
0
0
0
0
0
0
0
0
0
-0.00019077712335046932
0
0
0
0
0
0
0.00088248558740542206
0
0
3.4033901753377848e-09
0
0
0
0
0
-1.1491539825149138e-08
0
0
0
0
0
0
0
0
0.00044302965014089506
0
0
0
0
0
0.0015871071847979631
0
0
0
0
0
0
0
3.7310160643252075e-06
0
0
0
0.00023299681918250239
6.053102806309322e-06
0
-1.020377789643118e-06
0
1.667568811029765e-07
1.4228476246427284e-05
0
0
-1.952341200816269e-06
0
-3.8357207218032811e-05
0
0
-1.2506104706238061e-05
7.1554388484881375e-08
0.00028112629529050156
-0.050715799998346349
0.0018150599408155435
0.0035954094295257751
0.0040865368727883242
2.6808617688459414e-05
0
0.016702827395647497
0.14225403115098201
0.0026632960829885998
0
9.0306227593221527e-10
0
0.094912491856805115
2.1197087107017353e-06
0
-0.0010731179863026892
0.019966342099088326
0
0
-0.096415190594578148
-0.019651538962224185
0
-9.3370023835198907e-09
0
0
-0.0050801078443309918
-6.0276514516253984e-06
0.0007061428535642322
-3.1497513874868528e-09
-1.1584798804656454e-05
-0.087111770146515721
0.0014669601803071973
-0.0020722979794801952
-0.011850210248635204
4.2524444852559254e-12
0.00021470046467913763
0.00054846928126938549
-0.0047667638333735995
0.00042356925345359486
0.016191753355252372
-1.5601839793987245e-05
-2.0015605730701946e-05
0
-0.0017282662238195913
-0.00044461388855144722
-0.030785599211330082
-0.00084078494310796761
0
-0.0040748922929030032
0
-0.00035271922418101954
-1.2648539373230932e-05
1.2091347311541894e-05
0
0.050043028534822509
0.0014285891456548114
-0.0025135078402886424
-0.00010093591652987198
-0.00032865579727667216
-0.0010258003096508333
-0.01389150950269822
-0.0074246615880311567
0.0073262643192372467
0.0029844291745955483
-0.00057979476922644308
2.6453026878146761e-05
-0.0057148087675734137
0.020428045552901827
-0.001868154066086115
-0.00056614641085054641
-0.00043560873404607916
-0.0005110878214335861
-1.9569537433772343e-06
-0.00016444694593954724
-0.0012871209953310241
2.5459737895960319e-05
0.00062985902175615057
0
2.6416862560727257e-05
0.072167841750433184
0.00051276103814638897
0.0055602798012187576
-1.1741718099524238e-08
-2.2913603463853587e-05
0.0039009918739321033
-0.0069277792418307319
0
0.0049398165133888762
-0.071320053105201592
0
-0.0006007002762362791
-0.01536858209221763
0.028461086924124999
-0.002670399258440018
-0.0014864830255416053
0
0
-0.030864544072489092
0
-0.0075379880451565085
-2.7807416263353824e-05
0
2.8233209460892681e-06
0.019448443371001607
-0.036460456864398388
-0.005547533822466675
0.00043160002820375343
0
-0.0089610021304023183
0.0089226712425514408
0
0.00035898259488941918
-0.00011035733605601677
6.7167591262041771e-05
5.4069464060617418e-06
0.064200743595249479
0
0
8.9204725359914244e-08
0
-0.00018192113404364203
-0.0075656877302573509
0.0069570833312354334
0.00010157627106597864
0.0014302333499209828
0
-0.22174543025932056
-0.00015047288520492444
0
0.0025537212769676356
-4.1667503967926262e-05
0
-0.024698117895946271
-0.2875292008683612
-0.029084560738520268
0.029424900545371033
2.2869232425931928e-11
4.3500410756149644e-06
0.00084400950282505346
0
0
-0.00058727471675469882
-0.0020056488521141857
0
0.0019826329288971773
-0.00044557839668626638
-0.0013696152839636846
-0.00011735339158893443
-1.0224132576730412e-05
0
-0.0055513596268921698
0.08183853978958737
0
0
0.041902519567304335
0
0.00092148167196393375
0.013660590867575217
0.0046928123940008946
0
7.0354827167343935e-05
4.5512772356580053e-06
0.17328917825724233
0.014076924959025097
0.0035300297558953997
0.021486639601807661
6.9736422462736574e-09
0
0.01234530310446068
0.22044433967172641
0.0072319338358074019
0.021612078290563219
-1.5676623531220738e-09
0
0
-0.0012405389376259951
0
-6.7812660943089e-06
-5.3195157528150803e-05
0
0.001151060597644497
0.012601100333284196
0
-1.5013503293118573e-06
-0.00049157800790395234
0.0003702831728296306
0.025704280719272565
-0.014874280107225
2.8097556772824472e-06
0
-3.3369313634235776e-07
0
-0.040569080139672836
-0.079071480442042597
0.0041514169423775976
9.8431696675603335e-05
-1.3734639601220746e-07
0
0.018563676379656585
2.8647376350508911e-06
-0.0052325295817022771
-0.00061041465111599065
0.00039449326955187989
-7.1119144998530128e-06
0.0022142191779589327
-0.0024044710173900209
0
0
-3.9279290408975826e-06
5.5489802098479726e-06
-0.00876789374475552
-0.005275767462717568
0
-0.019464918904337474
2.3829860616610249e-05
1.6086219276369589e-05
-0.012835354883079301
0
0.037944931675190391
0.0032978357652201093
4.9005689015756785e-05
0
0.065755524877539481
-0.061358005050036045
0
0
-6.5352075325458075e-12
0
-0.09347269738370767
0
0
0
2.0927199250400418e-07
5.6060923976799567e-05
0.064758869464842356
0
0
0.0021201533690826057
-0.0017459046302160943
-3.8401282580532188e-06
0
-0.0060180512361604922
-0.024978421438539254
0
0
-0.00056456506888091632
0.030895566372817564
0.00033871189857820273
0
-2.9321878671493976e-05
0.00046737285653977874
0
0.0059785969721872258
0
0
0
-1.5527140334996105e-05
0
-0.072593514893051103
-0.021624541005285738
0
-0.0015983591615309589
-5.7699946249637507e-08
-4.8299290711737767e-06
-0.0051507663935536118
-0.0078545682372113956
0
0
0
0
-0.0019381300207733051
0.018993974082261424
0.0063643116618677274
0.00045894158602999659
-7.4182286572723263e-05
-2.4561305198302114e-05
0.0070223661837336459
0.081182671657465788
0
0.0020236088643448202
-0.042604452405061249
-7.1067018610245571e-06
0.073470156479893189
0.0015120689370650958
-0.015353012352137891
2.7180665041196233e-05
4.6708572132610345e-05
0
-0.029702530415883832
9.4927336092379683e-05
0.00044111756466510708
-0.0016474297611935146
-0.021802968306258646
0
-6.6904921255678726e-05
-0.00055245443175268825
-8.5620869491376885e-05
0.01144504555486974
-0.00058567151411683424
-6.4600480231853983e-05
0.0056567145605430792
-0.00030756197203448787
0.00051846612812596489
0
0.0003079550576932297
0
-0.0047145045894667042
-0.1233136168102294
-0.00012208127156202367
-0.012158518158608939
-0.0074911622800205224
0
-0.11496423255245933
-0.0012856147030797255
-0.01584275346538299
-0.0013014666623540894
0.00025174355711643525
0
1.7760232617475984e-05
0.046317602576041166
0
0.002210749275908998
-0.0027631544375111088
0
0.0024402052636139327
0
-0.00055498872159897151
-0.0014620096037234655
0.019518597694858059
0
-0.0088070633636191751
0.0049092842384881536
0.017082071021314895
0.0013001164567191803
-4.4866812162467623e-05
0.00050744273350466552
0.017844078273892283
0.0028776849542255347
2.4785503922587443e-06
-0.011031042593741462
1.0858686890494035e-09
0
-5.2952106216558864e-06
0.0040630717922580939
0
0
6.9622090707716219e-05
0
0.00027811714772029144
0.00018890020273682644
0
0
0.00014452586772444476
0
0
0
0
-0.0036442049131904016
-3.7342047158005334e-06
0
0.014145777856424829
0.006754094522348303
-6.8472345912378363e-05
0
-1.1273197173427066e-07
0
-0.00011504025720562107
-0.00026702902769882772
0
0.0017732192384204328
3.5411163664710843e-06
0
0
9.9835984469786177e-05
0
0
2.8948918331912523e-05
0
-0.00057754038600179973
4.5635880743479382e-07
0
0.00027477605559640255
5.5386355503435271e-06
0
0
0.00082680503770747571
0
0
-1.8807491660603962e-08
0
-0.0023180512611729008
-0.0002629328253602379
0
0
-2.4900003726023268e-09
0
-0.0014911361764002448
0
0
0
6.0234733764459211e-09
0
0
-0.0021006013789994782
-0.00027632823819174416
-6.1264105740992637e-06
1.5634737277328569e-08
0
0
0.00057664940695691331
3.4434416129372499e-05
0
7.7342736816230769e-06
0
0
2.4117327501282515e-05
0.00026782606583603951
0
-7.0134413663172509e-08
0
-7.6411655925169537e-05
0
2.0167033764782162e-06
-3.802898095891117e-07
0
0
-0.00081318948958408049
3.027054666326473e-06
0
0
-7.0183464678642377e-10
0
-0.0060388943083776962
0.00030230868077623491
0
0
-6.0263250773848927e-09
0
0
0
0
0
2.363347383685626e-07
0
0
-0.0079622521864747067
0.00018733427405933056
4.6000536238810521e-07
-5.0918064302398068e-08
0
-0.0014228335088369698
0.00059400595045323336
0
0
-0.00018885341419523595
0
0.0015855455245993625
0
0
0
0
0
-0.0010768848109162761
0
0.00050760690292889579
-0.00065373563163118064
-0.00049458717533911616
0
0
0.0011990488621019387
0
0
3.8098481689777358e-06
0
0
0
-0.00012140967024117047
0
2.1191155291007982e-09
0
-0.00036476095818240207
0
0
0
5.9144513305536776e-05
0
0
0.00044302965014089506
0
0
-0.0014942235254508244
0
-0.00063299462106461857
0.0021062996270970295
0
0
0
0
0
0
3.1450473312284594e-05
-2.6044146188901506e-06
0.00014644470136110957
0
0
0.00023299681918250239
0
0
0.00010499663029972834
0
6.299265188816993e-07
1.4228476246427284e-05
0
0
1.4946916697130315e-06
0
0.00034675047498817162
0
0
-3.1375396145094962e-05
7.1554388484881375e-08
0.00020608689417282543
0.085468329372168472
0.0027565507344974927
-0.0087497798430325527
0.0040865368727883242
0.00041241875431413883
0
0.016702827395647497
0.22724353380650608
0.00177586227973427
0
1.8051288531681304e-08
0.024295422306664313
-0.12408238112971004
-3.4320609807128418e-06
0.33029117755833504
0.0039976714660055531
-0.012489355497392263
-0.0017402048848719264
0
-0.0068298990700451558
-0.042974261229877582
0.15811078940088233
-1.017470201959617e-08
0
0
0.0043008311191804734
-9.2891742101292007e-06
-0.064782232097953696
4.0685258418381387e-09
1.1000888847148668e-05
0.14802117494417624
0.0014669601803071973
0.00093154293979209532
0.008120814482636839
4.2524444852559254e-12
-0.001157653889775082
-0.0049260795974991256
-0.0079125069575154555
0.00042356925345359486
0.060218230057159289
-1.205849915375332e-06
-7.9533033899181448e-06
0
0.00019246160585273051
0.00044461388855144722
0.053507163563290452
0.0024355387585861237
-0.022056878816275067
0.0054415296946144819
0.18450398387315617
0.056607713184090053
2.9956510537430561e-05
2.1414547662875653e-06
0.0033372934638178265
0.095869484605437372
0.00070590841160981632
-0.020412056476859612
-0.00010751548317579289
-0.00020948836699206282
-0.0053184950124837592
-0.034007050052587112
-0.0033096635178259774
0.00059983445909018789
0.0019199701131486719
-0.0014009567897688884
-0.00010063539545091377
-0.071340230166850552
-0.28925679379788799
-0.0047538538163476628
-0.0015110572138401016
-0.00025714196262120758
-0.00050991803338637238
3.640387183394908e-05
0.0008598042333139924
0.00098421082253382459
-0.00088412984889199499
0.0017832311689975353
0.040918697769232487
0.00015106553655730502
0.0074555954753560694
0.00029079846696575078
0.0026757722486862919
-1.1741718099524238e-08
-2.2913603463853587e-05
-0.027711319976369053
-0.0076101413720342454
-0.12831104814848726
-0.065062791289478145
-0.018167944023795905
-0.046343615829161508
2.9520469131106468e-05
-0.0073786613078542325
0.013753322771188976
-0.0024629804651795737
-0.0014864830255416053
-0.00027772815801662472
0
-0.040155476777509622
-0.1808393180711447
-0.22578483070140362
-6.5180548873731929e-05
0.0053745024066550844
-2.0638488182561278e-06
0.0035729517523605419
-0.0023864695913296914
-0.0059856835890464847
-0.00053316018123885376
0.042004586099824645
0.029620774448426881
0.090757047409688735
0
-0.00091701412305635738
-0.00011035733605601677
-4.1225744322557229e-05
9.5931142499516619e-06
0.020138073483867008
-0.6827104162581551
-0.057501658745374426
1.7871977970851971e-08
0.00097633073361924161
0.00062903187006160181
0.00053157131013628059
-0.0069570833312354334
0.00060268705966473851
0.0030591674835736609
-0.038022452174680373
0
2.9274599579775929e-05
0.23594299904274091
0.0025537212769676356
1.1395444536084177e-05
-0.012311412849343334
-0.047564406167120966
-0.11528447740593967
-0.10634051808037956
0.042108480139045515
1.7831633042333156e-11
4.3580320214697819e-06
0.0031554278018498844
0
0.50191915601850057
0.00024667766407248477
0.0015841407733000921
0.010853239379086332
0.0016453588144901491
0.0010438782341935745
-0.00022305931202240773
-0.00011735339158893443
0.00011895647575123549
0
-0.0055395718954231394
-0.12107182910620909
0.2380624654835955
0.13710393320848696
0.076672256227724792
-0.032693972375100473
-0.00092148167196393375
-0.014359287958386056
-1.1250399206714102e-05
0
-1.8195470603075278e-05
-7.064277191405727e-05
-0.12653493210936012
-0.00037068895454225263
0.0021250595530793014
0.021486639601807661
6.7662582186687282e-09
0.22094759246996873
0.0013232128435809827
-0.171534445305592
0.0057767657179286181
-0.03599474980893793
-1.5676623531220738e-09
0.0011333412689384548
0.15837579271162697
0.0012043711986650218
0.17508743938148313
-6.7812660943089e-06
0.00079606051599186969
-0.013705433013585986
0.001151060597644497
0.011817700983166372
-0.40332500970052115
-3.9966979813238234e-07
-0.001674523779080598
-0.0011716401205193417
-0.0072973064860129928
0.014874280107225
-6.2785309518986438e-06
0.055136362263580603
-5.6849431196339336e-08
0.001377364738122023
0.0053542230482962125
0.1208281696492555
-0.0124352131660315
-0.00058765248392647249
1.3423873260272122e-07
0
-0.11908289756574221
-3.0924027845016982e-06
0.019415584518518787
0.00061041465111599065
0.00039449326955187989
-1.7786890810626296e-05
-0.0028543161429628663
-0.0067329649771276897
0.13180901904918868
0
-3.9279290408975826e-06
-2.9286940423169219e-05
0.00876789374475552
-0.018944586762898237
0.080121608351675935
-0.019122918370628447
4.8179994732339631e-05
-0.0010513647110310283
0.015753859321885735
0.0052025949952305417
0.020293469319396722
0.010461044160018456
-4.113406395489672e-05
-0.0003405108362958734
0.17482099735533393
0.18423577174473688
-0.19024570212311248
-0.15912348722271108
-6.5352075325458075e-12
-0.02038562243696462
-0.033113764777405276
0
0.088622761284646301
0.051402772027776419
-2.4617641490910753e-06
-0.00043206346203478738
-0.11348496259474691
0
-0.19082545190311706
-0.0066108228652692128
0.0016820731017357737
-6.7297473849994835e-05
-0.17454591640456896
-0.0094340063043221022
0.02672206314311467
-0.094271335751639401
-0.058581007326416988
-0.0039418576115519497
0.027190099656982894
0.0002747204686256036
0.014181864850244655
0.0058334093074555587
-0.00013718993592224359
-0.014378528994427729
0.0059785969721872258
0
-0.29632746924773412
-0.086335861698009761
1.2301655102547123e-05
-0.022869935367506599
-0.072593514893051103
-0.021624541005285738
0
0.0029050167571943136
-5.7699946249637507e-08
5.128300155341585e-06
0.0058474733179627392
-0.0047279396991619328
-0.19472572178697078
0
0.1360299258180582
0.0014588649209589287
0.0079753820945007957
0.010482829243732929
0.0072817907420782814
0.00031369562033849228
1.4054334421263839e-05
-7.0204186956180836e-05
0.0070223661837336459
0.14037959955130089
-0.1533878186508551
-0.0023290973898665596
-0.083154233503864
0.0013949188837899373
0.073470156479893189
0.0011126289864345552
0.02324424291049185
0.00018225887824535098
4.6708572132610345e-05
-0.030647986631419155
0.026003111017213264
-0.00042253460078329347
-2.5474557788775394e-05
0.10013383017332447
0.016388924008560887
0
-6.6904921255678726e-05
-0.00055245443175268825
0.00013124856874599893
0.0062008519503380238
-0.00078066139628335681
0.00092600457058800395
0.027852186305770424
-4.3983005910027109e-05
-0.0012180831492674237
0.13683224543094513
0.00029163747579715913
-0.0022666818141254081
-0.0036499907460671634
-0.2072578416851929
0.0016085812604024821
-0.067764978987655086
-0.0015950167811244502
0
0.061114211780851704
0.00087570296180446952
0.011325166410100474
-0.00045996031278222041
0.00031435429122960844
0.036304175150090524
-1.5159559789478938e-05
0.027557590586356012
0
0.002210749275908998
-0.0082395784750084241
-0.010641698661813033
-0.0090281729298808278
-0.15360039910112297
-0.0022278225280389016
-0.0025902679895463288
-0.012646072350398746
-0.034139209987977905
-0.011835887482969952
-0.001548072376356606
0.035475966660427079
0.0013001164567191803
1.3233148733184069e-05
0.00031767817281020891
-0.03922337194530727
0.0016865187774787686
4.6638986761259718e-06
-0.10395283477745651
1.7403934471698941e-09
0
5.2952106216558864e-06
-0.0055078791150583312
0
0.001736237839595732
0.00079795185912998751
0
-0.00027811714772029144
0.0016352318032437363
0
0
-5.2943659177332894e-05
0
0
0
0
-0.00032193252709391195
-6.0490386072735578e-06
0
0.0072862430616086977
-0.001963579007138198
0.0002714654293839889
0
-6.0593324138074706e-05
0
7.1349549299705409e-05
0.00025007162403871684
0
0
-4.3750552079630946e-05
0
0
-0.00031129881133177683
0
0
-7.5053148541316238e-05
0
0.00027505622376978848
5.3730890685708155e-07
0
-0.00085655601363269042
-4.0906672359783488e-06
0
0
-0.00063061668215879979
0
0
-3.3739482992806772e-08
0
-0.0026739674927845365
-0.020964683481905912
0
0
-3.6644432458031557e-08
0
0.0031935239503983396
0
0
0
-9.0880979053780535e-09
0
0
0.0034106709471833745
0.00035425584565146627
3.7378420677025516e-05
-3.3629786604532009e-08
0
0
0.00060174594113071784
2.9185613211222962e-05
0
-3.2213499774145379e-05
0
0
2.7144749411681762e-05
-0.00014129624160525098
0
9.6953760333928504e-09
0
1.5801668171960103e-05
0
-1.9366980380926665e-07
4.5862137079746602e-07
0
0
0.00081318948958408049
3.7882569976612684e-06
0
-4.4796594219165473e-05
2.0360859092999043e-10
0
0
0.00030667364331361455
0
0
2.9511370185246793e-09
0
0
0
0
0
-5.535810246689936e-06
0
0
0.0021634270312395568
-0.00016808801322060063
2.6926796521141537e-06
-3.2490076055633739e-08
0
0.00028948190495743078
-0.00021023525103702051
0
0
-0.00024368095056158449
0
0
0
0
0
0
0
-0.0021059041013044115
0
0
9.2816443572609497e-05
-0.00025616990893730757
0
0
-0.00032602402024804923
0
0
1.9445362279443579e-06
0
0
0
0
0
-2.1191155291007982e-09
0
-0.0012379442683103407
0
0
0
4.9380647888388912e-05
0
0
0.00070520671707768499
0
0
0
0
6.8039247188854445e-06
0.0014552775894053258
0
0
0
0
0
0
3.9818388501244417e-05
1.512919393572029e-06
-3.6378535603891774e-05
0
0
0.00023299681918250239
1.8009529237687891e-05
0
-1.3329286353794767e-05
0
1.1944358634648546e-06
7.2711217781637041e-06
0
0
-2.4099907319195065e-06
0
-0.00046842631739850394
0
0
5.6881667105764265e-05
7.1554388484881375e-08
-5.3502598276372376e-05
-0.0055936429119253436
0.0036030403134786767
0.012789309909319705
0.0040865368727883242
-0.00043030097008039047
0
-0.0016256381971763425
-0.02673039354101641
-7.3213465336341324e-05
-0.081243692273672632
6.1993574987845785e-09
-0.01180738018322277
-0.1056802772448695
-2.2054455573743497e-06
0.036985212561843846
-0.0030548412026477493
-0.0070623367409266072
-0.0081371852969163161
0
-0.0784188274226989
-0.033923832723294307
0
-9.3370023835198907e-09
0
0
0.0050801078443309918
1.5295190385136863e-06
-0.027779306507572595
-4.0685258418381387e-09
1.1584798804656454e-05
0.18036074119993911
0.032615542874385409
-0.0024063703650829518
-0.012265724827748624
-3.2665635507161674e-12
-9.7189246939388013e-05
-0.0049260795974991256
-0.0053128838259305904
0.00024939829502384234
0.055401887745968395
-6.3346848014788158e-06
4.1994381392835809e-05
0
0.00019246160585273051
0.00021951663758450069
-0.011645842869623732
0.0022413800284054822
0.0071005535439236621
-0.007130089564217801
-0.38296657506287701
-0.016395569361258314
-1.4093362428724834e-05
-2.1414547662875653e-06
0.0020603218620946773
-0.022260291428381061
0.00070590841160981632
0.020412056476859612
0.00010824226733643653
-0.00099888713992445175
-0.0020285445777981814
-0.025305765303714711
-0.0050755303112091409
-0.0085111647548556553
-0.00388350416692884
8.1615739320028711e-05
0.00015414086950466996
0.014304689339729277
0.20686194902861268
-0.0047538538163476628
-0.0034952902436145997
0.00066245246579929693
-0.00037987141704582441
-3.640387183394908e-05
0.00059874634257037695
-0.0016595180171377563
0.00037026933294252923
0.017423138438723625
0
0.00029357178938378556
0.072167841750433184
-0.00027553780146745888
-0.0054878983634591583
5.4182831663599703e-08
-4.3561159800773303e-06
0.012235979063869
-0.0069277792418307319
0.073198601804202901
-0.019399556639820618
0.082598315284625953
0
-0.00051927244126005181
0.012548307068376436
0.028461086924124999
9.3554559065850654e-05
-0.0014864830255416053
-0.00036410638233329599
0
-0.025426204044205706
0.050499282049792898
0.049753436396110379
-9.0882214839485613e-05
0
-9.0382825893037526e-06
0.0073244783730468856
-0.056148697620146522
-0.012064900957859743
-0.0012821804528820586
0
-0.010329886159012281
0.04424241534321046
0
-0.0017065582272733524
-0.00011035733605601677
-0.00015971579545393986
-5.8686171808027324e-06
-0.0095160275591182585
0
-0.057501658745374426
1.2815609761185481e-10
0.00097633073361924161
-0.00096041776647835613
-0.0001435610091971302
0.005548781166277929
-0.00062550843036359024
-0.00049296716462936697
0
0
-6.7460644086788578e-05
0.015364366476002471
0.0023669996185559025
6.2374755718848553e-05
0.0069618054837492626
-0.041806557244198829
0.1528680616997618
0.07961890496379001
-0.010276366815862876
2.750500140005451e-11
-4.3566251938986843e-06
-0.001968186131076779
-0.2939640954131274
0
0.0028924179004660034
-0.0020056488521141857
0
0.0019826329288971773
0.0010438782341935745
0.00058915034288280926
-0.00011735339158893443
-5.6498255736305586e-05
0
0.00019319147478310704
0.13471933014855178
-0.11307611990112691
0
0.041902519567304335
0
-0.0001552393027673915
0.014359287958386056
-0.0066890413463693583
0
-4.0229050268704622e-07
-3.8773957802171075e-05
0
-0.006605856160831626
0.00058330196834138759
0.016719787235492761
-7.3936091562333033e-09
0
-0.0066966022196382775
-0.010092121465216831
-0.017874309526090929
-0.021612078290563219
-1.5676623531220738e-09
-0.0085385878775766609
0
-0.0017446151059416421
-0.054714475472582486
-6.7812660943089e-06
0.00084064116575750618
0.0022296536466542612
0.0004596513984440598
0.012219837367742018
0
1.7123449969423594e-06
0.000317918837163154
0.00040133225445534331
-0.024563865106279604
-0.043826247779521203
-8.5983502547415357e-06
0
-5.6849431196339336e-08
0.0021598371503474662
0.017607428545688312
0.10547363231809589
0.0049885832556434339
-0.00081116350293658252
-1.3149249528771392e-07
0
0.10051922118608562
1.1346722947793592e-05
-0.014874066447103427
-4.1665028015359755e-05
0.00039449326955187989
7.9827031716134903e-07
0.0066403643661300717
0.0041343077831931165
0.076115085659878234
0
-8.0092452705819716e-08
2.9286940423169219e-05
0.056266945115153288
0.093166714257354691
0.009404624213078739
0.0021482628643204934
5.053584027386106e-05
0.00039799512753799975
-0.02427585083953707
-0.24676987028904154
-0.023160061701098699
-0.0040371692937843408
3.4450778193433613e-06
0.0025142491345893224
6.0474279937567516e-05
0.13013878010825844
0.070711861401106274
0
-7.5039820694201761e-12
0
-0.15383162999001007
-0.12498735288559955
-0.10427525941688215
-0.051402772027776419
9.1551784317679296e-06
0.0003229429359988817
0.02895531636014332
0
0
0.0065908970858585287
0.004879545892350113
6.7297473849994835e-05
0
0.0010105528356903167
-0.013390801347257885
0.063423860195808188
0
0.003787708356863376
0.041769544467656315
0.002491618309637266
0.047485121248633494
0.0088153686012559518
0.0020218379118720326
0
-0.0064320925246975809
0.20346771215940815
0
0.064125390819114378
1.5527140334996105e-05
-0.0066067529640088159
0.036250234103121726
0.0081152177404585236
0
0.0013887240717224748
-5.7699946249637507e-08
-4.3451942730843139e-06
-0.0053530402606663504
0.010981196775260861
0
0
0.1360299258180582
-0.002783252526755829
-0.013144907994025569
0.00031454501932644697
-0.014208048543308722
-0.00048965908137483041
-6.386402919502545e-05
4.8698186897988934e-06
0.0010979018227781179
0.059196927893835107
0.0018131246893639719
0.0033208205266514095
-0.060450209387977114
-0.00031005310846877261
-0.075985932871809908
-0.0016322166419538643
-0.018310832462397706
-1.4365452554044331e-05
4.6708572132610345e-05
0
-0.059328178413112775
-0.00077945184757458833
0.00059438590558147017
-0.0027806967932189914
0.0097163549029495935
0
6.6904921255678726e-05
0.00055245443175268825
4.4453031201070864e-05
0.01144504555486974
0.00038613736555857326
-0.0020982334026349867
0.055236394464403593
0.00020794918950055308
0.0012180831492674237
-0.069497051866397458
0.00050675488109697012
0.0013320061396672608
0.0047145045894667042
-0.055006534158580138
-0.00042400648152548365
0.025950695495100363
-0.0074911622800205224
0
0.22632578502518524
0.0032743236354467525
-0.018319786311814176
-0.0013014666623540894
0.00026499786021143458
0
-1.4996886667938751e-05
0
0
0.002210749275908998
0.0013924615621729039
0.001736766074103273
-0.00419880124386401
0
0.0029577557832692796
-0.0093715959444204532
0.012646072350398746
0
0.037250273468797515
0.0086243678867960003
0.027086523652560437
0.00022255113549672498
-4.4866812162467623e-05
-0.00041801810220123427
-0.11988622927630577
-0.0016865187774787686
-1.2055202152022231e-05
-0.011031042593741462
-5.422814483484528e-10
0
0.00047299097427569409
-0.001222955544503081
0
0
0
0
0.00023811974650209266
0.0021108275705961038
0
0
-0.00018446035125262983
0
0
0
0
0
-5.0047149411258678e-06
0
0
0.0065305059256586485
1.0544593447727326e-05
0
-4.8743684890288557e-05
0
0.00010912633072975585
-0.00014963234646982168
0
0
-3.1167953012372023e-05
0
0
-0.00086223521551568195
0
0
-1.2507928950039342e-05
0
-0.00021405948888902849
2.4192504358468543e-08
0
0
-1.247157574381658e-05
0
0
-0.00019618835554867598
0
0
-3.3638728318437689e-08
0
0.0016182999240246833
-0.00054328800079790575
0
0
-1.5884927060685414e-08
0
-0.0005615242686419161
0
0
0
-6.1633736780344043e-10
0
0
-0.0034106709471833745
0
-4.2469002522791671e-05
2.1661142384398573e-08
0
0
-0.0014263808399662941
2.8963378888301213e-05
0
1.1327954307805174e-05
0
0
-3.0177903346841319e-05
-1.5335805951779867e-05
0
8.6109343997571389e-09
0
6.4871217190749634e-05
0
-2.0167033764782162e-06
-2.0332988766028108e-07
0
0
0
-2.8189063042647273e-06
0
0
3.5272030213404522e-10
0
0
-0.00099407477518125096
0
0
1.1791803827187418e-09
0
0
0
0
0
-4.2877650797952834e-06
0
0.0039758292955976438
0
0
-6.6109657782495036e-07
-9.9111403232383277e-08
0
-0.0014871824974289534
-0.0015186886397397146
0
0
0
0
-0.0015855455245993625
0
0
0
0
0
-0.00059005162986659353
0
0
0
0
0
0
-0.00033001105495856592
0
0
-2.3780416891619153e-06
0
0
0
0
0
-2.4877777001992338e-08
0
0
0
0
0
-4.9380647888388912e-05
0
0
-0.00060707531525717605
0
0
0
0
0
0
0
0
0
0
0
0
-1.4842311616607126e-05
-3.7779941521230816e-06
0
0
0
-0.00011179076051917526
-6.053102806309322e-06
0
9.6690117780058168e-06
0
5.090647252448017e-07
-1.0358394994853447e-05
0
0
-2.0256424858056622e-06
0
-0.0002107466860197744
0
0
-1.5413542561130409e-05
7.1554388484881375e-08
-0.00018302336784828104
-0.010307412692131875
-0.010306908851723456
-0.0054977471751980287
-0.00077410266305817351
-0.00044169155191039154
0
0.011861724146681872
0
-0.0026632960829885998
0
1.8051288531681304e-08
0
0.055337593626400602
3.4320609807128418e-06
0
0.00502476342557669
-0.017552566999010207
0
0
0.018653280923585418
0
0
-4.1294518568773875e-09
0
0
0.0040988260937185389
-1.3208810038219121e-05
-0.006701358589284858
3.557897677567789e-09
1.1584798804656454e-05
-0.088008744839074657
-0.017095517103868418
0.00039487337117605328
-0.0035169458111645189
-3.73842706031598e-12
-0.00021470046467913763
0.0036376674094861332
0.0079125069575154555
0.00042356925345359486
0
-1.5601839793987245e-05
-2.4973842391376977e-05
0
-0.0002864727594677211
-0.00044461388855144722
-0.011645842869623732
0.0022413800284054822
0
0.0050234475960949663
0
-0.0056420289300004025
-5.7347533805182126e-07
1.5967334908159905e-05
0
0
-0.00024645286649693148
0.0020521627397997815
0.00013953765289127597
-0.00014875395510720419
0
-0.025305765303714711
-0.0056435285877908603
-0.0011288320564187806
0.0019199701131486719
0.00057979476922644308
-2.2012212002305412e-05
0.0036698542985909464
-0.025499359715852356
0.0022027626200269894
0.0028212481070274895
-0.00035975553848030501
0.0005016068867743661
1.9398444239600885e-06
-0.00067293039443460333
-0.00051823997684041583
0.00055186596988268568
-0.0015693673763048179
0
0.00029357178938378556
0.12694767430858134
-0.00027553780146745888
0.0026757722486862919
3.2340467083975393e-08
-2.2345953065686918e-05
0.0068871123663525428
-0.0075531131204450023
0
0
0.0017972822627789471
0
0.00011094830410733375
-0.0040983488224983411
0.028461086924124999
-0.0020417231568781568
-0.0014864830255416053
0
0
-0.0082404551863051751
0
0
5.1394528587421741e-05
0
1.4193212306616023e-05
0.0014535906952847727
0
0.00038066532573467369
0.00017301365513999848
0
0.029620774448426881
0.0081622162218367451
0
0.00077571968032680608
-3.7170332712559155e-05
5.9245025565691301e-05
-3.4922880966330161e-06
-0.07292881730254358
0
0
-4.0232508902797476e-08
0
-0.00062903187006160181
-0.0029715983548174616
0.0025657868950789858
3.8781355850988027e-05
-0.0020629793822482438
0
0
-4.9098754900554261e-05
0
-0.0025355094721219692
-8.7603824670761375e-05
0
-0.0028912462104817402
0.00074603494618236273
0
0.001273033933411199
-1.5324458310311475e-11
-4.3580320214697819e-06
-0.0031554278018498844
0
0
-0.00022875871176272582
-0.0016642177868085391
0
-8.2789331219005751e-05
-0.00062734456250717555
-7.490891010872991e-05
-4.8339848346948678e-05
5.6498255736305586e-05
0
0.0074064625530976865
-0.014616645822877857
0
0
0
0
0.00080952276403378548
-0.012496330327536893
0.0007740032483071202
0
-3.4323860642965088e-05
4.7335911427170234e-05
0
-0.013505517646635268
-0.00604256112872172
0.0038194195458799581
-3.2470266963397344e-09
0
-0.019187657436440412
-0.022307543718921474
-0.0048315185019716742
0
-1.5676623531220738e-09
0
0
0.00023241303769555466
-0.019922759646291328
-1.9738406125598036e-06
0.00084064116575750618
0
0.00091924258362227715
0.012601100333284196
0
4.4004043948236149e-06
-0.001674523779080598
0
0.025625118814915599
0.014475983836148098
-7.0536837873549937e-06
0
1.0585805500385102e-07
0
0.017607428545688312
0.014401687513725113
-0.0041846106596964538
-0.00011272808764073899
1.2535945147627064e-07
0
0
-2.4603421992607437e-06
-0.010704054352209941
0.00061041465111599065
-4.9092618639022459e-05
-1.2059667339545036e-05
0.0025584661189829608
0.005177544149255418
0
0
-2.7815847798429e-06
-1.3260181128007404e-05
0.017718185849316379
0.033577892289179137
0
-0.0096636850847853645
5.053584027386106e-05
-1.3039888882262326e-06
-0.0093135990545662687
-0.0052025949952305417
0.030825579367750298
0.0009018157303764963
3.1369004259037212e-06
0
-0.065755524877539481
0
0
0
5.3348822489008725e-12
0
0.060358932606302394
0
0
0
2.0927199250400418e-07
-5.6060923976799567e-05
0
0
0
0
0.0027098328119553668
-2.0161478140188794e-05
0
-0.015235201274236854
-0.0078225507753372121
0
0
0
0.041769544467656315
0.0016176567102704265
0
0.0050302178635520979
0.0013021163690970687
0
-0.0068099498534510989
0
0
0
4.1339054307791093e-06
0
-0.025487040198608903
-0.0037366349456798395
0
-0.0025355869196136082
-5.7699946249637507e-08
1.6146562230623085e-05
-0.0058474733179627392
-0.005998400341563969
0
0
0
0
-0.0028058561949760195
-0.015100795652442257
0.0031667096640773992
0.00024031383029970749
7.9695428807425794e-05
7.147240119307332e-05
-0.0051284722132469663
-0.081182671657465788
0
0.0033208205266514095
0
0
0.015423078996264212
0.0014715327373156857
0.018723900795190953
-0.0009202024530464844
1.2757145979849887e-05
0
-0.011411348516872276
0.00013783711995737636
-0.00040743319128005442
0
-0.0041441742884355598
0
-2.5339490557010109e-05
-0.00038693590915204914
-8.3110545756994754e-05
-0.0086012956577191779
-0.00053355517377686444
-6.4600480231853983e-05
-0.030871552630827626
0.00035093219959794547
0.0012180831492674237
0
-9.2837652393418712e-05
0
-0.0029076343945421976
0.011010358608457442
9.5042230127813333e-05
0.006896088668245713
-0.0058253465353819657
0
0
-0.0024546476344764661
0
-0.0013014666623540894
1.9053320815565081e-05
0
-1.5159559789478938e-05
0.046317602576041166
0
0.0016860756247734946
-0.006285241845328947
0
0.010376623984603818
0
0.00034286070227283164
0.007345457147785556
-0.0019700883740244798
0
0.044291157143048127
0.0086243678867960003
-0.0071566486882196417
0.0010195328082685748
-4.4866812162467623e-05
0
0
-0.0024641890547279265
-7.239199743551995e-06
0
4.7122568539124086e-10
0
-0.0002436872768248128
0.00053401595703980763
0
0.0023900476835099042
-4.8581598826186e-05
0
0.00036185754519717217
-0.0015597645753189062
0
0
0.00012566007132992606
0
0
0
0
0.0028933881112848917
1.6103763538350142e-05
0
0.0072862430616086977
-0.0067504222250565548
-7.0956446885947277e-05
0
0.00020173374885556035
0
6.5435622823840204e-05
0.00014982833954645136
0
0
7.6211870715776518e-05
0
0
-0.00031129881133177683
0
0
1.2507928950039342e-05
0
0.000259223999752326
5.3730890685708155e-07
-0.00091569306976483646
-0.0004696204989501553
2.634191028292811e-05
0
0.025758734115102482
-0.0010692697003069848
0
0
1.9188730406230448e-08
-5.6417485315346867e-06
-0.003431543406428185
-0.021611871202589127
0
0
2.6190429275761005e-08
0
-0.002215113819965123
-0.069717896085607342
0
0
-4.6150601312685972e-09
0
0
0.064305479427765225
0.00027632823819174416
-0.0003304560369796681
-1.5634737277328569e-08
0
0
-0.00048808812950216043
3.428560770688342e-05
0
1.2697874024737443e-05
0
0
-1.7001367544544096e-06
0.00024708582733785629
0
-8.6109343997571389e-09
0
-7.83913609768123e-05
-0.047357377702527993
1.4653259941697145e-06
-1.4008026545467336e-06
0
0
-0.0079883207139237241
4.9878298207986014e-06
0
0
-3.5272030213404522e-10
0
-0.0060388943083776962
0.00031099924166050385
0
0
-1.1791803827187418e-09
0
0
0
0.00071408013487765827
0
-1.066194367887903e-06
0
0
0.0021634270312395568
-3.8084477249220717e-05
-3.3217775104387254e-06
2.6404628271083095e-08
0
0.00089728383829069415
0.00022100602647224257
0
0
0.00015268341604952421
0
0
0.020541062137488502
0
0
0
0
0.00020970749711435674
0
0
-0.00052401333791697341
-6.3070728972488782e-05
0
0
0.00088248558740542206
0
0
1.9445362279443579e-06
0
0
0
-0.00014757861002262466
0
7.3553668072920088e-10
0
-0.0018821732344262905
0
0
0
3.5541618229692467e-05
0
0
0.00044302965014089506
0
0
0
0
-0.00063299462106461857
0.0015871071847979631
0
0
0
0
0
0
-9.815245976575029e-06
-4.9045955975581384e-06
-7.8126391048900791e-06
0
0
0.00016947322528653618
-0.00011313832519814317
0
8.0652852598489449e-05
0
1.1944358634648546e-06
1.5887624479214981e-05
0
0
2.0256424858056622e-06
0
0.00043006911018047113
0
0
2.5903688429839295e-05
-6.2425201319035606e-09
-0.0010793002861875897
-0.010307412692131875
0.010651186341992065
-0.016384719338845482
0.00073969780482889547
0.00043030097008039047
0.12558090906395072
0.0095850005813093858
-0.02673039354101641
0.001866389609875548
-0.15677823615813016
-1.8051288531681304e-08
0.0003597707535149923
0
-6.8660322908045699e-07
-0.086084482238496407
-0.0039976714660055531
0.036363642410376859
0.0045083870929726322
0
0.077761909670992738
-0.06379075387628938
0.1884754571493128
-9.7814379497033845e-09
-0.025079613063499838
0
-0.0028344694975317658
-9.2891742101292007e-06
-0.022550143017472098
3.3249788679835231e-10
-1.1000888847148668e-05
0
0.0011771233935716416
0.0024063703650829518
0.0072624787160873103
-3.2665635507161674e-12
-0.00062538144088843237
0.0025304234716518152
0.0053128838259305904
-0.0001217632562286602
-0.040920360691691325
1.5601839793987245e-05
4.1994381392835809e-05
0
0.0012493318584991396
0.00044461388855144722
0.10896538078214303
0.0029382760069668933
-0.0015954240580661029
-0.0061556120318833263
-0.18450398387315617
0.073110896234652029
2.9956510537430561e-05
1.5263936869690401e-05
0.0033372934638178265
0.11228291668330746
0.0017823347473565868
0.014165756728552571
6.0542768883922843e-05
0.00012481170282107619
-0.0053184950124837592
-0.034007050052587112
-0.0074246615880311567
0.0082665472380041051
0.00388350416692884
-8.1615739320028711e-05
3.5476577847036548e-05
-0.043708850513196326
-0.13534235554736823
0.00074353931415542204
-0.0034952902436145997
7.3981517540359996e-05
-0.00062568193259733519
-2.1880224821323193e-05
0.00027713673295471004
0.00013771775051988369
-0.00029770313865429276
-0.013946220455156779
0.024377677156845308
8.0012997793796784e-05
0.16327554204672973
0.00051276103814638897
0.0026757722486862919
-6.2412955267360325e-08
-1.7547164638295391e-05
-0.027711319976369053
-0.0076607961580661783
-0.25603563044087846
-0.050182800957077445
0.043791252525796937
0.01593807546197264
0.00019376201916069079
0.012383440702586996
-0.070675496619438977
-0.002670399258440018
-0.0014864830255416053
-0.0024172856223946262
0
0.040155476777509622
-0.12966867467467585
-0.11566821008884018
-0.0001065372017784249
-0.057293259815780699
1.1435332269580878e-05
0.017767146976097013
-0.056148697620146522
-0.012064900957859743
-0.00094000039031203494
-0.04294853524137271
0.026074481948788544
0.04424241534321046
0
-0.0017065582272733524
-6.3800284645315123e-05
0.0001056541987710959
5.8686171808027324e-06
0.023095651154335119
0
-0.057501658745374426
-2.3043125730539441e-08
0
-0.00062903187006160181
-0.0055319054851386187
0.005548781166277929
-0.00052361226718548794
0.0030591674835736609
0
0
-0.00010032702274950033
0.19930873904636756
-0.0023669996185559025
-1.1395444536084177e-05
0.0069618054837492626
-0.03318210560883629
-0.095713569581801355
0.036285103086051047
0.0095553126373854776
2.5360865287144814e-11
4.336466211224364e-06
0.0024707266949851869
0
0
0.0028924179004660034
0.0018351465843975663
0
-0.0019826329288971773
-0.00044557839668626638
0.0013696152839636846
2.7401912718630452e-05
0.00011895647575123549
0
0.006926986797793677
0.2218127494331969
0
0.072915664560652682
-0.099727153527418039
0.0038030839470569924
-0.00068831829460674031
-0.0026595459718138474
-0.010944881683822743
0
7.0354827167343935e-05
-7.064277191405727e-05
-0.34993884913995765
-0.018286679636085396
-0.0020737606441092195
0.016573117854057962
1.8604665907132222e-09
0
-0.010960771420294333
-0.26748111949515274
0.017874309526090929
0.049376478852885083
5.4982026558619954e-10
-0.0062233250470358657
0.15837579271162697
0.0012706529210445075
0.17508743938148313
1.111345007352232e-07
-0.00066687881235899776
0.020656047296308603
0.00084706611972077686
0.012601100333284196
0
3.2987238636441399e-06
0.001674523779080598
0.00040133225445534331
0.025704280719272565
0.043826247779521203
9.3735030901978865e-06
0.055136362263580603
-3.3369313634235776e-07
0.0016150117248588561
0.040569080139672836
0.056411272119128206
-0.018568923578889441
-0.00029908949142888911
1.3122608535776787e-07
0
0.21960211875182784
2.9074219845224965e-06
0.019415584518518787
0.00036535976424663196
3.2928203553396144e-05
-7.9827031716134903e-07
0.016642784250523956
0.0082364036217856436
-0.076115085659878234
0
3.6081375259669296e-07
2.9286940423169219e-05
0.12326391135601585
0.093166714257354691
0.24719446382764187
0.019464918904337474
-4.6902142467937125e-05
0.00031118011939072938
0.0099168504442728699
0.0052025949952305417
-0.019585996615476498
0.0032978357652201093
3.1369004259037212e-06
0.0025142491345893224
0.049555934041858388
0.13013878010825844
0.070711861401106274
-0.055697742028049432
6.8885771689384012e-12
0.00079563294064801087
-0.15383162999001007
-0.39377530076412393
0.059121697323368638
0.051402772027776419
-6.48414229017285e-06
-0.0003901344612565824
-0.07768140949004787
0
0
-0.015321873320210349
0.0041123043240019102
-5.5795816479395124e-05
0
-0.0069568087022907742
0.011076961592440244
0.0084491351605375103
-0.10991030782504185
-0.0015504820698728837
-0.0070345418651598752
-0.00059924113074123569
-0.0071433661963401784
0.00099526685388711214
-0.00083412839975167887
0
-0.0045623537456126011
0.20346771215940815
0
0.06897083297505778
1.032069854565944e-05
-0.0066067529640088159
-0.027157531228479422
-0.01490048736747587
0
-0.0031785715650105152
-5.7699946249637507e-08
5.128300155341585e-06
-0.0043565223414928087
0.0010220224534922917
0
0
-0.21298465108803158
0.0026440043869470401
0.0028058561949760195
-0.015067590669925336
-0.011541500351168178
-0.00045287865160075684
7.9695428807425794e-05
1.5764967983644852e-05
0.0021380922237403451
0.018253926166966881
-0.17438528692929706
-0.001371541718050578
-0.040859629637274436
0.0014656822636414583
0.073470156479893189
0.0011126289864345552
0.036516155308605081
0.0009202024530464844
4.6708572132610345e-05
0
-0.0077119291182017081
0.00031758649270055821
2.5474557788775394e-05
-0.0002204961946076305
0.022697528407170556
0
-1.2642972874322618e-05
-0.00022395938323922313
-7.1929742983736908e-05
-0.0080721725997553104
-0.00047088999190751961
0.0049705695150509517
0.025717993673141641
0.00030756197203448787
0.00032326598237804695
0
-0.00022277482137096692
0.00051118480066197187
0.0047145045894667042
0.087779419717908452
-0.00042400648152548365
0.046064526188746749
0.0041595307907434107
0
0.17607844433331105
0.0032743236354467525
0.078301235282958292
0.00012312102190361929
0.00033509880951769646
0
1.4071798264316014e-05
-0.073875193162397185
-0.16358204214074432
0.0013515001639910046
-0.0082395784750084241
-0.0032840178493194023
-0.0038306504425407164
-0.12636791484019913
-0.0038807089496697578
-0.011400922247400474
0.021354879749219721
-0.034139209987977905
-0.043307921707499072
-0.0024297207809170209
-0.011158216652742248
0.00066086358005227946
-4.4866812162467623e-05
-0.00078103591561603462
-0.087329545698681579
-0.0016865187774787686
1.2055202152022231e-05
-0.013448483948579946
