0.099822142393560145
0
0.0032733633950553704
-0.0084267763359456467
0
-1.122129028578957e-06
0.099996026065007126
0
0.0082357054167690492
-0.020806534663947805
0
7.1727686651781955e-07
0.10000126757021417
0
0
-0.00019616918962776049
0
1.6283813176954742e-07
0.099332455608258333
0
0.0073670181316062115
0.0086636705216488197
-0.00010241489607593985
0
0.099711006988744688
0
0.00019067971952283893
-0.0038918862046165154
0
-2.027925458902304e-08
0.09955395557632947
0
-1.0009727531469878e-05
-0.0013527165760302455
-2.6097313239170956e-07
0
0.095816385283754718
6.8884343709864474e-11
0.016859936987829695
-0.00035078386973218766
0
1.4636494041815764e-07
0.10189213188486518
0
-4.7187035999537628e-05
0.0067600000676829386
-8.8152402290143908e-10
0
0.099307687606340497
0
0.01186429847027312
0.021358722382890383
0
1.8098389014916083e-07
0.099933652203254161
0
0.00029945337089189552
-9.0522828585420841e-05
0
0
1.7673381546872976e-05
0
-3.1432500403239394e-06
-0.020284116914952629
0
0.0002445141209207131
-3.9743354405600999e-05
0
-1.929745744617472e-06
-0.00090878970857374212
-3.1905535244402647e-05
0
0.00034046532166254971
0
0
-0.0029233812911511527
0
0
0.00059059262604122973
0
0.00054844872178247265
-9.6644284537609842e-05
5.3392821308129809e-05
7.0612008166142561e-05
4.4523695859210177e-07
0
-0.0018478636424162414
-0.00064336948738120243
0
3.7303425734646843e-07
-0.00084746620953175605
0
-3.6161934650657083e-06
0.0096194436601249548
0
0
0.00025231846552981274
0
-6.3112612103413836e-06
-1.0877930317145208e-07
1.8193509849120296e-07
1.2321189452737316e-08
-2.0072729183336501e-06
0
-5.5026376249096733e-06
0.0098110515330438793
0
-2.4754237750792806e-06
0.0010501680428505434
0
-0.00030209835348923749
-0.0044703196687130922
-4.2069381100008537e-09
0
7.9698351094840356e-05
0
0
0.020448213726081833
0
0
-4.4662616030913152e-07
0
0.00016521955177552561
0.0012649721532075361
0
-2.0662813033097277e-08
-9.4292781666738573e-07
0
0
-0.00071241457709089642
0
0
1.1881400183200293e-05
0
-8.3264196394553406e-06
1.8399702113101805e-06
0
0
0.0015259547981407787
0
-0.00081730354977725282
0
0
0
0.005218494809933776
0
0
0.0040483509335723063
0
0
-2.1435465636046363e-08
0
-0.00013730741445713618
0.0049256509362767794
0
0
-7.2418480229630557e-09
0
0
0
0
1.2828099693730157e-05
-0.00089226264305507935
0
0
9.8780463964741185e-06
-3.0707430255395207e-08
0
-0.00020014813270932439
0
0.0013560101560937895
8.2960987346604125e-05
0
0
-4.7869250694491774e-06
0
6.8710570740548844e-07
0
7.0667993129087711e-08
-0.0002020457315686482
-0.080710592747576651
-0.00015548040071688065
-0.078027288390244254
0.23666188733298194
-0.077802808965029405
0.049945381003141623
-0.030958583675707013
0
0.23189008667500727
-0.12032667859576587
0.0085229266965939424
0.10000000000000001
0.11921667458873812
0
-0.25746003483605295
-0.28525217468228153
0.014167746450825046
0.12008145720896558
0.17380589315682185
0
0.23444217695361985
0.51797717712173141
0.060315281170416742
-2.3550283533683792e-05
0.089869680810997943
0
-0.26331627151920817
-0.058088804612391236
0.15245396388410001
0.072451134908814704
0.12607885393063581
-0.0004127238775917363
-0.61826965819287416
-0.29837841586526953
0.19530760994331464
0.0052914841398032739
0.32873310967964059
-1.1951700104091314e-06
0.090183335599365019
-0.15120355457670998
0.1007056760859384
0.12665403578073686
0.59729960079912603
0.00020399120213533402
0.22362789898982702
-0.21770012096947891
0.12457971011696171
0.12671400367378005
0.52211525789534263
0
-0.12679854843560351
-0.10032438119458957
-0.09948260537953138
0.10559223594106583
0.77373114666930864
0
0.024523281342574775
0.033627827188391371
0.093587992684813687
-0.0034690489910695339
0.84535209003597334
4.8367189673112828e-07
-0.25873942537056982
0.043964273681132857
0.013180232570517517
0.00023326302014965817
0.61789644457817794
-0.00011128439733750513
0.17185864854847852
-0.089918303444836423
0.16204491002906898
-0.0023039140041645561
0.87343755228878195
-0.0003023948374968163
-0.073187617520935486
0.044023242269640578
0.17562361689640696
0.0023207542477336335
1.5917019443975435
0
0.20198039045005134
-0.16816259836811895
0.0028983060210858161
0.022180581645023165
0.2323890640007211
-2.5988017115363142e-05
-0.073501545773002969
-0.090988657160388745
0.20121805807172854
0.028220011537986887
0.38226705204252792
0
-0.00036691409555934318
0.24780014655509722
0.10000000000000001
0.16522897448607146
2.1366635255622692
0
-0.19741990417188027
0.12786400109103538
0.056160309788240888
0.097639218541671138
0.42454107160444809
0
0.1374215524138514
0.2126702147485055
0.017489654370007868
-0.08539109198462326
0.49178832932523719
0
0.38561379076042773
0.56021869350867204
0
0.10231340292256812
0.81709071977532322
-0.00014440365632204601
-0.078131889824149273
-0.088605853835990275
0.099978174124464012
0.018087921562018439
1.0559343692210494
0
-0.093191357964922367
-0.55997931712120497
0.11633223671787601
0.087279313477176712
0.9165172920795418
0
0.29660239176002173
0.003269088532230863
-7.1936822230314525e-05
0.071979313020639091
0.85022737089493583
0
-0.24709003466631196
-0.13990360834463275
0.00010956412405952339
-0.01969215115037655
0.88332608225347453
0.00019821590563262725
0.086599428267284756
0.14223356692349751
0.10000000000000001
0.0020864449105490982
0.84522674301213507
0
0.046987809350439967
-0.014999714795519318
0.063860486641457645
0.033596731198792237
0.63569183039505228
0
0.10410815451525407
0.25279447029292335
0.10000000000000001
0.10000148759268448
0.87729912458397463
-3.9716096704676773e-06
-0.18907328578079013
-0.54596326360785408
0.010701019852540301
0.10000000000000001
0.6418685646899025
5.5865571917600255e-05
0.14149131647302285
0.37136471406768534
0.10626547844573742
0.11800460728718838
0.74308247139300632
0
0.52764223133163857
0.24566819882618657
0.17988968085574475
0.015424159769433236
0.033633069684262884
0
-0.2610967464388142
-0.10091461459890469
0
0.006190472606021377
0.053583343974935284
1.5284680515391788e-07
0.010351133449650758
-0.02217481952642571
0
0.01255973412384089
0.027171479039181191
-4.5843278281340362e-05
-0.30433478612824855
-0.27472579934264113
0.0058468952498689055
-3.1027111272310776e-05
0.15561738827110766
0
0.27609286139329364
0.38168138672853663
0.021581463649095856
0.00037965619009549677
0.07867940578370719
0
-0.045876420770761192
-0.14823897021610613
0.010317326486894016
-0.00023852007183979668
0.049576608659456331
6.3226180796470598e-06
-0.38112424758684571
-0.14205328432748759
-3.4425220204557777e-05
0
0.090369021213295334
-2.1353294590071384e-07
0.50264058015818303
0.57082823334971988
-0.10000000000000001
0
0.12436488717628896
-1.3398938260058428e-05
-0.054173715084010032
-0.10868950442620488
-0.0040281525695103557
0.0028908931397909647
0.01396915316869423
3.5102874185678005e-07
-0.2203811268789824
-0.2822384415798308
-0.018778303401096045
1.1877586368220101e-05
-0.013465245053729601
0
-0.17701724120248641
-0.29243703052145814
1.6740775338208291e-05
0
0.040368820939631428
1.2409231638436357e-05
-0.19099293554651647
-0.23115900493143587
-0.063674447897844072
-1.1497224233118105e-05
-0.33940799879592681
-9.7589363023408552e-05
0.14759794915616323
0.027115864468138816
0.0085539750396303009
-4.5785342813393024e-07
-0.1971458722363878
0
0.058670964930099948
0.16092754512092625
0.0038565583224315328
1.7661377965636215e-05
0.47397234323925158
-2.6167770997834968e-07
0.16992377615680021
-0.13841238232040581
0
1.6303252324557735e-06
-0.014914835041403495
0
-0.35795376664794809
-0.0038936563893045878
-0.00016894642728327669
0.0029364134517925787
-0.42697338775655397
-4.1629765124128054e-05
-0.22874060994082548
-0.0063057536097852916
-0.10004572338920459
0
0.66993129162397969
-5.5908269572607038e-07
0.12959231350512521
0.067650204341194883
0.021893565446016578
-0.019857031676375324
0.12040190226781811
-0.00016928675073342114
0.18948701976888996
-0.016903880907299777
0
-0.02563662166511638
-0.28665401673365132
1.3026705565046699e-05
0.58713286642315587
0.22657860889045156
0.026844370154936507
-0.00014572864060105354
-0.34710372768562103
0
-0.48035652690385905
0.09810114886137046
0.0042376072932545222
9.6896144133322131e-06
-0.037348752107497239
0
-0.30327366990931104
-0.25811962646424613
1.8304416871111712e-06
3.637945016078072e-05
-0.067282775107157675
2.7051882364981876e-06
0.075486438721848279
0.28249201511678146
-0.0084408814690867216
0.022539139988402967
-0.17413507313026186
-5.0430269522464978e-07
0.07095539128970639
0.15576666716289514
0.0026282843446942656
-7.5318955894830212e-06
-0.11764647940767498
0
-0.21211705421419616
-0.40230405186423207
-0.0055492901198622305
0.0010529379430041274
0.097130747971479289
0
0.1140254643227627
0.45184729560084602
0
0.0088095333935983115
-0.056119012827702902
8.6150496840177732e-07
0.34913879225568745
0.12686931692905792
-0.016145839508308071
2.0515874460584197e-05
0.065362793665446131
0
0.040695554261409445
-0.22335949636536101
0.055784251165220754
-0.00045622846595043507
0.045763031590405734
0
0.12739567583850162
-0.069871639626187421
0.1115195598912502
0
-3.6230071420414755e-09
0
0.0023479413015125598
0.0031893390987938522
0
-1.2628310880998518e-06
0.0004000815842485734
0
0.00060878335941485454
0.0012870737260392607
0
-9.627489735280082e-08
-2.2856319061653054e-05
0
-6.6952191220147591e-06
0.046842057478564382
0
0.00065224081404050883
2.262074659887982e-05
0
-0.0061075961704532
0.0099826623154935529
-0.00022890316640157465
0
1.2523244230026699e-06
0
1.3422961110842671e-05
-1.1887126621513074e-05
0
0
-3.1415199649840968e-05
9.9918967037100155e-09
0
-0.00096228785518648221
2.7328282890024119e-07
0
-2.9588883354426542e-09
6.558119769208366e-11
0.00056363613993716392
7.5001059720156147e-07
0
-0.00019469807841333457
5.2724186587009526e-07
0
0.025733273964364509
0.0036880011429349991
0
0
6.0628305828760693e-09
0
3.4479016545299561e-05
0.0092933533726683656
0
2.1722912653078436e-07
4.0464538972499236e-08
0
0.0025545921997357835
-0.024387823507219672
0
0
1.4292078613639509e-08
0
-5.3551394112027684e-05
-0.00091578235345144126
-7.7447071999174532e-05
2.8232801130736962e-05
1.0886303454338795e-07
0
7.5258595011770157e-09
0.0013489672688041523
-6.37177539285041e-05
0
2.3652700521618554e-05
0
0.014334952991028181
-3.8313633567404016e-05
-7.9392111654804124e-05
-9.4071450248381679e-08
1.370439900663531e-08
0
-0.00023014478271567699
-0.0002865210005002784
9.845404397931103e-07
-5.4622774453782231e-07
-5.4690446197921825e-07
0
-0.0043975220870772942
1.124563791708665e-05
-2.1239832921768807e-06
4.4733992937205229e-05
1.7027661917711146e-09
0
0
0.0010070505368172105
0
0
2.3278946600967982e-08
0
-3.3554613036480687e-05
-6.8462008461714263e-05
7.6122557851983751e-05
-9.8085309770200885e-07
1.2185297076793749e-05
0
-2.1106832807352137e-07
0.0041979424131678893
-5.7330738087950637e-05
-3.0565067438802729e-06
2.4564798659570723e-08
0
0.00081466644086196501
0.00081185913543463319
0
0
2.7413768183174281e-05
0
0.0025742984456529568
0.0016750439520121097
0
0
-3.7470695658506308e-06
0
-0.00076867185603189626
0.011002808392495983
-6.2821881091413517e-06
0.00034871364458450009
-1.3090445471002582e-12
0
0
0.00056242971143898621
0
0
7.148208988054867e-06
0
-5.1139708918383285e-05
0.0040286562912899308
0
0
8.786030412021821e-09
0
-7.0649343831016031e-06
0
3.6106871137186288e-06
-5.4609076563255522e-07
2.1357456038123621e-05
0
0
1.9962910433073518e-05
0
-2.184396591934156e-06
1.8654548923763592e-07
0
-3.394151880789424e-09
0.00036328098481516589
0
0
-2.5070166112923827e-09
0
0
0
-6.5057148472533387e-07
-3.5174816035418293e-06
1.6906043450989911e-05
0
0
4.4385839589826571e-06
-5.7748946867420008e-06
0
-1.293050041248602e-05
0
-1.438112111468092e-06
-2.0646386375084788e-05
0
0
-5.9464472973280075e-07
0
-0.0010166648559106308
0
1.3303101355779645e-06
-6.1334296978819147e-05
1.9830710538846851e-07
0.0014208300531552275
-0.10642173853458585
0.0026792722814396345
0.022676768355537294
0.0033495317282378674
0.00055252295878767041
0
0.020749964728990569
0.31919505191362185
-0.0036470958370852483
0
-2.1254777298610748e-08
-8.2445909063884235e-06
-0.050580490171874395
-9.6940216732173512e-06
0.048966252324780732
0.015957095025205242
0.012201624242314125
0.00084207119626895639
0
-0.13279485019449191
-0.05351509223710324
-0.029157232314019378
-1.9039860529163933e-09
-2.6103194684497646e-05
0
-0.016341572095640092
1.2626468511476491e-06
0.015903898514673196
4.3477078003353437e-10
-3.1690488849036185e-05
0.036103139692834303
-0.031872466817565032
0.0020826643948504814
-0.0099774307163635403
-7.1970324462457861e-12
-0.0024462329664723215
-0.011431804308401562
-0.015793799803593921
-0.0014495831600576973
0.020415126728698395
1.734636930865706e-06
0.00011781056201946372
0
0.0032107065621278714
0.00061485537631345445
-0.044842031983191331
0.0039237531135432064
-0.0055051294858575591
-0.0083356310860748274
-0.37224500517127884
0.0019767082553559883
5.8584318798350782e-05
4.4166616340758931e-05
-0.00050425503662803036
-0.096357948996071641
-0.0016097127045468283
0.015246014025852945
0.00014080937942121785
0.0010445992300069334
-0.0030592200194088951
0.0073225814094320047
-0.0019134286512612118
0.010083855279267164
0.0062866400177629686
0.0035594910065177539
0.00083194415894636046
0.10216442771148988
0.23915240299225063
0.011865640654614977
0.00056273163063393192
0.0014812657184533915
0.00036635002056691703
-2.699150089465604e-05
0.00014568387291853072
0.0082862084691179422
0.0032630765090546389
0.020027597703843866
0
0.00055638095507519589
-0.056345235491904171
0.00087664502014813696
0.0046305186388344898
1.9244800771356721e-07
7.681909047296e-05
0.052232021283285447
0.010757372619015149
0.38012115028845112
-0.00017421788138133996
-0.047052455279568306
0
-0.0013516387446952604
-0.02859595448358002
-0.070675496619438977
0.0024098615707010044
-0.0043377663691382268
-0.0020619734879827917
0
-0.017613035682551407
-0.07982408335262775
0.11232212910321807
-6.8381738567097381e-05
0
2.7616400394930935e-06
0.0063409713676365678
-0.056171640792986505
-0.02071666610546636
0.0010561072907543895
0.0019410256808782217
0.0024614385044190411
0.048043087999810642
0
-6.5373384898828026e-06
-0.00022090894168649283
0.00029873881147080255
-7.5456979148227641e-06
-0.022272563002900352
-0.00038462731645661202
-0.16324515072157
1.598036124354763e-07
7.3835261844579819e-05
-0.005901525097229264
0.00020146351657275818
0.010775873117160871
0.00017235837013987839
0.0022654872411903598
0.017653264016725317
0.16598147407081196
-3.1658518332961189e-05
0.26836497939554893
-0.0025484904959009072
1.1352908287788095e-05
-0.017167356472201578
-0.041122513339687569
-0.077398512893426891
-0.070566874354475881
-0.0090334536759032989
2.7950894401071464e-11
6.3576087693444915e-07
0.00075605392090514611
0.30448986436769093
0
0.0041678397544964076
-0.0025251996289027681
0.010989001113526665
-0.0027426073395906149
-4.7170228050333552e-05
-0.0014582833904473382
0.00012208488797800521
-0.00025456867475728997
-0.024426233951412055
0.0056424328447522015
-0.010560998849319318
0.010509296169594458
0.013498970876473891
-0.018459214561077991
0.0026908203361976531
0.0015063869299827139
0.011351377209302346
-0.0099828985651629239
0
-0.00017517805601670243
-0.00026141183159729902
-0.45023387445330781
-0.037256491794378094
-0.021759910949440863
0.0012766908642142289
9.2773820693155122e-09
0
0.0055571522399153342
-0.023470401101504876
0.0078718231222722722
-0.010323812203310273
-1.1857038825909645e-09
-0.0019510851535071796
-0.15837579271162697
-0.0063213055020684729
-0.12037296390890062
1.122383043185568e-05
-0.0010374136674348141
0.00024530095524232106
-0.0016577910751951377
-0.034765393277644621
0
-8.2385980208348918e-06
0.0017965499542375956
-0.00018073337095668904
-0.029491871733610616
-0.041880285259277783
2.147088821981589e-06
-0.055174820407655395
-6.6689724218789724e-08
0.0032697908773243888
0.12188916902425408
-0.042274884618783683
0.010982334841538046
0.0013947039830901329
2.7102815507066237e-08
0
0.33290695000573883
1.3758235107343176e-05
-0.0072661066273994497
-0.00081232418787683368
-0.00087791309709674061
-1.9141937781280715e-05
-0.019990400629747728
0.010287453299602447
-0.017359346689697071
0
6.064512933612406e-06
-9.7029908947719692e-06
0.026849701117280529
0.0050748850229451279
0.029024701071679097
-0.039620702305077075
6.8662173818751521e-05
0.00034665531130124609
0.0085832645520361305
0.0060304908361696547
-0.042837090487410724
0.012720233249506213
2.158121962223119e-05
0.00045543145096601232
-0.10200172498971627
-0.0073886297424178293
3.9751298601717823e-06
0
-2.5386092957320811e-11
0
0
0.0013744756253375174
0.070220238196220724
-0.051729867047784636
-6.1276770517127574e-05
0.001298006009261848
0.064530044980398341
0
0
0.0020515044821259134
0.00019613812194490252
0.00013161150986500019
0
0.01993444946161381
0.012848265175881283
0.092827000163284309
-4.1866425933801963e-05
0.005492339681424833
-0.0020063919306647507
-0.002520420360371011
0.00097480528423944158
-0.0096710708158834636
0.0040301000499951729
0.011566353575878608
0.019948734525239167
0
0
-0.027118518730261987
-1.9334067798908098e-05
0
0.057239172626926356
0.030847457324901725
-1.3897628670738303e-05
0.0024771656447562058
-1.6710865617054899e-07
-3.007950379242162e-05
-0.015193104457700991
-0.023267623902967965
-0.0023141057296505595
0
0.064294944547124797
-0.0013184318628745014
-0.015804876522717563
-0.018654723466862859
-0.0099987934122617843
-0.0012035061838586755
5.0263062308289357e-05
0.00057655348288895153
0.0058121337811629465
-0.081182671657465788
0.11661495291486473
0.0038855131571448958
-0.063700309637788777
0.0024106304602731971
0.14611482616863575
0.006098201081223607
-0.040370794268862739
-0.0001977214379250516
8.6909356420859018e-05
6.9936481133100875e-06
-0.017442874102621228
3.8073901796417488e-06
0.0018880887771253608
0.074192377376383289
-0.012451008079072597
0
-0.0002370986150856025
-0.0013417953394058843
-0.00029502501349089425
-0.014340397941187317
-0.00093293748623413727
-0.014021042793885961
-0.038267501295905351
0.0004870840909579734
-0.00070848694927272448
-0.00059466013357496251
0.00061454653887314846
-0.0054514041361134859
0.0073341018599640019
0.18563217521733841
0.0052619315241828613
0.025116772136804105
0.00085226970331242556
0
-0.034468496672607513
0.0021447175618647765
-0.11716890321496974
-0.00059111541489421417
-0.00065275484409908833
0.036528873261581628
-7.8644407394824447e-06
-0.13257610343542056
0
-0.0049035095059411487
0.0043054660533828728
0.0041075637313297397
-0.0187207104454481
0.00020457621600200742
-0.0018072544108221865
-0.027294132558940972
-0.019671258850451075
-0.034139209987977905
-0.051310845991812827
-0.0095733732925069853
-0.030670787930871048
0.003113609844277678
9.8159699519027589e-05
-0.0014013892380320785
-0.22113695004855372
-0.01647169896746848
5.0024167077288806e-05
-0.0076490693638078784
-2.4862399401179717e-09
0
0.0034611691829896942
0.0083339503293706346
0
-3.3984602308157466e-07
1.4573938067381023e-09
0
0.0032381619420210899
0.00049264551538301957
0
1.1768559059889029e-07
-5.8793299268439001e-05
0
0
2.8122521834967611e-06
0
0
-1.0290882176877993e-05
0
0.0071651487803729196
0.007443339451170275
0.00010025449124902078
0
1.1737225835994648e-05
0
0.00030870004111057205
0.00081351082360872542
0
0
-3.1180956903113716e-05
0
0
0.0017034889678988216
8.0276115006216339e-09
0
-3.6407666896088326e-05
-3.3800057217120703e-11
0.0010271952091082657
1.8191314506206573e-06
0
1.2299839086561984e-05
1.2074471562250347e-05
0
1.7356507799701788e-05
0.00364912940081096
0
0
-7.5934757831721957e-08
0
0.00043657842589152633
0.02134511671776405
0
1.9945936264830295e-08
-8.5320233754580926e-08
0
0.0014511111675214799
0
0
0
2.566326567255375e-09
0
0
0.0064270546796342939
0
5.038381068587254e-05
-3.7748585369242069e-08
0
8.8721338690588853e-09
0.00067690149527691859
-1.3038732150352811e-06
0
-1.8352179796819688e-05
0
0
-5.8761353221420817e-05
5.4044325464033634e-06
0
-9.9607146307512479e-08
0
0.0002428270176793948
0
7.5125141088136638e-08
1.7588383231743797e-06
-5.3217732510689987e-07
0
1.9870675952732303e-06
7.8783867220558743e-06
0
-6.2601281960240124e-08
1.4935748139771033e-10
0
0
9.4832343916739511e-06
0
0
-5.4465125200871721e-09
0
0
0
-4.6529752234975801e-08
0
-8.7871116684285687e-06
0
1.0197713838133618e-08
0.0022342222111026207
0
5.3704460515452668e-07
-6.2527979706721429e-08
0
-0.0005345013076437778
0.00022100602647224257
0
0
0
0
0
-5.3387064299176286e-06
0
0
0
0
-0.0001908604104239924
0
0
-4.5777482666076311e-08
-7.5898497717778757e-12
0
0
0.00088248558740542206
0
0
-1.9003640583145488e-07
0
0
-1.5506095212039039e-05
0
0
1.4173962471049666e-08
0
-2.8179320951714761e-06
0
0
0
-2.150215863483569e-14
0
0
0.00044302965014089506
0
0
-3.8255798631972338e-08
0
-1.2423578589604158e-09
0.0015870864091795923
0
0
-2.3961193599654289e-08
0
0
0
0
3.7505480765652965e-06
-2.5221153898644885e-08
0
0
0.00016213589083117531
5.9952961526054791e-06
0
-1.0264893081534775e-06
0
-6.3153637158987673e-07
7.7919484501366951e-06
0
0
-1.6168156507894399e-06
0
-0.00022000594994976851
0
0
-1.2889552519815149e-05
2.0550440900375835e-07
0.00028112629529050156
-0.0507157730056624
0.0080795560498215287
0.0070837875201710835
0.0096911650649116107
0.00010105601449139825
0
0.020093565626100179
0.14225403115098201
0.0050747843633690897
0
-2.3479574435739151e-08
3.1001024955132582e-05
0.094912491856805115
7.6945130905230425e-06
-0.00010241679022456492
0.0037862181219097081
0.025688681731481387
0
0
-0.09620121638109011
-0.019618305635058817
6.8669546976681656e-05
-3.3002172142359228e-08
0
0
-0.0072752844618418338
-3.0513287855552106e-05
0.0007061428535642322
-1.0915383043040381e-08
-4.1118728972380985e-07
-0.087111770146515721
0.00014904721713313631
-0.0034902269525068992
-0.01185411943139182
1.4483236072141625e-11
0.0002108090002419246
-0.0026933243935844705
-0.0086220153186776314
0.001158819723546572
0.023797475477445089
-2.928453288304327e-05
-2.6150075481030828e-05
0
-0.0032330249852785074
-0.001283657016560948
-0.030821885476252208
-0.0021703318097920608
0
-0.0086266836790410244
0
-0.00035267148873515005
-1.1900527965965405e-05
3.1542922973113832e-06
0
0.05029678293817548
0.00099160217807440533
-0.0069350864014834993
-0.00034097992197310701
-0.0015708775534524796
-0.0010258003096508333
-0.025334464783805553
-0.0086886133244282408
0.0074388953368079167
0.004224524515653639
-0.0019447475532793771
-7.1829497109677398e-06
0.00266356624115229
0.021246485407884163
-0.0047367885265040066
-0.00036852546901338837
-0.00075413303111407273
-0.00057641985205355315
-1.7830502627882431e-06
0.00047561767005426566
-0.0025866919710698416
0.00029310582337471264
0.00055404960724442795
0
-0.0001065983485250062
0.072514442640375196
0.00089439214678446277
0.0055220636530574647
7.3513067561973696e-09
-5.6482323127974396e-05
0.01145870701885871
-0.0061431314175451352
0
0.0043373270562369224
-0.071320053174254494
0
-0.0013727282200267201
-0.018690956066064166
0.028461086924124999
-0.0027591081977624389
-0.00438287058943637
0
0
-0.030864544072489092
0
-0.0075383752220092078
7.4708369942427715e-05
0
2.6816937154203766e-05
0.038093441499608388
-0.036381917248372357
-0.005846063794341703
0.00023079391463401661
0
-0.003772944238994025
0.0089151853578302177
0
0.00089588382127655662
-0.00027901306434214527
9.0957345194334627e-06
5.0266017027516315e-06
0.062631312955454224
-0.00038462731645661202
0
1.1700970780069188e-07
0
-0.0016055077371665985
-0.0088503975171827457
0.0086779434784358088
-0.0014626040853130576
0.0021583652585460342
-6.7500602897118189e-05
-0.22173807397176568
-0.00039098862208540233
-1.1307153000135106e-05
0.00037005007442798181
-0.0001373396224012152
0
-0.030079813318571295
-0.28762181485666044
-0.029180115359786863
0.029783183464273763
4.3289563772130023e-11
6.9901374616985265e-07
0.0026601144633158847
0.00017157887980104281
0
-0.0011098394704845073
-0.00082101316753183887
2.2656576405093382e-05
0.0025940653000107636
-0.0020233873665329752
-7.5914770775249485e-05
-0.00030956085453479737
-0.00011779345535888768
0
-0.0019717129544090375
0.081610664231711524
0
2.5146338503782804e-05
0.041893762792494148
0
0.0029488138124905603
0.016167366386460911
0.0045340185115186034
0
0.00011353521176226686
-1.0929446473130315e-05
0.17328917825724233
-0.00036336047951190573
0.001128671975354776
0.029060923776869689
1.4303458739977343e-08
0
0.016702833246146742
0.22044433967172641
0.0072319338358074019
0.021612078290563219
-5.3934208737530472e-09
0
0
0.00018605751110862772
0
-1.1526902156545648e-05
-0.00054926429606336538
7.4889114943643122e-06
0.002768487859473858
0.028596309713723692
0
-5.2445863839112647e-07
0.00050746154892912759
0.00037558670540568039
0.026233724730129634
-0.012072715088196339
-8.182700188855641e-07
6.7473847058820759e-05
-9.3217228277570015e-07
0
-0.040569080139672836
-0.084997546247778485
0.004150881566700907
-4.1899893938757972e-05
-4.5660281284905342e-07
0
0.018563676379656585
-7.1037089601748392e-06
-0.0052378856943751393
-0.0016005088784917872
0.00099034784003094426
1.3811288002025183e-05
0.00082129179361806225
-0.0057704061680551727
5.1857195481423456e-05
0
-1.1344787653200892e-05
1.6279464446706488e-05
-0.0079719892635679336
-0.005275767462717568
-0.00040213222074700084
-0.019464918904337474
7.4451993746252492e-05
1.766714843173e-05
-0.017936576758044786
0
0.038031155748922532
0.0042921096041305439
7.4557216619287271e-05
0
0.065755524877539481
-0.061485621378896252
-2.5199791066547453e-07
0
-1.374483371162781e-11
0
-0.09347269738370767
-0.001063996069332981
5.4814945958702395e-05
0
1.9547835532192552e-06
5.6060923976799567e-05
0.064758869464842356
0
0
0.001893040859612229
-0.0026125772956102633
-1.9276787888117006e-05
0
-0.013252445783553132
-0.02490595076610563
-5.055160410124134e-07
1.1193206187626752e-05
-0.00056456506888091632
0.031155606073305427
0.0048359837212818783
0
-0.0015820789631012734
0.00064386322300348238
-7.6672511954345408e-07
0.0058824356051218859
0
0
1.5206505687631822e-05
-3.2957218811915862e-05
0
-0.072615643919367506
-0.021645300029026329
-8.1077778707737327e-05
-0.0010841004540674641
-6.9861536128154766e-08
-2.0934942459156764e-05
-0.0056929614429044231
-0.015401554056131795
0
0
1.3142023818884575e-08
-2.7720038638501479e-07
-0.0043312109577308029
0.02427120560394563
0.0066897238219983607
0.0013269035867065836
-0.00015536874930370951
-2.4561305198302114e-05
0.011649943221696931
0.081182671657465788
0
0.0029627420661755815
-0.042608914012948515
-7.7521361480563075e-06
0.073470156479893189
0.0020412290695855039
-0.015877747118390767
-0.00072945191058193689
0.00010587147706723068
0
-0.029702530415883832
-0.00033601762097965071
0.0012538026131573227
-0.0016368721887367078
-0.021802035043964579
0
-0.00023714140530990821
-0.0017975368466143691
0.00019601582140736992
0.011507320618084734
-0.0017452648622176738
-6.4600480231853983e-05
0.0060830220648835963
-0.00064698324586745103
0.00057955161152474413
0
0.00084547749319301298
-1.500214355845542e-07
-0.012516249119625022
-0.12513271375438192
0.0012947869628583198
-0.012336611387662915
-0.0074761643956048817
0
-0.11496423255245933
-0.0054476380318873802
-0.01583220669046943
-0.0041136552405095211
-0.000123804330231076
0
2.3987479519776403e-06
0.046317602576041166
0
0.0047812597724476071
-0.0019477886586438593
0
0.0017972236525594597
0.00029930477623142269
-0.00056729621407382573
-0.0013978704216993268
0.019518774053630065
0
-0.008776101808300546
0.0068562460819959828
0.016997814415373146
0.0021893612887769376
-6.0489165866148984e-05
0.00051381266477640048
0.017844078273892283
0.0075353753480927113
-3.6312082013436184e-05
-0.011031042593741462
5.1536583764095804e-09
0
-0.001676090421693097
0.0019553608519510767
0
4.1282257462704762e-07
-0.00016348863241692603
0
0.00096626040688595281
0.0001889002027368265
0
-4.5461754526714198e-08
0.00019801448242372805
0
-0.00029307366137204635
-7.8062037423220758e-05
-2.6643066176474428e-05
-0.0036517414934759064
4.3749433724883228e-07
0
0.014146373353318052
0.0067539644479058959
-0.00012340960292505211
0
-1.409160376241552e-05
0
-9.1759906372392342e-05
-0.00053430656744463687
0
0.0017732192384204328
-2.35187777969797e-05
-1.8669383440392056e-08
0
-5.1107750725216127e-05
-2.8424213894614277e-08
0
3.6416067321268729e-05
-1.4532713971761675e-10
-0.00044334007026865886
-3.9475014268087552e-07
0
0.00026252027351150292
-1.1535263782810935e-05
0
1.9455237535769628e-06
0.0008257309261319372
0
0
-3.4581134136493185e-08
0
-0.0023167879206075475
-0.00042131264826629369
0
1.1299139164185959e-06
1.0823324947567152e-09
0
-0.0014911361764002448
0
0
0
1.44754420057806e-08
0
-3.286291203322734e-05
-0.0021006013789994782
-0.0002767817486799012
1.3926321331269944e-06
7.6163473756421036e-09
0
-1.7990570714984055e-08
0.0011107453244274363
-4.9448331092866751e-06
0
2.9822126557987472e-05
0
0
0.00022697276951037814
0.00024055270562333401
-1.2093632419784628e-07
-1.3169228410849252e-07
0
-0.00012605970734447562
0
-9.0791417301326091e-07
-5.9936306877897893e-07
-5.3577517894136846e-08
0
-0.00080804736601933398
9.7093300117647683e-07
4.7553581275097341e-07
-3.1109729666449762e-07
-1.3821350447695666e-09
0
-0.0060388943083776962
-3.2117837600778359e-05
0
0
-2.0457590733012686e-08
0
-1.3059006728620304e-05
0
-5.5806628727237149e-09
0
-4.6786018248541313e-06
0
1.729723646531048e-07
-0.0079986707260912369
0.00018733427405933056
-1.9508903733925675e-06
-1.2584996518669264e-07
-3.3336383220934047e-08
-0.0014531850675330053
0.00055239806984995748
0
0
-0.0003196583442195473
-2.8801536137408024e-08
0.0015002882363192676
-1.9472859856679273e-05
0
0
-3.8267806816516928e-06
0
-0.001075734286543472
0
0.00050760690292889579
-0.00065375950389848529
-0.00049458717664816083
0
0
0.0011990488621019387
0
0
3.5911863288075006e-06
0
8.0480452865109981e-06
-8.5166787467142367e-06
-0.00012140967024117047
0
1.0815231493207825e-08
0
-0.0003633318879896434
0
0
-8.6106534267092184e-07
7.3937311379973584e-05
0
0
0.00039477068317036204
0
-2.184396591934156e-06
-0.0014944275100188724
0
-0.00063299214771349245
0.0021062741320089519
0
0
-2.5070166112923827e-09
0
0
0
-4.2067208079294052e-05
-4.9016694971823346e-06
0.00014644053680551799
0
0
0.00046778437435024542
-5.8686188365195998e-06
0
0.00019293706337273324
0
-1.2425431504189037e-06
-1.3896168352497432e-05
0
0
1.8263388581379056e-06
0
0.00062981022078283555
0
0
-3.1230404833041954e-06
1.6338759359499381e-07
0.0022997587264268274
0.085468356364852435
0.010504724905340226
-0.014890124961175517
0.01202963817658872
0.00065589477163517076
0
0.028455351764573967
0.22724353380650608
0.00027593824398529653
0
3.3433496747914123e-08
0.029431098558839644
-0.12408238112971004
-6.7331944865874037e-06
0.33042419491020686
0.016654976373643715
-0.021837564527055979
-2.9646365952508782e-05
0
0.057022155766816171
-0.02450040914850005
0.15799584844994374
-3.3839876538307223e-08
0.00048351177548903209
0
0.010631783105687615
-3.3821699143967479e-05
-0.091922505760257581
1.053153018002771e-08
1.6344755299662652e-06
0.14802117494417624
0.0011916804799585075
0.0057951955222113648
0.024475244278314642
1.1289037082788569e-11
-0.0023226350324145519
-0.0081842132975422435
-0.015259123064125097
0.0016116892055631413
0.081566363608418221
-1.975262849272569e-05
-5.2417889939391795e-05
0
2.9511770016373837e-05
0.0010070825987676794
0.072263615141715726
0.0072133659737693831
-0.022056878816275067
0.0087135347866455042
0.18632578498241864
0.092380022387138716
8.5385610929166898e-05
1.8097386252726736e-07
0.0054508021736069338
0.068321654120166178
-0.00046633502250402318
-0.038221255128645507
-0.00029346024491701668
-0.0016922141118925244
-0.014919873006130527
-0.032067832704318386
-0.0068930817662673652
-0.0071015392834373773
0.0020196859351628333
-0.003231855783340485
-0.0002095828528808619
-0.11679955495454092
-0.37657688894677632
-0.013795412087225322
-0.0055766598949650069
-0.00093920737326963195
0.00072772150876236022
0.00011468103306065458
0.0033906893531112435
0.00086644905406972074
-0.0032908085077854193
-0.022774028631091226
0.041819032387000438
0.00061766470282946366
0.035793965013912486
-0.00094568537873963778
-0.0062175689440629976
6.6621940508260843e-08
-4.1513161129104498e-05
-0.013567392789809162
-0.0066454616608072311
-0.12831104814848726
-0.12709101068731454
0.019898462101848403
-0.046343615829161508
-5.9870179744778253e-05
-0.0031148471882333634
0.013753322771188976
-0.0026474304670245064
-0.00394776154271084
0.00091108726533800557
0
-0.043194145704908767
-0.18411042140228878
-0.22578521787825631
-0.00016769626073403701
0.0053745024066550844
5.5758886452132054e-06
0.010597386333451819
-0.0041465212492828672
-0.0047901098484088474
-0.00025374055986086944
0.041716349727411145
0.075250217217122217
0.20628500183228182
0
-0.0038485055515357879
-0.00027901306434214527
0.00033912686436586651
1.7672002057209081e-05
0.010146918204441437
-0.68309504357461182
-0.057501658745374426
3.1587954085940502e-08
0.00063461868532304179
0.00012572247945292418
-0.016600061554056487
-0.016482921132430346
0.0022378128586839087
0.0033127856994995381
-0.037898969542207853
6.4057027500077871e-05
5.5932246790306445e-05
0.24689896975708456
0.0072653896198620433
7.7948261950984348e-05
-0.014828318287940815
-0.052817967757453302
-0.13276756180598556
-0.1062071540871377
0.069450933044971144
-2.8067058839286161e-12
1.5344553658658803e-05
0.0044870440709393515
0.0012962951185080244
0.50191915601850057
4.321116058857868e-05
0.0027866885724216308
0.010989001113526665
0.0066203242465706497
0.002758047344830645
-0.0010943781928045952
-0.00035560105693406454
0.00025456867917937679
0
-5.4726323411480692e-06
-0.1208389833734792
0.23946339499534275
0.17649296281448212
0.10814196314690411
-0.032997659616010568
-0.0033957492684845627
-0.044989696492919715
-0.010217511665961904
0
-0.00010072357192143811
-0.00012148160959999404
-0.12530517000330763
0.025616158281192843
0.016607110398227345
0.045567049087879646
8.2729848513338767e-09
0.22125370167234762
0.021569652244831965
-0.171534445305592
0.0061489654110111402
-0.059146083197298062
-3.0116084708849241e-09
0.0034179842128246561
0.15837579271162697
-0.0021265227167639252
0.17508743938148313
-1.4232577905881502e-05
0.00095012312422185512
-0.01327406003246644
0.0030154995097137201
0.024010843959164755
-0.40232298656724169
1.0010893444692853e-05
-0.0025789423869731912
-0.0018715283180104655
-0.014555529553641738
-0.022685434063260467
-2.7137606522302222e-05
0.054715549975228754
-5.2696576682280019e-07
0.0010761289286637214
0.006100976935739473
0.17084483630362829
-0.02904265164144668
-0.0023286584110817528
4.9964887103602652e-07
0
-0.11908289756574221
-2.0407565133396385e-05
0.040509823501195689
0.0016035528408644404
-0.0001654166890122616
-4.8188131781729355e-05
-0.033942545837806634
-0.017274768659668892
0.13175917457208947
0
-1.0545019782999728e-05
1.7652245083191144e-05
0.030114402764236471
-0.046258298674933238
0.069095810335487187
-0.032755887691312442
0.00013647585744778012
0.0004366483881472513
0.022042136361565313
0.0052025949952305417
0.02034176028054125
0.014287048764110865
-9.4759967784978233e-05
0.00025364596662230069
0.17482099735533393
0.18410815541587666
-0.25956313175822909
-0.16109365334767337
-1.354639794842918e-11
-0.02038562243696462
-0.033113764777405276
-0.001031035455346646
0.088648637227521782
0.051075677007768203
-2.8450324770162853e-06
-0.00077282472963830569
-0.11784692520978003
0
-0.19082545190311706
-0.0063810240910585287
0.0025487457671837114
-2.7329880485536422e-05
-0.17454591640456896
-0.0226151143461681
0.060361301851513678
-0.10091942487657427
-0.05870397902321494
-0.00084089347180618277
0.022211329092132578
0.0017804289640070518
0.013207059566005213
0.0082014242955826717
0.0017277414428950744
-0.014373716297505616
0.0066110296237894906
0
-0.29632746924773412
-0.086083457744230762
1.5558073761146956e-05
-0.029826200190740663
-0.090084768081743496
-0.047808088683743241
5.4436128527868014e-05
0.0043629760184115719
-1.6710865617054899e-07
3.8041958610119991e-05
0.0064649881327974341
0.014595622433262791
-0.19227465350868686
0
0.19305420162938708
0.0023353896033618551
0.020308265132346619
0.020638987330223103
0.018489450968896069
0.0001694760065289659
0.00015205998309457416
-0.00030049961105715417
0.019342471349510223
0.1700115706066942
-0.1533878186508551
-0.0087500975164948747
-0.088149156521462477
0.0036820571075781871
0.073470156479893189
-0.00034187058570991495
0.00095784646822170353
0.00096105442020614313
0.00010587147706723068
-0.030710810523263445
0.021664234590614364
-0.0021261687229532597
-0.00014732989492931823
0.10180716659536715
0.031775956553215516
0
-0.00023706897764064525
-0.0019441991968028355
0.00030006574938246187
-0.0019398968516822403
-0.00075241965947621641
-0.0032099538889011152
0.042156355538947088
-0.00038222367417646693
-0.0016518228452619774
0.13870383812761797
-8.2178978680284557e-05
-0.0018289171094467598
-0.004097255607063293
-0.267158067128551
0.0032727473195036313
-0.093551692279703724
0.0011493995987510856
0
0.061114211780851704
0.0025806936506108397
-0.0075719556074630729
-0.0032354382878292446
0.00068446001075636446
0.036528873261581628
-5.8601505204431409e-06
0.066951365875059066
0
0.0096907121322743726
-0.012453069246418492
-0.010638959719607301
-0.018595854597275474
-0.15374722208745278
-0.007530321409161816
-0.01971468435725825
-0.027668216685280172
-0.034139209987977905
-0.011825564013460131
0.0013578231443106836
0.076321508522305473
0.0012062300795578353
3.059839623158073e-05
0.0019088319715367442
-0.053832770186316409
-0.0037569791992591679
-2.2564401057115912e-05
-0.11498387737119797
4.7551093273577922e-09
0
0.0010425155885652089
-0.0059168588873447546
0
0.0017381247577127746
0.00079795353163262324
0
0.00017479055809613731
-0.00071202089912620183
0
2.4952798437405063e-07
5.4022151034341926e-05
0
0.00034208219331722395
-6.7573551537418697e-06
0
-0.00030556571994104883
-7.5739512031458768e-06
0
0.0073995959532004848
-0.001963448638745962
0.00020304773731367369
0
2.6607974187323565e-05
0
0.00026430316063161079
-8.0836763561545365e-06
0
4.1060103324826927e-06
-4.3678922832084171e-05
9.9918967037100155e-09
0
-0.00087677428280127424
-5.5497214852213563e-07
0
-6.6501886713728504e-05
2.0408821953318253e-10
0.00015826737802818058
-6.2746596041722652e-07
0
-0.00085637090302858362
-2.2148628941679304e-05
0
-5.4146887574359626e-06
-0.00063067364978107573
0
0
1.1337613127845567e-08
0
-0.0019720022495672437
-0.021120503437971776
0
4.1775788401309307e-07
1.0491611341932511e-08
0
0.0040545015899321512
0
0
0
-1.6973096346269656e-08
0
-5.3551394112027684e-05
0.0034106709471833745
0.00035356237265534579
0.00015397452088329814
-8.7806542770596859e-08
0
-1.7990570714984055e-08
-0.00061386681339171414
5.6647833273488982e-05
0
-6.4615107750334985e-05
0
0
-6.4337100243926201e-05
-0.00015858119467761447
6.9566562786804731e-07
7.5899161075617396e-08
0
-8.7895956784708778e-05
0
-2.3976750928444569e-06
1.1407434277016275e-07
3.2029051515086242e-08
0
0.00080971788715608563
-2.9287401778109727e-07
-3.422054727553694e-06
-4.5177270684651327e-05
6.3771813681996538e-10
0
0
0.00062787153697425131
0
0
2.1022714196717698e-08
0
-1.3059006728620304e-05
0
1.9024988588029054e-07
9.8085309770200885e-07
5.151891335101163e-06
0
1.729723646531048e-07
0.0021634270312395568
-0.00016808801322060063
1.596926705013484e-06
-4.8208664998009844e-08
-1.0390381883117491e-07
-0.00058794180727602416
-0.00021752681215203682
0
0
-0.0003164142383234976
2.8801536137408024e-08
0
7.5661008294807528e-06
0
0
-2.0535189887289649e-07
0
-0.0036249521097125544
0
-5.4981103567367508e-07
9.2765613638307089e-05
-0.00025616990806462853
0
0
-0.00032602402024804923
0
0
9.6352094093519035e-07
0
-5.1139708918383285e-05
-3.4947082326624009e-06
0
0
-1.7719547768312902e-08
0
-0.00061920897392690191
0
-5.2760295053997815e-06
-2.8833877183311339e-06
4.9380647884537697e-05
0
0
0.00079851635102219242
0
-5.865577987231268e-06
2.1783699760893395e-07
0
0.00064660468827735227
0.001455256813786955
0
0
-4.2182128615512019e-09
0
0
0
-2.1258996430485939e-05
-5.3540801923074648e-06
-2.8718924045535491e-05
0
0
1.3757502288257566e-05
1.7731321118120569e-05
0
-2.712193941867247e-05
0
-2.7584221237270915e-07
-1.5821236835663223e-05
0
0
-5.7038667513108161e-06
0
-0.00075153569782789747
0
-1.7099503783327428e-06
-2.778960711102702e-05
1.9944602765791835e-07
-0.00094089848181833254
-0.0055936551087604905
0.0074356116585509073
0.017618417188085836
0.010802862268173659
-0.0011989573250196913
0
-0.0040456284977462929
-0.02673039354101641
-0.0056609725393710056
-0.081243692273672632
-6.9104203751400631e-09
-0.011907594137519449
-0.1056802772448695
-7.2937696525446633e-06
0.03690544318918932
-0.0059361636270732219
0.012480934174590315
-0.01133567550293851
0
-0.078016776148211633
-0.033981323664510288
-0.00037741903915298065
-2.1757668551997722e-08
8.4417515935498224e-05
0
0.013106896603662972
-1.1695272906489493e-05
-0.032294427166427074
-1.2749076169721858e-08
4.3996866253091106e-05
0.2092975826652971
0.059311502263828392
-0.0092904767965979133
-0.040778393887159113
-1.3497356789234549e-11
-0.00078455866031436859
-0.0082470720942258297
-0.016393438873509449
-0.00030689098594390609
0.06318964486098165
-6.9614343465543609e-06
0.00011781056201946372
0
0.0016021714704931352
0.00078227211869820912
-0.011704130776123672
0.0056758948012549399
0.0071005535439236621
-0.0083423644500653614
-0.3834462424369906
-0.016396131241248266
-6.8034228067969037e-06
-1.2261948854197413e-05
0.0034224273773177556
-0.073635932393071271
0.0021690112534847165
0.02163906723866129
0.00015181880434731316
-0.002422422031901207
-0.0031069220459005288
-0.023516855183558418
-0.016533390266821112
-0.013006067797164084
-0.0043087046233203224
0.00091177262501812811
0.00050298944696953432
0.03839657210452195
0.20820518466332799
-0.00132285694673268
-0.0035970736149136028
0.0019709573490316267
0.0003781341360325147
1.9868331414729749e-05
0.00054233860207909747
-0.00093115257284224259
0.0011280519642326524
0.027760315348989963
0
0.00049917906443214363
0.073134529582910557
0.00068311221809523777
-0.0037787242510934232
1.7995569044243402e-07
2.1929123948742366e-05
0.018653379576569078
-0.022269207375978418
0.073198601804202901
-0.019367030184415109
0.12167099741664182
0
0.00023367737210251344
0.025521059241627519
0.028461086924124999
0.001900176837569028
-0.0035362724358013898
-0.00042448860328063063
0
-0.045192891948095455
0.050499282049792898
0.04975333302689107
-0.00020328058920476171
0
4.5929395514504806e-06
0.01810590699051726
-0.09228720183512204
-0.026383616977701932
-0.0029155796182124727
-2.5896724487046992e-05
-0.014634396056515004
0.017900053388426054
0
-0.0043082220584452508
-0.00027901306434214527
-0.00092332636664169468
-1.3752053704857549e-06
-0.0012476079637202902
-0.00038462731645661202
-0.057501658745374426
2.825576201957813e-08
0.00097633073361924161
-0.0011540591103810058
-0.0064776490304818404
0.0057551734582932564
-0.0022808591016028443
0.00048189766686822672
0.00014754984503443101
1.192545442574947e-05
-0.00019102860202110109
0.015347322566213651
0.0048655155088496074
6.9821509205274024e-05
0.0069618054837492626
-0.052118601507645336
0.15207619676962639
0.080135772463739346
-0.0010471691732335325
7.9778322485566764e-11
-7.8994615817129102e-06
-0.005097408314759736
-0.29618326403404094
0
0.0074994127951274201
-0.0023142717994194162
0.00013576173444033367
0.0070730496237674982
0.0032025604065565598
0.0016783851996973517
-0.00026356425798979011
-0.00019211045916444681
0
0.0031858495254238626
0.14844364065617321
-0.11447704941287415
-3.6378955972819086e-06
0.040674625441681871
0
0.00073827230424533704
0.02792258692894671
-0.0092406382747654229
0
3.8383492062933024e-05
9.804969390340229e-05
0.00037007181121564666
0.0043661141070242583
-0.00064394933907502489
0.0045762644055044599
-9.5884630155231062e-09
6.7825088902590336e-05
0.0041779712400948693
-0.029485277801742212
-0.030877985447103913
-0.02048488990358616
-5.4632524480339547e-09
-0.0085385878775766609
0
-0.0060012386517617668
-0.054714475472582486
-2.0012890849642295e-05
0.0023343348189987837
0.0022183630288903607
-0.0011074936115294488
0.012140213239011276
0
7.6973413961506641e-06
0.0022325991898517832
0.00010359185932768619
-0.0304892331049284
-0.054441832965870685
-8.2668074584791891e-08
0.00035943283584201
-5.8313206227591444e-07
0.0021248449547962983
0.01637136928533486
0.1053634248268156
0.010831387163805465
-0.0019643906525672592
-2.5815004327261101e-07
0
0.10051922118608562
4.2414399504152617e-05
-0.029359429562903428
-0.00074438387090882817
0.00024042140448004524
3.9411165416196609e-05
0.016008428539074474
0.0082015179998941451
0.076063228464396809
0
7.3367661006369112e-06
9.2494691661647253e-05
0.064894172569470193
0.109438757891703
0.010117957707175097
0.0021482628643204934
0.00012160421493863549
0.00090401931374093909
-0.04919409949974423
-0.2483580012745413
-0.026887376201350632
-0.0080182760605169122
-5.0322176064842119e-05
0.003800701369175151
6.0474279937567516e-05
0.13026639643711865
0.07070605828786608
-3.9466334668802373e-05
-1.4266658209515494e-11
0
-0.15546308300251058
-0.12796689538506206
-0.1043156364360357
-0.051507407789211285
1.0868520982887654e-05
9.7778511033213967e-05
0.027553501142783054
0
0
0.0066311378666704208
0.0081795958751739468
0.00016534654948163901
0
0.0085952717789189882
-0.02077151881437881
0.063424104284939775
4.0665309118937469e-05
0.003787708356863376
0.075443387248003105
0.0074515575452021232
0.047485121248633494
0.0055797167547907388
0.0044569064468785065
-4.8126969221133933e-06
-0.0026212974765369977
0.20346771215940815
0
0.063851383686198082
7.4844449065532861e-06
-0.0066221332532561301
0.025138966728938835
0.0018996530072588264
-0.00013012887723247118
0.0015558795777215922
-1.4527160304799799e-07
1.5875126473607448e-05
0.0033853029797075058
0.015450143225346063
-0.00043311489073563734
0
0.13602993366507829
-0.00329267605928384
-0.022374429345201254
-0.0033116049080521744
-0.026478649742674096
-0.0010258305770912792
2.7861663133269924e-05
-6.1801922995031018e-05
0.00015269425427674073
0.059196927893835107
0.0018131246893639719
0.00053261168692992223
-0.060451217928819537
-0.00072105933218669788
-0.088613197766104629
-0.0049643230416184124
-0.017961262462229628
0.00013761571098193498
0.00010587147706723068
0
-0.059328178413112775
-5.7367467770214742e-05
0.001309308635540473
-0.0027754803442444618
0.0097170593437120849
0
-2.2989779812718281e-05
0.00016493014412973376
-2.5992911538260341e-05
0.014812172024993671
0.000798484532940604
-0.0021183026275499212
0.054634570082479551
0.00056215440441148383
0.0029174392041153826
-0.069497051866397458
0.0011642041527903998
0.0013367669572069869
0.0077124348585175537
-0.055459544468974671
0.0015989309932811927
0.04093409520800801
-0.011121115071734876
0
0.22632578502518524
0.0090047915246325109
-0.01844696229432739
-0.00460228526713899
0.0001369114931676747
0
3.0490691427327731e-06
0
0
0.00097886302825076019
0.0087908717988194225
0.0017612996965046509
0.0012081859616470507
-5.7971563374450496e-05
0.010350446457819896
-0.0015636746673226606
0.018257572432877078
0
0.041982372286326376
0.013145955788004151
0.034250396460193649
0.00050317747537291686
-8.9621704071625832e-05
-0.00013248462294617697
-0.11988622927630577
-0.0043195978364134538
-5.216992930634359e-05
-0.011031042593741462
-6.1290709826055075e-10
0
0.00085804671888958805
0.0012100914528862471
0
1.3184361053201657e-06
-3.983325939164685e-10
0
0.00029355130623423157
0.0042529198199233141
0
4.5461754526714198e-08
-0.00018446762659026782
0
0.00011908549750283572
-4.0951978972698305e-05
0
0
-2.1758719320030938e-06
0
0.00014164061081896215
0.011914963114346257
1.0544593447727326e-05
0
-4.8744101636175184e-05
0
1.4188527329813297e-05
-0.00074816095964649844
0
0
-3.120420095380381e-05
0
0
-0.0011261230896831985
-5.3311988933821493e-07
0
-1.2508794575678946e-05
-4.4913898148327579e-10
-0.00021391244306486872
-1.1949272987575665e-06
0
1.937283184430246e-08
-2.8829565215832426e-06
0
1.5337431088868364e-05
-0.0013430793534023181
0
0
-1.0267323349256733e-07
0
0.0020410419967763298
-0.00086014592793152121
0
-3.0882505947248278e-08
-1.1249395120862469e-07
0
-0.0005615242686419161
0
0
0
-1.4453419533772454e-08
0
5.3551394112027684e-05
-0.0034106709471833745
7.5305486674480042e-08
-4.2469002522791671e-05
-4.5342973830247877e-08
0
6.2495156472853752e-09
-0.0020330773615020378
2.5264917967029454e-05
0
1.1327954307805174e-05
0
0
-4.6747339399979744e-05
-1.5335805951779867e-05
-2.0507756737472208e-07
-5.7423322735561043e-08
0
-8.9451008400323847e-05
0
-5.2829836300415294e-06
-2.3171480211153945e-06
3.7170240782725613e-07
0
-3.2482305397369208e-06
-8.2515723997603224e-06
0
4.2297037245133108e-07
-3.4512353870447044e-10
0
0
-0.00099639290566760149
0
0
-2.3508345437383791e-08
0
0.00019230689080488469
0
1.9024988588029054e-07
0
-7.7148829089166208e-06
0
0.0039758158198592288
-3.1993313740838793e-05
0
-6.3268460244379612e-06
-1.9371592999597471e-07
0
-0.0015100968132162531
-0.0015186886397397146
0
0
0
0
-0.0015855455245993625
7.5661008294807528e-06
0
0
0
0
-0.00057158823978394394
0
0
3.3977170577428768e-08
3.866433711160444e-13
0
0
-0.00033001105495856592
0
0
-3.8925744608091806e-06
0
-4.6929887298479134e-05
-7.7052605246723799e-06
0
0
-4.2505963630632469e-08
0
-2.4562385459768554e-06
0
0
0
-4.9380647897672644e-05
0
0
-0.00060707531525717605
0
0
-1.9097842787826135e-07
0
1.3872845990637056e-09
2.9920791003389133e-09
0
0
-1.0287442826833521e-08
0
0
0
-1.4842311616607126e-05
-1.2618261396039273e-05
5.0084168716072263e-09
0
0
-0.00042693670400767891
-6.0510385705483023e-06
0
9.6637443711586099e-06
0
4.0548785785110534e-07
-3.1031815777259026e-05
0
0
-5.1881007575706313e-06
0
-0.00021078525843296229
0
0
-1.651631017475873e-05
1.1716578427008008e-07
-0.00018302336784828104
-0.010307413629515757
-0.013457238300463447
-0.0053695040816863588
-0.0020263862670213016
-0.0010722365849810192
0
0.019716200081694567
0
-0.0088132569244990574
0
5.1825990206221917e-08
0
0.055337593626400602
1.0781927608275166e-05
2.6623989608654485e-05
0.006159261380471571
-0.017552569250686705
0
0
0.019055332198072691
2.249540827380382e-05
3.3215998871949122e-05
-3.7564749397939809e-10
0
0
0.012385828472874618
-3.250825796771334e-05
-0.006701358589284858
9.7795527422529782e-09
2.785163852798823e-05
-0.088008744839074657
-0.016216403189199344
-0.00042636340918563765
-0.0031399952252192239
-1.0469129220399578e-11
-0.00021584759130202744
0.0075027909396181217
0.016921264061881928
0.0015554692635276282
0
-3.6675155459024651e-05
-5.8502500425303867e-05
0
0.001311339920013197
-0.0014832995700726549
-0.011645842869623732
0.0049805477628555314
0
-0.0065495871221499793
0
-0.0056420268670152648
-3.7988644165021373e-07
4.4937128684011818e-05
0
9.4289254989077817e-05
-0.0022083212396329121
0.0040124034645735544
0.00045822714018084449
0.00017368784872488121
0
-0.042520296912616516
-0.017144007270723721
-0.001127313683221593
0.0010555686523694365
0.0011684459387440698
-2.5395705613770152e-05
0.011788081700629014
-0.025944781333271699
0.0036380963100195811
0.0052795996091638897
0.0010261467906264754
0.00050207539454017337
-6.6357430871126269e-05
-0.0023441620934121885
-0.0013344215615952756
0.0020102136294636928
-0.0015693673763048179
0
0.00011273098474587461
0.12756776125111668
0.0010597282555571321
0.0024970415292842486
1.4347141250082278e-07
-2.2370259706592319e-05
0.00048009338473705776
-0.015479612525987585
0
-5.1506515970727378e-05
0.001797282331831862
0
0.00044186610810250933
-0.0028287059949074242
0.028461086924124999
-0.0015166264485514571
-0.0019339405528376607
0
0
-0.0046743202203553859
0
3.8717685269873026e-07
-2.6193632513766794e-05
0
2.7127446572019994e-05
0.0014015501618625408
0.00010265748144829234
0.00022969910758018715
-8.6699379755243356e-05
0
0.04894771120455467
0.008168115998434991
0
9.3117564226588407e-05
-6.2395031836267646e-05
5.8909122164197616e-05
-6.6153458067477322e-06
-0.07292881730254358
0.00012593217579911576
0
-9.567668080688268e-08
0
-0.00059747377526787892
0.00018842868294142334
0.0019060988660670138
0.00088782264018727691
-0.0025738282716251341
0
-6.4057027500077871e-05
-0.00029059854664980435
-7.8105321960118063e-06
-0.0053472768557250141
-0.0001531227175293231
0
-0.0030630418476523848
0.0013602619211640049
9.5554621266594837e-05
0.0016616722695286378
3.3056501576257968e-11
-1.1708304296721039e-05
-0.0083183576340148686
-0.00095674241562983134
0
-0.0019123553198532742
-0.0028892298573362676
0
-0.0010546539844578666
-0.0016658761890471271
-0.00016422030120559058
4.9767002242458717e-06
6.7727463647626867e-05
0
0.0029620510437774004
-0.015243384884647224
0
-5.3126798191705283e-05
-5.9508351351334576e-06
0
-0.00042731165782227234
-0.0160818605994783
0.00093279713078941149
0
-2.2823282467033475e-05
5.7029216510322622e-05
-0.00014542154285582522
-0.0084748718989707938
-0.0073738095615841761
0.003674260628013213
-5.9661882386040567e-09
0
-0.0290535080370047
-0.022307543718921474
-0.0048383807470224463
0
-5.4632524480339547e-09
0
0
-0.00084820320531148749
-0.019922759646291328
-7.4049958092751042e-06
0.0017491608881281108
2.1977242405998856e-07
0.0029496598942756183
0.018884633793588863
0
1.2750405005473794e-05
-0.0018668086993542054
-3.1087210766144548e-07
0.039886085305746222
0.014511227081560316
-9.4221645226875985e-06
-0.00042081228835184838
-1.1553635773396319e-07
0
0.018096733918598503
0.020388842007223875
-0.0041840791470760096
-0.0006324262280113308
4.8037369782647903e-07
0
0
-1.7913062293376779e-05
-0.010708784992255482
0.0015467965434979335
-0.00047438154503553906
-1.3675559207117355e-05
0.0028769314439631472
0.003210356557827687
5.1857195481423456e-05
0
-9.7443667322587256e-06
-1.8384086195123917e-05
0.018440813357335276
0.033577892289179137
-0.00014693909137049733
-0.0096636850847853645
0.00013883170298930155
-1.3039888882262326e-06
-0.018529415062180303
-0.0052025949952305417
0.030931654042090796
0.0009018157303764963
1.2539067594279976e-05
0
-0.065755524877539481
0.00012761632886020653
3.9751298601717823e-06
0
-1.1241956251186232e-11
0
0.060358932606302394
-0.00060699203276468603
-4.3930782802415507e-05
-3.5945789594741853e-05
-1.6513468782234557e-06
-5.6060923976799567e-05
-0.0013811070564154226
0
0
8.8574666367376286e-05
0.0027098328120043107
-1.9850121210780201e-05
0
-0.024049179303731981
-0.0080502325099230249
4.9062035834337229e-07
-8.3003770348898764e-06
0
0.042016178400389959
0.0051483451375761253
0
0.0050302178635520979
0.0019900545848064899
0
-5.8630778968236885e-05
0
0
-2.4736196088419938e-05
-9.7304843102899075e-06
0
-0.025461889995501533
-0.0037536316514668409
0.00011041155439243476
-0.00097763256001204583
-2.8918644733925651e-08
2.6646382947062585e-05
-0.010810004768399616
-0.010409935525473306
0
0
6.5161462208945778e-09
6.3716848259182079e-07
-0.00023758607972425858
-0.0092700557505143461
0.007997993174522584
-0.0001726868887876845
9.3841542627847195e-05
7.147240119307332e-05
-0.0072313696818487047
-0.081182671657465788
0
0.003519444194937897
-2.0631839386617639e-06
-2.1840395127161371e-06
0.015423078996264212
0.00022400413093400724
0.018723900795190953
-0.00087296523815682831
9.2633856471021372e-06
0
-0.011411348516872276
-0.0011688770040030778
-0.0010288437810692225
2.3261762346689631e-05
-0.0041448935078903541
0
-0.00019557597461123958
-0.0017786806742021966
-0.00022708481301397869
-0.0086635707209341724
-0.00082046928954099946
-6.4600480231853983e-05
-0.031034286951318605
-0.00034054285074983488
0.0029169343654437711
0
9.2142819636041343e-05
-1.500214355845542e-07
-0.00076141238385403747
0.0089856616172021356
0.00052513588850899645
0.0069015202585998268
-0.0058553189173417642
0
0
-0.0057272314853039491
1.8174636897808987e-05
-0.0019146864605038968
9.5941003531110092e-05
0
-6.2486597960130315e-05
0.046317602576041166
0
0.00091564505251290687
-0.0071911619951049548
0
0.0010949868599530958
0.00035705800590360751
0.0018031306704403469
0.0074225812583281975
-0.0019701318716700868
0
0.049023490859900105
0.021529062098692844
-0.0072718942136917597
0.00043344945720258696
-5.505974213638591e-05
0
0
-0.0049023629500817472
-4.9968814020111822e-05
0
2.1028758978561017e-09
0
-0.0029291530348967169
0.010333163651231771
0
0.0023903516424604466
-4.858106752833049e-05
0
-0.0022230077236665641
-0.004253749813854066
0
-1.0515227841605486e-08
0.00010272646528998312
0
-0.00015051833469306594
-9.6727897853078893e-06
-2.6643066176474428e-05
0.0028954054762274106
1.850796226491737e-05
0
0.0071523438404337263
-0.0067504493826499711
-0.00012199554713251438
0
0.00024412706934220981
0
-0.00032323681121177887
-9.8098027842441062e-05
0
4.1060103324826927e-06
7.6234248131149812e-05
-2.8661280144102073e-08
0
-0.00064497534453323863
-2.6533223757977083e-07
0
-1.2065175663595692e-05
-4.4913898148327579e-10
0.00069230038047737679
1.7753184421007301e-07
-0.00091569306976483646
-0.000469805609554262
4.3619926383932493e-05
0
0.025748073560970426
-0.0010676317623168374
0
0
3.7405825296608425e-09
-5.6417485315346867e-06
-0.0034364677518617472
-0.021761867840568123
0
-7.8023054360056108e-07
-9.6647156783429818e-09
0
-0.002215113819965123
-0.069717896085607342
0
0
-8.5368273664043309e-09
0
4.3207153072627512e-05
0.064305479427765225
0.00027637331407603802
-0.00052199252328895285
-4.8180398750496582e-08
0
-1.4069524218967291e-08
-0.00034752603313942585
6.737158723166171e-05
0
-6.3691692133284717e-07
0
0
4.0997161331895062e-05
0.00037003879343697004
-9.5664477137208777e-07
4.1030394380099322e-08
0
-0.00029478915698950679
-0.047357377702527993
2.6095789344556211e-06
-8.8866247980639994e-07
3.7170240782725613e-07
0
-0.0079936236827273591
1.5427478116605696e-06
-1.2499616558896029e-06
-3.9018892089805046e-07
-9.009262472613618e-10
0
-0.0060388943083776962
-0.00024248442395147007
0
0
-1.7818817247909964e-08
0
-0.00019792929795426489
0
0.00071407310442885322
1.1765270200895245e-06
-1.4660144260309768e-05
0
-2.0987741514387838e-08
0.0021314337174987178
-3.8084477249220717e-05
-9.3653600903569484e-07
-1.5160571324245157e-07
-5.8903870037673227e-08
0.00058619140401891296
0.00022100602647224257
2.456766517805247e-06
0
0.00012612876241555764
-2.8801536137408024e-08
0
0.020550741502116138
0
0
1.3699069815240595e-06
0
0.00019448837565571231
0
-7.1929806292331258e-06
-0.00052406416785127582
-6.3070728149479979e-05
0
0
0.00088248558740542206
0
0
-4.9981171278679898e-06
0
3.8881842011968134e-05
3.4947082326624009e-06
-0.00014757861002262466
-2.1414193424602091e-06
-3.41908854601991e-08
0
-0.0018797468826202179
0
-1.1009858655631011e-06
-2.668030308446416e-06
-6.0863589017567214e-07
0
0
0.00040195887890797619
0
-2.184396591934156e-06
-1.5961076854653654e-07
0
-0.00063299214771349245
0.0015871002374325117
0
0
1.2920127005377131e-08
0
0
0
5.4255886989768726e-06
-3.0197174501251471e-06
-7.7996925925833002e-06
0
0
0.00015041596038463685
-0.00011905508968117128
0
9.1507606334214638e-05
0
-7.7638334440757958e-07
4.5007672720458542e-06
0
0
2.9966478469977501e-06
0
-0.00013598049274816739
0
1.3303101355779645e-06
6.6919098611911999e-05
-4.0192559178849666e-09
-0.0033430702806329692
0.048322983659725378
0.015667703110864656
-0.034341342918070158
0.0034202766242096357
0.00092239671823464734
0.12558090906395072
0.023437865781035724
-0.02673039354101641
0.0070623357372162684
-0.15677823615813016
-5.787824518803729e-08
0.00036720184870979732
-0.034176981481922344
3.0713082313985291e-09
-0.086217499590368243
-0.010496244134979144
0.055906915990684834
0.0082229879033027201
0
0.084843512724653569
-0.063772573505162411
0.18881786101920406
-2.3840416974814108e-08
-0.024764936319881803
0
-0.00051772656233853341
-3.2055713287705699e-05
-0.022602740194258453
1.1967387354838246e-10
-1.3188901233425171e-06
-0.049888060956233111
-0.014983085249614406
0.0048204038173594831
0.003565930692992731
2.501799597905318e-12
-7.1362898856601508e-05
0.0035659548007179569
0.014489153071068361
0.00079203199553780823
-0.055284808385622254
2.5055284493343346e-05
0.00011781056201946372
0
0.0035135914040934592
0.0011838357398050946
0.1215311960434344
0.0028558549725938272
0.0039097054277914562
-0.014294833390740775
-0.18680545235653223
0.062446802006694196
6.2377841488679697e-05
4.1651623836573407e-05
0.01248674577315944
0.1409682781082115
0.00058563235060466649
0.01440594211493223
0.00012270352633420945
0.0015483465947978307
-0.0088911832999722228
-0.063410949252510979
-0.016953861734964465
0.013007518385558978
0.0084604933222073228
-0.0016142463794347629
-0.00031285204854697635
-0.047311297331199355
-0.13668559118208354
0.0011391773256467078
-0.0057973593760900603
-0.00065111319247271066
-0.0020196538929093178
-2.4151742974148801e-05
-0.00022714159570680624
-0.006596037151141613
-0.0017888706420450407
-0.037181540431434026
0.024973403187541644
0.00063387417675768735
0.22387438756103784
0.0012357486083482251
0.014977636233298222
-6.3744631405981016e-08
-4.5405845568267934e-05
-0.034112490247460783
-0.016954820469504417
-0.25603563044087846
-0.093935429541868135
0.014723838815632689
0.01593807546197264
0.00076134167620067728
0.0018125738176331006
-0.070675496619438977
-0.0039774677685541181
-0.00438287058943637
-0.0062625223677093686
0
0.062757718906625348
-0.13150471436971242
-0.11566857270130941
-0.00021893557614370102
-0.057293259815780699
4.3816764704684404e-05
0.021077818282647095
-0.07333575319759579
-0.0283393906680195
-0.0021307500784786587
-0.043060042160017381
0.04899679554584517
0.018804114112132089
0
-0.0038164200109394976
-0.00010226468602386573
0.00015147803700970658
1.7525957666692504e-05
0.036225667713351201
-0.00012125112432576689
-0.057501658745374426
3.6072397134821054e-08
-0.00051503105573665736
-0.0035649929425983604
-0.023365479320050831
0.015480730055524252
-0.00041944079120201952
0.0043559377317292265
-0.00011032021627099329
3.6112118087983554e-05
-0.0002428437445394407
0.1993214436188086
-0.0049803419090108311
-6.5647784107281427e-05
0.0081289997106724493
-0.027944943640851684
-0.096541766004065166
0.036049893494596898
0.027728344065774593
6.6728902592462994e-11
6.118585575046467e-07
0.0043960393554806337
-0.0010758053249021484
0
0.0048418095603720221
0.0042026108390292609
-1.1139033905005481e-05
-0.0065362405066096757
-0.0023145302235126762
0.0013488008190263984
0.00015950568957232039
0.00025456867917937679
0
0.0094425104858418679
0.23410104752814401
0.00070860002129340908
0.072862537762460988
-0.10095785359271554
0.0038030839470569924
-0.0013278969545503945
-0.019108109332366886
-0.0070586179229760685
0
0.00015559749195864393
-0.00026141183159729902
-0.35073876609859173
-0.052383457540684679
-0.01316463800336096
0.038517761972526494
1.5166033520169017e-08
-0.00024945256733897544
-0.039772457730041608
-0.27067620802020337
0.052018905792305434
0.048249290465908021
3.1378086137178238e-09
-0.0062233250470358657
0.15837579271162697
0.0054369306360327182
0.17508743938148313
-6.3162969329911301e-07
-0.0021904553703381807
0.020652428401350866
0.0031963266073821942
0.027039520452699677
0
1.3225577967150432e-06
0.0036021306694683291
0.00097530512919219252
0.077742454733459768
0.057137701360925094
-7.1405861731489766e-06
0.055425108395206132
-9.3217228277570015e-07
0.0030200760181278612
0.045840864217684955
0.06239842661262697
-0.014806150874161539
-0.00029547390314209153
4.7874480281034209e-07
0
0.21960211875182784
2.3823845786404074e-05
0.028257538047413443
0.0011027136045278292
0.00011998937918474158
-1.5583166639039478e-05
0.028484543885517462
0.01037706560329435
-0.076063228464396809
0
-1.4707485117124695e-06
9.2494691661647253e-05
0.14592863305464648
0.15921122716117861
0.25696192917040084
0.030469485736944066
-9.1746530578868871e-05
0.0029019896389568612
0.0095400269489199323
0.011707976227401953
-0.030168147460805723
0.0019988127482846378
3.0875195072760312e-05
0.0048821737935827655
0.049555934041858388
0.12656124264832136
0.070715095511234449
-0.055969312893742018
1.125010574804088e-12
0.00079563294064801087
-0.15383162999001007
-0.39400915327237729
0.059127869262597332
0.051507407789211285
-0.00017079267200789569
-0.0015614005138816385
-0.14609363334408135
0
0
-0.015637560496048104
0.0048555362353468632
-9.9620187604772874e-05
0
-0.036010689291663824
0.0042376219306891477
0.0018025501301381554
-0.10997335954653605
-0.0031429655820512793
-0.016156031649711758
0.0011289556621507614
-0.006168560912100737
0.0059200572586077535
0.00066275273797017744
-5.9161105601157879e-07
-0.0060965640983802541
0.20346771215940815
0
0.068946096778969346
1.6967441060641293e-05
-0.0066067529640088159
-0.022524374406967491
-0.036727551188595303
-0.00014825792874473634
-0.0054940009891155652
-1.1976852479653341e-07
9.7354554742451316e-06
0.0050043310422150048
0.019711809428246393
0.00043311489073563734
0
-0.21298466156523357
0.0026750582841783073
0.0083821674821801494
-0.026988839108143647
-0.014001012054872952
-0.00024737813811325768
0.00021064175633256284
-0.00040635658437594257
-0.0038659364854484552
-0.01137804488842644
-0.19495137713465538
-0.0087498822362319546
-0.023697303064487581
0.0035674470758960447
0.10610236626927338
0.0035622476647756145
0.083269541291935159
0.0013043061176182319
9.2850275675898498e-05
0.00015748909986427041
-0.0077119291182017081
-0.00081847087601199272
0.00042597444214461706
-0.00021263484713064841
0.021928202475784638
0
-6.7251660997154998e-05
-0.0011392615472027539
-8.4960138882805917e-05
-0.014216165093617332
-0.00098564273627949257
0.0049197653114050636
0.011871983975454763
-0.00045083977576903904
0.00060164915466459688
0
-0.00014587912017407045
5.9773432927008382e-05
0.01145577138852205
0.087821229934097439
0.0027593985485496299
0.052962624852824519
0.0099266208747031091
0
0.17607844433331105
0.004947314848993428
0.074654364597235401
0.0023504460454396607
0.00076335887318012196
0
-5.320010282495154e-06
-0.11104566730539273
-0.16358204214074432
-0.0015020426738033266
-0.022537599818154463
-0.0032594842269180243
0.0057272117988659641
-0.12639468477906826
-0.0089730031036286111
-0.00049614013819889867
0.041368719486991418
-0.034139209987977905
-0.061232094075886208
-0.01239996458394829
-0.0040148373076877497
-0.00053597171638223716
-1.7387818311659087e-05
-0.002407510241577435
-0.11909610317098272
-0.0024988676095604261
4.7537636373875066e-05
-0.02564048242797896
