0.099821544282706814
0
0.0038632418788258236
-0.0068174949513194819
0
0
0.099996138063962695
0
0.0082795935777660971
-0.02082232801478677
0
0
0.10000207784248227
0
0
0
0
0
0.099327766631106096
0
0.0073687276261831889
0.0086911802475810838
-0.00010241489607593985
0
0.099711204497329814
0
0.00026818439470838374
-0.004102737074352018
0
0
0.099553951242888253
0
0
-0.00089343908338554196
0
0
0.095816479101484303
0
0.016874880403497401
-0.00035538421883228144
0
0
0.10189175197331615
0
0
0.0068067228976027181
0
0
0.099307315297796683
0
0.011870222840972619
0.021452838097114197
0
0
0.099932652683639059
0
0.00029945337089189552
0
0
0
1.6611724052168029e-05
0
0
-0.020284116914952629
0
0.0002445141209207131
-3.9624349717639944e-05
0
0
-0.00090126586083622473
-3.1775424375768623e-05
0
0.0003404705961723682
0
0
-0.002949813875274797
0
0
0.0005894586355244749
0
0.00068313653177685181
0
5.3925424104764575e-05
7.1710620545371859e-05
0
0
-0.0018476844859420236
-0.0010914351025414512
0
0
-0.000849577477471825
0
0
0.0096113218724190597
0
0
0.0002526287059324584
0
0
0
0
0
2.8801515446135794e-07
0
0
0.0097722496669216535
0
-1.1149762475557216e-06
0.0010515144399129155
0
-0.00030897671690900214
-0.0044703196687130922
0
0
7.9343072500353041e-05
0
0
0.020505480139446603
0
0
-5.2318407582751685e-07
0
0.0001665871812202319
0.0012649721532075361
0
0
-8.8229090787540035e-07
0
0
-0.00067426252790056627
0
0
1.1736790023829095e-05
0
0
0
0
0
0.0015265491817908045
0
-0.00081202055188235112
0
0
0
0.0052191340161879957
0
0
0.0040577534138990685
0
0
0
0
-0.00013718961777302123
0.0049546374410044504
0
0
0
0
0
0
0
1.2988813243357837e-05
-0.00089172725574714485
0
0
0.00013812429322775389
0
0
-0.00020014321416477097
0
0.0013551017329907376
4.6521537833005498e-05
0
0
-5.0801226224452234e-06
0
-0.00028303644957443418
0
0
-0.00020202360117780796
-0.081088642775266243
-0.00015548040071688065
-0.078071652391482171
0.22782628146376729
-0.077627225555094548
0.050113044989542832
-0.031803022973687707
0
0.23176416262925004
-0.12032667859576587
0.0080868754608136115
0.10000000000000001
0.11974272607990369
0
-0.25746003483605295
-0.28463185125023976
0.014147964094327567
0.1200145951367267
0.17369970847275615
0
0.23444217695361985
0.51744207828788913
0.060229665085318344
0
0.090275124020941011
0
-0.26331627151920817
-0.057001191639361744
0.15239948648030432
0.072451134908814704
0.12546265507509871
-0.00041721842062985009
-0.61826965819287416
-0.29714392144279961
0.19457487276217267
0.0050606463386726353
0.32867915709289891
0
0.090675721520883421
-0.14921060744341952
0.10088065119935753
0.12661965323062624
0.59724932671837327
0.00021148515283931176
0.22362789898982702
-0.2183085164948865
0.12376152190774313
0.12665875278189712
0.52136396585713285
0
-0.1258726410750822
-0.10000000000000001
-0.099471942441852521
0.10552144734699358
0.77301808792352067
0
0.02498899546919979
0.035300147097650177
0.093570863437595561
-0.0033567396908465545
0.84424620600939193
0
-0.25872359253949728
0.04789671717569563
0.013200916658919053
0.00018943040179549258
0.61787110093637732
-0.00011448488869010409
0.17177982933171082
-0.088886130727275248
0.16188926426137559
-0.0032094022456480254
0.87316020629276214
-0.00030299779684768473
-0.075020026580586902
0.037198254056385154
0.17516614459137325
0.0023087422071105534
1.5916423710503638
0
0.20418463602398923
-0.16875269699762721
0.00300293916856588
0.022085857245543603
0.23193414119500069
-2.5858293743198607e-05
-0.074519787465325033
-0.091874320421694508
0.20121805807172854
0.028105075638937063
0.3822921402823854
0
-0.002553424303484111
0.24871588205633804
0.10000000000000001
0.16529333764084336
2.1363298988212462
0
-0.19741990417188027
0.1278532648830151
0.056147541249660898
0.097631938658292131
0.42445853257589644
0
0.13677905630974205
0.21227524101195519
0.017200845442994699
-0.085387648778095071
0.49104139092775256
0
0.384633029749474
0.56019068401061123
0
0.10195507100301508
0.8172821931048907
-0.00014560267053395767
-0.078305593588669412
-0.0917922245868662
0.10000000000000001
0.018087921562018439
1.0559623064285102
0
-0.090899902103917435
-0.55958565616987399
0.11633691347605346
0.087332300138565758
0.9170014971109941
0
0.29685618920512585
0.002846706202575162
-7.232002467495892e-05
0.07222049682996759
0.85044115369863871
0
-0.24694050307624643
-0.1403759167244249
0
-0.01969215115037655
0.88328967333209618
0.00019820729288286677
0.087394754209420916
0.14353730692531916
0.10000000000000001
0.0019020822500397452
0.8454180130646497
0
0.040753934884567695
-0.015082049913895322
0.064383897448723693
0.033745203344617641
0.63548177503125458
0
0.10417969034474092
0.2530943958822921
0.10000000000000001
0.099935973512233878
0.87729424309140192
0
-0.18579691390558398
-0.54251649813045832
0.010453296253535846
0.10000000000000001
0.64219780495546019
5.583423951988237e-05
0.14176271683024402
0.37111633640045677
0.10628675877259178
0.11803948179966758
0.74263617545144711
0
0.52761988622092704
0.24566819882618657
0.17987328986873624
0.015424159769433236
0.033632902865031428
0
-0.2610967464388142
-0.10154641048704738
0
0.0061805624586995459
0.053856915504857175
0
0.0061133158744334382
-0.022766031261256391
0
0.012621127373540536
0.027240187761162528
-4.5843278281340362e-05
-0.30430224340981354
-0.27481560257416243
0.0058687765088174292
0
0.15558269713057621
0
0.27609286139329364
0.38150179189797256
0.02164309226998291
0.00046954906410316309
0.078200758317033464
0
-0.045876420770761192
-0.14776741448741609
0.010279480774763077
-0.00021497101204721598
0.050087539716899096
6.4617923744717857e-06
-0.37974499856692789
-0.13618815243609469
0
0
0.09086983376208678
-2.9121877848889217e-07
0.50258722728259275
0.57076786650382327
-0.10000000000000001
0
0.1242303827443426
-1.327565066966369e-05
-0.054573427064943031
-0.10951740026714399
-0.0038679019112353194
0.0028908931397909647
0.013947304151037029
0
-0.2203884980563332
-0.2823858223986932
-0.018774026776003802
0
-0.013382737051108679
0
-0.17705612353892639
-0.2934477039140817
0
0
0.04028372384579125
1.2409231638436357e-05
-0.19099293554651647
-0.23147349353061236
-0.063701773125400568
0
-0.33942575058802349
-0.000103530431116658
0.14759794915616323
0.026772814779142992
0.0085112633609952127
0
-0.19693017929443074
0
0.058990287596529953
0.16091103430912645
0.0038463936310830088
0
0.47390749345875632
0
0.17012621923908122
-0.13841238232040581
0
0
-0.01500829400397736
0
-0.35827277868034035
-0.0041870656388513922
0
0.0029363608051638595
-0.4269858048333644
-4.1345808871110911e-05
-0.22869151132722418
-0.0064218693691605044
-0.10000000000000001
0
0.6699304663847403
0
0.13255212021674248
0.067650204341194883
0.021466671186345515
-0.019838579219717326
0.12043309162380322
-0.00016928675073342114
0.19084574744068131
-0.016903880907299777
0
-0.02563662166511638
-0.28663650142068997
1.1227124560320579e-05
0.58713286642315587
0.22440176265473347
0.026825415332254375
-0.00013199169020131933
-0.3477506221879238
0
-0.48058650610816678
0.095960613996000851
0.0040393729697412936
0
-0.03637474831444238
0
-0.30271064779129819
-0.2552258247850846
-9.9042531382197675e-05
3.5919681289157535e-05
-0.067207284822962357
2.7051882364981876e-06
0.075666988037063856
0.282837064530849
-0.0084715688406359606
0.022539139988402967
-0.17404368385608088
0
0.07050966121497694
0.15626557671977825
0.002754283222842741
0
-0.1176380471769663
0
-0.21211705421419616
-0.39872995452841159
-0.0056722020662967835
0.001066630332102636
0.095403091689719
0
0.11479789690277339
0.45184729560084602
0
0.0087838604160149561
-0.055003582740341103
0
0.34544696640326583
0.12636791484019913
-0.016150506904576919
0
0.065314639540273695
0
0.041066716704888637
-0.22207752871153494
0.055790992985835432
-0.00045893174261102057
0.045710136036997154
0
0.12739567583850162
-0.07554911454790364
0.11121171608624497
0
2.8001871537462455e-09
0
0.0010788355638281404
0.0085201914301341573
0
0
0.00040008688622382563
0
-0.00054584707788339669
0.0027021629818268053
0
0
3.0633401022603589e-05
0
0
0.046977835734703467
0
0.00066338861863703179
1.6302997604362021e-05
0
-0.0061037254756312045
0.0099826680001635013
-0.00022723150572673435
0
-1.873088356173938e-05
0
0.00019120353886737759
-8.8968526595031475e-06
0
0
-1.1791621987022785e-05
0
0
-0.00085752393324621068
0
0
0
0
0.0006846211674449642
1.1583145266090177e-06
0
-0.00019484444335375272
8.5748525031762735e-06
0
0.025758734115102482
0.0036900545966923274
0
0
4.7027672934240525e-08
0
3.7813703347454428e-05
0.0091454223723150263
0
0
5.4613150436249207e-08
0
0.0025545921997357835
-0.024387823507219672
0
0
5.3342082644277663e-09
0
0
-0.00091578235345144126
-7.7927607459722092e-05
2.8232801130736962e-05
6.3325938514261185e-08
0
0
0.0014263808399662941
-6.2199371669588476e-05
0
2.3745257445755239e-05
0
0.014334952991028181
3.5554069919898951e-05
-7.6576681313765462e-05
0
9.2404587309974533e-10
0
-7.3407265479102999e-05
0
5.7183012857604338e-07
-1.2430253200657856e-06
0
0
-0.0044007551017539023
8.761889247593768e-06
0
4.4796594219165473e-05
1.2472214212346602e-09
0
0
0.00099407477518125096
0
0
2.0494821223983419e-08
0
0
0
7.6115527403178691e-05
0
1.1758978896464445e-05
0
0
0.0042443550438300325
-5.7330738087950637e-05
-4.0722779459350362e-06
8.283991970401022e-08
0
0.00086510934399470227
0.0008886939197763204
0
0
2.7413768183174281e-05
0
0.002659555733933052
0.0016993372357357389
0
0
0
0
-0.00074108703054047865
0.011002808392495983
0
0.00034873559033510543
0
0
0
0.00056242971143898621
0
0
4.530631039055484e-06
0
0
0.0040321509995225931
0
0
2.4482214566089573e-09
0
0
0
0
0
0
0
0
4.3340949123795591e-05
0
0
0
0
0
0.00036330647990324364
0
0
0
0
0
0
-4.5623467271327243e-07
-7.1966407512544927e-06
9.2522746265406759e-06
0
0
-1.0401983486019619e-05
-6.053102806309322e-06
0
1.0963070918464434e-06
0
-7.1179010743959783e-07
-3.4804580066044252e-06
0
0
-1.0536652970547204e-06
0
-0.00073346373392330739
0
0
-4.7374507812274345e-05
1.068527618648239e-07
0.00060196813601264725
-0.10642171154190189
0.002760776019127071
0.022781479960089737
0.0016266426694199411
0.00031051418070809672
0
0.017005967309921429
0.31919505191362185
-0.00039663579715850788
0
-2.4147186959667058e-08
0
-0.050580490171874395
-5.3342043380040988e-06
0.049099269676652568
0.0081673500805474423
0.012201622614600111
0.00084207119626895639
0
-0.14095219244805637
-0.053575371685518493
-0.02929048971793783
-1.150134696184363e-08
0
0
-0.008642956784362707
2.5182000326793746e-06
0.015903898514673196
7.7920144064548301e-10
-1.0139280299607224e-05
0.036103139692834303
-0.031861195085600508
0.0028768115445181332
-0.0077647061011617375
-6.9980713688395238e-13
-0.0020094715164032631
-0.0073926274183532684
-0.012879379583990385
-0.00081887466404835367
0.026951931437716153
8.5005419560249082e-08
5.6303984544799243e-05
0
0.00087258568184708134
3.5649864846081316e-05
-0.043344633298757797
0.0024896201005713786
-0.0055051294858575591
-0.002724715717024546
-0.37224500517127884
0.0023094935990575971
2.3684151406623474e-05
2.0772331683105166e-05
0.0002994645312126117
-0.096398309528617873
-0.00017815871223917038
0.009029012285684734
7.8094588395760949e-05
0.00020785681949812989
-0.0030543448874490145
0.0073726912630628326
0.0022684345873979382
0.0079574373967949592
0.0025758077867980727
0.0020632000683755837
0.00043676241280888759
0.090786000705933512
0.23825807436618329
0.0066686066360960097
0.0025705260984968006
0.0005588085467246902
0.00048846697175345256
-3.5580544492810297e-05
-0.00077903232180544571
0.0024425133262385664
0.001801746104339154
0.017154556344942611
0
0.0002872540682213676
-0.058722439362933782
0.00073820036693182005
0.0012463442514389111
1.1526362134479135e-07
4.0390542322137479e-05
0.041898824372918746
0.0072339419656201028
0.38012115028845112
0.00042025020596895418
-0.047052455319855843
0
-0.00064614091901735171
-0.023912793853226449
-0.070675496619438977
0.00057471458544195667
-0.0023977015976543547
-0.0015834263846395702
0
-0.017613035682551407
-0.07916939262488297
0.11232237387253251
-0.00011900097591920685
0
9.084599108706389e-06
0.01064527051049613
-0.056148697620146522
-0.014204174887871237
0.00074194145270287289
0.001597769118293655
0.0016550498102849982
0.048040671489657558
0
-0.00032131324611897908
-0.00010143040740592923
0.0004112905615841412
1.1523199658397454e-06
-0.028649388493425278
0
-0.16324515072157
7.3501879231045312e-08
0
-0.0014858003140063988
-0.0050330351241349436
0.013065882545152029
0.0011365555000912751
0.002391083590028366
0.017725613391390047
0.16595074204071586
-5.8869365011217135e-05
0.26835577144391198
-0.0047134345421139812
4.3818268963643693e-06
-0.017019422953325671
-0.041258608106731071
-0.078023223772984901
-0.070407629632557492
-0.0095553126373854776
-9.0504244402239222e-12
6.5043866027527311e-07
-0.0017346942948492984
0.30374680604754922
0
8.8773096367250658e-05
-0.0026040468753066857
0.010853239379086332
-0.0032796873522436573
-0.00090438495400305097
-0.0011567428620567278
-3.4580489291915243e-05
-0.00015447252311215766
-0.024426233951412055
0.0066946384522086136
-0.010425913061080573
0.011910225681341688
0.013499699114272262
-0.018451892725599845
0.0026908203361976531
-0.00016012812280332661
-0.006138641377667016
-0.010964630673553195
0
-0.00010222456172579982
-0.00012687664890644157
-0.45051829805787036
-0.025880581408537297
-0.011652004955920165
0.0069451528132903756
5.7086711223408598e-09
0
-0.0013419690035577744
-0.023470401101504876
0.005917646407742453
-0.0072294067721885083
2.2690586851863556e-10
-0.0019510851535071796
-0.15837579271162697
-0.0032112802339659993
-0.12037296390890062
1.6614373606408517e-06
-0.00073711637703453457
0.00024932243393591737
6.1584621882074155e-05
-0.018586641293474072
0
-1.1057652718234121e-06
0.0015323608895857503
-0.0001685789164697338
-0.006572444917320632
-0.040571750327729098
1.8184222323102015e-07
-0.055136362263580603
-8.8361121391674859e-08
0.0033408716998044245
0.12138784433189012
-0.042266087764483436
0.010982870466020997
0.00010679776650626615
2.2778225374044604e-07
0
0.33290695000573883
8.4688938866074154e-07
-0.0078942523353534438
-0.00024887362359610194
-0.0004935216572043038
-1.4738495845628539e-05
-0.019701094990363766
0.0061889127236042212
-0.017307489494215653
0
2.7721781312529917e-06
-9.1891884549317319e-06
0.011952072069683356
0.0050748850229451279
0.026793159309673815
-0.039926796244635319
3.6470061927339743e-05
0.00036851136666478899
0.0066792053616821397
0.0052025949952305417
-0.042998386850173591
0.012588443839321161
-1.9325001807247832e-06
0.00045382192258831085
-0.10200172498971627
-0.0072610134135576224
0
0
-1.387557992596388e-11
0
0
0
0.070294693996353297
-0.051402772027776419
1.2049725548527158e-06
0.00079356395260447128
0.064758869464842356
0
0
0.0021400791484932897
0.00019613812195116856
9.3977444902911615e-05
0
0.0024807859231260098
0.012779636161126252
0.092826248116016558
0
0.005492339681424833
-0.0022862621556639894
-0.0028444075215754115
0
-0.0060598734493931532
0.0022467889571283497
0.011561540878956495
0.012668787529310126
0
0
-0.026849499483379276
-2.1515424231753625e-05
0
0.057208396319857462
0.019508414068285324
0
0.00085215782110651978
-9.2553131132609857e-08
-6.4370518912963199e-07
-0.0097565970234990765
-0.01660222411766224
0
0
0.064294933817929528
-0.0013195567022825441
-0.01316207460512136
-0.018098878149863822
-0.012598349780471627
-0.000876313418093796
0.00011403845430407405
0.00031531330760401773
-0.0013831859997680994
-0.081182671657465788
0.11661495291486473
0.0029377911031814663
-0.063695848029901497
0.0020976099107469703
0.14611482616863575
0.003204873845008276
-0.035966461504156028
-1.3884608659480907e-05
4.1490768611608358e-05
0
-0.017442874102621228
0.00047015856478151705
0.00091463288613931153
0.075834033738100742
-0.010561932117323852
0
-0.00012169867266243885
-0.00054058720668054229
-0.00016598512535585431
-0.014346303065607817
-0.00068846531613149184
-0.013936373088739174
-0.038743953932533368
0.00041921942714956103
-4.06616512286932e-05
0
0.00026459605676678222
-0.0038469363027359388
0.0025664402321949383
0.18542657517023564
0.0025864791950485195
0.024938508700929167
0.0029308799246046068
0
-0.034468496672607513
-0.00010842966803070221
-0.11711473269882464
0.00029941295818826206
-0.00027861316507039408
0.036304175150090524
-6.726366280422241e-06
-0.13257610343542056
0
-9.176409470458033e-05
0.0028264216080389152
0.0040736629631742301
-0.016644328496998758
0
-0.0085695460182502268
-0.023362786181367258
-0.018135459785596737
-0.034139209987977905
-0.051332040817298738
-0.0082994015603625026
-0.029845318260909817
0.0018090142882586718
5.8126267764217603e-05
-0.0010987140884262435
-0.22113695004855372
-0.0069723979569277332
7.4133482756669069e-06
-0.0088100252494654318
-6.779367036319281e-10
0
0.0031682635449392887
0.0065395986206184323
0
0
0
0
0.0032369786483039211
0.0013312879878785077
0
0
-5.8800279922703777e-05
0
0
0
0
0
-1.9257048068854316e-05
0
0.0072862430616086977
0.0074434634499403541
0.00010025449124902078
0
1.1736907276051871e-05
0
6.4657030241602328e-05
0.00061030030103203354
0
0
-3.1167953012372023e-05
0
0
0.0015892674997074175
0
0
-3.6405276364194775e-05
0
0.0010269562855833637
1.4906442585561224e-06
0
1.2484949690668746e-05
8.7789616907760108e-06
0
0
0.0036506711194036414
0
0
-3.5118048275123613e-08
0
0.00043652430813904383
0.021348938377228888
0
0
-5.8859682752505232e-08
0
0.0014511111675214799
0
0
0
5.0558834148263621e-10
0
0
0.0064270546796342939
0
5.038381068587254e-05
-3.101708337531952e-08
0
0
0.00069030721858547072
2.7149709786066385e-06
0
-1.5389741549612217e-05
0
0
1.8685980160029818e-05
5.4044325464033634e-06
0
-1.0197092440018305e-07
0
7.7281942039962944e-05
0
6.5062907388391485e-08
1.025079124131375e-06
0
0
0
5.5206760218658749e-06
0
0
-6.274068223396553e-11
0
0
-4.1545725816259128e-06
0
0
-1.0886990427914176e-08
0
0
0
0
0
-8.659351777898438e-06
0
0
0.0021634270312395568
0
1.0591956220749342e-06
-6.5293570162972108e-08
0
-0.0005345013076437778
0.00022100602647224257
0
0
0
0
0
0
0
0
0
0
-0.00019077712335046932
0
0
0
0
0
0
0.00088248558740542206
0
0
3.4033901753377848e-09
0
0
0
0
0
-7.4697560987059058e-09
0
0
0
0
0
0
0
0
0.00044302965014089506
0
0
0
0
0
0.0015871071847979631
0
0
0
0
0
0
0
1.3487389392040064e-06
0
0
0
0.0002463031323443028
6.053102806309322e-06
0
-2.0205500785012243e-06
0
-9.9412627282507817e-08
1.5808206999200423e-05
0
0
-1.4846164898420515e-06
0
-0.00022007598855053681
0
0
-1.3654838278596682e-05
1.139955596909538e-07
0.00028112629529050156
-0.050715799998346349
0.005685149755361411
0.0068486595696841115
0.0073528357679924373
4.7805798401894057e-05
0
0.01998810977588943
0.14225403115098201
0.0036296168340795602
0
4.1250106053156121e-09
0
0.094912491856805115
4.0218520679929922e-06
0
0.0029225739259513364
0.025688679451832598
0
0
-0.096415190594578148
-0.019651538962224185
0
-1.7011166136473415e-08
0
0
-0.0064718951025297851
-1.6515132070601831e-05
0.0007061428535642322
-5.2594609649816577e-09
-1.0850108794488629e-05
-0.087111770146515721
0.00071261239152229424
-0.0030730237543833572
-0.011850210248635204
7.5918812459277754e-12
0.00021470046467913763
-0.0011067240220891997
-0.0086260160149113207
0.00070184657991795361
0.024008350252286606
-1.5709534266943459e-05
-1.6886807626247021e-05
0
-0.0018260115771523218
-0.00081645487554537252
-0.030785599211330082
-0.0016388256913070765
0
-0.0082114629008927589
0
-0.00035271922418101954
-1.199487657071535e-05
6.6425793525464889e-06
0
0.050043028534822509
0.00089826762350760005
-0.0042975640923973149
-0.00019661551294246503
-0.0006603409684186462
-0.0010258003096508333
-0.025284354930174724
-0.0077214899291586057
0.0073262643192372467
0.0038211474410010005
-0.00099767519002518
-5.9912135225757165e-06
0.0025814666333551705
0.020428045552901827
-0.0031478419883853213
-0.00037089971467682418
-0.00090858311562707521
-0.00057597016327052945
-1.9648506685322346e-06
-0.00034513824754796345
-0.0021292196660361211
0.00010342121649283757
0.00062985902175615057
0
-3.0139241511882637e-05
0.072167841750433184
0.00092235268422984052
0.0053475454941906324
-1.0623489244738843e-08
-3.8328106365203852e-05
0.011379791611768924
-0.0067078050631368463
0
0.0049398165133888762
-0.071320053105201592
0
-0.00049764269367133583
-0.016391210555609312
0.028461086924124999
-0.003292263921158058
-0.0024428058179524976
0
0
-0.030864544072489092
0
-0.0075379880451565085
-5.4610564406299516e-06
0
1.2269907792232672e-05
0.033789142356748833
-0.036460456864398388
-0.005547533822466675
-6.6530040237373304e-05
0
-0.0057600686133244304
0.0089226712425514408
0
0.0008958491623957506
-0.00015953453006158159
9.0957345194334627e-06
3.7999713240137607e-06
0.064200743595249479
0
0
9.0290644001970083e-08
0
-0.00022245583290342346
-0.010293948526200492
0.0092942785511699409
-0.00018717527951126234
0.0014256730346711177
0
-0.22174543025932056
-0.00019699783982913294
0
0.0003759707052588634
-6.387225442470548e-05
0
-0.02990801768140065
-0.2875292008683612
-0.029084560738520268
0.029424900545371033
1.0039876270001033e-11
4.3505669200445512e-06
0.0016372666723400294
0
0
-0.0011097810396782893
-0.0011012814852035884
0
0.0018520495008966351
-0.00082508306097434537
-0.00051818474309634713
-0.00017585873140632318
-4.5740179937652593e-05
0
-0.00044732684390096349
0.08183853978958737
0
0
0.041902519567304335
0
0.0017365793343189883
0.013958284472928094
0.0046928123940008946
0
8.2644307813221896e-05
1.3154819381373878e-05
0.17328917825724233
0.0054509653937486018
0.0011291604191301511
0.028915718679828135
5.7086711223408598e-09
0
0.01234530310446068
0.22044433967172641
0.0072319338358074019
0.021612078290563219
-2.7933180877868117e-09
0
0
-0.0010138618831778243
0
-8.5764998045161172e-06
-0.0001252720109688256
0
0.0017809453882287024
0.023176547876485862
0
-2.5383674861582521e-06
-0.00041940823602675719
0.0003702831728296306
0.025704280719272565
-0.012076224756008407
-1.7432261999950216e-06
0
-4.9356667566623816e-07
0
-0.040569080139672836
-0.084826250068735315
0.0041514169423775976
0.00017874729825179226
-2.4715169111959484e-07
0
0.018563676379656585
5.4761619330995027e-06
-0.0052325295817022771
-0.00077454370795818159
0.00062481284309589733
2.09028130036765e-06
0.0022142191779589327
-0.0024758703874695246
0
0
-6.2734381130099937e-06
1.0697228629299394e-05
-0.00876789374475552
-0.005275767462717568
0
-0.019464918904337474
3.1458557913385219e-05
1.6086219276369589e-05
-0.014948957547499749
0
0.037944931675190391
0.0044300241244840475
4.4281495625306175e-05
0
0.065755524877539481
-0.061358005050036045
0
0
-6.0546132041614611e-13
0
-0.09347269738370767
0
0
0
1.9898432086280703e-07
5.6060923976799567e-05
0.064758869464842356
0
0
0.0021201533690826057
-0.0026125772956592072
-9.0733260861132415e-06
0
-0.0095452228298036484
-0.024978421438539254
0
0
-0.00056456506888091632
0.030895566372817564
0.0011478729186448721
0
-0.0014545874378163232
0.0006273885086519734
0
0.0064331861039427403
0
0
0
-2.1515424231753625e-05
0
-0.072593514893051103
-0.021624541005285738
0
-0.0015983591615309589
-7.0716078010058861e-08
-1.0066506809166902e-05
-0.0055402058377734585
-0.01051889111570219
0
0
0
0
-0.0043312109577308029
0.018993974082261424
0.0063643116618677274
0.00084559592274896218
-0.00010993512669508952
-2.4561305198302114e-05
0.0085132818428858663
0.081182671657465788
0
0.0024931754652602008
-0.042604452405061249
-7.1067018610245571e-06
0.073470156479893189
0.0028459700941271455
-0.015353012352137891
-0.00032602111124101934
6.045288925798002e-05
0
-0.029702530415883832
-2.8478622585055308e-05
0.00072579041419483905
-0.0016474297611935146
-0.021802968306258646
0
-0.00012169867266243885
-0.00071112282993346994
-2.7462898925173453e-06
0.01144504555486974
-0.0011207004796207685
-6.4600480231853983e-05
0.0056567145605430792
-0.00062417523691234795
0.00048153167722426473
0
0.00036704932329546986
0
-0.0075858998691716532
-0.1233136168102294
0.00037231555904290568
-0.012158518158608939
-0.0074911622800205224
0
-0.11496423255245933
-0.0025305748375952565
-0.01584275346538299
-0.0022953497939019064
0.00017519684789405555
0
3.0405976791584132e-05
0.046317602576041166
0
0.0039848703110920911
-0.0019477886586438593
0
0.0014134027894663233
0
-0.00055498872159897151
-0.0014620096037234655
0.019518597694858059
0
-0.0088070633636191751
0.0055506670409365818
0.017082071021314895
0.0013631026982739709
-4.0145338003061788e-05
0.00050744273350466552
0.017844078273892283
0.0035229624776869691
-5.3941619580405265e-06
-0.011031042593741462
1.2016157134969434e-09
0
-0.00050648602970220359
0.0040630717922580939
0
0
-0.00016349300476172881
0
0.00085350396004275962
-3.4422383056160783e-05
0
0
0.00019800361147289755
0
0
0
0
-0.0036442049131904016
-1.4105034737648587e-05
0
0.014145777856424829
0.006754094522348303
-0.00012338359533401065
0
8.3051764350753773e-06
0
3.7110404710774552e-05
-0.00056348847952811471
0
0.0017732192384204328
-2.35548738095209e-05
0
0
9.9835984469786177e-05
0
0
2.0395336766364554e-05
0
-0.00057754038600179973
2.811516103675788e-07
0
0.00027477605559640255
-2.7409754385553573e-06
0
0
0.00082680503770747571
0
0
-4.6354847794918274e-08
0
-0.0023180512611729008
-0.0002629328253602379
0
0
-1.4399748452000409e-08
0
-0.0014911361764002448
0
0
0
4.1326363626033502e-09
0
0
-0.0021006013789994782
-0.00027632823819174416
7.6333018236139096e-05
4.5483929332345221e-09
0
0
0.00057664940695691331
1.6308550718512585e-07
0
1.0478505823646762e-05
0
0
2.5165861115965037e-05
0.00025394896736897956
0
-1.3306648201313884e-07
0
-3.7660019991680981e-05
0
1.4881075859465319e-06
6.4907305390328381e-08
0
0
-0.00081318948958408049
3.0275400442596429e-06
0
0
-1.4179779596535581e-09
0
-0.0060388943083776962
0.00030230868077623491
0
0
-1.0048654261315327e-08
0
0
0
0
0
-5.4891752498865896e-06
0
0
-0.0079622521864747067
0.00018733427405933056
8.0156578169529392e-07
-1.203915524064278e-07
0
-0.0014228335088369698
0.00059400595045323336
0
0
-0.00034293921179680959
0
0.0015855455245993625
0
0
0
0
0
-0.0010768848109162761
0
0.00050760690292889579
-0.00065373563163118064
-0.00049458717533911616
0
0
0.0011990488621019387
0
0
2.9127955268929205e-06
0
0
0
-0.00012140967024117047
0
-1.902668197342434e-09
0
-0.00036476095818240207
0
0
0
7.3937311373384725e-05
0
0
0.00044302965014089506
0
0
-0.0014942235254508244
0
-0.00063299462106461857
0.0021062996270970295
0
0
0
0
0
0
-4.4389219468563248e-05
-1.7713856721372467e-06
0.00014644470136110957
0
0
0.00021969050602070196
0
0
0.00019294266588184644
0
3.6375701049621501e-07
6.9158119051499234e-06
0
0
1.4038762216495206e-06
0
0.00062978692456260575
0
0
8.8728817642987982e-06
7.4616370502713144e-08
0.00074079651762242816
0.085468329372168472
0.0054503962957643025
-0.0054965297028742163
0.0073528357679924373
0.00066798216982773024
0
0.021261997620046092
0.22724353380650608
0.0011436866414768362
0
2.0881590819260718e-08
0.02935996708253661
-0.12408238112971004
-4.1467428569026628e-06
0.33029117755833504
0.0079933633782595798
-0.032032626826023744
-0.00035611378082157333
0
0.056620104492328897
-0.024467175821334682
0.15811078940088233
-1.7848865772549694e-08
0
0
0.0035215566955463426
-1.9776654829105635e-05
-0.083412372784149702
6.6311201621363875e-09
1.1735578857316493e-05
0.14802117494417624
0.0014327133363854863
0.002421137187768783
0.018689561285331627
4.4130988030188574e-12
-0.0017433352919599382
-0.0065812729008577105
-0.012879379583990385
0.00081887466404835367
0.074578969567696454
-3.7011232263187836e-06
-2.2262906541881572e-05
0
-0.00048766247014162022
0.0006378923505964395
0.060287914276458278
0.0038696652239839789
-0.022056878816275067
0.0071860134802424107
0.18450398387315617
0.082048144545021073
4.4963695468525024e-05
-3.3073131927078393e-06
0.0036139694074986493
0.067779853011571189
0.00067558973184141851
-0.026937505358247311
-0.00013313318283112677
-0.00054117353813403694
-0.0088492324569718877
-0.028235473724792643
-0.003606491858953426
-0.007257333400353172
0.0020630596249915081
-0.0017355525167062392
-0.00017856977269678669
-0.09226866915169421
-0.37523365331206104
-0.0077932213880267023
-0.0019878058798591994
-0.00048915509870309975
-1.9218873150179971e-05
5.8400405411525615e-05
0.0015875386009892062
0.0013171970563045693
-0.001801746104339154
-0.0093855314615247428
0.040918697769232487
0.00029583390677945096
0.032388401253493043
2.8649735862862638e-05
-0.0011572107287187979
2.2205574708736608e-08
-4.0958192720304155e-05
-0.021248313119030679
-0.0012978367853991482
-0.12831104814848726
-0.12633649802701344
0.01004094256224506
-0.046343615829161508
4.9037737400948407e-05
-0.0011077675572083315
0.013753322771188976
-0.0042165619864882545
-0.0024428058179524976
0.00042794419183907998
0
-0.049223759783550002
-0.1808393180711447
-0.22578483070140362
-7.7644323014513877e-05
0.0053745024066550844
7.3827380278872759e-06
0.011865935344970841
-0.0042642914785573759
-0.0035742083269262028
-0.00084350160573797321
0.042004586099824645
0.048615646162650045
0.16168370527581868
0
-0.0016528783728426112
-0.00015953453006158159
4.7964809652109622e-05
1.3847740690173659e-05
0.010300223248673787
-0.6827104162581551
-0.057501658745374426
2.6704383007765001e-09
0.00097633073361924161
0.00010364932253355909
-0.0046837172861777885
-0.010116530639608916
0.0011365555000912751
0.0040625484284173103
-0.038022452174680373
0
2.8123346409920749e-05
0.24688052842785485
0.0049057253927529774
3.3600194992863392e-05
-0.01456520822911026
-0.052774305952575346
-0.13283010588674399
-0.10634051808037956
0.06880301193198847
3.2445501540695993e-11
8.068035255410297e-06
0.0039486849713648601
0
0.50191915601850057
-0.00067287432474182562
0.00047678914098548347
0.010853239379086332
0.0031584285673615931
0.0014233828984816536
-0.0010744898528897452
-0.00017585873140632318
0.00015447252311215766
0
0.00094578282066489557
-0.10874475684924162
0.2380624654835955
0.17643983601629043
0.10813183537175092
-0.032693972375100473
-0.0017365793343189883
-0.026099344694575987
-0.0068661641225622877
0
-5.0065205161531152e-05
-0.00010681002836281998
-0.12653493210936012
0.0054436369187182551
0.0064992044047066481
0.034439021711037535
1.1190691483351177e-08
0.22094759246996873
0.011182608319384769
-0.171534445305592
0.010694431707677034
-0.05717886615315336
-3.4200661845733569e-10
0.0034179842128246561
0.15837579271162697
-0.00032960310306000913
0.17508743938148313
-7.6967466864127622e-06
0.00043998994986846975
-0.013705433013585986
0.0017809453882287024
0.017803241943356252
-0.40332500970052115
2.7362776001442451e-06
-0.0017466935509577932
-0.0014960800150676319
-0.0072973064860129928
-0.014411462127552056
-1.403358744772671e-05
0.055136362263580603
-2.1672297052021968e-07
0.001377364738122023
0.0053542230482962125
0.16498925201312525
-0.024121494611199702
-0.00099693439867994268
2.5467545126449505e-07
0
-0.11908289756574221
-1.3172619929233987e-05
0.035147105019619956
0.00097886984051008628
0.0001641736960078625
-3.0944179019354137e-05
-0.013528704118725613
-0.00930872996988329
0.13180901904918868
0
-5.4736704583900722e-06
-2.322410537299369e-05
0.00876789374475552
-0.046258298674933238
0.0709032143210344
-0.028786603455413812
7.7014629823731571e-05
-0.00065783543069197563
0.0219779357111019
0.0052025949952305417
0.016425567408161403
0.013447877087840593
-4.5678670740681162e-05
0.00023875855928430978
0.17482099735533393
0.18423577174473688
-0.25955732864498893
-0.15912348722271108
-1.0616391579387064e-12
-0.02038562243696462
-0.033113764777405276
0
0.088622761284646301
0.051402772027776419
1.2049725548527158e-06
-0.00079356395260447128
-0.11348496259474691
0
-0.19082545190311706
-0.0066108228652692128
0.00053919040252100019
-8.7482759885685341e-05
-0.17454591640456896
-0.016871142390078045
0.05241523561542228
-0.09947358519368367
-0.058581007326416988
-0.0023913755416790665
0.021931458867133338
-0.00082853057974622874
0.014181864850244655
0.0043131077818838685
9.7778069161841318e-05
-0.014378528994427729
0.006917266377896655
0
-0.29632746924773412
-0.086335861698009761
1.6253774146542703e-05
-0.029476688331515413
-0.083728854986248255
-0.038384250822759834
0
0.00013401077320442461
-9.2553131132609857e-08
1.9691111727180813e-05
0.006236912762182586
0.0044815399357466673
-0.19472572178697078
0
0.19305418848736328
0.0021210587238573789
0.016628398869215223
0.016933009657774598
0.0079534183588932696
4.3296025994418322e-05
4.9807174543630091e-05
-0.00017169032428522539
0.010767652397212512
0.1700115706066942
-0.1533878186508551
-0.0027523015945973821
-0.088144694913575197
0.0022829833222806351
0.073470156479893189
7.2571408532654151e-05
0.00085895927796564384
0.00020034412792890898
6.045288925798002e-05
-0.030647986631419155
0.026003111017213264
-0.00076342432972248539
5.4180314519777559e-05
0.10013383017332447
0.029052471285223966
0
-0.00012169867266243885
-0.00071112282993346994
0.00021412314834485849
0.0042720236873332231
-0.00067786759426869921
-0.0011076283518151287
0.041354964538299205
-7.1587823576460018e-05
-0.0012083938249680395
0.13683224543094513
5.4311258976120953e-05
-0.0013968440606072407
-0.0041697931943361494
-0.2640549280942644
0.0025864791950485195
-0.093715674482755459
-0.002823667647263254
0
0.061114211780851704
0.0016919064351804754
-0.0038963635099288061
-0.0014538434443300378
0.00041332936219778483
0.036304175150090524
-3.0448348703622337e-05
0.066951365875059066
0
0.0039848703110920911
-0.0065182925463651668
-0.010641698661813033
-0.013306736204213262
-0.15360039910112297
-0.0064536582138472205
-0.016854613874384573
-0.024863627564975514
-0.034139209987977905
-0.011835887482969952
-0.0012231060499231078
0.059600246088077152
0.0014952242984218763
1.7954622892589902e-05
0.00091720518171884335
-0.053832770186316409
0.00039684927661166186
1.2745880743550355e-06
-0.11498387737119797
2.3707232557599941e-09
0
8.38170777690968e-05
-0.0066907794160056622
0
0.001736237839595732
0.00079795185912998751
0
-7.7838996338581296e-05
0.0005732667449552609
0
0
5.3408457111990147e-07
0
0
0
0
-0.00032193252709391195
5.873450285107251e-06
0
0.0072862430616086977
-0.001963579007138198
0.00021655417996235661
0
-2.4206555946330647e-05
0
8.562917635131974e-06
0.00013142709622531733
0
0
-1.6654561903638961e-05
0
0
-0.00037051606594961988
0
0
-6.649956697576827e-05
0
-9.6730201329484229e-05
3.8676715874842172e-07
0
-0.00085655601363269042
-6.0792758412361192e-06
0
0
-0.00063061668215879979
0
0
-1.8144003740593766e-08
0
-0.0019713222046778946
-0.021120567416975398
0
0
-1.4406594429936309e-08
0
0.0040545015899321512
0
0
0
-1.3450386653166705e-08
0
0
0.0034106709471833745
0.00035425584565146627
0.0001131708061763203
-4.2268894940814508e-08
0
0
-0.00014998679358287721
6.0346294157680766e-05
0
-3.9019853417784148e-05
0
0
2.2689812132289345e-05
-0.00014129624160525098
0
7.5902344526696737e-08
0
-9.3194007117411914e-05
0
-6.7765543322010162e-07
8.3434490121282458e-07
0
0
0.00081318948958408049
4.0984491319135615e-06
0
-4.4796594219165473e-05
9.1975190379712456e-10
0
0
0.00030667364331361455
0
0
1.2399709506708236e-08
0
0
0
0
0
2.7107792601367536e-06
0
0
0.0021634270312395568
-0.00016808801322060063
1.1794379602053798e-06
-2.0209305253435514e-08
0
-0.00059885029623576135
-0.00057845908734534312
0
0
-0.00029313337074623531
0
0
0
0
0
0
0
-0.0036019280019255213
0
0
9.2816443572609497e-05
-0.00025616990893730757
0
0
-0.00032602402024804923
0
0
1.1427715135939893e-06
0
0
0
0
0
1.6694787543959458e-09
0
-0.00060647231142440974
0
0
0
6.4173445956236861e-05
0
0
0.0011365592997144203
0
0
0
0
0.00064660247050238946
0.0014552775894053258
0
0
0
0
0
0
-2.0404238698827888e-05
-1.952705293357256e-06
-3.6378535603891774e-05
0
0
0.00016274301865893499
1.8009529237687891e-05
0
-1.2329114064936661e-05
0
1.4606053718503389e-06
8.8508525309368419e-06
0
0
-2.9405104299921175e-06
0
-0.00075146276697293812
0
0
8.0540227543019537e-07
1.1067480456563772e-07
-0.00039200636684153407
-0.0055936429119253436
0.0051370398648504616
0.017665354729518228
0.0073528357679924373
-0.00068586438559398188
0
0.0062188144074641852
-0.02673039354101641
-0.0014410245336509496
-0.081243692273672632
2.92370409601518e-11
-0.01180738018322277
-0.1056802772448695
-3.0750424853312162e-06
0.036985212561843846
-0.007050533114901775
0.0080082080417396579
-0.01133567550293851
0
-0.0784188274226989
-0.033923832723294307
0
-1.7011166136473415e-08
0
0
0.008642956784362707
5.5772381097067471e-06
-0.03309656459576038
-6.6311201621363875e-09
2.2344995260855299e-05
0.2092975826652971
0.060085160138923094
-0.0038959646130596395
-0.022834471630443411
-6.6060003113880185e-12
-0.00041673442468091943
-0.0073926274183532684
-0.01027975645240552
0.00036766667384808096
0.063218484643002629
-1.3128744028483237e-06
5.6303984544799243e-05
0
9.4716252520000006e-05
0.00023423257468055988
-0.011645842869623732
0.0036755064938033375
0.0071005535439236621
-0.01041949405794979
-0.38296657506287701
-0.016395569361258314
-8.7636210868399584e-06
-1.0822439137850838e-05
0.0030606175201370036
-0.074247104019851989
0.00067558973184141851
0.023924220602417275
0.00011686109959818067
-0.0011755960723603179
-0.003054344887449015
-0.019684496204032675
-0.0086746977385603313
-0.012870145470848783
-0.0023531571459607728
0.00023574572799859526
0.00029696372755198786
0.035233128324572927
0.20686194902861268
-0.003961966892558965
-0.0035507655559715665
0.00064543041386728832
0.00024483550851734276
-3.6411768759104085e-05
-6.3192936624641263e-05
-0.001059075911344748
0.0012878855883896882
0.0285919010692459
0
0.00043834015960593151
0.072167841750433184
-1.3389070364570736e-05
-0.0074288490734161633
8.8130124471860544e-08
1.3688473276373234e-05
0.018698985921207372
-0.013724958771085372
0.073198601804202901
-0.019399556639820618
0.12066472140042578
0
-0.00041621485869510849
0.011209960627877423
0.028461086924124999
0.00013738301116961925
-0.0024428058179524976
5.3506812134171042e-06
0
-0.041626756982145664
0.050499282049792898
0.049753436396110379
-0.00011322857466220948
0
4.0830425683965122e-07
0.021665177358794113
-0.092169431605847549
-0.017462858455567769
-0.0017803105213231854
0
-0.013530819676090169
0.017908553710984855
0
-0.0024424224770596067
-0.00015953453006158159
-0.00036505006291382336
-3.8971395842183583e-06
0.00032182267607496276
0
-0.057501658745374426
1.2140747396676936e-09
0.00097633073361924161
-0.0014858003140063988
-0.0053588496055111991
0.0057588765691083026
-0.0011593768707901268
-0.00099237747942625913
0
0
-0.00011398559871099708
0.015364366476002471
0.0047190037343412443
5.2236902812243366e-05
0.0069618054837492626
-0.057156705655929077
0.1528680616997618
0.07961890496379001
-0.0010775245904482405
4.4526179108635379e-11
-6.4662195995816803e-07
-0.0021293862020449099
-0.2939640954131274
0
0.0042057041356448896
-0.0031130004844287943
0
0.003495702681768621
0.0014233828984816536
0.0010351647687880303
-0.00017585873140632318
-9.2014303097227753e-05
0
0.0011654176315080427
0.14704640240551925
-0.11307611990112691
0
0.041902519567304335
0
0.00065985835958766285
0.018608650331197737
-0.0060878636235121453
0
8.7220329436927826e-06
1.7459919190213226e-05
0
0.00098804561162027537
0.00046083810853924062
0.0080389957871478211
-1.1818042420915752e-08
0
-0.0055598973330840042
-0.029485277801742212
-0.025661627721438329
-0.021612078290563219
-2.7933180877868117e-09
-0.0085385878775766609
0
-0.002858224341214812
-0.054714475472582486
-9.6982613216577276e-06
0.0013179401573723073
0.0022296536466542612
0.00050700362853313505
0.017537812998020388
0
6.7532784009596396e-07
0.00077609069863103649
7.6892359907053062e-05
-0.023794172221814985
-0.0498788005825299
-8.432937589134694e-07
0
-2.1672297052021968e-07
0.0021598371503474662
0.017607428545688312
0.099718862691403176
0.01083085514089299
-0.0012204454176900526
-2.4129779039510127e-07
0
0.10051922118608562
2.142694009252588e-05
-0.029355084975199293
-0.00041012021740945538
0.00039787162124154714
1.3955558525889193e-05
0.014986890725107473
0.006710072775948716
0.076115085659878234
0
2.2654166194065917e-06
4.6470092786010971e-05
0.056266945115153288
0.109438757891703
0.009404624213078739
0.0021482628643204934
7.9370475365253001e-05
0.00079152440787705249
-0.033534645308616211
-0.24676987028904154
-0.023160061701098699
-0.0070240022216064776
-4.7043106652804239e-06
0.0037858139618371597
6.0474279937567516e-05
0.13013878010825844
0.070711861401106274
0
-1.1180580197679542e-12
0
-0.15383162999001007
-0.12498735288559955
-0.10427525941688215
-0.051402772027776419
9.1448907601267337e-06
7.2063632423950209e-05
0.02895531636014332
0
0
0.0065908970858585287
0.0073129232097175522
8.1528842871967855e-05
0
0.0078558915189587825
-0.019851010418896302
0.063423860195808188
0
0.003787708356863376
0.06464623544330475
0.0041233523332676351
0.047485121248633494
0.0054975276732591952
0.0031098973642006344
0
-0.0023298739848038618
0.20346771215940815
0
0.064125390819114378
9.5388564382385846e-06
-0.0066067529640088159
0.025114894009924581
0.0018798958018119514
0
0.00061221829139837211
-7.0716078010058861e-08
1.0217617298754914e-05
-0.00088571076302757727
0.015076469330959063
0
0
0.1360299258180582
-0.0032619018170520751
-0.019855914012792387
-0.004207022077877794
-0.018482434370318539
-0.00080995600446144567
-5.0989236878569246e-05
2.4252148106126204e-05
0.00033444692760369087
0.059196927893835107
0.0018131246893639719
0.0019802502067866393
-0.060450209387977114
-0.00067441603889229732
-0.088613197766104629
-0.0018768762385759125
-0.018310832462397706
-3.2450702237602313e-05
6.045288925798002e-05
0
-0.059328178413112775
-0.00090285780625202344
0.0006864752738767522
-0.0027806967932189914
0.0097163549029495935
0
6.3939006745635597e-05
0.00048854854763259942
0.00011122919346211757
0.014749896961778676
0.00048893116757323097
-0.0020982334026349867
0.055236394464403593
-0.00010866407537730702
0.0017193160457190759
-0.069497051866397458
0.00074408109791800829
0.0013320061396672608
0.0075858998691716532
-0.055006534158580138
0.00055389145312055403
0.040755059625762986
-0.0099054779179672016
0
0.22632578502518524
0.004519283769962283
-0.018319786311814176
-0.0022953497939019064
0.00021087951273485156
0
7.2967836202015202e-07
0
0
0.0007007630980086397
0.0034865938898105543
0.001736766074103273
7.9762030468423072e-05
0
0.0061013133421191955
-0.0016154223665648993
0.016635751028170758
0
0.041950326707047167
0.011982417317100341
0.033962546963337885
0.00029168649408983988
-4.9588286321873458e-05
-0.00013458503931408039
-0.11988622927630577
-0.0042667433252687442
-1.1936406677084304e-05
-0.011031042593741462
-6.779367036319281e-10
0
0.00076284731738968841
-0.00046747491990446212
0
0
0
0
0.00023811974650209266
0.0022578963083455007
0
0
-0.00018446035125262983
0
0
0
0
0
-4.22888550585949e-06
0
0
0.011915103387273102
1.0544593447727326e-05
0
-4.8743684890288557e-05
0
-4.3024331186639772e-05
-0.00026827687428322114
0
0
-3.1167953012372023e-05
0
0
-0.0010576711049006687
0
0
-1.2507928950039342e-05
0
-0.00034819864493255487
-6.2567753117449685e-07
0
0
-1.247157574381658e-05
0
0
-0.0013412183384399231
0
0
-6.1376916172078694e-08
0
0.0016182999240246833
-0.00069917193586739113
0
0
-5.2423678850862261e-08
0
-0.0005615242686419161
0
0
0
-9.1911660230372276e-09
0
0
-0.0034106709471833745
0
-4.2469002522791671e-05
-2.0086044182606056e-09
0
0
-0.0020229670544837743
2.7946270612815484e-05
0
1.4019821832679949e-05
0
0
-5.5744513588267706e-05
-1.5335805951779867e-05
0
3.0854054005727764e-09
0
2.6119581257261078e-05
0
-3.288715114252057e-06
-1.2430253200657856e-06
0
0
0
-6.5929657310598934e-06
0
0
8.7389064446694899e-11
0
0
-0.00099407477518125096
0
0
-8.2693921054648154e-09
0
0
0
0
0
-5.837015710593304e-06
0
0.0039758292955976438
0
0
-2.7787680422500584e-06
-1.6858489133641298e-07
0
-0.0014871824974289534
-0.0015186886397397146
0
0
0
0
-0.0015855455245993625
0
0
0
0
0
-0.00059005162986659353
0
0
0
0
0
0
-0.00033001105495856592
0
0
-4.6310175140322322e-06
0
0
0
0
0
-2.0855993275549105e-08
0
0
0
0
0
-4.9380647888388912e-05
0
0
-0.00060707531525717605
0
0
0
0
0
0
0
0
0
0
0
0
-1.4842311616607126e-05
-7.2436188390523668e-06
0
0
0
-0.00032830548360921255
-6.053102806309322e-06
0
9.6690117780058168e-06
0
2.4289521685931741e-07
-1.9606099961917726e-05
0
0
-2.1164579338691733e-06
0
-0.0002107466860197744
0
0
-1.6562276133489031e-05
2.9113217278808952e-08
-0.00018302336784828104
-0.010307412692131875
-0.01184090840309524
-0.0054977471751980287
-0.0020059576038510942
-0.00056750906470711229
0
0.019706176751322399
0
-0.0040311071513032077
0
3.027365960646854e-08
0
0.055337593626400602
5.3342043380040988e-06
0
0.0059445048122578692
-0.017552566999010207
0
0
0.018653280923585418
0
0
-5.5165966302268492e-10
0
0
0.0076616750337502549
-1.708398396602968e-05
-0.006701358589284858
3.4939730671445699e-09
2.2344995260855299e-05
-0.088008744839074657
-0.017095517103868418
0.00080381511983180207
-0.0035169458111645189
-7.0778638209878308e-12
-0.00021470046467913763
0.0039365431529457661
0.012879379583990385
0.00081887466404835367
0
-2.0623650192617739e-05
-3.9283445543340411e-05
0
-0.0001887274061349906
-0.00081645487554537252
-0.011645842869623732
0.0036755064938033375
0
0.00088687698810521048
0
-0.0056420289300004025
-1.2271381405674044e-06
2.4648319279723176e-05
0
0
-0.00021613418672853369
0.0038362189919084544
0.00023521724930386902
-4.87920622824673e-05
0
-0.042470187058985684
-0.0092426960151420507
-0.0011288320564187806
0.0022020727612474841
0.00091439049616379381
-2.2012212002305412e-05
0.011966129699519532
-0.025499359715852356
0.0034824505423261959
0.003439727359075208
0.00011321884310069115
0.0005016068867743661
-1.0076803221997327e-05
-0.0014006647621098173
-5.1525807058539321e-05
0.0012041726945700849
-0.0015693673763048179
0
0.00018902788569206334
0.12694767430858134
0.00015076101383527314
0.0024630379416581663
6.6287759892236241e-08
-2.4125596245071721e-05
0.0004241055090141695
-0.0078180138843706604
0
0
0.0017972822627789471
0
0.00028917305173163741
-0.0030757203591066603
0.028461086924124999
-0.0020417231568781568
-0.0015962076643175173
0
0
-0.0082404551863051751
0
0
2.9048168764697872e-05
0
1.7696610432198002e-05
-0.0024781940602834349
0
0.00038066532573467369
-0.00012746776232898496
0
0.046837685406790709
0.0081622162218367451
0
0.00028731922395588483
3.3130705266373005e-06
5.9245025565691301e-05
-5.0992631786809972e-06
-0.07292881730254358
0
0
-7.0061475534025339e-08
0
-0.00066956656892138333
-0.00057501311795159172
0.0025657868950789858
-0.00013540536231569267
-0.0020584190669983788
0
0
-9.5623709524762757e-05
0
-0.0050239727204558337
-8.0101005401709635e-05
0
-0.0081011459959361206
0.00074603494618236273
0
0.001273033933411199
-7.1058981194863797e-13
-8.0565732583441709e-06
-0.0044966646066972177
0
0
-0.0011466549908139643
-0.0027715694191231474
0
0.00055298912919498169
-0.00072838927758906563
-1.7533536461481001e-05
1.0165491470440112e-05
7.2959566102215225e-05
0
0.0017392993897534376
-0.014616645822877857
0
0
0
0
0.00061060482797553194
-0.017043386305701451
0.0007740032483071202
0
-6.6193595201420954e-05
5.5939453572886106e-05
0
-0.0087232495661993537
-0.0071817638672032709
0.0038194195458799581
6.8845538465752607e-10
0
-0.026355881166583803
-0.022307543718921474
-0.0048315185019716742
0
-2.7933180877868117e-09
0
0
-0.00084820715513313444
-0.019922759646291328
-3.7690743227670221e-06
0.0013179401573723073
0
0.0015491273742064826
0.018586641293474072
0
7.5363517931002433e-06
-0.0019585536647623745
0
0.039852362468425356
0.014475983836148098
-1.1606665664632462e-05
0
1.9355372466634628e-07
0
0.017607428545688312
0.020156457140417833
-0.0041846106596964538
-0.00030549641436286053
2.354010300498791e-07
0
0
-1.2540559343993032e-05
-0.010704054352209941
0.00081474078366789533
-0.00013372020722951107
-1.2059667339545036e-05
0.0025584661189829608
0.0040180402721289761
0
0
-5.1270938519553111e-06
-1.8408429547458825e-05
0.017718185849316379
0.033577892289179137
0
-0.0096636850847853645
7.9370475365253001e-05
-1.3039888882262326e-06
-0.015537675443782433
-0.0052025949952305417
0.030825579367750298
0.0009018157303764963
7.6815072116881567e-06
0
-0.065755524877539481
0
0
0
-3.703565841409928e-13
0
0.060358932606302394
0
0
0
-1.7713091348280143e-06
-5.6060923976799567e-05
0
0
0
0
0.0027098328119553668
-2.0161478140188794e-05
0
-0.021697747059035686
-0.0078225507753372121
0
0
0
0.041769544467656315
0.0021595516690259948
0
0.0050302178635520979
0.0019951921642293912
0
-0.002223651039603466
0
0
0
-1.8543784659784104e-06
0
-0.025487040198608903
-0.0037366349456798395
0
-0.0014248083132190066
-5.7219217322466737e-08
2.1383139968616211e-05
-0.010314802815601511
-0.0086627232200547633
0
0
0
0
-0.0028058561949760195
-0.015759678329964267
0.0078334366135396176
-7.9983092786907711e-05
0.00011544826892979205
7.147240119307332e-05
-0.0066193878723991868
-0.081182671657465788
0
0.0037903871275667901
0
0
0.015423078996264212
0.0023161147011336405
0.018723900795190953
-0.00066336606661149722
-9.8717114551979055e-07
0
-0.011411348516872276
-7.6613354194537151e-05
-0.00069210604080978638
0
-0.0041441742884355598
0
-8.0133241963770228e-05
-0.00054560430733283083
-0.00016598512535585431
-0.0086012956577191779
-0.00017460409516770298
-6.4600480231853983e-05
-0.030871552630827626
5.2373921300451444e-06
0.0017193160457190759
0
-0.00021197533800997655
0
-0.00079084701175826397
0.011010358608457442
-0.00016636148270918275
0.006896088668245713
-0.0058253465353819657
0
0
-0.003699607768991997
0
-0.0017227289095057413
5.8698882671692315e-05
0
-3.0886124819437842e-05
0.046317602576041166
0
0.0014487042401577655
-0.0071911619951049548
0
0.0027835535271026625
0
0.0017798332405479669
0.007345457147785556
-0.0019700883740244798
0
0.048991210381297778
0.011982417317100341
-0.0071566486882196417
0.00073051621320227166
-4.1746809469960038e-05
0
0
-0.0017053281097443777
-7.3579952184899221e-06
0
5.8697270983878081e-10
0
-0.00189194883699607
0.0072851516489307322
0
0.0023900476835099042
-4.8581598826186e-05
0
-0.0021126194466757064
-0.0017830871611118934
0
0
0.00012566007132992606
0
0
0
0
0.0028933881112848917
1.3591161448043193e-05
0
0.0072862430616086977
-0.0067504222250565548
-0.00012467434890820947
0
0.00021015165726237002
0
-3.6101035567412072e-05
0.00023864888676951684
0
0
4.9115880539784533e-05
0
0
5.3301398197802351e-05
0
0
3.9543473844913743e-06
0
0.00055831426182420714
8.6142999721417206e-07
-0.00091569306976483646
-0.0004696204989501553
2.3228980847588668e-05
0
0.025758734115102482
-0.0010692697003069848
0
0
3.4024194346907482e-09
-5.6417485315346867e-06
-0.003431543406428185
-0.021611871202589127
0
0
-2.0232565718677462e-11
0
-0.002215113819965123
-0.069717896085607342
0
0
-6.936763024871163e-09
0
0
0.064305479427765225
0.00027632823819174416
-0.0003304560369796681
-1.9579031399611205e-08
0
0
-0.00048808812950216043
6.8556938329070787e-05
0
4.5699068329642092e-06
0
0
-6.1550740338468295e-06
0.00039378650148951064
0
-6.3603055439103031e-09
0
-0.00020937845251787961
-0.047357377702527993
1.724756312001036e-06
-1.7765261849620922e-06
0
0
-0.0079883207139237241
5.2980219550508949e-06
0
0
-3.8369474934382813e-10
0
-0.0060388943083776962
3.9022664429425426e-05
0
0
-5.7978225225404911e-09
0
0
0
0.00071408013487765827
0
-6.7917043561430552e-06
0
0
0.0021634270312395568
-3.8084477249220717e-05
-3.0960864296606638e-06
-4.3068859832946635e-08
0
0.00061842175586956038
0.00022100602647224257
0
0
0.00012612876241555764
0
0
0.020541062137488502
0
0
0
0
0.00020970749711435674
0
0
-0.00052401333791697341
-6.3070728972488782e-05
0
0
0.00088248558740542206
0
0
-3.084395969259591e-07
0
0
0
-0.00014757861002262466
0
-1.2773357148802635e-08
0
-0.0018821732344262905
0
0
0
-6.0863587579944854e-07
0
0
0.00044302965014089506
0
0
0
0
-0.00063299462106461857
0.0015871071847979631
0
0
0
0
0
0
4.5708309673188246e-06
-7.2868727226793395e-06
-7.8126391048900791e-06
0
0
0.00012295539032690207
-0.00011313832519814317
0
9.2036512230925764e-05
0
1.4606053718503389e-06
1.3988677997856329e-05
0
0
2.5561621838782731e-06
0
0.00014703266060603695
0
0
2.4754954857480672e-05
-4.8683691337975985e-08
-0.0010517573190561894
0.048322967425442558
0.013361430146642907
-0.025976920007226328
-0.0012947461495822978
0.00040930378936695588
0.12558090906395072
0.011899535031668585
-0.02673039354101641
0.0024312200437428605
-0.15677823615813016
-3.027365960646854e-08
0.0003597707535149923
-0.034176981481922344
2.8078647109363639e-08
-0.086084482238496407
-0.0053439654813283704
0.055906913739008336
0.0077068772989948272
0
0.077761909670992738
-0.06379075387628938
0.1884754571493128
-7.849410968928302e-09
-0.025079613063499838
0
-0.0012517948835775287
-1.9776654829105635e-05
-0.021364499999362168
-1.7772116906964528e-09
-1.1185674268405245e-05
-0.049888060956233111
-0.011820460871873153
0.0030780811157481418
0.0091005742099694569
7.28732099556838e-14
0.00022643618573974872
0.0033742622575148418
0.0077608098545836838
0.00011353320672597843
-0.055281100202228484
2.0623650192617739e-05
5.6303984544799243e-05
0
0.0019294559344934905
0.00081645487554537252
0.11950294004778209
0.0024023982068829557
0.0039097054277914562
-0.0048347113033842797
-0.18450398387315617
0.062779021931470114
4.4963695468525024e-05
2.3944921241253671e-05
0.0051556724613330456
0.14037254827717366
0.001517182036545775
0.008869536350886234
8.6160468539256738e-05
0.00030152063525694221
-0.0088492324569718877
-0.051494579275574645
-0.0090511264434884765
0.01087921104817934
0.0062369034008245136
-0.00041621146625737943
-4.2457799398836355e-05
-0.043708850513196326
-0.13534235554736823
0.0012235310412360492
-0.003972038909633698
-0.00039899286404063616
-0.0012503888581605024
-1.189244196454907e-05
0.00045782803456312625
-0.0012134933571195656
-0.0012153193941014516
-0.025114983085679055
0.024377677156845308
0.00022478136801594271
0.20391766718772256
0.00026731947626278129
0.0079753188794832158
-8.1719068473823614e-08
-3.5591753894745959e-05
-0.034174326833707427
-0.01450290227255259
-0.25603563044087846
-0.093186729825755668
0.015582365939755972
0.01593807546197264
0.00037198676678499443
0.0040672900251577347
-0.070675496619438977
-0.0044239807797486989
-0.0024428058179524976
-0.0037647925126002516
0
0.039823907733656107
-0.12966867467467585
-0.11566821008884018
-0.00012888356160114877
-0.057293259815780699
2.0881919115724283e-05
0.026060130568707311
-0.070403149110328661
-0.015463454582018905
-0.0012404818077810184
-0.04294853524137271
0.045069353663011708
0.031520235618966719
0
-0.0024424224770596067
-3.2010672172487043e-05
0.00017931338633113509
1.0123243621024729e-05
0.032933501389528344
0
-0.057501658745374426
6.785840900688422e-09
0
-0.0011544144175896446
-0.010747194081452688
0.0074839151034342037
-0.00042538658454820399
0.0030546071683237959
0
0
-0.00014685197737370883
0.19930873904636756
-0.0048554628668897671
-2.153329744268936e-05
0.0081621239306824845
-0.027972205823381911
-0.095713569581801355
0.036285103086051047
0.028092522360166135
3.9974733785507651e-11
6.2646297728384774e-07
0.002857506259349414
0
0
0.0034149242233895939
0.0029424982167121747
0
-0.003495702681768621
-0.00082508306097434537
0.0018156297098689057
8.5907252536019253e-05
0.00015447252311215766
0
0.0018229540148024708
0.2218127494331969
0
0.072915664560652682
-0.099727153527418039
0.0038030839470569924
-0.00037525451623581082
-0.013804215497298026
-0.016123405137139606
0
8.2644307813221896e-05
-0.00012687664890644157
-0.34993884913995765
-0.032210936178210095
-0.004169500018773465
0.029525499963287839
5.795948671710483e-09
0
-0.024648043528312787
-0.26748111949515274
0.027344304057556008
0.049376478852885083
8.043870254057739e-10
-0.0062233250470358657
0.15837579271162697
0.0023842621563176774
0.17508743938148313
3.1741542577296931e-07
-0.0011441778039737989
0.020656047296308603
0.0014769509103049823
0.01752478958125174
0
4.3357410204905346e-06
0.0021326956405484806
0.00026372585606458128
0.048094252532647194
0.046624303130737794
4.8205212129204175e-06
0.055136362263580603
-4.9356667566623816e-07
0.0025967652057000568
0.040569080139672836
0.062166041745820924
-0.014498887863623282
-0.00070837140618235941
2.4126766393137634e-07
0
0.21960211875182784
8.130701435365217e-06
0.024150157292140519
0.00073381495364072753
0.00026324777709741358
4.4182169323781861e-06
0.027317172226286705
0.0083078029918651469
-0.076115085659878234
0
5.0396670358240385e-07
4.6470092786010971e-05
0.1443841434699446
0.15921122716117861
0.25641285785828338
0.029128603989122839
-7.5736777559329066e-05
0.0013638488193099838
0.0036927740550567051
0.0052025949952305417
-0.019585996615476498
0.0040202919745143699
2.0555089086762553e-05
0.0046905800948457933
0.049555934041858388
0.13013878010825844
0.070711861401106274
-0.055697742028049432
2.7098266085141505e-13
0.00079563294064801087
-0.15383162999001007
-0.39377530076412393
0.059121697323368638
0.051402772027776419
-8.4647234175048674e-06
-0.00075163495182626629
-0.14115792510410125
0
0
-0.015321873320210349
0.0016789270066344709
-4.6076926099824659e-05
0
-0.017329318979202396
0.010295833654647649
0.0032468857184932368
-0.10991030782504185
-0.0031429655820512793
-0.0026535081883696451
-0.002230975154371605
-0.0071433661963401784
0.0025155683794588026
-0.00027912909044320471
0
-0.0041077646138570865
0.20346771215940815
0
0.06897083297505778
1.027414092389497e-05
-0.0066067529640088159
-0.022525325789477683
-0.031660197184949966
0
-0.0059495775490004043
-5.818067517680827e-08
9.3145240373857297e-06
0.00046836023296278841
-0.0028588114244347193
0
0
-0.21298465108803158
0.0015031612937523439
0.0071409478878811288
-0.021517771083967005
-0.013735220578717991
-0.00083953298831972243
0.00011544826892979205
3.4038618690148167e-05
0.0013746373285659181
-0.01137804488842644
-0.19025951673488395
-0.0017947459227814001
-0.023700457507498923
0.002888876135496132
0.10610236626927338
0.0011618129689726564
0.063305350091631046
0.0010806734496342431
5.4448727131534635e-05
0
-0.0077119291182017081
-0.00033183152197486891
0.00031014740731850736
0.0014269335665858841
0.02192732615028499
0
-6.7436724281082737e-05
-0.00038262778142000479
-0.00015480432258259646
-0.014278281517402324
-0.00028801680019313109
0.0049705695150509517
0.012215215440612858
-3.8132835433412452e-05
0.00054179264185186498
0
-0.00038285206036401049
6.835517068933748e-05
0.0067435228315777199
0.087779419717908452
0.00055389145312055403
0.052960614856992459
0.0065738464286900899
0
0.17607844433331105
0.003187890393546903
0.074643817822321837
0.0011170041534514367
0.00038921715699427947
0
2.6279766322608655e-05
-0.11104566730539273
-0.16358204214074432
0.0026508784299426394
-0.011239630952422081
-0.0032840178493194023
0.00044791283179171663
-0.12636791484019913
-0.0081065446354780767
-0.0033715930216534837
0.033572434963796492
-0.034139209987977905
-0.048007974945748724
-0.0019546037234035255
-0.0042821933419648012
0.00059172822145916472
-4.0145338003061788e-05
-0.0013805629245246692
-0.11909610317098272
-0.0029761882783458757
1.2173997626960158e-05
-0.024479526542321408
