0.49952457920070409
2.1901332666889298e-11
-0.014080902083157779
-4.4185220967917054e-06
-1.5303130482541381e-07
-3.9282188348395571e-08
1
1
1
1
1
0.49998949329351616
0
-0.00017953721695125659
-0.0060241579009248829
-8.916232165518785e-07
-2.2060384823094395e-06
1
1
1
1
1
2.4150078263616105e-09
0
0
-9.3838656022041311e-06
-2.4258624747597587e-07
-4.0476742236148151e-06
1
1
1
1
1
-0.002160806491648399
0
-3.6393349108944805e-05
2.5819296264073601e-06
-8.5417291753919349e-05
-1.9686592576002268e-07
1
1
1
1
1
-0.00096081811792480978
-8.5162128970224097e-11
-0.0043983782400351581
-0.036301704240466533
0
-5.7468395526655012e-06
1
1
1
1
1
-8.791568894170608e-05
-4.3820488842999318e-11
2.8531877431992892e-06
-0.0031694960694050264
6.9543472415571445e-08
-1.1768697419683695e-08
1
1
1
1
1
-0.00045329834250188513
-1.1592436799703233e-09
-7.8130910185475907e-08
5.997644015791848e-06
0
8.0449950313662348e-08
1
1
1
1
1
-0.00023126472025914891
-1.2026481832971144e-11
-5.2909552153681937e-08
-2.5698087341483987e-05
-1.0270981497535608e-08
-4.3591997267123731e-08
1
1
1
1
1
0.00017906487002323178
-1.2016673572237234e-08
-1.8666788619173322e-08
-3.185294112124208e-05
0
-3.0795025854273349e-07
1
1
1
1
1
3.8190058863788076e-05
-6.2091821652728152e-09
1.1727074459348431e-08
-1.0575836477145816e-05
-3.2650830040218154e-08
0
1
1
1
1
1
3.8059870602202474e-05
0
5.8145563041630457e-07
-3.8482668117125143e-05
-8.2378722963958717e-07
0
1
1
1
1
1
-0.00015621390597003263
0
-5.4300161499929129e-06
-4.7348936479095143e-07
-2.4389146699306209e-05
-1.0289020058350014e-09
1
1
1
1
1
2.268106401462647e-05
-4.2890970692180412e-10
-3.1100023540350016e-07
-0.00041865373019488449
1.4656750578203563e-08
1.2646898746302043e-05
1
1
1
1
1
4.7748808744632547e-06
-2.4671711288692729e-10
0.0006311675063821108
-2.6362108870172964e-05
-0.00043624254424042642
-0.00019295034195719642
1
1
1
1
1
-3.8355869190319298e-09
-1.3820838779182026e-10
0
-0.0022856483993473988
0
2.8237881470909194e-07
1
1
1
1
1
0.014685527656223574
0
1.4418763672146322e-07
-2.5426210738866797e-05
0
0
1
1
1
1
1
2.701364533529013e-05
0
6.4259000034203766e-08
-7.8094146114145287e-07
-1.5487145297945263e-08
-4.8546795196555308e-08
1
1
1
1
1
-2.5991455732233691e-05
-3.0564645373630247e-11
-1.0365774796958294e-06
-1.2403077097084e-05
-4.447556845238861e-11
-0.00016080308545126084
1
1
1
1
1
3.1896460475897828e-07
0
1.644194734847041e-07
2.8294394450277489e-05
-2.1936352595835907e-07
2.0746041643283307e-09
1
1
1
1
1
0.00033607411364531983
0
3.0432709608192781e-07
-6.2390920840921693e-05
-3.6757979209114884e-07
0
1
1
1
1
1
-2.0638971555693525e-06
0
1.2245805104602182e-05
-8.1935662438607492e-06
1.1824937487868231e-09
0
1
1
1
1
1
-2.3138641410016632e-08
3.1945530774704089e-09
-1.4231451048673693e-08
1.1817342596905192e-08
3.227197228405151e-08
-2.5129645248439443e-09
1
1
1
1
1
-5.6501927648361809e-06
2.4874434867045983e-10
-1.4658197628074326e-06
9.2956691425000739e-07
-8.750174065725169e-07
5.0385955819834872e-08
1
1
1
1
1
-0.0060211169395678948
0
8.810777668511514e-08
0
4.2173752402192439e-09
-1.4843647202392282e-10
1
1
1
1
1
2.2132481781299155e-05
0
2.0348298382396599e-06
6.5500177029570803e-07
1.2645901999876545e-08
0
1
1
1
1
1
-7.8040591080889129e-07
-6.5637137037197202e-09
2.0398560916444883e-08
1.187187647858465e-07
2.1236882507748542e-08
7.2420942496721733e-09
1
1
1
1
1
-5.2132077241714547e-06
2.4849313093598461e-10
-5.2013538956536172e-08
-5.6592365388938435e-06
5.0619151534200605e-09
1.0833385151484239e-05
1
1
1
1
1
4.0688085380456525e-08
8.8128903566454722e-11
-1.8134824132215968e-07
-1.7814590274095234e-07
0
-5.984397737364254e-07
1
1
1
1
1
6.2274127859718206e-07
1.2467301276874082e-10
0.0048861264234355325
0.00020538706698891216
-7.522235513577029e-08
-6.0812819117970238e-09
1
1
1
1
1
1.2700325686791276e-05
0
-1.059141875455725e-05
8.3240550797942254e-07
0
2.2586344650611535e-06
1
1
1
1
1
0.53858928271227546
0.011567666725066211
0.00010662093532909921
0.33380428123699291
-0.03793670447176857
-0.0048460781527731754
1
1
1
1
1
0.93516004247559326
1.2216208565821786e-06
0.0014013874498858758
-1.3785104870549093e-05
0.016669646372687866
3.2260106710518845e-05
1
1
1
1
1
0.98199351657641809
0.00012346279128403921
-0.0059335201079952198
-0.057012162488085188
0.070559836640321519
0.0011453639213523119
1
1
1
1
1
0.85678442657908283
-2.5171870743449502e-05
2.5661509372209675e-05
0.028704848779779524
-0.00010493675003859467
0.0039441171722851814
1
1
1
1
1
0.81131781115041601
0.0019330921188741926
0
0.067823356742644253
0.0011254266545642202
0.035007770784648021
1
1
1
1
1
0.86462904205902003
0.0067678190974671962
-0.00073118132061868255
-0.0017138340596773783
0.0051522817424400841
0.12891210226086366
1
1
1
1
1
1.0417682546790223
0.020577277358778037
-0.011415051964057007
-0.05185584885369942
0.025614897378277365
0.031776991655457852
1
1
1
1
1
0.75402486854699224
0.0014928705457874631
-1.6775683705716128e-05
-0.0023388628934610232
0.041118243256585509
0.0033504353541306915
1
1
1
1
1
0.8791386912499819
1.8425059790637614e-05
-0.00014333059116203696
0.00050229747760561572
0.0010316261634129675
0.0036020054553697282
1
1
1
1
1
0.86296472373096611
0.035116991223274739
0.019641706624546763
-0.021069475737177917
0.35278148151537381
-0.24095118893747364
1
1
1
1
1
0.55537217949924012
-0.0086421313600877955
0.00032643871276873858
-0.14297596572851909
-0.024854854269152005
0.066165311874017127
1
1
1
1
1
1.1222009456771274
0.017370921546394417
0.00060680215506082424
-4.7270499112260245e-07
0.022221656946944737
0.0068300482961886943
1
1
1
1
1
0.90291675017467854
0.0049858130105503865
-0.0013536707288922354
0.0058030177853652196
0.0051167707273660698
0.006005717657507949
1
1
1
1
1
0.56544065303688751
-3.9300123079831503e-05
-0.017067645005472781
-0.047822623699837967
0.1139679949823104
0.039143192955555586
1
1
1
1
1
0.61409696401360059
0.00012182086725556703
0.0095762372524501975
9.9679688409461982e-05
0.011761780838586903
0.040970550904404913
1
1
1
1
1
0.78623988223746444
-9.7400819431640131e-07
0.034031645381850391
-1.655520437225293e-05
0.0068046459094579185
0.014871375075301089
1
1
1
1
1
0.76249557295552495
0.0037790329430743229
-5.9284068971930674e-06
-0.15482794557570836
0.00039420106411025817
0.00017709000994056812
1
1
1
1
1
0.71955623266333446
-1.5679139703027904e-05
0.081835825121838152
0.0017435548111592385
-1.1589110394393866e-05
0.013024378312255837
1
1
1
1
1
0.83238516515040661
3.7811364343069171e-05
0.0060333398219814668
0
0.00025243118827838931
0.095790687224479712
1
1
1
1
1
0.77212406999451955
0.00081926792975354666
-0.00027065731090608787
0.21222266145242205
0.00038825206628565937
-4.3885492796691784e-05
1
1
1
1
1
0.60604314686895788
0
-0.060805517149721114
0.075836521030419657
-0.020673060749681411
0.031104152655898661
1
1
1
1
1
0.79877876018274674
0
0.096057837694844758
0.045106562826339229
0.0038320529769017035
0.00013761801150026032
1
1
1
1
1
0.63682203231305878
-0.010526872290451222
-8.6488791944893618e-05
0.048118158284958794
0.00059859689244695841
0.016088574650951759
1
1
1
1
1
0.82071033089144907
8.6351689214099123e-05
0.0067658209550807702
1.4237572015330174e-05
3.0228586186518972e-06
0.016633956710488323
1
1
1
1
1
0.65999073839004041
-3.5881792238336112e-06
0.015492809648096923
0.027811392698597764
-0.017741921723172988
0.0087302490971312395
1
1
1
1
1
0.9815010970468111
0.00020794358657987553
0.0018858000093270521
0.15853892522790908
-1.0227658557291374e-05
-0.00042530091685296446
1
1
1
1
1
0.74083889597385533
5.1688046516042492e-06
0.0087585013410022856
8.8534588827709291e-05
0.0099006993744648452
1.2880101215865073e-05
1
1
1
1
1
0.69432885307617687
-0.00070340658542736724
-0.00061021127314146283
-0.0016017437982358729
-0.0010537000879599289
0.035959309700432394
1
1
1
1
1
0.955072638079838
-1.8506695660368942e-05
-0.002224092187314195
0.078673005499821064
0.16307649681806788
0.0018994340650012205
1
1
1
1
1
0.0358110304962235
-0.00048535267624958865
-3.0006668758161923e-05
-0.0040097416715649389
1.3870027202993241e-05
-5.8277227372374033e-05
1
1
1
1
1
0.015578007911553182
7.4377093417357396e-05
-0.073833258639635621
-0.072642339337656459
-0.00010481171406222174
-0.0042559081591877533
1
1
1
1
1
0.063618458885286083
0.0020505728510007717
-0.033739827730133211
3.7378085543447214e-07
-0.02591363780457458
3.7987555946239277e-07
1
1
1
1
1
0.01103136295402856
7.8257142045016499e-06
-0.00054695320690724219
-0.00022361750970923457
-5.891853465299684e-08
-0.0013659518767699227
1
1
1
1
1
-0.10811148732279839
3.7556636329988709e-06
-0.0046577489811969325
0.0096872096471987482
-0.0011471301446467944
0.0018926101585779946
1
1
1
1
1
0.0091192082194965444
-0.00023297672054697067
-0.0038045113351523429
-0.038110543458371268
1.6549601302956798e-05
1.6391757151644234e-05
1
1
1
1
1
0.15557085215991706
6.6951790762859737e-05
-0.026289581070955078
-3.4719151884180313e-05
-0.00013968549543685844
2.7055779586570145e-07
1
1
1
1
1
0.058359760226513881
0.00014331106754547678
0.02203634803314786
0.000233844351568167
0
4.1206737450552987e-06
1
1
1
1
1
-0.03417657154215515
0.00086931457596996914
1.7598249885022681e-05
-0.00011320875469145345
-2.7316780837005298e-05
-1.6892482290927346e-05
1
1
1
1
1
-0.0079385653915503025
-2.9873346092020904e-05
0.00020572314484001403
-0.00027091829876271805
-0.00021714341316166489
-9.7176108641133723e-06
1
1
1
1
1
-0.20295539807104795
-0.0036067918711750685
0
-0.26574197095259972
-1.1226070431561874e-07
-6.8341135848638792e-06
1
1
1
1
1
0.022440457212800659
-0.00066032042191763608
0.00011078120238006947
0.10709164581446878
-0.00012155014521735969
0.00027650970849523316
1
1
1
1
1
0.25501381558937503
2.7231522178919115e-06
-0.059226744144168703
-0.047225945738744467
-6.6185264570647214e-05
0.00065736621211702668
1
1
1
1
1
0.16023787783885216
5.8237524215355283e-06
-0.0078166668992913652
3.7284967229700376e-05
0.00051795155562004292
3.7600114058390668e-05
1
1
1
1
1
-0.009255672123181841
0.00018719121995106148
3.504600010855622e-05
0
-1.7772695666952604e-05
-0.0026785566247095292
1
1
1
1
1
0.022599500679923688
-0.00036139398282238565
0.00019447092307919292
-0.02261529564946526
-2.5439729637132476e-05
-1.0862184130782282e-06
1
1
1
1
1
-0.0011723242052748366
1.2482450657468343e-06
0.042344444424815615
0.010351071601219322
-0.00020012836455552476
0.0096090979746055009
1
1
1
1
1
0.016981728014539756
0.0029625628851764605
0.016303141056016039
-8.8486429335120671e-05
6.9693203430529785e-05
-0.0040247933416675185
1
1
1
1
1
0.15796224115088117
-7.5680565231178045e-05
0.00011805561748034674
0.049393205753219836
-7.1784284188152736e-06
0.00069124975484458724
1
1
1
1
1
0.14446339545002793
2.4077308266252489e-06
-0.0027538018771841024
0.0024563062555850771
-0.018886754801483063
1.8949939507062619e-05
1
1
1
1
1
-0.041441409228728888
1.8158812673069167e-05
0.021501095726750942
-0.00035821948679576175
0.0041387734323135618
1.1624985752976981e-05
1
1
1
1
1
0.047026788393188065
-7.1453212613164529e-07
-1.0749774504399554e-05
0.014480969430187047
-0.068212785649329116
8.2612095841248449e-06
1
1
1
1
1
-0.12349188727637728
8.8478542448225419e-05
0.025131974753627589
-0.011072086087162952
-0.01475666538230572
1.1641121969826856e-05
1
1
1
1
1
-0.018847624674836028
-7.2612289911606769e-06
-4.7641728293081265e-05
-0.0081573652289985525
0.042166816024410254
0.0033210332247697767
1
1
1
1
1
-0.12007356762205246
0
0.045648263516909308
0.0022307584208648584
2.9194129573526098e-05
-0.00030234118757391378
1
1
1
1
1
0.073103486977077595
2.1598906078063014e-05
0.0012148816953743799
0.00023741725077649914
-0.1035299773000236
-6.5694937334401081e-05
1
1
1
1
1
-0.097170464610750781
-0.00030027055346631818
0.00019332011412869385
0.031990231327832026
-0.00023229094524884715
-0.02034320684307769
1
1
1
1
1
-0.13240000501480262
-2.9979553294253211e-06
-0.067967133975128227
-0.00151313072937782
-0.038282681844288166
3.8707576311817186e-06
1
1
1
1
1
-8.8872914944132146e-09
-8.2104914681749271e-11
-1.0662828259295166e-05
-0.0049068830101213559
-4.1240869356129014e-08
-4.0610629379788143e-08
1
1
1
1
1
-6.0221498601847826e-08
0
-0.00020813272332034116
-0.0021750259845577588
-1.9398857643990879e-07
-1.847858243920902e-06
1
1
1
1
1
-1.5600784377996746e-10
0
0
-3.3219406864285943e-06
-1.5262293281992574e-07
-4.0380641420332453e-06
1
1
1
1
1
-8.4321180245192328e-05
0
-7.6680808234356467e-06
-3.1314348221498822e-06
-2.7751847405297408e-05
-2.7499700934565839e-07
1
1
1
1
1
-2.8930834003164689e-09
-8.0950061248476557e-11
-0.0017580258929127074
-0.00089284938395812639
-3.679764457880864e-07
-3.668780473797245e-09
1
1
1
1
1
-1.6346468273371009e-05
-9.9377548606344899e-11
-6.1235920869500694e-07
0.00061560035518517478
-8.3531649689772076e-08
-1.3387682111517918e-07
1
1
1
1
1
-2.8471122109273026e-05
-4.6961473255622931e-09
-1.0970259704691976e-06
-2.0492573418619964e-06
1.796367487911654e-08
-7.1709512242205182e-08
1
1
1
1
1
-2.2960391065587132e-08
-2.4611978876192289e-11
-1.5051234894590236e-09
-2.0472572999599061e-06
-8.9731135649472688e-08
3.7757026106699993e-08
1
1
1
1
1
-9.3507981783946842e-07
4.7107800374217428e-13
-2.0401771248640415e-05
-6.839653720450545e-06
0
3.495809889462766e-10
1
1
1
1
1
-3.424622468380048e-08
-1.1007284369415297e-09
9.254608924980196e-08
-1.8732034622215379e-07
-1.939532901213607e-09
0
1
1
1
1
1
-1.9859233248125812e-08
0
-1.8537110322606277e-06
3.3650359795326208e-06
5.4427481038534896e-08
0
1
1
1
1
1
1.4975312265023689e-08
0
8.6581739300624852e-06
-9.7635882936672955e-09
-3.2587737137608409e-06
-1.0100881109990591e-09
1
1
1
1
1
4.2172912117162994e-07
-5.7426438786799058e-11
4.5555508924655513e-09
-0.00014664767605067239
-2.7444959238171813e-08
5.5016795678153152e-08
1
1
1
1
1
-9.4658056006325911e-08
6.4633352359126465e-10
-0.0008779501555296399
0
-4.0386488617844252e-06
-4.5802116473361579e-06
1
1
1
1
1
-6.1019316303140754e-12
-3.2664816931939953e-13
0
-1.0815435777338733e-05
0
-1.0602415329595439e-07
1
1
1
1
1
-1.971090480803487e-10
0
2.2392562243522728e-07
-3.728366195737e-06
0
0
1
1
1
1
1
-4.5903955980243014e-08
0
1.0879974426389082e-05
-7.8446505429445315e-07
-8.0442014450217504e-09
1.078520513924615e-07
1
1
1
1
1
-3.7424120838730951e-06
3.8589639794210432e-11
-5.6141225127318006e-06
0
-2.6415551160175753e-13
-3.1516063538634456e-06
1
1
1
1
1
-1.0787868293121904e-07
9.9534638181093016e-11
1.3637831463649705e-08
4.6744842380591391e-07
-6.1343359117598271e-10
3.3535185637298555e-08
1
1
1
1
1
-3.4147358277720375e-08
0
1.7311292056333636e-09
-7.4295894848625315e-06
6.2434823641882358e-08
0
1
1
1
1
1
-9.7516861975140378e-08
0
-0.00024640210169106828
-5.8789545683089149e-06
3.3420500753334842e-08
0
1
1
1
1
1
-7.2826789425712173e-17
-2.668725346332329e-09
5.9545626130590467e-08
-0.00051986532340066714
1.1303944469377593e-07
-3.791625069576576e-10
1
1
1
1
1
-3.2132925079943339e-06
-4.8363989553615041e-13
2.7504374498881172e-06
-5.6751313797176999e-08
4.6847158000468608e-07
9.3094354584495919e-08
1
1
1
1
1
7.1596856293387687e-09
0
-1.7654895052417382e-07
0
-2.3932468534037168e-10
4.2957596101193374e-11
1
1
1
1
1
-6.2980285924761164e-06
0
2.3816277943927946e-06
1.9442704810127683e-07
-3.5267702929341322e-08
0
1
1
1
1
1
-2.4264644111378991e-08
1.9122955487187125e-09
4.3110877987261116e-08
-8.7212576979802766e-09
-3.2714515514845336e-10
-8.3531536297885057e-09
1
1
1
1
1
-3.1960899535976369e-07
-3.6766297097292358e-11
1.3938177355360146e-07
-1.0506864060133953e-05
4.346122056222458e-10
-3.2114037776052724e-05
1
1
1
1
1
-6.6649491226971813e-14
-4.2479414286138895e-11
1.3812289935547538e-07
-0.000544714640409568
-6.845305455106183e-08
-8.1050576805110705e-08
1
1
1
1
1
-1.2188101777345403e-10
2.060560175060695e-11
-1.2248356903580877e-07
6.5848739493158557e-06
9.2068738755166048e-10
5.347002973449131e-09
1
1
1
1
1
-8.9307354313014245e-06
0
-3.9991319024044797e-06
-1.1729484287650806e-05
0
2.4945257810408916e-07
1
1
1
1
1
7.7647930832210398e-07
-0.00038864148811971073
1.7587858364665509e-05
0.0059854246928104666
1.2252632246117448e-05
-0.0057290351119748707
1
1
1
1
1
0.0035478534610984694
1.9353020947380546e-06
5.1126844520008692e-05
-1.7922604812486865e-08
0.0031146461947108802
4.8450744505096647e-06
1
1
1
1
1
-1.623722238027342e-08
-1.6587436424560781e-08
0.010302008350025444
6.9510222888634284e-05
5.0846768290705506e-06
0.0031044691716679289
1
1
1
1
1
0.00023593912209646906
-1.396109248462673e-05
-4.4655032568940304e-06
9.6622152845127492e-06
0.00016618446899611348
0.012144642020433855
1
1
1
1
1
1.9483415384353174e-08
4.4818880028975273e-05
0
0.011659797129924165
6.0708465743470478e-05
0.0029027113655043951
1
1
1
1
1
2.2449436319944568e-08
6.351077053806309e-05
-0.0061229916840201421
0.00034023551960501904
0.0035001473811209099
8.214194520578575e-05
1
1
1
1
1
-2.6384419691100818e-11
-1.696347162848841e-05
2.2551245653951219e-05
-0.0070120759668289784
0.0001861781776362374
-6.1566263417122408e-07
1
1
1
1
1
7.8978040841489999e-06
7.5691688565066649e-05
5.3492999692540929e-05
0.0069354811974525225
0.00025518869707303303
-2.8288944556207295e-05
1
1
1
1
1
-0.0015679751229462704
3.5931744739376138e-05
0.023171308280579634
0.011900888662656995
6.2154902872609563e-05
0.000112419447831978
1
1
1
1
1
0.00010499224775002792
1.8670297919875365e-06
5.3016929058117604e-05
-0.0036008469111965236
0.00013413267790204325
0.00038887721310805918
1
1
1
1
1
-0.00067717852080812131
-1.0379605658551451e-07
6.3854474071432447e-06
-0.0082113247455106019
-0.0023307343645449113
-0.004675099283885026
1
1
1
1
1
-0.0055117779711988512
0.0003440417191973389
7.7363939536033809e-05
0.00014046290948207334
-0.0029473812836875619
-0.00015958141299163007
1
1
1
1
1
-2.863526401656192e-13
4.9055761794335328e-08
-0.00022484571788562179
-0.0043556340339239935
-0.0019646366239379431
0.0011049696457471365
1
1
1
1
1
-0.00013596470027783648
6.1541462048635844e-06
-0.0026294423266021547
8.5530507880139948e-06
-0.0038302278099445444
-9.1471640164135349e-08
1
1
1
1
1
-9.3780022386848454e-08
0.00011665100250960502
1.1774852331876818e-05
0.0001291616630385457
-0.00028611243991794044
-0.00011386121081811481
1
1
1
1
1
-1.3816533913341867e-06
-4.1586447701853679e-07
0.00020708614813030359
-7.2443437078453481e-08
-6.7361288871682767e-06
0.00094996406311865687
1
1
1
1
1
0.0030404561871560315
1.1474384770007633e-08
-7.0188022872248122e-05
-1.1480544748437078e-06
0.00012247343180351171
0.0001340619994222461
1
1
1
1
1
-1.1704431996398313e-05
2.5964773078907424e-06
7.4607251409331937e-05
-3.0485575202533238e-05
0.00018679513684618756
-0.01565208904876593
1
1
1
1
1
-0.00012590967712448913
-1.2129815255695774e-06
-0.0059999916279235713
0
4.3687759172860634e-05
0.0015956026406124309
1
1
1
1
1
-0.00079686828358072515
0.00034394168881198895
4.9705582568008541e-06
0.00035702737332891433
-3.7531933227205625e-06
-2.6323513252054253e-06
1
1
1
1
1
1.2693492665661191e-07
0
0.00057777173133361957
0.0071712485632019181
2.1412185448142761e-05
-0.00077151267118432646
1
1
1
1
1
0.003529405493433314
0
1.3776019511296593e-06
-0.00039148288008804662
-0.00059580341076023605
-4.1868839681593777e-06
1
1
1
1
1
1.0286615449110135e-05
-4.5740265406747346e-05
-1.7347523904561601e-05
-3.0618421813120335e-06
-4.1435948844098018e-07
-5.214692134093847e-05
1
1
1
1
1
-4.6537619698427198e-10
2.5773182306100899e-05
0.002747622210646606
-0.00013418682598296405
-2.057603969079359e-07
-0.0031858728168242295
1
1
1
1
1
-0.00094505492321744907
1.0119928694175467e-09
-0.0054840277683077384
-0.0006669742948968517
-0.0041086950083500393
-0.0018183131175114056
1
1
1
1
1
-0.00020101480914083483
2.1691166080523855e-05
1.8149820429639382e-05
-4.3501668517301267e-08
4.2332007106651385e-07
-0.00033482085122510098
1
1
1
1
1
-0.0027105592238666838
2.4855216933862108e-07
0.0056462465683505374
9.3702651862171153e-05
-0.011690983246419978
-0.00050321175674849627
1
1
1
1
1
0.00049901083014717228
-7.6057401766190609e-05
-9.1174839287766552e-06
-6.0986062828615833e-05
-0.005398652625283099
0.0078256953733657365
1
1
1
1
1
-5.0129288560804471e-08
-3.473415477375233e-08
-4.3606986616476835e-06
-0.00040935501159752153
4.4755249528666631e-05
5.6323236705827861e-05
1
1
1
1
1
4.6514093149257921e-09
9.4642790971506582e-07
-2.5948459223706926e-06
-0.0062531295109162386
2.6097787320868852e-06
3.0375971301624811e-06
1
1
1
1
1
-0.0014178578208495565
-6.7270812322930504e-08
-0.0019202921961810687
0.0012133951640356116
-7.3845946943035495e-05
-0.00072713956761904651
1
1
1
1
1
0.00034916289289256542
8.8907144177658209e-07
9.0781098153525872e-05
2.5007065895640635e-06
8.7505998754261867e-05
2.6881645742021829e-06
1
1
1
1
1
-1.3889049503449896e-06
0.00040049262626050094
-0.00034536201085874586
-5.4255990075062357e-06
-1.2409035104363351e-08
-0.0019057812335455144
1
1
1
1
1
-3.6947179931255535e-06
-2.7274565539694756e-07
-0.0027782979833875436
-3.7057435370473107e-05
-1.8703621881478043e-05
-0.00093738179904575918
1
1
1
1
1
-0.0018274416116893437
-2.7663123820048127e-06
0.0029567128065095091
0.00066654343636065878
-2.5802946537982342e-06
-2.1760765587783588e-08
1
1
1
1
1
7.7448461234010503e-06
7.9405859147871854e-05
1.6167478776259109e-07
3.1725486174952375e-07
3.194077101367729e-05
-0.00017036294836653119
1
1
1
1
1
-2.4016143001841829e-05
-2.0967779566177001e-09
0.0012694216675846004
-1.4371890247189605e-06
0
1.2980456080885885e-05
1
1
1
1
1
0.00016313115953163612
4.6494009246484447e-06
1.0496141530305e-06
-4.5710459206168094e-05
3.1893546001005364e-06
6.7130281080815293e-06
1
1
1
1
1
-8.0468802628521195e-11
-5.1896004227208361e-08
-4.947037006015663e-05
8.0012697978689147e-05
-1.6991049782608854e-07
-0.00012429864148983042
1
1
1
1
1
3.5946861428877243e-05
-2.0320395901038242e-06
0
-8.6772806016931056e-07
-5.2653344608363351e-09
2.3648123791031924e-05
1
1
1
1
1
-0.00034887511688367088
0.00029659411430588937
-4.1273910858973366e-05
-0.0012036182116338886
-6.7656209162346708e-05
-0.00064183623378848143
1
1
1
1
1
-0.00015149412597373268
1.8525583745556785e-05
2.9243986251630537e-06
0.0042358840794016819
-2.9023425019237392e-07
3.1677157944326664e-07
1
1
1
1
1
0.0028591119231779409
-2.9684607434440655e-06
9.9595523674067649e-05
0
-8.5908766453012465e-06
-2.2792386179375597e-07
1
1
1
1
1
8.273737553045358e-06
-2.8260169763097387e-06
-2.4897043813580841e-05
0
4.4651244074443698e-07
-0.0049236837076878917
1
1
1
1
1
5.5182167258411185e-08
-7.6883057577673561e-05
-4.6011334036302067e-08
-0.0079432417411489428
2.1099971729549723e-05
2.6366219689844804e-08
1
1
1
1
1
-9.3849066314429997e-06
-5.4920971129540812e-08
-0.00028852019607106309
5.1633353461945854e-05
3.8774505810792649e-05
-0.00069063899112711791
1
1
1
1
1
2.1240917335337005e-05
0.00022102575631251096
9.9139944765134683e-05
2.2868059193841959e-05
-1.7631561073179379e-06
-0.00230733869680343
1
1
1
1
1
-3.6764923325044589e-06
-2.6332016458293359e-08
-1.0843398755044669e-05
0.014153863679727444
0
-0.00095557712827788234
1
1
1
1
1
-1.1284160862237719e-05
3.2019644604502726e-07
0.004404890928090089
0.0034813186033382819
0.00055171707187094828
-3.145782349821027e-05
1
1
1
1
1
-4.6961688945778288e-10
-7.0575871701584545e-09
-0.00022248434638315814
-0.00032539824276107059
-0.00010363464378094699
0.00062780981285434786
1
1
1
1
1
0.0014598619470566556
2.9335489080861939e-07
-0.00011705144142749711
0.00053599745091342083
0.00061426229601354882
-8.999789912931846e-06
1
1
1
1
1
-0.0015260581114915038
1.1718788814368132e-07
-0.00026253714173593665
-1.0726412541864151e-05
-1.3835130236732322e-05
-8.5836396789074009e-09
1
1
1
1
1
9.2351503350821165e-06
0
-4.4682357272583091e-07
0.00079624658130026435
-9.0062161486678168e-06
-0.0021385910867926703
1
1
1
1
1
0.0008600116057374147
0
-8.6303893998053284e-05
-3.8403347261778755e-06
1.649672788180565e-05
-0.00017992358319663475
1
1
1
1
1
-0.0053477904799741297
5.4531507647134197e-06
0
0.00014568118924821008
-5.4246380061018385e-05
-0.0001086114767179816
1
1
1
1
1
7.2604559212456077e-07
4.9770127521368251e-06
2.9820320640675833e-06
-0.0036984089180635577
0.0010595872711177926
0.0055182464281761856
1
1
1
1
1
1.8503844554144154e-05
-3.3524787934402811e-06
-2.607005987339102e-06
-0.0074544081950189594
1.7966800108553271e-05
-0.0001853863098366337
1
1
1
1
1
-2.8683958231450955e-09
-1.8017071215674288e-12
-3.6691835282810167e-06
1.8309430112896102e-05
-3.8125344202476142e-11
-8.2689514249062284e-09
1
1
1
1
1
3.7462836840387097e-08
0
9.2408840346372146e-05
-0.00019584015085166533
-1.1490454624830491e-09
-1.3811990677149036e-09
1
1
1
1
1
9.6524701320528054e-11
0
0
6.9126447986523161e-07
1.8479238712074405e-10
3.5631269972117429e-12
1
1
1
1
1
3.6478357137341127e-08
0
1.4115966069326984e-06
4.5842624677771212e-06
-2.4110897467088143e-09
4.7634348828437752e-09
1
1
1
1
1
1.7526792374742056e-09
-3.2935372859617565e-11
0.00016441254648884637
0.00021626150131083638
0
-7.6758160773684241e-09
1
1
1
1
1
-5.5290950708292548e-06
0
-2.8634913431091345e-06
-0.00039871847750381275
2.26834211776264e-11
-1.725151046854257e-10
1
1
1
1
1
5.3777372233543395e-09
0
2.2084840516661811e-07
5.3573068650307608e-08
0
-6.9550456734876332e-10
1
1
1
1
1
-2.2732376295857738e-08
0
-1.0606354822355392e-07
-2.4068089628299723e-07
-4.4121839148108682e-09
0
1
1
1
1
1
-4.3408629192155166e-07
-4.5118573595527159e-13
-0.0020970116013303572
2.4072750048137706e-06
0
1.8697915187731366e-11
1
1
1
1
1
2.4725967429629322e-07
-4.8549262651180337e-11
-4.9245448754121141e-09
7.1044307991271495e-07
1.2829629594803641e-09
0
1
1
1
1
1
1.6724790296261399e-08
0
0
7.9938085479187896e-06
-5.2891371013922749e-09
0
1
1
1
1
1
4.0271839181637285e-08
0
4.7964572401836503e-07
9.762541735538866e-09
-1.4405771084808805e-06
2.0401570878232596e-10
1
1
1
1
1
1.0064493797498303e-07
-1.124222816704074e-12
-7.8151933797120319e-09
-5.7663223434148143e-05
0
1.2360622585254824e-10
1
1
1
1
1
2.8535751400695106e-07
-8.4513387756625381e-12
0.00087596925201917873
0
-6.1395342188339849e-06
-4.1802592004966136e-06
1
1
1
1
1
1.3467799232582511e-11
6.742480371833057e-13
0
2.974582495988188e-06
0
-4.1041691356211807e-11
1
1
1
1
1
1.6665313944685089e-09
0
8.7069584206315618e-09
3.7258439889385912e-06
0
0
1
1
1
1
1
2.3133581875398823e-08
0
1.2094035763218652e-08
2.4623906369933734e-08
4.2165380097961998e-10
1.1161145396095238e-11
1
1
1
1
1
6.0848816443315682e-08
0
1.7194999982462546e-09
0
4.1785235787939629e-13
-3.6213813147692532e-06
1
1
1
1
1
-7.8344532378156037e-09
0
-1.4003337644276185e-09
-4.5043824881156376e-07
2.4300547118145038e-09
0
1
1
1
1
1
2.6732666064406805e-08
0
7.3384121761675046e-10
7.702448625367534e-07
-1.7464803537499836e-08
0
1
1
1
1
1
1.4603316269738142e-08
0
-0.00029334173840410074
3.6788989646702054e-10
0
0
1
1
1
1
1
-3.8929002809731991e-17
-9.94056373944811e-13
1.6397149818192907e-08
2.4349120799803374e-06
-6.9994099719167565e-12
-2.8197622873847243e-10
1
1
1
1
1
2.7097772187667731e-09
-2.7161867074046782e-13
8.0298716482152143e-10
1.2318344672346085e-07
2.9610008904789094e-08
-2.5594151988132468e-09
1
1
1
1
1
-1.1431070204648092e-07
0
1.7813103290330178e-07
0
-1.0112429451787774e-10
-3.8585601278501689e-10
1
1
1
1
1
1.922318229088671e-12
0
-3.3179976198754363e-10
1.0459640456135072e-06
-1.1514236278023678e-10
0
1
1
1
1
1
1.3460620970983307e-09
-3.9605150983831679e-13
-6.3400811426277605e-10
4.9047914472691555e-09
-5.4525574963101357e-10
-2.4162135973762679e-10
1
1
1
1
1
7.8373761065897076e-08
-1.1624454819291292e-11
1.3921041032668978e-08
0
-1.5112993423308824e-09
-2.6655004412698707e-05
1
1
1
1
1
4.595620610716964e-14
-1.8201341562852687e-11
-6.0081757426152904e-08
-3.519720003377754e-07
0
3.5283758649042891e-10
1
1
1
1
1
5.2271112091465994e-11
0
6.5255143760671876e-06
2.626892227773608e-06
-3.2327680469944206e-09
-7.8513977773422985e-09
1
1
1
1
1
3.4780854820649142e-09
0
8.7529656803112068e-07
0
0
-9.6820885509645418e-09
1
1
1
1
1
4.8753708323812493e-07
9.2012476763683869e-08
-5.5255389549395441e-07
-7.3880045232253085e-07
0
-0.0052686792228227699
1
1
1
1
1
0.0017296518522921633
0
6.2835032388696682e-05
-3.9470281681104485e-07
0
3.9672240628409107e-06
1
1
1
1
1
-6.8136585684251677e-08
1.7275406867074109e-08
7.4429592766738718e-05
-3.5852388125607881e-05
9.7804105064493266e-06
8.1931642477336752e-05
1
1
1
1
1
3.7286670996008927e-05
-1.1209159714419509e-07
-2.0627642738848334e-05
-4.5773002338469659e-05
2.2146920965700378e-08
2.8516044176799343e-06
1
1
1
1
1
4.7339578910105625e-08
4.6807764454724578e-08
0
-0.00019839158847148025
6.5161751077953461e-05
1.6835730577773842e-07
1
1
1
1
1
6.0104543098197321e-10
2.6642488232015939e-05
-1.0645494516590099e-08
0.00010298312845809289
0.0039471842883114887
-3.0246574715145992e-05
1
1
1
1
1
5.2661525229639275e-11
7.088001657409482e-08
0.0053915522052035208
-0.0026678742011150454
7.1286470878185654e-05
1.4709078623173469e-06
1
1
1
1
1
8.7885211655757556e-06
1.8993091338170482e-05
-2.722259703004018e-05
0.0011254273181349878
9.2562917690856614e-05
-3.3176854805768523e-05
1
1
1
1
1
0.0024025367674493131
4.161403328704728e-10
0.0029174557507852909
2.7813566538235636e-05
2.4544979809708117e-09
0.00035577091945750941
1
1
1
1
1
0.00010498758922379973
-8.6301261288083162e-07
-0.00043885410654962781
-0.0015662235276487481
3.3442575006622645e-06
0.00035974889603539374
1
1
1
1
1
-0.00047995176375325123
-6.7934187755647312e-08
7.6935142677548922e-06
-0.0052817249318803756
-0.00027878675822799888
-5.4896724798545755e-07
1
1
1
1
1
-3.4228725341644805e-05
2.4438927556396798e-07
0.00036475208661331947
-3.7330549356217424e-07
-2.9995429664934547e-07
-0.00022622648674255357
1
1
1
1
1
5.1441448960009848e-13
4.3618787646167776e-08
3.493512711873711e-05
0.0037923005739937555
1.2277499357232494e-05
1.1401109925504778e-06
1
1
1
1
1
-6.7916937230782759e-06
-2.0454295632950247e-08
-0.0018781912718188179
-1.1137155995665216e-05
-0.00080024350533569838
-5.8327983317008058e-08
1
1
1
1
1
-2.3486273999546966e-07
-5.3203141407879355e-05
-0.00014264647025288507
-0.00065014384173102651
0
-1.3260413410023686e-05
1
1
1
1
1
-3.4671398268626485e-06
5.8937838164626249e-08
0.00017734184789060817
-1.9967747113703231e-08
-3.0647657675789825e-09
-2.7935157957115662e-05
1
1
1
1
1
-0.0025529034923289645
1.1129498997027565e-08
-1.1257003817127552e-05
3.5058868046597124e-07
-5.2053012304049086e-07
4.4932513673092739e-07
1
1
1
1
1
-0.00012650570783337414
0
5.7821163471137391e-05
6.7810423469220928e-06
1.4155129240435277e-07
-0.00034521706280128515
1
1
1
1
1
0.001578739896079213
0
-9.3124305525868929e-06
0
-1.3062674842769646e-06
0.0016317283521995426
1
1
1
1
1
-0.0015556111231574776
-6.0517718402823592e-07
4.7430231339832656e-06
0.00075219147781989903
-1.0678254538996788e-05
-2.0006391384950902e-06
1
1
1
1
1
5.0345916913660796e-08
0
0.00035738701523832717
0.0070122928835009458
5.3676191803698525e-06
-0.0011347802686601004
1
1
1
1
1
-0.0017703252934911378
0
-2.7800499563347728e-06
-0.0001676292949937857
-9.9695967674410192e-07
-3.3410161893093128e-06
1
1
1
1
1
-1.8471144687657363e-05
-3.0341400761828582e-08
3.5172345925531567e-07
-1.0937171992539212e-06
-6.5432929473782315e-08
-9.9282816371556174e-06
1
1
1
1
1
2.8323994929520431e-10
-1.9355171129733431e-06
-0.0028867482543806704
4.1384453528366987e-08
2.9243252980080919e-07
0.003678511876710029
1
1
1
1
1
-4.9429742285703363e-08
0
-0.0035132507054731247
-0.00023533687838884779
-0.001114252807340342
-0.00053882363160698363
1
1
1
1
1
0.00037911667540577198
7.2391402312218123e-08
0.029974771610884715
1.5352153729467755e-07
4.2327920612499469e-07
1.7514835086744149e-05
1
1
1
1
1
-5.7756654964034791e-10
2.4830208305822934e-07
-0.0009980880765622219
1.7881889166151862e-06
-1.0220071497462952e-06
-8.171219459833113e-07
1
1
1
1
1
-7.9134569079266625e-05
0
-5.5797030327641475e-06
6.0519921803954993e-05
1.0307924369965984e-07
-8.8495891728729456e-09
1
1
1
1
1
2.9400192628008482e-08
9.0008148675327168e-08
4.4397867357150189e-05
0.00019674470693953005
8.9191853554683859e-06
9.2969769571077894e-06
1
1
1
1
1
4.1447307552478648e-09
1.2628516423337387e-06
3.7473015260455368e-06
0.0027866691933544335
6.4877552634444339e-07
5.5117853207917831e-06
1
1
1
1
1
-8.6967674058936932e-05
1.368910811383113e-07
0.0040946638664172723
0.00076280446215892198
-2.6878802354534473e-06
-2.3432099976624214e-05
1
1
1
1
1
-0.00055250305843178229
6.1472659962222908e-08
9.499306482431767e-05
1.4255318529529488e-06
-0.00021456652005003523
-1.9449285767644229e-07
1
1
1
1
1
2.4678395208637704e-06
1.2337878007517926e-07
-0.00065461524674077364
-0.00083108424370787989
1.695483813011728e-08
-0.00043762842910508823
1
1
1
1
1
-2.0606935792474096e-06
1.7857694109979224e-10
5.14527290342453e-05
-4.3308452110050386e-05
-1.1086906814531113e-05
-2.1138172258237225e-05
1
1
1
1
1
0.0002145439941574129
4.007546236101934e-07
1.3366693825612599e-06
-7.2594353936483464e-05
0
2.8878197388998199e-08
1
1
1
1
1
-2.2928022048530869e-05
2.5773701254395626e-08
-0.002763813213144747
3.0172531645248605e-07
-2.518416352965009e-08
-3.2181623366847943e-05
1
1
1
1
1
-2.402660792931384e-05
3.1007386980441751e-09
-0.01115948990190389
7.6415317464240005e-07
0
0
1
1
1
1
1
0.00011446820160866211
3.4865018673771035e-09
1.8233714103825332e-06
-3.6144950833268194e-07
6.5379093687726563e-08
0
1
1
1
1
1
-8.047128767526196e-11
-5.0630441466381756e-08
-2.2893528738426247e-05
-0.0001673196851061676
-3.0123668039666807e-06
-1.4488263599363746e-05
1
1
1
1
1
3.8491528876497665e-05
7.5683105355078105e-08
0
-9.7270009564912269e-07
8.9018761522474219e-09
5.4551967167528296e-06
1
1
1
1
1
5.7303255952137485e-05
7.1322164846645339e-07
7.4313430928118653e-06
-0.0010016864311827769
1.4151459948723173e-07
-2.7040752090438927e-06
1
1
1
1
1
-3.5173544205427794e-06
0
1.6311409576609712e-08
-0.010291808795610933
-2.9051284419548675e-07
-3.307319314397288e-07
1
1
1
1
1
-0.0010606086782926792
-3.8541547454104097e-08
0.00016115983705033773
0
-8.3556284121084628e-06
5.4360091959054493e-07
1
1
1
1
1
-6.9364786830688641e-06
-4.5133561248847674e-08
2.8507894347803362e-06
0
8.6158629171623133e-07
-1.6324517242533142e-05
1
1
1
1
1
5.6822521892110527e-08
2.7691071284109e-05
-2.261187887396308e-07
0.0040317016971940563
-8.0607483659233912e-07
2.6366219689844804e-08
1
1
1
1
1
4.8118605654189921e-06
9.6059912778100999e-09
3.0106411182166044e-06
2.5902208955114583e-06
1.3538834078790513e-05
0.0014939048387389898
1
1
1
1
1
2.6042021003520181e-05
-1.4082488085932058e-08
1.6263917674509668e-05
3.2596453324929649e-06
6.4023107598770986e-06
-1.9360455341637118e-05
1
1
1
1
1
-8.603957248263681e-09
-9.267642225547072e-08
-2.031625887715916e-05
0.0054458181649874749
0
-0.00081769661958084683
1
1
1
1
1
-2.2509931300141921e-05
-4.0266191811728822e-08
7.343536672682018e-05
0.0012854947815872538
0.00055526294931114765
-4.9092086256009754e-08
1
1
1
1
1
7.2517003752757616e-11
1.0173737767311582e-08
-2.3121778179988768e-05
-0.00012878216505716279
0.00042228269297715228
4.6727980992688675e-07
1
1
1
1
1
2.4214468011158393e-09
5.3176038158789685e-08
5.4384197428105114e-07
0.0012148470045163537
0.00061199127315340071
8.3078735659547478e-07
1
1
1
1
1
0.00012191040857041649
1.4206671419147761e-08
-0.0075313484148520626
-6.0815335082740077e-06
-0.0013410160699352564
1.0659910851205569e-08
1
1
1
1
1
-6.5786346089623397e-06
0
3.3863002855979429e-07
-0.0032425654689450952
1.8130719644703667e-06
-2.1981081301708646e-06
1
1
1
1
1
0.00033694687150581746
0
9.420471409132235e-05
4.8796797562716871e-05
-5.4340375255461397e-08
1.5460754721595026e-07
1
1
1
1
1
0.00013011595716753968
7.1314225875337944e-09
0
0.00044468635414961823
3.9415930482786281e-05
-1.6077386629190349e-06
1
1
1
1
1
5.6804142187818641e-07
-5.8148811011555299e-11
-1.0955604930062365e-10
-2.0635437977429976e-06
-1.9876323385984004e-06
0.0012302363667315351
1
1
1
1
1
6.2473167796630211e-05
0
-2.7296663749279616e-07
0.0050912666508944162
1.8500616703643528e-05
-8.6356541705455548e-07
1
1
1
1
1
-2.2841324923335507e-09
-4.1257637768348478e-11
-0.0068889009617503936
-0.0049175082801300226
-6.2024052278831815e-08
6.037401085475334e-08
1
1
1
1
1
6.0221498648945399e-08
0
-0.00011011643098021446
-0.0018227683494732761
-3.9907042095710307e-06
-7.5597515665825879e-08
1
1
1
1
1
1.550356401702156e-10
0
0
1.5801817854259504e-06
-2.4124929130903673e-07
1.5863272492973124e-08
1
1
1
1
1
-1.1179013362971554e-05
0
4.678149872961112e-06
-4.1209177712413324e-06
-0.00032543343252030714
-4.162651213739535e-07
1
1
1
1
1
2.8930465425029852e-09
-3.7003924506317472e-10
-0.001297448092265528
-0.00021594436618113932
0
5.2676377196720348e-07
1
1
1
1
1
1.6141907020298736e-05
-2.6496945558339825e-10
5.2745377858925324e-06
0.00040015984754184061
-5.1004897992286984e-08
1.1377174235375468e-07
1
1
1
1
1
5.3128521335322138e-05
-3.0360740987686204e-09
-1.7926949090205504e-06
1.3028339598267303e-06
-6.0065873674618073e-08
-6.7347962516381986e-08
1
1
1
1
1
3.6721089412029786e-09
-1.1730935513976644e-10
1.1017806883003194e-07
-2.0362664087846636e-05
-8.2968251976099807e-08
0
1
1
1
1
1
-7.0684601316711282e-07
-1.2057057564277746e-08
-0.001050463040375497
-2.8692683693806182e-06
0
-1.1128137529254323e-10
1
1
1
1
1
-3.0334053522202036e-07
-1.1148808098984585e-09
9.2546089558297818e-08
-1.4929201562542035e-06
-4.9465936213385482e-09
0
1
1
1
1
1
-4.2224396796076387e-08
0
0
-7.9842644236020534e-06
3.5405658294858796e-08
0
1
1
1
1
1
-6.3245028802154671e-08
0
2.8002790791373813e-06
-1.1536996672503739e-08
-4.8116533817999883e-07
-5.7348958041778581e-10
1
1
1
1
1
5.3840844446728633e-08
1.4672646595869829e-10
1.8400122325892871e-08
-4.7374244940910085e-06
6.2055393252142999e-08
-2.0821056290737275e-07
1
1
1
1
1
-6.7618234053782577e-07
1.6994638548615032e-09
0.00053280927256078349
0
-1.3642376956680519e-07
-1.5199662175118468e-06
1
1
1
1
1
9.9422792577594642e-13
1.0501834339146633e-13
0
1.1997026152325154e-05
0
-3.3734602290210603e-07
1
1
1
1
1
-5.0054126342520081e-09
0
2.2387788479455146e-07
-4.1171176900478281e-06
0
0
1
1
1
1
1
-5.7164792693672341e-08
0
1.086283069786492e-05
-5.8606484571084291e-07
-6.2540846820973191e-06
1.1652314218458913e-07
1
1
1
1
1
-7.8164871756068468e-06
5.0057965276889064e-12
6.6085103749375455e-10
0
-8.5929889287533113e-08
-3.2091093801732606e-06
1
1
1
1
1
-1.4566579329050421e-07
0
1.0531424586082524e-09
0.0013372626085414597
6.5913712031467352e-11
6.6549312902764525e-09
1
1
1
1
1
-4.1436271697255627e-09
0
4.1257551466971453e-09
-1.1221404188764494e-05
3.3005085092018143e-06
0
1
1
1
1
1
3.0749574038327609e-08
0
-3.7666742121913972e-05
-0.0002506994987019156
-5.7199015003292585e-09
0
1
1
1
1
1
-1.0497550065952825e-16
-9.8243238696046973e-09
-1.4637010822609327e-06
7.392366556722298e-06
-1.6860601615339558e-07
1.9410704012512651e-11
1
1
1
1
1
1.281653492831326e-06
-4.8607357601671378e-14
2.7501802140505382e-06
2.8359917058130952e-05
-7.953140755236156e-07
8.5343803726530334e-08
1
1
1
1
1
-1.7225804893770782e-07
0
-2.9126498125404132e-10
0
-2.3868637791091885e-10
2.9278983212802335e-10
1
1
1
1
1
-1.2520064316226539e-11
0
2.3813712695041058e-06
-1.4395188267597471e-06
9.8330787031732531e-09
0
1
1
1
1
1
-2.0547087493071199e-08
8.1173956307850348e-09
-2.0718176894092179e-08
5.9930939132396819e-05
-1.9206954473067168e-07
2.7513401815203661e-08
1
1
1
1
1
2.457625172389161e-07
5.1965424327708285e-12
-4.0991227417350068e-09
0
-1.0968082579812404e-09
-5.5318160191913633e-07
1
1
1
1
1
-2.1016718888766446e-14
-4.5156915007932543e-12
-2.1392336432169287e-07
-5.9654084199088272e-06
4.3296664221863677e-08
4.1526841658500365e-08
1
1
1
1
1
-2.7367712770623727e-11
3.1317449072107197e-11
4.0352013084065563e-06
-1.0736785206220612e-05
2.3888787532106376e-09
-6.5227725955203821e-08
1
1
1
1
1
-2.8500171202388134e-06
0
-2.9723440590033651e-08
0
-7.5974029781917119e-08
-0.00022279787604012204
1
1
1
1
1
1.0266627634569241e-06
-0.0016186807241377675
0.00047648141595090903
-0.006195633969311741
0.016544458895632243
-0.0011791294836529928
1
1
1
1
1
-8.8549757747377616e-05
3.5197236077412039e-06
0.00047663864875287427
-6.2433791783096e-08
-0.0019891664586675806
-1.0441391676189341e-06
1
1
1
1
1
3.0794180200941046e-09
0.00016304204127649103
0.00012163291859213892
6.0264498429199814e-05
1.5555146196632643e-05
0.010104640517725125
1
1
1
1
1
-0.00016358589085364807
-5.3873017119875024e-06
-2.9310290013539448e-05
-3.2921968201110701e-05
-0.00010184461954227052
0.00054346729582396011
1
1
1
1
1
-4.7326679065969644e-08
0.0053642936478727338
0
0.011698830481585216
-6.0761558844150755e-05
-0.031621159981572493
1
1
1
1
1
-7.1947263468860915e-09
-0.00018391129549537508
0.0062703170485283455
0.013409895072049084
-0.0061395314573757026
-3.2170793143508226e-05
1
1
1
1
1
5.2661525229639275e-11
-0.0024049969998896224
-0.0087499600850087043
-0.008181455839935195
0.0013650896765642693
-1.1868579773024045e-06
1
1
1
1
1
9.2811675163692806e-06
3.7017998100038804e-05
-1.8949860550202038e-05
-0.0099101946439163827
0.0012220180772764668
7.9292067160824905e-06
1
1
1
1
1
0.0053990011194846727
0.0035282844489774928
0.020360557732007366
0.00011783998103881008
3.7746312565056683e-05
0.00029912444248539468
1
1
1
1
1
0.00010498822514286725
0.0020415425900687963
-1.5774774027498836e-05
-0.00092697664782704487
0.016971102634739825
0.0003724224741025566
1
1
1
1
1
0.00069270133399435344
6.3661542373250599e-05
-0.028740142860256584
-0.0052796840917085563
0.0024637401578040102
0.0067108222588484097
1
1
1
1
1
-0.0018490420931232578
0.00034424975175866701
0.00036249424983443102
1.5313464108791243e-07
0.0066709932426938009
0.002712574962651967
1
1
1
1
1
-0.0062810965903627907
-0.0011738757703700089
0.00011321405655656055
-0.00028302449667939422
0.00039887364618659951
-0.0040732838654397741
1
1
1
1
1
6.1036910750441429e-05
-3.2109179402261208e-08
0.0010396291476529695
-3.9301001355300626e-05
0.00072751131598062797
1.3480739985151991e-07
1
1
1
1
1
8.3416993576964826e-09
-0.0001116135617116533
0.041684614894710828
0.00040763104168048744
0.00063076127786524294
4.1319437851705971e-05
1
1
1
1
1
0.00015095703105546328
-3.6103901145201984e-07
-0.00062312262003510154
-0.033769711988284552
0.00044916575663838038
0.006614839109383706
1
1
1
1
1
-0.0022931443395388094
0.0020281959280305504
2.0853600113914998e-06
0.019881117660788719
0.00084789975225925017
4.4950234533180729e-07
1
1
1
1
1
-9.9525037778076288e-05
4.3544353642719907e-05
0.00014368294981431076
0.033098606177150568
-6.5619796678229368e-07
-0.015078284670951571
1
1
1
1
1
-0.0034618811629141596
-1.2129815255695774e-06
0.013516309461297674
0
-6.7852109774611845e-05
-0.0052335467798353061
1
1
1
1
1
-0.00040913422750924892
0.00034168538845235296
-2.1920577195970226e-05
0.0035408856998817829
9.8032813509771577e-06
0.00018699394006016791
1
1
1
1
1
5.9376155710696229e-07
0
0.00057775068236896334
0.0069441703369883317
0.015075924334143355
0.0054536715078177464
1
1
1
1
1
0.00064929506067160222
0
2.7800499563347728e-06
0.00027857906446734627
0.00017120258964363439
0.0021013912316371519
1
1
1
1
1
-2.0559551148697147e-05
-5.5870592110546465e-05
-5.4704131108952796e-06
-1.2499283011011509e-06
0.00028513534680437417
3.2729635427860317e-06
1
1
1
1
1
2.813967604019488e-10
0.00017917040169638428
-0.0044990950065416108
2.7610682130006873e-05
1.4725655351427006e-06
-0.001910590645692782
1
1
1
1
1
0.0062432658934984545
-2.5189065028949155e-07
0.0045396825418437155
0.00067946661197783645
4.2452651321723348e-05
-0.00018157481635874888
1
1
1
1
1
-0.00020101483451870963
0.00020353422294944084
0.030078154379662662
1.5352153729467755e-07
4.2328776703381692e-07
-0.00020455456051004614
1
1
1
1
1
-0.0056596042666893238
-1.2510392378325144e-07
-0.0056837239967159302
-9.0167781295428628e-05
-0.030616627434367452
-0.00027759322714872748
1
1
1
1
1
-0.0008502492548636525
3.6721327501553278e-05
-5.5645689732099134e-06
0.026571740827780799
0.00072708173876103864
-0.0073124100464413318
1
1
1
1
1
-1.5383785411358171e-08
-1.4742317110777313e-05
-0.03584198459632261
0.00010480686626047176
0.017515489257076845
-0.00078959731730965854
1
1
1
1
1
-1.4141899298602687e-10
-1.5162037209458725e-06
3.0677799470137879e-06
-0.0055429678717939367
-2.1030724075402764e-06
3.8643395107350018e-06
1
1
1
1
1
-0.0010461808292889238
3.0096395539000548e-05
0.0013028871151855757
-0.0096063945569185658
-3.4894623014211783e-07
-0.00010289862010838869
1
1
1
1
1
-0.0038815021102971644
0.00058202722972454195
-0.037778073130011233
9.1135995360545869e-07
-0.00010805519957620714
1.2235938949987878e-09
1
1
1
1
1
-1.5111438409169441e-06
0.0047763208760678482
-0.00067212699660156852
-0.00081884416774521496
-0.020350172906173948
-0.0028994673696721672
1
1
1
1
1
-2.0601485922747932e-06
-1.7834382450744237e-05
-0.012388089124567838
-8.9108280441653882e-06
-2.2595266134236237e-05
-0.001085823162011688
1
1
1
1
1
0.0018277161534400693
-7.5889436315349686e-05
-0.0029614019915814088
-0.013900066207679359
6.4680861177599922e-06
2.4845516564489897e-05
1
1
1
1
1
-2.2296578724471402e-05
-0.0001111369714241826
0.040898107750730515
0.0014114902510107062
0.00010272932165626271
0.0011812376540948548
1
1
1
1
1
6.6698100704672741e-05
-0.0018648996365714285
-0.01085696157471827
1.812845479114476e-05
0
0.0056039552607744566
1
1
1
1
1
0.00012044903092885874
0.0035102834391393927
6.8478741131459497e-05
4.6080628825449427e-05
2.812516051046691e-05
2.6597119366997911e-05
1
1
1
1
1
-7.0247560138925323e-11
2.4094739053251526e-05
6.2808812215937352e-06
-0.00091303826510655522
-4.6657906039801446e-08
7.9166902315357883e-05
1
1
1
1
1
-0.0001524392076384222
-0.0015011518191897326
1.4182442563136419e-05
-7.4125178421471333e-07
8.9018761522474219e-09
0.0002648387776993596
1
1
1
1
1
-0.0069086019661491489
-0.0001092833149848714
-3.8541722553051377e-05
-0.016546059208881247
-0.00010296908588854256
-0.00063160347641658913
1
1
1
1
1
9.997424277330698e-05
-1.6843317325209577e-05
-0.0013141536060315153
0.0039033747212523029
3.9540663357895498e-09
-0.0042873854506568134
1
1
1
1
1
-0.0024822377721265411
3.6781787691441698e-06
0.026135882901073187
1.6360155764047459e-05
1.3195047663120648e-05
4.6670920270766444e-05
1
1
1
1
1
2.2885785682819389e-06
-8.1130705013577673e-05
-3.7692544639068828e-05
0
6.313651418186012e-08
8.8085291959465252e-05
1
1
1
1
1
-7.1444677838707244e-08
-0.0001431145175296383
-4.6380341418361287e-08
0.004167111189760939
-3.4008660155194707e-05
-5.8322817430622577e-09
1
1
1
1
1
-9.384912908919995e-06
0.00027632848216629132
-0.00028781535711460343
2.489827993246366e-06
-1.9866183248490119e-05
-0.00069125467631432267
1
1
1
1
1
6.0197993689394025e-06
0.00031368244523565127
0.013870730155170815
0.00063853249947609571
-5.1663987619474859e-05
-0.003950775932135238
1
1
1
1
1
9.3040096638069329e-06
-4.1264652086154554e-05
-2.7287425907197359e-05
-0.0024630496274912605
3.7065295220174185e-05
0.0017235385709058091
1
1
1
1
1
2.271464196550691e-05
-1.0460944687628225e-05
-0.0034790787122520404
-0.0012050318940370758
0.0017708356992065374
-6.8997844508617609e-05
1
1
1
1
1
-4.6961689608320408e-10
9.5894983035791461e-08
-7.104819156377606e-05
0.00029843436868062692
-0.00052617340329972468
-0.0072873282831049319
1
1
1
1
1
-0.0034761809030425181
2.9669902688400304e-07
9.0871244075577213e-07
-0.00053355838658062445
0.00057179625179561361
1.5976648033878109e-05
1
1
1
1
1
-0.0014539574322038106
-8.5092392244727992e-06
-0.0068811833758792677
1.4833374058074881e-06
-0.00078849819954594682
6.3725527072427726e-05
1
1
1
1
1
-6.7969861785030528e-06
0
-5.421118716443235e-07
-0.00037870211706204454
-1.9554813715778419e-05
-0.0030078015659660479
1
1
1
1
1
9.2667150632715393e-05
0
9.4214906794619349e-05
0.00024231669637562884
1.635723174649462e-05
-0.00040865865533855269
1
1
1
1
1
-0.0052176743869790628
-1.6579234569242636e-05
0
0.00013995507891206654
-0.010076609767636392
-0.00017015665502092441
1
1
1
1
1
5.4119449381097924e-07
-3.4436744684464201e-06
0.00061649639485511379
0.00933095039036432
5.2819545697319824e-06
-0.0021662949398987708
1
1
1
1
1
7.4421647799945872e-05
0.0015812382679197623
1.25546821549912e-06
0.009863769399331649
2.5566325034348234e-05
-1.2200365719227327e-06
1
1
1
1
1
6.2053072401962565e-09
-6.9245946345200951e-12
9.2579941111530407e-06
-0.0048775294752859064
-1.528237799381946e-09
-4.8884375835147328e-08
1
1
1
1
1
-3.5815808094314848e-08
0
1.2531373415055434e-05
-0.00051713696191119497
-1.0294637542829256e-09
9.5068382159860909e-09
1
1
1
1
1
-5.0251259520024517e-12
0
0
3.3219406864285943e-06
-5.0691756376255699e-10
3.8641433272028908e-09
1
1
1
1
1
-1.6614651351215298e-08
0
3.9593911208312473e-06
-8.4389501912799029e-07
3.8536739199625429e-09
-2.847122516043972e-09
1
1
1
1
1
-3.5734990407342289e-12
-5.3395362987691956e-12
6.4794293893292273e-06
-0.00063803769632908786
0
-4.9165688786229003e-08
1
1
1
1
1
5.2366946333114342e-06
0
-8.1980800804542575e-07
0.00040296881945812139
3.9658676657053601e-11
-9.8762311165253475e-10
1
1
1
1
1
-4.2407447553951956e-09
0
1.1386102915222359e-07
1.7381449576885811e-06
0
2.1246256086561922e-09
1
1
1
1
1
-2.6540266289790615e-11
0
-6.3966485952219424e-09
1.9307438459754958e-06
2.178085571294896e-09
0
1
1
1
1
1
-3.1123952137936765e-10
-1.1300073010051688e-12
-5.2829276597078797e-08
2.4074039481239929e-06
0
7.8710371754353262e-10
1
1
1
1
1
4.2605726165650405e-08
1.496424873253479e-11
-5.2040406118451918e-08
2.6143367479964373e-08
2.0206189900169223e-09
0
1
1
1
1
1
9.5465184476266622e-09
0
0
-1.1242143558307845e-05
1.0821208492616109e-08
0
1
1
1
1
1
3.6487305697908868e-08
0
-1.1720514159159585e-08
0.0026031486961330219
4.6199022408332892e-11
2.5772476236314735e-10
1
1
1
1
1
-5.7796020960067512e-08
1.2460626320898064e-12
-1.5083628262141022e-08
-6.0594284532198029e-07
1.3534579310929354e-09
-1.2360622585254824e-10
1
1
1
1
1
1.4673815383810032e-07
7.7655592587717551e-13
-0.00010496668956560457
0
-6.4696648502585003e-06
3.1903716034386856e-06
1
1
1
1
1
-5.298291177813828e-12
3.9579286501552845e-12
0
5.6722198939641045e-06
0
2.4342965698532437e-09
1
1
1
1
1
2.9658112922095809e-09
0
-1.0770859102379317e-07
1.2415859983321665e-09
0
0
1
1
1
1
1
2.593026493147074e-08
0
-1.2133813092142474e-08
6.7122401186048509e-07
2.1290501787415028e-08
1.5566840711667566e-11
1
1
1
1
1
-6.1325917215525157e-08
0
-1.0546306236377172e-09
0
-1.929227059196435e-13
9.7042498973219081e-08
1
1
1
1
1
5.2661406424572145e-07
0
2.3301062401912815e-09
7.4232383461733693e-06
4.7135318674309966e-10
-2.5057229616197911e-09
1
1
1
1
1
9.4349354550625256e-09
0
-2.4437618323388047e-09
4.9364444296678567e-06
1.0964081819958059e-08
0
1
1
1
1
1
4.6677065464133714e-08
0
0.00030096798699821658
7.2071155154526191e-07
2.1140393555674211e-09
0
1
1
1
1
1
5.5753112271905369e-17
1.6529506481146687e-12
9.5434995541300295e-09
-2.4113204254640491e-06
-2.0769176572577217e-12
2.5650401834983347e-10
1
1
1
1
1
3.3915277124819344e-06
6.9736202433419244e-13
5.7775552143320051e-11
-1.9046680973199874e-08
-1.4613986911392324e-07
6.1260176562881993e-09
1
1
1
1
1
4.3966003309272695e-08
0
-5.029970116066927e-07
0
-2.3612425347338078e-10
1.1990444274134492e-10
1
1
1
1
1
-7.7123315632473397e-12
0
-9.8969554522630905e-11
-9.7404458980096471e-07
-1.1369653935037848e-08
0
1
1
1
1
1
-1.3460619729204076e-09
7.2072250053250359e-13
-2.0771531561709119e-06
6.3262682299297456e-09
5.4525574963101357e-10
1.0736890843021547e-08
1
1
1
1
1
-7.8373832191315332e-08
1.1644086258895954e-11
2.3505360016760171e-07
4.1977909085611275e-06
6.9022466091096966e-10
2.5740891116680042e-07
1
1
1
1
1
4.5956169719607673e-14
2.3645702080355665e-12
-2.383134569520864e-07
-0.00096827513205211099
0
1.340984568727522e-08
1
1
1
1
1
1.1529751823924039e-10
0
-2.0221687798865028e-06
3.0255111565373372e-05
-2.2602648638684826e-11
1.8171837637658764e-10
1
1
1
1
1
3.810751518164861e-09
0
3.9221967887795648e-07
0
0
1.462409628519243e-11
1
1
1
1
1
-3.0778721077062567e-07
-4.777285376001359e-08
-0.00070451211876466717
-0.0060881966554995025
2.7521974143859504e-06
-4.7553985757697531e-09
1
1
1
1
1
0.0014363038715654714
0
-5.4749522185212646e-05
-9.2192022327144039e-08
0
1.9080090881863275e-06
1
1
1
1
1
8.4120651498532154e-08
-1.7285135928012102e-08
7.7368032059600995e-05
1.7476810962838712e-05
9.2477788216534596e-06
7.7156537916531161e-05
1
1
1
1
1
5.9042765098380845e-05
-2.7714346739832335e-08
4.2105327669142603e-05
1.946969563590489e-05
8.6117730434886611e-08
2.5960323441617335e-06
1
1
1
1
1
9.5382453705389397e-09
0
0
-0.00012914354841546839
1.7211998974344471e-05
4.1392603114677723e-06
1
1
1
1
1
2.2449436199960899e-08
-3.665869819336491e-08
0.0004714454494989452
7.8659668618396076e-05
-1.7699249580583062e-08
-1.8381007644569387e-05
1
1
1
1
1
5.2661525229639275e-11
2.0827611764478618e-10
-0.0054194282709646782
0.0022942448473542115
0.0017344022675575427
3.7372142383695746e-06
1
1
1
1
1
-6.8128765727640633e-06
-7.8737390339217613e-10
-2.6846699756423186e-05
0.00083083464525976968
-2.201424578315085e-05
1.2766029859914399e-06
1
1
1
1
1
-3.1366923769101265e-09
8.1120892172218329e-10
-5.0079568559184209e-06
4.5110929694795961e-05
1.3798929275730692e-10
-2.9397336651478551e-05
1
1
1
1
1
6.572561746573185e-05
-1.745456080381712e-08
-0.00017163298304695684
-0.00094030140877743925
6.5822414705827122e-06
0.00015838863001335786
1
1
1
1
1
-0.0005124189487773123
-1.9049674398111312e-09
1.8084190559254482e-06
0.005619512107755094
7.5554378808967181e-07
0.00017074123464866296
1
1
1
1
1
2.9847864365110259e-05
2.4386813268172062e-07
0.00036846568699951354
1.3277563066428144e-07
6.70499858929698e-06
2.8420684137320334e-05
1
1
1
1
1
-0.001686987227590654
-4.1855195879282819e-08
-0.00028858163562296902
-0.0032134577353283562
1.3045842352444893e-06
1.7745764341519092e-06
1
1
1
1
1
2.1497320364588906e-05
7.9124800649441645e-08
0.0027967419434139461
7.6955584173062599e-06
0.0018366078610871524
8.7244968380033099e-08
1
1
1
1
1
1.0170408870688203e-07
2.5515284847321086e-08
0.00019076066210113994
5.3658498118169649e-06
0
0.00013657351692358377
1
1
1
1
1
1.2982527854511836e-06
-4.3145678954539399e-08
6.2238608158441747e-05
-2.4520224319331265e-07
7.9962543990780079e-05
2.6064851924970303e-05
1
1
1
1
1
2.0727610215348466e-07
-1.1883803380093545e-08
-1.093743521416169e-05
-1.6298854681250688e-07
5.2253399345304101e-07
4.4950234533180729e-07
1
1
1
1
1
3.4476362626745126e-05
0
-9.577924913576278e-05
3.4215818236981811e-06
6.6264386744237122e-07
6.2771720200014327e-06
1
1
1
1
1
-3.9046144969076133e-10
0
-9.605390960409353e-07
0
1.3061638344018121e-07
-0.0015082644568597471
1
1
1
1
1
-0.0002849909333855223
1.2637210114789223e-07
1.1867008093828589e-05
7.8557725472981155e-05
1.1182007028366034e-06
-1.3011523022209303e-07
1
1
1
1
1
3.3679235023579735e-08
0
0.00074986864451540242
-0.0067851320451757496
2.217524392761984e-05
1.1145994335376129e-06
1
1
1
1
1
2.5802631895427571e-07
0
3.2332668826237686e-06
0.00039200614412614041
-5.083233698531889e-07
-4.9651655884421864e-06
1
1
1
1
1
2.0559551184029608e-05
8.8727859562682356e-09
8.1011878298065831e-06
3.9131637289102594e-07
-3.9111513857687752e-07
-1.5581127375442837e-08
1
1
1
1
1
1.9644812272975874e-10
3.0908377358601396e-07
1.4881705178215992e-06
-7.6260110517093019e-08
1.3138426367488283e-06
5.1598021152599287e-07
1
1
1
1
1
1.254816970751332e-09
0
0.0035125323149924662
0.0013037009848845225
1.2706321413001009e-07
-0.00037381912327713054
1
1
1
1
1
-0.0002786522995787024
1.083301710421898e-07
5.8919982755216642e-06
1.5352153729467755e-07
-1.4802856452169269e-07
7.1739694692963789e-06
1
1
1
1
1
0.0011640782420539026
-6.0358304960919023e-08
0.0031037494562399103
1.7881889166151862e-06
3.6686049229350458e-06
5.4216848671950399e-07
1
1
1
1
1
-0.00017561922251791706
0
1.3437892620219627e-05
0.026605884771086687
-1.594904085908377e-06
8.9762992275066593e-06
1
1
1
1
1
-3.3195906226607497e-08
-9.0008148675327168e-08
-4.5296992824139004e-05
-0.00025917630522265841
9.8577677109617317e-08
-1.2433636828965543e-07
1
1
1
1
1
2.612972212123625e-09
1.0528449715300735e-09
-3.716299666034374e-06
-0.0088818955123333172
-9.2975288957736145e-07
4.6344369088355121e-06
1
1
1
1
1
3.8878055950845834e-14
1.9575782519053481e-09
-2.470976071193329e-07
0.001194790828173579
5.6992525765623133e-07
-1.1953662479864469e-05
1
1
1
1
1
0.00055236985139763591
-6.7069317638819849e-08
-0.00025635801260196238
-9.3572599204166835e-07
0.00017078618650801352
1.2766887124789513e-06
1
1
1
1
1
-1.3889077640229058e-06
-2.5173279716965924e-07
-6.7827633168223479e-07
-9.0672149284056815e-06
2.264041373395878e-10
0.00039942686051261324
1
1
1
1
1
3.6961599674889616e-06
-1.1917646717052444e-08
-5.4018243654426256e-05
-5.6497575494989043e-05
1.0531988505441083e-06
-0.00050365068203119239
1
1
1
1
1
0.00029044520147099501
-1.2033351336351984e-08
-3.0479097991940757e-06
-0.00053958183127401612
0
1.0950125402554452e-08
1
1
1
1
1
-3.9100781410653802e-05
-3.0437177103418412e-08
8.3002385408073565e-08
1.9341168131250187e-07
-2.661021424419528e-06
-3.6768702382786589e-07
1
1
1
1
1
2.3765009129334679e-05
-4.264234703431393e-09
-0.00035681637923097305
1.8305682466140622e-05
0
0
1
1
1
1
1
0.00016313141865300298
4.4797843344928269e-08
1.8233714103825332e-06
3.5134434552471344e-05
3.5143782523193893e-07
0
1
1
1
1
1
-7.0251417088386679e-11
3.2518016805699333e-08
1.6862917019945804e-05
1.0655408502841639e-05
9.5707021294411738e-07
7.3417321030582755e-06
1
1
1
1
1
4.6160840013890828e-05
-1.3728725865761805e-08
0
-7.8907722596791893e-06
6.9409066373729837e-09
2.778244948741e-06
1
1
1
1
1
8.3863976414261786e-08
1.6112696553619341e-09
-4.6991547868898758e-06
-0.000521573705637994
2.551829649969923e-09
5.0895410596928519e-06
1
1
1
1
1
1.8146379605254279e-06
-3.9301864682642679e-08
-3.9686090672463345e-06
-0.010177550437357595
-5.18810189804776e-08
-2.6928025671126846e-07
1
1
1
1
1
2.0227590379523812e-07
3.7626293947763342e-08
6.1002678002249763e-08
0
8.8317010009653176e-06
3.0909179088247069e-06
1
1
1
1
1
2.1419906053111376e-05
2.1513205827956745e-09
2.8654201823332205e-06
0
7.6270169500781221e-07
-3.052971244996156e-05
1
1
1
1
1
-2.0906472907847293e-08
-2.9408009406287475e-07
-1.0956922520982331e-07
0.0039753932223744754
-1.2352948210694067e-05
2.3766736324442863e-08
1
1
1
1
1
-4.3164160537940303e-06
-6.4343158845675904e-09
-4.3913221567047531e-07
3.5923036303221141e-07
-1.1591941036489542e-06
-1.7099249570709134e-05
1
1
1
1
1
-1.2837758769638735e-05
5.362079491474281e-08
5.2344476064748637e-07
1.5824742151217729e-05
-6.4024859227559495e-06
1.7639703365563812e-05
1
1
1
1
1
2.1287314248780844e-06
5.0202039541365426e-09
1.2324100377726129e-05
-9.22494413803188e-07
0
-0.00013807640607560703
1
1
1
1
1
-5.7738946700009227e-05
0
2.6894817644416935e-05
0.0011380713055663019
-0.00055444767103964238
4.9092086256009754e-08
1
1
1
1
1
-4.6961687623739955e-10
1.0252055011670358e-07
-0.00010651754829803787
-0.00042202665833381009
0.00025686677110847939
-9.6706573010951354e-07
1
1
1
1
1
2.3195974830594976e-09
6.1191984187596891e-10
5.027338647957705e-07
0.0012198629758736648
-0.00052888067569512975
6.5676106482635794e-07
1
1
1
1
1
0.0013349701072003365
4.8810947258044556e-08
0.00075042100440969551
1.6219953677628145e-05
1.1444855545510012e-05
8.6038270511287781e-09
1
1
1
1
1
-3.7645409457290793e-06
0
-2.3598901923862887e-07
-0.0021096031034824199
-3.6017260756003506e-07
-2.5059639040935507e-06
1
1
1
1
1
-0.00027201359540016297
0
6.3279674478315581e-05
4.4805675789306922e-05
-2.8261986931504965e-06
1.594426009506054e-07
1
1
1
1
1
-1.3582972395748297e-10
1.6377641858720064e-08
0
0
1.6409103881693014e-05
1.9104783761347719e-06
1
1
1
1
1
5.435510782248421e-07
-5.8148811011555299e-11
-1.0154964775525921e-05
0.0051104674959327944
-5.6754262401293455e-06
-7.8749093180214102e-05
1
1
1
1
1
-8.8649245437433992e-05
0
-9.2435361296024363e-07
-0.0027952496773284608
1.7464192659110037e-05
-2.5930788915141968e-06
1
1
1
1
1
4.4394840545605024e-10
4.705984113614701e-11
-0.0069013538132441715
0.0096702067733778537
7.1575090343675677e-08
7.7200801931167708e-08
1
1
1
1
1
6.3916520317304119e-09
0
-0.00023949014538694031
0.0011771643014306871
1.7791197893902455e-09
8.1723983762352057e-06
1
1
1
1
1
-8.0486897431522338e-11
0
-1.6494270822060946e-05
1.5553971405812181e-06
-8.4214846622493937e-08
-3.9954451668956709e-06
1
1
1
1
1
2.2112161466236456e-05
0
-4.8616671729718783e-06
-3.6091825185470888e-06
-2.7521860945684298e-05
1.0756572626463117e-06
1
1
1
1
1
-2.3308744090080663e-09
3.6809438948507224e-10
-0.0010553590627632409
0.00077278837809230828
3.679764457880864e-07
-3.6208945488577889e-07
1
1
1
1
1
-6.9103743346975395e-06
-9.411451887906537e-11
-7.2905151219157324e-06
0.00021494397480856429
1.4087536597039398e-07
2.4818437695677902e-07
1
1
1
1
1
-7.7128476224696636e-09
-9.5488180763981167e-10
-9.6943843286631358e-05
3.2452272399778112e-07
1.4946451661322961e-07
-2.562794507038884e-08
1
1
1
1
1
-3.672131696050763e-09
-1.2026481832971144e-11
1.1015591823830842e-07
3.6548637089626436e-06
1.3740330566778614e-07
1.8790156367048959e-07
1
1
1
1
1
-2.8470528247139465e-06
3.2614111878777591e-13
0.0026405093513382364
6.2991584691041518e-06
0
5.0302459149310667e-10
1
1
1
1
1
-1.9064812730585407e-08
1.1448689594944348e-09
9.2545601484796749e-08
0.00011576357916378701
4.9465936213385482e-09
2.0743085895628174e-07
1
1
1
1
1
-9.5465115547637414e-09
0
-1.6333952578333544e-06
-1.3196101564852103e-05
-7.0500098741822284e-07
0
1
1
1
1
1
-6.3245029995104624e-08
0
8.6234807327042398e-06
-9.5216814599260542e-09
5.1436304362086446e-11
-5.7385236453193957e-10
1
1
1
1
1
-2.2490068446863926e-05
-3.8228907039328253e-11
-0.00015083419296256268
6.6090786533064535e-05
5.04309383230167e-08
3.0284165155003719e-07
1
1
1
1
1
-6.7529420222413048e-07
-1.2795789819510929e-09
-0.00054478039606263736
0
-1.2955257679121417e-06
-2.7395647162254813e-06
1
1
1
1
1
8.3600956854661517e-12
-3.6651298773718476e-12
0
1.0803756503788656e-05
0
-1.675552203443726e-07
1
1
1
1
1
-5.0062542979119508e-09
0
8.7035303374443018e-06
0.001359152263009554
0
0
1
1
1
1
1
-5.7165115171649542e-08
0
1.082129245223949e-05
4.9995065052795712e-08
-1.3668526465844888e-07
-1.7963339689006832e-07
1
1
1
1
1
-1.5913905596846917e-05
-5.5826996517384506e-10
-1.0650613208846585e-05
0
-8.5930120042136793e-08
-4.1532070152853138e-06
1
1
1
1
1
-3.1179133980642635e-07
-8.0033919433301665e-10
-1.7623973022212156e-08
-5.8753356088366524e-06
-6.7020220798295666e-07
-1.7464543059181201e-08
1
1
1
1
1
2.3134556023921739e-09
0
5.8223567200896465e-09
-1.4891097598342902e-06
-1.5117233299011874e-07
0
1
1
1
1
1
-4.5890024819599936e-08
-2.2172121823980116e-10
0.0002364328483587237
-4.3609759489236686e-10
-7.2932987741716207e-08
-2.5312539073616544e-07
1
1
1
1
1
-1.18942309512826e-16
-8.6736939006810365e-09
-2.1755780925808868e-06
-9.8180605304231622e-06
-4.0189451719318454e-09
-1.008822071047906e-08
1
1
1
1
1
-8.5817349386526548e-06
-1.6465537305126964e-13
-1.1082916872932954e-09
-4.2386337009984728e-05
-6.4163885904500801e-07
-4.7172908904945215e-07
1
1
1
1
1
-2.7804006846735726e-07
0
-2.2053956612930335e-06
0
-1.9310688583428369e-07
-1.3889613884772024e-10
1
1
1
1
1
-6.2979987197741007e-06
0
-3.8912776850904588e-07
-5.0262153065534275e-07
-1.0261746072244191e-08
0
1
1
1
1
1
8.9447498059297959e-10
5.6133498850467387e-09
-2.3322034393450492e-06
-9.6512627246470313e-05
-1.6980681076237765e-07
-6.4585431742620255e-09
1
1
1
1
1
-2.2977971359031219e-07
-3.6761825661393007e-11
-5.5454191499273886e-06
-5.5161478142978918e-06
-7.8249542302744606e-08
-6.4211476726162167e-05
1
1
1
1
1
2.609612578608783e-16
-8.8386242220788677e-11
-1.6656900877417466e-05
-0.00071199208427614904
-4.3296664221863677e-08
-7.9953873348560508e-08
1
1
1
1
1
-3.5658624385386973e-11
-2.8430866846982426e-11
-3.0238467983629897e-05
1.3980332378057582e-05
1.2310727323935992e-09
-1.8726440536946253e-07
1
1
1
1
1
-7.2420737713112502e-06
0
9.4717740504051667e-05
-2.9429548596166674e-06
0
-1.707249268026035e-05
1
1
1
1
1
-1.0268097332899979e-06
0.00093042838466471281
9.8501509862556334e-05
-0.00028938982429472669
-5.8250651704422749e-06
-0.0015365232655695695
1
1
1
1
1
0.00041849664656515154
2.7994556843278558e-06
-0.00060702612638916474
-3.3498073107338239e-07
0
-2.6697575967672604e-06
1
1
1
1
1
5.167614380476302e-08
-7.637140083350076e-09
-0.00019463023159039671
-9.5188415150864068e-05
1.2918286567847386e-05
-1.7551504548980512e-05
1
1
1
1
1
-0.00023594478783420144
-1.5712885380266076e-05
-1.9022742530726923e-05
6.189259501056737e-05
-0.00026806804277482686
-9.5320129348540185e-06
1
1
1
1
1
-1.2351572755266852e-08
3.0341605872194571e-05
1.6261928917610247e-05
-2.9639395791457068e-05
2.1710648659920381e-05
-8.6710777278502882e-07
1
1
1
1
1
-1.0915139217111646e-08
0.00019119270998004906
0.00047145452478878329
-7.8434611874498905e-05
-0.0039471705711244184
-1.7527409714977071e-05
1
1
1
1
1
7.732641267609617e-12
0.0012288389618036353
-0.0026894749243505764
-0.0066483680361371809
0.0027857377517160071
-7.6079701986659578e-07
1
1
1
1
1
1.0161950999439135e-05
-0.00010531987697182533
-9.5793947089012476e-05
-0.0057385348235373451
0.00068573416367669548
0.00032140202009295457
1
1
1
1
1
-0.0024025398417164999
1.9673883433862332e-06
-0.0003434408748122955
-5.5982765891580456e-05
-3.7720573108891465e-05
-0.00066496281802930581
1
1
1
1
1
-3.1845040907364299e-05
-1.9203508974710959e-06
-0.00060945384883984296
0.0021571960633533986
-0.0099768657039156095
0.00028805331244825339
1
1
1
1
1
-0.00069269872847513183
1.3534364623829079e-07
0.00031584784978533895
0.0056225386812111177
0.001444148889350628
0.0063704303364569836
1
1
1
1
1
-0.0036483479784183552
-0.00016994753378343726
-0.00029685029935819902
4.9318101280256831e-07
-0.0066623027829902631
0.0019598308340421566
1
1
1
1
1
0.0016869872279199336
-4.0149938193725824e-05
0.00022594241891769616
0.0045110130160429677
-0.0050102636148362314
-0.0033599358764311734
1
1
1
1
1
4.541964055451759e-05
-7.4697833543591614e-08
-0.00098152322363548425
1.1502246905071378e-05
-0.0072988748170852115
-0.018467216484536097
1
1
1
1
1
-2.7557157343596332e-07
0.00029048360747128602
0.00031156328538261711
0.00027642213313480349
0
-0.00019308737023507555
1
1
1
1
1
-0.000194130322141908
-3.8384342426832205e-07
3.3457091496423741e-05
-0.00087716395154327975
-0.0004874527127721811
0.0012816047348903855
1
1
1
1
1
-0.0022640724503673331
-6.6699102624567366e-05
-5.7306907570270174e-05
9.4354524059513895e-07
3.2642809172044917e-07
-4.4932295843697502e-07
1
1
1
1
1
-0.00013627156656126279
-6.5600413890194326e-06
0.00016404744542950839
-1.9839426751863381e-05
1.3524702053958425e-07
0.00080202623266857902
1
1
1
1
1
0.00106490509578144
-5.7417504677907332e-07
-9.4753313908449631e-06
0
-5.8774473394776711e-05
-0.0029840845498052266
1
1
1
1
1
-0.0015556084411904459
-1.7922327987519346e-06
1.6355657476248231e-05
-0.00023572708421786879
-1.0944097444383816e-05
3.1168609989659197e-05
1
1
1
1
1
-6.1061431847720299e-07
0
0.0021370898305969866
0.0071739554536812281
-1.2985382926226042e-05
-0.0030777472436102275
1
1
1
1
1
-0.0035294545821238196
0
-2.4824449309793813e-06
-0.00023160589650772284
-0.00042368203518951177
-3.818852225705092e-05
1
1
1
1
1
-0.00010364873572575863
7.2062250350773807e-06
1.6482820807472251e-06
3.0618421813120335e-06
2.6147610186558633e-07
-5.0635837844166983e-05
1
1
1
1
1
2.3203945213677746e-11
-7.6726426871679169e-05
0.0069351860543491115
0.00014200436290898492
-8.1998783637025219e-07
0.0011652952501376157
1
1
1
1
1
-0.0005986179408177686
7.3149856031316224e-07
0.0088969232627967958
0.0013171217046088622
-0.0013035535663412422
-0.0014263434084228674
1
1
1
1
1
1.9013753575766508e-05
-2.1728996702092607e-05
0.00013422847027770601
1.5352153729467755e-07
-1.5335310198021669e-05
0.00012444734496257163
1
1
1
1
1
0.0027105590652750787
-1.0096326083663864e-07
-0.0014385972869588545
-8.0678617644310155e-07
-0.011691214732613071
1.0921339770515549e-06
1
1
1
1
1
0.00025883856781538212
0.00030456153139201764
-0.00059218772175549195
7.4830072598171358e-05
5.5841006582150809e-05
0.00024335662186113997
1
1
1
1
1
1.549596122848275e-09
9.0006300173299548e-08
3.9456342612644367e-05
0.00030501115825562871
1.6151082614691782e-05
3.3729144794005116e-05
1
1
1
1
1
-2.7913591716682953e-10
8.3324325481960788e-06
3.7473015260455368e-06
0.0032841947022908065
4.2304566426861973e-07
1.7445281971592675e-06
1
1
1
1
1
0.00015720883494556298
1.0240448701987123e-05
-0.00075619973209127263
-0.023118096257103357
0.00011230634135440371
0.00010003846724315125
1
1
1
1
1
-0.00090136203751197503
-2.4640390810932806e-06
-0.010678980908074651
-3.13156512453771e-06
-0.00018904664128046859
-1.4253274818796136e-06
1
1
1
1
1
9.9887689528462278e-07
0.00013248109956241687
0.00043175719239815823
0.00064043349248001774
-7.2613403707989194e-09
-0.001595503123379396
1
1
1
1
1
-2.8575133445111766e-06
2.0181549761338608e-05
0.0061214419273958268
-3.5346724908225308e-05
1.0614697499766232e-05
-0.0013098582736760364
1
1
1
1
1
0.0015176981142948237
4.1673728634055658e-05
6.592736305102814e-06
0.0034366198708211224
6.4680861177599922e-06
4.6586155182069508e-06
1
1
1
1
1
-2.2301980326567613e-05
-2.774954474855339e-05
0.0023140309002748862
-3.1022513654152566e-07
4.9381937321958386e-05
0.00016393573452936643
1
1
1
1
1
-6.69598273696233e-05
-8.5414149338148635e-10
0.00069906613035008926
-1.8886122493852269e-05
0
-0.0056525008885626362
1
1
1
1
1
4.4645357606007344e-05
6.8767773128305343e-06
3.5247963337965518e-07
-2.9889286659435934e-06
2.2244782978561339e-06
-3.8129455695507316e-05
1
1
1
1
1
-7.3263138663196276e-12
1.3172828587232444e-08
-0.00014536976244497961
-0.0010980705451206921
6.7435713654080432e-06
3.3425747962472925e-07
1
1
1
1
1
-3.2163475094666723e-05
2.9202946161122608e-06
4.7651603903874304e-05
7.8907722596791893e-06
4.8359554260572895e-09
4.4682661182109263e-05
1
1
1
1
1
0.00030712101898258015
8.511468412904344e-05
-0.00011057095467444745
-0.0011566639440241111
-9.4358454243873103e-08
-4.2392409812103913e-05
1
1
1
1
1
0.00015118048726416131
-2.3132655300172156e-05
-0.0013153311021096451
-0.0023311483965538912
-1.8513892787672958e-07
8.4637968313412412e-07
1
1
1
1
1
-0.0028042800301180258
-3.5024488792294384e-06
-9.968199578764487e-05
0
1.2820860061877243e-05
-1.6108690837233514e-05
1
1
1
1
1
2.174441672009343e-05
-3.3066909827133942e-06
-1.1577327343892327e-06
0
-4.0534490667650463e-07
9.2406308200000374e-05
1
1
1
1
1
7.1444671427882147e-08
-1.1208309510034169e-05
-2.0286903148910295e-08
0.0043360275984741523
3.4008660155194707e-05
-5.077596571333101e-09
1
1
1
1
1
5.8797784992718138e-06
1.1295988205379343e-07
-5.8362783128185395e-05
-4.6752219689906169e-05
3.2893300991843129e-05
-0.0014995605799044359
1
1
1
1
1
6.3305690898514536e-06
-0.00012788007852128624
-0.00011467118365337137
-2.6115845476698665e-05
2.1149767642796975e-05
-6.8558774242143572e-05
1
1
1
1
1
-4.9282358107538413e-06
-3.9863347547964904e-06
-3.5420480584890327e-05
-0.00032829821352972519
0
0.0013531404496646725
1
1
1
1
1
-4.6518472943446251e-05
-3.2019644604502726e-07
-0.0033559256887819113
0.0026384976395606424
-0.00050617658208271861
-2.3801283797283574e-05
1
1
1
1
1
4.7001256506888239e-10
-1.7947445728652287e-07
-6.0813534402766338e-05
-0.00012930629415780953
-0.0011640634624831747
-0.00062405566871139907
1
1
1
1
1
-0.00216864560553005
-2.6120154823413863e-07
-7.765580382273602e-07
-0.00033935658758565631
0.00061377160134743305
-2.8119858908515193e-05
1
1
1
1
1
0.00024936518540068703
6.9690928266133365e-06
0.00029976921828330183
2.9365698901629427e-06
0.0021578557904204528
8.0807022971411408e-05
1
1
1
1
1
-6.7945782095832273e-06
0
5.4297041831413983e-07
0.0048641568868753957
2.3498757260756902e-05
-0.006160048104543815
1
1
1
1
1
-0.00015756741674623014
0
7.9065749239167632e-05
4.1741125263527414e-05
-2.8333779874059398e-06
-4.8701951569782036e-05
1
1
1
1
1
0.0053477904271344396
-2.6481277837272726e-05
-0.032246090514952995
0.00044468635414961823
0.0075956519048478088
2.1336288145876599e-06
1
1
1
1
1
-7.2067084112697843e-07
-2.3558736747115349e-07
0.0007032894502366423
0.0047953751258662065
4.7557141986021118e-06
-0.0045290540547387442
1
1
1
1
1
-8.1961599171121244e-05
-7.330461260899852e-08
-5.416071382517728e-07
-0.0018278711002603497
2.4366695487553924e-05
-7.7568184066298343e-06
1
1
1
1
1
4.4346720763282152e-10
6.2693486902141892e-11
-4.2672713909323584e-06
-5.6677584400338559e-05
2.4070682049753113e-08
1.7638974253799852e-08
1
1
1
1
1
-3.7462836610310707e-08
0
1.5003141457896507e-05
-0.0015280569691383898
7.039257072791275e-10
5.2780778246035734e-09
1
1
1
1
1
-6.7847597521844783e-11
0
0
2.4470599310394081e-06
-2.3712691226838786e-10
1.2011353307438969e-08
1
1
1
1
1
4.7719156305745177e-05
0
-7.3170349989785811e-06
3.4757610895909542e-06
5.4735908489869821e-10
7.3402509257545004e-11
1
1
1
1
1
-5.584541729563757e-10
8.0465546857811248e-11
0.00057211123294738267
-0.00053430961328338876
0
-6.3344341398190699e-08
1
1
1
1
1
1.4989445758363891e-06
0
-3.4034507020778222e-07
0.00041026382382244436
2.6100202445733846e-11
-2.7140242481381552e-09
1
1
1
1
1
6.9368095401030139e-10
0
-6.2652156399640661e-09
-1.973681686351044e-06
0
-1.1735501329198933e-08
1
1
1
1
1
3.2490497636702263e-08
0
5.211942677110865e-09
-3.3870579892405456e-06
1.0072969301950147e-08
0
1
1
1
1
1
-1.1774935522604919e-06
-3.2614111878777591e-13
-2.4624055279854359e-08
-1.8667006101222302e-06
0
-5.9083336634219496e-10
1
1
1
1
1
-3.185219472353455e-07
4.8577270022092297e-11
4.9250163516227552e-09
-5.6965968728395306e-05
1.1434816477015732e-09
0
1
1
1
1
1
-5.7163246430757678e-08
0
0
9.5579854269906945e-07
-1.5279112783155724e-08
0
1
1
1
1
1
-6.8702873287408012e-08
0
-4.5944266949087315e-07
-7.0493291511239546e-09
3.1495619202263611e-11
-1.0641599486940342e-09
1
1
1
1
1
-1.3548408301456833e-05
7.5323510679370454e-12
-1.313141478430504e-09
-8.7307087321331273e-05
1.5454617567853151e-09
-1.403366141816946e-08
1
1
1
1
1
-8.3269124304289098e-07
-6.0901124728298073e-12
0.00014576305718204865
0
-3.4654140874682045e-06
-3.9080435242400902e-06
1
1
1
1
1
6.1019314728923039e-12
1.2354485840014309e-12
0
-8.2319841161887864e-06
0
-2.480762293584694e-09
1
1
1
1
1
-5.0057157326818504e-09
0
8.6430649846663107e-09
-5.3511625690644784e-06
0
0
1
1
1
1
1
-6.8078084421551817e-08
0
-1.7932034864021853e-08
6.5682761464341834e-08
9.0745947020084256e-10
-1.5651392975267751e-11
1
1
1
1
1
-8.0219618558385311e-06
0
4.8139128765222951e-11
9.4506375798165684e-06
-1.7061508204355895e-13
-4.3052838840768856e-07
1
1
1
1
1
-5.2661406429490029e-07
0
-4.6073901943794755e-09
3.6770773492086253e-06
3.0898508042969974e-10
-9.7163346871870434e-09
1
1
1
1
1
-1.580527889859145e-08
0
-7.8168263344091293e-09
-3.134840520472622e-06
-2.4185814471316322e-08
0
1
1
1
1
1
-4.3584599987665507e-08
0
-5.5856852878054752e-06
2.2430342673471448e-07
-5.3209870200632642e-10
0
1
1
1
1
1
1.6733713344133877e-16
1.5517601404251363e-12
-1.451120904295161e-08
2.4089440176351318e-06
-7.3248147754269298e-09
-1.9410704012512651e-11
1
1
1
1
1
-8.5853604685450278e-06
3.5685672330818511e-13
-1.5775917241030918e-09
-7.3205524535780931e-08
-2.0230084173764074e-07
-8.4080503750954272e-08
1
1
1
1
1
-3.1167126385858899e-09
0
-4.3240155447451333e-10
0
9.1808813895919138e-11
-1.5132000099695354e-10
1
1
1
1
1
-1.5870411096744851e-11
0
-1.051905475543149e-06
-6.2910874009299996e-07
2.8091878691594687e-11
0
1
1
1
1
1
-2.0641954275122974e-08
6.3877598275900057e-11
-1.0623889740194141e-07
-3.7962330888404604e-09
-8.5912983317772566e-10
-1.281759151150811e-08
1
1
1
1
1
-2.3203713198112885e-07
1.4206480692635042e-11
1.9269144354135197e-07
-3.9259181974239703e-06
6.9022466091096966e-10
-2.6417977061610295e-07
1
1
1
1
1
-3.2933135082914205e-14
1.2819947977306825e-11
-9.866435227090377e-09
7.0632837171683289e-07
0
-1.9458454379535714e-08
1
1
1
1
1
-3.1532679397121633e-11
2.817753134752035e-11
-6.5104802892131573e-06
-1.4168064886291876e-05
2.3969693226380565e-09
7.8114045348645125e-09
1
1
1
1
1
-8.332954430576675e-07
0
-2.5587881841957975e-06
0
0
1.4476973397999349e-08
1
1
1
1
1
7.3862489226287635e-07
4.777285376001359e-08
3.800427762213614e-05
0.0063718306215797514
0
-5.8558996553510065e-06
1
1
1
1
1
0.00096690679125005388
0
6.5204583613008785e-05
-2.8237115386188715e-08
0
1.9186385996558573e-06
1
1
1
1
1
1.0356900907544037e-07
1.6302026469878543e-09
0.00019952055540277468
3.7803381609970014e-05
-2.3575207543496258e-05
1.2577311520226575e-05
1
1
1
1
1
-3.5944478864706462e-09
2.2364797739880815e-08
-2.0914174362381142e-05
-3.5759964032753773e-05
-0.00010197003646378716
-2.8240294114252305e-06
1
1
1
1
1
-1.0847798299008506e-08
0
0
1.4463750486158873e-05
-6.5201530593374983e-05
-0.00014510166460711616
1
1
1
1
1
5.2440150107164353e-09
2.8991966299591925e-08
1.5290377974903351e-08
0.00013175473260635889
3.6970150204218672e-08
-1.1887747339156734e-05
1
1
1
1
1
-5.8431119120353293e-12
-2.6885209105406653e-07
5.5023026553895108e-05
0.0026757367677041522
7.124335804189955e-05
-4.0146995639662402e-06
1
1
1
1
1
-1.0161955363984346e-05
-1.9948849965430371e-05
-8.6721598263907976e-06
-0.0030867757467344836
-0.00099626369891682963
-4.7656114463085123e-07
1
1
1
1
1
-2.2679045331633311e-09
1.3674071800746181e-07
5.745520635970972e-05
7.0828502813087397e-05
-1.4435086319525956e-09
-0.00048328068802042735
1
1
1
1
1
2.6452376600595208e-05
2.3651790539912259e-09
0.00028068787118506279
0.0016170131642111421
-1.761602114544843e-06
-0.00017891082951794425
1
1
1
1
1
0.00052307579639768219
-1.9090663909717042e-08
1.3122808470908235e-06
-0.0056101516265750868
-7.5549956890677495e-07
5.4522607695115842e-07
1
1
1
1
1
4.3302385715749244e-06
3.6159927261907353e-08
1.0912325904325961e-06
9.2778745309625497e-08
7.9541551444280531e-07
-0.00094648720333603733
1
1
1
1
1
-6.9459889800198063e-13
3.5126880652900608e-08
-2.8856391022911759e-05
0.00091509353516600132
1.1226088122010913e-05
-1.0804884053635604e-06
1
1
1
1
1
-1.6871743920608778e-08
-1.0165704887357626e-08
0.0012072547837992313
2.7225721113910637e-05
0.002611795961690496
6.3350616424421084e-08
1
1
1
1
1
-1.0086633997286328e-07
-1.6818593089812656e-08
-0.0001009557899338815
0.00011162851370974569
0
-6.3170207360945023e-06
1
1
1
1
1
-3.4674086157581382e-06
-8.0029337267125151e-09
-0.00058612926427275853
2.0991502144627398e-07
3.3967357472052358e-09
-2.7743727947012156e-05
1
1
1
1
1
-0.0003220281417633815
-1.1464706990393778e-08
-4.9801837322692667e-07
-2.2689397644888541e-07
-5.2077018386608505e-07
3.2519771954389924e-07
1
1
1
1
1
0.00012650594236243105
0
0.0001663473124912273
8.6790823694078698e-05
6.6185023062753691e-07
0.00034067572661376116
1
1
1
1
1
7.4238601328309946e-10
1.0441231408450886e-07
1.2512798389121992e-05
0
6.8542908992992583e-06
-1.9696717703615115e-07
1
1
1
1
1
-0.00083175375631859528
9.5818060361282414e-07
2.2250653018462457e-05
-0.00016194639612369301
-7.06585698666528e-06
-1.6481816344497593e-06
1
1
1
1
1
5.9413794870128522e-07
0
-0.00076479085558990665
2.1874707956578891e-06
-4.8577183876738384e-06
-2.6604066400005967e-06
1
1
1
1
1
-0.0017722012707318271
0
-1.3776019511296593e-06
9.023274316103919e-05
-2.8153921717161526e-07
-3.5621678712817363e-06
1
1
1
1
1
-0.00010364873573850211
3.5527265784048335e-09
-1.4811573936935374e-05
-9.4881501679303425e-07
-2.2983397820651409e-07
3.2061795648746482e-08
1
1
1
1
1
-2.0071050610909643e-10
0
0.0024307309122456326
5.8359207889941767e-05
-1.5032962241129547e-06
5.1569341800995194e-07
1
1
1
1
1
-2.3098684255256677e-08
0
-3.282585680739564e-07
-0.00015066102688231212
-0.00017493674635282554
-3.09130179730828e-05
1
1
1
1
1
0.00017293905055756133
1.5538152400911466e-07
-2.4310235509605283e-05
1.2123792607201997e-07
1.4803790795705165e-07
0.00030624945875194065
1
1
1
1
1
-5.5598678438872212e-10
1.288090133215878e-08
0.0030275329507674482
1.2063789323213588e-06
3.7988828212508827e-06
1.0919207333503227e-06
1
1
1
1
1
0.00034715361775375711
0
5.7102704457815662e-06
1.0533943915795982e-05
4.1360095245445424e-06
6.0061313537055054e-08
1
1
1
1
1
5.0129290345345872e-08
4.1575777675775104e-09
3.5428912201818867e-06
1.6054653516903989e-05
7.9592900416436531e-07
3.7283811524679704e-06
1
1
1
1
1
-2.8242515796469242e-09
9.4852637961658935e-07
1.5191736502823183e-06
-7.5412895364420913e-05
9.2975288251371759e-07
-3.8586619304037643e-06
1
1
1
1
1
8.6967672964367117e-05
-1.8914273458544261e-08
-0.00013057915833812307
0
-2.711920732645955e-06
4.8117814678492649e-05
1
1
1
1
1
0.00055266282165052961
-4.1106712896611459e-08
-2.3555615096725907e-05
-2.6417592636264296e-06
0.00012015330018898314
4.121754304077089e-07
1
1
1
1
1
-1.0367594902269766e-06
-2.5147545235053732e-07
2.2765735451462334e-07
-8.6847129849252316e-06
1.2260888995357008e-08
-2.225449216953439e-05
1
1
1
1
1
3.2766083288170558e-06
-7.0975866308087582e-11
-7.8801894835007152e-05
-4.9903164308347073e-05
3.0246974775724715e-06
6.7014207890372371e-07
1
1
1
1
1
0.00027684280438467287
-1.2880759948421724e-07
-1.0305804346978439e-05
-4.2027549726596081e-05
0
3.5257493360815585e-08
1
1
1
1
1
-3.9094333414504002e-05
-3.9435039145734028e-08
-5.1739483634353234e-07
-4.2911249867424158e-07
1.0029600347731037e-06
-7.9982296668328754e-07
1
1
1
1
1
2.3771591518802208e-05
-5.8928853834697832e-09
6.2222250224435546e-06
2.3726765618401055e-07
0
0
1
1
1
1
1
0.00014179027403611808
1.9035606336135678e-07
1.8233714103825332e-06
4.6082203674949163e-05
-1.5977788190659134e-07
0
1
1
1
1
1
-5.7763945478169905e-11
-2.1375287782780558e-08
-6.9796558414572633e-05
-1.0821842287278156e-05
-4.5130446307588832e-06
1.3106591237368139e-05
1
1
1
1
1
-2.132221025972545e-05
0
0
-9.2837761952533396e-07
8.9018761522474219e-09
4.5459477746890798e-06
1
1
1
1
1
3.911901204208577e-08
1.734916884009783e-09
0
2.7733474135511276e-06
1.415127398636622e-07
7.2183761904841882e-06
1
1
1
1
1
-2.7926551720801759e-06
0
2.7034977884027905e-06
-2.4600225646389196e-05
-1.5522105905583518e-07
-2.8919158900406597e-07
1
1
1
1
1
-1.5997751270512937e-07
9.7145356042836843e-10
-6.2011517556426367e-08
0
-8.7225274684234945e-06
-5.4360091959054493e-07
1
1
1
1
1
1.9508013573910191e-05
-6.8587865368968669e-08
-5.8239565037129141e-07
0
4.239326678791239e-07
9.3322160422455001e-08
1
1
1
1
1
-6.4061599339147925e-08
8.7819305071068131e-09
-4.6380340425017196e-08
-6.1763544737506904e-05
1.0901466776242435e-07
2.6366219689844804e-08
1
1
1
1
1
4.6587488653314233e-06
-3.4370151915639864e-08
3.3394672118819215e-06
-2.3299395395344353e-06
6.0538509541224805e-06
8.0170043992418059e-06
1
1
1
1
1
5.1125597258715408e-05
7.7925088006457627e-08
1.5728591276032909e-05
1.5756672794292191e-05
1.4291904055727216e-05
-2.1422659679302546e-05
1
1
1
1
1
-4.7549386772690486e-06
1.3622653512430733e-10
-3.9638954227190708e-06
-7.0749216945098316e-08
-4.7783506044339212e-06
-0.00076398087147885863
1
1
1
1
1
4.074506932198138e-05
0
-0.0031195846594283456
-0.0014482142934498328
-1.3610121683314352e-06
3.1078744637805355e-09
1
1
1
1
1
-6.3300229764652681e-10
-4.8356159447178308e-09
-6.8971560442074179e-05
-0.00043320961141324186
-0.00031879161846301807
4.9325221736299904e-07
1
1
1
1
1
-0.00077365453450659581
5.0704712625068068e-10
0.00011753808233118257
0.0012210632797653492
0.00051690593578652283
8.3078735659547478e-07
1
1
1
1
1
0.00024829765561798359
-4.4828200978064759e-12
-0.00023203359998622493
1.089547537931467e-05
-1.1443814704953715e-05
8.7019020445022402e-09
1
1
1
1
1
9.1874300294375576e-06
0
5.4059016183196619e-07
-0.0011474452122063803
3.2957066038649066e-06
2.0539771081389525e-06
1
1
1
1
1
0.00029384481460865579
0
-7.1144627944438223e-05
-2.9823009606129317e-05
8.5177653686493253e-08
7.9586737558199393e-08
1
1
1
1
1
0.00013011615116480439
2.9744559084396594e-08
0
0
9.1613579580882831e-06
1.6390404970063815e-07
1
1
1
1
1
5.2117205540711828e-07
5.8148811011555299e-11
3.646318098470127e-08
0.0031159900516293843
-4.5464040920726909e-06
-5.0840294257834483e-05
1
1
1
1
1
0.00010908636152058938
0
2.607005987339102e-06
-0.00078482887141957636
-1.7264368534508987e-05
1.0425713765117774e-06
1
1
1
1
1
-8.8872915177405946e-09
-8.2104914681749271e-11
3.9554161002778053e-05
-0.0010902217697510341
-4.1027846152661779e-08
3.5186366640112724e-08
1
1
1
1
1
6.3916518273563262e-09
0
7.3880425092524932e-05
0.00040301034747732825
-5.1577680107611504e-07
-7.775801780360409e-07
1
1
1
1
1
-8.1834765598687408e-11
0
0
2.4514147360537633e-06
-5.3146505353361306e-07
-1.1400324283316973e-05
1
1
1
1
1
-0.00010290765633634184
0
7.504849658597708e-06
4.237795515014465e-06
-3.1327212270333459e-05
-2.8160083584842064e-07
1
1
1
1
1
-2.3309469120006883e-09
-4.7707637397747702e-10
0.00054889440065628698
-0.00063060836568439537
-5.8416442006941928e-07
4.1879824643145704e-07
1
1
1
1
1
-1.3745348982725953e-05
-4.1772744657958111e-10
9.5063438932050165e-06
1.3662514963508782e-05
-1.08486592067386e-07
-3.3112517182453466e-08
1
1
1
1
1
-2.8463966633040753e-05
-5.8012400815078092e-08
-8.6766854930639536e-06
1.1419672110351355e-08
6.0065873674618073e-08
-6.5279536890853162e-08
1
1
1
1
1
-1.964662911838038e-08
-1.9945241634874833e-10
1.0899359435259863e-07
1.8703254565434808e-06
2.2604915855741408e-08
-2.5498173604328637e-07
1
1
1
1
1
-4.9492527511730992e-06
-1.3518240366298324e-08
-0.00206432807958871
3.8669413468802502e-06
0
-1.6797441563291403e-06
1
1
1
1
1
1.1130259182729017e-07
-1.1007637205983972e-09
5.3641118067891025e-06
0.00010383256222174181
9.0535564130470348e-10
0
1
1
1
1
1
-1.9859218549355569e-08
0
1.9490465603043282e-06
8.1088370826394284e-06
7.7275657612592965e-08
0
1
1
1
1
1
1.4975326696415429e-08
0
1.2839334941799833e-05
3.0995645328500257e-09
-0.00016318983372828319
1.0386552240156806e-09
1
1
1
1
1
-8.9561666924746499e-06
-6.1248115045292892e-09
0.00015085802545606859
2.4776659345338559e-05
-1.9408857448600335e-09
-2.5402460428944552e-07
1
1
1
1
1
3.0370945433476747e-07
-1.3016878421526099e-09
0.00037011925483444621
0
-1.3090196025176015e-06
1.5679773827850259e-06
1
1
1
1
1
-1.4000409713629782e-11
5.0566381699932441e-13
0
-9.7464135367863332e-06
0
1.7516456018911756e-07
1
1
1
1
1
5.9777669786337227e-10
0
-8.4745531845441713e-09
4.4621844685884738e-06
0
0
1
1
1
1
1
1.4668424748218392e-08
0
7.3379805945476326e-06
-3.1188554889672098e-07
6.3594344769122285e-08
9.319404825087608e-08
1
1
1
1
1
-3.481756834123324e-07
-1.062927169503556e-09
-2.3777335499533887e-06
0.00038940260429100711
5.5507832628476309e-13
3.3578538580025464e-06
1
1
1
1
1
4.4355129097696266e-07
-3.2273894223257143e-10
2.0541920311813713e-08
-5.0070861103619064e-06
2.8147082214648724e-09
6.1191896995573055e-08
1
1
1
1
1
-4.1559187398938041e-09
0
2.6384334374363337e-10
-0.00027963466586786189
-4.93883251776894e-08
0
1
1
1
1
1
-1.2101125064865696e-07
-2.2172121823980116e-10
-0.00025490279399938186
7.2051806412664997e-07
8.0659780930631365e-09
0
1
1
1
1
1
-1.4570484860473392e-16
-3.4304605332844152e-09
3.4520350126996655e-08
5.0028260171120434e-06
5.4837636401476121e-08
2.0706051948148346e-08
1
1
1
1
1
2.5765847492473888e-06
-1.3351266027235996e-12
5.7365704540600189e-10
2.8530129646523111e-05
3.2475303585653712e-07
9.1504419259650732e-08
1
1
1
1
1
-1.497688027042757e-07
0
1.4727110048001848e-06
0
-4.0727257188292788e-11
5.6142751748094946e-10
1
1
1
1
1
1.9224481685123303e-12
-1.2957773977091004e-09
-7.3504013314185489e-07
6.3576527361055007e-07
1.55413487988835e-08
0
1
1
1
1
1
8.9447591224736584e-10
-9.5056038457075062e-09
3.5431494256612922e-06
6.2323418443198154e-10
-1.4819941435421548e-07
-9.2620401792047413e-10
1
1
1
1
1
-3.7885717234632128e-07
-2.0288397861006416e-11
-1.7582091550108453e-07
1.0959306213496821e-06
-1.2556868870421585e-09
-2.5915698953811768e-05
1
1
1
1
1
-4.1274293440739951e-15
-5.2736626710294371e-11
-3.4226381097430943e-05
4.8867887972410574e-06
1.9642243474196734e-08
1.0818717209223682e-07
1
1
1
1
1
-3.6867968540738566e-11
-2.2985288676290374e-11
8.7615965469808464e-06
-1.1765256197557515e-06
1.8031818347110939e-09
1.4987880597493322e-07
1
1
1
1
1
8.2893220744253814e-07
0
-9.9406035004323635e-05
0
0
1.4651380134751973e-05
1
1
1
1
1
1.0273156034095924e-06
0.00084047661387715478
0.00060553379706640908
0.0046565535298639799
2.8645587369711565e-05
0.0084275567498023288
1
1
1
1
1
0.0010052620099534446
6.9696971797546983e-06
0.020187502523147365
5.6407712594907856e-07
-0.0082184588480893415
-4.8450744505096647e-06
1
1
1
1
1
-8.7426079633956344e-08
3.329560629537772e-06
-0.010222277909705993
-6.9226541376205263e-05
-1.4207943002478489e-05
-0.00026559991349586423
1
1
1
1
1
0.00023593912203765516
3.4366065579012296e-05
1.5795200792511494e-05
1.0253000921598086e-05
0.00015932249523339763
0.00055662715444324928
1
1
1
1
1
3.2702136749288728e-08
-2.8143041194672861e-05
8.9851862087804901e-05
0.024561619605340635
-6.5211226963087047e-05
-0.0023604446414316588
1
1
1
1
1
-1.0931614541543735e-08
-2.8151257204516605e-05
0.00015824203168323539
-0.013725656069285276
0.0023520228225811643
3.0593806258564845e-05
1
1
1
1
1
-5.8431119120353293e-12
0.0019303928479475593
-0.0022842531542784741
0.0030079229538148475
0.0018976719770640619
1.9613484872446316e-06
1
1
1
1
1
-6.8083045544130564e-06
6.8618443070101246e-06
-7.88989905316996e-06
0.0082016440686046802
0.0007051844254464607
0.00022707821779503932
1
1
1
1
1
-0.013174982925568485
3.0577718908085848e-05
0.016600414077827568
5.8874098710190513e-05
1.1101907039657956e-05
-0.0004765050590873019
1
1
1
1
1
-0.00010499123528465379
1.5344279667416524e-06
6.0207804657012194e-06
-0.0040532844084164056
-0.003209722055565046
0.00022285649675070528
1
1
1
1
1
0.00069269977582433269
2.2856912311072829e-08
-0.00010566028778972333
-0.0055987736143618674
-0.0035442928623963649
-0.0048463831457204141
1
1
1
1
1
-0.0075294084606339568
-0.00028418297983782856
0.00037355190124454721
-1.3718220016789953e-07
-0.0019814974668049363
-0.0026408871023638793
1
1
1
1
1
-0.0016869872287608621
0.001093760694139893
-0.00040441429865665206
-0.0028931542474177939
-0.0030011698167968079
-0.0018830633329979319
1
1
1
1
1
0.00015601736223411165
-1.1591329104872649e-07
0.0014814203006972013
0.00011417147825222384
0.003080763178495077
-1.8579251786488496e-07
1
1
1
1
1
2.7533678387664512e-07
0.00053198693175107866
0.00014280281466124933
0.0008861003137540217
0.0027090441896810693
-6.7807175181134745e-05
1
1
1
1
1
0.00053870653125744647
9.9482869828474785e-05
0.00015045668247655494
0.00044676984789643586
0.004499340051638716
0.006614839109383706
1
1
1
1
1
-0.0037864352502782633
6.6699714199139668e-05
7.9235563133063234e-05
2.3967392124272995e-07
-0.0017541840493129665
4.4950234533180729e-07
1
1
1
1
1
-6.2126891885315582e-05
2.4300640945752101e-05
7.1763750722387355e-05
-2.9517276256338374e-05
6.6264386110270771e-07
-0.015991914052003717
1
1
1
1
1
-0.0027385080877816706
-2.0392230704616991e-05
6.4237034738635512e-06
0
2.7716868240135482e-05
-0.0029843655740238524
1
1
1
1
1
-0.0012310561939156523
-0.00034287864578195636
-1.4769694255903689e-05
-0.0043504927777339945
-8.5134261916550143e-06
-9.5373302917991197e-05
1
1
1
1
1
2.1763839502311271e-07
0
-0.0027612259050891568
-0.0070887822372854674
4.2017828970145514e-06
0.0029624672047703685
1
1
1
1
1
-0.0064138440857038825
0
-3.2332668826237686e-06
7.8141036142362279e-05
-0.00059555088926198732
-0.016176738219391147
1
1
1
1
1
-0.00010364873573417708
1.0737321383832806e-05
4.822136348901731e-06
1.5777312099094957e-06
0.00013111541932791832
-3.9102002819745962e-05
1
1
1
1
1
-1.5198282868451466e-10
0.00016870868220787011
-0.006191832280756422
2.7515161876551941e-05
-9.2674806214947566e-08
0.0048751953696193539
1
1
1
1
1
0.0029527064355601897
4.6680047517291421e-07
-0.0035953068298823841
0.00016164059032109556
-0.0030971607200326406
-0.00042328680066777669
1
1
1
1
1
0.00020101487029666368
3.2992068654233528e-05
8.8064222905924258e-05
1.5352153729467755e-07
1.5573591541597903e-05
-0.00076691493514663607
1
1
1
1
1
0.001164078303400612
-1.3924525941759459e-07
-0.0056872098681035408
-0.00041963140260575029
0.011690837630241082
0.00078022149077117933
1
1
1
1
1
0.00059549542691999179
-0.00061413047698873069
0.00061030760194486443
0.00011449649414888553
-0.0053058189338898538
-0.00021237056163626335
1
1
1
1
1
-3.3195907209843521e-08
-2.3393247569630464e-05
-3.8131120365035313e-05
-0.00019507066879710251
-4.7713527695004354e-05
-0.00059401176139288632
1
1
1
1
1
-2.1062936526133432e-09
-1.2783139326793751e-06
3.7473015260455368e-06
0.010087449074023922
-1.8780682300240443e-06
-5.5117852920029061e-06
1
1
1
1
1
-0.0030946012969001149
1.3522678378144805e-05
0.0059481395789518299
0.001200043079681251
-6.8719789658465546e-05
0.00011721126422212125
1
1
1
1
1
0.0038819033652058806
-2.6471601568475366e-06
-0.000270981471023448
-6.8251768217102221e-08
0.00015368659106356505
2.6883759969610835e-06
1
1
1
1
1
9.9229025964639809e-07
-0.00046530250612006731
-0.00058588567772189766
0.00034976216994470402
-0.00051180689152442412
-0.0047579374852169416
1
1
1
1
1
3.6961599674889616e-06
2.2205951891366865e-05
9.0061063180089446e-05
2.4903843557214568e-05
2.2270726697922905e-05
-0.0016897551952899368
1
1
1
1
1
-0.0014313969643873505
-2.0076631914827433e-05
-7.6902740247419836e-06
-0.00058847955879571699
-3.4430794265908382e-05
1.3022326711850673e-05
1
1
1
1
1
3.9104998548243573e-05
-8.5791021043715536e-05
0.006203502140614642
0.0021853609039365735
5.0174641012866828e-05
-0.00016338127524511052
1
1
1
1
1
-8.208258038780828e-05
-1.3834244121037923e-08
-0.0018469781355741756
-1.8351235787729342e-05
0
0.0055837935899476195
1
1
1
1
1
0.00016313056377956599
1.4435344218557049e-06
-1.4401338523223583e-06
2.3446586146449301e-05
-4.1057570122341545e-05
4.2909939881141948e-05
1
1
1
1
1
1.7529763049913043e-11
-2.409474195249208e-05
-0.00014340676039728694
-0.001092554282779046
7.3659762729375153e-06
0.00011159643852321308
1
1
1
1
1
4.9989602110943818e-05
-0.00022631001691216719
-4.3451856354870521e-05
-5.342724184346667e-06
-5.6821249991539772e-09
-2.8693632887672606e-05
1
1
1
1
1
0.0068754291873657555
0.00037539940603724913
-6.4417092204044062e-06
-0.00010141853803658852
-9.0270847713755611e-08
0.0005219409469883697
1
1
1
1
1
0.00024947335243400678
-2.1557336133421363e-06
-9.0060406196425904e-07
-0.0064174872967356893
-2.9051284419548675e-07
-9.7562946537036502e-07
1
1
1
1
1
-5.4991865945021407e-05
6.7527147754842416e-06
0.00065100837539633501
2.2404625083924083e-05
0.00047560158299183696
7.8976875947662993e-05
1
1
1
1
1
-8.2737383173444062e-06
8.1646479342861516e-05
6.090691874880539e-05
0.021586603024896914
-8.4018612872966647e-07
0.0049344893523258762
1
1
1
1
1
-4.6439560149633558e-09
-0.00014292294414146948
-3.0343578624836652e-08
-0.0034663001539264283
8.4404659813149295e-06
9.9891509787308963e-09
1
1
1
1
1
-9.3849161832022787e-06
-0.00094404619548055495
-0.00042936312814796971
-0.0082935906371240722
0.00030177824432368796
-0.0015072727834219478
1
1
1
1
1
3.7431297201788761e-05
0.00019437180875202909
4.4415820718473563e-05
1.0430408187959497e-06
-4.3403466386265617e-05
0.0022285321805593237
1
1
1
1
1
4.0169470439931564e-06
-4.0353037816427999e-05
-1.2444809488206705e-05
-0.0057738522525512615
1.0236785314182276e-05
-0.0013529544973100111
1
1
1
1
1
-1.1278167513046331e-05
-3.9028029060616406e-06
-0.00045893485349245616
-0.00081365912889306451
0.0016181374161305735
6.1775176592838223e-05
1
1
1
1
1
-4.0985373477774916e-10
-1.039430759648944e-05
-0.00013323701887349966
6.5458400210111764e-05
0.0011637203811605903
-0.00090487686134175268
1
1
1
1
1
-0.004894930735875414
4.487570376152643e-07
-0.00086304244774983369
-0.00088165783843305952
-0.00061359193501862874
-3.1323548152473552e-06
1
1
1
1
1
0.001511579563260325
-3.1650487379757168e-05
-0.00055366419883571692
-2.0246827946258183e-05
0.0051518937889065263
1.0442236755962345e-08
1
1
1
1
1
3.6623363031110059e-06
-6.0663542786002264e-07
-5.4958033848338999e-07
0.0030527488098026855
-3.2298952767007114e-06
-0.0061665121697427423
1
1
1
1
1
-0.00065937156636549006
0
-7.9053492297894958e-05
-4.8865743556946307e-05
2.2024101157371756e-05
-0.00022895082482206507
1
1
1
1
1
0.0053477904271344396
2.6481324335840831e-05
0
0
2.810149905939236e-08
0.00017027358752027546
1
1
1
1
1
7.0366714628978709e-07
-1.350977798383428e-05
-0.0015542308466190531
-0.0038433166617018928
1.0202185995253722e-05
-0.0032044095748127925
1
1
1
1
1
-0.00014746711510399426
0.0015832987753864806
2.607005987339102e-06
-0.0027042882587667541
2.1727527528750043e-05
-1.3749185329624257e-05
1
1
1
1
1
8.8866210224943384e-09
-2.1846123609369257e-11
-0.0041776434252206946
2.6025929873285663e-05
-3.3348317760440842e-08
1.8638874956969382e-08
1
1
1
1
1
-2.0039225592001962e-08
0
-0.00016328472468059508
-0.0022453033013132362
1.3345577688931157e-07
-3.6633791545119835e-07
1
1
1
1
1
7.9771800773288676e-11
0
0
2.0302449190865011e-07
2.8461078876178719e-07
4.0163779075542829e-06
1
1
1
1
1
6.3905832268345257e-05
0
-7.6691276049785032e-06
3.5943089877783734e-06
-5.3065228588026642e-08
2.009839239482504e-07
1
1
1
1
1
2.3307482478021285e-09
-7.9013315571099778e-11
-0.00016495608768915196
-0.00047937166368900201
-2.2538351783417025e-07
-1.0172859045265927e-07
1
1
1
1
1
9.123197650159608e-06
1.8468072364062332e-10
-7.0726340463630725e-07
-0.002685007875722767
8.068112173496319e-12
1.8979413138502592e-08
1
1
1
1
1
5.6196409073371248e-09
-1.864847441144478e-09
-1.8118921041572545e-07
-1.0951400397404709e-07
-6.0065873674618073e-08
4.5597283539401659e-09
1
1
1
1
1
-2.2732396327921826e-08
2.4611978876192289e-11
5.621781997627243e-09
-1.9261941408653595e-05
4.4205134367296046e-08
-2.604154492957683e-07
1
1
1
1
1
4.0481972926233163e-07
1.3295030713190025e-12
0.0020970624059180256
-3.2512596446773285e-06
0
1.2576093470372309e-09
1
1
1
1
1
1.3475134636098799e-08
-1.1457376028371768e-09
-4.9245363013487102e-09
5.8007297362482506e-05
3.9124163614296443e-09
0
1
1
1
1
1
1.5953107331549555e-08
0
-9.5197268059759292e-07
8.9506404237764379e-06
5.6829709446525836e-08
0
1
1
1
1
1
-1.3514106246164336e-08
0
-1.8786446227599094e-06
3.0995848102145002e-09
8.0027614408002985e-11
1.0641599486940342e-09
1
1
1
1
1
5.4222641939615035e-08
-1.639325538860358e-10
9.6007995396035135e-09
4.6290789416671083e-05
3.1343190358799298e-08
1.9704819404969153e-07
1
1
1
1
1
2.4630143511581592e-07
4.6521386683966597e-11
-0.00042577644002480983
0
-4.8479311161014623e-06
-9.9499459018078845e-07
1
1
1
1
1
8.6311257380823313e-12
8.2390617470503968e-12
0
-1.3054342740790792e-05
0
2.863107889664102e-07
1
1
1
1
1
3.7457557360326904e-10
0
2.2390053334334167e-07
-6.3790917573884528e-06
0
0
1
1
1
1
1
8.1025820601480997e-09
0
3.5479465944846547e-06
-4.5643553338809178e-07
2.783332278529914e-08
1.3982790759667611e-07
1
1
1
1
1
1.5098120186328302e-05
3.8589639794210432e-11
1.793970805831248e-09
0
6.2773128519413825e-13
-2.6855636091036804e-06
1
1
1
1
1
-1.4566579330459577e-07
3.2273894223257143e-10
8.9342191054452732e-09
7.3769107384013419e-08
5.6418089876758101e-09
9.2652478468543278e-08
1
1
1
1
1
2.1132844652496887e-08
0
5.8233490872382135e-09
-2.6524754034081228e-06
2.0936303587227994e-07
0
1
1
1
1
1
8.6081389609833318e-08
2.2172121823980116e-10
0.00030667923168270944
3.2868361885789418e-07
8.9327886705123646e-09
0
1
1
1
1
1
-1.7617370202755553e-16
-1.1517698842592129e-09
2.3771634357808649e-09
5.0238276619663853e-06
8.726414870036599e-08
4.78128668329475e-07
1
1
1
1
1
-3.1678850672352477e-06
4.9462998387926423e-13
5.3506182898935248e-10
3.0523470725082386e-05
1.3351669096508838e-07
3.9973693074935526e-07
1
1
1
1
1
1.1299175716501017e-07
0
1.7709672490596213e-07
0
4.3191145059583878e-11
5.6142751748094946e-10
1
1
1
1
1
-1.9227502986465357e-12
0
1.9227253658768746e-06
-1.4084136780318899e-06
5.6549715661226482e-08
0
1
1
1
1
1
-8.9447749322984135e-10
-4.7559618884135724e-10
7.3052693509590627e-07
-2.4035878937311463e-06
1.5030455846064609e-08
9.7155537819799539e-09
1
1
1
1
1
3.1271658411499781e-07
3.6751724967144111e-11
2.4690654653446291e-07
0
2.4897529271719058e-08
8.594982253624994e-06
1
1
1
1
1
-2.101659700884064e-14
8.398341024940547e-11
1.8117543309305585e-07
3.3874592743228356e-06
-4.8810811076865092e-08
-2.6595246810013749e-08
1
1
1
1
1
-2.7367755233686205e-11
6.8244157304426587e-11
1.5615772658239394e-05
-2.6856549394526127e-05
2.0355566287277656e-09
3.0658759597398424e-08
1
1
1
1
1
4.3897985189613695e-06
0
9.6446127456443557e-05
0
7.5974029781917119e-08
6.3457009458035002e-08
1
1
1
1
1
1.980606858900723e-08
-0.00016082040248958397
1.2629407945224183e-05
0.006371804023874366
-0.00029915713425842554
-0.00051840555964342394
1
1
1
1
1
0.0035478534610984694
-6.9696971797546983e-06
5.3302639251912512e-05
-5.6810562955382534e-08
0.0031146461947108802
4.8450744505096647e-06
1
1
1
1
1
-4.868171394905658e-08
2.8629234615083295e-09
-0.010298311699604396
-7.4476483188592297e-05
-1.0536942471151188e-05
0.013264174294100482
1
1
1
1
1
8.1695992958012142e-05
-7.6343265304244442e-06
-2.4742832209564527e-05
3.2816690945343556e-06
