0.098756191350835826
0
-0.011407931185430969
-0.0028516325437905735
0
-7.0442032960113286e-07
0.099997878284178124
0
-0.0018161915233559371
-0.043172534181977487
-0.00011328433935460028
-1.323180715121572e-07
0.14004069183302142
0
0.0015681425291717713
0
0
0
0.098213164327065339
0
0
-0.0064997419919740436
9.6262391075927129e-06
-0.00022462922347534048
0.099564626461169731
0
-0.0058585119486721333
0.00012312039635729697
-1.6453468204916372e-05
0
0.099587313691367502
0
-0.00094268662880803015
-0.00084575107503281064
0
0
0.095598334819219768
0
-0.0017357790700528117
-0.0073181042147761107
0.00026530355788353938
0
0.10025680751392527
0
0
4.2263205041733448e-06
0
0
0.098273625282667532
0
0.00048780362962474105
0
0
0
0.095692011562757057
0
0.0054913724383089729
-0.0014269624182048927
0
0
-0.0086780827012378665
0
0
0
5.0714535842053511e-06
6.9161152866666683e-05
-0.00088143731569932898
0
0.0018704905980965363
2.8330578971372736e-06
-3.7589766981162706e-05
0.00074331219594058655
-6.9887079934148741e-05
0
0.0015806809681337324
4.5319539136476895e-05
-5.1711534660566119e-05
0
0.0023000502743987222
0
0.0004683582224878633
0.0011254889079001331
-0.00012975645116659168
-0.00013488938813222969
-7.9576730630318544e-07
0
-0.00033017812143382408
-0.0012955549983749942
6.2583082178923449e-07
0
-0.0041822991655188274
0
0
4.5099820583286792e-06
0
0
0.00022541667033274091
0
0
0
0
0
0.00062324091735923627
0
0
0.0018407362856398654
9.2098237804678792e-05
1.6050663044104659e-06
0.00046082239001651209
0
-2.8797109788628542e-07
0
-3.3385071726739165e-05
0
0.00046692368196184827
0
0.0033707108828031581
-1.7521789573055965e-05
0
0
3.3393073090580716e-07
0
-0.00097908304359023944
0.00057332114818341813
0
1.4908225511114353e-05
0.00011628548515991539
0
0
0.00024134449754693716
0
-2.2761801907453111e-05
1.090587837027493e-05
0
-0.00026484700762615689
0
0
9.5992642735015556e-08
-0.0014681490033518119
0
0
0.00056967738822642896
0
0
0.00011180734739562448
0
0
0
0
0
9.45101099623464e-05
0
0.00067710836854156038
8.7646697559019506e-05
0
0
-2.0656423554329458e-06
0
0
0
0
-0.00026913602449402292
0.00018904872077612884
0
-0.00052413171145303196
3.89564903137248e-05
-4.9114345027099281e-06
0
5.4654985372822829e-05
0
-0.00097798838086945788
0.0023733728163988152
3.5165796492984455e-05
0
1.5958658295402617e-05
0
-1.7206227191218389e-06
0
0
-4.0755278755684758e-07
-0.012793896243084022
-0.00056284315929964405
-0.064033890683087874
0.044908736902648731
0.1174706468775597
0.025666500821137406
0.12861636355019457
0
-0.0057485412741884187
0.029994001411832606
-0.077570076226738699
0.044777181713773449
0.2912977042340727
0
-0.023442380121261364
-0.11118823076068517
-0.035623694730401632
-0.047648737636453789
0.48162052595629684
0
-0.021673434810877072
-1.8362769346712962e-05
0.015489243033598766
0.078198919197877789
0.36959741850490835
0
0.01971479844784222
0.11210869176425201
0.0013544399167812657
0.018577840548980394
0.41579895638465225
-0.00025642191500349908
0.045025282564673016
0.15364299475085705
0.036021505092130437
-0.0017217646709611917
0.37858790276048332
-0.003043307934851143
0.049579183157794152
0.081393415498090857
0.16164839762097674
0.14300422025890785
0.89755759733231821
0.003307073693645276
0.0089975332524256813
-0.0029015484308124065
0.017123415730162555
0.048493841014394655
0.54932668699299836
0
0.041442629033673101
-0.0025732923945069354
0.012475698437892474
0.034860217209459712
0.70586632866331867
0.0008899464151938079
-0.016143327573820525
0.0092002792450587775
0.036579171356553856
0.15457257092958773
0.80407464675675111
-0.00019574100791332189
-0.034344263297969177
-0.13022145120520381
0.044210105388483786
0.077158083280025699
0.75920324622423307
0.00078657720827585739
0.065567209201610119
0.28887389005441338
0.12441868855673045
0.011094525602058361
0.99595505767395454
-0.00012098535896249843
-0.1222959705957203
-0.012474331020505287
0.27446852976896569
0.02470436619799032
0.61752495918654915
0
0.003403556621858126
-0.04710346198067427
0.034372746165469412
0.15930527288772522
0.39515379314417254
4.7729605118833937e-05
0.011848776346234161
-0.04706241356396465
0.17567060647633709
0.19280820080397693
0.38162386590424846
0
0.0063933213186959737
-0.029079762219785601
0.0079503480993526852
0.028365179730214778
0.87916959053070109
-0.00099159126990510738
-0.035455063812862994
-0.014145581840913428
0.081664479452815977
0.22758482258147478
0.64612083338653892
-0.0052801926154594711
0.012911562484076169
-0.21598969354069786
0.11723446971133325
0.096740165442747564
0.68247425754456681
0
0.0032009335170778879
0.14437827164951844
0.12579193717504836
0.11671942418533075
0.51933917555038445
0.00051952682153843968
0.18666384151256449
0.17098737253915147
0.040201933884199931
0
0.82140479740438743
-6.9629739431968328e-06
0.017485360157445548
0.038702522318252663
0.13505685564136313
0.20700050947052351
0.80713594761268537
0
0.014517180534130496
-0.03275040833654793
0.10175116498424809
-3.6958448231710687e-05
0.64908633457793674
-0.004612414363461978
-0.19625422388313798
-0.041553720944565067
-0.012464005829177742
0.077616660364779391
0.89201276797366891
0.00039199966668392565
0.028542680904219353
0.0011074382420309446
0
0.081262326972886018
0.9550786016744125
0
0.12660007105852555
0.051818169143994751
0.038165192302739404
-0.067423407014448419
0.62849727705900771
0.0015058448524210718
0.077635517460343875
-0.0255403132525686
0.072211081035412253
-0.00021267017838055396
0.6806204028103251
-7.3746131577749803e-05
-0.020598917958857162
-0.049123191392982761
0.10567511546835036
-0.091888527407620227
0.71611040803315218
-0.00012607490981296184
-0.073138683742578411
-0.020210513362378772
-0.039169176166400949
0.26415912614488174
1.0147008101004333
-0.0014432335291713484
0.00077814806960367774
-0.132771712905835
-0.035983010477107953
0.13014185448234741
0.053516631542790162
-0.00055329117246316736
-0.015149474313920648
-0.017003540516482219
-0.0050926050752143348
0.1037907827288861
0.010031587877756733
-0.001970245981654687
-0.037314217157160941
-0.064644368523311832
0.0087324341862100134
0.0030503403054877743
-0.005391375396735839
1.4077205815780249e-05
-0.10166561626357917
-0.056744123212126373
0.028105109152109915
0.00033083898209533129
0.15704600452209883
0.0016232833076902087
0.18622677281676728
0.041993315678303979
0.070634875116687312
0.021394111395356529
0.10417229862238027
0
-0.054042240427647166
0.0013929801739702673
-0.093182206697081035
-0.00035980669513036576
0.085106022589674035
8.1107778373423666e-05
-0.038285056739288927
0.030464170829879872
0.0065202789950923028
0
-0.006922760553366168
0.00014637603909926187
-0.069298253572753571
-0.051577986697539387
0.061155763505240941
0.0035867108433779225
0.20605495089841963
0.00099418894718042612
-0.026157604933904798
0.047945569405115566
0.00053134895769022558
0.0005897488916171876
0.093908746345996996
-0.00021906284356637646
0.002163142536690167
0
6.6548376224208322e-05
-0.0016850921854260944
0.01666680311231801
8.6992359401027002e-05
0.00026710144036326826
0
-0.0023319445319681417
0
0.076161558883468969
0.00068841133922035102
0.023376528283309543
0.0030753671912220103
0
0
-0.09551125998137161
0.00089439259033095061
0.013619250187030033
-0.004201819015486186
0.00094288317378881032
0.00011579607831806003
0.34941343500312627
0
-0.0242336077824254
-0.095387715315007254
-0.0094427662582430016
0.0082137070131610545
0.3901836768752221
-4.2436730210052972e-05
0.058459287313270866
0.040651666890620691
0
0
0.038294519494599534
-0.00030829557965566926
-0.041459356665257151
-0.045977020084936676
-0.0028968324271127759
-4.5397419411658939e-05
-0.26225055120909202
-0.00060429511662663394
0.00022174679937972397
-0.0078891693918026855
-0.024967801047773176
0.0023187136075751998
0.093804816324147139
-9.9676862649762102e-06
-0.076724936877061417
-0.077773878490240783
0.0050369592606815082
0.00046398045450525913
0.040406660388218975
-0.00024727707425577222
7.4410820806218066e-05
0.057097785351687358
0
0.00096359247660641567
-0.028694932935254741
0.0011291557901908318
0.027867591424416381
-0.13855275444574
-0.0035930921240075967
-0.00085146622812766145
-0.068468089361468018
0
0.20369676312382007
0.065713318869431325
-0.013738408796604798
0.00022223423673207169
0.052320658289320213
0
-0.0052380691617663908
-0.074500658548034476
0.005352543025536457
0.00043020248935966702
0.077271397364189892
-0.00015200086465168441
0.0023578668967348714
0.20577318541375872
-0.0075013931242739664
-0.0040006794906948841
0.04692855513691286
0
0.019195660137068374
0.15546880515952793
-0.002416395981549167
0.0074722015181511994
0.087754831612975134
0
0
0.0060196259119226258
0.0010422037316425393
0.015020103781102493
0.14297933570661317
0
0.048234162305310212
0.015549756268802343
-0.00011841215711044795
-0.00075228450321485887
0.060016290625233962
0.00026494418324689219
0.043612209923489985
-0.057340061342607787
0.0057004223315307882
-0.0032287688461101827
0.0083923920123637735
0
-0.046839435455770712
0.0097804571649163421
-0.067426232443112216
-0.0041225567182833003
-0.020240495461628982
-0.00014924792223128071
-0.081444808465103519
-0.088068959869650687
0.014873005055078017
0.010513782093036682
1.1585436478057502e-08
0
-0.0016217148661710401
-0.0017563306714065904
0
0
0
0
0
0.00023336520436669585
1.5440417160633084e-06
0
0
0
0
0
0
0
6.563148602062266e-06
0
0
0.00031499154065014188
0
0
4.0280096745469515e-09
0
4.6150295991432851e-05
-0.00043237828795050608
0
0
6.685403814561797e-10
0
0
-0.00034026721045096579
0
0
1.6814583923790048e-07
0
-1.0262494576624418e-06
1.3534214748896055e-05
8.0697644317505174e-11
0
2.1010651794857485e-06
0
0
0
0
0
3.188760427640135e-08
0
-6.1202255758757671e-07
0
0
0
1.9836943485418017e-06
0
0
0
0
0
3.1539211621087663e-09
0
0
0
0
0
-9.8523155467426392e-08
0
0
-0.00046700175562527972
1.508606831767204e-05
0
-2.7233818736849664e-10
0
0
-4.9453810199563766e-05
-1.7029932320226713e-06
0
-3.6902488049010225e-08
0
0.00015040087230902102
3.6212042115686852e-05
1.0648433724592502e-06
4.9855294835702743e-07
0
0
-6.6528382232712542e-06
-8.7384005886273381e-07
-3.7486731500991444e-07
0
4.1190533843798636e-10
0
0
-0.0003144576774306421
0
0
-5.6614801686976527e-07
0
0
0
0
0
2.7227589219577084e-07
0
0
0
-5.0694567344716145e-07
1.0201800640680018e-06
6.9601786151842562e-08
0
0
0
0
0
0
0
0
0
0
0
0
0
0
0
0
0
0
0
0
7.9239446403441601e-05
0
-4.1762438751778413e-06
1.2832057861229154e-06
0
0
0
0
-1.6624326157805314e-08
-3.7346169640953001e-08
0
0
0
0
0
-4.3534542123709015e-08
0
0
0
0
0
0
0
-7.4886088565485171e-06
2.8630322014249391e-05
0
0
-5.0851085443402833e-07
0
-2.4916038357794114e-06
0
0
2.2320574931832628e-06
0
0
2.0703144179984253e-06
-4.9656141715437969e-05
-1.6893156933850969e-06
0
0
0
-2.3778878636616631e-07
1.0342791074316435e-05
-5.5817942389297825e-07
0
-4.1978822498192129e-07
0
0
0.00021097348661993829
0
0
6.6417381471754058e-07
0.00012544172995510589
8.170605843977755e-06
-0.00085174967294962935
-0.00027249042892933152
0.00096194692677585179
-0.00022127486151787194
0
0.0026144677611801442
0
0.00090623019189104217
-0.0023435420141924516
3.888488173346793e-08
0
-0.00013565331471326078
2.4983971305844354e-06
-3.0469588957121802e-11
0
-7.880009912039446e-05
0
-0.00074730680039757406
0
0
0
-1.6503436363447378e-08
0
0
0.0031036268140955509
6.5021129927215066e-06
3.0648623610031288e-06
4.967594321181312e-09
3.8442126481802655e-07
5.7778123950139292e-07
0.049776990696549117
-0.00061854439449232049
-0.0035706842324254107
-2.181145540276524e-10
1.2986123475599711e-08
-0.0014845526652019127
-0.006633405661588045
-0.00075390525534671624
-0.00010130550187208079
0.00010855607038137134
-4.1710400716075392e-05
3.0975956149974709e-07
-0.00054588124223177849
-0.0009791168022566096
7.7134030375212044e-06
-0.00042693876883166665
0
-0.0074044446718454773
-0.00044610863431492195
0.00033888845370043836
7.5979672510516919e-05
-1.899927334347561e-05
0
0.00024876249263900069
-0.0022065466050527009
7.6013154398715227e-05
-0.00036379558381702075
-0.00014586611689039605
0
0.0078227757527728342
-0.01085877200521573
0.0030049292374426831
-0.0013254341451568701
-0.0002215940835811451
0
0.00073377342414350619
0
0
6.3812096094595177e-05
-0.00033066500698283191
-1.1934201289755897e-06
2.0568449140085106e-05
-0.00043360671045120916
-9.818608948480433e-06
0.0013097053352276835
0.00073374378544432126
0
-0.0004525625431898986
-0.00024199172621436709
0.00011214214000052124
6.3277375839096564e-05
2.7212165933129805e-07
-2.7824508346879226e-05
-1.9149754536357492e-07
-0.0066281350872055764
-1.0004311094936254e-05
0
9.0191069769107803e-06
0
0.01121538802146361
-0.0011159193234580992
0
-0.0011373080803804717
-0.0024255308514509349
0
-0.001556541472432615
-0.0069357394605324358
0
0
0.00019442792185348949
3.3192980200541234e-06
4.6724422208335888e-05
0.0039381160483839706
0
-0.0040686414721608838
0.00021374978359634821
0
0.0014229727612185532
0
0
-0.00053976778008691219
0.00027449162913873359
-3.4834282936080697e-06
-0.00049675385808116792
-0.010685929188088202
0
0
-7.4978782527248426e-06
-3.3715043682947747e-07
0.001745873485759051
0.0091298638425261203
0.00043638774324260065
-0.00018162498848067624
2.7010314431693899e-05
0
-0.0011697547286456714
-0.00042970302282456524
1.9466577455448568e-06
0.0025919565756545634
-4.7924107431212354e-05
0
-0.0054095535825147735
-0.003009314817293769
0
0
-3.3087551305276647e-11
4.365928956960125e-06
-0.00026848079118600688
-0.0011549586444521128
0
-0.0016966730496427106
-0.00029029140919633657
0
0.0029858499461110685
0.0011372951335947893
0.0002714655164839444
-3.8651010071582965e-05
-0.00011430659615246928
0
0.0011898922710800713
0
0
0
0
4.0916308239493743e-07
-0.0037594949595514031
-0.0073922059991192394
0
0.00058336317943815156
0.0015666274363934744
4.0450508716670366e-06
4.0169309368970295e-08
-0.0027547179457158679
0.00057659274067016822
7.7601450966584623e-05
-0.00045832636817350964
3.3826853968851653e-06
-0.0017832966503737863
-1.5989221022149969e-05
0
-0.00026821386785258656
-2.7574147990931898e-09
1.6227205376259413e-06
-0.00010735483489601088
0.0012309968951518646
-7.0595298888416944e-05
-4.8892267350597758e-06
0.00076765966524451916
0
0.0011291958023604185
0.0061727884559972671
-3.1803186503049272e-05
-1.2091413577332082e-06
-0.0034392686665671792
0
-7.3970415654688401e-05
-0.00079369779849183808
-6.6995189859495389e-06
0
1.3308342897918138e-07
0
-0.00020059300794037502
-0.00016659160779710342
0.0041522586590089089
-0.00058464085721242755
2.3865130741168954e-08
0
0
-2.5929098010601427e-05
-1.9573022639368296e-05
-0.00079137660023012634
-0.00027966625913956406
1.1519725076762126e-05
-0.00025963642985575412
0.0012025907003970248
0
0
-3.6425150562723997e-06
3.1412552574745939e-07
8.2506486963244158e-07
0
0
0
6.0350432299875906e-05
1.6128671180949655e-06
-0.002244305042832212
-0.00034531358369752042
0
0.0011898860920991959
-2.9184961723164356e-05
0
-9.2398178551731064e-05
0
0
-0.00063388511860254092
7.2437635319004188e-07
9.386955888005829e-08
-1.0626754545708819e-05
0
0
0
-0.00018276478397197108
0
5.2542936523148973e-06
-0.00085634534089744818
0
0
0
-1.0444681310375411e-05
-0.00010354153427252164
-0.014137877420483242
-0.00055485445667208082
-1.8819922731433197e-05
1.3726301160711512e-07
0
-7.2329532097335273e-05
-0.0099229225761830048
0
0
-0.00043034413401337747
0
0.0035390223011387808
0.00038150166775546829
0
0
-7.3262316818997886e-07
-2.2674349218684091e-05
0
0.011708762707332926
0.0006930488947708834
-0.00054227833110980948
-5.6681818831616323e-07
2.1395970062001336e-05
0.00024162199969488538
0.0027746167221348421
-0.00017008101999035802
4.9754865841872558e-06
7.7528276040156001e-06
0
-0.0090896117669551565
-0.0068084989903910318
-0.0015567620466140383
-0.0005444848992763201
-8.8055257512590593e-05
0
0.0041009950839602845
0.0028840100018460483
0
-0.0011130998595135608
0.00053304409248155062
0
-7.5841461514769551e-05
0.0016446648189946938
0.00069498046603278245
0.00070787347021958465
-6.7995317760555419e-05
0
-0.0033335444626836938
-0.00064772324303033013
0.0001683771456642417
-0.00014454278180562599
0.00027114314562398943
0
4.3738438726949878e-05
-0.00033583395832406627
-0.00012338744308677005
2.7104441956929756e-05
-0.00017578613669575605
0
0.0016074414911304729
0.000130395711859181
-0.00050530560634827525
-0.0026148544330221032
-0.00040170429519991601
0
-0.00020671062333582515
0.0001249501364903606
2.2359121338181914e-05
3.401817565841435e-07
-1.4982063643631178e-06
0
0
0.0019385301368110338
-4.9910350238018427e-06
0.00061421661679820539
-1.8518528835987731e-05
0
-0.00087650369869525404
5.59304220064614e-05
0
0.0014624911420792115
-0.00034219245473268668
0
0.002018084373365394
3.1760709052736285e-05
0
0.0006284820387835935
-6.6801681185513089e-06
0
-0.0019855562408031902
-0.0050673222908583886
-0.00099374595570873186
0.00073829284977736608
-8.7155204150861392e-05
0
1.4173422073507934e-05
0.006319375311806907
-1.2322793544325623e-05
-2.3089959116837503e-06
6.0070549477515285e-09
0
0.00069225940332113915
0.0030682249899972491
0
0
0
0
0.00029996289420233699
0.0011774005923038411
1.5440417160633084e-06
0
5.5370805851446886e-07
0
0
0
0
0
1.3537769156622544e-05
0
0
-0.00031499154065014188
0
0
1.2996724177745801e-05
0
0.00023701792596204373
0.00060843871250804442
0
0
7.3181813166325558e-06
0
0.00052494529259335099
0.00047192320750567672
0
0
-8.791016368096551e-06
0
0.00066677210676581748
-1.3884629143030485e-05
8.0697644317505174e-11
1.2484949690668746e-05
2.8973087810707221e-05
0
0
0
0
0
2.0773753509680349e-09
0
0.001136859550918906
0
0
0
1.9020321933619977e-06
0
5.16406474605551e-05
-0.00051189061966019195
0
0
8.2490764320488112e-09
0
0
0
0
-5.1207929283047607e-06
1.5618735223859489e-07
0
0
5.1420748993733441e-05
2.1757844995495865e-05
0
1.1032873604718607e-05
0
0
6.0358730803219401e-06
1.7578537781440663e-05
-1.4795304592222602e-05
7.3304310369962252e-08
0
0.00019754818541834553
-3.6212042115686852e-05
3.580121235787187e-06
7.6856170012732485e-07
0
0
-6.6528382232712542e-06
5.0555500319733908e-06
-3.7486731500991444e-07
0
9.9332781226816531e-10
0
0
7.2753628400149244e-06
0
0
6.1230062791341777e-07
0
0
0
0
0
3.6573728167894609e-06
0
0
0
-5.0694567344716145e-07
1.2935094081337006e-06
1.5426379355359151e-07
0
-3.1537375597061252e-05
0
0
0
9.7293854506039419e-05
0
0
0
0
0
0
0
0
0
0
0
0
0
0
-7.9239446403441601e-05
0
4.1762438751778413e-06
4.8722758001883092e-06
0
0
0
0
1.6624326157805314e-08
-4.97583790051043e-08
0
0.00063147195688593094
0
0
0
1.5981355035049132e-05
0
0
0.00014156860091504039
0
0
0
0
-7.4886088565485171e-06
-2.8630322014249391e-05
0
0
-5.0851085443402833e-07
0
-2.4916038357794114e-06
0
4.5836550256178451e-05
5.0152338613218765e-07
-1.902257105654037e-06
0
-2.0703144179984253e-06
3.086939476582366e-05
4.3637871129242251e-06
0
1.9824051490957192e-06
0
-2.4266380543042779e-06
1.8127900206545956e-06
-5.5817942389297825e-07
0
-4.6996732803338958e-07
0
-0.00032330636636398227
0
0
-1.0737104854358315e-05
7.6943741910423439e-07
0.00023612556493460011
-8.170605843977755e-06
-0.0062974398565838665
0.0054500633773662153
0.0077148218510403321
0.0006929306209684401
0
0.0036309865736214907
0.0052615609959493301
0.0036816680815165165
-0.0023435420141924516
-3.3598397195905167e-08
0
0.00013565331471326078
2.5946968001004629e-06
-3.0469588957121802e-11
-0.0071467283511822098
-0.019901282215143538
0.001384091104050353
-0.00074730680039757406
0
-0.046676852531499322
0
-3.2873538933641886e-08
0
0.015260429081310362
0.00062205329657929976
-4.9354651029137489e-05
-0.025100102782102202
7.8718479389147918e-09
-3.6944038387127059e-05
5.7778123950139292e-07
0.047927593635755952
0.00073969228786138926
-0.0018501000313931254
-2.1383127985147614e-10
0.00036782714063097782
-0.0033432765942824827
0.00060830819310552908
0.00036196310409492965
-0.0010854799229127483
0.00015339179987563115
6.305751376838095e-05
3.0975956149974709e-07
0.0011611711657253392
0.00062551412114707325
0.011196901322377016
0.00053881053893268215
0
-0.0031821196038005544
-0.00044610863431492195
0.00067106624495136301
8.3097195980982725e-05
2.1537883961732622e-05
-0.0010758489531839405
0.00024876249263900069
0.000423301488618531
-0.0020875390082618676
-0.00052810516938072056
-2.7712588090806137e-05
-0.0028135578776464633
0.014040584473445705
0.012475182456978259
-0.0015672694629198568
-0.0058705537669355339
0.00089353733446293187
0.00026768421946111
-0.021917407632904631
-0.02804233635523088
0.0090805093825366001
0.0036651838587430509
-0.00013808455999737349
-0.00050641437099278495
0.00015903411157387377
0.0020363937850158523
0.0025813109409420477
0.00017977036758646305
0.010710537065614083
-0.00090558179443910004
0.00025456785871774777
0.00024199172621436709
-0.0004320715584319158
-0.0023243538109987694
7.7221884086103074e-08
-1.8915431660660945e-05
0.0055783344763526733
-0.0071001563870250473
-1.0004311094936254e-05
-0.034815247692261735
0.00099656496389084162
0
0.011150664823220861
0.01468841535520706
0.028652513293494067
3.7438036272752559e-05
-0.00074507754511415078
0.0014849503316314398
-0.001556541472432615
-0.021832280466142145
-0.0032898070508203931
0.0073887209551534109
-2.5019594648559321e-05
3.3192980200541234e-06
0.00012067706720900374
0.01071541154510048
0.01262294865611184
7.6879473140159396e-05
-0.0007921951398530394
0
0.023828447031727616
0.026333861632225605
-0.0060216767737871005
-0.0022760746793713382
9.3527507445968913e-05
-0.00074871677300617303
-0.00052684227660727704
-0.011092184531887197
0
0
-7.5630722910736097e-06
-3.3715043682947747e-07
-0.0020360570345995415
-0.0057131996915839624
-0.0014024433060274787
0.0015412939260055426
0.0017205695928516609
0
0.0011697547286456714
0.071838572907316239
0.010939476042859492
0.0022211242835992314
4.3073321201485019e-05
0.00019550665946580257
-0.0048213594110329879
-0.0040915953177607213
0
0.0012231159279838405
-6.9926189255747729e-11
1.6564211867179568e-05
-0.0029598635496691059
-0.0011549586444521128
0.043841166850003332
0.0044402580619651863
-0.0012656354635299325
0
0.0039816507231574677
0.0027358851235497238
-0.00056795260113210139
1.4096609613125764e-05
-0.00015888595711612959
-0.0004179276078339878
-0.0074996761471497926
-0.016997477319311945
0.0042679182405199381
0
0
-4.0916308239493743e-07
-0.0063209100813137308
-0.014024123734030407
-0.02395664243860135
0
-0.0015188392473480833
-0.00027173200103404867
-4.0169309368970295e-08
-0.010001314420442893
-0.0064380560801129607
0.012107450511653984
-0.00045832574873776595
3.3826853968851653e-06
0.0029986935918900294
-0.020168643754071756
-0.00057031211404085218
-0.021452330212068021
-2.1862576235039879e-09
-0.003606747033308268
-0.00010735483489601088
-0.084992341247435307
-7.0595298888416944e-05
-0.0031964625290190683
-0.00071025821645376535
0.0028525678423617297
0.00017153254478377225
-0.0045363837048385388
-3.1803186503049272e-05
-1.4599196485674565e-05
-0.0028241765404462757
0.00029696518891968025
-0.0070365266443988134
0.0046060508362941932
4.219053735891444e-05
0.00017205296655630652
-4.3324886859995927e-07
-0.0049953792044504378
0.020164483586186308
0.0060376192067462401
-0.019154330110220441
-0.00030224148470087901
4.8970896522334698e-07
0
0
-3.3547188388267709e-05
-0.0022139958049717597
0.002379180013408973
-0.0065097636394381396
2.1927727414372008e-05
-0.018608618691923321
-0.0029066839193623152
-0.0019911839125521988
-0.0046864888932000321
8.1193158982976052e-06
0.00016124592994006172
0.0073286556046068627
0.038110727539718683
0.020383824354568335
0.009786452241177435
-8.9929369865364883e-05
0.0011474589972722765
-0.0049648336850044517
0.00034531358369752042
0
0.0042475272884906577
5.5745734408719259e-05
0.0006059469353481879
-9.2398178551731064e-05
0
0
-0.00063388511860254092
7.2436268068143583e-07
9.386955888005829e-08
1.0626754545708819e-05
0.0276159451091595
0
0.00097626149649490299
-0.00017857109560624225
-0.00027283172965815634
-5.2542936523148973e-06
-0.00085634534089744818
0
0
-0.0039352373747726594
-0.00014976994614956086
-0.00010354153427252164
-0.0063764436871526376
-0.0055196658624904931
-1.8819922731433197e-05
1.3726301160711512e-07
0.0015504820698728837
-7.2329532097335273e-05
-0.0070046321308513369
-0.0026133349779809112
0.00142414456290714
-0.0019939944322093614
6.522494480257645e-05
0.00052262634263210812
0.00038150166775546829
0
-0.010059250887007294
-2.1407389781389474e-05
2.2674349218684091e-05
-0.004632205439001739
-0.014228993213372506
0.0006930488947708834
-0.0017273184137743306
-4.6755346353895832e-07
-5.5047596537565916e-05
-0.00066519376314279712
0.012273219344815461
-0.00017008101999035802
-4.9754865841872558e-06
7.7528276040156001e-06
0.00047864929029624607
0.0005854261737595199
0.0098405108479005209
-0.0027958888030478104
-0.0011865089242647493
-2.3481805472189551e-05
0.00092918054705403179
0.0027229750188102705
0.0028840100018460483
0
-0.0036223212636643277
0
-0.00021438479672932203
-0.012703106355809495
-0.00019670950561665877
-0.0077410838345782912
0.010181935798506715
-4.6833673811534242e-05
-0.0048065154332195791
-0.030415220090943749
-0.0033987726548840545
0.00090049353516737302
-0.0017233831739955192
0.010312014629796341
0
-7.2743632534498742e-05
-0.0011868630031490999
0.00045474530035927483
-0.0030245679253815103
0.00043464176769893712
-1.4642589949881203e-05
0.035280052787094007
0.0018713664965060697
-0.002479206212707496
0
-1.4134143549541031e-05
-0.00052700630708907325
-0.0025729098435204132
-0.0001249501364903606
0.00058490614304427949
0.0068964288500022973
-0.0028747382729739281
1.7826165770013847e-05
0
-0.020058811301532663
-4.9910350238018427e-06
-0.0017961126820398956
7.6399482598173688e-05
0
-0.00087261243498740876
5.59304220064614e-05
0.0098992451690849848
0.0019053221196242125
0.0053675055648158563
-0.001736766074103273
-0.0040561820142637752
3.1760709052736285e-05
-0.0068937327321394164
-0.0049226625423462239
-0.005964815251129402
0
0.0027144969974464625
-4.553567561042316e-05
0.0036539508859534013
0.00065381861072608734
3.3595994927191278e-05
0.0016687704339221237
-0.017517941930765352
-0.010808577256720577
4.1915251919254682e-06
-2.3089959116837503e-06
-1.2172182279889501e-08
0
-0.0011217863408483242
-0.0021987496009194894
0
0
0
0
0.0007460784556730123
-0.00067546047919942462
-1.5440417160633084e-06
0
0
0
0
0
0
0
-3.6939377019149724e-06
0
0
-0.00031499154065014188
0
0
-4.0280096745469515e-09
0
-9.1150133569933915e-07
0.00017584022257221567
0
0
-6.685403814561797e-10
0
0.00052494529259335099
-0.0038340345758452275
0
0
-1.6814583923790048e-07
0
-1.0262494576624418e-06
1.5966268515569859e-05
-8.0697644317505174e-11
0
-2.2925632645878523e-06
0
0
0
0
0
1.8582174901813629e-09
0
6.1202255758757671e-07
0.0012237388782623173
0
0
-1.1294880620440094e-08
0
-5.16406474605551e-05
-0.00051189061966019195
0
0
-8.579581777447419e-09
0
0
0
0
0
-1.7066665675279868e-07
0
0
5.1420748993733441e-05
-2.6497210824533984e-06
0
2.6921398630621433e-06
0
0
4.3421733734713454e-06
-1.7029932320226713e-06
0
-8.3894593749978222e-08
0
-8.4794006380282846e-05
-3.6212042115686852e-05
-4.8527661427748208e-08
1.2451254280873791e-06
0
0
0
-0.00053697723397074665
-3.7486731500991444e-07
0
-7.6270544695686389e-10
0
0
1.6439769211603352e-08
0
0
1.2740517346061764e-08
0
0
0
0
0
-2.8368811075580564e-07
0
0
0
5.0694567344716145e-07
2.6901195395974675e-06
3.8136917158099304e-08
0
0
0
0
0
0
0
0
0
0
0
0
0
0
0
0
0
0
0
0
-7.9239446403441601e-05
0
4.1762438751778413e-06
-1.5798965728533761e-06
0
0
0
0
1.6624326157805314e-08
1.3581144534383368e-08
0
0
0
0
0
0
0
0
0.00014156860091504039
0
0
0
0
0
-2.8630322014249391e-05
0
0
0
0
-2.4916038357794114e-06
0
0
-7.4994223195376354e-07
0
0
2.0703144179984253e-06
6.7364607635254274e-05
0
0
0
0
2.0915265526526143e-06
1.8709348854065186e-05
0
0
8.1366464003425697e-08
0
0
0
0
8.3151315656336137e-07
-5.6437726699249864e-07
0
8.170605843977755e-06
-0.0016953373439713391
-0.00027249042892933152
-0.0011670285003763537
-0.00035059489102130543
0
0.00021162471658160126
0.0052615609959493301
-0.00082549350178401392
0
6.0096758257794856e-08
0
-0.00013565331471326078
1.1184519993648448e-05
-3.0469588957121802e-11
0
-7.880009912039446e-05
0
0.00074730680039757406
0
0
0
-2.8224854429593663e-08
0
0
-0.0010983585481998239
-3.3287413383015002e-05
3.0648623610031288e-06
-7.1669810481157036e-09
-1.0931592487658037e-05
5.7778123950139292e-07
4.624182734945287e-05
-0.00047039717405097578
-1.0480853804757665e-07
2.1212161509067093e-10
-1.2986123475599711e-08
-0.00154848377704302
-0.0022318075263570028
0.00035982859695558433
0.00010130550187208079
-4.0146761220597378e-05
-4.9696947004439265e-06
3.0975956149974709e-07
-0.0001277432172953005
-0.00052746356338038947
7.7134030375212044e-06
-1.1943084750644784e-08
0
0.0078687234155601585
0.00044610863431492195
0
6.2935406607891474e-05
-6.066597237305793e-05
0
0.00024876249263900069
-0.0023536495179109006
-0.0020875390082618676
-0.00057633952789321757
8.3703953453957843e-05
0
-0.0020511994249783651
0.0022407413838659777
-0.00011290491311085188
-0.0011972031614571081
0.00099016657885850779
0
6.2988716097674364e-05
0
0
-0.00038761794751554718
-0.00151444317751891
1.1934201289755897e-06
4.0170209497385934e-05
0.00025410405149345859
-0.00098153650129062086
0.0011017349284136433
3.7745838343872985e-05
0
0.00046788510142540808
0.00024199172621436709
-0.0001989705238372909
-0.00021169105557943956
-9.7027304590409827e-08
-7.2914394315917836e-06
-0.0067265846428187547
-0.0002179543190815716
-1.0004311094936254e-05
0
9.0191069769107803e-06
0
0.011621824918491376
0.016460101678832054
0
0.00014972211603742815
-0.000755892865637331
0
-0.001556541472432615
-0.0040208220306365301
0.0032898070508203931
0
0.00022025140217891254
-3.3192980200541234e-06
-0.00013657480249545608
-0.0084646422533520144
0
0
-0.00055927374819338626
0
0.016148926191786053
0
0
0.00031984059573330308
-6.3265223463942146e-05
3.4834282936080697e-06
-0.00049052111484418305
5.005934299854269e-09
0
0
7.3959147163585162e-06
-3.3715043682947747e-07
-0.01743017198295306
-0.0010655191159254914
-1.7271383885746617e-05
-0.00047378239252003434
-0.00054557259325156834
0
0.0011697547286456714
-0.00011714800967328799
-1.9466577455448568e-06
0.00017497883379872706
-3.3765728166005567e-05
0
-0.0050102459883939864
-0.0022925332755298891
0
0
-3.8356423203841977e-11
-4.4458919214335876e-06
-0.0010521700014810636
0.0011549586444521128
0
0.00054555421849164802
-0.0013678440211081747
0
0.0012754574178467887
0.0018497539609573814
-0.0011404223537564277
-0.00021720024530661494
0.00018009009116418709
0
-0.0063849856798212125
0.0046704050623444767
0
0
0
4.0916308239493743e-07
0.0024156285121002489
0.0075588349243327522
0
0.00058336317943815156
0.0013357665890643892
0
4.0169309368970295e-08
0.0067030569589192407
-0.001185696065222967
7.7601450966584623e-05
-0.00045830581119741875
-3.3826853968851653e-06
-0.0026911717456603946
-1.5989221022149969e-05
0
-0.00026821386785258656
-1.8570514378165901e-09
-1.6227205376259413e-06
-0.00010735483489601088
-0.00099565442100804842
-7.0595298888416944e-05
-2.959645590162488e-06
0.00095222165296868114
0
4.3080832215252495e-05
-0.0045794666173899498
3.1803186503049272e-05
3.135749148036266e-06
-0.00010613391001681444
0
0.0068027458001772593
-0.00079369779849183808
8.6665230442001125e-06
-0.00017205296655630652
-6.8119476660347146e-08
0
0.00020059300794037502
-0.00016659160779710342
0
-1.7017081796877096e-05
-1.838173446082378e-07
0
0
-1.305012876815786e-05
1.9573022639368296e-05
0.00045037545552866848
9.5686842382606099e-05
0
-0.00026515233580110497
-0.0024445276693901997
0
0
-1.4151030514676315e-05
1.1030844661922123e-05
8.2506486963244158e-07
0
0
0
4.9091789904216595e-05
0
-0.001644131312265261
-0.00034531358369752042
0
0.0010744906264286808
-0.00013664769551102201
0
0
0
0
0
7.2438891062681392e-07
9.386955888005829e-08
-1.0626754545708819e-05
0
0
0
-0.00017422014392425581
0
-5.2542936523148973e-06
-0.00085634534089744818
0
0
-0.00092026655070107739
-6.9895203879852494e-06
-0.00010354153427252164
-0.014970477271709099
-0.00012854268631711243
1.8819922731433197e-05
1.3726301160711512e-07
0
0
0.0011853243213417026
0
0
-0.0012344407548066033
0
0.0013664545016001482
-0.00038150166775546829
0
0
3.8960292182731582e-05
0
0
0.0044045392030597746
0.0006930488947708834
0.0011107786063946018
-6.1095109501791962e-07
-4.3841026066422922e-07
-0.00053753511564555163
0.0043659461936268731
-0.00017008101999035802
-4.9754865841872558e-06
7.7528276040156001e-06
0
0.00025357820720172178
0
0.0015567620466140383
-0.00015141301293937191
-7.9232985667700891e-05
0
-0.0054288979560204124
0
0
-0.0004887306291131311
-0.00053304409248155062
0
7.5841461514769551e-05
0.0024187781688994074
0.00069498046603278245
-7.8280140163670373e-05
-4.8677879048132891e-05
0
0
0.0010909236228428603
-0.00014898260643362091
0.00014454278180562599
0
0
-0.00017385184729144633
-0.0013214505338101522
3.9118540304514373e-05
1.0799825240798781e-06
2.6517665788910278e-05
0
0.0016074414911304729
0.0016592217959918939
-0.0004811939701193698
0
0.00014670248735040479
0
0.0042346616307221453
-0.0001249501364903606
-0.00057876786872139408
3.401817565841435e-07
-1.4982063643631178e-06
0
0
-0.0027920393849034577
-4.9910350238018427e-06
-0.0011939513389555971
0.00044642246741726578
0
-0.00086350476285319909
-5.59304220064614e-05
0
-0.00010743130862030853
0
0
0.0022144321161987374
-3.1760709052736285e-05
-0.0014956184943316661
0
-6.6801681185513089e-06
0
0
0.0017492629033784583
0
0.00020792477401552212
8.8536191527879515e-05
0
-1.4173422073507934e-05
0.0035809781722322808
1.2134181977569562e-05
2.3089959116837503e-06
9.8863452819635311e-09
0
-0.0019058314797184206
0.001919110233161448
3.0989012862870665e-05
0
0
0
-0.0023689159533380934
-0.00017751773508178383
1.5440417160633084e-06
0
0.00010750919555542006
0
0
0
0
0
2.043840668805616e-05
0
-0.0037597021295800556
-0.00031499154065014188
5.602056759176628e-05
0
3.8765667218542466e-05
0
-0.00047822422631198247
-0.00049285199659162724
1.9918227954777851e-05
0
2.7644052457302572e-05
0
-0.00052494529259335099
-0.0047313809296352094
0
0
1.0007152518488384e-05
0
-0.0012392715107877501
1.3818689771129859e-05
-8.0697644317505174e-11
0
2.1752017660053505e-06
0
0
0.00016717979696683583
0
0
8.8699657304869849e-08
0
-0.00071745216496941426
0.0012237388782623173
0
0
2.00924132792157e-06
0
-5.16406474605551e-05
-0.00051189061966019195
0
0
9.1517477718118012e-09
0
0
0
0
-5.1207929283047607e-06
1.7283393494775953e-07
0
0
0
1.8639128705499301e-05
0
4.6536934975420744e-06
0
-0.00030736530309280225
-1.7112530385901754e-05
-6.430567897165034e-06
-1.4795304592222602e-05
9.1666490287897657e-08
0
-0.00026895177328487257
-3.6212042115686852e-05
2.6871327890671853e-06
-5.657734333605396e-08
0
0
6.6528382232712542e-06
-3.2303650227803719e-06
-3.7486731500991444e-07
0
-4.1763818693871934e-10
0
0
-1.6439769211603352e-08
0
0
5.8952307254534594e-07
0
0
0
0
0
-4.2594157254250026e-06
0
0
0
-5.0694567344716145e-07
2.697288412239642e-06
1.344429467343399e-07
0
-3.1537375597061252e-05
-0.00020813522114410303
-1.4556033777424448e-05
0
0
0
0
0
0
0
0
0
0
0
0
0
0
0
0
-7.9239446403441601e-05
0
-4.1762438751778413e-06
1.5279954891756069e-06
0
0
0
0
-1.6624326157805314e-08
-8.2389941474192929e-08
0
0
0
0
0
-1.606842411929655e-05
0
0
0
-1.8880494560521156e-05
0
0
0
7.4886088565485171e-06
2.8630322014249391e-05
0
0
5.0851085443402833e-07
0
2.4916038357794114e-06
0
0
-8.3116324392785169e-07
-1.902257105654037e-06
0
0
0.00013958308350352184
-1.6893156933850969e-06
0
-9.4775461982433259e-06
0
-3.3435623673892959e-06
1.8564809595087636e-05
-5.5817942389297825e-07
0
6.7525067834883542e-07
0
-0.00028303644957443418
0
0
-5.5003290307200827e-05
5.2757251882630561e-07
0.0012078830343389961
8.170605843977755e-06
-0.0016326118569720037
-0.0029807597112290049
0.0045565717689703663
-0.00015570436857256727
0
0.0032077371404582878
-0.0052615609959493301
-0.034649887429130027
0
-5.6690484983271608e-08
0.00017360288802889873
-0.00013565331471326078
5.4001152380452711e-06
3.0469588957121802e-11
0.0025106988713003067
0.0056435372536238777
0
0
0
-0.046676852531499322
0
-1.2599197074076518e-08
0
0
-0.0032336942648159847
-4.2859886900229436e-05
-0.005427742305865714
-5.1698590152825157e-09
4.4144819055977253e-05
5.7778123950139292e-07
0.0029770164064016123
-0.0056254223698650099
-0.010949487855052486
2.2028602597169904e-10
-0.00024208805243826283
-0.0081032439530488009
-0.0080418801275161256
-0.00037821419206725639
0.00010130550187208079
0.00015717139155096405
-4.6371502963872286e-05
3.0975956149974709e-07
-0.0014820758705327455
0.0010596457864650924
7.7134030375212044e-06
7.0482214430370968e-05
0
-0.0047123665830968364
0.00044610863431492195
-0.00033888845370043836
5.3501522342800123e-06
1.4411165912212735e-05
0.00038418369766761153
0.00024876249263900069
0.0012766939983776906
-0.011034714359716341
0.00059290180534924428
-0.0010230184800870887
0.0037411842497486669
0.0020511994249783651
0.016126909965720148
-0.0026478618108251644
-0.0051685821757400984
-0.0025572939145161048
1.9514804072266963e-05
0.00060779599194815746
0
-0.014032518308367927
-0.0051892163109584196
0.00064081584257102801
0.00041860896834205742
0.00016163194497166499
-0.00022697047422441609
-0.0001382706548832601
0.00027765715021617972
-0.01063558694620137
0
0.00066259132267125151
-0.00024199172621436709
-0.013336139290610326
-4.3135818779378661e-05
-1.7654340545955932e-07
6.1165472397547961e-05
0.0067265846428187547
0.0064063587802639646
-1.0004311094936254e-05
-0.015639350602865854
9.0191069769107803e-06
0
0.012008145956523317
0.0038481383605313262
0
-0.0045354663070954187
-0.0022211283119645971
-0.00099602584656283718
-0.001556541472432615
0.0029149174298959057
-0.0032898070508203931
0
0.00011208353296384072
-3.3192980200541234e-06
-0.00013569071157349755
-0.01071541154510048
-0.0057012036568973423
-0.0030666538030090485
-0.0021116659604493559
0
-0.0014229727612185532
0
-0.0060216767737871005
-0.013199725167342974
-8.8809645819611761e-05
-0.00036942867588013326
0.00050747098100369895
0.011092194543755795
-0.003247228023493527
0
7.4545123249051307e-06
-3.3715043682947747e-07
-0.001256287353643048
-0.0052365866731204982
-0.0027841989851923612
0.00068481689449203229
-0.00016547505889140718
0
-0.0011697547286456714
-0.00033119681257853551
1.9466577455448568e-06
0.00049308927311951468
-0.00010375207121594348
0.00019550665946580257
0.00019965379706039384
0.0024288772131521768
0
-0.034595713502607532
3.1862815139765092e-11
1.2547624682694805e-05
0.0012349153967563819
-0.0011549586444521128
0
0.0028982183777837693
0.0027620424140723811
0
0.039478641372673658
0.0031271216172535843
0.0040521375322856859
5.2399692128074916e-05
0.0002276663247028215
-0.0004179276078339878
-0.0057704856675283482
0
-0.0042679182405199381
0
0
4.0916308239493743e-07
-0.0055842116293860385
-0.0052061430183148166
-0.013262462093039351
-0.00058336317943815156
0.0015734398815510228
-3.5602880763386908e-05
-4.0169309368970295e-08
0.0010639683336398787
0.0051352173283538919
0.006280447180003995
-0.00045832917522722606
-3.3826853968851653e-06
0.002317064699422272
-1.5989221022149969e-05
-0.0045523285417166659
0.00026821386785258656
-9.6948734571551887e-10
1.6227205376259413e-06
-0.00010735483489601088
0.0029665518533206303
-7.0595298888416944e-05
-0.0032186363580707822
-0.0017527663494377468
0.00043001257560805906
-0.008783071811970862
0.0060576464428527535
3.1803186503049272e-05
3.1506991102425256e-06
-0.0021616554811064626
0.00038555939934548436
0.0071970134498544691
0.0079906541177008766
-2.206212317020154e-05
-0.00017205296655630652
2.0700368573148459e-07
-0.0001614898666030568
-0.016132400082174949
-0.012803016792661364
-0.015332200540812677
0.0017470556261492888
-2.2448574217364073e-07
0
0
-3.5680307705090903e-05
0.0061189014915614985
-0.0014220192167279163
0.0061143888418958613
3.628464196049463e-05
0.011349078001408004
0.0053949101761347189
0.0019911839125521988
0.0046864888932000321
3.5832214400808863e-06
-0.0001739768938573563
-0.0073286556046068627
-0.048823667663176112
0.020383824354568335
0.009786452241177435
4.2204156409069335e-05
0.00051655763084965719
0.001644131312265261
0.00034531358369752042
-0.022278712598506625
-0.0011898860920991959
4.5535288755640374e-05
0.0010031133147902801
-9.2398178551731064e-05
0
0
0.00063388511860254092
-7.2439922276578061e-07
-9.386955888005829e-08
-1.0626754545708819e-05
0.0276159451091595
0.0057763312357370948
-0.00097626149649490299
-0.00017914124277266467
0.00034362910230894818
5.2542936523148973e-06
0.00085634534089744818
0
0
0.0017254022157293684
1.9150445099891377e-05
-0.00010354153427252164
0.002948516349138054
0.0065124433310660788
1.8819922731433197e-05
1.3726301160711512e-07
0
0.0082978920042724395
-0.0013664350681353433
-0.0026133349779809112
0.0018349743259844736
-0.0012728512055043585
-6.522494480257645e-05
0.01020796569685267
0.00038150166775546829
0
0
3.8960292182731582e-05
-2.2674349218684091e-05
0
0.0078264129035727128
0.0006930488947708834
0.001976671189349243
-5.7484470524506077e-07
0.0001219396066281568
-0.0063844175423850551
-0.0026228079885819784
-0.00017008101999035802
4.9754865841872558e-06
7.7528276040156001e-06
-0.00066219380289845014
0.0055522454406198617
0.0017264628503169206
-0.0093000551930315523
-0.006061196237663791
-0.0002506285221218382
-0.00064525321467756081
-0.0068205958740449497
0.0028840100018460483
0
-0.0021970401289811555
0.00053304409248155062
-0.00033155533225816763
7.5841461514769551e-05
0.0036133606297983185
0.00069498046603278245
0.0066464143106464901
8.3658161744668024e-05
0
0
-0.0020321033919173241
0.00098071001200596814
-0.00014454278180562599
-0.00027114314562398943
0
-0.00014200958093710673
-0.0003553650407155039
-0.00017296804374664142
0.0033764805575865922
-0.0011813634321625078
-0.00011455837051382677
-0.039885039338607965
-0.0021928287060478638
0.00010699391611906242
-0.0026148544330221032
0.00048133579509632032
0.00044282962997263439
0.0041609847047258822
0.0001249501364903606
0.00059018702613189552
3.401817565841435e-07
0.0019704175492271164
1.7826165770013847e-05
0
0.0013921469795371052
-4.9910350238018427e-06
-0.00016520081391872948
0.00047656963811548253
0
-0.00086128330565614353
-5.59304220064614e-05
0
0.014812645706413557
-0.00026508665950262438
0
0.010050313662966036
3.1760709052736285e-05
0.0042236954400209272
-0.0019707487574570567
0.0028420550918923241
0
0.013450407135295391
0.0066227113594230372
0.00099374595570873186
0.00068226376194054355
-0.00011030251284224746
-0.00069803883250600229
-1.4173422073507934e-05
-0.007078236256790456
-4.2209644360930399e-06
-2.3089959116837503e-06
4.8087208203133933e-09
0
-0.00010116436234266491
-0.0017563306714065904
0
0
0
0
0.0007460784556730123
-0.00084883018888887943
0
0
0
0
0
0
0
0
-5.3970304687697396e-06
0
0
0.00031499154065014188
0
0
-2.2990147450790783e-05
0
-2.7021778219106389e-05
0.00024146245291942024
0
0
6.685403814561797e-10
0
0.00052494529259335099
-0.00072019483723293495
0
0
1.6814583923790048e-07
0
1.0262494576624418e-06
1.4562515868388871e-05
-8.0697644317505174e-11
0
-1.914980851021036e-07
0
0
-0.0021077818134755551
0
0
-5.5535734866834152e-08
0
0.0004200194085070795
0.00015588393506948541
0
0
1.8285401744022318e-06
0
5.16406474605551e-05
0.00051189061966019195
0
0
-1.3693791679370827e-08
0
0
0
0
0
9.8136977251376876e-08
0
0
0.00028561376496686572
-8.6501059835471219e-07
0
-2.6915951866874065e-06
0
0.00030736530309280225
9.1798230070732818e-06
-7.1074257784260347e-06
-1.4795304592222602e-05
-8.9556975445240964e-08
0
6.5135050923960326e-06
-3.6212042115686852e-05
-2.043905887635947e-07
5.9933735779001155e-07
0
0
6.6528382232712542e-06
-0.00054214053614662025
-3.7486731500991444e-07
0
-1.3306606459164424e-09
0
0
-0.00027558959899726847
0
0
5.8722389043150719e-07
0
0
0
0
0
-3.1335604247611586e-06
0
0
0
-5.0694567344716145e-07
-1.0555115063365242e-06
-1.0339006899521277e-07
0
0
0
0
0
0
0
0
0
0
0
0
0
-8.5414508020272286e-05
0
0
0
0
0
-0.00017623247130712946
7.9239446403441601e-05
0
0
-7.4188571399036087e-06
0
0
0
0
-1.6624326157805314e-08
2.4042103798621905e-08
0
0
0
0
0
4.3534542123709015e-08
0
0
-0.00013758870517398497
0
0
0
0
-7.4886088565485171e-06
2.8630322014249391e-05
0
0
5.0851085443402833e-07
0
-2.4916038357794114e-06
0
0
9.9909099202248389e-07
1.902257105654037e-06
0
-2.0703144179984253e-06
6.4256872498360767e-05
-1.6893156933850969e-06
0
0
0
-1.3910445923503488e-06
-1.3725232854224319e-05
-5.5817942389297825e-07
0
9.0679225047840187e-07
0
-0.00028303644957443418
0
0
-1.219769729057394e-06
-4.2085877166143777e-07
2.733880251288538e-05
8.170605843977755e-06
0.0012389697402783928
-0.00027249042892933152
-0.00029794666236605593
-0.0003855215618421558
0
0.00021162471658160126
-0.0052615609959493301
-0.0015417438599027574
-0.0023435420141924516
1.7282038661444403e-08
0
0.00013565331471326078
4.5226081367472029e-06
3.0469588957121802e-11
-0.00021252164826993992
-7.880009912039446e-05
0
0.00074730680039757406
0
0
0
6.3039280122112901e-09
0
0
0.00099419007378832294
-3.8630747739015353e-05
-3.0648623610031288e-06
-1.217619793707801e-09
-9.4436558547512107e-06
-5.7778123950139292e-07
0.00076019492879886936
0.00013482547207352674
-1.0480853804757665e-07
2.0724440351570802e-10
-1.2986123475599711e-08
-0.0039313297442932988
-0.0013258302948156735
-0.00084714922062063532
0.00010130550187208079
-0.0001837349212015271
0
-3.0975956149974709e-07
-0.0019857684371044544
-0.00054249096760376433
-7.7134030375212044e-06
-1.1943084750644784e-08
0
0.0040638603987748897
-0.00044610863431492195
0
-3.9618908638214765e-05
3.8140109538097672e-05
0
-0.00024876249263900069
-0.0017567005028053509
-0.0020875390082618676
3.6179155227443387e-05
-0.00011711922814011172
0
0.0020511994249783651
-0.0011061620481631702
-0.0031178341505535348
-0.0031144747227013071
0.00036728968260731201
0
-0.0083592641170262584
0
-0.0013588221218745922
-0.0019174585284344736
-0.00073127671624480988
1.1934201289755897e-06
7.0885984825040999e-05
0.00095211552021208729
0.0008110263532399198
-0.00054566781319644617
3.7745838343872985e-05
0
0.00021213707711373715
0.00024199172621436709
-0.00046111502353549642
-0.00025405964053856056
1.1846674034421309e-07
-2.0233095467522137e-05
0.0067269676379094817
-0.0069338427528797802
1.0004311094936254e-05
0
-9.0191069769107803e-06
0
-0.011818459819324041
-0.00018805549097030176
0
-0.00080232472725813553
-0.0018567994602087423
0
0.001556541472432615
0.0040208220306365301
0
0
0.00012437060544205679
-3.3192980200541234e-06
0.00014838426119924815
0.012804720910670829
0
-0.0040686414721608838
-0.0010682736484248325
0
0
0
0
-0.00081325847953506506
-3.814494061165493e-05
0
-0.00047804227021159586
-5.005934299854269e-09
0
0
-7.654559710383767e-06
-3.3715043682947747e-07
-0.0011745019352881517
-0.0048729798524923566
-0.0042743386289678499
0.00071900077897007098
-0.000556295507062124
0
0.0011697547286456714
0.00040219053204426755
-1.9466577455448568e-06
-0.0026399378556445185
-3.6563017711958441e-05
0
0.00019965379706039384
0.0024288772131521768
0
0
1.1037891734316022e-11
-3.0776735860505671e-08
0.0024090741084281135
-0.0011549586444521128
0
-0.00020490169611085817
-0.00086331470548215252
0
0.0010734425031946101
3.0067118796522717e-05
0.00051380559518821999
9.6792439041579274e-05
0.00028282976863037372
0
0.00050506984078199407
0.0046704050623444767
0
0
0
-4.0916308239493743e-07
-4.5744155066942415e-05
-0.00019920524109386708
0.00258048177236758
0
-0.001477095204199074
8.9546713017495784e-06
-4.0169309368970295e-08
-0.01049648246746258
-0.00057659274067016822
7.7601450966584623e-05
-0.00045829725259252083
3.3826853968851653e-06
0
-1.5989221022149969e-05
0
0.00026821386785258656
-5.47886869777949e-09
1.6227205376259413e-06
0.00010735483489601088
0.0020915918304231554
-7.0595298888416944e-05
2.0724807946707428e-05
0.00055339355351312401
0
0.01111855574240737
0.0050133650525040893
3.1803186503049272e-05
-3.5181393566920495e-06
-0.00054144184617497323
0
0.0073084727339014846
0.00079369779849183808
4.9170125005326943e-05
0.00017205296655630652
4.5950031897370476e-07
0
-0.00020059300794037502
0.00016659160779710342
0
-0.00019357612470649081
7.3886134102267119e-09
0
0
-5.8749558540334271e-06
1.9573022639368296e-05
0.0012175590887141051
-0.00016229023270590627
-4.1165082807041892e-06
-0.011354593907353355
-0.0039649436619927673
0.0019911839125521988
0.0046864888932000321
-6.4649651878126984e-06
-5.3583595680873317e-06
-8.2506486963244158e-07
0
0
0
0.00014054032164128699
4.6155249043032461e-06
0.001644131312265261
0.00034531358369752042
0
0.0011898860920991959
0.00010960274869145327
0
9.2398178551731064e-05
0
0
-0.00063388511860254092
-7.2437885506794608e-07
-9.386955888005829e-08
-1.0626754545708819e-05
0
0
0.00097626149649490299
0.00017700173995378483
0
-5.2542936523148973e-06
0.00085634534089744818
0
0
-0.0013431624936001778
-1.2059230600942409e-06
-0.00010354153427252164
0.00041629992561292839
-5.5113551075222753e-05
1.8819922731433197e-05
1.3726301160711512e-07
0
0.0084425510684671117
0.0054134675490969631
0
0
-0.0003065839886733612
0
0.0018983209790988916
0.00038150166775546829
0
0
1.0171537405618415e-05
0
0
-0.0078264129035727128
-0.0006930488947708834
-0.0012320887959309682
2.9847722156017919e-07
1.1169642372011364e-05
-0.0047421511824155584
-0.0031269722981666958
0.00017008101999035802
4.9754865841872558e-06
7.7528276040156001e-06
0
-0.003326437103084019
0.0017264628503169206
0
6.4749578420143664e-05
-0.00013827403186651932
0
0.0042425418763799069
0.0028840100018460483
0
-0.0004887306291131311
0.00053304409248155062
0
0
0.0021806563699785344
0.00069498046603278245
-0.00016755826329932879
-7.073570397956726e-05
0
-0.0033335444626836938
-0.0020209807122691793
-0.00015572574102122534
0.00014454278180562599
0.00027114314562398943
0
-0.00013136367450981273
-0.00014785488155550871
-0.00017828971139671225
-0.00012331041464343337
0.00043401293804947431
0
-0.0016074414911304729
2.8819353684545406e-06
0.00080749568482708998
0.0026148544330221032
2.6933660287903338e-05
0
-0.00080117852423837194
-0.0001249501364903606
0.00027808062363293126
3.401817565841435e-07
-0.0012549703021221327
-1.7826165770013847e-05
0
-0.0016069957328471245
4.9910350238018427e-06
0.00080995290122961141
0.00016382885182813603
0
-0.00093592865294680138
-5.59304220064614e-05
0
0.00011892799849723681
-0.00034219245473268668
0
0.0018185020575967918
-3.1760709052736285e-05
0.0014956184943316661
0.0006284820387835935
6.6801681185513089e-06
0
0.0019855562408031902
0.0073980102135191086
0.00099374595570873186
0.00016039473451307594
5.2844337206286552e-05
0
1.4173422073507934e-05
-0.0015346580388522287
4.1577109385540798e-05
-2.3089959116837503e-06
1.4274883814968167e-08
0
-0.0003190234444448932
-0.0026873118201298117
-3.0989012862870665e-05
0
0.00076838885743505737
0
-0.00083572719057598368
-0.0017018084031700878
-1.5440417160633084e-06
0
0.00027734592812821742
0
0
0
0
0
3.9289073765804354e-05
0
0
-0.00031499154065014188
-0.00013528718316385631
0
1.576343573872804e-05
0
-0.00014880006412031481
-0.00042428065238570212
1.9918227954777851e-05
0
2.7642715376539657e-05
0
-0.00052494529259335099
-0.00044982257585446378
0
0
4.4811296389902505e-05
0
-0.00039529359651577304
-1.5369080618820869e-05
8.0697644317505174e-11
-1.2484949690668746e-05
1.6030007017274518e-05
0
0
0
0
0
4.0581315561632421e-09
0
-6.1202255758757671e-07
-0.0013796228133318028
0
0
-1.8522175802099018e-06
0
-5.16406474605551e-05
-0.00051189061966019195
0
0
2.3517567851916304e-08
0
0
0
0
-4.0650655688323683e-05
1.9640003702708109e-08
0
0
0.00054516546552374695
-1.7630432506556389e-05
3.6486452675761997e-05
3.7540360728210306e-05
0
-0.00030736530309280225
1.338178359927415e-05
-8.4805061487119296e-05
1.4795304592222602e-05
7.1524807114583641e-08
0
-5.4991306388292642e-05
-3.6212042115686852e-05
1.1512421629286587e-06
-2.1467950184447481e-09
0
0
-6.6528382232712542e-06
-1.015641023024459e-06
3.7486731500991444e-07
0
8.7196214531444412e-10
0
0
-7.2753628400149244e-06
0
0
-5.5522769355175194e-07
0
0
0
0
0
7.90270338316628e-06
2.9502635872004004e-07
0
0
5.0694567344716145e-07
-2.4889500601446399e-07
8.553176490644166e-08
0
0
-0.00020813522114410303
1.4556033777424448e-05
0.0003230962315645743
6.9625742493167235e-05
0
0
0
0
0
0
0
-8.5414508020272286e-05
0
0
-0.0002727998370099782
0
0
0
-7.9239446403441601e-05
0
4.1762438751778413e-06
6.4786982699424655e-06
0
0
0
-0.00022097921780036824
1.6624326157805314e-08
-4.4069820169365382e-08
0
0
0
0
0
1.5981355035049132e-05
0
0
-0.00018661926788901469
0
0
-2.7673865048066403e-05
0
-7.4886088565485171e-06
-2.8630322014249391e-05
0
0
-5.0851085443402833e-07
0
-2.4916038357794114e-06
0
0
0.00020358915893815436
7.1668041619452387e-06
0
-2.0703144179984253e-06
0.00025508486266096538
-7.7424184996944188e-06
-0.0001725825475709746
-1.430971358257897e-06
0
3.1424408765361458e-06
-2.183121464535691e-05
-5.5817942389297825e-07
0
2.8044030234295806e-06
0
0.00024276653278488609
0
0
-3.978238054082731e-06
-5.629456440070827e-07
0.0013583135533081908
-8.170605843977755e-06
0.0023472109936534596
-0.0036585127409133333
-0.0046964559586882976
-0.00097994838979360691
0.0086100850338929578
-0.0082822612469978345
-0.0052615609959493301
0.041533136706613662
-0.0023435420141924516
-4.8229576918662414e-08
-0.00017360288802889873
-0.00013565331471326078
9.9730693917166795e-06
-3.0469588957121802e-11
-0.0063809558038804472
0.0011765617918886003
0.001384091104050353
0.00074730680039757406
0
0.019651538962224189
0
3.2240149043911889e-08
-0.0066667150645469322
0.015260429081310362
0.0073059093683673498
2.2687512509385196e-05
-0.0060666846523101496
7.3749889118529701e-09
4.3943961609670868e-05
-5.7778123950139292e-07
0.002664468455799636
0.0084056654448352568
0.011511494444173343
2.3227277089145947e-10
0.0012353172429875828
0.0056527625582836784
0.0019990451221552357
0.00087557900759567282
-0.0012880909266569113
-0.00014956824612471795
-1.4562615587807692e-05
-3.0975956149974709e-07
-0.0022713993421921205
0.00099590140267433657
0.011196901322377016
0.0010188787228615096
0
0.0019129696951079591
-0.00044610863431492195
-0.009660808058230554
0.041065801524360387
6.066597237305793e-05
0.0060545969776494742
-0.00024876249263900069
-4.2401259991219054e-05
0.013475669956592877
-8.7654128497683751e-05
0.0016838841786812255
0.0062461213845859623
-0.0020511994249783651
-0.0048475526674796295
0.011818158722774065
0.0080192835504098517
0.00026982501339435199
-0.00068011409524254096
-0.021917407632904631
0
-0.0047684162880230691
-0.00097826371979056487
-0.0014536640945348217
0.0051944263928303328
9.3126032202637315e-05
0.0014332406342674757
-0.0011018179809381581
-0.00040375259321603712
0.0033065919274544572
0.00090558179443910004
0.00091371929781344026
0.025174797504351344
0.0003977640871734064
0.0015448353211202513
-1.9233616914589649e-07
-3.6033297064201829e-05
-0.0055787174714434003
-0.0076041410212184385
-1.0004311094936254e-05
-0.015639350602865854
0.0021360250083490764
0
0.011400099047530584
-0.0058746387655477066
-0.028652513293494067
0.0032709951947434476
-0.0023880151375605956
-0.00058213340075764005
0.001556541472432615
-0.0040208220306365301
-0.0032898070508203931
0
4.2587215559735904e-05
-3.3192980200541234e-06
-9.7559541805858349e-05
0.0039381160483839706
-0.032332284750033954
-0.0029091537776507123
-0.0028457431955938518
-0.0047673733310428009
0.0012657144517035446
0
-0.0060216767737871005
-0.015848170138797569
-0.00024738276744800899
-0.00054338250554628953
-0.00050908598479172673
-0.010685919176219603
-0.003247228023493527
0
-7.5111253689110903e-06
3.3715043682947747e-07
-0.0010600107250599653
-0.011616891642897049
0.0027881059376823861
0.00026002908405809572
0.0027887043315450036
-0.002128487338635797
-0.0011697547286456714
0.0003590436416889778
-1.9466577455448568e-06
-0.0019940228946940678
-0.00010945576684870569
0.00019550665946580257
0.01789778648149961
0.0021500384248867251
0
0.0079757262974307942
-3.6687746377401848e-11
9.0972304186089376e-09
-0.0032338869777313382
-0.0011549586444521128
-0.043841166850003332
-0.0049432016555298192
0.0035477753982959045
0
0.0052055538850980182
0.0023995299261377052
0.0022154430051947198
-0.00026649441412796937
0.00017353618378432024
0.0004179276078339878
0.0069111030869484667
0.0046704050623444767
0.0042679182405199381
0
0
4.0916308239493743e-07
0.0063719822163164656
0.014024123734030407
-0.016456152939136538
-0.00058336317943815156
0.0015750681543370087
-0.0040973635247642925
-4.0169309368970295e-08
-0.00022038134368289645
0.00018883983919280607
0.019034784168953014
-0.00045829673196233831
-3.3826853968851653e-06
-0.0003416535060386921
1.5989221022149969e-05
0.015249802126120747
0.00026821386785258656
-2.7468866480228001e-09
-0.0022862656644238272
-0.00010735483489601088
-0.086608709533205971
7.0595298888416944e-05
-0.0032060533369178286
-0.00049542618602173153
0.00043001257560805906
-0.011339844431860145
-0.010681842560582086
-3.1803186503049272e-05
6.6515789478302337e-06
0.0052541711935466928
-0.00036415932980951116
-0.0072072872859102388
0.0066069663409886025
4.9170125005326943e-05
-0.00017205296655630652
2.3605111898042193e-07
0.00082026361423814418
-0.00020059300794037502
0.00016659160779710342
0.0053340446880738275
0.00039740327055378879
2.533781646457872e-07
0
0
7.628590630844686e-06
0.0013984733930017704
0.0027178074773118264
-0.0052677329178016539
-0.0014894527313787551
0.00067469002564525798
0.0066248246715124443
0.0019911839125521988
-0.0046864888932000321
-1.5161823912951185e-05
0.00012738885137458667
-8.2506486963244158e-07
0.021509955751141115
-0.020383824354568335
0.0035867108433779225
-3.7692591881352961e-05
-0.0011962491169051756
-0.00046947135215518691
-0.00034531358369752042
0
0.0029291351949868793
0.00015259272604170604
0.00084729815659551956
-9.2398178551731064e-05
0.069049481148291417
0
-0.00063388511860254092
-7.2440126554297547e-07
9.386955888005829e-08
-1.0626754545708819e-05
-0.0276159451091595
0.0057763312357370948
0.00097626149649490299
-0.00018561065387009946
-0.00046142205754117811
-0.02838719805260467
-0.00085634534089744818
0
0
0.0085889522025019514
-0.00012941113572868332
-0.00010354153427252164
0.00053028955867172941
-0.0059111131982614532
0.0014262677128914038
1.3726301160711512e-07
0.00056456506888091632
0.0084425510684671117
0.011080990657119212
-0.0026133349779809112
9.5834888702845842e-05
-0.0025905214349399922
6.522494480257645e-05
0.0046444601975670101
-0.00038150166775546829
0
0
2.5159224996086409e-05
-2.2674349218684091e-05
-0.015248359187738206
0
0.0006930488947708834
0.0025367785347755962
-5.7725928175431212e-07
4.4793534707914884e-05
0.0029574189718491644
-0.0093485557228740225
0.00017008101999035802
4.9754865841872558e-06
-7.7528276040156001e-06
-0.00066219380289845014
0.0070795951085291129
0.01273615971616035
0.005778177687892759
-0.0063565444963791353
-0.0002506285221218382
-3.8578093722504057e-05
0.0037420790301249183
0.0028840100018460483
-0.0097154930923341407
-0.0056701395178730988
0.037722957395909036
0.00050858201699155632
7.5841461514769551e-05
-0.0028389238554688643
0.0037089306844669797
0.0077970662041080257
9.7117103133993342e-05
0
0.0033335444626836938
0.04546650772554503
0.00031388710517058209
-0.00014454278180562599
0.00027114314562398943
0
5.4049031716631583e-05
-3.1553365710007986e-06
0.00028449135232242655
-0.0033059313894330165
-0.00096451014657487986
-4.995789028197278e-05
-0.0016074414911304729
-0.002388684544958206
-0.0027865261160363664
0
0.00070249053524849066
-0.0015802544886105308
-0.0027694471399397165
-0.0001249501364903606
0.0008848529104558587
3.401817565841435e-07
0.0033007758036747692
-1.7826165770013847e-05
0
-0.017670358319516341
0.011569103494416625
0.00039208940560193245
-0.00046029612748759422
0
0.00094322642380505065
0.040945590006527352
-0.0098992451690849848
-0.011297673279176737
-0.0057192362169522894
0
0.010326864964799943
-3.1760709052736285e-05
-0.0063727191704705923
-0.018261233438930196
0.0053274325649106894
0
0.0019855562408031902
0.0025037795141405962
-0.00099374595570873186
0.0041401953725470342
7.4650945103279395e-05
-4.5672598013995493e-06
1.4173422073507934e-05
-0.0084693388156705639
4.4885921032410537e-05
-2.3089959116837503e-06
