0.0987979158386251
0
-0.011379673608282917
-0.0028516325437905735
0
-1.5838393635211462e-07
0.099998585224752384
0
-0.0018161915233559371
-0.042843963778562526
-0.00011328433935460028
0
0.14004662724111333
0
0.0015681425291717713
0
0
0
0.098241264971399275
0
0
-0.006497709931801752
9.6262391075927129e-06
-0.00022462922347534048
0.099564444512191458
0
-0.0058710126848398308
0.00059861111410369826
-1.6453468204916372e-05
0
0.099587589045754973
0
-0.00094268662880803015
-0.0005396147047704254
0
0
0.095606717611975187
0
-0.0017492941336979618
-0.0073108178499355818
0.00026530355788353938
0
0.1002671881092482
0
0
2.1869432331722072e-05
0
0
0.098281560028034759
0
0.00048780362962474105
0
0
0
0.095694234596227085
0
0.0054913724383089729
-0.0014269624182048927
0
0
-0.0086720323175036047
0
0
0
3.911799633045286e-06
6.9161152866666683e-05
-0.00088116958336110812
0
0.0018687176082736422
1.8163118235688285e-06
-3.9882821496677163e-05
0.00074331219594058655
-6.5742895371894962e-05
0
0.0015806809681337324
8.8546025664753758e-05
-5.1711534660566119e-05
0
0.0023013162601550497
0
0.00038673958703243241
0.0011254889079001331
-0.00013110440483431952
-0.00013114017810928456
-7.9576730630318544e-07
0
-0.00033017812143382408
-0.0013001313032284406
6.2583082178923449e-07
0
-0.0042001257171635142
0
0
1.9792856356762571e-06
0
0
0.00022594787798077895
0
0
0
0
0
0.00062574586469225967
0
0
0.0018407362856398654
9.2098237804678792e-05
3.4874100266041573e-07
0.00046090300226304265
0
3.7966061542052144e-06
0
-3.3385071726739165e-05
0
0.00046692368196184827
0
0.0033707108828031581
-1.7521789573055965e-05
0
0
4.8876295837116579e-08
0
-0.00097908304359023944
0.00057332114818341813
0
1.4908225511114353e-05
0.0001158991143859642
0
0
0.00024134449754693716
0
-2.2761801907453111e-05
7.1415457267905979e-06
0
-0.00026484700762615689
0
0
9.5992642735015556e-08
-0.0014691765457720259
0
0
0.00056967738822642896
0
0
0.00011107011714866668
0
0
0
0
0
9.45101099623464e-05
0
0.00067710836854156038
8.7477410977671629e-05
0
0
-1.890525692195589e-06
0
0
0
0
-0.00027077267580486364
0.00018860350047964432
0
-0.00052413171145303196
5.300173492053784e-05
-4.455183563416093e-06
0
5.4654985372822829e-05
0
-0.00097658096636929004
0.0024083467770833356
3.5165796492984455e-05
0
1.1826591048845541e-05
0
-3.9065176922066837e-06
0
0
2.3314736579647089e-07
-0.012948778579281419
-0.00056284315929964405
-0.063992156604486275
0.04497280203961336
0.1174706468775597
0.023880050725037502
0.1274775647897643
0
-0.0057485412741884187
0.029994001411832606
-0.077209542030819589
0.044777181713773449
0.29164211795532691
0
-0.023442380121261364
-0.11561209931405511
-0.035623694730401632
-0.047673886183091096
0.481375669438246
0
-0.021673434810877072
0
0.015489243033598766
0.078198919197877789
0.36960846367771888
0
0.01971479844784222
0.11302006403939968
0.001119728069124686
0.018577840548980394
0.41545972816478149
-0.00025629952649864458
0.045025282564673016
0.15176302682095644
0.033815182483895971
-0.0018531903270103502
0.37770286640182177
-0.0029945958681382003
0.049007825893132823
0.080029997216245194
0.1608498407229989
0.14300422025890785
0.89719189884509554
0.0032875509204395538
0.0089975332524256813
-0.0015842397578625859
0.01714078902557778
0.048493841014394655
0.54897121045528086
0
0.040927899104118169
-0.0025732923945069354
0.011950375793592535
0.033869585703407069
0.70485905477575628
0.0008899464151938079
-0.016133186662449759
0.0094568138550981812
0.036998535756006902
0.15318431753554704
0.80293480753623636
-0.00019574100791332189
-0.034063136140665536
-0.12703001495716731
0.044424518819156496
0.077158083280025699
0.75782162410345455
0.0006438677171705519
0.065567209201610119
0.28887389005441338
0.12441868855673045
0.011913330762239249
0.998175318937086
-7.9698974645168902e-05
-0.12225624143034323
-0.013193656337529728
0.27296850883022511
0.023423434393964021
0.6173447522125336
0
0.0032027128965851658
-0.04710346198067427
0.033526200400244288
0.15887754213228766
0.39277669296532514
5.7335310279422522e-05
0.01176253765877378
-0.047675717732646353
0.17567060647633709
0.19280820080397693
0.38141789276253413
0
0.0072252104294085549
-0.028484229136733943
0.0079503480993526852
0.026133313920914815
0.87997735706728464
-0.00099159126990510738
-0.035455063812862994
-0.014145581840913428
0.081664479452815977
0.22758235690589451
0.64556324659255404
-0.0052801926154594711
0.014418556820229715
-0.21598969354069786
0.11708758785866323
0.096740165442747564
0.67968016149633859
0
0.0032009335170778879
0.14410247547101976
0.12579193717504836
0.11251620459132168
0.51895031067312369
0.00051952682153843968
0.18647546888002139
0.17098737253915147
0.040201933884199931
0
0.82070554707869159
-6.9629739431968328e-06
0.015313276585384467
0.037335163103639053
0.13480075575920886
0.20594312917497223
0.80826932381510086
0
0.014428036398760186
-0.031391148392400023
0.10183168059188188
2.9714194032799678e-05
0.64713309736388402
-0.004612414363461978
-0.19538371957896061
-0.04128487602615314
-0.012464005829177742
0.077616660364779391
0.89193072074815283
0.00029785448072766998
0.022538878491217065
0.00039597640022441235
0
0.08087416129419378
0.95479029132977067
0
0.12681402065685365
0.049916840199876064
0.040422856126173738
-0.067973565229681787
0.62916405141325926
0.0015058448524210718
0.074026301404129399
-0.025782988578888492
0.072211081035412253
-0.00015021455312531112
0.6806204028103251
-7.3746131577749803e-05
-0.020280358570575412
-0.048674537592376166
0.10401914258701284
-0.091888527407620227
0.71580170759965389
1.6113361994784252e-06
-0.073138683742578411
-0.020210513362378772
-0.036675821828006862
0.26415912614488174
1.013843732877022
-0.0014432335291713484
0.00057078916849045546
-0.132771712905835
-0.035983010477107953
0.13014185448234741
0.053513648201090766
-0.00055329117246316736
-0.015149474313920648
-0.014317961035284323
-0.0050926050752143348
0.10378951829472145
0.0089107637317325811
-0.001970245981654687
-0.033014049102400259
-0.064436277476741827
0.0087324341862100134
0.0030572326706105827
-0.0058656596530310369
2.9487095226049576e-06
-0.1016967706103781
-0.056744123212126373
0.028163465286840536
0.00033083898209533129
0.15768543209649044
0.0016232833076902087
0.18622677281676728
0.041993315678303979
0.070582288549657271
0.021121027467058219
0.10409556725388769
0
-0.054042240427647166
0.0017748091784801254
-0.093196409304876743
-0.00079621452709130252
0.08522407126980408
8.6407276371887467e-05
-0.038285056739288927
0.027498938874370781
0.0065202789950923028
0
-0.0068519520359906303
0.00014506216297985284
-0.069298253572753571
-0.051577986697539387
0.061155763505240941
0.0035867108433779225
0.20656272109521018
0.00098029308404986573
-0.024917421329951023
0.047945569405115566
0.00053134895769022558
0.0005897488916171876
0.092759827008983914
-0.00021906284356637646
0.002163142536690167
0
0.00011500644143417788
-0.0016850921854260944
0.016100641915064429
8.6992359401027002e-05
0.00026710144036326826
0
-0.0023319445319681417
0
0.076089433662686889
0.0006780589311141497
0.023376528283309543
0.0030753671912220103
0
0
-0.09550624714290748
0.00088407514625982165
0.013619250187030033
-0.0039279172002745491
0.00083709089149056374
9.6555442931940501e-05
0.34938201573555239
0
-0.0242336077824254
-0.093338108114958879
-0.0094427662582430016
0.0082137070131610545
0.38906251203601794
-4.2436730210052972e-05
0.059424138874766996
0.040651666890620691
0
0
0.03775006264284593
-0.00030829557965566926
-0.041459356665257151
-0.045995007114167423
-0.0028968324271127759
-5.7151493004801719e-05
-0.26170983040839518
-0.00061461819129801599
9.7215064270565144e-05
-0.0092917834318376694
-0.024967801047773176
0.0023187136075751998
0.093804015643460428
0
-0.076724936877061417
-0.076147960261296374
0.0050369592606815082
0.00040640401196696287
0.040408004397195586
-0.00021232973448679629
0.0015283605492760395
0.057097785351687358
0
0.00096359247660641567
-0.028701550191774384
0.001111314015387208
0.027867591424416381
-0.14025444379568827
-0.0035930921240075967
-0.00058485587566704073
-0.068433215297862643
0
0.20369676312382007
0.066679819377597482
-0.012305065666999276
0.00022223423673207169
0.053274844855487433
0
-0.0044630855840060669
-0.072912421923699927
0.0060422756240055752
0.00043943914365451099
0.076884659587049584
-0.00013002572939848543
0.0023578668967348714
0.20652307199024614
-0.0077718263378383475
-0.0040006794906948841
0.047090017457277221
0
0.018785266150513558
0.15546880515952793
-0.0027139292567396004
0.0074722015181511994
0.087696072891221472
0
0
0.0048142850111182233
0.0010422037316425393
0.01515665314190158
0.14266288419292836
0
0.04627747731599164
0.015549756268802343
-0.00011841215711044795
-0.00085758845918922067
0.059110370475457953
0.00026494418324689219
0.043010447872441834
-0.057340061342607787
0.0064243681197856629
-0.0032061914070947986
0.0083930963941780661
0
-0.04681485667186365
0.011697040408825261
-0.067426232443112216
-0.0038801289581573881
-0.019088218686189141
-0.00014924792223128071
-0.081444808465103519
-0.089899669666623397
0.013189448512444534
0.010513782093036682
8.3277466743270407e-09
0
-0.0016217148661710401
-0.0017563306714065904
0
0
0
0
0
-9.5205199048265833e-05
1.5440417160633084e-06
0
0
0
0
0
0
0
7.1451885207658538e-06
0
0
0.00031499154065014188
0
0
4.0280096745469515e-09
0
0.00015958575634544299
-0.00035369829104653605
0
0
6.685403814561797e-10
0
0
-0.00077621264550100896
0
0
1.6814583923790048e-07
0
-1.0262494576624418e-06
1.4411974120280212e-05
8.0697644317505174e-11
0
2.1010651794857485e-06
0
0
0
0
0
1.7247011757193601e-08
0
-6.1202255758757671e-07
0
0
0
1.9221608466430446e-06
0
0
0
0
0
-6.0235049681934861e-09
0
0
0
0
0
-1.3980995119270139e-07
0
0
-0.00046700175562527972
1.3926214028198356e-05
0
-2.7233818736849664e-10
0
0
6.6816146054515033e-06
-1.7029932320226713e-06
0
-1.2181265677947099e-08
0
0.00012319456683420468
3.6212042115686852e-05
9.6052557634992792e-07
-6.7110325964544751e-08
0
0
-6.6528382232712542e-06
1.525998546195991e-06
-3.7486731500991444e-07
0
-3.3231858513206714e-10
0
0
-0.00031081177612602887
0
0
-5.9082358621236697e-07
0
0
0
0
0
-4.2312995158932575e-09
0
0
0
-5.0694567344716145e-07
7.6239754056214185e-07
4.7456108519491427e-09
0
0
0
0
0
0
0
0
0
0
0
0
0
0
0
0
0
0
0
0
7.9239446403441601e-05
0
-4.1762438751778413e-06
1.2832057861229154e-06
0
0
0
0
-1.6624326157805314e-08
-5.297141076261907e-08
0
0
0
0
0
-4.3534542123709015e-08
0
0
0
0
0
0
0
-7.4886088565485171e-06
2.8630322014249391e-05
0
0
-5.0851085443402833e-07
0
-2.4916038357794114e-06
0
0
2.2320574931832628e-06
0
0
2.0703144179984253e-06
9.7787572093893679e-05
-1.6893156933850969e-06
0
0
0
9.3984656777131511e-07
2.7537156644944915e-06
-5.5817942389297825e-07
0
1.9916025027178878e-08
0
0
0.00021097348661993829
0
0
6.5957595971974839e-07
0.00012544172995510589
8.170605843977755e-06
-0.00085174967294962935
-0.00027249042892933152
0.00096194692677585179
-0.00021213595650200598
0
0.0026144677611801442
0
0.00090623019189104217
-0.0023435420141924516
8.8731839672221446e-09
0
-0.00013565331471326078
9.8247146257927497e-07
-3.0469588957121802e-11
0
-7.880009912039446e-05
0
-0.00074730680039757406
0
0
0
-9.0242530769912747e-09
0
0
0.0031036268140955509
-3.538951561195432e-06
3.0648623610031288e-06
7.5095561003873764e-10
3.3097762760602861e-07
5.7778123950139292e-07
0.049031849132676955
-0.00061854439449232049
-0.0035706842324254107
-2.2144858788938083e-10
1.2986123475599711e-08
-0.0004007166265046579
-0.0061798583956406798
-0.00049672896357071345
-0.00010130550187208079
0.00013131541630331602
-3.8300857857696814e-05
3.0975956149974709e-07
-1.4525182093291333e-05
-0.00040184926887618111
7.7134030375212044e-06
-0.00042693876883166665
0
-0.0074044446718454773
-0.00044610863431492195
0.00033888845370043836
2.8781860580076169e-05
-4.82487117335971e-06
0
0.00024876249263900069
-0.001029071120099148
7.6013154398715227e-05
-0.00031847307025003002
-0.00014586611689039605
0
0.0078227757527728342
-0.01085877200521573
0.0030049292374426831
-0.0013254341451568701
-0.0002215940835811451
0
0.00073377342414350619
0
0
6.3812096094595177e-05
-0.00033066500698283191
-1.1934201289755897e-06
6.7047662858770623e-05
-0.00065335113456824157
-0.00048596134781685944
0.0013097053352276835
0.00073374378544432126
0
-0.00014690087109111655
-0.00024199172621436709
8.4306640008820642e-05
4.1808193063049607e-05
1.1664026153505728e-07
-2.6008912780032103e-05
-1.9149754536357492e-07
-0.0067208146247906969
-1.0004311094936254e-05
0
9.0191069769107803e-06
0
0.011179014767965395
-0.0011834094554053977
0
-0.0011373080803804717
-0.001826852970471047
0
-0.001556541472432615
-0.0069357394605324358
0
0
9.5053698228967699e-05
3.3192980200541234e-06
8.1238554424853057e-05
0.0039381160483839706
0
-0.0040686414721608838
0.00011795860663603132
0
0.0014229727612185532
0
0
-0.00053976778008691219
9.069903962085741e-05
-3.4834282936080697e-06
-0.00050054828391899039
-0.010685929188088202
0
0
-7.5293344107806291e-06
-3.3715043682947747e-07
0.00059239872084847266
0.0078109547263070789
0.00038912783447473835
-0.00047037653905791722
2.7010314431693899e-05
0
-0.0011697547286456714
-0.00012806162632208388
1.9466577455448568e-06
0.0024997852986358292
1.1258593471361951e-05
0
-0.0054095535825147735
-0.003009314817293769
0
0
-1.930213190431987e-11
4.3678876205521178e-06
0.00077355647424936873
-0.0011549586444521128
0
-0.0016966730496427106
-0.0001880018847696443
0
0.0019433728708992141
0.00041096078835746734
0.00048244652805054728
-1.9329080015578186e-05
8.0743398620712023e-06
0
0.0011491265924138505
0
0
0
0
4.0916308239493743e-07
-0.004548970091103592
-0.0073922059991192394
0
0.00058336317943815156
0.0014864120268381965
4.0450508716670366e-06
4.0169309368970295e-08
-0.0027547179457158679
0.00057659274067016822
7.7601450966584623e-05
-0.00045831802817139982
3.3826853968851653e-06
-0.0017832966503737863
-1.5989221022149969e-05
0
-0.00026821386785258656
-1.4471381718972566e-09
1.6227205376259413e-06
-0.00010735483489601088
0.0011571455855421901
-7.0595298888416944e-05
-6.6469835973918931e-06
0.00064824131416858658
0
0.00048149834623676313
0.0052285773911976636
-3.1803186503049272e-05
4.2278564330620778e-06
-0.0033372964626582685
0
-4.0241932990939528e-05
-0.00079369779849183808
-1.5392114580560186e-05
0
-2.7690690967279829e-08
0
-0.00020059300794037502
-0.00016659160779710342
0.0041522586590089089
-0.0005525037336426838
1.3217989225296569e-07
0
0
-2.5236948982027818e-06
-1.9573022639368296e-05
-0.00085500004708654578
-0.00020616588179485351
1.1519725076762126e-05
-0.00025963642985575412
0.0018304756901333912
0
0
1.6900453859622429e-06
3.1412552574745939e-07
8.2506486963244158e-07
0
0
0
-1.1164565188487554e-05
1.6128671180949655e-06
-0.002244305042832212
-0.00034531358369752042
0
0.0011898860920991959
-3.4504248459307931e-05
0
-9.2398178551731064e-05
0
0
-0.00063388511860254092
7.2436962026133626e-07
9.386955888005829e-08
-1.0626754545708819e-05
0
0
0
-0.00018230094374866891
0
5.2542936523148973e-06
-0.00085634534089744818
0
0
0
-1.0444681310375411e-05
-0.00010354153427252164
-0.014137877420483242
-0.00055485445667208082
-1.8819922731433197e-05
1.3726301160711512e-07
0
-7.2329532097335273e-05
-0.0094100335010864934
0
0
-0.00043034413401337747
0
0.0044591041938638653
0.00038150166775546829
0
0
-6.5420357390413983e-06
-2.2674349218684091e-05
0
0.011708762707332926
0.0006930488947708834
-0.00054227833110980948
-4.6857031366139524e-07
1.6076511428164399e-05
0.00053612965327463587
0.0027746167221348421
-0.00017008101999035802
4.9754865841872558e-06
7.7528276040156001e-06
0
-0.0090896117669551565
-0.0068084989903910318
-0.0015567620466140383
-0.00027624218643484928
-4.4886445881655264e-05
0
0.0041009950839602845
0.0028840100018460483
0
-0.0011130998595135608
0.00053304409248155062
0
-7.5841461514769551e-05
0.0014019022996978403
0.00069498046603278245
0.00054031520692025587
-2.0608854917649385e-05
0
-0.0033335444626836938
-0.0002183329180384222
7.9000398475193674e-05
-0.00014454278180562599
0.00027114314562398943
0
5.0040530000153616e-05
-0.00028875286025910188
3.4433445693357953e-05
-1.0799825240798781e-06
-0.00017578613669575605
0
0.0016074414911304729
0.00087629003376087859
-0.00015015006609752783
-0.0026148544330221032
-0.00042217407188815888
0
0.0010424638734345714
0.0001249501364903606
0.00026899352289450485
3.401817565841435e-07
-1.4982063643631178e-06
0
0
0.0014740338461229473
-4.9910350238018427e-06
0.00061421661679820539
8.7903831116077044e-05
0
-0.00089104959950242132
5.59304220064614e-05
0
0.0015677950980535734
-0.00034219245473268668
0
0.002018084373365394
3.1760709052736285e-05
0
0.0006284820387835935
-6.6801681185513089e-06
0
-0.0019855562408031902
-0.0050673222908583886
-0.00099374595570873186
0.00038184796797499578
-2.1981698346790838e-05
0
1.4173422073507934e-05
0.0062432908031201245
-1.6203040043160001e-05
-2.3089959116837503e-06
6.3032037577844072e-09
0
-9.5930121692079724e-05
0.0030682249899972491
0
0
0
0
0.00029996289420233699
0.00084883018888887943
1.5440417160633084e-06
0
5.5370805851446886e-07
0
0
0
0
0
1.3498131643130694e-05
0
0
-0.00031499154065014188
0
0
1.2996724177745801e-05
0
0.00014357029016041309
0.00053863719264550167
0
0
7.3181813166325558e-06
0
0.00052494529259335099
0.00045561961928029668
0
0
-8.791016368096551e-06
0
0.00066677210676581748
-1.4110890624062894e-05
8.0697644317505174e-11
1.2484949690668746e-05
2.992162544902338e-05
0
0
0
0
0
3.075799120098371e-08
0
0.001136859550918906
0
0
0
1.9413242343127343e-06
0
5.16406474605551e-05
-0.00051189061966019195
0
0
9.0881294971256185e-09
0
0
0
0
-5.1207929283047607e-06
1.425145974382617e-07
0
0
5.1420748993733441e-05
1.3926214028198356e-05
0
1.227242409221438e-05
0
0
9.5958329878158621e-06
3.7014393143806921e-06
-1.4795304592222602e-05
7.094944990403351e-08
0
4.9285021148818712e-05
-3.6212042115686852e-05
3.980092570250932e-07
6.1628745497518874e-08
0
0
-6.6528382232712542e-06
2.655711426914666e-06
-3.7486731500991444e-07
0
8.015292757665916e-10
0
0
3.6294615354016605e-06
0
0
6.0037336825776733e-07
0
0
0
0
0
1.5550768454850923e-06
0
0
0
-5.0694567344716145e-07
-5.0550375002781626e-07
6.8759327496625048e-08
0
-3.1537375597061252e-05
0
0
0
9.7293854506039419e-05
0
0
0
0
0
0
0
0
0
0
0
0
0
0
-7.9239446403441601e-05
0
4.1762438751778413e-06
2.8971001425740991e-06
0
0
0
0
1.6624326157805314e-08
-4.1171163350110813e-08
0
0.00063147195688593094
0
0
0
1.5981355035049132e-05
0
0
0.00014156860091504039
0
0
0
0
-7.4886088565485171e-06
-2.8630322014249391e-05
0
0
-5.0851085443402833e-07
0
-2.4916038357794114e-06
0
4.5836550256178451e-05
-1.3362908861897652e-06
-1.902257105654037e-06
0
-2.0703144179984253e-06
-1.4985568646333788e-05
4.3637871129242251e-06
0
9.4231143523221868e-08
0
-1.5610709494129785e-06
2.7013198582485818e-06
-5.5817942389297825e-07
0
4.6677435961500603e-07
0
-0.00032330636636398227
0
0
-1.1931358066441995e-05
6.7227171839245515e-07
0.00013802263749237959
-8.170605843977755e-06
-0.0055259557385347914
0.0054500633773662153
0.0041204216080444594
-2.6636907402533817e-06
0
0.0036309865736214907
0.0052615609959493301
0.001461007169795729
-0.0023435420141924516
7.7292556256783362e-09
0
0.00013565331471326078
2.0358774157386019e-06
-3.0469588957121802e-11
-0.0020688662569789901
-0.019901282215143538
0.001384091104050353
-0.00074730680039757406
0
-0.046676852531499322
0
-9.0242530769912747e-09
0
0.015260429081310362
-0.00071061115289145654
-1.1951785728566962e-05
-0.019036482992153055
3.783058448618655e-09
-1.0470942442544303e-05
5.7778123950139292e-07
0.049031849132676955
0.0022320590577193434
-0.0018501000313931254
-2.2102543692440413e-10
0.00036782714063097782
-0.0033432765942824827
0.00060830819310552908
-5.9595044980287501e-05
-0.0010854799229127483
0.0001397047627089076
6.9685425953372679e-05
3.0975956149974709e-07
0.00034099946336391341
4.4724218978315048e-05
0.011196901322377016
-0.00075758784651236541
0
-0.0031821196038005544
-0.00044610863431492195
0.00033888845370043836
2.8781860580076169e-05
9.7076663700056489e-06
-0.0010758489531839405
0.00024876249263900069
8.4067223802732755e-05
-0.0020875390082618676
-0.00034794589548117625
0.00061937510805481675
-0.0028135578776464633
0.014040584473445705
0.010527289077365646
-0.00066115770150621683
-0.0043701708630676404
0.00041270339227939999
0.00011108021541426588
-0.021917407632904631
-0.02804233635523088
0.0081049073855155827
0.0033779949804159503
-0.00059732804027771817
-0.00041653469167903711
0.00011429147645872353
0.00082585696990605079
0.00021036055146615533
0.00088556219159277973
0.010710537065614083
-0.00090558179443910004
0.00013418770852687397
0.00024199172621436709
-0.00027233331445648492
-0.0019475201988845565
-4.1244699394450859e-08
-5.7569102270773864e-06
0.0055783344763526733
-0.0067208146247906969
-1.0004311094936254e-05
-0.034815247692261735
0.00099656496389084162
0
0.010940509991702872
0.013733277023762678
0.028652513293494067
-6.1426551394367005e-05
0.00020826886534686779
0.0014849503316314398
-0.001556541472432615
-0.018266145500192357
-0.0032898070508203931
0.0073887209551534109
-6.3797304107784554e-05
3.3192980200541234e-06
9.7479892925009357e-05
0.0067836267895322712
0.01262294865611184
-0.00041665970787928123
-0.00065587152323814133
0
0.022405474270509065
0.026333861632225605
-0.0060216767737871005
-0.0016727649950501176
-7.0294414841029192e-05
-0.0004775449655963674
-0.0005166990362151972
-0.011092184531887197
0
0
-7.5828748930111242e-06
-3.3715043682947747e-07
-0.00090448558081199812
-0.0029849388956408218
-0.0014102572110075281
0.00062143236320350622
0.0014405971740893736
0
0.0011697547286456714
0.071943359229414722
0.010939476042859492
0.0023581797519153327
5.2222163071891252e-05
0.00019550665946580257
-0.0048213594110329879
-0.003009314817293769
0
0.0012231159279838405
-1.5672375732921498e-11
4.5008217927552337e-06
-0.0011543811574305782
-0.0011549586444521128
0.043841166850003332
0.0029340030624789085
-0.001214897378769597
0
0.0019433728708992141
0.0008274944600438663
-0.00058236129120522702
1.3110528714040276e-05
-4.3340208240652906e-05
-0.0004179276078339878
-0.0066574569303497902
-0.016997477319311945
0.0042679182405199381
0
0
-4.0916308239493743e-07
-0.0049265842997122181
-0.012236955582636676
-0.02395664243860135
0
-0.0014348571044800903
-7.3264910389626256e-05
-4.0169309368970295e-08
-0.0024086233135415611
-0.0051509012677225215
0.012107450511653984
-0.00045832134413145486
3.3826853968851653e-06
0.0020908184966034211
-0.020168643754071756
-0.00057031211404085218
-0.021452330212068021
-1.4471381718972566e-09
-0.003606747033308268
-0.00010735483489601088
-0.085904923502658381
-7.0595298888416944e-05
-0.0032018815035701766
0.00040689458835841172
0.0028525678423617297
0.00018279942470368209
-0.0054805947696381424
-3.1803186503049272e-05
-3.7197611047822573e-06
-0.0031248037487887552
-8.0030503358009223e-05
-0.0071039836097263106
0.0046060508362941932
2.1825886797180273e-05
0.00017205296655630652
-2.9603622798713164e-07
-0.0040136257236092366
0.020164483586186308
0.0060376192067462401
-0.018302673170756668
0.00035783836689655174
1.3222398044766598e-07
0
0
-1.0685919871495004e-05
-0.003464497777977063
0.0015843385173035646
-0.0062289866779619008
1.5563833480406325e-05
-0.018608618691923321
-0.0029191172854957088
-0.0019911839125521988
-0.0046864888932000321
6.5388776340520597e-06
0.00013910118739436859
0.0073286556046068627
0.038110727539718683
0.020383824354568335
0.006199741397799512
-5.6897858066631204e-05
0.001149039926427637
-0.0049648336850044517
0.00034531358369752042
0
0.0042475272884906577
1.2895705590902804e-05
0.0006059469353481879
-9.2398178551731064e-05
0
0
-0.00063388511860254092
7.2436962026133626e-07
9.386955888005829e-08
1.0626754545708819e-05
0.0276159451091595
0
0.00097626149649490299
-0.00018427233471034234
3.9938116185554426e-05
-5.2542936523148973e-06
-0.00085634534089744818
0
0
-0.0030685647093295462
-6.6810112427355639e-05
-0.00010354153427252164
-0.0067383557668518248
-0.0056607655496791537
-1.8819922731433197e-05
1.3726301160711512e-07
0.0015504820698728837
-7.2329532097335273e-05
-0.0097838791274134085
-0.0026133349779809112
-1.1209962376892025e-06
-0.00091375643843910181
6.522494480257645e-05
0.00052262634263210812
0.00038150166775546829
0
-0.010059250887007294
-1.1950671393372216e-05
2.2674349218684091e-05
-0.004632205439001739
-0.0099116726083931222
0.0006930488947708834
-0.0027838778668116096
-4.1874734671115957e-07
-6.4694529451157722e-05
1.521320518336645e-05
0.010870605304780477
-0.00017008101999035802
-4.9754865841872558e-06
7.7528276040156001e-06
0.00047864929029624607
0.0005854261737595199
0.0082145926189561083
-0.0027958888030478104
-0.00039979911746754773
-4.9656098792235596e-05
0.00084092997185280236
0.0043727832052118318
0.0028840100018460483
0
-0.0031527546627489471
0
-0.00022859820045137115
-0.012703106355809495
-0.00085444905817078033
-0.0077410838345782912
0.0086166041455378751
-3.3779559494173799e-05
-0.0048065154332195791
-0.030415220090943749
-0.00099217241642386234
0.00061940570125906043
-0.0017233831739955192
0.010312014629796341
0
5.0040530000153616e-05
-0.00052041646857600775
0.00012122898323828601
-0.0029001775282139976
0.00047014418387938343
-1.4642589949881203e-05
0.035280052787094007
0.001248127817410208
-0.00066655084843458682
0
7.8644705218991847e-05
-0.00052700630708907325
-0.0023720476776650139
-0.0001249501364903606
7.6868028650960548e-05
0.0068964288500022973
-0.0040604030447818039
1.7826165770013847e-05
0
-0.02184638413696496
-4.9910350238018427e-06
-0.00085499572851278232
0.00027588158614096992
0
-0.00089119976531956604
5.59304220064614e-05
0.0098992451690849848
0.0010689566825098789
0.0027402994863965913
-0.001736766074103273
-0.0040561820142637752
3.1760709052736285e-05
-0.0054567601938642811
-0.0049226625423462239
-0.0056118670415467196
0
0.0027144969974464625
-0.00084561905955741687
0.0036539508859534013
0.00046576908351452753
-1.1553314737494089e-05
0.0014846018831141861
-0.017517941930765352
-0.0047255689131530275
-9.9026962838016771e-06
-2.3089959116837503e-06
-9.3903724407912039e-09
0
-0.0011284256978509458
-0.0021987496009194894
0
0
0
0
0.0007460784556730123
-0.00034689007578446294
-1.5440417160633084e-06
0
0
0
0
0
0
0
-3.104189331258881e-06
0
0
-0.00031499154065014188
0
0
-4.0280096745469515e-09
0
2.5556059797264437e-05
0.00024564174243475842
0
0
-6.685403814561797e-10
0
0.00052494529259335099
-0.0035041556767291498
0
0
-1.6814583923790048e-07
0
-1.0262494576624418e-06
1.4841735641571143e-05
-8.0697644317505174e-11
0
-2.2925632645878523e-06
0
0
0
0
0
1.7344179474346475e-08
0
6.1202255758757671e-07
0.0012237388782623173
0
0
4.1298153906810785e-08
0
-5.16406474605551e-05
-0.00051189061966019195
0
0
-6.0235049681934861e-09
0
0
0
0
0
-1.5243959267546477e-07
0
0
5.1420748993733441e-05
-2.6835502748113896e-06
0
2.6921398630621433e-06
0
0
2.6085861048776477e-05
-1.7029932320226713e-06
0
-1.2181265677947099e-08
0
-9.5789714506130491e-05
-3.6212042115686852e-05
-8.2971780090310892e-07
1.4089753650919165e-06
0
0
0
-0.00054067751108048407
-3.7486731500991444e-07
0
-5.0000974795822743e-10
0
0
1.8229506523066319e-06
0
0
5.1233967083254964e-09
0
0
0
0
0
-2.8368811075580564e-07
0
0
0
5.0694567344716145e-07
2.6901195395974675e-06
8.4364146887092564e-08
0
0
0
0
0
0
0
0
0
0
0
0
0
0
0
0
0
0
0
0
-7.9239446403441601e-05
0
4.1762438751778413e-06
-9.0193498146062546e-07
0
0
0
0
1.6624326157805314e-08
2.0779541370793157e-08
0
0
0
0
0
0
0
0
0.00014156860091504039
0
0
0
0
0
-2.8630322014249391e-05
0
0
0
0
-2.4916038357794114e-06
0
0
-7.4994223195376354e-07
0
0
2.0703144179984253e-06
0
0
0
0
0
4.8841153708134003e-07
5.5596480694996223e-06
0
0
8.1366464003425697e-08
0
0
0
0
8.3151315656336137e-07
-6.5957595971974839e-07
0
8.170605843977755e-06
-0.0016953373439713391
-0.00027249042892933152
-0.0011670285003763537
-0.00019497292573895605
0
0.00021162471658160126
0.0052615609959493301
-0.00082549350178401392
0
1.7713129301146404e-08
0
-0.00013565331471326078
3.1681831440851766e-06
-3.0469588957121802e-11
0
-7.880009912039446e-05
0
0.00074730680039757406
0
0
0
-8.6751844976285203e-09
0
0
-0.0010983585481998239
-7.669778334479974e-09
3.0648623610031288e-06
2.4541251851482473e-09
-1.1244147272942484e-05
5.7778123950139292e-07
4.624182734945287e-05
-0.00047039717405097578
-1.0480853804757665e-07
2.1810597353723207e-10
-1.2986123475599711e-08
-0.00154848377704302
-0.0022318075263570028
0.00021770256094787486
0.00010130550187208079
-1.2272743677613689e-05
-4.9696947004439265e-06
3.0975956149974709e-07
9.9720006935411962e-05
-0.0003868218646528062
7.7134030375212044e-06
-1.1943084750644784e-08
0
0.0069039616692331213
0.00044610863431492195
0
1.1460114725954955e-05
-2.0238627701945704e-05
0
0.00024876249263900069
-0.0012734892356652803
-0.0020875390082618676
-0.00034794589548117625
1.4240718323433361e-06
0
-0.0020511994249783651
0.0022407413838659777
-0.00011290491311085188
-0.0011972031614571081
0.00094389119421012463
0
6.2988716097674364e-05
0
0
-0.00038761794751554718
-0.0011105252464531329
1.1934201289755897e-06
5.6837512331109291e-05
0.00038602863666938682
-0.00098153650129062086
0.0011017349284136433
3.7745838343872985e-05
0
0.00018413399399923037
0.00024199172621436709
-0.00026987405241075285
-0.00020095646419141609
-2.2631963355735231e-08
-7.2914394315917836e-06
-0.0067265846428187547
-0.00026059667717912439
-1.0004311094936254e-05
0
9.0191069769107803e-06
0
0.011255700461611813
0.013879499787981298
0
0.00014972211603742815
-0.00080929205256208964
0
-0.001556541472432615
-0.0040208220306365301
0.0032898070508203931
0
0.00013230500779525659
-3.3192980200541234e-06
-0.00010710936960713156
-0.0084646422533520144
0
0
-0.00055927374819338626
0
0.017571898953004608
0
0
0.00031984059573330308
1.102687663286159e-05
3.4834282936080697e-06
-0.00050814875708953195
5.005934299854269e-09
0
0
7.4969444559609929e-06
-3.3715043682947747e-07
-0.017959880287528578
0.00010259956822639615
4.4050942531721541e-06
-0.00047378239252003434
-0.00024973672257792482
0
0.0011697547286456714
3.5206547446598634e-06
-1.9466577455448568e-06
0.00015278313122655954
1.0941626571836156e-05
0
-0.0050102459883939864
-0.0022925332755298891
0
0
1.1843530537407526e-11
-4.4729728805120408e-06
-0.0013439003432449185
0.0011549586444521128
0
0.00054555421849164802
-0.0012340171529028744
0
0.00085121645575276725
0.0012602620083432827
-0.0011404223537564277
-0.00011517864232524325
6.5155870867254567e-05
0
-0.0059832634158980616
0.0046704050623444767
0
0
0
4.0916308239493743e-07
0.0040828775148811728
0.0076882140079146078
0
0.00058336317943815156
0.0013959502160491807
0
4.0169309368970295e-08
0.0067030569589192407
-0.001185696065222967
7.7601450966584623e-05
-0.00045831060652165833
-3.3826853968851653e-06
-0.0026911717456603946
-1.5989221022149969e-05
0
-0.00026821386785258656
1.0330795661971466e-09
-1.6227205376259413e-06
-0.00010735483489601088
-0.0016394816726771502
-7.0595298888416944e-05
-4.6454689621469286e-06
0.00064824131416858658
0
-0.00035019898199586686
-0.0046573363491819843
3.1803186503049272e-05
2.6612794964997325e-06
-0.00010613391001681444
0
0.0067690173175135107
-0.00079369779849183808
-3.4697007847433026e-06
-0.00017205296655630652
-5.0342570969825532e-08
0
0.00020059300794037502
-0.00016659160779710342
0
-9.7332683373066016e-05
1.2393968201384335e-07
0
0
-5.6307600495005632e-06
1.9573022639368296e-05
0.00045037545552866848
5.8875727314226879e-05
0
-0.00026515233580110497
-0.001122534509122712
0
0
-7.5229892594434809e-06
1.1030844661922123e-05
8.2506486963244158e-07
0
0
0
-1.1164565188487554e-05
0
-0.001644131312265261
-0.00034531358369752042
0
0.0010744906264286808
-5.0008832664409061e-05
0
0
0
0
0
7.2438203060993046e-07
9.386955888005829e-08
-1.0626754545708819e-05
0
0
0
-0.00017989440584300799
0
-5.2542936523148973e-06
-0.00085634534089744818
0
0
-0.00092026655070107739
-6.9895203879852494e-06
-0.00010354153427252164
-0.014970477271709099
-0.00012854268631711243
1.8819922731433197e-05
1.3726301160711512e-07
0
0
0.00092078107042376238
0
0
-0.00096791068329653935
0
0.00068361987185247748
-0.00038150166775546829
0
0
1.247729555078056e-05
0
0
0.0044045392030597746
0.0006930488947708834
0.0011107786063946018
-4.9129858413411656e-07
-4.1205948879347436e-07
-0.00065326623081689013
0.0043659461936268731
-0.00017008101999035802
-4.9754865841872558e-06
7.7528276040156001e-06
0
0.00025357820720172178
0
0.0015567620466140383
-0.00012437227806252424
-2.4084293560427583e-05
0
-0.0048243355880953267
0
0
-0.0004887306291131311
-0.00053304409248155062
0
7.5841461514769551e-05
0.00059043567233152568
0.00069498046603278245
-0.00016755826329932879
-4.0526562574388114e-05
0
0
0.00099217241642386234
-0.00013813773888577351
0.00014454278180562599
0
0
-5.6882051816086458e-05
-0.00052041646857600775
2.2178258648392485e-05
1.0799825240798781e-06
2.6517665788910278e-05
0
0.0016074414911304729
0.0012080921581681787
-0.00023045709745583921
0
0.00019134879836799713
0
0.0035096432994092476
-0.0001249501364903606
-0.00057876786872139408
3.401817565841435e-07
-1.4982063643631178e-06
0
0
-0.00078665745574039601
-4.9910350238018427e-06
-0.0011939513389555971
0.0002188575400900741
0
-0.0008596932439641537
-5.59304220064614e-05
0
-0.00010743130862030853
0
0
0.0022144321161987374
-3.1760709052736285e-05
-0.0014956184943316661
0
-6.6801681185513089e-06
0
0
0.0017492629033784583
0
0.00020792477401552212
3.5292510807947251e-05
0
-1.4173422073507934e-05
0.0036570626809190633
-1.8136105068724331e-05
2.3089959116837503e-06
7.7472376121928468e-09
0
-0.0016217148661710401
0.001919110233161448
3.0989012862870665e-05
0
0
0
-0.002342967641788624
0.00015105266833317785
1.5440417160633084e-06
0
0.00010750919555542006
0
0
0
0
0
1.4027277072781378e-05
0
-0.0037597021295800556
-0.00031499154065014188
5.602056759176628e-05
0
3.8765667218542466e-05
0
-0.00018554780493209032
-0.00023235178671836268
1.9918227954777851e-05
0
2.7644052457302572e-05
0
-0.00052494529259335099
-0.0044077558808338401
0
0
1.0007152518488384e-05
0
-0.0013734106668312764
1.4016658408970962e-05
-8.0697644317505174e-11
0
-7.1649407280795734e-07
0
0
0.00016717979696683583
0
0
1.7591969689510852e-08
0
-0.00071745216496941426
0.0012237388782623173
0
0
1.9440390416344925e-06
0
-5.16406474605551e-05
-0.00051189061966019195
0
0
-4.6150285395210323e-09
0
0
0
0
-5.1207929283047607e-06
1.0053436330457043e-07
0
0
0
1.3852788127765687e-05
0
4.6536934975420744e-06
0
-0.00030736530309280225
-2.3946428824878805e-05
-6.430567897165034e-06
-1.4795304592222602e-05
-7.7914696825587339e-09
0
-8.2290331333992781e-05
-3.6212042115686852e-05
1.3892115258305605e-07
-1.2310319640349347e-06
0
0
6.6528382232712542e-06
-1.9378687463468833e-06
-3.7486731500991444e-07
0
-8.012497183561024e-10
0
0
1.6439769211603352e-08
0
0
5.7952670501311685e-07
0
0
0
0
0
-6.8384648659890471e-06
0
0
0
-5.0694567344716145e-07
-1.1473106559953086e-06
6.6162196982986305e-08
0
-3.1537375597061252e-05
-0.00020813522114410303
-1.4556033777424448e-05
0
0
0
0
0
0
0
0
0
0
0
0
0
0
0
0
-7.9239446403441601e-05
0
-4.1762438751778413e-06
-8.3708961317316044e-07
0
0
0
0
-1.6624326157805314e-08
-5.7552745364013244e-08
0
0
0
0
0
-1.606842411929655e-05
0
0
0
-1.8880494560521156e-05
0
0
0
7.4886088565485171e-06
2.8630322014249391e-05
0
0
5.0851085443402833e-07
0
2.4916038357794114e-06
0
0
-2.4244193887169122e-06
-1.902257105654037e-06
0
0
0.000114631572209236
-1.6893156933850969e-06
0
-9.4775461982433259e-06
0
-1.5853035070965984e-06
2.5083964265531285e-06
-5.5817942389297825e-07
0
2.2706596611719104e-07
0
-0.00028303644957443418
0
0
-5.5384442539509388e-05
6.1855726467700175e-07
0.0011097801068967756
8.170605843977755e-06
-0.00045636760369294633
0.00027249042892933152
0.0035245282833123478
-6.7801781848485038e-06
0
0.0032077371404582878
-0.0052615609959493301
-0.03601041497833516
0
-1.4306856026623148e-08
0.00017360288802889873
-0.00013565331471326078
1.8452635759061838e-06
3.0469588957121802e-11
0.0025106988713003067
0.0056435372536238777
0
0
0
-0.046676852531499322
0
-9.0242530769912747e-09
0
0
-0.0020569201290586126
-1.386686056247179e-05
-0.005427742305865714
-3.783058448618655e-09
1.1355396848128607e-05
5.7778123950139292e-07
0.0015297820668521544
-0.005681678134537846
-0.010949487855052486
2.1807323376687685e-10
-0.00024208805243826283
-0.0053642146109929602
-0.0075883328615687605
-0.00049760602167238821
0.00010130550187208079
0.00014278763594198694
1.7706011005072839e-05
3.0975956149974709e-07
-0.00060866913147534835
0.00037550397213063805
7.7134030375212044e-06
0.00042297723771008165
0
-0.0043053929978679201
0.00044610863431492195
-0.00033888845370043836
1.0826872146852988e-05
-1.6046632657225262e-05
0.00038418369766761153
0.00024876249263900069
8.4067223802732755e-05
-0.0092506581076076677
0.00023719779065823162
-0.0001533925496647774
0.0037411842497486669
0.0020511994249783651
0.010868191399188784
-0.0027607667239360162
-0.0040715763465248439
-0.00099717552422878743
3.903780665760993e-05
0.00060779599194815746
0
-0.011480951735199398
-0.0049900252370842181
0.00048155628356207655
0.00034926550958414259
0.00010619299307874699
0.00072183146285989292
0.00023711384603996042
-0.00032171517432377778
-0.01063558694620137
0
0.00027647494631888905
-0.00024199172621436709
-0.013095155194234239
-6.4605001555425624e-05
-9.8027525496341647e-08
1.1123349052635583e-05
0.0067265846428187547
0.0068337146208608795
-1.0004311094936254e-05
-0.015639350602865854
9.0191069769107803e-06
0
0.011255700461611813
0.0038309817694131593
0
-0.0026167388011271372
-0.00066694265298684668
-0.00099602584656283718
-0.001556541472432615
0.0029149174298959057
-0.0032898070508203931
0
-8.5196505389945919e-06
-3.3192980200541234e-06
-0.00011186795680331256
-0.01071541154510048
-0.0057012036568973423
-0.0020669518662346162
-0.0008945995872208963
0
-0.0014229727612185532
0
-0.0060216767737871005
-0.01188670078551065
8.0318411822590629e-06
-0.00024551927918760281
0.00050851325960406832
0.011092194543755795
-0.003247228023493527
0
7.5277397724758222e-06
-3.3715043682947747e-07
-0.00057849997478087484
-0.0032157365861820121
-0.0028058754633312798
0.00094787934524678949
0.000138585155756987
0
-0.0011697547286456714
-9.5846067038831751e-05
1.9466577455448568e-06
0.00016153197444253707
-4.8735638966839969e-05
0.00019550665946580257
0.00019965379706039384
0.0024288772131521768
0
-0.034595713502607532
1.6007664942261909e-11
4.374454047233743e-06
-0.00079019809877313473
-0.0011549586444521128
0
0.0021208220382481777
0.0012430617617308936
0
0.037734162588303852
0.0012602620083432827
0.0013473714809775703
8.07826883403877e-05
9.6987947566315965e-05
-0.0004179276078339878
-0.0053206242124902341
0
-0.0042679182405199381
0
0
4.0916308239493743e-07
-0.0046052022942483194
-0.0037541491229224461
-0.013262462093039351
-0.00058336317943815156
0.0015001894493460498
-6.5562160050084944e-06
-4.0169309368970295e-08
0.00054793943722758216
0.0051352173283538919
0.006280447180003995
-0.00045832134413145486
-3.3826853968851653e-06
0.002317064699422272
-1.5989221022149969e-05
-0.0045523285417166659
0.00026821386785258656
2.8244658951534506e-10
1.6227205376259413e-06
-0.00010735483489601088
0.0016762055340980334
-7.0595298888416944e-05
-0.0032038830182054214
-0.00064810285802391668
0.00043001257560805906
-0.0096593828138656062
0.0053383878473745377
3.1803186503049272e-05
-3.1693748247795526e-06
-0.0027383968691439588
0.00037870847743457891
0.0072644704151819664
0.0079906541177008766
-1.7279062836989676e-05
-0.00017205296655630652
-2.9603622798713164e-07
-0.0001614898666030568
-0.016132400082174949
-0.012803016792661364
-0.015332200540812677
0.00092411778476292751
1.1598902102609047e-07
0
0
-5.2421455066766818e-06
0.0061189014915614985
-0.0012357813583379958
0.0061085286846635414
1.8665955313169965e-05
0.011349078001408004
0.0040445889607491365
0.0019911839125521988
0.0046864888932000321
2.290853359597369e-06
-0.00011822100429818182
-0.0073286556046068627
-0.048823667663176112
0.020383824354568335
0.009786452241177435
6.7518578341718699e-05
0.00048990050684743526
0.001644131312265261
0.00034531358369752042
-0.022278712598506625
-0.0011898860920991959
-1.3648008173869681e-05
0.0010031133147902801
-9.2398178551731064e-05
0
0
0.00063388511860254092
-7.2438021950319404e-07
-9.386955888005829e-08
-1.0626754545708819e-05
0.0276159451091595
0.0057763312357370948
-0.00097626149649490299
-0.00018708293513973904
0.00026660367794304612
5.2542936523148973e-06
0.00085634534089744818
0
0
0.0017254022157293684
-1.4693107024301056e-05
-0.00010354153427252164
0.0025866042694388668
0.0064418934874717485
1.8819922731433197e-05
1.3726301160711512e-07
0
0.0082978920042724395
0.0011194357434378432
-0.0026133349779809112
0.0018349743259844736
-0.0014328668576165529
-6.522494480257645e-05
0.0076325065156358967
0.00038150166775546829
0
0
1.247729555078056e-05
-2.2674349218684091e-05
0
0.0078264129035727128
0.0006930488947708834
0.0020895884490271699
-4.7747040007214304e-07
7.6835852498724301e-05
-0.0051941314125890058
-0.0012201939485469947
-0.00017008101999035802
4.9754865841872558e-06
7.7528276040156001e-06
-0.00066219380289845014
0.0055522454406198617
0.0017264628503169206
-0.0093000551930315523
-0.0054394778949195281
-7.5451128849786722e-05
-0.00060194893062304883
-0.0053761702320812435
0.0028840100018460483
0
-0.0021970401289811555
0.00053304409248155062
-0.00031734192853611856
7.5841461514769551e-05
0.0015674684391156751
0.00069498046603278245
0.0069907609365906873
3.3620099964229507e-05
0
0
-9.3047586862827586e-05
0.00098506827453846181
-0.00014454278180562599
-0.00027114314562398943
0
-1.6549713745898786e-05
-1.5666097556795875e-05
-0.00011004818046502816
0.0033142853590028359
-0.00083263970070104074
-0.00011455837051382677
-0.039885039338607965
-0.0012783962406283491
-0.00048832780369530843
-0.0026148544330221032
0.00031673129080775483
0.00044282962997263439
0.0041609847047258822
0.0001249501364903606
7.6868028650960548e-05
3.401817565841435e-07
0.0019704175492271164
1.7826165770013847e-05
0
0.001444698947528546
-4.9910350238018427e-06
-0.00021796699193943377
0.00021998625686552915
0
-0.0008596932439641537
-5.59304220064614e-05
0
0.014812645706413557
-0.00026508665950262438
0
0.010423185804147505
3.1760709052736285e-05
0.0042236954400209272
-0.0019707487574570567
0.0028420550918923241
0
0.013450407135295391
0.0055062114994611135
0.00099374595570873186
0.00048806511769065934
-3.5293893433149351e-05
-0.00069803883250600229
-1.4173422073507934e-05
-0.0062432908031201245
-9.9026962838016771e-06
-2.3089959116837503e-06
6.2798411078682781e-09
0
-0.00010448404084397571
-0.0017563306714065904
0
0
0
0
0.0007460784556730123
-0.00084883018888887943
0
0
0
0
0
0
0
0
-3.1759836902718748e-06
0
0
0.00031499154065014188
0
0
-2.2990147450790783e-05
0
0.00010493845792501528
6.2101804249074273e-05
0
0
6.685403814561797e-10
0
0.00052494529259335099
-0.00066442623860162378
0
0
1.6814583923790048e-07
0
1.0262494576624418e-06
1.4440266963471519e-05
-8.0697644317505174e-11
0
-1.914980851021036e-07
0
0
-0.0021077818134755551
0
0
-1.7435345769851253e-08
0
0.0004200194085070795
0.00015588393506948541
0
0
1.8765221561486963e-06
0
5.16406474605551e-05
0.00051189061966019195
0
0
-3.8566688145584513e-09
0
0
0
0
0
9.290235189388268e-08
0
0
0.00028561376496686572
-6.4933372383993122e-07
0
-2.6915951866874065e-06
0
0.00030736530309280225
2.1032210442514449e-05
-7.1074257784260347e-06
-1.4795304592222602e-05
-6.7919011000919234e-10
0
-2.0475063587849063e-05
-3.6212042115686852e-05
1.9758232509834271e-07
-1.322561853610727e-07
0
0
6.6528382232712542e-06
-0.00054328497867930025
-3.7486731500991444e-07
0
-6.6082187807488064e-10
0
0
-0.00027560603876648006
0
0
5.782140203787536e-07
0
0
0
0
0
-2.1108006376225597e-06
0
0
0
-5.0694567344716145e-07
-1.982769219114037e-06
-1.061055273065106e-07
0
0
0
0
0
0
0
0
0
0
0
0
0
-8.5414508020272286e-05
0
0
0
0
0
-0.00017623247130712946
7.9239446403441601e-05
0
0
-6.7580553197879812e-06
0
0
0
0
-1.6624326157805314e-08
5.5624035368395623e-08
0
0
0
0
0
4.3534542123709015e-08
0
0
-0.00013758870517398497
0
0
0
0
-7.4886088565485171e-06
2.8630322014249391e-05
0
0
5.0851085443402833e-07
0
-2.4916038357794114e-06
0
0
-8.7939893436658966e-07
1.902257105654037e-06
0
-2.0703144179984253e-06
-9.9659426479520616e-06
-1.6893156933850969e-06
0
0
0
-1.1248750839648647e-06
-6.1799970923803722e-06
-5.5817942389297825e-07
0
9.0757366372069361e-07
0
-0.00028303644957443418
0
0
-1.219769729057394e-06
-5.6192842533757774e-07
2.733880251288538e-05
8.170605843977755e-06
0.0012389697402783928
-0.00027249042892933152
-0.00029794666236605593
-0.00021213595650200598
0
0.00021162471658160126
-0.0052615609959493301
-0.0015417438599027574
-0.0023435420141924516
-2.0461237946162292e-09
0
0.00013565331471326078
1.9567325421534086e-06
3.0469588957121802e-11
-0.00021252164826993992
-7.880009912039446e-05
0
0.00074730680039757406
0
0
0
-2.8119244540686642e-09
0
0
0.00099419007378832294
-5.4540263951002607e-06
-3.0648623610031288e-06
-1.1277211173598648e-09
-1.0470942442544303e-05
-5.7778123950139292e-07
0.00076019492879886936
0.00013482547207352674
-1.0480853804757665e-07
2.1761734303154491e-10
-1.2986123475599711e-08
-0.0045026870089546287
-0.0013258302948156735
-0.00036664639446524962
0.00010130550187208079
-0.00015586090365854344
0
-3.0975956149974709e-07
-0.001327068225175857
-0.00040184926887618111
-7.7134030375212044e-06
-1.1943084750644784e-08
0
0.0040638603987748897
-0.00044610863431492195
0
-1.3540735728255282e-05
-2.2872351330145454e-06
0
-0.00024876249263900069
-0.00043634181559184734
-0.0020875390082618676
-0.00020573987029095213
-0.00011711922814011172
0
0.0020511994249783651
-0.0011061620481631702
-0.0031178341505535348
-0.0031144747227013071
-5.0590738191424859e-05
0
-0.0083592641170262584
0
-0.0013588221218745922
-0.0019174585284344736
-0.00073127671624480988
1.1934201289755897e-06
0.00012679033025965255
0.00089433729819770214
0.0008110263532399198
-0.00054566781319644617
3.7745838343872985e-05
0
0.00022652866084653264
0.00024199172621436709
-0.00045015545204811952
-0.00024332504915053707
3.2833066560194347e-08
-1.8417499900675014e-05
0.0067269676379094817
-0.006935237344662875
1.0004311094936254e-05
0
-9.0191069769107803e-06
0
-0.011025085404068075
-0.00018805549097030176
0
-0.00080232472725813553
-0.001826852970471047
0
0.001556541472432615
0.0040208220306365301
0
0
6.4808321221852598e-06
-3.3192980200541234e-06
0.00011186795680331256
0.012804720910670829
0
-0.0040686414721608838
-0.00065587152323814133
0
0
0
0
-0.00081325847953506506
-5.1888209688343487e-05
0
-0.00049826513507535283
-5.005934299854269e-09
0
0
-7.5711905213856222e-06
-3.3715043682947747e-07
-0.0004973121353088895
-0.0048729798524923566
-0.0042743386289678499
0.00062143236320350622
-0.000556295507062124
0
0.0011697547286456714
0.00014749322411175769
-1.9466577455448568e-06
-0.0024997852986358292
2.4532801033978553e-05
0
0.00019965379706039384
0.0024288772131521768
0
0
1.7660890163425874e-11
-3.7465698837922409e-08
0.0014314091895107055
-0.0011549586444521128
0
-0.00020490169611085817
-0.000902785595854137
0
0.00093111146618880727
-0.00029640349085836924
0.00051380559518821999
5.9661258385630441e-05
0.00012073178607455551
0
0.00049555666101872714
0.0046704050623444767
0
0
0
-4.0916308239493743e-07
-0.00036809829725003955
-0.00019920524109386708
0.00258048177236758
0
-0.0014750599834229936
8.9546713017495784e-06
-4.0169309368970295e-08
-0.011012511363874877
-0.00057659274067016822
7.7601450966584623e-05
-0.00045831060652165833
3.3826853968851653e-06
0
-1.5989221022149969e-05
0
0.00026821386785258656
-1.4471235971618012e-09
1.6227205376259413e-06
0.00010735483489601088
0.0016394816726771502
-7.0595298888416944e-05
4.6454689621469286e-06
0.00020026164266230296
0
0.011206935825694245
0.0053383878473745377
3.1803186503049272e-05
1.6452007955133875e-06
-0.00054144184617497323
0
0.007274744251237736
0.00079369779849183808
2.1825886797180273e-05
0.00017205296655630652
1.915498117972327e-07
0
-0.00020059300794037502
0.00016659160779710342
0
-0.00011326052313030189
1.1598902102609047e-07
0
0
-1.0685919871495004e-05
1.9573022639368296e-05
0.0011539356418576857
-0.0001137072066026772
-4.1165082807041892e-06
-0.011354593907353355
-0.0032708354914616458
0.0019911839125521988
0.0046864888932000321
-5.9256021128510306e-06
-5.3583595680873317e-06
-8.2506486963244158e-07
0
0
0
8.9095369310883714e-05
4.6155249043032461e-06
0.001644131312265261
0.00034531358369752042
0
0.0011898860920991959
2.2963885844840336e-05
0
9.2398178551731064e-05
0
0
-0.00063388511860254092
-7.243699394470478e-07
-9.386955888005829e-08
-1.0626754545708819e-05
0
0
0.00097626149649490299
0.00017708380541361129
0
-5.2542936523148973e-06
0.00085634534089744818
0
0
-0.0013431624936001778
-1.2059230600942409e-06
-0.00010354153427252164
0.00041629992561292839
-5.5113551075222753e-05
1.8819922731433197e-05
1.3726301160711512e-07
0
0.0084425510684671117
0.0023000474567463013
0
0
-0.0003065839886733612
0
0.0021355682420763048
0.00038150166775546829
0
0
1.8935044049798871e-06
0
0
-0.0078264129035727128
-0.0006930488947708834
-0.0012320887959309682
4.181297324439822e-07
1.1195993143882117e-05
-0.0047421511824155584
-0.0017243582581317122
0.00017008101999035802
4.9754865841872558e-06
7.7528276040156001e-06
0
-0.003326437103084019
0.0017264628503169206
0
0.00018302978164110091
-3.5901023036051264e-05
0
0.0042425418763799069
0.0028840100018460483
0
-0.0004887306291131311
0.00053304409248155062
0
0
0.0014238346381486636
0.00069498046603278245
-0.00016755826329932879
-1.1170207923948341e-05
0
-0.0033335444626836938
-0.00044469267116975378
-5.5504126284329893e-05
0.00014454278180562599
0.00027114314562398943
0
-5.4919339943161478e-05
-0.00019504711140244213
-9.3752271455619979e-05
-6.6941565681414086e-05
0.00028829391599576894
0
-0.0016074414911304729
-0.00049484962734098385
0.00080749568482708998
0.0026148544330221032
-1.3616766281980048e-05
0
-0.00080117852423837194
-0.0001249501364903606
0.00027808062363293126
3.401817565841435e-07
-0.0012549703021221327
-1.7826165770013847e-05
0
-0.00080695470448846531
4.9910350238018427e-06
0.0008627190792503158
6.7439334933838723e-05
0
-0.00089156990822477971
-5.59304220064614e-05
0
0.00011892799849723681
-0.00034219245473268668
0
0.0018185020575967918
-3.1760709052736285e-05
0.0014956184943316661
0.0006284820387835935
6.6801681185513089e-06
0
0.0019855562408031902
0.0065979268295721146
0.00099374595570873186
0.00016039473451307594
3.5292510807947251e-05
0
1.4173422073507934e-05
-0.0010400429088299678
3.4013100587846145e-05
-2.3089959116837503e-06
9.9942441528415251e-09
0
-0.0003123840874422716
-0.0026873118201298117
-3.0989012862870665e-05
0
0.00076838885743505737
0
-0.00083572719057598368
-0.0010446675963401645
-1.5440417160633084e-06
0
0.00027734592812821742
0
0
0
0
0
1.3070058425462007e-05
0
0
-0.00031499154065014188
-0.00013528718316385631
0
1.576343573872804e-05
0
0.00011760824157376575
-0.00027803397754230753
1.9918227954777851e-05
0
2.7642715376539657e-05
0
-0.00052494529259335099
-0.00015628325987735578
0
0
2.8469029726597521e-05
0
-0.00026115444047224666
-1.4788777349421281e-05
8.0697644317505174e-11
-1.2484949690668746e-05
1.4926838219819725e-05
0
0
0
0
0
1.7435345769851253e-08
0
-6.1202255758757671e-07
-0.0013796228133318028
0
0
-1.8765221561486963e-06
0
-5.16406474605551e-05
-0.00051189061966019195
0
0
1.0496479558807813e-08
0
0
0
0
-4.0650655688323683e-05
-5.9940792610719973e-08
0
0
0.00054516546552374695
-1.9880325932042626e-05
3.6486452675761997e-05
1.5633385470549663e-05
0
-0.00030736530309280225
2.3946428824878805e-05
-8.4805061487119296e-05
1.4795304592222602e-05
4.0877459954644827e-09
0
4.4779418295760726e-05
-3.6212042115686852e-05
-1.7761866991688939e-06
1.2310319640349347e-06
0
0
-6.6528382232712542e-06
1.9378687463468833e-06
3.7486731500991444e-07
0
2.560883501761986e-10
0
0
-1.8229506523066319e-06
0
0
-5.7755499044493622e-07
0
0
0
0
0
3.5157303422954923e-06
2.9502635872004004e-07
0
0
5.0694567344716145e-07
1.1473106559953086e-06
4.1620660660998171e-08
0
0
-0.00020813522114410303
1.4556033777424448e-05
0.0003230962315645743
6.9625742493167235e-05
0
0
0
0
0
0
0
-8.5414508020272286e-05
0
0
-0.0002727998370099782
0
0
0
-7.9239446403441601e-05
0
4.1762438751778413e-06
5.1272974812853757e-07
0
0
0
-0.00022097921780036824
1.6624326157805314e-08
-5.323964372083652e-08
0
0
0
0
0
1.5981355035049132e-05
0
0
-9.3309633944507346e-05
0
0
-2.7673865048066403e-05
0
-7.4886088565485171e-06
-2.8630322014249391e-05
0
0
-5.0851085443402833e-07
0
-2.4916038357794114e-06
0
0
0.00021055694943092207
7.1668041619452387e-06
0
-2.0703144179984253e-06
0.00017213695140436876
-7.7424184996944188e-06
-0.0001725825475709746
-9.0594114533488416e-07
0
1.5853035070965984e-06
-1.3227622283790763e-05
-5.5817942389297825e-07
0
5.1933749368364951e-08
0
0.00024276653278488609
0
0
-1.0008858954030253e-07
-5.6192842533757774e-07
0.00028889430640898536
-8.170605843977755e-06
0.00084358767102170979
-0.0036585127409133333
-0.000199563162036741
-0.00020269208757690409
0.0086100850338929578
-0.0082822612469978345
-0.0052615609959493301
0.039901634499272087
-0.0023435420141924516
-1.7713129301146404e-08
-0.00017360288802889873
-0.00013565331471326078
3.1681831440851766e-06
-3.0469588957121802e-11
-0.0039027828835736704
0.0011765617918886003
0.001384091104050353
0.00074730680039757406
0
0.019651538962224189
0
9.0239770429863079e-09
-0.0066667150645469322
0.015260429081310362
0.004271841642847757
1.386686056247179e-05
-0.0060666846523101496
3.783058448618655e-09
1.1154539401822218e-05
-5.7778123950139292e-07
0.0011728055161274462
0.0059779725754205348
0.010949487855052486
2.2189983137562258e-10
0.0010206167783084453
0.0053642146109929602
0.0022505300219549445
-5.8743306387286022e-05
-0.0012880909266569113
-0.00014438868401987252
2.834848365452708e-05
-3.0975956149974709e-07
-0.0016604977217582403
0.00040184926887618111
0.011196901322377016
0.0013060480245181063
0
0.0024707578562060796
-0.00044610863431492195
-0.0099929858494814793
0.041003281815885868
2.0238627701945704e-05
0.0056927871204687222
-0.00024876249263900069
9.3275387636517263e-05
0.011691613704484204
-8.5123195973455323e-05
0.00081639009603813638
0.0062461213845859623
-0.0020511994249783651
-0.0014186470824466713
0.011332069436614411
0.0060279121433151886
-4.8395578667316525e-05
-0.00029535771744393705
-0.021917407632904631
0
-0.0042806152895125604
-0.0018084285760568829
-0.00086522539221190159
0.0059068914568807043
9.0127177870014629e-05
0.0002686856514925498
-0.0012015108584136783
-0.00088966335659619133
0.0033065919274544572
0.00090558179443910004
0.00027647494631888905
0.025174797504351344
0.00044586511856559038
0.0013349493322870976
-9.8027525496341647e-08
-3.1072666741377342e-05
-0.0055787174714434003
-0.006935237344662875
-1.0004311094936254e-05
-0.015639350602865854
0.0021360250083490764
0
0.011025085404068075
-0.0086748676433585237
-0.028652513293494067
0.00090718807319885091
-0.00090282174720819597
-0.00058213340075764005
0.001556541472432615
-0.0040208220306365301
-0.0032898070508203931
0
-3.9776044660177723e-05
-3.3192980200541234e-06
-8.9188421651888698e-05
0.0039381160483839706
-0.032332284750033954
-0.0029091537776507123
-0.0008945995872208963
-0.0047673733310428009
0.0012657144517035446
0
-0.0060216767737871005
-0.012273655569260564
-9.069903962085741e-05
-0.0004775449655963674
-0.00050457030441089957
-0.010685919176219603
-0.003247228023493527
0
-7.5711905213856222e-06
3.3715043682947747e-07
0.00011726069182886148
-0.0078109547263070789
0.0028058754633312798
-0.00036290586966867573
0.0015196831188526176
-0.002128487338635797
-0.0011697547286456714
0.00012806162632208388
-1.9466577455448568e-06
-0.0023458284796553518
-5.2222163071891252e-05
0.00019550665946580257
0.01789778648149961
0.0024288772131521768
0
0.0079757262974307942
1.7351060874335095e-11
4.3524525640540743e-06
-0.0014758519255848521
-0.0011549586444521128
-0.043841166850003332
-0.0021208220382481777
0.0011781865382124808
0
0.0010964091757249251
0.0012602620083432827
0.0013473714809775703
-2.9246376859983159e-05
2.878590491204219e-05
0.0004179276078339878
0.0071587907468904678
0.0046704050623444767
0.0042679182405199381
0
0
4.0916308239493743e-07
0.0052620355898929261
0.012236955582636676
-0.016456152939136538
-0.00058336317943815156
0.0014707495749219108
-0.004258233590833856
-4.0169309368970295e-08
0.00081167644914169671
0.00018883983919280607
0.016898988838510546
-0.00045831115781478385
-3.3826853968851653e-06
-0.0012495286013253005
1.5989221022149969e-05
0.010332136136372332
0.00026821386785258656
-1.4471235971618012e-09
-0.0022862656644238272
-0.00010735483489601088
-0.086325551221962393
7.0595298888416944e-05
-0.0031984667299427235
-0.00047988905447654979
0.00043001257560805906
-0.009728729105670195
-0.01043901786053103
-3.1803186503049272e-05
-4.2278564330620778e-06
0.003919610544568769
-0.00036415932980951116
-0.007274744251237736
0.0066069663409886025
2.1825886797180273e-05
-0.00017205296655630652
5.0342570969825532e-08
0.00082026361423814418
-0.00020059300794037502
0.00016659160779710342
0.0053340446880738275
0.00018088968252244009
1.1033927728292047e-07
0
0
2.5236948982027818e-06
0.0013984733930017704
0.0014660675430243264
-0.0055699736789711751
-0.0014964374629054119
0.00025963642985575412
0.0032708354914616458
0.0019911839125521988
-0.0046864888932000321
-7.5229892594434809e-06
8.6913125558173165e-05
-8.2506486963244158e-07
0.021509955751141115
-0.020383824354568335
0.0035867108433779225
-3.8122811269709714e-05
-0.001149039926427637
0.001644131312265261
-0.00034531358369752042
0
0.0029291351949868793
5.0761135247375945e-05
0.00084729815659551956
-9.2398178551731064e-05
0.069049481148291417
0
-0.00063388511860254092
-7.2438203060993046e-07
9.386955888005829e-08
-1.0626754545708819e-05
-0.0276159451091595
0.0057763312357370948
0.00097626149649490299
-0.00018914242394240324
-0.00051748298151797767
-0.02838719805260467
-0.00085634534089744818
0
0
0.0085889522025019514
-6.9221958547544121e-05
-0.00010354153427252164
0.00053028955867172941
-0.0060522128854501138
0.0014262677128914038
1.3726301160711512e-07
0.00056456506888091632
0.0084425510684671117
0.011174718707136221
-0.0026133349779809112
9.5834888702845842e-05
-0.00084876971246338894
6.522494480257645e-05
0.0044072129345895964
-0.00038150166775546829
0
0
4.9573648125021669e-06
-2.2674349218684091e-05
-0.015248359187738206
0
0.0006930488947708834
0.0024238612750976693
-4.9129858413411656e-07
7.3631447042135339e-05
0.0042439274020609485
-0.0052816188043482443
0.00017008101999035802
4.9754865841872558e-06
-7.7528276040156001e-06
-0.00066219380289845014
0.0070795951085291129
0.0082145926189561083
0.005778177687892759
-0.0054394778949195281
-7.5451128849786722e-05
0.00017843140735729896
0.002092270843723357
0.0028840100018460483
-0.0097154930923341407
-0.0026857707580942866
0.037722957395909036
0.00042360523341798602
7.5841461514769551e-05
-0.0015668792293327635
0.0037089306844669797
0.0080549015784428506
4.0526562574388114e-05
0
0.0033335444626836938
0.04457241946833293
-0.00057428827200739149
-0.00014454278180562599
0.00027114314562398943
0
5.0040530000153616e-05
0.00026603772381410154
8.2571468682362132e-05
-0.0033059313894330165
-0.00014924689686113903
-4.995789028197278e-05
-0.0016074414911304729
-0.0012783962406283491
-0.00099379637102571636
0
0.00031673129080775483
-0.0015802544886105308
-1.935080679944226e-06
-0.0001249501364903606
0.00064112998321532062
3.401817565841435e-07
0.0021151110318668935
-1.7826165770013847e-05
0
-0.020004640536099075
0.011569103494416625
-3.4115156347395623e-05
-0.00034980479529185765
0
0.00089545857223326383
0.040945590006527352
-0.0098992451690849848
-0.014029831492566787
-0.0035087158507539533
0
0.0084673024763559923
-3.1760709052736285e-05
-0.0063727191704705923
-0.01539780980149243
0.0053274325649106894
0
0.0019855562408031902
0.00058719627023167851
-0.00099374595570873186
0.0015651034011253155
1.0408788889387437e-05
-9.6651535205368448e-05
1.4173422073507934e-05
-0.0055849773700938129
2.6677150169126868e-05
-2.3089959116837503e-06
