0.098755363392715526
0
-0.011389662609743669
-0.0028516325437905735
0
-1.5838393635211462e-07
0.099998699575139488
0
-0.0018161915233559371
-0.043172534181977487
-0.00011328433935460028
0
0.14004515142306243
0
0.0015681425291717713
0
0
0
0.098214499529530264
0
0
-0.006497709931801752
9.6262391075927129e-06
-0.00022462922347534048
0.099564444512191458
0
-0.0058763777440214732
0.00023307812064135065
-1.6453468204916372e-05
0
0.099587597939065492
0
-0.00094268662880803015
-0.00090508347175610856
0
0
0.095598262251725671
0
-0.0017492941336979618
-0.0073141342985715728
0.00026530355788353938
0
0.10026206390911188
0
0
1.9478372136621295e-06
0
0
0.098273554113230494
0
0.00048780362962474105
0
0
0
0.095692900258522812
0
0.0054913724383089729
-0.0014269624182048927
0
0
-0.0086777130017653779
0
0
0
3.911799633045286e-06
6.9161152866666683e-05
-0.00088122971250591156
0
0.0018687176082736422
1.0848523243429309e-05
-3.8701898447004098e-05
0.00074331219594058655
-6.9887079934148741e-05
0
0.0015806809681337324
4.4985035544086131e-05
-5.1711534660566119e-05
0
0.002300939678973519
0
0.00046093800062554588
0.0011254889079001331
-0.00013070311147561753
-0.00013473531632063354
-7.9576730630318544e-07
0
-0.00033017812143382408
-0.0012964958842786626
6.2583082178923449e-07
0
-0.0041800299267940252
0
0
3.2610736162140715e-06
0
0
0.0002256964920963284
0
0
0
0
0
0.00062430724107141494
0
0
0.0018407362856398654
9.2098237804678792e-05
1.1761132446112963e-06
0.00046114842169066289
0
3.7966061542052144e-06
0
-3.3385071726739165e-05
0
0.00046692368196184827
0
0.0033707108828031581
-1.7521789573055965e-05
0
0
4.8876295837116579e-08
0
-0.00097908304359023944
0.00057332114818341813
0
1.4908225511114353e-05
0.00011604604229460265
0
0
0.00024134449754693716
0
-2.2761801907453111e-05
1.0911562659845002e-05
0
-0.00026484700762615689
0
0
9.5992642735015556e-08
-0.0014682352737725491
0
0
0.00056967738822642896
0
0
0.00011172340188284136
0
0
0
0
0
9.45101099623464e-05
0
0.00067710836854156038
8.7477410977671629e-05
0
0
-1.890525692195589e-06
0
0
0
0
-0.00026857964868422148
0.00018882121113889832
0
-0.00052413171145303196
6.8585038541880172e-05
-4.455183563416093e-06
0
5.4654985372822829e-05
0
-0.00097648050115605681
0.0023651665490123175
3.5165796492984455e-05
0
1.7234859678604834e-05
0
-3.9065176922066837e-06
0
0
-5.34433974253593e-07
-0.01273105970902879
-0.00056284315929964405
-0.063992156604486275
0.04497280203961336
0.1174706468775597
0.025602531012995318
0.12837773780598466
0
-0.0057485412741884187
0.029994001411832606
-0.077570076226738699
0.044777181713773449
0.29130047467874665
0
-0.023442380121261364
-0.11192180324819115
-0.035623694730401632
-0.047673886183091096
0.48156101274088092
0
-0.021673434810877072
0
0.015489243033598766
0.078198919197877789
0.36954601546997246
0
0.01971479844784222
0.11242132535025005
0.0012042426677348281
0.018577840548980394
0.41574878049235142
-0.00026100317632472348
0.045025282564673016
0.15291260846547741
0.035622174949530003
-0.0017925657726722661
0.37854221123678844
-0.0030407441739299847
0.049579183157794152
0.081393415498090857
0.16158815298847312
0.14300422025890785
0.89758336903363201
0.00330448302644579
0.0089975332524256813
-0.0023850169682196184
0.017261907775078755
0.048493841014394655
0.54940638612399628
0
0.041387245673506608
-0.0025732923945069354
0.012268972070256233
0.034826580185817774
0.70584607749790851
0.0008899464151938079
-0.016133186662449759
0.0091995371267919041
0.036579171356553856
0.15406425285871295
0.80378125293998526
-0.00019574100791332189
-0.034063136140665536
-0.13011323743219988
0.044180356305649829
0.077158083280025699
0.75904260424941694
0.00077832313809500042
0.065567209201610119
0.28887389005441338
0.12441868855673045
0.011094525602058361
0.99594898737539284
-9.3742595199849569e-05
-0.12232870458350678
-0.01260566413930002
0.27413115829652523
0.024620227642532008
0.61744158612291544
0
0.0033314635866123305
-0.04710346198067427
0.034293252453355412
0.15911213100571647
0.39488060410407405
5.2864130645127157e-05
0.01176253765877378
-0.04722575058893292
0.17567060647633709
0.19280820080397693
0.38144288563221407
0
0.0064379701238716147
-0.028785424681866567
0.0079503480993526852
0.02819994870330474
0.8797553685541557
-0.00099159126990510738
-0.035455063812862994
-0.014145581840913428
0.081664479452815977
0.22758235690589451
0.64612613348994263
-0.0052801926154594711
0.012913334582084275
-0.21598969354069786
0.11708758785866323
0.096740165442747564
0.68159996551664026
0
0.0032009335170778879
0.14437827164951844
0.12579193717504836
0.11647595567978053
0.51932100122639757
0.00051952682153843968
0.18662176244610842
0.17098737253915147
0.040201933884199931
0
0.82131511533965795
-6.9629739431968328e-06
0.016023326601602248
0.038654072219858095
0.13493939398962987
0.20692699002208739
0.80713594761268537
0
0.014428036398760186
-0.032738918200419603
0.10175936056720693
-0.00011096334115439495
0.64890336324906128
-0.004612414363461978
-0.19586816220616907
-0.041373188360957283
-0.012464005829177742
0.077616660364779391
0.89191424211396209
0.00038815475355695011
0.028293243515575484
0.00039597640022441235
0
0.081241830654980612
0.95522842659919127
0
0.12642646690993523
0.051359593526067823
0.038276582768604669
-0.067538436154952391
0.62805564249378742
0.0015058448524210718
0.077513286161585385
-0.025782988578888492
0.072211081035412253
-0.00021297318964854961
0.6806204028103251
-7.3746131577749803e-05
-0.020506946916721981
-0.048993812309400905
0.10567511546835036
-0.091888527407620227
0.71597256087243022
-0.00010714314356966282
-0.073138683742578411
-0.020210513362378772
-0.039102179378878853
0.26415912614488174
1.0144799485734781
-0.0014432335291713484
0.00077817579429100686
-0.132771712905835
-0.035983010477107953
0.13014185448234741
0.053511130677167819
-0.00055329117246316736
-0.015149474313920648
-0.016747142621642987
-0.0050926050752143348
0.10377435167965225
0.0097993693587703698
-0.001970245981654687
-0.036583803834800643
-0.064546788624115947
0.0087324341862100134
0.0030520368896521152
-0.0053682151885804559
2.9487095226049576e-06
-0.10169789145317516
-0.056744123212126373
0.028148590949984217
0.00033083898209533129
0.15707130488464438
0.0016232833076902087
0.18622677281676728
0.041993315678303979
0.070588458037985025
0.021394111395356529
0.10417953469522122
0
-0.054042240427647166
0.0015343093861745101
-0.093200823510465255
-0.00035980669513036576
0.085115183604065767
8.2309070842738604e-05
-0.038285056739288927
0.030463822731931173
0.0065202789950923028
0
-0.0068787803670950567
0.00014637603909926187
-0.069298253572753571
-0.051577986697539387
0.061155763505240941
0.0035867108433779225
0.20608687678838156
0.00098573046197903552
-0.026157604933904798
0.047945569405115566
0.00053134895769022558
0.0005897488916171876
0.093891927572427411
-0.00021906284356637646
0.002163142536690167
0
0.00011500644143417788
-0.0016850921854260944
0.016633916969584168
8.6992359401027002e-05
0.00026710144036326826
0
-0.0023319445319681417
0
0.076151567173031037
0.00068323513516725036
0.023376528283309543
0.0030753671912220103
0
0
-0.095512335670645765
0.00089834556218945324
0.013619250187030033
-0.0039927017844640896
0.00083709089149056374
9.6555442931940501e-05
0.34938201573555239
0
-0.0242336077824254
-0.09518610779638112
-0.0094427662582430016
0.0082137070131610545
0.39009392736597231
-4.2436730210052972e-05
0.058508754947645424
0.040651666890620691
0
0
0.038151957077295233
-0.00030829557965566926
-0.041459356665257151
-0.045995007114167423
-0.0028968324271127759
-5.7151493004801719e-05
-0.2621624690590364
-0.00060361714951318989
9.7215064270565131e-05
-0.0078891693918026855
-0.024967801047773176
0.0023187136075751998
0.093804145808061443
0
-0.076724936877061417
-0.077773878490240783
0.0050369592606815082
0.00044657278375845517
0.040615137937264796
-0.00023619737080906854
0.00048340043670648108
0.057097785351687358
0
0.00096359247660641567
-0.028701550191774384
0.0011225411399475285
0.027867591424416381
-0.13868083249086874
-0.0035930921240075967
-0.00084169226210202791
-0.068623918843756113
0
0.20369676312382007
0.065841000782735165
-0.013654271954737856
0.00022223423673207169
0.05243554604112511
0
-0.0050931988086931231
-0.074051237597391836
0.0056379613976585558
0.00043765401411080925
0.077081769992805985
-0.00013695647994656264
0.0023578668967348714
0.20616942942719571
-0.0077434474959287951
-0.0040006794906948841
0.046980969722373034
0
0.019195660137068374
0.15546880515952793
-0.0025440180904272064
0.0074722015181511994
0.087672245909186139
0
0
0.0060196259119226258
0.0010422037316425393
0.015096218529041069
0.1428773977588958
0
0.048218181143224959
0.015549756268802343
-0.00011841215711044795
-0.00075228450321485887
0.060016290625233962
0.00026494418324689219
0.043568372977543075
-0.057340061342607787
0.0055882356342527671
-0.0032061914070947986
0.0083725661905299509
0
-0.04681485667186365
0.0097804571649163421
-0.067426232443112216
-0.0041225567182833003
-0.019986952088889683
-0.00014924792223128071
-0.081444808465103519
-0.088143537754403076
0.014410912007422181
0.010513782093036682
9.8272598880492562e-09
0
-0.0016250345446723509
-0.0017563306714065904
0
0
0
0
0
0.00023336520436669585
1.5440417160633084e-06
0
0
0
0
0
0
0
6.563148602062266e-06
0
0
0.00031499154065014188
0
0
4.0280096745469515e-09
0
4.6150295991432851e-05
-0.00033843887593733649
0
0
6.685403814561797e-10
0
0
-0.00034026721045096579
0
0
1.6814583923790048e-07
0
-1.0262494576624418e-06
1.3883677138938151e-05
8.0697644317505174e-11
0
2.1010651794857485e-06
0
0
0
0
0
5.1267644516631322e-09
0
-6.1202255758757671e-07
0
0
0
1.9362257790957522e-06
0
0
0
0
0
-4.3145494401500371e-09
0
0
0
0
0
-1.1777285865522257e-07
0
0
-0.00046700175562527972
1.5050082356568901e-05
0
-2.7233818736849664e-10
0
0
-2.6595787185498157e-05
-1.7029932320226713e-06
0
-7.1263647520736638e-08
0
0.00015040087230902102
3.6212042115686852e-05
1.0648433724592502e-06
4.9855294835702743e-07
0
0
-6.6528382232712542e-06
-2.7742866996459922e-06
-3.7486731500991444e-07
0
-5.0100190855491077e-10
0
0
-0.00031444123766143051
0
0
-5.8318563728673841e-07
0
0
0
0
0
2.7227589219577084e-07
0
0
0
-5.0694567344716145e-07
7.2981558017266837e-07
1.5296784878776015e-08
0
0
0
0
0
0
0
0
0
0
0
0
0
0
0
0
0
0
0
0
7.9239446403441601e-05
0
-4.1762438751778413e-06
1.2832057861229154e-06
0
0
0
0
-1.6624326157805314e-08
-4.9872046786250597e-08
0
0
0
0
0
-4.3534542123709015e-08
0
0
0
0
0
0
0
-7.4886088565485171e-06
2.8630322014249391e-05
0
0
-5.0851085443402833e-07
0
-2.4916038357794114e-06
0
0
2.2320574931832628e-06
0
0
2.0703144179984253e-06
-3.2812141600095646e-05
-1.6893156933850969e-06
0
0
0
1.2323695277036671e-06
2.7537156644944915e-06
-5.5817942389297825e-07
0
-4.1978822498192129e-07
0
0
0.00021097348661993829
0
0
6.6290699805805682e-07
0.00012544172995510589
8.170605843977755e-06
-0.00085174967294962935
-0.00027249042892933152
0.00096194692677585179
-0.00020918746373774645
0
0.0026144677611801442
0
0.00090623019189104217
-0.0023435420141924516
2.4105835213113875e-08
0
-0.00013565331471326078
5.8108382057721378e-07
-3.0469588957121802e-11
0
-7.880009912039446e-05
0
-0.00074730680039757406
0
0
0
-1.3382492919584573e-08
0
0
0.0031036268140955509
-2.9670345755935078e-06
3.0648623610031288e-06
3.1982707421100517e-09
3.8442126481802655e-07
5.7778123950139292e-07
0.049776990696549117
-0.00061854439449232049
-0.0035706842324254107
-2.2166647291901077e-10
1.2986123475599711e-08
-0.0014845526652019127
-0.006633405661588045
-0.00075352754467521578
-0.00010130550187208079
0.00011966087106455535
-4.1710400716075392e-05
3.0975956149974709e-07
-0.00054588124223177849
-0.00096671129401828724
7.7134030375212044e-06
-0.00042693876883166665
0
-0.0074044446718454773
-0.00044610863431492195
0.00033888845370043836
6.4732633928533381e-05
-3.7065676503936564e-06
0
0.00024876249263900069
-0.0019291519634075617
7.6013154398715227e-05
-0.0003605319958725791
-0.00014586611689039605
0
0.0078227757527728342
-0.01085877200521573
0.0030049292374426831
-0.0013254341451568701
-0.0002215940835811451
0
0.00073377342414350619
0
0
6.3812096094595177e-05
-0.00033066500698283191
-1.1934201289755897e-06
4.343052617247777e-05
-0.00068109840315520105
-9.818608948480433e-06
0.0013097053352276835
0.00073374378544432126
0
-0.00041184755935262587
-0.00024199172621436709
9.5145025044599584e-05
5.2542784451073089e-05
2.1761442105487344e-07
-2.7824508346879226e-05
-1.9149754536357492e-07
-0.0066281350872055764
-1.0004311094936254e-05
0
9.0191069769107803e-06
0
0.011249394939876922
-0.0011159193234580992
0
-0.0011373080803804717
-0.0023889198099268944
0
-0.001556541472432615
-0.0069357394605324358
0
0
0.00012581509009719689
3.3192980200541234e-06
6.0307289340442966e-05
0.0039381160483839706
0
-0.0040686414721608838
0.00021374978359634821
0
0.0014229727612185532
0
0
-0.00053976778008691219
0.00019594344270616208
-3.4834282936080697e-06
-0.00049960798028119932
-0.010685929188088202
0
0
-7.4946641160328626e-06
-3.3715043682947747e-07
0.0015050559289597014
0.0091298638425261203
0.00043638774324260065
-0.00018162498848067624
2.7010314431693899e-05
0
-0.0011697547286456714
-0.00029242523367919537
1.9466577455448568e-06
0.0025808587243684798
-2.4474209015773717e-05
0
-0.0054095535825147735
-0.003009314817293769
0
0
-5.0527733878785667e-11
4.3512014160786851e-06
-0.00026848079118600688
-0.0011549586444521128
0
-0.0016966730496427106
-0.00029029140919633657
0
0.0031805341592750789
0.000891396553785532
0.0002714655164839444
-1.8068162356651076e-05
-0.00010000189633418635
0
0.001177977821279118
0
0
0
0
4.0916308239493743e-07
-0.00377200292407523
-0.0073922059991192394
0
0.00058336317943815156
0.0015461624730244425
4.0450508716670366e-06
4.0169309368970295e-08
-0.0027547179457158679
0.00057659274067016822
7.7601450966584623e-05
-0.00045832169366364901
3.3826853968851653e-06
-0.0017832966503737863
-1.5989221022149969e-05
0
-0.00026821386785258656
-1.3945609824627905e-09
1.6227205376259413e-06
-0.00010735483489601088
0.0012023185009581475
-7.0595298888416944e-05
-5.70736021967824e-06
0.00075271821287556633
0
0.0011291958023604185
0.006021377355440556
-3.1803186503049272e-05
-2.7487859723810384e-06
-0.0034392686665671792
0
-4.0241932990939528e-05
-0.00079369779849183808
-1.4123286212182384e-05
0
1.074496266197947e-07
0
-0.00020059300794037502
-0.00016659160779710342
0.0041522586590089089
-0.00058464085721242755
-7.424350775779232e-08
0
0
-1.5662192740478651e-05
-1.9573022639368296e-05
-0.00079137660023012634
-0.00027597515206813166
1.1519725076762126e-05
-0.00025963642985575412
0.0012025907003970248
0
0
-1.1128227991556952e-06
3.1412552574745939e-07
8.2506486963244158e-07
0
0
0
5.151039442191011e-05
1.6128671180949655e-06
-0.002244305042832212
-0.00034531358369752042
0
0.0011898860920991959
-2.4550561635046833e-05
0
-9.2398178551731064e-05
0
0
-0.00063388511860254092
7.2438182074179865e-07
9.386955888005829e-08
-1.0626754545708819e-05
0
0
0
-0.00018459314978636597
0
5.2542936523148973e-06
-0.00085634534089744818
0
0
0
-1.0444681310375411e-05
-0.00010354153427252164
-0.014137877420483242
-0.00055485445667208082
-1.8819922731433197e-05
1.3726301160711512e-07
0
-7.2329532097335273e-05
-0.0099229225761830048
0
0
-0.00043034413401337747
0
0.0035390223011387808
0.00038150166775546829
0
0
-2.2274347511852745e-06
-2.2674349218684091e-05
0
0.011708762707332926
0.0006930488947708834
-0.00054227833110980948
-5.2407344427730261e-07
2.1382662922206603e-05
0.00024162199969488538
0.0027746167221348421
-0.00017008101999035802
4.9754865841872558e-06
7.7528276040156001e-06
0
-0.0090896117669551565
-0.0068084989903910318
-0.0015567620466140383
-0.00048517146356405775
-8.5851046712161932e-05
0
0.0041009950839602845
0.0028840100018460483
0
-0.0011130998595135608
0.00053304409248155062
0
-7.5841461514769551e-05
0.0015507594913975581
0.00069498046603278245
0.00070787347021958465
-5.8553437990392496e-05
0
-0.0033335444626836938
-0.00064772324303033013
0.0001683771456642417
-0.00014454278180562599
0.00027114314562398943
0
6.3508832294291093e-05
-0.00020581160389808402
-7.4948645895039087e-05
2.7104441956929756e-05
-0.00017578613669575605
0
0.0016074414911304729
0.00018325709506971245
-0.00050530560634827525
-0.0026148544330221032
-0.00040170429519991601
0
-0.00020671062333582515
0.0001249501364903606
2.2359121338181914e-05
3.401817565841435e-07
-1.4982063643631178e-06
0
0
0.0019385301368110338
-4.9910350238018427e-06
0.00061421661679820539
-1.8518528835987731e-05
0
-0.00089160674225770547
5.59304220064614e-05
0
0.0014624911420792115
-0.00034219245473268668
0
0.002018084373365394
3.1760709052736285e-05
0
0.0006284820387835935
-6.6801681185513089e-06
0
-0.0019855562408031902
-0.0050673222908583886
-0.00099374595570873186
0.00073829284977736608
-6.674339377662621e-05
0
1.4173422073507934e-05
0.006319375311806907
-2.3675932668625246e-05
-2.3089959116837503e-06
7.2708264924327238e-09
0
0.00069225940332113915
0.0030682249899972491
0
0
0
0
0.00029996289420233699
0.0011774005923038411
1.5440417160633084e-06
0
5.5370805851446886e-07
0
0
0
0
0
1.4853638621124e-05
0
0
-0.00031499154065014188
0
0
1.2996724177745801e-05
0
0.00020659434820917435
0.00060843871250804442
0
0
7.3181813166325558e-06
0
0.00052494529259335099
0.0005113882179116078
0
0
-8.791016368096551e-06
0
0.00066677210676581748
-1.4383005426362458e-05
8.0697644317505174e-11
1.2484949690668746e-05
3.3263648101802921e-05
0
0
0
0
0
-1.3200242699289752e-08
0
0.001136859550918906
0
0
0
1.8668404157157816e-06
0
5.16406474605551e-05
-0.00051189061966019195
0
0
6.2167868372224007e-09
0
0
0
0
-5.1207929283047607e-06
1.5666310173117525e-07
0
0
5.1420748993733441e-05
1.9076495060515384e-05
0
1.1032873604718607e-05
0
0
1.0629971906516346e-05
1.7578537781440663e-05
-1.4795304592222602e-05
7.7114614774845969e-08
0
9.2391013876343532e-05
-3.6212042115686852e-05
2.4741698170325198e-06
2.2414143075921913e-08
0
0
-6.6528382232712542e-06
4.9538332600117677e-06
-3.7486731500991444e-07
0
1.0157231596717006e-09
0
0
7.2589230708033211e-06
0
0
6.0737812902720095e-07
0
0
0
0
0
3.6589051923989822e-06
0
0
0
-5.0694567344716145e-07
4.5609653524032367e-07
9.4397961628999348e-08
0
-3.1537375597061252e-05
0
0
0
9.7293854506039419e-05
0
0
0
0
0
0
0
0
0
0
0
0
0
0
-7.9239446403441601e-05
0
4.1762438751778413e-06
4.3324857585900074e-06
0
0
0
0
1.6624326157805314e-08
-4.6547417007347287e-08
0
0.00063147195688593094
0
0
0
1.5981355035049132e-05
0
0
0.00014156860091504039
0
0
0
0
-7.4886088565485171e-06
-2.8630322014249391e-05
0
0
-5.0851085443402833e-07
0
-2.4916038357794114e-06
0
4.5836550256178451e-05
5.5829827146550622e-07
-1.902257105654037e-06
0
-2.0703144179984253e-06
1.8084846653010607e-05
4.3637871129242251e-06
0
1.9824051490957192e-06
0
-2.278738560125493e-06
-4.1370802396487118e-06
-5.5817942389297825e-07
0
-1.3176912033307162e-07
0
-0.00032330636636398227
0
0
-1.1931358066441995e-05
7.6537767064401409e-07
0.00023612556493460011
-8.170605843977755e-06
-0.0062974398565838665
0.0054500633773662153
0.0077148218510403321
0.00042307944969629721
0
0.0036309865736214907
0.0052615609959493301
0.0036816680815165165
-0.0023435420141924516
-1.9875326810616072e-08
0
0.00013565331471326078
1.8489548669239905e-06
-3.0469588957121802e-11
-0.0071467283511822098
-0.019901282215143538
0.001384091104050353
-0.00074730680039757406
0
-0.046676852531499322
0
-2.5183736349206731e-08
0
0.015260429081310362
0.00062205329657929976
-3.5762381764932466e-05
-0.025100102782102202
6.1025243598435319e-09
-3.1808742837359608e-05
5.7778123950139292e-07
0.047927593635755952
0.00086593434827990433
-0.0018501000313931254
-2.1738319874283451e-10
0.00036782714063097782
-0.0033432765942824827
0.00060830819310552908
0.00022383663261902017
-0.0010854799229127483
0.00015647397956870728
6.8481011451911316e-05
3.0975956149974709e-07
0.0013822266469447071
0.00060432956609296506
0.011196901322377016
0.00053881053893268215
0
-0.0031821196038005544
-0.00044610863431492195
0.00067106624495136301
5.6528260854932759e-05
2.0095133523356702e-05
-0.0010758489531839405
0.00024876249263900069
5.05186779824479e-05
-0.0020875390082618676
-0.00042855119309277099
0.00033280747390985446
-0.0028135578776464633
0.014040584473445705
0.012475182456978259
-0.0016779386351770285
-0.0058705537669355339
0.00053879264485470876
0.00026768421946111
-0.021917407632904631
-0.02804233635523088
0.0090805093825366001
0.0036651838587430509
-0.00030528427517645298
-0.00049497647266765474
0.00014788849907663548
0.001560550838784218
0.0025813109409420477
0.00041224970384872144
0.010710537065614083
-0.00090558179443910004
0.00023942805836418948
0.00024199172621436709
-0.00018252682408259014
-0.0023337241600465547
2.2714645809678415e-08
-9.109896462660246e-06
0.0055783344763526733
-0.0070781379120847228
-1.0004311094936254e-05
-0.034815247692261735
0.00099656496389084162
0
0.011184671741634173
0.01468841535520706
0.028652513293494067
-4.918681359406259e-05
-0.00087960325550606277
0.0014849503316314398
-0.001556541472432615
-0.021832280466142145
-0.0032898070508203931
0.0073887209551534109
-6.1889123635306111e-05
3.3192980200541234e-06
0.00011610759679007632
0.01071541154510048
0.01262294865611184
7.6879473140159396e-05
-0.00082723809923831851
0
0.023828447031727616
0.026333861632225605
-0.0060216767737871005
-0.0022760746793713382
6.2058849935000101e-05
-0.00074871677300617303
-0.00052614859273343215
-0.011092184531887197
0
0
-7.5353785816332512e-06
-3.3715043682947747e-07
-0.0017206705131159008
-0.0057131996915839624
-0.0014063502585175034
0.0014636141086314274
0.0014305918582309608
0
0.0011697547286456714
0.071897322452710757
0.010939476042859492
0.0023862273926775791
5.2417500351928648e-06
0.00019550665946580257
-0.0048213594110329879
-0.0034110356733945196
0
0.0012231159279838405
-5.0483550807436313e-11
1.2699321899061688e-05
-0.0029598635496691059
-0.0011549586444521128
0.043841166850003332
0.0044402580619651863
-0.0011444714914817249
0
0.0036488990856601649
0.0019538343013084805
-0.00056795260113210139
-3.1523843136216399e-06
-0.00011088808456557577
-0.0004179276078339878
-0.0074950399052459461
-0.016997477319311945
0.0042679182405199381
0
0
-4.0916308239493743e-07
-0.0059793488804525093
-0.013273549903704758
-0.02395664243860135
0
-0.0014889908444137994
-0.00020089054970866846
-4.0169309368970295e-08
-0.010001314420442893
-0.0064380560801129607
0.012107450511653984
-0.00045832200365454601
3.3826853968851653e-06
0.0029986935918900294
-0.020168643754071756
-0.00057031211404085218
-0.021452330212068021
-2.3852679163957357e-09
-0.003606747033308268
-0.00010735483489601088
-0.084787383271356931
-7.0595298888416944e-05
-0.0032019877510993185
-0.00056205435877459443
0.0028525678423617297
3.9393110023535334e-05
-0.00468779480539525
-3.1803186503049272e-05
-1.0696403510225373e-05
-0.0028241765404462757
0.0002901142670087748
-0.007070255127062562
0.0046060508362941932
3.9648173761638274e-05
0.00017205296655630652
-6.5026790047856183e-07
-0.0049953792044504378
0.020164483586186308
0.0060376192067462401
-0.019154330110220441
-0.00019201554619149952
3.7477865949639236e-07
0
0
-2.365365936892591e-05
-0.0022139958049717597
0.0020031441844900921
-0.0064308197489842591
1.9136128932800344e-05
-0.018608618691923321
-0.0029066839193623152
-0.0019911839125521988
-0.0046864888932000321
9.9107315289817873e-06
0.0001492110259966714
0.0073286556046068627
0.038110727539718683
0.020383824354568335
0.009786452241177435
-8.0854641297520332e-05
0.0011460967272114526
-0.0049648336850044517
0.00034531358369752042
0
0.0042475272884906577
4.1044162198674822e-05
0.0006059469353481879
-9.2398178551731064e-05
0
0
-0.00063388511860254092
7.2436837465001705e-07
9.386955888005829e-08
1.0626754545708819e-05
0.0276159451091595
0
0.00097626149649490299
-0.00017814644075976431
-0.00025186722926905385
-5.2542936523148973e-06
-0.00085634534089744818
0
0
-0.0039352373747726594
-8.8962737082234081e-05
-0.00010354153427252164
-0.0063764436871526376
-0.0055902157060848234
-1.8819922731433197e-05
1.3726301160711512e-07
0.0015504820698728837
-7.2329532097335273e-05
-0.0074708778154244076
-0.0026133349779809112
0.00142414456290714
-0.0019939944322093614
6.522494480257645e-05
0.00052262634263210812
0.00038150166775546829
0
-0.010059250887007294
-1.3946183158426158e-05
2.2674349218684091e-05
-0.004632205439001739
-0.014228993213372506
0.0006930488947708834
-0.0018402356734522575
-4.7425047732706683e-07
-4.6025830192569055e-05
-0.00048995735420781907
0.012273219344815461
-0.00017008101999035802
-4.9754865841872558e-06
7.7528276040156001e-06
0.00047864929029624607
0.0005854261737595199
0.0098405108479005209
-0.0027958888030478104
-0.001151846675206162
-2.6691217850409735e-05
0.00092918054705403179
0.0027229750188102705
0.0028840100018460483
0
-0.0036223212636643277
0
-0.00022149149859034659
-0.012703106355809495
-0.00015308482694973666
-0.0077410838345782912
0.0098342805702896201
-3.6906151304805181e-05
-0.0048065154332195791
-0.030415220090943749
-0.0025129783774986291
0.00090049353516737302
-0.0017233831739955192
0.010312014629796341
0
-1.3404527927020712e-05
-0.0011149158935562537
0.00033358792421614691
-0.0029623727267977539
0.00043464176769893712
-1.4642589949881203e-05
0.035280052787094007
0.0018185051132955383
-0.0016611655555809129
0
6.6970334429138222e-05
-0.00052700630708907325
-0.0025729098435204132
-0.0001249501364903606
0.00058490614304427949
0.0068964288500022973
-0.0028747382729739281
1.7826165770013847e-05
0
-0.020523307592220749
-4.9910350238018427e-06
-0.0018224957710502477
4.1273373782831194e-05
0
-0.00086020091993331245
5.59304220064614e-05
0.0098992451690849848
0.002150836020034008
0.0053675055648158563
-0.001736766074103273
-0.0040561820142637752
3.1760709052736285e-05
-0.0068937327321394164
-0.0049226625423462239
-0.005964815251129402
0
0.0027144969974464625
-4.553567561042316e-05
0.0036539508859534013
0.00043393737425289909
3.3490709479285501e-06
0.0016687704339221237
-0.017517941930765352
-0.0099751384269846383
-3.2846554946934801e-06
-2.3089959116837503e-06
-1.1130827476039663e-08
0
-0.001125106019349635
-0.0021987496009194894
0
0
0
0
0.0007460784556730123
-0.00067546047919942462
-1.5440417160633084e-06
0
0
0
0
0
0
0
-3.6939377019149724e-06
0
0
-0.00031499154065014188
0
0
-4.0280096745469515e-09
0
1.8079848396682867e-05
0.00017584022257221567
0
0
-6.685403814561797e-10
0
0.00052494529259335099
-0.0038776347465901309
0
0
-1.6814583923790048e-07
0
-1.0262494576624418e-06
1.5641471574486317e-05
-8.0697644317505174e-11
0
-2.2925632645878523e-06
0
0
0
0
0
1.7031742484239177e-08
0
6.1202255758757671e-07
0.0012237388782623173
0
0
1.1047129484309829e-08
0
-5.16406474605551e-05
-0.00051189061966019195
0
0
-1.238586321050416e-08
0
0
0
0
0
-1.6250617190200456e-07
0
0
5.1420748993733441e-05
-2.5767902219265728e-06
0
2.6921398630621433e-06
0
0
-2.2217812141935897e-06
-1.7029932320226713e-06
0
-8.3304136995790997e-08
0
-8.4794006380282846e-05
-3.6212042115686852e-05
-4.8527661427748208e-08
1.2451254280873791e-06
0
0
0
-0.00053847301472394866
-3.7486731500991444e-07
0
-5.8212154895025179e-10
0
0
0
0
0
-4.2971030709113882e-09
0
0
0
0
0
-2.8368811075580564e-07
0
0
0
5.0694567344716145e-07
2.6901195395974675e-06
7.2797906606477302e-10
0
0
0
0
0
0
0
0
0
0
0
0
0
0
0
0
0
0
0
0
-7.9239446403441601e-05
0
4.1762438751778413e-06
-1.5798965728533761e-06
0
0
0
0
1.6624326157805314e-08
4.2577281633920783e-09
0
0
0
0
0
0
0
0
0.00014156860091504039
0
0
0
0
0
-2.8630322014249391e-05
0
0
0
0
-2.4916038357794114e-06
0
0
-7.4994223195376354e-07
0
0
2.0703144179984253e-06
6.7364607635254274e-05
0
0
0
0
1.5100127665957302e-06
1.9074286724265174e-05
0
0
8.1366464003425697e-08
0
0
0
0
8.3151315656336137e-07
-5.7135462937930358e-07
0
8.170605843977755e-06
-0.0016953373439713391
-0.00027249042892933152
-0.0011670285003763537
-0.00033884358477078948
0
0.00021162471658160126
0.0052615609959493301
-0.00082549350178401392
0
4.5317711737440807e-08
0
-0.00013565331471326078
8.2008434403667343e-06
-3.0469588957121802e-11
0
-7.880009912039446e-05
0
0.00074730680039757406
0
0
0
-2.4470797130005835e-08
0
0
-0.0010983585481998239
-2.3818265814699992e-05
3.0648623610031288e-06
-3.7686829991442845e-09
-1.120110018222345e-05
5.7778123950139292e-07
4.624182734945287e-05
-0.00047039717405097578
-1.0480853804757665e-07
2.1167127950364448e-10
-1.2986123475599711e-08
-0.00154848377704302
-0.0022318075263570028
0.0003598173688056547
0.00010130550187208079
-2.9041960537413353e-05
-4.9696947004439265e-06
3.0975956149974709e-07
-0.0001277432172953005
-0.00050627900832628128
7.7134030375212044e-06
-1.1943084750644784e-08
0
0.0078687234155601585
0.00044610863431492195
0
3.6366471481841521e-05
-4.5373266679975975e-05
0
0.00024876249263900069
-0.0020762548762657614
-0.0020875390082618676
-0.00057633952789321757
8.3703953453957843e-05
0
-0.0020511994249783651
0.0022407413838659777
-0.00011290491311085188
-0.0011972031614571081
0.00099016657885850779
0
6.2988716097674364e-05
0
0
-0.00038761794751554718
-0.00151444317751891
1.1934201289755897e-06
2.3240489713197302e-05
3.5789746377029388e-05
-0.00098153650129062086
0.0011017349284136433
3.7745838343872985e-05
0
0.00046430188114294189
0.00024199172621436709
-0.00019032699349100948
-0.00021169105557943956
-9.025672905723863e-08
-7.2914394315917836e-06
-0.0067265846428187547
-0.00027347751179207736
-1.0004311094936254e-05
0
9.0191069769107803e-06
0
0.011464474642261491
0.016460101678832054
0
0.00014972211603742815
-0.00077041703291014718
0
-0.001556541472432615
-0.0040208220306365301
0.0032898070508203931
0
0.00019745360074360839
-3.3192980200541234e-06
-0.00013004280687096007
-0.0084646422533520144
0
0
-0.00055927374819338626
0
0.016148926191786053
0
0
0.00031984059573330308
-5.439580056087946e-05
3.4834282936080697e-06
-0.00049696032892302539
5.005934299854269e-09
0
0
7.4359653568706412e-06
-3.3715043682947747e-07
-0.01743017198295306
-0.0010655191159254914
-1.7271383885746617e-05
-0.00047378239252003434
-0.00054557259325156834
0
0.0011697547286456714
-6.872295160194878e-05
-1.9466577455448568e-06
0.0001638809825126433
-1.9835066909229048e-05
0
-0.0050102459883939864
-0.0022925332755298891
0
0
-2.2681636818492266e-11
-4.4421774781161141e-06
-0.0010521700014810636
0.0011549586444521128
0
0.00054555421849164802
-0.0013678440211081747
0
0.0012754574178467887
0.0017327035509797186
-0.0011404223537564277
-0.00018361192176723462
0.00015804282362873921
0
-0.0063969001296221659
0.0046704050623444767
0
0
0
4.0916308239493743e-07
0.0024808212825780935
0.0075588349243327522
0
0.00058336317943815156
0.001378438237557423
0
4.0169309368970295e-08
0.0067030569589192407
-0.001185696065222967
7.7601450966584623e-05
-0.00045830798771548116
-3.3826853968851653e-06
-0.0026911717456603946
-1.5989221022149969e-05
0
-0.00026821386785258656
-4.941976211861906e-10
-1.6227205376259413e-06
-0.00010735483489601088
-0.0011821853350883608
-7.0595298888416944e-05
3.6873380072294051e-06
0.00093728020059972831
0
4.3080832215252495e-05
-0.0045059252486252732
3.1803186503049272e-05
-7.6704382741292843e-07
-0.00010613391001681444
0
0.0068027458001772593
-0.00079369779849183808
7.0881464714141335e-06
-0.00017205296655630652
1.3698305166199255e-08
0
0.00020059300794037502
-0.00016659160779710342
0
-1.7017081796877096e-05
-9.0202958143249388e-08
0
0
-3.1565997488160687e-06
1.9573022639368296e-05
0.00045037545552866848
9.1995735311173728e-05
0
-0.00026515233580110497
-0.0024445276693901997
0
0
-1.2916087145369903e-05
1.1030844661922123e-05
8.2506486963244158e-07
0
0
0
4.02517520262508e-05
0
-0.001644131312265261
-0.00034531358369752042
0
0.0010744906264286808
-0.00011058896262786669
0
0
0
0
0
7.2439468538194049e-07
9.386955888005829e-08
-1.0626754545708819e-05
0
0
0
-0.00018011632579267189
0
-5.2542936523148973e-06
-0.00085634534089744818
0
0
-0.00092026655070107739
-6.9895203879852494e-06
-0.00010354153427252164
-0.014970477271709099
-0.00012854268631711243
1.8819922731433197e-05
1.3726301160711512e-07
0
0
0.0011853243213417026
0
0
-0.0012344407548066033
0
0.0013664545016001482
-0.00038150166775546829
0
0
2.9542762481450468e-05
0
0
0.0044045392030597746
0.0006930488947708834
0.0011107786063946018
-5.6820635097905899e-07
-4.2510312086949801e-07
-0.00053753511564555163
0.0043659461936268731
-0.00017008101999035802
-4.9754865841872558e-06
7.7528276040156001e-06
0
0.00025357820720172178
0
0.0015567620466140383
-0.00013694687327475241
-7.5333836479003717e-05
0
-0.0054288979560204124
0
0
-0.0004887306291131311
-0.00053304409248155062
0
7.5841461514769551e-05
0.0023555794564147914
0.00069498046603278245
-7.8280140163670373e-05
-4.6750709216671025e-05
0
0
0.0010909236228428603
-0.00014898260643362091
0.00014454278180562599
0
0
-0.00011451274268396832
-0.0011659240841081979
3.9118540304514373e-05
1.0799825240798781e-06
2.6517665788910278e-05
0
0.0016074414911304729
0.0016063604127813625
-0.0004811939701193698
0
0.00014670248735040479
0
0.0042346616307221453
-0.0001249501364903606
-0.00057876786872139408
3.401817565841435e-07
-1.4982063643631178e-06
0
0
-0.0027920393849034577
-4.9910350238018427e-06
-0.0011939513389555971
0.00041792092252915708
0
-0.00086265469818053576
-5.59304220064614e-05
0
-0.00010743130862030853
0
0
0.0022144321161987374
-3.1760709052736285e-05
-0.0014956184943316661
0
-6.6801681185513089e-06
0
0
0.0017492629033784583
0
0.00020792477401552212
6.9237822428750117e-05
0
-1.4173422073507934e-05
0.0035809781722322808
7.810428532699415e-07
2.3089959116837503e-06
9.7341166642073511e-09
0
-0.0019091511582197314
0.001919110233161448
3.0989012862870665e-05
0
0
0
-0.0024585646882410647
-0.00017751773508178383
1.5440417160633084e-06
0
0.00010750919555542006
0
0
0
0
0
2.0569163636524055e-05
0
-0.0037597021295800556
-0.00031499154065014188
5.602056759176628e-05
0
3.8765667218542466e-05
0
-0.00032656670437204434
-0.00039891258457845771
1.9918227954777851e-05
0
2.7644052457302572e-05
0
-0.00052494529259335099
-0.0047708459400411405
0
0
1.0007152518488384e-05
0
-0.0012392715107877501
1.4168152161171955e-05
-8.0697644317505174e-11
0
1.1604854612975151e-06
0
0
0.00016717979696683583
0
0
7.3826022930561383e-08
0
-0.00071745216496941426
0.0012237388782623173
0
0
2.005542586355577e-06
0
-5.16406474605551e-05
-0.00051189061966019195
0
0
1.2958029204868542e-08
0
0
0
0
-5.1207929283047607e-06
1.7705299966917904e-07
0
0
0
1.7549089569486747e-05
0
4.6536934975420744e-06
0
-0.00030736530309280225
5.7454926281638444e-06
-6.430567897165034e-06
-1.4795304592222602e-05
9.4892321023570214e-08
0
-0.00026391868467905952
-3.6212042115686852e-05
1.5546420468435387e-06
-5.1443188584561283e-07
0
0
6.6528382232712542e-06
-1.7355358025562595e-06
-3.7486731500991444e-07
0
-2.103174723889953e-10
0
0
0
0
0
5.9039886074961239e-07
0
0
0
0
0
-3.9883839236482225e-06
0
0
0
-5.0694567344716145e-07
1.6619445440825789e-06
9.6783141145318517e-08
0
-3.1537375597061252e-05
-0.00020813522114410303
-1.4556033777424448e-05
0
0
0
0
0
0
0
0
0
0
0
0
0
0
0
0
-7.9239446403441601e-05
0
-4.1762438751778413e-06
1.6994425760004483e-06
0
0
0
0
-1.6624326157805314e-08
-7.1823457184730128e-08
0
0
0
0
0
-1.606842411929655e-05
0
0
0
-1.8880494560521156e-05
0
0
0
7.4886088565485171e-06
2.8630322014249391e-05
0
0
5.0851085443402833e-07
0
2.4916038357794114e-06
0
0
-8.3116324392785169e-07
-1.902257105654037e-06
0
0
0.0001436425355060511
-1.6893156933850969e-06
0
-9.4775461982433259e-06
0
-3.3172089158424285e-06
1.1083356564490748e-05
-5.5817942389297825e-07
0
1.1157363416002274e-06
0
-0.00028303644957443418
0
0
-5.5003290307200827e-05
5.3175694941237401e-07
0.0012078830343389961
8.170605843977755e-06
-0.0016326118569720037
-0.0029807597112290049
0.0045565717689703663
-0.00015038878835748162
0
0.0032077371404582878
-0.0052615609959493301
-0.034649887429130027
0
-4.1911438462917552e-08
0.00017360288802889873
-0.00013565331471326078
4.6543733048687996e-06
3.0469588957121802e-11
0.0025106988713003067
0.0056435372536238777
0
0
0
-0.046676852531499322
0
-8.8451397744886901e-09
0
0
-0.0029836841003325039
-2.926761763602441e-05
-0.005427742305865714
-4.4656251660293248e-09
3.3243101831855157e-05
5.7778123950139292e-07
0.0026340375637731576
-0.0056254223698650099
-0.010949487855052486
2.238379448630574e-10
-0.00024208805243826283
-0.0081032439530488009
-0.0080418801275161256
-0.00037822542021718602
0.00010130550187208079
0.00014606659086778006
-2.3615952075360824e-05
3.0975956149974709e-07
-0.00084920480078893657
0.00095302212183911354
7.7134030375212044e-06
7.0482214430370968e-05
0
-0.0047123665830968364
0.00044610863431492195
-0.00033888845370043836
-1.2845680301367372e-06
-8.8153978086921742e-07
0.00038418369766761153
0.00024876249263900069
0.0011318837624007512
-0.011034714359716341
0.00046559142307027289
-0.00088468306745678716
0.0037411842497486669
0.0020511994249783651
0.01546716867354418
-0.0026478618108251644
-0.0051685821757400984
-0.0022724108847816706
1.9514804072266963e-05
0.00060779599194815746
0
-0.014032518308367927
-0.0051892163109584196
0.00064081584257102801
0.0004174391802948437
0.00015181456026777137
-0.00019606982158030506
-0.0001382706548832601
0.00027765715021617972
-0.01063558694620137
0
0.00049880102697873044
-0.00024199172621436709
-0.01343521144766617
-7.397535060321063e-05
-1.2203616718313468e-07
5.2075975163382599e-05
0.0067265846428187547
0.006463725494225591
-1.0004311094936254e-05
-0.015639350602865854
9.0191069769107803e-06
0
0.011905152532969004
0.0039156284924786247
0
-0.0044488414572286033
-0.0022066041446917807
-0.00099602584656283718
-0.001556541472432615
0.0029149174298959057
-0.0032898070508203931
0
8.9066304078156403e-05
-3.3192980200541234e-06
-0.00012210784444139047
-0.01071541154510048
-0.0057012036568973423
-0.0030666538030090485
-0.0019749232132312763
0
-0.0014229727612185532
0
-0.0060216767737871005
-0.012869985810479838
-1.0261459387040244e-05
-0.00036942867588013326
0.00050848173567617956
0.011092194543755795
-0.003247228023493527
0
7.4684884542049095e-06
-3.3715043682947747e-07
-0.0013946849070847773
-0.0052365866731204982
-0.0027802920327023362
0.0006240985271843538
-0.00016547505889140718
0
-0.0011697547286456714
-0.00019391902343316567
1.9466577455448568e-06
0.00048199142183343095
-8.030217280050484e-05
0.00019550665946580257
0.00019965379706039384
0.0024288772131521768
0
-0.034595713502607532
1.9168975797065742e-11
1.2545921538316169e-05
0.0012349153967563819
-0.0011549586444521128
0
0.0028982183777837693
0.0025743938248793284
0
0.039283957159509643
0.0025676594935202905
0.0034403937019164476
3.5150698201327511e-05
0.00017809850477690811
-0.0004179276078339878
-0.0057585712177273948
0
-0.0042679182405199381
0
0
4.0916308239493743e-07
-0.0052426504285248169
-0.0047907434439905285
-0.013262462093039351
-0.00058336317943815156
0.0015513423624480703
-3.5602880763386908e-05
-4.0169309368970295e-08
0.0010639683336398787
0.0051352173283538919
0.006280447180003995
-0.00045832500962370406
-3.3826853968851653e-06
0.002317064699422272
-1.5989221022149969e-05
-0.0045523285417166659
0.00026821386785258656
1.1438821868236974e-10
1.6227205376259413e-06
-0.00010735483489601088
0.0029626592345971272
-7.0595298888416944e-05
-0.0032119893744733904
-0.001679587479254794
0.00043001257560805906
-0.0089152112467310984
0.0057369520110096628
3.1803186503049272e-05
-2.8306401297187358e-07
-0.0022636276850153732
0.00038555939934548436
0.0072307419325182178
0.0079906541177008766
-1.6381092372563894e-05
-0.00017205296655630652
1.6045961842948616e-07
-0.0001614898666030568
-0.016132400082174949
-0.012803016792661364
-0.015332200540812677
0.0017470556261492888
-1.2146547534602279e-07
0
0
-2.5619401694267415e-05
0.0061189014915614985
-0.0014220192167279163
0.0061345960500205259
3.2009146467356816e-05
0.011349078001408004
0.0053949101761347189
0.0019911839125521988
0.0046864888932000321
1.053529182964182e-06
-0.00015719469464028706
-0.0073286556046068627
-0.048823667663176112
0.020383824354568335
0.009786452241177435
5.1278884976913867e-05
0.00051497670169429674
0.001644131312265261
0.00034531358369752042
-0.022278712598506625
-0.0011898860920991959
4.2838279247679171e-06
0.0010031133147902801
-9.2398178551731064e-05
0
0
0.00063388511860254092
-7.2439354135580707e-07
-9.386955888005829e-08
-1.0626754545708819e-05
0.0276159451091595
0.0057763312357370948
-0.00097626149649490299
-0.00018302732727719416
0.00034362910230894818
5.2542936523148973e-06
0.00085634534089744818
0
0
0.0017254022157293684
1.4150938154445078e-05
-0.00010354153427252164
0.002948516349138054
0.0064418934874717485
1.8819922731433197e-05
1.3726301160711512e-07
0
0.0082978920042724395
-0.0013664350681353433
-0.0026133349779809112
0.0018349743259844736
-0.0012728512055043585
-6.522494480257645e-05
0.0099754163994787703
0.00038150166775546829
0
0
2.9542762481450468e-05
-2.2674349218684091e-05
0
0.0078264129035727128
0.0006930488947708834
0.0020895884490271699
-5.3209996120620014e-07
0.00010679934862371297
-0.0060957417235296555
-0.0026228079885819784
-0.00017008101999035802
4.9754865841872558e-06
7.7528276040156001e-06
-0.00066219380289845014
0.0055522454406198617
0.0017264628503169206
-0.0093000551930315523
-0.0059437554307640817
-0.0001813026988806354
-0.00064525321467756081
-0.0068205958740449497
0.0028840100018460483
0
-0.0021970401289811555
0.00053304409248155062
-0.00032444863039714309
7.5841461514769551e-05
0.003582827544000996
0.00069498046603278245
0.0067339245501557001
6.4244366613997803e-05
0
0
-0.0016138535479375943
0.00098071001200596814
-0.00014454278180562599
-0.00027114314562398943
0
-0.00013079631476985512
-0.00032986094543953186
-0.0002046514123838342
0.0033142853590028359
-0.0011813634321625078
-0.00011455837051382677
-0.039885039338607965
-0.0019678582815651859
0.00010699391611906242
-0.0026148544330221032
0.00040953028929875804
0.00044282962997263439
0.0041609847047258822
0.0001249501364903606
0.00059018702613189552
3.401817565841435e-07
0.0019704175492271164
1.7826165770013847e-05
0
0.0013921469795371052
-4.9910350238018427e-06
-0.00019158390292908163
0.00042608385745674141
0
-0.00084618026209369211
-5.59304220064614e-05
0
0.014812645706413557
-0.00026508665950262438
0
0.010050313662966036
3.1760709052736285e-05
0.0042236954400209272
-0.0019707487574570567
0.0028420550918923241
0
0.013450407135295391
0.0066227113594230372
0.00099374595570873186
0.00068226376194054355
-8.0055588862984706e-05
-0.00069803883250600229
-1.4173422073507934e-05
-0.007078236256790456
-1.557410356039266e-05
-2.3089959116837503e-06
4.2617710617906053e-09
0
-0.00010116436234266491
-0.0017563306714065904
0
0
0
0
0.0007460784556730123
-0.00084883018888887943
0
0
0
0
0
0
0
0
-5.3970304687697396e-06
0
0
0.00031499154065014188
0
0
-2.2990147450790783e-05
0
3.4017995337629913e-06
0.00024146245291942024
0
0
6.685403814561797e-10
0
0.00052494529259335099
-0.00072019483723293495
0
0
1.6814583923790048e-07
0
1.0262494576624418e-06
1.3738390639881024e-05
-8.0697644317505174e-11
0
-1.914980851021036e-07
0
0
-0.0021077818134755551
0
0
-2.9074785661845272e-08
0
0.0004200194085070795
0.00015588393506948541
0
0
1.8556254217401794e-06
0
5.16406474605551e-05
0.00051189061966019195
0
0
-1.1040613795339223e-08
0
0
0
0
0
7.7596942828369137e-08
0
0
0.00028561376496686572
-7.5609377672474778e-07
0
-2.6915951866874065e-06
0
0.00030736530309280225
-1.5653139598029961e-05
-7.1074257784260347e-06
-1.4795304592222602e-05
-6.2694105198879593e-08
0
-4.2644662388803706e-06
-3.6212042115686852e-05
1.9758232509834271e-07
8.8922859275223953e-07
0
0
6.6528382232712542e-06
-0.00054619119994390184
-3.7486731500991444e-07
0
-8.3964337857574984e-10
0
0
-0.00027741254964957509
0
0
5.759480649897069e-07
0
0
0
0
0
-3.1335604247611586e-06
0
0
0
-5.0694567344716145e-07
-1.0555115063365242e-06
-9.2287055827427376e-08
0
0
0
0
0
0
0
0
0
0
0
0
0
-8.5414508020272286e-05
0
0
0
0
0
-0.00017623247130712946
7.9239446403441601e-05
0
0
-7.4188571399036087e-06
0
0
0
0
-1.6624326157805314e-08
4.1237555292056446e-08
0
0
0
0
0
4.3534542123709015e-08
0
0
-0.00013758870517398497
0
0
0
0
-7.4886088565485171e-06
2.8630322014249391e-05
0
0
5.0851085443402833e-07
0
-2.4916038357794114e-06
0
0
9.9909099202248389e-07
1.902257105654037e-06
0
-2.0703144179984253e-06
3.4628324270205395e-05
-1.6893156933850969e-06
0
0
0
-5.0593219814521936e-07
-7.0095712087742198e-06
-5.5817942389297825e-07
0
1.3472779137297939e-06
0
-0.00028303644957443418
0
0
-1.219769729057394e-06
-4.688224730860188e-07
2.733880251288538e-05
8.170605843977755e-06
0.0012389697402783928
-0.00027249042892933152
-0.00029794666236605593
-0.00036506876659403426
0
0.00021162471658160126
-0.0052615609959493301
-0.0015417438599027574
-0.0023435420141924516
1.6166389854470352e-08
0
0.00013565331471326078
3.0610878974976109e-06
3.0469588957121802e-11
-0.00021252164826993992
-7.880009912039446e-05
0
0.00074730680039757406
0
0
0
4.5410082993375045e-09
0
0
0.00099419007378832294
-2.503847847481033e-05
-3.0648623610031288e-06
-9.4843015093976946e-10
-9.7655488966828401e-06
-5.7778123950139292e-07
0.00076019492879886936
0.00013482547207352674
-1.0480853804757665e-07
2.1079632240706638e-10
-1.2986123475599711e-08
-0.0039313297442932988
-0.0013258302948156735
-0.00084638257112770472
0.00010130550187208079
-0.00017263012051834311
0
-3.0975956149974709e-07
-0.0019857684371044544
-0.00052130641254965614
-7.7134030375212044e-06
-1.1943084750644784e-08
0
0.0040638603987748897
-0.00044610863431492195
0
-3.4367378154125016e-05
2.2847403845015724e-05
0
-0.00024876249263900069
-0.0012391074561923284
-0.0020875390082618676
4.8368627186754367e-06
-0.00011711922814011172
0
0.0020511994249783651
-0.0011061620481631702
-0.0031178341505535348
-0.0031144747227013071
0.00036728968260731201
0
-0.0083592641170262584
0
-0.0013588221218745922
-0.0019174585284344736
-0.00073127671624480988
1.1934201289755897e-06
0.00010317319357335974
0.00096553697603030543
0.0008110263532399198
-0.00054566781319644617
3.7745838343872985e-05
0
0.00025285206095100989
0.00024199172621436709
-0.00045247149318921497
-0.00024332504915053707
7.663064314799563e-08
-2.0233095467522137e-05
0.0067269676379094817
-0.0069223565100499226
1.0004311094936254e-05
0
-9.0191069769107803e-06
0
-0.011541285667316848
-0.00018805549097030176
0
-0.00080232472725813553
-0.0018422752929359262
0
0.001556541472432615
0.0040208220306365301
0
0
7.1629425070537093e-05
-3.3192980200541234e-06
0.00013480139406714107
0.012804720910670829
0
-0.0040686414721608838
-0.0010682736484248325
0
0
0
0
-0.00081325847953506506
-2.9275517708592244e-05
0
-0.00048707670690884632
-5.005934299854269e-09
0
0
-7.6004552112650093e-06
-3.3715043682947747e-07
-0.0011745019352881517
-0.0048729798524923566
-0.0042743386289678499
0.00071900077897007098
-0.000556295507062124
0
0.0011697547286456714
0.00030867743106377385
-1.9466577455448568e-06
-0.0025705371174003151
-2.2632356455181923e-05
0
0.00019965379706039384
0.0024288772131521768
0
0
2.1729275202212974e-11
-3.3702911666026204e-08
0.0024090741084281135
-0.0011549586444521128
0
-0.00020490169611085817
-0.00086331470548215252
0
0.00093537507886131744
-0.00020544965624123447
0.00051380559518821999
9.6792439041579274e-05
0.00021577715908480737
0
0.0005077118067752551
0.0046704050623444767
0
0
0
-4.0916308239493743e-07
-1.0549830012866619e-05
-0.00019920524109386708
0.00258048177236758
0
-0.0014929130650236002
8.9546713017495784e-06
-4.0169309368970295e-08
-0.01049648246746258
-0.00057659274067016822
7.7601450966584623e-05
-0.00045830192710238145
3.3826853968851653e-06
0
-1.5989221022149969e-05
0
0.00026821386785258656
-4.1160148811490907e-09
1.6227205376259413e-06
0.00010735483489601088
0.002062913436229438
-7.0595298888416944e-05
1.4077824349315534e-05
0.00053845210114417119
0
0.01111855574240737
0.0050133650525040893
3.1803186503049272e-05
-3.8853126884970586e-06
-0.00054144184617497323
0
0.0073084727339014846
0.00079369779849183808
3.9648173761638274e-05
0.00017205296655630652
4.6914023113886599e-07
0
-0.00020059300794037502
0.00016659160779710342
0
-0.00019357612470649081
-9.7922014545300415e-08
0
0
-1.1078924170967346e-05
1.9573022639368296e-05
0.0012175590887141051
-0.0001585991256344739
-4.1165082807041892e-06
-0.011354593907353355
-0.0039649436619927673
0.0019911839125521988
0.0046864888932000321
-4.6643134630914234e-06
-5.3583595680873317e-06
-8.2506486963244158e-07
0
0
0
0.000118186050494597
4.6155249043032461e-06
0.001644131312265261
0.00034531358369752042
0
0.0011898860920991959
8.3544015808297961e-05
0
9.2398178551731064e-05
0
0
-0.00063388511860254092
-7.2438349297011927e-07
-9.386955888005829e-08
-1.0626754545708819e-05
0
0
0.00097626149649490299
0.00017695445192002777
0
-5.2542936523148973e-06
0.00085634534089744818
0
0
-0.0013431624936001778
-1.2059230600942409e-06
-0.00010354153427252164
0.00041629992561292839
-5.5113551075222753e-05
1.8819922731433197e-05
1.3726301160711512e-07
0
0.0084425510684671117
0.0050421076226069353
0
0
-0.0003065839886733612
0
0.0018983209790988916
0.00038150166775546829
0
0
1.0677780912597959e-05
0
0
-0.0078264129035727128
-0.0006930488947708834
-0.0012320887959309682
3.4122196559903977e-07
1.1182949511806094e-05
-0.0047421511824155584
-0.0031269722981666958
0.00017008101999035802
4.9754865841872558e-06
7.7528276040156001e-06
0
-0.003326437103084019
0.0017264628503169206
0
6.4749578420143664e-05
-0.00011296791624013283
0
0.0042425418763799069
0.0028840100018460483
0
-0.0004887306291131311
0.00053304409248155062
0
0
0.0023358013984855121
0.00069498046603278245
-0.00016755826329932879
-4.6148737900263752e-05
0
-0.0033335444626836938
-0.0018202184242656952
-0.00015572574102122534
0.00014454278180562599
0.00027114314562398943
0
-0.00010267627638961712
-0.00025693831694058886
-0.00012985091420498129
-9.5125990162423727e-05
0.00043401293804947431
0
-0.0016074414911304729
-0.00030507976609484434
0.00080749568482708998
0.0026148544330221032
7.2665412484495334e-06
0
-0.00080117852423837194
-0.0001249501364903606
0.00027808062363293126
3.401817565841435e-07
-0.0012549703021221327
-1.7826165770013847e-05
0
-0.0016069957328471245
4.9910350238018427e-06
0.0008363359902399636
0.00014184461605750361
0
-0.00092039650210251102
-5.59304220064614e-05
0
0.00011892799849723681
-0.00034219245473268668
0
0.0018185020575967918
-3.1760709052736285e-05
0.0014956184943316661
0.0006284820387835935
6.6801681185513089e-06
0
0.0019855562408031902
0.0073980102135191086
0.00099374595570873186
0.00016039473451307594
5.0591953434250737e-05
0
1.4173422073507934e-05
-0.0016092359236046197
3.2649292618904048e-05
-2.3089959116837503e-06
1.2516707224959922e-08
0
-0.0003157037659435824
-0.0026873118201298117
-3.0989012862870665e-05
0
0.00076838885743505737
0
-0.00083572719057598368
-0.0017018084031700878
-1.5440417160633084e-06
0
0.00027734592812821742
0
0
0
0
0
2.6826544844188463e-05
0
0
-0.00031499154065014188
-0.00013528718316385631
0
1.576343573872804e-05
0
-0.00013736783609982764
-0.00036006349847949692
1.9918227954777851e-05
0
2.7642715376539657e-05
0
-0.00052494529259335099
-0.00035458896681722152
0
0
4.4811296389902505e-05
0
-0.00039529359651577304
-1.4991325385587468e-05
8.0697644317505174e-11
-1.2484949690668746e-05
1.1739446726178817e-05
0
0
0
0
0
3.0335731905047727e-08
0
-6.1202255758757671e-07
-0.0013796228133318028
0
0
-1.8397221539827648e-06
0
-5.16406474605551e-05
-0.00051189061966019195
0
0
2.4022178844921756e-08
0
0
0
0
-4.0650655688323683e-05
1.5472052875119234e-09
0
0
0.00054516546552374695
-1.8756457603672082e-05
3.6486452675761997e-05
3.490377412414501e-05
0
-0.00030736530309280225
2.9795458056133664e-05
-8.4805061487119296e-05
1.4795304592222602e-05
7.0934350360396403e-08
0
-5.4991306388292642e-05
-3.6212042115686852e-05
-3.8322149315692575e-07
-2.4464381016851324e-07
0
0
-6.6528382232712542e-06
-2.3624164994950995e-06
3.7486731500991444e-07
0
9.2109430926109128e-10
0
0
-5.4524121877082923e-06
0
0
-5.6137491217457432e-07
0
0
0
0
0
7.3591074040032007e-06
2.9502635872004004e-07
0
0
5.0694567344716145e-07
-1.0643752823115225e-06
4.787195931742028e-08
0
0
-0.00020813522114410303
1.4556033777424448e-05
0.0003230962315645743
6.9625742493167235e-05
0
0
0
0
0
0
0
-8.5414508020272286e-05
0
0
-0.0002727998370099782
0
0
0
-7.9239446403441601e-05
0
4.1762438751778413e-06
4.1281268730042122e-06
0
0
0
-0.00022097921780036824
1.6624326157805314e-08
-4.3344994008551367e-08
0
0
0
0
0
1.5981355035049132e-05
0
0
-0.00018661926788901469
0
0
-2.7673865048066403e-05
0
-7.4886088565485171e-06
-2.8630322014249391e-05
0
0
-5.0851085443402833e-07
0
-2.4916038357794114e-06
0
0
0.00020410346189151987
7.1668041619452387e-06
0
-2.0703144179984253e-06
0.00024230031454815234
-7.7424184996944188e-06
-0.0001725825475709746
9.8223286023761336e-07
0
2.7137640919481641e-06
-1.7927277651758447e-05
-5.5817942389297825e-07
0
1.4406337724047508e-06
0
0.00024276653278488609
0
0
-2.0164035019489879e-06
-5.6646672407235429e-07
0.0012602106258659703
-8.170605843977755e-06
0.0023472109936534596
-0.0036585127409133333
-0.0048055703860241366
-0.00071009721852146397
0.0086100850338929578
-0.0082822612469978345
-0.0052615609959493301
0.041893670902532772
-0.0023435420141924516
-3.9265461120477995e-08
-0.00017360288802889873
-0.00013565331471326078
6.9893928384349658e-06
-3.0469588957121802e-11
-0.0059254832012180661
0.0011765617918886003
0.001384091104050353
0.00074730680039757406
0
0.019651538962224189
0
2.5183460315201764e-08
-0.0066667150645469322
0.015260429081310362
0.0061610141964035881
2.7700047074154842e-05
-0.0060666846523101496
1.000586663291119e-08
3.3042244385548771e-05
-5.7778123950139292e-07
0.0022770610130484494
0.0082516161406535719
0.011319010219435724
2.2872085200010111e-10
0.0012353172429875828
0.0056527625582836784
0.0019990451221552357
0.00073745253611976337
-0.0012880909266569113
-0.0001530820775720485
3.6070456114595026e-08
-3.0975956149974709e-07
-0.0017156154808152736
0.00097471684762022849
0.011196901322377016
0.0010188787228615096
0
0.0019129696951079591
-0.00044610863431492195
-0.0099929858494814793
0.04103923258923433
4.5373266679975975e-05
0.0060545969776494742
-0.00024876249263900069
0.00014077042090552392
0.013475669956592877
1.189984779026574e-05
0.0017381696512308547
0.0062461213845859623
-0.0020511994249783651
-0.0032638727114605425
0.011463327037010227
0.0076795335908370821
-0.00017563775700971153
-0.00053872611658821381
-0.021917407632904631
0
-0.0047684162880230691
-0.00097826371979056487
-0.00096255191542436464
0.0052058642911554636
0.00011253197312805815
0.001098827989695374
-0.0012338276911714142
-0.00047944167778230624
0.0033065919274544572
0.00090558179443910004
0.00066803025197800228
0.025174797504351344
0.00029869193011756279
0.0015341007297322278
-1.6627768072559222e-07
-3.5757943448940997e-05
-0.0055787174714434003
-0.0075027373573761632
-1.0004311094936254e-05
-0.015639350602865854
0.0021360250083490764
0
0.011276755689714011
-0.0060942657525077685
-0.028652513293494067
0.0032709951947434476
-0.0023955778445390033
-0.00058213340075764005
0.001556541472432615
-0.0040208220306365301
-0.0032898070508203931
0
-7.064813380625059e-06
-3.3192980200541234e-06
-8.3976674673751257e-05
0.0039381160483839706
-0.032332284750033954
-0.0029091537776507123
-0.0021499678574355258
-0.0047673733310428009
0.0012657144517035446
0
-0.0060216767737871005
-0.014623156051320828
-0.00016883458101543748
-0.00054338250554628953
-0.00050005154809447611
-0.010685919176219603
-0.003247228023493527
0
-7.5247652197448161e-06
3.3715043682947747e-07
-0.00026138272244284404
-0.011616891642897049
0.0027841989851923612
3.2676756788600181e-05
0.0017349738350817532
-0.002128487338635797
-0.0011697547286456714
0.00022176585254360791
-1.9466577455448568e-06
-0.0021591260037724155
-9.4893221164527367e-05
0.00019550665946580257
0.01789778648149961
0.0021500384248867251
0
0.0079757262974307942
-2.0759679581613717e-11
-3.8381390210123079e-06
-0.0024666550476338915
-0.0011549586444521128
-0.043841166850003332
-0.0047502328912224275
0.003393124579457992
0
0.0042745582447846304
0.0020247831764968532
0.0017006786931541577
-0.00019301634769595193
0.00010648357423875391
0.0004179276078339878
0.0068991886371475132
0.0046704050623444767
0.0042679182405199381
0
0
4.0916308239493743e-07
0.0062715951207845452
0.013273549903704758
-0.016456152939136538
-0.00058336317943815156
0.0015323965058439749
-0.0041306079515148145
-4.0169309368970295e-08
0.00029564755272940013
0.00018883983919280607
0.019034784168953014
-0.00045830168798068364
-3.3826853968851653e-06
-0.0003416535060386921
1.5989221022149969e-05
0.015249802126120747
0.00026821386785258656
-2.8349439893522708e-09
-0.0022862656644238272
-0.00010735483489601088
-0.086378090250065348
7.0595298888416944e-05
-0.0031994063533204368
-0.00071297870747774757
0.00043001257560805906
-0.011043255913454628
-0.010686170923609444
-3.1803186503049272e-05
2.7487859723810384e-06
0.0049709897886764786
-0.00036415932980951116
-0.0072410157685739874
0.0066069663409886025
3.9648173761638274e-05
-0.00017205296655630652
1.895070516784235e-07
0.00082026361423814418
-0.00020059300794037502
0.00016659160779710342
0.0053340446880738275
0.00039740327055378879
3.3737287333934803e-07
0
0
4.9978551988872742e-06
0.0013984733930017704
0.0022038551544934105
-0.0054806294499473241
-0.0014976833192804002
0.00025963642985575412
0.0059307165009813232
0.0019911839125521988
-0.0046864888932000321
-1.2916087145369903e-05
9.8571748214127078e-05
-8.2506486963244158e-07
0.021509955751141115
-0.020383824354568335
0.0035867108433779225
-3.9039760959815014e-05
-0.0011946681877498151
-0.00046947135215518691
-0.00034531358369752042
0
0.0029291351949868793
0.00011134126521083359
0.00084729815659551956
-9.2398178551731064e-05
0.069049481148291417
0
-0.00063388511860254092
-7.2439558413300193e-07
9.386955888005829e-08
-1.0626754545708819e-05
-0.0276159451091595
0.0057763312357370948
0.00097626149649490299
-0.00019050178705657224
-0.00046142205754117811
-0.02838719805260467
-0.00085634534089744818
0
0
0.0085889522025019514
-0.00010278689083640633
-0.00010354153427252164
0.00053028955867172941
-0.0059816630418557835
0.0014262677128914038
1.3726301160711512e-07
0.00056456506888091632
0.0084425510684671117
0.011233182964470864
-0.0026133349779809112
9.5834888702845842e-05
-0.0025905214349399922
6.522494480257645e-05
0.0048770094949409102
-0.00038150166775546829
0
0
1.5741695294805303e-05
-2.2674349218684091e-05
-0.015248359187738206
0
0.0006930488947708834
0.0022567248620624196
-5.3451453771545149e-07
5.4962747783546673e-05
0.0032265859759489598
-0.0093485557228740225
0.00017008101999035802
4.9754865841872558e-06
-7.7528276040156001e-06
-0.00066219380289845014
0.0070795951085291129
0.01273615971616035
0.005778177687892759
-0.0059437554307640817
-0.0001813026988806354
-3.8578093722504057e-05
0.0037420790301249183
0.0028840100018460483
-0.0097154930923341407
-0.0056701395178730988
0.037722957395909036
0.00046609362520477114
7.5841461514769551e-05
-0.0030136429177935365
0.0037089306844669797
0.0079732826443858276
6.4474044097892147e-05
0
0.0033335444626836938
0.045224017492656247
7.4770412899597804e-05
-0.00014454278180562599
0.00027114314562398943
0
1.3333890546299111e-05
0.00021632562003160452
0.00017717470060116817
-0.0033117577390547538
-0.0010802361771164847
-4.995789028197278e-05
-0.0016074414911304729
-0.0020046691255747946
-0.0019731161473601475
0
0.0006978302469070061
-0.0015802544886105308
-0.0027694471399397165
-0.0001249501364903606
0.00064611249637807461
3.401817565841435e-07
0.0033007758036747692
-1.7826165770013847e-05
0
-0.017999258606936012
0.011569103494416625
0.00041847249461228459
-0.00041299255795356458
0
0.0009273659869668458
0.040945590006527352
-0.0098992451690849848
-0.011776691868280216
-0.0057192362169522894
0
0.0099613764303745425
-3.1760709052736285e-05
-0.0063727191704705923
-0.017756251561059602
0.0053274325649106894
0
0.0019855562408031902
0.0025037795141405962
-0.00099374595570873186
0.0029608081750277376
4.440402112401665e-05
-4.5672598013995493e-06
1.4173422073507934e-05
-0.0078240612922091286
3.3532781908110921e-05
-2.3089959116837503e-06
