0.098979522422386099
0
-0.037552830981782782
-0.30174655653344312
0
-5.4603639324901829e-07
0.099996376371969051
0
-0.057956329696120093
-0.069136586160811447
0
-1.323180715121572e-07
0.050858506168579634
0
-0.061576559606631734
-7.7532427187613275e-05
0
0
0.089905103568519565
0
-0.029958808429585895
-0.011509028627020735
1.8188686796205339e-06
0
0.099683912836992433
0
-0.042520030019937163
-0.013024935383180553
0
0
0.099168447740602739
0
0
-0.0052988117085348571
0
0
0.096530506717278142
0
0.0043948255929526486
-0.047751182835027127
0
0
0.098267953968301472
0
0.011084570131749634
-0.015722199054294582
0
0
0.099290770096550948
0
0.0060096802972949438
-0.13667142140589156
0
0
0.10355482630497727
0
-0.0038143434302794939
0
0
0
0.088601361859763805
0
0
-0.027668804696820995
-3.0391010869487732e-06
4.0831396634432678e-05
0.0010109229338846567
0
4.1522001154468502e-05
0.041779604417256318
-0.0012569877448566575
0
4.7113445550153596e-05
0
0
-0.0017155133817191692
-0.0002881142341022176
0
-0.0021034638162061967
0
0.003660549319917817
0
-0.00034032251353915803
-0.00010939880140584521
-1.5915346126063709e-06
0
-0.0040266750981150711
0.0024014462348594624
0
0
-0.00087391922899670074
0
0
-0.010135657465018287
0
0
-0.00066200945824769063
0
0
0
0
0
2.1824769749867269e-06
0
-0.00013118548310260333
-0.0098650937737440759
0
-0.000435781455701738
5.1145438185445122e-05
0
-2.5355710612839921e-05
-0.0020887137049477827
0
0
0.00017441606642196989
0
0.00012200921353739845
-6.7916719394622891e-06
0
0
-3.9813155158347107e-07
0
-0.00010529839925104764
0
0
-1.2426038750987917e-05
1.7271391992727797e-06
0
0
-0.0020804475260196432
0
0
1.0352966941532967e-05
0
0
0
0
0
1.6564171516762838e-05
0
0.0008327766764416512
0
0
0
-0.0030563616410341794
0
0
-0.0065456694783248117
0
0
0
0
0.00010559652129493384
-0.0063099090378296733
0
0
2.046612917415137e-06
0
0
0
1.4386076943893854e-05
-3.6190002300101913e-05
5.8598806095275962e-05
0
0
-0.0036640277988159355
0.0004470462527186883
0
0.00031570416374663857
0
0.00091905465868351592
-0.00012157688660007862
0
0
1.9505811170852399e-05
0
0.00026691383750233183
0
0
-0.00026334476728550861
-0.024639819293917255
9.8102927442220519e-05
0.71439494683881499
0.3763869056992275
0.17505207266203629
0.0087910575245217591
-0.27254452010346208
0
0.23019039895683227
0.45420499937111836
0.0057497865014408261
0.010467390875798691
0.22700829143651349
-0.00013057798467981763
-0.07592900103365878
0.12711464972703643
0.11425159372926746
0.021191861379966665
0.34372017369151764
0
0.032014766774184286
-0.0061916872133843523
0.14570897883146347
0
-0.12125665035883686
0
0.17363513831532512
0.12713827325857061
0.15499129882310078
-0.08682090893801496
0.13078624325022553
4.2472406300159305e-05
0.26824630446586406
0.15232292479174139
0.037008669441472915
0.071225531462847894
0.44751322403714761
0.00035281672310775829
-0.25698798482115442
-0.36051601553836432
0.14949173817379394
0.07861869658987751
0.55132288746523783
1.138005855811037e-05
-0.23081181272244711
0.064969649633692589
0.040198398626541745
0.073399518267618979
0.62931950608844689
0
0.071105096357528111
-0.45151946326153569
0.083697615823360813
0.0046978524071399448
0.77695827163113107
0.0017009500590776951
-0.057620799192929291
-0.039949430445906799
0.015268204703730182
-0.013268600461796816
0.93007431806133867
0
0.56979949636857385
0.11521052240409195
0.093168360567389183
-0.034509284555805902
0.86688278402839958
0.00081166424143226234
-0.17627207368935896
0.083134125092066052
0.049947971283284473
0.0055569589749668372
0.99147429089806161
-0.00012734623688191466
-0.18203820061631729
-0.24999746099386957
-0.021303513282259358
0.10108808825030884
1.2995405042596333
0
-0.049211490903274355
-0.077219249177158472
0.051849621236363309
-0.074750860549462964
0.4435152946204462
-4.3326531040195973e-05
0.080747968103320522
-0.029376890233638007
0
0.11956328894978772
0.40518841842044168
0
0.033176222204070044
0.35141767959757525
0.10000000000000001
0.066617757511880801
1.4248104192897333
0.0013852751046456236
-0.89585113088505253
-0.2584202756563902
0.09349156365536905
0.10406782748458514
0.583979604041588
0
-0.0070970284075264874
-0.080845815968814572
0.068063513338076823
-0.18898109093093227
0.77321721494746365
0
-0.25831789846059611
-0.65778182757863857
0.10000000000000001
0.12854826085978563
0.47514347753338304
0.00078962301612084938
0.12196264030182216
0.38585044016144898
0
0.088469975351899155
1.2602998938288263
0
0.1215950700099955
0.84639489459286632
0.28465026728285386
-0.017353859846661296
0.87175256048520611
0
0.15061532760554913
-0.012229371739189476
0.27008451256183263
-0.15452757457750474
0.97145869557737008
0
-0.32098733216811054
-0.47929439635821386
0.11029426398492979
-0.034215643191373921
0.74330161952205609
0.000369892287773249
0.17767610658854746
0.016852323151557481
0
0.049812622898371184
0.81225915028757012
0
-0.059102237861052162
-0.1051598063495502
-0.056603333829250271
0.035872055559583824
1.0328637348490044
0
0.18297276361475948
0.54672273725787368
0.07805069794618516
-0.099780892118282866
0.57296895203839393
0
0.15315956472307662
-0.18419787956750172
0.098704791244547438
0
0.60269175388067142
0.0015656637248264136
0.47277511640832104
0.53675927553297609
-0.025882858055111181
0.14559687762349602
0.98982288734515422
0
0.22357066596935382
-0.04656052925177117
0.10450481371753431
-0.021184116344215433
0.084810169738687227
0
-0.067575397340641094
-0.19657547816924684
0.10000000000000001
0.093676073387961745
-0.12423883911058713
0
0.19823358964700855
0.43694075995998199
0
0.015917143445715196
0.03626083641253279
-1.6956255901781758e-05
-0.17669386092102476
-0.19890423062354839
0.036364229932552193
0
0.40321301938385373
0
0.055928776248205289
-0.10950313015288804
0.0066341243556550921
0.004340607109909158
0.0016797343489110188
0
0
-0.03277548984381902
0.02659833409176212
-0.00058713352684894879
-0.041408721673833644
3.3333969118238323e-05
-0.080706216651973944
-0.061017252615509304
0
0
-0.0088159402904674448
9.1534190695414207e-05
-0.036518821688954504
0.11179934889340429
0
-0.0035867108433779225
0.035802719391227027
-2.0301469418045621e-05
0.083357626920551556
-0.24052522354808192
0.047985763408788441
0.0011321883592639384
0.025592637367566319
0
0
0.21770791605364403
-0.043929643108008662
0
-0.075322335059005374
0
-0.28063301492355114
-0.40760501090607582
0
0
0.013181524804214409
1.922518874228205e-05
0.18960438469773983
0.15420654927213356
0
0
-0.077780088880087833
-0.00015916368016322742
-0.4354072948107624
-0.29326283292919569
0.010180822845013735
7.023777002468716e-05
0.023817496948738776
0
0.087860905378673471
-0.013261973704885424
0
0.023306539553578649
0.35139659227794645
0
0.060308705414693652
-0.0025481099593176459
0
0
-0.012261816277774108
0
-0.25001970336105012
-0.00011644933108560363
0
-0.00049419125614254906
-0.49931266240436295
-3.8297300462618804e-05
-0.24806626543490939
-0.24864512784481868
0.054982207708975495
0
0.2106711953268004
0
-0.038259480764538466
0.014169519272278722
0.01417925470056115
0.035435050346821352
-0.10789228635745239
9.213753644876707e-05
0.21870370355002205
0.1115836978925044
0.00087878917215824062
0.0010326029761249041
-0.1895836185806733
-1.0018649019839875e-05
0.12168077576820251
0.073736102343772841
-0.0044039111504997619
0.0020519961680797263
-0.48755632894754025
0
-0.0059753896127750167
0.045642062014727112
-0.00050775557695633626
0
0.063003665110661508
0
0.097123879770705829
0.12878620491311235
-0.0011785861951140834
0.0051434612615207835
0.052789217617532691
4.1971649303770352e-05
0.27331777912737176
-0.013238486020137778
0.037802773807073087
0
0.10316046788814982
0
-0.1866086026072119
-0.4611717652764451
0.034559045441124675
0.017604632625965295
0.0003226637093565692
0
0.027078459887755653
0.11102450896978218
-0.012833928158959956
0.0032709156239065554
-0.023117691465931827
0
0.19538324115839997
0.054293876116740476
0
-0.008442693695094896
0.11514632105589695
0
0.13213580890401097
-0.098992670233474925
-0.0068571273987845394
-2.6581840297206107e-05
-0.016954179809060714
0
-0.15639991348383461
0.083612244526609605
-0.019584383918151493
0.0013878382287908499
-0.15143944246872529
0.00039602055566972076
0.25058796993918553
0.43483424841183393
0.018057306025990403
0
-5.4468392734735287e-09
0
-0.0040546287412898526
0.0070468681369239509
0
-0.001736237839595732
-0.0002807346824376867
0
-0.0032752070636231675
0.0010183518287844571
0
0
-0.00012479841371115292
0
0
0
0
0.00066338861863703179
-2.2379718838079668e-05
0
-0.016849746644454926
0.0019327838824596676
-0.00022845185223582467
0
-9.6369097174952735e-05
0
-0.00037060039832189582
-0.00072562741326295376
0
0
7.2559927193856389e-06
0
0
-0.0005998566601678754
0
0
0.00011230436397371274
0
-0.0015880492164894102
-1.5897592704707096e-06
0
-0.00067419651996960639
-1.997248519287641e-05
0
0
-0.00278451339039087
0
0
2.0286855383051736e-08
0
-0.0065423433063746088
-0.00040957682364283355
0
0
-2.8658856607232066e-08
0
-0.0023587976718442865
0
0
0
2.157452216061991e-09
0
0
0
-0.00027632823819174416
4.3021223539790364e-05
-5.4197266570304128e-09
0
0
-0.00043749108219462646
3.655077464630242e-05
0
-1.0352484406246736e-05
0
0
-6.0202857271168519e-05
-4.5564450024619096e-06
0
1.1024101919068379e-08
0
-0.00030676858960897234
0
6.9793590420708e-07
5.8221018670156532e-07
0
0
-0.004580359431995874
-1.0788337122526417e-05
0
0
4.3161983202892357e-11
0
0
-6.1995006492924883e-05
0
0
8.3361762429199941e-09
0
0
0
0
0
6.0365191436747424e-06
0
0
-0.0064306456019021154
7.2672797883429274e-05
1.5435370534308664e-06
1.7101507776389083e-07
0
0.00081725286428671758
0.00069370408577021109
0
0
0
0
0
-0.0016656869934439419
0
0
0
0
0.00057987260107385512
0
0
-2.2777726933830383e-05
0
0
0
0.00066114319221522854
0
0
9.6256300359265283e-06
0
0
0
0.00012140967024117047
0
3.2260691377755311e-08
0
0
0
0
0
1.8068084821700906e-05
0
0
0.00014515712765606235
0
0
0
0
0
0.0019494995170192785
0
0
0
0
0
0
7.7199745639472343e-05
7.9679698556460771e-06
0
0
0
-0.00032766193924157577
-3.1603736020980656e-05
0
-4.4130589566918166e-06
0
-2.6705494682736852e-06
-2.9402038233691242e-05
0
0
1.3529089607858167e-06
0
-0.00038955991378643822
0
0
-1.870447005513752e-05
-2.9870045795025726e-08
-0.0015755225394347529
0.13902617244699239
0.029200227765803239
0.018080148552815482
-0.003624686473499293
0.00052783040722669634
0
-0.022507954118838748
-0.15392832804639126
-0.0047798159884378877
0
-2.3572701983379125e-08
0.0050645447758722994
-0.11494456897403689
-8.4564458888995995e-06
-0.018834465229094492
0.0012601094256875717
0.016660195448136385
0.0068005695861687978
0
0.11277472867056526
0.1179300576560503
0
3.1895238990374473e-10
0
0
-0.0058223659622125912
1.5023130183545108e-05
0.019899768344851972
-4.8514867497464435e-10
3.4851056113548807e-08
0.057260248909443881
0.030068830170142721
0.0020948184702205843
0.0033192785107433974
-2.9516576955109981e-12
0.0018564807677454254
0.011897063680338264
0.02084748134543311
-0.00074953344229674039
0.01588781121090397
-2.3047356279270415e-06
2.2553474471682486e-05
0
0.0024806899395116572
0.00043715872045840343
-0.081834097435039901
-0.0036966725254635193
-0.0071005535439236621
0.01147589508218815
0
-0.044484378721968268
1.0501451298832157e-05
4.966065074106672e-05
-0.0025495392837162918
-0.032963663853844444
-0.0029728233724830009
0.022314687137566958
2.3455569346109766e-05
-0.00047835818334272448
0.0010258003096508333
0.00021805585807187569
-0.0032944689393073451
0.0073020456335216302
-0.0013571328573041101
0.0010748632181847627
0.0008123848956592013
0.074509055318180029
0.24677655997492626
0.011704362068825193
0.0067507234385320997
0.00012920660056718402
0.00022034434597340387
1.1182440507588432e-05
-0.0015931022166271213
0.0035206241849383229
0.0033099998468477717
0.010571493776939481
0
0.00052031868185695878
0.04865774985610731
0.0011681204438883015
0.0097058100807070058
1.2983600567515756e-07
5.9672556122396093e-05
0.059609856138592328
0.0062735836033345977
0
-0.0047461172088740684
0.044425799630519951
0
-0.00027605225545347716
-0.0050626989420928274
0.042214409695313974
0.0041559459829118538
0.0035078669505171148
0.0011741164935383543
0
-0.0088700117659392553
0.18449263762813753
0.05338282913829881
0.00019762343160127199
0.0029092835086528199
-5.8661330737957845e-06
0.0018383565393203338
0.027306014115697795
0.0096964722668896088
0.0020162838152718728
0.022999664249760295
0.0041642324195969261
-0.017675855925275815
0
-0.0023300325639292042
-0.00019374150561924565
0.001382437057503453
-7.9374132056684047e-07
0.044745410200611638
0
0
3.713030798190172e-08
0.00097633073361924161
-0.0016046463927896757
-0.015902513508123956
-0.0074377816944704491
-0.00023840302458724363
-0.0019123723786738924
0
0
7.977716229406567e-05
0.016314478469617939
-0.0053440575598945128
-0.00012150680879319356
-0.0047080101039823369
-0.083286508143587276
-0.31284673039658117
-0.036750084966851261
0.017557288105241573
-1.4318121650542791e-11
-3.1685947227124404e-06
0.0002188423719333156
-0.29773201780898378
0
-0.0041866335263695447
0.002297238755654892
0
0.0030281966421809746
0.0010124248906590476
-0.0026901719826823173
-0.00012081797632468128
-0.00015916281291023074
0
-0.014483647768416298
0.069225116701186473
0
-0.03278509704966124
-0.062376621286331757
0
0.0011239272528653249
0.0015309337687124023
-0.034235807547736648
0
-0.00015798148729806563
-0.00021847380260474464
-0.11729794360781802
-0.019436899693073342
-0.015635700505548203
0.013722177435260656
1.673871744274315e-08
0
-0.022350267453908321
-0.059172782973774415
0.0021960923828537797
0.048948516906537301
2.4508438882505589e-09
-0.0022846429438862013
0
0.0044904186623152716
0
1.0505121118708882e-05
-0.0019489843355647437
-0.0029212001346255053
0.0013720623092044416
0.019079323385747225
0
-4.87958216729657e-06
0.0014588422395198442
0.0011966538281422726
0.00099817965418183292
0.023030383896942098
1.8486775212845718e-05
0
2.055184107172926e-07
0.0034582430804940912
0.051993636598907163
0.13882430688310729
0.010875490844849928
0.0011952912521782852
-1.5670526025749975e-07
0
-0.098528741558638389
-1.5522311432710033e-05
-0.016369091888511419
-0.00015082273210403197
0.00033803909993496356
4.0082783928915443e-06
0.019941595729124836
-0.0089948994163023942
0
0
-4.0296466298935198e-06
3.1214869770539164e-05
0.096961135775891702
0.07585546999175341
0.026262601699581258
-0.031836263944555764
-1.3956975607930405e-05
0.00031599482051468701
-0.0079998676015766851
0.0053076979244271183
-0.012430567245752904
0.0076196678429519722
0.00015075210772393457
-0.0020205158020617105
-0.015506272067722992
0.11316875912836567
0.11953384072200621
-0.10342574519466166
-8.779356131523253e-12
0
0
0
0.0078262490661179275
0
-1.9222643859503202e-06
-0.00039596407954856213
0
0
0
0.0044508179373652394
0.0054153325774736567
2.9391972989034935e-06
0
-0.022649289396282534
-0.021687825465005101
0.0001535656406806364
0.047382789977015456
0.0057157305241258786
0.003725260849328756
0.0021694598154166668
-0.045623142178007732
0.00081355442396690062
0.0011794069879428044
0
0.0074530619652913828
0
0
-0.013527956517419393
-2.2035914946733247e-05
0
-0.0029982790489374196
0.00090915509712344745
0
-0.0028254774482731801
1.4234300375233181e-07
-3.8378826865886373e-05
-0.011538652395181186
-0.031180441826615571
0
0
-0.058176267975755674
-0.002939049085773486
-0.01948460342438716
-0.025403373835809075
-0.013510150018932812
-0.00096955447298793524
7.5492894899048773e-05
0.00033116723586828773
0.0010654572225101064
-0.027732555148585657
-0.093804359947058796
-5.2246431478967126e-05
-0.099853970894390701
0.0018182237638970161
0.083216521208325983
0.0012287460079968083
0.026323992485462529
0.0007371512790044489
8.9033874684011797e-05
0
-0.0097503375725173612
0.0016892076129612591
0.0018230720056947073
-0.0032216891824342524
-0.024349465803825347
0
-4.7441983919249354e-05
0.0010207739672599891
-0.00018265526907510212
-0.014450544932742327
-0.0011628653445598738
-0.0033350627149138232
0.00734701187153145
0.00082237773165377197
-0.0021140108484325073
0
0.00038649276103059119
0.0025536076754215961
-0.002231740515623362
-0.026730480407687912
0.0019350222560224569
-0.0010534963256137531
0.0086067899944251552
0
0.03246114276598238
0.0066242354676427579
-0.02879002517533882
-0.00060157128724211471
-0.00047242436602014983
0
1.4340209791348149e-05
0.12135715242759176
0
0.0018638252139731222
0.0013818518821216358
0.0048818352170027493
-0.013634347252706919
-0.12892080200868808
-0.017790466933506478
-0.027568476537478487
-0.014814832616395462
0
-0.077819699001887413
-0.020694530424730091
0.039833670062399705
0.003711934164541453
0.0001038589727743539
-0.0025690390660398211
-0.096839175328479798
-0.012451531026991806
1.2743919086713552e-05
0.031891317455121977
-2.7776419033972474e-09
0
-0.0057495001438718409
-0.0041392722554019386
0
0
0.00039216437362533382
0
-0.0044523599733742696
-0.0016912305989561483
0
0
-0.0001180942101006752
0
0
0
0
-0.00066338861863703179
1.8689832930831241e-05
0
-0.031110206940641202
-0.0067780146445200317
-0.00011428985620371587
0
6.2117119627889722e-05
0
-1.2428956862360288e-05
-0.00065767264601833354
0
0
8.4301496829536921e-05
0
0
-0.00097225433915607527
0
0
2.5375127603091166e-05
0
-0.0021090556229388471
-1.692912312083576e-06
0
0.0003744505649918663
1.6713444337289291e-05
0
-0.026279112582074243
-0.0019319607334614976
0
0
-7.7405454425927993e-08
0
-0.0012032230207353891
-0.00064802374785525468
0
0
-2.1562755601317627e-08
0
0.0029785490230702723
0
0
0
4.0899332526445361e-09
0
0
0
-7.7927607459722092e-05
-0.00025161926944219888
-1.2233641446720594e-08
0
0
0.00035984433647400199
6.0019088860335041e-05
0
2.6408646390761654e-05
0
-0.0049868378094331646
-3.9236469840248259e-05
0.00011688333033944067
0
-6.260512439465471e-08
0
-1.120540872670869e-05
0
-3.6209197209671702e-07
1.0517160951352753e-06
0
0
0.003733981921206444
-3.776366320100064e-06
0
4.4796594219165473e-05
-1.0616923623596659e-09
0
0
0.00027698250376813284
0
0
-2.1393778847930086e-08
0
0
0
0
0
-9.1680464376853349e-07
0
0
0
0
2.0951720946957313e-06
-4.032831916241221e-08
0
0.00029581830523098783
-7.2623597676972352e-05
0
0
3.3757850947191341e-05
0
0
-0.0016656869934439419
0
0
0
0
0.0016569453906207963
0
0
-0.00052401333791697341
0.00025616990893730757
0
0
0.00033667794495772878
0
0
-4.4581519740227644e-06
0
0
0
0
0
2.6869773526201622e-09
0
0.0012379442683103407
0
0
0
4.4154314451416828e-05
0
0
5.603072233378105e-05
0
0
0
0
0
0
0
0
0
0
0
0
4.0332172573110092e-05
3.5530574657640492e-06
-7.6579333800407698e-06
0
0
0.00015939561743379712
3.1603736020980656e-05
0
1.0318192435692618e-05
0
-6.0037117298107595e-07
6.2071978318842896e-06
0
0
6.9632333389501297e-07
0
0.00086705810026971785
0
0
5.9644938794411621e-05
1.0671035304109804e-07
0.0018548801221930709
-0.03529158254339991
0.01251628434034961
-0.026300730077560883
0.0063054146533384828
0.00017734922136112356
0
0.039654029234084995
0.14682566581799972
0.0028948439522974816
0
8.5863557203760947e-09
0.011209664528388787
0.14454486731352575
1.1208038398457232e-06
-0.051103117025970063
0.0099223731621811868
-0.058459680518218197
0.0092161504656716776
0
-0.086526775417174434
0.029941219191547103
0.1309686557439298
-1.9898473537046125e-08
0
0
0.013533521501876236
2.1466229814990498e-05
-0.0040476304295318233
1.0386072554396968e-08
1.0581336977429729e-05
0.084320062047666705
0.016780451520417537
-0.0027608316678501706
0.012348025608170587
4.2388860231103992e-12
0.0025403560711380118
0.0039898317992316246
0.01753236551565945
0.00070185615357067316
-0.033980125021690254
5.4083439738766661e-06
2.4853395520611448e-06
0
-0.00060886219571032517
0.00054939017298264608
0.045113621495829849
0.0060369529803976996
0.0055051294858575591
0.0036970473272028379
0
0.046096862207258005
6.9478772137815601e-05
5.4497230778296718e-05
0.0025107768920062503
0.062239888148484947
0.0037134279840023081
0.018883139982688184
-1.3671014641246547e-06
0.0010634759198707648
-0.002096378310804798
-0.011602335693327206
0.0017498705213151464
0.016351370579213279
0.0079563459756482845
0.0027526073013877882
0.0008123848956592013
-0.023312805680655396
0.0085968234472610164
0.012984049991124399
0.0074362057673513816
-0.00011533871564762583
0.00044212983260924211
2.820741222790073e-05
0.001224524613228122
0.0050459510521741191
0.0025887696080851533
-0.0073471382255290048
0
-0.00037025152035431757
-0.034196659045731527
-0.00054875672577653226
0.0092650221519389696
1.0589547897581071e-07
2.21607913241733e-05
-0.011930316722061948
0.0077733645420957533
0.12271626615505596
0.00054788194639918825
-0.0013717107795170377
0
0.00066020595229400426
0.033601423203390671
-0.028461086924124999
-0.00062873109006922724
-0.0035078669505171148
-0.0045139482342202077
-0.64117756395581138
-0.10473615637598147
-0.051519469565950327
-0.071248459799617608
-1.150946548820648e-05
0.068899382811065266
-3.5287457239882813e-05
0.0099813033405779638
-0.019276758799442045
-0.028220583364760889
-0.0003310370694650836
-0.027139151627895666
-0.020493127741315887
-0.077641237298270716
0
-0.0022187024155322344
5.2708001656119155e-05
0.00071526718878286977
-2.6509145404966443e-07
0.07489478094659438
0.28181048301630574
0
9.2455517753738918e-09
0.0029289922008577246
0.0017208384998475116
0.020106756811799888
0.010627114412095726
0.0012380302306726283
0.0068490010382365081
0
0.4277159247408106
-0.00018395379413981399
0.27683529624258119
0.0077143536436045336
-1.1203117387643549e-05
0.0066632593677114762
-0.014766986312510829
0.0028847353157294316
0.0072510037384378723
0.060622127048728137
-1.887493101760404e-11
-4.324022059495234e-06
0.0030554530986340173
0
0
-0.0015530255498700477
-0.00038466403974476152
0.010853239379086332
0.0019064345280184541
0.0013208722068196975
0.00088857040552025516
-0.00029905904776780806
0.000257162363597979
0
-0.0019516758114207454
-0.047165824994166848
0.38810416180854179
0.013377833200352615
0.056627863923067193
0
-0.0020406453285779138
-0.032051941488114306
-0.0068990728230313193
0
-4.5048056334797741e-05
0.00021847380260474464
-0.043322777271501162
0.012391109242953306
0.014575382219512656
0.052640975171180694
-4.265511725359143e-09
0
-0.0046091014371233271
-0.20225472832470334
0.040070341169943222
0.027764400562321868
-1.0139943619998925e-09
-0.0026182007342652231
-0.15216558615495102
0.0030975578632669461
0.055819818411422535
-1.7396234280498346e-05
9.9769022238435892e-06
0.0075302778179933824
0.0024207595567497593
0.030086809244036967
0.40332500970052115
9.2731514940848117e-06
-0.00065852404889747479
-0.0019129601751706206
0.0071233946786367526
0.030111703591199569
2.4303837235099585e-05
0
-1.0695803585648405e-07
-0.0041248428793018094
0.091197991080398888
0.14820652533285922
-0.017316720231624758
0.00014157942096792119
1.6120940113670084e-07
0
0.098528741558638389
2.3674343560744606e-06
0.0055038755618267848
5.6048210332111133e-06
1.489438804103088e-05
8.1948886021435713e-07
-0.048520187368811848
-0.01791234201505415
0.076115085659878234
0
-3.855722929766408e-06
2.8709417518345573e-05
0.025115376467817793
0.026718233680781325
-0.31300875216123109
0.057515705825067417
9.2377840565024662e-05
0.00092280029286609768
0.021021370153988379
0.25175512019387064
-0.025801033931636727
0.017528493928727743
2.0271714337576737e-05
-0.00059577065974414205
0.16796594403290144
-0.060142995049045238
0.19024570212311248
-0.055697742028049432
4.7575650022400897e-12
-0.00079563294064801087
-0.15693933968677792
0
-0.066947946389486562
0
1.7003639947341477e-05
0.0001412610754787073
-0.037264773515053043
0
0
-0.0066108228652692136
-0.014786300165676114
-0.00011974396029811788
0
-0.030191108278036938
-0.029453815025638524
0.023333151942988347
-0.047382789977015456
0.00034117422617987048
-0.0073330884893945273
2.4122661190225465e-05
-0.18705909905032578
-0.0096074352467093137
0.0038578897876398355
0
-0.0080429811961526525
-0.49087263949751914
0
-0.014263464057888416
-1.6127479579839474e-05
-0.0066067529640088159
-0.040800821675476009
-0.0053622193903723617
0
0.00043641394447887285
-1.4234300375233181e-07
-5.0159136743196685e-06
-0.0013082607313144921
-0.020752336330911808
0.092314166291871946
0
0.058176267975755674
0.001803096974960742
0.010554349038979512
0.014510453349466001
0.0090485974406912788
-0.0011759682044915436
-3.3009736300405177e-05
0.00042164050051278148
0.012712673608925178
0.081182671657465788
0.095617484636422764
0.00026443715237319698
-0.018796834134890479
0.0001250732018062732
0.038768722747224552
0.0014457566444777852
0.045870340238698175
0.0019819168416098315
3.117151066346528e-05
0
-0.0036927120185590023
0.00086621031152660363
0.0010911067427646301
-0.00091277083741784669
0.037400104452273687
0
-0.00016606127484851651
-0.0012086977110773722
8.5620869491376858e-05
-0.0033662529131272185
-0.0018579160849706601
0.0081764312695010669
-0.046457182932195168
0.00030192838293652637
-0.00050133361489985387
0.015637243594809301
-0.00025395016574660125
-0.0021356597215056667
-0.0096112298307134778
-0.039855278072893581
-0.0023602860535537162
-0.027237016628674757
0.0089176705585221113
0
0.03246114276598238
0.0059395886291634071
-0.01258401326613497
-0.0016550407686949874
0.00021038416777829913
0.036304175150090524
1.8979546545125413e-05
0.090730674184055199
0
0.0057703076515938281
-0.010523043087599351
-0.010641698661813033
-0.010811566727367578
0
-0.013167298242217755
-0.019815490465968061
-0.023304082555069428
0
0.011935450076099809
-0.0070604515017878029
0.055069510071940185
0.0012865181821963985
6.2629095633386504e-05
0.0027036241053539018
0.017844078273892283
0.0001799989987702623
4.1162469284974375e-06
-0.050530574972226461
-2.669575093653424e-09
0
-0.002637041590653989
-0.011267029085196801
0
0
0
0
-0.0021951530290264748
-0.0008400353591975242
0
0
5.6784736315068532e-05
0
0
0
0
0
-8.5054601292133691e-06
0
0
-0.0092897478720063292
5.602056759176628e-05
0
0
0
-0.00015725548616060006
-0.00021517009036722007
0
0
0
0
0
-9.8541115092500259e-05
0
0
0
0
-0.0013576373719607949
-3.458633644649576e-08
0
0
2.9945719493417679e-06
0
0
-0.0012398268669095143
0
0
-7.6765042738124501e-08
0
-0.0034478156979148838
0.00039029751309620968
0
0
-1.0034659102181805e-07
0
-0.0011578616898908108
0
0
0
-1.4905844752254127e-08
0
0
0
0
-3.5529862760018922e-05
-1.1062566662716618e-07
0
0
-0.0010163198025384822
3.0541947634108422e-05
0
-5.8508201772986221e-06
0
0
-2.9478227150707757e-05
5.6249991231364865e-06
0
-5.4418469767557724e-08
0
-0.00011664275877006295
0
2.6209547528992997e-06
-3.6447146957806549e-09
0
0
0
6.7119412650853254e-07
0
0
-3.1504149453146616e-10
0
0
0.00029580549712439119
0
0
-1.3079210381293813e-08
0
0
0
0
0
-1.1325183439503171e-06
0
0
-0.0021205868920070908
0
1.2082074885243909e-06
6.1675000593789837e-09
0
0.00025563922522264403
0.00072983185965066837
0
0
0
0
0
0
0
0
0
0
0.00041137209981912342
0
0
0
0
0
0
-0.00055952709503826869
0
0
-1.6550515944801021e-06
0
0
0
0
0
1.0735030697798329e-08
0
0
0
0
0
0
0
0
-0.00091406775576220256
0
0
0
0
0
-0.0015556793197524588
0
0
0
0
0
0
0
-3.1668181708739774e-06
0
0
0
-0.00034407275222961411
0
0
-5.1921572700278295e-06
0
-2.205230263962998e-06
-3.4383034413343532e-05
0
0
1.2681459336488701e-06
0
-0.00043990052792302963
0
0
4.3022581205153479e-05
-1.1795404171656237e-07
0
0
0.0073375237309480749
-0.0091657911386536176
-0.0040459850321220145
0.00031333069848471252
0
-0.0069261483950082067
-0.060119203512869063
0.00093492253381694933
0
4.8464413496537145e-08
0
0.018282970669258589
4.604045790185865e-07
0
0.0074082290853479749
0
0
0
0.13735196211195957
0
0
1.8569839514687571e-08
0
0
0.0051448539416227837
2.283290220973567e-05
0.0015731151649272471
1.0848106483923716e-08
-1.0470781604930178e-05
0.031346989735659858
0.0142994739780855
0.0046662000119530225
-0.0049492535293631347
3.5436835404468767e-12
0
0.0060949687140300374
0.0031502934804388811
9.0368161484611923e-05
0.0086387043662836706
-3.795117265318426e-05
-4.1703021143097747e-06
0
-0.0033756916543905202
0.00063177452498663054
0
-0.0044707626919184822
0
0.00085271631322808117
0
0.0003527192241810196
-9.3996052387458493e-06
-5.3301062307792821e-06
0
0.032963663853844444
0.00010700950872198308
-0.0042897955503250337
-0.00030298890861299563
0.0012545361625002568
0
0.0066389240113987049
-0.0073563371328146734
0.0085679216567295467
0.0036511210672036075
0.0016781835119032483
0
-0.0090700240367243765
-0.098897390354953249
0.0057784946341576417
0.0014355031385529255
0.0019770363690516913
3.5585381593229711e-06
1.3090921786880077e-05
-9.1603238454745963e-05
0.0050486216012048928
0.0026063770172497459
-0.0015693673763048188
0
-0.00073726068167895189
-0.046664166595881795
-0.0010519594474749086
0.0060645173598861922
-1.3183732598429012e-07
-7.5802611906668166e-06
-0.01965517570401662
0.0079245124076794248
0
0
-0.0014440913807307405
0
0.0014887899617009809
0.01795803094055114
0
0.00046928609552064062
0.0031158272694735132
0
0
0.013537463318776971
0
0
4.3322984503204887e-05
0
-3.4978522802300559e-05
0.0010171488489654551
0.017555609619527283
0.0071199191220612072
-0.00076356690382165578
0
-0.017061874935192019
0.078409766985417462
0
-0.0013629888030288406
-0.00023552809910401426
6.7167591262041771e-05
2.2058757467801208e-05
0.032967294410523193
0
0
1.265457645221821e-08
0
-6.1323719158263711e-05
-0.0029649879418145991
-0.0002341768267021121
0.001074791203913589
-0.00022300714176035619
0
0
-0.00043967585243199798
0
-0.0027781656801707812
-0.0001427288468586455
0
-0.034282272898875615
-0.022359777941849728
0
0
-2.0976608989664035e-11
8.1473583953180906e-06
0.0052399602365623419
0
0
0.0019351899616270162
0.0016436272036871268
0
0.0036277671353690242
0.0020563064666844128
-0.00013529620729700422
-7.1759254114002818e-05
9.9548204676074757e-05
0
0.0063559467645797271
0.014179574408972906
0
0
0
0
0.00085508749760827862
-0.004159976165283733
0.00067878123112341537
0
-0.00013303506040589802
0.00010026832133619906
0
0.0025355035325871711
-0.016428336919711808
0.0026613843804798591
1.2813257343926571e-08
0
-0.01040804413854954
-0.045876115408605603
0.0015750487281650212
0
6.4903304704202583e-10
0
0
-0.0001377081015203935
0
-7.5311825401071189e-06
0.0018553461707790473
0
0.0025071310039569486
0.018428178515495993
0
1.0842371873322706e-05
-0.0028109086217706961
0
0.032002497578217055
0.035340108309883558
-1.9507773830219766e-05
0
-3.2648855354837084e-08
0
0.017607428545688312
0.0063600252329667111
-0.005804180007147385
0.0010480423607290158
1.1622090054682029e-07
0
0
-2.4303818864290083e-05
-3.8664689639103089e-05
-0.00063300793357470126
-0.00057569578946761659
-4.18673972832567e-06
-0.037050306260558712
-0.0091339642697819065
0
0
-4.7612805877314515e-06
-5.3583595680873317e-06
-0.0074758675203379808
-0.01798344935066792
0
0
2.1532548997242752e-06
2.216493359341161e-05
0.026811474581705807
0.0050995733121566699
-0.0040257593507306887
-0.0011321883592639384
-2.570851335416198e-05
0
0
0.067418779512515015
0
0
7.7173939916559626e-12
0
0
0
0
0
5.8584552941600415e-06
0
0
0
0
0
-0.0030108119692454443
-4.3618529473731318e-06
0
-0.0077293494802574084
0.00093800636552645537
0.001445087635622837
0
0
0.013369846425875938
0.0014867811509273205
0
-0.0019698154614486798
-0.001842872914571448
0
-0.00092732287883616189
0
0
0
8.7016410158595352e-06
0
-0.03935335807239651
-0.0062366287351299102
0
0.0017024721494422294
3.9102083798593608e-09
-1.546584091877464e-06
0.0048336125441049956
-1.1826279004236101e-05
0
0
0
0
0.0063056434029605249
-0.02914889896889623
-0.0019514158926129434
-0.0008001194037601892
-9.6775205105114961e-05
-2.1907220681687529e-05
-0.0092295454779221207
-0.049718298912216331
-0.0018131246893639719
-0.0027571651090224172
0
4.9595093647809676e-05
0.038768722747224552
0.0047455239201402086
0.018353130482414895
-0.00029439429330886788
0.00010940270826526198
0
-0.027759926193740334
-0.0012482583962721695
-6.1735790660761883e-05
0
0
0
8.4090184395742073e-05
0.00057348031667765395
-0.00019618873863512613
-2.7485835462514775e-05
-0.00090902527452700241
0
0.015224400845886426
0.00058921200821873015
0.00083436806591321558
0
-0.00028507193778054367
0
-4.7612437834365163e-05
-0.081843304287918875
-0.0023330059421639085
0.0082310292819217333
0.001665815744638555
0
-0.03246114276598238
0.0010549794801883979
0
-0.0007419156001540919
0.0004383650685585536
0
5.13498779169327e-05
0.046229270120945756
0
0.00051433155633375178
-0.0031057004622332281
0
-0.0047514158662870318
-0.12892080200868808
-0.0022994434461584019
-0.0031957266003700387
-0.0024791099940780427
0
0.041771494220332432
0.00065865782730944013
-0.0082233154235524485
0.00087592337161980895
9.807246656495226e-05
0
-0.038800019595378266
0.00096213713274604686
2.3739424053018913e-05
0.011031042593741462
1.0668141049971544e-09
0
0.00074660245280462503
0.00092973612960305725
0
0
-0.00023311509546944503
0
0.0042657560263919111
-0.0010154627593175138
0
0
0.00015435289595823904
0
0
0
0
-0.00066338861863703179
-2.3415760773227569e-05
0
0.031110206940641202
0.006087893034208364
-9.399106376910629e-05
0
-0.00011155800864871323
0
0.00048750522957521377
-0.0010681347308082931
0
0.0017732192384204328
-8.3015193991500141e-05
0
0.025699199369276476
-0.0013187840982000522
0
0
2.7214761805404187e-05
-3.9536340796660375e-06
0.0024081458850107279
-2.1212892055187289e-07
-0.00091569306976483646
-1.2484949690668746e-05
3.3788096349481063e-05
0
0
-0.0013518686796912102
0
0
2.4780595953461091e-08
-6.0630715930260812e-06
0.0022196710999595358
-0.00060476167312353704
0
0
8.1487619048272767e-08
0
0.00080862427364372679
0
0
0
1.7637978968019658e-08
0
0
0.002230499775207995
0
-0.00030053858267901467
9.1126669949121947e-08
0
0
0.00017772710251395094
3.1018096165293698e-05
0
4.993074810610465e-05
0
0
-9.6877055058575789e-06
0.00017876867843768363
0
5.6419028700217353e-10
0
0.00028120266505244246
0
5.404146779606363e-07
1.2427473210667816e-06
0
0
0.00084637751078943
-4.6908050898543795e-06
0
0.00035760142477282285
-1.1221484563527129e-10
0
0.0060388943083776962
0.00027384373044165065
0
0
6.5295022848184769e-09
0
0
0
-0.00015710090972206197
0
-8.4668232796604005e-06
0
-0.0033935031708637068
0.0099251707183535889
-7.2672797883429274e-05
4.3280735877153581e-07
1.3233154757642002e-07
0
0.00078507836999072581
-0.0009850453956730149
0
0
-0.0001958830064294096
0
0.002659555733933052
0
0
0
0
2.6089763852802994e-06
-0.00065424369838351507
0
0
-0.00063095790469735026
-0.00017534653742931982
0
0
-0.00065963643732488216
0
0
6.5415118580012396e-06
0
0
0
0.00014757861002262466
0
1.9981971366286336e-08
0
0
0
0
0
4.2332953013063187e-05
0
0
0.00014448631041994993
0
0
0
0
0.00063299462106461857
-0.00050891140383769898
0
0
0
0
0
0
0.00017685072722674352
3.8781301200073795e-06
0.00017573038368954414
0
0
0.0001281209183130549
0.00012618775160010601
0
0.00013402374080194901
0
3.2984846272312435e-06
3.5202197972454476e-06
0
0
1.740124724630237e-06
0
0.0011553003458142259
0
0
0.00011647245884677888
1.623670941958069e-08
0.0029650248232598367
0.1902658111376247
0.031130900253791813
-0.019710604012933629
0.0007994416372217204
-0.0010010470689577658
0
-0.043005680955341914
-0.23302479154472616
-0.0060904798841125325
0
3.928216402900393e-08
-0.013845441568215933
-0.15425763876829351
-5.9677547835371204e-06
0.018834465229094492
-5.3695205650493251e-05
0.016374565028668388
-0.0052705398499861946
0
-0.031731275242680677
0.020048539749339817
0
-1.8343075284027884e-08
0
0
0.012895507935530787
-6.089845784992121e-06
-0.013771833423860565
9.4383131483435357e-09
2.2646791244218152e-05
0.005217720320606134
0.030722396702971378
0.0045411820589680929
0.011440192618624358
1.1356282267972603e-11
5.8252895056293741e-05
-0.0023073808613865653
-0.0063301089503248918
0.00066041959225770748
0.038169248527251738
1.7747653309870132e-05
-4.5713532353168662e-05
0
0.0016815938949647452
0.0012158508925420974
0.079300061279206663
0.0027320593371759718
0.0055051294858575591
0.000549208026771593
0
-0.034768454530323317
-1.6606774734166377e-05
-2.5783120500387956e-06
-0.00016832977110995719
0.095203552002329384
0.0016697169041309076
0.0072335562816189516
1.9115709448113045e-05
-0.0014502311024768967
0.0047690872598720397
0.011311157606820003
0.011605522103857114
0.019136403171513525
-0.00250469172478556
0.00020706572664625384
0.00049864687735338053
0.017176400844150983
0.24677655997492626
-0.012984049991124399
-0.0027295249690791317
-0.00097979067806923522
0.00071301292282941028
6.0126362864887084e-05
0.0017210384564519639
0.0017267377628139887
-0.00084770786762524461
-0.018918877884436028
0
-3.9911478574949246e-05
-0.056778765460667506
-0.0011804715373282461
-0.0013743855921735206
-8.1158967026429564e-08
-6.4680971110202327e-05
-0.02177802959790389
-0.0070698153357067533
0.070328349797372083
-0.088219778870084864
0.017521951100284441
0
0.00079019916378952762
0.017820906737984612
-0.070675496619438977
-0.001428217377584129
-0.0010529249985556655
0.00071992835692349651
0
0.028800710203788493
0.13228824386002286
-0.0038326199588334287
-0.00023287337562356671
0
-4.4821768828875899e-05
-0.064049141123760658
-0.014542420207155524
-0.020315746393545879
0.00074146105281536299
0
-0.036879099088844049
-0.11357540081579809
0
-0.0010670345613672094
0.00015695750837603034
-0.0012901039825456023
1.5724597054781223e-05
0.086725842034011971
0
0
1.5014118501291691e-07
0
-0.0021005095560966821
-0.010266404186601456
0.015993536088846801
0.00019048627621818506
0.0013149779223006746
0
0
0.00021333712068408159
0.011613891659181634
-0.0001521306228239179
5.4556931334968304e-05
0.0057614870368160407
0.023208763636579255
-0.018004963889713572
0.083172853740385549
0.018882277305805561
6.57561039191531e-11
3.1763525102046225e-06
-0.0024031769729999453
0
0
0.0087722007369831646
0.0044745199348874502
0
0.0056632676479400727
0.0030551343000687578
0.0029794420752569635
0.00022826455955394682
0.00015418400662470832
0
0.000320297792647544
0.11853601023929011
-0.1249863455824686
0
0.062376621286331757
0
0.001078070196159265
0.022270678571769478
0.025036220241288876
0
0.000136991718930407
4.7482550905749232e-05
0.12653493210936012
-0.029218138032216307
0.017461023946501411
0.041755953893387904
4.4355898399177362e-09
0
-0.041184828721814337
-0.24435206648208671
-0.0032380024689714119
0.088810898924247789
-4.0247456207744513e-09
0.00033355779037902168
0
0.0045069207613748254
0
-9.594175631444468e-07
0.0017885818945220487
-0.00069154648797124384
-0.00051900453134204045
0.0085023639204379088
0.13595502843746998
4.9954060616349752e-06
-0.0010725108380775315
-0.00049288040855517744
-0.0072424739167020807
0.018478009518017674
-6.1420029538347923e-06
-0.055136362263580603
-4.8540294075021424e-07
-0.0024779417123316403
-0.040569080139672836
-0.033571063846455147
0.009727791276044416
-0.0027236446250049587
3.7237036588517489e-07
0
0
3.2279295167639815e-05
-0.013972958224227124
-8.7698352584178108e-05
0.00054656130240978568
5.326313950777993e-05
0.093322203040935081
0.022639224773318888
0
0
-7.666982293792692e-06
3.795386341131773e-05
-0.087340119242828806
0.020041009737409313
0.22131802775747264
0.0033739245413759319
-3.3667653667516004e-05
0.0011013730177722662
0.029847304886747004
0.00020812461227044839
-0.040612006775835409
-0.024471673777521501
2.0971305594231777e-05
0.00084811058986241478
-0.078741504666726261
-0.0072757844634697769
0
0
-9.0162922776029026e-12
0
-0.06157830498218729
0
0.078871527158369342
0
1.1735798924931159e-05
0.0012401294621275623
0.067401818937950914
0
0
-0.0087309762343518189
-0.0053600795793096569
0.00013868568063882098
0
0.0017414733066155941
0.035239189172490852
-0.002890175271245674
-0.054076941236788974
0.00098591700099196736
-0.036478675679224651
-0.0023487676114635498
-0.098109546005886075
0.0033652121899292687
-0.0012377272398915288
0
0.0023920293795732096
0
0
-0.0053401024554750182
2.2033318925566644e-05
0
-0.022619220407425974
-0.0031912982598206814
0
0.0064321377878438354
-6.1797864215294181e-08
-3.6471922928080847e-05
-0.00025867762582101341
-0.0040091835569603159
0
0
0
-0.002783252526755829
0.0023005589449346404
0.016967313466842923
-0.014547346231843079
0.00031944221772314666
0.00015364435393303455
-0.0011049378831953613
-0.0065634370407757865
0.081182671657465788
-0.061396583393160266
0.0029650381353055985
0
-0.0017686286702492063
-0.070589256314031262
-0.0037039127936338346
0.0074755211068634787
0.0015659560943212768
4.3297993732406017e-05
0
-0.0066827374812002266
-0.0013440579137662151
0.0015402607614087721
-0.0081639784660147968
0.0069120578804717824
0
0.00016635699972827758
0.0009857560719033218
6.567129193750244e-05
-0.0057669671439437124
-0.00032139633519112615
-0.0020982334026349867
0.042551783096832815
0.00079270868315282179
0.00095190719347703213
0.068120872621518308
0.00045856329930506385
0.0013320061396672608
0.0078248410856226278
0.052671524651366965
-0.00067734643377846714
0.025674858870613215
0.0045931103923798804
0
0.057555082035976535
-0.0013941668362655599
0.07865189747531931
-0.0016706962404244969
9.4251448818785823e-05
0
-4.4674133374984701e-05
-0.0017278660578363067
0
-0.006058034893376963
0.0015952523379536968
-0.0032840178493194023
-0.012226706616609528
0
0.0078426873155950771
0.02572122794093443
0.0051149547888534952
0
0.055316985049283625
0.011287810652708716
0.020757398707571789
7.5524906538496821e-05
-9.8489419401644014e-06
0.00060892529136987675
-0.069062115074860292
-0.0077428687981398597
-2.2253146742949035e-05
-0.031891317455121977
-2.8497958355022305e-09
0
-0.0017898172268298884
-0.0011700013914036553
0
0
0
0
-0.0033971049544053306
-0.0027401104254207147
0
0
-0.00012710958086368027
0
0
0
0
0
-2.4144420902650059e-05
0
-0.0078931139301158301
0.0048327709439746052
5.602056759176628e-05
0
-2.6213284509025715e-06
0
-0.00020763914392068911
-0.00025226323080436723
0
0
-3.3095337784126232e-05
0
0
-0.00020298255938751945
0
0
1.3281402645117108e-05
0
-0.0010032571296365678
-1.2543432007978282e-06
0
0
-2.0024426216630227e-05
0
0
-0.004592619916984066
0
0
-3.0543371453911563e-08
0
-0.0025370511214578128
-0.00032140752541228281
0
0
1.490588075293879e-08
0
-0.0024085817171994755
0
0
0
-4.026395356479971e-09
0
0
0
0
-4.0831396634432678e-05
-2.6965801518324522e-08
0
0
-0.0014372904506020278
3.0910247197597841e-05
0
-2.810977415883107e-06
0
0
-1.7525195295522944e-05
-5.6249991231364865e-06
0
-6.6228843831006465e-08
0
0.00025873080280020211
0
2.1299228592747295e-07
-5.0195704991628484e-07
0
0
0
1.4261295825643892e-06
0
0
1.6965175787038328e-09
0
0
-0.00038671394785566213
0
0
7.6965505569281431e-09
0
0
0
0
0
7.4079199901111948e-06
0
0
0.0021205868920070908
0
-6.4940748765813934e-07
1.9927541062077784e-07
0
-0.00018297571823208903
-5.3617470883547674e-05
0
0
0
0
0
0
0
0
0
0
0.00051450964519406757
0
0
0
0
0
0
0.00028802562697256525
0
0
4.3173605100132362e-06
0
0
0
0
0
1.2157818475174305e-08
0
0.0015174122762438883
0
0
0
1.8068084821700906e-05
0
0
-6.4201650908663385e-05
0
0
0
0
-0.0021407237508207911
0.00043974278546925189
0
0
0
0
0
0
0
-4.7467179259220347e-06
0
0
0
0.00021164719011503878
0
0
9.7126884786222239e-05
0
3.7350086682002012e-06
1.4619880263869331e-05
0
0
3.6112641364536649e-06
0
0.0017245275247624366
0
0
4.1194748314818711e-06
-7.5134455183549458e-08
0
0
0.0079106165440871769
-0.016457353872775294
-0.004844122900417005
3.749397607758331e-05
0
0.018541389770081018
0.060119203512869063
-0.0051792212405689523
0
2.102863852624131e-08
0
0
7.1597227478132608e-06
0
0.007209522538633213
-0.017552566999010207
0
0
-0.061379231306584854
0
0
-8.4037373672691441e-09
0
0
0.0078992057007970587
-3.6716642935798648e-05
-0.012198718258933318
1.1369050368684378e-08
4.4601440531557451e-06
-0.02684380289695313
-0.018832637082159813
-0.0026383791730394085
-0.0032770398711015683
-5.086697214521121e-14
-0.00023258285706805504
0.0045881790938582141
0.0026033047761879181
0.0012631072317157378
0
-2.147630848262093e-05
-1.9774439079515369e-06
0
-0.0034873860843451484
-0.001195654183223073
-0.012121134895728162
0.002395726167348474
0
0.010880226463538284
0
0.011438437446689858
-3.6826274723983847e-05
1.461035524423542e-05
0
0.032963663853844444
0.0042797504098474604
0.0021359159380366865
-3.358864094555728e-05
0.0021937411490960033
0
0.0063895739549647626
0.0072004174039489062
0.0044969231661044886
-0.0016988412837143285
0.0024227230924337875
0
0.0095963898847835558
0
0.0039081507361853098
0.0026028065329930187
-0.0015100111514973033
7.0769410686525057e-05
2.6503476821134016e-05
-0.0005711099610566147
0.0015244255158051755
0.0019286697571984134
0.020669204204463228
0
0.00081376611912555843
0.090975424506399033
0.0013846471871627156
0.0065277993570729952
1.4709830732490359e-07
2.5538720960724699e-05
-0.0015069657254753593
0.00016219050816501085
0
0
0
0
-0.001565411410996009
-0.02947273101727876
0
-0.0016994912451726567
0.003063967822039554
0.00037692084260826278
0
0.0064511328213557378
0
0
0.00020174565689872861
0
2.3604097693108045e-05
0.017057348238270015
0
-0.0032754077408235606
0.00088466564857773099
0
0.0024035999986274257
0.021300105220166621
0
0.0029174862591925463
-0.00016437451033328774
6.0441894769038606e-05
1.3150695623151918e-05
0.021189178620434748
0
0
2.0011914073136861e-08
0
-0.0013027740124631677
-0.017537683725735238
-0.002670502205560732
-7.3716374090943522e-06
-0.00046021335970244091
0
0
-0.00015438779694307099
0
-0.0030231141386846388
-0.00016795791581055835
0
0.0087943935384962903
-0.019140358148766981
0
-0.0013249892005639877
1.0080129599275186e-11
-6.0520098649666743e-07
-0.00031188295676305824
0
0
0.0018671413485867561
-0.0023534711863884812
0
0.00011038027057446841
0.00063368675220273928
6.1189454312559998e-05
-0.00030017202745320602
0.000257162363597979
0
-0.015301839321160086
-0.13748322676767613
0
0
0.027360079094140847
0
-0.00043084536200724012
-0.0079093287772470221
0.0054668156423080139
0
0.00012178887601969177
0.0001155742464612879
0
0.012774746980082333
0.0068858043055860787
0.0041375388341609561
1.0055882391542118e-08
0
-0.016989276502196643
0
0.0073365135250076305
0
2.2009686372382315e-09
0
0
0.0036052367364105354
0
4.0511354425326707e-06
0.00058170581568447251
0
0.0023373504682907232
0.0060314391041331947
0
6.0071333333892126e-06
-0.0014461593692813208
0
-0.016243707737110299
0.021869632798150823
-2.527886476125961e-05
0
-2.7525680173739118e-07
0
0.017607428545688312
0.060920501494131092
-0.0044981001025830754
-0.00076726975615564895
3.869174172324579e-07
0
0
-2.377387171108874e-05
0
0.00073863171462740739
-0.00064687875977042662
-2.6542537662374767e-05
-0.037299155810629744
-0.0036474924680096987
0
0
-7.2717485575974276e-06
-6.2645184899956139e-05
0.025115376467817793
0
0
0
0.00011166887782757687
2.9691719751164655e-05
0.02431124520399448
0
0.0040257593507306887
0.0032371384128107037
-4.7091744214207093e-05
0
0
0
0
0
1.9143877044928512e-11
0
0
0
0
0
-5.5248055046057095e-06
0
-0.030137045422897871
0
0
0
0.00067833916902394677
1.5378648103324162e-05
0
-0.0098001198957811536
0.00089998169443169932
0
0
0
0.021316433412484525
0.0049922848000933098
0
0.0050746186037238013
0.0010511726206054563
0
0.013589405846283511
0
0
0
-3.573848546680671e-05
0
-0.017440955167183435
-0.020233582343802181
0
-0.0020801204881118873
1.2006479804144643e-07
-5.496612905190954e-06
-0.010999257466060284
-0.01495148725552271
0
0
0
0
0.00099361445679344582
0.0063965314561298158
0.0081594209766458654
-0.00030411610526110886
-0.00017530089637764616
0
0.010351142374826193
-0.03146437274524945
0
0.0030104824642389781
0
0
0.014818311659875062
0.0038553292455276952
0.0044039111504997619
-0.00040818507780928824
1.394716081552475e-05
0
-0.027759926193740334
-0.0026296599146950609
-0.00050605754444452676
0
-0.0044004445161228041
0
-8.4090184395742073e-05
-0.0013792333343302999
-0.00025588913300536993
-0.0064582819885015087
-0.0021570330884677761
0
0.038425339623371316
0.0011952657233601945
0.0024438627363569444
0
0.00099366199456358932
0
-0.0092315329106672263
-0.065332505250392275
0.0015582696200396959
0
-0.0018953158389484941
0
-0.10980049257074936
-0.0024570496272824306
0
-0.0019193928590383652
0.00099062626255505201
0
-1.591726233408947e-05
0
0
0.0021550483674096705
-0.0010331457369676055
0
-0.0074140331502224226
0
0.0065376373483985173
0.0070723014998941196
-0.00090098148060702621
0
0.03268768467618495
0.00041173582236224242
0
-0.0012150132498728449
-2.7610365297953069e-05
0
-0.0031118630475936992
0.0035319211534080401
-2.8721515263417814e-05
0
-3.1283338055354063e-09
0
-0.0016965214532799512
-0.0049780090589393181
0
0
-0.00062527946909477882
0
-0.0022700978818582722
-0.0019730749314018732
0
0
-9.77181972440665e-05
0
0
0
0
0.0010048447101801516
-2.0904850237776531e-05
0
-0.0078931139301158301
-0.011321021440868754
-0.0004815964443059907
0
-0.0001990436407780334
0
-0.00031980596373496633
-0.00010414954945801909
0
0
-3.8854049327394333e-05
0
0
0.00017870667018051313
0
0
-4.7382911441343068e-05
0
-0.0020496636350644777
-1.2653471337632917e-07
-0.0024932274609904591
0.00019484444335375272
4.5451152630035286e-06
0
0
-0.0032770327674902888
0
0
-3.2590474518282971e-08
-6.0630715930260812e-06
-0.0017909589191658294
-0.009482694422409111
0
0
-6.8292472478179246e-09
0
-0.00087547023981101354
0
0
0
-8.9786218242719697e-09
0
0
-0.01874184744743734
-0.00027632823819174416
0.00026887144913100778
-5.4656359595936967e-08
0
0
0.0013884187896043764
-3.7610438262163655e-05
0
1.7757500219544476e-06
0
0
-4.5806890624731352e-06
-0.00013979625786385435
0
-1.3998154074696579e-07
0
-7.2365770933236617e-05
0
-7.4527464104835256e-07
1.8108180570036677e-06
0
0
-0.004580359431995874
-1.3118624306304521e-06
0
0
-1.605772829387683e-09
0
0
0.00033546161553565739
0
0
-2.0049464229612241e-08
0
0
0
0
0
-1.440257033216719e-05
0
0
0
-0.00013390773701463121
2.5948673282970286e-06
-1.7288692343118976e-07
0
-0.00060146553305970632
0.0006201266019323355
0
0
-0.00025619551101056749
0
0
0
0
0
0
0
-0.00060889009763331306
0
0
0.00036115817770558483
-0.00043151644636662742
0
0
-0.00086826171281989355
0
0
-1.8323421751352033e-05
0
0
0
-0.00012140967024117047
0
-5.3615465574757039e-08
0
0
0
0
0
-9.012561384555984e-05
0
0
0.00010615700696174877
0
0
0
0
0
0.00099424280437524545
0
0
0
0
0
0
-8.0606795747067788e-05
-4.466998233623232e-06
-0.00033686688971981416
0
0
-7.1534429465962558e-05
-0.00021798862767708876
0
-0.00010360912264882936
0
-1.2453357918885635e-07
-1.3812501670265451e-06
0
0
-1.6172395314221302e-06
0
-0.00052677508512119909
0
0
1.296850348745702e-05
-1.1104498052331264e-07
0.0029650248232598367
0.016929364904651623
0.0094321818796721264
-0.033510321638579393
-0.0065005993163612229
0.00017140875886051358
0
0.032105811728129992
0.086199125726726486
0.0024360841486587032
0
-7.1048823534303415e-09
0.01180738018322277
-0.050520311784221394
4.4861043638744217e-07
0
0.006058437351128162
0.017925877358798657
0.0038864487459358416
0.30806475574542197
0.053414690581431536
0.099422972247507402
0
-3.9922037859635506e-09
0
0
0.0017953504489396221
-4.906652142314894e-06
0.034994483617671907
-9.2769372947483022e-09
2.2356422302629194e-05
0.079600864967690282
-0.029741915863175119
-0.0010822609390296466
0.014070329896391159
7.3766463856973436e-12
-0.0010373183691582048
-0.0068468004131131289
-0.01013632190680467
0.00011559140787421811
-0.0085215611281516078
-8.0323132838575456e-06
-8.334749924726793e-05
0
0.00025432025254944527
0.00061572124540733633
-0.0093833319129903135
-0.0053566552735033095
-0.016768093503938129
-0.0133069335224289
-0.39070327354899581
-0.055480608607652034
1.7443375052197814e-05
5.0832623850766238e-06
0.0046384265373351288
-0.032963663853844444
0.0040701523578587006
-0.021110601265688991
-0.0003558131408467665
-0.00054891940973752519
0.0073900701659123493
-0.027920398329070936
-0.001367175026706582
0.006228591397876803
0.0055866313751357782
-0.00089336195881527258
0.00018418125473879866
-0.073194051633100082
0.077312001930711374
-0.0063643420155616651
-0.0046890867771557463
-0.0024548917463814834
0.00091752283852357668
7.1085483052771219e-05
0.0026392770816301044
-0.0058880192461294922
-0.0033803633201834539
-0.036401659183045762
0.024572497832961584
0.0006195377316345846
0.087877161113289026
-0.0013846471871627156
-0.013081175334233627
1.8568409624108992e-07
5.413157979943384e-05
-0.021822859942468732
0.00050397253136036445
0
0.050188964863307789
0.023400390940240084
0.046343615829161508
0.001555202156987563
0.025316579920532222
-0.070675496619438977
-0.0016046078757190145
0.0011882246883290757
0.00098026043439277885
0
0.041728403615805321
-0.051519469565950327
-0.031125494229443943
-0.00025010148781344575
-0.031858073605943865
3.4978522802300559e-05
0.053652251012041165
-0.065336431331636358
-0.031888251965387367
-0.0023870857561419487
-0.05028356085609538
-0.0026005097442879203
-0.014434550446017543
0
-0.0047943943886422473
2.946902151676902e-05
0.0011631889321016646
1.8783624447189919e-05
0.13272188771151838
0
0
-1.7169715269347697e-07
0
0.0012395279237668757
-0.012326174222565879
-0.016605692774455404
-0.00083940516284401875
-0.0052290784168653077
0
-0.22622513592112503
-0.00026160741693113097
-0.31816573624007854
-0.0076965024685577916
-0.00019822997524240042
0.0012538962772821885
0.036411865783586579
0.047560293697106924
-0.16980937508254476
-0.008365952057453236
2.7689327355700187e-11
1.1888631382226296e-05
-0.0029305880891716939
0
0
-0.0042557431403629567
0.0037435849121421417
0
0.0056632676479400727
0.0009605980791359001
-0.0019729003625858933
0.00024892315950195707
-0.00011567048267590547
0.024426233951412055
0.0081088907015101613
0.10395304438370746
0
0
-0.072740350899568512
-0.022322167158513088
0.0010934512502988936
0.0049879967575955485
-0.031243963690327232
0
2.0913502496519598e-06
-0.00021847380260474464
-0.12653493210936012
-0.036943774252546926
-0.02072145427375395
0.038558292193463052
1.4379737461848949e-08
0
0.029712027944053102
-0.033029495734881932
0.047816359214393062
0
2.1791887206078941e-09
0.0085385878775766609
0
0.0019638242222276125
0.23239301295276329
-9.594175631444468e-07
-0.0010418708440169766
0.0072809553840574651
0.00080151751569668118
0.010293154787029083
0
7.0151654733709214e-06
0.0013461032493404434
-0.0026994463626579634
0.00049369250559417894
-0.028884553440995962
1.424357698275336e-06
0
1.171520414430052e-07
-0.0026586197986514393
0.0058719762731813535
-0.057159311910444537
-0.018168377171088532
-0.00068938661204865194
-1.194447614603397e-07
0
0
-4.6755400247386406e-06
0.007413867973063086
-8.947441871523202e-05
0.00096005565001769898
-3.9253698054227931e-05
0.048672846581772927
0.013169258864135218
0.017307489494215653
0
-9.1416428292810702e-06
-5.4092931751003219e-05
0.017639508947479812
0.021322061322353928
0.13499753377227944
0.006199741397799512
-3.4303640023154131e-05
0.00059310876948806318
0.015306520551676108
0.0053076979244271183
-0.020903947485063468
0.0083422109006190976
9.3907950364515078e-05
0.0012328555324001061
0
0.060301548542790212
0
-0.15912348722271108
-4.5363141414072943e-12
0.024372849486953937
0
-0.087851048033584386
0.063219029026133494
0.051402772027776419
-3.710744325828541e-06
-0.00053622219612874122
-0.0071277280921551722
0
-0.18704673008325337
-0.017442026689292955
-0.0041069765298786271
2.598876439464505e-05
0
-0.00014550081960905121
-0.020464195671902791
-0.0098942227961603471
-0.047382789977015456
0.0032231432879824599
0.031419688591388932
0.00061726887302102399
-0.0068632616498706112
0.004231363264586876
0.0048342441530701916
0
0.011934054498830176
0
0
0.10507762694649304
-1.2555788213766662e-05
-0.0066067529640088159
0.048449904316313297
0.026035676701822285
0
-0.0012428343008901281
-5.7033415132278576e-08
-3.7240764152149851e-05
-0.0051281036944166121
-0.0037167924068504691
0.1074541087739031
0
-0.12308455654567718
0.0021211188027249746
0.0029753555558468961
0.012962506406801539
-0.025148714108285373
-0.0013025600369084558
7.3994944443879422e-05
0.00065289288169278461
0.010561744825972608
0.090661300639084563
0.017272386551675522
0.0036062291754542747
0.087077711478082201
0.0040326838605008516
0.070589256314031262
-0.00043100047333457419
0.052974856726704725
0.0012825695669230429
-6.3214538672538631e-05
0
0.038085306901997226
0.0022717644915305059
-0.00081187494984965116
0
-0.0077500680741598958
0
-0.00017113919957340411
-0.00090310011854064171
0.00014689867643257794
-0.0090718185508526505
-0.0015851245196058783
-0.012764144256692192
-0.10691107196426626
-0.0011952657233601945
-0.0011998221536282407
0.022169025198735766
0.0011137817508272564
-0.003132110051414999
-0.0017865763228197841
-0.13575874140224495
0.0039513600098814872
-0.023262610556969883
0.0090627853125907157
0
0.07978221148860315
0.0071198270883180911
0.054165541980148481
0.0018563036246071667
-0.00060356782337969684
0
2.3003850093465659e-05
0.090730674184055199
0
-0.0060539807115975435
-0.0049412516501235598
0.0066186012911060221
0.01999472030856897
0.12892080200868808
0.00058435839667161362
-0.012821602433211664
0.028368833511794329
0
0.021411449664627422
-0.010158706823769327
0.0088429481105666251
0.0033065633652139873
9.5532589420353487e-05
-0.0030666419187687019
-0.085616553968898515
-0.012451531026991806
3.4559842340759344e-05
-0.022062085187482924
