0.098981258242385087
0
-0.034185849090693519
-0.29323389359343599
0
1.5838393635211462e-07
0.099998046139691946
0
-0.057229105607028867
-0.071882208069060427
0
0
0.050863192570701737
0
-0.061576559606631734
0
0
0
0.089904714039142006
0
-0.029958808429585895
-0.011349393254281264
1.8188686796205339e-06
0
0.099682905411983824
0
-0.041306536655227918
-0.012769356215853381
0
0
0.099175700098680958
0
0
-0.004432315060681211
0
0
0.096545624833688462
0
0.004301543039530697
-0.047746094751892051
0
0
0.098268707574754754
0
0.011084570131749634
-0.015299007435246339
0
0
0.099290171866246127
0
0.0062811950094860377
-0.13782845765927895
0
0
0.10356535154043463
0
-0.0030606913833003961
0
0
0
0.088599164923912774
0
0
-0.027065072181667947
0
4.0831396634432678e-05
0.0010109598810229615
0
6.0334880786957097e-06
0.041807485379646979
-0.0012518426635491542
0
4.9658974992773479e-05
0
0
-0.0016192907262081648
-0.0002881142341022176
0
-0.0021020803608103869
0
0.0037829274597366369
0
-0.00033339338112408989
-8.2829665286588897e-05
-7.9576730630318544e-07
0
-0.0040266750981150711
0.0028954493487607386
0
0
-0.00087167534007423703
0
0
-0.0099542972548429479
0
0
-0.0006627993071476097
0
0
0
0
0
4.6477450629411262e-06
0
-6.5592741551301665e-05
-0.0098650937737440759
0
-0.00043163020742478998
5.1765278706906075e-05
0
0.0003047692211220646
-0.0019751037150956227
0
0
0.00017441606642196989
0
-2.2163853606491844e-05
3.0003117813062261e-05
0
0
-6.3050251688636414e-07
0
-7.4898261422799912e-05
0
0
-7.6087027833544877e-06
5.0450367440181293e-07
0
0
-0.0019766615288120027
0
0
8.0896005928126689e-06
0
0
0
0
0
1.7762881902219963e-05
0
0.0008327766764416512
0
0
0
-0.003061529285964842
0
0
-0.0066704619574335369
0
0
0
0
0.00010498586617337605
-0.0063039843078288253
0
0
2.046612917415137e-06
0
0
0
1.4386076943893854e-05
-3.1361129733903647e-05
5.7523134893122983e-05
0
0
-0.0037060215230038519
0.00044447460403348278
0
0.00031634136453170532
0
0.00091785741630148407
-7.1345290417072717e-05
0
0
1.3561202710801029e-05
0
0.00014772263861055634
0
0
-0.0002629319796909764
-0.024487392208957671
9.8102927442220519e-05
0.71283264951228864
0.34900272489409034
0.17505207266203629
0.0061501299011355844
-0.27459772654213443
0
0.21300900848144785
0.45420499937111836
0.0010528139580299098
0.010467390875798691
0.22737554270509533
-0.00013057798467981763
-0.07592900103365878
0.12674377577650189
0.11345449633057052
0.018755849301185339
0.3435752901811896
0
0.032014766774184286
-0.013308577025404217
0.14570897883146347
0
-0.12179973248211878
0
0.17363513831532512
0.11848329334333682
0.15480697756371639
-0.08682090893801496
0.13041307371354932
1.5749444676652947e-05
0.26824630446586406
0.15750311933467656
0.034370404923681215
0.071399650906954076
0.44741208755380785
0.00035427046116563016
-0.25285750785046723
-0.33039825123626188
0.14895459791108825
0.07861869658987751
0.55109385527899435
2.1759330651493969e-06
-0.23081181272244711
0.073410770863062802
0.039551241866299852
0.073399518267618979
0.62468795296144197
0
0.076637201829880472
-0.45151946326153569
0.083003844924962447
0.0035516218905240781
0.77590418914763359
0.0017009500590776951
-0.058099102673861314
-0.047367859798619981
0.015268204703730182
-0.012890580732607659
0.93131761549527803
0
0.57599779510098281
0.11148567004935658
0.094579412713778288
-0.033942467799312495
0.86569425646708154
0.00063398996423990922
-0.17918963786388237
0.083134125092066052
0.054744095852296254
0.0041920011003027486
0.99180181408129464
-0.00014728420383037223
-0.18219535116233104
-0.24948585136733048
-0.02295676574144398
0.10034915782643394
1.2980858460594165
0
-0.050596741308160241
-0.077219249177158472
0.052258196592662634
-0.075016588818273902
0.44249229629973685
-2.178819272333433e-05
0.078282530672844533
-0.030033540638601003
0
0.11956328894978772
0.40553043439505765
0
0.02293987274165004
0.33522036660981236
0.10000000000000001
0.066786384584652705
1.4263631368440381
0.0013852751046456236
-0.89585113088505253
-0.20887111632481412
0.09349156365536905
0.10396319100835465
0.58330579796524618
0
-0.0034141479411338637
-0.08195268451763249
0.06794752601660041
-0.18898109093093227
0.76952852451735565
0
-0.25175877311692529
-0.65884413443992196
0.10000000000000001
0.12385559941836184
0.47489771938067982
0.00078962301612084938
0.12189723784038846
0.3847563224270858
0
0.088469975351899155
1.2601771982989243
0
0.11649104784500278
0.82722893952385657
0.28312913605482654
-0.015045445028151224
0.8679082165994968
0
0.15111857300611936
-0.0090405577947786538
0.27017467608471774
-0.15696658254352377
0.96920246042439795
0
-0.32881038881105923
-0.47937587332540754
0.11029426398492979
-0.035150165754688045
0.74230621209974701
0.00037535326223955384
0.18820184922655303
0.017171451631922817
0
0.048669841757072341
0.8075801489946971
0
-0.057317308393286463
-0.10572271324706917
-0.056726993716024084
0.034673407017910808
1.0339259738463207
0
0.18198571422846668
0.54672273725787368
0.07805069794618516
-0.099912544083397933
0.57296895203839393
0
0.15140953267909943
-0.18682298085478349
0.096233088355634877
0
0.60242610789704132
0.0014275748533723917
0.47277511640832104
0.5369742336479052
-0.024036986063604882
0.14080687386670193
0.98887825168447663
0
0.2228753415064591
-0.04656052925177117
0.10450481371753431
-0.021184116344215433
0.084616087729938602
0
-0.067575397340641094
-0.20584832427536207
0.10000000000000001
0.09368331823523024
-0.12283601173402947
0
0.18867519821418668
0.42157749701684805
0
0.015897481539630012
0.035931989305861577
-6.258367251543785e-06
-0.1767650761527797
-0.21149265599181039
0.036470567813532591
0
0.40344605720441151
0
0.055928776248205289
-0.11090534102290027
0.0065839796582773565
0.0041855589297198053
0.0018699560776486244
0
0
-0.03434202505090507
0.027256292522278108
-0.00036166964099951753
-0.041625317395781701
3.4800693535564541e-05
-0.082382236500666936
-0.050209134854959508
0
0
-0.0080762737810476243
7.0260639578330233e-05
-0.03322390430027132
0.11500161312546439
0
-0.0035867108433779225
0.035639387665048997
-1.8939199357221679e-05
0.079448712811338126
-0.24052522354808192
0.047347270942654736
0.0011321883592639384
0.025480033998477931
0
0
0.21770791605364403
-0.044046923081883529
0
-0.075066349910990107
0
-0.28063301492355114
-0.40760501090607582
0
0
0.012623733402925354
1.922518874228205e-05
0.18960438469773983
0.15420654927213356
0
0
-0.077304811025457706
-0.0001541913238238725
-0.4354072948107624
-0.27931543795595626
0.01003845124877421
0
0.023704434300028217
0
0.085317207586435531
-0.013205534555665147
0
0.023306539553578649
0.35049714388569791
0
0.072387726176528541
-0.0025481099593176459
0
0
-0.012211403944097633
0
-0.25242922625638409
-0.0017704491381933247
0
-0.00082846408221304822
-0.49929058662854814
-3.0331749634804089e-05
-0.24649508250137739
-0.23457984950377281
0.054982207708975495
0
0.20956842120881458
0
-0.011569670188730768
0.032760473489086152
0.01417925470056115
0.035153780823596076
-0.10792018286136729
8.1057833002063398e-05
0.20996889754910797
0.1115836978925044
0.00087878917215824062
0.0010326029761249041
-0.18958154466669716
-2.129288462313223e-06
0.12168077576820251
0.068221646785521312
-0.0044039111504997619
0.0021519303331767208
-0.4876651651894649
0
-0.012471613799977447
0.039880245215152814
-0.0022452907815425503
0
0.063624743481887763
0
0.097396542209964229
0.12665848338070904
-0.00053433904431719444
0.0051965723187249535
0.053612984888288522
2.6927264598648583e-05
0.27331777912737176
-0.013310734498674913
0.035543899421063826
0
0.10282429334224491
0
-0.18099953570739635
-0.4611717652764451
0.033751311750670615
0.017604632625965295
-2.0872106743194131e-05
0
0.027078459887755653
0.1093222729717781
-0.012150876954242041
0.003089779901082992
-0.023389859582695981
0
0.19198019671579919
0.054293876116740476
0
-0.0086898629222454723
0.11587079135870891
0
0.12621160839959264
-0.098992670233474925
-0.0075587518948146788
-1.3290920148603053e-05
-0.016751357547825189
0
-0.15642449226774169
0.08385832061617654
-0.019584383918151493
0.0014318107944213815
-0.15163100624703479
0.00039602055566972076
0.24399847686514511
0.42700473586685761
0.018111595224048146
0
-2.3733138897408812e-09
0
-0.002123018169522557
0.0024592447612911306
0
-0.001736237839595732
-0.0002807346824376867
0
-0.0032775423574908937
-0.001258527564049196
0
0
-5.5104404373836634e-05
0
0
0
0
0.00066338861863703179
-1.2902704876589446e-05
0
-0.016849746644454926
-0.00048045965862387433
-0.00015852377986097036
0
-8.7951188768143083e-05
0
-0.00015856947774528152
-0.00034337797964918075
0
0
-1.2272863574086261e-05
0
0
-0.00051371174122248283
0
0
0.00010340169225142371
0
-0.0018023320803650848
-8.8720709615376609e-07
0
-0.00067419651996960639
-1.9082911209919003e-05
0
0
-0.0053567510407796469
0
0
3.3506399050495698e-08
0
-0.0044243914718434443
-0.00056546075871231893
0
0
5.1965969492244056e-09
0
-0.0023587976718442865
0
0
0
9.4590028295848936e-09
0
0
0
-0.00027632823819174416
7.7157894935824618e-05
3.868364292643086e-08
0
0
-0.00097912328474085756
3.3513550871005511e-05
0
-7.1651883658259906e-06
0
0
-2.958032110234942e-05
-8.5021700641453775e-06
0
7.3166372144183571e-08
0
-1.7228767900403731e-05
0
6.4948978966612217e-07
1.9122110107016817e-07
0
0
-0.004580359431995874
-5.0885940596026161e-06
0
0
7.1601312449928013e-10
0
0
-0.0006115758223278491
0
0
1.3499695005241156e-08
0
0
0
0
0
6.7373471867545011e-06
0
0
-0.0064306456019021154
7.2672797883429274e-05
-4.6722614077742495e-07
1.1266695203171932e-07
0
0.00056667580193976957
4.2472360648532898e-05
0
0
0
0
0
-0.0016656869934439419
0
0
0
0
0.00016850050125473176
0
0
-2.2777726933830383e-05
0
0
0
0.000337182366952682
0
0
5.8561203383273541e-06
0
0
0
0.00012140967024117047
0
2.4877777001992338e-08
0
0
0
0
0
1.8068084821700906e-05
0
0
0.00010108138930775536
0
0
0
0
0
0.00099424280437524545
0
0
0
0
0
0
3.3585280135077513e-05
3.657134558100945e-06
0
0
0
-8.3225069568834448e-05
-2.5550633214671335e-05
0
-3.3166949251831832e-07
0
-1.4102581427307008e-07
-8.9302700109514002e-06
0
0
1.3436444196804034e-06
0
3.7597658560249979e-05
0
0
3.2374924684282173e-05
5.693184297610382e-08
-0.00088623544949944925
0.13902617244699239
0.012631072185425928
0.016457353872775294
0.00074442240686490267
0.0002323746347397313
0
-0.016538415301795749
-0.15392832804639126
-0.0015816115146715308
0
6.0765979443531991e-09
0.0050645447758722994
-0.11494456897403689
-2.2455522004949959e-06
-0.018834465229094492
0.0034671822459592843
0.012187468902171171
0.0068005695861687978
0
0.1057108429896554
0.1179300576560503
0
-4.1294518568773875e-09
0
0
-0.0023171227371760398
-3.6460111062689823e-06
0.007333247448605109
-2.6820149922732983e-09
-1.0933657433469301e-05
0.057260248909443881
0.030023504022542762
-0.0012886271885333316
-0.00025130091314396581
-3.701512924653943e-12
0.00076397155232916061
0.0030036026880685476
0.008030258676914169
-0.00046811798119222604
0.01588781121090397
-1.1743200045485106e-05
-9.5606658573126042e-06
0
0.00086099597856306156
4.0309779202169852e-05
-0.081834097435039901
-0.00085777049751418989
-0.0071005535439236621
0.0032753852332828696
0
-0.045148734304470112
1.7527358452701918e-05
2.5723199706155737e-05
-0.0021877294265355402
-0.032963663853844444
3.469619990949073e-05
0.014911935935819343
-9.8937185509478484e-05
0.00018332858379171535
0.0010258003096508333
0.0063127396535829078
0.0026660498847551548
0.0086831074771759713
0.0001766176572618431
-0.00034008662648991178
0.00029343776012602529
0.073194051633100082
0.24677655997492626
0.0046597180972120658
0.0014537276966025995
-0.00041873937780331658
-0.00048980430610228646
-1.9790332002017058e-06
-0.00067932977904401246
0.00097747820629255481
0.0011570223773324664
0.0038113948228515743
0
0.00019164890039650534
0.04865774985610731
0.00029623429487197496
0.0060244930304808684
1.1741718099524238e-08
2.2913603463853587e-05
0.013615717826776374
-0.0075737978081482993
0
-0.0047461172088740684
0.044278050800189275
0
-0.00021456211799202729
-0.0073595281732176162
0.042214409695313974
9.375564495821429e-05
0.0014570477181051382
0.0016438693489601143
0
0.0058027681930921202
0.18449263762813753
0.049826728141978825
6.6497327638857855e-05
0.0029092835086528199
4.1783025064754831e-07
-0.013260535260718831
0.024410977410408551
-0.00029475452684014089
0.0012821804528820586
0.022999664249760295
0.0087881386978933673
-0.017675855925275815
0
-0.00069978638355662633
-3.6613710337287902e-05
0.00048028120176425254
5.4069464060617418e-06
0.044745410200611638
0
0
6.6033443531762955e-08
0.00097633073361924161
-0.00096041776647835613
-0.009088182534887964
-0.005712743160144548
0.00017839960271161248
-0.0016966066084628515
0
0
3.3913486217581597e-05
0.016314478469617939
-0.0026923020065327654
-4.5223285172523559e-05
-0.0047080101039823369
-0.050376787994812232
-0.31147749553499826
-0.036750084966851261
0.018756183915839594
1.9564975258999718e-11
4.3580320214697819e-06
-0.0020079474670581282
-0.29773201780898378
0
-9.2729195622863556e-05
0.0020461670107427559
0
0.00022476645745500909
0.00022457173289375172
-0.00027804379718212506
-3.2796780928987027e-06
-8.2240823156883841e-05
0
-0.0077792722888499538
0.089773469974734552
0
-0.03278509704966124
-0.062376621286331757
0
0.00071738425625327972
0.012580533853032793
-0.013660824727929805
0
-7.1776136807088253e-05
-7.474500958941668e-05
-0.11729794360781802
0.0029293927470171515
-0.0071097670802529964
0.0095793823698892989
7.2472010541296743e-09
0
-0.014512969310806784
-0.039964356147163552
0.0050385532309477326
0.048948516906537301
-2.1994112128151718e-10
-0.0022846429438862013
0
0.0017491375088367295
0
5.7507183390096049e-06
-0.00077600753207592303
-0.0029212001346255053
0.0011510605976444972
0.012718555350304701
0
1.5013503293118573e-06
-0.00041046704200878222
0.001171501718056495
0.0073000622320112023
0.019937434736243171
5.6539882055498911e-06
0
3.1941918890442647e-08
0.0029894255830301857
0.051993636598907163
0.10800511484193895
0.010330561291441461
0.00012803914038205964
-1.3158053987791483e-07
0
-0.098528741558638389
-1.0934076998363581e-05
-0.014523182523454352
-0.0003653597642466318
8.0570872851529901e-05
1.7944963731893638e-06
0.019631081374829849
-0.0066402537482597394
0
0
-2.29432850375741e-06
5.2138478219109718e-06
0.089485268255553724
0.072894398648816305
0.026262601699581258
-0.031836263944555764
-1.2180068484583747e-05
0.00035704067229272261
-0.016046422223856414
0.0053076979244271183
-0.0053756000946733043
0.0063012757494481948
6.5346367975286371e-05
-0.0020205158020617105
-0.015506272067722992
0.11316875912836567
0.11953384072200621
-0.10342574519466166
-7.0277403440684711e-12
0
0
0
0.0078262490661179275
0
-5.9860183375388526e-06
0.0001116241458932806
0
0
0
-0.0021400791484932897
0.0057656452474433078
4.7725134936921589e-05
0
-0.010382246169100164
-0.020055019745825579
0.0019553637235510367
0.047382789977015456
0.0051511654552449625
0.003725260849328756
2.1797410303793079e-05
-0.045623142178007732
0.003104803142275122
0.00059931402659889755
0
0.0051419065322499289
0
0
-0.013527956517419393
-5.7333671806241167e-06
0
-0.0029982790489374196
-0.0096434874465025078
0
-0.0025868108977876209
5.7699946249637507e-08
-1.6175393212404965e-05
-0.0058327114271066035
-0.014551455349877142
0
0
-0.058176267975755674
-0.002939049085773486
-0.012884612786223085
-0.019142363503401608
-0.0060074158538749849
-0.00013745308293319165
8.648408374673041e-05
0.00020892821727614279
-0.0021429082262894843
-0.027732555148585657
-0.095617484636422764
0.0011670522529207803
-0.082847677936266476
0.0014656822636414583
0.070589256314031262
-0.00075887885744079463
0.031011182451675327
0.00038940250551124751
3.5783288507227012e-05
0
-0.0097503375725173612
0.00042253460078329347
0.0006208899736928733
0.0016474297611935146
-0.023544742267469165
0
-1.9267957732641698e-05
0.00037927381194111749
-6.0093694938644765e-05
-0.0063261216867084901
-0.0004346850896483626
-0.0032058617544501152
0.020849790104060233
4.3112055297947384e-05
-0.00071892621497372344
0
0.00033796219781781495
0.0022666818141254081
-0.0036499907460671652
-0.036894295313564904
0.0010677901114959445
-0.0010534963256137531
0.0029114561550190356
0
0.03246114276598238
0.0012352033825001854
-0.015529035574979368
0.00095421957177003471
-0.00040237688040844729
0
-1.9354393683259723e-05
0.12135715242759176
0
-0.0019719797853949539
0.0026606184308920369
0.0048818352170027493
-0.011956929927554968
-0.12892080200868808
-0.0067590886269891601
-0.015606612603511703
-0.0035158293080259197
0
-0.053945316249878181
-0.0058573668057659584
0.030486278024170109
0.0013153969306683526
4.0597035140795592e-05
-0.0011542310315920971
-0.070712016369485153
-0.0046275879811070062
1.2298741589436825e-05
0.020860274861380514
-1.3798762041940526e-09
0
-0.002123018169522557
-0.0061168123915649776
0
0
0.00039216437362533382
0
-0.0032775423574908937
-0.0015950970588892392
0
0
-8.7543902439500689e-05
0
0
0
0
-0.00066338861863703179
1.9252546982726953e-05
0
-0.031110206940641202
-0.0067780146445200317
-0.00011428985620371587
0
7.6101549520356934e-05
0
-9.7973150309181367e-05
4.9486263360938696e-05
0
0
0.00010383035312300882
0
0
0.00011278158383890564
0
0
2.5375127603091166e-05
0
-0.0008253985625309749
-3.9317224101764517e-07
0
0.00039942046437320384
1.67792973080495e-05
0
-0.026279112582074243
-0.0021427484009484718
0
0
-3.3506399050495698e-08
0
-0.00068760318160758743
-0.00023441357802672424
0
0
4.9443163598003001e-08
0
0.0032780023939621679
0
0
0
9.4943628664785904e-09
0
0
0
-7.7927607459722092e-05
-8.855759822602514e-05
2.650958349949025e-08
0
0
0.00035984433647400199
3.0354407902469645e-05
0
1.4401580306644192e-05
0
-0.0049868378094331646
-2.7397668025443714e-05
0.00010300623187238069
0
7.2438067764138791e-08
0
0.00015544871593267394
0
4.4088300131954736e-07
2.8426512316330772e-07
0
0
0.003733981921206444
-2.8758539063710857e-06
0
4.4796594219165473e-05
7.4676792756436584e-10
0
0
-4.1748939920948701e-06
0
0
1.2033430473530517e-08
0
0
0
0
0
8.5123274342453304e-06
0
0
0
0
-2.2430199662911504e-07
9.3339417747802101e-08
0
0.00064164461306805013
-0.00041433151268192208
0
0
3.3757850947191341e-05
0
0
-0.0016656869934439419
0
0
0
0
0.0020683174904399197
0
0
-0.00052401333791697341
0.00025616990893730757
0
0
0.00033667794495772878
0
0
2.3780416891619153e-06
0
0
0
0
0
2.2023124792162336e-08
0
0.0012379442683103407
0
0
0
4.4154314451416828e-05
0
0
0.00010108138930775536
0
0
0
0
0
0
0
0
0
0
0
0
4.0332172573110092e-05
2.4273497295523819e-06
0
0
0
-8.3225069568834448e-05
2.5550633214671335e-05
0
1.1237006324160162e-05
0
-1.667568811029765e-07
-3.1199246151945453e-06
0
0
1.2703431346910102e-06
0
0.00046475523090693817
0
0
5.887735745436156e-05
6.1885893544399879e-08
0.00052018871380288723
-0.03529158254339991
0.0096996695002655002
-0.021424685257362359
-0.0011444267905257835
-0.00038041907598775033
0
0.016538415301795749
0.14682566581799972
0.00058162730369286635
0
7.3408384941709302e-09
0.011209664528388787
0.14454486731352575
1.0432261914800384e-06
-0.051103117025970063
0.0049252631597236874
-0.017481835180476461
0.0060651356529523165
0
-0.078771484438097283
0.029941219191547103
0.1309686557439298
-1.017470201959617e-08
0
0
0.0051143536751954129
-5.4491548666036057e-06
0.007333247448605109
3.6297743983267316e-09
3.5555117853215723e-08
0.084320062047666705
0.027533404869333106
-0.00057016468048389445
-0.00025130091314396581
3.701512924653943e-12
0.00067746943396952133
0.001307018928504269
0.0050391133686737864
0.00046811798119222604
-0.013075242897650165
-2.5521707330753139e-06
-3.4091783850056338e-05
0
-0.0001641346355974433
0.00021090898588037362
0.045113621495829849
0.0029976351182187519
0.0055051294858575591
0.0022611371660097371
0
0.035100632321574239
2.9363312308966594e-05
2.5723199706155737e-05
0.0029678892229646164
0.062239888148484947
0.00070590841160981621
0.021544498555156773
5.9343902173350116e-05
0.00052902370291787082
0.00024078700980255125
-0.015460993892472522
-0.0032340481613368729
0.0086831074771759713
0.0027549680086703466
0.0013207916139915351
0.00029343776012602529
-0.022655303838115422
0.0085968234472610164
0.0046597180972120658
0.0016069860470458177
0.00032702679767357076
0.00064832545214060355
1.5268254463287965e-05
0.0009301511090291292
0.001643694308465576
0.00054666232518117621
-0.015738125463037624
0
-0.00023577378525614526
-0.034196659045731527
-0.00051276103814638908
0.0026505777949291653
5.4182831663599703e-08
1.3353745939329771e-05
-0.012025678915014555
0.0077057012642923793
0.12271626615505596
0.00054788194639918825
-0.0076862692615034187
0
0.00029598995296825452
0.0075277251726593684
-0.028461086924124999
-0.0012336563386935366
-0.0014570477181051382
-0.0024661196753722947
-0.64117756395581138
-0.041794308601915693
-0.051519469565950327
-0.067692358803297631
2.1482907076526733e-06
0.068899382811065266
-1.1208890046420861e-05
0.0035022002325118171
-0.022171795504731293
-0.011656673527264943
0.00053316018123885376
-0.027139151627895666
0.0087881386978933673
-0.077641237298270716
0
-0.0011485266991064149
0.00010393041724487995
0.00028023421623332175
9.5931142499516619e-06
0.067050141563625529
0.28181048301630574
0
1.9859034228743187e-08
0.00097633073361924161
0.00037994602055144708
0.0059926576530088278
0.0012624385810065726
0.00017839960271161248
0.002942834029976759
0
0.4277159247408106
-1.8777047765908463e-05
0.25053340038146477
0.0027116400051747248
1.1395444536084177e-05
0.0030958119858271443
0.020366553205821106
0.020028642940433015
0.0072510037384378723
0.023390331947821134
2.2022502966624929e-11
-4.322743626980548e-06
0.00025457211352674692
0
0
0.00068228069035864152
0.0016978383481582068
0.010853239379086332
-8.7908913380589762e-05
-0.00035761833261714333
0.00012782071760041407
-0.00011502956205251987
0.00011429197322202324
0
-0.0077792722888499538
-0.038734895917286717
0.38810416180854179
0.007345470461330196
0.019225835385791784
-0.0092595416057280472
-0.00092119101234746823
-0.012890325482466497
-0.0041392401062716249
0
-4.0132483345749243e-05
7.474500958941668e-05
-0.043322777271501162
-0.0033940656555547012
0.0045053195690390353
0.018275140694102989
-5.476446850733341e-09
0
-0.011661917864046877
-0.21452829473903259
0.010442810916269953
0.027764400562321868
-1.2719120547134253e-09
-0.0026182007342652231
-0.15216558615495102
0.0012583760687575453
0.055819818411422535
-4.1022670857145574e-06
0.00032665886658451477
0.0065894088960862214
0.0011510605976444972
0.013115378481770443
0.40332500970052115
3.3428573252631925e-06
-0.0014113620873964438
-0.001171501718056495
-0.0086907142114409051
0.027475196531076145
7.8819211327906111e-06
0
-2.7042434894214279e-07
-0.0039711790638713856
0.075266184006164319
0.13006555676258669
-0.019326761496607611
0.00012147966992492269
1.4037712831165111e-07
0
0.098528741558638389
-2.8647376350508903e-06
0.015874018058476692
1.222870536795486e-05
0.00017363567851282004
-1.829633243568145e-05
-0.03825565706046577
-0.0051348169956137689
0.076115085659878234
0
-3.4179728784545749e-06
-1.9253141167165411e-05
0.025115376467817793
0.014943832413273826
-0.31300875216123109
0.031836263944555764
5.1556766339999656e-05
0.00026099461433684584
0.014298185346322392
0.25175512019387064
-0.036201179462423599
0.0032325320867008988
2.3288735189077902e-05
-0.0011296582712540138
0.16796594403290144
-0.060142995049045238
0.19024570212311248
-0.055697742028049432
6.4310033875080766e-12
-0.00079563294064801087
-0.15693933968677792
0
-0.066947946389486562
0
6.3557434329417109e-06
0.00021082108804528255
-0.037264773515053043
0
0
-0.011081566582045137
-0.0039782750748875544
-1.6125884551290269e-05
0
-0.015244683672884637
-0.02691471955662424
0.026733603302162217
-0.047382789977015456
0.00034117422617987048
0.0062957738368248032
-0.001617073719469663
-0.18705909905032578
0.0010034692798417746
0.0019877872877999332
0
-0.0021845674907750101
-0.49087263949751914
0
-0.0055809496964124312
-1.4918292561836765e-05
-0.0066067529640088159
-0.040800821675476009
0.00084484788347577802
0
0.0023270381549523544
-5.7699946249637507e-08
-5.1571311371234634e-06
-0.00045908870509853118
-0.0044159501007678291
0.092314166291871946
0
0.058176267975755674
0.001803096974960742
0.012884612786223085
0.019142363503401608
-0.0049057788677975885
-0.00044094564108224674
6.2545881100659463e-06
0.00020892821727614279
0.0051936999327558356
0.081182671657465788
0.095617484636422764
0.001653094780354939
-0.025258871087239246
0.0014656822636414583
0.038768722747224552
0.0014874865055650845
0.033402122787975795
0.0009387924015928778
3.7244195915376964e-05
0
-0.0036927120185590023
-9.4927336092379683e-05
0.00016353729920837466
-0.0027806967932189914
0.017317332351685831
0
-5.9203531331078252e-05
-0.00037927381194111749
8.5620869491376885e-05
0.0018674267567865182
-0.0010065936585102601
0.0081764312695010669
-0.035534492683735069
0.00030147163595459724
-0.00014554911996767178
0.015637243594809301
0.00028534147906100928
-0.0016928300915330322
-0.0047145045894667059
-0.039855278072893581
-0.00043846318103812058
-0.027237016628674757
0.004193713159828515
0
0.03246114276598238
0.0012352033825001854
-0.01258401326613497
-0.0013679789659354698
-0.00031733712931459874
0.036304175150090524
-1.5056740984570869e-05
0.090730674184055199
0
0.0022443804973695095
-0.0040424592961850903
-0.010641698661813033
-0.0080680704163231809
0
-0.0047261686808119374
-0.0025902679895463288
-0.015725274533800234
0
0.0080807107664661194
0.0006621215930340805
0.040292622682519708
0.0013153969306683526
2.8601482728116411e-05
0.0011542310315920971
0.017844078273892283
0.003051289977989001
3.8990013139096713e-06
-0.050530574972226461
-7.7740434912318014e-10
0
-0.00072197346172216267
-0.011267029085196801
0
0
0
0
-0.001871974907350896
-0.0011799803553907743
0
0
5.6784736315068532e-05
0
0
0
0
0
-5.3116093087078218e-06
0
0
-0.0092897478720063292
5.602056759176628e-05
0
0
0
-0.00014436563349856199
0.0001139007358485315
0
0
0
0
0
-0.00021312210849998924
0
0
0
0
-0.0011339935159191885
-8.5775956086200893e-07
0
0
3.8666224504657803e-06
0
0
-0.0010692697003069848
0
0
-3.388763779612219e-08
0
-0.0038672230838643759
0.00023441357802672424
0
0
-6.6691608150023478e-08
0
-0.00085840831899891535
0
0
0
-1.092489646432154e-08
0
0
0
0
-3.5529862760018922e-05
-5.5451311747577026e-08
0
0
-0.0014319008091700283
3.0430830472647548e-05
0
-3.1589526524238476e-06
0
0
-2.4424576544445732e-05
5.6249991231364865e-06
0
4.0196620957178336e-09
0
-1.7228767900403731e-05
0
1.2349636161565454e-06
5.3450132940668718e-07
0
0
0
-6.6416536321989035e-07
0
0
2.3847669886234833e-10
0
0
-0.00029880438854177011
0
0
-1.3499695005241156e-08
0
0
0
0
0
-2.6786732664462755e-06
0
0
-0.0021205868920070908
0
2.5167894884999029e-06
-2.7624626302685057e-08
0
0.0002878137195186358
0.00052169663850656532
0
0
0
0
0
0
0
0
0
0
0.00041137209981912342
0
0
0
0
0
0
-0.00055952709503826869
0
0
-8.3708961317316033e-07
0
0
0
0
0
8.6368876153191389e-09
0
0
0
0
0
0
0
0
-0.00049456289565478952
0
0
0
0
0
-0.0015556793197524588
0
0
0
0
0
0
0
1.3172388330347877e-06
0
0
0
-0.00016781475637894284
0
0
-3.6361425964935565e-06
0
-9.9796542985343109e-07
-4.2669336877012735e-06
0
0
5.2106453439051498e-07
0
-0.00032063410813468413
0
0
4.2254999865103418e-05
-6.8748609110903083e-08
0
0
0.0028308220091556487
-0.0091657911386536176
-0.0040384117288690506
1.4134655914315557e-05
0
-0.0063124263099640626
-0.060119203512869063
0.00093492253381694933
0
1.7693837273628204e-08
0
0.018282970669258589
1.6478660601200223e-06
0
0.0049252631597236874
0
0
0
0.1302880764310497
0
0
2.8749571257053635e-09
0
0
0.0021913743849645974
6.0276514516253984e-06
0.0015731151649272471
3.6297743983267316e-09
-5.9656889037883247e-07
0.031346989735659858
0.015798963330742561
0.00088478157562227539
-0.0055112601184839904
4.3592462012093874e-14
0
-0.00017740642626925727
-0.0053781179063073893
0.00013456965826580443
0.0086387043662836706
-1.5292892471334037e-05
-1.098938783106693e-05
0
-0.00066995607654077305
4.0309779202169852e-05
0
-0.0029976351182187519
0
0.00015846680497181307
0
0.0003527192241810196
-1.4986906973215215e-05
-7.2485758968709406e-06
0
0.032963663853844444
-0.00086625246095306356
-0.0042897955503250337
-0.00013677453105184474
0.00049482272813924119
0
0.0066389240113987049
-0.0050151811615771697
0.0086831074771759713
0.0027870499112885661
0.0013207916139915351
0
-0.0084125221941844033
-0.098897390354953249
0.0046597180972120658
0.0011483142602258249
0.0010194708201900987
1.2421261846423833e-06
1.12927331006509e-05
0.00023348346627925605
0.0021027944762265515
0.0013382560372794769
-0.0015693673763048188
0
-0.00028775848662371056
-0.046664166595881795
-0.00029623429487197496
0.0060244930304808684
-8.1316328536530505e-08
-1.2483410676950148e-05
-0.026344110549405345
0.0077057012642923793
0
0
-0.0014440913807307405
0
0.00051927244126005181
0.015679058498121019
0
-0.00061742926884577199
0.001164900780047952
0
0
0.013537463318776971
0
0
-1.6212816454292364e-05
0
-6.4184959209733934e-06
0.015599868186426525
0.017555609619527283
0.0061202171852867754
-0.00054752379096160097
0
-0.010502749591521232
0.078409766985417462
0
-0.0006052138679040975
-0.00010393041724487995
6.7167591262041771e-05
9.5931142499516619e-06
0.032967294410523193
0
0
-4.8844060359504926e-08
0
-0.00029758399832598408
-0.0032191026528753264
-0.00025629121349030195
0.00017839960271161248
-6.9407216670496169e-06
0
0
-0.00015047288520492444
0
-0.0025358031527657927
-3.2102696287006471e-05
0
-0.026529934754193019
-0.020990543080266801
0
0
1.9920824994564934e-11
4.3430503295080839e-06
0.00095310556598467058
0
0
0.0022098271887146951
0.0019282941597862343
0
0.0021052363130083522
0.0011084302762013295
0.00094013812031095508
0.00011502956205251987
1.1313616248752604e-05
0
0.0077792722888499538
0.014179574408972906
0
0
0
0
-0.00068860895422320561
-0.012580533853032793
0.00067878123112341537
0
-7.1776136807088253e-05
7.474500958941668e-05
0
0.0047234811406172928
-0.0071097670802529964
0.0026613843804798591
3.1827291379963739e-09
0
-0.0080690955632654292
-0.045876115408605603
0.0015750487281650212
0
-9.7318737175107151e-11
0
0
0.0017501857167502648
0
-1.1337964216421756e-07
0.00077600753207592303
0
0.0011510605976444972
0.01292462080091419
0
3.3428573252631925e-06
-0.0014113620873964438
0
0.025342541925998295
0.035340108309883558
-3.8044052611289094e-06
0
1.0195198177232125e-07
0
0.017607428545688312
0.0063600252329667111
-0.005804180007147385
0.00056273224218215555
1.0834251576850068e-07
0
0
-1.1346722947793589e-05
-0.00066391567614175462
-0.00034151775676063214
-4.8120487576863582e-05
-5.6262476996864464e-06
-0.036787911877730284
-0.0051156333328205815
0
0
-3.5366892581259993e-07
-5.3583595680873317e-06
0
-0.01798344935066792
0
0
1.5887174326990992e-05
2.216493359341161e-05
0.017426941195672806
0
-0.0040257593507306887
-0.0011321883592639384
-1.0162122725789414e-05
0
0
0.067418779512515015
0
0
-5.4426576478685692e-12
0
0
0
0
0
3.2644617364807885e-06
0
0
0
0
0
-0.0030108119692454443
-4.3618529473731318e-06
0
-0.0033536420972493527
0.00052013641240623886
0.001445087635622837
0
0
0.0049996248895061626
-0.00070744385770646204
0
-0.0019698154614486798
-0.0012935506571994152
0
0.0050211868567963799
0
0
0
-2.1083038029560798e-07
0
-0.034721152633394772
-0.0054696340690512605
0
0.001630649245602291
3.9112846392142318e-08
-1.5199698122880018e-06
0.0051498006794184472
-0.00013838958088302359
0
0
0
0
0.0082830692936479624
-0.019142363503401608
-0.0019514158926129434
-0.00032726639225006164
-3.8627518853324096e-05
-2.1907220681687529e-05
-0.00077961843997622076
-0.049718298912216331
-0.0018131246893639719
-0.0023260857827516225
0
4.248839178678512e-05
0.038768722747224552
0.0017976084025645479
0.018353130482414895
0.00040415553228907112
3.7244195915376964e-05
0
-0.027759926193740334
-0.00036693801878165042
-6.3131189954109099e-05
0
0
0
-3.6985564399314122e-05
0.00019080217235062822
-8.5620869491376885e-05
6.4032552227746807e-05
7.9485633391340369e-05
0
0.015224400845886426
0.00037612322939414129
0.00085149427467900377
0
0.00022165940119577536
0
-0.0032254190792408832
-0.081843304287918875
-0.0010216634697381933
0.0082310292819217333
0.001665815744638555
0
-0.03246114276598238
0.0013720166691665505
0
-2.2878393311089216e-05
7.4694008937932791e-06
0
1.8819689163047204e-05
0.046229270120945756
0
0.00025408867778751152
-0.0031057004622332281
0
-0.0036075635117764756
-0.12892080200868808
-0.0022994434461584019
-0.0023584417595671706
-0.0024791099940780427
0
0.041771494220332432
0.0031105538913064113
-0.0082233154235524485
0.00056785648267541542
4.0597035140795592e-05
0
-0.038800019595378266
0.00017832126148729533
1.2298741589436825e-05
0.011031042593741462
1.1002066997457204e-10
0
0.002123018169522557
0.0038762119256749456
0
0
-0.00023311509546944503
0
0.0032775423574908937
-2.5427438114050639e-06
0
0
7.0324844548611736e-05
0
0
0
0
-0.00066338861863703179
-1.6313739965844503e-05
0
0.031110206940641202
0.006087893034208364
-0.00011428985620371587
0
-7.7583496246352407e-05
0
0.00015856947774528152
-0.00024588911300528238
0
0.0017732192384204328
-0.0001125921541298052
0
0.025699199369276476
-0.00090087961623869304
0
0
3.0739080949571012e-05
-3.9536340796660375e-06
0.0008253985625309749
5.187160969563767e-07
-0.00091569306976483646
-1.2484949690668746e-05
3.0768075781223227e-06
0
0
-0.0010141317161218449
0
0
-1.8908246334973035e-08
-6.0630715930260812e-06
0.00056780373247041546
-0.00012627348593917902
0
0
-5.1965969492244056e-09
0
0.00080862427364372679
0
0
0
4.8387707499914412e-09
0
0
0.002230499775207995
0
-4.0831396634432678e-05
5.810253146818962e-09
0
0
-3.2373429653412983e-05
3.2316763612973547e-05
0
7.1651883658259906e-06
0
0
-4.6395621611067599e-06
0.00022726311386998683
0
4.0196620957178336e-09
0
7.7838755653613165e-05
0
7.0080392864602672e-07
1.7765336011215353e-08
0
0
0.00084637751078943
1.1241479299035606e-07
0
0.00035760142477282285
2.3847669886234833e-10
0
0.0060388943083776962
1.891032403663514e-08
0
0
1.0485151360146474e-09
0
0
0
-0.00015710090972206197
0
2.9099273770007915e-06
0
-0.0033935031708637068
0.0099251707183535889
-7.2672797883429274e-05
-2.0713149691551726e-06
-4.5387878266000261e-09
0
0.0005345013076437778
-0.00077270542258660682
0
0
-0.0001958830064294096
0
0.002659555733933052
0
0
0
0
2.6089763852802994e-06
-0.00065424369838351507
0
0
-0.00063095790469735026
-0.00017534653742931982
0
0
-0.00065963643732488216
0
0
3.0870757490441656e-06
0
0
0
0.00014757861002262466
0
2.2023124792162336e-08
0
0
0
0
0
4.2332953013063187e-05
0
0
0.00014846620616100533
0
0
0
0
0.00063299462106461857
-0.00050891140383769898
0
0
0
0
0
0
0.00014762233866624254
-2.5872530996208065e-06
0.00015900338904190409
0
0
1.5563802473177386e-05
0.00012013464879379669
0
0.00010617485978404476
0
1.6576055012435772e-06
-1.2622957966602581e-06
0
0
-1.7590674360809531e-07
0
0.00060887635367919222
0
0
5.7557499135763867e-05
1.0000978763280696e-08
0.0010824413043838904
0.18036257108316098
0.0097201031196238342
-0.016457353872775294
-0.003619962457482168
-0.00045061461356514699
0
-0.016538415301795749
-0.23302479154472616
-0.0017639199299738558
0
1.7693837273628204e-08
-0.013845441568215933
-0.15425763876829351
2.4313890486748195e-07
0.018834465229094492
0.00058978794661143554
0.011901838482703174
-0.0052705398499861946
0
-0.0014866155455552539
0.020048539749339817
0
-2.3325934009371398e-09
0
0
0.0051143536751954129
-9.2891742101292007e-06
-0.013771833423860565
2.6820149922732983e-09
1.1130537504601305e-05
0.005217720320606134
0.029213701125401569
0.0023017783009703472
0.0074846447452617572
4.2524444852559254e-12
0.00059145612755968826
-0.0050255963570445617
-0.0050391133686737864
-0.00013456965826580443
0.030352651630217505
8.3887388904821397e-06
-2.415239444916848e-05
0
0.0014666420978588154
0.00042717975901310998
0.068762502013567595
0.00029278051132834829
0.0055051294858575591
-0.0063753518429587822
0
-0.035100632321574239
-7.3325243289741961e-06
2.1847164787378185e-06
0.00019348008607079459
0.095203552002329384
0.0011837190709516139
0.0090176125337276241
0.00010538646370696529
-0.000964709907060409
0.0047690872598720397
-0.015806606143107318
0.0032340481613368729
0.0084335481923072178
-0.0012405855598250368
-4.8777934253292916e-05
0.00029343776012602529
0.01651889900161101
0.24677655997492626
-0.0046597180972120658
0.00086073297918322497
-5.2000491143144997e-05
0.00064832545214060355
3.7139303588170273e-05
0.0009301511090291292
0.0018732443923460637
0.00054666232518117621
-0.01066330620500126
0
-0.00019164890039650534
-0.056778765460667506
-0.00049275880504821238
-0.0023838814231741993
-5.4182831663599703e-08
-1.9282412330159341e-05
-0.0077056572076309535
-0.0070677343780293353
0.070328349797372083
-0.088219778870084864
0.013792344972293234
0
0.00029598995296825452
0.013180959391663796
-0.070675496619438977
-1.2021989980073557e-06
-0.00015183291435834947
0.00071992835692349651
0
0.013537463318776971
0.13228824386002286
0
-0.00010868946848101939
0
-1.626174194754873e-05
-0.023496418346876873
-0.014542420207155524
-0.0061202171852867754
0.0009220339267832034
0
-0.029793637880935833
-0.11357540081579809
0
0.0010539541834538859
3.2311075872910476e-05
-0.00048028120176425254
6.837406515564035e-06
0.067050141563625529
0
0
6.3403790730948785e-08
0
-0.00096041776647835613
-0.0073034845312985805
0.0072410169433662543
0.00042227414137255791
0.0014087647036837045
0
0
9.7782351221434375e-05
0.011613891659181634
0.0023432225615080014
8.7603824670761375e-05
0.0057614870368160407
0.0057498628435451588
-0.019374198751296499
0.083172853740385549
0.020081173116403582
2.4858669934924128e-11
-4.3500410756149644e-06
0.00016252674739389891
0
0
0.0031132394271621714
0.0020461670107427559
0
0.0021052363130083522
0.0011084302762013295
0.00056731388975677114
1.5851309411799683e-05
1.1313616248752604e-05
0
0.0064127467159210876
0.11853601023929011
-0.1249863455824686
0
0.062376621286331757
0
-0.00015552996238385686
0.0028397439187145615
0.0081526124548701694
0
7.1776136807088253e-05
7.474500958941668e-05
0.12653493210936012
-0.001852234292079705
0.0071097670802529964
0.018275140694102989
-5.476446850733341e-09
0
-0.018105791611588228
-0.23048234565752349
-0.0096344738190675284
0.088810898924247789
-1.4321511156699983e-09
0.00033355779037902168
0
0.0012583760687575453
0
6.9182613689414025e-06
0.00061560509103322802
-0.00069154648797124384
-0.00091924258362227726
0.012109249229589638
0.13595502843746998
1.9860486648341628e-06
-0.00041046704200878222
-0.00040147065691818989
-0.0061822291064042448
0.035340108309883558
-4.9275129089136212e-06
-0.055136362263580603
-5.7997904553841132e-08
-0.0024779417123316403
-0.040569080139672836
-0.033571063846455147
0.011431105154971961
-0.0010608343816109168
1.2583007696436799e-07
0
0
1.1119057798342782e-05
-0.011510581276010075
-0.00015859815628863389
4.4944318084426544e-05
1.829633243568145e-05
0.03825565706046577
0.0081139213306472384
0
0
-2.7265038931133386e-06
5.2138478219109718e-06
-0.050797112020823057
0.0082666084699018153
0.22131802775747264
-0.00021278630200199065
-1.5887174326990992e-05
0.0010512789092511411
0.028031475752368987
0.0053076979244271183
-0.02702479600520425
-0.008277585260079677
2.5301293051094812e-06
0.00084811058986241478
-0.078741504666726261
-0.0072757844634697769
0
0
-7.0277403440684711e-12
0
-0.06157830498218729
0
0.078871527158369342
0
3.3678740007278314e-06
0.00043206346203478738
0.067401818937950914
0
0
-0.0087309762343518189
0.00052095963980622643
6.8016035487449873e-05
0
0.0023959198338235096
0.027802140507423346
-0.001445087635622837
-0.054076941236788974
0.00098591700099196736
-0.017591172563155767
0.00028593240490253893
-0.098109546005886075
0.0020349825972113007
-0.00059931402659889755
0
-0.0021845674907750101
0
0
-0.0053401024554750182
1.1819284546619385e-05
0
-0.022619220407425974
0.0041387514398363717
0
0.0035025578748156907
-3.940329288853641e-08
-1.6175393212404965e-05
0.0046429091246292442
0.0065111307537604555
0
0
0
-0.002783252526755829
0.002504456410792335
0.011648697735822153
-0.014547346231843079
-0.00032927788922195811
8.648408374673041e-05
-0.00039040630377519645
-0.0071258543874947724
0.081182671657465788
-0.059583458703796291
0.0032814253968678712
0
-0.0014656822636414583
-0.070589256314031262
-0.0017976084025645479
-0.0033041381768539931
-0.0002004991764413419
1.5055420656413227e-05
0
-0.0066827374812002266
-0.0010122163036243444
0.00081844379573509996
-0.0065165487048212817
0.0069120578804717824
0
6.4281456055965836e-05
0.00016329210025417759
8.3110545756994754e-05
-0.0057094595303561983
-5.6707045854356036e-05
-0.0020982334026349867
0.036168679325496118
4.3112055297947384e-05
-0.00019291372649786134
0.068120872621518308
-0.00015797732333054136
0.0013320061396672608
0.0016629938933517838
0.028438209936827379
6.2253007000333813e-05
0.018778770202367501
0.002839360443456701
0
0.057555082035976535
-0.0023583963793259331
0.07865189747531931
-0.0013679789659354698
-0.00016670380602258676
0
-1.4765149555159333e-05
-0.0017278660578363067
0
-0.002011621982060164
0.0026606184308920369
-0.0032840178493194023
-0.0093775397526311907
0
0.0058057473842219954
0.015606612603511703
0.0051149547888534952
0
0.046762192501400283
0.004113638996730163
0.020757398707571789
0.0001022341113542413
3.338932459627147e-06
0.00060892529136987675
-0.069062115074860292
-0.0028105340791034598
-7.4419175037740114e-06
-0.031891317455121977
7.3831233237297732e-10
0
-0.0019985269257993227
-0.0043543388042907392
0
0
0
0
-0.003163575567632723
-0.0025800072319090901
0
0
-0.00012710958086368027
0
0
0
0
0
-9.9638978597069993e-06
0
-0.0078931139301158301
-0.00055182651763984771
5.602056759176628e-05
0
1.1363101441564634e-05
0
-0.00018275052118380949
-1.6603981230240388e-05
0
0
-3.3095337784126232e-05
0
0
2.3966920785352845e-05
0
0
1.3281402645117108e-05
0
-0.00064276423561116164
-5.4816363224813385e-07
0
0
-1.1915436395818335e-05
0
0
-0.0034475899340928183
0
0
-1.9188730406230444e-08
0
-0.0021176437355083207
-0.00016552359034279737
0
0
4.0498496064865918e-08
0
-0.0024085817171994755
0
0
0
9.4590028295848936e-09
0
0
0
0
-4.0831396634432678e-05
3.868364292643086e-08
0
0
-0.00073786273809708057
3.2316763612973547e-05
0
4.0774392883943535e-06
0
0
1.6664706801087783e-06
-5.6249991231364865e-06
0
-3.2720772419373118e-10
0
0.00014780930785405873
0
3.0376362122752773e-07
-7.1603954664663839e-07
0
0
0
-1.3362214105345044e-06
0
0
8.6813719350543691e-10
0
0
-0.00066046577763456519
0
0
5.8496472423439623e-09
0
0
0
0
0
6.1382722593269009e-06
0
0
0.0021205868920070908
0
-1.3680524608868786e-06
1.1266695203171932e-07
0
-0.00024668758812514206
-0.0002617526920276507
0
0
0
0
0
0
0
0
0
0
0.00051450964519406757
0
0
0
0
0
0
-0.00033319533224216531
0
0
6.7580553197879795e-06
0
0
0
0
0
2.0030997313038276e-08
0
0.0015174122762438883
0
0
0
1.8068084821700906e-05
0
0
-1.5942683938130351e-05
0
0
0
0
-0.0021407237508207911
0.00056143651537721335
0
0
0
0
0
0
0
-2.5872530996208065e-06
0
0
0
0.00010625700659099016
0
0
9.5269522952402911e-05
0
1.6833365680734838e-06
6.5605020321361435e-06
0
0
3.7463930015024758e-07
0
0.0020075639743368707
0
0
-1.3694472969109024e-05
-6.8748609110903083e-08
0
0
0.005368838727460223
-0.016457353872775294
-0.0029303827083063151
2.9508103446506667e-05
0
0.012287318487886618
0.060119203512869063
-0.0018526546397162964
0
1.0732059474648377e-08
0
0
2.2455522004949959e-06
0
0.0049252631597236874
-0.017552566999010207
0
0
-0.061379231306584854
0
0
-2.4305215595218697e-09
0
0
-0.00051996212588376501
-1.3208810038219121e-05
-0.012198718258933318
4.1507182830873922e-09
-9.0249557481208529e-07
-0.02684380289695313
-0.016588006165630585
-0.001987161405831966
-0.003646562235484806
-3.2296494150541303e-12
-0.00023258285706805504
0.0016104628110800211
-8.5027568742108203e-05
0.00046811798119222604
0
1.1819716992292861e-06
6.0196931306230042e-06
0
-0.00095809106820298091
-0.00040698304969408557
-0.012121134895728162
0.00075110358414544548
0
0.0073895999102319143
0
0.011106259655438933
-1.2398073247028342e-05
2.0394086932113541e-05
0
0.032963663853844444
0.0017823347473565863
0.0021359159380366865
-4.055718566368872e-05
0.000964709907060409
0
0.0037524689413834041
0.0033096635178259774
0.0047250138996617654
-1.7938562606206417e-05
0.0008387605857286942
0
0.010911393569863502
0
0.0034094308277281713
0.00057077520564967755
-0.00035161240721564072
6.9599622639311362e-05
2.6297770927825374e-05
0.00082608972558675053
0.00046172290451653689
0.0009055443452883129
0.017617142172134958
0
0.00028775848662371056
0.090975424506399033
0.00051276103814638908
0.0060496874842379932
2.9004019749270253e-08
1.8714761931992672e-05
-0.0015069657254753593
-0.00028989327439155434
0
0
0
0
-0.0006007002762362791
-0.015510861498679267
0
-0.001795927853513793
0.0014570477181051382
0.00037692084260826278
0
-0.0038673475628424256
0
0
9.2718219179677272e-05
0
8.8593066964462557e-06
0.0025944731839745655
0
-0.0032754077408235606
-0.00017301365513999848
0
-0.00044234552380968076
0.021300105220166621
0
0.0017065582272733533
-0.00010393041724487995
6.0441894769038606e-05
3.4495874816445313e-06
0.021189178620434748
0
0
8.9204725359914257e-08
0
-3.3801898090770206e-05
-0.005100308651214136
-0.002670502205560732
-0.00052017476830213164
-0.0013778538101649634
0
0
-0.00015047288520492444
0
-0.0026866143202974677
-5.7331765238919293e-05
0
0.0087943935384962903
-0.020509593010349908
0
-0.0013249892005639877
-1.9920824994564934e-11
-4.3580320214697819e-06
0.00016252674739389891
0
0
0.0014773054610970769
-0.0020461670107427559
0
0.00058289715463976906
3.1203100619352605e-05
0.00056731388975677114
-0.00011502956205251987
0.00011429197322202324
0
-0.0077792722888499538
-0.13748322676767613
0
0
0.027360079094140847
0
0.00068860895422320561
0.0025299522892808582
0.0054668156423080139
0
7.1776136807088253e-05
7.474500958941668e-05
0
0.0074764500032341221
0.0045843846318859762
0.0041375388341609561
6.6322729074079611e-09
0
-0.0087342163865432622
0
0.0073365135250076305
0
1.5061914246592926e-09
0
0
0.0017798598555566257
0
2.929373925391062e-06
0.00020950762955034181
0
0.00016929871092300733
0.0062122592881142134
0
4.4004043948236149e-06
-0.00048569623673404511
0
-0.016243707737110299
0.024667688149367414
-5.6539882055498911e-06
0
-2.2042565192639863e-07
0
0.017607428545688312
0.055165731867438374
-0.0044981001025830754
-0.00087972248130158159
1.4037712831165111e-07
0
0
-1.1161742147814388e-05
0
-0.00023723800565054741
-0.00038668152163996131
-1.4261339170436748e-05
-0.037971407860874842
-0.0016101014939300066
0
0
-1.4473872573663588e-06
-2.2410060025110256e-05
0.025115376467817793
0
0
0
4.9153327959255573e-05
2.516759137961989e-05
0.010816238093165764
0
0.0040257593507306887
0.0021049500535467655
-1.3904651420471638e-05
0
0
0
0
0
7.6555776667822012e-12
0
0
0
0
0
-8.9738877697527325e-06
0
-0.030137045422897871
0
0
0
0.0015450118344670597
1.014545027526414e-05
0
-0.0035143020359254058
0.00082943185083736925
0
0
0
0.021316433412484525
0.0012621653252257302
0
0.0050746186037238013
0.00046410371871188243
0
0.00643209252469758
0
0
0
-1.4918292561836765e-05
0
-0.012808749728181697
-0.019466587677723531
0
-0.001630649245602291
5.7699946249637507e-08
-1.1573416049384979e-05
-0.0058327114271066035
-0.0065111307537604555
0
0
0
0
0.0014309195893660335
0.0008220354975593501
0.0081594209766458654
-0.00033673323861908248
-8.648408374673041e-05
0
0.0046756055123734165
-0.03146437274524945
0
0.0032814253968678712
0
0
0.014818311659875062
0.0012580925239190561
0.0044039111504997619
-0.00055819895458212871
4.4877042983208909e-05
0
-0.027759926193740334
-0.00068460903893343057
6.3131189954109099e-05
0
-0.0044004445161228041
0
3.6985564399314122e-05
-0.00037927381194111749
-3.684991787933295e-06
-0.0063955174076050043
-0.0006286156147162535
0
0.038425339623371316
0.00041600004700436983
0.00085149427467900377
0
0.00037712137192798446
0
-0.0041822476677669355
-0.065332505250392275
6.2253007000333813e-05
0
-0.0018953158389484941
0
-0.10980049257074936
0.0006735360348094076
0
-0.0013363924841497939
0.00040237688040844729
0
1.8119025195606812e-05
0
0
0.0018162650055560737
-0.00012722558719159799
0
0.0071929267262896548
0
0.0028651104763286151
0.0070723014998941196
-0.00054803327102434399
0
0.03268768467618495
0.00054235247639225297
0
-0.00050918180075924053
-1.7584493852568736e-05
0
-0.0031118630475936992
0.0046275879811070062
-1.2298741589436825e-05
0
-1.7317500179198058e-09
0
-0.0014063399184220502
-0.0079429384145820528
0
0
-0.00062527946909477882
0
-0.0021781138530875747
-0.0021969750074125969
0
0
-2.8024187906750213e-05
0
0
0
0
0.0010048447101801516
-1.6744910676856043e-05
0
-0.0078931139301158301
-0.011321021440868754
-0.00027056491504450289
0
-0.0001131609570021306
0
-0.00013635803799442886
-1.6603981230240388e-05
0
0
-1.9999215645047744e-05
0
0
7.4137183115894652e-05
0
0
-3.8656530248208274e-05
0
-0.0016891707410390715
-1.2653471337632928e-07
-0.0024932274609904591
-1.2484949690668746e-05
-3.0481787037976679e-05
0
0
-0.0034475899340928183
0
0
-3.3638728318437689e-08
-6.0630715930260812e-06
-0.00043652430813904383
-0.009482694422409111
0
0
-4.0498496064865918e-08
0
-0.0011749236107029091
0
0
0
-9.4590028295848936e-09
0
0
-0.01874184744743734
-0.00027632823819174416
-1.1791509299458885e-05
-3.868364292643086e-08
0
0
0.0013389676212148594
-3.2316763612973547e-05
0
-4.0774392883943535e-06
0
0
-1.6664706801087783e-06
-0.00010517892089861115
0
-7.3166372144183571e-08
0
-0.00016546616774559014
0
-4.921971402994519e-07
1.1065642009679728e-06
0
0
-0.004580359431995874
5.5964125432425803e-07
0
-4.4796594219165473e-05
-5.3405213026108261e-10
0
0
0.00065627197331843371
0
0
-5.0915788389546175e-09
0
0
0
0
0
-8.8152519831684953e-06
0
0
0
-7.657699892668057e-05
1.493572551595414e-06
-7.3011312883039456e-08
0
-0.00031998821381462757
0.00083246657501874358
0
0
-0.00022964085737660095
0
0
0
0
0
0
0
-0.0001975179978141897
0
0
0.00043119689434436393
-0.00043151644636662742
0
0
1.4223874585528567e-05
0
0
-6.7580553197879795e-06
0
0
0
-0.00012140967024117047
0
-2.4877777001992338e-08
0
0
0
0
0
-7.5033971372300831e-05
0
0
0.00015441597393228181
0
0
0
0
0
0.00099424280437524545
0
0
0
0
0
0
3.5507520207737757e-05
1.3971905180689998e-06
-0.00032013989507217409
0
0
3.0778874893976353e-05
-0.00021193552487077944
0
-7.8034815489916689e-05
0
4.8333365841489528e-07
1.46077638240685e-06
0
0
-5.2106453439051498e-07
0
-0.00026338754256059955
0
0
4.3186601611207089e-05
-5.9791319198283956e-08
0.0010824413043838904
0.016929364904651623
0.0096996695002655002
-0.0018742284045319404
-0.001822353687743579
0.00043899391897090349
0
0.012651113470043808
0.086199125726726486
0.0026337807866290901
0
3.4626625680648372e-09
0.01180738018322277
-0.050520311784221394
-2.2455522004949959e-06
0
-0.00058978794661143554
0.028120941257508143
0.0052705398499861946
0.30806475574542197
0.053414690581431536
0.1179300576560503
0
-4.1294518568773875e-09
0
0
-0.0044527556959082773
-1.5295190385136863e-06
0.034994483617671907
-4.1507182830873922e-09
7.0561550368008072e-07
0.079600864967690282
-0.027533404869333106
9.4408623845943201e-05
0.011629555090373542
3.1905824231308489e-13
-0.00093648697709863295
-0.0038035697473951767
-0.0050391133686737864
-0.00016582405323029635
-0.0072491068446203007
1.1819716992292861e-06
-2.415239444916848e-05
0
0.00035244494890722709
4.0309779202169852e-05
-0.019920891178629375
-0.0029976351182187519
-0.016768093503938129
-0.0073895999102319143
-0.39070327354899581
-0.045148734304470112
1.7527358452701918e-05
2.5723199706155737e-05
0.0035436672541814128
-0.032963663853844444
0.0017823347473565863
0.0090176125337276241
-0.00013677453105184474
-0.00032075956990808199
0.0068406624133006298
-0.021650369707139027
0.0032300811856903226
0.0062248659931245275
0.0035849166173886051
-0.00057695944937963901
0.00014896445909391297
-0.073194051633100082
0.077312001930711374
-0.0041085455207707858
-0.00093294391045870787
-0.0013451759560464552
-0.00035474364513327127
2.6109787123632868e-05
0.0009301511090291292
-0.0021027944762265515
-0.0013382560372794769
-0.017617142172134958
0.024572497832961584
0.00019219902465343391
0.07216784175043317
-0.00051276103814638908
-0.0060496874842379932
8.1316328536530505e-08
1.7547164638295391e-05
-0.015229287290032615
0.0071259147155092696
0
0.050188964863307789
0.020529311929081338
0.046343615829161508
0.00046791617139304805
0.010025824279116595
-0.070675496619438977
-0.0013871195769264721
0.001164900780047952
-0.00089548643952697354
0
0.041794308601915693
-0.051519469565950327
-0.038514215184597356
-0.00010868946848101939
-0.031858073605943865
6.4184959209733934e-06
0.023496418346876873
-0.057283014743785859
-0.011656673527264943
-0.0009220339267832034
-0.044546304359666361
-0.0011514354943288414
0.011009809002469933
0
-0.0017065582272733533
3.2311075872910476e-05
0.00048028120176425254
6.837406515564035e-06
0.097525766896039673
0
0
-8.9204725359914257e-08
0
4.856012413469285e-05
-0.003251043081304284
-0.0072410169433662543
-0.00065986091425523018
-0.002942834029976759
0
-0.22622513592112503
-0.00010032702274950033
-0.29186384037896212
-0.0027116400051747248
-8.7603824670761375e-05
5.3577830348966416e-05
0.026529934754193019
0.082905430367236715
-0.1049074389016813
0.010189108048721716
1.9564975258999718e-11
4.3363184913711484e-06
-0.0025206403655909492
0
0
-0.0011245437865363111
0.0018722202527692348
0
0.0021052363130083522
-0.00021771982720490696
0.00012782071760041407
0.00011502956205251987
-6.9832343667372099e-05
0.024426233951412055
0.0077792722888499538
0.10395304438370746
0
0
-0.062376621286331757
-0.022322167158513088
0.00080981342365025078
0.01192252702928258
-0.013660824727929805
0
1.3447844491120225e-05
-7.474500958941668e-05
-0.12653493210936012
-0.018346965662022947
-0.0071097670802529964
0.011701011319708757
7.2472010541296743e-09
0
0.01584321095736245
-0.039964356147163552
0.018188828960719793
0
1.3095287315635883e-09
0.0085385878775766609
0
-0.0012573278608440099
0.23239301295276329
6.9182613689414025e-06
-0.00048706130762720979
0.0065894088960862214
-0.00015565692052033997
-0.005396887716789661
0
1.9860486648341628e-06
0.00069858756012105617
-0.001171501718056495
0.00722246789011675
-0.029397941562491651
5.6539882055498911e-06
0
-5.7997904553841132e-08
-0.0038096891972683295
0.0058719762731813535
-0.056282652220250154
-0.019326761496607611
4.9010368743497156e-05
-1.288886834998384e-07
0
0
2.6797568350716886e-06
0.0088319143887042248
-0.00046404520019531145
0.00038668152163996131
-4.2868909821294513e-06
0.03825565706046577
0.0066402537482597394
0
0
-3.8501482678105034e-06
-2.87703850771594e-06
0.025115376467817793
0.021322061322353928
0.13499753377227944
0.006199741397799512
-1.5065425913217571e-05
0.0010161800918729244
0.016558306424888924
0.0053076979244271183
0.0053756000946733043
0.0060132085415518007
6.5346367975286371e-05
0.0020205158020617105
0
0.060301548542790212
0
-0.15912348722271108
5.4426576478685692e-12
0.024372849486953937
0
-0.087851048033584386
0.063219029026133494
0.051402772027776419
-3.3678740007278314e-06
-0.00031994161408118826
-0.0071277280921551722
0
-0.18704673008325337
-0.015321873320210349
-0.0059930911404665584
-4.7725134936921589e-05
0
6.2312970912254209e-05
-0.02614327680574861
-0.0084491351605375103
-0.047382789977015456
0.0014492703754085301
0.02761220724930933
0.00093142727206699412
-0.0068632616498706112
-0.00038538190032642514
0.0029398715970248672
0
0.0068099498534510963
0
0
0.086335861698009761
-1.1819284546619385e-05
-0.0066067529640088159
0.052012043626441823
0.0085089722182695414
0
0.00078011329401643796
-8.2229219754733754e-09
-1.6146562230623085e-05
-0.0049367832680121846
0.0015291938423562313
0.1074541087739031
0
-0.12308455654567718
-0.00047858921142865027
-0.002504456410792335
0.0008220354975593501
-0.011473624294159093
-0.00047045864685371197
7.1273462474194771e-05
0.00010741711720144099
-3.1009951326698001e-05
0.090661300639084563
0.020898635930403465
0.0032814253968678712
0.082087250068371004
0.0014656822636414583
0.070589256314031262
0.0015682144209185195
0.035793063124276263
0.00040415553228907112
-1.3594513248263275e-05
0
0.027759926193740334
0.00055035094875031422
-0.00081844379573509996
-0.0027806967932189914
-0.0034932165907422671
0
-6.4281456055965836e-05
-7.3676219404386969e-05
8.5620869491376885e-05
0.0047578998094712759
-5.6707045854356036e-05
-0.012764144256692192
-0.051393080171382541
-0.00041600004700436983
0.00021611432028564116
0.022169025198735766
0.00049724112819165178
-0.0018671803499067188
-0.0014185488843163755
-0.13575874140224495
0.001635186939514653
-0.008458246426307256
0.0075253446491056249
0
0.07978221148860315
0.0021595516643150431
0.06938707190017776
0.00047443498261667203
-0.00040237688040844729
0
1.922876170107606e-05
0.090730674184055199
0
-0.0022443804973695095
-0.0040353315003475521
0.0066186012911060221
0.0071929267262896548
0.12892080200868808
-0.0058057473842219954
-0.0059027136961589781
0.020493905184572257
0
0.021411449664627422
-0.0025976226063659392
0.016743812189209655
0.0013153969306683526
4.0597035140795592e-05
-0.0011542310315920971
-0.070712016369485153
-0.0046275879811070062
1.2298741589436825e-05
-0.011031042593741462
