0.098795996547779
0
0.0020647019896238429
0.043078320414857582
0
1.6685189958172593e-06
0.090994756735309379
0
0.014037047961245266
-0.0086694433391366291
0
-1.2198958906944358e-05
0.035841136866669294
0
0.0010696984183238632
0.00012270612965328676
2.0048722316030137e-05
1.5130638869704639e-05
0.078792637423268919
0
0.017610414138532225
-0.000193042726965363
3.2462628719569024e-05
0
0.099667297714538264
0
-0.0032552475125338892
-0.0082087211915872777
0
0
0.099770164084703364
0
0
0.0010594417354696424
-1.3045691900343507e-07
0
0.024767534360375456
-7.0974579080520567e-09
0.0055152264943393982
-0.00035289655391508286
0
1.732473110581895e-05
0.092776581907466113
0
0.00055907572308057103
0.0041223368865661233
0
0
0.10039819487911535
0
0.00030052927682612215
0.00099717328961861215
0
6.7757766565236904e-06
0.10150088543650601
0
-0.00026703960490082426
0
0
0
0.11141217266474222
0
0.0028914889033348629
0
-3.557388281887009e-05
-1.4271497267061179e-05
2.8010960096560835e-05
0
2.1542855563622977e-05
0.0003522622106970046
-0.00010502987031138729
0
-0.00044249984222497803
0
0
-0.00016350108725699797
7.5094829166492483e-06
3.4221551296710388e-06
0.032951676408993859
0
-0.00088028599103160776
0.0010127791528031158
2.5494464744530515e-05
-4.5815724819057436e-05
-2.6180935020765766e-07
0
-0.0010449135981807991
-5.646658158800002e-05
4.1755120914790526e-07
-2.2129165129237718e-05
0.0013015284820134549
0
-0.0018448289729722637
0.013088959927432709
0
0
0.02026355101963653
0
0
0
-8.9830701380155197e-06
-7.7478751924679939e-06
-1.9294212681843947e-05
0
-4.5991444992661277e-05
-0.00020288570884200078
0
-2.7372288545578657e-05
0.0026384247685026048
0
0.00055511470885434545
-0.0011701399320029704
0
0
0.0001071392896955729
0
-0.00011739243232215842
4.7459597018585536e-05
0
0
2.930733901505033e-06
0
0.00067524548102731704
-0.00065588551540870306
0
-6.3443432980690888e-06
-1.4411093455626357e-06
0
0
-0.00048280698854153868
-1.0712283040668081e-05
0
0.00046976913898703849
0
2.8650984279457908e-05
-1.1313592100429631e-05
0
0
0.00074661698675419362
0
-8.5998360230549616e-06
0
-2.1296939778964893e-06
1.933798078681798e-07
0.0096541616772670286
0
0
-0.00088416434032110506
0
0
-3.4225710228849245e-07
0
-0.0001049750304287723
-0.0009701924629972209
0
0
3.195578424454703e-08
0
0.00063722160652848942
0
4.683450603779968e-06
-1.6343060281977671e-05
-0.00061622268493695777
0
0
-0.00041793607656615418
-1.1668197148962765e-05
0
0.0013685834490528904
0
0.0014984489943529265
-6.8460712855962483e-05
0
0
-2.7455786345238749e-06
0
0.0004655283857705797
0
0
-1.5954806751156649e-05
0.16082638219763049
0
-0.09926474518306283
-0.031359423299864068
0.0055368175572350839
-0.0058317065517633545
0.37398472529226534
0
0.0067283315415053377
-0.10000000000000001
-0.01262666910272902
0.10000000000000001
0.016350164012089875
1.8558668655119464e-05
0.054275022302474503
0.091901388766287354
-0.0015786835410779394
0.0025874821647231677
0.43323266998840165
0
0.10592973825162105
0.19635499974916362
0.000584715493976168
-8.2401601310169313e-05
0.18940500758575254
0
0
-0.11404091000659962
0.0010741703560511369
0.012323171625518853
0.55635412687136654
-3.1227552152730058e-06
-0.10000000000000001
-0.12107291823114487
-0.0035360562357140629
-0.10236635754235826
0.37126371546401976
-0.00022346399824658633
-0.17962701996192412
0.19310181123751649
-0.010705178828716494
-0.10680665755277366
0.89995066996706796
1.8185806438042282e-06
0.10000000000000001
-0.19149328279761074
0.0012550488271568815
-0.10205638194941154
0.55653938804502889
0
0.074477674322930815
0.24593530805964403
-0.010548129762372299
0.099630990732813035
0.72105623321030599
0
0.042908287641065967
0.10042372343012558
0.10349834965058534
-0.10236668263453474
1.2230236079985455
0
-0.032243592561003828
-0.097757838721431289
-0.0052179731218827095
0.082334461752862603
0.72834444850531099
-0.00026762329054374188
-0.19558076230823623
-0.41403819209463133
0.0092004132444212256
0.014170938126664059
0.68152469012285322
7.2423019137523048e-06
-0.0056355800367995741
-0.19397046455837019
0.12078004917744949
0.0014551921349942724
1.558360445091908
0
-0.098690354674584244
-0.18806851345753905
0.014060563293841467
0.0090037040507724465
0.44432654358598295
-3.1435494224791917e-05
0.11109261324081722
0.26021832649809085
0.10000000000000001
0.099276995566757648
0.38590519304581061
0
-0.072291310238087922
-0.039241413200249813
0.10000000000000001
0.096639510184271193
2.0257114732533221
0
0.10000000000000001
-0.049267598145695847
0.10000000000000001
0.00017636421499685843
0.38765230116001997
0
0.028079973887192647
0.30035088724232906
-0.0048824260122813188
-0.1076994240939971
0.66565199334070058
0
0.032038297283166595
-0.032825729454894412
0
0.10046573744961566
1.0236306443491996
-0.00026275741947552177
-7.195184411267928e-05
0.15477637050539839
0.00011368676293935025
0
1.1772109627476286
0
0.086607867972109537
0.12176558562817516
-0.0038846787478588139
-0.085805820181621167
1.0740999229328083
0
-0.099861369025093474
-0.10543037428283011
3.3297924904023071e-07
-0.0028460831087118599
0.87836570676759151
0
0.018123908976219159
0.44500993224454832
-0.00097332305630852133
-0.0022149694112884553
1.1195886313882539
3.7029524298031613e-05
0.11082306633140372
0.10541065921588147
0
-0.0027811249166681492
0.81552017294178292
0
0.0096919759207376895
-0.21670428696260288
0.012393272454146178
0.0016875068963439553
1.060479538068051
0
0.051629048172869285
-0.013709976336481178
0
-0.00048640965369284691
1.0774640096622869
0
-0.21729343723085606
-0.23321573685167857
0.086273001791891069
0
0.68711709123984577
4.7973232818854063e-05
0.089624760343949686
-0.053204092294410865
-0.0066621113915757181
0.023847834991940407
0.84641325042819826
0
0.040229954805947037
-0.087897700812321136
0.078835434255045383
0.098231384564346019
0.0095472406260951256
0
0
0.21577269689824619
0.10000000000000001
-3.0150663006629122e-05
0.25035333751545003
0
-0.093134288359607215
-0.091601607979312272
0.10000000000000001
-0.00066785665200307977
0.065158783108849358
1.3994195305126872e-06
0.099260177859412407
0.083215406480457915
-0.025837648579303856
0
0.22511590602349449
0
0.28315505142894581
0.34198482738666452
0.0082561498068510104
0.0012894485542396593
0.07388558294838847
0
-0.10000000000000001
-0.078378712470780681
-0.0014795593291543712
0.0014976814411981527
0.1857310564573971
0.00012026846206474815
-0.15961175534208949
-0.26433270437503931
-0.00098567712778577037
0
-0.070111402790003829
-8.7585573844048691e-05
-0.065060313662207367
0.03453143630143754
0
0
0.24087854765254874
-2.1941857143429959e-05
-0.150863802373953
-0.40433256194494366
0.0017203852390496154
0.00013791452035350401
-0.027386972096083241
3.8528258698664651e-06
0.10494237158271449
0.20804812627268335
0.00036045053190654437
0
-0.11336686323311183
0
0.0073226765481625294
-0.041179902506731703
-4.5462412718832816e-05
0
0.14515617081872506
-7.5746145336573039e-06
-0.073834812978814862
0
0
0
-0.1695532937594337
-3.1608276263141147e-05
-0.23929448959266347
-0.26576944960920779
0.09840799008762037
3.3312532884044368e-05
-0.22829618317027378
0
0.16988590855068225
0.14675902187341147
0
0.00039962980026543967
0.30990810888673864
-1.7157435225654985e-06
-0.083524339359454344
-0.16128072645223065
0.10000000000000001
0.00017091703092408079
-0.093389674649927076
0
0.28140927218291512
0.28383811969230865
0.10013026488017007
0.0019309939642659071
-0.41911673077571177
6.871656529866378e-05
-0.1075978257684148
-0.19727054032583863
0
0
0.66704010440499617
4.9734098284083584e-07
0.0064224084407009541
0.157311397128337
-0.008637177175843334
0.0025495555954494951
0.13547167280731229
5.2670334368046077e-05
-0.17308383277096775
-0.12963197105539331
0.00087878917215824062
0.00039942703343364978
-0.23021412320010176
-2.0593002725438884e-06
0.43537095044100238
0.29422804795818586
0.00044140450162694783
0.000430133711963395
-0.31767565004917381
0
0.060239419338369682
0.079271792937689878
0.10209313068816317
-2.08440126176253e-05
-0.073688303229865568
0
-0.17907636003391156
-0.35193844642420763
-3.081833681410518e-05
-5.8005704506743638e-06
0.078591162475495885
-3.7243716604017746e-05
-0.011813509975081708
0.097992085718692667
0.013071478226372769
0
-0.031984900860103915
0
-0.04117843562307312
0.25400655012583079
0.00059249288246708315
5.5166937645935641e-06
0.12333136364078956
0
-0.11853407880352287
-0.15825308044360767
0.0086734252326676354
-0.00062040284823938968
0.023359169089539094
0
-0.10097604282586538
-0.24828532140523096
0
-0.0030285303089919811
0.14452523714738555
0
-0.10137429581427655
0.10378807738702825
0.010880857782240863
-4.5328946568735195e-05
0.19543515743944345
0
0.098325546009139397
0.14468767819644252
-0.00063258617662291473
-0.0010488182523408303
-0.079622707191276454
0
0.13991255205680539
-0.010266954719673949
-0.00010794392287714281
0
1.1032280186701052e-08
0
-0.0032093502698028495
-0.0025687689508766265
0
3.3118391975272642e-07
0.0012516924104600008
0
-0.0010681377228382053
-0.00091468243218497725
0
-8.0793979270066349e-09
0.00011087677112755878
0
-0.00036083881560609746
-8.256757281137583e-05
7.5735722356089684e-06
6.9367407387769962e-06
2.919167369670277e-05
0
-0.00028841604518814169
0.002004192248316025
-0.00022300038638045823
0
3.9694249141606363e-05
0
-0.00053838630802654759
-0.00072438433370128959
0
-2.6541053246536509e-05
5.8282251119072777e-05
2.6113429703834776e-07
0
0.00044045872510493927
5.4404601893017523e-07
0
-9.0965329883275448e-05
7.2247156350491957e-10
-0.0017173641646814018
4.2171036471380221e-07
0
0.00043186642915163799
-4.5982829400681676e-06
0
-8.8377198222067576e-06
0.00042615515672176344
0
0
6.3415737841410729e-08
1.4003779741146103e-07
0.0020137081173175345
0.021122580300086947
0
1.8790666841129864e-07
6.3054896176324014e-08
0
0.00053590720052406672
0
0
0
2.6404681123788082e-09
0
-0.0033363286244437827
0.055233755069871181
7.0414011680509508e-07
-8.2382470388019428e-05
4.1681996202398153e-08
0
-3.1149275614238966e-08
-0.000976054010823014
3.5105419368803139e-06
0
3.6017385213699674e-05
0
0
0.00045450220309861097
-8.3775675746868594e-05
9.8261985599631811e-07
5.5277408563205121e-08
0
-5.3791634334539323e-05
-0.04711892074779183
2.0005186009487217e-06
2.2146415620320819e-07
4.9570308208168069e-07
0
-0.0035953782817711448
6.9900897744131858e-06
6.9557291002286983e-07
4.4821468946978712e-05
5.7275534989604145e-10
0
-0.0066269111451864983
-0.00029753510002938845
1.0050840650795649e-05
0
7.6908861524998739e-09
0
-0.0001848702912256446
0
-5.3163150766440918e-08
9.5079855448264995e-06
1.2956786175629027e-06
0
1.2026878944777558e-07
-0.001885573559782221
-0.00013000353597137992
-2.313863156036714e-06
1.260205045310024e-07
8.0441950761869612e-08
-0.00032018161240301589
6.9197797393245869e-05
-6.9944005757336038e-06
0
2.6919881845850626e-05
1.4210480736736039e-07
0
0.020570628470944704
0
0
3.815889319050429e-06
0
-4.8924255684268619e-05
0
0
1.7819524682333029e-08
4.7073504912047077e-12
0
0
0.00057219089240586598
0
-5.6138812926877239e-05
7.2566536018018277e-06
0
-4.7877965829761541e-05
0
-0.00012140967024117047
4.7758936484808428e-05
1.2339615888751477e-08
0
-0.0012891029077680071
0
3.3186375777569829e-06
-1.6141386526427455e-06
-1.9615000061927313e-06
0
0
-0.00033168753940270848
0
-6.1479654419340247e-06
1.8722884552571159e-08
0
-0.0021407189993908481
-0.0020138288166202892
0
-2.3088400519469363e-05
1.3741975555752121e-08
0
0
0
-0.0001304984706908808
-2.7530746746340802e-06
-0.00031649035676153422
0
0
1.4712879122862715e-05
-0.0001104526168830639
0
2.1038354146953399e-06
0
-1.301769910349891e-06
6.9826127767103867e-06
0
0
-6.6780896415689314e-06
0
9.7732359810560705e-05
0
-1.3303101355779645e-06
-7.1853253629368489e-05
-1.0451225187843176e-07
0.0026838016761415538
-0.15065059578473944
-0.02907040054752821
-0.0051100790318099002
0.00028514992646626737
0.00094924901750120664
0
0.051421262478645889
-0.054397923543368414
-0.001474892022250868
-0.0068091395398858553
1.4442010175558652e-08
0.002087872439336749
0.10031309123662049
7.5210040923111547e-06
-0.030621262436100721
-0.0093082083402592913
-0.016054718129062593
0.003198490206022195
0
0.031606410911564929
4.21709050719289e-05
-4.7390506847437127e-05
-1.4364923917523693e-08
0.000249867142479516
0
-0.010749222442567515
-2.6263814246338929e-05
0.0072447976222609744
-1.5623228024233629e-08
-1.1505119226241314e-05
-0.00076846025911821506
0.032372222053369613
-0.011881382666732236
-0.028278040148915558
1.5696706588776329e-11
0.0011054236568228887
-0.012780289867715245
0.00086986213823918941
0.00012970136584440547
0.099201850470796285
3.6016906547037561e-05
0.00014440324774538503
0.37802910757401781
0.0051324517933962867
0.0018179005374894177
-0.075175324502714427
0.0010425049472784233
0.0055051294858575591
-0.017221575911111502
0.1788370313218168
-0.0054203951891046995
2.673785454464549e-05
2.456446634900911e-05
-0.0016345694762139572
-0.12088796542973219
-0.0043757641277382417
0.016213676478772341
0.00052698792277433137
0.002840242311628089
-0.00026023648534401916
-0.027440623133714034
-0.0086644936534590739
0.0010591438297271739
0.013791428383274247
-0.00017159716343427501
0.00078660808720495371
0.04819104158727238
-0.024080078552581333
-0.0056167686979390688
-0.0026299774836942378
0.00098226999530827593
-6.4267246729457635e-06
-7.2142397586468998e-05
-0.00022955947816294094
0.0087691924316489391
0.0016718671878887675
-0.026197689474193955
0.0014960606484642847
-0.00072227529686809172
-0.14300914168860679
0.0012093007904130392
0.01375210524861044
2.0333354823666782e-07
0.00010191310754701007
0.047918310283057382
0.01232324360848008
0.12327973560467832
-0.061351253927020469
-0.052856736530973843
0
-0.0013680287905887031
-0.022383959324192196
-0.23037561577330778
-0.00026537645763726419
-0.0014579343395980757
0.00081665748230718089
0
0.10228674377435132
-0.012198110337265752
-0.10626599058901158
0.00023424176327680843
0
5.9436392637720823e-06
-0.011597128994190468
0.087122750998859147
0.016144886894373042
0.00084459677390490574
-0.00028823637241349938
-0.043244356611480642
-0.082534604032718312
0
0.002442153815170173
0.00012733105827311239
0.0011027339570242639
-1.9699905047217707e-05
0.012160739656726708
-0.00014300473208540089
-0.052113117088218711
1.4885831759927829e-08
-0.0005986339998395935
-0.0026616460732762411
0.016436484760715211
0.018816494828125738
-0.0014946814546578048
0.00564161707084817
-5.4625487289471374e-06
-0.37935957017534977
0.00019742756508295419
0.026299043827070524
0.0054056576244476554
-0.00014582733120960584
-0.0072079251703015901
0.013326032376137191
0.11825552320437993
0.029137349806097192
-0.00021136787190194624
-4.3315877616486928e-11
-3.3288104639181974e-06
-5.2868999730689857e-05
-0.2858639415547401
0
-0.0027978141003743486
-0.0058370859561033351
-5.021285779255144e-05
0.0077681099745312097
0.0037377662975191534
-0.004681375322644038
-0.00043357558307665874
-0.00016993174120505394
0
-0.008495432248587018
0.17192719341003701
-0.27029054208895764
-0.10878245519366926
-0.087160669503980714
0
0.0011452268215798274
0.029242175781850652
-0.03954646402077084
0
-0.00017861131349537215
-1.8843378801994498e-05
-0.00043852888777030295
-0.010256541430377918
-0.022106298635946341
0.014683932946324243
-6.4049178486061388e-10
-0.00024945256733897544
-0.0067167393619267466
-0.022963331679376659
-0.044903115879052186
-0.087100705877890552
6.5755885775305932e-09
0.013897692598811746
0.14915240623109058
0.0061505203297798402
-0.14029572355519196
-5.230137556794325e-06
-0.00016849546073027384
-0.0039287876580269875
-0.00088208379893040705
-0.022279570652819769
0
2.8958892805818246e-06
0.00020202422335175821
0.0011038175958853838
0.043763162521057913
0.056175138260654692
2.7451095477976506e-05
0.055322288210637345
-3.6681624302374755e-07
0.00095225737789731357
-0.028363730729075463
-0.027805399635425339
-0.014589401669061993
-0.0012416141862759595
-1.5437268176868262e-07
0
-0.098528741558638389
2.4192785118560309e-06
-0.016551280237208203
-0.0017175294989821258
0.0011979831140173861
-8.5013722594891089e-06
0.031598636748907623
0.023879233137938948
0.076127285468745864
0.0060407931974038355
-3.7490220237609049e-06
0.00011044272505235318
0.0637419252599285
0.12159395606444467
0.010481442429810332
-0.032987691537078132
-0.00010561468944584182
0.00087203791529924242
0.057327864797074746
0.2487839697550219
-0.066893951583995193
0.00022985714472417511
7.3153646043229827e-05
-0.00080203284551732504
-0.11925925106162594
-0.31577875724268972
-9.3861772312534925e-08
-0.054773513692775909
-3.6521552365939332e-12
0
-0.017694620178595175
-0.0017157972513649972
0.007881737818691531
-0.028846052854957439
-0.00015907553006717359
0.00080632626908193577
-0.040309244821443095
0
-0.017564062095828517
-0.017404301690714215
0.0039188771243392571
0.00025460950078789524
0.16770164951290853
0.020328518779614488
0.027991107660525098
0.012206610537993004
-3.2225086657306741e-05
0.0057157305241258786
-0.057625744977750797
-0.0067121249829877666
-0.059424766370499121
-0.0043655297323139082
0.0053526406005720544
3.6920620916193289e-06
-0.00077099477078412175
-0.19161829178129652
0
-0.030894844643858846
-3.1507119258099444e-05
0.00062477356912270872
0.040718853896709525
0.0016591392517361016
-5.4060297190659676e-05
-0.0025819979854865885
2.3694375395702146e-08
5.5564740938708573e-05
0.00060657657425380841
0.015450941993840516
0.1156979237989945
0
0.057024283922552543
-0.001703118795951376
-0.0037160013347747878
-0.021529637205459324
0.056438257336491209
0.00033282790783352
-0.00013703623756606059
-5.1549051425077932e-05
0.0078473083717264438
0.19451990819897447
-0.05889410131245372
-0.0041237411330771901
-0.0035901615178411859
0.0032406446572791994
0.037803944127892446
0.001694500510416486
-0.023465180750750259
-0.0005223203861886923
-5.6901787690371821e-05
0.00017774278441377075
0.058240326013957719
0.0019926275272366344
0.0016067658073642625
-0.0069484912027547065
0.0097013227613148498
0
1.2430899172128501e-05
-0.00055625569812001229
-0.00019493136698739012
0.021485160364393737
-0.0026091423595017253
-0.013220026373376889
-0.0080072758786600938
0.00062614742662277245
-0.0021213409311202939
-0.091546234090347664
-0.00027048618856168082
-0.0041336802030801419
0.010205991116136447
0.099061762277691368
-0.00050970175113172853
-0.027862679709510164
-0.013700597251097905
0
-0.043118449876201129
-0.00089069290746609186
-0.0080267940881210403
-0.0054049692630882117
0.0007691858622195923
0
-9.6801141553156346e-06
0.0025067750695799487
0
0.0039174579254765661
-0.021833518199416316
0.0071055857938188043
0.0069695673192696154
0.00022782975361258982
0.0089888286912383868
-0.03018512397795647
-0.00057702277163609763
0
-0.31849676298603269
-0.022650885726387581
0.0050049235831845862
0.0044263836894628192
0.00011229216464259562
-0.0011379239267543277
0.034412392666061595
0.015544770736985507
3.9971192045192405e-05
-0.05813562619506326
5.0952782328937946e-09
0
0.00028880710681980796
0.0024396521481022193
0
1.0279898631384729e-06
3.3324960366893692e-09
0
-0.0017591363996024767
0.00075904820194384057
0
8.1892301154975805e-08
9.8734688506222392e-05
0
-0.00012688447834199084
5.0945479798477452e-05
-2.0048722316030137e-05
1.5130638869704639e-05
7.0180669731198587e-06
0
-0.020474383431512311
-0.0067267677436803237
8.7040086950076798e-05
0
-2.5765817175324785e-05
0
-0.00018325282530071545
0.00014056051205885893
0
0
2.0766829765556521e-05
0
0
-0.001095070201553458
8.1075689311972297e-07
0
-1.9177866656463031e-05
2.7816639099885857e-10
-0.00024197202769837226
1.0582428793893343e-06
0
1.2654035700754691e-05
7.9056965047875488e-06
0
-1.3016911737004937e-05
-0.0029259721348412855
0
0
5.9932399267875587e-08
0
0.00071536378605766395
-0.0087617288017473212
0
-5.0270366801439113e-07
2.756652928002089e-08
0
0.0011664805734740284
0
0
0
-5.6803567272369075e-09
0
0
0.0062997862701365832
1.0762695259597197e-06
7.5630015828184499e-05
-5.4431182901113881e-08
0
-3.5770166662712373e-08
-0.00093489463660355917
1.2293736836415006e-06
0
-8.6740904915651404e-06
0
0
0.00025364993994723127
-2.604496804727133e-06
-9.484543004035872e-07
4.3980388555213095e-08
0
-0.00027064875362416276
0
1.7293566747698961e-06
1.4796899632211244e-06
1.4411953339805042e-07
0
0.0035840469383778676
6.5654261849560461e-06
3.0025829346718377e-06
-7.2402259118371369e-07
-9.4277213569422755e-11
0
0
-2.4205777939334522e-05
0
0
-1.7524529475380044e-09
0
0
0
5.3163150766440918e-08
1.7601103523585058e-06
-6.6862190349646984e-06
0
-0.0033936522459625655
-0.0019155095316413476
5.7330738087950637e-05
4.661728185855659e-06
1.9298630019278378e-08
0
0.00059830134299072987
-0.00058800267477469685
0
0
-2.7091111283137601e-05
0
0
8.3618624744711091e-06
0
0
0
0
0.0011216433713660688
0
0
0.0001524352811967748
2.4597482880921281e-12
0
0
2.1383045654970183e-05
0
0
-5.5007854892374912e-06
0
0
8.1192036165521178e-06
0
0
-6.3242146857450864e-09
0
8.8361416027699063e-06
0
3.7580470612227059e-06
-1.7553108637118223e-07
1.8907048432261284e-14
0
0
-0.00037542912175910615
0
-2.184396591934156e-06
1.9216506618608814e-07
0
-0.00063980282351979356
-0.0015248561506639199
0
0
1.0788964654543549e-08
0
0
0
-1.4386076943893854e-05
-1.4776353347148543e-07
4.8227892432841581e-09
0
0
9.7006661121017848e-05
1.1973580961094502e-05
0
-1.0324247740801636e-06
0
1.1701250688026511e-06
4.818343185135155e-05
0
0
-3.871345930437341e-06
0
9.7543203518742831e-05
0
0
4.1672908571922705e-05
-7.6443153390805998e-08
-0.00025358332815910117
1.6865850737920762e-08
0.0040185413597449548
0.00182667714579117
0.0046851071949157372
-0.00016661752104761991
0
0.0089489672256021554
0.054397923543368414
-0.00032865270555488169
0
-3.2168330706841914e-08
1.2693717033346718e-05
0.10031309123662049
9.9334950548424208e-06
0.0002494158492568233
-0.0074245000395953206
-0.015712237149438792
0
0
0.097738786984259168
4.21709050719289e-05
-0.00012979210815760645
-1.3674271506870713e-09
0
0
-0.0077472419650041037
-9.5422043704844887e-06
0.012323171625518853
1.5518949988516018e-09
-4.1456587612386369e-06
-0.028936841465358003
-0.013448684093383942
-0.0016150589669397467
0.00094957154685441708
1.7208251261262253e-11
0.00023055428478741888
-0.0039313985363892481
-0.011400373658224949
0.0014969400780249834
0.029957652231984572
-2.5949347763634569e-05
-0.00010114909147388399
0
0.003936526342799283
-0.0006519536251628253
-0.030048323288215526
-0.0054435048211809792
0
0.010626756665483539
0.0023565682543298305
-0.0260856236096631
-9.0661762899092564e-05
-5.8171803605090934e-05
-0.00036180985718075177
-0.057677212527215915
-0.0011372123603204309
-0.020766763357493761
-0.00048894790195393699
0.00074517993086929365
-0.0010703310353837468
0.0097298601024929966
0.014437496189764212
0.001598502091684503
0.0044119812350112619
-0.0015592478662994045
-0.00029278416284407057
-0.044410152330523714
-0.17502694925640036
-0.0076253696639154069
0.0024519837524143162
-0.0025775000458987366
0.00013481935373181383
-0.00011617146339185288
-0.0034792838858169447
-0.00062526263505657516
-0.00069180890293436446
0.0092413078960636337
0
0.00077679895009298062
0.1229335486644198
0.0014401424350530066
-0.001368205099266455
2.3336392375301349e-07
-5.2742010755751661e-05
-0.0069103500863356834
-0.0081238861144115829
0
0.043081476058163398
-0.021038646815992993
0
-0.00041913405724539613
0.0078251347789164219
0.027897501044439346
-0.0011640114208526307
-0.0035899913474600484
0
0
0.034219198620076302
0
-4.4209853096893257e-07
0.00017319720079458825
0
-1.5879360248930264e-05
0.019099563016659091
0.014284604471349648
0.0028605284469293796
0.0010704018312385694
0
-0.012152844008912882
-0.056202146599601148
0
-0.00033012375794673878
-0.00029470635132772765
6.5837539949922135e-05
-3.8498660574791329e-06
-0.021241108544137008
7.1173249768782321e-05
0
1.863125298178696e-07
0
0.0067981381949134296
0.0074711868786145469
0.0071145965865631522
0.0011716709620200063
0.0021261847428587204
-4.4597984323027404e-05
-5.9752415608055444e-05
-0.00050753837221081499
4.9962684013531932e-06
-4.5295953543079659e-05
6.706014024858614e-05
0
-0.018259320346285642
-0.11911869301648331
-5.278906757692306e-05
-0.0091448500088583719
5.9880597917912186e-11
1.8799826306656041e-05
0.0091523489063230767
0.0018738140384658968
0
-0.0020795689261406802
-0.0015697265800091484
-7.2869434197644822e-05
-0.0030714756985105963
-0.0035066168046534443
-0.00024407734494157778
0.00034470634075317022
-0.00024410643402350852
0
-0.010209518907997527
-0.0050731000373959688
-0.00070860002129340908
-6.1905887628117191e-05
-0.031467364104750636
0
-0.0026870870820245546
-0.0061461813723297093
-0.0076395728959265307
0
5.6327575335068308e-05
1.7207445618197104e-05
-0.0064687268600737849
-0.003598490213090489
0.0056810123486420424
0.013778864673322103
-1.1738565528547499e-08
0
0.027355323207929362
0.080623998676271832
-0.01359213684305835
-0.051596190090821836
6.6292048638970738e-10
0
0
-0.0053125468178093728
-0.019922759646291328
-2.1861265457707044e-05
-0.001677143862234914
1.1256462630354166e-05
0.0033209220209384129
0.016893419520405645
0
-1.1035035650271015e-05
0.00098511758987872202
2.4230823910461676e-05
0.037897741052209923
0.04836965592879499
-3.7570465416506398e-06
0.00022652042424676892
3.0219611687783973e-07
0
-0.015395895890613452
-0.013884465408880657
-0.010030486832789611
0.0019782031733441663
-6.9849215066481913e-08
0
0
-2.1386784992833687e-05
-0.0042762935887401725
0.00043028798612775585
0.00065400977956552053
2.3534415405742487e-05
0.018503771926289162
-0.0030867179425016454
9.2466214003678438e-06
0
-1.2239983863342089e-05
-1.3699196122586843e-05
0.00049173401583367266
0.00085644504410793947
-0.011869391104002178
-0.0039545614228739369
3.0096260475502822e-05
3.1272648906525066e-05
0.027971936201776005
0.004680866344436832
-0.0070721357386784251
-0.0018944460338326549
-8.4947381508122902e-05
1.317046076415081e-05
0
-0.011857708966076694
-4.2052650066735874e-06
0
3.2760167077346975e-11
0
0
-0.0017157972513649972
5.5488752573604137e-05
0.00055423135716632264
9.445949653350535e-05
5.1624218036031605e-05
-0.0016288451446593551
0
0
-0.0014442226806747611
0.0020787705742971981
-5.8593276653944016e-05
0
-0.012791180556152524
0.019195816040252073
-0.0066479072414002797
5.4452352582504445e-05
0
-0.010138179725795751
0.0014533316304457394
0
0.0032559808369607241
0.0043321720793636316
3.6920620916193289e-06
-0.0086970679492231265
0
0
0.0029064037457319867
-3.2628022948284698e-05
0
-0.080045457402315334
-0.045652449292941613
-5.4060297190659676e-05
-0.0035015233632824361
-3.6885193828622184e-08
3.2633889187084027e-05
0.0062673900416714565
0.010908499312200571
0.002196186605592892
0
2.1253247471393139e-08
-3.5390576095346449e-07
0.012912772210359256
-0.0020468215688200461
0.0045913737963625134
0.001256293277544172
-0.00013372310014037877
7.0057106119943152e-05
0.0098042553658697698
0.029631971055393322
0.0018131246893639719
0.0016764825696096745
-1.3254728641432749e-06
0.0003071579648719869
0
0.0012686144761895099
-0.023050162434616595
-0.0012660779981374462
0.00012745699676042032
0
0.0068271691461434924
0.00056012240628382334
0.0024516876574115654
0.0016301407156324359
-0.014982574223972847
0
-0.00027878144610791371
-0.0013108797959990629
-0.00023119378887751399
-0.011502488091609546
0.00025464962886225786
6.0470873093357178e-06
0.028340188986705508
0.0012938760585308757
-0.00072228799720578567
-0.00066167613651862338
0.00075288524351622499
7.5789894664881556e-06
-0.0034322751576306839
0.017218276228486599
0.0013551746727882678
-0.014982677199284979
-0.0028838674794508805
0
0
0.0027278174623070559
0.0035373183712717813
0.0031703363713220982
-0.00086805187806702675
0
-8.1167119378459975e-05
-0.086326295502989314
0
-0.0043703687480605687
0.0066786828493530202
0
-0.019298013197802177
3.1322772012534056e-05
0.0091139809992639778
-0.0082604416113734886
0.014737071502558629
0
-0.011641763483480307
-0.010544107224401196
0.01567852447257919
0.0034357112483352908
-9.466728669901668e-05
0.0005183581485722654
0.034412392666061595
0.025029310738137182
-9.7290216762440681e-06
-0.032120311372642173
-3.2379035726523697e-09
0
0.00055940578478717656
-0.0021884830241275114
0
6.7963233246318948e-07
-0.0002774348234813582
0
0.00090324458261617523
-0.0010784502235627194
0
2.0550085246180599e-07
-0.00010325389955366254
0
-0.00015081997333886985
5.0447461814715897e-05
-2.7622294551639109e-05
0.0032227997403656132
-7.3770767725636226e-06
0
-0.00015624629186608015
0.0029714203398391883
5.8060620295262374e-06
0.00095238172547621033
8.921114592789962e-06
0
-0.0001680443745138206
-0.00021069234428018141
0
-4.1452249980660767e-05
-9.4650497011757593e-05
1.4885901474017825e-08
0
0.00064136399778725131
-8.1075689311972297e-07
0
-1.9557174204936916e-05
5.7539945159930484e-10
-0.001794151800355473
1.3525007033230597e-06
-0.0024932274609904591
-0.00029520539428910092
-3.7417214257945483e-05
0
-2.9083159120411877e-05
0.00077077855520500541
-5.4473349503200136e-05
0
1.6166962212976161e-08
-1.4003779741146103e-07
-0.00037573066269927985
0.0003074839302346185
-1.758758222373193e-05
-5.0270366801439113e-07
-9.2455438313234627e-09
0
-0.0017367794462000768
0
0
0
-1.0821971984570883e-08
0
-0.00069851779607338956
-0.0031830776905049998
0.00035314576538832923
-9.0753512491528331e-05
-1.0900944605534535e-07
0
3.5770166662712373e-08
0.00059469834937627298
3.2269233012938817e-05
0
-7.0512692765034701e-05
0
0
0.00011403574119646518
-1.5310968267964303e-05
-1.4102561757365379e-06
-1.2450453333499771e-07
0
2.1105343443021495e-05
-0.00012741644187386377
2.326186911371487e-06
-1.295806258614951e-06
-6.7693342600519173e-07
0
-2.1067614328282103e-06
1.4285325171669647e-05
-1.8232114185754658e-06
-4.5542207127960893e-05
-9.8172255165155996e-10
0
0
0.00028317512257911102
0
0
-3.8239174276113511e-09
0
0.0001848702912256446
-0.00066590004457380253
-2.1708041078797996e-05
-1.4226533653831085e-05
-1.6692761861303074e-05
0
1.2026878944777558e-07
0.0019596005453912896
-3.8084477249220717e-05
-6.7149509140088103e-07
-4.190419794343678e-08
-8.0441950761869612e-08
-2.8533366822089291e-05
0.00022307199495486969
0
0
-0.00025219200223753832
-5.5700198955136301e-08
-0.00020142396203203482
-3.0388814060767541e-05
0
0
-6.53116373325912e-06
0
0.00036731998418345843
-0.0010493886441225854
0.00049671622647291726
-0.00057133906707318503
-0.00024514356228091629
0
0
0.00037036865441081844
7.7996551390353315e-06
0
-3.8604411038145705e-06
0
-7.6528950109219446e-05
0.00010404674607044635
-0.00026898828026379514
0
-3.7812478868942349e-08
0
-1.2660749509799886e-05
0
5.4483315556534726e-06
-1.2226642400169504e-06
-8.3381045259356003e-05
0
0
0.00025764875305685827
0
-8.0499745791654232e-06
-0.001494656928252136
0
-2.8199265789823874e-10
0.0015248727663297996
0
-1.0131245938281518e-05
-2.0316711421545428e-08
0
0
0
-2.233127536824987e-06
-9.7586292089062042e-07
7.3306821184055968e-05
0
0
-2.9646018532001969e-06
1.8076739956501333e-05
0
9.8485160847123221e-05
0
3.8020583331691956e-07
3.5560192004042492e-05
0
0
-5.7567650087166227e-06
0
0.00015000898088369052
0
1.3303101355779645e-06
3.6849920710049541e-05
-1.7649977009084721e-07
-0.0039708049281365222
-0.13537304986028451
-0.012126722724768564
-0.075051287705083139
0.0082210348603993597
0.00024213067930640522
0
0.0035772725597859535
0
0.0090553531169524758
-0.27800805427251846
-1.2575184287972074e-08
0.024327879544920255
0.1395776182880058
7.4456503818854129e-06
-0.01798701173368784
0.0072914070775173621
-0.050043845639480507
0.012026147698755572
0
0.12110314087954313
-0.10707467031504472
-0.18859664862426886
2.1987645207352121e-08
-5.8314321251000578e-05
0
0.0040985155886564643
-1.9872754683889622e-05
0.010003675036623551
-5.1202127733460343e-09
1.08383707127881e-06
0.10311409875615547
-0.0036675711426251562
-0.010016120225710514
-0.014420232060745081
-1.389228132264432e-11
0.0018670252087140352
0.0099086378051283005
-0.00025435510884528543
-0.0011947165173787251
-0.093930162140824655
-3.3611435452838719e-05
-0.00010857642355636156
-0.050326849527836344
-0.0061867502094488424
-0.0014714260734451686
-0.026793359407940368
0.0050683417395167895
0.012605683029781222
-0.0081791505758263619
-0.0049548101771905509
0.017272501905933803
-3.8913808080953902e-05
-2.052475357097531e-05
-0.001982275258180061
-0.030642106064291321
-0.0037371450718822795
0.0013424828464639713
-0.00047089784720330563
-0.0019054172337293245
0.0037931680292016602
-0.0068954669252175279
-0.0099630160818149505
-0.014096195379524806
-0.011381029117459066
-0.003270720306815108
-0.00098411705973660006
-0.18067996056925853
-0.29540777935163515
-0.011281413155923356
0.0092972187678209053
-0.00086016155272220559
0.00045156412440546927
6.9800643604579085e-05
0.00079890745471825324
-0.0009598053180590448
-0.0030674599745134997
-0.018934100253898307
0.025873737805309591
0.00049020201478845488
0.044787019082271881
-4.9565860474922283e-05
0.0069874363060914652
-1.2822613485735411e-07
-8.3728797628613679e-05
0.01434941673572152
-0.03903986039563901
-0.45712352588996341
-0.10666321015371505
0.023595435280163002
0.01593807546197264
0.00041673283212835012
0.013492796485145734
0.047113386707051536
0.0017103355728639493
-0.0023622187965979375
-0.0074593100384326289
0
0.0086839987081852796
-0.11590118006064963
-0.11721037195335732
-9.8266388061422037e-05
0.040363646285098073
2.4147413298425117e-05
-0.0017209373400151023
0.051458051725653209
-0.022117351568211808
-0.0030872942126593463
0.0025172665180466518
0.040671960642124166
0.037053709814184266
0
-0.005913690857871262
-0.00020184542046822066
-0.0011089752037406067
-7.3958296265718981e-06
-0.079618863873923335
-0.66964680339873439
0.14729002841721295
-2.1700015318307769e-08
0.00059863399983959339
0.005163282523153837
0.013855921833917472
-0.00083062410668357774
-6.2590686733591754e-05
0.0055279352443937252
-8.3733419917107657e-05
0.73018821658053445
0.00023212946654796191
0.24689820493205999
0.0023227871101015774
-0.00018297543027055992
-0.0068814289396159746
0.0015981539782738106
-0.078677717279281162
-0.03634497486580552
-0.018539815184329577
6.9758539631658396e-11
1.8799826306656041e-05
0.0098834978515937762
0.56477561649851671
0.29156975377420996
-0.0074524708934042257
-0.00029386364705160322
-0.010805857767067712
0.0027537300197558283
0.0014090795981487332
-0.0021998139878006318
0.00030646966599592179
4.1551201765867213e-05
-0.15467181469112876
0.001867368441323243
0.071876129222926521
-0.11012838879268251
-0.045430171434454013
0.036123857092338861
-0.0092595416057280472
-0.0029613334788444845
-0.026540645007834963
0.010042347238033397
0
-3.7319524194285349e-05
0.00010628370103242902
0.0088628975275902473
0.064937466581375447
-0.0003472437370623086
0.042316775805410434
-1.566550948961356e-08
0.00018162747843638509
-0.017767884593827766
-0.14838645041288037
0.036957747049281724
0.091960581883933565
5.6544433420600211e-09
0.008388227138265229
-0.23387262986527077
-0.0048792938447301338
0.30821067974827521
-1.7980252469241728e-05
-0.00091489698371308376
0.024870019479241261
0.0015234502012492345
0.0030622646604464439
-0.29008820377313976
5.9891763769596757e-06
-0.0019715038247157838
0.0032113673605285355
0.016044724958769987
0.047256087919371442
-7.6775705377739663e-06
-0.055633955650697918
7.8515160328058782e-07
-0.00061516173180536915
-0.071496741660694987
-0.14766054966537345
-0.011473607843483809
0.0015450567729576137
-1.8157833104203784e-07
0.001015238358528773
0.11441343780431716
-1.262859101442096e-05
-0.0090068379378091413
-0.00045490365770944072
-0.00010076512907522203
4.5581858086876656e-05
-0.027741769321782697
-0.011286949389516231
-0.076088152043320534
-0.0060407931974038355
4.6507449854923559e-06
6.6347056628254014e-05
-0.075272739466399216
-0.062883166539903917
-0.22224719247398969
0.044696446501592657
0.0001231217460615277
-0.0018862248340258036
-0.012468230473536913
-0.006900631550911876
0.01292550655846161
-0.0027042394504350688
-5.5336201402203244e-05
0.0042863679576342247
0.18069255331408118
0.18418833537180068
0.047859412718166031
-0.054773513692775909
-1.9242551452060527e-11
0.00079563294064801087
-0.15462698367062822
0.0013707411166745582
-0.075168510492961901
0.07959085233874659
0.00022463977710814994
-0.0014182274767511368
-0.06906109892523693
0
-0.074682244784644858
0.02307524427199293
0.007055149519700871
-8.2892366561483758e-06
0
-0.033225072865980095
0.020452270051277498
-0.097518791633865828
-0.076647955776509388
0.0079529568111163709
0.068624553006996034
0.009371910569022689
-0.047675411508784883
0.011432407166618573
-0.0029674432679055243
-0.042949523487569856
-0.01661241243434769
-0.19161829178129652
0
-0.034089605022762884
2.5671497152381964e-05
0.033282592117550365
-0.039217834676757587
-0.020228239696145567
1.7062308378464207e-05
0.0098801583839019397
-1.2197104716608909e-07
-3.0938885436343089e-05
-0.010339719178498422
-0.013572791999626141
-0.0022745940745369812
0
0.057024283922552543
-0.002968894787242419
0.013036977498013197
0.0098638162411809026
0.010022402663709918
0.00037511811446330187
-0.00023107834288217088
3.6055424434136972e-06
0.011833149880640898
0.05574945568184473
-0.11025930830691148
-0.01639807128542117
0.077817181129884519
0.001834256752329222
0.1213452874545998
0.0076858005696458613
0.019804172334893615
0.0029704353968832654
6.5694375552403586e-05
-0.00017774278441377075
-0.15961876031045646
-0.0028521830909287831
0.0011315772404065338
-0.10337280840131981
0.029116602186815964
0
-6.9160583497007868e-05
-0.0019984492460579737
3.1481056875084204e-05
-0.012309674726725001
-0.0025252517813141137
0.012644526762429671
0.099204875504496415
0.00043092248184760986
-0.00063697916017309568
-0.005275445333832879
0.0013198770587576414
-0.0040844265766746832
-0.0037756541363518155
-0.020130076769964585
0.0019456023995824596
0.019348585965178147
-0.010584605518678836
0
-0.10549501300714774
-0.0062861387696981031
-0.11918556630145696
0.0037691965204878128
0.00037324776403472085
0
-1.710150391485764e-05
-0.066844816208175895
0.016414181614345314
-0.0095601059669429087
-0.0052155412340669271
0.0084509705305438627
0.0088515278600401117
0.27733235791065919
0.0052832302203706443
0.00066682804106501148
0.0024045819990821367
-0.034139209987977905
-0.037645250766261733
-0.0098254444539787565
-0.030451320373788802
0.0045637296448960869
4.2491351571796229e-05
0.00081848262021337343
0.090121181294017166
0.029705112414950566
2.6880439812944622e-05
-0.10933026447974027
1.1092968533997716e-09
0
-0.0011707569865137249
0.0019638621597505394
0
-3.4488329075640389e-07
1.0877802257018797e-09
0
0.0004655426565215672
0.0017335046109343863
0
4.7361041913110086e-08
5.346012169033599e-05
0
-0.00036083881560609746
8.6535660145092559e-05
0
-7.5940585841999493e-06
3.8400985829658649e-06
0
-0.00040563963160192431
2.0802499007953753e-07
-3.2423626945874242e-06
0
1.5454961482088419e-05
0
-0.00013190400073285227
-0.00033804021082152014
0
0
2.0726256186776699e-05
0
0
-0.00091697851646154653
1.6421306733757468e-08
0
-1.9181291025244012e-05
2.7816639099885857e-10
-1.2463224949750175e-05
1.6644544169762192e-06
0
-1.6908601008594414e-07
6.351332284505529e-06
0
-8.8377198222067576e-06
3.5042610173729262e-06
0
0
-4.5653101219546269e-08
0
0.00041443712887070922
-0.00014304924402867085
0
5.4163666405264336e-07
-1.192472115194968e-07
0
0
0
0
0
-1.4427496569795699e-08
0
-0.00069851779607338956
0.0010749537344013848
-4.3975088350934164e-07
0
-4.5455832266825622e-08
0
8.6758343299562197e-09
0.00054427434017074723
1.0744830063185357e-06
0
2.774008370733836e-06
0
0
0.00031335109406955565
0
9.6553707819995265e-07
-1.2523494362639397e-07
0
-0.00026275246336038044
0.00026117085252987522
-1.8121100440388218e-06
2.5227244590585573e-07
3.1447273815816965e-07
0
-1.3110494385702795e-05
3.6622383536195059e-06
0
3.636535006926227e-07
-1.3767943565847164e-09
0
-0.0018448289729722637
-0.00054205128428026458
0
0
-3.9725818477568057e-08
0
-0.0001848702912256446
0.00024059823455032284
5.3163150766440918e-08
0
-6.7612202769663282e-06
0
8.9354474134794315e-08
-4.7405255505738431e-05
0
1.1679765041630593e-07
-1.9978323968205513e-07
0
-0.0011902955331720244
-0.0004601867917754473
0
0
-2.7091111283137601e-05
0
-0.00015472817072595345
4.0263721408153149e-05
0
0
8.0131998723723745e-07
0
-0.00036731998418345843
0
0
3.5855267565694019e-08
1.2835859528277097e-12
0
0
-0.0011345443989252526
0
0
-6.2781760691606896e-06
0
4.7877965829761541e-05
-8.5634254852226589e-05
0
0
-3.3781172422370355e-09
0
1.4803449802827167e-05
0
0
9.0768966297858372e-07
5.8236452277069036e-16
0
0
-0.00033199308065570552
0
2.184396591934156e-06
2.5079070056369591e-08
0
1.0895317683571203e-09
-0.0010793961758191919
0
0
-4.7638733835009379e-09
0
0.00063722160652848942
0
-4.5431246489468923e-07
-9.2902539487694986e-07
-1.6838895913792576e-08
0
0
-0.0002277527037403439
-1.5661982283900278e-07
0
-5.9631625379121798e-06
0
-3.8858246024332076e-06
-5.3913514345524414e-05
0
0
-2.8950881554717837e-06
0
0.00015881673127743422
0
0
-4.2369336516508765e-05
-1.0472465606823277e-07
0
-0.058630363711246247
0.0024410338469822925
-0.0031400668171841974
-0.002885690147731464
-0.00044862432776124946
0
0.014393873702750489
0
-0.0029673703264475127
0
-1.5107267768810536e-08
0
0.012850351763740463
-6.6751987527898173e-06
0.0002494158492568233
0.0025849713801227464
1.763016854272805e-09
0
0
0.10539102339708416
4.1315635457784652e-05
-0.00037028566847816864
-2.2381409776131371e-08
0
0
-0.009648463361535799
-5.8366504163031706e-05
0.0060636197899491462
-3.7800463471700568e-09
4.2832235336031884e-07
0.024289196334564358
-0.032231716230264398
-0.0057865966519997534
-0.0090267946724635843
9.3850676129278107e-12
-1.134140596272674e-06
0.002230105940319937
0.0006089518608103176
0.00025320349115358847
-0.016854268363614512
-2.1998097299252847e-08
4.8385979382802788e-05
0
0.00030171521049748655
0.00094512392434607383
0.0099233610252613368
-0.0048485912729300147
0
0.0077760962736476954
0.0089816268096453971
-0.026078912947213588
-1.6211170343300613e-05
6.2674964885373273e-07
0
-0.046777052998376839
-0.004948365108216079
-0.012020568760406017
-0.00045988606117745992
-0.00029900194642459887
0
-0.035048882975617354
-0.013559180931788125
-0.0064954951454137553
0.0012749574381744136
-0.0016303470997922687
3.3969354000088106e-05
0.0065379827848636605
-0.087423592421502369
-0.0042891786432312489
-0.00054585997839601795
-0.00078891465946188423
0.00014652434102218137
-3.4080198210831631e-05
-0.0002624468875922851
-0.0021860984289768992
-0.0018194656750204045
-0.0077093911541197165
0
5.132037378586671e-05
0.026962647079041693
-0.0006895874581996248
0.0022716562570850121
1.6202552904043458e-08
1.1238336224200174e-05
0.022724850750446786
-0.011186560995073813
0
-0.00074913109121656435
-0.0028602330825398445
0
-0.0018701704094139741
-0.003933816969240697
0
-0.00038812792796416178
-0.0009439315335318351
0
0
-0.043020140612769486
0
-0.0073891630536843788
3.7048734664859826e-05
0
-9.1816152714587024e-07
0.031699710935619331
0.014246887600708079
0.0063571128423705161
-1.3552902059309007e-05
0
-0.00017399922316700363
0.011339077044569067
0
0.00070506940936005422
0.00015286532276659114
5.7351041648017902e-06
1.9740931292438973e-05
0.034327057741903401
0.00045540528430523727
0
8.2202650588974565e-08
0
0.0055697783635260652
-0.0049736331213378815
0.00046202565864877519
0.0004948652146980942
-0.0020318462047108033
6.7500602897118189e-05
-3.890518836487402e-05
0.00018605735700199047
-1.7676504205125092e-05
-0.0028273030244315481
-0.00018376828139901979
0
0.015467819288637502
-0.020863509315094935
-0.00019347685716914815
0.010072990410578873
-3.9779420961368441e-11
3.1999160672695704e-06
0.0035846665357847193
-0.0010651787249706308
0
0.00084548990808991137
-0.00066406364560233386
-7.2869434197644822e-05
-0.0049858313925775655
-0.0029179472462504746
0.0012713247472178812
-0.00020668634940693373
-0.00014404325199544394
0
0.0079037732790264072
0.008516378137460659
-0.00070860002129340908
-6.1905887628117191e-05
-9.2879294451011963e-06
0
-0.0034231339724150505
-0.021379031741088805
0.0022437190837306825
0
-0.00013866844851421906
0.00010831905012100453
0.00043852888777030295
0.018489580388059989
-0.0032788941498662705
-0.01414008901990582
-1.3458021917367183e-09
0
0.0089561798893141153
0
0.0117479940346789
0.024381579638644957
1.6327746497982171e-09
0
0
0.0020828800021302704
0
-2.1807587946770191e-05
0.00011263036435817835
-1.4352660850095171e-05
0.0010769705350988632
0.018118681478424357
0
1.6302136459641154e-05
-8.286451876553396e-05
3.6780581777453405e-06
0.015342865639646099
0.037121103395180245
-2.4557001334184584e-06
-0.00049759338711731266
-5.5716801927712014e-07
0
0.047582991310509401
0.013884465408880657
-0.0061393150563465917
0.00072838363062484855
9.9200011082331697e-08
0
0
2.7742553936890101e-05
-0.00061634807859785898
0.0013856185738171565
0.00044604014992289775
-1.8280785747255036e-05
-0.021803261526621719
-0.010916575171701567
6.5208716286682897e-05
0
-2.771943360386088e-06
-1.4498179738376781e-06
0.015776744513805549
-0.039568651951810939
0
0.0060622514283827479
-6.277407625006722e-05
3.034595748942834e-06
0.025909893515826423
0.017434624948380752
-3.7165723413595006e-05
-0.0064226970691137232
0.00010732768187684565
3.1748987473487413e-06
0
0.058952044652034415
-3.5250694158493861e-07
0
-8.3013278479646095e-12
0
-0.084455697776832067
-0.0027671616964883615
5.5488752573604137e-05
0.00055423135716632264
9.5088647994061914e-05
-2.2772189947357442e-05
-0.037287682432144253
0
0
0.00022711250947037663
-0.00028748276245848294
1.1589236030877813e-05
0
-0.013670676841176701
0.012014088869751733
-0.0014456577993560069
4.3698052627114798e-05
0
0.014747271233323509
0.0057131869076932039
0
0.0032118862461413614
0.0012448608899375661
8.2426845094906336e-07
0.0061770112025782828
0
0
-0.0002659785013476465
-1.5780250655305646e-05
0
0.016749809778146888
-0.018609412281569551
-3.5191359890729369e-05
0.0032362839464877978
3.3590998281205865e-08
-2.6461652778973928e-05
-0.0109861192154016
-0.023375060943906869
-0.00017823321804461283
0
1.4028017484009407e-09
-1.4343522188737135e-07
0.0055299465113783867
-0.0041707081117236039
0.005681847439094341
0.0011188594061783959
-5.7057747678980129e-05
-7.0057106119943152e-05
-0.013866099004930434
-0.029631971055393322
0
-0.0024134352027435973
-1.2888568877020972e-06
1.1318260125263391e-05
0.065161922606972997
0.0067809462552986793
0.018060009680712957
-0.00026421807284910032
-2.9983273167327789e-05
0
-0.024419939257123952
0.0013428180851725703
-0.0013561925129061945
1.7289045561078791e-05
-0.0073640818808772763
0
0.0001600161705291351
0.00021506605961329448
-0.00023506939160581
-0.011628214199637174
-0.001329506613462065
1.5856414530156374e-05
-0.010578399922919101
-0.00056679114256834621
-0.0012793477214436382
0.0018242952095443876
0.00081948592752528521
2.7592539598010263e-06
0.01163574058388249
-0.0034625892191382395
0.0024490775281248637
-0.0067424173391005052
-0.0052271591435570112
0
-0.031188281565473305
-0.0086220894228586607
-0.00012009908936467631
-0.00057082882267364677
-0.00016891907623447369
0
4.3674376499131624e-05
0
-0.0056709432780426231
-0.0022827206358279352
-0.0012305178814502821
0
0.0038582346061611303
0.00010909393982390579
0.014581790461267563
-0.0027964749676531349
-0.0050044922784437925
0
0.051047603958716763
0.012731764025420179
0.0071225692333978814
0.0022272322638875177
0.00010392320484203959
1.0915415067599878e-05
-0.018586178279348647
0.0047974649980326092
3.095955389628014e-05
0
-1.139555985072523e-09
0
0.002568205385051028
0.0058293206229369171
0
1.0209505012655342e-06
0.00059552586264583049
0
0.0032842066415061785
-0.00018317303801708559
0
5.9429083281296226e-08
0.00011357763855358924
0
-0.00036083881560609746
-1.2796724211080873e-05
7.3334854668978994e-05
0.0025513896584937394
8.823955612621347e-06
0
0.028312624348040293
0.0063281381077748451
0.00019186570647049917
0
-2.381199176565731e-05
6.8730200041393084e-07
-0.00013480426071597884
7.7535001778961414e-05
0
-2.0516829202990828e-05
7.1586165400101657e-05
1.0303768317644651e-07
0
0.00037271804748855185
-8.1075689311972297e-07
0
-8.2401689964725638e-05
-7.2247156350491957e-10
0.0011702491629744011
-5.0260473079670455e-07
0
-0.0017024644825791094
5.842709568523269e-06
0
0.025749896395280275
0.00024804896627055132
0
0
-1.4045375630420285e-08
0
-0.00035060967243399904
0.029833461173943983
-1.758758222373193e-05
-1.5739849980154627e-07
-9.5349552730174525e-09
0
0.00028463059404745155
0
0
0
4.0808677328825282e-09
0
-0.0033363286244437827
-0.0076210428426625775
-6.3651864245037804e-07
0.00018808293656593324
5.8215458114147969e-08
0
1.4194624388382518e-08
-0.0017129537007564053
2.7323158019344049e-05
0
-3.516846397160699e-05
0
0.019321790800461345
1.31568189031329e-05
-4.8730331833671722e-05
-4.7623436519697405e-07
-7.0665106922792148e-08
0
-0.00015487510647145677
9.3991376493643772e-05
9.0563368006385384e-08
-1.6634852905838285e-06
-3.2534987732156141e-07
-2.7308146879916795e-07
-0.0079795846882911026
-1.4129486018781276e-05
-2.5705173361421114e-06
-4.5152967536211811e-05
-1.824893299316436e-09
0
-0.0060388943083776962
-0.0014339051593599344
-5.5999866932152819e-05
0
-2.7041576958848114e-08
0
-0.0001848702912256446
-0.00059119437088148228
2.1601714777265115e-05
1.7601103523585058e-06
-1.593631615487913e-05
0
-0.0033933829020742589
-0.0038683531280302792
1.9246260838729927e-05
-3.0429169789569182e-06
-1.3124525432333392e-07
1.2420319846558904e-07
0.0044618080382170227
-0.0019468443671892212
0
0
-0.00018357403358031988
-9.6916523052112151e-08
-0.0051277212709587381
-4.1776766281067646e-05
0
0
-3.0591690972831787e-06
0
-0.0003515315062356969
0
6.2821881091413517e-06
-0.00024536316792902649
1.1026352647327766e-05
0
0
-0.0023975600093769866
7.7996551390353315e-06
-6.4093744567767235e-05
-8.8113434970973524e-06
0
-7.6528950109219446e-05
-6.3647113266411857e-05
-0.00012140967024117047
0
2.7067796215147083e-09
0
0.00096261765195629345
0
-1.6283530833262166e-06
4.67272861177171e-07
-1.1528039670112187e-05
0
0
6.242809859167056e-05
0
1.7791722580657126e-06
-1.0854711732209648e-09
0
4.7514299430103598e-09
-0.00095526943856689571
0
0
-4.2142287887502451e-09
0
0
0
0.00013195876647135595
-2.8887077013238388e-06
-0.00011291280306733879
0
0
5.1845563223431987e-05
0.00013423395669682887
0
-9.7225298550939848e-05
0
7.5451360382700786e-07
1.5762993752425024e-05
0
0
-3.1477472628786756e-06
0
0.00035666227976256565
0
-1.3303101355779645e-06
-2.5292923755034869e-05
-5.7658262232958032e-08
-0.001623205967820789
0.062602171647596058
-0.0055042531435750752
-0.0066196836032908117
-0.015116308457093797
-0.0012080542803714705
0
-0.034861832004321303
-0.054397923543368414
-0.0099099173707610823
0
-4.7031264371563421e-08
0.0020822485264926516
0.048198212421494746
6.0957240685670559e-06
-0.048376422760035065
-0.016059903702681608
-0.024076273175396613
0.00011377861027632682
0
0.097372872736960964
-0.050539790761263137
-0.00061937986200026303
3.3676843985771171e-08
-0.00019155282122851542
0
0.0078352634455545207
1.0463646802830758e-05
-0.029407709904948353
-1.3612632917392332e-08
4.2265515639495758e-05
-0.0046476451307936456
-0.026462246491366265
0.00060006809897269727
0.00014496033853878836
-6.3130133765997058e-12
-3.1860844745220561e-05
-0.0042799482416043672
-0.013936743880061006
-0.00079704705349000133
-0.003071303591436962
9.846837413689531e-06
5.9782822543559531e-06
0
-0.00097892483074231993
0.0014044065301497247
-0.06015955165389273
0.0070186300197401571
0.0065759652926578351
0.021837208799194652
0.0061917776798197308
-0.010671843177009982
4.499188927967353e-05
-6.1830627517693797e-06
-0.0039995985270540064
-0.17806670885681258
-0.0050354634439688873
-0.048981852979371528
-0.00020768879124327983
-0.0015109728752338999
0.00059393847834463259
0.037836862303064808
0.0091253819133804651
-0.018138621973041478
-0.01130563195192566
-0.0037044380339281767
-0.00098298695404757655
-0.012860671806281167
-0.022745460687623183
-0.0094694003059434331
-0.0043459719356456952
0.0010364732957285226
-0.00077142249389657188
5.0831795104641417e-05
0.0023175798962274449
-0.0077520509673518687
0.0018302487215333377
-0.012663174504738989
-0.00090033461776794772
0.00031788318904984016
0.031241678222070558
-0.0014874589482613042
0.007140864359086424
-1.3816843639107198e-07
0.00010168167783351928
0.079926488830453155
0.019385323901660381
-0.070328349797372083
-0.067856899693295683
0.0030079819128705212
0
-0.00051710407171448776
-0.023952168622146299
0.027897501044439346
0.0052065354440538033
-0.00061726880526392371
0.0026320221352795986
0
-0.037409661049475365
0.0014350636361075201
-1.5114033271267436e-09
-9.9783399568137031e-05
0
2.7448235547986585e-05
0.057525276651980296
-0.070811353107080213
0.0028091160110594042
-0.0013203154462840764
-0.0016833793124512789
-0.019920507060348216
-0.02634772981944292
0
-0.0052740096664046559
-0.00027569602014814154
-0.00073522619841665925
-3.031328230682209e-06
0.067283805157883306
-0.38783632038242871
-0.024874893921596117
-1.7435079969929244e-07
0.0002300262100904885
0.0046527416314724995
0.0072265252623356134
-0.00072444342192680845
0.00097343915612966875
0.0075605946976676532
-0.00021873462571134406
9.7543259016386889e-06
-0.00029815041803102083
0.010955205889319072
0.0075439674634849123
0.00018760900171237488
-0.0061057928910447897
0.00028758922893804299
-0.00088899219381259717
0.065033173643642181
0.012899269899789767
9.2666286242202364e-11
-1.1193893210641335e-05
0.0012119971293146105
0.00019771862998468415
0
0.0069467057999655626
0.0028247370756107723
9.5526010602738204e-05
-0.0063034193752580549
-0.003524184268223267
0.0020609273356181667
0.00031782473653444538
0.00020069719869670436
0
0.019798763613738019
0.11832735164867686
0.12321996846351517
0.077530740677889981
0.024188237774811553
0
-0.0025372429332399479
-0.039324609800888352
0.016929795827128825
0
-6.6772319025519859e-05
-0.00022446141636745233
0.0064687268600737849
0.024121007210747725
0.0074126716393059736
0.028333110103774067
-2.3464715456652625e-08
0.00031727765624156579
0.043333941488594756
0.20655749934819662
-0.058804679160105511
-0.021963027376906051
-3.6402543454764783e-09
-0.0022846429438862013
0
-0.0017352512980591222
-0.019922759646291328
-3.3416094135062171e-07
0.0001339025081308817
-0.00024570634495689448
-0.00014022465414043081
0.00092656094321906914
0
1.5851414151800932e-06
0.0030953287119680787
0.0011352629270211419
-0.023839023384464381
-0.063410779980934348
-2.442516142418805e-05
-0.055322288210637345
8.1497316296661227e-07
-0.00099460980045440288
-0.014602240430400497
-0.13500535512037037
0.038816976179909778
0.00091346136897599935
-6.0912024946323257e-07
0
0.21294217936295556
4.2181388818975241e-05
-0.00014677699900261494
-7.1615773538276725e-05
0.0010540084856074921
6.1656402841966484e-05
-0.036413659593560598
0.0046466997929272506
-0.076199645944661998
-0.00051326559149211847
3.7907468209109229e-06
2.8257092593922981e-05
0.033973096393424766
0.05616942374038851
0.0026509970733606452
-0.011695538962369962
0.00012865072261680199
-0.00029639485187868408
-0.063162029054201069
-0.25931796315249073
-0.033452877471866239
0.011964629159714454
-0.00011317020431094891
0.0048595657138047034
0.11376115095344433
0.064792088216855143
-3.5250694158493861e-07
-0.059888598046295725
3.9444089851787955e-12
0
-0.16212211230282755
-0.039474166842251919
-0.071061603603558052
-0.0047483086248626951
-0.00031001284476279913
-0.00028110346847300669
0.06906109892523693
0
0
0.0030754405049469653
0.017850583752663997
-6.779153126128689e-05
-0.16770164951290853
-0.0077397763279067689
0.017151083997758183
0.094271905915372586
-3.0681594232103092e-05
-0.0015504820698728837
0.039789304740539551
0.0086925131886125447
0.056807203040568813
0.0080082053042798019
-0.0019879453064984274
-2.7585330849516975e-06
0.0018782113912073875
0.19161829178129652
0
-0.080282610932398316
2.5463075443308237e-05
0.00053532493322055205
0.10559823107567728
0.055311900647699475
5.4060297190659676e-05
0.013143663368960033
-9.7166797602187265e-08
5.5658400092770153e-06
-0.0014222369679888817
-0.016152965540812875
-0.002196186605592892
0
2.9290254090277822e-09
0.0011416943399384905
-0.002744551333840503
0.0075449722978724737
-0.030256534098444612
0.00047026966023373481
1.2308264937663182e-05
-0.00014744476755126803
0.010805819241571131
0.072940321560730409
-0.020624246482336232
-0.010929833877612358
0.027210063435089544
-0.0016277150545918456
-0.052662493592696979
-0.0015849794363283467
0.03568320778476837
-0.00095389084487070431
3.7524699050699164e-05
-7.0485329160275574e-05
0.016559410688423482
-0.00044632984638526279
-0.0002386927444370951
0.014715915998960832
0.035149553785910233
0
2.2449271070016712e-05
0.00035718281533041716
0.00053789915448822234
-0.0073778743204738571
0.00096301580668065609
-0.010875568709282924
-0.0034662525762063842
-0.00088373082890628942
0.00082041005402903433
0.00063497494239446255
3.1110079713956205e-05
-5.0073357158918224e-05
-0.0074688522907731258
-0.10736202773212297
0.0011816796749742398
-0.034410550379119803
-0.010873220111188124
0
-0.10549501300714774
-0.0034319010529075024
-0.015341629009393957
0.0037999130091733676
-0.0001224669453003865
0
1.2587695092215377e-05
-0.06935159127775585
0
0.0020933934397211829
-0.0018806042468304718
0
0.0030496104525974451
-0.12647700878002305
-0.012380058162960093
-0.026798140366460253
0.0029667960325899683
0
-0.011641763483480307
-0.0075951342223423901
0.0093536063754697894
0.002278803606871323
-7.8623265336701228e-05
0.00058696617028718709
-0.034412392666061595
-0.013738530091016717
-1.9987965994220074e-05
-0.054618949298371557
6.8688167439538512e-09
0
0.00059767115294266724
-0.0090678935565364199
0.00023019831710300426
0.00065378554005934137
0.00051054991895080326
0
-0.0051407298634574593
-0.0027075693879396712
0
-2.4412286618949881e-07
0.00025700609076715957
0
-2.9684015751029857e-05
-8.256757281137583e-05
6.5761282433370022e-05
-1.5673000117737072e-05
-1.4640611896014847e-05
0
-0.00239937148210689
-0.0077678146178878941
-3.7206667601891889e-05
0
-5.6109335395431054e-05
2.704276063767609e-06
-6.7090726802349868e-05
-0.00014738157339587966
0
0.0016814277657685327
-0.00017659867275057951
-2.0086514605718446e-08
0
-3.1464954060793701e-05
2.7733514474062759e-07
0
-3.7618474673879512e-05
1.1932255572271251e-05
-0.0030665140431732209
-5.5334293700704004e-08
-0.00091569306976483646
-0.00050490735390847606
1.8054394788897882e-05
0
-0.025765885593163833
-0.0024745496435254403
0.00010306789296839874
0
4.8861057315850041e-08
2.8128526407993352e-07
-0.0064161365476894791
-0.00041680387731817415
2.6453125647120721e-05
-5.8056966009089558e-07
8.740671418282836e-08
0
0.001450694941149942
0
0
0
5.823136922771293e-09
-2.0841511171427184e-07
-0.0004448397211089198
-0.012425539381210424
0.00027481221778227516
1.9175544403800684e-05
6.8410686593641534e-08
0
9.5737333399091216e-09
0.0011391036582288111
-3.3490919458461069e-05
0
1.5043104780141969e-05
0
0.019321790800461345
-8.0325369923432328e-05
-0.00025467765382506232
-0.00023238457197918841
1.0588743578001213e-08
0
1.7132798448771009e-05
-0.00011104051286229905
1.7241413517867256e-06
-3.4704175795533745e-08
6.7693342600519173e-07
-7.1856971056920637e-07
-0.0079880333399551771
3.4922007869398617e-06
-3.6981558446947076e-06
-0.00012565415539924501
8.0389231440750167e-10
0
-0.0060388943083776962
0.00058510876157854847
-1.0050840650795649e-05
0
3.5748711615150553e-08
0
-0.0001848702912256446
0
5.3163150766440918e-08
-8.2387688137215984e-06
-1.1312698136081857e-06
0
1.1816078354569472e-07
0.0018034839088667096
3.8084477249220717e-05
5.3328111535584345e-07
1.732332512323572e-08
1.2420319846558904e-07
5.3600751147713435e-05
-0.00054906686110548495
0
0
1.7450789980575778e-05
-4.5188284315248225e-08
-0.0015779730295274238
2.1452205553053413e-06
0
0
-0.0013057694019384051
0
-0.00046833558801374388
0
-0.00052477976749401567
-0.00050131119887521951
0.00018637289786040381
0
0
-0.0016930691610681282
-7.6452065224207694e-06
-8.7522140564892821e-05
4.3470656788401581e-06
0
4.7877965829761541e-05
-4.1659971680597124e-05
-2.6168939781454192e-05
-0.0002034603018238009
1.3716675649490956e-08
0
0.00024026137074920491
0
-1.6902844944307662e-06
4.8012765464879083e-07
-3.4051769390786341e-05
0
0
0.00040046829990736854
0
6.1479654419340247e-06
3.4983247919265653e-08
0
1.0895317683571203e-09
0.00095524810343130867
0
3.1247526836896158e-05
1.3741975555752123e-08
0
0
0
-7.5519251281574128e-05
6.8971899639138256e-06
9.9924513784121504e-05
0
0
-0.00013068235467005005
-8.3816668847622929e-05
0
1.1980995019171334e-05
0
-2.9505010017750341e-07
5.4655335888476842e-06
0
0
2.6911238964153119e-06
0
-0.00082045020656187678
0
-1.3303101355779645e-06
0.0001694458402140258
-2.3407601773959748e-07
0.0015907364732506985
0.15065059578473944
0.023665356603167285
0.0023453483930576148
-2.5716791628380695e-05
0.00026743865007840695
0
-0.019487098362343656
-0.13239385790041516
-0.002208577093921432
-0.013566296150717768
-6.4906069248627223e-08
-0.029200803442157225
-0.1395776182880058
-9.289652162738108e-06
-0.048154951749230721
0.018935396803513742
0.0052593064440087465
0.019573837694587658
0.28437885338408109
0.17010460112838652
0.061756689729462022
0.027596931825444915
-3.8398645249123402e-08
-0.024930385946425822
0
-0.010565944834370004
-4.9950651521446474e-05
-0.01773047173669429
8.0922957479780891e-09
3.1521244980275295e-05
-0.026367324880786962
0.013741525945166809
0.012222192327754925
-0.0072143274678800832
-7.5061664573884458e-13
-0.0014203863428639014
-0.0070388699827681755
-0.006983361355973175
0.0010691396894607474
-0.034300545804319099
2.9561239089047856e-05
0.00014440324774538503
0.40145317530377478
0.0053053112688501913
0.0017998973185349412
-0.061650761369663472
-0.00079395817540155091
0.0071005535439236621
0.018363761260449023
0.0084468596645780429
-0.046070953943718469
-2.0826835740491843e-05
-1.6490653064650656e-05
0.010708352331281111
-0.088701586439178123
0.0013805123542807553
-0.0017805336249686809
0.00035825096843034206
-0.0019413913854772131
0.002822589543357487
-0.062642714467116473
-0.00648745870809411
-0.021972275041528232
-0.0055632909995305402
-0.0016732712487632403
-0.00098411705973660006
-0.12550421528939318
-0.31254815130862695
-0.0093945583032427216
-0.00070844576606919748
0.00025190225084073325
0.00034790494408139591
3.8668455021783141e-05
6.1214286007433083e-05
0.0059527186723480211
-0.0019320165680718421
-0.02649627126227962
0.025278011774613255
0.00019874928670202634
0.099820196336215361
0.00047455982608365791
-0.0063065918151330178
2.3336392375301349e-07
9.665293483680948e-05
0.050303804977877981
0.010168010256150117
0.21190388860255038
0.01869084769000667
0.050844184636647562
0.01593807546197264
0.00051430780814207592
0.014776899229281255
0.10789635341845662
0.0087413378205858233
-0.0026087459039039048
-0.00093363173889191454
0
0.057226168494852472
0.061362258551047856
-0.049044589065423486
-0.00017681190259148641
-0.0024652188980022649
1.6571793230133994e-05
0.028118384165849442
-0.069794138289018648
0.010505391273917294
-0.0027016343642419717
-0.025516930767806947
-0.0097281019366064377
-0.023871285196952186
0
-0.0030314128596014753
-0.0003240005758384794
-0.001766046715175332
-2.2467647949353379e-05
-0.14096451214027853
-0.3875239198302089
-0.0079024539099238657
-2.1770738705317528e-07
-0.0015273464748393473
-0.011948396829001529
-0.028272193610528427
-0.027778333108745588
0.00099084010641222061
0.0062509613189673545
-0.022940966927048511
-0.58005112341584075
-2.1550744363602554e-05
-0.11279215366959885
-0.012410880462657337
-0.00014864880574862359
0.011191470946543401
0.036343887461516684
0.11609306391539437
0.024028530591815162
0.0079850329974489199
-1.2455377481416015e-11
1.1526052713068254e-05
0.0049017257027146113
0.28713110211904036
0
0.00486112291483727
0.0047842502821508993
9.5526010602738204e-05
0.0023103019430615467
0.0015064099688908783
0.00054637594706472481
0.00019104512486030814
0.00026516524457409306
0
0.013518764995223699
-0.088613782752190673
0.10747909872502433
-0.077566058641547697
-0.18573426537187962
-0.0092595416057280472
-0.0026773362383209821
-0.012307399819827187
-0.012018898874211086
0
0.00017861131349537215
0.00031146566941518867
0.11577656373510507
0.053495343924656165
0.019288988139510514
0.0066365583222573474
-7.8651018680295544e-09
0.00018162747843638509
-0.044401511012917824
-0.23028748364489263
-0.010943158600474593
0.02208165989956045
5.1351909959056585e-09
0.018133420696205129
0.38302503609636135
0.0053231249667942951
0.15516467973519177
3.5246621427043634e-06
-0.0021626776757194023
0.014665450135551544
0.0015242440587455513
0.010577410624773326
0.0071667876531027437
1.0121120409833944e-05
0.0032100034682855621
-0.0017085990778557317
-0.0078818457025682607
-0.02427676505671816
3.5408725549327057e-06
-0.055633955650697918
-1.0215853569399907e-06
0.0067579641155215324
0.14310930430640526
0.16004674860895327
-0.0094551346429217389
0.00046257876588175716
6.0912024946323257e-07
0.001084560022371725
-0.11441343780431716
3.694008225621123e-05
0.057970109796944488
0.00028270917450845984
-0.00041504483040947956
4.4090519320190725e-05
-0.0054361205547809105
0.0092281492657515316
-8.4560284783754701e-05
-0.016695317037759935
9.8640861755649198e-06
-8.3951204875501096e-05
-0.11839865084495074
-0.043793635977199159
0.019695204742300368
-0.0094333832400560931
-7.9467419208926459e-05
0.0046976921848275168
0.066038534022448969
0.027451448507209084
-0.064281163634229366
0.0095654217159308053
-4.3325196243617862e-05
-0.00062503029233286706
-0.16512817827432916
-0.032986330459361064
0.069315831786883136
0.054462476492414522
-3.0642627111684073e-11
-0.0040032748362976971
-0.021082626189577878
-0.039420484165327702
0.066911647664293097
0.046394582883510227
-0.00012505443962227601
-0.0019760470078777994
-0.21122120824900265
-0.080808005682285647
-0.0098651773641512917
0.013952212724226601
0.0039624421982802005
-0.00014615160953936597
0.16770164951290853
0.01799154009103119
0.06108035611358862
-0.08257500130157458
-3.294375267172515e-05
-0.0050709877493137819
-0.01627513284404157
-0.009145014879086687
-0.11170711238303158
0.0056898213708276744
0.0067902995421471853
-1.8250040782840665e-06
-0.0089588638738883133
0
0.013852797585281854
-0.0021680398317293526
-2.5362261674135704e-05
0.0059819793948861074
-0.026358171632791059
-0.01570987318299449
1.0905637689891667e-05
0.0098885679238130894
-9.9329747059246182e-08
5.02402668834765e-05
0.016183790140690137
0.053002099610185031
0.027586180623668379
0
-0.063622992846392903
0.0023147677529302799
0.038190642233121533
0.034559030408989708
-0.027025842758311758
0.0015812890671716628
-5.9267788091029651e-05
-0.00081425246941413984
-0.001385354063288541
-0.0207053523078276
-0.20587679294333427
-0.0063585707989957984
0.045687931935851342
-0.0068832831624744363
-0.031668499693851063
-0.0072755877484251405
0.041203899796285026
-0.0012590925958374658
-9.0346206104547022e-05
-7.9342333388006546e-05
-0.012153294496832921
-0.0033587860668303536
0.0010976575362396988
0.0081549285747329614
0.060439054985500375
0
-0.00011245447305275786
-0.001542295945704233
-6.064577898574347e-05
-0.032982389773002808
-0.0024292166975919001
0.014016829983501185
0.12248572151967931
0.0003646883813247514
0.0032663006404173799
0.14304673176939264
0.00050693578479123333
0.0019469313654020565
0.0081873902778626141
0.13576955789446227
-0.0022368037861746925
0.042329859229065896
0.013932076297159562
0
0.098768441654347755
0.00097356640857214284
-0.0061574203758880102
0.00042857787845340846
0.00048634363200499757
0
-2.3670119753819371e-05
-0.15567788678074518
0.036623576202208859
-0.0084523989698944198
-0.025009064963426444
0.0058746911529859083
0.025897989779283939
0.2768580095426047
-0.020064198586167047
0.0091713815510038807
0.036684078220976017
-0.00092918937514614361
-0.051879517693776196
-0.012685029896142716
0.053872266918565045
0.003467143828486187
-9.3032960795251396e-05
1.8783459853696767e-05
-0.029120722278540699
-0.011812815102762317
8.0782449827523591e-06
0.0069426682675963686
