0.098795467883188909
0
0.0012644171283133852
0.041139939489311633
0
7.9981939537971375e-07
0.090994663195307829
0
0.013757252739430098
-0.0091795154082171555
0
-1.2140528938202507e-05
0.035838268288007846
0
0.0010696984183238632
-8.1959965023855591e-05
2.0048722316030137e-05
1.5130638869704639e-05
0.078814582360123592
0
0.017610414138532225
-0.00030794396835521711
3.2462628719569024e-05
0
0.099665459439786927
0
-0.0033419113668402096
-0.008949631972620109
0
0
0.099767179593995045
0
0
0.00032049178069580927
-1.3045691900343507e-07
0
0.024766750790953865
-7.0974579080520567e-09
0.0057790189479735585
-0.00035862939012090993
0
1.732473110581895e-05
0.092780615313357739
0
0.00054710491736856726
0.0040761391993010317
0
0
0.10040412661874071
0
0.00030128932103747866
0.00043918449640935586
0
6.7757766565236904e-06
0.10150318392210281
0
-0.00026703960490082426
0
0
0
0.11140610148405579
0
0.0028914889033348629
0
-3.4414228867710028e-05
-1.4271497267061179e-05
2.7986293368640883e-05
0
-7.7423567876266238e-06
0.00032038944977001493
-0.00010587972625825509
0
-0.00044104752518759905
0
0
-0.00022967805485105857
7.5094829166492483e-06
3.4221551296710388e-06
0.032950913581888494
0
-0.00097860490945045255
0.0010127791528031158
2.6009045415256765e-05
-4.478281351790068e-05
-9.6537913902351568e-07
0
-0.0010449135981807991
-0.000189248714720311
4.1755120914790526e-07
-2.2129165129237718e-05
0.0013055929913241705
0
-0.0018448289729722637
0.013063346104007161
0
0
0.020263574039330219
0
0
0
-8.9830701380155197e-06
-7.7478751924679939e-06
-1.8055311920757468e-05
0
-4.1149656423722692e-05
-0.00020288570884200078
0
-2.3322326546724646e-05
0.0026380740439482142
0
0.00027625262643321156
-0.0011701399320029704
0
0
0.0001071392896955729
0
-0.00011739243232215842
5.4962049428189155e-05
0
0
2.6550558930608654e-06
0
0.00067524548102731704
-0.00065588551540870306
0
-6.3443432980690888e-06
-1.4499846850011563e-06
0
0
-0.00046441566775065921
-1.0712283040668081e-05
0
0.00046872248695291791
0
2.8650984279457908e-05
-0.0001396392790845969
0
0
0.00074670644199177258
0
-8.5998360230549616e-06
0
-1.3672240612658152e-07
1.933798078681798e-07
0.0096541696033858957
0
0
-0.00077808436563385648
0
0
-5.0019003470672443e-07
0
-0.00010458322487324441
-0.00096035216114030231
0
0
-1.8315498545389407e-07
0
0.00063722160652848942
0
4.683450603779968e-06
-1.4617850900771939e-05
-0.00061607666496534702
0
0
-0.00037280564560536597
-1.1974733627402972e-05
0
0.0013704895624870833
0
0.0014990910399985261
-7.3190884343042503e-05
0
0
-1.4402435049487269e-06
0
0.00046161716315570644
0
0
-1.5752257322876942e-05
0.16071304872678285
0
-0.099309078890833291
-0.033277907040008027
0.0055087717803151571
-0.0038263962574391938
0.37423061627496457
0
0.010490798778411366
-0.10000000000000001
-0.011504110393667152
0.10000000000000001
0.016324242201853918
1.8558668655119464e-05
0.054275022302474503
0.094356515940758889
-0.0016661185770102077
0.0015972748683703974
0.43310494367915714
0
0.10592973825162105
0.19560855921026013
0.00062975288839249328
-8.2401601310169313e-05
0.18961996148093668
0
0
-0.11201604511511028
0.0010628975624118488
0.012323171625518853
0.55644585421183734
7.2013445202110786e-06
-0.10000000000000001
-0.11940763084744364
-0.0030833393687101341
-0.10254373890202856
0.37130971571654237
-0.00022346399824658633
-0.1807928196332533
0.19077878163994949
-0.010863373390014105
-0.10680665755277366
0.89992443605298034
9.6573585331000637e-06
0.10000000000000001
-0.19278216827162337
0.00096809523074490049
-0.10205638194941154
0.55584204122556924
0
0.075845490516112044
0.24593530805964403
-0.010322547858492495
0.099607076533797537
0.72100206658285204
0
0.043670183839364135
0.10031695982349752
0.10349834965058534
-0.10246384730586856
1.2234638862484513
0
-0.031460331095450093
-0.089301318694783832
-0.0047843995207665592
0.082334461752862603
0.72855201347587761
-0.00026732449325975882
-0.19443077874547632
-0.41403819209463133
0.0092004132444212256
0.013020784979439624
0.68161934686105097
7.2423019137523048e-06
-0.0053264609870650138
-0.19024968650464608
0.12114071416064216
0.0014473954023496952
1.5584542186532002
0
-0.098775527344509298
-0.18806851345753905
0.014202408674229209
0.0093353262399517248
0.44440363026217539
-2.5393056727098746e-05
0.11147569994121669
0.26144984714936875
0.10000000000000001
0.099276995566757648
0.38619700365703807
0
-0.07144783678020597
-0.022765534552179334
0.10000000000000001
0.098003327138321966
2.0257815425835703
0
0.10000000000000001
-0.057879207002352932
0.10000000000000001
6.2615823209834307e-05
0.38792404166660449
0
0.028089635117783909
0.29630608997872032
-0.0047664386908049076
-0.1076994240939971
0.66627489466855716
0
0.03666220356146304
-0.03096219049120752
0
0.10100138804622601
1.023453941108321
-0.00026275741947552177
-4.4607489866332857e-05
0.15477637050539839
0.00011368676293935025
0
1.1770501788451926
0
0.082536863341203637
0.11988187601023603
-0.0040063216459752162
-0.086532544956038127
1.0732162755172829
0
-0.099549349575464241
-0.1071171431223211
7.3105739835158522e-05
-0.0025912073566967037
0.87871168812853151
0
0.0095104819616060286
0.44418505336029046
-0.00097332305630852133
-0.0022149694112884553
1.1190935170612581
3.7006267197824445e-05
0.11091027849646033
0.10463088440939403
0
-0.0023448190078824396
0.81575090454096955
0
0.0091727579329968778
-0.21737400753633668
0.011509889793361485
0.0016823951603096795
1.0606211683288451
0
0.051073033511509693
-0.013709976336481178
0
-0.00029805564413412682
1.0774640096622869
0
-0.21812542153507897
-0.2363258505844951
0.086273001791891069
0
0.68748575550352986
4.1994244270833539e-05
0.089624760343949686
-0.051923656834357713
-0.0066853547711046698
0.023847834991940407
0.84633968945282056
0
0.039650054340681272
-0.087897700812321136
0.078835434255045383
0.098231384564346019
0.0094332528149016701
0
0
0.21336213658444622
0.10000000000000001
-4.4046809429009771e-05
0.2500411092047819
0
-0.092043291476456748
-0.091303073349248934
0.10000000000000001
-0.00068255640799148214
0.065043254404128947
1.8049497254114957e-06
0.099261546493742081
0.083215406480457915
-0.025650063054390267
0
0.22524439155967399
0
0.28315505142894581
0.3396981909714657
0.0082915872844159053
0.0011792226157302799
0.074054206687277302
0
-0.10000000000000001
-0.078701245838114067
-0.0014442444504702027
0.0015253750961884184
0.18597812914781778
0.00012018130510575973
-0.15855225516028526
-0.26066923454964702
-0.0010005461229616996
0
-0.070113293915275099
-6.8619489995726531e-05
-0.065060313662207367
0.03453143630143754
0
0
0.24042590920582066
-2.0360927988069548e-05
-0.14879205322763989
-0.40433256194494366
0.0017203852390496154
0.00013791452035350401
-0.027348270884183439
3.8528258698664651e-06
0.10494237158271449
0.20804812627268335
0.00028280965290830373
0
-0.11332183804002403
0
0.0073226765481625294
-0.03727848179187794
-4.5462412718832816e-05
0
0.14518015797315367
-7.5746145336573039e-06
-0.073834812978814862
0
0
0
-0.16955828003297529
-3.1608276263141147e-05
-0.23929448959266347
-0.26536301005482066
0.0985218472999735
1.9347510069737413e-05
-0.22831120127640708
0
0.16973887531993137
0.1419090149353113
0
0.00039962980026543967
0.3098879145386722
-1.7157435225654985e-06
-0.083311028623027888
-0.16128072645223065
0.10000000000000001
0.00017091703092408079
-0.09337244521169398
0
0.28142349412378215
0.28370440485343756
0.10012068521537264
0.0019125219688312909
-0.4191543104964317
5.7830628516927943e-05
-0.10796441454482238
-0.19446531224576868
0
0
0.66704039850068764
4.9734098284083584e-07
0.0064224084407009541
0.15405956067044815
-0.008637177175843334
0.0023534876025740428
0.13545609532348513
5.2670334368046077e-05
-0.16951007798753229
-0.12963197105539331
0.00087878917215824062
0.00039942703343364978
-0.23022056495106308
-2.0593002725438884e-06
0.43537095044100238
0.29693955874424349
0.00044140450162694783
0.00041884172643004024
-0.31743126382383419
0
0.060239419338369682
0.078484560133160561
0.10175600094091496
-2.08440126176253e-05
-0.073387383909978066
0
-0.17934628887949619
-0.35194795512259291
0.00021219327799518122
2.8271515312198112e-05
0.079441337606427437
-3.7243716604017746e-05
-0.011813509975081708
0.097601377996466718
0.012813164761862532
0
-0.032535835718309716
0
-0.043671287719305153
0.25400655012583079
0.00014033802437150408
5.5166937645935641e-06
0.12330858528856743
0
-0.11853407880352287
-0.15500556730958384
0.0086734252326676354
-0.00065103433783697442
0.023236263859492748
0
-0.10097321777959122
-0.24828532140523096
0
-0.0027937741209830115
0.14452523714738555
0
-0.10197352217835709
0.10369693643162599
0.01086750687929976
-3.6226319164662542e-05
0.19543483756207633
0
0.098487835840893517
0.14303116978584562
-0.00063258617662291473
-0.0010488182523408303
-0.079865771180656908
0
0.13991255205680539
-0.0111378669558049
-0.0001887051186805254
0
8.5486156233709352e-09
0
-0.0022462800825471742
-0.0018839633915124286
0
5.0540812610795795e-07
0.0012516912881020954
0
-0.0020487466163085165
-0.00097842684616873655
0
9.8710727267399678e-08
0.00011086799757083359
0
-0.00036083881560609746
-4.7682148511228355e-05
7.5735722356089684e-06
6.9367407387769962e-06
4.7964087260274727e-06
0
-0.00028841604518814169
0.0020042508077744562
-0.00017212379430328866
0
-2.510221053027456e-05
0
-0.00036272907502386359
-0.00033916927932516711
0
-2.6541053246536509e-05
2.8685004191377802e-05
2.6113429703834776e-07
0
0.00048744357349124419
6.774014560249491e-07
0
-0.00010698569949011339
4.252385029044733e-10
-0.0015697763606851193
-1.8979649505857652e-07
0
0.00043186642915163799
1.9596892885449839e-05
0
-1.8960439471309317e-05
0.00042755929120333991
0
0
4.9260022051108479e-08
1.4003779741146103e-07
0.0020137081173175345
0.020970971740585691
0
5.1310217866680177e-07
6.0441576647782677e-08
0
0.00053590720052406672
0
0
0
-2.9534122114361516e-09
0
-0.0033363286244437827
0.055233755069871181
1.1100802631370781e-06
-8.2382470388019428e-05
1.7707502297271572e-08
0
-5.3372276110573261e-08
-0.00096624251700758211
3.2177503606948582e-07
0
2.3403499583195186e-05
0
0
0.00044958366985055418
-0.00010151935543522893
1.4273389535329034e-06
6.1081489886528906e-08
0
-0.00012596576769075105
-0.04711892074779183
6.0149931491285983e-07
-5.4881184419637974e-07
4.0508791011992517e-07
0
-0.0035953782817711448
3.9769017981158995e-06
6.9557291002286983e-07
4.5181838037469802e-05
5.0533887636953697e-10
0
-0.0066269111451864983
-2.9187984333711651e-05
1.0050840650795649e-05
0
8.9256277506093207e-09
0
-0.0001848702912256446
0
-5.3163150766440918e-08
9.5079855448264995e-06
2.20647171123625e-07
0
5.7286343203859725e-09
-0.001885573559782221
-0.00013000353597137992
-2.7048246560571561e-06
1.9474609336494103e-07
8.0441950761869612e-08
-0.00032913324950051791
-0.00013893742375085716
-6.9944005757336038e-06
0
2.6919881845850626e-05
1.1330327122995235e-07
0
0.020570628470944704
0
0
2.5373173052252081e-06
0
-4.8924255684268619e-05
0
0
4.6703708379412989e-08
3.1440120804280751e-12
0
0
0.00057219089240586598
0
-5.6138812926877239e-05
7.6977644244299098e-06
0
-4.7877965829761541e-05
0
-0.00012140967024117047
4.7758936484808428e-05
6.9669581082179438e-09
0
-0.0012891029077680071
0
3.3186375777569829e-06
-1.2991640756043788e-06
-1.9615000148354761e-06
0
0
-0.00033168753940270848
0
-6.1479654419340247e-06
-1.8048689214364326e-07
0
-0.0021407212341094904
-0.0020138311763551429
0
-2.3088400519469363e-05
1.0454607622855469e-08
0
0
0
-0.00011611239374698695
-4.7379937729715841e-06
-0.00030883496962469013
0
0
0.00016057860272766219
-0.00011030884746192784
0
6.5919548529129091e-06
0
9.1239679931088086e-07
7.8378233038748106e-06
0
0
-3.0081194780136463e-06
0
0.00038072293860602993
0
-1.3303101355779645e-06
-4.5831845407302562e-05
-1.0079498274901506e-07
0.0020917145794172908
-0.15065060141446507
-0.022101881726230919
-0.0051507318078495385
0.00063140600673631392
0.00054495651608405405
0
0.032423168610207984
-0.054397923543368414
-0.0012059684206003288
-0.0068091395398858553
7.1745100324982676e-09
0.0020693137706816293
0.10031309123662049
5.1532066459095045e-06
-0.030510526930698549
-0.0097794221568458135
-0.016054717285851321
0.003198490206022195
0
0.023833044633014566
6.3338828021999364e-05
0.0001193020853644879
1.0024290355645714e-09
0.000249867142479516
0
-0.0079748105609258931
-2.7086842040740009e-06
0.0072447976222609744
-9.584181608994537e-09
-9.1245740547050914e-07
-0.00076846025911821506
0.029933723527665369
-0.0086244194434068125
-0.022497750921311878
9.8541362739670414e-12
0.0011065707834457786
-0.0071851913203717054
-0.0011114636238355453
0.00070269023455719719
0.090948516224308412
2.0177517980125318e-05
9.0631002788633995e-05
0.37802910757401781
0.0033591920628153766
0.0010723964343966853
-0.074209752307814889
-0.00035757120607244404
0.0055051294858575591
-0.011580841114359849
0.1788370313218168
-0.0050885380803075688
3.1254829142323636e-05
1.1020456936587088e-05
-0.0016345694762139572
-0.12079806684375853
-0.0023806446689704883
0.0093069238177739926
0.00030807924512311858
0.0018086731927452896
-0.00026023648534401916
-0.011429333461925598
-0.0049962942325659475
-0.00018204261144638597
0.010692618833707691
-8.085728806954027e-05
0.00048657228792755338
0.04819104158727238
-0.02363117154393336
-0.0042068457545182229
-0.0032733698411247973
0.00087003718886592761
0.00026912339287291212
-5.2134362270416837e-05
-0.0004857789148031059
0.0048041261124411551
0.00021069140624946874
-0.022570372986073471
0.0014960606484642847
-0.00060308812843066356
-0.12729982232575093
0.0010335630583615581
0.011836718533684988
1.3086252315176773e-07
6.1121115145003707e-05
0.037577860532938968
0.011209664524673374
0.12327973560467832
-0.061351253927020469
-0.050991933453745343
0
-0.00093876458507781034
-0.017711722893885028
-0.23037561577330778
-0.0012774571371343398
-0.00017700562158158231
0.00081665748230718089
0
0.069118845382683619
-0.012198110337265752
-0.10626591647926269
0.00014283109089770693
0
1.3877981658049578e-05
0.0029597277328124116
0.084180300765352642
0.013007438440630808
0.0003824631945654358
-0.00028823637241349938
-0.036757541853333811
-0.082529450766209142
0
0.00090455611758917271
9.5201614278970381e-05
0.00070764874209640577
-6.1520377103229046e-06
0.012830912078775823
6.5977720122586435e-06
-0.052113117088218711
-4.1718337089939092e-08
-0.00077195300728005105
-0.0035954825517962412
0.0095819872519368847
0.012660976787265434
-0.001103754436823555
0.0040974035369858918
6.2038054168171052e-05
-0.37934914656172819
0.00031411526760537998
0.026302213886021466
0.0027502594647869781
-8.6187660551936303e-05
-0.0072079251703015901
0.013213462687893864
0.11834640624326409
0.029232904427363787
7.0236296181042795e-06
-5.3434733419518143e-11
3.9219013318975241e-06
0.00026561210700115319
-0.2858639415547401
0
-0.0011213465852560913
-0.0035446535161931026
-2.7556281387458055e-05
0.0047408114536732458
0.0024222280672367988
-0.0026692495617921586
-0.00026884825807110352
-6.920609511575593e-05
0
-0.00099854600435960545
0.19256753798728929
-0.27029054208895764
-0.10273411400038848
-0.0859400972138364
0
-0.00028523774506166512
0.023506460442724746
-0.023503919716069643
0
-0.00010877599845883199
-2.4915003650107531e-05
-0.00043852888777030295
-0.012053005786843369
-0.012232493651363467
0.019916094888324208
-1.3799918693682877e-09
-0.00018162747843638509
-0.0058142330029638187
-0.022963331679376659
-0.037876668947562947
-0.087100705877890552
3.9555617269090821e-09
0.013897692598811746
0.14915240623109058
0.0043566419251832977
-0.14029572355519196
-2.0306077205358433e-06
0.00026601926396573175
-0.0039287876580269875
-0.00050892249277743515
-0.012132720030385142
0
2.3965534862195218e-06
0.00048836122264079912
0.0010586233286782668
0.035070990968398989
0.045085103811950501
1.6377718316195485e-05
0.055478121930667632
-2.1337754458842667e-09
0.00095225737789731357
-0.028363730729075463
-0.027737885969227719
-0.013738207166561645
-0.0014563713346185238
-3.5806283945360583e-07
0
-0.098528741558638389
2.661646749859656e-06
-0.015145284168696434
-0.0011614261561431348
0.00073441630204336872
-7.4784201035210252e-06
0.030817389511117094
0.014508066924048119
0.076163465706703931
0.0060407931974038355
-2.94867807976194e-06
7.0197295100396395e-05
0.056048109582063708
0.11422621975922237
0.0090934937556184856
-0.032681597597519887
-4.6755079090585544e-05
0.00085600997719547062
0.047133475088500833
0.2487839697550219
-0.06373266322342612
-0.00061417715827050438
4.0445853970216573e-05
-0.00079933448314776958
-0.10375297899390294
-0.31577875724268972
1.0455812147520967e-06
-0.054773513692775909
7.3688106261052138e-12
0
-0.017694620178595175
-0.0010712696383823094
0.00787214280500146
-0.028846052854957439
-0.00023269907758389412
0.00071493277575533133
-0.039527382872996959
0
-0.017564062095828517
-0.017631414200184593
0.003795436370258449
0.00015503993246832721
0.16770164951290853
0.019123545802044093
0.025979827768972778
0.013651826469965397
-2.1470786701917097e-05
0.0057157305241258786
-0.032297894984838954
-0.0030475064879956658
-0.059424766370499121
-0.0015029704424630156
0.0030173514747473462
2.7585330849516975e-06
-0.0077164271768730714
-0.19161829178129652
0
-0.030617704493991413
-1.6636416428626277e-05
0.00062477356912270872
0.03434777960802992
0.017277489687784343
-4.4995771434527097e-05
-0.0041221459683394275
1.846795681310709e-08
3.0011747656907438e-05
0.00061215369210601382
0.0168795614485262
0.1156979237989945
0
0.057024274760441515
-0.0016731897381281515
0.0028197747060487747
-0.017757971502848635
0.037717979527353326
0.00041140760889601968
-8.4673488958492653e-05
-9.3155294736348553e-05
0.003918427039364087
0.19451990819897447
-0.060707226001817695
-0.0066293207420005289
-0.0035895079354032245
0.0029299588954003661
0.037803944127892446
-0.00088665137553803678
-0.023092669320436039
-0.00032987838050135539
-6.6894369286280781e-05
0.00014982766254828213
0.058240326013957719
0.00065189705455106725
0.00072642274884324165
-0.0050673957785321039
0.0097020793326082974
0
9.1927640781214889e-06
-0.00056030647934451146
-6.1010037647337213e-06
0.015216238613924278
-0.0016529228251910507
-0.013152289418980551
-0.020201172188430493
0.00059367635638884184
-0.0012590816833176674
-0.090978275150896862
-0.00027441643197548146
-0.003579167236664225
0.0059503960352394903
0.083173165524876233
-0.00067818551223068537
-0.028028671908393945
-0.0083326549284463026
0
-0.043118449876201129
-0.00041714301297986482
-0.0080015274469074707
-0.0032303466700172954
0.00047132729750110102
0
1.7258194723083469e-05
0.0025067750695799487
0
0.0040619096520851826
-0.012848574414506094
0.0071055857938188043
0.0070430291529579954
0.00031673289217903585
0.0038729472500580774
-0.028854069603103581
0.0022273736862531267
0
-0.30909122344191686
-0.016462596040753254
0.0053032685369920063
0.0028893888206809951
7.097200111859145e-05
-0.00085449086386717383
0.034412392666061595
0.011439097845990766
1.8530317190482197e-05
-0.05813562619506326
3.5943189836583192e-09
0
-9.9477996970149634e-05
0.00075396715155815613
0
1.2022140694937044e-06
2.2101381311956244e-09
0
-0.0017725087524125497
0.00052457626283352091
0
1.8868242634938212e-07
9.8725914949497203e-05
0
-0.00012688447834199084
1.606005549832997e-05
-2.0048722316030137e-05
1.5130638869704639e-05
7.6761698635668471e-06
0
-0.020474383431512311
-0.0067268263031387554
8.7040086950076798e-05
0
-2.5767517738758379e-05
0
-3.6504117931945793e-05
-0.00010271220727109296
0
0
2.074654297616661e-05
0
0
-0.00072140932629915686
6.774014560249491e-07
0
-1.9179578840853522e-05
2.7816639099885857e-10
-0.00037869982868191321
-6.7935610452864992e-09
0
1.2654035700754691e-05
8.0199506488371218e-06
0
-1.3016911737004937e-05
-0.002927376269322862
0
0
2.9224915451730994e-08
0
0.00071682879762415041
-0.008766004177315552
0
-1.7750815775888799e-07
-3.0012497498668178e-09
0
0.0011664805734740284
0
0
0
-4.1034599875631954e-09
0
0
0.0062997862701365832
6.7032937962773666e-07
7.5630015828184499e-05
-5.4327552816271296e-08
0
-1.3547166166378075e-08
-0.00099612687941272446
1.7008046883687079e-06
0
-8.6740904915651404e-06
0
0
0.00020491168703939275
-2.604496804727133e-06
-5.037352028670019e-07
4.9247970723525858e-08
0
-0.00017189589957002465
0
1.7852646762797727e-06
1.8027878087732851e-06
5.3504361436294905e-08
0
0.0035840469383778676
-6.625615823098006e-08
1.8972739015361248e-06
-3.636535006926227e-07
7.3696880654125417e-11
0
0
-2.4189338170122918e-05
0
0
-5.7180465562902729e-09
0
0
0
5.3163150766440918e-08
1.7601103523585058e-06
-8.3173915302123873e-06
0
-0.003393537705807438
-0.0019155095316413476
5.7330738087950637e-05
4.8101753598869902e-06
4.6822867709553083e-08
0
0.00059830134299072987
-0.00058800267477469685
0
0
-2.7091111283137601e-05
0
0
8.3618624744711091e-06
0
0
0
0
0.0011216433713660688
0
0
0.00015246416538047187
8.9640987731549557e-13
0
0
2.1383045654970183e-05
0
0
-1.8799349064415021e-06
0
0
8.1192036165521178e-06
0
0
-1.0716619439225292e-08
0
8.8361416027699063e-06
0
3.7580470612227059e-06
1.3944349066718444e-07
1.0264303680664846e-14
0
0
-0.00037542912175910615
0
-2.184396591934156e-06
-7.0447105101262904e-09
0
-0.000639800588801151
-0.0015248585103987734
0
0
7.5015967216468968e-09
0
0
0
-1.4386076943893854e-05
2.0491612867356894e-06
2.2765460466068265e-09
0
0
-4.3409500538690794e-05
1.2117350382230556e-05
0
-3.5258152328186997e-06
0
1.829560757257951e-07
2.560539105547649e-05
0
0
-3.4403486952624202e-06
0
9.7589074297707787e-05
0
0
4.4041607145585232e-05
5.8621063847694193e-09
-0.00025358332815910117
2.249557637081752e-08
0.0028395792658565521
0.0017860243697515315
0.004336968649021924
6.9704093112833682e-05
0
0.0056885517028468094
0.054397923543368414
0.00026985033050749157
0
-4.8057756251363229e-09
1.2693717033346718e-05
0.10031309123662049
5.0514829124944882e-06
0.00013868034385464972
-0.0063183903561510098
-0.01571223630622752
0
0
0.097720711684785952
6.3338828021999364e-05
3.690048405431859e-05
-6.4451882706002685e-09
0
0
-0.0080074596149541013
-1.0248712967812034e-05
0.012323171625518853
-4.3431459033205459e-10
2.9016360977548848e-07
-0.028936841465358003
-0.014158603282046113
-0.0016150589669397467
0.00057795723702024938
1.0511375818088831e-11
0.00022940715816452908
-0.0056699364996142471
-0.0094129012168665711
0.00104221958813643
0.029957652231984572
-1.7393443024672778e-05
-6.4811297104660495e-05
0
0.0023576621994903331
-9.606335573397993e-05
-0.030048323288215526
-0.0040715654965565555
0
0.0043844222416254651
0.0023565682543298305
-0.026085302927209307
-6.2784179005168301e-05
-3.613235271517571e-05
-0.00036180985718075177
-0.057587313941242252
-0.00066122786164769267
-0.020766763357493761
-0.00027003922430272426
0.00076546749667837912
-0.0010703310353837468
0.0097298601024929966
0.011057390461164515
0.0017311640107992735
0.0044119812350112619
-0.00096253289086763053
-0.00029228300793319187
-0.043752650487983741
-0.17502694925640036
-0.0063882127513229976
0.00090065613767077116
-0.0018992770222301563
0.00013403566414395997
-6.1005562132084014e-05
-0.0018636767911369145
-0.00081320109509873612
-0.00091896212399841294
0.0091669996580768954
0
0.00065012567459197168
0.12106335152498998
0.00064864599323079177
-0.0015664164599876304
1.4770399269320444e-07
-5.3125021584106678e-05
-0.0069103500863356834
-0.0075401085584561895
0
0.043081476058163398
-0.021038646829225887
0
0.00028888437015301869
0.008813165598329592
0.027897501044439346
-0.00051092250874691365
-0.0029408487924099877
0
0
0.034219198620076302
0
-3.6798878207205823e-07
0.00012979036792488678
0
4.8183019096770946e-06
0.019263178418349344
0.014237190943132385
0.0027095622287748931
0.0011593834435176282
0
-0.012592779727544712
-0.056196993333091978
0
0.00042988731778872036
-0.00017118507664390015
6.5837539949922135e-05
-2.2664697998470919e-07
-0.020570936122087893
-7.8429254328877217e-05
0
1.0340717578410354e-07
0
0.0080088797392380059
0.0019580437622331564
0.0064557210740108376
0.0009210893004318279
0.0011152674584666261
-4.4597984323027404e-05
-4.9328801986464732e-05
-0.00031411526760537998
8.1663273522961669e-06
-0.00023061502520931181
-6.9903342465588221e-06
0
-0.013161990249074587
-0.11838990319746492
-0.0001483436888435179
-0.0093632415103784231
2.2486468820013368e-11
1.1523430925193969e-05
0.0066459652110458425
0.0014694963817182638
0
-0.0020795985716353027
-0.00153304703054394
-7.2869434197644822e-05
-0.0011832371728813648
-0.0021205752009414705
-9.3462544170558841e-05
0.00024118829280690628
-0.00014338078719982873
0
-0.0082106107285391146
-0.0049811087336917781
-0.00070860002129340908
-4.5927433369747507e-05
-0.031467364104750636
0
-0.0015377408892802247
-0.0046034956940452666
-0.0076395728959265307
0
6.5162666069154134e-05
1.7207445618197104e-05
-0.0064687268600737849
-0.00019255007041296028
0.0056810123486420424
0.013778864673322103
-5.4706576523091796e-09
0
0.028257829566892288
0.080623998676271832
-0.01359213684305835
-0.051596190090821836
-2.8522624773636881e-10
0
0
-0.0021796756846107716
-0.019922759646291328
-1.1905818206504325e-05
-0.00083740699936478218
1.1256462630354166e-05
0.0024756163824629332
0.016084874800720243
0
-6.4286046043999909e-06
0.00081650150664709317
1.6869293388179647e-05
0.03786401019841288
0.046713315609254791
-1.5448180394132038e-06
0.00022652042424676892
1.2799647582086744e-07
0
-0.015395895890613452
-0.013816951742683041
-0.010030949269753037
0.0014854305074947793
-1.0055548802007526e-07
0
0
-1.3596770122881736e-05
-0.0042726450164806608
0.00023925497035949013
0.00047035995031800853
2.3552426354354939e-05
0.018137578284288136
-0.0046589917356698041
-2.6933616557703666e-05
0
-7.2790601890575997e-06
-1.3688891045475931e-05
-1.935667753621452e-05
0.00085644504410793947
-0.011869391104002178
-0.0039545614228739369
1.4247571089512341e-05
2.9691719751164655e-05
0.025088321938788547
0.004680866344436832
-0.0070463588594032178
-0.0018944460338326549
-3.9278479704694071e-05
1.047209839459539e-05
0
-0.011857708966076694
-3.065822019608956e-06
0
2.0101790517587026e-11
0
0
-0.0010712696383823094
4.5893738883532513e-05
0.00055423135716632264
9.0727360406922826e-05
5.3361024756986106e-05
-0.00084698319621321749
0
0
-0.0014442226806747611
0.0020787705743080518
-5.3013038879772966e-05
0
-0.0096122435141468496
0.019164661977405163
-0.0066477789450507235
4.3698052627114798e-05
0
-0.010260572182229876
-0.0011338028259637312
0
0.0032022949207665906
0.0029960628534096419
2.7585330849516975e-06
-0.0080144955029234546
0
0
0.0029064037457319867
-2.3440708459287145e-05
0
-0.073667812269898991
-0.040549757066266637
-4.4995771434527097e-05
-0.0031543869594165713
-2.9811926932494501e-08
2.7069669411619114e-05
0.0062729671595236625
0.010822943142823189
0.002196186605592892
0
1.209113644021046e-08
-3.5390576095346449e-07
0.011345972074582262
-0.003672739797764459
0.0046905483475493011
0.00074817927344789298
-0.00010462092790174241
7.0057106119943152e-05
0.0067720139903513403
0.029631971055393322
0.0018131246893639719
0.0016764825696096745
-6.7189042618193175e-07
0.00030652531146192606
0
0.0012218770860358439
-0.023050162434616595
-0.00075227677450816655
8.1373886968652505e-05
0
0.0068271691461434924
0.00057743110993402542
0.0014765798948344552
0.0016433101840538933
-0.014983330795266295
0
-0.00016884049734104461
-0.0008428381781218938
-4.4521233845184511e-05
-0.011439771762638986
-0.00082102124261426213
9.1835614738199829e-06
0.028340188986705508
0.0011183774896148387
-0.00058816131519942225
-0.00066167613651862338
0.00050399212086718115
7.5789894664881556e-06
-0.003243451433250109
0.017218276228486599
0.00093329522067207155
-0.014982677199284979
-0.0028766738194944894
0
0
0.0022593699983882295
0.0035625850124853514
0.0022220561469755173
-0.0005304091682098289
0
-4.9889310840848344e-05
-0.086326295502989314
0
-0.0037543481363542163
0.0066786828493530202
0
-0.013941173246270281
0.00012022591057898009
0.0080250346826387861
-0.0082604416113734886
0.014384080276319438
0
-0.011636330415863845
-0.0083408116409399713
0.01567852447257919
0.0025900614884914529
-7.0971994921095917e-05
0.0005183581485722654
0.034412392666061595
0.019777733682044128
-1.0542765105677563e-05
-0.032120311372642173
-3.9246057552363358e-09
0
9.0038904484398776e-05
-0.0012680408544960043
0
5.0540812610795795e-07
-0.0002774337011234527
0
0.00089066862387677896
-0.00051540788103743816
0
9.8710727267399678e-08
-0.00010324512599693735
0
-0.00015081997333886985
1.5562037514568415e-05
-2.7622294551639109e-05
0.0032152631600801083
-1.5080264554815729e-05
0
-0.00015624629186608015
0.002971361780380757
5.8060620295262374e-06
0.00095238172547621033
3.1325153455500412e-05
0
-0.00012667134640229313
-0.00025526466067797885
0
-4.1452249980660767e-05
-0.00011415906651583958
1.4885901474017825e-08
0
0.000532105707282468
-6.774014560249491e-07
0
-1.2090386163646932e-05
2.7816639099885857e-10
-0.0017691286934736509
1.1025752640725764e-07
-0.0024932274609904591
-0.00029520539428910092
-4.2482475813220663e-05
0
-1.8960439471309317e-05
0.00076937442072342894
-5.4473349503200136e-05
0
1.7722382802362577e-09
-1.4003779741146103e-07
-0.00037426565113279334
-8.5593154725834665e-06
-1.758758222373193e-05
-1.7750815775888799e-07
-2.9103552697521252e-08
0
-0.0017367794462000768
0
0
0
-1.6446227182520228e-08
0
-0.00069851779607338956
-0.0031830776905049998
0.00035314576538832923
-9.0753512491528331e-05
-1.0911307614018791e-07
0
1.3547166166378075e-08
0.0005848868555608411
2.9733743714104158e-05
0
-7.3393686170459719e-05
0
0
1.5266134136834435e-05
-2.3783634188620912e-05
-9.6553707819995265e-07
-6.6577956480666172e-08
0
4.9329289935852062e-05
-0.00026621725869132565
1.827601697083228e-06
-8.8692076057671642e-07
-5.8631825404343621e-07
0
-2.1067614328282103e-06
9.2709253156053771e-06
-1.8232114185754658e-06
-4.5181838037469802e-05
-9.1060537478183235e-10
0
0
0.00026957184597143133
0
0
-3.824901616018276e-09
0
0.0001848702912256446
-0.00066590004457380253
-2.1708041078797996e-05
-1.4226533653831085e-05
-1.4089760478281871e-05
0
5.7286343203859725e-09
0.0019276072316504506
-3.8084477249220717e-05
3.1479289860345005e-07
1.232582327251649e-08
-8.0441950761869612e-08
3.6411274739024947e-06
0.00019920894190264337
0
0
-0.00025219200223753832
-5.5700198955136301e-08
-0.00020142396203203482
-4.0263721408153149e-05
0
0
-5.252591719433899e-06
0
0.00036731998418345843
-0.0010493886441225854
0.00049671622647291726
-0.00057131018288948795
-0.00024514356071757786
0
0
0.00028713773075083313
7.7996551390353315e-06
0
-2.9638944278806465e-06
0
-7.6528950109219446e-05
4.1659971680597124e-05
-0.00026898828026379514
0
-1.6661914220693478e-08
0
-1.2660749509799886e-05
0
5.4483315556534726e-06
-9.0768966297858372e-07
-8.3381045250713258e-05
0
0
-4.6816361771912104e-05
0
-8.0499745791654232e-06
-0.0014944577184754398
0
-2.5167113004542993e-09
0.001524875126064653
0
-1.0131245938281518e-05
-1.7029343488648774e-08
0
0
0
-2.233127536824987e-06
4.7780342322939117e-07
7.3309367427252644e-05
0
0
-5.9016444995647432e-05
1.2023637150192012e-05
0
9.6903327131956754e-05
0
5.2128449859422377e-07
2.7729908868750701e-05
0
0
-2.928804605512839e-06
0
0.00014996311010472555
0
1.3303101355779645e-06
5.3447074432743299e-05
-9.2430351678290435e-08
-0.0027775084991958788
-0.13537305549001014
-0.0094441373082484112
-0.066881339968686643
0.0038316189038357928
-4.9708212370593502e-05
0
0.0019408007566608107
0
0.0071548768155347657
-0.27800805427251846
7.7558943286442947e-09
0.024346438213575374
0.1395776182880058
6.0840293418288769e-06
-0.017876276228285668
0.0052515348999478285
-0.041038118345971042
0.01064205659470522
0
0.1133659251999392
-0.10705350239209466
-0.18842995603205695
1.097822873729972e-08
-5.8314321251000578e-05
0
-0.0002979709071480251
-9.3696928805739401e-06
0.010003675036623551
-4.2408480300182761e-09
8.2772928890566973e-07
0.10311409875615547
-0.0034237258797476292
-0.008035822490842677
-0.012599674597405864
-7.3924709412416465e-12
0.00059836844069931932
0.0061653098140612836
0.0002502372370417372
-0.00099756079984253073
-0.085676827894336782
-1.7772046885926472e-05
-5.4804178599610503e-05
-0.050326849527836344
-0.0038193465294858739
-0.0010725093631559724
-0.026793359407940368
0.0023862382637786874
0.012605683029781222
-0.0061200788903558161
-0.0049548101771905509
0.017605000379638521
-4.0226275740251932e-05
-1.1684186274558338e-05
-0.0016204654009993095
-0.030552207478317654
-0.0017420256131145261
0.0013424828464639713
-0.00025198916955209284
-0.0014967264604807866
0.0037678431418271961
-0.0068557939703460706
-0.0099196563785278798
-0.014847393949415583
-0.0081238479810509211
-0.0021135096888632372
-0.0005918176522997135
-0.13222649404681228
-0.29495887234298718
-0.0070048886716519085
0.0049956508405001104
-0.00037634446971598071
0.00069009679715740688
3.9812676234000516e-05
0.00069979276265226889
-0.0012130654173794955
-0.0018117568728416662
-0.019989734081526801
0.025873737805309591
0.00011616603583430262
0.044787019082271881
0.00042914972396737344
0.0089009429475690061
-5.5042527513792269e-08
-5.1756264295577506e-05
0.00044883032646611878
-0.024771870610710789
-0.45712352588996341
-0.10733479405544644
0.023743184097260783
0.01593807546197264
0.00012385697710164096
0.012675188612373732
0.047113386707051536
6.9244596759907769e-05
-0.0016845019517658763
-0.0051423202079130493
0
0.0014796856456604536
-0.11590118006064963
-0.11721044606310621
-0.00010225592092283272
0.040363646285098073
1.8724646416689608e-05
0.0028919819257281943
0.051505465253870474
-0.0137559086373614
-0.001894067139982903
0.0025172665180466518
0.032249926818602989
0.024326376823431355
0
-0.0037296734309942158
-7.8324145784393188e-05
-0.00096679759057560495
-8.2188166923910624e-06
-0.07894869145187422
-0.66949720089463671
0.14729002841721295
-3.4083981090518831e-08
-0.00037769673377964822
0.0041788242385427717
0.0080055755941634051
0.0029376140166326383
0.00046903559014242822
0.003230190136082535
-1.6232817019989474e-05
0.73019864019415603
0.0001875834665329561
0.2359575054879951
-0.00017865423057862302
-0.00010892495577541496
-0.0068814289396159746
-0.021173814844235084
-0.078768600318165322
-0.036249420244538928
-0.017122527872211506
3.9378747608446023e-11
1.1523430925193969e-05
0.0059748225419408423
0.56437129884176906
0.29156975377420996
-0.0052368849555110069
-0.0011965277490010419
-0.010828514343472805
0.0014558076671980869
0.0013496797319584274
-0.0014022112816287899
0.00018164820332766617
3.4625184209853881e-05
-0.15467181469112876
0.0010098715171650142
0.071784137919222335
-0.11012838879268251
-0.045414192980195646
0.036123857092338861
-0.0092595416057280472
-0.0022893699673074445
-0.013931657401894799
0.013553921660593108
0
3.2515790842254818e-05
3.7401411262995667e-05
0.0088628975275902473
0.049654497024948348
0.006841676816080066
0.036967440982939241
-7.5244797431864488e-09
0.00024945256733897544
-0.012503565745291916
-0.14838645041288037
0.04151007559099839
0.093087770270910628
3.1041448890349429e-09
0.008388227138265229
-0.23387262986527077
-0.0035004950706597859
0.30821067974827521
-1.1857281037491695e-05
0.00010418790579394916
0.024627966184375648
0.00015007381908138401
-0.0015105401725304122
-0.29008820377313976
8.4162342571942484e-06
-0.0017304722186080811
0.0027945153347966006
0.016574168351564045
0.047256087919371442
8.4350134403461681e-06
-0.055478121930667632
5.5345284101563052e-07
-0.00030000804977188837
-0.071496741660694987
-0.14759303599917584
-0.011779872792575689
0.00093489979275378178
-1.3670554915538487e-07
0.00062516709888768129
0.11441343780431716
-7.70574074462585e-06
-0.0069828880273137437
-0.00046868211902788433
0.00031813669649705876
2.5522029146015561e-05
-0.027850764509328135
-0.0050399004388138142
-0.076088152043320534
-0.0060407931974038355
1.9264619786322297e-06
1.9516688608369755e-05
-0.075783830159769097
-0.062883166539903917
-0.22085924379979785
0.0345891187424823
6.4262135706277611e-05
-0.0016776393217929307
-0.010305470937672305
-0.006900631550911876
0.0090576046472262903
-0.0019981196677938936
-3.9726283156901313e-05
0.0041278544370699092
0.18069255331408118
0.18418833537180068
0.047858273275178963
-0.054773513692775909
-1.8866141779316379e-11
0.00079563294064801087
-0.15462698367062822
0.00072621350369187051
-0.075158915479271823
0.07959085233874659
0.00022264885131398473
-0.0011807462485523737
-0.06906109892523693
0
-0.074682244784644858
0.022848131762522553
0.0044813001362067704
-1.0238945613683259e-05
0
-0.022900623543169206
0.011901989526591925
-0.094271777619023028
-0.076637201476553993
0.0069250383678188913
0.068624553006996034
0.005707292074030589
-0.047675411508784883
0.011378721250424439
-0.001226672482727482
-0.042948589958563189
-0.014739036927408128
-0.19161829178129652
0
-0.033812464872895451
1.7731245308144325e-05
0.033282592117550365
-0.039214549254889222
-0.02020986274052863
2.612683413459679e-05
0.007063334481439522
-8.0525324314159834e-08
-3.0377785724847213e-05
-0.0096573355346202729
-0.0095927994138819434
-0.0022745940745369812
0
0.057024274760441515
-0.0024902454969461729
0.011171116560944033
0.006968167372921075
0.0072562293705319032
0.00038207174276259762
-0.00015523315915451537
2.3212355373078357e-05
0.0048967297643942613
0.05574945568184473
-0.11025930830691148
-0.012617030376798545
0.072827373302611284
0.0015943343703019096
0.1213452874545998
0.0045517710763632729
0.020176683765207835
0.0019193750297094771
3.6719807827527763e-05
-0.00014982766254828213
-0.15527988388385758
-0.0019547115716642346
0.0003976007547335818
-0.10500706869409186
0.024738082252041344
0
4.0738422376729833e-05
-0.0012459637717735777
4.5552625524325588e-05
-0.012304466011341957
-0.0015152878989805026
0.01271226371682601
0.09224946050025673
4.8194446193033821e-05
0.00072008024613392249
-0.0047074863943820777
0.00081215187112307471
-0.0029435918154291857
0.0015649475849117533
-0.020130076769964585
0.00096247781973275368
0.019514578164061928
-0.0044170989728502721
0
-0.10549501300714774
-0.0066615925616029838
-0.1191602996602434
0.0027772600689398514
0.00034758920951378055
0
9.8323573660333653e-06
-0.066844816208175895
0.016414181614345314
-0.0071254052693567492
-0.0064943077828373283
0.0084509705305438627
0.0061099636753638486
0.27724345477209272
0.0012626771266508001
0.0019978824159179029
0.0023184501364880384
-0.034139209987977905
-0.037650683833878193
-0.0095286530749296525
-0.030451320373788802
0.0028893888206809951
1.7909055002672824e-05
0.00081477233304217615
0.090121181294017166
0.025105705963311277
1.7013308134936997e-05
-0.10933026447974027
1.1901682012680775e-09
0
-0.001065278299826132
0.0031706594364745841
0
-1.7065908440117239e-07
2.2101381311956244e-09
0
0.00056856374423461156
0.0013812754201422619
0
4.7361041913110086e-08
5.346889524706118e-05
0
-0.00036083881560609746
5.1650235844945084e-05
0
-7.5940585841999493e-06
2.8319848156575998e-06
0
-0.00028841604518814169
1.4946553164823295e-07
-3.2423626945874242e-06
0
1.5456662045522014e-05
0
3.8077030796055608e-05
-0.00019652338701235309
0
0
2.074654297616661e-05
0
0
-0.00084495220634704692
-1.1693413036101638e-07
0
-1.9179578840853522e-05
2.7816639099885857e-10
0.00042064495616539861
1.5451162592403482e-06
0
-1.6908601008594414e-07
6.4471984466196287e-06
0
-1.8960439471309317e-05
2.1001265357964505e-06
0
0
-1.5031474415441844e-08
0
0.00041297211730422271
8.5593154725834665e-06
0
5.4163666405264336e-07
-9.0454638656314065e-08
0
0
0
0
0
-1.7248033669752056e-08
0
-0.00069851779607338956
0.0010749537344013848
-4.3975088350934164e-07
0
-7.9158648725821415e-08
0
-1.3547166166378075e-08
0.00048304209736158195
1.5757535843660821e-06
0
2.774008370733836e-06
0
0
0.00028319993645204285
0
9.6553707819995265e-07
-1.3801529701260637e-07
0
-0.00027960618266190774
0.00026117085252987522
-2.1994768313010573e-06
-5.5274034677577296e-07
4.0508791011992517e-07
0
-7.8126696013229744e-06
-7.7222497965219671e-07
0
3.636535006926227e-07
-1.8192321053057798e-09
0
-0.0018448289729722637
-0.00055565456088794431
0
0
-3.5760224868815792e-08
0
-0.0001848702912256446
0.00024059823455032284
5.3163150766440918e-08
0
-6.9573689369208651e-06
0
2.0389462926218393e-07
-4.7405255505738431e-05
0
-3.8718790017619685e-10
-1.455532184661018e-07
0
-0.0011902955331720244
-0.0004601867917754473
0
0
-2.7091111283137601e-05
0
-0.00015472817072595345
4.0263721408153149e-05
0
0
8.0131998723723745e-07
0
-0.00036731998418345843
0
0
3.5855267565694019e-08
2.8469243636043421e-12
0
0
-0.0011345443989252526
0
0
-6.2656358152465245e-06
0
4.7877965829761541e-05
-8.5634254852226589e-05
0
0
-7.9940293447216254e-09
0
1.4803449802827167e-05
0
0
9.0768966297858372e-07
9.2251092743671283e-15
0
0
-0.00038122697625190589
0
2.184396591934156e-06
2.2428884675258401e-07
0
3.3242504109131809e-09
-0.0010793985355540454
0
0
-8.0512413163975896e-09
0
0.00063722160652848942
0
-4.5431246489468923e-07
-1.4966411200279049e-06
-1.4292652717115245e-08
0
0
-0.00012957180463152903
-3.0038924397505643e-07
0
-5.9575469396750008e-06
0
-3.136853366215265e-06
-3.3576774819876186e-05
0
0
-2.3950585079184345e-06
0
-0.00012417384751803499
0
0
-4.236775105480538e-05
-5.2879180047182161e-08
0
-0.058630369340971877
0.0024383160063729476
-0.0031807195932238358
-0.0027277886616342709
-0.00059333996622349522
0
0.014369006845263902
0
-0.0029673703264475127
0
-3.0030503265398211e-09
0
0.012850351763740463
-5.448300235539738e-06
0.00013868034385464972
0.0025828939025053909
9.1980558230053705e-10
0
0
0.10537294809761094
2.0147712507714188e-05
-0.00020359307626624361
-1.2414770667482205e-08
0
0
-0.0090600722635312131
-3.4811374120766785e-05
0.0060636197899491462
-2.9893083182135974e-09
-7.2777572899952033e-08
0.024289196334564358
-0.031277951778724701
-0.0055006428355894501
-0.0093942250913958917
9.1684401840375275e-12
-2.2812672191624752e-06
0.0005317965241445051
-0.0024051761741558765
0.00019378841185979401
-0.016854268363614512
9.624256216420301e-06
3.754653854276821e-05
0
-0.00034192244589000616
0.00058938668256951329
0.0099233610252613368
-0.0043461390414369395
0
0.0069454894358337866
0.0089816268096453971
-0.026078592264759795
-6.4434223316661243e-06
8.9937619860544796e-06
0
-0.046687154412403176
-0.0029532456494483252
-0.012020568760406017
-0.00028538716725976101
-0.00062584905549135385
0
-0.035009210020745897
-0.011531495349216714
-0.0064963265675484798
0.0012749574381744136
-0.001674804356831797
3.4470508910966787e-05
0.0069949024860358807
-0.086974685412854399
-0.0044427914913573443
-0.00054585997839601795
-0.00077644140551749946
0.00014537771709471447
-2.1310688820436241e-06
-0.00033025383694313824
-0.0021860984289768992
-0.0018193946989872806
-0.0077093911541197165
0
0.00035638753269179698
0.026962647079041693
-0.00056983139356374965
0.0024502785084780498
1.0253523023227004e-08
1.150563219580979e-05
0.022766070936366577
-0.010602783439118421
0
-0.00074913109121656435
-0.0028602330693069493
0
-0.0013028065828126719
-0.0052178416976251226
0
-0.00038813886956001937
-0.00070970589536228435
0
0
-0.043020140612769486
0
-0.0073890889439354821
2.6747034149438221e-05
0
8.5058548594858462e-06
0.031536095533929075
0.014199474072490816
0.0062061466242160296
-1.3664178810920623e-05
0
0.0011640258140605026
0.011333923778059895
0
0.0009428729381675677
6.4277732402576149e-05
5.7351041648017902e-06
1.4702316835988165e-05
0.033656885319854286
0.00030580278020757773
0
2.8411780832892314e-08
0
0.0060569526851759108
-0.00353548771279228
0.00041530683170506538
8.944014289067821e-05
-0.0018176927422620616
6.7500602897118189e-05
-4.9328801986464732e-05
0.00013965529323420659
-1.4506445254182116e-05
-0.002578387755238424
-0.00012771485629520157
0
0.015355249600394175
-0.020544555925027824
-0.00019347685716914815
0.0098545989090588221
-4.392859830327415e-12
-4.5054014400331661e-07
0.0033012222784753551
-0.0014694963817182638
0
0.00084546026259528875
-0.00030281364072396458
-7.2869434197644822e-05
-0.0021982971937753002
-0.0024222280672367988
0.0010749357806630496
-9.3207892352627531e-05
-0.00011514838076891103
0
0.0064679954799210368
0.0084243868337564674
-0.00070860002129340908
-4.5927433369747507e-05
-9.2879294451011963e-06
0
-0.0025247095109998748
-0.019836346062804364
0.0024025129662129737
0
-7.8716823417497838e-05
9.373651942726815e-05
0.00043852888777030295
0.016397495257735099
-0.0032115541094344347
-0.014029874630946829
-1.2385096796710765e-09
0
0.008950811152990434
0
0.0117479940346789
0.024381579638644957
1.4077390499042156e-09
0
0
0.0016509473989402231
0
-1.5684616515020158e-05
0.0003373104626341672
-7.0835217797908479e-06
0.0012417424742373585
0.017310136758738954
0
9.4504629445193801e-06
0.00010079355937412402
3.1674495663687558e-06
0.014813422246852039
0.037121103395180245
8.7433854507314311e-06
-0.00034175966708702567
-2.4980456105464215e-07
0
0.044771306433750421
0.013816951742683041
-0.0061388526193831665
0.00064266609289237854
-1.0449028652124853e-07
0
0
7.3840192628111913e-06
-0.00061999665085737087
0.00090886745217753559
0.00039838307649087167
-1.8298796695867488e-05
-0.021279212743286778
-0.012254449437629333
2.902847832861139e-05
0
-3.7168834407724521e-07
-1.4601230509485896e-06
0.016287835207175437
-0.039568651951810939
0
0.0060622514283827479
-3.8885903130322227e-05
3.034595748942834e-06
0.025909893515826423
0.017434624948380752
-3.7165723413595006e-05
-0.0062847825487602196
7.0391589016060207e-05
3.1748987473487413e-06
0
0.058952044652034415
7.86936045479693e-07
0
-7.9383034784541683e-12
0
-0.084455697776832067
-0.0021226340835056737
4.5893738883532513e-05
0.00055423135716632264
0.00010287414420194264
-2.2772189947357442e-05
-0.036505820483698118
0
0
0.00022711250947037663
-0.00028748276246933651
1.1008505202153063e-05
0
-0.013618077655710341
0.011974693089004314
-0.0014455295030064504
4.3698052627114798e-05
0
0.014624878776889384
0.0031421635320828169
0
0.0031582003299472279
0.0012476484956422068
-1.0926055571856792e-07
0.0051608530452523218
0
0
-0.0002659785013476465
-1.2188632048287706e-05
0
0.016753095200015253
-0.018591035325952614
-2.612683413459679e-05
0.0032362922515141528
-8.760189667437608e-09
-2.1881375566721571e-05
-0.010252699390316576
-0.020507977707766072
-0.00017823321804461283
0
-7.7593092827817371e-09
-1.4343522188737135e-07
0.0062168606203210647
-0.0041707081117236039
0.005681847439094341
0.0009060936607974613
-4.8504508524726094e-05
-7.0057106119943152e-05
-0.01093809808130336
-0.029631971055393322
0
-0.0024134352027435973
-6.3527444974075428e-07
1.0685606715202567e-05
0.065161922606972997
0.0048830801120361674
0.018060009680712957
-0.00025026710334351835
-1.2486924949666057e-05
0
-0.024419939257123952
0.001706160942075888
-0.0011796012322900825
4.1195771396214068e-06
-0.0073633253095838295
0
5.0117164655397425e-05
0.00023893524073944998
-0.00020327648030543617
-0.011565401366814726
-0.0013320771348646905
1.271994036567211e-05
-0.010006088690016112
-0.00035617214818591669
-0.0011452210394372749
0.0018242952095443876
0.00084281595102574049
2.7592539598010263e-06
0.0081252222692300841
-0.0034625892191382395
0.002222922961946885
-0.0067424173391005052
-0.0052199654836006205
0
-0.031188281565473305
-0.0057690822666771006
-9.4832448151106519e-05
-0.00053038881514520385
-0.00032752027477741294
0
1.8865304247898061e-05
0
-0.0056709432780426231
-0.0020224777572816948
-0.0012305178814502821
0
0.002169549510650722
2.019080125745975e-05
0.013691458547064056
-0.0028076873114737063
-0.005004449261787283
0
0.051053037026333223
0.010528468441958955
0.0071225692333978814
0.0018186641615534371
7.0971953820927184e-05
1.0915415067599878e-05
-0.018586178279348647
0.0050793796418666911
2.0753077689914556e-05
0
8.397155522168671e-10
0
0.0018888129286898177
0.0060917787542527409
0
8.4672629491030278e-07
0.000595526985003736
0
0.0030923332129608396
0.00014539736539787609
0
-4.7361041913110086e-08
0.00011358641211031443
0
-0.00036083881560609746
-4.7682148511228355e-05
4.6691788492504569e-05
0.0025513896584937394
1.1420775109439878e-05
0
0.028429847934454074
0.0063280795483164134
0.0001976703840589065
0
-3.7794721094690921e-05
6.8730200041393084e-07
2.0242387262981964e-05
0.0004742733269092772
0
-2.0516829202990828e-05
9.1135308482963472e-05
1.0303768317644651e-07
0
0.0004341454679462663
-6.774014560249491e-07
0
-6.6381320357887692e-05
-4.252385029044733e-10
0.00094032136872166793
5.5717613243478589e-07
0
-0.0017024644825791094
-8.3631159001595371e-07
0
0.025739773675631173
0.00024664483178897485
0
0
2.7785354080297417e-08
0
6.7332701949006406e-05
0.029837736549512214
-1.758758222373193e-05
1.6779701045395687e-07
4.3886618939920306e-08
0
-1.4822776844443972e-05
0
0
0
1.2507267700586779e-08
0
-0.0033363286244437827
-0.0076210428426625775
-2.3057849611839497e-07
0.00018808293656593324
5.6181717484411815e-08
0
-8.0283761079517765e-09
-0.0017031422069409734
2.8259876895739142e-05
0
-1.4233293102040335e-05
0
0.019321790800461345
6.480929019333576e-05
-4.8651187993288612e-05
-3.1515267660388751e-08
-7.4555307786482569e-08
0
-0.00020982443917625049
9.3991376493643772e-05
-1.1786493543969055e-07
-2.3389728513590978e-06
-2.3473470535980589e-07
-2.7308146879916795e-07
-0.0079848825130754818
-6.3680907948755758e-06
-1.4652083030063986e-06
-4.4792598445720721e-05
-1.159697355102419e-09
0
-0.0060388943083776962
-0.0014239477840568681
-5.5999866932152819e-05
0
-1.2576844770989596e-08
0
-0.0001848702912256446
-0.00059119437088148228
2.1601714777265115e-05
1.7601103523585058e-06
-4.1868323281227112e-06
0
-0.0033934974422293865
-0.0038363598142894403
1.9246260838729927e-05
-6.1238066253381139e-06
-3.9987220095429766e-08
1.2420319846558904e-07
0.0045109841808668493
-0.0017387091460451182
0
0
-0.00018357403358031988
-6.811498691470413e-08
-0.0051277212709587381
-3.1901858933682038e-05
0
0
-1.7805970834579577e-06
0
-0.0003515315062356969
0
6.2821881091413517e-06
-0.00024536316792902649
1.1026354210666177e-05
0
0
-0.0023975600093769866
7.7996551390353315e-06
-6.4093744567767235e-05
-8.7291807064497062e-06
0
-7.6528950109219446e-05
-6.3647113266411857e-05
-0.00012140967024117047
0
-2.4373063288039507e-09
0
0.00095348805931631396
0
-1.6283530833262166e-06
4.67272861177171e-07
-1.1528039678754931e-05
0
0
6.242809859167056e-05
0
1.7791722580657126e-06
-2.0029524786943538e-07
0
2.5167113004542993e-09
-0.00095526707883204212
0
0
-7.5015967216468968e-09
0
0
0
0.0001175726895274621
-3.578457199598646e-06
-0.00012057328269057623
0
0
6.5281712050414955e-05
0.00013437772611796491
0
-9.7549578269966373e-05
0
-4.4948786852578472e-07
1.1290713397836309e-05
0
0
-1.43473148537559e-06
0
0.00047588282877194621
0
-1.3303101355779645e-06
-2.5675661449046811e-05
-8.6621408773053159e-09
-0.0015251030403785684
0.062602166017870428
-0.0061921053516298414
-0.0065790308272511734
-0.0080459814413540338
-0.00086314908897737388
0
-0.024605484712147796
-0.054397923543368414
-0.0070052061524741149
0
-1.9668709289857827e-08
0.002063689857837532
0.048198212421494746
6.0840293418288786e-06
-0.048265687254632893
-0.010038360720302092
-0.024076272332185341
0.00011377861027632682
0
0.10514623901551133
-0.050518622838313064
-0.00045268726978833795
2.2667426101295533e-08
-0.00019155282122851542
0
0.0079844535735426048
5.2767516043807305e-06
-0.030209847334281656
-9.619371469224824e-09
2.0620424184598927e-05
-0.0046476451307936456
-0.027017177617396373
0.0011951062533931806
0.0018039257473243871
-3.3373567213999153e-12
-3.3007971368110362e-05
-0.0043619118742362906
-0.014010773616456954
-0.00028410552582827084
-0.003071303591436962
1.1806731012244659e-05
-2.2951143001977966e-05
0
-0.0014924354867014112
0.0008565066955544859
-0.06015955165389273
0.0039540695714953521
0.0065759652926578351
0.014266850118876712
0.0043699765705572536
-0.011003700285807114
3.2465037322654172e-05
7.3609466606526393e-06
-0.0039995985270540064
-0.17797681027083892
-0.0034532484918271388
-0.043563178765780086
-2.3793172446763043e-05
-0.00094581916787433897
0.00059393847834463259
0.040382074460515671
0.0088657789623949722
-0.01601191219859292
-0.0087648745416928943
-0.0022042490878559223
-0.00059068754661068998
-0.013518173648821141
-0.02229655367897521
-0.0088279864593068299
-0.0029827648862621034
0.0011878966961422566
-0.00069264094268808808
1.8855138485259445e-05
0.00070197280154741496
-0.0067943987898362651
0.00053871768889740762
-0.011946380898131692
-0.00090033461776794772
0.00012100498576332681
0.031241678222070558
-0.0013106193225003351
0.006753720361200471
-5.2508505331262901e-08
6.1121115145003707e-05
0.069586039080334741
0.018271744817853673
-0.070328349797372083
-0.067185315791564296
0.003007981899637626
0
-0.00045048300809462415
-0.022644900670435501
0.027897501044439346
0.0029136660570223912
-0.00048293591008078762
0.0026320221352795986
0
-0.037409661049475365
0.0014350636361075201
7.2598345569747613e-08
-0.00011008502170854913
0
2.176953638629868e-05
0.048878389352575415
-0.070763939578862955
0.005151092847473223
-0.001061306052058095
-0.0016833793124512789
-0.021060802412449949
-0.026342576552933747
0
-0.0030899922395276097
-0.00015217474546431401
-0.00048004739274962465
2.7855068927257e-06
0.067283805157883306
-0.38768671787833103
-0.024874893921596117
-1.1774663084942552e-07
0.0002300262100904885
0.0044586971702572737
0.0017452722015193871
-0.001289881280591703
0.00092967714524708059
0.0046773590062272928
-0.00015123402281422586
-6.6928771995202323e-07
-0.00029506845393035316
0.010952035830368129
0.0072391739002775086
0.0001135585272172299
-0.0060076067233683682
0.00017501954069471621
-0.0011277163802763906
0.064937619022375589
0.011481982587671694
5.5272157144303549e-11
-3.9523308529536218e-06
0.0027568805210173952
-0.00020659902676294876
0
0.0039669976982046771
0.0026624518500760093
7.2869434197644822e-05
-0.0043050328658997949
-0.0024222280672367988
0.00044618964784796521
0.00018036819627035127
0.00012501134994890776
0
0.020052376955691779
0.11823536034497267
0.12321996846351517
0.077514762223631614
0.025408810064955867
0
-0.0013781523321994846
-0.038465815028788507
0.01509461167460782
0
-3.728521432443587e-05
-0.00014723979971072664
0.0064687268600737849
0.022042745634754227
0.0062183450814541118
0.026150854204151832
-1.4355078217713305e-08
0.00024945256733897544
0.036515155780952789
0.20655749934819662
-0.053595183679490691
-0.021963027376906051
-3.80902358523347e-09
-0.0022846429438862013
0
-0.00017297859124665711
-0.019922759646291328
-3.5758646197523338e-06
0.00077102830191395054
-0.00025297548402719881
0.00023328539030612733
0.00092150061502528288
0
2.1078192238996628e-06
0.0019897478380017219
0.00112790139649886
-0.023309584733936916
-0.052903831507168861
-9.2837000947741969e-06
-0.055478121930667632
6.8441601152586179e-07
-0.00099460980045440288
-0.014602240430400497
-0.13507286878656799
0.037658129417427279
0.00054188851882799459
-3.7690724889642897e-07
0
0.21294217936295556
2.1430854207985521e-05
0.00048212255975954848
-0.00015522641759600753
0.00066683810390818425
3.1132983259852383e-05
-0.036522654781106036
0.0015158780087071225
-0.076163465706703931
-0.00051326559149211847
4.781808835185189e-06
-1.8593885580183102e-05
0.033462005700054878
0.05616942374038851
0.0026509970733606452
-0.011695538962369962
6.9791112261551885e-05
-0.00030091898025022882
-0.049223141666852231
-0.25931796315249073
-0.033427100592591033
0.01182671463936095
-5.5132517490599749e-05
0.0048568673514351483
0.11376115095344433
0.064792088216855143
7.86936045479693e-07
-0.059888598046295725
-7.1309086083591229e-12
0
-0.16212211230282755
-0.039474166842251919
-0.07107119861724813
-0.0047483086248626951
-0.00022674533320723268
-0.00028110346847300669
0.06906109892523693
0
0
0.0033025530144173421
0.013807301858469434
-7.1209464681028833e-05
-0.16770164951290853
-0.0027914588301470285
0.019162363889310502
0.094271777619023028
-1.9927294276713448e-05
-0.0015504820698728837
0.03440827149425587
0.0047970423654215876
0.056807203040568813
0.0079545193880856679
-0.0012978617725015892
-2.7585330849516975e-06
0.0010792649019852978
0.19161829178129652
0
-0.080559751082265749
1.4680093350308486e-05
0.00053532493322055205
0.094588380504259204
0.046630858240344138
4.4995771434527097e-05
0.0090276430243348919
-4.5086269238080197e-08
-1.9029297973463619e-05
-0.00077667555460292934
-0.010088975695381011
-0.002196186605592892
0
1.209113644021046e-08
0.0011117652821152661
0.0032408847850174971
0.0037641263896169251
-0.027684352825345423
0.00044011607086004244
-1.1310075234248747e-05
-0.00023349883865242529
0.0079077366796197375
0.072940321560730409
-0.020624246482336232
-0.0084442964434534203
0.027210717017527506
-0.0016199756993207602
-0.052662493592696979
0.00016596491735408928
0.035310696354454149
-6.2926525277154767e-05
2.259747532084904e-05
-7.0485329160275574e-05
0.016559410688423482
-0.00024558217541593844
-9.6487795332793574e-06
0.013055316769345859
0.033297667725281428
0
6.0765036700621097e-05
0.00016697150655477528
0.00033297037392775316
-0.0074405906494444162
0.00097550012638935137
-0.010807831754886586
-0.0034662525762063842
-0.0010393862961631329
0.00044331065759978288
0.00063497494239446255
-0.00017152262081507083
-3.8495551400932661e-05
-0.0079280922196074844
-0.10918112467627551
0.0020459184145849765
-0.034244558180236022
-0.0072230599471462499
0
-0.10549501300714774
-0.0012708903763971803
-0.015316362368180387
0.0020091082905234828
7.9196609361338629e-05
0
1.6479682015121847e-05
-0.06935159127775585
0
0.0029640223265460148
-0.00097468409705446426
0
0.0074643819436021564
-0.12638810564145661
-0.011489726248756585
-0.023923504385201914
0.0055044191601471186
0
-0.011636330415863845
-0.0002880452515996528
0.0096519513292772086
0.0018590932437448895
-5.5672552294792424e-05
0.00059333610155892205
-0.034412392666061595
-0.01170080975210985
-1.2272208858317363e-05
-0.054618949298371557
4.899734964766293e-09
0
-0.0010761778433359683
-0.0071436474044532447
0.00023019831710300426
0.00065395976426569659
0.00051054879659289776
0
-0.0043394184397930911
-0.0026549743272732437
0
-1.3733274099509252e-07
5.4844683955110855e-05
0
0.00017617603756041111
-4.7682148511228355e-05
3.9118216256895597e-05
-8.1364198322323823e-06
-2.087635984962353e-05
0
-0.0022821478956931074
-0.0077677560584294624
-3.1401990013484556e-05
0
-2.5290789252778154e-05
2.704276063767609e-06
4.6987207624162423e-06
-0.0002170913331735791
0
0.0016814277657685327
-9.7936182969887402e-05
-2.0086514605718446e-08
0
-0.00042125004551031196
4.1069058183540146e-07
0
-2.9066605292722034e-05
1.193195833921065e-05
-0.002537495986848607
-1.6751286604877726e-07
-0.00091569306976483646
-0.00047509767311198836
-8.7832620294049966e-06
0
-0.025755762873514731
-0.0024731455090438639
0.00010306789296839874
0
1.7652545593514841e-08
2.8128526407993352e-07
-0.0054981597016412892
-0.00056841243681942841
2.6453125647120721e-05
-9.0576517034639872e-07
2.3518121164450135e-08
0
0.0011512415702580464
0
0
0
3.1489684612071995e-10
-2.0841511171427184e-07
-0.0004448397211089198
-0.012425539381210424
0.00027521815792860713
-4.9097798388267825e-05
3.1420991361799973e-08
0
3.1796733836243416e-08
0.0010974944030505095
-3.037412231004087e-05
0
-2.607228655603232e-06
0
0.019321790800461345
2.4002077849639097e-05
-0.00023385827148649603
-0.000232829291076725
1.9635640869914999e-09
0
1.6813516320520464e-05
2.7760303955162829e-05
-6.2692947370993745e-07
-1.8013726041506352e-07
5.8631825404343621e-07
-7.1856971056920637e-07
-0.0079827355151707979
2.6838326979177356e-06
-2.5928468115589948e-06
-0.0001260145244897361
2.9736761902280576e-10
0
-0.0060388943083776962
0.00058147930004314678
-1.0050840650795649e-05
0
1.443581154148954e-08
0
-0.0001848702912256446
0
5.3163150766440918e-08
-1.5986644006189592e-05
-3.3663875916442842e-06
0
2.3270093867308433e-07
0.0018034839088667096
3.8084477249220717e-05
1.7324572984816321e-06
5.6454670777301455e-08
1.2420319846558904e-07
3.8427905205556721e-05
-0.00011886603485309163
0
0
1.7450789980575778e-05
-7.3989820452656245e-08
-0.0013924279690272485
2.1452205553053413e-06
0
0
-0.0013070479739522303
0
-0.00044970627322351951
0
-0.00052477976749401567
-0.00050128231469152244
0.00018637289942374221
0
0
-0.0016930691610681282
0
-8.7522140564892821e-05
3.8575086913959068e-06
0
4.7877965829761541e-05
-4.1659971680597124e-05
-2.6168939781454192e-05
-0.0002034603018238009
1.6301292362525405e-08
0
0.0002493909633891844
0
4.3940948346572303e-07
7.9510223168715756e-07
-3.4051769399429086e-05
0
0
0.0002579247703666608
0
1.2013543429165293e-05
2.3419302461548007e-07
0
3.3242504109131809e-09
0.00095525046316616226
0
3.1247526836896158e-05
1.7029343488648774e-08
0
0
0
-2.968270102539567e-05
3.9815252106432416e-06
9.9927060027318179e-05
0
0
-1.0348620021226953e-05
-8.3672899426486869e-05
0
8.4930478698118723e-06
0
4.2263017720345443e-07
7.4316050496285954e-07
0
0
2.8005951671191528e-07
0
-0.00051941913466206234
0
-1.3303101355779645e-06
9.9482816192232555e-05
-1.4345406289638304e-07
0.0013629273996908144
0.15065060141446507
0.015988132013173059
-0.0024900436511012701
-0.0028328515030880824
0.00027612073329294761
0
-0.019765371419131001
-0.13239385790041516
-0.0013958981078146411
-0.013566296150717768
-3.8642586561918604e-08
-0.020401347981158474
-0.1395776182880058
-6.6149021928162368e-06
-0.048265687254632893
0.012103938697565375
0.0053195806455877785
0.018043807958405055
0.28437885338408109
0.17008652582891332
0.061777857652412095
0.02776362441765684
-2.3031293710458374e-08
-0.024930385946425822
0
-0.0064735060199341277
-3.4811374120766785e-05
-0.016928334307360987
7.152063166033851e-09
1.0700541229715267e-05
-0.026367324880786962
0.013785954545289541
0.008841259682176009
-0.0050088015550656291
-3.6428137494169712e-13
-0.0010035472014773667
-0.0059782698713281741
-0.0098650412460561266
0.00027789660651396305
-0.027756403190816171
2.5684929660994962e-05
9.0631002788633995e-05
0.40145317530377478
0.0038193465294858739
0.0010723060180360343
-0.062616333564563018
0.00041532583538204888
0.0071005535439236621
0.0084716404971155977
0.0066250585553155657
-0.04573909683492134
4.5701603857114811e-06
-3.0820209146969575e-06
0.0063707632094209569
-0.088791485025151787
0.0020043499880278834
0.0072062530928401012
0.00025196400278053598
-0.0013219905402858138
0.0017714643463321896
-0.03683839675888359
-0.0014105772816456591
-0.0094021262024626337
-0.0033127852692077502
-0.0011243834047853177
-0.0005918176522997135
-0.11609351834475237
-0.31209924429997898
-0.0051102245475413916
-0.0033842052155770236
-0.00014868194597452133
0.00049296450927414101
1.6671684334020288e-05
0.00074338322453211601
0.0028425592410097444
-0.0029612058237503732
-0.021570494516107212
0.025278011774613255
-2.9567018189373012e-05
0.097949999196785542
0.00050770049073904763
-0.0044126742829836149
1.4770399269320444e-07
6.1121115145003707e-05
0.038649963152520506
0.010069107642814266
0.21190388860255038
0.01869084769000667
0.049985657506582203
0.01593807546197264
0.00019981822961273146
0.0097815732072987285
0.10789635341845662
0.0047264759710835703
-0.0015665381319179986
-0.00093363173889191454
0
0.040564716243545268
0.061362258551047856
-0.049044663175172386
-0.000145287988084816
-0.0024652188980022649
7.843472065731209e-06
0.020699494444624194
-0.066851688055512143
0.0081634144375034752
-0.001894067139982903
-0.025516930767806947
-0.0065994790050525089
-0.011143952206199275
0
-0.0024087824645980835
-0.00020047930115465193
-0.001059789981638697
-1.7429033492902569e-05
-0.11111850585434063
-0.38737431732611122
-0.0079024539099238657
-1.3403408916155684e-07
-0.0013540274673988898
-0.0090908651948952649
-0.019374413491311079
-0.018061237518258687
0.00090219467321828552
0.004381523135553649
-0.022873466324151392
-0.58004069980221917
-1.6474767467349917e-05
-0.10185145422553397
-0.0074223753929753391
-9.0005373202919241e-05
0.011191470946543401
0.031021417987818972
0.11626417615788184
0.023932975970548567
0.0094023203095669923
1.3034878023392118e-11
1.1518040341012688e-05
0.0060161907648475458
0.28672678446229272
0
0.0055067676367614362
0.0034574090597565988
7.2869434197644822e-05
-0.00064125148161292382
0.00099977646431026685
-0.0011150818131897972
8.7527076914044108e-05
0.0001644395977504133
0
0.013080014761356583
-0.088521791448486487
0.10747909872502433
-0.07755008018728933
-0.18451369308173532
-0.0092595416057280472
-0.0020298335082349606
-0.010764714141542744
-0.002218985697674352
0
0.00010877599845883199
0.00019308351487278409
0.10986577562363928
0.035051020523655503
0.013522938557994225
0.0010030409020889554
-4.457913773222955e-09
0.00024945256733897544
-0.024154152940275682
-0.22709239511984203
-0.022257295940319125
0.02208165989956045
2.5151641452841465e-09
0.017019650884957143
0.38302503609636135
0.0048656935821339287
0.15516467973519177
1.8614219912329971e-07
-0.0011713436042432531
0.011751519139996343
0.00051637875318368942
0.016112192585967439
0.0071667876531027437
9.1198646599468155e-06
0.0024059600658531723
-0.0012003373004868092
-0.0073524023097742012
-0.022037338762239254
-8.2480589519440611e-06
-0.055478121930667632
-5.8615644790502122e-07
0.0054032982739467281
0.12274422771227858
0.14183826637248312
-0.01645532841672695
-0.00050230335468593389
3.7690724889642897e-07
0.001084560022371725
-0.11441343780431716
2.1256646199608337e-05
0.050617665979599234
0.00027146440085732109
-0.0002415992145887319
2.6782014624014831e-05
-0.016673765393243313
0.0091813561442097309
-4.8380046825683197e-05
-0.016695317037759935
5.2169828964719218e-06
-3.7100226701395023e-05
-0.10395005302214701
-0.043793635977199159
0.019695204742300368
-0.019097068324841458
-2.20949928103426e-05
0.0037888631200638087
0.047865137952922417
0.022534198260537423
-0.05651958293248352
0.012600543857639278
-1.0606734059494391e-05
-0.00064861978790664218
-0.16512817827432916
-0.032986330459361064
0.069314692343896075
0.054462476492414522
-1.9051750572429993e-11
-0.0040032748362976971
-0.021082626189577878
-0.038775956552345017
0.066902052650603019
0.046394582883510227
-0.00020862039463574896
-0.0011807462485523737
-0.2104393463005565
-0.080808005682285647
-0.0044863318003965629
0.014179325233696978
0.0025191783004149754
-4.658204121979797e-05
0.16770164951290853
0.022052834154248566
0.052530075588903047
-0.082574873005225022
-4.3698052627114798e-05
-0.0040850707483218148
0.00058770268513210367
-0.0044592256549617218
-0.11170711238303158
0.0059042573412040351
0.0041369729935019275
-8.9147507161643516e-07
-0.012593541702993885
0
0.013852797585281854
-0.0024451799815967843
-1.049155884466253e-05
0.0062574229074565165
-0.015354891905109712
-0.014961255472532778
1.8411119337590838e-06
0.0054031071038442352
-8.0525378997874e-08
2.0456835055838329e-05
0.0062729671595236625
0.031004655248574035
0.027586180623668379
0
-0.063622983684281875
0.0016225848133410098
0.021908672095254472
0.025260571695042724
-0.016279299703339759
0.00087376998372667807
-8.7900082444615664e-05
-0.00038785061193191689
0.0013993613054296616
-0.0207053523078276
-0.20406366825397029
-0.0043856545053901526
0.050679046928000501
-0.0039937743735682435
-0.031668499693851063
-0.0041415582551425521
0.036427477215471044
-0.00057105069427349961
-5.8793795655653584e-05
-5.1427211522517947e-05
-0.012153294496832921
-0.002358187406163659
0.00061552765636113281
0.0064943293451179881
0.050797250173377904
0
-9.4817545952164069e-06
-0.0007898104714198366
7.557371584282057e-05
-0.021076194456448743
-0.0016648170418672027
0.0140136935093367
0.1230580327525823
0.00043562523885709711
0.0017034088258160601
0.14247877282994184
0.00014471100128618861
0.0012249368245517075
0.0085566651361069189
0.13395046095030974
-0.001388019231077813
0.042163867030182114
0.011364550161085556
0
0.098768441654347755
0.0034781251332693937
-0.0061321537346744406
-0.00048225797316255064
0.00024487663954469486
0
7.178581501953294e-06
-0.15567788678074518
0.036623576202208859
-0.0057808855752194905
-0.015406107512046897
0.0058746911529859083
0.014837676007124384
0.27694691268117116
-0.0099098158145196572
0.0078403271761509873
0.021662126548510022
-0.00092918937514614361
-0.051874084626159736
-0.0084810210100790713
0.053573921964757625
0.0024407422573720647
-5.939899735381581e-05
1.5313510349646909e-05
-0.014511324037531557
-0.0032300178827182596
1.558467869078884e-07
0.0069426682675963686
