0.099790887081492918
0
0.00051873139768155352
0.004928303033689789
0
-1.8667470200672012e-07
0.10000109594950414
0
0.0082144243667572146
0.024771505927224793
0
0
0.13087689612743064
0
0
0
0
0
0.089501700386148034
0
0
-5.0851701723520157e-05
0
0
0.099559879605543966
0
-0.0038678160900086963
0.0027196230479828581
0
0
0.099627268521649687
0
0
-6.1531441552671181e-05
0
0
0.10169847081148403
0
-0.0017493478820273785
-1.4896185834667508e-06
0
0
0.09495037138794285
0
0
-6.1338554887209004e-05
0
0
0.099290680105861145
0
-6.1074694936837332e-06
-0.00015588393506948541
0
0
0.10318794479939529
0
0
0
0
0
-0.011392058267388991
0
0
0
-1.1596539511600647e-06
-4.0803714706977847e-05
0.00094436578254071383
0
-4.6148881324490742e-08
4.7507986979487841e-05
-3.0991267304270896e-05
0
-0.00048768328619657359
0
0
-0.00011506660096576393
5.4044325464033634e-06
0
-0.0021152849144754422
0
-0.0011889389133094071
0
0.000112996429855442
4.6693625484234527e-06
-7.1163394136020783e-06
0
0
-0.00059449470606365664
0
0
2.2184918236943963e-05
0
0
0.00027412588744622372
0
0
0.0015025148261263342
0
0
0
0
0
1.7396390211220653e-06
0
0
0
0
1.6781107531514459e-05
0.00030737669921417554
0
-4.6706025057158181e-05
0.00020813522114410303
0
0
0.00011782526743217798
0
0
-5.2233018469477642e-05
0
0
1.9482259761755133e-07
0
0
0
0
0
5.6802939713847646e-07
0
0
-0.00015641030727485053
0
0
2.3209636907932238e-05
0
0
0
0
0
0.0010934986347656186
0
0
0
-1.9929715717699078e-06
0
0.006092645421912078
0
0
0.00018889800644835675
0
0
0
0
0
-2.7660638367358739e-05
0
0
0
0
0
0
0
7.7333930860818317e-05
2.0847185912691819e-06
0
0
9.585632983193749e-05
4.5625093929383519e-07
0
2.2982953223895016e-06
0
0.0010583248915505444
1.1731541947344965e-05
0
0
1.9963518864076043e-06
0
0
0
0
-4.5103575521117435e-05
0.077800543447362536
0.0078081808741338648
-0.1000417340786016
0.029923756805975459
0.13468983799678064
0.0033639330148958046
0.11629331234701325
0
0.0049423920697528687
0
0.001119788033960237
-0.10000000000000001
0.23935406487702701
0
0.12448940489804897
0.052656507724272501
0.12764107905115796
0.010870272133649331
-0.086173800394793762
0.011928625627813961
-0.06779210772611205
0.03806426419555764
0.11823814585028281
0.10000000000000001
0.17000606534513876
0
0
0.093515252846701993
0.15246939020523645
0.075771060698419615
0.15912403294729677
0.0030498932118849372
0
-0.1141392406465791
0.19396668452239951
0.15376367704470617
0.26675478925300311
0.0006943722629681638
-0.04617715752623805
0.025544974183974934
0.11024899957019982
0.11469518707440647
0.61969593355176744
-0.00038915154898338475
-0.089371013519699699
-0.16481876553893707
0.062919736457284742
0.12680176343696817
0.65643695188161155
-0.0028319881318676142
0.10351630526660525
0.16539982299264505
0.10745914108097356
0.0041879385855588414
0.73979296826684993
-0.00011508926072130606
0.13500538660097652
-0.0018952532189129617
0.0084317225167743811
-0.0048275419553281806
1.0926256417010163
-0.0059555304353643441
-0.066757170652037373
-0.046389557141005018
0.010058141638771199
0.03806299469512487
0.5972155076459128
0.0037257114796492583
-0.11687916868554174
-0.064432998594168747
0.012440809425926557
-0.090032175643589257
0.95951473433405099
-0.011176867798151493
0.064450956411382931
0.0049255214581275016
0.12415573483276111
-0.09851234330480331
1.6554106874438277
0
-0.15343744703374998
0.011114898502100875
0.018695510771077676
0.068894068876661302
0.23152426311499572
-1.9112207530763644e-05
0.048155028697028812
-0.047339710940344899
0.10000000000000001
0.092245291088722564
0.33420519440647339
0
-0.02706393708470204
-0.055182857020825281
0.29536057618945893
0.042575349868627807
1.8893459683705527
0.0061358911578931492
0
-0.18190202890750437
0.2157697436466719
5.6399167214367122e-05
0.31727561666544807
0
-0.00012645321798057202
0.10982293650075123
0.15576208947224357
-0.11743726699620305
0.49394563947218434
0
0.085127225275087773
-0.085179280750486877
0.10000000000000001
0.0083281442348270181
0.53318431687197976
-0.0046177901635409014
-0.021447082796956327
0.054134446469450793
0.019657582323679312
0.055525083134604969
0.93774861434692158
0
0.018593847086978411
0.016725232363148258
0.20493966225035384
0.04018226974392395
1.0932687601514977
0
-0.055356735201327105
0.0012035629121064119
0.25220517598861203
-0.097622928856383476
0.86874548226837667
-0.012174193282475074
0.03654450450135692
0.024999719240328001
0.011082084824235342
0.043953076097674029
0.91243435753517699
0.00024219023610480382
0.10665594806695508
0.176408290968672
0.10000000000000001
-0.0045872517107933873
0.80539585567667571
0
-0.088458055529358634
0.022745614718070829
0.09789849189577271
-0.0073987995955446476
0.94200426912358137
0
-0.024702145672760217
-0.16594394566098974
0.1634634122159328
0.040069064134012893
0.91676679838050346
0
-0.19413086463684662
-0.26505801472468743
0.073097457309127728
-0.10000000000000001
0.638423164190415
0.0012022902663748243
0.17683254493850523
0.26507205139076401
0.07380199050353653
0.1752455078863604
0.74205130873022662
0
0.039211616821993894
0.079428872761814859
0.15919877218762651
0.10000000000000001
0.033921772686534804
0
-0.088966154972991124
-0.1906321899027848
0
0.099958119369696619
0.061493072661900398
0
0.19908596273474446
0.42193800496560663
0.10000000000000001
0.014645238804569834
0.093950316078380489
0.00040139217422914162
-0.092619807159087866
0.07407282443102664
0.068152338412121455
0
0.062609745775354483
0
0.033990535232877261
-0.33685199626199269
0.089825859310501868
0.0012284070356039839
0.10953008312355639
0
0
0.066914186063825834
0.037517804445895482
0.046183656113368179
0.10789645007346561
0.0014895909782852649
-0.0099553641232220901
-0.035375898865298239
0.10000000000000001
0
0.091951890344240866
0.0096847518010136757
0.034123255585993072
0.075963420262312412
-0.10000000000000001
0
0.16704050928579756
-0.00027508960208235463
0.0027062423418362474
0
-0.085945752706055423
0.0028908931397909647
0.028148562598579438
0.0016913061708275293
0
0
-0.099952836516418397
0
-0.15065009860013462
0
0
0
0
0
0.097302617357034854
0.0027017407830951592
0
0
0
0
-0.45809739739369032
-0.00011941057114835101
-0.046655415509506519
-0.07017275488425638
-0.021481537485776671
-6.9844809927017502e-06
-0.39953026924641877
0.00056456506888091632
-0.075905945050674398
-0.041669511350502259
0.012048518610850663
-0.0014252655591448292
0.36292460473681593
-0.0080501991288535017
-0.0014906876234718227
-0.097659895414258679
0.10000000000000001
0
0.015981038518393619
-0.0047412967461051576
-0.037219233455049308
-0.16393606291373564
0
-0.0019285579569436689
-0.28375823373655168
1.6691126456078468e-06
0.0064599167304005235
0.069949923464886724
-0.043907040620136117
0
0.85981909210814145
-0.0024552991501707116
-0.013244730515406457
0.078349370149390543
0.018449816188658735
0.016652619859121823
0.35957090879446213
-0.00070312387377130037
0.089028577491422289
-0.14547725499815581
0
0.025407281943239404
0.024736325216581919
5.327923867006909e-05
-0.090772911770989118
0.028057518313269133
-0.036682752796183132
-0.0004640087940690943
-0.2112765648801686
0
-0.04711520349869508
-0.046102101859001272
0.002025492721434357
0
-0.024507838756499443
0
-0.0046449106006500067
-0.022466279380772478
0.0010876289098494156
0.00011195984194403415
0.14704028763609348
-0.0019913999113563524
0.071750618252200846
-0.0094932837421377158
-0.0054399020671079554
0
-0.017634006615476219
0.0013770325439299805
-0.0098482498033567543
0.00019072904560373666
0.080100313546405122
-0.013559739982299264
0.029969011678556156
0
-0.020502761925107579
-0.071130210079823911
-0.02134286213611411
0.00010360112693188717
-0.05747746637464287
0
-0.056145768433571476
-0.0053814347958409253
0
-0.00055811231780890087
-0.04138316187680232
0
0.008976732691676776
0
-0.044021941384168081
9.1026274040726549e-06
0.016004236068190524
0
0.0070062450064997985
0.039333250383015328
0.042154837059413315
0.0062221014435252294
-0.020126238299884212
-0.0028055848903419012
-0.00054857877028423145
0.10784091268667126
0.11154297975003731
0
-2.6083975886721262e-09
0
0.00098069071104688412
-0.001977540136163039
0
0
0
0
0.00012274541410121632
0.00024404124587943798
0
0
0
0
0
0
0
0
4.3763183716965505e-06
0
0
0
5.4911249421632284e-05
0
-2.9641478338949023e-05
0
-8.2590089349235036e-05
-7.1311830505374442e-05
0
0
0
0
0
-0.00069882353905888108
0
0
0
0
0
-8.2870462683293117e-07
0
1.2484949690668746e-05
-4.1263494610898731e-06
0
0
0
0
0
3.4968309621588235e-09
0
-0.00041940738594949193
-0.00015588393506948541
0
0
-6.8020359989913338e-08
0
0
0
0
0
-8.7714674237876555e-10
0
0
0
0
-8.2459428810238367e-05
-2.0087353003974718e-09
0
0
5.1420748993733441e-05
3.5203551867509334e-05
0
1.0986093357309619e-07
0
0
-2.0403629611098799e-05
0.00010578958573260531
0
5.5038645712850286e-08
0
0.00026551015701639733
0
1.7860391393772682e-06
3.2137031564143291e-07
0
0
0
-6.6640167220816095e-06
0
0
4.4657572274126423e-10
0
0
-0.00027555349438798416
0
0
8.6978874883700673e-09
0
0
0
0
0
-8.0231633911477149e-07
0
0
0
0
-7.0509607478181637e-07
1.4748066494054074e-08
0
0
0
0
0
0
0
0
0
0
0
0
0
0
0
0
0
0
0
0
0
0
0
-4.3277760360918829e-07
0
0
0
0
0
6.2763160079976943e-10
0
0
0
0
0
0
0
0
4.9233895596200385e-05
0
0
0
0
0
0
0
0
0
0
0
0
0
-3.8139612849634733e-07
0
0
0
-4.0355178760465715e-05
0
0
-9.0594114533488416e-07
0
3.6402518324306903e-07
8.1002707187583093e-08
0
0
-5.2805010851846668e-07
0
0
0
0
-1.2721277159285462e-05
-7.4917780749960446e-09
0.00040478468760407594
0
0.0012742135861064459
-0.0019023377456722531
0.0021162239934760223
9.7754736634373399e-05
0
0.0079108219456555159
0
0.0012628420676111382
0
6.4774630663036342e-10
0
0
-5.0435598239476392e-06
0
-0.00059225955187044575
-0.004943143781212871
0
0
0
0
0
-5.2333593806862195e-09
0
0
0.004974431908783045
1.6681858373018662e-05
-0.0064385859752554564
-3.9126408434930306e-09
-2.3431724863586892e-05
-0.028936841465358003
-0.00081717738338742769
-0.0021088969585946406
-0.0022925438923879298
4.6947125977062804e-13
0.00044414748480587116
-0.0019117818348493574
-0.0024876238367121609
-0.00080322569012025399
-0.01570006112314274
-9.0181609567336327e-06
2.1927429554942294e-05
0
0.0014008148108864355
-0.00069169887506880477
-0.011645842869623732
-0.0034935652465581334
0
0.0011550364445921655
0
0
4.9811120224481527e-06
4.1130663490562426e-05
-0.00039194498448917939
0
-0.0013899518076420183
0.0061737475048949369
9.1190783548689933e-05
-0.001025869907948989
0
0.0057348300915948027
-0.0033473649940582535
-0.0013962436883644877
-0.0022271070453532579
0.00098738856501635083
0.00016826929511487652
0.022022020440058042
0
0.0038605864148170341
-0.00018559834204736811
-0.00038940537074301301
0.00017501707890449383
2.4733653769114164e-05
0.00084947255178130943
0.00017085159711993097
0.0013545845594052177
0
0
0.00053727816046039993
0.043492365226583195
-0.00090529058402276255
-0.0037307017379198519
1.3994611958856419e-07
1.095164030918636e-05
-0.0012161321710772314
-0.0063463790378482923
0
0
0
0
0.0011125805554620613
0.012145745842292232
0
0.0025413682958246213
-0.00090167715635390891
-0.00037908319318697282
0
-0.0048486924329659573
0
0
-6.1636057852784538e-05
0
-7.6939808388401983e-07
-0.0045226500939939945
0
-0.0085574607508346473
0.0015500173589979812
0
0.020801579257547234
0.032514467348239609
0
0.00019137250626136815
-9.7463105397657722e-05
0.00046294443949147009
7.6213049676888319e-06
-0.010901801438359032
0
0
1.4967357333941545e-07
0
-0.00035406012323830238
-0.0046820022112481216
0.0056385143651347001
0.00096844821965263669
-0.0024951705065299266
0
0
-0.00019588387914080163
0
0.0024625298992894309
6.7223868983090445e-05
-0.0038173988743972287
-0.0053151502861706317
0.017556301985222265
-0.030883111302246191
0.0099650133953021486
-4.4117885942142251e-11
2.7074711719404988e-07
-0.0012521003122078554
0
0
-0.00085085475528522191
-0.0015428086880720068
0
0.00087238991778340786
2.3915309531294209e-05
-0.0011826926340555569
-0.00012129638980051428
5.080003011356864e-06
0
-0.005321470605702993
-0.013089362014622139
0
-0.040941286046567008
-0.013441149241920922
0
0.00053182715325714224
-0.012071981349177136
-0.010237795465268986
0
-9.5582926103190643e-05
1.0449916630429553e-05
0
-0.0071546966524119633
-0.0045875430305421161
0.0168700361177197
8.303166624399125e-09
0
0.0075592449639168688
0
0.013066406466528256
-0.021612078290563226
-3.976305998463913e-10
0
0
-0.0019461478569849366
0
-8.6827473336578816e-06
0.00039731344627286366
0
-0.0021517399375217848
-0.0064982708559859128
0
-1.731242761248996e-06
-0.00017432656690116304
0.00067701495351708591
-0.023678931870711298
-0.0033873205291022591
1.5914185978977817e-05
0
3.6739784161011839e-08
0
0.037778237965610986
0
0.0046816772927711419
0.00072727405638018381
-2.3445004421373962e-07
0
0
-2.4105517038268732e-06
-0.019253642327102104
0.00063714773635407127
0.00056026356989954647
-2.9577441207494298e-05
-0.01940517523039146
-0.0026702574563694241
0
0
-3.8325924315714352e-06
1.6894045710090933e-05
0
0
0
-0.0096636850847853645
3.4529084518036667e-05
-2.2612710029642144e-05
-0.0036896334073642702
0
0
0.0063879326229809748
3.6057632164636906e-05
0
0
0
0
0
3.8826959579025844e-14
0
0
0
0
0
8.5264002230775686e-06
0.00024163045291068235
0
0
0
0
-0.003010811969245443
7.8663624291101862e-05
0
0.0038193253394245355
-0.00068091211191298722
0
0
0
-0.0047459297816706061
0.00075391263496748042
0
-0.0053838398734600036
0.0032246453681135869
0
0.0069626016271767226
0
0
0
-1.7402177756610633e-05
0
-0.011455766869763968
0
0
0.0024105242545047834
-3.0710932416985956e-08
-2.1012219533441201e-05
0.0045158255927127567
0.0016459916029120212
0
0
0
-0.00050824832597118276
0.0073921819973519253
0.0040887035860414558
0
-0.00087372522764049337
0.00010772509349636219
-0.00037262790597393438
-0.00090937905227858812
0
0
0.0014745453186084505
-0.021381801915771166
0.00077690925129254569
0.012882361154785528
0.0021267277731302839
0
0.00033367571622380413
5.0163741194124523e-05
0
0.010963888522092459
0.0011926598386893116
-0.00042882595404412959
-0.0016474297611935146
0.0011878071520654569
0
-3.1997289233796356e-05
-5.6318638282340039e-05
0.00020969625234763865
0.0051709150890172327
0.00071102338817121975
-6.5905540438558095e-05
-0.014935025376736364
-0.00034090989425689827
-0.00020688906713672639
0
-0.00018484758441254866
0
-0.0011093040746655309
0
-0.001427463496413494
-0.0010326350122352628
0.00013277111213500902
0
0
0.0021153433919780026
0
-0.0016677400405990628
0.00012544976853649608
0
-3.1539159758912036e-05
-0.043536999934080958
0
0.0016180748555982372
-0.00050894447134800088
0
-0.0066508195396756996
0
0.0038720397640141764
-0.013580473806876808
0
0
0
-0.0058729311012928505
0
0.0024704530378366054
6.3398474604694133e-05
-0.00023387157290950377
0
0.00053584812270059351
2.1226558356073585e-05
0
1.3153912926064462e-09
0
-0.0010866953140798562
0
0
0
0
0
-0.00012274541410121632
0.00058602131783495523
0
0
0
0
0
0
0
0
5.1951078187816435e-06
0
0
0
0
0
0
0
-3.7789179997490437e-05
0.00015627083304929504
0
0
0
0
0
0.00028773959416435657
0
0
1.226024718865242e-05
0
-0.00014531160053112162
-1.8197973476166609e-23
0
0
3.729997478759356e-06
0
0
0
0
0
-3.2215013084810362e-09
0
0
0
0
0
-1.4209946560069296e-08
0
0
0
0
0
-7.2765491983941081e-10
0
0
0
0
0
-2.8262755338882719e-08
0
0
0.00041558100663154627
-7.4636160451891792e-08
0
-2.8017284584478711e-06
0
0
-1.8861586938278431e-05
0
0
-1.2482713524961564e-08
0
9.6784516086055944e-05
0
-1.033713012521699e-06
1.1353919429372525e-06
0
0
0
-1.9401658333144992e-06
0
0
-5.3496471197674512e-12
0
0
0.00031707213341592924
0
0
2.551470031141483e-08
0
0
0
0
0
2.6239702243595813e-06
0
0
0
0
2.6368498457440526e-06
8.6721253519298791e-08
0
0
0.0003682238363083226
0
0
0
0
0
0
0
0
0
0
0
0
0
0
0
0
0
0
0
0
-9.2015589017700148e-07
0
0
0
0
0
6.9511400520276493e-09
0
0
0
0
0
0
0
0
0.00044006677622535626
0
0
0
0
0
0
0
0
0
0
0
0
0
4.2553286396952497e-06
0
0
0
6.4571040185808215e-05
0
0
0
0
-2.371215370975975e-08
-2.7724159524427879e-06
0
0
1.0587911840678754e-22
0
0
0
0
1.1956158730364552e-06
-1.1631935618052081e-07
0
0
0.0024805509788616929
0
-0.00030346507392981696
0.00046334468560346921
0
0.0033516517212569216
0
0.0010468055645280736
0
-3.3433499893188463e-08
0
0
1.2101249890254203e-06
0
-0.00095727802117485049
0
0
0
-0.0079119635241090159
0
0
-7.6040273685977427e-09
0
0
0.0027816020526503322
1.7503428648075129e-05
0
-6.1682388732147296e-10
6.5449063812595758e-06
0
0.001531701761567637
0.00076573869342053688
-0.0039461136944392815
3.6518352983879991e-12
0
-0.00034701876830192354
0.00029101722118807314
0.00027465752098424726
0
5.4233153522659319e-07
-1.4231586101847199e-06
0
0.0007740908313467298
-0.00055812550966100863
0
-0.0016039773938582135
0
0.0061308678373002135
0
0
2.9075285765059479e-05
1.0011685747051796e-05
0
0
0.0018467257434176523
-0.0020521627397997819
-0.00015650371704405331
-0.00051501751349335764
0
-0.0058881738293660741
-0.00395022192238903
-0.00092166345502889952
0
-0.00019612116735041299
0
0
0
-0.0014056479820286805
-0.00075541730071665989
-0.00081164189472986994
-2.5193902394685674e-06
-3.8194569155667848e-05
-0.0016420016904141086
-0.0018361504439827758
0.0013364616446067343
0
0
0.00033950402704883211
0
0.00059577023932870293
0.00026622213185421655
1.3994611958856419e-07
-1.1514490450153087e-06
0
-0.00019045361849154944
0
0
0
0
0.00045596172651592571
0.013621708484744643
0
0.0006603199465969352
-0.0015986452118543827
0
0
-0.0044437103882494396
0
0
0.00013606113491747702
0
-1.8667604523945682e-05
-0.011619747705862233
0
-0.0034090842122376452
0.0013784389453720335
0
-0.0014517196856876147
0
0
-0.00018066135247284465
-0.00011558919095787813
0
-1.0315080544926233e-05
-0.010901801438359032
0
0
-6.4459119126589408e-08
0
0.00042727462666970468
0.0062335368774218925
8.3307198395335202e-05
-0.00020864187917357479
0.0011844475725394418
0
0
-0.00027599863773845217
0
0.0024561489184485689
0.00012734316051883968
0
-0.0053151502861706317
-0.00071678154176387963
0
0
-8.4619730264420616e-12
4.463701239814374e-06
0.0022905101237890363
0
0
0.00013402754341174415
-1.6613619911539654e-05
0
-0.0021812501564685417
-0.00072534398689997216
-6.4690811923720482e-05
8.8273537941205266e-05
5.0783794892889912e-05
0
0.0058586448017051438
0
0
0
0
0
-0.0007499136839015149
0.003931259721892514
0.0027954099872407449
0
6.4260001079535304e-05
5.8920771023936223e-05
0
-0.0029267210952566803
-0.001209649521086057
0
-1.710118290609339e-09
0
-0.00058990689127737857
0
-0.0036474552400277364
0
2.0651586441956946e-09
0
0
0.0011994511286203306
0
5.6404242117720062e-06
-0.00083579732422313553
0
0.001826784306078437
0.0061622686543895862
0
7.4431905707416473e-07
0.00073718835198849733
0
3.5814207184530897e-05
0
5.2310867028147983e-06
0
-1.2132043965242279e-07
0
0
0
0
-0.00045716202416661814
-2.2908610372840947e-07
0
0
7.6474688519925471e-06
-0.00069101151028691347
0.00014914047192472564
-0.00018524170766436539
4.9832401854791525e-06
-0.00069113379636779053
-0.0023004613190817009
0
0
-2.8427449913674973e-06
1.2191009361234838e-05
0
0
0
0
8.2901113889574046e-06
4.7087678316629071e-06
0.0071112821752297318
0
0
0.0019303366231876529
5.4948578430652778e-05
0
0
0
0
0
-1.3869385810835046e-11
0
0
0
0
0
-3.0971562269822804e-06
0
0
0
0
0
0
-5.7835973278910085e-06
0
-0.0041615871206962347
-7.7969895330052053e-05
0
0
0
-0.014764009678118237
-0.0010469727824357895
0
0
0.00074675580861246051
0
0.006021491426566339
0
0
0
1.7827714933052765e-05
0
0.0048212557579080453
0.0039237300572259014
0
-0.00082093857425478327
-1.016103457682888e-07
1.658745270119844e-05
0.0047992297797060327
0.003154878452022382
0
0
0
0
-0.0073921819973519253
-0.0018702598662218234
0
-0.00052470157097051005
5.0464290172171119e-05
-2.6080143653776694e-05
-0.0030970533213188879
0
0
0.00050867678273472611
0
0
0
0.0014490692755268046
-0.0045836442859145078
0.00011030711519613255
-3.1624831381551379e-05
0
0
0.0011012625975591016
0.00032945388163671194
0
0
0
-0.00012229873615662241
-0.00070659539594360079
7.5817735962709174e-05
6.2764580896504277e-05
4.7650733939160687e-05
0
0
0.00017126545657584927
0.00028270616539324362
0
-0.0003158023288851407
0
-0.0008680097431847416
0
-0.00060238863675410076
0
0
0
0
-0.0017311226206514342
0
-0.00069203850592550057
0.00011063661151584357
0
-3.549623986313745e-05
0
0
-0.0015199643930220116
0.0011065007466989755
0
-0.0041360765563257448
0
0
0
0
0
0
-0.0012842865290247406
0
0.00054373299623514831
7.4384198274480684e-06
0
0
0.0013527282508803743
-2.4038085273092804e-06
0
2.1751633007585709e-09
0
-0.0015321797532577783
0.0018004565378009802
0
0
0
0
0
0.00093142721005132906
0
0
0
0
0
0
0
0
1.3833815289788949e-05
0
0
0
0
0
0
0
-7.6822024597380275e-05
-0.00061041986191557869
0
0
0
0
0
-0.00044811210804015773
0
0
0
0
0
-5.276211306156114e-07
0
0
0
0
0
0
0
0
-6.240430367233106e-08
0
0
-0.00015588393506948541
0
0
-5.176808902992344e-08
0
0
0
0
0
-3.7973944826727541e-09
0
0
0
0
0
-2.7016882905546418e-08
0
0
0
7.1225560601759123e-08
0
-4.3133176940670112e-06
0
0
8.6935538343028135e-06
0
0
-2.4007600252635058e-08
0
4.3692522288785091e-05
0
1.1828195358325859e-07
-3.8979304727811113e-09
0
0
0
2.9001842452645162e-06
0
0
3.1563532541801496e-10
0
0
-3.5769171569057725e-06
0
0
1.7150273401345594e-08
0
0
0
0
0
1.2968605125835891e-06
0
0
0
0
-2.3490202173421164e-07
1.179234686103376e-07
0
0
0
0
0
0
0
0
0
0
0
0
0
0
0
0
0
0
0
0
0
0
0
2.4105177629228757e-06
0
0
0
0
0
-1.0190387761330296e-08
0
0
0
0
0
0
0
0
4.5960781458297039e-05
0
0
0
0
0
0
0
0
0
0
0
0
0
-5.7517016727752537e-07
0
0
0
4.6517834959634123e-05
0
0
0
0
3.5704470791332416e-08
-8.7709391875408612e-06
0
0
-1.465969120021046e-06
0
0
0
0
0
4.7397075738114276e-08
0
0
-0.0016617663074570562
0
0
0.00046115022664795091
0
0.0079108219456555159
0
0.0014905224661552385
0
-7.4174967863141569e-10
0
0
-5.1256796695435077e-06
0
0.0027029210867682034
0
0
0
0
0
0
-1.8671793454279258e-08
0
0
0.0033800672400088596
-9.9792762335494067e-06
0
2.1088843973575194e-09
-2.6147343303227718e-07
0
-0.0016168757853733296
0
0
7.7093731326446781e-12
0
-0.0026487368047130094
-0.0026518136813828566
2.6919378751023394e-05
0
3.6320076205071862e-06
-3.8442642160955872e-06
0
0.0012047445571176621
0.00042918808005440321
0
-0.0013423498726495495
0
-0.0032022180502234102
0
0
-3.4423541903466286e-05
1.5411061523578809e-05
0
0
0.00041982167425949976
0
-0.00017457185895249436
0.00033511567132388969
0
-0.0058881738293660741
-0.0023321908842788329
0
0.0022498147230217451
0.00021341203929145259
0
0
0
0.0013862730738316545
-0.00034382957472372784
0.00062717548631028588
0
1.2689717732126607e-05
0.00065503747008273134
0.0009122370324559162
0.00072610333523474456
0
0
0.0003209514471222408
0
-8.4351094720711586e-05
-9.108675313135058e-06
-1.0119259563346472e-07
1.5734280487895916e-05
0
0.00023586333080898427
0
0
0
0
0.00042907682906268257
0.0039305295743917376
0
0.00057758098951551549
0.0006148201252982662
0
0
0.0075134168993115933
0
0
0.00012059588211920194
0
3.0398955253805679e-05
0.0097439843955190591
0
0.0034090842122376452
-0.00035116329433443946
0
-0.0014517196856876147
0
0
-0.00061754642813447976
-7.1554452484485251e-05
0
1.4547726978505164e-05
0
0
0
-6.7036699594714207e-08
0
-0.0013096340383470786
-0.0054577695443350071
-8.3307198395335202e-05
0.00051637080962762801
0.00043260171460373655
0
0
-0.00024634591945028259
0
-0.00017965653014658325
-0.00011004823199893993
0
0
-0.00029021880207079598
0
0
-3.1937342852399216e-11
7.0622766713626187e-09
0.00017462641788583096
0
0
0.00061642837119076207
-0.0017849306422543982
0
0.0023249524108940002
0.00059291320778595807
-0.00022855361086713592
-0.0001724390148168747
4.489927228942433e-05
0
0.00018495633510826496
0
0
0
0
0
0.00068440660925906641
-0.0057856411010518754
0
0
-0.00011402287791447728
3.9131440433437681e-05
0
0.00027450068957615356
-0.001209649521086057
0
1.2449749084292694e-08
0
-0.0077652647736527322
0
0
0
1.3575742162643348e-09
0
0
-0.0014880037848579986
0
-5.5362110885495592e-06
-0.00032161808084243206
0
-0.00015815303949497304
-0.00060609735139514811
0
6.161864497702572e-06
-0.00045575745944483021
0
0.0067951675509272729
-0.0029710833736959507
-1.0926231955386732e-05
0
-5.3122270811366387e-07
0
0
0.0062340841392445985
0
4.4798468818955649e-05
2.7023108480689419e-07
0
0
-1.2960622311066576e-05
0
-2.8613225097914353e-05
8.330985130838293e-05
1.527788669648631e-06
0
-0.0023004613190817009
0
0
-3.8973606663091522e-06
-6.269086457097752e-06
0.0082621389129335261
0
0
0
-4.3840839289986624e-05
0
0
0
0
-0.0011550608513702808
3.057553881404267e-05
0
0
0
0
0
-1.087289504996297e-11
0
0
0
0
0
4.0813021869075673e-06
0
0
0
0
0
0
0
0
-0.00041629992561292845
0
0
0
0
-0.0090673769250142408
-0.0013922560292550198
0
0
-0.0012133713859058687
0
0.0064690584727807015
0
0
0
2.1914562434763328e-05
0
0
0.0047713930822034191
0
0
-1.6300885561788635e-08
-2.8545526516711847e-10
-0.0042616737519371528
0.001480636935137443
0
0
0
0
-0.0050671590500292359
-0.0074195081545423919
0
-0.00031672708755311227
-7.2612364603742314e-05
0
0.0017872206386744126
0
0
0
0
0
0.012882361154785528
0.00085845021071389975
0
0.00034257874231774824
-2.5097841924006969e-05
0
-0.017573950964828181
-0.00087059478382318239
-0.00033406846539999629
0
0
0
-7.038154200701745e-05
-0.00043723269833546895
0.00017590149938565401
-6.2764580896504277e-05
-0.00045711055260319887
0
0.014337772084432366
-0.00023077206610160622
-0.00028270616539324362
0
0.0003577535988172757
0
-0.003302906170857964
0
-0.00060238863675410076
0
0
0
0
0.0012878466213204908
0
-0.001066643637862096
7.9137427981874453e-05
0
-2.7550856739248395e-05
0
0
0.0018838303210352437
0
0
-0.0029214898931378187
0
0
0
0
0
0
0.00092031924852609972
0
0.00054373299623514831
7.5687146723397194e-05
0
0
-0.00066019654432352109
2.3651880713736445e-05
0
7.2376633760929532e-10
0
0.00044606046026435334
0.001977540136163039
0
0
-0.00023782449133751473
0
0.0011895090462092043
0.00034198007195551726
0
0
0
0
0
0
0
0
-7.7362038135315935e-06
0
0
0
0
0
1.1138089531830681e-05
0
-0.00010922050760322673
0.0004964276045781482
0
0
-3.0550765824008223e-05
0
0
0.00058116617374174011
0
0
-1.226024718865242e-05
0
0.00071837242679331456
7.0255217431694374e-07
0
1.2484949690668746e-05
-1.8195264905122121e-05
0
0
0.0011450299828912472
0
0
-6.2623463132005217e-08
0
0
0
0
0
-7.1596749760249464e-08
0
0
0
0
0
-1.092505272952905e-08
0
0
0
0
-4.7633127689031707e-05
-6.5901847533764116e-08
0
0
5.1420748993733441e-05
4.3689617683895083e-06
0
-9.8069136773896576e-06
0
0
3.3467626835075392e-05
1.3877098467059972e-05
0
2.3104008326803857e-09
0
-0.0001991902671415058
0
3.5962924035552545e-06
1.3491202167995667e-06
0
0
0
5.3932074951432503e-06
0
0
1.1622820333213457e-11
0
0
0.00027927305026440784
0
0
4.2218041244748666e-10
0
0
0
0
0
-1.0075051318703676e-06
0
0
0
0
1.5326545488759992e-06
-4.6719504254029427e-08
0
-0.00056097652036514304
0
0
0
0
0
0
0
0
0
0
0
0
0
0
0
0
0
0
0
0
0
-1.6047514133739855e-08
0
0
0
0
0
2.2078911415860874e-10
0
0
0
0
0
1.7710300963845437e-05
0
0
4.9233895596200385e-05
0
0
0
0
0
0
0
0
0
0
0
0
0
-8.6758072525072919e-07
0.00013588687290461116
0
0
1.8053205226174089e-05
0
0
1.000172288858106e-06
0
-2.1822430687631631e-06
2.0464471026737518e-05
0
0
-1.246937829281158e-06
0
-0.00014412112277225402
0
0
5.2732792421248379e-05
-1.0656883356444965e-07
0.00017183299001309228
0
0.0017215442075480471
0.0035954094295257747
0.0016114962863229933
-0.0002985959298497151
0
0.0082940437910097899
0
0.00023527094787232164
0
-8.9145357137753233e-09
0
0
3.971558407918895e-07
0
-0.0048135826216659612
0.016530352010308242
-0.0014696814575653311
0
0
0
0
-8.4680676556784636e-09
0
0
-0.0053798241358240387
1.463520008255421e-05
0.0064385859752554564
3.3561286951587692e-09
2.3431724863586892e-05
0
-0.00079969840198590176
-0.0024697352054808769
-0.0039461136944392815
-7.2713587127850088e-12
-0.0006961021579491365
-0.0052934016877286922
-0.0045646430497304101
0.00027098650142956272
-0.01570006112314274
2.6548074525359724e-05
5.7357797548796299e-05
0
0.0011071254086912727
0.0007303239431432271
0
0.0011417682509100001
0
0.0051249313859150665
0
0
4.9560785879089716e-05
-4.1130663490562426e-05
0
-0.0310439474228613
4.5086216706698439e-05
-0.011737852975924994
-0.00016642750606778888
-0.0013707572537608533
0.0026071690350449196
0.0058881738293660741
-0.0033384684588307562
-0.0046497850563458161
-0.0031478801840274804
-0.00038691569417718296
8.0356626646362731e-05
0.021351235732012211
0
-0.0019253783483161465
-0.0027259334078528919
0.0002910233216996403
-0.00049238498833177905
3.5163852121450382e-05
0.0017091259726009749
0.00027346050879093343
0.0016587985621235308
0.0023889491564839755
0
-0.00022929762226285081
0
-0.00090577083454829687
0.0058928774739435827
1.0000722803380524e-07
-9.8625423887367696e-06
-0.0012161321710772314
-0.0064556020198305543
0
0
-0.0014732649439778264
0
-0.00037331954082638205
0.0011548788447689037
0
-0.0019493046244612312
0.00014950575314319177
0
0
0.0044437103882494396
0
0
-7.4333426910363934e-05
0
-1.8513089124995365e-05
-0.00052752572657505017
0.022654611543392333
-0.0027820909308721728
0.0013925680071302886
0
0.017564727341361074
0
0
-4.0160325345818776e-05
-2.0000591826172896e-05
9.5043982678988167e-05
-1.049480823841021e-07
-0.011316274174949204
0
0
1.4967357333941545e-07
0
0.00039130102417098502
0.005772519064885677
0.00721973992176038
0.0011611792739383302
0.0024707144346875942
0
0
-0.00010536813116853991
0
0.0026106287929399327
-0.00011797738657531736
0
-0.0053151502861706317
-0.00011150205402995453
0
0
2.2723592229532132e-12
-8.6332186309249183e-06
-0.0023953170260706375
0
0
-0.0023240200309778648
0.0018002676651520631
0
0.00034402553182915187
0.0014059837623867297
-0.00077262471252149956
-3.4119782079059503e-05
-9.3222900923763336e-05
0
-0.0086216428023249379
0
0
0
0.027360079094140847
0
-0.00056177683757596556
0.0072372620886102575
-0.0063964119687658413
0
1.4095860172542704e-07
6.1853454489223714e-05
0
-0.0062143610126256434
-0.001209649521086057
0.003819419545879959
-6.836795021561286e-09
0
-0.012585643699231212
0
-0.0036474552400277364
0
-6.9905412767801486e-10
0
0
0.0014714724245705633
0
9.0802876931670445e-07
-0.0003664773019831197
0
0.00068696938662957162
0.0058904632096306126
0
-2.1904479785068353e-06
0.00016083062314431587
0
3.5814207184530897e-05
0
-2.064657565532761e-05
0
1.183234164446731e-08
0
0
0
0.0046816772927711419
0.00033933831593619562
-7.9881051229603374e-09
0
0
1.3070672253829904e-05
-0.011912883026627902
-0.00017756474828666821
-0.00037688368594822433
2.1868935779809732e-05
0.00042343851691656445
-0.00072224302305129895
0
0
3.8709222561036361e-06
3.9846321384845471e-05
0
0
0
-0.0035867108433779225
-6.755907207412848e-05
0.00039677059897888576
-0.0047281922926934502
0
0
0.0044575959997933219
-6.5562674779327568e-05
0
0
0
0
0
-1.2512097683537141e-11
0
0
0
0
0
1.1465318060803453e-05
1.5934598371849682e-06
0
0
0
0
-0.0010585634414837833
6.3668046404188219e-06
0
0.0015908631566028523
0.00082943185083736936
0
0
0.00056456506888091632
0.014764009678118237
0.00086415554235019624
0
0
0.0021518548435717406
0
-0.004001239146699068
0
0
-0.0026069043655319439
-1.4063197619808436e-05
0
0
-0.0074852578216308072
0
0.0018391650188562382
6.3981466222044081e-08
-2.0685017467491516e-05
-0.00091855477803418073
-0.0030232156196687023
0
0
0
-0.00068921936367381798
0.0028650552403926863
0.0018702598662218234
-0.0031667096640773992
0.00040404417833146065
-5.441651308429078e-06
-7.5892159449432239e-05
-0.0030970533213188879
0
0
0.0019215167036603733
0
4.2631961521351274e-05
0
0.0016702043114227611
0
-0.00046481083917544378
6.4916199943416953e-05
0
0
-0.00088203255239313247
0.00030411118465538357
0
-0.0040621114312388131
0
1.0784576827225339e-05
0.0002971523595666298
4.8138022989004166e-05
-9.1518387690261581e-05
-0.0013207240789563121
-6.5905540438558095e-05
-0.014337772084432366
-0.00036986819929907277
-0.00153815463077715
0
0.00031676263781596123
-0.00090533771284958956
0.00085568317970212339
0
-0.0016274300474571014
0
-2.6211525074196305e-05
0
0
-0.00041140600793575856
0
-0.0011465314347025581
-0.00036192484329747781
0
3.0761034093578633e-05
0
0
0.001508573763097398
-0.00011060409579384165
0
0.005683731160744953
0
0.0016529195745247844
-0.0044820335103477908
0.0076894751978593776
0
0
0.0038626943018928318
0
0.0010656514106211739
-4.8862393936704899e-05
-0.00033564077534850351
0
-0.0029968611312205093
-1.7507156680886852e-05
0
6.9866878863316201e-10
0
-0.00043888136055001477
0.0032087171558512055
0
0
0
0
0
0.0016667031125055299
0
0
0
0
0
0
0
0
7.752370481045188e-06
0
0
0
0
0
0
0
0.00016379547195479396
0.00010075794588525461
0
0
0
0
0
0.00063347332265544366
0
0
-1.226024718865242e-05
0
0
4.4827400345911165e-07
0
0
1.8447915282780422e-05
0
0
0
0
0
3.5399367654055204e-09
0
0
-0.00025772623475904505
0
0
7.0367347013206478e-09
0
0
0
0
0
-3.5672603686477637e-09
0
0
0
0
0
-7.0243997939800729e-09
0
0
0.00013155403949641683
9.6348365537754786e-07
0
-1.5115892356191401e-06
0
0
4.677335898535235e-05
0
0
-7.6938121510022479e-08
0
0.00013441096160562925
0
-1.5626506452797139e-06
8.5382074118762938e-07
0
0
0
4.4318652420835748e-06
0
0
-9.8509713575388558e-10
0
0
-3.5769171569057725e-06
0
0
-3.9329716364858983e-09
0
0
0
0
0
-6.0415615265176772e-06
0
0
0
0
2.2542559446206405e-06
-3.4455764221632476e-08
0
0
-0.00020813522114410303
0
0
0
0
0
0
0
0
0
0
0
0
0
0
0
0
0
0
0
0
2.3180033163212489e-06
0
0
0
0
0
1.3022883591526194e-08
0
0
0
0
0
0
0
0
0.00037542912175910615
0
0
0
0
0
0
0
0
0
0
0
0
0
9.7326672126214965e-07
0
0
0
-4.0482690407578224e-05
0
0
0
0
1.3852916175899297e-06
3.8076188798028159e-06
0
0
-7.885930519546894e-07
0
0
0
0
8.1504754950270043e-07
-4.8834919729267598e-08
0
0
-0.0033833105150051028
-0.0035954094295257747
0.0012792449852113016
0.0004128417867664609
0
0.0096399634288613385
0
-0.00064835232797154775
0
1.8820823336723784e-08
0
0
6.2220773971405187e-06
0
0.0041131291839733375
0
0
0
0
0
0
-1.4234235285733268e-08
0
0
-0.0015210677502459648
2.1866029863205274e-06
0
-3.9472502385490581e-10
6.3569299524900698e-06
0
-0.00081717738338742769
-0.0011082790348899117
0
-7.2713587127850088e-12
0
-0.0036008558626454768
0.0026518136813828566
-0.00054125118137622
0
-2.6548074525359724e-05
-9.016782901865253e-06
0
0.0012047445571176621
-0.00044847491061908706
0
0
0
-0.0015192905661282935
0
0
-3.5870596991608743e-05
-9.8993917127121167e-06
0
0
0.00050614580963066996
0
-0.00023632462798403228
0.00013225433277931094
0
0
-0.0027693379510081162
-0.00037677400540881562
0.0014358294976065545
-0.00014010728225923437
-3.7319933826511282e-05
0
0
0
0.00034382957472372784
-0.0011716029386863367
0
4.4674034166477271e-05
0.0013021816992454421
-0.0009122370324559162
0.00072610333523474456
0
0
0.00042115203453560777
0
0.00051034553731244914
4.6712744101723152e-05
1.1334991968341418e-07
-2.0994207659304577e-06
0
1.5824645436532054e-05
0
0
0
0
1.2858126130208618e-05
-0.0011847112280305428
0
8.2738957081419711e-05
-0.0014639309153925335
0
0
0
0
0
7.0621837317067068e-05
0
2.5528723543770949e-06
0
0
0
0.0013230537701356183
0
0.0032655988406552188
0
0
0.00056179687018330729
0.00010867200225838963
6.9908845879409047e-05
7.6870620668669567e-06
0
0
0
-7.9753355601621724e-08
0
0.0011140439096058521
0.0062335368774218925
0.003334854285733446
-4.1960456957774271e-05
0.00031244086169792995
0
0
-0.00019738902698347314
0
-0.0026442390890222796
7.9279440766431787e-05
0
0
-0.00029021880207079598
0
0
-4.7703459042191265e-11
-4.4199387572586361e-06
-0.0022151004548744868
0
0
-0.00054555421849164802
-0.00018067970310556449
0
0.00063267292357242614
-6.063655110214838e-05
0.00033337233577735115
-2.3626527063144072e-05
-3.183685291943288e-05
0
-0.0076331814986992756
0
0
0
0
0
-0.00046574171556312919
-0.013306635967297864
0
0
-0.00011402287791447728
9.1355737522899732e-06
0
0.0091227647394573133
0
0
-6.3176077468119224e-09
0
0.00058990689127737857
0
0
0
2.5497531275065586e-09
0
0
0.0016734133135174651
0
-8.3144999207285478e-06
0.00063879845337136833
0
0.00092620014547920113
0.011903183778980149
0
8.3031973702728081e-06
-0.00045575745944483021
0
-6.9542689848279784e-05
-0.0033873205291022591
1.6912561578464018e-06
0
-6.2753128754378734e-07
0
0
0
0
-0.00027963649812083407
2.3746269145869296e-07
0
0
-2.0962703051439599e-05
0
-0.00010632359667050516
-0.00041202656454730464
8.9381366361244168e-06
-0.00026769527945122603
-0.0013606976622353296
0
0
-1.4142347114884468e-06
-1.2191009361234838e-05
0
0
0
0
-6.9534123046510494e-07
0
0
0
0
0
-3.0920282717361819e-05
0
0
0
0
0
1.3985701886934364e-11
0
0
0
0
0
-6.8374429028154259e-06
0
0
0
0
0
0
0
0
-0.0041615871206962347
-0.00045267432338742412
0
0
0
0
-0.0018288295526437555
0
0
0.0004666155772934082
0
0.00078545044919793941
0
0
0
-3.2948589493579227e-06
0
0
0.0047713930822034191
0
0.00025373624329801743
-1.9765627701100698e-08
-5.1317081321378866e-06
-0.005511533535383392
-0.0047726201409614855
0
0
0
0
-0.0023250229473226894
-0.0018702598662218234
0
-0.00043222789689413007
2.5880962753889662e-05
0
0.0040252488811118644
0
0
0.00050867678273472611
0
0
0
0.00082712325994254148
0
-0.00010336019039964321
-6.168958150000147e-05
0
0
-0.0002538478063488633
-0.00033406846539999629
0
0
0
9.3575493171535711e-05
-4.750019691976858e-05
-5.5904013866289334e-06
-6.2764580896504277e-05
0.00014733914822736177
0
0
-1.2815301513203951e-05
0.00052425402245813413
0
-0.00042164732025728367
0
-0.00096896875721824965
0
-0.00060238863675410076
0
0
0
0
-0.00059496232524136638
0
0
-1.0581799732812572e-05
0
2.7104236661497223e-05
0
0
-0.00011181581259420133
0.0011065007466989755
0
-0.0022432801395827701
0
0.0016529195745247844
0
0
0
0
0.0022046057775508402
0
0.00026314934778454266
5.146455069767135e-05
0
0
0.00063958392057647604
-1.0395316352546479e-05
0
-5.8869376360095022e-10
0
0.0019782764918968459
0.0014791079731302863
0
0
0
0
0.00091866074247974345
-0.00034198007195551726
0
0
-5.7931902705271926e-05
0
0
0
0
0
-2.3921543660543491e-05
0
0
0
4.3692777432185639e-05
0
-7.4594588143716195e-05
0
0.00011121117248597951
-0.00054775522152365503
0
0
-3.0550765824008223e-05
0
0
2.9885723712608609e-05
0
0
-1.226024718865242e-05
0
0.00066488054823923403
1.2062105009856954e-07
0
-1.2484949690668746e-05
-5.3643034355139909e-06
0
0
0
0
0
-6.4157263731012262e-09
0
0
0
0
0
-2.5305925206714143e-08
0
0
0
0
0
-7.5032639731307195e-09
0
0
0
0
6.8294129820538604e-06
-1.0746599705557822e-08
0
0
-0.00046700175562527972
-2.9553987094628748e-08
0
-9.1667516298475139e-06
0
0
-3.3472918146718506e-05
-4.7275746651423627e-06
0
6.0115543227676888e-08
0
6.5138705987892609e-06
0
-4.8877851639293909e-07
-5.5296997261537194e-07
0
0
0
-1.2952551930918909e-06
0
0
4.5675712386687133e-10
0
0
-0.00027562714895979461
0
0
1.0391927202340587e-08
0
0
0
0
0
-2.7809532314843084e-06
0
0
0
0
4.4500214193364377e-08
5.3012037091323916e-08
0
-6.3074751194122503e-05
-0.00023075653089116698
0
0
0
0
0
0
0
0
0
0
0
0
0
0
0
0
0
0
0
0
3.304187859819167e-06
0
0
0
0
0
-2.2906142442640862e-08
0
0
0
0
0
0
0
0
-4.9233895596200385e-05
0
0
0
0
0
0
0
0
0
0
0
0
0
1.7694498228005809e-06
0
0
0
-0.00018982304938958602
-6.053102806309322e-06
0
4.616112411529451e-07
0
5.7217531040976342e-07
3.2688740331441225e-06
0
0
-6.2807227269918046e-07
0
0
0
0
1.6325161509145498e-05
1.1730897206622109e-07
-0.0015577146694063918
0
0.0036353041610354218
0.0090931566047238021
0.0078805345695372592
0.00017404226303600575
0
0.0062883117076044165
0
0.0013902838233451681
0
-1.7632122926295052e-09
0
0
1.6489882470795377e-06
0
-0.0056848554390188533
0.020385508774300266
0.0014696814575653311
0
0.0079119635241090159
0
0
1.1116072437617514e-08
0
0
0.0017046186440346442
1.4455334059094668e-05
0.00067845369157759454
7.7498679878822764e-09
1.9170747638660407e-06
0
0.014536872054405554
0.0030979687081763444
0.0041497569782621944
3.7237922647148334e-12
0.0012092383550333637
0.0021219906509589727
0.0048483177461562865
0.00067229139980379726
0.0084676409134859746
5.4010344762524444e-06
-4.9018234197617277e-05
0
-0.0011563736801601956
0.00032285124596744089
0.011645842869623732
-0.0018096005508654316
0
-0.0067245653051287045
0
-0.00034573468508832612
-1.99618341073395e-06
2.7395256464568809e-06
0.00061138337908283583
0
-0.0016854231982212278
-0.0096856902361252134
-0.00023878668822017952
-8.7907829666977939e-05
0
-0.0058881738293660741
-0.0062841611699065705
0.005427011370117178
0.0059167391084279557
-0.0022143491960650808
-0.00057752266234555364
-0.022022020440058042
0
-0.0080375182746469966
-0.0039433770053942663
-0.0011143570058310766
-0.00079538372530739139
-2.4733653769114164e-05
-0.0016775184016670274
-0.00086801442588516271
-0.0015784289652078258
-0.0041374146876569425
0
0.0003438479896376471
0.038290487825024928
-0.00020514873943088216
-0.0071655918093777035
1.1585857745876335e-08
2.7837369842097585e-05
0.016691473083577289
0.0070890728043692293
0
-0.024800505272978182
0.0014732649439778264
0
0.00019058254580020664
-0.014038606008287343
-0.029036058377137616
0.0026472299822761017
0.0015022169100764816
0.0015256866569373553
0
-0.011957127287561032
0
0
-8.1954528092935912e-05
0
3.0398955253805679e-05
0.00052752572657505017
0.014836206473966747
0.0064298128901399158
-0.00058898501766663908
-0.001597769118293655
0.0034659192251104975
-0.026865858836917028
0
-0.0032302845983198021
-1.3413665249937303e-05
-0.00022656508758039665
-2.5149382427851643e-06
0.0004144727365901716
0
0
2.1502875545448587e-10
0
0.0015999742225679399
0.0061884164217801373
0.0037759950070026557
0.00012940307036481171
0.0015558549766710337
0
0
-0.00013883747429889248
0
0.0020575787867518941
-9.6796525278443232e-05
0
0
-0.00071678154176387963
0
0
2.0037859806916141e-12
-2.5077513478780142e-07
0.00084400950282505335
0
0
-9.628652974074314e-05
0.0028555929548125972
0
-0.00089127025099521604
-0.0013915304975976139
0.0021820012309096753
1.2100546471770578e-05
0.00018732174521008136
0
0.0072270737717586913
0
0
0
0
0
-0.00059460553919063962
-0.0049969165219946468
-0.00066428323087810298
0
6.6846703624819843e-05
-7.1843029113374644e-05
0
-0.0019311336466268673
-0.0038116992511778563
-0.00575366864093259
-7.9403416500508145e-09
0
-0.0058237394228644974
0
0.0019746495048626406
0
-1.0274814609693336e-09
0
0
0.00019006225149720556
0
6.7649492205942763e-07
-8.0901017761279498e-05
0.00024932243393591737
0.00045173767736934097
0.0071538392492368989
0
1.811690761611544e-06
0.00058652113668235825
-0.0012140180551805943
-0.0010811988683013197
-0.0058132685424967653
2.064657565532761e-05
0
-5.7766540104023556e-08
-0.00015366381543042401
0
0
-0.00217432884332165
-0.00056976452383140409
2.5396931083723164e-07
0
0
2.116870231073889e-05
0.0042837712047450486
0.00032057323420765815
-0.00043776996479699221
-2.0124946165749095e-05
0.00015574323746533842
0.0022816575307992699
0
0
-3.8973606663091522e-06
5.3765449515857084e-05
0.0082621389129335261
0
0
0.0035867108433779225
-6.1076651487505107e-05
-0.0010945423979228173
-0.0023830898825362812
0
0
-0.0031712958066609847
4.0344015175729148e-05
0.00015896293916839208
0
0
0
0
-5.8001738097687287e-13
0
0
0
0
0
-1.2746631138771162e-05
-0.00041872426961275133
0
0
0
-0.0021201533690826057
0.0058646434377640968
-2.7728135295560406e-05
0
-0.010922724792070845
0.027742098470140256
-0.0018017980828704003
0
0
-0.0090673769250142408
-0.0004448084084336313
0
-0.0034849888500448419
0.00048925569691683909
0
0.0073917031739552689
0
0
-0.0026069043655319439
1.7752867848524461e-05
0
-0.006634511111855923
-0.010452647207574346
0
0.0038719001119211865
-3.8728224525413968e-08
1.1111964670065723e-05
-0.00036948860920977427
0.0029783939947078735
0
0
0
-0.0011974676896450006
0.012850226880239275
0.018249185372046291
0
-0.00090383445575077605
9.3647580721817672e-05
-0.00016999284140642614
-0.0060034730159458762
0
0
-0.0022209559514490096
0
0.0012053678185550616
-0.012882361154785528
-0.0021267277731302839
0.023005396934744682
0.00061101303716270324
4.8732010294887881e-05
0
0.017573950964828181
0.0017327193559924176
0.00077463341816031393
0.0016474297611935146
0
0
8.3929109959359735e-05
-9.0886651856289362e-05
-1.1180802773257857e-05
0.0052964442508102415
-0.00091681718913958138
6.5905540438558095e-05
0
0.00014541313388337333
0.00088686920088379612
0
0.00058783851750132091
-0.00028413433590260528
0.0014547934277263164
0
-0.0016742309394312542
0
0.0040579597414102889
0
0
0.0016628415049262163
0.0038835872933097987
0.000948347733999525
0.00031845314231493637
0
2.714586762486024e-06
0
0
-0.0016133024543494451
-0.0074554540599851386
0
0.0026087686740081709
0
-0.0049513562703005585
0.0070131541848532826
0.0031447243424818031
0
0
-0.0089637856562104542
0
5.2729134145229243e-05
-3.6839739673303697e-05
0.00010551701725250215
-0.016145935889474827
-0.0042000798158625917
2.3651880713736445e-05
0
