0.097824267751805125
0
0.021976325486100588
-0.0054401167605102902
0
0
0.10000000000000001
0
0.012259055731565455
-0.0090834513103141938
0
0
0.088918356947019606
0
0
0
0
0
0.083336953425159774
0
0
0
-4.6394328484173567e-05
0
0.097428850120313784
0
0.00058039930575030192
0.0016217576538644317
0
0
0.099662862395802132
0
0
-0.00048067946380144167
0
0
0.097185932250077212
0
-0.0014737071210879275
1.6591010177734594e-06
0
0
0.098630121864603862
0
0
0
0
0
0.099118735862374005
0
-0.00041940738594949193
0
0
0
0.099415528694622751
0
0
0
0
0
0.095676602208775566
0
0
0
0
-0.00021702636946367178
0.00089615267441414583
0
0
0
-1.0171082754857294e-06
0
0.0011717059120417851
0
0
-2.5013391306072037e-05
0
-0.0004987476541328268
0.0008222157137352037
0
-0.0018371668065276924
0
-0.00052338424612581786
5.9985393389460631e-05
0
0
0
0.00031149688466309883
0
0
-0.0084101586794207029
0
0
0.0070322831734793778
0
0
-0.01621918199710903
0
0
0
0
0
-1.181652460204492e-05
0
0
0
0
1.6952510722026396e-06
-0.017259267225582055
0
0
0.00011360998985216009
0
0
0.00032588748943374279
0
0
0
0
0
0
0
0
0
0
0
0
0
0
0
0
0
1.8148697142017069e-06
0
0
0
0
0
0.0014186502376320521
0
0
0
0
0
0.0053182075661712593
0
0
0
0
0
0
0
0
0
0
0
0
0
0
0
0
0.00025168870952715206
0.00033231515046375253
0
0
-0.0011536562360285676
0
0
0.0002604405999207071
0
0.00051082126540340602
-2.9800233705339985e-06
0
0
2.9033076412484529e-06
0
0
0
0
-4.0545591880656431e-05
0.028210747506418745
0
0
0.14080837912373589
0.034185720126675645
-0.0018912839928383878
-0.13847434816206541
0
-0.0077515448699181028
-0.17369296337597645
-0.0043258915635000479
0
0.091124454567637653
0
0.0072809808155350278
0.070390328525933202
0.11414796409432758
0.001073186858205763
0.19920924675955079
0
-0.12349055655705182
-0.094279935234782009
0.052319211249438294
0
0.045546138357351731
0
0.10000000000000001
0.10967994303994971
0.064167411597196244
-0.0076566308637496527
0.10178228774909746
0.00031729730647623905
-0.072912595004924891
-0.040881098734437626
0.16457372742150297
0.15635273128956967
0.61290263546382373
-0.0051217682592562177
-0.068308209447251744
-0.083148729985484574
0.088903686586253722
0.037867217523879358
0.58412561298281096
-0.00029960037444448661
0.10000000000000001
0.037208319790507247
0.099821437475051067
-0.032346288215219579
0.81594226539408665
0
0.21408903846784846
0.10000000000000001
0
0.099498935252182369
0.71884677849020373
0.0021749590917492759
-0.18704387849735085
-0.091535812644599035
0.16313133744019806
-0.00010829808499082038
0.87752101680387551
0.0017656393468143358
0.005888173829366075
0.012363461550462213
-0.0083679266876741758
-0.0076570467399185429
0.79395325029792851
-0.0005174431466093705
-0.091703724599071418
-0.12570067111482788
-1.9374908197026001e-05
0.004542060183215596
1.3814050485045011
-0.0016255928516283216
0.090448127714126456
0.10425631016730975
0.10171236167370412
0.099389535347687297
0.87406909521182441
0
-0.0096669838575642892
0.081071521427087484
0.039063771875448336
0.068481847140656457
0.67469870880300997
-1.5450455288812581e-05
-0.12426225639516432
-0.12545070554927273
0.10000000000000001
0.0082672783275282435
0.41215142450309245
0
-0.11073501266251598
0.073843399121473738
0.10000000000000001
0.091068354311835617
1.1558196841373745
0
-0.10000000000000001
-0.11280767020519473
0.10000000000000001
0
0.66825295315197786
0
0.10533718890650183
-0.041106612018273717
0.10000000000000001
0.0082486430891371317
0.71245383052609301
0
0.043870668528927327
0.10000000000000001
0.10000000000000001
0.13437993346744104
0.73168750305115271
-0.0012356752556616413
0.00013366843297177026
0.010355359078476359
0
-0.10000000000000001
1.2315137636827214
0
-0.040731698735255159
-0.10715141469416056
0.1019588374840384
0.0041106279923182184
1.0488624880532817
0
-0.012624008388886707
0.085384581504919385
0
0.008953793300427372
0.9239785537670111
-0.0020636041094866872
0.00520989978545438
-0.1327244993179364
0
0.025975203579996407
0.90847708616158263
0.00051119344787504614
0.0044000855628339259
0.10000000000000001
0
0.021421748170519835
0.92830671365320117
0
0.11562298989313974
0.13521405014151502
0.10486763318811386
0.0090989491811684937
0.61965876679828191
0
-0.11917193691724687
-0.15041213947308976
0
0.10000000000000001
0.74367665198699406
0
-0.00075802474119871638
0
0.12931312934963413
0
0.76713791563084488
0.0012813029753713586
0.10000000000000001
0.10500464972327112
0.10102166333861473
0.0010359180386551627
0.92646269917436175
0
0.016054725176261806
-0.04665328377861034
0.072687332071915522
0
0.051214736468894115
0
0
0.11625355858468657
0.10000000000000001
-1.9577293405499978e-05
-0.0093301868773343084
0
0.025634659151337981
0.073054905038500706
0
-0.0057739558138485683
0.03238052160829976
0.00037262492454084281
0.037140104892853534
0
0.0094805256635407311
0
0.041308110174175655
0
-0.12603859865918107
-0.12739413823857199
-0.022448869373189757
0.099916231587590831
0.001544342937314903
0
0.10000000000000001
-0.0039111279512776031
-0.10000000000000001
0.007579902594499483
-0.0093463752639041907
-0.00025529566499053855
-0.089325612024237264
-0.17303315200820699
0
0
0.11724393356182509
-9.8859828001514259e-05
0.070835301095544881
0.13231348032395224
0
0
0.055672769737993032
-0.00029174250341656961
-0.10673979638313368
0
0
-0.0010091786758269603
0.14036953801588944
0
0
-0.10000000000000001
-0.10000000000000001
0
0.085951943541478587
0
-0.050700140416315355
0
0
0
-0.059897984307604971
0.00025087930357493149
0
0
0
0
-0.28009924557206339
-0.00011425365339802811
0
-0.12518184628886078
-0.092705935263429309
0
0.14844168357446524
0
0.016672620184098468
0.14844040803088016
0.012048518610850663
0
0.28492895665793982
0
-0.027167040701757655
0
0
0
0.11498323058870169
0
0.052812290216888762
-0.079513073145074553
0
0.0072419357955195805
-0.26442594237861178
-1.8883204575337148e-05
0.01648635529547798
-0.001501428972431146
0
0
0.10769450053459964
-0.00058692724411632622
-0.14839833095402913
-0.15235223035339765
-0.023202446407369945
-0.0014029167813282978
-0.073753651210911306
-0.0012837572245323902
0.098752797675416629
-0.021374867045588903
0
0.0068268796243637405
-0.081396633581179947
0
0.072432580094200991
0.23737143416000023
0
-0.0026340638115701859
-0.32433703065464836
0
-0.10000000000000001
-0.082394923562473896
-0.0078091194028081581
0
-0.040246128101423057
0
0.00038935569975384019
0.0036942436346556165
0.00018936001875643512
0
0.15363716630450333
0
0.055318758247077021
0.0051709613814648354
0.008502762911706015
0
0.074515730781618314
0
0.013567352533853615
0.027306158636891977
0.0014277730249164517
0
0.024036481741160257
0
0.020502761925107579
-0.030052312081469291
0
-0.0083384905046466826
0.12507280059919754
0
0.0021889466407358825
-0.002154490441444239
0
0.00010743130862030853
-0.074128055782998636
0
-0.016161108063614468
0
0.026621804534573454
0
0.0055400187639143127
0
0.10000000000000001
0.17494524072481715
0.025287605486422345
-0.0094695140691326684
-0.11541317072402506
0
0.03253214737376086
-0.00010257877482505967
-0.025129207841971157
0
-1.0667869083734321e-09
0
0.0026883646273685546
-0.0056415657841839507
0
0
0
0
0.0019937991409326354
0.0016646077157664091
0
0
-5.3477743748452795e-05
0
0
0
0
0
-1.3527348080042513e-05
0
0
0
-5.602056759176628e-05
0
-3.0058778517212288e-06
0
0.00018688183239683306
9.2445505787418743e-05
0
0
0
0
0
0.0002437495197748586
0
0
0
0
0.00084334478921032187
1.2332724479277619e-08
0
0
3.11553708824655e-06
0
0
0
0
0
-6.7642426172440942e-09
0
0.00041940738594949193
-0.00015588393506948541
0
0
-1.501420109907475e-08
0
0
0
0
0
-6.7759650897630752e-09
0
0
0
0
4.4134849569463148e-05
-3.6306392912644776e-09
0
0
0.00041558100663154627
-5.3821656237905839e-07
0
0
0
0
-8.6296534789580474e-06
-1.3877098467059972e-05
0
-3.8597260024334749e-08
0
0.0001565522092704339
0
-2.7342096443162319e-07
-7.0457891103247677e-07
0
0
0
-3.4493374962552727e-08
0
0
5.3258219230677974e-10
0
0
0.00032351378740407596
0
0
5.4618822421694989e-11
0
0
0
0
0
3.3963707251202734e-06
0
0
0
0
-1.5475853945231824e-06
-1.017664373127609e-07
0
0
-0.0003609322751933063
0
0
0
0
0
0
0
0
0
0
0.0010290192903881351
0
0
-0.00050123561098314303
0
0
0
0.00088248558740542206
0
0
8.5234656442057368e-07
0
0
0
0
0
-2.3563473146121054e-10
0
0
0
0
0
0
0
0
-0.00071347207045133405
0
0
0
0
0
0
0
0
0
0
0
0
0
-1.6798290618187415e-06
0
0
0
-0.00033262348702576221
0
0
-1.000172288858106e-06
0
-6.9224027755985184e-07
-4.2253911245876154e-06
0
0
-2.0541248168369776e-06
0
-0.00046475523090693817
0
0
-1.2677727588387713e-05
-7.4944185718719826e-08
-0.00033850376856516169
0
0.0042040586752855368
-0.0049075008293901707
-0.0045431164935713572
-0.00014977228502612323
0
0.0023612927220836291
0
-0.0012514409908724567
0
-7.8335027532650874e-09
0
0.035571817987663491
1.2664633346436153e-06
0
-0.0067346021680886031
-0.0057223373527442722
0.001384091104050353
0
0
-0.038143365498680408
0
-7.5205541533831912e-09
0
0
-0.0058962831038197397
1.5652377631348062e-05
0.019376502387957371
3.7318182722080466e-09
1.6416677857123314e-05
0
0.041776491081687336
0.0022142126588865297
0.00235662123340137
1.5136418523321508e-12
-0.00073863944659270512
-0.0027943632681579778
-0.00357556646640988
0.00069252590381811609
0.016442148858945144
1.3890870527064562e-06
-2.2515529584104972e-06
0
-0.00064109688514848886
-0.00047569544664900499
-0.021505179107367871
-0.0023114236735130691
0
-0.0045119153631781855
0
-0.020663748606363837
-2.3877695138869008e-05
-1.6003317687625493e-05
0.00036911914722480738
0
0.00010922719838413398
-0.0081036578188552148
-0.00013954496998354289
0.00049789456243351754
0.0050098742696745909
0.011857812080980289
0.00065035057187145498
0.00087818334168517477
-0.0022050661922955314
0.00073841677328245802
5.3716436976167123e-05
-0.02947990960968971
0
-0.00081690187550398526
-0.00043401231936195605
0.00027293866063111911
0.00065020256582694336
2.2077983482380935e-05
0.00024913540880141643
0.00090154755587923191
-0.00085921292427019926
0.014662349891949814
0
3.9600840502906729e-06
-0.063263664602737552
0.00064797344205014403
0.0090465008071927196
3.3122784974888225e-08
4.498814979626221e-06
0.020681545035557213
0.0075392126014425034
0
0
-0.011801664352362209
0
-0.00022016809439951893
-0.0073922060695414595
-0.027897501044439346
0.0011791688943916349
-0.0015518347924217963
0.00097804982665891226
0
0.021734816760144805
0
0
3.255230230690898e-05
0
-1.2362930089411709e-05
-0.006301841903628278
0.014254451490182146
0.0085026702581474933
0.00082308965302724897
0
-0.0032009335170778879
0.013611681907981867
0
0.0011076711384594023
2.8343521971309833e-05
-0.00028259407483758329
-5.3962008620408076e-06
-0.010036594684389043
0
0
1.10499609029548e-08
0
9.8697102725567467e-05
0.0012319166190464604
0.0033548233289578872
0.00012699133509324028
0.00012766524263505328
0
0
2.1056340626434583e-05
0
-0.0046940683254757289
-3.4749381261510212e-05
-0.0045075907595338522
-0.010345102133877402
0.017900085621830687
0
0.00087672576999653362
-3.5672854654345112e-11
-1.000022821094273e-07
0.00011214651063206336
0
0
-0.00060827932811987283
-6.5129323386336352e-05
0
0.00072351560974524972
0.00032269310385368356
-0.001267750312694734
-9.2840963419384742e-05
-6.2636558001051277e-05
0
-0.00030072778001880306
-0.012327072256967468
0
-0.039335902807803476
-0.021095849530789371
0
0.00044993487805031597
0.011638342909140585
-0.0097504079792300018
0
-4.8492975214637461e-05
-9.574181949486291e-05
0
-0.018813560925123211
-0.0056653978377207443
-0.017687513469606911
1.7384420603962505e-09
0
0.0032484488973453206
0
-0.011222355307748214
-0.042368232688430867
8.0588531342726321e-10
0
0
0.0030559603130496551
0
2.3561144687780228e-06
0.00017519885196630179
0
-0.00077592193783106254
-0.015836689294088813
0
-5.6574056169774941e-06
0.00039799436918049107
0.0011174804233396389
-0.0068647102407755544
0.0060525528030086952
5.6155382389235624e-07
0
6.6784199142000645e-08
0
0.016253661762602942
0
0.010369326393324075
-0.00011117157977775621
2.3336062332836974e-07
0
0
1.4378417815317231e-05
0.01573152050110117
0.0002756582443877922
-0.0003527793281394336
-9.6046939247241938e-07
0.019189531028860903
0.0036850918336569123
0
0
1.5064463394180096e-06
1.5990666402540478e-06
0
0.044137547706222399
0
-0.007173421686755845
-9.5999319944060405e-06
-0.00077404138741215709
0.002345102410157169
0
0
-0.0019149846277061204
-2.7365065543903319e-05
0
0
0
0
0
1.266317594943403e-11
0
-0.060358932606302415
0
0
0
-6.6797041035779212e-06
-0.00025087930357493149
0.028381943758952356
0
0
0
-0.003509103285339044
3.5053232662916688e-05
0
0.0035153475644468871
-0.00079690830017224365
0
0
0.00056456506888091632
-0.0052586407898495549
-0.0017292562874682684
0
0.0047431064871415853
0.00091388415949016305
0
-0.0046183186057767904
0
0
-0.032430449179791702
-1.3266329196349556e-06
0
-0.004632205439001739
-0.015350125212134344
0
0.0040037987240646618
7.2175124651285227e-09
-6.6329211971214122e-07
0.00039730690773943992
-5.957995108639663e-05
0
0
0
-0.0013377652583807073
-0.015020543978863734
-0.0054427714032811211
0.012491480649236601
0.00071796658648958184
2.086879717618879e-05
-0.00019199484463140493
-0.0061673248518785131
-0.030230596733280053
0.057770334014432316
-0.00094897865894561385
-0.015040279763940772
0.0010588309414311485
0.012627264894294726
0.002366940820553453
-0.026789194783025969
1.392568170184966e-05
-1.0457759383590267e-05
0
-0.026671408354558279
-0.00094581716907392874
-0.00020385082003855981
-0.0016474297611935146
0.0029496668391114015
0
5.9760559227773536e-05
-0.00013751566829038871
-9.7904164076934632e-05
0.0033048514069089364
-0.00070796575673301844
0
0.027562290923263788
0.00015067100524119074
-0.00064986924644678417
0
0.00047679429581086024
-0.0024500922421286982
0.0028081438157373032
0
-0.0002466819555290469
-0.013792177336491426
-0.0024908245481238128
0
0
-0.00076150674595220355
-0.0036574174606364578
-0.00059685309911730849
4.1116041338764881e-05
0
2.9447119707541457e-05
0.041829833972544583
0
0.0033777569622302642
0.0010352764618489672
0
0.014019638018818278
0
0.0029254392122189357
-0.020499362543929495
-0.010154473869036193
0
0
-0.0033365515500568964
-0.016223415349007043
0.00031487793111291645
1.0550464544998815e-05
-0.00050744273350466552
0
0.0018956973892692952
1.2310719154771589e-05
0.011031042593741462
1.9125296442651419e-10
0
0.0014390625899771557
-0.004038209514289127
0
0
0
0
0.001231808381627809
-0.00050339448809430152
0
0
0
0
0
0
0
0
7.8488386481058102e-06
0
0
-0.010769194923228906
0
0
0
0
-5.5460258827293759e-05
-0.00041652468965759062
0
0
0
0
0
-0.0012581577411542287
0
0
0
0
-0.00013413915604352638
1.2332724479277619e-08
0
0
0
0
0
-0.0022900599657824944
0
0
-6.7642426172440942e-09
0
0
-0.00015588393506948541
0
0
-5.3961133902040056e-08
0
0
0
0
0
-4.1168270222916051e-09
0
0
0
0
0
-1.9913178983441457e-08
0
0
-0.0011931724290349607
-1.5553248378647878e-06
0
-5.4924973739869154e-06
0
0
-1.9858957727474592e-05
0
0
-1.0050458718500213e-07
0
-1.162427830474385e-05
0
8.9017084507461299e-09
8.7803467609142969e-07
0
0
0
-1.415475004256471e-06
0
0
-7.0333873072567738e-10
0
0
-0.00055494210707755396
0
0
-9.4951632229787009e-09
0
0
0
0
0
-7.68582934752024e-06
0
0
-0.0019575432035095772
0
4.4868349273018738e-07
9.5883990592439388e-09
0
0
-0.00042047519423051114
0
0
0
0
0
0
0
0
0
0
0
0
0
0
0
0
0
-0.00088248558740542206
0
0
7.4124620219831242e-07
0
0
0
0
0
-1.2592656131935382e-08
0
0
0
0
0
0
0
0
-0.00037542912175910615
0
0
0
0
0
-0.0015248737886682517
0
0
0
0
0
0
0
5.6691355532169372e-06
0
0
0
-7.1960202169018826e-05
0
0
1.000172288858106e-06
0
7.360178272928033e-07
-7.7040683587194057e-06
0
0
4.8845733461082244e-07
0
0
0
0
4.2641423023518003e-05
-7.4944185718719826e-08
0
0
0.0042040586752855368
-0.0033860223119840018
-2.1270562606154255e-05
-0.00014977228502612323
0
0.01631511674221266
0
-0.00069361599304218675
0
1.7608882173559653e-08
0
0
1.2664633346436153e-06
0
0.00044396116363364406
0
0
0
0
0
0
1.0462871228435778e-09
0
0
-0.0019517048599482416
9.3458210444709936e-08
-0.0060636197899491462
3.7318182722080466e-09
-1.0148495347436038e-05
0
0.028551268055689038
0
0.0075166931183266467
-1.9299012423436405e-12
0
-0.0016886315519112835
-0.0009480367082341859
0.00015799205769392546
0.0084676409134859763
-7.0864350669517181e-06
-1.9727222703723365e-05
0
-0.00093816885983951737
-0.00047569544664900499
-0.01096761984172881
-0.0023114236735130691
0
0.0016156208325081418
0
-0.010331874303181918
-8.636570287048125e-06
-1.6003317687625493e-05
0
-0.028657098898792775
-0.00069274833905764977
-0.0040636885936629341
1.0746810409966888e-05
-0.00035637989331563022
0
-0.006343421018060201
-0.0031805719014055458
-0.0035688575907926617
-0.0030966703883319492
-0.00021431376884720616
3.7319933826511282e-05
-0.021183634208761126
0
-0.0027725461476633094
0.0010340955797882897
-0.00085957441871584216
0
3.4576837283309968e-05
-0.0011575610780850466
-0.00040975236831247041
-0.0014456396345079014
0
0
0.00025038880145779714
0
0.00011251567071116752
0
1.0314733692362985e-08
-3.1768534423557137e-05
0.0073653486054091498
-0.014116417952003258
0
0
0
0
1.843129030549156e-05
-0.011315882524509885
0
6.9302944339372143e-05
-0.0015518347924217963
0
0
0.0080480786633781512
0
0
2.0720628141857415e-05
0
1.2362930089411709e-05
-0.0035731256372073389
0
0.00090133801536084607
-3.0888265528546544e-05
0
0.019971547851893215
0
0
1.9002965073922963e-05
8.7077037181108405e-05
-1.3569210355967947e-06
-3.1130520184031853e-06
-0.0098643249823144059
0
0
4.5461843507700286e-08
0
-0.00074305134769922965
-0.0065608423411435959
0.0024197096922874825
0.0004162493565492304
0.0014492049755060648
0
0
-2.1056340626434583e-05
0
0.0001584948501976482
-1.2767588942611955e-05
0
0.01041979957090876
0
0
-0.0093846774218876595
-4.7463475732816519e-13
8.6075024134662979e-06
0.0018750723014438573
0
0
-0.0021091911573248852
0.00096029224238647598
0
0.00068177680441296531
0.00032269310385368356
0.001267750312694734
1.2881413565063344e-06
2.7663654501800192e-05
0
0.013240229389826972
0
0
0
0.021095849530789371
0
-0.001066114604347117
0.013504593814602558
-0.0025804817723675795
0
4.8492975214637461e-05
9.574181949486291e-05
0
-0.0059213621758230977
0.0023244338704371038
0.007732275857043858
-4.4248325729270985e-09
0
-0.0033961870050372876
0
0.0032349896536307335
0
8.0588531342726321e-10
0
0
0.0030195016611889226
0
-7.6716168360855046e-07
0.00051359356045811006
0
5.8580459045185515e-05
0.010499711111093912
0
5.6574056169774941e-06
-0.00061026218921411994
0
0.0068647102407755544
-0.0032544974517921023
-1.4476735132738176e-05
0
7.5078056407052466e-08
0
0
0
-0.0044090288134230136
0.00051582033091879882
2.4487753768938499e-07
0
0
1.4378417815317231e-05
0
0.00019843690717419644
-0.00023864078712903012
-8.1547624726599408e-06
0
0.0036850918336569123
0
0
-3.5402772360094192e-06
6.8513200782802444e-06
-0.0080985322017863275
0
0
0
2.0276451445533236e-05
0
0.0023358999838721962
0
0
-0.0011550608513702806
-1.6044051966113396e-05
0
0
0
0
0
5.7201306673994259e-13
0
0
0
0
0
4.2731661979169827e-06
0
0
0
0
0
0
0
0
0.00064992362409452276
0
0
0
0
-0.0087118283738912457
-0.0025684469274675982
0
0.0028505311182896583
0.00059507528435766613
0
-0.0065238040543161525
0
0
0
-8.7305340687573711e-06
0
-0.052685696894388151
-0.0089888371737171339
0
-0.0022052910802140063
-3.1537478435043924e-08
-1.0909170371565841e-05
0.0091776987024909471
0.0057523551095680142
0
0
0
0
0.010033978316889576
-0.0069051640118222403
0.0048571861658467585
0.00071796658648958184
-5.059522591284564e-06
-5.0641448852078808e-05
0.0031252545170426709
0
0
0.00097824338365010686
0
0
0.012627264894294726
-0.0022603797919334857
0
0.00043123306472459574
-1.1571256957644125e-05
0
0.016550490630623301
-0.00094581716907392874
-0.00020385082003855981
0
0
0
-3.63687328862924e-05
3.4038210488671593e-05
-9.7904164076934632e-05
0
-0.00070796575673301844
0
0.027278339863694517
0.00018093942845933179
-0.00041906752761963946
0
0.00047679429581086024
0
-0.0015079878070081104
0
0.00027799269087921307
-0.006896088668245713
-0.0012534720957577692
0
0
0.0017284135230788583
0
0.0011343791850826821
9.7011370614205703e-05
0
1.2883178992752646e-06
0
0
0.0033777569622302642
0.0017560593817471607
0
-0.014019638018818278
0
-0.0032718529392743593
0
0.0053647004248025812
0
0
-0.0048980773925830206
0.0068760233107774465
-2.5047613364442833e-05
-2.0569932024139831e-05
0
0.03073075198612632
0.0034440803275185561
4.0773103698489343e-06
0
7.7176202656070686e-10
0
-0.0026883646273685546
0.0010453496135268176
0
0
0.00023311509546944503
0
-0.0037062853735006875
-0.001999815905108946
0
0
-5.3477743748452795e-05
0
0
0
0
0
5.688197373037353e-06
0
-0.0071419610207847624
-0.0053845974616144529
-0.00011093181701339857
0
4.3682700937150234e-05
0
-4.1346897627382248e-05
-0.00020041159243403537
0
0
2.9352814022262976e-05
0
0
-0.0007464979297457262
0
0
-2.068799558384254e-05
0
-0.00052903962816329224
-8.1274450812090289e-07
0
0
2.9476159717377157e-06
0
0
-0.0011450299828912472
0
0
4.3081571890237114e-08
0
0
-0.021611871202589127
0
0
5.8623310701950452e-08
0
0
0
0
0
4.5652774701470995e-09
0
0
0
0
-0.00016117606909830186
-3.9530658198224381e-09
0
0
0.00059658621451748035
-6.5970228131024224e-05
0
-4.2279054625013269e-06
0
0
-1.0769085702855716e-05
-0.00011966668419966528
0
4.2216596487511835e-08
0
-0.00013738364162238953
0
-8.4565830355443426e-07
-9.5481511727585623e-07
0
0
0
-2.118369405307471e-06
0
0
5.5211855367748598e-10
0
0
0
0
0
1.586295269265736e-08
0
0
0
0
0
3.1617295293563929e-06
0
0
0.0019575432035095772
0
-2.2585858714852541e-06
1.2350781773217893e-07
0
-0.00027886208242113383
0.00021233997308640814
0
0
0
0
0
0
0
0
0
0
0
0
0
0
0
0
0
0.00088248558740542206
0
0
3.0544425230727628e-06
0
0
0
0
0
2.252167197733583e-08
0
0
0
0
0
1.7015847441098834e-05
0
0
0.00037542912175910615
0
0
0
0
0
0.0015248737886682517
0
0
0
0
0
0
7.5839692780847842e-05
-3.4040607946658861e-06
0
0
0
0.00013059971369398931
0
0
1.000172288858106e-06
0
3.8041913477178651e-07
-7.3126643412773605e-06
0
0
1.0997774267683719e-06
0
0
0
0
1.2444115417656241e-06
2.3422144835556222e-08
0.00050487511730634303
0.058630380117574432
0.0066846096541472288
6.7049946771960758e-05
0.0034902236445667118
-0.00050712946692492607
0
-0.0022899819512927147
0
4.5263665070638945e-05
0
-1.7608882173559653e-08
0
0.035571817987663491
2.4779139365753833e-06
0
-0.00049748435347063847
-0.025265608681375749
-0.001384091104050353
0
-0.071205294541451206
-0.038143365498680408
0
-5.5502036418854257e-09
0
0
0.004695735753198582
-1.5652377631348062e-05
-0.024693760476145157
-9.9810542532612606e-10
-1.6416677857123314e-05
-0.10078396152774366
-0.0010474039472296432
0.0010668216038427995
0.0075166931183266467
1.3966116209948005e-12
-0.00022046992820150111
0.0019830087506624199
0.0034171031754060858
-0.00013617657575844185
0.00049313296802680831
4.1515853457624888e-06
-1.9727222703723365e-05
0
-0.00093816885983951737
-0.00027201971023807183
0.021505179107367871
-0.0014418640437291414
0.011010258971715118
0.0075276447198552371
0
0.020663748606363837
-2.3877695138869008e-05
-1.6003317687625493e-05
8.1307430731441372e-05
-0.028657098898792775
-0.00041675741522920239
-0.01150542024372846
-6.3647620884820454e-05
0.00012306353786409229
-0.0047690872598720397
-8.1464422248139073e-05
0.00070281535725239593
-0.0079704574277860742
-0.002956467255734431
0.00014306138229398991
1.2041800925172784e-05
-0.016592550801857169
-0.17369062528115772
-0.0033225424377939529
-0.00022668244818382477
-0.00085957441871584216
7.9489790473521408e-06
1.1211682056524398e-05
-0.00024913540880141643
-0.0010916616160827107
-0.00099985067860687365
-0.011822212201014235
0
-0.0002093517194419103
0.052424984822776348
-0.00082579557964177874
-0.0040745729727138004
5.6711403849454783e-08
-2.2770904464304695e-05
0.022840689517909206
0.014116417952003258
0
0
0.08899479023718275
-0.01593807546197264
5.8254403340926659e-05
0.01903669170439436
0.055795002088878692
0.0017997812300599122
-0.0015518347924217963
-0.00040269884078443459
0
-0.014008500375031851
0.076065014911918249
0
-1.5301987632516213e-06
0
1.2362930089411709e-05
0.018641624826998569
-0.028508902980364292
-0.0025740814517317468
0.00056675094926679731
0
-0.035765486049038488
-0.06374123301932122
0
-0.00049307302478778132
8.7077037181108405e-05
6.1798815804635401e-05
5.3962008620408076e-06
0.01992792925720082
0
0.11272602407509044
2.5962098610155276e-08
0
-0.0001123206260987574
0.00017743506067763922
0.0094942659957154181
-0.00018495819321039119
0.0014492049755060648
0
0
6.0312093736886716e-05
0.010937529385113947
0.0048718421431700083
2.05886702791143e-05
0.0045075907595338522
0
0.092147093531985746
0.029084560738520268
0.036432657488922097
-3.0274384324089377e-11
8.6075024134662979e-06
0.0018750723014438573
0.28605739697537985
0
-0.00060827932811987283
-6.5129323386336352e-05
0
0.002309282181611908
0.00025214629497085581
-0.00016615291234217479
3.0395135308390729e-05
6.2636558001051277e-05
0
0.013240229389826972
-0.099242314256794639
0
0
0
-0.018519083211456094
0.00095196876203444095
-0.009619619530361766
0.00017471267155748805
0
1.7843595264460731e-06
9.574181949486291e-05
0
-0.0006230651989748866
-0.0056653978377207443
0.018990310927996856
1.6163970181522246e-09
0
0.013510227618769095
0
0.009469994531465081
0.021184116344215433
-1.7454694767604713e-09
0.0045692858877724027
0
-0.0025913835179524635
0
-3.4778759859196315e-06
0.00028860894759922889
0
0.00077592193783106254
0.0054864374479015139
0
5.6574056169774941e-06
0.00017706344048310825
0.00046860063424305825
-0.0073625334127342046
-0.058115042368978603
-5.6155382389235624e-07
0
1.3643603849493159e-07
0.0028264369491551862
0.032185468836837511
0.038406312737177033
-0.0085612874724319207
-0.00034863342107721058
2.4487753768938499e-07
0
0
-9.3232579933227913e-06
0.026728468228580604
0.0002756582443877922
-9.147606236661261e-05
-1.7624691735315224e-05
0
-0.00080437223100040308
0
0
3.5402772360094192e-06
-1.2719383952920272e-05
-0.00062266468144834674
-0.055179215983909097
0.009218394030641534
0.007173421686755845
-1.9603665233409382e-05
-0.00077404138741215709
0.0046810023940293648
0
0.046704981416700195
-0.0074164997590447004
-2.7365065543903319e-05
0.0018508342228280208
0.063177129626974249
0.05778467743120206
0
0
5.7201306673994259e-13
0
-0.060358932606302415
0
0
0
4.6202153009137167e-06
-0.00011285595844919185
-0.056763887517904711
0
0
0
-0.0018784580293161838
4.9158386404849441e-06
0.16770164951290853
0.00037096886927336222
0.0073876266459851729
0
0.035810808033615839
0
0.0089062218119076303
-0.0020399639522090617
0
-0.0008629197830108703
0.0015030086910042524
0
-0.0115646919999193
0
0
0
-6.1932978186434359e-06
0
-0.033636057875221607
-0.0089888371737171339
0
0.0019998071803027204
-4.6755207240955496e-08
-9.8095844821883533e-06
-0.0091126376296080096
-0.0057523551095680142
0
0
0.057024262669305076
-0.0013377652583807073
0.0048862258788052605
0.0016266856156365917
-0.0067084947627244658
-0.00021044973524156883
5.059522591284564e-06
-0.00019199484463140493
-0.0061673248518785131
-0.059862567788673375
0.057770334014432316
-0.00090353433001223466
0.037189913303427483
0.002214460096603834
0
-0.0025786975900542628
0.014320977332303583
0.00052759845457182408
-2.6821366355661688e-06
0
0
-0.00037925797198098282
-0.00021253721417241196
-0.0016474297611935146
0.025128919543400838
0
-1.6218898588588215e-05
-0.00013751566829038871
2.9659412881131003e-05
-0.0052336796699137371
-0.00070796575673301844
0.0070688029176859384
-0.013775561631165735
0.00015067100524119074
-0.00041906752761963946
0
1.4481528995548347e-05
0.0021825051370089692
0.0034916633054031029
0
0.0013588285845533355
-0.006896088668245713
-0.001286994911603974
0
0.074306731441674434
0.00087090020079980829
-0.0036574174606364578
0.00065217552506660495
9.7011370614205703e-05
0
-2.8972881238031427e-05
0.041829833972544583
0
0.00024216676612311757
-0.0040299078678069419
-0.0032840178493194023
0.0032918566414952464
0
-0.0047674714336060249
-0.020499362543929495
0.00033174594108517554
0
-0.0047000532382496527
-0.0031646328040101177
-0.013752046621554893
0.00049200441290677451
1.0550464544998818e-05
0.00053292337996374507
-0.03073075198612632
0.00055247200067015364
1.2310719154771589e-05
-0.011031042593741462
-1.9125296442651419e-10
0
5.2577811377675925e-05
-0.0077413943729271271
0
0
0
0
0
-0.00085098203450180616
0
0
0
0
0
0
0
0
-1.6489861278555454e-05
0
0
-0.0053845974616144529
0
0
-1.5767463748402588e-05
0
0.00022885934716851029
0.00020059251636435739
0
0
0
0
0
0.00029647215714516335
0
0
1.0240557814002058e-05
0
-0.00043322941811540746
1.2332724479277619e-08
0
0
0
0
0
0
0
0
6.7642426172440942e-09
0
0
0
0
0
-1.7681661769352363e-09
0
0
0
0
0
6.7759650897630752e-09
0
0
0
0
0
1.0311410958792798e-08
0
0
0.0010121672211490266
0
0
-2.7462486869934573e-06
0
0
8.6296534789580474e-06
0
0
4.0406928255923292e-08
0
0.00022740838440414525
0
5.2695352845799609e-07
-4.7554469559049829e-08
0
0
0
-3.548374205851602e-08
0
0
2.2464903623995037e-10
0
0
0.00032351378740407596
0
0
3.1292759124176338e-09
0
0
0
0
0
-1.5492506307980204e-06
0
0
0
0
3.0101258234120866e-07
1.0213607461913174e-07
0
0
-0.00020813522114410303
0
0
0
0
0
0
0
0
0
0
0
0
0
0
0
0
0
0
0
0
2.2992234363257988e-06
0
0
0
0
0
-6.8604344934162563e-09
0
0
0
0
0
0
0
0
0
0
0
0
0
0
0
0
0
0
0
0
0
0
3.9498084073249332e-08
0
0
0
-0.00021480832144458594
0
0
0
0
-8.4084755790351998e-07
-7.3126643412773605e-06
0
0
-1.5769511218026746e-06
0
0
0
0
0
-7.0888179207908465e-08
0
0
0.005358392656711064
0
-0.0010528928490046454
-0.00048362331047380864
0
0.0033516517212569211
0
-0.0012967046559430955
0
-7.8335027532650874e-09
0
0
-1.4032270550694029e-06
0
0.0026493978969312089
0
0
0
0
0
0
-1.2424830737071541e-08
0
0
-0.0015541597401538933
-1.5652377631348062e-05
0
-3.7318182722080466e-09
5.5035082117868616e-06
0
-0.00076958713805328513
0
0
-1.9787425015091946e-12
0
0.00022845468183096875
0.0036451806876742925
-0.00056826095857171756
0
1.5457626684827734e-06
7.461663707351499e-06
0
0.00093816885983951737
-0.00020367573641093319
0
-0.0006002322124363294
0
-0.0045119153631781855
0
0
-1.7395933522855492e-05
-5.8675384067755263e-06
0
0.030429215790725436
-0.00041118184101044585
0.0020521627397997811
-2.8923647174045495e-05
0.0001708385361537647
0
-0.005888173829366075
-0.0049692672841316092
0
-0.0013254341451568706
-0.00073841677328245802
3.7319933826511282e-05
-0.0082962754009285843
0
-0.0013862730738316547
-5.6136493173495239e-05
-0.00045793945643258453
0
-1.2871717444046354e-06
0.0010917659896048507
-0.00095247595387991965
-0.00069763148599507262
0
0
-0.00025038880145779714
0
-0.00080769687102302042
0.00023045293823158657
5.6711403849454783e-08
-3.1768534423557137e-05
-0.014738980874355771
-0.014116417952003258
0
0
0
0
-0.00014348240075310074
-0.0035216955361338119
0
-0.0011325139645416468
-0.00011855022898455817
0
0
0.0041849204708216741
0
0
-1.2959081857258472e-06
0
1.2362930089411709e-05
0.012471733365313424
0
0
0.0010666405061813729
0
-0.014992653578955989
0
0
0.00089636770410495459
8.7077037181108405e-05
0
-8.2990317476556316e-07
0
0
0
8.4497839945902158e-09
0
0.00042352090218357409
0.0037421389816953967
0
0.00053789872586470187
-0.00053715772916587516
0
0
-1.1159218656817524e-05
0
-1.9278967496630392e-05
1.6429512560513636e-05
0
-0.00520989978545438
0
0
0
-2.3694989702357052e-12
-4.3256164730913691e-06
0.0013160223704482194
0
0
-0.00040337763200901469
-0.001068060513625557
0
0.00044619854263008938
-0.00055379916126618476
-0.00087756960356200021
-3.5912259781767317e-05
-6.2636558001051277e-05
0
0.013240229389826972
0
0
0
0
0
0.001066114604347117
-0.0071813276434149276
-0.0049625603253937445
0
-2.6416212262907151e-05
8.7773510779525566e-06
0
0.0054053332794108009
-0.003611588682827543
0
7.779671651475574e-09
0
0.014773810769196663
0
-0.0032349896536307335
0
-8.0588531342726321e-10
0
0
-0.00012991823074078206
0
-3.4778759859196315e-06
0.00038226802466670244
0
-0.00077592193783106254
-0.0051751259230936493
0
4.4211771432303827e-06
-0.00021659937436550587
0
0
0
-5.6155382389235624e-07
0
2.7829829404398473e-07
0
0
0
0
0.00011873092064972719
2.336165868342418e-07
0
0
1.4378417815317231e-05
0
0.00020943818710972517
3.5536876425870361e-05
3.9550924085071813e-06
0
-0.0022447320323286577
0
0
2.5436980630520948e-06
5.5601586563331123e-06
0
0
0
0
-1.9603665233409382e-05
0
4.7189898664084986e-05
0
0
0
2.4635073289666854e-09
0
0
0
0
0
1.1519149815954144e-11
0
0
0
0
0
-6.6797041035779212e-06
0
0
0
0
0
0
0
0
0.0074253120565596752
0
0
0
0
0.0087118283738912457
0.00062582415983966958
0
0
0.0010316011905773955
0
-0.0115646919999193
0
0
0
1.3266329196349556e-06
0
0
-0.0044045392030597746
0
0
-1.6621090793605857e-08
-5.4000393339250915e-06
-0.00024175136913651038
-5.957995108639663e-05
0
0
0
0
0.0050671590500292359
-0.0017969235318929604
0
0.00034263249363317898
5.059522591284564e-06
-2.6080143653776694e-05
-0.0038209485612259141
0
0
0
0
0
0
0.0024728192053038579
0
0.00027076206813683685
-1.8206904447318124e-05
0
0
0.00050206240550953627
-0.00042537558643712236
0
0
0
-1.6218898588588215e-05
-9.4142351682183586e-05
1.1508425409174998e-05
0
0.00070796575673301844
0
0
0.0001773269382414471
-0.00042363785868552349
0
0.00014545052055483344
0
-0.0028081438157373032
0
0.00025636044944553148
0
0
0
0
0.00033275008481267867
0
-0.0011343791850826821
-0.00014965150403213983
0
3.2784541998822813e-05
0
0
-0.00024216676612311757
0.0018671142766529284
0
0.016190292847476445
0
0.0029912369886633317
0
0
0
0
-0.0003188204324592528
0
-0.00032204164066809487
2.0569932024139831e-05
0
0
-0.00067161269429957078
1.2310719154771589e-05
0
-4.629151963231111e-10
0
0.0020670595206917822
-0.00193838092554595
0
0
0
0
0.001231808381627809
0.00067718826129805384
0
0
0
0
0
0
0
0
-5.688197373037353e-06
0
0
0
0
0
1.313271371575028e-06
0
-0.00010768830155644688
0.00041652468965759062
0
0
0
0
0
0.0012581577411542287
0
0
-1.0240557814002058e-05
0
0
-3.3808166965515255e-07
0
0
-1.5825173554626601e-05
0
0
0
0
0
5.6610057124725294e-08
0
0
0
0
0
5.3961133902040056e-08
0
0
0
0
0
4.1168270222916051e-09
0
0
0
0
0
1.9913178983441457e-08
0
0
-0.00059658621451748035
0
0
5.4924973739869154e-06
0
0
2.1998389951372264e-05
0
0
1.0050458718500213e-07
0
-0.00010791132414484884
0
1.5048714600028689e-06
-1.6118395587492831e-06
0
0
0
3.4993510346013891e-06
0
0
7.0333873072567738e-10
0
0
0.00055494210707755396
0
0
9.4951632229787009e-09
0
0
0
0
0
5.8387092531979864e-06
0
0
0
0
-4.4868349273018738e-07
5.9022951086666511e-08
0
0
0.00020813522114410303
0
0
0
0
0
0
0
0
0
0
0
0
0
0
0
0
0
0
0
0
-2.5986561334241617e-07
0
0
0
0
0
2.252167197733583e-08
0
0
0
0
0
1.7015847441098834e-05
0
0
-0.00065754860957370498
0
0
0
0
0
0
0
0
0
0
0
0
0
-5.6691355532169372e-06
0
0
0
-5.8639511524970499e-05
0
0
0
0
1.348248816492708e-06
3.5147713785600556e-06
0
0
2.0541248168369776e-06
0
0
0
0
-1.2444115417656241e-06
-2.4676026125716803e-08
0
0
0.0042040586752855368
0
-0.0034350874730086217
-0.00017325883534657975
0
0
0
0
0
1.7608882173559653e-08
0
0
1.2664633346436153e-06
0
0.0026493978969312089
-0.0057223373527442722
0
0
0
0
0
-5.5502036418854257e-09
0
0
0.0058962831038197397
-7.0695872181710507e-06
0
5.2673747702106208e-10
-1.0148495347436038e-05
0
-0.00076958713805328513
-0.00047990014726412696
0
-5.305255364847636e-12
0
0.00058289983566458929
-0.00357556646640988
-0.00041435123978827895
0
-4.2377610598290875e-06
-1.2431358407795426e-05
0
-0.00034402491045746036
-0.00047569544664900499
0
0.0023114236735130691
0
-0.0024878787070099764
0
0
1.7395933522855492e-05
6.0682469073864179e-06
0
0
0.00041675741522920239
0.0020521627397997811
-4.7100483938124105e-05
0.00049789456243351754
0
0.005888173829366075
-0.0021594583561300772
0
0.00044580209801820957
0.00099275260763599204
0
-0.0082962754009285843
0
0.0027725461476633094
0.0010340955797882897
0.00085957441871584216
0
-1.1211682056524398e-05
-0.0011575610780850466
0.0018730711240753182
0.0014456396345079014
0
0
-4.4997166066177482e-05
0
0.00073688451084596139
0.00023045293823158657
5.6711403849454783e-08
1.8155955668471232e-06
0.0077376704562500277
-2.2917096507116271e-05
0
0
0
0
-0.00022016809439951893
-0.0035216955361338119
0
0.0012120085747127079
-0.00047134926035125225
0
0
-0.0038631581925564775
0
0
-1.2959081857258472e-06
0
6.0522224807434964e-06
0.0061698914616851461
0
-0.0069484867419128951
-0.0010666405061813729
0
-0.018994871714223163
0
0
0.0005821378877405815
-7.9388971914816009e-06
0
2.7485495038667922e-06
0.010063604274886414
0
0
-4.5461843507700286e-08
0
0.00074305134769922965
0.00017743506067763922
0
-0.00015597476415181568
0.00025127737990468383
0
0
6.0312093736886716e-05
0
-0.0022634989686708094
-3.4749381261510212e-05
0
0.01041979957090876
0
0
0
-3.0274384324089377e-11
8.6075024134662979e-06
0.00086159269430524763
0
0
-0.0021091911573248852
0.0021787599751038589
0
0.002309282181611908
0.00055379916126618476
0.001267750312694734
-6.5019253733651706e-05
-2.9035006467264403e-05
0
0.00030072778001880306
0
0
0
0
0
-0.001066114604347117
-0.014076634796087423
0.0025804817723675795
0
4.8492975214637461e-05
0
0
0.00040899259384970655
0
0
1.097209743402861e-09
0
-0.0074607744384443146
0
0.0032349896536307335
0
-1.3369884990594489e-10
0
0
0.0014630210411544365
0
-3.5459983353305826e-07
0.00015728341180782125
0
0.00077592193783106254
0.0046826319685271799
0
-1.1368750250912284e-06
-0.0001967888431486358
0
0.013593485625298125
0.0032544974517921023
-1.4476735132738176e-05
0
-6.6784199142000645e-08
0
0
0
0
-0.00028591783049131548
2.2209967247322655e-07
0
0
6.2239628676138856e-06
0
6.599679261806238e-05
-0.00011300845644594398
-8.1547624726599408e-06
-0.010674387975762747
-0.0022406057875543148
0
0
3.5402772360094192e-06
-1.1232643750167903e-05
-0.0080985322017863275
0
0
0
2.0276451445533236e-05
0
-0.0070640922765656464
0
0
0.0022872492106342191
4.4943310433176191e-06
0
0
0
0
0
-5.7201306673994259e-13
0
0
0
0
0
6.6797041035779212e-06
0
0
0
0
0
-0.0012904946181526657
0
0
-0.011335276548672463
0
0
0
0
0.013970469163740801
0.0025684469274675982
0
-0.0028505311182896583
0.00059507528435766613
0
0.0046183186057767904
0
0
0
-8.7305340687573711e-06
0
-0.004632205439001739
-0.0044045392030597746
0
-0.00018105719762618726
-8.0002163407830449e-09
1.1181863108256344e-05
-0.0046771944993722605
0.0014598577514944259
0
0
0
0
0.0072006737817813934
0.0037049664257152249
0
6.793203315277775e-05
-4.666382723373992e-05
-2.6080143653776694e-05
-0.0061673248518785131
0
0
0.00050867678273472611
0
0
0
0.0002187687045438505
0
-0.00017880509799260706
-1.8206904447318124e-05
0
0
0.00094581716907392874
-0.00033047190004187365
0
0
0
3.63687328862924e-05
3.8885691152022575e-05
-0.00015722298983919663
0
-0.00070796575673301844
0
0
0.0003698533865603367
-0.00010735227491325298
0
0.00029873411110450102
0
0.0017170475921209488
0
0.00027799269087921307
0
0.002482122961896573
0
0
0.0017284135230788583
0
0.0011343791850826821
-9.3756174756699009e-05
0
-2.9447119707541457e-05
0
0
0.0030281588874868383
0
0
-0.0064492181029905992
0
0.0029912369886633317
0
0.0053647004248025812
0
0
-0.0048980773925830206
0
0.00054373299623514831
-1.0550464544998818e-05
0
0
-0.00032429824327953648
4.2403481675701724e-06
0
-1.0667869083734321e-09
0
-0.00035988445269713513
0.0056415657841839507
0
0
-0.00023311509546944503
0
-0.0018071951939502772
0.00056764505269058939
0
0
-0.00015025736336863094
0
0
0
0
0
5.688197373037353e-06
0
-0.0071419610207847624
0.0033568750933171514
-4.4802095602319635e-05
0
2.6601965817172621e-05
0
-1.3482744055616545e-05
-4.0657581468206416e-20
0
0
-2.820183611726296e-05
0
0
8.9114014376349884e-06
0
0
-1.0447437769840484e-05
0
-0.0012765742073257294
1.2332724479277619e-08
0
0
-1.011280712086915e-05
0
0
0
0
0
6.7642426172440942e-09
0
-0.0011362475283613186
0
0
0
-5.8623310701950452e-08
0
-0.0011516577966295843
0
0
0
-4.5652774701470995e-09
0
0
0
0
-7.8872118041913199e-06
-1.2329473872354543e-08
0
0
-0.00059658621451748035
5.3821656237905839e-07
0
-1.2645919114855876e-06
0
0
-1.0697161119488349e-06
-0.00010578958573260531
0
-1.0412392364817923e-07
0
1.162427830474385e-05
0
-4.5096440308687677e-07
9.5481511727585623e-07
0
0
-0.0044007551017539023
3.4493374962552727e-08
0
0
-1.0308082481632129e-09
0
0
0.00027747105353877698
0
0
-1.586295269265736e-08
0
0
0
0
0
-1.0645008252832208e-06
0
0
0
-0.00018733427405933056
2.2585858714852541e-06
3.5587966223420302e-08
0
0
-0.00042047519423051114
0
0
0
0
0
0
0
0
0
0
0
0
0
0
0
0
0
0
0
0
-5.5891477499325145e-07
0
0
0
0
0
-2.3563473146121054e-10
0
0
0
0
0
-1.7710300963845447e-05
0
0
0
0
0
0
0
0
0
0
0
0
0
0
0
0
-5.8524569673230994e-07
0
0
0
0
0
0
0
0
1.348248816492708e-06
3.9140401744204514e-07
0
0
5.5854015903772845e-07
0
0.00028303644957443418
0
0
5.4519829068288866e-05
7.4944185718719826e-08
-0.00081583591874010428
0
-0.0066846096541472288
0.011679545453358173
0.0034350874730086217
0.00016059219010110563
0
-0.0023612927220836291
0
0.00084217013818369099
0
-1.7608882173559653e-08
0
-0.035571817987663491
1.4032270550694029e-06
0
0.0058466798408213141
0.011444674705488544
0
0
0.063450003562374055
-0.019262399576833612
0
-1.2424830737071541e-08
0
0
-0.0015541597401538933
-1.5652377631348062e-05
-0.024693760476145157
-3.7318182722080466e-09
1.6416677857123314e-05
0.050895900571510555
0.00049177032887692709
0.0016405171313646646
0.0035705794238873631
1.5136418523321508e-12
-0.00045604571189836651
0.0013942543531601473
0.0036924044925769946
-0.00069252590381811609
-0.016442148858945144
-1.3029113386398575e-06
1.9727222703723365e-05
0
0.00044955905279542047
-0.00027201971023807183
-0.00043006057608974829
-0.0023114236735130691
-0.0055051294858575591
-0.0053521043541731048
0
-0.020663748606363837
1.7395933522855492e-05
-4.0675323734635473e-06
0.0022392976244255628
-0.030429215790725436
-0.00010922719838413398
0.013557582983528242
-0.00013954496998354289
0.00030860489502595778
0.0072740243947093351
0.005969638251614214
-0.0049692672841316092
-0.0061636320406997158
-0.00044580209801820783
0.00019888243311902244
-5.3716436976167123e-05
0.0082962754009285843
0
0.001955644272159324
0.0016341788402146234
0.00031369709745360404
0.00037566499289991669
1.1211682056524398e-05
0.00029790765726538121
0.00081329029167712856
0.00085921292427019926
0.0079916145609026795
0
0.0002093517194419103
0.026474617335502052
0.00062987473343138571
0.0058690734542729602
1.0314733692362985e-08
3.1768534423557137e-05
0.020317506848253807
-0.01357591336298323
0
0.023828031779282343
0
0
-9.5116983951909766e-05
-0.0067298228464458057
0
0.0023547142050860436
-0.00057066270695232892
-0.0017169639537523386
0
-0.00032176227826519665
0
0
2.0954918719383186e-05
0
6.0522224807434964e-06
-0.0080224295012603815
0.028508902980364292
-0.0085026702581474933
-0.00056675094926679731
0
-0.018193587096033879
-0.058204478141886215
0
0.00049307302478778132
-2.8343521971309833e-05
-0.00028259407483758329
-5.3962008620408076e-06
0.00017226970207463721
0
0
-4.5461843507700286e-08
0
-0.00074305134769922965
-0.0065608423411435959
-0.0033548233289578872
-0.00079817331826211653
-0.0007686172976510532
0
0
-2.1056340626434583e-05
-0.010937529385113947
-0.0025387352331486899
2.05886702791143e-05
-0.0012003184469332221
0.01041979957090876
0.092147093531985746
-0.029084560738520268
-0.0095270213862017009
-3.5672854654345112e-11
-8.6075024134662979e-06
-0.00021676676548472944
0
0
-0.0021091911573248852
-0.00023592405732928112
0
0.00044619854263008938
-2.7013561643410592e-05
-0.001267750312694734
-6.5019253733651706e-05
6.2636558001051277e-05
0
0.0075020981344384426
0
0
-0.039335902807803476
0
0
0.00044993487805031597
-0.0090475785488769011
0.0079703519639077614
0
1.7843595264460731e-06
-7.5269812677632804e-05
0
-0.0077009380750144921
0.0012871548123904392
0.021213272683516051
-1.2192547856468869e-09
0
-0.0068655917163864865
0
0.012905031643865895
0
-8.0588531342726321e-10
-0.0045692858877724027
0
0.00033465856435640953
0
3.5459983353305826e-07
-0.00030652438775770948
0
0.00077592193783106254
0.0054864374479015139
0
-9.9353448655882453e-08
0.00061026218921411994
-0.00080135694768971124
0.0067287753845225711
0.0032544974517921023
1.3371909853282168e-05
-0.055136362263580603
-2.7829829404398473e-07
0.0018446834683139854
-0.015931807074234573
0
-0.0085612874724319207
-5.6015330063832085e-05
2.4487753768938499e-07
0
0
6.6048073848488917e-06
0.026728468228580604
0.00043610826283434049
-0.00023864078712903012
9.2253516070097063e-06
-0.010674387975762747
0.0008247234255329565
0
0
2.5436980630520948e-06
2.3223890828972666e-05
0.0074758675203379808
-0.011593460437525783
0
-0.0035867108433779225
-2.9938751624537709e-05
-0.00040106417354842104
-0.0047189898664084778
0
-0.0038679019112353194
0.0032600109049170456
1.6044051966113396e-05
0.00069229543166765431
0
0
0
0
5.7201306673994259e-13
0
0
0
0
0
2.2136773952527791e-06
-0.00011285595844919185
0
0
0
0
7.4371127941794688e-05
5.3784044692119104e-05
0
-0.0035389956228394259
0.018451835462876605
0.054974725035270677
0
0.0011291301377618326
0.0087118283738912457
-0.00075027334346995178
-0.052486403827878343
0
0.00091388415949016305
0
-0.0046183186057767904
0
0
0
-3.8638691697488913e-06
0.0066067529640088159
0
-0.0061815292708196261
0
0.0019593225026509646
-3.1537478435043924e-08
-2.115504862341954e-05
-0.00030681244201944644
-0.0028326396065791624
0
0
0
0.00064887622918223889
0.010033978316889576
-0.0058364208809600256
0.00092579972066537692
0.00059452280542457686
-8.1638945643996556e-06
-0.00019199484463140493
-0.00058277296839402259
-0.029631971055393322
-0.057770334014432316
0.0027525360089692644
-0.032199451893716285
-0.002214460096603834
-0.012627264894294726
-7.0119350430406668e-06
0.0044039111504997619
0.00015631142860605051
-2.6821366355661688e-06
0
-0.010120917723934978
-0.00037925797198098282
-0.00021253721417241196
-0.079643055989655806
0.015137943271162413
0
7.3978564505391463e-05
0.00019277232882054974
-1.1508425409174998e-05
0
0.00039850557148918178
0.0020336329224031327
0.047448172927129266
0.00053211141166108525
0.00064986924644678417
0
-0.0005298904945121569
0.000427008123545533
6.5654983768485354e-05
0.056797086409071482
0.00026831419696272848
-0.006896088668245713
0.0049977687396393512
0
0
0.00076150674595220355
0
0.00067530230276715327
0.00014965150403213983
0
-1.2883178992752646e-06
0
0
-0.00024216676612311757
-0.0013122846335835224
0.0032840178493194023
0.0097410747444858468
0
0.0059166762008822666
0.0017943125666557388
-0.0067391679489282805
0
-0.0047000532382496527
0.0005960597459606366
-0.013752046621554893
0.00077258806135738016
1.1367824613068614e-05
-0.00082353667952614622
-0.048234520494818162
-0.0034440803275185561
7.644340087662362e-06
0
