0.49905794498820455
-1.1873726884685898e-10
-0.020287278229642703
4.7810037245584056e-06
-3.8959217211085859e-09
-3.5237503679453287e-08
0.50000464003866696
0
-0.0033478925823457592
-0.012322550097922309
0
-2.634282698645916e-08
5.4401958955438647e-07
1.8551126344195106e-09
-1.0169971727438869e-06
-2.9168517123593871e-05
0
-5.6412539507229408e-07
-0.0016554484291591907
0
-1.2863994060914248e-05
-4.6960405510093543e-07
-6.2102991286653993e-08
-4.9728228237659816e-09
-0.0013870195839010802
-9.9550388657849363e-10
-0.0026214729574177455
-0.023369943246441899
-1.4015080888058488e-08
-5.8866991658859894e-08
-3.8106518983274523e-06
0
-4.3804652383335693e-06
-0.015059080037261625
-1.3615147581673994e-07
-2.2266156092016956e-07
-0.0001309131588193216
2.0635285809130939e-10
-4.8893186617215092e-06
0.0018056074694296016
-3.0235698853092168e-08
-2.5849096934417369e-06
-0.00013827011933062997
3.9373743219966148e-11
-4.2672691289618369e-06
-0.00019864772761069005
0
0
-0.0011840517437998806
0
-5.1529141164406168e-05
-1.8955123336185083e-05
0
-2.658210553175265e-09
2.5599509788041367e-05
-1.9190806349489956e-09
-8.0810909344673999e-07
0
0
0
7.1567626625011455e-06
5.2317253484057937e-12
7.3048692754240723e-07
1.3702068151897393e-06
-6.946525235535327e-06
0
-0.0004077528584210133
0
-1.0451742590172398e-05
-6.31498422452039e-06
-2.0120912948672628e-06
9.6973131074735599e-10
1.9439530561593084e-05
0
-1.149956625805184e-07
-1.3524733907465615e-05
-4.3884707872949949e-06
-3.1880960026280249e-09
-7.8258391136949969e-06
0
-0.00045394823198458955
1.0763818858832438e-06
-0.00044272625458243538
-0.00011680574645060015
1.9721386217321772e-07
0
1.1924885703829741e-06
-3.9748290250113454e-06
-6.3296470833694811e-09
-5.5988153322953159e-07
0.014848394447266728
-5.3481464747150744e-11
3.9845850811403512e-06
-3.6947625032132993e-08
0
-8.3228898496719037e-09
9.7031878679145977e-05
3.7676527662038641e-11
-3.4858066183506901e-07
0
0
3.2572881574946425e-08
3.8617630855134428e-05
0
8.1746233340510024e-07
4.9910058604980524e-07
1.707445162099899e-07
-0.00017776004991204014
0.00013532777308144893
8.8759324282287439e-11
-6.1383288850986307e-05
-5.8350909822753932e-06
-5.3984309486961648e-08
0
6.3214652598947356e-05
0
-2.2309194433753788e-06
-6.855747685427054e-06
-6.8661977413153666e-08
-1.4727376738777775e-08
-1.5697601541589794e-08
-4.3352920760208829e-10
-2.0816773691789816e-05
-6.9781043835903862e-05
-1.4952476197970814e-06
-1.6781531625879906e-07
3.2433942399345924e-07
8.2178462466078511e-12
2.7139709105028998e-08
-1.479002192519403e-05
-1.1533758232868321e-07
0
5.9578881336485391e-05
-6.1135652032209478e-10
-5.7526324659862184e-05
-8.7030520873296969e-07
1.0952901519023913e-07
9.0521077827768382e-08
-0.0052408286050063301
0
9.25652977233166e-08
-7.8161775304704197e-07
1.0007775638923378e-08
0
2.1875389139733935e-05
0
0
3.3030935373139993e-06
-3.5729430613947003e-08
0
-5.7977797939361715e-09
1.7547336207635617e-11
-7.4901912725666292e-07
1.4434638590532025e-06
-1.2366118840859072e-08
-5.7184809824909635e-09
-1.3626091945233795e-08
0
0
6.957240192665073e-08
-1.3178373460695069e-06
-6.4042702329760899e-05
-3.9411719873644777e-10
-9.7275710083320201e-11
7.4430007910787132e-07
-0.00014931921695690426
-2.7582389640657823e-08
-7.1894571134857944e-09
-6.0644500839104558e-08
0
-0.0052646956531209963
0.00031632761137868616
-1.0059431416867744e-08
0
1.3021186287233998e-06
0
2.0341594691815113e-06
2.0648888132400262e-06
0
-4.444102664635867e-07
0.87226828540354184
0.012629612957050874
0.0010020306801464857
0.14484123667462043
-0.064067705660608376
-0.0065341315825338383
0.45560557490732501
5.5184578660619983e-05
0.020498086591077283
3.3664524499140797e-05
0.011359326093137348
7.2700783251682851e-05
0.95880134508557158
0
6.8318198522707532e-06
-0.0030956552521338235
0.13637185997390583
0.00080598605664875238
0.92800326844764214
0.008707935493896566
-0.06313470947880101
0.086190560903450827
0.0001212950168625322
0.00011713391186255781
0.73153963273470368
1.5246276786753002e-06
-4.5148430691702568e-06
0.17260381811212996
0.085205527752347923
0.00032711393499595541
1.0509626362006312
0.018455250419875103
0.0011310978144105153
-0.0037469786958124131
0.025344574978113956
0.034831616217904836
0.88961150101201802
0.0068536093858074095
0.011186012180257037
-0.15265946285112167
0.035691061360117959
0.015681337383585542
0.71209246213127397
0.02236850096328338
1.9176441332149978e-05
0.055872949289020341
0.011226894027688696
0.00056208680735950656
1.3722983636632988
3.3646639874074045e-05
-0.047195755138471782
-0.0012973855698793131
0.00067332912068152236
-0.0034658933135536534
0.88643100816810638
0.024859526340802657
-0.10961786946357935
-0.029617552937825878
0.081903723973548684
0.062182188016411205
0.59587733199755133
0.010917855123278988
0.014684862064346757
0.04457584408111033
-0.004267328712968959
-0.011444209852107538
1.0413819943795721
0.0017387988790375259
0.0016168523690923409
1.4897533804416602e-05
-0.046130941707793048
0.0061805061534856579
1.0727571085323244
0.0074999108390919247
0.012595871480245931
0.0048028798593282261
0.0031501770187431157
0.0101542293464687
0.59570091871831832
5.5447829007511548e-06
0.078466379281196291
-0.049030201855952874
0.16606880380320105
0.023132405090668148
0.61449181280386789
-3.5802980757942165e-05
-0.1113702876212973
-0.002957038488138376
0.00013234896533328769
0.00047096448962159098
0.94691677999054646
0.00044899257549745313
0.10345198841584576
-0.018351290185716667
0
0.038096142786824501
0.74802372086536206
0.016126651211543927
0
-0.04925820589392392
7.2005777191019543e-06
2.2159893249746118e-05
0.77076785963062477
-3.5920347578379941e-06
0.10699280614057498
-1.5426969190549042e-05
0.0026924436450534079
0.03457629619527975
0.53812533621654213
0
0
0.00077522359521102892
7.6807841700704128e-05
0.094480224918824768
0.80574097802440414
-0.005395570461939149
0.00046900907425474097
0.27630383941847536
0.00018564989937473457
-0.00011706427041383145
0.82359788335671436
-6.2575980809867531e-05
0.01877685384094048
0.052310400517508425
0.048717265220593407
0.0021972797242842644
0.89256482984156049
4.1331082070879018e-05
-6.8568571877228846e-07
-0.023499831714571574
0.0024717414437568554
0.023882705551291194
0.69076738253886627
-0.010237491461031313
-3.9822168940911003e-05
-0.04815470274019789
4.2328637377125178e-05
0.063113912963078694
0.88509050058560368
-0.0019221963219140251
-0.004590106513077832
-3.3813353224760696e-05
-1.9629607341558289e-05
0.013598033447243332
0.81132048018581493
-5.9426236358101776e-06
0.011681922532044706
0.0083282439040159827
-0.0090034893295466087
0.041869892197560633
0.92330634100355813
3.2168848843715438e-05
0.076579863732290809
1.9599023112932334e-05
5.3399619164960596e-05
0.0020109541682673355
0.94050470267082931
-0.00016456306619900356
0.0059680701994188042
0.0029522085672515426
0.067000040805966887
6.0274477950351692e-07
0.8406580065042939
0.0059421973401247233
2.599703765250105e-05
0.027769197240301052
-0.022183407416711969
-0.037133295406070528
0.69781688997691782
-9.6050738970068672e-08
0.067367150080326413
1.8708845552061298e-05
0.041366227853948632
-1.5257287490450232e-05
0.47170083101681765
-2.2778027287094589e-06
-5.1812577255640184e-05
-0.013727009776898561
-1.399769261771994e-05
-3.5499422790409995e-05
0.025051614576240121
0
-0.0064332094500689644
-0.068881557029222495
-2.1464759468867501e-05
-0.0039376840909743456
0.024615837983572881
0.0016317893357043354
-0.00018201179570402303
0
-0.0010743526795566247
-1.7927760972309035e-06
-0.036081789409900256
-4.2575999978760541e-05
0
-0.00041936619982491764
-0.044866892066365419
-0.0023763620815417993
-0.11105849807545581
-1.0078210553206436e-07
5.1029015814257073e-06
0.010313217236919877
-1.275335693727105e-05
-0.0081699785745986044
0.083488223944130122
0.007163873691435175
-0.00032387553596302483
0.093045697790978127
0.0020728614895829485
1.6367216252197021e-05
0.01757798929658879
0.0068358606936571456
0.010919364244284446
0.00060354175268636818
-2.3499593522386711e-05
-7.0201580534594722e-05
-0.25765816225974708
-0.00021750379999550877
0.067461663892312687
-0.00015010000428494446
0.00030307680076192351
8.4226272578860627e-07
0.053926539548354718
0.0085279114381108783
-0.0001807892522060538
-5.1474359473136852e-06
3.1951043901585295e-05
1.1211904878877668e-08
0.00052130097769168926
0.0004280758963696425
-0.00016490282206818867
-0.00022097047041842337
-0.00023108483274582829
-0.00013301617970055415
-0.20305236344543426
-0.01179517889832371
5.136866464418055e-07
0
-6.8144837912616208e-05
-1.9201161169585885e-06
-0.028388897648309756
-0.0061341260668787475
-0.00028370126856839655
-0.02536999187988331
0.036724643371883893
0.00013606277640430386
0.33767115372988077
-0.0014824229838748956
1.9504528716405087e-05
-0.16699258307192683
-0.06026474418881167
-5.8995931141027998e-06
0.23679998734091279
-0.00010647924123868446
-0.12850567004819774
5.7919627478376532e-06
-2.112814021158585e-05
6.0963285424902293e-05
-0.039624810288264985
6.8825627209418048e-05
0.029057959547133073
0.0014140056757267598
4.9428851299127154e-05
-0.0047365355528997616
0.030274970081121885
4.7175184632615594e-05
0.024931848152632434
0.045744540188212522
-0.00023706262968575779
0
1.0953988740270815e-05
-0.0033109690144922507
-0.033945971230572726
-0.029419974662419083
0.012701453218268334
0.011585631424056046
0.028287946268993433
0.0023679916756363245
0.04603199914686433
4.3593576195243381e-05
-1.2148517288340602e-05
0.021747113616888605
-0.066333578541532975
2.6695877233269821e-05
0.0011900182882962189
0.033596631627369838
0.0014577977605521894
-6.6054449772155543e-05
-0.0027601754190581347
9.0047981680622263e-05
-0.00028954618246004741
0.0015217471637006678
-0.0089131682019254789
1.2475217030763937e-05
-0.046230184550421619
1.7891694029034935e-07
7.6297862517620062e-05
0.01118610312504748
0.0025427532730379473
1.1298541414988866e-07
-0.060790950019878963
3.3350466371845457e-05
0.00034968986261527286
0.013176828415921576
0.040746842492610479
-0.00012956779115958484
-0.081353160388959997
0.0083603518580211006
-0.051200291394970933
-1.3093336663881671e-07
-0.015560461299498054
1.6712026643045385e-06
0.021089563690440304
-1.0491000118184872e-05
-4.7343376546195405e-05
-0.0029152313827105871
-0.042078343201889738
-0.024808905567494807
-0.021834522965411607
0
-0.023866817321803645
2.9751230676522927e-05
5.0298237321085179e-05
0.017296088876231942
0.052286360692552818
0.00095881871934119962
0.081125916942658124
1.0178360879715813e-05
-0.10079206876393308
-9.1559660606688098e-06
0.07195110759000159
2.6854917391160089e-06
0.00025775843783346308
0.04556492266290478
-0.0011869210830991737
-0.0030839305836343196
0.21067639568971247
-0.0027737661726052903
-0.030586740071357778
0.013176483295271942
-0.029899553724681643
-4.7249153618273763e-06
-1.2297942962836762e-08
-5.8430378740780256e-10
-5.7124538779328569e-05
-0.0013993698550558216
-5.4158408679923091e-09
-9.3479364780387505e-08
-2.857661277607574e-06
0
-5.4731007129166406e-05
0.0017097296259097211
0
7.7688206113839183e-09
5.2552710539367742e-12
-1.1723553336752e-09
3.2766690933461683e-06
1.8411617315948783e-07
0
5.3232203205628794e-07
-8.1483363737100788e-05
0
1.0329109957225876e-07
7.9314003961728453e-07
3.7064157637231492e-06
1.1201677203589593e-08
-5.6357535931102234e-14
-4.1181178779364689e-11
-0.0010074961447126005
-0.0010496086177646394
-2.1940791397739187e-08
8.0563718800925108e-08
-3.7056403075778821e-05
0
0
-0.00011625647698503761
-1.3627420385345398e-10
2.8386777419925874e-08
-2.4543049494922858e-06
-1.6183745483456859e-08
1.5252648635394965e-07
1.0286610767162368e-07
-2.4677805678331973e-09
-1.7708435689334097e-07
-2.9999230552639881e-06
-3.9373743219966148e-11
1.0495702916470954e-07
-0.00038014148941829356
-8.6712430314115386e-09
0
-1.2731612912957941e-07
0
3.3762271290888257e-10
-5.3076280766078482e-06
0
-5.7212591867053463e-10
-3.7125842963189629e-07
-8.8566623336149116e-10
-3.4762895824025039e-07
0
0
0
-1.0195392250453581e-08
1.0351230462149662e-12
2.7086071624333751e-07
6.4720112953397967e-08
-2.0185619159805563e-06
0
-4.5410459058084416e-08
0
-2.3458002004112684e-05
1.5585452861556993e-08
-1.2126539746233127e-06
3.6026460461937943e-09
-2.9389939815427202e-05
0
6.9230340166776475e-07
0.00012308674744026136
1.4553992528303348e-07
-1.3460176933238046e-09
-1.5364377253124288e-07
0
-0.0010128334771549122
2.2194048667058905e-07
-1.3550530903752175e-05
-2.3518013650786363e-06
-7.524690506860567e-08
0
-2.0635201620230211e-08
1.9859169234879346e-06
1.1795420843746707e-08
5.5492636952689404e-08
5.6194577768887198e-10
-1.1901356744361141e-10
-2.7265481119552656e-08
8.7867240841598677e-09
0
5.6731927604490935e-09
-7.3980465553191513e-09
0
1.2710347236731598e-08
0
0
-3.3775434584596129e-07
8.0623592613566665e-06
0
3.1907825002764289e-07
1.9035218608173459e-08
2.2540521197306835e-08
-5.4455058512040527e-06
1.8705632648338269e-07
-2.6423269620921092e-10
-3.8751077636345444e-06
-3.7994015852028606e-08
2.2754112167909424e-07
0
9.336461402335318e-08
0
1.3768719400782895e-06
7.9297048085217544e-09
4.0616792606493962e-07
1.09238450622839e-08
-2.9912069543731229e-11
-6.3409157078172227e-10
3.9334761606695588e-07
1.7428047462935926e-06
-3.9695836514143904e-08
-3.707175184670378e-09
-1.5357421054523171e-07
-6.3768531013573424e-13
8.4559470797753574e-09
1.7100676245911756e-07
-4.6846228178028791e-08
0
7.6566748633952576e-11
-6.8684906687471018e-10
-3.402604921302183e-06
-6.4104160519775226e-07
7.6642196429178083e-08
8.6188660444490494e-08
-2.287693134314156e-09
0
2.6242471795091304e-08
1.3107455292111504e-06
-4.7838083970146345e-08
0
7.1388083957534586e-09
0
5.8802426423653877e-07
1.0007406204944028e-07
-9.8445244779987742e-10
0
2.127625695866166e-09
3.6990409943586899e-13
3.7949535509778204e-09
3.4697149432056629e-09
-1.4542887418781815e-08
3.519193804193056e-09
3.6069266800498282e-10
0
-1.5158339071612668e-07
-4.9195134712463637e-07
9.5036355570927911e-07
-2.8319038629589895e-05
4.986285763526466e-10
-8.6997867651851601e-14
-2.9145233985972567e-10
7.8658564100193902e-05
-9.4530874334261734e-08
3.1032216175565305e-08
2.3020356258855881e-08
0
-3.986131620434022e-06
1.2423954969719912e-05
-2.949297614363664e-09
0
-2.7829624800571334e-06
0
-2.5534761170516286e-06
8.4489999266821409e-06
0
-5.9309842926747179e-09
-1.4435458109266198e-07
3.1427072176426539e-06
0.0001463100908259502
0.017100237689432821
-0.00012062127325916636
-0.011708462257587999
-0.00085540858597814697
2.8072732012422987e-06
9.8283289457814414e-05
-1.0222465329827104e-06
-0.0032617375685926892
5.0445771563793537e-05
-8.2478250519216813e-09
0
5.7180770678817006e-06
-2.4696671287519603e-06
3.9982382747066354e-06
1.5446296032597108e-05
-1.1611580494209575e-05
-1.0392086424253968e-07
6.5439116885963603e-05
2.2409689630995927e-05
1.6409220544156954e-05
4.5046807334138976e-05
-4.9293091065309274e-08
2.177847919927744e-08
-0.00025472730513845221
-0.011981605340277621
-0.00015120818594200608
-7.7251419906115219e-05
3.7111562835762122e-09
-2.8414486488575884e-05
1.7633012423742108e-05
0.0039953496328689721
0.0027706457848348481
1.4485937327332512e-05
1.0446926514359453e-11
-8.3198636414541993e-08
0.005451616377957701
-0.0051664894176550102
0.0020684972041454339
-9.6733275560237379e-07
8.1609239249430608e-05
4.2727147085167694e-05
4.6634382252482662e-07
0.0011301905814706534
0.00023023471159589929
-3.1664966345955374e-06
-0.0059926363347493688
-5.2092629499504819e-07
0.0063445070942973062
8.9058820615930389e-06
0.0007279674739669006
8.2052063968528953e-05
5.9684052194671484e-05
1.7264934801270647e-06
-6.6776248460076974e-05
-0.0040958573194199901
-0.010458480871276352
0.00019635190041994327
-0.00061591632455492568
1.2716022138727376e-05
1.4914367906433271e-05
0.0068151702262975967
-0.0017054628702276625
4.6732876331870194e-05
-0.0015741525164664663
0.00022426552500892316
0.0016297536280404847
4.2969059043082538e-05
0.0022713361648296561
-0.00091510960356965074
-0.0017913048084455283
6.7406876331553831e-07
9.3823875951445929e-06
-0.0021086244693963494
0.0036190409745291952
-0.0012663151799711652
4.9259066733677096e-07
2.9641359312254926e-07
-0.00040808894688405974
0.00042500198800753949
-0.0024159553930241879
-0.0040791362931950435
5.6332862030116919e-08
0.00017200935581625608
3.6077736504282617e-05
0.0030279178629237938
-0.00018383951419566
6.9136095341174866e-05
-3.1502556045273823e-08
2.9267402973289167e-06
0.0010193232421194379
0.001252420054106455
0
0.0055987538113315086
-0.0032502589983897786
-1.6411149166965499e-06
0
0.0002121707079223661
-7.4441845548247097e-06
1.7483559523858301e-05
0.00021952537830269471
-3.289140914614111e-07
-2.480968711350074e-05
3.0473048934521329e-05
3.1880797923201219e-05
-2.5197406367244436e-05
0.0021357421588551239
0
0
1.8194277156740835e-05
5.8396654793824462e-05
0.0053319583521371193
0.00021688335671919044
0.00084979630554738166
0.00018231157931142776
-2.4300327051573397e-06
4.1190577576243418e-09
4.2595375636155461e-06
2.0679785448996734e-07
3.3611527229192772e-05
0.00089372996425449223
0.0065577826248510241
0.0036834949510362695
-0.0018942208108578035
-0.0041463256959461013
-1.6768840128029078e-05
-0.00047169879437378561
-0.00042477468944273326
-0.00042615289900308477
-0.018207847997249515
-0.00011138897251555063
-9.8498864180244352e-07
-0.0048367045080664021
0
-1.542232481458813e-07
-1.2853919379132788e-05
1.5229415795641656e-10
1.5360303700212082e-05
-0.0063563577232448789
-0.00013410777881340684
0.00014884813197160854
0.011724301545861253
-0.0024463252151763876
-5.4148752438547599e-07
0.0039351154711895989
0.0017319896812122864
0.0012180481174288503
0.00054586940343760314
-0.00013955684321797021
9.4126705789920106e-06
-0.00010554792995581976
-2.0756820417177376e-05
0
7.2833752965136624e-05
9.0742750440893262e-09
3.4100034147214902e-06
0.0014614593727361356
0.0031950084679601234
-0.0050080083126693362
-6.5469670770329948e-07
-0.00030407851725091289
-0.00023188756018562199
1.6521797876204149e-06
-0.00010078610740474799
-0.01578455310800261
-1.0753810880644462e-06
1.3248656362464967e-08
3.1674392745406061e-07
-5.7316507514695513e-06
7.9188673483550722e-05
-0.0060992927484700542
-3.6000744676157433e-06
3.3626626977182426e-09
1.2176242406074554e-06
4.6410031907096612e-05
0.00061269269236239546
1.8421106940943848e-05
-2.1392539743852193e-06
0.00081627052607020152
0
0.0015628371702970166
3.9374378275294829e-05
9.847576981483515e-06
7.6016802132480255e-05
-2.5409529892980951e-05
1.4889101841960869e-05
0.00015135037187365553
0
-4.242182736868436e-05
-5.8189882264582194e-05
-2.7317553530559872e-06
-4.1582603251327576e-06
0
-8.639358931117497e-05
-1.7762721471086012e-06
-0.0012628083825744693
-5.7629079717233379e-07
4.3992979931907494e-08
3.850403826253215e-05
-3.885166466064761e-05
-2.977311435186581e-05
-0.0010471569192345514
0.00029189108083863387
-5.3960154225633863e-05
0.0001304343737226025
-0.0081381344086217909
0.00015277351359459338
-6.3144476908021318e-06
-1.8574641534248197e-06
0.00012000707814240336
7.0123102776283126e-07
0.00028010479364160799
2.1485311909509924e-06
-0.00010382484826051012
-0.00016084783254534881
0
9.6369132641565251e-05
2.9541685258721726e-05
9.5215629211345945e-06
-0.005609874889642443
0.00020503047020268528
-9.5891347795371564e-06
-7.8565959539402501e-06
-1.5477202854928982e-06
2.143854316801117e-05
1.421320591578458e-05
3.0273378028402171e-11
-7.9165735352273291e-10
5.5070345286142133e-05
2.6689402633280193e-05
-1.3358868474986606e-05
0.0001514436912365254
-2.9014536032595298e-05
1.1984366315631781e-06
-3.5465557652685886e-06
-0.00013268442256017708
-6.8144837912616208e-05
-4.3502995499346203e-05
4.9069079788513552e-05
0.00021073126655312842
9.2233220820748368e-06
-0.00098893159366548653
1.4498160256946845e-05
-1.1907777883668825e-05
-2.6498020227058749e-06
3.3067971363996285e-05
1.7910088081247766e-10
-0.0066278777564342433
-7.000615330241443e-05
0.0071527979472718163
0.0025901072312285319
8.510020608120337e-07
-1.4954834420677655e-09
3.167077997638722e-06
-4.8137857573280697e-06
-5.7357809345266722e-06
1.2656171701016815e-05
-1.7275572715871015e-05
-3.1696177197303701e-05
-3.077047909308771e-05
-2.4036168974076163e-06
-0.00043634010798922624
-3.8305780913270416e-08
-5.7466023694602881e-05
-7.672390613628225e-05
-0.0076227461610919294
-4.564283572866806e-05
0
-3.4464808258892166e-07
-2.0047035107217718e-07
7.5140766257422668e-05
0.008342932381897197
0.00012546602112198146
-0.0020272084518237286
-0.00010937144128058122
0.00013041930123750765
3.0142790348323967e-06
4.3427170487387238e-05
2.9086441429642709e-05
0.0051696661306811706
-1.1606765064357225e-06
1.8038973006910787e-05
0.00060866248604830484
0.017784905886904005
-0.00027820513080963017
0.0034227565786388338
-6.1734333694339537e-05
1.4852829542931957e-05
0.00034347198792521703
0.0017773891796731927
-0.00010995584990229435
-6.8765072637978567e-06
-1.7629728043541097e-05
2.0621943205149085e-10
-0.00018494747169450055
-0.0011415062410880528
-0.00035577560081564947
-1.4660868500129865e-08
0.00070676854387706099
7.9530542570176586e-07
-0.00035018088901654713
0.00072551246853477574
0.00048647992475219821
-0.00024910917243812516
0.0028578241251670804
-1.0195304016226234e-06
-0.0070558617599729371
-6.8228302460927657e-07
0.0013919424730250505
1.5512798044002379e-05
-4.5136682271677096e-08
0
-5.3151623203088391e-05
-0.0090741037746034613
-3.9124194136644538e-05
0.0009382792989367872
-0.00072468178083562741
0
4.5677463059364368e-05
8.1336373694526585e-06
-1.349788648834887e-06
-0.00024024013294869545
-0.0046030433926247654
3.3099255630999532e-05
0.0052680564456047642
8.3494477645959081e-06
0.0049518601704902155
-0.0072863631066346973
-1.5403309872426859e-05
4.9391161282005477e-06
-0.00025139502187952143
0.0010833576203373124
-0.00010713296332900618
0.0011380191832052078
-1.0504506894410594e-05
-1.1606088364413784e-05
0
-0.011753580890319304
2.976609262796543e-05
-9.0998158185557651e-09
-9.4358294316595847e-09
0
9.9003598211255285e-05
0.0030745247287975314
-3.7686512791582417e-09
-4.0139862933363381e-13
-1.1900915393301926e-07
0
-9.670310933547319e-06
-0.001709644197634257
0
-2.6269389543717262e-09
-2.4054832805258739e-09
-3.0680213400745417e-11
-1.6174640920476892e-06
9.3211514419764868e-06
0
-2.7249786780928345e-10
-8.8793093237763395e-06
0
-3.3546978560043131e-07
-7.1649625576091544e-07
-3.187796026192615e-09
-3.8864176240412807e-09
1.9918931465831555e-14
4.0299692235837638e-12
-0.0010074575160816863
-0.00088288308670831641
-1.4021757990606996e-08
0
-1.1522151518836364e-08
0
0
-0.001826952603584991
-1.3478542677210658e-10
1.1551123072796724e-08
-3.1006384091930695e-09
-5.3070740882883104e-15
-6.419807946294656e-07
-1.6824583024707912e-06
-8.5080728478514923e-10
-4.956318219709381e-08
-2.3607965694535844e-10
0
-1.8820832473290154e-06
-5.072749484915226e-07
0
0
-1.229646177897659e-07
0
-2.0027707480421892e-07
-5.9047282808669836e-06
0
-5.7508992249764351e-10
9.5145586733004175e-09
-2.8760963336409983e-13
-1.5939636671033039e-07
0
0
0
-1.6040958629784995e-08
-7.8803393805980526e-13
-3.5144702195708294e-07
9.017778771172172e-08
-1.4770572913489406e-10
0
-6.1895840953092791e-08
0
-1.4176354418144875e-05
6.5033870228513827e-09
-8.122998292599907e-09
-3.3142439318317553e-09
-1.8240733897714471e-08
0
-7.6504981838283334e-07
-6.6236192083207122e-05
-4.009822432549728e-09
2.8157105775925546e-10
-1.6852572260496266e-07
0
-0.00069519942531507143
-1.0361242302913163e-07
-5.4823199966145852e-06
-2.6897453849823496e-06
1.3330185304623347e-13
0
-2.1676625212465952e-07
-1.3300867018671725e-05
-2.0242724558917577e-09
4.3663472600319537e-09
-2.3222597740911818e-09
0
-1.9643407807798943e-06
-1.180720892819881e-08
0
-1.2697454929598834e-08
-6.3797061105524141e-08
0
-7.05239574554319e-08
0
0
-5.3521982119365662e-09
-8.0622279683401806e-06
0
-9.1290104020922798e-08
4.4007047211522164e-07
-6.3259701262250246e-09
-2.9807692758808731e-06
5.2759435730431814e-08
2.8105414388721742e-14
1.5851644798420294e-06
9.2467967569560683e-07
-5.8780063819983696e-10
0
1.2025648635493213e-08
0
-1.5262867622651757e-07
1.7874500812600126e-09
-3.9643598955636727e-10
-7.2643505630858887e-09
-3.0131276666242808e-10
-4.6816965366404945e-13
-2.9288314471391133e-07
2.0910381558345816e-05
-2.0480016915756887e-07
-1.7579970604119687e-08
-4.0874333971515329e-10
-4.1040109976326517e-13
2.2880749557868792e-07
5.1019273377996916e-08
-5.978499778975039e-08
0
6.5416269731498389e-06
1.6798209576880757e-13
3.4084790550110762e-06
1.0311275429301939e-07
2.2351484812958234e-09
8.1766553350299303e-08
-1.1150546534341594e-08
0
-2.933315569933768e-08
4.1401541414629576e-07
1.964727472048128e-12
0
-2.4446845006270878e-09
0
0
1.030845985610047e-07
-1.5509052778390618e-09
0
1.5976716047094132e-09
3.7353067595633096e-15
3.7909626529753968e-10
3.4358501759660804e-08
-2.1259118994903651e-11
0
5.1109995321049497e-10
0
0
-2.0795499663174968e-11
-3.0429893421940706e-10
1.1509396875800306e-09
1.0690270036664037e-10
-5.611731667711202e-14
-2.0451351866901463e-08
-0.00070959647162029539
-2.6764860834174405e-08
-1.9723150336379077e-09
-4.4318253505362274e-09
0
4.1432302019449137e-06
1.3972336829349519e-06
-1.05616487130187e-09
0
1.6336126245061576e-08
0
2.5186683217174804e-06
-1.0659446700263388e-06
0
-6.1123332367382923e-08
-1.7951332197597905e-07
1.1696374972132345e-10
0.00013180176116867997
2.9938810737480873e-06
-1.9904337656044571e-06
-5.9872400088852514e-06
-7.1023015083263402e-05
0
4.919563110758906e-05
2.8170142887049555e-06
-0.0032969898072623804
-2.4161010808204176e-06
-4.3077194695272949e-10
0
-5.3806022071594216e-06
7.74302264939567e-06
3.2100649492603968e-06
-2.1873590706005315e-06
6.9325622341677857e-06
7.4169904977887114e-08
3.1176351214849279e-06
-2.2349475271675957e-05
1.4797316366073537e-05
-4.3305589620820155e-08
3.544609238595155e-08
-2.3638625402223611e-08
-2.236541789950113e-05
-3.4464956697035084e-05
5.7549630525028498e-05
1.4625107375887911e-06
-2.5562421248003626e-09
3.1586489168347212e-05
4.5926331803918556e-07
-5.3846673195503282e-05
0.00095004878861889794
-1.0205602828851564e-05
1.0580626835313868e-11
-2.3205431782268931e-08
-6.3164254271535952e-07
-3.9572542764822598e-06
0.0023798192195013373
9.8365596526126671e-07
1.8875960047133122e-05
2.8788337818818427e-05
7.562199733237364e-08
-0.00094187257874863589
-0.0011913415969070278
5.0117853767491168e-05
2.3242573257284873e-07
3.4238954714334159e-06
8.6757071349414261e-05
-3.4244203584449042e-05
0.0007279674739669006
0.00019651009425312486
7.2082275224748677e-05
-1.3898017721896088e-08
-2.9569949562281921e-05
-0.00054749973959770438
-1.6278950783064377e-06
0.00034916900285748658
0.0004559071359994576
-4.8207060538265105e-07
3.5764126784883278e-06
-5.1146898255096182e-07
-1.5067855712342073e-06
-3.272698027825892e-06
-2.0790971337396836e-06
-1.0619564417916296e-06
-3.1146852591866291e-05
0
-1.9571437782786543e-07
-3.6718052316991732e-07
-0.0015982480578630145
-1.1090467623212691e-06
0.00023940152065299951
-0.00011662873428637462
-3.0020266120300899e-05
-1.0222444108351144e-05
4.9258648861709099e-07
-3.2394169734804996e-09
-0.0012582009153849338
6.7177387874173969e-06
-0.0020582773911970225
8.9404579331669476e-06
-1.3217272444909931e-07
-7.7812655026470787e-05
-1.6999049412380025e-06
0.0029867494848866789
-1.0021583667425839e-05
-1.1467712283534804e-05
-3.1472834450772247e-08
4.6046001181766532e-08
0.0015157827963000622
0.00040975155383591281
0
-0.0033657257438394921
-0.00059055178847825548
7.581319989183397e-07
0
0.00013844649425910367
2.4360683572275543e-07
3.7484278086562025e-08
-9.5649460244703275e-05
-6.3528604223376394e-09
1.2046882357177337e-05
-4.7627060213034113e-05
-5.7471716490217854e-06
-2.2605413678476851e-05
0.00085021889634902433
0
0
-6.0145266408651102e-06
4.3454583900734784e-05
0.0016421170744500514
0.0005612594298060789
-1.0872726453775917e-07
-0.00015003554374590401
-1.9406128393337981e-05
-1.201426234519494e-08
3.2174453834939124e-06
2.067978524006318e-07
-6.571770304912397e-09
-9.3883406676257986e-05
-0.0055404669057727554
4.9097729977059191e-06
-0.00085644373509797763
-2.1266398019094599e-09
3.1569693589453718e-08
-0.00010668904510444396
-9.394391937235924e-05
-2.3099894563939092e-05
-5.4618736567878401e-07
-0.0001055417789144901
0
-7.1437373050842061e-06
0
-2.3968150364842055e-06
-3.9982587081674932e-06
5.8554791422308157e-11
1.7338067004632451e-06
0.0065561001463015781
-6.3309872772910172e-06
4.3961142423370971e-07
9.4355710020643148e-06
2.4777430309627918e-13
0
-0.0045134857123662686
0.00060318867432775135
4.7676943537107685e-06
-1.6374298025222618e-06
-0.00016137498704242809
-3.0532731078595568e-08
0.00012321536095152733
2.0756820417177376e-05
0
0
1.3127326624715893e-08
6.4755833047739049e-09
0.0014608648839028254
0.0030704253766051675
-8.0538580137435722e-07
-1.7881384120195848e-09
0.00015417707679460632
-1.7450619032772884e-07
-1.2386430286402108e-05
0.0015693621405986936
-5.3687394587633279e-08
-1.0744053947483954e-06
2.2203882133294928e-08
1.5012234471565151e-09
1.3721022205618611e-05
0
2.073457911243094e-08
2.8243234181949547e-07
-1.6257712956506478e-09
-2.5629887666577788e-08
3.6718353842787689e-06
5.6240891191369104e-05
-5.966615700060858e-08
-3.37554032574217e-06
-8.0547515223527169e-06
0
0.0022780772491089625
0.0032096326667971592
1.3535632401927916e-06
5.2696736961139857e-05
9.0207673646395937e-08
3.2122089628580245e-07
1.8158219959701171e-05
0
4.6507612235408279e-05
1.2079235108193576e-07
2.7318951075566228e-06
7.153365840357126e-07
0
-4.3056117202031611e-05
-2.2373328947924178e-06
0.0004280845500928715
3.2271576342651201e-06
-4.6799348949471245e-09
-2.2072034783864653e-05
4.803108304613419e-06
5.09764489553003e-06
-0.00085418013984632827
0.00016535816697358383
3.9052772494008693e-05
6.4058088503919162e-05
0.0035539705662876926
-8.8491008444253533e-05
3.5203980143845415e-06
-1.0800612318847293e-05
-9.4752928508806979e-09
-7.0123102776283126e-07
-7.3346512389125607e-05
1.6949416865666469e-06
2.0747739625798448e-08
5.3347980950347457e-05
0
-0.0085617992478663456
-7.52109665744842e-06
7.4033548943613331e-05
-1.0922590250324685e-08
-0.00012623129757752334
-4.229150838820407e-09
-2.8465763208641779e-05
-1.1773737453188928e-06
-3.8223935922613068e-09
-4.4294007069083053e-08
-1.1860359174055399e-10
-6.5602411278540455e-10
1.6934251734602806e-06
1.4866786825151484e-05
-8.4416226138731662e-07
-1.8135027485132939e-05
5.3832088013458232e-05
1.4583323647838702e-08
-6.0709189832267055e-06
0
0
-6.6778172592482686e-07
-8.6195991770240095e-06
-4.2079975684732017e-07
-0.00012376270012606918
-0.0026235453732212704
-2.4963519718836098e-06
3.7898999594558577e-05
1.5407164546448268e-06
-2.3840245024909382e-09
3.2254728304186669e-11
-0.0058643219016633261
0
6.7992373336389739e-05
-4.5599006124733426e-06
-2.9442791704398433e-09
-1.5204511471005628e-09
1.5073668873352169e-05
-2.3503730913664695e-08
-5.6311199121464084e-06
2.1451501331566757e-05
4.3469858456082448e-08
3.4136425716984021e-06
-4.9502156953106048e-06
-2.2185512699629934e-06
-0.00048316259004339753
-1.1749976701117061e-07
2.029899413451021e-06
8.8748058357021507e-06
0
1.9360051357039648e-05
0
-5.0658381164229691e-07
0
9.6186317491643467e-05
1.7099962303691623e-05
-6.1074711382450234e-06
-0.00091278535247001113
0.00010159311480303973
-6.5466707133366073e-09
6.2049416871968206e-06
-2.2045789620339451e-05
3.889914755832192e-05
6.7839706563220098e-06
2.7767806959526641e-06
-3.7013797958069047e-09
-0.00012135822970139682
-3.4064439585997727e-05
-7.6343885240281518e-07
-0.00083786178625262873
7.5684204750340678e-06
-1.9126067567260302e-07
-9.7078697266226373e-06
0.00089286829346119057
-0.00010953845564137547
-1.0336986204087472e-05
-1.7629767510819741e-05
-1.1664190460254153e-10
-8.8876511014996209e-05
-2.2548200864947408e-05
-0.00013338005492337409
-4.2572093626671505e-09
-1.9246184954137579e-07
0
-8.5231906119086181e-07
-0.00074222193237291742
-0.00048149561261151693
9.8391496487462864e-10
9.2022679848433038e-07
-4.6359371445884454e-09
0.0070311705428732609
-1.5420830569272479e-05
-9.8990797929767004e-08
1.7595966658598761e-07
-3.9175600064792886e-09
0
-8.0308143625647885e-06
0.0053375296665518733
-4.7593816759703105e-07
-4.1814613185935502e-07
0.00015188712408157514
0
-4.5215188500206763e-05
8.1336373694526585e-06
1.0152455980720879e-07
-0.00013726769784607251
-4.2917817579971142e-12
4.0886137549184446e-08
2.2438027142416323e-05
8.5597315807905818e-06
-2.5521063296549615e-06
-3.514726102664718e-07
-1.529558244235572e-05
0
-4.7592631410396577e-05
1.185631004663639e-05
-1.0880022726638653e-05
0.0011304831691179857
8.6086607905146864e-05
-2.5345877524076839e-10
0
-1.1672642116101595e-06
9.8476394203682681e-07
2.6346975187855434e-07
5.8620320976497484e-09
3.4495343419612146e-10
-0.0065846337165940605
-0.013310225887777182
-6.83319417831803e-09
-4.8501333034417763e-07
-5.2405943691173199e-07
0
-5.75928832787071e-05
-0.0039336062801897135
0
-1.2103425093433613e-08
-1.7635992186071005e-09
-1.7943959565833159e-09
-1.5639963409504934e-06
-7.1151248202551279e-08
0
-1.0072327137192737e-06
5.0436635161251797e-05
0
-3.2749873734861818e-07
-5.5175283308493978e-07
-0.00027456178584954103
-9.471960965638452e-09
2.7691700286512296e-14
-1.4202596946905964e-09
-0.00046768591692044633
-0.00019683547467108225
-1.5062520688589088e-08
5.878306917403081e-08
4.0392168167155982e-09
0
0
-0.0023021727371725083
-1.3479347166741867e-10
8.7630226023252216e-08
-4.7462625886468054e-06
6.2172084704029307e-09
-3.2303946221360288e-07
1.5702889312356401e-06
-5.7437211391226515e-09
-4.3691444734700933e-07
-2.9192333556923419e-05
-5.5979475215316824e-11
-1.6631658048325003e-06
-5.4730620218252868e-05
-2.0982676602536105e-08
0
1.2403307587879069e-07
0
-6.2704292045426048e-06
-1.0817674832988938e-05
0
5.8751223310165079e-10
1.8035172993122845e-08
-6.176610517219414e-10
-5.0652337310510453e-07
0
0
0
2.0142250299746126e-08
-1.9627045957343196e-12
-2.2332361797311805e-07
1.3569990248643558e-07
-2.7894464367194954e-06
0
8.0901868296845307e-08
0
-2.4802973067842974e-05
-1.3268409125626995e-08
0.00014915129261421114
-1.48361278907051e-09
1.6521142428104399e-05
0
-0.00010705924364650342
9.891472026974525e-05
-5.5415250625510556e-05
2.8922387967513407e-09
1.6852572218599219e-07
-2.736633474020605e-12
0.0001761019820255303
3.3483249246350996e-08
-3.5807333018379234e-06
-1.6271004559468669e-06
3.7616458914404638e-12
0
-2.1254938737035045e-07
-1.1622261841299619e-06
-1.2445175848226879e-08
2.3144339988979696e-08
2.3265436604954414e-09
-4.6788576311490614e-11
-2.8619165634393625e-06
-3.2761165082975374e-09
0
-6.629456892717231e-10
4.7045391376511999e-08
1.6895660801012156e-11
3.6687664422337804e-08
0
0
3.6287674301107995e-07
7.8719553426444076e-06
0
-3.3492690180562482e-07
2.9691824469449891e-07
-1.1052074766325073e-08
4.6821418820690134e-06
6.3334917552857324e-07
2.3386322694974308e-10
3.9270469289246752e-06
3.0835826755098546e-07
-2.3842116405600023e-07
0
1.15806962781333e-07
0
-1.207655870085243e-06
2.1757340606674597e-09
-1.6156272825546878e-08
7.3595618714142878e-09
1.855524373537997e-10
1.6186451527966956e-10
-2.9312953890203312e-07
-4.8131358546019537e-06
3.9896807250948477e-08
-1.8312151941105926e-08
-9.2763706603893994e-08
5.9013357541038526e-13
2.4422428509616162e-07
3.6585822747328352e-05
8.3850364780709722e-08
1.799477252074014e-09
6.3408648817645316e-07
2.9910704627044109e-10
3.2221322792683535e-06
-5.0861295906800911e-07
1.0862384570318728e-09
4.5511623325606135e-08
-4.0341478865470787e-08
0
1.7455659908608128e-08
-2.4132293643075855e-07
-1.5037459562197474e-08
0
7.4866511243754895e-10
0
0
2.6146620977529934e-08
-1.3997026341723019e-09
0
-1.2612213354322242e-09
4.7818532007686767e-12
1.2931947593941308e-08
1.6721470971006744e-07
-1.1302652514180861e-08
1.3137967439094754e-07
9.2650550132729086e-10
0
-8.76196996792113e-07
2.8770963302269314e-07
-1.2254891507368893e-09
2.6959667871088983e-05
2.0779484482431091e-10
3.3909296772606096e-14
4.1745614478932034e-09
0.00073693066441748577
-8.8245191536520514e-09
2.6038088507646941e-09
2.5726281387714249e-08
0
-1.3767677176087446e-06
1.8226920998772989e-06
-2.4293861532766134e-09
0
-2.7817696596767098e-06
0
2.4468105365531643e-06
0
0
1.748968855962425e-05
-1.5900411511098133e-07
0.0014371707791540394
9.7823958786256306e-06
-0.0034607596504008147
-0.01899199906107616
-9.954902313560422e-06
-0.00090702741059441874
-8.8603027710450618e-06
-0.00022768796357227188
-4.7988174706718773e-06
-0.0068596357353379166
-5.1788332427413402e-05
5.8112091776420744e-08
0
6.3576431374368073e-06
1.2771270647886952e-05
-1.1250829057171423e-06
-6.4413229527041308e-06
1.2455049431598145e-05
-4.211982719655165e-08
0.0010205733661371519
1.7806322831876065e-05
3.9112766351957656e-05
5.988023685684592e-05
-6.1517395977059212e-08
-6.7313214940018316e-08
-2.2365210283610911e-05
-8.1049806375637409e-05
-0.00015218873833238068
0.00011461860975043498
-2.4470785780799679e-09
2.6088108813775476e-05
2.6724090530354525e-05
0.0076293863426337444
-0.0054802455261188029
-0.0064954143664124964
-7.5006807487849205e-12
0.0022246103506018073
0.0022442662108340212
-0.0093638257468022703
0.0009293342394186471
-0.00036645602158097673
4.1151570631341183e-05
0.00011122090804249276
7.3457772652631856e-05
0.00014235692376519563
0.00028457335462108493
0.0012543140027644491
0.0059927521476765824
2.4312331468373709e-07
0.014728735596741493
5.7230054943931084e-05
0.002139562766621209
7.082077526941334e-05
-7.4252536370313148e-05
1.4704281765934506e-06
-1.319052945060593e-05
0.00048015323901906857
-0.010485238388238926
-0.00034917387770100805
0.0016381468526512973
-4.3213612848015257e-05
-2.0138067056723688e-05
0.010817256836690919
0.015418103460716369
-0.003607373126526878
0.004705643924391806
0.00040622478676823282
0.0032276814958477895
0.00031241678596050494
-0.0014334460278585905
-0.0073703014695365287
0.0033356857261696493
4.5730726524451146e-05
0.00013161252817039476
0.0032647333517931529
0.0023436077918299104
-0.0062331276434347523
4.9258151466164445e-07
9.7345542801290278e-06
-0.0020708924109921409
0.00034985313081919251
0.0013789764105950947
-0.00030115068294312846
8.3548916900762738e-08
-4.2216983183026709e-05
0.035017638704264199
0.0041132207393294005
0.00033981297368356346
1.149875018298291e-05
2.114378301268557e-08
5.1036623254272743e-06
0.00011609490366578148
0.0021810762358881047
0
0.006287260494509536
-0.0037124983877574198
8.2856261334642194e-05
0
-0.019812246402883281
7.4441845548247097e-06
1.0167838546836512e-07
8.3193028361858016e-05
6.8475014383421573e-07
-7.7471507154060153e-06
0.01973485131204742
0.00032193585677661263
0.00014471684473558625
-0.0020706253513022425
0
0
6.4293160867505649e-06
4.7226749312475069e-05
-0.0032861669266091176
0.00033114873902149067
-0.00084961216340076636
-3.1747735973071636e-05
-1.8035615263362538e-05
2.9490602907444568e-05
3.4481097553742293e-06
3.2462568143080548e-07
-3.6738286040251082e-05
-0.0011431604896955513
-0.0049664967775127399
0.019049979526393652
0.0025553381145101113
0.0026618597230207092
2.7450613685969046e-05
0.00011689577338808969
0.00010562253888844418
0.00040608235427922514
0.0089467067903098319
-0.00011476593973150752
-2.0528286019825578e-05
7.7751721873689393e-06
-1.8118561676116037e-05
-1.4194224633883148e-06
-6.8547345471628927e-06
4.5515647470204708e-11
-5.1187592494340899e-05
-0.0069571801281651429
-0.00012797804331470821
-2.886296183967743e-05
0.00058492358337869279
-0.0048975304648038792
-1.7325202958462168e-07
0.0051747194032015342
0.0020111332095646981
-0.001205529655352296
-0.00010949627006379007
-0.00038354849624706969
5.5407787837642822e-06
-0.030377873406114579
1.63792986292718e-06
0
-4.7026597860786709e-05
-0.00081198645825197456
-6.6136802034075475e-08
0.0014173581113142068
-0.0029975343221569518
-0.01312016755334036
-0.00030751135657996884
-8.4708330438442779e-05
2.1090049520623343e-05
4.7652573959563896e-06
0.027612878652470703
-0.015083660441433725
-0.037144910331731951
-2.7608449313685522e-08
5.7514523039392141e-06
2.9565458447554193e-05
-5.0530769368765385e-05
-0.0060989766946706967
-5.1810287093610993e-06
-2.2961872748531627e-09
3.655513805840584e-07
6.1575856866056292e-05
-0.0077296996823088288
-3.1376335000453944e-05
-1.1075533602980981e-05
0.0017511112304210981
0
0.0019349121271911129
0.027975341471155976
1.5382923448950655e-05
0.00088992403995229467
6.533469871848385e-05
0.0012010545271652459
0.0003246727759607822
0
0.00016902496934581085
-4.752316344840415e-05
-2.7318646345492021e-06
8.5864834319205292e-07
0
-1.3321539703496681e-05
-0.0012737226073737532
-0.00041023508095055047
-1.3265700606323912e-06
-1.099996951945722e-08
-3.7404999173645131e-05
-4.3729095243992144e-05
-9.9246144930288777e-06
-0.0008440901533656968
0.00032131972872502317
-3.5351771775126257e-05
-0.00014098519312467738
-0.010370593952775804
0.00017625108350954329
1.6238053855985168e-05
-1.4877717640989701e-06
-0.00013146614518150352
-1.9305584567585831e-07
0.00013101684266100856
-3.4167740345247459e-06
0.00040195790383962547
-7.4444379151786933e-05
6.9046594223734728e-05
0.020354714710504169
5.7061237870854756e-05
7.3729177524665444e-05
0.0061433893799744017
-0.00015440362390283313
0.0029264221104893036
-7.4765803467449602e-05
-3.2896954925979238e-07
-1.3012044520247037e-05
-7.5502997697660852e-05
6.4792802346479804e-11
2.3104576831480067e-05
-2.8166217527550735e-05
-1.4315155455964649e-05
-3.3259989026608391e-06
0.00071590316049651597
-1.9981659966137682e-05
0.00012065331371802522
0
0
6.8144837912616208e-05
-4.3504883980667964e-05
-4.5103304839336911e-05
-0.00038976093817913107
7.5878212544238754e-05
-0.02123643297137404
-0.0007003835328256824
-5.3115605651785582e-05
2.217568016222138e-06
-1.1622812576023217e-05
5.4997668917844877e-05
0.0078009201919827954
0.00015870878482256832
0.0071218045063577541
0.00057758281008096779
1.1265097217999447e-05
-0.0094865312696258142
6.3728750524978507e-05
2.4671300172410516e-05
-3.7208035386900374e-06
9.0112542533126047e-06
-2.1130272092209895e-06
-8.4825114588286561e-06
-0.021589620721952966
-2.4036168974076163e-06
0.0043909463678393794
-1.1749936998553502e-07
2.3349605092682607e-06
-0.022664218997607913
-0.0076423184497104932
4.4173585102239825e-06
0
-3.3296206643628313e-07
0
0.024438650131440379
0.014701868724732626
-0.00011032356171370408
-0.0022273400889317907
9.3993466934734387e-06
0.00069843902255703558
0.00039053326985378866
4.3498739647686377e-05
-0.00015982394468235149
-0.002495978259962655
4.6558170146193391e-06
3.809434099502183e-06
0.0002837649108885144
0.0056309887304522334
-7.634387328963621e-07
0.0029257519932527096
-5.708018002614843e-05
-1.4626176181136161e-05
-0.00040983916127871039
-0.0059083990528277655
0.0019520189905850554
-1.8994349332883416e-05
-9.800944817759924e-06
1.9554805422701167e-10
-0.00016946775595926708
0.00017202802307108504
0.00078448184529559639
-3.0592405977997778e-09
-0.00093622375469725838
-1.6228004694688571e-06
-0.00033944733885954241
0.00090011150538117483
-0.0041048352506942243
-0.00010323079968955309
-0.00034448717203887044
-4.6689003733640224e-06
-0.0070445930329947042
-1.5218089353951098e-05
0.0013894644183742152
-1.2699339716491449e-06
-0.0068194501333686246
0
-1.8356292394330165e-05
-0.00060080843669811461
3.0098806882376217e-05
-0.0016315611665322358
-0.0011232023730259786
0
9.9212649474107834e-05
1.4699619383649802e-05
1.6517562591995998e-05
-0.0082928600688298142
-0.0023548151342074469
1.1050526100779607e-05
0.049968803427960708
6.9951973061384989e-06
0.0049386959352554173
-0.00024577212634163421
0.0021611470557656946
2.1211220219065184e-06
-8.5953952358559983e-05
0.0058770408995675212
-0.00016042947147154658
0.0068857510741567257
-0.00011380341148763594
0.0016402138468511044
0
0.0048375147644525683
0.00013928360424850963
1.8113141890905659e-05
1.0132369929713256e-10
0
-5.7091421017461006e-05
-0.00037924708499810912
-1.807153608822032e-09
-4.0139862933363381e-13
-4.0054956919910336e-11
0
3.2881875884873527e-06
0.00051812192711473944
0
0
-7.7831829418064209e-09
9.5944138497554274e-17
-2.933140689970959e-06
8.5801944471991215e-08
0
-1.4692225231966258e-10
-5.5769868193631687e-12
0
-4.310132545316455e-08
-5.670234506824091e-07
-5.5387413797006233e-09
-3.8864176240412807e-09
-1.2892817285038977e-13
-8.0679195492404337e-12
-0.00043680459893053202
-9.0862525553419657e-05
-1.7373346878580491e-09
0
-8.4383834909487363e-08
0
0
-2.2251134877566097e-05
-3.8936005900149818e-11
1.8418687849086619e-08
-7.0463451998650313e-09
7.0190443805748474e-15
4.9552786798919973e-07
-1.5645248722273229e-06
-1.9313272649292305e-09
-6.277821743912397e-08
-2.8089445788638834e-08
0
-1.3700206850840083e-07
7.061645828641074e-07
0
0
1.2696076030219073e-07
0
7.6412393844257293e-06
7.4027458361779338e-07
0
-5.9047623692875967e-10
3.6186798679974135e-07
1.8829585201129902e-13
-1.7335183069882049e-08
0
0
0
2.0600323643775751e-08
-6.484064326382275e-14
-1.3726995827481356e-07
6.3139910356973485e-08
-2.7341813605313341e-10
0
3.3969233469154499e-08
0
4.2552473928169212e-06
-3.1949401537269262e-08
-3.3726248498166698e-08
-3.6321665352571918e-09
-1.340455092332081e-08
0
1.0609564430397338e-06
-8.2525564948342719e-05
9.2000498814365784e-11
1.4196204586251767e-09
1.5722982958425625e-07
0
3.351541215135194e-05
-1.5199276740809209e-07
-2.4000447176812328e-08
-4.2139339790156982e-06
2.9759149268406283e-12
0
-5.2664706959031536e-08
-3.5498721535142356e-06
5.008706576262443e-09
-1.2843488388574212e-08
2.6644452850602326e-09
0
-4.3844774316658278e-08
2.0946813948187854e-08
0
-3.0022369929375291e-09
8.0833089236494191e-08
0
1.3787746222149512e-08
0
0
-3.2011948886334794e-10
8.0624257337315563e-06
0
1.7766287860454454e-07
2.0540127218396352e-07
9.5493566395125149e-09
-9.2731560595102726e-10
6.0573495277499822e-07
2.8105414388721742e-14
-6.0862551621269591e-07
-6.1955804674091034e-07
6.6983399164990845e-10
0
7.034269269379822e-10
0
4.8115431268564449e-07
-6.4983038461908744e-09
-2.1561296733511254e-09
-1.5536842236441021e-10
8.1122151974231658e-11
5.9315015433965994e-13
-2.8399895597154628e-07
-1.0497569475430082e-05
2.2799041343859581e-09
-1.0311131011191628e-10
-3.040836573938947e-08
-6.7316686594167717e-15
-5.5942828989474933e-09
1.3058333393574569e-07
1.3962462336298888e-13
1.799477252074014e-09
-3.5276617244234209e-06
5.1562556877355825e-13
3.4250629128757869e-06
4.9636074646590151e-07
5.1650011136865407e-10
6.0470050357830376e-10
4.03412904730829e-08
0
7.3514129619599895e-09
2.4226643271048863e-07
-1.1184802096340518e-11
0
2.5666266910917701e-10
0
0
1.0021138801727459e-07
-8.6755461698848e-10
0
1.9073897795720633e-09
2.3220629917904108e-13
-9.3968576878095819e-09
1.5841311310161647e-07
-5.1405196928797579e-11
0
2.4077448264870355e-10
0
0
2.8760770727278909e-07
-4.6018503037465582e-10
5.7551004191833084e-09
3.1302193640252351e-10
1.9613333536647457e-13
2.0310863932688117e-08
8.033866667238703e-05
6.312010863265929e-10
-4.8467886837629105e-10
-2.2067907881772097e-08
0
-3.867725099584866e-06
-2.1741825598648522e-06
0
0
-8.4568431876279197e-09
0
-3.6990895978668545e-06
3.2695247033050472e-06
0
1.1504369251595652e-08
-1.3190736662117672e-07
-2.1933610169679305e-06
-4.4891339064998491e-05
-0.0069528405059138734
1.9158001645479707e-06
-1.0644656290765511e-06
-0.00011491989894787546
0
-0.00050772930030968115
-4.7482070194675807e-06
-7.0712302253504557e-05
-2.9860178153098957e-06
7.4314886788594011e-08
0
5.7967898640970291e-06
1.2767722911998677e-05
1.1094597881724402e-06
1.4621559537213405e-05
1.39421145270633e-05
-1.3337351561094427e-08
6.7072132399494875e-05
-1.0834110376769416e-05
2.0024006626389243e-05
4.3362493641825997e-08
5.9819860193237058e-09
-7.146387697300792e-08
6.4914575157645986e-06
0.012012416965564078
0.00013799944254295563
4.1953411127190746e-05
4.5394706415131563e-09
1.4320567023833892e-06
0.00031046010347464512
9.4086347305443539e-05
-1.9935337103007074e-05
-1.1429873171151743e-05
7.6915917391942547e-12
1.7923306395344905e-08
-1.1198533837300054e-07
-0.0061335342587147913
-2.1300171207869265e-05
-3.8692002940049269e-08
7.5927932776801566e-05
-9.072783041717946e-12
-4.5712968306509833e-07
-0.0012263617612215325
0.00052892393396784994
4.0992015713270288e-05
-1.1459335179275941e-07
0
0.00011247380607693242
4.8187608937335056e-05
0
-0.00012022454667524528
7.3177597867344047e-06
-8.3471825384876804e-09
6.0642284146347131e-05
-0.0006961686421415674
1.4178270960612314e-05
-0.00019515835213528289
7.3814677440870794e-11
-7.2438722355013025e-07
4.335121397986307e-06
-1.803166503994619e-06
1.1885613467375122e-05
3.8577514562160141e-05
7.6083635642610135e-06
-5.7048454728830487e-08
-3.4100391448508592e-05
0
2.0180663832061299e-07
1.7078645195739749e-05
6.3892392404513508e-10
-2.6847493135458738e-09
-2.6483233548359617e-05
-0.0023543391276448838
-5.5429065904780369e-06
1.3559185174521225e-05
4.9259406058103379e-07
-2.0270207510534632e-08
0.00039165940138135349
-0.00025415387591428074
0.00026684234879933402
7.4854307253836304e-06
1.3217700128713912e-07
2.3315236478226713e-07
3.8747031729756226e-05
2.5178432696176755e-07
1.315148489431213e-05
-2.5524014802832755e-08
6.0057551325722384e-08
8.156315894897927e-09
-0.00017108853605248291
7.8282629883035982e-05
0
0.0028864100980387506
2.7472853746317965e-13
1.8178782970380717e-07
0
-0.00015201404671844783
5.1773908884630752e-07
1.0167838546836512e-07
0.00025386269586711045
1.6709345610312483e-09
-1.5755041114526294e-05
6.0225725052159947e-05
1.4214295430232112e-05
1.0804313860466251e-06
1.1405956743943822e-05
0
0
-2.4238388524319854e-06
2.7608502998358752e-05
-3.4578649421676037e-06
-0.00037243098400958186
1.7312710623153585e-07
5.2119977443571123e-05
1.549116338709576e-07
-2.4463860015838092e-08
4.1679603345671157e-06
3.1288141266447863e-07
2.0706962118055365e-08
0.00063126493751821191
-7.6445651263180375e-06
1.6485369775466956e-05
0.00033169101350044578
-0.0018804188947901443
-3.7944938886964373e-09
-5.1243743984615424e-06
0.00028147065978557944
-7.5389225703220312e-06
8.6643248517831851e-07
-9.9719205822152709e-05
0
-5.1865888918537373e-06
0
2.1620397254540827e-06
9.9016956357076752e-07
-1.5228702377662953e-10
2.6490085506081875e-05
-0.0043292996627289785
-1.1110336614330411e-05
-7.2386617162416806e-07
2.5844831802631731e-06
1.2221622750082552e-05
0
0.001117619117660774
0.0013455429340560347
6.5604954722459004e-07
-0.00016425828326897967
-0.00013111607578392256
9.1224997315827617e-08
3.7720552345954989e-05
-2.9709826513489059e-06
0
0
1.9827101286625453e-08
-8.8542857781412072e-08
0.0014323884952402743
-2.8332092055925873e-06
1.5974681245105226e-06
9.6503924487560719e-10
4.310160916749659e-05
4.4112342364759403e-09
8.0756061032014821e-06
0.001687438437068019
-2.4400150309954566e-07
-8.9534855370301625e-07
-2.7612065898421417e-08
4.1900155474572176e-09
1.8749525380725471e-06
0
-8.4178453747002732e-07
-2.1383077677321476e-06
3.1323160309393278e-09
-4.0394946238210484e-07
-3.0186530571965183e-06
-0.00053740795889654371
-3.8765418848055631e-08
-1.8671919369789162e-05
0.0015468532165908665
0
0.00013302422502293454
-0.0011972586325500721
-1.3535134828593232e-06
0.00010757609047806447
-0.00058634108848791121
3.2119004990940771e-07
6.7279767585094822e-07
0
0.00017259949823283515
-4.4710547877832515e-08
-1.6529448066968807e-06
-7.0038528205497225e-08
0
-4.3056101091402667e-05
-3.5016654993306539e-06
0.00042808283010220045
3.6917659246298944e-06
-7.3849269850953662e-08
-3.9059155613781382e-05
1.4328962798717301e-05
-3.5942724849040826e-07
-0.0012404410182971597
-0.00090058902634388056
1.1680802012946827e-07
-1.6279840942161912e-05
-2.1655989476769655e-07
4.2557726778799334e-07
2.5160971750598157e-06
2.8493686049712434e-06
-1.2061625664387638e-08
-3.1778673991100555e-07
-0.00021717583489393194
-1.6092188047912328e-06
1.4228670994155161e-08
-0.00023753608258398096
0
0.00010274475334032478
7.0060961790485718e-05
-2.3908312835176691e-05
-1.6942146871175334e-07
5.8573932642257744e-05
-1.8149121420771193e-09
-1.1676663860726412e-05
6.0457538608052326e-07
-3.1931121925961944e-10
-4.6528553468203562e-08
-5.8147700573711778e-11
-7.9585561195636214e-10
7.8888620283239601e-07
1.4190149384002879e-05
-8.4416226140915747e-07
4.4771576435543406e-07
5.3832038909924208e-05
-2.1390490192685549e-08
0
0
0
3.1917891639227712e-07
-3.9546046471176259e-07
-5.9212907458859422e-07
-0.00013192815758195504
-4.3110094250046643e-05
-9.3790871398327602e-06
-1.1201496759814555e-07
4.1245881459285489e-07
-2.3840440424810896e-09
-6.0572487096155986e-10
-0.0019685170254627872
0
-2.1870920580707414e-05
-2.0439333518941178e-06
-1.1500625947719295e-09
-1.5036948176385385e-09
6.040395284922158e-06
-2.3503730913664695e-08
3.899926188081493e-07
-1.17861657701023e-05
3.9456172605940558e-08
7.0826658960642999e-06
2.2895484215290612e-05
-1.3051914531468822e-08
-2.2327325905637939e-07
-9.3894136585700754e-08
3.6396744237879922e-08
0
4.0551025542210359e-06
9.62579553564906e-06
0
1.0582532530620596e-06
0
9.6318065935636042e-05
1.2072739367811484e-05
-8.4145173525270958e-07
1.4060115755112546e-06
4.0555634024327404e-05
1.0430152306352104e-08
1.1373552635128551e-06
4.3325187418733036e-05
-1.3490760827422113e-07
-6.9345315164997975e-06
9.7457838100093532e-07
2.321496048648082e-08
0.00023811724428523168
5.0238271287460265e-05
7.7730939753636567e-07
-7.0469755984209132e-08
7.5400842932204644e-05
7.3335650424470519e-07
3.1287256057647926e-06
0.0033466906772107122
7.1978787222858447e-07
1.612351574071205e-07
-1.7629755163548336e-05
3.4856957949332846e-11
-0.0002043028257007555
-0.0008495258698623156
0.00013215726257246921
2.18292905150303e-08
-0.00082138023454917134
0
-6.2345760232657205e-07
-0.00088924579765984864
1.0040846194098666e-09
-2.0466853759418616e-09
-4.1453669827537173e-07
2.2139757209711069e-09
-7.9944258949370558e-06
-4.6160926134395762e-07
-1.6012812753617034e-06
1.3986363186989609e-07
4.5137000212246051e-08
0
1.2808357437451415e-06
1.318764698180536e-06
2.4890962154009945e-05
3.6771196342187236e-07
-0.00040105232222534888
0
9.9275183329870098e-05
8.1336373694526585e-06
-1.349788648834887e-06
-9.3099795882755285e-07
6.3353415081105221e-12
9.6080323185055938e-08
1.8035372140889567e-06
1.1660598588458873e-06
6.3118182426917051e-06
3.5210833306636824e-07
-1.5596316727147741e-05
-1.9066152959784844e-09
-3.3116841736998753e-05
5.5233713168875686e-06
-1.1571675146808177e-05
0.0011304774739622611
-0.00011986565427499817
5.9374276835121645e-10
0
0.00048069091733685912
-4.8813551696738696e-05
-2.6346975187855434e-07
-2.9999263029192358e-09
-7.7342821646666572e-11
-0.0043009209840620816
2.9009100670719535e-07
5.1860045894839626e-09
1.0964167234382704e-07
-2.6497253929743551e-06
0
-6.7735804866387244e-05
-0.0022202067993632134
0
3.0642470634199166e-08
8.5053417646899659e-12
-1.3048651024072967e-09
-3.8223230020166747e-06
-9.4638364674450517e-09
0
-4.7535244774044435e-07
-1.0806173296477913e-05
0
-7.9243161895805125e-05
6.5167532231599421e-07
-3.8226656432621944e-09
8.3855557659137502e-09
-5.6357234755191159e-14
-1.3683886966860724e-09
0.00011936885154912077
0.00037792142696334362
-4.2033684815869873e-09
-5.258664575687203e-08
-1.4234521263565325e-08
0
0
1.4887278659899968e-05
9.6356283994981784e-11
9.8334475246554312e-08
-3.0359230174784956e-09
-1.9608153700553794e-08
-1.1182541354279925e-06
1.5525604872885711e-06
4.9079276697493136e-09
-2.0558232196608411e-07
-1.1746617953567745e-08
-2.6126951264057722e-11
-6.0931149928175032e-06
0.00010639163637687439
2.0982676602536105e-08
0
-1.2731612900769026e-07
0
-0.0001400368313631501
4.0888628934333276e-05
0
-5.7246736408722309e-10
-3.7130438779693913e-07
-4.5519170989130989e-10
-1.6753502033690266e-07
0
0
0
-3.3643560256259454e-08
-2.092385882261965e-12
2.3589557494822091e-07
5.6521946422762427e-08
-7.5266569995506341e-07
0
-1.2381871683840889e-07
0
-3.0741986891843768e-05
4.9633228679368514e-09
-8.0878177774670551e-06
3.5247651022910774e-09
-1.176153586155512e-05
0
-1.514466061192364e-07
3.235295987020775e-05
-5.5689281668941812e-07
2.5153161239155812e-06
-1.8035173011488565e-07
-2.736633474020605e-12
-0.00018752539007570168
4.5407446310023913e-08
-8.9887432121738811e-06
-1.0054760988302232e-05
-3.8694062110843078e-07
0
-1.2152147310779989e-05
1.2568066748353658e-05
-2.0211595324687163e-09
-3.0299352859098238e-07
-8.2444778038574577e-10
-4.0444623168221249e-10
9.0188476845993371e-07
1.6496824498563843e-08
0
-8.5695948741109656e-09
-2.2608261181815794e-08
5.745727180467495e-12
-1.9736702142833476e-08
0
0
-1.8418042786619859e-07
-8.0626059132528277e-06
0
-3.595546936359968e-08
1.161356041500396e-06
-9.3076657883790809e-08
-6.3655843076246584e-06
1.6870831103497621e-07
-3.1203449534556615e-10
-4.9745720342502743e-06
-3.7535807952247858e-07
-2.3301047899989543e-07
0
-1.3433364860411415e-08
0
-2.0555553129693644e-06
1.2260764836538802e-08
-9.5662332660185015e-07
-8.8928114382770881e-09
-4.1031338034539479e-11
-2.0649425416222764e-09
-0.00071192781538606162
-1.9114290970847291e-06
1.6235363587001221e-07
-1.2728315366898448e-08
-1.2360291928924536e-07
-7.6950538407233419e-10
-6.778622370466852e-07
-1.2111223342879157e-08
-8.3850462555288391e-08
-1.799477252074014e-09
-1.2451386026127066e-05
-8.4751977183414462e-09
-1.6277561456229538e-05
4.2758509143533418e-05
-7.6567174698214164e-08
-9.1035383370751927e-08
-4.5640517789033325e-08
0
-5.9442846626475999e-08
-7.8561596168016069e-06
-3.5962555114839036e-08
0
-8.6335449607171682e-09
0
0
-1.0238025326241504e-07
-1.8413705577322032e-07
0
1.20580295766554e-09
-1.568974071580493e-12
-1.3706691116995056e-05
-1.9904941806730283e-07
-2.9726937506531902e-08
-1.8604395506511742e-08
-1.2197623020147448e-09
0
0
-7.7996644470768775e-07
-9.512092655562542e-07
-4.489025870576727e-05
-6.0564027373231415e-10
3.2412457896881188e-10
5.9902601982033782e-09
-0.00015635659242747808
-9.965571102918624e-08
-2.2176784768978531e-09
-6.1820741134095991e-08
0
-1.3816530851733502e-06
-1.9818422437313641e-05
1.893132743061794e-09
0
-2.8041564131756458e-06
0
-1.1495793624041525e-06
1.0659446700263388e-06
0
-1.6994555644504109e-05
1.5231561557261368e-07
0.0014350882879817909
-7.0490351920914052e-05
-0.0092643687627051354
-0.0010149519138152588
0.0053668803150134616
-0.00097243723729152978
2.4860360598715737e-06
-0.00031695799722800708
-5.7289611538481736e-06
-0.0068596357353379166
-5.1822129510854812e-05
-6.5906462462293354e-08
0
-5.4029063737405115e-06
5.4447391622064559e-06
2.8345979046590399e-06
-0.0027120582344895674
7.4148999374897197e-06
-9.8696688579727117e-08
3.4145247559844151e-06
-1.8153700495158278e-05
-4.3430354934988948e-05
-5.6009704890112456e-08
-2.645009697486172e-08
4.3111222487306478e-08
2.236541762032563e-05
0.01202876214814062
-4.1848136181776362e-05
-3.7818366019522982e-05
1.3752025140693977e-08
3.1919464146634739e-05
9.9931325596082271e-05
0.0075865197005195477
0.0037112553933855729
-3.0644988945945892e-06
1.0590596636550682e-11
8.3213952376943417e-08
0.0055289145124852055
0.0012014099765355244
0.0033896407834072698
-9.582493912508089e-07
-6.7453607315296773e-05
-0.00010348334533948676
9.1741974165946209e-08
-0.0057359723857936598
0.0011925450974682892
6.9136629525855961e-05
0.0024509636287007013
-4.0804196537097543e-06
-0.00012503917226087518
1.5810044498634286e-05
-0.0007279674739669006
7.07778233721303e-05
-8.6827299966434139e-05
7.862329739007412e-06
2.7981980888807599e-05
0.0018052552077937132
-0.010485298409866225
3.7978499880558613e-05
-0.00054434001973200806
1.8805812911541267e-05
2.0363924364473102e-05
-0.0042869986148364641
-6.7302504360153075e-05
-2.6940042057221779e-05
-0.0024638780385072331
-0.0001871908213586888
2.7145648523182634e-05
0
0.00011956650557648092
-0.0043165521213617908
0.0017913048084453372
-7.3886368382458118e-07
-3.9419708990008353e-06
0.0011212804906943735
0.0021410948196997682
0.0033675107599178142
-2.0506275093568898e-07
2.9641359312254926e-07
-0.0011029652757395968
0.00015467723525594028
-0.0028918697330789752
-0.0012909168423725949
-1.3217883350218848e-07
-5.8535962503910823e-05
2.5158902297110429e-05
-0.0030281129386855901
-6.4284914073286839e-05
-3.057751534760588e-05
-2.7154444471456006e-08
2.1453801764919359e-06
0.00039509491874399166
-0.0020244309230235814
0
-0.00046678465990090305
-0.0028231061836740709
2.0126137416949467e-06
0
3.945676046755672e-05
-3.0525417400796662e-08
1.7483559523858301e-05
-0.00025386269060486766
8.0503886054692389e-08
-5.9826023357714952e-07
-4.7593323664327141e-05
0.00030416665702401964
-2.3044850027875248e-05
-0.002398615789279494
0
0
-1.8904549240572582e-05
1.4342263864479439e-05
-0.0036576768446522972
2.813773469178678e-05
-1.654741926905115e-07
0.00013601645434962352
3.6726630334777931e-06
2.4463860015838092e-08
2.8380403710430842e-07
3.1288140553486705e-07
1.9877102279545913e-05
0.003161734404158378
0.012771155618097422
-2.8728200813658461e-05
-0.00075525993106528974
-0.0041463282799019206
3.5573952991014522e-08
0.00015662106283806357
-1.2421724711134033e-05
0.00034878085618068416
-3.6121076509980679e-05
-0.00014397679567005665
-1.5277935298334193e-05
-2.8036912070388927e-06
0
-5.3311906334147447e-06
-0.004203992897484494
3.405074252265722e-11
-6.3017093736516523e-06
0.0065746781787863915
1.0051942326439287e-05
-6.4420271908087676e-05
0.0038006165486621506
2.7180311955238982e-05
9.0551133372039081e-07
0.0040653813498470748
0.00013828597293889062
-0.0016369933745074938
-0.00040912056635211062
-1.8373496746109949e-05
1.3087125899539613e-08
6.3023933824810348e-05
1.7734275946388725e-05
0
0
0.00039777740279511094
2.2391592549668016e-07
0.0013317621640523622
0.00090026385846773103
4.2259223065054617e-05
-6.5095477285496895e-07
-1.4607490238902989e-05
3.2685721334418815e-05
-3.7762878424285456e-06
-0.0016214439380818359
3.2427958401537324e-07
1.3101943594956396e-06
-1.2182590798752553e-08
3.2988610654359818e-06
5.6656382222592128e-06
0
6.8217831855656598e-10
5.4713799818996379e-06
-2.7202979451819881e-09
1.2176242405065901e-06
9.8639015841957631e-05
-0.00709425946688437
1.5764998145052068e-05
-1.8671918289936863e-05
-0.0014761701691812514
0
-0.00088540766619466579
0.0005492812243194172
6.9302055496697624e-06
1.0155309487322184e-05
0.0022059170514162211
1.4364873115498036e-05
-0.0026139617868005012
0
-0.00016722866385865287
5.8137557994382033e-05
-1.6527917224207593e-06
5.0395448636854847e-06
0
-8.2377006370577257e-05
-1.7308183562163935e-06
0.0012643860571735725
4.4420080896880627e-06
2.1115069665830672e-07
5.4571957329165861e-05
4.8656536991051231e-05
5.2878494677918553e-05
-0.0012404410062366482
-0.00032131958342097774
7.363950248907283e-05
0.00027947167229771532
0.00086071459356477789
7.1317030289247925e-05
9.9344603025750546e-06
-2.2782710871235808e-05
6.6083550399775423e-05
-7.0123102776283126e-07
-0.00017225483894986511
-3.5662625626191146e-06
0.00019718320749004175
-8.9449462641241706e-06
-7.1044395490363894e-05
-0.01177689135374072
-5.7415332952002847e-05
4.2986213596534677e-05
1.3622537781842335e-05
6.4217587141211015e-05
1.9917524582948097e-06
-4.9074953840833051e-05
-3.3194275750728034e-07
-1.3005158630525953e-05
-4.6528553468203562e-08
4.9441424146904214e-11
7.9165735352273291e-10
3.0040379481169541e-05
7.788394585522372e-05
8.4416226123969741e-07
0.0001787570039496555
-3.2593500774894592e-05
1.1984366315631781e-06
0
0
-2.6558452618289567e-05
-4.3051478243348486e-05
0.0066883552933949273
0.00013617368290837317
-0.00025704781811520947
-0.00039049447903909519
3.8305073167211637e-06
8.0691407560528028e-05
4.12448358885412e-07
-4.1196258727465886e-07
-0.00012463917228600004
-0.008016811795839341
0
-8.3862249112530792e-05
-0.0017608969297620068
-1.3582692409964536e-09
-1.134197306510856e-10
-8.7488516802714972e-06
-3.3265514537284763e-07
-3.9799818346776766e-07
1.9114642788820188e-05
6.8417033663326819e-09
-3.5083611311222084e-05
4.2092000787356611e-07
-2.0212552310307479e-08
0.00099138133986131005
-9.780750503730688e-08
5.4229321691701637e-05
-7.0820023457798464e-05
-0.0076087981230846743
4.5642868160191998e-05
0
-1.2248014399061829e-06
0
0.024383206455873781
0.0083263793147512078
-0.00012551511519718494
-0.0028078215777560481
0.00010937439843280011
0.00013040250891244203
-0.011728868061129629
2.1393743336200285e-05
-2.2535929240188367e-05
4.4752370128829945e-06
2.6606922736372365e-06
-3.8368079033577493e-06
-0.00021321877256996405
0.0092456188823904304
6.4532493781626291e-07
0.00083772295829820452
-6.2182250159820286e-06
1.3734001990151375e-05
-5.1348874377459021e-06
-0.0033446066258603913
0.00010894747035507456
2.425532992858526e-05
-2.51985447526981e-06
1.725215223290825e-12
0.00027683267219599805
0.0012880253747243981
-0.00056647221391787652
7.3097953051343281e-09
-0.00093602056877438032
-8.7643697737336479e-07
-0.00016004378042759704
0.00062502447843824362
0.00059007561973304702
0.0001200639265197499
0.00048685033916775138
-4.2120785013855149e-06
-0.0070400062131891848
-3.2663100366395005e-08
0.0013892805537609831
5.4963161626334877e-06
4.5137000212246051e-08
0
2.5889812228999213e-05
-0.0023672042254975346
1.4435159112729858e-05
-0.00093794878008954491
-8.8756385394302994e-05
0
7.8019443341304206e-05
-8.3332519625499077e-06
1.1289102641010356e-06
-4.6107097024776022e-05
0.0051071310119996599
6.3069349836462508e-08
-8.5428825951590578e-05
1.94737837529697e-06
1.3060582921395312e-05
1.926684185396637e-06
-7.0875338782097641e-06
3.6231561853824509e-07
2.5155020975770595e-05
-0.00022400917425214071
-4.2697835543463765e-05
-0.0011202790894019772
7.9900644636015674e-05
5.1551243586877213e-05
0
0.0051620858667203399
0.00010116047005476956
8.9319910357162002e-06
9.4358333888143517e-09
0
-8.3276179989765937e-05
-0.0097793272556747374
-1.2633135438068952e-09
2.9854381380047685e-08
8.806103770401296e-07
0
-2.948094150089425e-06
0.0017116476556253261
0
-7.7688206113839183e-09
3.6316993263807344e-09
1.1558389957423766e-11
-5.6308224712221888e-06
4.5074897779291747e-08
0
2.4051931806426583e-10
4.488041390336233e-12
0
-1.9164772265915987e-07
5.3115438817307247e-07
-4.6138764751651523e-09
-7.3152595795483131e-09
-3.2818316006665106e-15
3.6688180792129294e-11
0.00057049867203329979
-0.00043365534249278378
1.7062264088079977e-09
0
3.874665152624146e-08
0
0
0.0021438452247609791
-4.0559089759931305e-11
-3.9077091276150693e-08
6.5013349039389332e-10
-1.4245221435130297e-14
4.3179747155091613e-07
9.0702702087671158e-08
-1.9313272649292305e-09
4.4374337084136711e-08
1.299447246377502e-08
0
-1.6411214952129172e-06
3.7807788682421056e-06
0
0
1.2694397780247568e-07
0
-5.5031905370043316e-08
8.6627248219239768e-06
0
-5.6950336026011421e-10
3.7271848999940098e-07
-4.243051944784444e-13
-4.3934023143195695e-07
0
0
0
2.5552517883803473e-08
-1.1648043327426116e-12
-7.4567441005836771e-07
7.8398773872085055e-09
-1.3365616615375212e-10
0
7.4051867305983705e-08
0
-9.259555810662366e-06
-3.1452039744906706e-08
-3.3014009845584997e-08
-1.4834141334416344e-09
3.6938586461843369e-08
0
-1.2785957379157583e-06
1.8389351462807374e-05
-3.3017766799557721e-09
2.1221043355101633e-10
1.8214475834225546e-07
0
0.00019340802023064079
4.5406626313819352e-08
-3.362242802154794e-07
-2.3258368477407417e-07
-1.0453150363456965e-12
0
-1.3122729004703399e-08
9.5574556995476313e-06
-7.5574516620977633e-09
-2.6731584735887329e-08
8.1505781202135608e-10
0
4.9514478194326516e-07
0.0013598868870264577
0
-9.8365833906327001e-10
6.2190717525507959e-08
0
1.8137740852384395e-08
0
0
2.7677142949968405e-09
1.6287403535347419e-10
0
-2.803288123527266e-07
8.4297681786080813e-07
-7.8703318462324706e-08
-3.3362907317485049e-06
8.6884457487935399e-07
-1.9785202838840476e-11
1.2042187287510309e-06
-0.001040785747586942
-5.6664842240010962e-10
0
-1.0416348835799031e-08
0
-7.1060502900311777e-07
8.765226893363016e-09
1.9150922936706544e-08
-5.798089579197648e-09
3.0434696864434083e-11
-1.5474494651022364e-11
2.9796053507012936e-08
-2.1357702899671667e-05
3.8138104486870423e-08
-2.6226241693382914e-09
-6.6319067567785181e-08
-4.1486688880469541e-13
3.1936859377943271e-09
1.5022363608448419e-07
-9.6847316484070834e-08
0
2.3803839026345945e-06
-8.8981022989024574e-15
3.3995808595298828e-06
-2.3778125109396032e-07
-3.4211883542679279e-09
-8.5005860296261111e-08
-1.6449482916640363e-08
0
-5.4718315054060811e-08
-1.5374132901893741e-07
-5.200380357633613e-09
0
1.6046451763839354e-09
0
0
-1.450244014200147e-08
4.9771697566257434e-10
0
-1.9127597133813697e-09
-7.2322298395659002e-13
-1.9844456541545087e-08
3.7854352018323641e-08
-5.7402616291917517e-09
-4.991002515117355e-09
2.9597218949028867e-10
0
0
-2.2403758024905502e-10
-1.0411843048882754e-10
-9.3888552625851123e-06
6.1546222061716385e-11
-2.4922190624572007e-13
-4.4939389078785583e-08
2.4694988660896577e-05
-2.1659549800565103e-07
-2.2456027933146775e-10
-3.3772939134682176e-09
0
-1.1257286293011582e-06
2.2093401133998177e-06
0
0
-2.7894931751847689e-06
0
9.8131668455937568e-07
-5.1230928638778109e-06
0
1.0373163194386389e-08
1.7937180217758977e-07
1.7863400596349942e-06
7.8429989814742462e-05
0.0071505628648825545
1.915801811593612e-06
-3.6585956814055423e-06
-0.00089197446970278103
0
-3.3768066638753027e-05
4.725010125253067e-06
1.3063376256150406e-05
-1.6754936949540592e-06
-5.0295026218918838e-08
0
6.3576431374368073e-06
-7.0582606343490597e-07
-8.9663260328259118e-07
-4.2343659750357774e-06
5.0843781873984855e-06
-8.5377723078301671e-08
-1.7008907967493253e-06
-2.1989839713571445e-05
-1.486097717805622e-05
-4.3937458755276977e-08
-6.1517616262388326e-08
8.052012342931657e-09
-7.7738634472441406e-06
-1.540581264322816e-05
2.8536839935455653e-05
5.7980337538364833e-07
1.1802681365062587e-08
9.6926221200683059e-07
-0.00020258367904631418
8.83048803948624e-05
-4.5972735278956759e-05
-2.2533575652716974e-05
1.0590473315246017e-11
2.6676595919063022e-08
-5.3128232397373133e-07
0.006126645803561836
0.001498992486271051
9.8310009837366699e-07
-0.00010250040076763056
-1.1818189076702887e-06
-4.5257505546004596e-08
-0.0036041964020514577
-0.00091791278455688984
-3.4774707423406927e-11
-9.8979278873347262e-08
-8.5163943578711292e-07
0.00013266888346342984
9.3166960291682553e-05
0
-0.00011867299838920964
6.4851752240038075e-05
6.5823590099423885e-09
1.2539423806733117e-05
0.0031832746478621245
-1.1374254584392577e-05
0.00019691991120936368
0.00054434003492074743
6.4903858466676268e-12
-2.1343211397668195e-06
-0.0054579266638695263
6.319657408569743e-09
-4.7153012971599024e-06
-0.0016470254873491598
9.1306122384227727e-08
0.0015611160322300448
0
-9.0001827094467581e-08
0.0016854172024957448
-3.4666868850529108e-09
2.1188992502546835e-09
0.00025463500328534283
-0.0019281238401969473
-3.5037380875922534e-05
-2.1254068554720925e-05
-1.1463674127965706e-08
3.8935824714193234e-09
0.0006274472475789112
-0.00021123126870376563
-0.00026669655233978109
-5.4424878323504081e-06
-4.9431721734507118e-08
1.0305214295011281e-11
-1.6484722242018924e-05
-9.3941956266816919e-06
3.5962658122419696e-06
9.1068029080869072e-08
8.2133703343856765e-08
-5.1995813099537986e-08
4.5413777968977163e-05
-0.00024864672681323936
0
4.4980744135950664e-10
2.7472853746317965e-13
-7.1255725862076019e-09
0
-0.00024568376711311659
0
1.0167838546836512e-07
-8.08416059247893e-05
2.3778096585992895e-07
7.9011247669622149e-06
-2.0180997881587901e-05
-1.7681606715627071e-05
-1.0804313860466251e-06
2.0392915259305171e-05
0
0
-2.6902767543891147e-06
1.2455402674635247e-05
-0.001625800976918435
-6.8046304051468321e-05
-4.23341747502024e-08
0.00014780279250566308
3.0089327572404102e-06
-1.4657099252618911e-08
1.5772117245576074e-06
-3.2462567496644484e-07
-1.232863721308111e-08
0.00091384924698933892
0.0070858251694286079
-1.0127306126010459e-05
-0.0015345763511628186
-0.0026618602047185761
-2.4355997596561591e-08
-0.00011689706532977543
0.00015676919568799358
-1.209570148857335e-05
-1.5080169544572168e-06
-4.7162972881549729e-05
0
8.9824093308094479e-06
0
-4.0516230815461752e-07
-1.2853919379132788e-05
-1.5229583339990222e-10
2.7025075975243915e-05
0.0022684772473408337
7.6621305668880141e-06
-6.2378936262988717e-07
4.843977846186753e-06
1.7605627973718061e-05
0
0.0033112254316560842
-0.00072936736077246417
4.2524008644849135e-06
0.00012705550194531368
-0.00021292907203908067
-1.3228169448319205e-09
-4.9505963505198004e-05
-2.0756820417177376e-05
0
0
-1.9826312808604212e-08
-3.0235653119973937e-08
-0.0013200275161683605
-0.0031401018038385319
-1.5024398429623397e-06
-6.5232213576597689e-07
0.00016621114956884362
6.1758350007574422e-08
-9.727627734942584e-06
-0.027191431401694752
1.0774525110318132e-07
3.4432642044931598e-07
-1.5705114853318372e-08
4.1900155474572176e-09
2.35929273743128e-05
0
3.1490962800070026e-07
1.7275683760643352e-06
-2.6922495350973875e-09
-8.3817841262455302e-09
-1.5025317304228369e-06
0.0077325981160865295
3.0844718910395841e-08
-1.8652572257507067e-05
-0.00027341961861213234
0
0.00084839022300838994
0.0015617436503498716
-2.7459770431309947e-10
2.8996716992575803e-05
4.2556467647506416e-08
2.538140847562127e-08
-1.0589039302923123e-06
0
-0.00019439220868619253
-1.0076358811462503e-07
-2.7318123553646509e-06
-4.3499809576708398e-08
0
-1.7460164629526234e-05
1.6398637563121191e-06
0.00042726880180385103
4.4420080894503302e-06
6.4945691608733379e-08
-1.5111447845492859e-05
2.4440408248186484e-05
3.145450524468711e-07
-4.1999477462313813e-08
0.00047196386918093344
-2.255521830980393e-05
0.00011301762582233041
0.0035131371367288955
-1.0924686182573283e-07
-6.4541989490781556e-07
-1.3325939806980566e-05
-1.9431399846810848e-08
-7.0123102776283126e-07
-6.1634438848582419e-05
-4.0561944192403935e-06
6.831817307035574e-09
-0.00011671537353983029
0
-0.011818354241745379
-8.2483135223565977e-05
1.103270098660467e-06
-3.5809873900681733e-07
0.00012618109327353991
-6.9276697063470419e-10
3.7136923344325273e-05
8.2616764295090255e-07
-1.0708283313346804e-08
-4.4294007069083053e-08
-1.0325220695503924e-10
-1.5667702093246089e-10
-3.2022964077911944e-05
1.4687697158465834e-05
-8.4416226117405755e-07
2.2594380598730254e-07
3.5727018866689778e-05
-7.3700431884680225e-09
0
0
0
-7.2912661043735342e-08
-2.3778845727018702e-06
3.6243663435700472e-07
0.00013192421579217239
-1.526756306043773e-05
2.6373055229565234e-06
7.7893922732650099e-07
-4.1245166606967643e-07
1.2380080206640327e-09
-1.8460359676584941e-10
0.0053435477341975757
0
1.6440136530390385e-05
-0.0017593832234082012
-9.2977192877255145e-10
1.1338501886380927e-10
1.0571244768009373e-06
1.1394479731468218e-06
3.6633434094647339e-06
-1.222393956880957e-05
-1.1116338769858254e-08
-3.8608925417311087e-05
2.389230907515871e-05
-2.7676001686975126e-08
4.0378752254116222e-05
-1.1749976701117061e-07
7.34738230565245e-08
0
0
2.8649977759470366e-05
0
-1.0480945867830892e-06
0
5.4442162954765063e-05
6.9640816185899516e-06
-4.7721060545444886e-06
-0.0016023389044372588
0.00011724133739310338
4.4208945343508147e-09
0.01173847825629195
4.328325343024625e-05
1.3490760827422113e-07
7.9644552092312177e-07
3.1647722473571433e-08
9.1157232435017459e-09
0.00038934878987406045
0.0055895576721386002
-7.7872924480869089e-07
-0.00083775336821318607
-7.5399781249541867e-05
1.6820336164880619e-07
3.1287256057647926e-06
0.0013898250649126667
-7.5894616681356818e-07
-7.1305118788690582e-06
-1.0348633381299057e-05
-1.5275390076508551e-11
-0.00029400048295777614
-0.00076231251728618428
-0.00010310911195664449
-2.1706172613311462e-08
-0.00082129602628645045
0
2.1231850595395975e-07
0.00091678846280993738
-1.1079650375401043e-08
1.5403393573625461e-09
-9.2026176121715923e-07
-2.2127204938945467e-09
-8.4624231932825391e-06
3.8867564768010874e-07
1.4026766405928806e-06
4.6266339991566029e-06
4.5136817555233247e-08
0
-1.2297133475946676e-05
-0.0053375305074337895
4.8523538835186561e-06
-2.0578349869184581e-07
0.00015531483730501488
0
8.1822661111106482e-05
0
-1.2324307527863447e-06
1.266584203476435e-05
-7.106409565867844e-12
-1.1573231117013924e-08
1.8556417623677891e-05
-6.7712522922870396e-07
-7.3589955910351408e-06
-3.5210833306636824e-07
5.3846590049972225e-08
8.7232136297811129e-10
-5.5940525628171634e-05
-1.1856989296842214e-05
6.3406360389957185e-05
-8.8630511657045668e-06
4.6223638556789911e-05
3.4005641612137445e-08
0
-0.0033666573237526032
9.7128730716256108e-05
0
-1.229793978095427e-08
-5.9364248108540791e-10
0.0065950844297085875
-0.00093995588076695082
-9.0183215913407681e-07
-2.2532150382365032e-07
-2.5714520986894564e-06
0
6.7594439025641149e-05
0.0017169374664866295
0
2.0463043758201455e-07
-5.9130705935394265e-09
-4.3618324661451287e-09
5.6307442474209528e-06
9.583277358671745e-06
0
3.3953695902745329e-11
-5.3847719289907958e-05
0
1.8741530400911082e-07
-4.9912770837010993e-07
-4.1118686329809799e-09
-1.2559922702156349e-08
-8.3712513811338746e-05
-1.4298090102236111e-09
-0.00065923065884319041
0.00067904799378100075
-2.191707339732376e-08
1.176500608328907e-07
-0.00013552154899979183
0
4.5403077161283424e-06
0.00047828499343178301
-1.0847947352066545e-06
-1.4209083686200157e-07
-7.1929849063131612e-09
-1.9719762839476213e-08
1.1071277296891188e-06
-1.5081148639564124e-08
-2.4041362839076263e-09
-3.7025397491529341e-07
-2.9223771357466495e-05
-1.086000103911914e-10
6.4134637067339447e-06
0.00014996703797819718
-2.0982676602536105e-08
0
1.2226831162426978e-07
0
1.1058803353216101e-05
2.4235941240568855e-05
0
-5.9374168140144279e-10
-9.3806055377534073e-08
-4.6084444961967477e-08
5.7064358370010651e-07
0
0
0
1.627877853817591e-09
6.3540574537895549e-13
-7.2750997084371033e-07
5.6522132147701923e-08
-5.4406438918956867e-06
0
1.1209211860102769e-08
0
2.1891127626529456e-05
3.3658319246524024e-08
-6.7988553352515058e-06
-3.6710902943774971e-09
1.0270782763684057e-05
0
0.00010724036559992229
0.00012092843150372917
-1.5017329395128424e-07
-1.5246966515962357e-09
1.649396638856132e-07
0
-0.00068140632299290354
1.4091325088468739e-05
9.2120422909744474e-07
-4.2102844613577634e-06
-3.4878309548784347e-07
-2.9867128503172051e-10
-1.9659329304316814e-06
-4.0339796149011615e-06
1.6609110875791731e-09
-4.0663488076130925e-07
-2.4388856062174604e-10
-3.9599218640162038e-10
-1.9854409275911274e-06
0.0013598710789464641
0
-6.7644551523923252e-09
-3.211957158941115e-08
-1.0390433430513243e-11
-3.6963191116428232e-09
0
0
-3.2460295113339042e-07
2.1418007186831158e-05
0
4.2203870880479492e-07
4.1437097459587355e-07
1.6597761413650645e-08
-3.7991851497208676e-06
6.8003713328719771e-07
-1.4031002607708683e-10
5.6178334910588672e-05
-0.0010405485836129933
-2.4439367398178045e-09
0
9.1957289216035141e-08
0
7.1862211804910045e-07
0.00012012933546136409
1.9647153859947879e-06
-8.4555834244913118e-09
-3.4769546508654709e-10
-1.6220184133375982e-09
0.00018091930389223023
-1.841836094752719e-05
3.2582533709907059e-07
-1.810822495853888e-08
-1.3830227232978695e-07
-1.236693496177291e-09
3.6156489849763943e-09
-3.691601509786464e-05
-3.9910137043225811e-08
0
9.4360748582486154e-06
6.6420121064143912e-10
3.4073405120806197e-06
3.7170461159587044e-07
1.0588030921229376e-09
1.802977151730772e-07
5.907887338993513e-08
0
-9.3710832075750521e-09
8.2601295149982326e-06
-3.7438463445038449e-08
0
8.0115814340834716e-05
0
5.9103552637334899e-07
1.3271130463040414e-10
1.3156117168292697e-07
0
1.205383122342821e-09
2.1126259459611555e-12
5.8597883611807567e-09
-3.4461175772232566e-08
-2.2604470490946758e-08
-1.2289771485637656e-07
-1.2198524451055827e-09
0
1.5158339071612668e-07
4.9236022389631815e-07
-5.1218975265326256e-10
-2.9228305354101608e-05
-6.0564027373231415e-10
1.2587004538898442e-10
3.7841013802235402e-08
0.00070955747089980947
1.5164219612365397e-07
5.178804444463243e-08
-1.2455798920127625e-08
8.5074634613249291e-11
-3.9847623728649365e-06
-1.0879647089466512e-05
3.6132138326858195e-10
0
-2.793222315901326e-06
0
-1.5042769690970096e-06
-3.7382177436108185e-06
0
-0.00022461042104741989
-8.1008002316677959e-08
3.1427072176649749e-06
0.0001463100908259502
0.0013389631884850642
-0.017410725193882287
-0.0099296582901185881
0.00097243723729136021
6.0521681110165378e-06
0.023378558625927453
5.7398736549670798e-06
0.0048537925597917338
4.9438341910150681e-05
1.5450632644623558e-08
0
6.1000570772251035e-06
-5.4433538146300187e-06
0.00051336288934360859
-0.00020164438895395572
-0.030392463446548515
-1.1723717131489256e-07
-5.3186790048710041e-06
-2.240965563287449e-05
-2.9240474494840471e-05
-0.00011245311283053012
-6.1517591922308905e-08
-4.0132705489484625e-08
6.4914572680883303e-06
-1.9059144053806927e-05
-0.00015647866494839682
-0.03035835280647162
-7.5935608957764281e-09
-3.1919464146634739e-05
-0.00063940456299265628
-0.0076375910993919695
-0.0059322844921356407
-0.02467987743836433
7.7011961471490208e-12
0.0012184035116136703
-0.013224051208932658
-0.0073130625151641331
-0.002417296531860787
-1.7052780135245089e-05
4.3352967360114824e-05
1.4854591285007814e-05
5.389532136342863e-05
0.0057339379001724207
0.00064264700518610848
-2.1126862238090505e-06
0.0024510049949417329
-2.0869767852598126e-06
0.0063598432701154704
-9.2045126799994919e-05
-0.0007279674739669006
0.00019652196805658101
-8.6827300038999248e-05
-8.1665951719387525e-06
-5.7075035999372828e-07
-0.0024972893272361073
-0.010806315202422366
-0.00019635200660276177
8.0042821288000245e-05
3.7752475489565846e-05
-1.4732529318116475e-05
0.005153340432065447
0.0044241160361897149
0.0036560566934854509
0.00045678913342821502
-3.8045343801691617e-05
-1.5758311773384613e-05
-1.4104567010987544e-05
0.0019651992859358947
0.0017503219400333335
0.0033895568453953051
-0.0003655157011322335
-2.8128965564476633e-05
0.0022764705587535045
0.0066820875027705237
0.0038341668138605939
3.6933218266150088e-07
-2.0123166642118839e-05
0.00081236427343934256
-0.00023434152197225085
-0.0017168641185939747
2.6928384719975987e-06
8.3547013683766044e-08
3.6127043082893225e-05
3.8798136379898135e-05
0.0030560285547029911
0.00039049391677930682
-7.6043448100079866e-06
6.0070977469319613e-08
2.152149404273904e-06
0.00039908872152619922
0.00070160211359877043
0
0.0039386109896805358
-0.00086531751604827746
-8.1354160317998183e-05
0
-0.00013427982733775633
7.4441845548247097e-06
1.0167838546836512e-07
0.00025386269586711045
9.9845522528219334e-09
-2.459812953877881e-05
-2.8403792726050359e-05
0.00094970162985086434
0.015225107607754675
0.002909147950486711
0
0
-7.7449570288588299e-07
5.4045282146580129e-05
9.2119746273198596e-06
0.00037241493860551731
-0.00034976569021629865
-0.00014969424973861219
-1.8951277763324093e-05
-2.9510947709702782e-05
4.3331738257453268e-06
2.0679784659327889e-07
-4.4688626369705999e-06
-0.0032290879638716872
-0.0059233421007135519
0.015345953881288696
0.0018952738497590269
0.0010989808757787408
1.6776249649588145e-05
0.00011690062350200387
-0.00026430486449875522
-1.6247526057744267e-05
-4.209521882294704e-07
-0.00010846560766698445
0.0001992277605824702
-2.5906006973911921e-06
-1.6322577403683772e-05
1.3079845963940821e-06
1.2759220995208242e-05
3.4047896425673045e-11
1.3405117623461099e-05
-0.0066452067862829301
-7.9298912610607234e-06
1.0863760251294165e-07
0.0036936980222397457
2.5025561725606769e-05
2.1325980676236636e-06
-0.0028079273012212628
-0.0025012514567229003
0.0012112625732641881
0.00010425034680213168
0.00013955692332654276
-8.2551215132207838e-06
-4.7899185859623844e-05
-1.5485753274070641e-05
0
0
0.00041424121805241855
-7.1273453210946999e-06
-0.0013755429358308982
0.00076111664679937236
0.012904108419150573
2.525575189838999e-05
6.0826716304743469e-05
-0.00042839602258214226
-8.5438265468342832e-06
0.0016004700960259393
3.3679065725572681e-07
1.3101943594956396e-06
1.1362396794483749e-08
-2.7700119272088575e-06
-8.0427157813800498e-06
0
0.0060989924037595251
-2.2492483008656908e-06
3.1323105170019312e-09
4.357212760340484e-07
0.00029896899964359922
-0.00046082290452627213
3.3619180130266231e-05
1.1125560089250804e-05
-0.001423007180809341
0
0.0022798234258519616
0.02759736070457507
-1.1847400253742544e-05
-0.00028020096140091649
-0.00062622878501343668
-0.0016334985313605954
0.003394545006371793
0
-0.00011470086104325002
-3.933844412072994e-05
-2.7317420232925475e-06
-4.5036208796951587e-06
0
-5.2763931788163706e-05
-8.7978354123366361e-08
-0.0027092329269391901
-2.4492913200359056e-06
-2.1115069665830672e-07
-2.3576527163378223e-05
-9.829650152286412e-06
-2.6960522486137044e-05
0.0013077370761795189
0.00091530330552586688
2.8559078134179725e-05
-0.00016153552045972095
-0.0039705909142769488
9.562574936751824e-05
-2.094286206163821e-05
1.7810151681236572e-05
-8.6455639554376416e-05
4.5002440613605276e-07
0.00035631015004847504
-6.2310544485061014e-07
0.00010973562455079054
-0.00018697265488848688
5.6468024654781874e-05
-0.011655934296042158
0.00014845213416610654
-1.5230054521765556e-05
0.0061961087130768333
-2.2702927302810541e-05
-1.003542600357991e-05
-0.00092834999930000654
-1.0752107957633543e-06
-8.4315104741118043e-06
1.0094631679317411e-08
9.0729078949736807e-11
-2.5017094721965415e-06
-5.6968213563412019e-05
1.6578729203507455e-05
2.2720396348583805e-05
0.00010636875841393703
7.1955505992476015e-06
-1.1556609942564489e-06
9.3084469697041649e-06
0
-4.158638529432664e-05
-5.4755280680568489e-07
-0.0066687312352276158
-0.00012697394388012513
0.00044336224089198891
-0.017617786752122777
0.0019509600844689586
-6.7393294522604164e-05
9.7625851467859403e-07
-6.8999913299067558e-06
-2.3659477238361255e-10
0.0049515483140569255
0
-0.0071673354280900508
0.001048086484028884
8.5272663963925256e-07
1.3445969159443236e-10
0.00013142350924510551
2.1837766804631301e-05
-3.4712479677008778e-06
-2.8303698697608315e-05
-1.9934549019663376e-05
4.5315293588339141e-05
0.021619956813281375
-2.329624514347396e-06
-0.0010734907114359447
9.3895256378183783e-08
1.0745781983947208e-05
0.022707093682978758
5.1220742446325645e-05
5.8289416939683854e-06
0
9.2855641643719952e-07
-2.0047035107217718e-07
-0.024342119916202488
-0.0089524162320653109
0.00033123070259896269
-0.00093292842450853333
-4.8426222049553393e-05
-0.00079913708756426791
0.011813717005008459
-3.9270120329722601e-05
-2.6122404197804484e-05
0.0024864254509642048
-2.5070261067470093e-06
-1.31676504694097e-05
-0.00015535768216760865
-0.0056309583330949649
-7.6343884866969047e-07
-6.6577809965485886e-05
7.9219109039287787e-05
1.4246382506858629e-05
-0.00025844928657479173
-0.0057222713650228532
-0.0012390414386365368
1.9009873085656988e-05
-1.7629767511601244e-05
-2.0909822908022937e-10
0.00024923555417532281
0.0014865965735100866
0.00068990652458378744
-4.9069920312423698e-09
-0.00082147645341842934
-5.5762732511620126e-07
0.00016652114206791655
-0.00096700950660181606
-0.0016597909140189983
0.00020367737368598657
0.001251788230340766
-4.3780739097063953e-08
-0.0070532649947595222
-1.5438763117216418e-05
0.0025245431648407619
-1.6238201134660994e-06
1.8864991165522167e-08
0
-2.4554961235287966e-05
-0.002371961878769618
7.7297101233808285e-05
0.00087511001163379952
-0.0001776182633998884
0
4.1842846927386888e-05
3.4321079322662111e-06
-1.4334747033453805e-07
0.00019554229507699804
0.0032564034866883703
-1.2538876614480686e-07
-0.00014242817516654107
-9.9139820392479926e-06
0.012727640690836574
2.1168850987914967e-05
-0.0021131341814290801
-1.007468552919194e-06
-0.00025557777680530351
-0.010083101586949148
5.7362267394872734e-05
-0.00023854896790517579
-0.00010387182340772163
-1.0295148996757888e-05
0
-0.0033927255403542345
-0.00022175661929053382
-4.7249153618273763e-06
9.4358278407176966e-09
5.5456499946739312e-10
-0.006542704808877713
3.6144634220891545e-07
-2.1368267891174793e-09
1.6656186044327423e-07
1.0482584642939732e-06
0
-8.3759144901016765e-06
-0.00171164766433302
0
1.1428882902223581e-08
5.9131604004316646e-09
6.2117905236705924e-10
-2.4690862766845567e-07
-5.6500551933111344e-08
0
3.3967090973397666e-11
6.8195258191135159e-05
0
-1.6825309620583403e-07
-5.4132729947632171e-07
-4.8168595287148596e-09
-2.6303860679836502e-09
8.3712513835748745e-05
2.6670062870267837e-11
0.00074972398194548585
-0.00073425819990990406
-1.5061488344710641e-08
-2.3831351649103105e-08
8.4383503776592662e-08
0
6.1160890449366891e-06
-0.0018363734237403109
-1.3479030920465102e-10
9.838031684157196e-08
-5.0186442275468246e-05
5.9693116073086251e-09
-3.3854339622499545e-07
1.0975822159325344e-07
-6.0608077401440611e-10
-2.9537877205699355e-07
4.4432273051233034e-08
6.9226267171225249e-11
-8.3120660804314491e-07
-3.8095592233426582e-06
0
0
1.2589230360387034e-07
0
-4.5082222629163524e-06
-1.1508191597657896e-05
0
-5.6920191961453997e-10
3.3458871969375476e-07
2.7341779915408509e-10
-5.3312812650755198e-07
0
0
0
1.2900581967669368e-08
-5.1785234482266746e-13
-2.4039353054698396e-07
-1.5158896521132932e-07
-4.4128947890781742e-07
0
3.5771860686810451e-08
0
-1.3043919390979625e-05
3.2466989767907182e-11
-1.7936986342232081e-08
2.0932275841674299e-07
1.5282258104047169e-05
0
1.5692130002375783e-07
6.5515728760269984e-05
-3.0277770120737945e-09
2.8911279738704653e-09
1.5722983179269547e-07
-2.736633474020605e-12
0.00019513917126637271
-5.4174770210804868e-08
-3.3487016790801895e-06
-2.3636231660423261e-07
1.7861121967450484e-07
0
-5.270879684931408e-08
1.701215285389026e-05
-1.1111853713475052e-08
7.3182400784920691e-08
2.6994151623882649e-09
-2.1928949898072861e-10
-1.1712983161858445e-06
0.0013598953113732634
0
1.6127138598097953e-09
8.0833117578078395e-08
1.6895660801012156e-11
-2.9485894475539893e-08
0
0
1.8949587464675369e-07
2.1418626311830524e-05
0
2.7111393591661761e-08
-3.8695903381663622e-07
-7.9303016607235032e-09
-3.3363878888827829e-06
1.6883758158085743e-07
7.5699710533195765e-12
-5.7416813821489908e-05
-0.0010400405311434039
-2.9789636029401938e-09
0
1.0443768718913306e-07
0
-2.452716289536259e-06
7.2219984248101753e-09
1.1090418613182716e-08
5.3054721050437529e-09
9.4628359026527207e-11
1.0068425651507869e-09
0.00071186734425145799
2.6432721883087233e-06
1.6494696230567823e-07
-1.2271295257043534e-08
1.2350801747867651e-07
1.4282529594609946e-12
3.6854759138747956e-07
-8.83961697809457e-08
5.9784997684345875e-08
0
-5.3935007338029348e-06
5.3132878723307108e-10
-3.4130677088352386e-06
-1.3466849680094093e-07
7.1758836330409277e-08
-5.0421591723445125e-09
6.2082017615614184e-08
0
-1.8024302795225481e-08
2.8550287710940216e-07
-1.3177963564460417e-08
0
8.013659890006983e-05
0
5.9103552637334899e-07
2.597416262185669e-08
2.9404781500857825e-07
0
2.3038526715236718e-09
5.2766051923057882e-12
-1.5612593061652135e-08
1.1199315996993352e-08
-9.0956982494122681e-09
9.6543609514076199e-09
1.4352071898775679e-09
0
1.5158339071612668e-07
2.1494081891888816e-06
-7.9394218130875394e-10
3.2084349740427791e-07
8.4991946554983098e-10
2.4922190624572007e-13
1.6423325428005396e-08
0.00069157293162199472
2.7441690668942112e-07
-2.9239930465669575e-10
7.4133148118880651e-08
0
-4.1451326245131437e-06
6.5584240145285823e-07
5.1991146108705099e-10
0
-5.7513589109968806e-06
0
-3.0248761797115747e-06
1.8535681605727637e-06
0
-3.5185756114769983e-08
1.5235235959537535e-07
0.001437170779154062
0.0001203091515163342
0.020419178230080832
0.00056667939050258757
0.00081935851117464185
0.00096471529654013446
-9.9980190665113921e-06
-0.00043230076867899322
-1.4481559418826239e-06
-0.0068050946824598311
4.8280272079938425e-05
2.4450636199870439e-08
0
-6.3576431374368073e-06
-7.5042577322892057e-06
0.00051911753776748976
0.022326537282297561
1.3926022773484179e-05
-7.7270480953079458e-08
-9.3264268617689173e-07
-2.2315335375352353e-05
1.3581693634462484e-05
0.0001124526944795363
3.5445913670161576e-08
-2.2776112160590926e-08
2.236541789402516e-05
0.012093466771939716
2.8890758963281548e-05
3.9655652489100049e-05
-4.9800547127765398e-10
3.1683385687583821e-05
0.00020641613882102489
0.0040721591019569616
0.0059654126143200547
0.018195051165460267
1.0781876694519088e-11
-0.0012102922613182979
-0.013276480430249852
-0.020066595592952933
0.0013404876472244622
0.039854528095307963
8.0125367080215491e-05
9.7549603235624793e-05
-9.106521636554332e-08
0.0032210197120300637
0.0012113061167751348
1.9860518817055018e-05
0.0059927209540469066
-6.6971470049834038e-07
0.019967428662664061
-0.00011336777649453218
0.002139562766621209
0.0001965965614550196
0.000116825456448598
-1.7837732620612574e-06
-3.0779579577478422e-05
-0.0018645191889892655
0.00033311790370806218
0.00034917400202880318
0.0018961041513834744
2.4471184652248061e-05
2.6249261009903872e-06
0.005466350663848144
0.00051569690654265892
-1.7915750281621926e-05
0.0022109467834144627
0.00041254113153077129
-2.7090115076735256e-06
-1.0711737373855253e-05
-0.011603744353346584
-0.0026932621345498848
-0.0051269934889021877
-1.0282118359788923e-06
-0.00014130565020203126
-0.0032647353530517844
-0.0016000849433267944
-0.0036355891325507744
3.6561348701520685e-08
1.2321759998319086e-06
0.00044299727047959113
-0.00026500233568159642
-0.00034958754541804688
-0.020117504173714919
2.5545660671729401e-08
0.00017856560050361149
3.6220821169026232e-05
0.0041179527476593895
-1.5691517283749721e-06
3.0562079123676744e-05
6.0070977469319613e-08
4.9847295951398017e-06
0.00077500566557937444
0.00017411676593272578
0
0.0037751997113969673
0.00082167148374126303
2.4570948562027417e-06
0
-4.0357948550825409e-06
5.1773908884630752e-07
1.2526099828828086e-08
0.00025386269586711045
6.2717623459021889e-07
3.0338143871884699e-05
0.019723701579469847
0.00035731159903939038
0.015225107607754675
0.0031897289767219982
0
0
-1.7421344877287061e-06
5.8396654793824462e-05
0.0059977270362157427
0.00038733915620254254
2.0721184530607449e-07
5.8704223115010292e-05
-1.1203121546755312e-06
-2.4463860015838092e-08
1.1926814187955517e-06
1.8975634628690764e-07
-4.9683025318501402e-06
-0.0007401365051434637
-0.0083876261759247058
0.0059982539595498643
0.00089207791818523923
0.001177389544354167
1.0312938929695963e-05
-0.00051043638568783439
-0.00011822376361741416
6.2231701002332497e-05
-2.2484801589942019e-07
0.00017926518085170545
1.0264120059248213e-06
-0.026046455650696281
0
1.9133390330036537e-06
1.2853919379132788e-05
1.3457366188715092e-10
-5.7935970501805893e-05
-0.0015117537542151539
1.1882636356101035e-05
9.1845636936168466e-05
0.0037059065169727265
0.0065616229204301041
-1.0799157269426472e-06
0.0023906943214104907
-0.0025886746628811714
-0.00163222277670141
-0.00045901059415282924
0.000383561650982589
9.1224997315827617e-08
-3.715124615321341e-05
4.3022061990899263e-06
3.0399124417995724e-05
0
-0.00081198645828425256
7.4086479463947586e-06
0.0014761692676708703
0.0031022873637694876
0.00017547600352229561
-5.8643352530296792e-10
-0.00020989604168949357
0.00020253843624317368
-2.8464990047951242e-06
-0.0048347554940093912
-0.015083670639434468
-1.308481093598015e-06
-2.7612065898421417e-08
1.9133577313240903e-06
2.1487655576521572e-05
0
-0.016502557141155474
-5.4713799818996379e-06
2.9225808698690966e-09
7.7886559922768543e-07
-6.1175652972364047e-06
-0.00046261668382671634
-3.8765418848055631e-08
1.437678622030703e-05
-0.0015087221606647635
0
0.00193321932819191
-0.0013629162016031676
1.8089801965610008e-05
0.00018889398804829177
2.554387288589647e-05
-1.4940927895462888e-05
-0.00019375043628993324
0
-0.00010005759584732174
-9.7652378872318558e-06
-6.3583583405833991e-08
-3.280877952758852e-06
0
1.5059127169896939e-05
-3.5015194182665314e-06
-0.0012642451943508989
-1.9847236541668666e-06
1.5183484041591849e-07
7.8946924567397441e-05
4.8649107848971569e-05
1.8266864443261274e-05
-0.0012594841339610625
-2.8623820664000589e-05
1.3663466282287342e-06
0.00015513276513434227
0.003537652192396708
-0.00022349453676730237
2.1068747270015129e-05
-6.6645586600866498e-06
-6.6063500757336104e-05
-7.0123102776283126e-07
-0.00015372329174264613
2.4782957482527291e-06
0.00016757842038592715
0.00016102152219573759
-0.00019051441595765813
0.011612600934866516
-0.00013013988862555957
7.433573060934696e-05
0.0060378025994282459
0.00015433795859518909
-1.0723717368096978e-05
9.9787121638722754e-06
-5.9755729879212256e-07
-3.8223935922613068e-09
3.1481387437128429e-08
-1.1860378451212406e-10
7.9585561195636214e-10
3.1468949166177693e-05
4.1020963677307173e-05
-1.1670543952530042e-05
-0.00016086840484956164
1.4488386024642464e-05
-1.1624181311472362e-06
0
0
1.5027932676037073e-05
-1.0515457185178787e-07
-0.0067589262963070962
-1.9156555582716281e-05
-0.00013192882191415196
-0.01965641285492763
1.6606748771126506e-05
1.5881639333628589e-05
5.4402120536663255e-07
-3.2348296242240234e-08
-1.9635911512051223e-05
0.0053463124146662785
0
4.2789396907943239e-05
0.0024736266777802976
8.5274692890825181e-07
1.5122487692727888e-09
0.0001946567858154888
1.1284883155867164e-05
1.4910562263282641e-06
1.7811697432574125e-05
9.6213000251104718e-06
-2.550272390453022e-05
1.9873733586574733e-06
2.0212552310307479e-08
-0.0039814837722247261
-9.8493293247439617e-08
2.4177799758768026e-05
0
-0.0076154097406209492
-3.038700261538032e-05
0
-3.1376779496473847e-07
0
0.00010326590772571581
0.0091872435134754404
0.00015510730116979183
0.001541774335678278
-0.00011724073881132685
0.00076583032108000894
0.011974462567848931
4.3399534937648271e-05
-4.5271596015217094e-05
0.0024926495665058357
9.0445432043804508e-07
-1.3053205907326547e-05
0.00056653795321671627
-0.001845410079894625
-7.9146669446727828e-07
-0.0036381316989408004
0.000143549956624162
-1.3394194716362264e-07
7.2673827210960573e-06
0.0016730145462312768
-0.00060713319901929284
-4.3585100468600299e-06
-1.701561298279428e-05
-4.6040122520293487e-12
-0.00016650243704822868
-0.00033115371835119845
-0.00026543127999622813
1.1626573364026446e-08
0.0026597628677320728
-4.1772924300699642e-07
-1.9308608917785369e-06
0.00079244996697628331
0.00047477850199155312
0.00017617046704738589
6.5790858369743749e-08
-2.7594379608022278e-07
-0.0070505760406487407
1.5537033383488838e-05
0.0013887108039623661
-1.0508871731958494e-05
-4.513700017488225e-08
-6.2355784748882793e-07
-3.4055814738236849e-05
-0.0053380260528127031
1.9975731937081833e-06
-0.0035986018421507908
0.00065816425466400878
0
-0.00010646683556596835
3.1338740819309312e-06
1.6521457658506022e-05
7.153278566242919e-05
-0.0056112186297687296
4.7921843217574015e-08
4.0664952001050151e-05
-7.9858510179092989e-06
-1.0735418140728637e-05
1.4990368274074015e-06
-6.7884918034925525e-06
9.5736035260205016e-07
-0.0001057474550389337
-1.1856659630085005e-05
-0.00080374995209666494
0.0025094282374001219
-0.00011380348492352264
7.3867024566029082e-08
0
-0.00050293892769320923
-9.436839868556632e-05
-1.3818722577092492e-05
-5.8620311805477029e-09
-1.2266461855038766e-10
8.3309898373665211e-05
0.0031573930802678762
5.1860045894839626e-09
4.0877685050616512e-13
-2.1662356168555381e-06
0
6.4261513741066969e-06
7.0347953653532602e-06
0
1.2364040547285421e-08
7.2497274029984887e-09
-1.1351330007876415e-09
3.82036534130336e-06
-9.3256958966026409e-06
0
-3.3953695902745329e-11
-3.6089096326530499e-05
0
3.3546978560043131e-07
5.0986558197153976e-07
-4.6969792743255469e-09
3.7006822543490873e-09
1.1689986232105475e-13
3.5173342843115455e-11
0.000214443432185936
0.0013185414295794075
-1.5051833407130275e-08
0
8.0019840742935589e-08
0
0
5.356394037564962e-06
-7.7364591474505217e-11
7.2239852973302487e-08
-5.0189344696787881e-05
7.7147276289997132e-11
1.1411245583592281e-06
1.5585024110889477e-06
4.9079276697493136e-09
2.709335170287518e-07
4.3155409228224041e-08
0
1.9000037290664217e-06
0.00014954710530927886
0
0
1.2519599694034444e-07
0
6.2782799565214371e-06
1.0029035563167117e-05
0
5.7835536697032663e-10
2.7779115770139947e-07
8.9336497221289321e-11
5.9481326903905814e-07
0
0
0
2.3294352306434512e-09
-6.5287035197685011e-13
1.6807068914809384e-07
1.5316904539410505e-07
-7.6954721032313592e-07
0
2.6039570733866124e-09
0
2.9490976560733511e-05
-1.9361847618825383e-08
1.3938746813524163e-09
-1.4832237248340253e-09
1.2760732177920443e-05
0
1.3310287415646203e-06
0.00010347877767534959
8.5099133707043207e-11
1.167749677658005e-09
-1.8393778664533832e-07
-2.736633474020605e-12
-0.00061603561713624263
5.3295182447924853e-08
-6.4313123867194109e-06
-4.548040741340136e-06
-4.9402627808323933e-12
0
2.1499163443005209e-07
-3.9651736927235419e-06
-1.6609684998595636e-09
5.596197324306162e-08
-3.3645069373667971e-09
-5.6132445119279748e-11
1.2480423519728944e-06
-1.6496824498563843e-08
0
-8.9285254685141213e-10
-1.017731840761141e-07
-1.0390433430513243e-11
5.85632945921176e-09
0
0
2.7628470946244387e-09
-8.0618555659297105e-06
0
1.6049743187172381e-07
8.509305535214959e-07
6.1710167127330676e-08
-5.1527755060509731e-07
-1.0575820274023027e-06
-1.4142736059784148e-10
3.4141206180774566e-06
