0.50035111371478325
-3.8760780125170681e-10
-0.0049595360064483979
0.0026236981331691331
2.5848409776127039e-06
-2.8324727878248615e-06
1
1
1
1
1
0.49999706602421662
0
-0.0053831324863715139
-0.0065705849786353958
1.1939826299665634e-06
-1.9412313122283978e-05
1
1
1
1
1
-9.5643531355289138e-07
0
-5.0371134878923254e-06
-9.9513542584036519e-06
-3.5776288130767132e-09
-4.8402276377387464e-07
1
1
1
1
1
-0.0019846648080716575
0
-0.00020240527156330346
-0.00041005722519219721
-4.1536372877495424e-05
-2.7796707320541105e-06
1
1
1
1
1
-0.0005989795796047556
2.3165271704626922e-09
-0.0071725555144320661
-0.0037614377847202934
-3.0328016375911099e-07
1.5068278887459534e-06
1
1
1
1
1
-5.8583076460775934e-05
-1.3427065935976012e-10
-4.9284545285252313e-05
-0.016744414915791091
3.0884411096831905e-07
1.7058375601517695e-07
1
1
1
1
1
-0.0037525051948567893
6.501541511245989e-09
-0.0072815828430823912
-0.0017719547289060586
-1.5697453270921204e-07
-2.8431986074248655e-07
1
1
1
1
1
7.5112859034425974e-06
3.7560952905170446e-10
1.4951833231496229e-05
-1.7739498222160048e-05
1.1449424214757054e-07
1.9387614351104407e-07
1
1
1
1
1
-7.8751459911553047e-05
1.2663186251303332e-08
-3.7429196454973224e-05
-1.2076001580792498e-05
0
-1.2760734832774545e-06
1
1
1
1
1
3.127396269287298e-05
1.0141016332325616e-08
-1.2254558711861379e-05
-2.5064937048164356e-05
5.4788887908499861e-08
-2.4647266317617558e-07
1
1
1
1
1
6.6092593001555065e-06
0
-2.7022559630102372e-06
0.00020754868380015568
-8.8676233393718256e-08
0
1
1
1
1
1
-0.00012584392901191334
0
-7.3128123808217674e-05
0.00014409838150744608
1.0798492513316455e-05
-3.4452198775390821e-07
1
1
1
1
1
0.00011034627162094885
8.8213731719131306e-10
4.1311442117165861e-07
-0.00020172494542163757
5.1000723427902657e-08
9.1761330012038475e-07
1
1
1
1
1
9.959374114513788e-06
-6.9899076121800366e-10
-0.0031627400589242238
-5.4031251386853809e-05
2.2075068964236117e-05
-0.0004575275573020552
1
1
1
1
1
1.9858293212945702e-06
3.895810715709817e-10
0
0.00067302358988529406
0
-5.7369583957849317e-07
1
1
1
1
1
0.014763098480631837
0
7.2294476626645237e-06
-0.0023484914031649492
0
0
1
1
1
1
1
-0.00012106809708291183
0
2.9406720656977471e-06
-2.8565651108136994e-06
2.7895525423879378e-07
2.2935707489987416e-07
1
1
1
1
1
0.0001215732141896873
2.1113216428310186e-09
-1.5429499855469354e-05
-0.00030810802800958947
-9.9631524414805913e-08
-1.2530770059444831e-05
1
1
1
1
1
2.739095002609479e-05
8.1489078097753778e-10
1.2579440775099761e-06
0.0024339901781274551
1.6133970176625267e-07
1.8003741419523472e-07
1
1
1
1
1
0.00040208950113141664
0
7.7743808565447223e-07
5.6980057487538899e-05
2.6310607193197131e-07
0
1
1
1
1
1
2.3206305995450754e-06
1.6203047489249904e-09
0.00027224653563158387
-9.3091612594191787e-06
1.4950169915911268e-07
0
1
1
1
1
1
6.3662572102770509e-06
2.4583117195242395e-08
-2.9735858946105159e-05
-1.7199501445401828e-06
2.2278416565599534e-07
4.6290650381844102e-08
1
1
1
1
1
1.4967961007075315e-05
1.409199592596585e-09
4.7046524514628159e-06
0.00012808830372478474
9.6708754549041561e-07
-6.2817672675419759e-08
1
1
1
1
1
0.0057791489560781234
0
3.5547217272165564e-06
0
3.2904789795926743e-08
5.9978938971687844e-09
1
1
1
1
1
6.1591006932016525e-05
-1.2384698570358706e-09
-1.2236109541622934e-06
-1.7480777820143582e-06
1.5447059549644264e-07
0
1
1
1
1
1
1.349905146232223e-06
6.3627317017864389e-09
1.0129286962732694e-05
-6.4192882363180972e-05
4.7085728812089816e-07
2.5656995442276474e-08
1
1
1
1
1
4.559776245171116e-07
2.6286034548628348e-09
5.569090162599343e-07
-7.0456771331950633e-06
7.1326674783754513e-08
-0.00024964145826740053
1
1
1
1
1
-8.1538049141165936e-09
1.1437110798974093e-10
-4.4851716966747766e-06
-0.0017043168776412407
-1.0506636264457926e-07
1.3931622215351147e-06
1
1
1
1
1
3.8392800523573947e-07
-9.1258467343253462e-11
0.0035875028017004003
4.6582010975005744e-05
2.3521303870265423e-07
1.0912874778301135e-06
1
1
1
1
1
5.0813971073751334e-05
0
-1.336263327523938e-05
-1.7289830989342343e-05
7.6770846939567886e-08
-1.396992818425228e-05
1
1
1
1
1
0.44612690954270279
0.0001961408369599771
-0.00012620434177889949
0.0020796090152585354
0.058139423322789381
0.13244769330703818
1
1
1
1
1
0.81430348960613264
-3.3320745119780408e-06
0.0013310056439818695
1.5554346766261177e-05
0.024739398561749906
-3.6200228940899142e-05
1
1
1
1
1
0.96090831923852094
2.536852289741733e-05
0.010539065120171248
0.011749970538725693
1.7384153971371838e-05
0.0029853210590769612
1
1
1
1
1
0.88678754501561963
8.2412799096035039e-05
0.00013211927749735483
0.028702992923149304
0.10463326260059963
0.0007342573870171876
1
1
1
1
1
0.82059050732598304
0.00016925473814203567
0
0.0060138454876967496
0.010071663778061251
0.04444095117875202
1
1
1
1
1
0.94222319506859076
0.00097964498539558089
0.0022101159351052783
-0.012880626352865073
0.027345496379862017
0.0082736027662751871
1
1
1
1
1
0.62258621004509529
-0.0043319416785467793
0.021325911672740807
0.074663705321728432
0.013039374860308799
0.047663019228569144
1
1
1
1
1
0.82483756052512014
-0.0015574158032369589
-0.00040883107297527905
-0.15784725382040737
0.043562440341923983
0.12392122978296281
1
1
1
1
1
0.84529268650768452
-9.5735758336353189e-05
0.1444406347614427
-0.0010120523780293102
0.030151946020675818
-0.016069223542776147
1
1
1
1
1
0.82068793720620503
-0.0012111787712726326
-0.11884910707190048
0.063769194697082823
0.061251726223236623
0.00098593282682248799
1
1
1
1
1
0.5195323035073055
7.554963621502976e-05
0.0011633701918072096
0.029340569009389639
0.019755476295391844
0.12512656720655013
1
1
1
1
1
0.96573667111432526
0.0028661682754913256
-0.0016131444003885359
-1.3109245224227026e-05
0.0087748722418796946
0.005257232643389541
1
1
1
1
1
0.88887594102191325
0.013188139349747321
0.017855629065473482
0.0076671882328280408
0.22545884997584967
-0.0019676505341756283
1
1
1
1
1
0.56019062551211596
-1.3598678355211849e-05
-0.07046328026773449
-0.036906044630653528
0.1343886823338242
0.039141072113742889
1
1
1
1
1
0.63419200179078283
0.00038528100031828176
-0.13267798050568713
-0.0016285841942461742
0.0012783340133956027
0.042452753248929033
1
1
1
1
1
0.90773819221901109
-2.6251618827731466e-06
0.12261915471714704
-0.00017481527879039605
-0.00057839236844325079
0.096637062302858581
1
1
1
1
1
0.50682291491546572
0.00028135448245419827
-0.0017580824823715364
0.064930856298574979
-0.00014898331993847276
0.00013651769563282105
1
1
1
1
1
0.5552172477634475
-0.00016700763097031402
-0.039106358132893176
-0.00060881096848121687
0.071763331989422641
0.12861950863333024
1
1
1
1
1
0.83889205190746141
2.9655708601617832e-05
-0.063874635839365812
0
0.00013524762120859752
-0.013158548475341147
1
1
1
1
1
0.70815539712917697
0.0028800746186983832
0.00044358177027140793
0.22323148968695558
0.00054590076894140294
0.00081817869613391497
1
1
1
1
1
0.62411907983598081
0
0.070270292638990151
0.036221859955451137
0.064857911724359577
-0.014476654823571968
1
1
1
1
1
0.71167088142599311
0
0.00031858085989171285
0.029676311602993222
0.0017426423941923606
8.505512614451186e-05
1
1
1
1
1
0.61987312347219625
3.9032574146052182e-05
2.7244218797990348e-05
-0.081700423203794531
-0.00019104284904264616
0.052613167251387066
1
1
1
1
1
0.67529102503353244
-0.0025412479082774671
0.013505334386511756
-0.00030314241388813238
-0.00063974503023891754
-0.0025248989272442829
1
1
1
1
1
0.95304266695517292
-9.6729835689462667e-08
0.055040361425028266
0.039804521122587658
-0.0015884817772136052
0.00035188360046082033
1
1
1
1
1
0.57426632477236039
-1.4524224834007986e-06
0.21723316905141865
9.6026768250965291e-05
-0.00032850188491443348
0.00037790144569364728
1
1
1
1
1
0.66267727483146177
1.1424627590677073e-05
0.04505354595446015
-9.8783735478140039e-05
0.0450643974791618
-0.0022008260202092144
1
1
1
1
1
0.71971327370184723
0.0007923087759117471
1.3320379050647371e-05
-0.00062289648988837884
-0.0082115660383057267
0.059674406313093217
1
1
1
1
1
0.79227697788089457
-9.7644503251449047e-05
-0.16844283552095268
-0.0028646904517479585
0.055329994040654397
0.085552850470486511
1
1
1
1
1
0.11677353003226003
5.9998059960960178e-06
-1.8751043526253406e-05
-0.087133650261638884
1.5127965913094206e-05
5.2819464377480673e-05
1
1
1
1
1
0.023402124615573443
1.0267053979486135e-05
-0.06548175628810643
-0.22376949768808241
-9.3708206566311465e-05
0.028391243502496014
1
1
1
1
1
-0.019411751273166251
-2.2293341238038171e-06
-0.00033364337388079308
1.467058966104005e-06
0.0088768433472361762
2.1448897729848915e-06
1
1
1
1
1
0.072403412950114848
0.00014093301287067215
0.00056559857908476555
0.00072941073819727772
0.090148911513675462
0.0033470318097252789
1
1
1
1
1
0.0090579939638779031
8.4367668510961621e-07
0.010728906425157137
-0.0087926882855760419
-9.5300782733019946e-05
0.016816395913833944
1
1
1
1
1
0.10713633677453893
-0.00064095768921382842
-6.1389351913821032e-05
-0.003769343538529992
-5.8773406694983078e-05
-3.811961223900725e-07
1
1
1
1
1
-0.00035940359306593518
0.00016082532733009295
-0.035501021165450931
-0.0033504463407719653
2.5868454167192292e-05
0.00014402110480588159
1
1
1
1
1
-0.044337363897487728
1.1887194493578079e-05
-0.0046054743909035301
-0.0003245375388790808
0.00013718866043531123
0.0090520598580730079
1
1
1
1
1
-0.067197362283997947
-2.4915646084108252e-05
0.00012481415413263022
-8.0992517632593323e-05
4.8412748119269743e-05
-4.0554185557206676e-05
1
1
1
1
1
0.056951672052777194
2.0552625848528739e-06
0.00080562603940182234
0.0039638272133362988
-1.7102504798117667e-05
0.00011009850646523524
1
1
1
1
1
-0.12040645097729503
2.5516168831882076e-05
8.4829853427575487e-05
-0.00032629494056624661
6.3730897287628762e-05
3.3854915641112009e-05
1
1
1
1
1
-0.09412739777953992
0.00012964024281527595
0.0002767588729895822
0.14611798830193634
3.275833159786449e-05
0.00023811485476713047
1
1
1
1
1
0.10095558313458229
0.0015276873672826073
0.19875565189338698
0.038902741257895689
-1.2313016669566832e-05
0.00010898555781936393
1
1
1
1
1
0.080820414263936255
3.1981483896297428e-06
-0.026831728420654937
-2.8425828431548645e-05
-7.8479467683530878e-05
-7.0165587089180144e-05
1
1
1
1
1
-0.013196168262404851
3.1726560959923567e-05
-0.0005836880062761265
0.048062662531821759
-0.00042270994938850434
0.00050780118045838716
1
1
1
1
1
0.0020196424444390605
-0.00025403001806661399
-0.025494705903267082
-0.030484885358588818
4.928047603165347e-05
8.8453883175360032e-08
1
1
1
1
1
0.001216637852605751
-0.00027910978750836748
-0.084349163235931432
-0.057366582710950659
0.013536022919255826
0.012271007587440321
1
1
1
1
1
-0.0024412951935908265
-0.0034266788494232208
-0.011426152810845098
-0.00021522963434791946
-0.00011548220095260211
0.0088929881441056607
1
1
1
1
1
-0.011153530132612681
7.0423615988992127e-05
0.00015472555405693071
0.059818137849469398
-9.241282532024667e-06
0.0012377825776349553
1
1
1
1
1
0.00041195689477635181
0.000167842614184999
0.042560138380229512
0.013844912670540027
0.0081491881056046135
-8.7722049442849877e-05
1
1
1
1
1
0.066168043885582131
4.6869458730057348e-08
0.0013471195361471179
0.0079703088384725958
0.00071399564885692949
-1.2952235109867387e-05
1
1
1
1
1
-0.0016565700229027949
1.5623950054185876e-06
-0.00059759644972370764
-0.013414026805216519
-0.046975126821690812
-6.6007255990068012e-06
1
1
1
1
1
-0.093502879768979183
-0.00013693410682246045
0.032253507553447691
0.00049872039875840295
-0.010744993618286531
2.8785813081948859e-05
1
1
1
1
1
-0.0095204159813361815
9.3599921260032403e-07
0.0015062448359045985
0.010454741096010481
0.042231056485737592
-0.009541123773757822
1
1
1
1
1
0.093528221859709409
0
0.055516852081125979
0.15708802871265765
4.571421101467738e-05
0.00034603376438255057
1
1
1
1
1
0.0037626916973722544
4.5731052979291811e-05
0.035686284326346601
0.00107780260280322
-0.0056603465464647364
7.3166504902536952e-06
1
1
1
1
1
0.019463169782487015
0.00054051051693789333
-0.00075403456795622339
-0.13646569013086113
-3.2655607470622834e-05
-0.011585612760603005
1
1
1
1
1
0.1041724570800408
-8.6051393839336272e-05
-0.19528905474501321
-0.1228621570340838
-0.0047009894646074723
2.8650639093316773e-05
1
1
1
1
1
9.1518074064908048e-10
3.559253174640294e-11
-0.0029077981951979078
-0.0098490965056077916
3.5521486475754597e-08
4.2753641160775855e-08
1
1
1
1
1
4.8133875965420667e-08
0
8.6501468222029363e-05
0.001110186758087383
1.7802593111900778e-09
3.6475758305304984e-07
1
1
1
1
1
9.9801727973979544e-11
0
-1.7371530845563576e-05
-8.7910217842162363e-05
3.1073024179697955e-07
-1.7849874243355746e-08
1
1
1
1
1
4.5025625920215726e-05
0
4.8871439171850777e-06
4.1188787307259473e-06
2.7663177256748958e-05
1.607420771359253e-07
1
1
1
1
1
1.9763601765060962e-09
8.9052444462583911e-11
0.0007275176596304012
-0.00018225730774249586
0
-2.6153464824625621e-07
1
1
1
1
1
1.2465455142606923e-13
7.7922005508153893e-11
-3.8194596349175573e-06
0.0021076305078525058
-7.5397433477241251e-12
1.1772865268665119e-09
1
1
1
1
1
5.1668922486314293e-09
8.797198115910812e-11
-1.3620542302063361e-05
-3.3851466921293e-06
0
5.5058027376039941e-08
1
1
1
1
1
2.3191669925831328e-08
-6.4320475224513839e-12
1.108900833660654e-07
-3.2882297056747098e-06
8.8983124674385481e-09
0
1
1
1
1
1
-3.8992696700877421e-07
-1.6275686886952855e-13
0.00055688130699236746
-1.8796290891476717e-06
0
-4.9927738195558501e-10
1
1
1
1
1
-3.701604835939931e-08
1.6332480922075387e-10
-1.0434584266096097e-07
0.000168194572860261
-7.4810226548513304e-10
0
1
1
1
1
1
-2.3525238849562386e-08
0
-3.7872482604852758e-06
-4.8148763354666869e-06
-3.2865339921488109e-09
0
1
1
1
1
1
-3.9155802636653203e-08
0
-3.4274554960864792e-06
-9.3331485105095457e-09
6.6413244692439293e-11
-6.0895341352925732e-10
1
1
1
1
1
-1.3463281098535155e-05
-1.3861342642757959e-12
2.5111837658546502e-09
-0.00024400912264413281
4.4466687134572478e-08
-7.7580102688135188e-08
1
1
1
1
1
-1.6933261320287786e-07
1.9149097810313571e-10
-4.3311705408270261e-05
1.9983481042773606e-05
1.2007516403900904e-06
1.4206065458983347e-06
1
1
1
1
1
-1.370641436328761e-12
7.6684582907337835e-12
0
-1.0589876066998847e-05
0
1.7647502809439017e-07
1
1
1
1
1
-1.959186316779344e-09
0
-2.4255752000916275e-07
-4.8134017368929962e-06
0
0
1
1
1
1
1
-3.2484952822645559e-08
0
-3.8270979057778614e-06
-6.8837787692345485e-07
7.2225945688973664e-09
-2.3765102047315122e-08
1
1
1
1
1
-7.9501535687533001e-06
0
-8.8280159253614756e-06
0.00042169970235881097
2.8199985100112116e-13
3.5104961638839541e-06
1
1
1
1
1
-7.8344532151480839e-09
0
7.8118187788553652e-09
-0.0010449417233983945
2.4320903296119291e-09
1.9748337863090876e-08
1
1
1
1
1
2.2656028986444426e-08
0
4.2086101285876966e-09
-0.0002857766447487345
1.1654766178155332e-07
0
1
1
1
1
1
2.9614425521470837e-08
0
-0.00029956924320647185
0.00023961187050570111
-9.0363522765534452e-09
0
1
1
1
1
1
1.5870087228591579e-17
-4.9822257049748755e-13
-3.0340204578132774e-08
-7.8829977179075219e-06
3.6454635075502311e-08
4.8729538596545305e-09
1
1
1
1
1
3.5313644296700846e-06
2.8258035778412165e-13
1.381724830416653e-09
-2.9137509397817949e-05
7.8957031026995809e-07
-9.9486772703298019e-10
1
1
1
1
1
4.611706209733318e-08
0
-4.5547831722514044e-07
0
2.6990341903078431e-10
2.3934382797745523e-10
1
1
1
1
1
1.2779101948859783e-11
0
6.0556062336666665e-07
-1.6429179195791097e-06
-2.304120137729681e-10
0
1
1
1
1
1
4.4440627853787804e-09
-8.8222066173303603e-11
4.5825663546422731e-07
-9.6507795880975344e-05
0
-1.7697559970725831e-10
1
1
1
1
1
8.5389729000597051e-09
3.9800547001713679e-11
-1.8166106033993829e-06
-3.9231131792458143e-06
7.9395104808956988e-10
9.7561065024505637e-06
1
1
1
1
1
2.5709868814293693e-14
5.9959041735720455e-11
5.2619867840070857e-08
3.5024643772954368e-06
0
3.4448097689861298e-08
1
1
1
1
1
5.3327180147651596e-11
-1.8065879978920994e-11
-4.2930315762852701e-06
-2.14461971498297e-05
2.8170690392977393e-09
-9.1966794175869897e-09
1
1
1
1
1
1.8083304555353508e-09
0
-5.733818402263096e-07
-6.1089570463733396e-06
0
-1.2623398054744652e-08
1
1
1
1
1
-5.2094925594307654e-07
3.8613477626029553e-06
0.00085693310620353711
0.012100485525282548
-1.0967338971225434e-05
-0.00055976555767197473
1
1
1
1
1
-0.0011903683727099651
0
0.00059690654755966842
5.3892384529169976e-07
0
-4.4101259282716777e-06
1
1
1
1
1
-1.4676836763856221e-08
1.695510821062359e-08
0.00019778240882561504
5.855942895551252e-06
2.2693112474652368e-05
6.5869710280749895e-05
1
1
1
1
1
2.6802559769629746e-05
-1.2332068481927003e-07
-3.5712350883724995e-05
-3.7268914786105342e-05
-0.00011758925956178626
1.135691372434783e-05
1
1
1
1
1
-1.1164451569407378e-08
1.0841917704856667e-07
-1.6261928917610247e-05
0.0001166972217854092
-6.0067421130361939e-05
0.0020828540551475548
1
1
1
1
1
2.0313022486299878e-08
2.6155239172337432e-05
-0.00042454596133932924
0.00026672579020816902
0.0023520257100267681
4.5230814216978256e-05
1
1
1
1
1
-2.9030285067198868e-12
3.8530313325281606e-06
0.0084215195823092153
0.0087685720271216232
-0.0012372086176284686
-4.2702149342155084e-06
1
1
1
1
1
-8.0775118043228646e-06
7.5640632303987128e-06
-4.6558181787594625e-05
-0.0060927169446657664
-0.0012340571812013246
-0.00010557892131810217
1
1
1
1
1
-1.0787443186997564e-09
-4.2181439140589124e-07
-0.014185188326590327
-1.9984983535212123e-05
-1.3855846109266513e-05
8.2535958738612705e-05
1
1
1
1
1
-6.6255021961364512e-05
-1.6335846623752265e-06
-0.00096661046830031738
-0.0043949829672123696
0.0030816888341638391
-0.00022161029102839828
1
1
1
1
1
-0.0006004127952382723
-1.3003657256950167e-07
0.0001221934762396269
-0.012831062129640051
-0.0034857273525583758
-0.0002660810003706184
1
1
1
1
1
-0.0019233823532045385
8.9109262342530515e-05
-0.00044129439279622291
5.0314426558645878e-07
5.9724417634816572e-07
-0.0028033702560056684
1
1
1
1
1
-0.0015887415632574121
3.7079651376624018e-08
-0.00030787367110903305
-0.0016679683897622723
-0.0033769396125531721
-0.0040767978782990898
1
1
1
1
1
3.1228808079496253e-06
1.1136811739717363e-07
9.8871418013615281e-05
0.00012460533505393676
-0.0026144674315858639
-3.3382833917830772e-08
1
1
1
1
1
2.0718168376183136e-07
-7.0671431918250448e-05
-0.00033553105470814017
-0.00048549115106898588
0
-6.2584408366356161e-05
1
1
1
1
1
0.00018016696653318706
8.8019738951669779e-08
0.00028591101138475216
1.1727303578003009e-07
0.00019436812327069987
-0.0028040735090567219
1
1
1
1
1
-0.0046772521292625996
9.1736431799572106e-09
2.0322561135664867e-05
1.0174653308174417e-06
-1.8761310881654206e-07
2.5167470324065592e-07
1
1
1
1
1
-0.00017747834930731323
0
-7.5809263662883456e-05
8.8298923131488284e-05
7.1783544641460682e-07
0.00028401195255672033
1
1
1
1
1
-7.6759422940032444e-05
0
6.1232295064750349e-06
0
6.5646685298050935e-06
-0.0028122736795029787
1
1
1
1
1
-0.00022928209017258037
-1.4227213500850706e-06
-1.0797590000401481e-05
6.3875790048370211e-05
-4.6537616366920594e-06
2.0521893559634861e-06
1
1
1
1
1
1.5848819947624969e-07
0
-0.0012819447717076749
0.0068070998754261513
3.3403468076874292e-06
0.0021147032873101417
1
1
1
1
1
1.2811932293195216e-05
0
5.2696413827248624e-05
0.00014417629971047978
0.00017311183398498005
4.7206780784344337e-06
1
1
1
1
1
-1.5070145293288758e-05
-6.2438917806170998e-07
-0.026074710811702727
-3.1626361584972965e-06
3.4583753931818517e-07
4.9280448740850897e-05
1
1
1
1
1
-4.239794803636842e-10
2.2465808443582877e-05
0.0015576997491436491
-6.5533498861272723e-05
-2.0075326534781798e-06
-0.0024516362121887567
1
1
1
1
1
-0.006119820272797975
-5.5419530988684366e-07
0.0035133235370754345
-0.00016054649339941601
0.0013706259009312414
0.00037808828746752705
1
1
1
1
1
-1.7204250146045726e-05
-1.1893906998685267e-07
0.034045155480175032
1.5352153729467755e-07
1.694815476316633e-05
0.00015613351354849456
1
1
1
1
1
0.0010962857680574245
6.770675123267317e-08
-0.0048276408622913878
-1.3841513700946041e-06
2.8617532501293202e-06
-6.6661016807631419e-08
1
1
1
1
1
0.00075410021959636145
0
-1.317108081561628e-05
-0.026456785603763681
3.8502003144608846e-05
3.4755227563507245e-05
1
1
1
1
1
-1.8059304587204998e-09
1.03534498293731e-07
4.2625751490892924e-05
0.00041836730107824383
7.5176301646102234e-05
8.1216858528062935e-05
1
1
1
1
1
-1.9295950110464785e-09
1.5783955805634695e-06
2.2912468218306188e-06
0.010734656356797647
1.3713618473464224e-06
-1.6983237299578063e-06
1
1
1
1
1
0.0014325669677247358
1.1351170363555295e-07
0.0050796138226648184
0.026655878708004042
2.9247131718807807e-05
9.1369653232773699e-05
1
1
1
1
1
-0.00054171249139320431
9.8048221689628854e-08
-6.3161293967812943e-05
2.4981995924122868e-06
-0.00013231655343814243
2.6882778006793569e-06
1
1
1
1
1
-2.4189649352451894e-06
-8.6873293078706663e-08
1.7908836111548261e-05
9.0017255033261886e-06
1.9233131844116325e-08
-0.0003087816094293284
1
1
1
1
1
6.2571324736368791e-06
1.2147944801184544e-08
-0.0028231106327200398
-8.4677303648096985e-05
1.4242968252473267e-05
0.00032612262588751183
1
1
1
1
1
-0.0002941829306949523
5.2207325044453725e-05
3.1272314424898263e-06
-0.00055387053265178285
-2.6324218185214307e-06
-3.1555145274169752e-09
1
1
1
1
1
-3.6106620227799447e-05
2.7851026982350353e-05
0.0022013607752055741
4.9291757884868222e-07
-3.3376065269914541e-05
-1.7985771013721586e-06
1
1
1
1
1
6.2830120081419925e-05
1.2938522424345577e-08
-0.0012312751308715035
1.8962070839167749e-05
0
0.0058121118870508607
1
1
1
1
1
6.9243584670578283e-05
-1.2180326120119848e-07
6.0147816127666125e-07
3.3869777023876194e-05
1.3515130684856144e-05
6.8486448375377226e-06
1
1
1
1
1
-5.5484886878313876e-11
-1.2400722051839284e-08
-4.6431481565244312e-07
1.461254053140829e-05
-5.2465721540757615e-06
-9.8621779578664701e-05
1
1
1
1
1
-4.0941506620289184e-05
1.1467126949205668e-08
0
-2.9318339282139545e-06
8.2686186492237037e-09
-8.6332638271224718e-06
1
1
1
1
1
0.00012560490558218457
3.4284679622643981e-07
6.0189844104371879e-06
-0.019590031344486225
-1.4728920456860164e-07
-5.550337072633971e-05
1
1
1
1
1
5.4992545081737706e-05
3.8239270414776764e-07
1.2457909355947372e-06
-0.0049181926730777169
4.0865891764432753e-09
0.0071269690858336713
1
1
1
1
1
0.0015955418732529502
1.4626027019624569e-07
-0.00019241915680389494
1.6360155764047462e-05
-1.2472350570627063e-05
9.5829632437030417e-07
1
1
1
1
1
4.1446699097176024e-06
-1.7678448269329314e-07
3.9026558689175451e-05
0
8.9921721236317477e-07
-0.0049650738703184765
1
1
1
1
1
-7.7174470923468867e-08
-1.5869729965334083e-05
1.2880137627993531e-07
0.0082087385434982951
-3.6607439640127258e-05
-1.8115835503279947e-08
1
1
1
1
1
-7.1596524197766612e-08
-5.3521529223211499e-08
-0.00018723617347154168
-0.0086301568748178639
-1.8247401174020605e-05
-0.0038429402836274553
1
1
1
1
1
8.7932587978017184e-05
6.4352804318554623e-08
0.00010411548593263177
2.7662301360304309e-05
-2.4436462427559513e-05
-0.0025118415377024727
1
1
1
1
1
-7.4748179233785228e-07
-6.4794674623750987e-07
4.8375576848738588e-06
0.0055246902213913129
0
0.0017562593742409345
1
1
1
1
1
-2.2059217799556551e-05
1.2017770267664537e-07
-0.0038843627937811057
-0.00050344863121566956
0.00053151760341432189
-0.00010405553820652705
1
1
1
1
1
-2.2665227062835066e-10
-1.1246431190744032e-07
-0.00020037641295362618
-0.00042128780457258472
-0.00011290057937141213
-1.7139030933736878e-06
1
1
1
1
1
-0.00074331467781180377
2.8565348291831136e-08
-0.00031252737314271768
-0.00053853542143435164
-3.9205773661607416e-05
1.4815662074453797e-05
1
1
1
1
1
-0.0013377632562444708
1.4031162371977205e-07
0.00074763050822792361
7.2257876713114423e-06
-0.0026055407279786729
-8.0600562810750025e-06
1
1
1
1
1
-1.4859090560026845e-05
0
1.8777756978028879e-07
0.0035834455189158697
6.5235011229817238e-06
0.0021848690358037296
1
1
1
1
1
0.00082302141124989618
0
-8.8085250425829156e-05
-0.00019310965609094872
-2.7789785670295854e-06
1.9808640497441421e-07
1
1
1
1
1
7.8360272340841856e-05
-2.1988534261719959e-08
-3.82252831185689e-05
-0.00042849246734824077
5.9408292981582786e-05
-2.306032767886356e-06
1
1
1
1
1
-6.243358098066824e-07
-6.9067423538377931e-08
-0.0011096769512785461
-0.0079927717007049984
-1.2894944227390629e-05
0.0011375958022927467
1
1
1
1
1
1.6763842860609647e-05
6.3078989146573241e-07
0.00010800831672338664
0.0019271653391573658
2.6117596276513615e-05
-2.5181908126233256e-06
1
1
1
1
1
-2.4935525707801794e-09
-4.3254044817388327e-11
-0.0072984190319424465
-0.0013106172749212282
2.5926551087546534e-06
-7.8757016639258042e-08
1
1
1
1
1
4.0007304448608468e-08
0
-8.2279096375337293e-05
-0.00087912245430027001
5.2837692251350348e-07
-1.0955991735638257e-05
1
1
1
1
1
4.7439973331887005e-11
0
-3.7152186426841561e-05
-9.3911479427753861e-05
2.8973690816898546e-07
-3.4666404838128881e-08
1
1
1
1
1
1.9257856968218033e-05
0
4.866119949635678e-06
-4.9115885868840733e-06
-8.0191915276028957e-06
-8.1624992109961515e-07
1
1
1
1
1
8.0432548038725192e-05
3.6294503111161645e-10
0.00084959542784905705
-0.00014519374979621441
1.8332632356502469e-06
-2.9571784613467779e-07
1
1
1
1
1
0.00014218407229473574
-1.3518146215145571e-10
0.00043925767326784482
0.00015427776033900248
1.4419856537668119e-08
-1.730116969931673e-07
1
1
1
1
1
5.1203455536551837e-05
1.589678288906973e-08
-1.2223014300408386e-05
-1.4845397884639363e-06
4.7765971949182904e-08
-8.7142642624077848e-08
1
1
1
1
1
6.3544381812963611e-05
1.6781158964218086e-10
1.1089008343530907e-07
-7.2765060298527658e-05
-9.112884776653972e-08
-1.4656473408193332e-07
1
1
1
1
1
-2.3548076160045363e-06
-3.9135986736478494e-09
0.0015218385784998524
4.7088588788067589e-07
0
3.34479983129488e-10
1
1
1
1
1
2.4166999618455747e-07
1.6674681661304266e-07
-0.00023027499621750336
-0.00017012535492301879
3.1244438527168768e-10
1.2003296823671973e-07
1
1
1
1
1
1.2316027668821777e-08
0
-1.020813200203756e-06
3.9076976660014168e-06
-6.4709625562727283e-08
0.00041229714405119171
1
1
1
1
1
4.4824136812742045e-08
0
-1.0433889108932125e-05
4.7774337132718694e-09
-5.8770948291489044e-07
-1.0992473014562288e-09
1
1
1
1
1
1.3588638708637779e-05
-7.0838137521751876e-11
9.2695657928490271e-09
-5.9752453877244789e-05
-7.5014792057880978e-08
-3.2260703178643354e-07
1
1
1
1
1
4.388777820072241e-07
-3.5404864248099384e-09
-0.0003563850033797132
-1.6903739215139835e-05
3.0745007522750872e-06
4.6810362925575921e-06
1
1
1
1
1
-1.174607378572618e-07
-9.1876720716470724e-12
0
-7.7662532641404198e-06
0
-1.3043737914289672e-09
1
1
1
1
1
1.8440821327467261e-09
0
-9.2294492245854758e-09
2.0654149787550882e-05
0
-4.1234431277039872e-07
1
1
1
1
1
3.5435079937275448e-08
0
-3.8289834133889262e-06
-6.3533048381879532e-07
-8.6966146233673904e-08
2.3212744442171632e-08
1
1
1
1
1
7.3963825943781335e-06
-8.2199359334022225e-10
-3.0953426553196661e-06
-0.00038287399722210903
-3.6641512644795864e-13
3.8164841012547693e-06
1
1
1
1
1
3.0609785958577049e-07
-2.9881029296223725e-10
-2.4419355478178444e-09
-1.243242713080922e-06
-4.5305232565289543e-09
6.2230757542256942e-08
1
1
1
1
1
-1.860726433774156e-08
0
3.7174048144506913e-09
8.6251515682586922e-05
-1.0501311471946276e-07
0
1
1
1
1
1
-6.3711169489976305e-09
0
0.00031093703997676561
4.7299749564253501e-06
-3.7818211396315459e-08
0
1
1
1
1
1
-1.7254049702311911e-07
-7.0777992866029095e-09
-4.1215549925406108e-08
-5.2864218509614139e-06
-2.4160247334264889e-09
-1.5044887313045276e-08
1
1
1
1
1
2.1951956335864559e-06
-8.4085864022077549e-13
1.6640130266093703e-09
-3.6551549732228954e-08
-5.653602751423311e-07
-1.3033500420816752e-08
1
1
1
1
1
2.3847857071069525e-08
0
-2.2403076687997822e-07
0
1.0072955929490155e-07
2.0043196974089696e-10
1
1
1
1
1
8.8487551877672991e-05
0
1.9611451102365099e-06
4.6673219215028331e-08
-2.5556474473025261e-08
0
1
1
1
1
1
-2.139523492933569e-08
6.4038485817419032e-09
-1.134487089246059e-06
1.0269624747112092e-05
-4.779651852539077e-07
-9.0929681182989711e-09
1
1
1
1
1
1.6498670905837989e-07
-3.3360322041473649e-09
-1.7177985417124385e-07
-7.1327413808066592e-06
-4.1422400666854078e-08
5.1930382289549557e-05
1
1
1
1
1
-1.6964563762802558e-14
7.7148914656001756e-11
1.8029763977314353e-05
-7.3850195750890994e-06
-2.2316688285352844e-07
6.2336147254842131e-08
1
1
1
1
1
-2.6686829575884938e-11
-7.131676530316276e-11
-1.2451590985629706e-05
-2.7294186701537348e-05
-3.7511151742539483e-09
7.8423624028448525e-09
1
1
1
1
1
-2.8479650187228211e-06
0
1.6745041424929685e-06
0
-3.0719265015645883e-08
2.9179514595654726e-05
1
1
1
1
1
-7.9332022596757345e-07
-3.8628058464188098e-05
-0.00015733022001931205
-0.007690028613778376
-0.069875357131958207
0.0036321614878603312
1
1
1
1
1
-0.0017147482091503206
-7.06836228548364e-06
-0.041795577074950033
-3.0252362739418707e-07
0.0052565419423194291
-4.5244613516997946e-07
1
1
1
1
1
1.2308485511777826e-07
0.00020200547046018093
0.0035955450098819242
7.2111848794337063e-05
0.0014304932015577719
-0.004752974890703544
1
1
1
1
1
-0.028493823238447076
3.0267464407674419e-05
-5.5202698962888479e-06
7.4514474272948224e-05
-0.098130607776156703
-0.0088463539601663956
1
1
1
1
1
-4.2811650672546278e-08
1.9480666487571045e-05
0.00017006376237376256
0.060407701426660784
-2.2084008561215455e-05
-0.077905219918711632
1
1
1
1
1
1.8548356229059569e-08
-7.5119080935734118e-05
0.0072435413723523408
0.01367857706254132
-0.0042403876657921115
-0.031071675525005248
1
1
1
1
1
3.7750171333697029e-11
0.0024743880903183154
0.0081416097176618806
0.0027732606473539175
0.0023930310996846675
-0.042046632911655397
1
1
1
1
1
7.389880691390243e-06
4.3254305564266675e-05
-0.00016013056167856946
-0.010522787749828271
0.0012340258588891969
0.05639799170298538
1
1
1
1
1
-0.0053514240507499039
-2.5506539827462353e-06
0.013836111988031877
-0.011846220062437683
-0.0003113143769871097
0.00086699345963309876
1
1
1
1
1
-6.6256232390131007e-05
1.6160848143493411e-07
-0.003480640211619633
-0.0011355712968583631
-0.018808719371212576
-1.4166036271635865e-05
1
1
1
1
1
-0.00060041131652081674
-1.3003657256950167e-07
0.00044949251942307488
0.0078300523884937169
-0.02176817298213439
-0.01188426847718568
1
1
1
1
1
0.0021218852224413219
-5.589582860482779e-06
-0.00076688624297540655
-0.021235932924097957
-0.007867553633171721
-0.0021979109710086294
1
1
1
1
1
0.0043027346363360671
-0.0018191583182712839
0.00039723859450095189
0.0047585128760059391
-0.0030188786095169035
-0.0066213308411385095
1
1
1
1
1
-0.00015280046420434331
5.3181839441783877e-05
0.0026728774490909642
0.00012076041464510535
-0.0021033682213665544
-0.018466841340472117
1
1
1
1
1
2.693198650498478e-07
0.00028280907135238512
-0.026179294812080485
-0.018458610672425269
-0.0017884152490308558
8.6507936761904446e-05
1
1
1
1
1
0.00098305098133370686
-9.9484504972782785e-05
0.00060980348280361644
0.053067582742080753
-0.022318867732465761
-0.0066461720447626195
1
1
1
1
1
0.00013172577562434388
-0.0013291785790697404
-6.3439113743798031e-05
-6.5020128839816271e-07
0.0015708659723631265
0.0010973281886312329
1
1
1
1
1
3.9898928157616469e-05
-6.315636797562499e-05
1.1124199087743028e-05
0.019662988422546209
-1.4721684986879182e-07
-0.0036273544063526904
1
1
1
1
1
-0.0029347176165702665
1.8533693863026186e-05
0.10666924408275653
0
1.6312916843728507e-05
-0.0049732396043873023
1
1
1
1
1
-0.0013796977186596769
-0.00033561457031571081
-1.646383681206871e-05
-0.051443490363074454
-1.1788819116350267e-05
-0.00050346160638435318
1
1
1
1
1
-5.8667101230949664e-07
0
-0.0019639543694887364
0.0065078617927015296
-0.015665039022046107
0.0011172836952432412
1
1
1
1
1
0.01216901313863283
0
0.00024573351520641815
-2.7728100636969284e-05
0.00060826519371656479
0.0069313286499238921
1
1
1
1
1
-1.6382370149184215e-05
-4.0134804480161665e-05
-0.026060279368296024
-3.2006528536848076e-06
-0.00063812050572678212
0.046898963282809396
1
1
1
1
1
1.3957477470489312e-10
0.00021592029728459053
0.0066547333277723903
0.0020466119976026826
-2.0075326534781798e-06
0.0042487400552345183
1
1
1
1
1
-0.0033945495155153402
7.2883767124708213e-07
0.0090615343467935986
0.0013671907776779788
-0.00023047126345932626
-0.00096377361215539139
1
1
1
1
1
-0.00010932912865682437
6.9141999746015609e-05
0.032912131310869078
1.5352153729467755e-07
5.7101752665699107e-06
-0.00076891887964397761
1
1
1
1
1
-0.0059880707850705856
-0.00047508523761117887
-0.0088737289032618689
-0.070140051672081136
-0.019111605145582931
-0.00077927707585994234
1
1
1
1
1
-0.00031358350148713284
-0.0009601619462239518
-0.00061004094385120635
-0.042789023494186625
-0.022627247253811263
0.051371379727133917
1
1
1
1
1
-3.1262666195195235e-08
0.00071625982348907013
-0.032152606061805235
0.00040082793545204398
-0.028861263870418118
0.00032237416537249033
1
1
1
1
1
4.5593021997701067e-09
-7.7846969167181455e-06
-3.7473015260455368e-06
-0.0077718604218741235
-1.0312513098286638e-06
-3.8604095207562235e-06
1
1
1
1
1
0.0031246639024973622
2.7910876155559093e-05
-0.0054624532569776292
0.038111967743387813
0.00044659873359010222
-0.0015752093180146586
1
1
1
1
1
-0.0031176036417316102
0.0031088278128440045
-0.05309847458951536
3.1165658791686328e-06
-0.00030541861329658345
0.00026875603707492894
1
1
1
1
1
-2.418972353562446e-06
-0.00026801293432708432
0.0011180767113342699
0.00249406499800454
-0.040394753945884675
-0.003391147565807085
1
1
1
1
1
6.2576225704083558e-06
-7.0290320004584117e-05
-0.0030470057498303929
-4.0798751379586749e-05
-1.0430245308399989e-05
-0.0014241216572926105
1
1
1
1
1
-0.0008505796442327126
-1.5633675430077158e-05
0.0052886086559679746
-0.00060517691006233085
3.5677178032570088e-05
-1.4251868948534515e-05
1
1
1
1
1
-1.7008294891162976e-05
8.5330135485681577e-05
0.0028563122422295439
-0.0031686237076127594
0.00049517664691753371
-0.016514683787846818
1
1
1
1
1
-7.7100009496728196e-05
-0.0018648813017820454
0.012875718379863593
-1.7268112837760468e-05
-0.00021815396013887889
0.0045811544576788927
1
1
1
1
1
1.7416857156752347e-06
0.0017968231026408773
0.00011627519655754327
4.5557261467535039e-05
1.7875941292819224e-05
6.2574185584832374e-05
1
1
1
1
1
-5.5486712821914706e-11
6.2026599338217394e-05
-1.8854835880276687e-05
0.00074772688650837993
-3.5866243014265112e-06
-0.00010701016212289452
1
1
1
1
1
-6.5158231791421227e-06
-0.00059395068432719462
-0.00040378670391629163
-0.00018230982083990027
4.3830090335245563e-05
-0.0010624099515054717
1
1
1
1
1
-0.012549356126832908
-0.00063290520331526459
-0.00099106687268895265
-0.019661870496649067
6.759658461163465e-05
-5.7227261876315581e-05
1
1
1
1
1
0.00036193630620419957
1.5867572593324987e-05
-0.007255889473895813
0.0069939040221905528
-9.7191127944685944e-08
0.014767876627704112
1
1
1
1
1
0.0047939474571229001
9.9302345460881634e-06
-0.00016850248865845195
6.2035081084792633e-05
-0.00045795924953714271
5.138875557169625e-05
1
1
1
1
1
-4.1225802105148589e-06
-7.8414497831220107e-05
6.6560515796542603e-05
0
2.1971725900995366e-07
-0.024262972365371213
1
1
1
1
1
4.4618561965398383e-09
-0.00016822568777641897
-2.3496382520334925e-07
0.003726182463601041
-0.00027659990612568456
-1.0131306447786907e-08
1
1
1
1
1
-7.7113229070450625e-06
-0.0039923751503737823
-0.025847874797362204
0.0057655197043552054
-0.024289972831614569
-0.0015918704728144846
1
1
1
1
1
-2.1675927189955189e-05
-0.0004195683047883514
0.0063942332443704241
2.4241920166627983e-05
-4.0155151409633621e-05
-0.0069228894235439089
1
1
1
1
1
0.0003301098621557148
0.0048619113621906395
1.8899427623851408e-05
0.0068380526319997042
-2.7215599591134659e-05
0.0016614283259264999
1
1
1
1
1
-1.1054837541799084e-05
0.00013144287654871082
-0.0073680554964195019
-0.0022122598467390871
0.0069122151118864257
5.8271651425507068e-06
1
1
1
1
1
6.0818109582809887e-10
-1.6422423791497059e-05
-0.00017344681555670087
-0.00039475828385721756
0.00015205584101607309
0.00062327470906726708
1
1
1
1
1
-0.0067413904031264956
5.4748402632372733e-07
-0.00058469044659801477
0.001214846697071852
0.00056880568903851334
0.00020661445702157961
1
1
1
1
1
0.001612727307426221
0.0029340740523152355
0.007519262711915508
0.010745471949247467
-0.0023690148588100439
0.034738260711878577
1
1
1
1
1
-0.01773705649126469
7.6807016918059318e-06
0.00035083163063362813
0.0026202840845899315
8.4759442096799225e-05
-0.0042312056851758631
1
1
1
1
1
-0.00049950055419053065
0
9.6119154050396834e-05
-8.8133771395069164e-05
1.6551222164689295e-05
0.0073729989334700994
1
1
1
1
1
0.0011480911321699464
6.3798041384174667e-05
-1.1775702648582142e-05
-0.0013463038651705486
-0.0074817474635373972
0.00024408135331939265
1
1
1
1
1
-0.034705261189709215
-0.00027209502695130564
0.0015322775942149406
0.005217181717173571
-0.044354316865820746
0.0065479130940736567
1
1
1
1
1
3.2990405801128358e-05
-0.00087938324110595689
0.00038753867785336354
0.00010487563141955363
-2.2112472948546501e-05
-0.056905118906830143
1
1
1
1
1
1.9651525896838343e-09
4.2994141315020073e-12
-9.8660424107561459e-06
-0.0033018216716551711
-2.9794590898575446e-08
3.0882845510865819e-08
1
1
1
1
1
2.7154528784620601e-08
0
-0.00013421024223127562
-0.0020674280631052034
-1.1113044750585994e-09
3.9851647885114787e-07
1
1
1
1
1
1.8186791330244861e-11
0
-3.1431744176279094e-06
1.0612529472352073e-06
-8.0307072810279065e-08
-2.1884193453199821e-08
1
1
1
1
1
-4.4978347344031726e-05
0
2.6344560461633392e-07
-3.7364693729964716e-06
5.8157871829159468e-10
1.2370430270244648e-07
1
1
1
1
1
1.2096236088076998e-09
-9.2430550473659184e-13
-0.00057479367238926404
7.818626456204019e-05
0
6.2955719679977764e-07
1
1
1
1
1
3.2191023732628261e-06
0
-2.6679279238302745e-06
0.00023762175247675854
-6.618705322005802e-12
3.1436474924247031e-08
1
1
1
1
1
6.0751362591009257e-10
0
-1.155809911049581e-05
1.5073117765959392e-06
0
5.8850289310162467e-09
1
1
1
1
1
-1.9258115385721132e-08
0
1.1933105060029555e-07
-1.8032263058010165e-05
-3.5222034574701399e-08
0
1
1
1
1
1
8.8766338721433549e-07
7.0806329279115721e-13
8.0708505166449637e-06
-6.7606061815788255e-06
0
-4.9927738181102455e-10
1
1
1
1
1
5.7787138091079717e-08
2.2483142561613495e-12
1.0434529124783858e-07
4.4527525590732004e-05
-2.3222977355077177e-09
0
1
1
1
1
1
3.0422029120662383e-08
0
-7.5691252901428959e-07
1.0470315301279692e-06
5.8924449206596868e-08
0
1
1
1
1
1
3.1710196186857864e-08
0
4.923973337220273e-07
-3.0381706424744111e-09
-4.7180965363548497e-11
-1.0996325196576251e-09
1
1
1
1
1
1.3514197651194338e-05
-1.3861342642757959e-12
1.2756861742536741e-08
0.00015717739540656536
-6.191196970309446e-09
-3.0507873115575706e-07
1
1
1
1
1
-1.5043129505031428e-07
-5.486793707991341e-12
-0.00078067579182785295
5.8074548355779209e-06
-1.8516489181477759e-07
-1.9186448206737195e-06
1
1
1
1
1
-6.6101611667013998e-12
4.941481065935452e-13
0
1.3378826859877877e-05
0
-9.4364796105185792e-10
1
1
1
1
1
7.0093841518126033e-10
0
2.4220109361575953e-07
-1.8385587903611689e-05
0
0
1
1
1
1
1
3.8988557420722202e-09
0
3.7835895198926214e-06
-1.7105843498065614e-08
-3.7180919608216954e-10
3.2016026414344273e-08
1
1
1
1
1
-8.4520853993667229e-06
0
-4.5325487957926063e-09
-1.6028899241231855e-06
-1.1891471531978067e-13
-3.0803388324857173e-06
1
1
1
1
1
6.5837401556293099e-07
0
-6.0095949239552271e-09
-1.4700888982808535e-06
3.1298189704106518e-09
9.7776240771253898e-09
1
1
1
1
1
2.2594697341134824e-08
0
3.7159723281158788e-09
-4.4006963576885754e-06
-1.5137474091038392e-07
0
1
1
1
1
1
-9.4332028718169037e-09
0
-0.00029177887134736131
-5.5675088152859625e-06
6.1121988019784366e-09
0
1
1
1
1
1
-1.4253026914959936e-16
-1.4906471544717908e-12
3.4245316183320437e-08
2.5942890051749535e-06
-1.8187598454768094e-11
4.141959923976886e-09
1
1
1
1
1
3.5219291172384882e-06
1.3182789287007335e-15
2.6867678617633479e-10
-7.5083596331687755e-08
3.2232689388170519e-07
-5.3493847842767308e-09
1
1
1
1
1
-5.4395878848826202e-08
0
1.278884903233226e-07
0
-2.7200334618096225e-10
-5.4140431594353184e-10
1
1
1
1
1
-3.0889695100974863e-11
0
1.3554750394755035e-06
-1.5774062032460082e-07
-4.9330242781635259e-09
0
1
1
1
1
1
-2.5808833499603653e-08
-5.2159348422072949e-11
8.3077908678288651e-07
-2.4951919237607011e-06
-2.5612279506708551e-09
-1.9282221508179959e-08
1
1
1
1
1
-2.2747197181095992e-07
-1.4351460219628758e-12
-1.9669898671433444e-06
4.9760703422541699e-06
-6.8087955601870354e-09
-9.5330463068187193e-06
1
1
1
1
1
-4.6821091363334365e-14
-1.0487755509528255e-11
1.1815260470547314e-07
-3.4493546217539851e-06
0
-4.3992347713333112e-09
1
1
1
1
1
-6.0043691159648597e-11
0
1.8559869106426519e-05
9.2740703585801152e-06
-1.419016340076095e-09
-8.9733955726064837e-09
1
1
1
1
1
-3.1691970660586719e-09
0
-4.8632593458123068e-07
6.1089570463733396e-06
0
-5.7318371900885679e-09
1
1
1
1
1
7.3070111674348494e-07
-2.6457512440676735e-07
-0.00013498078700099382
-0.00027303432530004657
-7.3979004032081217e-06
-6.3610445111304273e-09
1
1
1
1
1
0.0010669965091190915
0
0.00060726834176849296
5.7547262344299944e-07
0
-2.9183614453881254e-06
1
1
1
1
1
-1.4686088573339067e-08
1.6306401716440732e-08
0.00032198696647246154
9.3798404444220789e-05
2.7496297584035528e-06
2.13670845813705e-05
1
1
1
1
1
0.00017691177558221767
2.2038304274360518e-07
5.8488173995293095e-05
6.4645716303589606e-05
4.1208102617848629e-08
1.1984675126770534e-05
1
1
1
1
1
1.1192762572481984e-08
1.0841917704856667e-07
0
0.012224882018325084
6.5038666604082978e-05
0.0001499014743764804
1
1
1
1
1
-9.892325368465863e-09
1.202178702662729e-08
0.00045584272071818362
0.00025083090807456136
3.4027115682388342e-08
-6.7438579476486259e-05
1
1
1
1
1
1.3973742105800087e-11
-2.2745146812331531e-07
-0.0027325262616371086
-0.0030918647065365404
0.0010481021173703409
-4.4171040072226353e-06
1
1
1
1
1
-9.9687269909275271e-06
2.0016615927330598e-05
-2.8950987071454587e-05
0.0016161173523554109
0.00090562181680326989
-0.00013402997643669645
1
1
1
1
1
-0.0023549659295875381
2.7465371129619837e-07
0.017001212899675749
0.011846738954864071
-2.5410895064287511e-05
0.00013216861708259181
1
1
1
1
1
-9.5000591563135396e-05
1.6702798316811007e-07
-0.0001698385602697409
-0.00058865550654100109
-7.698846567437733e-06
-0.00035119299938331396
1
1
1
1
1
-0.00034564439501508362
-3.5446186088633923e-08
-0.028980349190031195
-0.01306885475689524
-6.8547227967310674e-08
-9.0080727121950003e-05
1
1
1
1
1
0.0014870355974486297
2.9816733618102938e-10
-0.0015186237028621868
-5.0314426558645878e-07
1.9965388981405094e-06
0.0010343292153746559
1
1
1
1
1
-2.8616946387361482e-13
4.0557152053492314e-08
-0.00026732095366498274
-0.0024582008829157603
-0.0010274502769225394
-4.5940081334481487e-07
1
1
1
1
1
6.3901070830650415e-06
3.6564532908965726e-08
-0.00086335020177919213
-1.6395615970132348e-06
-0.0018384545079712139
-3.015008772767614e-07
1
1
1
1
1
4.3559456316724313e-08
-3.2690765180471837e-08
-0.00029028687305068302
-0.00011085726812825975
0
-0.00014442464516523638
1
1
1
1
1
2.546284431059156e-06
3.4920738841699923e-07
0.0016966465567910232
1.6395940642648213e-07
7.5305917162638925e-05
0.0016043914732086348
1
1
1
1
1
0.002674539080982427
8.9918468591581239e-09
0.00026502567534407895
0.018933975540787625
0.00012249475754551564
4.6784750787978422e-07
1
1
1
1
1
-4.4590146862509152e-05
0
-8.7720713283887e-05
-0.019574758768383747
7.1783544641460682e-07
-0.00034625150600951251
1
1
1
1
1
1.3754281637247237e-09
0
-1.4863015209868333e-05
0
-5.7740260201196164e-06
-0.00059163657296314512
1
1
1
1
1
-0.00073769638389790829
2.946426138228635e-07
7.3822924337880714e-06
9.3954276516769106e-05
-1.0838571901905653e-05
-1.7437380289417289e-06
1
1
1
1
1
-5.8667102318823746e-07
0
0.00013083216108198577
-0.00030370182138961987
-3.4139822997420606e-05
-6.3590782524705589e-05
1
1
1
1
1
-1.6506367342556896e-06
0
6.4734587905303548e-05
-0.00029263550719930569
-0.0001728646684489412
-1.1857817453893709e-05
1
1
1
1
1
-1.8234613169795217e-05
-6.4080973981986258e-08
0.025575900666215151
-1.3345202207123624e-07
-2.9674319830696972e-07
-7.5218066260085786e-06
1
1
1
1
1
-1.8211645871643846e-11
-6.2481155402513001e-07
-0.0023927371626206772
-3.805603089812726e-05
-2.0075326534781798e-06
-6.1527012056665656e-07
1
1
1
1
1
-1.0904398606777916e-07
0
-0.0045600866816208827
0.00023728125075943377
-0.0028471537936534748
-0.00038583569516345703
1
1
1
1
1
-8.0029409799765386e-05
1.3633748217442355e-07
-0.00017503921869007813
1.0307926073441907e-07
-1.4071573366075678e-07
-0.00019204403747790697
1
1
1
1
1
0.0010962856216620792
2.5866483256316539e-07
0.0058570305561462567
-1.1398622806963824e-07
-1.8338868307217343e-05
-6.8692262631682808e-07
1
1
1
1
1
-0.00022232253996050063
0
1.3043299500973745e-05
8.0255616798849636e-05
4.0895771571589044e-05
-1.5476191113736719e-05
1
1
1
1
1
2.098124120492934e-08
-1.03534498293731e-07
-3.8379829045617448e-05
-8.7702445393284003e-05
9.2599262304669859e-06
3.9770862029357852e-06
1
1
1
1
1
-2.5612301882941444e-09
-1.5995740823031721e-07
1.4136153185737248e-06
-0.00010658520745927716
1.9886906361263507e-06
-5.5091133388793509e-06
1
1
1
1
1
0.0012128547273552652
-8.1912251330456679e-08
1.7434791767787117e-06
5.3583575987359504e-06
6.6444214418604224e-07
0.00012651074497849857
1
1
1
1
1
0.00054155899441604249
3.7609516469552101e-08
0.00026334085877928129
6.5744771065324928e-08
-9.3187473937174717e-05
2.6977434873165984e-06
1
1
1
1
1
-1.5248036087504673e-06
-4.7684298584223345e-07
-1.7101812677994254e-05
4.9403461823599822e-06
-6.2693607240264466e-09
0.00051338864596580617
1
1
1
1
1
2.1131516963619948e-06
-1.1917362967041242e-08
-9.1627520764987254e-05
-4.4409459469748606e-05
5.1802831804615192e-06
-0.0011103714560326834
1
1
1
1
1
0.00027998220946721947
-7.4743697804455046e-07
-3.1587799193827918e-06
-0.0063390179761458956
0
-1.2541093985788315e-05
1
1
1
1
1
-2.0607649688151121e-05
3.1561331883763853e-08
-2.4515389263537739e-07
-3.6710496175900925e-08
-1.0947084308592393e-06
-2.7289430581238999e-07
1
1
1
1
1
7.7300482291824731e-05
1.3028574403401519e-08
0.011837074462907276
1.8178781381050366e-05
0
1.4061597704740338e-05
1
1
1
1
1
-0.00014468377664152146
4.3308993241037834e-07
-2.1026812436265521e-07
1.795144819138886e-05
-4.0600791473095743e-07
-6.8486448375377226e-06
1
1
1
1
1
7.7315852422363934e-11
6.7532526646974142e-08
1.2507200051186434e-05
3.1649105802239507e-06
8.3531221597245538e-06
-2.1836965769451645e-06
1
1
1
1
1
9.4547351231370283e-05
0
-0.00025623653612625246
-5.4910078642463614e-06
8.996425073739932e-09
1.4621824088073907e-05
1
1
1
1
1
-8.3761987596476709e-08
-3.2724979320979551e-07
-7.2376217684899985e-05
-0.0012406953106145007
-5.7072550542450831e-08
5.0915634893244745e-05
1
1
1
1
1
6.1415249093251252e-06
0
-2.3632043085468089e-06
0.004344881548492224
2.8475347474717899e-07
-6.1091308923226108e-07
1
1
1
1
1
1.70655253135716e-08
1.9234353374844954e-09
9.4799518762458296e-08
2.2817681548256961e-05
-4.892561104654282e-06
0
1
1
1
1
1
2.5522335739724193e-06
3.0634397669601385e-07
2.6963694724407589e-05
0
7.8015166383390781e-07
-2.2240821296018892e-06
1
1
1
1
1
4.4618804776716512e-09
2.9926098750077416e-07
2.6308719088676057e-07
0.0052849890385550128
-4.5500485366157383e-07
2.5332351649854812e-08
1
1
1
1
1
-2.3255257901268726e-06
-2.1058430137753178e-07
-0.00057524581074428068
-5.8816062794991872e-06
-4.2185925239930011e-05
-2.3522843008138457e-05
1
1
1
1
1
1.7888587615798073e-05
-7.4869501233660746e-08
-0.020008988451785257
1.3245671062830116e-05
-6.42396252559056e-06
1.2573431864973324e-05
1
1
1
1
1
-8.825146855064094e-06
-1.3344408623074277e-07
-3.6192136290363193e-06
-0.00025465881316448779
0
-0.0014282378927081626
1
1
1
1
1
1.1256405527278777e-05
0
0.0071366645383143376
-0.00042306568207695463
-0.00053295635576966754
5.5784690148197268e-06
1
1
1
1
1
6.0818110232232363e-10
1.2829737481025965e-07
-2.5834962347294545e-05
-0.00031925147376018337
0.00011315983700314017
-3.5627520497747942e-06
1
1
1
1
1
0.00074331680873499352
4.2154836740408589e-08
-2.1435316201749376e-07
0.00053609530063176622
0.00056940257318465967
1.126919544147676e-05
1
1
1
1
1
0.00032295438149491343
-1.0257583531038155e-07
0.0070457460999658501
-1.5061804168206093e-05
-0.0012417295679924504
8.0576418718936601e-06
1
1
1
1
1
-3.8143422264052436e-06
0
0.00017865327499491627
-0.00069712815772220052
-8.5078930959291574e-06
-0.0021932543782106008
1
1
1
1
1
0.00012333933618147359
0
7.2575863120233531e-05
7.8119112938532863e-05
2.1969718191346118e-05
0.00018012937642823413
1
1
1
1
1
0.00012501408268860968
3.2221982120147491e-08
0
0.00012376119211068907
-9.5465051593305923e-08
7.7745336538802769e-07
1
1
1
1
1
5.9214447805024356e-07
6.9024262452801719e-08
0.00010417958234786434
-0.00099018850109988698
7.7838400329308412e-06
-0.0011191504132182237
1
1
1
1
1
2.6293061888325448e-05
-3.0395487574988446e-08
-3.0037199173137002e-06
-0.0021974790610729093
1.7766857775351449e-05
-5.0549334338722484e-06
1
1
1
1
1
7.7261218851048776e-09
8.5455793762730825e-11
-0.010561389149385763
-0.020815589542409672
5.3128558849743505e-06
2.6461701504715247e-06
1
1
1
1
1
0.00014800511389249615
0
-0.010554951220383989
-0.0015001169329544445
9.8310997781962787e-07
1.2057291934758164e-06
1
1
1
1
1
1.3068068387842336e-10
0
-0.00010067849443443743
-3.3516598394906211e-06
2.4938142811933325e-07
5.8757952251373298e-09
1
1
1
1
1
7.9402857166188258e-05
0
-7.9826182321578426e-06
-0.026927899403805036
5.2976027713964308e-06
1.5759449578228376e-07
1
1
1
1
1
0.00019930059683114109
5.2906003776110178e-10
-0.0011227495458994081
0.0012111811939692955
6.0689799341437507e-07
-0.00022456972790964454
1
1
1
1
1
1.9247459922054743e-05
3.4335607832606236e-10
-6.1216743471854905e-06
0.002582735247428903
-1.3445482188141897e-06
1.2813664240984285e-07
1
1
1
1
1
0.00010327498941590714
6.1908800108212275e-08
-0.0048941099817548031
1.5952954494487154e-06
7.5972744190390276e-07
4.1937787666825231e-07
1
1
1
1
1
8.2186185917402664e-05
7.7976255854077609e-09
-1.1489659701929047e-07
-6.2884745362890484e-05
8.1003334930111919e-08
-4.447376872370684e-07
1
1
1
1
1
5.5791857408664116e-06
4.1168188427818986e-08
0.00052026862215434904
-0.0009774485854780596
0
-4.2591899412686928e-10
1
1
1
1
1
1.7062771982000926e-09
1.6696404820792975e-07
-0.00025329711618105142
-0.00022052649495842938
-2.9735789584108358e-09
2.003403613092301e-07
1
1
1
1
1
-1.5327551041776918e-08
0
-4.5441607894995652e-06
9.7032058527023717e-06
-9.0508955451401171e-07
0
1
1
1
1
1
1.3246502586163619e-08
0
-8.1216845038049023e-06
-6.9078452557737902e-09
-1.664592715599343e-05
-1.1299661849588755e-09
1
1
1
1
1
-5.0491401667695959e-05
-6.0440784591752681e-09
9.2770999045990583e-05
6.1651493786019895e-05
-6.2044828998037636e-08
-3.1974429483751345e-07
1
1
1
1
1
-1.7627424509494985e-07
2.567172452179603e-09
-0.00088349989668230192
-2.2711194050717755e-05
-5.7662468630052688e-06
-3.0624316365354401e-06
1
1
1
1
1
4.4487970830646729e-06
-6.7146029215120923e-13
0
-5.5484787852401778e-06
0
3.492102157630072e-07
1
1
1
1
1
-5.1836128551561742e-09
0
-1.2240007862170865e-05
5.6580416142606535e-06
0
-4.1234431277039872e-07
1
1
1
1
1
-7.0856946076883341e-08
0
-2.8373626153371578e-05
3.6606876074238764e-07
-1.3273068300364742e-07
-1.0575743425179419e-07
1
1
1
1
1
-2.4580408800130383e-05
-2.733826129313638e-09
-4.7384469608207822e-05
0.00034963382544573088
-1.3807356255824877e-06
-3.61999300293213e-06
1
1
1
1
1
-7.4143678875314141e-07
-3.2084242490409756e-11
-0.00070988658330261233
-0.0010515360152570797
-1.7171182856661209e-06
7.5075922210814928e-09
1
1
1
1
1
-1.5296436388719164e-05
0
-2.6768761708957389e-10
-0.00053159265573158448
-1.7114516459913941e-07
0
1
1
1
1
1
-2.5698952667127952e-08
-3.4144452155528745e-09
-0.00019220281725430352
-5.1610416371200766e-06
-8.1452118444810338e-08
-2.1887086757253111e-07
1
1
1
1
1
-1.1332608646039592e-06
-1.3166748753845872e-08
-7.6398212428714277e-05
-0.00051773016168332937
-2.2983009781899999e-07
-5.8732797819661554e-07
1
1
1
1
1
-1.3076673568899268e-05
4.0629563061476897e-09
-2.7497409950664513e-06
-1.4858668458818105e-05
-7.8997881102528537e-07
4.4736571467032015e-08
1
1
1
1
1
-2.5157685127455768e-07
0
-1.2157793630605673e-05
0
-3.3584053034735433e-07
-2.3043733526240294e-10
1
1
1
1
1
-1.4403266512646469e-05
-1.4556831655688743e-09
-4.5348658072000181e-06
-1.4018713369360905e-06
-2.0928231597817826e-08
0
1
1
1
1
1
-1.2925128792847577e-09
4.2149959506442922e-09
-3.4223666147232106e-06
-7.4926982259188924e-05
-5.8057125734370874e-07
2.4792994272432364e-06
1
1
1
1
1
3.2962154039231007e-07
-3.4019873169441514e-09
-1.6707070493845642e-05
-3.6243358989332318e-07
3.2440634981182235e-08
-3.3711343936636315e-05
1
1
1
1
1
-2.6678190149721325e-16
-5.8481994377738026e-11
-1.6385163366526395e-05
-0.00019041619767116663
-2.4729917068700683e-07
3.7049704991299131e-08
1
1
1
1
1
3.6378971592144921e-11
7.7023195030685194e-11
-2.0648371280699537e-05
-1.1255422251659232e-05
5.4232880242184901e-09
-1.2364767589994795e-07
1
1
1
1
1
6.8448937543441712e-07
0
0.00010071537929685913
3.1065485532290632e-06
-1.097939592106603e-07
1.371955423720535e-05
1
1
1
1
1
2.2774306574197643e-07
0.0029329523805231654
-0.00071736650564533885
-0.023444486820216628
-0.042270058679946251
0.0028618050468589497
1
1
1
1
1
0.0029991518882318048
5.757622841925114e-06
0.023401987776046448
4.0731022517033238e-07
0.0085538719221874698
-3.7278987983692369e-06
1
1
1
1
1
1.4701275412309283e-08
-1.6934509874758772e-08
-0.027485875923629423
-1.0544691272645477e-05
-1.2458888559549834e-05
0.015526743533250903
1
1
1
1
1
-0.00016133805335708971
-1.8351482439728487e-05
4.6387782185705781e-05
7.4526468638705476e-05
-0.00010827947854821678
-0.00052983331871048667
1
1
1
1
1
-4.2840699125705023e-08
6.2334511326172972e-06
-8.0420252203078753e-05
-0.011543691194908759
-6.5222591199664859e-05
-0.0023668130344825815
1
1
1
1
1
-1.326014147247536e-08
-0.00020478890449867495
0.012707818310819369
-0.0001424464291367199
-0.0081272271600314888
-0.018319736464970534
1
1
1
1
1
-4.7649959834226686e-11
0.0019606169837750641
-0.0027537361291024168
0.008253810848049898
-0.0030352824143254618
-3.0760465563334546e-06
1
1
1
1
1
-9.317888905872411e-06
3.8984623710917493e-05
-0.00016013056167856946
0.0016161060681282875
-0.00092277111888163432
0.00023931058414379026
1
1
1
1
1
-7.4436493689664363e-10
8.0082432349914289e-06
-0.020089849378970064
-0.010658778173127378
-4.2694041077055719e-05
-0.00043756993961876627
1
1
1
1
1
4.5237207684022006e-05
-0.00184534556914886
0.00068969464453974138
0.0043956698703576814
-0.002929858280458662
-4.8191139622408798e-06
1
1
1
1
1
-0.00063944207814262144
1.2675836534746504e-07
-0.012261977644937189
0.0078322751612515361
0.00056391137347387211
0.0064938376779138732
1
1
1
1
1
-0.0032368821757783996
0.00030910427552304143
0.042390848723385992
0.0073452160773218849
0.0012191866799573627
-0.0030745726290614213
1
1
1
1
1
-0.0034092087758674605
0.0025237548445124548
-0.00011159285006493232
0.0011058667286118465
-0.0021528647518350686
-0.0019078040324630808
1
1
1
1
1
-8.9227801640089736e-05
-3.1759379472648188e-08
0.0023409546592618072
-5.0799429864331243e-05
-0.0061651882187925269
-0.018467185199485762
1
1
1
1
1
-2.6997442260197565e-07
0.0003843397524025491
-0.026296304084101718
-0.00088072391343202775
-0.0015056503020218308
-0.00019971500967327099
1
1
1
1
1
0.00054331948384662434
-2.4158651738269822e-07
0.00045260938560030633
0.045755542795402594
-0.0095635515993232317
-0.0023583225626391869
1
1
1
1
1
-0.00040233820678888904
-1.0564813100639916e-08
-0.00028018579352174242
-0.0050748725063442107
-0.00056636590279444249
-0.0004646195892117775
1
1
1
1
1
-0.00017747854084364183
-9.6770023993975816e-05
-0.00013960457944190585
-0.019748202833577911
-0.00040507183614784455
-0.018060442922399063
1
1
1
1
1
-0.00093399827477283319
8.0701050230079584e-08
-0.0062313533873185958
0
-9.2759746159124109e-06
-0.0049738851907975097
1
1
1
1
1
0.0004498398401412948
4.4826665816341129e-08
7.2786635713895458e-06
-0.00040089596868557144
-2.6851681672128073e-06
-0.0002100361816540717
1
1
1
1
1
-4.8768036625645991e-07
0
4.8553131490334057e-05
0.0065664285218231706
-2.2938462206363965e-05
0.0018208685958623315
1
1
1
1
1
-0.0035301492825665342
0
-0.00019179394081821966
3.6868083019345975e-05
-0.00026519801939682179
-0.0035498155798287319
1
1
1
1
1
-9.1927814234994928e-05
-5.5519146513449771e-06
-0.026056659521454632
-3.0747255035955733e-06
-0.00076716169193107009
-2.986326276008484e-06
1
1
1
1
1
-1.1343652668468027e-11
-0.00020406468975428372
0.0038807692172543708
3.6033490162959909e-05
-8.9415538002195327e-07
-0.0085581606179135471
1
1
1
1
1
0.0090491223196465225
-2.4442413254901554e-07
0.0088952091600729612
0.0013640961145973576
0.0030150306186381027
0.0018385832746146819
1
1
1
1
1
-0.00018188512152512174
-1.2021695826564962e-05
0.033020693127230626
1.5352153729467755e-07
9.0509973812291449e-05
0.00046613269920307301
1
1
1
1
1
0.00036013074737415183
1.0473206827805811e-07
-0.0049911515103942079
-0.034689305873340522
1.9041400497720307e-05
0.00051401301828801088
1
1
1
1
1
0.00031358349049086454
-0.00030456153139201764
-0.00061004066993619209
0.024464060205621516
0.018076254365354198
-0.0027303288750306128
1
1
1
1
1
2.0981240189335916e-08
1.0082739717403487e-07
-0.037342182653429867
0.00011961997055575646
4.0245222319522897e-05
0.0019256196021119954
1
1
1
1
1
3.9276670225224409e-09
-6.1316387862703913e-06
3.6912307600594669e-06
0.0093698933091939263
2.609778528464731e-06
9.749470586588074e-07
1
1
1
1
1
-0.00047326023814615842
-1.551124418546883e-08
0.00013291127264199545
0.035664139968010183
-0.00011768091534746482
0.00066932692502780439
1
1
1
1
1
-0.0014251563935065985
-9.2732976442051827e-07
0.00614568287674205
-1.1418347267187121e-06
-0.00028341517758178616
-0.0022910354064413141
1
1
1
1
1
-4.672342504580077e-07
5.6757932569609691e-07
0.00062412121163435235
0.0020102510863017897
-0.00055443564946980751
0.001732409464289588
1
1
1
1
1
3.48090540559848e-06
8.7930698272150628e-07
-0.0063506312915627685
9.8665787080471831e-06
1.5348940819761777e-05
-0.00067440320477286464
1
1
1
1
1
-0.00082433368940798633
-7.666597662414329e-05
0.053377727857928436
0.001417963771136355
2.5295716792244528e-05
-6.2274494326025933e-06
1
1
1
1
1
-6.5928847881688521e-06
-2.7762937975168286e-05
-0.039041349828239078
-0.0015620889182383075
0.00013738487388231582
0.0012051524364152146
1
1
1
1
1
7.7255663324624129e-05
1.2467180216076308e-08
-0.012986343441842798
-1.9352677559088663e-05
0
0.0057899255142702475
1
1
1
1
1
0.00014468377287618628
0.00051624653462540844
0.00018369418763967808
2.8877679689699151e-05
-1.7979109072285792e-05
-2.0800561765009148e-05
1
1
1
1
1
-7.7314117417482819e-11
6.7535257043443269e-08
-1.7372049440915454e-06
0.0002663306802066955
4.1158511006026578e-08
-0.00010645252353448297
1
1
1
1
1
0.00011318981179186671
0.0013099070402715323
0.00024748583344163177
8.8525791997071029e-07
9.4523563371050247e-09
-0.00033030936439434178
1
1
1
1
1
0.0062194863438587555
0.00027145377217003701
0.00067592882417434445
0.017376453357257505
-0.00015684015829406917
0.00062178882430143035
1
1
1
1
1
0.00011290689441346017
0.0029102626046645726
0.01285291752735534
-0.0043633568532192354
-2.5484830633220132e-07
0.0071266436306248312
1
1
1
1
1
4.8813561404351387e-05
9.5418203150252754e-07
0.026501443159513575
0.00010560089919700751
1.2769466773414453e-05
-4.5855571407749785e-05
1
1
1
1
1
2.174441540663306e-05
7.804622497311798e-05
6.4773805086330608e-05
0.022467598965102888
7.1318371324535348e-07
-0.004874746274601262
1
1
1
1
1
-4.0694008319192524e-09
2.0677435578685376e-05
-0.022625503298546113
-0.01173373234080744
-1.232403803543751e-05
-0.00012191908144112709
1
1
1
1
1
9.9652658288415715e-06
-1.9875449718706388e-07
-0.026239946608593724
-0.011180160867256964
-0.0021552938789211012
0.0038284338310509399
1
1
1
1
1
8.7649904302764195e-05
-0.00013032584978425464
0.020032238446792201
0.0034063074409391792
0.00060145085467934608
-0.0013185738738456499
1
1
1
1
1
9.5066240025277636e-06
5.7800851263985997e-06
-1.9547678395813444e-05
0.010246836066920213
-2.7778678944049372e-05
0.0017024356047778617
1
1
1
1
1
-1.1060873673247281e-05
-6.3813736172053676e-05
0.0080164598428452468
-0.00026041625180581011
0.00051544462896458776
-0.00010873381366214751
1
1
1
1
1
6.0818109582809887e-10
1.0902018246730476e-07
0.00012525109107281129
-0.00039009430053001538
-0.001872365769037151
0.0018578894690789124
1
1
1
1
1
0.00059696728766269033
-8.9010998441373524e-08
0.00030991862784934685
-0.0012198628109233948
0.00051603037750819192
-0.0024684262659924907
1
1
1
1
1
0.0019818798293582637
1.9324322792099323e-07
0.0063536468014587354
-0.010749513991613341
0.0016027387329721353
0.00014948402211654297
1
1
1
1
1
1.0046850074257213e-06
1.360548222642535e-06
0.00035152421753712805
-0.0012543428412653975
8.5380723263797078e-05
0.010483597487706036
1
1
1
1
1
0.00016840858019878606
0
8.0663469161501515e-05
-0.00012211603386637983
-1.6582082800331914e-05
-0.012987899154400472
1
1
1
1
1
0.0047313447183606767
-2.1475022023855782e-05
-0.032385782501490171
-0.00089421337320643812
-0.0074781884489775116
-0.00016573770442020912
1
1
1
1
1
0.0073409235586399356
1.0008909146160254e-05
0.0011980818714879429
-0.003796519157166116
1.1762119567762895e-05
-0.0018714049780125029
1
1
1
1
1
-0.00013343170713431347
-0.0015786851996278984
0.08032257984725602
0.0045891918843867776
1.7922821322918421e-05
8.7444796204572073e-06
1
1
1
1
1
-3.4466441424170254e-10
1.1141998863376869e-11
-6.152048105536232e-06
0.0099548659192076443
7.5238895661774261e-08
7.875704489659611e-08
1
1
1
1
1
1.4599901344076134e-08
0
5.1151802694680674e-05
-0.0011660377905333141
3.4269506773417414e-07
-3.4424848563025682e-07
1
1
1
1
1
-2.297259794084772e-11
0
4.2221641121411522e-05
-3.3506528907496436e-06
3.7478353602285992e-07
4.0553725553350234e-06
1
1
1
1
1
2.578868172973304e-05
0
5.0593682232388648e-06
4.911619643403739e-06
1.618487620103609e-07
4.2167989646304607e-07
1
1
1
1
1
-2.6280188739507063e-09
-7.2940692656032079e-11
2.0487403212508975e-06
-0.00046776752991802164
-2.472172870363426e-07
-2.8747394844337568e-07
1
1
1
1
1
1.0062792416791682e-06
0
-1.0076289057769853e-05
-0.00030445667546911997
7.3382272872590071e-08
1.2450162008455439e-07
1
1
1
1
1
-7.4104156546697952e-09
-6.8134619736840831e-11
-3.0467766959585127e-08
3.633438517800389e-07
0
6.530614314709932e-08
1
1
1
1
1
-3.8005135037970014e-09
-2.6661909529065177e-11
-6.0902177224107284e-09
8.7001459965339799e-05
-1.8005404175232199e-08
-6.4486619311041915e-09
1
1
1
1
1
-1.1102880925523076e-06
-1.0447388793446874e-12
-0.0005767415801081826
-3.2626765808122765e-06
0
-3.8458896764207232e-10
1
1
1
1
1
-3.1852194734256145e-07
-3.5481359045769312e-12
5.5524107352748898e-09
0.00018804969421731138
-3.9019701264810702e-09
0
1
1
1
1
1
-5.4921784127064495e-08
0
-1.7964600241003113e-06
3.3587130258707482e-05
-8.0151127523675484e-08
0
1
1
1
1
1
-6.7342427610966105e-08
0
2.22666853684551e-06
-1.5154689618835569e-09
-2.0564393121099061e-07
-1.1295809667574792e-09
1
1
1
1
1
-1.3885817702743597e-05
-7.3334511782800079e-11
-8.8803176768119613e-09
9.8199540253051903e-05
-9.7324011387724175e-08
7.4903818876742385e-08
1
1
1
1
1
-5.1471758208342476e-07
-2.788790917504564e-10
-0.00035763077079146538
-2.2711194050717755e-05
1.3821713882474177e-06
1.9103652732935868e-06
1
1
1
1
1
-1.5166503236580281e-11
-9.4199092443700108e-12
0
5.5601785747782676e-06
0
-9.6275459572008813e-10
1
1
1
1
1
-2.7427261129721707e-09
0
-4.4263400426162619e-06
1.0287591595420887e-05
0
0
1
1
1
1
1
-7.0857754832500832e-08
0
-3.874683196034165e-06
-4.7837150344452036e-07
-1.3048116739096698e-08
-1.2068535196250689e-07
1
1
1
1
1
-1.7083661180366444e-05
-3.2454722403193874e-11
-6.5407005868507517e-09
0.00038723427112792
-8.5930372436607648e-08
3.6472374430011477e-06
1
1
1
1
1
-1.2354758948698736e-07
0
-2.1668985431118279e-08
4.4898148187276411e-06
-3.8483379278362341e-09
-6.5538513583955442e-08
1
1
1
1
1
-5.6007185729255738e-08
0
7.5887606430638746e-10
-0.00015286437404835344
-8.1554729624226874e-08
0
1
1
1
1
1
-1.1959848548219073e-07
0
0.00052404688555151159
-3.5783697578911052e-07
-1.8691483741592721e-08
0
1
1
1
1
1
-2.9526274866403293e-16
-1.9867084502213444e-12
-9.069477278923069e-08
7.8726458426649504e-06
-1.2242725918769962e-07
-1.6328806419004625e-08
1
1
1
1
1
-1.589599139388941e-05
-1.4176890565822779e-12
-2.7494505448613172e-06
4.5585513157795768e-05
-7.2121275533280144e-07
-3.0666495787315767e-07
1
1
1
1
1
-1.0226310304608673e-07
0
-2.5320247533610787e-06
0
-2.6622202892834562e-10
-5.8434058828927294e-10
1
1
1
1
1
-7.0558404704822107e-06
0
-9.4178041400726566e-07
-1.6080433229949479e-06
-2.4244178963355187e-08
0
1
1
1
1
1
-2.5808840263770409e-08
-3.7087843413885579e-10
-8.0901777349667644e-06
-6.7947447397078794e-05
-3.7513079046192439e-07
-3.3048802232370119e-08
1
1
1
1
1
-3.8332468810708464e-07
-3.9846165813943822e-11
-2.5805025056698499e-06
-2.1141208789487925e-06
-2.0687381313791474e-07
-4.7968608051563834e-07
1
1
1
1
1
-6.7995918182169216e-14
-3.5893859662848572e-11
-1.6460219126677732e-05
-0.0009829470897740999
-2.4132287833478401e-08
3.455492110432793e-09
1
1
1
1
1
-1.1886048390362491e-10
-3.8570125129858829e-11
-2.8828004802747629e-05
3.0470792887015895e-05
3.9386847200112801e-09
2.4286263793599582e-08
1
1
1
1
1
-3.1786924020187257e-06
0
-2.1406940954609837e-06
2.6881794099559115e-06
0
7.7722044711446901e-09
1
1
1
1
1
2.2731379693761115e-07
3.3395696006807058e-07
0.00073741393939915473
0.012313913146652394
-0.017260056499342903
-0.0053689374991973049
1
1
1
1
1
-0.0027397284135948561
0
-0.023286026452915581
3.4066974002580767e-07
-0.0032417616398577385
-4.8664672416129477e-06
1
1
1
1
1
-1.2308485511851338e-07
2.116423369686075e-09
4.9301526563411819e-05
-4.3531061752865503e-05
-2.2693111913004472e-05
-0.00012675200146489732
1
1
1
1
1
-0.00023594589071641669
-1.3082034532026671e-07
-1.0184913125453706e-05
3.8433092535427102e-07
-0.00022579812714592479
-4.3561510665040473e-06
1
1
1
1
1
-4.2839717913548457e-08
-1.0841917704856667e-07
1.6261928917610247e-05
0.011958654206589278
-6.519526585713187e-05
-0.00014153748104518858
1
1
1
1
1
4.589237520051764e-09
-2.6021143405083907e-05
-6.4740485787449427e-09
-0.013335452663495354
-0.0039471729568459676
-9.1192860259416792e-05
1
1
1
1
1
-4.7649959834226686e-11
2.2586886659291524e-07
0.0082666094286191448
-0.0052940828233696844
-0.00018904532069319481
-2.9944821841382066e-06
1
1
1
1
1
-9.968841946917936e-06
7.3500376862946019e-06
-0.00013218871053131726
0.00088195053687303566
-0.0012340571812013246
-0.00033966706229745863
1
1
1
1
1
-0.0023549659295878391
1.4809184367968188e-07
-0.0031028359499436485
-0.00012310708959474247
-6.6991266665116349e-05
-0.00096216396668749712
1
1
1
1
1
-9.4993750130885145e-05
7.349466132376271e-07
-6.3814918482756329e-06
-0.0021910207661629197
-2.1873781939642538e-05
-0.00030172653804206142
1
1
1
1
1
-0.00037034672483840465
1.3675753491437928e-08
-0.00023587581234638607
-0.0051644976082305359
-0.00026748810572685389
-0.00017656913933319571
1
1
1
1
1
3.7187640674528997e-06
3.4796794001210626e-08
-0.00037677384176091646
-0.00013209937038846995
1.0440425646365995e-05
-0.0020287106194164088
1
1
1
1
1
-0.0015887415628424212
4.744137902282679e-08
0.00014944272846221046
-0.0012926564187548499
0.0015933480177878364
-0.0033592816486820044
1
1
1
1
1
-6.8197560195087283e-05
1.1136811739717363e-07
0.0021115237639524995
0.000118800614370875
0.0010289502417625378
-8.5889022860312739e-08
1
1
1
1
1
-1.7993301826083137e-07
-1.6064654095345348e-08
-0.0094986121286658367
-0.03389224411620461
0
-0.0001930147512601469
1
1
1
1
1
-3.0686493676205984e-06
-7.1526400816612404e-08
-0.00021719190724503245
0.00087707376314585968
-0.00019436804267423493
-0.0028588746753511127
1
1
1
1
1
-0.0052110528830997321
9.1795135774504781e-09
-7.2352118158487146e-05
0.018932865260339361
-1.0356751812972053e-08
4.6746349193034821e-07
1
1
1
1
1
-0.00017747822300495411
0
-4.697026984923476e-05
4.9695754895554928e-06
-1.4721902780204198e-07
-0.00072500092984014082
1
1
1
1
1
-0.0038842477207767798
2.0543587761664196e-07
2.3847542574667351e-05
0
-2.0551131888936005e-05
-0.0028713081310010012
1
1
1
1
1
-0.0013796954516157359
1.8109787819557396e-06
2.2650930025602708e-05
6.5113221360597968e-05
-2.2141870729773088e-06
-1.9022516043646661e-06
1
1
1
1
1
-5.8667101877979498e-07
0
-0.00048735327937860374
3.2920962998210443e-06
-3.4139868248791683e-05
-0.0017578071936252783
1
1
1
1
1
-0.0017725604677674264
0
5.4141129095432853e-05
-0.00018359694576955537
-0.00017308199315585951
-6.8628943187063873e-06
1
1
1
1
1
-9.1927814230422292e-05
-6.3044351697268808e-07
1.0915217068303924e-05
1.2179964365439006e-06
-4.1407656408799565e-07
-9.7047822767112844e-05
1
1
1
1
1
4.2941540241718551e-10
2.2210225727254382e-05
0.0060973483839974821
-0.00015244508244403223
-1.6082159076567052e-06
-0.0032060048390850325
1
1
1
1
1
-0.00033945464552392245
0
-8.2843931639690083e-05
-0.00058519616083770845
-0.00044655935682480155
0.00061951413654787256
1
1
1
1
1
-0.00013473305967861269
-1.5201310854513468e-07
-1.5756981447692366e-05
-1.5352153729467755e-07
-4.6785775787156088e-07
0.00022262414917042275
1
1
1
1
1
-0.0010962871354693302
-2.5869612074515613e-07
-0.0040926206469685082
-0.034689305873340522
3.4907570724857669e-06
1.2309428528333904e-06
1
1
1
1
1
0.00038170521609329704
0
2.8569005576976755e-06
-6.8459934394473323e-06
-3.6493935795818485e-05
4.0899896518174811e-05
1
1
1
1
1
4.7209893139008555e-08
5.5593628817157382e-08
-5.5659510989040594e-06
-0.00045956423172810776
4.9436671858123009e-05
9.3573839143682065e-05
1
1
1
1
1
2.2716804847471385e-09
-7.4746096369006149e-08
2.3185442590207689e-06
0.010480468609715535
-2.6097791110467165e-06
-2.2678522147572436e-06
1
1
1
1
1
-0.0012998224001278204
1.1492962090171948e-07
0.0027881600738537387
0.025414786331455278
-2.9167697826906838e-06
5.7384692163543683e-05
1
1
1
1
1
0.0005413221402884111
-3.1431743415596316e-10
0.00010605991534153149
2.5083155543052409e-07
-0.00030819105249150098
-2.2487114012529371e-06
1
1
1
1
1
4.6723224915765791e-07
-1.3114360780302935e-07
-0.00028454123583618616
0.00027768227607118269
1.9235029521625877e-08
-0.00031955776787871953
1
1
1
1
1
6.2577844183132019e-06
-2.993305930329064e-10
0.00010040820664127575
2.9085056869649523e-05
1.3283989605687079e-05
0.00052061181070064434
1
1
1
1
1
-0.0012249876163580777
-2.9104040127165492e-07
-4.9623909476602059e-06
-0.0065847208407783728
0
2.1874011319717081e-08
1
1
1
1
1
-2.060765598400409e-05
-2.9840081813819936e-08
-0.00065019091100629886
-4.9033369727452077e-07
-1.6532441942157136e-06
-0.0001706221783246157
1
1
1
1
1
7.7261852145031341e-05
9.910334053986432e-09
0.012120600806535485
1.6751501596733085e-05
0
3.6807630199459412e-05
1
1
1
1
1
0.00014468400191124824
2.6656687668375176e-07
0.00059612612325446641
1.9648263712055992e-05
-1.0097454864697408e-05
3.3960620278878452e-05
1
1
1
1
1
1.7599117927114249e-13
5.262659722233171e-09
-5.7374131026770586e-06
0.00017077527557293916
1.862314210408906e-06
6.2404644015697698e-05
1
1
1
1
1
4.5099230449897173e-06
4.0281210195104533e-08
0
-3.6989670793192639e-06
9.4523563371050247e-09
-4.7199461397158674e-06
1
1
1
1
1
-8.9707327645127416e-08
2.3111789260110572e-07
-0.00021386797502973983
0.017354360605655567
-1.4728917732638262e-07
-1.0185599260025373e-05
1
1
1
1
1
-7.9716830621413851e-06
7.3568278731740445e-07
3.2537923287203403e-06
0.0028687291882399713
2.5610919380647144e-08
3.1582888458145203e-07
1
1
1
1
1
0.0015953058769333098
4.3455647242170868e-08
0.026394446802643766
4.5674925320745167e-05
-1.2990153565677648e-05
-2.1587089806916716e-06
1
1
1
1
1
-1.7625617791746699e-05
1.5471027356721831e-07
-1.7025162609276844e-05
0
-6.1102567702529095e-07
-3.5204842355555101e-06
1
1
1
1
1
2.7041902357817485e-08
1.8243765247458061e-07
-0.022625503298548354
-0.00027361897796456772
8.4884264326897788e-06
5.6035872329921757e-09
1
1
1
1
1
9.965263573138196e-06
2.1167785195475872e-07
-0.025919708752694639
-0.0089197483982939776
6.8442415403102004e-06
-0.0015783767806525374
1
1
1
1
1
3.8633770534835733e-05
7.4869170783088182e-08
0.011541642921567221
2.4259504476153244e-05
1.6085284049456146e-05
-0.002504441088810515
1
1
1
1
1
1.9730713045599848e-06
3.912890369858608e-07
1.2912207739051838e-05
0.006102136315547956
-4.9733654235109092e-06
-0.00023448662495078942
1
1
1
1
1
-2.2068251318692825e-05
-1.505757022917863e-07
0.0044071938246215414
0.0011381284575335436
0.00053297410495569103
5.5351394109532977e-08
1
1
1
1
1
4.5120233075219792e-10
-2.21671336785956e-07
-1.8888425901897133e-05
-0.00031088730005428701
0.00089297948923902865
-1.5655776248169144e-06
1
1
1
1
1
0.00074331830152183341
-1.0339526374753657e-06
-0.00065065053264300838
0.00053609613579163966
-0.00056375982224343235
-1.9009494351931698e-05
1
1
1
1
1
0.0015892661149993056
-3.9823006834278563e-07
0.0063139549711929959
-1.0731515492972481e-05
0.0017474199622878582
2.5116573662936678e-05
1
1
1
1
1
3.812070643353285e-06
0
2.83045890161615e-07
-0.0040845715207753598
6.3555325813786551e-05
7.5299419836081722e-06
1
1
1
1
1
0.00012331948020249652
0
6.4560111906279116e-05
2.6491989406411964e-05
-2.194611236473135e-05
-0.0080925417331067558
1
1
1
1
1
0.00012501387844522511
-4.2399754610641163e-08
-0.00054381205026152928
0
-3.6855829504851132e-05
-6.0428285979677017e-07
1
1
1
1
1
6.3119075902533891e-07
-1.4967791029570227e-10
-0.00028393170807874577
-0.010730421672094316
-3.9151615927042247e-06
2.9344620460814565e-05
1
1
1
1
1
0.00013343331887072284
0
0.00027544118389772921
-0.0017399178828162245
2.5899769451946915e-05
-4.8697931837007113e-06
1
1
1
1
1
7.7262039551942067e-09
8.5455793762730825e-11
-0.004445035987403363
-0.0062793818893068379
2.7156993543215901e-06
9.1060342474772946e-06
1
1
1
1
1
0.0019276982114221572
0
-4.5418943271074156e-05
-0.0015975625107264428
7.2956593250457133e-07
-5.6064876970306924e-06
1
1
1
1
1
1.5877626098751133e-10
6.851790869040238e-09
-2.8824778545949579e-05
1.716814063618915e-07
3.1048988119125502e-07
-4.0303577858466391e-06
1
1
1
1
1
2.8227551064419881e-05
0
-1.0067118075610058e-06
-4.9102249058051159e-06
0.00032896706208409828
-8.1719817294243911e-08
1
1
1
1
1
-1.8816100858565668e-05
-4.0353485839397646e-10
0.0022231472472281351
-0.00035840568022930952
-2.3659107515943401e-07
-4.0818371431677329e-07
1
1
1
1
1
6.465351146529064e-06
3.0578781222001251e-10
-0.00023244588056033427
-0.00011331373291806987
1.8474574154512302e-06
5.8279705424167218e-08
1
1
1
1
1
2.4179318905974219e-05
5.5281193381020476e-08
3.6493521120567567e-05
3.9674095669293745e-07
-1.6810364189753861e-07
3.0424996767711555e-06
1
1
1
1
1
6.5050383792784671e-05
1.9953032362977708e-10
-0.00060770503822422061
1.9031546597071646e-05
1.1407166842829981e-07
2.9266336294413325e-07
1
1
1
1
1
3.1103850779142147e-05
3.8451816748489018e-07
0.002123713611601556
4.4606630124029509e-07
0
1.6805473854510555e-06
1
1
1
1
1
-1.3475134565405272e-08
9.3585356732419625e-10
-1.4482661833126046e-05
-0.00023656331939903312
-2.4617790472865087e-09
-1.8683056391825859e-07
1
1
1
1
1
-1.5327542725636301e-08
0
6.1495695955895331e-08
-2.1883723582388126e-05
5.6111707826304995e-08
0.00041229714405119171
1
1
1
1
1
1.3246509642089506e-08
0
-2.1628932371720947e-06
3.815905283174707e-10
4.6733171376696901e-06
-4.741170444228032e-07
1
1
1
1
1
3.1855133632419481e-05
-5.9695883214147128e-09
0.00015084532533855946
-1.8342673379037197e-05
1.125901998749959e-07
2.9052819530928943e-07
1
1
1
1
1
6.7671619864532826e-07
2.982694357934177e-09
0.00023350255780578018
-2.5790935878351526e-05
3.9700049750451418e-06
-1.5557644983828709e-06
1
1
1
1
1
1.029337219176169e-05
5.0431980625206297e-12
0
-6.7178538450964134e-06
0
5.8783447515471573e-08
1
1
1
1
1
5.0059511707577009e-09
0
-4.4074671484449536e-06
-1.4619956955761781e-05
0
0
1
1
1
1
1
5.9498157663515221e-08
0
-3.8520305613317514e-06
5.7627460123248055e-07
4.6357010346815965e-08
-2.9892407516140024e-08
1
1
1
1
1
2.5578874394928409e-05
4.9253835710437636e-09
-1.9788931603362508e-05
1.2252594545128442e-06
6.6647375056945027e-13
-3.2097581182238006e-06
1
1
1
1
1
1.0787868290381635e-07
4.5588106732834661e-10
6.121816312998199e-09
6.5098212371740328e-06
2.7445143737969777e-09
-5.5321724866119838e-08
1
1
1
1
1
-1.4754129047231759e-05
0
0.00013025897029001141
4.9567218550151631e-05
9.1765811349887094e-08
0
1
1
1
1
1
4.8480805216936179e-08
4.2646685491552805e-09
-0.00010131868696434575
1.1428549421225693e-05
4.0061889089317672e-08
0
1
1
1
1
1
1.1194275381383548e-05
1.6288512617477808e-08
-5.7110246351451852e-05
-5.2599536904673233e-06
-1.3236872902954153e-07
-4.9118864118808836e-07
1
1
1
1
1
9.3878911951774914e-07
-1.4080395343774654e-13
2.749740183752094e-06
-4.5747728353626117e-05
3.2752829525659569e-07
5.5112279704885258e-08
1
1
1
1
1
7.7507307629198992e-08
0
6.8989902561312037e-07
0
8.3408189494882175e-08
-3.0473921819589485e-10
1
1
1
1
1
-3.6474555735396128e-06
2.1844340507881047e-09
7.3693269802530311e-07
4.7247638374548669e-08
-1.0920372977872322e-08
0
1
1
1
1
1
2.5422413165169066e-08
1.1734574607922397e-08
-2.1577741896502178e-06
-2.7790352169620458e-05
-4.3932900593064542e-09
1.0087841174193004e-06
1
1
1
1
1
4.833021691831583e-07
3.3953729155552457e-09
9.0471834867301602e-06
-3.427643569223191e-06
2.5006464681326513e-08
1.118904432748884e-06
1
1
1
1
1
6.7995396896160462e-14
6.2950431565032972e-11
-1.6312820944710146e-05
-0.00075880392744395438
2.4132287833478401e-08
2.1197399418415556e-09
1
1
1
1
1
5.8810041139525058e-11
6.4605836171968339e-11
1.1403442036030318e-06
-2.1165664997257149e-05
-5.7747186194529159e-10
3.2838879295301789e-07
1
1
1
1
1
2.5293885268900164e-06
0
9.5768940611008443e-05
-6.1089570463733396e-06
2.795845578378972e-07
-0.00022751424996774261
1
1
1
1
1
5.3196252612515242e-08
0.00052175847781543304
-8.3469345366140658e-05
0.010333454711753835
-0.018478291560938335
-0.00096547037708354577
1
1
1
1
1
0.00075617849188543531
2.7533450602262854e-07
-0.042977920986894069
-2.6059981674204497e-07
0.0020703486424719923
-0.00061266091419644761
1
1
1
1
1
-1.2308485511851338e-07
-0.00020200543641937072
-0.00032340799347413678
-1.4452583635741947e-05
-0.0021652473629112934
-0.01365159458236561
1
1
1
1
1
-6.5006435191791574e-05
-1.6867339375891237e-05
4.6261338106481136e-05
7.4467768531390861e-05
-0.000343516681647927
0.00052933811014864213
1
1
1
1
1
1.5411235115333201e-08
0.0053303242839247457
-5.7119652335463296e-05
0.026445781626302536
6.5089567704087244e-05
-0.033001654840060707
1
1
1
1
1
1.3260181070052284e-08
-3.720560461542534e-05
-0.0010123103463789158
-0.055694928324018428
-0.0045885263141074968
0.018301297922407603
1
1
1
1
1
3.2063607467051026e-11
0.00038849400135978026
0.0084663900067779678
0.003794039094741534
0.0031426818376441771
4.3833255045344534e-06
1
1
1
1
1
9.1016213965616374e-06
-4.7442537788765158e-05
6.5257581524858949e-05
0.0057847835411110431
0.0012340571812013246
0.00045250406590139882
1
1
1
1
1
0.0016342806175947584
-3.0590273125591598e-05
0.017200622703139538
-0.010775320290356327
0.053016102547435939
0.00044045756634735248
1
1
1
1
1
6.625857394576578e-05
0.0018472138621107143
0.003729388363920479
0.00013892502555836492
0.022717288161823126
2.7989025090387307e-05
1
1
1
1
1
0.000639439683765704
0.012681531003351341
-0.029187709432743212
-0.0053989467237190968
-0.017461411736549245
0.00667399121153665
1
1
1
1
1
0.0068257250770613039
-0.00011252080446378961
-0.00053266553918184239
-0.00013200783131779153
0.014237764180734571
0.0025081662756056243
1
1
1
1
1
0.0022000705409157477
-0.0037214125631406538
-3.9082835009026002e-06
-0.0046278047927067597
0.0018788307982980611
-0.00098915649468495894
1
1
1
1
1
0.040235738727305528
-1.5620998004703214e-05
0.0025602003383309027
0.1324976920125642
0.0073975272263524447
-0.018466944689766941
1
1
1
1
1
-5.8423144491015271e-08
0.00010623241958774267
0.044342683878277792
-0.032086590162272284
0.00088388954747623384
0.00020236192418749164
1
1
1
1
1
-0.00049483984393286777
-2.7386607173476539e-07
0.0005498145281349117
-0.048272326833362654
-0.00030559447821311306
0.00017298765480012974
1
1
1
1
1
0.001265858780064388
-0.0018585933915016525
0.00076530955052017192
-7.242606079349604e-08
0.0011295504958493277
0.0013699516680429813
1
1
1
1
1
4.5361396668068389e-05
-7.0117342283417653e-05
-7.7989083995153621e-05
0.019726911388418814
1.5349668265727433e-07
0.0021574400100317216
1
1
1
1
1
-0.00483378161433863
-0.00017756372416905683
-0.10045518536129014
-0.15935308254830299
-6.7934594829604033e-05
-0.0025412070415439104
1
1
1
1
1
-0.0013796977245367063
-0.00033764936776323282
-7.130382444100269e-06
0.002199471013733135
-1.1788819116350267e-05
-0.00080078841409619644
1
1
1
1
1
-1.2256312538867874e-07
0
0.0010540272212969306
-0.0067228879071925072
3.9870316109392225e-06
-0.004112849494351303
1
1
1
1
1
0.0035309304985435669
0
-7.7208741495859989e-05
0.00014280859720861705
-7.1161228152989668e-06
-0.0069178265214695535
1
1
1
1
1
-8.8763346339481417e-05
5.2314952273658082e-05
3.3728261481396962e-06
1.3335541115111659e-06
0.00061982319062927986
7.2715813679613206e-07
1
1
1
1
1
-2.6604528689628169e-10
0.00014779429098147636
0.010763984208912501
0.00041423515907023782
6.2205341689936608e-07
0.0060354948353723162
1
1
1
1
1
0.0011314866291219762
-4.6540965370513391e-07
0.0035005337980569561
-0.00067684552369855775
-0.00057344347814102176
0.00011798170946062868
1
1
1
1
1
0.00012085125422475588
0.0001026939149148684
0.035629970077316345
1.5352153729467755e-07
0.00010731746844126249
0.00069927242632985935
1
1
1
1
1
0.0053300023269679704
-2.5869612074515613e-07
0.0041131208296564204
0.069651980480443951
0.019108720384817618
-0.00051155108884252043
1
1
1
1
1
-0.00022956844020191624
4.4653344883492337e-05
-0.00058368594737364418
0.026554817217733107
-0.0027004546115599907
-0.0001221165917270358
1
1
1
1
1
4.7209894038716079e-08
5.5369214550824607e-05
0.037345453979901744
0.00010724215835789886
0.049476955510400857
0.0024310999751147471
1
1
1
1
1
-2.426240331918902e-09
5.3537815264753756e-06
3.663087503836671e-06
0.0079757426120477763
1.8220946729324874e-06
-3.3464292635180828e-06
1
1
1
1
1
-0.003124663901968798
4.3943409437147302e-05
0.0058136745021578505
-0.033420352938897911
-9.5628243746067235e-05
0.00054146567351661898
1
1
1
1
1
0.0049177196395996303
-0.0031800234900340274
-0.033878548776737058
-2.4981995924122868e-06
4.2511792102524272e-05
0.00026733844609159129
1
1
1
1
1
-1.3178148425370947e-06
-2.8458564624710358e-06
-0.00013339955968181562
-0.00028529879877776352
0.022163042209922157
0.0013600487773553049
1
1
1
1
1
3.085787342570944e-06
-7.5128949769954961e-05
-0.0029058615349417238
-6.9873186434676846e-05
-0.054990758349719462
0.00020309940103950956
1
1
1
1
1
-0.00072708503716688853
1.2031672083954459e-05
-0.0021992384304233372
0.0092974363701375604
-2.2819238929689913e-05
6.9129688887659274e-05
1
1
1
1
1
-3.2693348474253042e-06
0.00015977031046510203
0.040340953895003542
0.00068480009556444183
0.00054157434887299838
0.00014575963494607323
1
1
1
1
1
-2.2627246624917386e-05
-0.001864884271790679
0.001514806759751196
1.9352677559088663e-05
-0.00025321420399373773
0.015010797534788444
1
1
1
1
1
0.00014468377286992569
0.00069142178594757504
0.0006009794792106272
3.4610606094155552e-05
0.00033465115460888932
-5.8129636502356869e-05
1
1
1
1
1
7.0405834494220672e-12
6.752250016454936e-08
-9.5459404324674959e-05
-0.00047227539638105285
6.5840251856209492e-07
-8.7775788169648822e-06
1
1
1
1
1
0.00011318887950220955
-0.0025811565140083565
-0.00016291386537899171
-0.00013859997794198124
-4.3830090335245563e-05
-1.1975634522515288e-05
1
1
1
1
1
-0.0063891366491373135
-0.00063290514753934447
-0.0013486109791418215
-0.01858879111657305
-0.00040835168714157958
-0.00057514005679282665
1
1
1
1
1
6.0045889145912217e-05
0.0028818327513276893
2.6036567361737014e-06
0.011602599198592864
2.8476011633545995e-07
5.8724471265435864e-08
1
1
1
1
1
-0.0035817940523564682
1.1537422193935153e-05
0.02597227519695677
8.9240743432960042e-05
-1.2729676421787175e-05
-1.5293332995048135e-05
1
1
1
1
1
1.0857588199760298e-05
-7.6919266888169036e-05
6.7816321183223236e-05
0.022467598965102888
2.7701988925530621e-07
0.0047898125745727315
1
1
1
1
1
-4.4618579119711976e-09
-0.0001682020520851475
-0.022625502431188452
-0.0048123276853081686
0.00025524938443727827
2.5332351649854812e-08
1
1
1
1
1
4.7164260931194282e-06
-0.0041133993265219633
-0.0003291534506101211
0.024020564592920714
0.0020496144535305963
-0.0038505012199268676
1
1
1
1
1
-6.9527439417594773e-05
-0.00047779362097163876
-0.019942538287230461
-2.0573894898452418e-05
-0.00035868944309070457
-0.0040948216404803894
1
1
1
1
1
-0.00065504494408323251
-4.3812545947449343e-06
5.5824870701746567e-06
-0.015294687597038325
0.091727074402020284
-0.0017567713701031001
1
1
1
1
1
3.6145790854818855e-05
8.1994430571291432e-05
0.0045480619805345988
0.0012685848686861869
0.0068373405745640282
0.00059489275046748381
1
1
1
1
1
2.9460372203881158e-10
2.6715696875074452e-05
2.9229587462801797e-05
0.00032026704231185785
0.0015273442123574126
0.0040681089759748417
1
1
1
1
1
-0.0027430041075305125
-3.1430317652515766e-07
-0.00012207660360787556
-0.0012223013723136537
-0.00061153382498658679
2.8925848661181513e-05
1
1
1
1
1
0.00050040638004068849
-4.0121327250581774e-05
-0.0076901095811093435
1.3133051715182929e-05
0.0042233517127929446
-0.00057400770535041043
1
1
1
1
1
0.0044512799070191914
2.2965474352428589e-06
0.00092748326642560499
-0.00074758479347259517
8.4759442096799225e-05
-0.0040926899551698408
1
1
1
1
1
0.00098532730360340656
0
9.6119189792942449e-05
0.00034252456786872164
2.1969718191346118e-05
-0.0053529241106198269
1
1
1
1
1
-0.0043183909308440746
-2.6946051415589318e-05
0.0001396919865371766
0.00088975690888939561
-0.00033764230219629856
-0.00018925022323326463
1
1
1
1
1
6.1931604032017432e-07
0.00030625363477887864
0.00017715895129678807
0.0059572666907061426
-0.035245516795365354
-0.0018397249461329823
1
1
1
1
1
0.00013341314519875103
0.0015770874598923716
-0.00038773868893026716
-0.010496556395280205
1.8986065343598636e-05
2.3268781696226891e-05
1
1
1
1
1
-2.4936457493701486e-09
2.1439378809842743e-12
0.0043973569848471264
0.002502210714718458
-3.3159763480649449e-08
-2.0977050296521793e-08
1
1
1
1
1
2.7452676398186682e-08
0
0.0057967955597969002
0.0026160544640172162
-2.4806746917920025e-07
-7.8487791133496121e-07
1
1
1
1
1
4.5143903823946e-12
0
6.6541472055471388e-06
1.5792901676472484e-06
3.7867118299200612e-07
1.5318315351700742e-08
1
1
1
1
1
-1.3504093488918352e-05
0
-7.980765935708043e-06
-3.1192917496026271e-06
-1.2758132900719359e-05
6.1566460956883378e-08
1
1
1
1
1
3.983716243858197e-12
5.2497333054539424e-10
0.00083979196492742301
0.0015694260854761739
5.7765880113214428e-07
8.3993282612962877e-08
1
1
1
1
1
-7.1518879619255333e-06
-2.0768893701080658e-10
5.6764843149480893e-06
0.0026619558576900086
2.0816675876496277e-07
-7.6039297044196911e-10
1
1
1
1
1
1.7080213678746787e-09
4.4613757074616613e-09
0.0048121889622789243
1.5158421969107973e-06
4.7000544769476942e-07
5.1589398697303013e-08
1
1
1
1
1
-2.3245807671523594e-08
-9.0479780347842976e-11
4.8047724606301875e-09
-1.5861347738507456e-05
3.7681037390730906e-08
-6.4486619311041915e-09
1
1
1
1
1
6.578718654089242e-07
4.3073959554067442e-10
-0.0026880235146474092
-1.418297330439876e-06
0
-4.882713935221442e-11
1
1
1
1
1
-2.2648858448208738e-07
8.8910268696115003e-10
2.9073919510829097e-06
4.7089446293012918e-05
3.1244438527168768e-10
0
1
1
1
1
1
2.0370443531782818e-09
0
1.4950907631463134e-06
-2.0840514313586528e-05
8.0834710185679723e-08
0
1
1
1
1
1
-3.5556887466211638e-08
0
-6.6683040715892794e-06
-3.9368448553041949e-09
-1.7306643476381609e-06
-1.1024990638174241e-09
1
1
1
1
1
7.1666888026106621e-08
5.4128545391529075e-11
-9.2789363752213987e-05
0.00012953992533108611
2.4437762730626153e-08
5.7738059411481022e-08
1
1
1
1
1
-1.7321225872599592e-07
8.6417316471420606e-10
0.00073267374129048449
0
5.2819025555904898e-06
5.0771063610843727e-06
1
1
1
1
1
-7.4004159635740316e-06
-8.6796974088993977e-13
0
1.1759543297840766e-05
0
5.5168343920055176e-08
1
1
1
1
1
5.2391667630307216e-10
0
-3.6581214591365868e-06
0.0013643134046272766
0
0
1
1
1
1
1
-1.2353929126505357e-08
0
3.8108351337608349e-06
4.8682174350763408e-07
1.1107606688274744e-07
2.1736570499962133e-07
1
1
1
1
1
-8.4857335197149552e-06
5.7115488961983927e-10
1.4060673463111629e-05
-2.4430378789197645e-05
2.0493909996194936e-13
4.171787161648994e-06
1
1
1
1
1
1.2354758940867353e-07
1.0359686196156819e-10
-1.2405580116786324e-08
0.00032479960207582839
-1.1715022943313545e-10
2.5887608784642691e-08
1
1
1
1
1
1.1060338482796627e-08
0
-4.5265162413205066e-09
-3.1712717022954734e-05
-8.1680527697443521e-08
0
1
1
1
1
1
4.6997008541226455e-09
0
-0.00048492812010409938
-1.3065689374816013e-06
2.4331763515725711e-08
0
1
1
1
1
1
-1.3058013618507779e-06
1.2499781939452876e-09
-2.1695383764869309e-06
-7.8551272579577576e-06
2.8685148501514303e-07
9.3933766830440095e-09
1
1
1
1
1
-2.7196895751872895e-06
1.4176890565822779e-12
2.7474765264159479e-06
-2.9075488150535099e-05
2.5727469600197831e-07
2.9772810610463209e-07
1
1
1
1
1
1.0342105206140835e-07
0
-2.3307973429295908e-06
0
-2.6916918729245642e-10
-1.5347128328597305e-10
1
1
1
1
1
-2.6938963933963023e-06
0
3.6890877410578397e-07
6.1291081362610601e-08
4.2334719511321221e-09
0
1
1
1
1
1
1.2925294250178525e-09
-2.4337468484038421e-09
8.2243853779529118e-07
5.3082034513346698e-09
3.849211479692074e-07
-7.4193864325496299e-09
1
1
1
1
1
2.9422609165135718e-07
1.5327220903392451e-11
-6.1247105917493878e-06
5.2054679120181935e-06
-2.6227155109776959e-08
3.7071028780897842e-05
1
1
1
1
1
3.8503640193651463e-14
3.0616010482729239e-11
3.459468682004552e-05
7.0129057176157325e-06
-2.9236286538420421e-07
-4.0507045250864343e-08
1
1
1
1
1
-3.6378962416849886e-11
-1.0077620186802254e-10
-1.8596177288835162e-05
4.1276006764080137e-07
3.8916942877918435e-09
2.1850420099785279e-07
1
1
1
1
1
-2.8516501647344688e-06
0
2.2545513368047737e-06
5.690587903100188e-06
0
0.00021415937396825215
1
1
1
1
1
-7.9368575857666842e-07
-0.0015038883891273088
0.00085744294490494241
0.013034103521478047
-0.00023739783486846663
-0.0044787162744734047
1
1
1
1
1
0.0021916368136545104
-5.0939631787306759e-06
-0.023284889321900017
-5.7547262344299944e-07
0
4.8664672416129477e-06
1
1
1
1
1
1.2306969448333709e-07
-1.5687391534345433e-08
-0.010228118197392996
-9.102481284559773e-05
0.0021673374385364091
0.005318073505833144
1
1
1
1
1
0.00016752535450550315
2.1406752012904637e-05
6.6746811484899135e-05
7.4526468638705476e-05
0.00028817459708167824
-0.00050739161524561308
1
1
1
1
1
-1.020078028485306e-08
1.5112034020368686e-05
0
0.014135185690530497
2.1642883527989456e-05
-0.002818245586656038
1
1
1
1
1
2.0313022286903749e-08
-0.00017939553458227195
0.0059949439082183633
4.0582718157621574e-06
-0.0081271526454164272
0.00010614193846373829
1
1
1
1
1
-3.0773189221706712e-11
-0.0013904134260224426
0.001963168040401603
-0.0080009599903343373
-0.001030137244366939
0.0013640832982847557
1
1
1
1
1
-5.1766931078404528e-06
-1.9450969623549046e-05
-6.7081332935211888e-05
-0.001198975662595517
0.0012153672789190252
0.00033895669813296643
1
1
1
1
1
0.015847493956815614
1.1367119273181888e-06
0.017241732580394947
0.011733983021632897
0.00039260708710079571
-0.00025320620851966281
1
1
1
1
1
-9.5000597702996694e-05
-0.0053361208804160922
-0.0038977074664054375
-0.0028980268912497443
-0.0072260131336316612
0.00016493283767306686
1
1
1
1
1
-0.00063944207814262144
-1.2729108704255895e-07
0.00032791148404640708
-0.012984703427185182
-0.0073242817845818303
-0.00017770998461189759
1
1
1
1
1
5.725391513452384e-05
-5.5473393227604296e-05
0.00068909468119148095
1.5622827020079958e-07
-0.01255316354238957
0.0025554182897353055
1
1
1
1
1
0.0040205377535982127
-0.0026056163686462683
0.00039772378549180344
-0.0010951529976612471
0.0035511902855928446
-0.0037326774169657412
1
1
1
1
1
-0.00016235738801310506
7.0339840303836643e-08
0.0017794813806564622
4.1622542157151837e-05
-0.0031385543566083019
-1.9565922719568639e-07
1
1
1
1
1
2.6998039045496328e-07
0.00053488089666028243
0.035216425505767666
0.032897698965646982
0.0022336355738963296
6.2380593948654076e-05
1
1
1
1
1
0.00054958864697512457
3.8531456150352713e-07
-0.0012992129057474168
-0.00087758418131565969
0.0045045059366647178
0.0060145930406828923
1
1
1
1
1
0.0026443320821661022
0.0019867398714045071
-7.3995250773348687e-05
-0.04514448687357811
0.0010116229525718935
0.00042374328102721758
1
1
1
1
1
-0.00017747863268314078
-9.4216838681607934e-05
-5.9872472244326542e-05
-0.019687604337828343
-1.4651173723944328e-07
-0.0009144547537254579
1
1
1
1
1
-0.0027473883223520733
-9.7698407383381154e-06
-4.7925134533809165e-06
0
-4.7016659055333784e-05
-0.0048559471581044091
1
1
1
1
1
0.00028243170610716697
1.6268991766509813e-09
-2.2650636141801116e-05
-0.072481483781069028
4.5384285153739691e-06
0.00012060947503258924
1
1
1
1
1
-4.5982041403585317e-07
0
-0.0028739347837998565
-0.00014768263188012347
0.015626032866796438
0.0015824318467956384
1
1
1
1
1
0.0017723458365257964
0
-8.0362260752229895e-05
-0.00015560682466912669
0.00060943733247598609
0.00055309127284760282
1
1
1
1
1
-9.1927814231994737e-05
-0.011259037498297384
-0.026050197529696933
1.9580192953817062e-07
0.00096956948247891575
0.00013911681849910134
1
1
1
1
1
-2.3275394824090808e-11
0.00021517870272816684
0.0077260087434462563
-8.7151523182828257e-05
-1.907878692358614e-06
-0.0085785818613128215
1
1
1
1
1
-0.015712512106614996
-3.3508646640194012e-07
-0.0044760245957113269
0.0013649361359330402
-0.0039869000620115251
-0.0019159739285654158
1
1
1
1
1
0.0002473846316789913
3.8656627384796354e-05
0.033217703949675569
1.0307926073441907e-07
1.7211476708095055e-05
-0.00065759856081204016
1
1
1
1
1
-0.0025527032815930157
-2.3253738708558526e-07
-0.0013988062644895187
0.033962580804482417
-1.4735643694555142e-05
0.0012928793320025284
1
1
1
1
1
-0.00075410042627181142
0.00065672307875786688
2.8505773978198994e-06
5.5075579041436798e-05
-0.0083079744378565488
-0.00043260813410811639
1
1
1
1
1
-3.0916083575002639e-08
9.6675439679262072e-08
-0.037262172926290832
-1.0842656989568817e-06
-0.022492512770967081
-0.0011367265511092394
1
1
1
1
1
4.5593021997701067e-09
-5.83321308736953e-06
2.156915161326105e-06
0.0028264942734402545
2.3288017062244723e-06
-1.69213721267483e-06
1
1
1
1
1
0.00055424594263673579
-3.1408222127890458e-05
-0.013452474280334067
-0.019617187763466763
5.6297543556049779e-05
-3.5418436180338246e-05
1
1
1
1
1
0.00034224491403633784
-1.4413810657202526e-06
0.004318716378514921
3.1165658791686328e-06
1.7160372748131665e-05
-0.00026508190041291851
1
1
1
1
1
-8.4934529500864053e-08
6.4757126589805523e-05
0.0011182009326704044
0.0027960726536845251
-0.00077008531504204638
-0.003609384368092283
1
1
1
1
1
1.4530048294099592e-06
-1.1056281415494914e-06
0.0056668036084002631
4.6800754103949633e-05
2.1270077543538493e-05
0.00031691756844004395
1
1
1
1
1
-0.0017139560048914529
-7.7218070755830968e-05
1.0036995579829589e-05
0.010063723606611525
3.2050415272390727e-05
-6.4724264562696267e-05
1
1
1
1
1
3.1014276529456788e-05
2.7787908899603441e-05
-0.0013100750001869778
-0.00082177274564750491
0.00011654379014003787
0.0011077398890804223
1
1
1
1
1
2.239562906228639e-05
1.9317220394051943e-09
0.018552904993959819
1.668868060492552e-05
0
9.3773859596313548e-05
1
1
1
1
1
-0.00014468400191175888
-4.5281207646613704e-06
0.00022991092083144175
4.4828833444756865e-05
-0.0003433281219292351
-8.5459617910239831e-05
1
1
1
1
1
-1.7448932396464989e-13
-2.4090559731960456e-05
-9.5131338835018644e-05
4.4267807768273075e-06
-5.536231658742697e-06
-0.00012193994313853202
1
1
1
1
1
6.6348597407650187e-05
-0.0012747073394986698
-9.0400252705316716e-05
-0.00013088210627589035
0.00013879904408563634
0.00093618726701606789
1
1
1
1
1
0.00045609275359398117
0.00010237159289472915
-0.00030326578534810783
0.017108691221596875
0.00017270584323998892
0.00063306123745765432
1
1
1
1
1
-0.00023834498195541879
1.8623582999997951e-06
-0.012850362051053684
0.011780927438102192
-4.093065959003828e-09
-0.0042869247371357406
1
1
1
1
1
0.0040826790147240688
3.2503699622370972e-06
0.00061476333087329583
0.00010560089919700751
0.00047535051466334675
3.9897597910621236e-05
1
1
1
1
1
-1.7734075922636911e-05
2.3731386371160173e-06
6.6595740931140994e-05
0.022467598965102888
-7.981900954738971e-08
-0.0055754502827153295
1
1
1
1
1
-7.7174443806453722e-08
4.3701512986316519e-05
-0.022625503298487393
-0.013201948111902201
-1.0370874715111724e-05
-4.1104817480405289e-09
1
1
1
1
1
-9.9652657407489829e-06
0.00027608701773491071
-0.035287067137766817
-0.009331854664382213
-0.00010474650084986297
0.0038306919181052409
1
1
1
1
1
8.982581587570875e-05
0.00022549248033698906
0.016099405858404591
2.7701214960156948e-05
-5.6807096870442237e-05
-0.004411487473347347
1
1
1
1
1
9.600122333325142e-05
-2.4686689073365518e-06
-1.1653851441746996e-05
-0.004134825840502252
4.7658492781721793e-06
0.0016083916819923042
1
1
1
1
1
2.2259654434312299e-05
-4.2867530072463998e-05
-0.0076488132739298042
-0.0063141646294486518
-0.0035919090397802684
-6.3735323677888757e-05
1
1
1
1
1
6.0818109582809887e-10
-2.6715696875074452e-05
-0.00020879434518227276
-0.00042121815458980456
0.0011586200734826141
-0.00072339577313931325
1
1
1
1
1
-0.0047029892010107327
-3.2272558128895586e-07
-0.00025879756480925558
0.00054101253752289046
0.00052614230575629458
-2.4298186760442886e-05
1
1
1
1
1
0.0016224154978810865
9.5279339436702189e-06
0.00780782919830913
0.010755070364824355
-0.0039498465739919632
-0.00083803901446468526
1
1
1
1
1
-0.0066565464646847821
1.360548222642535e-06
7.3368346918437716e-08
0.0045063259125186442
-8.4326891085042741e-05
0.0062730327433885317
1
1
1
1
1
0.00098532804140750519
0
8.8033816749641852e-05
9.215682990523846e-05
-2.1962409006674701e-05
0.00018009231482669376
1
1
1
1
1
0.00061444935809278859
5.9753086883788537e-05
0.0001396919865371766
0.0010188600107460691
5.9407993325819387e-05
0.00024781144117184912
1
1
1
1
1
-0.0073409565899651801
2.2387927631745765e-05
0.0015320900484740666
0.0094325969963806756
-0.0010521612680884352
-0.0026089920670777024
1
1
1
1
1
0.00013343256479900182
0.0015836446320666706
1.3988434787291563e-06
-0.003416497913807002
-2.4334952948854509e-05
1.0490318093555817e-05
1
1
1
1
1
1.9449535946908085e-09
1.6026154082257643e-11
-0.0028941631967493589
-5.7002434165208641e-05
-2.5860630949928169e-06
2.0977078200238832e-08
1
1
1
1
1
-2.2726472962630855e-08
0
-0.00020057399966845501
-0.0016875953843177153
8.4001672361998322e-07
1.0703093384344472e-06
1
1
1
1
1
-2.7070688678951116e-11
0
0
-1.8642178817336573e-07
1.6438681734915704e-07
-4.0440787912377721e-06
1
1
1
1
1
3.6705406622175074e-05
0
-7.9796251655797681e-06
-4.2941398636761758e-06
-2.132550761499871e-05
4.2755617452963709e-07
1
1
1
1
1
0.00011887061186556698
4.0788259534752186e-10
-0.0011245972336909262
0.00044756701868842202
2.472172870363426e-07
3.1456210803268981e-07
1
1
1
1
1
-7.4442193095702881e-07
-3.7082586942249781e-11
1.8022614005957903e-06
-0.00061096362152292878
-1.2819197618381111e-07
-4.5976357495768489e-09
1
1
1
1
1
-2.6186323091837479e-09
2.5577603052655979e-09
5.7641072174649409e-08
-1.6509786864544526e-06
1.8913879596544501e-07
-5.4972556009335931e-07
1
1
1
1
1
2.0043453611459964e-08
-6.2322843684454828e-11
1.00719156144368e-08
1.6234110497094722e-06
5.5877292448200038e-08
-4.3497331739038584e-07
1
1
1
1
1
-2.4239275775445839e-06
-1.1947143650165186e-08
0.00053722617766062603
-4.3686323895540142e-06
0
7.3396815393108594e-10
1
1
1
1
1
-2.4725967430418927e-07
1.1713728592313918e-09
2.914843846069713e-06
5.7985696145120364e-05
-6.474166903559455e-10
0
1
1
1
1
1
-1.6068972990083379e-08
0
3.1202679288734539e-07
-1.256588725662776e-05
-2.5261201997414485e-07
0
1
1
1
1
1
-3.9474373563760847e-08
0
-2.6421192455359621e-06
-4.1758574830363071e-09
-2.8877252730524398e-06
-6.1220517589045281e-10
1
1
1
1
1
-1.5066581658539779e-07
-2.034727440603361e-11
-9.2783498093686978e-05
-0.00011457866348056597
6.8929808819742106e-09
-4.2507636161415749e-08
1
1
1
1
1
-2.8481738840399451e-07
2.5388122195224589e-09
-0.00029036914407068779
0
-5.290688409353996e-06
1.0429014232854469e-06
1
1
1
1
1
-1.4589531822205896e-11
-4.6682021152593427e-12
0
-1.9457090811973362e-05
0
4.6656655230633615e-07
1
1
1
1
1
-1.666310402317341e-09
0
-4.174642199128102e-06
-8.6260492892109019e-07
0
0
1
1
1
1
1
-2.4077001618938418e-08
0
3.7834730953639055e-06
-7.5085922407971224e-07
-2.1759746406167081e-08
-5.0387113122316083e-08
1
1
1
1
1
-8.5231516123179078e-06
4.0975971808292904e-11
5.1243051411754579e-06
-6.8046072053867652e-05
8.5929561880507145e-08
2.9549444850457696e-06
1
1
1
1
1
5.8246863557927445e-08
5.9532326548691117e-11
-6.1731179793249147e-09
-6.9148949049156661e-06
-4.8308087725499932e-10
6.6392349138319938e-09
1
1
1
1
1
