0.49887560613505894
1.5441321745651297e-10
0.0048078080850773213
0.00028788905945125549
-1.4668671718678612e-08
-5.3586902127435019e-08
1
1
1
1
1
0.5000191333512769
0
0.00022059771454294172
0.00096019476195699017
1.452161923922508e-07
9.3293579984489616e-06
1
1
1
1
1
-1.1209171537922242e-06
0
0
9.0897185134946064e-06
1.7402678392973844e-07
9.1785443991964721e-08
1
1
1
1
1
-0.0022645259570492821
0
2.7270460207824927e-05
3.0520308552034162e-05
0.00017283316865546471
1.2465511776998236e-07
1
1
1
1
1
-0.00020520480974813178
-1.4445462728098832e-09
-0.0020319233419660901
0.004709643330430148
1.1771135940850071e-06
-6.3941197774355871e-06
1
1
1
1
1
3.1978267948374139e-05
-3.8584327415889292e-10
0.00024263738725332923
-0.001693809927490625
1.8154909610899518e-07
-8.7306704932528877e-09
1
1
1
1
1
-2.2641950301218785e-05
-4.0097498257254955e-08
4.4137708457103184e-06
1.0951305892587228e-05
2.0953039028784767e-07
1.5435238858811815e-07
1
1
1
1
1
0.00012780745242197051
-5.6219021131645505e-10
4.8943727287115689e-07
2.6482101081907969e-06
9.0564472961435835e-09
-1.3205181926639909e-08
1
1
1
1
1
-0.0017021447381437521
-3.3915421208333141e-07
0.0005945082445452238
1.1054707142722045e-06
0
-1.1501987684194331e-07
1
1
1
1
1
-0.00079994951369887401
-4.1145187383296317e-08
5.6949297310592032e-06
4.7088027591779942e-05
2.8864001425286703e-08
1.0423334177170285e-07
1
1
1
1
1
2.7760337213849739e-06
0
1.7971696780667291e-06
-4.3227761741845543e-05
7.9503731781443889e-08
0
1
1
1
1
1
-0.00042414683464365251
0
2.837369541371747e-07
-4.3665622039740219e-06
3.1650225234910227e-06
-6.3337057975708042e-09
1
1
1
1
1
0.00027873893990737681
-5.2293922372549274e-10
0.00015161795126388049
0.00081843719862806114
-7.1388559604859617e-09
-2.6763205298453528e-06
1
1
1
1
1
-0.0012221621500434297
-4.5232449812449962e-09
-0.000216116361295742
0
0.00039564383971445069
0.00021919590266308346
1
1
1
1
1
-4.0282698382312398e-08
-2.2122989332719233e-10
0
7.5735781020066164e-06
0
3.6730753220944298e-11
1
1
1
1
1
0.01041305639230225
0
1.0604211742243106e-07
0.00093967179608068813
0
0
1
1
1
1
1
-0.00051794265854883165
0
8.911931211005679e-08
-2.5530969378375813e-07
7.6039786347720395e-08
1.9670177222855209e-08
1
1
1
1
1
1.6966651749371621e-05
-9.8943473691571087e-10
1.3610106051270477e-08
0
1.3074680393092991e-08
-0.0001592017781596992
1
1
1
1
1
1.4953203223379811e-05
-8.035355830176393e-10
1.3451359206152769e-07
-2.8737321210468561e-07
-2.2451735820584243e-07
5.5657981638229292e-08
1
1
1
1
1
8.483978790673136e-05
0
1.1678698118643135e-07
2.6153447844740564e-06
3.8290422651045853e-06
0
1
1
1
1
1
-1.3788262673222346e-06
7.737516374514237e-09
0.0003128658083991444
-1.3583038560985386e-07
2.1399053649644107e-08
0
1
1
1
1
1
3.2293607367829695e-06
4.1682022502809752e-08
3.1438497440057986e-07
3.8206226547228042e-08
2.580818996118578e-07
2.9129448412501964e-08
1
1
1
1
1
2.6965307083045289e-05
-2.5397861651446954e-10
-9.0027866690406684e-07
7.6958847716661387e-09
5.1845841578000545e-08
-4.6990735551400501e-08
1
1
1
1
1
-0.00088328007224006025
0
2.7909860274238403e-06
0
2.7784179127295165e-08
5.7878236594123633e-08
1
1
1
1
1
6.8464766840705763e-05
2.6535070373954333e-10
6.0784063588169337e-07
5.9867371699970008e-07
2.3234040785303639e-08
0
1
1
1
1
1
2.0056272724920573e-06
1.546816593137661e-08
4.2568465694262713e-06
1.9436367230666683e-08
2.1770382200184597e-07
3.0084650288226084e-08
1
1
1
1
1
-1.8797824431524705e-06
2.1561949017102234e-10
2.6743914200574707e-06
1.0162069214362864e-05
1.5994595970991777e-08
6.1856327961824038e-05
1
1
1
1
1
-8.8587211417556446e-05
1.4385055699164706e-10
1.6787369330972642e-05
-0.0057642560352362442
1.2919865047805766e-07
-8.9398023342920124e-07
1
1
1
1
1
-4.0119093851944112e-07
2.3371300067676329e-10
0.0066070591968973138
0.00019439581297909831
8.0257608916616966e-08
2.3342633078717664e-07
1
1
1
1
1
1.1441437046538661e-05
0
7.7835338212688269e-06
2.9847350622682142e-06
-7.5974029781917119e-08
-0.00095671971747481803
1
1
1
1
1
0.96427950356355485
-0.011870722428852166
0.00067289103681601628
-0.02164884588906138
0.025417454559349462
0.026596837910995968
1
1
1
1
1
0.99063346163538735
7.5269952166287658e-06
0.0014758582398073019
2.1838608247891896e-05
0.023866042671299728
-5.6731510084855637e-06
1
1
1
1
1
0.57274704404893384
-9.3475961306221361e-05
-0.00091916895625873696
-0.0027841574246930179
-2.3399395901883817e-05
-0.00033069404025499338
1
1
1
1
1
0.91114327581986543
-2.2956570670924387e-05
1.9826494007509304e-05
-0.028608843850718293
-0.00026725908973238423
0.001558539560918443
1
1
1
1
1
0.80462768389297024
0.00038675310139446497
0
0.06657420342633856
0.08288901438164685
0.039110263003118886
1
1
1
1
1
1.0907797243522952
0.001022361841774433
3.7380222109976053e-05
-0.074041383205811689
0.02405213649078947
-0.088876539252013095
1
1
1
1
1
1.0125500191806516
0.001547540610299181
-0.00052030891090858969
-0.016310790957007205
0.037549864139268849
-0.0013519692210589873
1
1
1
1
1
0.7131967950380107
0.001180273552915557
-5.9328982864526771e-05
-0.00013719254601231521
0.00724689233890175
-0.01684434884664528
1
1
1
1
1
1.2907912773136332
-1.2164438114024295e-05
-0.020020311309013307
6.9952312851777711e-05
-0.053495180903870475
-0.0063738944574454493
1
1
1
1
1
1.0190515866616028
-0.012918721191011747
0.0007301653871981511
0.1026613842168469
0.0099394204493397798
0.080088142774488058
1
1
1
1
1
0.50855895944986818
-4.1052622861800703e-07
-0.014723483062948991
-0.029829037193212983
0.045023413642034979
-0.074643530222775187
1
1
1
1
1
1.285170588488326
-0.00069746909508172845
-0.0008557910582976014
2.6469779601696886e-23
-0.058014628385421776
0.019406052352555877
1
1
1
1
1
1.5898427114374534
0.016752345983821863
0.0027586899746799187
-0.0021940315798359088
-0.0047258367552711414
0.0027980527940085925
1
1
1
1
1
0.49869780324071367
-1.3921744730548373e-07
0.0090857573782158595
0.047670861980211268
-0.012489624788298495
0.071962765170813819
1
1
1
1
1
0.61550102554204955
-0.014595003075696087
-0.033307847264185127
-0.093626169224536371
0.00058226449346457322
0.04196253066586051
1
1
1
1
1
1.0686810207556316
-5.3923093355838714e-07
-0.063391641950899774
-0.00039172866979071523
-0.0010183355113851707
-0.0047869559843415864
1
1
1
1
1
1.0038809960623243
-0.016371353631973121
-3.2283023207979845e-05
-0.040553925040482629
0.00011846713097662117
4.6794654083938226e-06
1
1
1
1
1
1.0124187899728199
8.4012605239449156e-05
-0.017743743297102949
0.018341454453440608
1.269213531299075e-05
0.044419889124521883
1
1
1
1
1
0.92313935950961734
-1.451809164189744e-05
-9.6874171345241755e-05
0
5.8018251134539157e-06
-0.029676307260114478
1
1
1
1
1
0.97939261090887009
0.0066716703807649805
-0.00016181884555270222
-0.0034628715729287116
0.00056020245230159796
0.00010975262794948561
1
1
1
1
1
0.6198102659521233
0
0.09192692444608444
-0.0074094859594790834
0.036116649289330699
0.021310373073392678
1
1
1
1
1
0.65692844907300341
0
-2.6120817780364602e-06
-0.029749540370519287
0.00051659851474082164
-0.0061002299786702468
1
1
1
1
1
1.5472994013281172
-0.010476864836775205
0.00016505381671476517
1.5972669976048414e-05
6.117999664284268e-08
-0.015878753872689676
1
1
1
1
1
1.0153621232855106
-0.0020521039692219445
0.00085221960101876349
0.00011938528541320721
-3.1152277736588831e-07
0.0062111599407259875
1
1
1
1
1
0.9896161311146614
-5.2757581719871582e-07
-0.016083183810655516
0.00087629437130399797
-0.0023883590466841648
5.962395129603452e-06
1
1
1
1
1
0.91084187165066111
-0.00010866188059397538
0.0060223034514918566
-8.9716219328446946e-09
0.00011029168085576659
-0.055813581684771435
1
1
1
1
1
0.94678349003211537
-0.00049677303977148672
0.004458073695151425
0.034467174107731785
0.055786268794764796
0.00081075940191815336
1
1
1
1
1
1.2759100990914978
0.015721001340923971
0.00059084978359429205
0.02614630675826253
0.0039990791793573545
0.098818249969683039
1
1
1
1
1
0.72830031268751683
-8.4132245054323439e-06
0.0490938977104785
0.00039335096641688206
0.0056173494479422161
-0.00020716166010891152
1
1
1
1
1
0.51743018192476808
0.00011701407469921166
1.9492913470187933e-06
0.057962781934950566
-6.8041524815058912e-06
6.8420905369847491e-05
1
1
1
1
1
0.5072942672491938
-0.00019601405391782607
-0.0011579800731545318
-0.00268440325461886
-2.9432671409520743e-05
0.0030590004371268118
1
1
1
1
1
0.11887521060732077
-0.0066490007054137287
4.9075454015421348e-05
1.2224735347821308e-06
-0.0089859729934198274
-2.4340759814479412e-06
1
1
1
1
1
0.067637604377162666
0.0051590755214896917
0.00085198978602841991
3.0446917905542363e-05
0.022882012881622123
0.0046330460883639056
1
1
1
1
1
-0.11130485060614961
2.3595873078248026e-06
-0.00036683127887780802
-0.088702273787916036
0.0015098276266826201
0.026049224128335293
1
1
1
1
1
0.014379522438334966
-0.0011443614963022857
-0.038922442683810489
0.047828950267631981
-7.6737226633156449e-05
2.6325033745366504e-06
1
1
1
1
1
0.0021001294349980815
-0.00094503706547441866
-0.027277594933603912
-0.00087916170626742935
7.7089706863503569e-07
5.4799974195099944e-06
1
1
1
1
1
-0.37123802034886733
0.0015115880861372327
0.025728651308792878
1.5715234153172798e-05
0
4.6519395506296165e-06
1
1
1
1
1
-0.0024563700808074326
0.001828993949335602
4.038364026969734e-06
8.7939301963401189e-06
-1.5381044906134079e-05
0
1
1
1
1
1
0.049314208893557074
-7.8589673886255863e-08
0.0010267901639667257
0.0034347115064070643
-0.00035308812753392563
-0.00013231196624164908
1
1
1
1
1
-0.29116854822443256
-0.001993649424762206
0
-1.3593691678283534e-05
-7.7369618652470843e-05
-2.620169605864976e-05
1
1
1
1
1
-0.02648823613973824
-0.0011978192258559844
-1.1362396507192674e-05
0.0039870138600846166
-8.4640633749642262e-06
5.0065479682875515e-05
1
1
1
1
1
0.51787889647785235
0.0047279896432368251
-0.0012887640656933225
0.095913696313421837
-1.8931636323113335e-06
8.7853954884869391e-05
1
1
1
1
1
0.090503661233613947
-8.7134022902098244e-06
-0.11992130495836963
-9.8004609841955139e-05
5.38895238335825e-05
7.8334447798996423e-06
1
1
1
1
1
-0.22392047111498053
7.3854692967770326e-05
0.13773375014688422
-0.019883005792182027
-2.8831341752510777e-05
-0.006446106258520835
1
1
1
1
1
-0.10895012697592436
-0.00062422586343853276
-0.00072123243344240527
-0.086457263071654453
5.323895500836462e-05
1.2504492801521618e-06
1
1
1
1
1
0.0005393374329079716
0.0060728039831762877
-0.014425291101505783
-0.0086087072109388152
-0.033001364786714359
-0.01147900513118837
1
1
1
1
1
0.01249849146814184
0.001874759638367955
-0.0092744886058152651
0.00018802276167726576
5.9894258616455106e-06
-0.0041119127344263597
1
1
1
1
1
0.026562648201213936
-3.5374972333774162e-05
-5.105048998129875e-06
0.0062203038178062142
2.7310579236816397e-05
0.00046196249833398975
1
1
1
1
1
0.16076069999757367
-7.2799801897868765e-05
0.032821962772889027
0.0013170219462638451
-0.016963936444852622
3.8117609576640139e-06
1
1
1
1
1
-0.27996330656473939
1.3053215077375514e-06
0.00096913512364739222
0.026068225815134662
-0.0019494984835034114
-5.5236354654211559e-06
1
1
1
1
1
-0.59454568661310203
-2.0094508046573464e-05
-0.00087740728510988337
-0.041189230692015986
0.041644823086976604
-1.0913083722487617e-05
1
1
1
1
1
-0.051024458249466283
6.2996210182576074e-05
-0.072580650483193301
0.00025238103182383023
-0.019799807264454124
-2.0053229904416696e-07
1
1
1
1
1
0.0028201591422671326
-9.3599921260032403e-07
-9.7711903832535975e-06
0.0037345476976845065
6.6066578414476252e-06
0.015729017263448521
1
1
1
1
1
0.11555114066398461
0
0.020215598968571419
-0.03779159326488616
2.3861856225376189e-06
-0.0076023116381558958
1
1
1
1
1
0.016538879537267449
-3.7598635695591681e-05
-0.0011349516861672221
-0.00043588068377041787
0.04915558702398818
-4.1020341119335731e-06
1
1
1
1
1
0.097545881618646316
-0.00049067516981571389
0.00062736634815091594
0.034872218938929174
-0.011055554273650316
-0.012605020119746721
1
1
1
1
1
0.28417925512601072
-0.001627841206763149
0.056992470077800263
0.010127605159510594
-0.0042420918917441004
-3.8947984977007261e-06
1
1
1
1
1
1.6461944802054284e-08
1.2563376902948114e-10
-6.8564655626326656e-05
-3.537430902567567e-06
-9.6439212831972221e-09
-1.8244279540233452e-08
1
1
1
1
1
1.5252147342096419e-07
0
-0.00020347970210207584
-0.0015441449944381591
-8.4203019977339656e-10
3.9438436013022444e-07
1
1
1
1
1
4.8040500602840292e-10
0
0
-2.2940610267146058e-06
-7.4577146577316718e-10
4.0335170515668316e-06
1
1
1
1
1
7.2574353089123979e-05
0
-1.5145707167522086e-05
-8.0052555194222819e-06
-2.8250507523112762e-05
-7.2705293278264938e-09
1
1
1
1
1
4.2495397640628047e-09
4.3095887448878732e-10
-0.0021360830633939567
0.00019313432005952733
0
3.2267168399431179e-07
1
1
1
1
1
5.4860845827169779e-06
4.6953761133158896e-10
-1.0922066704586648e-05
0.00037404284892715502
-4.4023959874755432e-11
3.4529225489344375e-10
1
1
1
1
1
9.9181759801093616e-09
9.4547949914848122e-10
-5.4110575182980641e-06
-1.60584856486472e-06
0
3.4827723178151211e-09
1
1
1
1
1
1.6940878860784448e-08
2.5366775812123403e-11
-1.1800650769734224e-07
3.3231121053658951e-06
-8.8040000693776387e-09
-3.7757026106699993e-08
1
1
1
1
1
3.8208701630362899e-06
1.1007261524724438e-12
-4.0832257117344334e-05
-2.2789882827533555e-06
0
1.5421370155562008e-09
1
1
1
1
1
5.8629895165432693e-07
7.6519547263942168e-11
-0.00024705252050196991
-4.7534602850358096e-05
-1.3303109652073872e-09
0
1
1
1
1
1
8.1666602534556906e-08
0
-1.4661454348792017e-06
7.5832149603773817e-06
-4.0498221943574001e-08
0
1
1
1
1
1
1.3580329925015502e-07
0
-6.5278082941290914e-06
-1.6291759811464843e-08
1.7468819044919872e-06
1.2216897677113542e-09
1
1
1
1
1
5.1542721137616595e-06
4.7817963984948961e-11
9.4659420569235338e-05
0.00017346147480132773
-5.1242400007743124e-08
-1.3840240329004553e-07
1
1
1
1
1
1.0724478414639162e-06
2.2697914920834459e-10
0.00018577807182528158
0
1.1011416217033161e-05
6.1083008511522265e-06
1
1
1
1
1
-8.3441693562769454e-12
8.7974791127677396e-12
0
-1.6722338678061568e-05
0
-3.122391169015366e-09
1
1
1
1
1
9.2826468133175973e-09
0
3.9360448511445083e-06
-1.5268755319748202e-09
0
0
1
1
1
1
1
8.8022836018221486e-08
0
-1.654315645039206e-08
-2.2686547020671834e-07
-4.2771063307239279e-11
3.1970591499995873e-08
1
1
1
1
1
7.4327712202079724e-06
4.785838371547296e-11
1.9282272373130003e-09
0
5.3890553045579334e-13
3.8701972411974911e-06
1
1
1
1
1
5.5605771405536502e-07
5.7197954367583718e-11
-1.6845684592994269e-08
8.3614071823378028e-06
5.4644964015004854e-09
8.25672652674505e-09
1
1
1
1
1
5.5756858687569071e-08
0
-6.2315229257768236e-11
-4.1889007414104729e-06
6.1695301792201531e-08
0
1
1
1
1
1
1.006644868419683e-07
0
3.2358476441048246e-06
4.8241559783702157e-10
6.1914450386666013e-08
0
1
1
1
1
1
1.5215153727172368e-16
1.6075069714695174e-12
-1.3694154466615905e-08
2.4402966934843757e-06
-2.2112617088204255e-08
2.5998913434177911e-08
1
1
1
1
1
7.4610477289813704e-06
2.4684422810719024e-12
-2.7499509971044535e-06
-1.7198610674813013e-07
-9.420686673800532e-07
4.0575660045979368e-09
1
1
1
1
1
-1.1601206042338272e-07
0
-1.0540875638883166e-06
0
3.9842081165100674e-10
1.0020265038446743e-10
1
1
1
1
1
-1.1928317123248916e-06
0
1.3295709493253785e-06
-4.8466149498335704e-07
-1.3995012678674183e-08
0
1
1
1
1
1
4.0075611705098389e-08
-1.5128855590230852e-10
-1.6105534002738324e-06
2.3585883808527389e-09
-1.4453129544605493e-08
6.7498510902808625e-10
1
1
1
1
1
4.6089730735244467e-07
1.1793083859597714e-11
-4.3101910630433348e-07
0
4.1578135515859642e-09
1.864491290440064e-05
1
1
1
1
1
1.2654974507130875e-13
-3.0794967074528469e-12
1.6981183710629612e-06
3.0404480812755256e-07
0
2.2799803791100717e-08
1
1
1
1
1
1.2667342543521676e-10
5.2325344661814389e-11
-1.3593883004297725e-05
1.0999902878430416e-05
-3.2719880142167976e-09
9.7229987362379389e-09
1
1
1
1
1
1.8829824755259398e-07
0
1.978799769996729e-06
0
0
0.00021981493327752382
1
1
1
1
1
-7.7524337263627262e-07
-1.5683703816076031e-07
5.7403819844302763e-05
-1.3786883309705008e-06
-0.016583159676640528
-8.8245116591967912e-05
1
1
1
1
1
-0.00081730676912534779
5.8264040261162254e-07
-0.023470590934328722
4.1190078222063139e-07
-0.008384488319767916
-2.7066133771699836e-06
1
1
1
1
1
-1.1726714013315839e-07
3.2767584800785139e-08
-0.00012861281126911109
-1.6319232838685372e-05
-1.9500605679484528e-06
2.7402733595624354e-05
1
1
1
1
1
0.00023679222447934447
2.0529464068904974e-05
-2.0808814770018236e-05
-1.546832166443511e-05
-5.3288354332827242e-05
-8.6264065998161326e-07
1
1
1
1
1
6.487141167810793e-08
3.2253757134402148e-05
0
-0.011383587978727669
8.2080079014749269e-06
0.00029014823875071923
1
1
1
1
1
-2.4477852653901483e-08
-0.00017956543648724681
-0.00010512279773604659
6.8787979001887157e-05
0.00077210954823495037
3.3578599219831011e-05
1
1
1
1
1
1.4202477548408276e-10
0.0010878294992648504
-4.4561043913852551e-06
-0.0043533521275945352
0.0020329265932883217
9.1585175528953831e-06
1
1
1
1
1
-1.3659090466710397e-05
0.00020183741536291617
1.9610504472607253e-05
0.0011252630179745384
0.00067153323125046299
-5.9292298994300585e-05
1
1
1
1
1
-0.0024510722018464743
1.5847237028055098e-05
0.013903915313940638
4.6334574126426509e-05
1.2532868035752975e-05
0.00072885160519527723
1
1
1
1
1
-0.00013470841829939494
-1.2229829355240699e-06
-0.00031895914331337132
0.0016307947825460638
-0.013762961689246424
-0.00023913334713046244
1
1
1
1
1
0.00056443601662337149
1.5643689059214645e-07
0.02944267598517656
0.0057432765398859496
-5.1518595194287882e-05
-0.0072522430759649854
1
1
1
1
1
-0.0055219443472571137
-5.0966053435145949e-05
-0.041048852745599031
8.4732184009695377e-08
0.010164260532775918
0.0013110081361906386
1
1
1
1
1
0.0050484215728811375
4.3508419100937403e-05
-0.00034949183591743331
0.001764160112046858
0.0019511681867582134
-0.00091854113845113536
1
1
1
1
1
0.00017837080485156743
-9.8403143543885904e-08
0.0015779889136021421
9.2181381542957253e-05
0.0014106847864372983
-2.2727699027866965e-07
1
1
1
1
1
2.273950116740217e-07
0.00062221274997260943
6.0358369076386004e-05
0.00025263684450335363
0.0010865298050076455
0.00025526976650587182
1
1
1
1
1
-0.00049893011627530001
2.6930901927865635e-08
2.8273379564557114e-05
8.6034223537556943e-08
0.00027184607938930043
-0.0044764296553405272
1
1
1
1
1
0.00013538852277706826
3.9173891895550332e-08
2.0361051743945507e-05
0.019319006474741895
-9.0871594589446489e-07
-1.0030290197659327e-07
1
1
1
1
1
0.00010227592435613056
0
0.00010709249920544338
0.0001299797783164802
1.2127325787408854e-06
0.0012022929321260107
1
1
1
1
1
0.0033301410233018487
-2.4616249914043757e-07
-0.0084860775838175202
0
2.4627786517707804e-05
0.0036831169034771912
1
1
1
1
1
0.00010305276695049864
-0.00035900372587544308
-2.3903646397605907e-05
7.243041172704598e-05
1.3149079539568353e-05
2.5988043697539238e-06
1
1
1
1
1
-1.1355991099578713e-06
0
-0.0018526842170386436
-0.0070493567675440592
-0.015701793174236364
-0.00089881985248346286
1
1
1
1
1
-7.7801121933245516e-06
0
6.1296453113994644e-06
0.00081194544534588149
0.00034055994992110905
-0.011675902255354765
1
1
1
1
1
-9.5624582457744177e-05
-6.5812804962448505e-06
0.026082832510566204
7.4276175587960782e-06
-4.1637616498846795e-08
2.2147721768242179e-06
1
1
1
1
1
-2.9663069278807539e-10
-4.0365080749257084e-05
-0.00010089053921486717
5.3217217388398463e-05
-3.7807000977513224e-06
-0.0020203123778606978
1
1
1
1
1
-0.0024501962910261901
7.766455834134645e-07
0.012344788906161121
0.0015986487573226061
-0.0013857960848976979
-0.0018923402111596485
1
1
1
1
1
0.00017969038437208923
-2.1036897563809999e-05
0.00077381932054337984
1.0215980417708279e-07
-3.6797992025002116e-05
-0.00023122464536136722
1
1
1
1
1
-0.0027105586077954334
-7.1018417791240725e-08
-0.0057625536619055426
-2.5116425541004647e-06
-2.8120885430993427e-07
0.0005136162082405569
1
1
1
1
1
-0.00095450867348391053
-0.00019960987291804065
1.2232302176330054e-05
-0.00010768298038077006
-0.0060423489949583183
0.0027983334823745609
1
1
1
1
1
3.1033487749426281e-08
1.4061333000397409e-07
-3.9082622857631418e-06
-0.00013741307800925712
-0.016191388517350705
-0.00050244497228311145
1
1
1
1
1
7.0709224263933061e-09
-3.087418035276151e-07
-1.2665463785302409e-06
-0.001911381803743153
6.775642366624857e-07
-1.4289395501402626e-05
1
1
1
1
1
0.00059752160899551455
-1.0775225931812104e-07
-0.0036433762086513321
-0.023886152970769955
4.3059958869255536e-07
0.00023640492101361177
1
1
1
1
1
0.00035648144536170505
-2.6103803477424053e-06
0.00018016370992663314
-1.9109168191830946e-06
-0.0002425144170670636
2.4406046159224094e-06
1
1
1
1
1
-1.1572914098101047e-07
0.00040824190561939756
0.00065860042008019553
1.1003187557994949e-05
3.1439035741660178e-08
0.002786529803838019
1
1
1
1
1
-9.7279575446460524e-06
3.374450696578807e-07
4.0179301439644421e-05
0.00021911605003894496
1.4560552724448279e-05
-0.0025569473017251522
1
1
1
1
1
0.0018496242842771951
-2.1842758465637344e-05
0.0054043089051991258
0.0064256737516505966
0
6.8251763664648612e-09
1
1
1
1
1
-7.9056666413047003e-05
0.00016301184126851648
5.119692705230232e-07
0.00080524941772964727
4.9108478440538173e-07
-0.017999456991480523
1
1
1
1
1
2.4080335440482157e-05
0.0019025791597673603
0.00048393312504324077
-1.7695000106946104e-06
0
-0.0056609417963196908
1
1
1
1
1
-0.00022527949394555093
1.1793432711418012e-06
-1.4747717266072779e-07
1.0983981428087043e-05
-2.279719731348901e-06
0
1
1
1
1
1
1.975571447016705e-10
1.1967463751209023e-07
-0.00019973569937515949
-0.001330131400956124
1.9434434500515802e-05
-2.007716231968372e-05
1
1
1
1
1
-0.00016489247885895472
7.449803719997313e-07
0
1.1292767063380744e-05
1.8259883068936595e-08
1.6634199893823188e-05
1
1
1
1
1
0.00018803433155548303
-0.00015131655871276247
4.552685092726879e-06
0.01798204342984603
1.1271867678202826e-07
1.5006840376048418e-05
1
1
1
1
1
0.00013739641600427803
4.4435026483642377e-05
1.6917697653244102e-06
0.0041250634193537887
2.2156279971310134e-07
0.0042844110508843437
1
1
1
1
1
-6.0928101206655297e-08
1.6743006061046292e-06
-0.00017141806856427858
0
-6.2725779742502565e-06
1.1571952492783002e-05
1
1
1
1
1
-4.5739540794552047e-05
2.8395585012403774e-06
4.2806241514796351e-06
0
-1.8331198013120702e-06
-0.010723420582904691
1
1
1
1
1
-9.8290137676631209e-08
-1.1236731517143337e-05
5.3190964548868114e-07
0.0010245350242233608
-1.3806128471229036e-05
9.5582325162323987e-09
1
1
1
1
1
1.6498766989277669e-05
-0.00028217893541037628
-0.00035542400631334109
-0.0086416200687727783
4.5596936812057678e-05
0.0039364336011954819
1
1
1
1
1
-2.9290211543894777e-06
0.00013007461029180683
-0.0049971172681930482
-3.850240676633753e-05
5.7731162051232425e-06
0.003910648345160769
1
1
1
1
1
-1.1830656150834275e-06
-6.6682386613309005e-06
-2.7812885788275804e-07
-0.0057983208203779731
0
-0.0015350284699785039
1
1
1
1
1
-7.8877990283431846e-05
1.5194536106499484e-07
-0.0039139493028422173
-0.0039867634508177199
-0.00083772113429920569
-5.9160794570287209e-08
1
1
1
1
1
1.1964373475719321e-09
5.7588778887549454e-08
1.0288075076184206e-05
-0.00027961203753187685
0.0024340874216218396
-0.0017603413625259061
1
1
1
1
1
-0.0014519381822101661
6.2579961508166825e-07
2.2820049971446454e-06
0.00087779806003141772
-0.00066750742696155857
1.0723681766677862e-06
1
1
1
1
1
-0.00079175245448019377
-7.5227211029668522e-06
0.00093843021868130958
2.9778257750519677e-05
0.00064471225748350596
0.00044693303466383712
1
1
1
1
1
1.22055694041902e-05
5.7130658809139486e-07
-7.9390287242278376e-08
0.0042170463885742877
9.0315414648467086e-07
-0.0023720141099001411
1
1
1
1
1
-9.974479580924443e-05
0
0.00016252951137307208
0.00010481171507951943
-2.5576815632172201e-06
0.00042084297698098146
1
1
1
1
1
-0.0047387733334997252
5.324800960540177e-05
0
0
8.0544674110185715e-05
3.3513811842770529e-05
1
1
1
1
1
-0.027918638681843889
-1.7224877218433596e-07
1.554218164225086e-05
-0.0047456584870291026
-9.5027562265476467e-06
0.0012928014308397375
1
1
1
1
1
6.3161560392248638e-05
-0.001612149269392556
-1.8763785044121024e-07
0.0084720705080457166
-3.7625916906662565e-06
-6.8382802447075319e-06
1
1
1
1
1
-9.393289586958432e-09
0
3.4581961828417008e-05
8.0092285863444405e-06
4.5746929002431292e-09
-1.0519835589210358e-08
1
1
1
1
1
1.9318535087559718e-08
0
-4.575708498809884e-06
0.00079814680852126709
1.3992069488760301e-09
1.0249309004283203e-08
1
1
1
1
1
3.0281092895401152e-11
0
0
8.5684234364405274e-09
8.6520780717812682e-10
1.2638905689840377e-11
1
1
1
1
1
1.7968985277072758e-08
0
1.3799400945061699e-05
4.1283116005629606e-06
-3.6013155369221401e-09
1.5358552638232343e-08
1
1
1
1
1
1.8373419830008774e-09
1.2724170555988611e-12
-0.00055453691389797683
0.00045175021698874745
0
1.1499263102723774e-07
1
1
1
1
1
1.0040673507948147e-13
0
1.3754745187785934e-06
2.3924777151679994e-07
-1.8709960956372481e-11
-3.1112158841921615e-09
1
1
1
1
1
1.9032988273649124e-10
0
3.9559923982790267e-06
3.1120785830421532e-06
0
1.2987200111922511e-11
1
1
1
1
1
-2.909467312511935e-09
0
-1.0375354325345407e-07
-2.6184061101098612e-06
-7.8079292391193697e-09
0
1
1
1
1
1
-1.0662897185499113e-07
-1.9390787188534868e-13
7.5521998722369598e-06
2.2671575992145349e-06
0
-1.0257907335945216e-09
1
1
1
1
1
-3.1103580204147622e-07
1.7131088330816994e-10
9.1176055364405839e-08
2.2228525056287844e-05
1.8603473387382024e-09
0
1
1
1
1
1
-4.3550515768370551e-08
0
3.4460140479903547e-06
8.303025456821533e-06
2.2854119632860485e-09
0
1
1
1
1
1
-8.4007714388604517e-08
0
-1.8821110830796148e-08
8.6818302753961057e-10
6.3757644568395405e-11
-2.1193226232030573e-09
1
1
1
1
1
-4.7347253827237812e-08
1.2848585826230037e-11
6.1917968467432748e-10
-8.3427417294641387e-05
1.5568544617315323e-09
-5.3273220433168375e-10
1
1
1
1
1
-5.6226328617024983e-07
-9.7555885736500146e-12
-1.5461437571280728e-07
0
-4.1807751361552995e-06
4.6859942846942374e-07
1
1
1
1
1
8.3441690936068001e-12
1.0714474930929005e-12
0
-3.2836383280250848e-06
0
4.1354542888120585e-10
1
1
1
1
1
-6.3100110341942686e-09
0
2.2358337796859275e-07
4.2591117933023196e-11
0
0
1
1
1
1
1
1.2480520646317241e-08
0
7.0532061874602322e-09
2.1281603052952378e-08
1.671970184834554e-10
-2.8607404795221704e-11
1
1
1
1
1
1.2492280871029512e-10
0
-2.1910323618187851e-09
0
8.299995264752409e-13
-2.4557590088169029e-06
1
1
1
1
1
-1.2312457901067883e-07
0
-1.5974205540123996e-08
-1.1964143179532101e-06
1.4573812502851657e-09
0
1
1
1
1
1
3.1985077553752935e-09
0
7.4803157441116871e-09
-5.2825471530987497e-07
9.7658283479697434e-09
0
1
1
1
1
1
-1.2495945029953952e-16
0
2.7883370443670509e-06
-6.1885381796623579e-10
-3.3496792136802213e-10
0
1
1
1
1
1
1.8757873723082714e-16
1.1182369307664216e-12
1.7660022708444107e-08
-2.4659095956185464e-06
2.8060906671145612e-11
5.3435592908481923e-10
1
1
1
1
1
-3.459513724583324e-06
1.0336641508492627e-12
2.341557207591445e-09
9.316573873352159e-08
4.1290315133546596e-07
1.2342694475096067e-09
1
1
1
1
1
4.69256531364398e-08
0
-8.4088558073544963e-10
0
4.5444074056045351e-11
4.2511890766979549e-10
1
1
1
1
1
1.5427269894790154e-12
0
-6.8434655992053162e-10
8.4204321831431922e-07
-6.6456349038073962e-11
0
1
1
1
1
1
-1.1500188169489464e-08
-8.5778082911207505e-13
-2.6114658512394504e-07
-3.0470164362078595e-09
7.6491262537631425e-10
-4.6659575700858378e-10
1
1
1
1
1
6.47892168406162e-12
3.5451978520436901e-12
-1.5682672262050382e-08
-6.6061176570778484e-07
6.1292113730046702e-10
-7.5258670500186021e-09
1
1
1
1
1
2.2610505148131763e-14
-4.6134531525366423e-13
4.3793615953129258e-08
3.3267346825802742e-07
0
2.8716253059612708e-08
1
1
1
1
1
5.3349431642287913e-11
0
3.8425471738976867e-05
-4.8161977058516478e-06
3.687372906210728e-09
-3.1845409752809485e-10
1
1
1
1
1
-1.7226140960737653e-09
0
2.03579759458936e-06
0
0
-1.8986003067295592e-11
1
1
1
1
1
1.7522889242186995e-06
-2.5090275110597674e-08
0.00010085152075985418
1.4440354449119327e-06
-2.644278684285531e-06
-5.5285265220324418e-09
1
1
1
1
1
1.6548625348071197e-07
0
0.00067007385601694752
1.2717245640108225e-06
0.0031775683400585759
-8.3303720164305234e-07
1
1
1
1
1
-9.6245289485644331e-08
-2.1246277964415332e-08
-7.1799704645541577e-05
6.6237657261015846e-05
-1.1337652366273132e-07
0
1
1
1
1
1
0.00012951226053657867
-5.4559352763909148e-09
-1.2197485643655965e-05
-2.1602633804954541e-08
-6.9538128983425225e-09
1.2004501987317257e-06
1
1
1
1
1
-7.5304376448268442e-08
0
0
-1.4003104603779289e-05
-3.8597740774623429e-05
-4.8517467759324414e-06
1
1
1
1
1
-5.1468964535039701e-08
-2.6191597735291355e-05
1.5691510124886778e-08
8.0041623209049946e-05
-0.0023994715517888119
-1.2352300396260821e-05
1
1
1
1
1
-6.0603183335302804e-11
-1.8583119417115506e-07
-0.0026591974656844839
-0.003114408026446466
0.0013630157909172494
-4.5779555279488589e-07
1
1
1
1
1
-1.6530837531510781e-05
-2.6392786907203672e-05
-1.4965673822626209e-06
-0.0011224629808053062
-0.0011404131890485319
-1.3292509413430288e-06
1
1
1
1
1
-1.6428038457357007e-09
-1.3122064494222241e-09
0.0030365676235967021
0.00011696086481492436
-4.2850187883595176e-09
-6.3517556332981021e-05
1
1
1
1
1
0.00012057726295837001
-1.7480968895752248e-06
-0.00015660986359903071
0.0031968963414153095
-5.4563896815014468e-09
0.00036921216605167371
1
1
1
1
1
-0.00018277669366972864
-4.7512786986103132e-08
4.367141485104161e-06
0.013923482173691066
-1.2378358898369258e-06
-9.0905627200931787e-05
1
1
1
1
1
-9.8240693843197359e-06
-2.8263374523303503e-07
-8.0909039264976996e-06
-8.6648650636474261e-07
-1.5297097705252987e-06
-0.0027515264536772908
1
1
1
1
1
-0.0015887415643115607
-3.661608139198477e-08
-0.00047291665043804
-0.0029293855652950678
0.00038259918690835984
-3.2323951461160987e-06
1
1
1
1
1
2.1438890556529593e-05
-1.8860415265141644e-07
0.0020675302062502236
0.00014434421367918342
0.00076685829353006108
-2.6592590845750709e-07
1
1
1
1
1
6.2124952180504197e-07
2.4429221979494785e-06
0.00013417471337221016
-0.00012710378817565746
0
6.4807533119384486e-05
1
1
1
1
1
1.3816968231249791e-07
4.6595893136310066e-11
0.00066807451422612777
2.775741509206726e-07
8.1604523098230545e-09
2.6413449293092415e-05
1
1
1
1
1
-0.0021933304141836482
3.9819846843763055e-08
7.2205092998349209e-06
2.9368444234926279e-06
1.8070699507616274e-08
-8.1269750521117478e-08
1
1
1
1
1
-7.7768224462288225e-05
0
-8.7632221580724747e-05
0.0001112479679086866
-8.609928156177735e-07
1.1970467339897539e-06
1
1
1
1
1
2.1365658566652321e-09
0
-1.277813854950975e-06
0
7.3170220897977614e-06
-4.9799947934127884e-07
1
1
1
1
1
-0.00016227551341077131
-1.0525707435195149e-06
1.7327847939873333e-06
1.7860945129610302e-05
7.6148659092690893e-06
3.4667204645402549e-06
1
1
1
1
1
1.4000430297512319e-06
0
-0.0015748937087583452
-0.0066263016502593674
1.0853633532597374e-05
1.6961971158058271e-05
1
1
1
1
1
0.0016002421266151834
0
-3.1128923854360713e-06
-0.00024421009526154661
5.2024596225399456e-07
-1.061594888228523e-11
1
1
1
1
1
-0.0001726679457454533
-6.6063513288402114e-06
-1.3955917201571579e-05
-4.7797218472872156e-06
-4.7935419466364013e-07
-4.0336627137393008e-08
1
1
1
1
1
-8.0149479533653259e-10
5.1333940877239975e-07
-0.0025138494769899769
-1.5280472874675166e-08
-3.5756077603226695e-06
-0.0037522934415448318
1
1
1
1
1
-1.7242727728960523e-07
-3.713960071786154e-07
-0.0018770144063616281
-0.0024845269579787128
0.0014884521800596485
-0.00062225493003615945
1
1
1
1
1
0.0001207979031830211
-5.4422699919551399e-08
-6.6518704471728744e-05
-2.9208252482044273e-07
8.1366781010402809e-07
-0.00010496928954169424
1
1
1
1
1
2.6432811167872682e-09
7.7911049716866821e-08
3.578086994322105e-05
-8.5711925870069297e-07
3.0534486154303606e-06
1.8138320527450859e-06
1
1
1
1
1
0.00017214167013441143
0
-4.0506634399598942e-06
-4.4773856428723346e-06
-1.9569619282310558e-06
4.6384968714182041e-08
1
1
1
1
1
-9.047466586668927e-08
1.4972470614308446e-08
-3.8407604604330095e-05
-0.00019273205752156407
-5.2923338356702326e-07
-2.7874101707335128e-06
1
1
1
1
1
7.1569678062758479e-09
-2.0389542567211039e-09
-1.5146066104807656e-06
0.00035309205509893214
-1.6740073846224766e-06
4.3598966508635474e-06
1
1
1
1
1
0.00015196999287296766
4.5055007584482692e-08
0.0018859782209261283
0
6.7273881728495003e-08
-4.5621720051754769e-05
1
1
1
1
1
-0.00056319128051733559
-6.0589298757453082e-09
-8.0650429682640998e-05
-1.6432607889559775e-06
-0.00035239645879451187
6.2370714236071991e-07
1
1
1
1
1
-2.1617791708835971e-06
-5.5433570796511799e-07
-1.7534157204656551e-05
-3.576118596025508e-06
9.1146886088329614e-09
0.00041305306054724108
1
1
1
1
1
2.5944085201600512e-06
3.7979547525049736e-10
0.00012816540926106042
5.9224005392284161e-05
1.5649557152073376e-06
0.00092616277084484392
1
1
1
1
1
0.00032713461231875926
2.1659901462692681e-05
6.4550350680165291e-08
-0.0029332061873955755
0
-4.3422727510375183e-08
1
1
1
1
1
6.5606864946742612e-06
-1.6443047734835692e-07
-1.01857927480733e-06
-1.0146229175154119e-06
-3.3008928277917725e-07
-6.3924171223828972e-05
1
1
1
1
1
2.6660903194483968e-05
1.9601035213750295e-08
0.00044998853625111422
-5.4414996089426528e-07
0
0
1
1
1
1
1
0.00021008091135609803
-1.3534417598444083e-07
-2.1355593316979495e-06
-1.3343578810957958e-08
-5.7737287712839733e-07
0
1
1
1
1
1
-1.5364125191992897e-10
-8.9681901589756689e-09
-2.7728772650575464e-05
-1.6038244675583872e-05
-9.9331503581754897e-06
-6.8707412015214318e-06
1
1
1
1
1
-2.1384687938954443e-05
-6.3868584168172728e-08
0
8.0583742037625401e-06
1.107558879364142e-08
3.2933625837633859e-06
1
1
1
1
1
-8.6550011593796305e-08
-2.1168381921692719e-07
-1.4002215422416395e-05
-0.00054152128901856689
2.1724161708632911e-09
-5.5706097497160937e-05
1
1
1
1
1
3.3771186016321113e-06
0
-3.5438589324394015e-06
-0.0001281782779076919
3.3247091849911306e-07
1.259729963993815e-06
1
1
1
1
1
0.001627984480878625
2.3695446843261925e-09
4.3867366215740446e-08
-1.6036192283571271e-05
-6.1090196861991043e-06
1.3311484598499069e-06
1
1
1
1
1
-3.4112999831933762e-06
3.5776540398798341e-08
1.4762110491691069e-08
0
-9.7883221719433123e-08
-3.0323361607731054e-05
1
1
1
1
1
-2.4383947029885051e-07
3.3964291985405871e-07
8.280268743280489e-07
0.0082144766863795227
-4.4083619601654296e-07
-4.1984502358666918e-08
1
1
1
1
1
2.3277340976731267e-08
1.1013423669008204e-07
1.1656001540477716e-05
3.1403434022626339e-06
-5.2372761465138461e-07
2.6050223766710605e-05
1
1
1
1
1
-2.4361723568537605e-05
1.6199619746117413e-08
1.1056380779979247e-06
7.0947769206398821e-06
4.0192632130029975e-07
-1.3124350169761609e-05
1
1
1
1
1
-1.2226546696871832e-06
3.3676280793483193e-08
1.4477882112955447e-05
-0.0059689362125570225
0
-0.00013553382856289263
1
1
1
1
1
6.2762915556170733e-05
0
-2.6190079152458966e-05
-0.0032732974707477265
0.00055206996903683849
5.9160794570287209e-08
1
1
1
1
1
-1.3696900418452408e-09
-6.0879795174872199e-08
-0.00021281234859760333
-2.7981902711804494e-07
0.00030636824935635903
-7.4747331339343337e-07
1
1
1
1
1
-0.00080524236309906445
3.6239104648815249e-10
1.3562203233327346e-06
0.00054311948634621558
-0.00065780698685446017
-2.7713428256018769e-07
1
1
1
1
1
0.00020922202586880868
1.6953375570886217e-08
-0.00079296065135471148
1.4929279376925993e-06
-5.8837655274723703e-06
-1.9708650420979516e-08
1
1
1
1
1
1.7402246563529622e-06
0
-2.7977870629318807e-07
-0.00024228231350522319
5.6233081879376366e-07
9.1033136170839633e-06
1
1
1
1
1
0.00043211582924655565
0
-0.0001585955317809998
-8.7738250888882239e-05
9.4493016350399362e-08
1.2219028355672435e-07
1
1
1
1
1
1.1784329321965128e-10
-2.4787011692566526e-08
0
0
1.5178251713269324e-05
7.6532974677428927e-05
1
1
1
1
1
-1.6165971944833321e-06
2.1530849563900501e-10
-5.0324476097625714e-05
-0.00099407132664250083
-2.1335943707781682e-06
0.0011364543784688152
1
1
1
1
1
-4.2053755166238853e-05
0
1.1585896320895827e-06
0.006717476920233635
-2.7192429815997501e-05
-8.4501320964867917e-06
1
1
1
1
1
4.0448884511227455e-09
-3.5451030474134293e-12
3.0604509660512707e-05
0.0097407803783308138
-2.1782268744118893e-08
-6.091070857495868e-08
1
1
1
1
1
6.1717987995784466e-09
0
-0.000126015269347059
-0.0010943038862474838
-2.3233019938362457e-09
-1.8272602940690874e-06
1
1
1
1
1
4.854920904149658e-11
0
0
2.6387535031871731e-06
-1.0305386050469612e-09
-7.7516147885778684e-09
1
1
1
1
1
0.00010816834967952625
0
6.0670647317755594e-06
-3.6178905330783209e-06
2.3985632025176347e-05
2.0005351978699332e-07
1
1
1
1
1
1.5447629554962664e-09
-1.8655476040624174e-11
-0.00055662619926069514
0.00044116986179017968
0
2.68310510412607e-07
1
1
1
1
1
-9.949422655357135e-06
-1.3298066326940907e-10
0.00045375835791877807
0.00020165933767499536
-6.518560707817802e-08
2.5425342986340713e-09
1
1
1
1
1
5.0190514202490766e-05
-2.8339395834721854e-10
-4.0600695647189408e-06
3.5298670916786394e-06
0
8.7433312635445116e-09
1
1
1
1
1
1.726708283170773e-08
-9.1126977456297221e-11
-4.9222574483828098e-08
1.8019157452434444e-06
-9.2684509267227756e-08
-1.1173583871430755e-07
1
1
1
1
1
-6.3099882777643376e-07
-2.7965990436766488e-12
-7.4388857698813187e-06
-5.3557714291435272e-10
0
-2.0514997160703725e-10
1
1
1
1
1
3.8154922227027642e-08
-1.0201687148368125e-09
-8.4432836270728564e-08
-0.00011492481440994429
-9.4095208212285885e-09
0
1
1
1
1
1
-2.2303736887374977e-08
0
-2.4551893041095213e-06
5.0362655383369477e-06
-3.6870961222266445e-08
0
1
1
1
1
1
4.8876392661605126e-08
0
4.7731080305367286e-07
1.1002941383595492e-08
1.746761005132736e-06
2.7362278497678686e-10
1
1
1
1
1
-9.271093896999786e-06
-1.9453820264439686e-11
-9.4656663999420195e-05
4.1869000762920843e-05
-2.0162790060284452e-08
-5.8903188459470701e-08
1
1
1
1
1
1.5851992690992222e-07
-6.052571671573818e-11
-0.00059689329350568398
5.3609421929013662e-06
-2.2936128243721438e-06
6.5458537925451355e-06
1
1
1
1
1
-4.1544839465213826e-12
-9.3928518555596459e-13
0
5.236483992443355e-06
0
-3.9489066212491627e-09
1
1
1
1
1
3.8050044761889094e-09
0
-8.2535005394373077e-11
-4.7648055900161964e-09
0
0
1
1
1
1
1
8.005787761339461e-08
0
1.3713730761281975e-08
-2.895138227040838e-07
-1.2983386510239639e-08
1.9097449747068921e-08
1
1
1
1
1
1.4474995921060085e-05
-1.6899346530011423e-11
-2.838514104863176e-09
0
-5.7461476898583689e-13
4.1234860349854283e-06
1
1
1
1
1
-4.8180222274174802e-07
-5.7197954367583718e-11
-5.7971384873568546e-09
-3.1563894496881691e-06
-2.9376916214517803e-09
2.6143847214306221e-08
1
1
1
1
1
4.0755692485269481e-09
0
1.4876472644892776e-09
-1.6250405495607364e-06
-1.3037008507829593e-07
0
1
1
1
1
1
1.4367314608781145e-07
0
0.00028489469926072284
-9.0818671150243794e-07
-3.2065405751588283e-09
0
1
1
1
1
1
7.4229502318917969e-17
1.5545495587179146e-09
-3.8771359883407138e-08
-2.4522207719252984e-06
7.2809796236331565e-09
-2.5208910625033421e-10
1
1
1
1
1
-2.6725617558881766e-06
1.0239542065918665e-13
2.7502481892045506e-06
9.8820780404668222e-08
-2.1227569099161006e-07
-2.6782766115596188e-09
1
1
1
1
1
4.9052233940522223e-08
0
-4.8724840536692447e-10
0
-5.9158866602845066e-11
7.6917933241225519e-11
1
1
1
1
1
2.5882149405537182e-06
0
7.0082362678310189e-11
4.1623767707219412e-07
-8.2072449179545917e-11
0
1
1
1
1
1
-1.7192677669292262e-08
-1.1182881839230251e-09
1.1457837162640476e-07
-4.8621040512937643e-09
-2.2304426137830215e-09
-1.0362831754481478e-08
1
1
1
1
1
1.5042214678065979e-07
-2.7495574862216917e-11
4.6828618296529909e-09
-1.0321065261171004e-06
-5.6428029952270543e-09
8.4934962049982633e-06
1
1
1
1
1
-1.3211090860578539e-13
-2.1134488626452046e-11
-6.3089205903847599e-09
-3.6141777107067849e-06
-2.4132287833478401e-08
6.3667934529935559e-08
1
1
1
1
1
-1.9103165540153802e-10
2.2859074288897554e-11
-1.1787271754980749e-06
-3.7215349359959529e-05
-4.5665663015946412e-10
-7.84298400119554e-09
1
1
1
1
1
-7.5237479314293364e-06
0
-1.0979816448562303e-06
0
0
-1.6775166920659218e-05
1
1
1
1
1
9.6079756560073221e-07
-0.0019252488121671791
0.00076654758459544651
0.0012826507839879388
7.872168388625283e-07
0.0074313845553911212
1
1
1
1
1
0.0052146515793627156
2.6380587699474034e-06
0.00043761053849535617
6.4162449024766484e-07
0.013774924141872567
7.1503395663575027e-06
1
1
1
1
1
2.6043274952196365e-07
2.4321855884664566e-05
-0.00019550444769854506
2.7940352735475669e-05
4.0754704263325225e-06
0.013370607431355833
1
1
1
1
1
-0.030538457490862952
0.0069319379498547608
1.7016972191355639e-05
1.929036038782191e-05
-0.00032475820013591248
-6.9333045749229212e-06
1
1
1
1
1
-6.7574396178706456e-08
3.2730525541765278e-05
0
0.011550033460809435
-0.00010246346039564734
0.0001377018670029505
1
1
1
1
1
-1.3264591991323023e-08
0.00030753247793604275
0.00028493140993452815
-0.00013291465051314282
0.00011778417962970715
2.6119642621231248e-05
1
1
1
1
1
-1.7298838884051028e-10
-0.0032647402617353607
-0.0066683105170713729
-0.0082049410630167449
-0.0066185243704236342
-6.5954470044987205e-06
1
1
1
1
1
-3.120189810600544e-05
-6.6082443330724137e-05
-1.5324043507468384e-05
-0.0011287417477513894
-0.0016122087908427029
-0.00060465382793435435
1
1
1
1
1
0.0055698266237529147
5.913661119192716e-06
0.0082056549074945809
-7.2911521515051718e-05
-7.5045636873867822e-05
0.00053201838294939733
1
1
1
1
1
-8.3556929807889074e-05
0.0020005490332663961
0.00021031199561081111
0.00033861264550176821
0.0098529089534120338
0.00021340485464278942
1
1
1
1
1
0.00050768292301060737
-1.4132485500195914e-07
3.6585005967907424e-06
0.005492575173467744
0.019069491389145338
-0.0067264134455519674
1
1
1
1
1
-0.0027003399388553033
-0.00022691273093047604
-0.040966449734933699
4.1537775441692874e-07
-0.0058066464016827708
-0.0033449194886585429
1
1
1
1
1
0.0031459240664389941
-0.0018446223731424377
0.00063688484370225248
0.00013633560128113742
-0.002848640132725835
-0.0026390951334069658
1
1
1
1
1
-7.443162962002603e-05
-5.5432626397994124e-08
0.00034858939785531933
-4.1835519061628208e-05
0.0087601234919805898
4.170501826813205e-07
1
1
1
1
1
6.267082605451274e-07
-0.00012070352804110012
-2.7982434079009246e-05
-0.00066973466602773173
0.0010925746219425292
0.00018140135172174134
1
1
1
1
1
0.00049731901225579444
4.3952154405892443e-07
0.0018472844207967527
0.0023384445628221386
0.0088403247174732823
0.003411492713009934
1
1
1
1
1
-0.0053025664706602893
0.0001269675646029188
4.0843619273153773e-06
-0.019316271195980846
-0.00071069733686876925
5.5038427515825104e-07
1
1
1
1
1
-0.00018517142569471242
6.2872697238546782e-05
-0.00025908192557155411
0.019574209631984876
1.2073019596080876e-06
-0.013527355979299462
1
1
1
1
1
-0.0040815052073493617
-6.4260657219427365e-06
-2.4212476018822515e-05
0
-1.4488895424511735e-05
-0.0034173489610387969
1
1
1
1
1
-0.0012747404691952785
-0.00035910728850362746
-4.1436004992790184e-06
-0.0018160146233907333
-3.3331271990192931e-05
-0.00015335331238688885
1
1
1
1
1
-3.2351512715333094e-07
0
-0.00041158831087621984
-0.0070270974801236469
-0.015667931941747149
0.0017083665753335126
1
1
1
1
1
0.011117610132822734
0
4.8113720921783227e-06
3.9636214317379684e-07
0.0011006939082031876
-0.0072131231303356001
1
1
1
1
1
-1.8632952359418853e-05
5.4503735052075996e-06
0.026053616010725724
7.3031929035066551e-07
4.0635083506935352e-07
0.00010342564333919213
1
1
1
1
1
-2.9409087714199049e-10
8.4968286742296306e-05
0.0062311981469946329
8.6725593882547273e-05
-4.8383125760809302e-07
-0.0044626799427167621
1
1
1
1
1
-0.016487511835928736
2.2470051280333708e-07
0.0043607790433602281
0.0011238206948984402
0.0032524764443156969
-0.00092330271042090654
1
1
1
1
1
-0.00027398418700549552
-0.0001837722155653145
-0.0010770712068054714
-2.3484107973466961e-07
-1.7190447764366322e-05
-0.00017916643815021446
1
1
1
1
1
0.0044277316843708454
-5.5624139944480136e-07
-0.0013070253722515272
1.8627766941338232e-08
-0.012614934110443161
-0.00051244305062679162
1
1
1
1
1
-0.00025873675920167855
0.00042611707883655409
-2.6001154184809987e-05
0.02696274025288449
-0.013967189695107332
0.0044793889653340791
1
1
1
1
1
-2.3077730623640038e-08
1.0568135271433482e-05
-0.0050799704488474571
-0.00019189797126667037
0.0016594967604689544
-0.00051341570976266545
1
1
1
1
1
-5.9741504389327455e-09
-4.2417647883883802e-06
-3.9828590887203321e-07
-0.009506329582867859
1.283035016594172e-06
2.3424509247870413e-06
1
1
1
1
1
-0.0011828810233175508
-2.9122605565396732e-06
0.0032921520476195836
2.0329134324178734e-05
-2.8898717014482717e-06
-0.00011070986809911936
1
1
1
1
1
-0.0024131434250979039
1.8404007238852373e-06
6.4736979493032281e-05
3.0961925565822197e-06
-0.00048797928100096743
-7.688181189390216e-07
1
1
1
1
1
1.7988149933689052e-06
4.3042065082413255e-07
0.00035728202286409891
1.2836877801563283e-05
0.00052217229626899404
-0.00067109230315672561
1
1
1
1
1
7.6937538768511823e-07
2.3377807857016376e-06
0.00012874373868155756
0.00013408875648653079
1.2478747948653823e-05
-0.001443204249859453
1
1
1
1
1
-0.0021885276265371924
2.1630181424875832e-05
-1.4156705495798478e-07
-0.0033887080645639304
-2.7876011446042765e-05
-2.7417814299992151e-08
1
1
1
1
1
-1.8874070720349562e-05
9.0852920228514609e-05
1.5467227510252497e-08
2.9679836875987778e-07
4.8732926048590806e-06
0.00020926112146246812
1
1
1
1
1
0.00015227756676335931
7.0235105725555246e-09
-0.0013149045292596292
-2.3669628001639239e-06
0
0.005722712963923563
1
1
1
1
1
-5.7792722908898411e-05
-0.00010084330796991184
1.9852877118190409e-06
1.0312011426875819e-05
2.3989989407172321e-06
-1.2983834718832631e-05
1
1
1
1
1
7.0616676302742099e-11
-8.153051501375901e-08
6.8898261251786999e-05
7.1645653239951101e-05
5.0657418087958168e-06
4.1057692106374846e-05
1
1
1
1
1
-5.1318481957052506e-05
-0.0012591551731042496
0
-5.8488302852952099e-06
-1.4426162368742721e-08
-0.0003294218416716943
1
1
1
1
1
-0.0065277198047066134
0.00017014844868532838
5.1803367958742879e-06
2.1671673164467631e-06
2.0308310740069993e-07
7.8681384272166277e-06
1
1
1
1
1
-5.6389621081918871e-05
4.1777914783334979e-06
1.2221603538606215e-06
-0.0042671860904610172
4.0489448470797648e-07
0.010484024445607061
1
1
1
1
1
-8.0946760589159722e-05
-3.6094721579311666e-06
-0.028298221062338345
0
-0.0012327621770553616
-2.079410360087205e-05
1
1
1
1
1
2.5402825761572166e-05
4.6158069081857953e-08
2.4549939619884264e-05
0
4.4094430639037677e-07
0.0048075641430644009
1
1
1
1
1
-1.3787245758560562e-07
0.00013231861471259981
0.022177998197660594
-0.0070054111326052475
-2.2266726566930894e-05
-3.5314208744478289e-09
1
1
1
1
1
7.875740736606879e-06
0.0006299049688712491
4.1672938998691028e-05
1.6904735994285894e-06
0.0004699123414915777
0.0017196367805807843
1
1
1
1
1
5.6646412660950773e-05
-0.00031189544953259552
0.011457638268906974
-2.1249921618952652e-05
-1.4776479015654032e-05
-0.0039184230189393005
1
1
1
1
1
-1.8314848555507511e-05
9.436090126852405e-06
3.8951463490988806e-06
0.0051813324748673393
-4.8748829398770295e-06
-0.0012261077823192564
1
1
1
1
1
5.7665689296371457e-05
-1.0188674092647905e-05
-0.0044558227503942614
-0.0063109904193073491
0.001702200617815752
6.1299025272730845e-05
1
1
1
1
1
9.4653465574626435e-10
-3.7354249088770384e-07
-0.00032337070454674681
-0.00078116270052542864
0.003202280147069836
-0.0070507691380248946
1
1
1
1
1
0.00064668659028373709
-4.9250652600703557e-07
-0.00012600787461328531
0.00021122795617722087
-0.0012144930047392397
-4.7902182401986982e-06
1
1
1
1
1
0.00043678346370332492
3.7117589309600857e-05
-0.00011294855140390496
-2.3845623123306205e-05
-0.00036189449482180021
-0.0010290154242777699
1
1
1
1
1
-0.0066682267851326587
2.230410470900324e-06
4.6192650040083184e-07
0.0029551991844630364
-5.8670397658064101e-06
-0.0023804461583240262
1
1
1
1
1
-5.86710997690745e-06
0
-0.00012350847184346237
-8.9159522967177164e-05
5.2261033412258495e-06
0.0079975045112284406
1
1
1
1
1
-0.0031423394448905763
-3.8035031478615088e-05
-0.032246090514952995
-0.00029869699255958036
4.4222922079561581e-05
-0.00016661142175244329
1
1
1
1
1
-0.027918227903937859
-0.00026012305715145004
0.00046657218657577805
0.005160462300713548
-0.0010764738919703907
0.005469191653249948
1
1
1
1
1
4.600892183013854e-05
0.0016121510051625378
-4.4408994951679578e-06
-0.0015463297806836615
2.9983233041033666e-05
-6.3122742609558588e-06
1
1
1
1
1
-2.6767348761986174e-09
0
-3.597137751912675e-05
2.5505189490991719e-05
-6.3757802291417687e-11
2.5965929060696708e-12
1
1
1
1
1
-5.7305759020311238e-08
0
-3.1303895445102305e-05
-0.00034058136217048383
-1.3526192107647535e-09
3.2175982084551102e-09
1
1
1
1
1
5.551068069005997e-11
0
0
-2.6490828500522531e-06
-7.6356999893048802e-10
7.9346866022830634e-12
1
1
1
1
1
-2.5783153593638843e-09
0
2.0241203065979045e-06
-3.4694771727210843e-07
-1.2918612522660428e-11
0
1
1
1
1
1
3.0627714212449729e-09
-3.1577290801188419e-13
-4.8380074209829727e-06
-0.00045181676917883793
0
-2.994147754774478e-09
1
1
1
1
1
1.678505059733691e-13
0
-3.3228913834768446e-06
-1.6833958502744099e-06
2.5968302351385372e-11
-8.972611895134294e-10
1
1
1
1
1
6.5180705365183219e-09
0
-2.4072030760848767e-06
-2.4688559418013837e-06
0
1.8343192100508848e-12
1
1
1
1
1
2.1740612315844486e-08
0
3.2339595462423754e-09
-4.4768791408574519e-06
4.4054543109904209e-09
0
1
1
1
1
1
-2.9410181268883962e-07
-6.7396222026051955e-14
-6.5827865995175932e-09
-5.5558846175942199e-07
0
-3.3572464515569107e-12
1
1
1
1
1
-2.7216956058541578e-08
5.0438286195689116e-13
6.6110213386194223e-09
-5.3467649607059979e-07
-2.5300744768937302e-09
0
1
1
1
1
1
-5.2284734715604942e-08
0
0
8.687717390280291e-09
-2.8319098592290414e-09
0
1
1
1
1
1
7.8153190171836664e-09
0
-2.462833619909366e-08
9.5882527357814335e-09
-9.8167222363471854e-11
2.2975943827023429e-10
1
1
1
1
1
1.4223613303843588e-07
-5.5241884755333447e-14
7.7205046643861947e-09
-0.00013029151443393942
0
-1.9278608756506308e-09
1
1
1
1
1
-2.8885890729431548e-07
-2.0271801196922109e-13
-1.2892567367000575e-08
0
-2.8002756827034666e-06
1.0868797943056365e-06
1
1
1
1
1
-7.3392457709542603e-12
2.5022526372068556e-13
0
-1.69858693851925e-05
0
-3.9468066036506997e-09
1
1
1
1
1
-1.6414869944545815e-09
0
-3.3535375289266734e-11
-1.6947775708718388e-05
0
0
1
1
1
1
1
-9.0409172743942031e-10
0
-9.6190055622342387e-09
-6.252285582679394e-07
8.2708792961601404e-10
-3.0456912757767642e-12
1
1
1
1
1
1.3166583321782888e-07
0
2.2273428792505527e-10
0
9.2081674109572918e-14
-9.3813410597963557e-08
1
1
1
1
1
-7.4850411553048677e-08
0
8.6798698383029528e-09
3.163239733871212e-06
-7.0458141746040981e-10
0
1
1
1
1
1
-3.1576614398225593e-08
0
5.7549544191945694e-09
-4.4813630410324846e-06
9.3323470680348893e-10
0
1
1
1
1
1
-4.8681730456700187e-09
0
3.4287458948178485e-07
8.7113523092422203e-10
1.5112797972463564e-09
0
1
1
1
1
1
2.5684016233010428e-16
1.3503387869698667e-12
-1.5301733088296602e-08
2.026552744861796e-08
8.0524513701491347e-12
5.0025545564072997e-10
1
1
1
1
1
-2.2840817124949875e-09
1.065773111972991e-12
-2.7467558367071378e-06
1.8404502237049523e-07
-1.4310039156816555e-07
-3.3826692373816576e-09
1
1
1
1
1
-5.9011248814163653e-08
0
-1.3699973435447673e-10
0
-2.0067618288899042e-10
7.3522201913775373e-10
1
1
1
1
1
5.660804608757128e-11
0
-1.8262704510042762e-10
1.0692217921056988e-06
-1.9580877355332893e-10
0
1
1
1
1
1
-1.1495526225528718e-09
9.2537651477575567e-13
5.8335733834660864e-08
8.8094973167334595e-09
-1.4617015947588961e-09
5.9131626281643156e-10
1
1
1
1
1
5.090057415939358e-12
-1.1730137063191668e-14
1.5813479181864106e-09
0
0
6.8089395055640803e-10
1
1
1
1
1
1.0322371197550948e-13
2.6373109114028904e-13
5.7230572779265164e-08
-1.2352946391897252e-06
0
-3.3906017199656712e-08
1
1
1
1
1
1.1142138191578919e-10
0
-1.8204062105939763e-05
-3.1614944821894027e-05
-2.5846388790010716e-10
3.3709269436865717e-10
1
1
1
1
1
-1.5933358874697231e-09
0
1.0012374486670081e-06
0
0
-8.7990732763846812e-11
1
1
1
1
1
1.8345664461572873e-06
2.7236570177293393e-10
7.0822136560946895e-07
-8.9450106449039398e-07
0
5.4191654962070099e-09
1
1
1
1
1
2.232722922486788e-08
0
0.00067698111218334616
5.4018759706732296e-07
0
1.6928839481958662e-07
1
1
1
1
1
2.3651128610667819e-07
-3.8636978075418824e-09
-1.1646714188621473e-06
-4.278900779084055e-05
1.0772921445978315e-06
0.00013213103090299337
1
1
1
1
1
1.6519574922263646e-09
2.5484871129509993e-10
1.8244801589220897e-05
1.9305357497068328e-05
1.4352920201034474e-07
-1.1416463152720966e-06
1
1
1
1
1
-2.7522188787845091e-08
0
0
0.00012073594433844247
2.1602162024888959e-05
1.4944786975998943e-05
1
1
1
1
1
-2.1990476625092554e-08
3.77785884329122e-09
1.1490532977465251e-08
-2.2324335439578117e-05
2.9995662829166201e-08
6.7925937939566109e-06
1
1
1
1
1
-1.2672213211584677e-10
-2.3897064399934283e-09
0.0054193681830849378
0.0016305011780292581
-6.6691335789697402e-08
-2.7822368705078758e-06
1
1
1
1
1
-1.9634748054970221e-05
-1.9360394588840427e-09
-9.0029183183352399e-06
-5.9160159757060323e-06
-0.0011758597841776712
-1.9106556199376411e-06
1
1
1
1
1
-5.3775688242005396e-09
8.9987624588074813e-10
-1.4387166339930754e-06
-4.1298007744316178e-05
-5.789424357143709e-09
-0.00024951230544579308
1
1
1
1
1
3.4393667765573551e-06
-1.1031088234173226e-08
-1.3163181580630637e-06
-0.0016993660351668231
-4.5567962553921015e-06
-0.000239725464908678
1
1
1
1
1
-0.00011736095526158704
1.9869493201090521e-09
-5.9989666610137306e-07
-1.5287834063470277e-06
-9.9393427435654364e-07
-1.0911534215842297e-06
1
1
1
1
1
-4.7186444154203849e-06
3.0996202057684029e-08
-1.7240088858736271e-05
-6.5571645519790332e-07
4.5122431278116402e-07
0.00015446742502973017
1
1
1
1
1
2.2363878947232956e-12
5.4860882964390281e-08
-0.00018688141336497706
-0.0022235005135635027
-8.4095230340096901e-06
2.6885806984790112e-06
1
1
1
1
1
2.1529744408631545e-05
2.0694930322378057e-07
0.00055795749524381372
3.0388768855354295e-07
0.0025524838867905819
8.2116845559553965e-07
1
1
1
1
1
9.2695980007783589e-08
-1.5551607006087989e-08
-0.00018963536184722664
-0.00014793999430717808
0
5.9214403793214502e-05
1
1
1
1
1
1.8943054317249492e-06
3.9305376065192292e-11
0.00037693899711208794
4.8830143055640181e-07
7.9448717858819243e-09
2.5908026171258916e-05
1
1
1
1
1
3.3142091104797749e-07
2.2196013537340629e-08
5.7311367035464488e-06
-6.8621685901817979e-08
7.9703844433027314e-07
8.6375306079738101e-07
1
1
1
1
1
4.6083867108831114e-05
0
-3.8977736001239388e-05
0.00010612556055395666
7.3054754906553953e-07
4.4100022370228651e-07
1
1
1
1
1
1.0014833236029922e-09
0
-1.1238429409246371e-05
0
8.5576819228557869e-09
1.0746779763675763e-06
1
1
1
1
1
-0.00016228261207939948
5.9472637356435408e-07
-3.0775360739197868e-05
2.2315317036183573e-05
-1.2092565157726257e-05
-2.2661122396115631e-06
1
1
1
1
1
-4.4571061854479534e-07
0
-0.00076484796901678817
0.00036082911855118993
-3.0624016150510072e-06
2.9851099112735849e-06
1
1
1
1
1
-1.1669387704070402e-06
0
-1.8563743730533301e-06
-0.00033728269216629097
2.2333039252983368e-08
8.4500669497658207e-11
1
1
1
1
1
9.8547652545324989e-05
-9.7431238947929206e-08
-1.891546204712698e-05
-7.4276175587960782e-06
1.5909761707499227e-07
-1.3316881130978168e-08
1
1
1
1
1
5.6240208900888847e-10
0
-0.0024857536689663262
-2.5013415681387768e-05
-2.5487611723852163e-07
1.2599912856593329e-08
1
1
1
1
1
-8.4752664951435823e-08
0
-0.0033764193907345631
0.00032912373646190563
0.0016670350989266953
-0.00018202779591999695
1
1
1
1
1
0.00013364323387496301
-1.3974739676019224e-07
-4.3373411159766267e-05
1.9988642692478629e-07
2.6423797325709403e-07
4.5117032017380719e-05
1
1
1
1
1
-1.3580560480872674e-09
1.7219984637948512e-07
0.001355414169699683
2.3782756421942061e-06
-3.8778445469494528e-06
-1.108266655363862e-06
1
1
1
1
1
-0.00017214156056875909
0
-1.307803480362727e-05
7.9974322324577866e-05
-3.5958779542828364e-05
-4.1102907393576679e-08
1
1
1
1
1
-1.0574075125338391e-07
2.2647688006604159e-08
-4.9989071638945231e-06
-8.4145921336568516e-07
-1.2704162249400928e-06
-1.0408675927420125e-06
1
1
1
1
1
-1.509646081108841e-09
5.3184442970775698e-15
5.2527358780929149e-06
0.0016553634889274554
8.0870685539344074e-07
-4.2917721961679222e-06
1
1
1
1
1
1.3673359320997142e-12
1.897673451751026e-09
0.00070314967092540651
0
5.0290810342759296e-08
0.00011830621036635781
1
1
1
1
1
-9.7488749354557625e-08
5.3032657434658471e-09
-1.0352698463476288e-06
2.5083155543052409e-07
-0.00015422953302062281
-1.8574663648370682e-06
1
1
1
1
1
-3.9801195592392255e-06
-5.2866162304985716e-09
1.2010196987914099e-06
1.1117198877810076e-05
2.2201525013995608e-08
4.2319246067368771e-05
1
1
1
1
1
-3.0803373031433119e-07
-7.6540712290201221e-11
2.185209811836489e-07
0.00015020528151402001
-5.1534981294248024e-06
-3.4855870646420991e-06
1
1
1
1
1
0.00028997105455599539
-2.8658311731484083e-10
-2.2844522167080096e-06
-8.7953826674367838e-05
0
-6.3855439542530482e-08
1
1
1
1
1
-1.8741384590662762e-05
5.5405737181866582e-08
6.7945459168128135e-07
3.2221131534545649e-07
-4.0575404253061557e-07
3.9746958525815119e-07
1
1
1
1
1
6.824116914121808e-05
7.8065986711474285e-09
-6.6300302320085523e-05
-6.6761692863234945e-07
0
0
1
1
1
1
1
9.0778105357986093e-05
2.1450238622811428e-07
-3.9072211930604889e-07
-6.9027171983100908e-07
-3.8369658931309582e-07
0
1
1
1
1
1
1.2943443833553041e-10
3.5130172503824264e-12
2.7126655912287674e-05
-1.8070887135820932e-06
-3.6759608777812014e-06
-5.0371831281712597e-05
1
1
1
1
1
0.00010449179576150277
0
0
-1.2400345183601847e-05
1.4564921821176221e-08
1.8330152827592228e-06
1
1
1
1
1
1.2978150599191224e-07
2.010342142450192e-09
0
2.4860161877214767e-05
-5.5437379102570231e-08
1.1873705821989779e-06
1
1
1
1
1
-7.3838865203939497e-12
0
6.7430099865862434e-06
0.0043358819431038101
4.5204291249570607e-07
2.4159765074764292e-06
1
1
1
1
1
-2.7882886401696149e-07
-3.3610296155042323e-09
-1.5907480690108426e-07
0
-1.4391199372486561e-05
-1.1578284462754257e-06
1
1
1
1
1
2.0098081511885151e-06
2.7611032458977372e-10
-2.9657483885421922e-06
0
1.5532925712547291e-06
-1.6222900845390486e-05
1
1
1
1
1
-1.4087155265591535e-07
1.6406176467389382e-07
5.6155584945424734e-07
1.9039300917600833e-05
1.4572121642747696e-07
5.1698571339699616e-08
1
1
1
1
1
9.2749681820146931e-08
-1.0557336502695014e-08
4.7469418318878913e-06
1.7291181921098905e-06
-2.527520376272583e-07
-2.5746686684486817e-05
1
1
1
1
1
-1.5489610314042116e-05
-2.190519868737129e-08
8.6528052529420935e-07
-2.0915862020982843e-05
-2.5075437485841159e-07
1.3678881521840118e-05
1
1
1
1
1
-1.9398438424950601e-07
5.9946052205797118e-09
6.7232629239958032e-06
3.1309452388188e-06
0
-0.00013649342214611682
1
1
1
1
1
1.8160861815232197e-05
0
-3.9659344615338193e-05
-0.0020384113263401359
2.4594024098191735e-07
3.1462350536748837e-08
1
1
1
1
1
-1.5193968771378105e-10
0
-0.00039283472017097445
-0.0009100912709220615
0.00030652939190625885
3.977382366015363e-07
1
1
1
1
1
0.00080523758220490721
8.3970706583246862e-10
6.058418225380065e-07
-0.0012419411602502973
-2.0182010402224608e-05
2.3783605990511004e-07
1
1
1
1
1
4.2040312404851822e-05
3.8955193433555917e-12
-0.0010596596320499999
-4.3020558184462767e-05
-9.3431702385140596e-06
-1.8007553012145428e-08
1
1
1
1
1
-7.9373134270049805e-06
0
-9.835906887076705e-07
0.0037312929013978155
2.1653489287870833e-07
-1.3776689131290179e-05
1
1
1
1
1
0.00023927621817087968
0
-1.7485066744936187e-05
8.3465230618540101e-06
1.5888461816135853e-07
3.6177621459949596e-07
1
1
1
1
1
-2.1996720429428742e-10
6.0889615500418877e-09
0
0
-2.2722672120948599e-05
-1.1702600967196482e-06
1
1
1
1
1
1.6355490463095768e-07
2.1530849563900501e-10
1.2606588886841518e-05
0.005954440206064655
8.5000586008970321e-07
7.4205220212369529e-08
1
1
1
1
1
-1.1997721488667174e-05
0
3.9718917896702104e-06
-0.0038677354307869562
-4.7754788028766702e-05
1.6084984113576052e-10
1
1
1
1
1
-3.3355049224854626e-09
6.8424000562088229e-11
0.0042147174685349016
8.0243787356795214e-06
8.4186449244862294e-08
5.9054087356337032e-08
1
1
1
1
1
6.3778406854898132e-08
0
0.00015995680535501179
-0.0011464486560932479
-1.3124991904352729e-09
1.177212037715489e-06
1
1
1
1
1
1.32134707224135e-10
0
0
7.0216533438815153e-07
-1.4641065554579118e-10
4.0283113013978838e-06
1
1
1
1
1
1.783487933252232e-08
0
-9.7751914039939587e-07
-7.1275513943361601e-06
3.2038832674838376e-05
3.4696261518484603e-07
1
1
1
1
1
2.4020726923402238e-09
5.8121957774553503e-10
-0.00055555718590337129
-0.00042378161786729864
0
1.2998478287420106e-07
1
1
1
1
1
-3.7865943333459604e-06
-7.23652131262411e-11
4.3036103351223722e-06
0.00052404223653814872
5.7123633108782673e-11
-3.2721639448675934e-08
1
1
1
1
1
7.4732312369833769e-09
4.0636690450835022e-11
4.64800473029733e-06
4.6264908192278327e-06
0
3.4519875334076144e-08
1
1
1
1
1
6.9097711488867962e-09
1.0264113397797483e-10
1.7560665801025852e-07
-2.302294904115214e-07
1.1289955815747441e-08
7.3978812607607554e-08
1
1
1
1
1
-1.6543846593833949e-07
1.3057256055362877e-08
-0.00206368823947051
2.2787821844674163e-06
0
-1.3340834285592111e-11
1
1
1
1
1
-1.4116405421455709e-07
1.4133147957311697e-09
1.7918803744441778e-07
0.00011360790476278817
-4.0066455757931155e-10
0
1
1
1
1
1
-5.7175370117403974e-08
0
6.6792906085485504e-07
-1.6235333347072073e-05
-1.3117958690771535e-08
0
1
1
1
1
1
5.8295502168987343e-08
0
-5.1370015656583366e-07
2.1757699784300564e-08
-3.6274178878048523e-07
-1.7100100944884493e-09
1
1
1
1
1
-1.4141502780463671e-05
2.0753792534665839e-10
9.4649105116834638e-05
-4.9560165373298302e-06
-1.0320773180446555e-08
2.2682222155979039e-07
1
1
1
1
1
-5.1399891483393861e-07
-5.4273826265638878e-11
0.00019716126100556268
0
-2.2435071692573618e-07
-2.0673728479200389e-06
1
1
1
1
1
-9.1010078874633361e-12
-5.6985521441937081e-12
0
-3.1202503474445764e-07
0
-3.8673711654013718e-09
1
1
1
1
1
-1.4236866727420103e-08
0
1.0520395600101062e-07
-3.6134635749540716e-09
0
0
1
1
1
1
1
-1.1373537615477401e-07
0
-5.4994832746923351e-08
-2.8285446124291418e-07
-8.9898264766013591e-08
-1.3713319270827182e-07
1
1
1
1
1
-2.2507789970962302e-05
-5.6210895508589833e-11
-3.1104599877314905e-09
0
-2.2407468975906383e-15
-3.788648181421851e-06
1
1
1
1
1
-4.1846913346971094e-07
-3.5552482300645778e-10
-2.9213267105430417e-08
4.4506190195640916e-06
-3.7554641053737956e-09
-2.7236231087574016e-08
1
1
1
1
1
-1.0103179660507576e-08
0
4.9929382744095512e-09
5.8179967872021568e-07
3.0697097115253736e-08
0
1
1
1
1
1
-7.2165911264748188e-08
0
0.00053873008599836475
-4.0361919232156791e-10
2.9648798456714269e-09
0
1
1
1
1
1
8.3200345271232714e-17
-8.170166385574764e-09
-4.132242012821529e-08
2.4804049543549805e-06
2.0203404440874811e-12
-1.6563883821413659e-08
1
1
1
1
1
1.3097935937169106e-06
-2.6972254600476757e-12
-8.7557801923111821e-11
1.3949352148613565e-05
-1.3562825893219066e-07
-1.2430266749578901e-07
1
1
1
1
1
-4.1271397158675771e-08
0
-4.8802477517296647e-07
0
1.7524510210712009e-10
-3.4500562995598035e-10
1
1
1
1
1
4.1908698183029138e-06
0
-2.331335463817142e-10
1.2267637510054545e-08
2.9844082635198046e-08
0
1
1
1
1
1
-1.3281529273072095e-08
1.1956826267596528e-08
2.2386827553127277e-07
2.9667716932678709e-09
-3.1939204998670008e-10
-3.7121110180978979e-08
1
1
1
1
1
-1.4538691879282178e-07
3.3492408951892194e-12
-1.9738491983065542e-07
3.2065792558283183e-06
-3.3811164445852738e-09
-1.9451298779425731e-05
1
1
1
1
1
2.907357964431509e-14
2.6134317870555345e-11
-3.6114320278031567e-05
7.2700994818801862e-07
-2.4132287833478401e-08
-9.1271582358671275e-08
1
1
1
1
1
-2.04373764496126e-11
-7.8373574346018366e-11
1.9778261525152516e-05
-2.4619353992383067e-06
-2.3517570841609265e-09
8.8077434647193815e-09
1
1
1
1
1
7.6145497881017916e-07
0
1.5222604872941381e-06
2.8846785257628722e-06
0
-3.8109736924666108e-06
1
1
1
1
1
-6.1127470028265299e-07
-0.001433983322491473
0.00019027184530654671
1.352460886214787e-06
6.1107733718006944e-06
-0.0059233653795419516
1
1
1
1
1
-0.0018772465054177384
-6.6365966319443842e-07
-0.00056049892289952155
-8.3668160188787355e-08
-0.0031775683400585759
5.8855929990320506e-06
1
1
1
1
1
-4.53186994079885e-07
2.9204756319141227e-05
-0.00046996074115468993
-8.8834387814351267e-05
-3.922479157261329e-06
0.013093808862831914
1
1
1
1
1
0.00029465524157647064
-3.4861593781687993e-05
-3.5860185947735873e-05
-3.4198018977389776e-05
-1.0050019821679974e-05
2.4676725177212759e-06
1
1
1
1
1
2.4548690650270305e-08
1.5529906642560825e-05
0
-4.6151608747799381e-05
8.6581143328223655e-05
-0.0020799103691631574
1
1
1
1
1
1.1659570391034236e-08
0.00024809456002764641
0.00061206117242834353
0.00027464198313534484
3.2293323898739124e-08
-7.5029702507476659e-05
1
1
1
1
1
1.440257948144414e-11
-4.2433298429647034e-05
-0.0088354771446105557
-0.0077710765951794136
-0.0011699926075370186
-4.538461035095697e-06
1
1
1
1
1
-6.2532376641893863e-06
-6.469938784627052e-05
1.3760136637181203e-05
0.0030871195633796018
-0.00055195426945369916
-0.00021320093259151584
1
1
1
1
1
0.0024510706539692963
-1.0210373851031513e-05
0.013896677993324759
2.5439388112891199e-05
-5.851441602195568e-09
9.0899366353586043e-05
1
1
1
1
1
-9.7304815564473325e-05
-1.6464578822395605e-06
-0.00025727456192330914
-0.0021892627493289218
-0.0098786623278131289
4.4056436375229726e-05
1
1
1
1
1
0.00029907183140326441
1.6343509677082885e-07
2.0453457844390407e-06
0.0052829830347094313
-0.0032532635061206477
-0.00035510564507536539
1
1
1
1
1
-0.0016516883690126099
-0.00033644637596511425
0.00053580003156317841
-6.1000420254683693e-07
-0.0070867267360935973
0.00093468262194391894
1
1
1
1
1
0.0015887415633202117
1.6732656359948847e-07
0.00042887534187062876
0.0041802979615080532
-0.0034617101146476774
-0.0011272153371678949
1
1
1
1
1
-0.00023547248085305925
-9.0082118067213934e-08
0.0010269074139674865
0.00011240880807253548
-0.0030158572950389419
-6.976964478771431e-07
1
1
1
1
1
1.1302260527325057e-07
0.00022548386454737898
0.00033629758599985714
0.00024160269454144112
0
-7.8060422510425485e-05
1
1
1
1
1
0.00049453514333654158
9.6852245131186519e-08
-0.00071409236115739397
-0.00093206959235812728
-0.00052015829023678811
0.0022085191002602341
1
1
1
1
1
-0.0051401167218657808
3.9665807364943511e-08
2.7278087668777605e-05
2.0066234576688759e-06
2.4292971455377785e-07
4.1272962161927142e-07
1
1
1
1
1
-8.9367552845996508e-06
0
-3.4315954682457348e-05
-0.019687664292962356
-7.5901530257892201e-07
-0.0011947577897177396
1
1
1
1
1
-9.007564025875432e-05
-4.7710093630934401e-07
1.2727579608251685e-05
0
2.6551732316966416e-05
0.00085093765988130245
1
1
1
1
1
-0.00089786686525613398
-4.7009432965335381e-06
-2.3832813385832024e-05
0.00052031471790716646
-2.9992157523105677e-05
-4.2449550369590005e-06
1
1
1
1
1
-2.3203231039094767e-07
0
-6.7502178552303536e-05
0.0064205903664394234
-4.1956446216919428e-05
-0.0011273144669016709
1
1
1
1
1
0.0016023946157885474
0
-2.506166661352347e-06
-0.00054793495485864498
-0.00017159911914648538
-1.0691404114300982e-05
1
1
1
1
1
0.000185101280882124
-1.183717927640655e-06
-1.3028982114052511e-05
-2.3717662795909394e-06
6.3503223752528389e-07
2.906559644345831e-05
1
1
1
1
1
1.0117556265646637e-09
-8.1937030933182487e-05
-0.0024845700151207846
-7.7597375251313379e-08
3.8318293021053058e-06
-0.0012345777838093262
1
1
1
1
1
-0.0064909275501665075
1.4460454195317948e-07
0.0062059453810575493
0.0013755827280907268
0.003650684279735238
0.0008388209175407606
1
1
1
1
1
-0.0002392011879621233
-2.0841241843316182e-05
-0.00014570737400056917
-1.5122487426753951e-07
2.8448625058920605e-07
-9.1806982513339115e-05
1
1
1
1
1
0.0011640789964944079
2.270654223300264e-07
-0.00031561212687905023
-2.8531241412721052e-06
0.012641327965211379
-0.00078041434723525671
1
1
1
1
1
-0.00081284119519418256
0.00019960987291804065
-1.2720146823870206e-05
0.026943065435707
-0.010448076121840079
-0.00022304479787445345
1
1
1
1
1
-1.3366450401204671e-07
-3.5519619580634948e-08
8.433865407747002e-05
0.00041331350541508945
-8.1213895926266521e-06
1.9195315677407078e-05
1
1
1
1
1
-1.6388132510047534e-09
-1.5512585947350908e-06
-5.0100020305171935e-06
-0.0087650926586124913
6.1093773594006938e-07
1.767394131518619e-06
1
1
1
1
1
0.001445373757843351
1.4685325881196302e-05
0.00048421669770717381
8.951299257447354e-06
-2.4944193052761415e-06
-0.00012696097579757964
1
1
1
1
1
0.00056416331270676186
2.1437415068126348e-06
-0.00020697546502288544
8.3696726965069002e-07
-0.00023263014032724126
3.8522939467443635e-06
1
1
1
1
1
-3.3110911680543902e-06
-7.1097280335838975e-05
-0.00028482484200530688
-1.2712610800400519e-05
4.3622538715707693e-08
-0.00075679353955316719
1
1
1
1
1
-4.733418407054968e-06
7.3357723974982392e-07
0.00013594950901763992
0.00011717036411579492
-1.778359681693131e-05
-0.00069907828415791693
1
1
1
1
1
-0.00018435580105783894
-2.1174475058424769e-05
9.6555323883660312e-07
-0.0033129534919020087
0
8.0988088200190849e-09
1
1
1
1
1
-2.5160287822168185e-05
-5.3645322883303535e-05
1.0273352449472222e-06
1.0649346636898086e-06
2.5321874753392914e-06
-9.7796718653978351e-05
1
1
1
1
1
1.2233192784063867e-05
-1.3896276183165867e-08
-0.010667561563117441
1.6914151878410237e-05
0
0
1
1
1
1
1
-0.00011852661811026783
-9.6380974658401337e-08
-1.3754304918490649e-06
-6.8784902474320732e-07
3.2646598404124683e-07
0
1
1
1
1
1
4.0808173567587727e-11
1.1044199071539112e-07
8.1462503602112838e-05
7.9483672482798259e-05
-2.5198965133699325e-06
-4.2454321793092414e-05
1
1
1
1
1
5.3255285150831744e-05
4.2977643609481133e-07
0
-8.2112392787496206e-06
1.7861761156988198e-08
3.536694911940106e-06
1
1
1
1
1
0.006766294004543448
0.00013332988693827503
3.6887517755122705e-05
0.00045973068276320865
2.4122852850830342e-07
5.8541507698533754e-05
1
1
1
1
1
-0.00015067420288335411
3.3226168406928319e-05
0.041851549250089687
0.0042976384920937359
-5.7588875187366687e-07
-3.8283364959951128e-07
1
1
1
1
1
0.0016279625888019253
2.1429879956187821e-07
-0.027683954897108259
0
1.2269565177805947e-05
-4.0563205692044178e-06
1
1
1
1
1
1.7276314901909861e-05
1.3874393462107003e-06
4.3064190681653884e-06
0
1.2012186967970413e-07
6.4427237176199279e-05
1
1
1
1
1
-9.8716157346419967e-08
1.6211835062667501e-05
-1.4852414010973716e-07
-0.008140473944526232
6.449946672201154e-06
-4.160687748109557e-09
1
1
1
1
1
-1.2733681925576894e-06
7.0979375709203296e-08
0.00029597270527961708
7.9198187481719161e-06
-2.2465706027688845e-06
-2.6033530154662015e-05
1
1
1
1
1
7.7221924280640331e-05
-0.00012794721749647282
9.5794613855357618e-08
2.7127639970711718e-06
1.4688778459907239e-05
0.0039773076454883184
1
1
1
1
1
-1.1897857913890898e-05
-4.0739467161581125e-05
1.0811949375568572e-05
-0.0051809253141916409
-1.6748551851286594e-05
0.00070166448638152464
1
1
1
1
1
-2.7658429356945326e-06
-1.1040591964618516e-05
-0.0031769355415591522
-0.00065332008609250084
0.00055447860265548537
1.0681472038838354e-05
1
1
1
1
1
-3.1489954387039575e-10
-3.96284757405324e-07
-0.00034955089344190847
-0.00077392108671475832
0.0018880977913883251
1.3506911198080964e-06
1
1
1
1
1
-0.00080520179447224219
-1.4614370819881711e-06
-2.2329452265059643e-06
0.00054114073976227223
-0.00057464298277874748
4.219976893543659e-06
1
1
1
1
1
0.0010321813034345347
-1.531518751303739e-05
0.00012478892952645838
2.399602662011324e-06
0.00041905529182437201
-0.00056496003528169227
1
1
1
1
1
-0.0066604484489067185
0
4.0884306648170473e-07
0.0042441424638080998
-3.7216225018982237e-06
0.0023625446813779036
1
1
1
1
1
-0.00027301053886234712
0
0.00014652684385296292
-0.00010629538961152263
-2.6735378559151629e-06
-0.00018730556030453343
1
1
1
1
1
-0.0050892058361683319
1.5930692708569517e-09
0
-0.00085348596413284731
5.2976504208635885e-06
-0.00011144240002656846
1
1
1
1
1
-5.4978933754863222e-07
-5.0987093556884331e-08
-0.00051071668845212043
0.0017999458637811489
-2.8114038885608057e-06
0.0010796099292730411
1
1
1
1
1
0.00011820010970372191
2.3832980716062159e-07
1.7639998986499693e-06
-0.0063032823836595905
-4.8740706092983166e-05
1.182342521548622e-05
1
1
1
1
1
-2.3335586910725191e-08
-5.2837047053618161e-11
1.3888172174391668e-05
6.9682253150187527e-05
-2.722256042081211e-09
7.4836343940292915e-09
1
1
1
1
1
6.326042497073994e-08
0
4.4045941258064295e-06
0.0020048438890909628
-3.1302198667566116e-09
-1.0622565449657061e-08
1
1
1
1
1
-3.4340013415641309e-11
0
0
2.477858715427181e-06
-1.1881821643092768e-09
-1.3865849651818797e-08
1
1
1
1
1
4.4776053286529564e-08
0
5.0342737680374947e-06
1.5464365363515639e-05
-2.0915093639052756e-09
-3.3704707169218456e-09
1
1
1
1
1
1.9659649350584595e-10
-1.2962865687843855e-11
7.7091419069594975e-06
-0.00045189993699628402
0
4.6672628067409423e-07
1
1
1
1
1
-3.3504810129772703e-06
0
4.075999210416746e-06
1.0431113016030603e-05
3.0024885501358697e-12
-6.5914551236781215e-10
1
1
1
1
1
-4.4162344730995704e-10
0
4.2367967994272144e-06
5.9198707014005079e-06
0
4.2452335084282021e-09
1
1
1
1
1
-5.5129040822540091e-09
0
3.5294502121769698e-09
2.4858037713959513e-06
-2.2661934471984318e-09
0
1
1
1
1
1
-1.3067880183799524e-06
-1.2124971004514107e-12
3.4203415475488339e-08
2.279008957920895e-06
0
-7.5769860071991012e-10
1
1
1
1
1
-5.2384593667979439e-07
-3.2024304422873715e-11
9.0911659280055636e-08
-0.00011482099392799963
-5.9639593309143665e-09
0
1
1
1
1
1
-3.3145831471607451e-08
0
9.4032111802513102e-07
2.4216656204659665e-05
-2.7711335286288815e-08
0
1
1
1
1
1
-1.0345676079513859e-07
0
-4.5277910751389965e-07
-7.0827948759280708e-10
-4.4934815040173559e-11
-2.9583796814514693e-10
1
1
1
1
1
1.9025770225339177e-08
-2.5192141457118448e-11
-1.6105892553111764e-08
5.0795976377366474e-05
-2.6069016661052217e-09
2.6341104668853549e-08
1
1
1
1
1
-6.2054173399468679e-07
-1.0730297260044092e-11
-1.1901912014270429e-09
0
-6.7986433473736841e-06
8.6444662398180803e-07
1
1
1
1
1
-2.2913310686597593e-11
-6.0785184694259071e-12
0
5.1632529315576736e-06
0
-4.4417452167395788e-09
1
1
1
1
1
-3.6264037697870865e-09
0
-8.5084775094593289e-09
6.9362220461036431e-07
0
0
1
1
1
1
1
-4.5453554924150607e-08
0
8.307543230592776e-09
9.3954010481668001e-07
-1.2071928387111135e-09
-1.6686814025881805e-11
1
1
1
1
1
-4.9077958440800878e-09
-8.8690200164692618e-12
2.1363129140126358e-09
0
-7.4838831749032504e-13
4.1056562801525779e-07
1
1
1
1
1
-2.8925012548541214e-07
0
-3.4365532274607638e-09
3.9687389138917392e-06
-1.4997219315756426e-09
0
1
1
1
1
1
7.7552687427670015e-09
0
1.3018012730997994e-09
5.4341428075547542e-06
-2.3307659941059825e-08
0
1
1
1
1
1
5.7358223106530056e-09
0
-4.6634296769677002e-06
3.0996335762676473e-07
6.1206477002791963e-10
0
1
1
1
1
1
-3.4594636524403037e-16
-1.7218302602844742e-12
6.0428373454267047e-09
1.0052935530705765e-05
7.6148501933276693e-09
1.6816098355102106e-11
1
1
1
1
1
8.9566966148913848e-09
3.0698758994572241e-13
-1.6034802409689839e-09
4.2377656934439265e-05
1.4382898995537386e-07
-5.0650551654734271e-09
1
1
1
1
1
-6.4789079906346172e-08
0
1.73469859300204e-09
0
-1.1928314385172015e-10
-2.3267542092465941e-10
1
1
1
1
1
4.5377984710648134e-11
0
-3.8891716726544842e-10
-2.6521191409822288e-07
-4.5496412904018099e-11
0
1
1
1
1
1
3.6750565926904759e-08
-1.9561669556402371e-13
7.3230620561842725e-08
-5.1407295638325693e-09
0
1.9233535069366401e-09
1
1
1
1
1
1.4270959715917835e-07
-1.5306896135965146e-11
-1.2738162429583217e-07
0
1.5418306421759513e-09
1.5292134727820471e-09
1
1
1
1
1
5.2118565274076547e-14
-1.9251438073576137e-11
4.7110046562596469e-08
8.6838007511608876e-06
0
-4.4921376222534246e-08
1
1
1
1
1
1.0261148350825338e-10
5.5745104849823511e-12
-6.1700896146142414e-06
2.9272754591860426e-07
3.8322856154536083e-09
2.2021050624993811e-09
1
1
1
1
1
7.396842769585834e-09
0
2.8155579414671437e-06
0
0
2.0780623715725523e-10
1
1
1
1
1
6.478124830915553e-07
-8.7043402246975046e-10
6.1727809509653782e-05
-2.5704783973628673e-08
0
-9.3426275651134592e-09
1
1
1
1
1
-1.141686766061287e-08
0
7.3279376427076563e-05
5.4425673596579363e-07
0
1.8563236726172346e-06
1
1
1
1
1
3.8717039484225361e-07
7.9576513708070382e-09
-0.00017904885836432646
-0.00010469774004484079
2.8964797719229293e-06
5.585896364163662e-05
1
1
1
1
1
-1.8270141062374796e-09
5.4682645801162222e-09
-3.8791659191631858e-06
-9.6755247731877473e-06
-7.9666628350617819e-09
2.7121982436304785e-06
1
1
1
1
1
-1.1942496619277806e-07
0
0
-1.833825002377715e-05
1.4219177208649744e-06
-5.1318040389176858e-06
1
1
1
1
1
2.2105464228194164e-08
1.4373295662917476e-07
1.5941088768899824e-08
0.00025095469872854378
1.0458774452355908e-08
-2.3063251215699948e-05
1
1
1
1
1
-1.0319252332240247e-10
-1.8041546392289688e-09
-0.0080823502093560588
-0.0090306512218073613
-0.0014327061921877728
-4.1692502251057159e-06
1
1
1
1
1
-1.8165086702597294e-05
-5.6053237150526169e-07
2.8189344035462094e-06
0.0011307474215092701
-0.001182580245576049
-0.00012300700547984153
1
1
1
1
1
-5.8073609982790776e-09
-3.6259087642201292e-10
0.0030079086215588952
-6.5238499159296322e-05
-6.595963598281074e-09
-0.00010403914018623745
1
1
1
1
1
6.1736947801254127e-05
-5.0894865242237334e-08
-0.00014926515769630303
0.0021794412684277703
-8.9745116190286646e-07
0.00014058935243852828
1
1
1
1
1
0.00050399453669844937
-1.8479862366611622e-08
-2.9275192027441829e-07
-2.2442210319326028e-05
-0.0010926664325676008
9.188172617684554e-05
1
1
1
1
1
1.8205872376720846e-05
-3.7685613093881621e-08
-2.525917693381003e-06
-8.5591758894437481e-07
5.4771036206364432e-06
0.00017775853785947874
1
1
1
1
1
-0.0015887415635102941
1.8504796218910491e-08
-0.00065284365536807454
-0.0016495576627629416
-1.1236453691132293e-05
7.870758247607417e-07
1
1
1
1
1
-2.1518103609181526e-05
-3.0302592193177655e-09
-0.00018675066819539456
0.00011350862269496495
0.0017785418977779271
-7.6472658616271561e-07
1
1
1
1
1
6.6411502167661223e-07
-1.5704997840543086e-08
-4.9016860495143896e-05
0.00021010127232877365
0
-5.9194675969359822e-05
1
1
1
1
1
-1.5851376018911252e-06
-3.0427121542160589e-11
0.00058939858776675626
3.9684749732920378e-07
3.1764239332516098e-09
-2.4598319489039039e-05
1
1
1
1
1
1.1086357970299353e-07
-1.0406226191923356e-08
2.1559199360038505e-06
-6.3435254022427496e-07
6.4602571996320961e-07
6.0755522793975004e-07
1
1
1
1
1
0.00022186003540720548
0
-0.00012635022247925012
3.0052698055221892e-05
8.6590770973866329e-07
0.00035917984814593293
1
1
1
1
1
-0.0023241523766899721
0
1.5878332575085742e-06
0
-1.1130334623073012e-07
8.3066507772674918e-07
1
1
1
1
1
0.00012271171943439941
8.6740589376996061e-08
1.6918685131325147e-05
7.6664014226205632e-05
-8.7657336608840588e-06
-1.5602574517715139e-06
1
1
1
1
1
2.8067443294200288e-07
0
0.00012571148050731276
-2.8083253306217536e-06
5.2215557693915292e-07
-0.0011094556330508568
1
1
1
1
1
-1.4324849760761427e-06
0
-4.2697186811546372e-06
0.00029614944932584693
3.2939900067293167e-07
-1.1286837284375675e-10
1
1
1
1
1
5.4066367321217327e-05
-8.5940599049918884e-08
2.6475920843560573e-05
2.2904122459520459e-06
-4.0908463538817449e-07
1.1407698505809875e-08
1
1
1
1
1
1.2192075527332153e-09
0
0.0024814708975738997
-2.4027768753572659e-08
1.7053495459859602e-07
-3.9438442543098103e-07
1
1
1
1
1
1.2815813188953153e-07
0
0.00098629939528237015
0.0013078974919520556
0.0016674148107868997
1.1035459963900478e-07
1
1
1
1
1
0.0005594322591781245
1.2129112556358874e-08
-1.2196902685613744e-05
-2.3028992617959963e-07
8.1366781010402809e-07
6.2732847959841124e-08
1
1
1
1
1
1.3701623147355926e-09
-7.26512211293731e-08
-0.0021846037502992418
-2.9171787021943871e-06
1.4074415312636217e-06
2.1157502996482889e-06
1
1
1
1
1
7.0833881125912702e-05
0
5.5160363615947097e-06
3.6414078868259126e-05
1.4978429114043e-06
9.8238181537788925e-08
1
1
1
1
1
1.1436915972629013e-07
-1.0834494263268021e-09
-4.0521517681026526e-05
1.1722580909968622e-05
1.4721122390736829e-06
3.1557735774571688e-06
1
1
1
1
1
-4.6801030082898057e-09
-2.1591579670014435e-09
-1.5124373285326838e-06
-0.0007441795669586096
9.7523918630098877e-07
7.1618020968397423e-06
1
1
1
1
1
1.6727950127208258e-12
2.7101215792869403e-09
0.00070260500958774209
0
6.5457351511870392e-08
0.00017199542687011682
1
1
1
1
1
-0.00056420911389868712
9.1096950265597857e-09
3.1790325320334994e-05
-4.0173640223552905e-06
-0.00015944804143923718
3.9554169970414111e-07
1
1
1
1
1
-5.5816828080533442e-06
-3.5721547686906428e-09
-1.819227359230359e-08
3.9898517493077939e-06
-3.1884467795352876e-08
-2.2393595625869444e-05
1
1
1
1
1
9.4558172313850693e-06
1.1705405182489091e-08
6.7510401447957351e-05
1.1864789505799402e-05
5.2032884032493159e-06
-0.00092227228837050805
1
1
1
1
1
-0.00029384441461868468
-1.944413752359518e-07
2.9571151971754464e-06
0.00013592936426570589
0
-6.3855439542530482e-08
1
1
1
1
1
-3.2333974377295032e-05
-1.1066968680657184e-08
4.6791760545932513e-07
3.7386029750987975e-07
-2.7096622882878386e-07
1.1851282361723022e-06
1
1
1
1
1
9.2056430764172773e-05
-1.3715899914900689e-08
-4.0890150819525912e-05
-1.3703047110202649e-06
0
0
1
1
1
1
1
0.0001078020245275509
-6.0323973939087124e-08
-9.2169971679733798e-07
3.1881324889738568e-07
5.5535374130982181e-07
0
1
1
1
1
1
-2.0920156883984124e-10
-1.9081872109277739e-08
-1.2595829818847121e-05
6.0186863801591869e-06
-1.2529482786149488e-05
5.158422367186035e-05
1
1
1
1
1
0.00013102553514621524
-2.2444766353178724e-08
0
-3.696829117845712e-06
1.8725025064894922e-08
3.3723323720750132e-06
1
1
1
1
1
-1.3657495266061955e-07
4.2762954437024114e-09
-3.6653421306067153e-06
0.000422717636169727
-2.0308390117932286e-07
4.3163007665451942e-07
1
1
1
1
1
8.1689195242557836e-07
0
-2.5856993836058431e-07
0.004107683778409775
-1.7827172609599944e-07
-9.6438060655133966e-07
1
1
1
1
1
4.3940159347596649e-07
-1.1231392580057762e-09
-0.00017110331712867819
0
5.9958489164602746e-06
1.8329540164045164e-06
1
1
1
1
1
-3.6926504070173831e-05
2.9156922049105913e-07
4.9449955904858111e-06
0
3.8275929395902473e-07
-1.855634839519329e-06
1
1
1
1
1
3.9107310611588175e-08
1.4841089266361016e-07
-1.2967951988661195e-07
-0.00037132472774884949
3.1258467543412892e-07
2.1054112254715397e-08
1
1
1
1
1
5.200208681933284e-06
9.0226187171788704e-08
0.00030205807742238807
3.44170920093059e-07
8.607911323350749e-07
-1.2167381254829499e-05
1
1
1
1
1
2.315444534692933e-05
-6.282699569618193e-08
1.5657706423900632e-06
1.8308405450518955e-05
-2.5108368100506982e-07
-1.9108898082004276e-05
1
1
1
1
1
-1.1620448368238482e-06
2.1701460141161862e-09
2.1868622838762493e-05
0.0062401034841950004
0
4.6229610095146943e-05
1
1
1
1
1
3.5114827274703076e-05
0
-3.6698321299788262e-05
-0.0020409407354298418
1.1520234149240367e-06
8.1253734280693294e-08
1
1
1
1
1
-5.4404638601303354e-10
-4.2038629255162894e-09
-0.00017604182911637467
0.00020221391322925835
-0.00030670271588599063
-1.6479527978860538e-06
1
1
1
1
1
0.00080522831095445843
-6.7035488498924791e-10
-1.9540325995956493e-06
-0.00089793903666641507
-4.145874554699119e-05
1.5651219980750306e-06
1
1
1
1
1
0.00014389664181571187
7.3046613506067447e-13
0.00023580280972928928
1.9010432272786769e-06
1.5684566204602414e-05
-1.7820747063198614e-08
1
1
1
1
1
-1.0081135136868064e-05
0
5.3388474186343268e-07
0.0030683279147013243
5.1282432772690095e-07
-6.9479333754912279e-06
1
1
1
1
1
-0.00013971007235895133
0
5.9110617492207508e-05
-5.063007338785489e-05
1.588196572082451e-07
2.3969239768205783e-07
1
1
1
1
1
-1.18252197933739e-10
2.4803188005111052e-11
0
-0.00073457767632999823
-1.9915749537167493e-06
-4.2265180666612177e-07
1
1
1
1
1
-1.238576464996391e-06
-3.9819290277653456e-12
-1.2626399936179228e-05
-0.004923113630385537
-1.9509068519976995e-07
3.513724800796969e-05
1
1
1
1
1
0.00015433516973806637
0
1.2599781041378364e-06
0.00018366250285648526
-1.694025044083921e-05
1.2229712637737016e-09
1
1
1
1
1
2.1666457970228705e-08
6.3585089282132979e-11
-1.0497669055342989e-05
1.7909073548764112e-05
6.0605478840500926e-08
8.3320643638211212e-08
1
1
1
1
1
1.9210284398754674e-07
0
1.2392625761399359e-05
-0.0024082634695557991
1.3341517622091417e-07
8.9392843639339354e-06
1
1
1
1
1
5.3889823257050226e-10
0
0
-5.1114125522189967e-06
2.3001868872165492e-07
1.9227235431456669e-08
1
1
1
1
1
1.6007074497788968e-05
0
1.4440841787134937e-05
-2.235195986811799e-07
6.1828098374255375e-05
4.1366153418262763e-07
1
1
1
1
1
6.840016684229464e-09
9.3327179263789256e-10
-0.00056057684054961312
-0.0014183985985361776
0
9.0795844482823449e-07
1
1
1
1
1
2.7148105029150916e-05
6.72306490916129e-10
5.9802138519794592e-06
-0.00074456355416103819
5.2784305874510484e-08
3.907004676880066e-08
1
1
1
1
1
1.3683448006003379e-08
2.208211685635913e-08
-4.1613303429082109e-07
8.3230841635367299e-07
1.8335683639255089e-07
6.493741825252031e-08
1
1
1
1
1
4.1595034136469204e-08
1.2096038444594426e-10
-4.2893388510759805e-08
-1.8420284522870336e-07
-1.1051246716805144e-08
1.1910604948052372e-07
1
1
1
1
1
7.310137598482026e-06
-1.305924062545691e-08
-0.0020774141354492391
2.2671482525012673e-06
0
-1.0924730569321931e-10
1
1
1
1
1
4.6636192966806215e-07
-1.9082178361903342e-09
-4.1456656243153548e-08
-7.5722347599807978e-05
1.1272439685701245e-10
0
1
1
1
1
1
5.2231361974609859e-08
0
-1.745956398244609e-06
3.0201370295141915e-05
-7.1386978046452348e-08
0
1
1
1
1
1
4.7703721219658753e-08
0
4.2730152044288751e-07
-2.8006526278846524e-09
9.6714568409544848e-07
-1.1735718815381306e-09
1
1
1
1
1
2.6985420556406459e-05
1.1596584325709886e-11
-1.0536732483354265e-08
-0.00014320535401593818
-3.903525123344393e-08
2.2102009677617161e-07
1
1
1
1
1
7.0675441583289647e-07
7.5571044239921616e-11
0.00065825174078964111
0
-5.5844291735448219e-07
-1.0057335042733447e-06
1
1
1
1
1
2.7213062924818278e-11
4.945806862678178e-12
0
-4.113917559149107e-06
0
2.855287068125081e-07
1
1
1
1
1
1.7769263130324341e-09
0
-1.140429928500294e-07
3.6568374582007079e-06
0
0
1
1
1
1
1
5.1388566474814667e-08
0
2.7378556647908674e-08
-3.6891605239522274e-07
-7.1097484883905099e-08
-5.650161382758622e-08
1
1
1
1
1
3.4414784695537343e-07
5.4565865628631994e-11
-1.9070729547287077e-09
-1.2403077097084e-05
-4.3798232558985535e-13
-3.0988176616695976e-06
1
1
1
1
1
4.8194257759399008e-07
4.3133802110741855e-10
-8.0971846226196416e-09
8.1747506650021008e-06
-2.5704667365259391e-09
2.1630402529990601e-08
1
1
1
1
1
2.9047714188181519e-08
0
-8.4198529978005844e-09
-5.4428621415631683e-06
1.3954144363477357e-07
0
1
1
1
1
1
1.5035106227604631e-08
6.0465009047878658e-10
0.00025711189068642498
-3.2054608920468041e-06
1.3885720112552875e-10
0
1
1
1
1
1
6.5531303198449065e-17
-1.7008793787140873e-08
-1.8094276704188009e-08
1.0016825779611388e-05
-3.7031515744620104e-08
-2.4887054184905506e-08
1
1
1
1
1
8.7774522891975927e-06
1.3653358500869939e-14
-2.7477571452586882e-06
4.2213477354460915e-05
1.0815227934831293e-06
-1.2283279607561683e-07
1
1
1
1
1
-1.3651663125163773e-07
0
-2.5022699158516352e-08
0
3.9037131900340479e-10
3.5041370177601098e-10
1
1
1
1
1
-1.1963963514933081e-06
0
-1.1840051760634048e-09
-9.4765427232186202e-07
3.0869453752374142e-08
0
1
1
1
1
1
9.4864707930816889e-09
1.6354136819749327e-09
1.3763507991217606e-06
1.5465241941408488e-09
-1.5571719818012189e-10
-2.7741774118820033e-08
1
1
1
1
1
4.6755496383088051e-08
-3.2005893471159687e-13
-2.3788228058395772e-07
-4.3480060650363741e-06
-5.0386198950665502e-09
8.4964279574856601e-06
1
1
1
1
1
-4.1307682622888291e-14
-5.1748849103572296e-11
1.2756268406727433e-07
8.6286971997408808e-07
0
7.7346581912215454e-09
1
1
1
1
1
-1.6833255044902457e-10
5.1162445357789449e-11
7.0210420060621056e-06
-4.2339738769943457e-06
3.5332502028486794e-09
1.3501677763544993e-08
1
1
1
1
1
-2.4734143531181655e-06
0
-3.3837275561227676e-06
0
0
-1.3642645228777706e-05
1
1
1
1
1
1.309574735357967e-06
0.00039262969881704196
0.00013167659747810096
0.0098946334717935781
-1.6901735607384264e-05
0.0055031056942893451
1
1
1
1
1
-0.0016658008515540823
8.1019260582815878e-08
-0.00060835700434856037
8.0127290038452364e-07
0
1.0816467194105672e-06
1
1
1
1
1
-2.8563004229531295e-07
-0.00020226196643061326
2.1950690546481286e-05
-3.5061702792135084e-05
-6.3567473286256662e-06
-0.013369044361958314
1
1
1
1
1
0.00033102140728192734
4.0101397007220279e-05
-2.7571264543609892e-07
2.8929454991737192e-05
0.00016047053074842398
8.5135073897042991e-07
1
1
1
1
1
-7.9039153776909217e-08
-1.0880025688719844e-05
0
0.00031120810629412844
-0.00012566106671394963
-0.0019485949029155059
1
1
1
1
1
-3.266968033837217e-08
6.5736245223360941e-05
0.00068416973035244019
0.0002119039653116497
-0.0022817479256108577
9.3958965172255971e-05
1
1
1
1
1
-9.1571108412925014e-11
-0.0013951027427393343
-0.00052557948879512035
-0.0082118130936683492
0.00068478799009538856
-6.3862003911634445e-06
1
1
1
1
1
-8.7683635896997514e-06
3.875317580867287e-05
2.7024456381439331e-05
0.00043499780454956066
-0.00036169810128102906
2.91346558079149e-05
1
1
1
1
1
-0.0024510805813963278
-4.5565840967480415e-05
-0.0059053004632113942
-0.00020712896755147077
-6.5959769028567171e-09
1.5656870254756449e-05
1
1
1
1
1
-0.00016849508411426867
0.0020017975286178184
9.6562664473423022e-05
0.0033708433975141003
-0.0098622155654023991
-0.00061271386603834745
1
1
1
1
1
0.00046407200198978756
2.3094307684023736e-08
-8.8479358013819689e-06
-0.00032599547544423095
0.014179540659598982
-0.0068896529988269617
1
1
1
1
1
0.001862652168851708
-0.00040292178621793422
-0.0005152102329505061
-1.0490003231640831e-07
0.0048600491221688583
-0.0019522918157795996
1
1
1
1
1
-0.0039723833715244131
6.950928758511117e-09
0.00045290484751486787
-0.00011819455259150528
0.002425315821777658
8.6693893386767736e-07
1
1
1
1
1
-4.3276892736116175e-06
-1.6083528481905425e-07
0.0030961755335405399
-0.00013546504232617762
-0.00060040292331733751
-5.7151499803822145e-07
1
1
1
1
1
4.7656954048416793e-08
-2.367405644006514e-05
-0.00013402922245482707
6.0082342130161494e-05
-0.00058226449346457322
0.00017366125368101991
1
1
1
1
1
0.00061980728311321234
-3.8119410984359708e-07
-7.9793146995459645e-06
-5.2383225178523783e-07
4.3733410132293249e-05
0.0027227452509758334
1
1
1
1
1
0.0031164617729927675
0.00198808412110497
2.0694005039995092e-05
0.019318845469278739
0.0010095003080354888
7.6378731113007993e-07
1
1
1
1
1
-0.00010183647117637943
-7.027309514133113e-05
-0.00026621303425961132
-0.019755569351279017
-1.2121072114614725e-06
0.0012119599483806373
1
1
1
1
1
-0.0039247502020141097
-1.1636227997105556e-06
2.451660153171544e-05
0
-3.0749221405562327e-05
-0.0040140811455847587
1
1
1
1
1
7.4345835287481659e-05
-0.0003592326274926528
1.2588915396728069e-05
-0.00016077604813651483
8.9551691996010635e-07
-2.5015700836703846e-06
1
1
1
1
1
-7.2075032796474105e-07
0
-0.0024139053219147883
-0.0068890979856975508
2.0652453638598512e-05
0.0011382723377366783
1
1
1
1
1
0.0058591039957610414
0
3.0271204916545014e-05
0.00059466411265033606
0.00039058614778936099
-0.011679921655525994
1
1
1
1
1
1.8313090836420812e-05
9.7538675809947392e-05
-1.0078553663839072e-05
2.6650298489955781e-06
7.2436805027494619e-07
2.9779694181614752e-05
1
1
1
1
1
-1.2414132959085974e-09
0.00014300258678387129
0.0098479865867140727
1.920414390115716e-07
-1.1544911655510343e-06
-0.0030651702277695609
1
1
1
1
1
0.0057841053918920348
6.1413321885746065e-07
-0.009612491953060567
-0.001734322555303034
-0.0033364440193868221
0.00029644004846904066
1
1
1
1
1
-0.00033480683016042396
2.0808446281939702e-05
-6.5523610232415779e-06
-1.5042964903462131e-07
-5.5433577040724675e-07
0.00060987695868648141
1
1
1
1
1
-0.0027105626640847678
-2.1574642299101433e-07
0.00098598175123068435
-2.5205214785881052e-06
-1.9934031544157043e-05
-0.0017966060731375462
1
1
1
1
1
-0.0010213961307842571
-0.00031699134595755246
-0.0006397958471764455
-0.00019800056938950423
0.0050706712164054341
-0.00072106859925899795
1
1
1
1
1
2.5455478892614644e-08
6.7821278747081575e-08
-8.1946075342151047e-05
-0.00037271872806857582
4.5128700695468159e-05
0.00042477287453074152
1
1
1
1
1
-7.4505419658824472e-09
9.4641523650353491e-06
-4.423000576585167e-06
0.0094419562025482816
1.5080597861558336e-06
8.429873723132354e-06
1
1
1
1
1
-0.0024062769230165123
-7.6831839936499968e-07
0.0026658534231425476
0
-3.0119736764061964e-05
-0.00015148752923420188
1
1
1
1
1
0.0032453660510489936
5.2047122887057523e-07
-3.1911439238161908e-05
-3.8740277703070302e-06
0.00067661912257920942
3.4347633910576165e-06
1
1
1
1
1
-4.5950358704020467e-06
-0.00033872321268483088
0.00032100754636102082
1.4230388699265116e-07
-0.00052213087877147225
-0.00025204806681798989
1
1
1
1
1
-5.6458337688710005e-06
6.0695295771379572e-07
0.00014303990785056707
0.00024836058566072113
1.8547171834753265e-05
-0.0019947248946702145
1
1
1
1
1
-3.3070225606905486e-05
0.00016117477367784682
8.498203797731177e-06
-0.0035630344587040241
-9.1790491779776197e-06
-7.9166648450062615e-06
1
1
1
1
1
4.9671275841445503e-05
-1.0260886142536953e-05
7.3776758385269779e-07
1.0362134145852617e-06
5.515254334705338e-06
8.6914587854766738e-05
1
1
1
1
1
0.00010403139673114755
2.2345188023541332e-08
0.00031650288988273393
3.4989355868164628e-05
0
0
1
1
1
1
1
-0.0002105658971752012
7.4283697454655477e-06
1.8276122209219396e-06
1.8842305174341781e-05
1.6301757964525669e-05
-6.4919173594163154e-06
1
1
1
1
1
6.5752839270731183e-11
-1.0074193693670092e-08
-0.00012807812507970324
4.7097273163764435e-05
3.5845747960450888e-06
1.6192823233118016e-06
1
1
1
1
1
5.4267917491428529e-05
1.6237607264323524e-06
0
4.9686939655670322e-06
1.5767861557368767e-08
-6.6893796141772143e-06
1
1
1
1
1
-0.0063299842348270756
4.8843468909429562e-05
1.0143535357078168e-05
0.018941401072041446
-7.6443759017170991e-09
5.8955282497351074e-05
1
1
1
1
1
-5.2682757263540931e-05
-4.2086713825691356e-06
-4.6209945069991928e-06
-0.0041941091065300206
-1.0440380613749215e-07
-0.0071280273157566937
1
1
1
1
1
0.0010406347720069643
-7.352335046786134e-06
-0.00017791319004490625
0
-9.3776044058664541e-06
1.6918676460200179e-05
1
1
1
1
1
3.7343671647383264e-05
-1.5479545203674649e-07
-4.376717617216498e-06
0
2.4876873878360516e-07
0.0049151210392287458
1
1
1
1
1
-7.991764193165401e-08
6.0305718646484253e-05
1.6362318534596631e-07
-0.0077464711418652318
1.8260442223849589e-05
3.5321502628585708e-08
1
1
1
1
1
-6.5559442641809286e-06
-9.8572829969764839e-08
0.00019832648092910977
1.0348367524826099e-06
-4.9036505031072195e-05
-0.0072004777728696349
1
1
1
1
1
1.7422623404522117e-05
-3.4794633131921395e-05
-3.9260469915479454e-05
-4.9062724648366314e-06
-1.4203675455908927e-05
-0.0053304055289172328
1
1
1
1
1
-9.434567450357783e-06
-6.0307387871791253e-06
7.6058705644885481e-06
0.0054465239118071185
1.5297080448907433e-05
0.00086325882977481331
1
1
1
1
1
-7.9937123156188241e-05
3.8306261888605761e-06
0.0073898666532885814
0.0015623904438024291
-0.00050705754264719616
3.732076058554641e-05
1
1
1
1
1
1.5983491281350109e-09
8.4208408476031808e-08
0.00011398106796616399
0.00025772868428351579
-0.0012405725778494704
-0.0013497151223090342
1
1
1
1
1
-0.0022571463057728604
2.4521241677855141e-06
0.00012696411958349198
0.0024453359869219429
0.0011791824342771123
1.5926852224701595e-05
1
1
1
1
1
0.00025053593050927805
4.0649723100373405e-05
0.00789796517346005
3.9178708783067845e-05
-0.0034717496538223748
-2.4507723599721033e-05
1
1
1
1
1
0.0066567194354860658
1.9318548107339298e-06
4.5498600846247475e-07
0.0042619680432749527
-3.4856428961772161e-06
-0.0023958829141239135
1
1
1
1
1
0.00014341345372588426
0
-0.00017465872202172291
-1.6199866517091636e-05
2.5384953824324848e-06
-0.00018706785350425408
1
1
1
1
1
-0.0051387446986781967
-5.226043668885943e-08
0
0.00029869699255958036
-0.0076605608899202897
-0.00025118548784472768
1
1
1
1
1
8.6652481619107391e-07
-1.4595473338190439e-07
-0.0012317180143720595
-0.010306768890329301
7.5461370850866873e-06
0.0052993243865449569
1
1
1
1
1
1.030567536630923e-06
-1.9188148688240445e-07
-4.5804408138692099e-06
-0.01035892962056191
7.6188972989791028e-05
3.1165762446850139e-05
1
1
1
1
1
1.7674086127246339e-09
1.251881446479155e-11
-1.5912573997217036e-05
-5.4354473113606426e-05
3.4364664010770926e-08
1.9130272267509489e-08
1
1
1
1
1
5.3488291339616066e-08
0
-0.00015599519955337526
0.0016353924259182942
1.8592587666013709e-10
2.2506151803997391e-06
1
1
1
1
1
2.4181051620535155e-10
0
0
-1.7211374375728678e-07
-8.5741861315892483e-11
1.1572777895116312e-08
1
1
1
1
1
2.6910405529026499e-05
0
-6.8406129803825712e-06
-3.2374359846327957e-06
6.1585694766426711e-09
2.3252005852981426e-07
1
1
1
1
1
4.9882856130160416e-09
1.1984261940023489e-11
-0.0012841171732591353
-0.00018831208601611353
0
4.3144983552572556e-07
1
1
1
1
1
7.7552630869279596e-06
3.4410519871294939e-11
6.64487425415004e-08
-7.1145063324359644e-06
5.9375820425740591e-11
2.8544304431854406e-09
1
1
1
1
1
3.6889571454622071e-09
1.7594090875226241e-11
-2.4953886845692369e-06
-3.7959381480371939e-06
0
-3.8455284635990149e-08
1
1
1
1
1
-4.8332666465867517e-09
7.1216056765328213e-12
1.58580221523994e-07
-1.6988822118178814e-06
2.9898665324852631e-08
0
1
1
1
1
1
5.3286927477104736e-07
-7.7239005000530017e-13
-0.0021178346075593412
-1.7852259865855728e-06
0
-1.1724799390310309e-11
1
1
1
1
1
3.0038676295145365e-07
2.2909669573447987e-09
-4.7934551056790328e-08
-0.00011527910903234319
6.8942250536635666e-09
0
1
1
1
1
1
2.0320650491057483e-08
0
0
2.2081158639372489e-06
4.3455665007847368e-08
0
1
1
1
1
1
5.8535300428127209e-08
0
-4.7983500767089338e-07
-2.4317141142542581e-09
-1.7467779397326207e-06
1.0086832205445042e-09
1
1
1
1
1
1.023578107975301e-07
-4.0373939928897498e-11
9.9283384122601501e-09
-0.00023804025769924082
1.2735854668757946e-08
2.7424672861595977e-07
1
1
1
1
1
8.3339976721600255e-07
4.5305879408954682e-12
0.00034060397589700533
0
-6.3695550620296205e-06
5.7359899739356179e-06
1
1
1
1
1
-9.2402264511981259e-12
-3.7608576169898132e-12
0
6.8564158961279869e-06
0
6.8290236817799915e-10
1
1
1
1
1
6.1140295844060826e-09
0
-4.9049885570288099e-11
-3.8654176113536579e-09
0
0
1
1
1
1
1
1.2064734669056351e-07
0
-2.6364973012653027e-08
-2.6743259836381675e-07
5.9763796555216236e-09
-3.0759056407751823e-08
1
1
1
1
1
3.6322209219628476e-07
-6.3852966335843228e-12
-2.8629821818063141e-09
0
-7.3281096957174491e-13
4.695060691686654e-06
1
1
1
1
1
4.9998657731761331e-07
0
-1.3228330303250547e-08
4.9792815704216985e-06
-5.4543037660078098e-09
5.8791173882166503e-09
1
1
1
1
1
2.1708980332831048e-08
0
-8.413950265804736e-10
5.6069242838590074e-07
-7.8216485551545705e-08
0
1
1
1
1
1
-3.7435210851424977e-09
0
-0.00025813045061272592
-9.0719417039414963e-07
4.5743073832202141e-09
0
1
1
1
1
1
-1.1754626892691257e-16
8.8413546504485893e-09
-5.4810482106271123e-08
-2.6616223706254831e-06
-3.703203412635452e-08
-1.0648259981631289e-08
1
1
1
1
1
6.0878869581042673e-06
-1.948802170106959e-13
3.7840889959979353e-10
1.394802406833823e-05
5.6665383441127848e-07
-3.6787093851152073e-09
1
1
1
1
1
-2.281580237983438e-07
0
-1.7899561924881264e-07
0
-4.8242957425237175e-10
-6.9645741452550796e-10
1
1
1
1
1
6.808072965967923e-12
0
5.9242166476159131e-07
-8.1405746808878107e-07
-1.4778176609687584e-08
0
1
1
1
1
1
1.001115882292596e-08
-9.1951976655107442e-10
-1.1642130940720813e-06
-3.4050558944012824e-09
-2.8241595212756641e-09
-3.0893292621653783e-08
1
1
1
1
1
3.2281180578927696e-09
-4.107909261348405e-12
-1.5543311863591249e-07
0
-5.0328930059308495e-09
3.7272531864378628e-05
1
1
1
1
1
6.6687798633092718e-14
-5.0101165804907282e-11
-1.837636100183944e-05
1.3212890081502392e-06
0
-6.2828258028728899e-09
1
1
1
1
1
9.8507666100972788e-11
-3.4321284890028376e-11
-5.9678198432932263e-05
9.019224380662047e-07
-2.0214812913504039e-09
-3.7964623059867702e-10
1
1
1
1
1
-2.1358589409731624e-06
0
-9.7816358624771806e-05
0
0
1.3063426820103925e-08
1
1
1
1
1
-6.7485288857597465e-07
1.4950212774469776e-07
0.00018952148810445329
0.0060011204349465445
-6.0020241360471812e-06
-0.0059197694541734541
1
1
1
1
1
0.0030698309864497916
0
-0.00067459462743298104
-1.092105858087249e-06
0
7.0717506418221096e-06
1
1
1
1
1
1.3737287986738189e-07
1.2139879118278312e-08
2.2068918232958572e-08
6.4745422416417767e-05
1.5949365998512116e-05
0.013427538773521075
1
1
1
1
1
0.00033102541612504163
2.4491901294509088e-05
4.3029210374343323e-05
9.7182940571969128e-06
0.00032474764345528809
1.7679211771426175e-05
1
1
1
1
1
1.0055053562567984e-09
1.176010262737592e-05
0
-0.011291172140899364
-6.8177888391109605e-06
0.00028283716357679217
1
1
1
1
1
-1.7401144778559338e-08
0.00040766705715278967
-0.00014152510454010846
-4.8446788758383975e-06
-0.0040268804837123341
-2.5992237508366809e-05
1
1
1
1
1
-7.8548501022752698e-11
-0.00010774580390524278
-0.0069654593252895854
-0.0024532379272638434
0.00021348375368626161
2.491377505620429e-07
1
1
1
1
1
-3.3027130977669427e-06
0.00014968398147071634
-2.7340901284179039e-05
0.0011249870212506079
-0.00083211898135948333
-0.00032867088126827421
1
1
1
1
1
-0.0024510724755813485
-1.697630041278387e-05
-0.00011357172560188533
-0.00021360263934615405
-1.5821504169280465e-10
0.00062814998360856476
1
1
1
1
1
-0.00012400643284008039
-6.2817681683687493e-06
-0.00031651371261444817
-0.0005230715075082191
-2.0054143651674254e-05
