0.50005032141901173
1.035649587634288e-11
-0.020680229301600118
-0.00021138492165089686
-6.8606277184812744e-09
-2.0499364356544541e-09
0.49999665382713543
0
0.0031584052771894636
-1.9993804276887934e-05
0
-2.5597922511513142e-08
-2.8812192505891994e-07
-8.0911836901808581e-10
-7.7054967555042204e-06
-6.8716246616437147e-07
0
2.1203508107928923e-08
-0.0014066228886709727
0
-3.0219869356257853e-05
-8.8458292684281978e-07
-4.2051251892653786e-08
-6.7841757065541647e-08
-8.7684901730512114e-05
-1.1112377387330042e-09
-0.0014263683442831934
-0.013673158881977239
-1.4368195422186171e-08
-2.9433165659009172e-08
6.5546517877618406e-05
0
0
-0.010934180366800503
-1.9177425575088973e-08
6.1685833985423629e-08
3.5539671592687675e-06
-2.8126222765603472e-09
-3.6706274068349074e-06
-1.6912436816647794e-05
-6.0405022252697393e-09
-2.5388891607772277e-06
-0.00026426257252828934
0
8.6449017761714512e-08
-4.9978797118673743e-05
0
0
-0.003517752943631255
0
-5.1260676165860133e-05
-1.0823749026102515e-05
0
-2.0934381075272352e-09
-4.6083904398491704e-06
-3.3987456690922752e-10
-7.8608456854459052e-07
0
0
0
-3.9613826693530709e-06
-4.4022709488939946e-12
-3.2396167816842482e-07
-2.9059822537577304e-06
-4.7252423366854406e-06
0
-0.00040642017744449627
0
-2.2026390516475449e-05
-6.5149957604841329e-06
-2.7772234993301913e-06
8.8369749809326813e-10
-1.0423275679811642e-05
0
-1.5364096912691434e-06
-0.000374721042267549
-2.0392648809407912e-06
-1.0267398170895397e-07
7.581289187017296e-06
0
0.00045486868634243502
-7.4612929435770644e-06
-2.7571970639935751e-05
-0.0001249757390905483
3.2430524372049311e-08
0
-0.0092374728241678503
-0.00070219202244675379
-2.1692158155159119e-08
-2.9256546368488044e-07
0.014739669461361177
2.0273742060330806e-10
-2.3095835483840211e-07
-0.00093900319302445546
0
5.8668327025484352e-09
-2.2199964088449162e-07
1.6895660801012156e-11
4.0624690148507111e-07
0
0
9.0279045272316224e-08
7.7393691459547638e-06
0
-3.0953669924954606e-07
-1.0446527467918886e-06
-3.7659505505756423e-08
-0.0001721206946429392
2.4422599724063945e-06
-1.7445676815202487e-10
-4.2546544972656523e-05
0.00056331773385285102
-6.7471130625631787e-08
0
0.00010468787131738334
0
-4.0213059446452488e-07
-5.8533252540990519e-06
-4.9264847065507701e-08
9.130656333433271e-09
7.3151779680822453e-09
2.7673248189465215e-10
-1.5817319640350895e-05
-1.347192060579534e-05
-1.2096441941180622e-06
-1.6823606529426594e-07
3.8818004348269725e-08
7.6589153077379385e-12
-3.1362751621080159e-07
-3.7095107373710173e-07
1.6043525472534752e-08
0
-1.2298047827124607e-05
1.658894127332366e-10
6.2421375680343775e-06
8.8193838783962553e-08
6.9335676102041075e-08
4.1550354552927509e-08
-0.0052944267135799179
0
7.3456698926249027e-08
-1.2170420528594799e-07
-3.9325567660612571e-08
0
1.2490181999937564e-05
0
0
-8.8924010686881734e-08
-9.1002119135931971e-08
0
3.0645979416072436e-08
4.4160259539674686e-12
2.8034405154872051e-06
-1.1465040512376366e-07
-2.5539970063491865e-08
-1.4673085459325062e-08
-1.9535863585176903e-08
0
0
-3.9676369145019834e-07
-1.2266129891913566e-09
-4.4620349968971822e-05
-2.6820628918222508e-09
3.7704691856159735e-12
-2.2902813325525505e-06
-0.0057694864229860749
7.0278310173254225e-08
1.515112799095684e-09
-2.5338398364314656e-07
0
-0.00085484087850630616
-0.00026250271609664657
-7.341837032872829e-09
0
3.8554446279812578e-06
0
2.5918129297591098e-06
-3.2047816398732632e-06
0
-5.3662091419528557e-08
0.64173376901418366
0.0014245893277205562
0.00037858422864709221
0.18480084893474516
-0.061991896444307804
-0.0042351019806445471
0.8905911108083534
1.8388913845764405e-05
-0.0003743676478866056
-6.3736221938608551e-05
-0.001797585728949949
-4.0742367511544096e-05
0.96135873393010574
0
-2.0300669095765252e-05
-0.1561384827717838
0.0023847756180118231
0.010322622901791872
0.85618461729614859
0.00014119013104062553
3.5722212001202818e-06
1.7056026670151534e-05
-0.00011685182502860965
3.0661896178007973e-05
0.78803621439957039
1.2360694579404741e-05
5.0077236267688582e-05
0.092208576420847371
0.01102191480826209
0.00024084437895816082
0.96943538311881705
0.00079003196954785223
0.001211215314391496
0.08388584121490758
0.010471186678194709
0.0010088039795205588
1.2292297528854983
-0.0065396101301678092
-0.0054713439225817194
-0.099890490963645065
0.18764549185060075
-1.6854853701807859e-05
0.57846330439171767
0.04290886981202556
-0.00034254894654758047
-0.019891778450089052
-0.0081430625012927863
-0.050093241598175541
1.3901998657645624
6.9689944570713375e-07
-0.00035703146057259976
-0.0026388787460108619
0.056692744471340595
0.017581674144326355
0.87638376877448232
0.0003572806343231543
0.050216795372061987
0.0087581027004789303
0.29648288437304277
-0.12140991646751347
0.67719232331619372
0.0088774247369380714
5.7768815210380957e-05
-0.013706746402457174
-0.0025248646294873302
-0.018523819121658739
0.97549552362618219
0.00051878053435254956
0.00096736798725229381
0
-0.010566400092939894
0.011304441731232989
0.87585591425249509
-2.381507186630342e-05
-0.022642297202809147
-0.013614935950249875
0.12178859441734523
0.010714170810211423
0.61396584761050554
7.4240652092292308e-05
-0.028338005931729453
-0.13083852728806777
0.10820518484972502
0.06582079840544651
0.6144920773032434
4.205300946415089e-05
-0.013995816750923346
-0.0029755457702032185
0.0016416718924293554
0.041505509103958824
0.95035807403032124
1.4976217190947288e-05
-0.0089072900934228164
0.0026854497112014414
0
0.016382891684579966
0.82895849559351209
-0.0026368435192773492
0
-0.070758600133623215
2.6870389167556097e-07
-6.8425755856370408e-07
0.85790771832534918
-8.3547770927311252e-05
0.11204657757770868
0.11614697375313505
-7.5287455796776596e-05
0.038745979870269273
0.76447400111512376
0
0
0.0011724888689090226
7.4100528582932875e-05
0.10582054192383378
0.74193531857948658
0.0073361281058383424
0.0006840839233262162
0.12045156587183396
2.8816191466827555e-07
0.21039009028328257
0.87676995384863166
7.7577140313006947e-05
0.0024319966892506293
-0.026795055275724532
0.045121344436028561
-0.010428822454640317
0.81150564687878901
1.1242252861550563e-05
-0.00012147693956986658
0.044442154265498461
0.00034503716028071949
0.00021167573104975167
0.86758794391592675
-0.012313165580479875
-0.00071397608594414509
0.048103164480322348
-3.605014817644939e-06
0.069472552907660606
0.91106025379339384
-0.0021095365284783218
0.0058087747241243508
6.3604271535896384e-05
8.8427599888795118e-05
-0.017988787544101645
1.0068013460051741
-2.9613816532070047e-06
-0.01531625690895555
-0.10546981685890729
-0.024429629901038648
0.035340611493865623
0.78232627716541292
9.491902072913277e-05
0.13261385352887495
9.4768811096575295e-06
6.9994006288388714e-06
-2.1756917531223223e-05
1.0110700633373044
0.00023579006780549607
0.0058611570440059426
-0.00073715870025048739
0.15072372752798271
-1.7034177017238388e-06
0.6080381177037707
0.0061306981324566572
1.3267686889358123e-05
0.00074512172417867553
0.016673555326102457
0.13919503756624349
0.8878350699295382
9.092059043860405e-07
2.6407423417098072e-05
0.11077227259452761
0.017331902195796705
1.0224738674362285e-05
0.11568389704837991
-1.4726376853245071e-05
-8.5281589656902582e-06
0.029814789361914604
-2.9184823423239577e-05
-1.7574484322911743e-05
0.063289239156135796
0
-0.052893468960148356
0.026735944258548305
7.1992905006952172e-06
-0.0086195083848575483
0.056149273306206088
0.0047415403462833655
-0.00055355963055384071
0
-0.0093124857520339357
-1.2916962351794517e-05
-0.041213632411476325
5.9311681212941974e-06
0
0.00050382469003895875
-0.019717002751665585
0.002146735314881831
-0.10938941443534062
-2.7044471401498895e-06
0.00011058764624225908
0.0099058960939522531
-8.7920241020634967e-05
0.011192995806671895
-0.08092027942054171
-0.00031219182512441158
0.00037578165783393891
0.032187365732817712
0.00013328325193995332
-4.5287185254677459e-05
-0.0064671600694763435
0.0063928094977852524
-0.036368240934615992
-0.00019445391322543912
4.1568201692264418e-05
-3.0642026014699905e-05
-0.32549517738451955
-0.00042364742674667904
0.072070308710343714
-3.1382919276004438e-05
0.00040184730548871792
-2.9421206785989429e-06
0.030479690055780339
0.0086097454383073299
-3.3798323385685103e-05
-9.8253574027168849e-06
-1.2455510407963482e-05
3.0364114237568174e-08
0.055803480050649695
1.0084583014157972e-06
-4.1414791073341509e-06
2.0153964579193566e-05
-0.00089214965397958789
4.4140472226050736e-07
-0.073611654056787476
-0.011756662617626559
6.0709189832267055e-06
0
0
3.7193958649693415e-05
0.041368656546400061
0.00069093118974473218
1.2494410138913174e-05
0.015832334734961095
-9.7447338601435438e-06
-8.7687716892322431e-05
0.23300581071266863
-0.0014859469054390602
-0.059186501837970369
-0.25100304124941841
0.00018972312445657562
0.00010570569370280419
0.067742887387342451
1.8935910595887092e-05
-0.0096744204472522452
1.8500058893316036e-06
4.7162177807876393e-07
-7.6993784028725256e-07
-0.097714549753642577
4.4432870304602789e-05
0.00012291831564939406
0.020293367700917244
-2.2455077386745028e-06
-0.00021661119547908367
0.053203707974129572
-6.0913207843446743e-05
-0.023818732971520113
-0.11448863025945319
-8.5580356334181458e-05
0
2.4780295490369596e-05
0
0.026078694723786013
-0.00031995518272635919
-0.00066414717283759181
-0.0013934724601332815
0.016092554657866964
0.0024376181148891558
0.00017385574549824234
4.3777656205733372e-05
8.4494868896254434e-05
0.0079369038959833139
0.10193986153252563
3.150879660249716e-06
0.0013176760321188976
0.071359032748056092
1.0612799392579632e-05
-0.0029673372824533246
-0.0021295152192342083
-2.2881966044353246e-05
5.1389564896961062e-05
0.0038048078106865109
0.031817958761966907
-1.2124954903278545e-06
-0.0022043811100376513
1.4325668088927166e-10
0.02103079855219445
0.1089807557894831
0.00014037147081383901
-9.8033651039746565e-08
-0.043993595115316836
8.816234378587693e-06
3.1383085557239547e-06
0.028504577217484662
0.010508932658817085
-4.1664682260908481e-05
-0.014472386048131048
-1.3232358483396454e-05
-0.0016977099204917234
-0.13651502846518837
-0.011605185929664632
1.9038162722238164e-06
-0.003065548206860056
1.5895440533080687e-06
5.2672994793126096e-05
-0.0010018994789500228
-0.00018074475994389272
-0.0008052443316412855
0.10785201202883853
0
0.0072234668055507593
0.036571619008731904
-7.7003074526036032e-07
0.0030268523718423542
-0.10018606227893805
0.00055240637980534339
0.080946106146027472
1.8066863734592528e-06
-0.032287458259569982
4.9141769593276385e-06
0.17339528379325189
-5.4882485350758787e-06
-0.0001616072705180134
-0.03303127771512597
-0.00046182552471867315
-0.016651531216765398
0.037362572551913234
-0.00037338028325472906
-0.019207473665504848
0.0066006309568811357
0.0046413789933163257
0
-9.6054244297636577e-09
-1.9241980340060041e-10
-0.00010732652063990033
-0.010152828186355699
-6.83319417831803e-09
-3.9432083489205768e-07
-1.3294087825037261e-06
0
-8.367302450157082e-06
0.0016373445963677453
0
-7.6149825794753247e-09
-5.7915708266769655e-09
-2.9959967845863506e-09
1.9900216471169175e-06
-1.5689400088523162e-07
0
2.1184947857471275e-07
-6.1464624605626328e-05
0
-2.8886507876196114e-07
-7.8920220125732738e-07
-4.1753813609896446e-09
-8.5549609329019065e-09
-9.8277432476358675e-14
1.5335472993417444e-10
0.00045652423507532486
-0.00023261840288399185
-1.5036955311293022e-08
0
-7.4189811342859793e-08
0
-4.5403077161283424e-06
-4.7519637256098061e-06
-7.4130901378290868e-11
2.7855080013878704e-08
-5.8862404499252265e-09
-9.1382826927525473e-10
-1.0969621941276859e-06
1.5276582391375182e-06
-3.8836081254957962e-09
1.8483506938039555e-07
-4.2780347075033631e-08
-5.487097075560758e-11
1.7776409454086831e-06
0.00013679825322142309
0
0
1.2544875148561333e-07
0
0.0020907771624813112
-7.6061450241281465e-06
0
-5.8742157106074652e-10
-3.4935367175090653e-08
-1.1376457088043588e-10
-5.4528771605303232e-07
0
0
0
1.1392143155274595e-08
1.5645216335786221e-12
-1.6107871973460279e-07
-1.384415036545353e-07
-2.1776580450441553e-07
0
3.9500986783399795e-08
0
-1.096358781375806e-05
-3.3739315153221695e-08
-1.2017029730605505e-06
-3.3195783524908709e-09
1.5274582186871113e-05
0
-0.0001082825804918104
1.8179395879203215e-05
-6.8831834134152091e-07
8.4176009990583492e-10
-1.4815188513422774e-07
2.736633474020605e-12
-0.00065782477059411152
-2.0882219537272778e-07
3.0128481393203877e-06
-2.3668149421480492e-06
-1.0679985194718756e-07
0
1.8283758632465227e-08
4.0916428371656383e-06
-6.9213707007517817e-09
-3.5219485820669533e-07
-1.6618584827151115e-09
-2.8571589472258923e-11
1.1592172994739629e-07
0.0013873736271358295
0
4.0746104454738943e-09
-4.6392526606492417e-08
-5.745727180467495e-12
3.1730029403869564e-08
0
0
-5.6695306542813008e-08
-3.3436129333693746e-10
0
1.3629866294933869e-07
-7.5639495702430867e-07
-2.2659265068723062e-08
-2.9840195396280122e-06
-4.535538436292748e-07
-3.870116146041791e-11
-5.6187778168214967e-05
-0.001061789587467932
-3.0637312232746622e-09
0
-2.1889257758151925e-07
0
1.7552426316928457e-06
-8.5195770190830972e-10
7.5414158449632529e-07
1.2238718762729549e-09
-1.6362686105709474e-10
5.897167609829359e-11
-5.9524466271943356e-08
-3.7046064755380251e-06
-3.2514695141340002e-07
1.425963541710381e-08
-4.3251496711594338e-08
1.380463802542486e-12
-8.1081359761773257e-07
4.096532479341477e-08
4.6379428230323471e-08
0
2.8373475946288555e-06
-1.4050659342585926e-10
-3.2706920620413446e-06
8.1980623657168703e-07
-2.43237632780684e-09
1.3272917513645068e-07
-5.6782775815376412e-08
0
4.2791037985627315e-08
-4.7601918565917407e-07
-6.9861797770806606e-09
0
-1.4216109518860759e-09
0
0
-8.7758946825679195e-08
-1.3401044141988642e-10
0
-2.206068944081065e-09
5.1361356569859602e-12
-3.2483925626994214e-10
3.5748607833258599e-08
1.7597053880427323e-08
9.0407812034328271e-09
2.3345491929015439e-10
0
1.0277803875082397e-06
1.8112518488414869e-06
-3.9263032872869664e-10
-9.5248782873290822e-06
-9.8787442376906577e-11
-1.2552069929861933e-10
1.6239647366453603e-08
0.00073075974886433132
-5.8514029237924967e-08
2.1067860894472023e-09
-2.6082390795428818e-08
0
-1.2879087286020264e-06
-5.1421239240317098e-06
4.9952477503324999e-10
0
-9.272363210929574e-09
0
-9.5751688061754671e-07
-5.4810574704373723e-06
0
2.9471898217981247e-08
-1.5436829411471328e-07
-9.9855972597422084e-07
0.00012181084355805944
0.0074208497701788133
-0.0173523310911208
-0.0096363351034159227
0.0010938585203946242
3.4628433338325907e-06
0.00046062332191281358
4.752988942309798e-06
0.003137573422586133
2.2833717292815185e-06
-8.4143813500938172e-09
0
6.3314599533444673e-06
-7.8908831699376023e-06
3.0001767254648198e-06
1.6799310181665695e-05
-7.5663556890747691e-06
-1.3221023715556337e-07
3.6403968182315602e-06
2.1106267070271386e-05
-3.849024786114321e-05
5.8691926890887499e-05
4.2996022383058769e-08
9.2350672783110377e-09
1.3416852290462127e-05
0.011824351320583446
5.2791496527662962e-05
3.9753676418547819e-05
-2.4965744687841475e-09
-2.7061005126483402e-05
1.3540567997586795e-06
2.53790205093569e-05
0.0051692310162860843
-0.017860364306575151
-7.5481703493066122e-12
-7.7123212879128147e-08
-0.0054196144400105034
-0.0097399164386785097
-0.0014423071207010846
9.5776713420945151e-07
-8.3104315589704796e-05
0.00010767358028854874
0.00020229380369765997
0.005874176034291809
0.00041868161415428901
-5.9225186372185387e-07
-0.00628868185119564
-6.1383067497659219e-07
-0.00014263304964299989
5.3136549860963572e-05
0
0.00011885094597305183
5.8502973140215101e-05
-0.001884411754695956
-6.5682006173522291e-05
-0.00054276488466693037
-0.010271074012068804
-0.000200314216992368
0.0019609990382046835
4.7259152668868706e-06
9.5302176541169572e-06
0.0057781546262040961
-0.012962000111434047
0.0065093844853841374
-0.0025088597216649492
0.00018602023704758974
0.0016132545707873084
1.7793294169957765e-05
-0.0090894573924424783
-0.0016155301483181091
-0.0016208342146751711
1.2204581541187354e-06
1.3691953994827222e-05
-0.0027088546715801284
-0.0033220861465767088
-0.0011727628847688998
-1.6866960374704968e-07
1.9475375336805199e-08
-0.0013216102505419086
1.2393542755699865e-05
-0.0019032869230941757
-7.8570118668654948e-06
7.4169040907919138e-08
-2.2940290778842665e-05
3.1483757820164717e-05
-3.7580478228627363e-07
5.428256228812911e-05
-2.9726964183948969e-05
7.732260495444635e-08
-2.8945294147468838e-06
0.00069636902630919155
0.0003096805443028967
0
0.00084976780707689378
3.0090349587774139e-05
-2.7160002877606532e-06
0
-0.020263501560514593
0
9.2002101084677329e-08
6.7592227382468444e-05
1.9897923903811052e-07
2.9420309137176405e-05
0.020140643121419992
3.5936662002069959e-05
5.9869059824563345e-05
-0.0010347634038325336
0
0
1.8668554841528104e-05
4.0906419272469165e-05
-0.0016329897828271797
0.00055016890352653123
0.0008497733768871716
0.00024319933541894651
0.0002156902739507302
5.0445198543091145e-09
2.0047183833306049e-06
-4.2281134807036613e-07
2.4752126490626173e-05
0.0025370313419046031
0.0067903772889239813
0.018669764088077488
-0.001911087096354551
-0.0010558926303793072
-4.2580733171716585e-06
-0.0003097335518918924
-6.1228949062726559e-06
-0.00041888704922878479
-0.011716861102177853
6.2310524897995719e-05
1.3121227466621875e-06
-7.2690645069337651e-06
-2.6018481427432601e-05
5.1818151858949416e-06
3.7214785829661333e-06
5.9738184054252324e-11
4.9714903969092688e-05
0.0026478595349072984
1.3608132952448942e-05
9.1890043368542714e-05
0.0032732790217174842
0.0026069752272857723
1.7609391889394174e-06
0.0052629401657770742
0.002585892185132051
0.0034859202869927841
0.00053064838735894515
0.00013955786827084639
1.2204201529739592e-08
-5.8289987992006901e-06
4.8628122226692813e-06
0
0
-3.3475548885801172e-08
7.7596450395946508e-06
0.0010779773199177988
-0.0021170430442370883
-0.013202606584032174
-4.5019788679575082e-05
0.00017094619543435324
3.6892600572253575e-05
-3.6648326195261247e-06
-0.026520637946104833
-0.0059282687458072263
1.3087409979781079e-06
2.133322809159667e-08
-1.6511786522115659e-07
-8.906360560599336e-06
-8.0788444665036644e-05
0.017521590201325425
5.4448294604625932e-06
2.5489529716999746e-09
-9.8372994524398498e-07
5.9115035056311611e-06
0.0075266574130339846
1.1045330656528706e-05
1.2077762598446689e-05
-0.0014257760131229855
0
-0.00021421674314496374
0.00050346638107595036
-1.2743725171128703e-06
0.0001442017399253057
-0.0016945084992525754
2.5679984749280989e-05
0.00011423222912311309
0
0.00015698128984849963
1.080961353997545e-06
2.7869287308218043e-06
-3.9134727175489823e-06
0
-1.3321456722670178e-05
-1.6159818889355532e-06
0.00032770136184592807
-4.4420080895169408e-06
1.5556333327944614e-07
1.0765496021529823e-06
1.9612060951131632e-05
-5.5935423402667614e-05
-0.0011682668049915702
0.00014604785317526604
1.254264857225712e-05
8.3875208203003387e-05
0.0088137892521511427
4.3565771701864954e-05
1.2805005937000905e-05
-2.248312294308119e-05
-2.8057516512623283e-05
-4.8288939925311276e-07
0.00015911329733030012
-3.0918889577111613e-06
-0.00011789132145816183
7.6268849884852268e-05
-5.814742879425974e-05
-0.011696109142277559
-4.4932294857907712e-05
-7.1364289729466035e-05
-0.0056236313938802665
0.00026525080434476177
-8.0594573022852646e-06
3.8796437008365312e-05
3.8282859570366123e-08
5.0639950272780028e-09
-1.4270981161414352e-05
-5.9322518093294135e-11
5.6645998549317404e-10
-2.8464138235252513e-05
1.4145639180447268e-05
4.5982354375321349e-06
3.505028946565812e-05
-4.5662571191956375e-05
1.297590138366686e-08
0
0
0
-4.2720411802491383e-05
-0.0065476625663916117
0.00014565803318748776
-2.381831885588079e-05
0.013624992802384574
-0.00066217800579878271
-4.3716550820920687e-07
-2.7579412576627168e-06
6.1477848428451226e-06
-9.148513807819121e-05
-0.0079188859840412882
0
-1.3222093871849436e-05
5.5404812788334514e-07
3.0298559894765089e-07
0.026233088766517053
-9.4082097082686438e-05
2.1519302479625401e-06
-7.0125226092560442e-05
7.9854096818525112e-06
-4.1786537463546824e-06
-3.590314810068311e-05
-0.022054262569693173
-5.2714883606350142e-08
-0.0044559967949185271
-3.6803601024134892e-08
-5.7598855760887615e-05
-0.022646578882277162
0.0075867330149936262
1.9011570782275477e-05
0
-1.0044352856181556e-06
0
0.023860199933464697
0.0060856931846275742
0.00021890279814093888
0.0021863937057034332
0.00011491907442247053
0.00013040557550823376
-0.011266100804643867
1.1327061456543786e-05
-3.4172902805027281e-05
-0.0024006810976071125
1.1426301768787275e-06
1.7757742014761222e-05
0.00020487537687397458
0.0093094408509880756
-6.2927314353868737e-07
0.00085470374210032949
-2.7165122149974846e-05
1.4639060499792494e-05
8.6801837238058865e-06
0.00051324274028143307
-0.0022806723375660867
-3.8035862961549326e-07
1.6800635191704558e-05
2.0089910236401604e-10
-1.439193352352382e-05
-0.00083412380353030651
-0.00014139214022965458
-1.8276983695304002e-08
0.001029876104127777
-4.7876663781510884e-06
-0.00015419836162657407
0.00091781464700928196
0.001624710794790206
6.8942202617406162e-05
-0.0011323842063992022
-3.5965797216943824e-06
0.0062260723333209343
-8.1240935825774938e-07
0.001391319646038041
4.3809445360806693e-06
-0.0072383356386610271
5.9910699571002862e-07
2.011820047739526e-05
-0.00060995579277157541
-2.6824407359622247e-05
0.0013049978900528795
-0.00016620891764834584
0
-0.00010830455495422301
6.1226021404013511e-07
8.695203059073461e-07
0.0077010399919410161
-0.0056012367000994974
1.0466990964850103e-05
6.6775509736638651e-05
7.8564291719948227e-07
-0.0079522267060171039
-3.393205802769559e-05
2.2700226860407422e-05
6.5416074870118037e-07
0.00010622676409011198
-0.020687218640864403
-1.6228266418368982e-05
0.0047704780957103978
9.580534810323231e-06
-1.1076704495783722e-05
0
-0.0046667324032902266
5.513861149392721e-05
2.5825252906907796e-07
6.1649815037512409e-09
0
7.1376573761161536e-05
3.867245160637507e-06
-3.6191797878038235e-09
-3.7890125927869167e-13
-1.9880462056411606e-11
0
-2.672451684545567e-06
-4.9045402255979976e-06
0
0
-7.4744630404968718e-09
-1.1892574627049195e-12
-3.2016360968263018e-08
6.1286333192853878e-08
0
-2.6714897566665188e-10
-5.1481939889252188e-12
0
-1.6435440929644636e-07
6.9745726903643109e-07
-5.7110232706344184e-11
-2.389758710444601e-09
-1.2637519562307193e-13
-5.6395343500205846e-12
-0.00098751328509530997
-0.00077984443748227948
-5.1743707689652915e-09
0
-8.4382908389409017e-08
0
0
1.3778435260047049e-05
-1.2680604128102547e-10
3.1575103399459202e-08
5.0931902052527399e-10
2.0059384526299482e-14
-6.6130166318465321e-07
1.5400881836276155e-06
-1.4425096054422211e-11
-3.1016438930459186e-08
-4.6245650128698282e-08
0
-5.7904780043783276e-08
5.4466194326591063e-05
0
0
-1.2475550199275358e-07
0
5.9842338271087237e-06
1.8278433612271242e-07
0
-5.9609829050937055e-10
7.2098154077320189e-08
4.3235732703685603e-13
-1.377203353578392e-07
0
0
0
1.2752735526663659e-08
-2.0283124083382989e-12
-3.9359451284405748e-08
-6.5996855049122288e-09
-1.8901154676041332e-11
0
-5.1964376273437147e-08
0
-2.4730737241819388e-07
3.0157994305163745e-08
-1.9610869907896613e-08
-1.5344684411803887e-09
-9.9942473799263404e-08
0
-1.8712157080968848e-08
0.00011075326555249455
9.72206833540946e-10
2.0430928016770682e-10
-1.4761911818678027e-07
0
-0.0002898263454499464
1.9778232491941768e-07
-2.569435872907938e-06
2.3266747242993129e-07
1.2474386295884395e-13
0
-1.8535147973120508e-07
2.4925185642135021e-06
-5.8983898787300724e-09
2.5586140079159217e-11
-1.2604118592156548e-10
0
-1.0988101902744735e-07
2.0946813948187838e-08
0
-3.5901002190240795e-09
-1.6351259580968823e-09
0
-4.9860789250809104e-08
0
0
-2.9626616417603927e-10
-1.3238309753202106e-11
0
-9.4526246912630886e-08
7.9363855562104287e-07
-2.3686952830182876e-10
-1.3179907342643755e-06
-2.165668597856328e-07
-1.2366603419321845e-12
-6.0492230433753462e-07
2.7460934817863169e-07
-1.1745790049159116e-09
0
-6.0133131663352647e-08
0
-1.342080279408946e-07
-8.655470540905168e-09
5.461767644360041e-10
-7.6974791474069643e-11
-8.6611147053041e-11
-1.7644488439328526e-13
6.2084948686878207e-08
5.1494619600505811e-06
-1.4708060803563425e-09
-1.1921494278812323e-08
-2.273394709986088e-08
-4.0035324668587873e-13
-4.5860431009770461e-09
-1.4684102946713286e-07
-1.8735489173214561e-08
0
-6.8128889227663705e-10
3.6915219451199278e-13
1.9140720382159262e-08
1.1369754994279022e-06
2.0499546600740521e-09
1.1772797149000635e-10
2.2878892659152489e-09
0
3.2052313662401449e-08
2.6133516035033039e-07
2.6912590179709797e-12
0
-8.045493454694367e-09
0
0
-1.1077515559034855e-07
-1.9118417521434033e-09
0
1.4017511853867663e-09
2.2760815464084227e-13
1.0966218791543925e-08
2.1981184587009766e-08
2.0967835102795939e-11
0
-9.3409744346372067e-10
0
0
3.9169487419116974e-10
5.6023476402408215e-13
7.4139578899797771e-08
-6.6092206044468062e-10
8.2170789334922719e-14
-2.9616475842410067e-09
2.1828198863146289e-05
-1.6850071402095962e-09
8.776118167441141e-11
-3.7404876084949702e-09
0
3.8075848528789668e-06
9.8304910779327136e-06
1.0147507012674862e-09
0
-6.6389382086730715e-09
0
-4.5139993285000667e-07
0
0
1.0612530376999659e-08
-1.5429548884235247e-07
6.5736686125343738e-10
0.00012101993968870253
0.0074175851642906219
-1.8010150052372854e-06
-0.0052699330549228936
0.0010577138807946818
0
2.8734202583898499e-05
3.3591441550938508e-06
1.4644388703608323e-05
-2.4002458749893909e-06
7.5212770889208173e-08
0
-6.8615885037368956e-07
-2.5186619016155345e-06
4.8103169773146105e-07
8.020638765070002e-06
2.6047591203483579e-06
1.7797801905499043e-08
-5.5252662176198799e-06
-2.110643765267234e-05
6.0129874456131866e-06
-5.3466184020164132e-08
3.6892538549903633e-08
6.8910678056319311e-08
7.431356267460413e-07
1.5100747046332549e-05
-3.6034972957855289e-05
1.3013581463248117e-06
-1.4029737988255787e-08
2.7689863970386067e-05
-4.1970917484460452e-07
3.453458750681345e-06
2.4339079861199535e-06
1.1895505164903918e-05
-8.0629036998788891e-12
-1.8368013448584599e-08
0.005419862809768021
-0.0056625494807278137
-0.0010596314535004693
-1.9126281151937513e-08
-8.3057648575331382e-05
-2.0005772559680355e-05
5.2580324394248448e-07
4.5979354190782374e-06
0.00025154272702197279
-2.3427080018702266e-06
2.3292104715926132e-07
0
1.6986522055422373e-05
1.4810906506722853e-05
0
0.00019659608597387274
-5.1566967967788408e-06
1.113099059854704e-08
2.7745609289943846e-05
3.5056432088413642e-06
-4.0655533756378375e-06
-3.8746644583298444e-05
8.4965158298739118e-05
1.7309108273200818e-07
1.3407871228703611e-06
1.6647526528866509e-05
1.0927422362613929e-06
-1.2971816012789898e-05
7.3875060256884634e-06
-5.5867810711937803e-08
-3.0760008647563626e-05
0
1.5874544979249215e-07
1.5754314422772051e-05
-0.0016208372636175097
1.4940046789410196e-09
6.8444297563291902e-05
8.6176867615845863e-05
-0.0024784635534039717
-4.3971827304716482e-08
4.9259406058103379e-07
2.2546816241731825e-09
0.00011552655642452354
2.7133085592554067e-05
-0.0019435233458307195
6.9274533888846997e-06
-1.0744371569329499e-07
-3.2781120136867725e-06
4.3006516774039645e-06
-8.8077508648132146e-08
-8.0765161486216597e-06
4.8510592332006573e-08
5.2640531029133269e-08
4.114062817393873e-08
0.0007611026327200061
1.2253244033187708e-05
0
-5.1714744201266887e-10
-0.0012593973174904365
-3.2976615569407309e-07
0
7.3561195789799104e-07
0
-9.2002101084677329e-08
9.6908521245674771e-05
6.6831168200939745e-08
8.5725601625925097e-06
-1.036623081548357e-05
5.5479458228465072e-06
-3.387773033006575e-07
1.9593428603778306e-05
0
0
-1.7443889640666635e-05
1.2803752756333343e-05
0.0016423845838272058
-6.3074372578110372e-05
-9.241443094353878e-08
-4.1812527975030366e-05
-4.8628701521292391e-08
-1.2999628868399871e-08
-6.4974689025772988e-06
4.2281134461706368e-07
-2.8205353801353135e-09
0.00075391129535257216
0.0068178984776802228
-6.8299429255654498e-06
-0.0008733519892426564
-1.8863495013237947e-09
-9.1864974379019981e-09
-5.2479920434734995e-06
-0.00034126816126713087
1.4074050965406855e-05
0
9.6489203303225685e-05
0
0
0
3.2593063773831562e-07
3.7066976841318344e-06
5.9742843070851288e-11
-2.9302323662702757e-07
-0.0026211748510933364
-2.2493620394708746e-06
2.4656395240602275e-07
6.0750019512536321e-05
-6.4633704329259477e-06
0
-0.004631496800342208
-0.0019680638122017893
-0.0015724609980770376
0.00016877892756408957
6.0485848302454711e-05
1.058962332106624e-09
2.4679153125960678e-05
1.0949906193479464e-05
0
0
-3.3475193739217312e-08
-5.741446135304564e-08
0.0012765114951051493
-4.1654791210372581e-05
-1.3601998849247092e-06
-1.9932670713878755e-09
0.00015474412417236044
3.7729971448926427e-07
-4.3266977450717092e-06
3.4850335254386805e-06
3.1215526111147321e-07
4.8595275492350151e-07
2.6529345913006762e-08
-1.7820516075625208e-09
-5.7524867021010813e-06
0
9.123915651075961e-07
5.4623826059615873e-06
3.4305926408931123e-09
-1.3132366387682419e-08
9.112004953684308e-07
1.6412697121123839e-05
6.2101261867483726e-08
5.5370649774600611e-06
-0.001621232194430571
0
0.0020584727173802698
0.0019831105343073308
2.5348495353032798e-10
9.2089039862514702e-05
-0.0010805123888702414
3.9211866433609028e-08
2.2161705947264725e-06
0
8.510086916389775e-05
-6.6804650337084923e-08
-6.4137409967808172e-07
4.4260030736926483e-08
0
-0.00012373968045558325
-1.6623840393140707e-06
-8.92096705398925e-07
-4.4420291389040201e-06
1.1322450144302192e-07
1.2034243495392993e-05
1.9268612923135314e-05
3.1232531612108065e-07
-0.00090696546373910541
-0.0004372846395733354
3.6569488437075306e-05
4.269720700285623e-05
-0.0034435160527700689
-1.5398908831414503e-07
4.5163711399174408e-07
-5.7030532731622668e-06
-1.450039264942002e-08
-1.6432496558530214e-08
-0.00016853221472434846
-1.1354969668499177e-06
1.9848266560368211e-08
0.00028217499583596794
0
3.5395285746298363e-05
-9.2870938320835768e-05
7.3277209465771669e-05
4.5552231416705782e-06
-0.0001701674826784463
5.0517219837091686e-09
9.5713011986107731e-06
6.2671171566951878e-07
-1.0084661269529082e-08
2.0406075376636954e-08
-5.9322570666812075e-11
5.6645998549317404e-10
5.5556674354095249e-07
3.9939645940960237e-05
-2.1466449464648005e-16
-6.945975365159635e-07
5.17212154549406e-05
6.5413546419417746e-09
0
0
0
6.8104879918620771e-07
-2.1520154783374075e-06
3.408053714570822e-07
-1.2710646864751721e-06
-6.8905728129135482e-05
-4.7642477894917667e-06
-4.4247118484910326e-06
2.0335129121274767e-06
-1.0022029722815272e-09
-6.5706719429386786e-10
-0.0052557014940828543
0
-6.9431494277491747e-06
-4.4408965517111731e-06
-3.6569045632646506e-11
-1.3531808086845241e-09
-1.3766528926557387e-05
-2.6618873952699656e-08
9.2366611517486715e-07
1.7459175078431421e-05
9.6380221593763069e-09
8.9443925356211521e-06
2.6985838384727697e-05
-2.7127962049609281e-08
-2.9187281712897076e-06
-2.9554591063525222e-08
1.1536882458693754e-06
0
0
-1.4592947739446535e-05
0
1.3059237308703058e-06
0
4.4370467721472206e-05
0.008143418884719025
1.5750956656109988e-05
1.1643064708658885e-06
0.000114918720687698
1.785429619505944e-08
-5.9304627463821944e-06
-3.3185611079892493e-05
-1.4041347944141724e-07
0.0023990675099979019
-2.3530442175697855e-06
-2.9705895297549219e-08
-0.00010513287119867889
-0.0055789051366552196
-6.6710141518942493e-07
-0.00085478404321535017
7.6747028451599992e-05
-5.9318884135346739e-08
-6.6380081907605899e-06
-0.0024722741387719388
0.00056477023164737687
-1.7460918838640968e-06
-2.2235588658440081e-06
-2.1115203580757261e-10
-0.00019811425383383686
9.0258849920602934e-05
0.00041418010692066139
1.579085553525332e-08
0.00078928666474997137
0
2.8032390773644707e-07
0.0011151021570768686
9.6321403464040067e-09
1.7415717527287135e-09
0.0012768214964275473
-4.01054454873743e-10
-1.1255153150297826e-05
-8.1240935825774938e-07
1.2030605928104688e-07
1.4366670591377712e-06
2.1554806005771912e-08
0
-6.603055005141292e-07
0.0024180877812323494
-1.4160386686766252e-05
-0.0021921118529444595
0.00015921551334241042
0
8.708827357006774e-05
6.1226021404013511e-07
9.3964162021363877e-08
-5.5793870610673758e-07
-1.7120581470659851e-12
-6.8668828841094984e-08
-1.4605219764731752e-06
3.761928656481656e-07
-1.6217522925497464e-06
0
-4.6423314033224158e-08
-7.8048348179122203e-09
-9.7423528540664772e-05
0.0059236570902236598
7.7960971946257477e-07
3.9610214509986288e-09
2.5718312384594436e-05
2.3448231647388936e-08
0
-0.0033986474583215498
0.00020254457232127856
0
3.0740041899771911e-10
-2.3640294915613825e-10
-0.0064644881841191522
-0.0014045358754210466
-5.4158408679923091e-09
-4.3015148024907559e-07
8.3723443749960887e-08
0
-7.4850825560133401e-05
-0.0016481763206758295
0
-2.128269282582721e-08
-6.9680893927486538e-09
-1.9773963957949619e-09
-1.9903788701808723e-06
-1.9259104383997084e-07
0
-4.7509084267349722e-07
3.6264924417665215e-05
0
-3.1313074822207675e-07
5.4409287666080217e-07
-5.3026715747346499e-09
-1.1340976697024879e-08
-1.1458550144330271e-13
-1.1896092212666174e-09
0.00041412994281789071
-0.00067944037924232235
-2.1940791397739187e-08
-2.3831351649103105e-08
-8.0021606019243967e-08
0
-1.1176533283297078e-06
-0.0027783566455693662
-1.2833777301867111e-10
6.0674606705720193e-09
-5.71770796047935e-09
-3.086138091046289e-09
-8.041058401844056e-07
-1.6559646018990898e-06
-2.3710143461751952e-09
-5.3247722903592062e-07
-4.4916675025218378e-08
0
-1.8608108091966154e-06
-3.5030869174396277e-06
0
0
1.2473837858531195e-07
0
-6.2729151397574352e-06
8.9477214796728279e-07
0
-5.8742157106074652e-10
-8.830236338008454e-08
7.5890441773576684e-11
-5.0816031469213232e-07
0
0
0
1.4271498021422908e-09
-2.4921031830979755e-12
-7.5732146749699551e-07
-1.4005330917516567e-07
-3.7958856366789934e-06
0
9.911571186212888e-09
0
-2.3058015803581427e-05
-4.4951309092627122e-08
-0.00016644971428229411
-2.0989302340115761e-10
1.033077870836944e-05
0
-1.5643930238822873e-06
-5.2500334584154567e-05
1.412411114838944e-07
1.8950468794622976e-09
-1.481518841811143e-07
-2.736633474020605e-12
0.0001519213740381462
-1.1669454158169539e-07
-7.7725860364598615e-06
-8.9216941687125306e-06
1.6820733927469859e-07
0
-2.1826829916480461e-07
-4.629282935439859e-05
3.159898516789515e-09
-4.0377074746803672e-07
-1.6648925640954726e-09
-1.6050486320794014e-10
-3.1329079087010494e-06
1.3669826374428838e-08
0
4.8159774357782276e-09
-4.6392535149829485e-08
-1.0390433430513243e-11
-4.7870749957579325e-08
0
0
3.3330869717824193e-07
-7.7467814967972663e-06
0
-3.6542543305819584e-07
-1.8554244309352985e-07
-9.8245497755451262e-08
-6.1058823507180391e-06
-1.9441142050901695e-07
7.4296269772463794e-11
2.1843720566656718e-06
-1.1122535511536536e-06
2.2973849432611068e-07
0
-1.0939205187823352e-07
0
-2.2844864763416367e-06
-9.5417545026173813e-09
-1.3260217253325736e-08
-1.7008694375779634e-09
-5.6341006861626793e-11
4.221714769862353e-10
-1.8337687154042004e-07
-1.0663088927835938e-05
-1.2085917361549258e-07
-1.793991889599178e-08
-7.1545366003038123e-08
1.3678668901387018e-12
9.6872833620827041e-08
-2.7230493046654423e-07
9.4189065527948735e-09
1.799477252074014e-09
5.0388094225608682e-07
2.4713424968024854e-10
-3.3123591344021107e-06
8.8193838783962553e-08
1.3575805445632431e-09
-1.2662053724369127e-07
5.2909610314606218e-09
0
4.7703083699082573e-08
-7.6010870564601731e-06
-1.0809544057594593e-08
0
-2.9465440261349663e-09
0
3.0112621368102177e-09
-1.1109148019826593e-07
3.0527472551106503e-11
0
1.410363119599099e-09
2.0050708519083099e-12
-1.3690869790731179e-05
-1.589668436663698e-07
-5.7246420449729712e-09
-9.0246695549877265e-09
-6.6041473087692775e-10
0
-1.5158339071612668e-07
1.1539782777908149e-06
-4.9210584901035418e-10
-2.9101268980076458e-05
-2.0368009561634628e-10
8.0048099277658634e-14
-4.4014918793247256e-08
-7.349695185341549e-06
1.8163362865419581e-07
2.3092789792943361e-09
-2.9529077100450898e-08
0
-1.4379991444155642e-06
-2.1030445703375398e-05
-2.4089092511229741e-09
0
2.9595892816293776e-06
0
3.0583929358199983e-06
3.2047816398732632e-06
0
-1.8091195962340562e-05
-1.4357894317310833e-07
0.001408773551510429
0.00013490488217189354
0.021209011998186891
-0.017352331096762538
-0.0060575519441451089
0.00096064841354773309
3.1278814493467881e-06
3.3055677861806828e-05
5.726587384592477e-06
-0.011116355683541032
4.833241123348485e-05
6.6634385002801899e-08
0
6.1814740602164139e-06
1.2726372124622242e-05
-1.7309259146172172e-06
0.0084691866392513655
8.2588576948443494e-06
2.6429619152012887e-08
-5.7985449693939599e-05
1.6728878056483292e-05
-2.6304063040885461e-06
5.86804216983632e-05
2.7529614569514009e-08
7.4219362317140788e-09
1.3417063856601878e-05
0.011853992182396356
1.745356847271917e-06
-0.03035786281396147
-6.9021981593854285e-09
2.5935125945909262e-05
0.00010539642205968889
0.00769202086943433
0.00049387390842243887
-0.017875430648223601
1.0567905248841128e-11
0.001351421506558786
-0.0052893333170068706
-0.021755585906360463
0.0040438864579025752
7.7334959508015442e-05
8.3104315589682218e-05
7.0949255987961935e-05
0.00020180150681439759
0.00098472525799639865
0.0033567855341429522
5.0078990625488863e-05
-0.0062887568170387478
1.6865917636476756e-06
0.013660625142786471
-1.1384928771537466e-05
-0.0022118794360332251
7.0849673921951229e-05
-0.00011450922324745432
0.00012252959929462997
-7.2445203080783894e-05
-0.0019389714616541934
-0.010577518209743101
-0.00035622727544539401
0.0014678259240736469
2.5171122768276556e-05
-0.028871420382925461
-0.0082133066236604532
0.002468961501932751
0.0033655370596291359
0.0014444764913699036
0.00069382278621101326
0.043070334205433818
0.00013607102343420358
-0.011670610781972651
0.0009263939101050978
-0.0047623895695978746
0.0024633070495353585
-9.6966776238321186e-05
0.0023524493474646052
0.0015825440175747448
-0.0013150986951077366
2.3261605612724797e-07
6.426369317187741e-06
0.00099188462509573966
0.00063499231797026136
-0.0014008100857131058
-0.0047132612687426209
8.3547507420414427e-08
-0.00017200933543684924
2.0973250683948826e-05
-2.1845506902828247e-05
0.00045008777848890518
0.00012940342634733921
7.7348146546183652e-08
2.0922266242425594e-06
-3.1130604590131094e-05
-0.00046897174374021145
0
0.0064792162714545562
-0.00090063299472690204
-0.001920555021594734
0
0.00011832755102625066
5.0748682966123213e-07
1.7473883239474611e-05
0.00013944090696112025
1.4197421397895818e-08
-2.451054028235261e-05
-2.1852966083322037e-05
0.00038754534084506072
0.015447111652843742
0.0010228728801392154
0
0
1.9057249651626053e-05
1.257462552485241e-05
-0.0052821188586489329
0.0004934557689913739
-0.00034962503461574609
-0.00017392872316154893
-1.7923602481532882e-05
2.1697410614010723e-08
3.6073632110767543e-06
3.2462568085611294e-07
-1.2536401946564633e-05
0.0012038118552980415
0.014804316902910236
0.019255479448632429
0.0023648892199040943
0.0039837382918243187
-8.6291183273797649e-06
5.1896954383848336e-06
0.00019371161552103811
-0.00045836604228340912
-0.0026578099865666063
0.00017957838785166708
3.2624004956512723e-06
-7.2690645069337651e-06
-2.6188693687688401e-05
-7.4249384222079712e-07
0.0042095973908068841
1.4846896349017395e-10
-1.1842274399855104e-05
-0.0068430271769992848
-7.2521158047558038e-06
-6.2615481107820489e-05
0.011354196541204269
-0.0021428962330560172
1.7518940215195771e-06
-0.0035074600997381865
-0.002136225127583827
0.0062194947112382912
0.00020885186942397338
-0.00018393485486228718
-4.5283740891774958e-06
-4.9383245266438132e-05
9.94304494197686e-06
0
-2.298614711806495e-05
-0.00039777871542631124
7.6852939183275901e-06
0.0014751264722481471
0.0046986127078093359
-0.013331436388456405
-6.6792290381851743e-07
0.00031812338619679559
0.0014553208835911989
1.206595640818482e-05
0.0023952757072302449
0.0035311045983803841
-1.3100208390550311e-06
2.6529344976034582e-08
-3.0290194893388947e-08
-1.6523379724256729e-05
-0.00023755300871635738
0.017522186563420614
2.4931019555228098e-06
2.3139539283714578e-09
4.6173391328634536e-07
0.00016181236327348232
-0.00055530437098468422
-3.0120814215491229e-05
7.7315813017887914e-06
-0.0010220283757438828
0
0.00082106815331190006
0.00071262723206173102
1.7186606973223098e-05
0.00060045859919933544
-0.0012618257281035159
0.0014257817343814514
0.00014100616421342281
0
0.00010623582019038349
-9.5321340004983851e-06
1.3729912962659834e-06
4.1045534029515752e-06
0
1.4553783879587743e-05
0.00065828949817908202
-0.0011454933389260726
-1.298935338011724e-06
1.2942681546291095e-07
2.0221385601419923e-05
-9.7662238796719619e-06
-7.8948089833687015e-05
-0.001306433662377388
0.00066520898471411941
5.8432226734315837e-05
0.00026363826249133353
0.00041610255010983448
0.00011554694447685187
3.6051263383926788e-05
1.5592672603417859e-06
-0.0001488912326001045
7.0123102776283041e-07
-0.00014390947509216123
8.3617115507601337e-05
-0.00033155546197139222
-0.00024778821411702579
-0.00032079774936027072
-0.011790013016786021
9.5129564915069642e-05
-7.4157343470169774e-05
-0.005834449327501475
-0.00026501366919215371
2.2541466566069416e-05
-9.0329125865846617e-05
8.8452948690769838e-07
3.0071538000680353e-10
-0.00012457927542233765
1.2099963720473869e-10
2.9593767228964401e-05
-8.5785223442006481e-05
-0.00011294535790789433
0.0001351099493077971
0.00015129765497691941
-3.1315449565926147e-05
-0.0013319598306253842
6.0709189832267055e-06
9.0675304290621002e-05
-2.6558452618289567e-05
4.7233382167524449e-07
4.26004048181882e-05
0.00035376007804185504
-0.00013646249580095323
-0.0025133374901249914
1.0774889071959929e-05
-3.6730390161556602e-05
-4.2928221208996588e-07
2.9957407993027917e-06
9.1484736104330952e-05
0.0052237781368321221
0
-4.9129724438151398e-05
0.0041098917516074083
-8.0052963637525141e-07
0.0089340608195490005
0.00010707686983079552
2.1699442701068981e-06
4.2920071644925013e-06
3.3220598858655852e-05
6.4285550247525304e-06
-4.4198114785641562e-05
-0.022054766963302243
2.2761776775455664e-06
-0.0065990305498391999
-1.1289224505369273e-07
-5.5635792435997164e-05
-6.970016878925456e-05
0.0075766589277378128
-1.1585513139505545e-05
0
-1.2963513649309468e-06
0
8.3093101778818309e-05
0.0081398280033778848
0.0001332314695195679
-0.0035825194725882074
-6.903881989943281e-05
-0.00012564259441264194
0.01140852694998978
-3.7186913496921125e-05
0.00023058332230781452
-0.0049730559939566996
5.4465880414609467e-06
-2.8526659772437307e-06
0.00011393820765405493
-0.0055636967985353263
7.7574299617357902e-07
0.0019021131122839556
7.4440953292881969e-06
-9.3048879228623554e-07
-0.00025630480419598081
-0.004746312551224467
-0.0031407094271145436
-1.9408593707153401e-05
-1.7427204834651442e-05
-3.3490152422449866e-11
-1.2898577415541039e-05
0.00058826903135224002
-0.00035393218445935426
-1.6981774431817241e-08
0.0024659771478714528
-3.1682553103060183e-06
-2.0228355114040886e-06
0.00098116739241369921
0.005947888875352616
7.6852207366032415e-05
-0.0029746092000335102
-8.9379219634289853e-05
-0.0073965037315759288
2.3855792871416613e-07
-0.0039174592350611952
4.2540676912860475e-06
-2.9061310457501736e-05
-5.9910699571002862e-07
-4.2448976594118525e-05
-0.00061305893120274749
8.987362485569171e-05
0.0038206013651688304
-0.00014164766292883713
2.4176208090998914e-06
6.4452521720236375e-05
7.7822211335528221e-06
-1.1112378497218576e-06
-0.0081862632126536734
-0.0024244543138656695
2.1550149250817887e-05
-6.0400149490715486e-05
-1.7100292172091852e-07
-0.012978362580710412
-6.5071031034448438e-06
2.2700110263573374e-05
1.0828454907999871e-06
-2.1362471520933551e-05
0.01644953043160621
9.1585983742640027e-05
-0.00017488322749008024
5.7883352130702941e-05
0.0024548462380630741
0
-0.0020876134124872769
-0.00016246721737494174
3.8527349504774018e-05
5.8620288347311292e-09
0
-3.5478235886873451e-05
-8.3229951023953286e-05
-4.8612039793482748e-09
-1.7793626560813568e-13
-3.3061545426780968e-11
0
-1.7686590422624596e-05
-0.0016462525640130918
0
0
-2.3147084770547717e-09
-1.1891895444012402e-12
-1.0271038270725326e-06
-2.1306395330563958e-07
0
-3.0135997840421189e-10
-1.0064863882803161e-12
0
-1.7855853548550432e-07
-8.0642466179750377e-07
8.3719058648398942e-10
0
1.9524365350351384e-14
-4.6811877930263869e-12
-0.00041413037972198966
-0.00053472855897020014
-3.4458902599246326e-09
0
-3.2915243466419065e-08
0
0
-0.00056286465362746145
-1.2820119640206799e-10
4.5921657079639155e-08
-4.4948452200468464e-09
-5.5489463395316732e-15
7.9549958237635316e-07
-2.07574796084168e-08
2.3242907679080292e-09
-2.3224892119846819e-07
-1.1388477224842615e-08
0
-5.4470097303567653e-08
2.1960113445167624e-06
0
0
1.2653879455554198e-07
0
5.1958125066970287e-08
2.6583544749664541e-06
0
5.9032688174276411e-10
1.7006801434581848e-08
-1.2929071673591326e-13
4.9104635112230726e-07
0
0
0
1.8932669187008283e-08
-1.9985865041800525e-13
5.1991042498553999e-07
-4.2699905430509112e-08
-2.4737522477246671e-10
0
7.6895364805789257e-08
0
4.9817176016924493e-06
-4.3818104755771185e-09
2.7739043348635543e-12
-4.6353258249983662e-09
1.3471089946049409e-05
0
8.3497172127041089e-07
7.5037445530438246e-05
4.5642596315727668e-10
1.7930819149710118e-09
-1.4470644255885459e-07
0
0.00019691099408644319
-2.0883380827371125e-07
-1.3332009748616011e-09
2.3267276017021284e-07
1.0246157286952853e-12
0
-2.067965821913199e-08
-3.1141934451760002e-05
2.4792565437917656e-09
6.3574508209241477e-08
9.62176409365635e-10
0
-2.2935799643486118e-07
1.0649341530389899e-08
0
-2.0436606425123869e-09
3.1204786960682592e-08
0
-3.564803600389622e-08
0
0
-1.0859288795641192e-09
-9.6137045463280038e-12
0
1.3564640784818893e-07
9.5909560807365794e-08
-2.3674738194074552e-10
-2.6244377290800475e-10
1.5330831724413985e-07
2.6468629532498097e-14
-1.0644383115932158e-07
1.8597559334058377e-07
3.6689649130771157e-10
0
6.2540465648101022e-08
0
2.4405133540686947e-08
8.9895684397327897e-09
3.4936375458052285e-09
-6.8597363954395285e-09
-6.6032564659948589e-12
4.8645772073729781e-13
-1.6044927963480216e-07
1.9434352785035693e-06
6.6210846643198611e-10
-5.7430506449503222e-09
-2.9176396254537475e-11
9.8041046794463863e-13
2.4440869879436909e-07
-5.8683711594919899e-08
-9.3968558206652978e-09
0
-3.4576978003834315e-06
2.7823075614950069e-13
3.279454379888753e-06
4.148579247331926e-07
1.6324467452269461e-09
1.5087766396091985e-09
-4.0341260826885859e-08
0
-2.220325346209744e-09
6.0816028378259987e-07
1.1876455386083802e-11
0
6.4071079146303381e-09
0
0
7.6657494532560545e-08
2.5516674793025473e-10
0
2.0686692227446592e-09
0
1.4159800997843216e-08
1.3651166424338459e-07
4.8870033685135408e-11
0
2.5081195941807919e-10
0
0
3.2759968349214069e-06
1.2271732239553807e-09
3.0681766636000083e-08
1.3465616516512612e-10
-4.1101010280463879e-14
-1.2445437889073641e-08
-6.041748565295088e-05
3.7428507155115445e-08
4.7963218196922765e-10
-1.0848320137394561e-08
0
1.5274060559058876e-06
-7.0547895990438516e-06
0
0
1.6149019518576901e-08
0
2.4359535133129163e-06
-2.8617006953397137e-06
0
2.6755643643982299e-08
-1.69058941747765e-07
-4.0797419752250254e-07
-9.0234193185449944e-06
-3.9961304061890249e-06
-2.691936157154625e-07
-4.7685830059278819e-06
0.0010938585203950654
0
-4.0066455686437794e-05
-6.585308973358902e-06
2.1519128643962837e-06
-5.8753058037851208e-07
6.6634554819922888e-08
0
6.3576431374368073e-06
1.3029293313161914e-05
3.9190652395639309e-06
5.1693875128742486e-06
3.941417288610057e-06
-7.6838956253549545e-09
3.0445518269823744e-06
-1.2233118424886653e-06
2.0438278652638398e-05
-6.2026914377918273e-10
6.4028307364189146e-08
-7.3344427824259697e-08
2.2365211720512653e-05
3.3782482306994781e-05
7.9304249067802175e-05
1.7499254422893729e-06
5.0809223799479746e-10
4.0874358045170881e-06
0.0002260493264289064
4.5522491675669487e-05
5.8482520028841027e-05
-1.4549425695576517e-05
1.0567813826866999e-11
7.708006736918729e-11
0.0054196656084299442
1.1139093886215845e-05
4.2447082934145047e-05
9.6200043989276348e-07
6.0321317280981023e-05
1.1286718440077202e-11
5.0799290033751512e-07
0.00089929050510153803
0.00029093999983778433
-9.3053659420663881e-06
-1.150744396229623e-07
0
-0.0001460625321786311
4.3671723580902609e-06
0
0.00013367542695187987
-5.1540344978307947e-06
-2.6125570763347406e-08
-3.8504152116769114e-05
-0.000482461526402318
6.0432542328792765e-07
-0.00011879920164183719
0.00052299540454274333
-4.9975065249807758e-08
-8.7841557434564709e-06
-0.0055777163482641761
7.0001673495800643e-05
4.1812254342218372e-07
3.2416807503497191e-05
5.5894260386942664e-08
-9.7018148734030217e-06
0
1.5874433947142124e-07
1.5254806764364669e-05
2.4618429943459781e-09
-2.1894460620891426e-09
-0.00010647853310208151
0.0015769606899198136
6.2372624762466317e-06
7.6014366270122097e-06
4.9259406058103379e-07
-3.7409079308284265e-09
0.0011016575118309262
1.6898702540771387e-05
1.9881643753183769e-07
-3.6051150602153132e-06
1.2969357114143362e-07
-2.3315234959013904e-07
2.092095116717394e-05
1.3438139157329723e-05
1.3418025150280654e-05
8.749708391545909e-08
5.2640277919068016e-08
-1.2643582321691542e-07
-0.0010798141793948418
-0.00026404059541348767
0
-8.8672548793848473e-10
0.00061465348418975106
3.6111298187832181e-07
0
4.2592929507560752e-06
5.0748682966123213e-07
2.4967738255811638e-08
0.00018277641617280086
-9.3199053079086156e-09
5.2626348318796946e-06
1.8509576808290864e-05
2.0519837395703799e-05
2.3727814570006578e-05
1.400672296847226e-05
0
0
1.7446836683527039e-05
1.8023110746742787e-06
-0.0016391462694735209
-0.00025143043789407427
1.0132643668263694e-07
9.0345258001349563e-05
4.0614957178862036e-06
2.1697410614010723e-08
2.4905949076126413e-06
-1.3618709608030204e-07
-2.2749879178866367e-09
0.0003680209535117176
0.0068505585748016243
1.1695212346432947e-05
5.4848326959895255e-05
-0.0018066872465606133
8.4645303838999199e-08
5.2315121990763411e-06
0.00034736168901634872
8.5527723679071739e-06
1.0534549005001294e-06
-6.6201122955976657e-05
0
-4.0872933141744684e-06
0
-2.0266065579584582e-06
9.8697127091376538e-07
5.2854670331180038e-11
4.3420310873515465e-06
-0.0024457263187646961
8.0881170551146411e-06
2.2203863560866837e-07
-2.5354329859061847e-06
-1.0515556761082955e-13
0
0.00193012501380454
-0.00014046210052675537
4.5924737782779674e-06
-5.7121992424115073e-05
4.2507026636631158e-05
9.8778159409498324e-08
-1.7257123988845454e-05
-1.4902049522283425e-05
0
0
-2.650191290698267e-08
-3.0791736065683961e-09
0.0013607418657474531
0.0023199743785932195
1.3109132525096149e-06
-9.8453498719632654e-10
-0.00026267166787233081
4.6631186595815127e-08
6.274196319542826e-06
-1.1168914724846412e-05
-1.6138773618315635e-08
-4.8242673407662601e-07
2.6529345242143581e-08
4.274662326193728e-09
-1.4458950381952811e-05
0
4.3378274220177368e-08
-1.8934373971163236e-07
2.5489570951556595e-09
-3.5655940998176676e-07
-2.1754365929610593e-05
-0.0074590773772007374
1.3426065554451453e-08
1.2077962598722975e-05
5.1658330944316296e-05
0
-0.00034942973677895962
0.00015380075033918426
2.7052302321877491e-10
7.9863201407680658e-05
0.00052818506712565044
1.8577807159837123e-08
-2.4014270754384066e-08
0
-0.0001200674889254745
1.8726405571280969e-07
2.7222177292533485e-07
-4.5421466121497053e-08
0
-7.9592368544018592e-05
-1.6639442877585494e-06
9.5087842633899652e-08
-4.4420080894925996e-06
-7.5611589125384455e-08
-4.1211088008946218e-06
-3.8993671302520365e-05
1.5694354772719482e-05
-0.00090700241657292607
0.0007694784285374658
-2.0516046481695373e-08
4.2920177867407613e-05
0.0038391155414531676
3.8292341443912209e-07
2.0259044941755579e-05
1.3559213637531915e-05
1.9221420484123718e-08
3.3663892071453992e-07
2.8392401974196041e-05
-1.2350500828205903e-06
-4.075103428561989e-08
-0.00010745596625036654
0
-2.3296966676433343e-05
-8.2253612957641939e-06
2.787943295099983e-06
1.1774887082426402e-07
8.5583145581313379e-06
-4.7691110620675496e-09
1.8978274471952914e-05
9.4476601319099343e-07
-1.0084661269529082e-08
-4.6528553468203562e-08
-2.4013091676030029e-11
-5.6645998549317404e-10
-2.6493460593498704e-05
-1.2963367231428121e-05
-2.8729686523751332e-16
-3.6256309708277047e-07
7.7779529251228182e-06
-8.8433879654177919e-09
0
0
0
1.0035923609729882e-08
1.4364464308709178e-06
1.0371696514031888e-07
1.3831230994980747e-05
1.1402824836530981e-05
-3.0514753186656353e-06
-5.0443895150138965e-07
2.0335172523629786e-06
-1.2810026770369929e-09
3.3511287412886953e-11
-0.0028353198008964002
0
3.8022271166330727e-06
-0.0017651884588621054
-6.3566159525392752e-10
1.3531715961920295e-09
4.1605100248390659e-07
2.1696620346273663e-08
6.780327450963912e-06
-3.4497574223481846e-05
-4.1009313770490667e-08
2.0065111323919288e-06
-4.7729663704467536e-06
-8.5139685134359955e-08
-0.00024621021418500953
1.0122466461716469e-07
-1.9484787748199698e-06
2.296642980261269e-05
0
3.4228991076212659e-05
0
-8.1126691015266212e-07
0
-9.3722049934322964e-06
0.00029175355985155429
6.2606443639066208e-06
1.4837244168490206e-05
2.8270220223429565e-05
1.1736090767556005e-08
5.9301368013702866e-06
3.7345969496817566e-05
-1.4041347944141724e-07
-5.9345948869121293e-06
4.4850438651160169e-06
1.0921447853116919e-08
-0.0001113169196643095
0.0055714863749786953
7.2342117748852084e-07
6.522406935554044e-08
1.1067641867053795e-05
2.1967580007187213e-07
2.2343206449055207e-07
0.00056840322742592931
-1.5741287003010904e-07
-2.8734467934489034e-06
-1.0286140026168305e-06
2.1115203580757261e-10
-7.2758993970517883e-05
-0.00014301568347640457
0.00022438561355450206
-1.7109249719162522e-08
-1.0540914993549445e-07
1.7271545459902992e-08
-1.5250452141519197e-06
-0.0010815978655462453
-9.6321403464040067e-09
6.0471726776563389e-10
0.0012783578782700341
4.3291314457320061e-09
1.6545150037770133e-06
-4.8044853330983678e-07
2.0189856271344874e-06
-1.4406262985693292e-07
-4.5136758010825562e-08
0
1.9878589990798977e-06
1.6970813190495939e-06
-4.9797371030011151e-06
4.6053568451194526e-07
-0.00023064912337080249
0
6.8101890665875502e-05
0
-7.9142302354057011e-07
-9.5161312379685057e-07
-3.3156747921824773e-12
5.6200767910349795e-08
-1.7137652169118096e-06
1.9088164272712875e-06
1.4610926360679374e-05
-9.3497524222203828e-07
-2.3179691570342595e-07
0
-0.00013282131737548254
-6.3236391163845823e-05
-1.1367359648421187e-05
-0.0011819333591342445
2.2967467270975509e-05
2.483079740487359e-10
0
-0.0038527447103239173
-7.6365559867244448e-05
0
-1.2297942414093029e-08
-5.5717551471583162e-10
-5.5953619758848467e-05
8.4533915260473204e-05
6.83319417831803e-09
8.4833600122845793e-08
-2.8123095464030969e-06
0
8.1460971426503263e-06
0.0016383651910582351
0
8.62764802809241e-09
5.0492021958266658e-12
-2.9516903061273886e-09
5.5138530729890023e-06
1.4612539626535906e-08
0
-3.2242339313389417e-11
-7.0168108917505233e-05
0
3.003837357021475e-05
5.9814293825060417e-07
5.0325092732247155e-09
-1.1340976697024879e-08
-5.5241540241774527e-14
-1.2196447862895196e-09
-0.00055913388178856704
-0.00025960742281165957
1.8494026218658238e-08
-1.0279974928565345e-07
-1.4234617986966635e-08
0
1.1176533283297078e-06
0.00057160885092734338
1.283379348478447e-10
7.9061014845074998e-08
-5.8862502471997257e-09
-4.2221671003817927e-09
7.067783160657853e-07
-1.5224053031429662e-08
1.9080685190739775e-09
-4.4289193115945555e-08
-1.3107807346656959e-05
-5.487097075560758e-11
7.3243721404235595e-06
-1.3286933998085401e-06
1.2311433571124567e-08
0
1.2366545792278398e-07
0
-0.0021013580243277961
1.8636867085883695e-06
0
5.9929907271526801e-10
-1.2433727760847994e-07
-9.5276134390102792e-10
4.4788329069451835e-07
0
0
0
-2.0512068246609775e-08
-2.4921031830979755e-12
7.6439570565029445e-06
3.3637251488944557e-08
4.212276646868701e-07
0
-6.1165661158748236e-08
0
3.2676133682325135e-05
-1.1766454296792573e-08
1.0278031791933905e-06
-3.3921942456422762e-09
-3.1973006036866668e-06
0
-3.3916969703217327e-07
9.838606657869109e-05
3.8855795701199739e-09
6.7856763818884803e-10
1.2989871308014979e-07
-2.736633474020605e-12
0.00049797222175786138
1.1670265363221513e-07
-8.4030646197811572e-06
-7.3359538827466078e-06
-2.3766965291442701e-07
-9.0062262595885117e-11
-1.4727529969724952e-07
-1.0785366963919418e-05
1.7402284811197015e-08
3.7937519718580838e-08
-2.0466010740591452e-09
-5.3709922886466392e-10
-1.6975769844568199e-06
2.0946813948187838e-08
0
-6.4648411696524797e-09
-8.4848897117929689e-08
5.745727180467495e-12
2.3662607824340169e-08
0
0
-1.3490182818629789e-07
-1.3091386866829317e-05
0
-2.9783025493630364e-07
4.4367552761788257e-07
2.3881993823748755e-07
2.0477414874319823e-06
-1.5332268785643724e-07
3.637225599518481e-11
-5.5349525718525839e-06
-8.0659004993459788e-07
3.4579396531657249e-09
0
-1.2613282273865021e-07
0
4.330202104387121e-07
7.3693525115751192e-09
6.0436510584690124e-09
-1.2844650865986211e-08
-1.7166835629457576e-10
-1.0309030633748405e-09
-2.9466347204528732e-07
8.2020306443028003e-07
-6.1161520661826162e-07
-1.2344693702359441e-08
-1.3051803971446915e-07
-1.3508602882326259e-12
8.2572589428023524e-07
0.00011667454768422088
-5.9784934850009462e-08
-1.799477252074014e-09
-3.4592375926158813e-06
2.6737597890473573e-11
-1.5479180163541355e-05
6.7886151252117589e-07
-3.4776552749260442e-09
-3.3312009477315679e-08
-1.6449759247596493e-08
0
-5.8863552226970904e-09
4.0624582515727843e-07
4.0073479296609787e-09
0
-1.239648899432173e-08
0
-5.8802426423653877e-07
2.2013288745022684e-08
-1.0776640787298602e-09
0
-2.4959833963671867e-09
-4.6511807345881966e-12
-3.3973439855173916e-09
-1.8243849539553369e-07
5.6941433919288321e-09
-1.1977540946252965e-07
-1.4937535935074745e-09
0
1.5158339071612668e-07
1.8116665578234861e-06
-1.1763149942865036e-09
-9.8292192180143012e-06
-5.9364739702012259e-10
-7.858876005497552e-14
-3.8923166291948722e-08
-0.00035800432273347524
-1.5418108490562043e-07
-2.286313140934507e-08
-6.0569191396101044e-08
0
1.4106294941155733e-06
7.3908304462462386e-06
-3.3080046126021806e-09
0
2.8369552248034623e-06
0
2.5055237673643304e-06
2.2762758305641086e-06
0
0.00020706248917823944
7.6290314584132705e-08
0.0014087741836700059
0.00010502653928086501
-0.005575446156958928
-0.00052478641418149266
-0.004380491076735952
-0.00096918250634645214
-2.807273201242297e-06
-7.3885507567359468e-05
-6.6361179198443421e-06
-0.0032512069095910236
-4.9241430754487979e-05
-7.5816316870156249e-08
0
5.9859699884447388e-06
-7.6555104191106763e-06
-3.2575220728222333e-06
-1.826157699731033e-05
-1.3942111250810699e-05
1.3222593154418386e-07
0.00011292113852049551
2.110643765267234e-05
-4.8454814808325351e-05
-5.3813461192823455e-08
6.4028323491898558e-08
7.3344427824259697e-08
2.025747810055719e-06
0.00026261211072106644
0.00011862615648592059
4.2017311502442535e-05
1.0913880501132658e-08
-2.1758843912000249e-05
-2.0018949538408937e-06
-0.0035610924356862896
0.0023978876133989315
2.2533651770388192e-05
8.0625414253290144e-12
-0.0011863208626751403
-2.4653910854413881e-07
0.0040808705908107054
0.0025737699834610674
1.5458324242661929e-05
1.1462575122565867e-05
7.9218991779158791e-06
7.5234059636693145e-05
-0.0036798310845947372
0.00063270573845404206
-1.9955465279440665e-05
-0.002602877762775842
4.5736024704542091e-06
0.013638009016152516
-3.3423976292664159e-05
-0.00074267388758239355
0.00019659429364586928
-4.3377976822726515e-05
2.8307219412434434e-09
-6.614657010837449e-05
-0.0030510890073416558
-0.010587810172857899
-0.00035622727544526895
-0.001029795745196809
4.4842040419567453e-07
1.5109326532319456e-05
0.011078562225474967
-0.00016804443003024441
-2.7577985512251576e-05
-0.0017242858987542146
-0.00018546928435491736
-0.001594397065166731
-1.0291710420660261e-05
-5.8739904315074033e-08
-1.5752232320726432e-05
0.001620837911904273
-0.0002676714033800102
-1.7299912584525399e-05
0.0020753966181028352
0.0020622573237284655
-0.0011000516264587296
2.9654939701598905e-07
1.9153152576321351e-08
-0.00080823132686432062
-2.4341240670766935e-05
-0.0026078946455086586
-0.0014275306695126133
-1.3217883813619991e-07
7.7812654846004563e-05
3.5566920954855737e-05
-0.0040949060470143166
-8.5360239381318071e-06
-7.6212010632465401e-06
-4.7828755428420196e-09
9.2515313785478403e-09
0.00020476674174832227
-0.00025837103335682487
0
-0.0055062498739093897
0.0022004245124257892
-1.4188348649722504e-06
0
-0.0004011765999309485
-2.9920953689889815e-08
-7.2544604837548599e-08
-0.00010824159770181272
3.9495970256670217e-07
4.7282970481427771e-06
-2.7150952570363784e-05
-2.6471450554988048e-05
-5.9684462148243441e-05
0.000401322977289041
0
0
1.2958734537972963e-06
8.2244582425154913e-06
0.00039219278909049518
-0.00054846036832792943
-6.0211261075974266e-08
0.00014504509457113576
3.3075884381631768e-06
-2.8921946514312603e-05
8.1193205064655835e-06
1.244428297579297e-07
5.2886840282227467e-06
0.0019647812350150062
0.013009242820140312
-0.015045758419575526
-0.0014023139707512425
-0.0025574835705400277
-8.4645303838999199e-08
-0.000235236191205839
-0.00043713827392411213
-3.79332570115162e-05
-3.1642185785786698e-05
-3.0680132993968321e-05
-2.5587160535492147e-06
1.0865791232309754e-06
0
1.2643835043474163e-06
-9.4724389631587112e-06
-1.5536507393731717e-10
-5.1693475646209412e-05
-0.0025186929994217657
1.0398347635280001e-06
-1.2319246180950355e-07
-8.6401768500397893e-07
0.0060257199892171029
2.3890746793166657e-06
0.0053218396068650132
0.0030303874407634061
-0.0015694299532991078
0.00010779142281045345
-0.00024207734954756149
-4.5417352271717378e-08
3.5851760675855244e-05
1.2582913408956726e-05
0
0
3.3475549053535837e-08
-5.7931450346272425e-06
-0.0011925613888599798
-0.0050015810841924791
1.5657314151919576e-06
6.6550036073094598e-07
-0.00031812340538631817
0.00042413244204699414
-2.8139097447465347e-06
0.021983969792044308
4.8414431198386962e-08
-4.8229924475617345e-07
2.1333229253086523e-08
-2.7700965739875944e-06
-0.00016496876344310627
-0.00040363409075221221
9.0932523761874887e-07
5.4623826059615873e-06
-1.6586201289286216e-09
1.1931849023758594e-06
0.00015996112992155536
-0.0063899293215794618
1.1085950384822323e-05
6.9937792911744094e-06
-0.0015636517546999879
0
-0.0022203960978958155
0.0016355925717940257
-3.4495104149537066e-06
-0.00011835027211384371
0.0005524513495947411
2.573351606347752e-05
-0.0009874365968243913
0
6.395632236480779e-05
-9.4023481364687471e-06
2.787084907709565e-06
5.7408997309201971e-06
0
6.2132280396027056e-05
0.0012490667756365655
0.0012405812425143447
1.234465440176813e-06
1.9412127757449771e-07
-2.8549978789780511e-06
-1.4824837832812787e-05
-4.7859556444494205e-05
-0.00042525698090357245
-0.00085792463957986838
3.4564494192326069e-05
0.00017192405296616396
-0.0032027698149168365
0.00014223742904234955
-3.5730386211194153e-08
-1.3048638464032453e-05
-4.4755004364924791e-05
-6.1512706547815992e-07
-0.00037346811619342365
-1.6130508302690369e-06
5.6723921702850374e-05
-0.00019478055021130466
0
-0.011726788105365817
1.710562764091609e-05
-7.3571134362203551e-05
7.5824912654148325e-05
0.00018576902741456762
-2.2831563828743853e-06
-3.0084073320777437e-05
6.003521469513251e-07
9.0659087863549715e-09
-4.6528553468203562e-08
4.4243577800137286e-12
-5.6313642575140712e-10
-4.5372643930998098e-06
3.8622443872906567e-05
-4.9668036268896589e-06
0.0001225402864806649
4.6463247611080283e-06
1.1055193074900895e-06
6.0709189832267055e-06
0
-2.6558452618289567e-05
1.4206628016441249e-08
-1.9457687706361635e-05
4.6019973734953598e-05
-0.00012391972124486557
-0.02025101772282677
-1.3912018635182596e-05
2.2585690261900284e-06
-1.7308850671945374e-06
5.1623796731526635e-06
-0.0002353778365542408
-0.0043122570741385771
-6.8619892840980431e-05
-4.4325549239934342e-05
-0.0017683020879686875
-1.4929881649398485e-09
1.3605961894522156e-09
-0.00016169220287995105
1.6296372556612972e-05
-4.2033342004184474e-06
-1.1981516440328125e-05
-3.631335738114872e-08
-5.7139099886866971e-06
-2.5857918147475095e-05
-2.3560205232015256e-06
-0.0040990185394204825
8.2962521108436651e-08
1.8966432580822803e-06
-3.1493238154315148e-05
-0.0076067385945100228
2.6590440388325312e-05
0
-1.1145133043266702e-06
0
7.3824373552460953e-05
0.00078921127676537424
6.4893597123220034e-06
-0.0015577713124778601
0.00010720821175485851
-3.1780207804527783e-09
5.1677526080902996e-06
4.3399523677760223e-05
1.3712341892976285e-05
0.0023997037846789342
2.1244644173123325e-06
-3.0539000672589007e-06
-0.00054100600563044708
-0.0010160862553747559
6.514166765490699e-07
-6.7876257253261904e-05
7.6747899124223726e-05
1.5675740513923252e-07
0.00013199374419793768
0.005352868934905994
0.0014251764728616769
-6.3627752453697809e-06
8.813805857120087e-06
-2.1115203580757261e-10
-4.68436736547193e-05
-0.0010744751945024411
-0.00047533468463732269
-1.5966546600919687e-08
0.0014321430509780602
-6.9826315159650559e-06
-4.2253073455456001e-06
-0.0011151119302950951
0.00058112353904032498
-0.00012023946368404216
-0.0012763238569541435
1.3754508741658011e-06
-3.4980544151210011e-06
-1.846448264700904e-07
-0.0013897896375239323
6.3726027605393106e-06
2.9135357624006087e-05
0
3.2653870446993381e-05
0.0024199901310916786
9.32214362430517e-05
-0.002191905757624877
-0.0004319671701849324
0
6.7875705243539887e-05
-1.3462585651813661e-06
3.3222710556502274e-07
0.00011501247095926997
0.0051071310189491521
-4.3703403972093041e-09
6.7221306749978307e-06
1.3472296722353848e-06
0.0079536723183442817
5.0835742377315034e-05
-0.0020352886265720561
-2.2519347372924188e-08
0.00012178510973480082
0.0059383865589498798
-4.5469637405232546e-05
-0.0026119988002002588
7.2380471828043631e-05
-4.8372945944550294e-06
0
0.0043748370574362185
0.00012198226851696342
8.0355582362239211e-06
2.5911953126091091e-09
0
-3.546133712115697e-05
-0.00037787088994967459
3.922691045677067e-09
1.4451344133295048e-13
1.1208159701557931e-07
0
-6.6022256541552816e-06
-5.2429416584481113e-06
0
7.6149825794753247e-09
7.4744630404968718e-09
1.7987274136547296e-11
-1.1223930699902649e-06
2.3023875106193558e-07
0
1.7924947507941414e-10
-8.7034751994543604e-06
0
2.2631222467666756e-07
-5.410304237687073e-07
-3.6777394261830982e-09
0
1.2637480610000358e-13
-3.0967356510195473e-11
-0.00054532678364362618
-0.0005086755539017863
-1.4384729855484219e-11
0
8.4382908393491954e-08
0
0
0.00043187781354593889
-1.2833625043619701e-10
-2.8520162328997796e-08
-3.7633342090177702e-10
5.2284728289243775e-11
5.1527140831751497e-07
-1.6500153280220597e-06
-1.8555963654123507e-09
3.9451756771979148e-08
4.6245650217376306e-08
0
1.2739886743551031e-07
-3.2459070234135559e-08
0
0
-1.2475550013226633e-07
0
4.7077459910757352e-06
-3.8132682077128993e-06
0
-5.7524524680533344e-10
7.2469642378346216e-08
4.2493679285685249e-14
3.7374574788842148e-10
0
0
0
1.3063608116076306e-08
-1.186216900215503e-12
1.5888082893010151e-07
-1.0820971962048276e-07
-1.9796615647524549e-07
0
2.3691503923491268e-08
0
1.9172656302898775e-05
-6.2784200354578989e-08
-3.7340922390467344e-08
3.3196926454314072e-09
-1.3359388982110894e-05
0
4.4366040766454585e-09
-0.00011943355692344404
-1.127158843266753e-09
-4.0766733476288549e-10
1.796379242842007e-07
0
-0.00048356040466105354
-1.6276215951426378e-07
-5.0767334015601907e-06
2.3265827032180713e-07
4.1914797473449383e-13
0
1.466988251151044e-07
-3.7951378624347027e-05
2.9311117660078523e-09
-1.3052148214547822e-09
4.5498245423837342e-09
0
1.6167403556459487e-06
1.7573954079938325e-08
0
-1.9169407919721415e-11
1.325978099023447e-07
0
2.7412163164819062e-08
0
0
5.4997472014946997e-09
5.7231716482563201e-10
0
1.1929866384668525e-07
-4.3314315626005271e-07
7.4087404605396712e-08
3.4188940263150261e-06
1.2861876869620813e-06
-1.5539093484863964e-11
-6.0863635314500985e-07
-9.9174676647104179e-07
-4.6513250766380878e-10
0
1.1085680119190411e-07
0
4.3467930098311428e-08
-1.1307913291646938e-08
-9.6063836849834823e-09
1.3849063789356436e-08
3.0413331554112796e-10
-1.3813819701125867e-11
-9.319994725221046e-08
-2.4398142496387234e-05
-4.3476409431746828e-08
1.6294754459329032e-08
8.7011155610609618e-08
-1.3338536863265499e-12
9.5663153956413644e-09
-2.7431112932736907e-07
-9.6847428663335732e-08
0
6.4133972048866291e-06
-4.7548975269548469e-14
-6.2553187600104197e-06
5.4685971862718427e-07
-7.5741934940867909e-08
4.5995698290539965e-10
-4.3344310250519775e-08
0
2.2641140481259805e-09
2.3186997289098996e-07
3.8139251991805243e-12
0
1.2396489213691868e-08
0
0
5.1363103989313508e-10
4.9776142438277508e-10
0
2.3872569145583231e-09
-4.1884177993266265e-12
8.4586229773294068e-09
-1.9595820957873296e-07
-6.0194461342179613e-09
-3.200278539334176e-09
8.8442720717172834e-10
0
0
1.4640819411994882e-06
4.2070567331889929e-10
-6.9053270194969637e-08
8.3308937723218304e-10
4.6383572687028303e-14
4.2147602167659683e-08
-0.00016016849911974838
-9.4121234930850988e-08
-2.3570651738723251e-09
5.0382722338912612e-08
0
-1.3192444535770963e-06
-1.7998689673200547e-05
1.0147507012674862e-09
0
2.1951780056721889e-08
0
2.5055940427582677e-06
-2.8617006953397137e-06
0
5.008350044743538e-08
9.5605116356116645e-08
-1.1696328253159087e-10
6.9525064219454389e-05
0.0065036650169507729
-4.2722187083527707e-07
8.6630954406800676e-07
-6.9958739643111864e-05
0
-8.8984050814567019e-05
1.2904934317103747e-06
-4.8484408746652511e-05
-2.3656039610763716e-06
-7.5816316870156249e-08
0
6.8615885037368956e-07
5.8562881532336793e-06
-3.9322787541263505e-06
-8.8534576708065007e-06
-9.4228900377769124e-06
2.8294214478293155e-08
-1.0714355957002384e-06
1.0480523699305343e-05
-1.0564972349419002e-05
-5.3813461192823455e-08
-3.3361448240862276e-08
-4.2690361087445623e-08
1.3953970788993936e-05
1.868173526066223e-05
-0.00012992724094054514
-1.8135729146798855e-06
-3.7861320683067542e-09
-2.7361437371354297e-05
0.00010701476886805675
7.3056879711267609e-06
0.0023531224928980922
-1.1894158044313186e-05
1.0240545500153579e-11
8.2088641527158376e-08
2.3803300254957362e-08
1.2786587467036786e-05
-0.0013908829441248733
-1.9126281151937513e-08
-4.8025513401634596e-05
-7.035031738583504e-12
5.2359667060075901e-07
-0.0012014422614975491
-0.00077760594596752741
-9.3053749618797403e-06
-2.3292104715932114e-07
0
1.9549205125199113e-05
0.00015339372405249603
0
-8.9021161813251736e-05
2.9091994652194552e-05
-3.7891881357899053e-08
2.0449666862773834e-06
0.0020097308433487007
-1.6192816170519498e-05
-0.00019910155780833666
-1.0747156087492698e-10
4.2602602926726181e-08
-9.0241019998901612e-06
-0.0055790982461918883
3.0529739767153363e-05
-4.9789103268594999e-06
-6.9005771801693671e-12
1.3018192395292967e-07
-1.4916533077267039e-05
1.4104567010987544e-05
-2.4062421408082296e-05
-0.0016018166635061448
1.3322505966603712e-09
-2.8079681229691464e-07
-3.8779782969502185e-06
0.0018244330254556199
1.3939780703674305e-05
-3.1871974229504251e-06
4.9259406058103379e-07
1.9475375336805199e-08
0.0021591977517152745
-1.0254901452753092e-05
0.002197228709789069
8.0676425617303179e-06
8.0406288226359e-10
-1.030510037603288e-11
-2.5085914214248925e-05
-1.3085686822554047e-05
4.7955830983882687e-06
1.1117573160411116e-05
5.4360452840419437e-08
1.3795067345400404e-08
-0.0011359762054297718
-0.00024102912405809764
0
5.1708297613805272e-10
6.2252366170637735e-14
1.7100981149239123e-07
0
6.6772497420614657e-05
0
5.8484919670244487e-08
9.0394614137163855e-05
-9.7442030736974346e-09
8.1683973020064325e-06
5.3346580495360006e-05
-7.5428962878479562e-06
1.3073151115785897e-07
1.9035516827382411e-05
0
0
-4.9939035979869789e-06
8.5778717968123353e-06
-8.099549714259208e-06
0.00022221545499915218
-1.5037665935791555e-07
2.7261780488703522e-05
3.5990278221254715e-06
1.4025352879453184e-09
3.197875058028176e-06
-1.086121824118193e-07
-6.6928431691682038e-09
0.0012245487667961396
0.006802302806502453
4.1003608961795805e-06
-0.0011597118375231039
-0.0018066881006513135
-8.4645303838999199e-08
-4.4977768583376684e-08
-0.00029213173683039948
-4.2684131686636855e-05
-3.3583861425931705e-05
-0.00017487765757006138
0
5.3745531204491887e-06
0
-3.4059567290901706e-07
4.9769983392838356e-06
-4.64442204550533e-11
2.2143897778202903e-05
-0.00013493258728347271
5.2336042127779758e-06
2.0101579706822997e-07
-1.1218391925837538e-06
4.0734377017558375e-13
-2.2731094525236472e-08
0.001139264643626229
-0.00011389061784966903
-0.0015718201869264195
7.4015186139454099e-05
0.00025311537611325858
3.3505440977547909e-08
-5.1421221093867912e-05
-2.060998936520488e-05
0
0
3.3475548875991604e-08
4.6384514317539859e-08
-0.0014750890373835652
-0.00093540181446513204
1.4335596521605446e-06
-6.6753664949854933e-07
4.86226535849072e-05
1.7098080750342092e-09
6.2670834429233959e-06
0.001725814222201566
3.010902200954981e-07
1.3084578348118643e-06
2.0293669684670585e-08
2.2573773161211669e-09
-1.9978209214463283e-05
0
6.4534045952750968e-07
2.9673109151896967e-06
-2.7752458275310612e-09
1.3131966261921568e-08
0
-0.0074937768425417262
-6.2101261867483726e-08
-1.887188090665705e-05
-0.0012270964023178015
0
-0.0022223348900169142
-0.0018304050733179366
1.274530986512816e-06
3.0145881373130411e-05
0.00055245487594096318
2.8755584387236318e-08
-7.0841489725057649e-07
0
-2.1138856996413267e-05
9.4910469298702875e-08
-3.2818490125341988e-07
3.2230372356832531e-09
0
3.932056815602354e-05
-2.5807403663941122e-09
-0.00041703934411070631
1.3265243390181949e-06
-6.0574974966784278e-08
4.4815714750099957e-05
4.8511331095431722e-05
1.6358459358853823e-05
-0.00090694889986311325
0.00028798035413496968
-2.033151753634713e-07
3.345448959847596e-05
-0.0035021462880276606
3.1750829979988981e-07
1.1309245178142525e-05
-8.6383156844585181e-06
-2.8073550104559143e-08
-3.597057726847282e-07
-0.00012761451288373739
1.2461269185936672e-06
3.4319398520624677e-08
-0.00020431740000827629
0
5.881873948593898e-05
0.00010819604675943601
-2.4028880505028288e-06
6.2544049990168323e-07
0.00011258261805055824
-5.0137910894150741e-09
-7.3255227662251077e-06
-2.1619137145466024e-07
-1.0084661269529082e-08
-4.6528553468203562e-08
-5.0439944058777253e-11
-1.1151678981863088e-10
-2.5699452809751973e-05
-1.3298569163862083e-05
7.4870176700982683e-07
1.4779596120861278e-07
-2.9048308526089459e-05
1.2576110209110177e-08
0
0
0
-6.8127230743863767e-07
-3.2355920651412875e-06
2.983095199593932e-10
-7.5437818124886738e-06
1.2333352450116581e-05
-3.0512357429081514e-06
1.4581842807879056e-05
2.7579461718179168e-06
1.0061917320949487e-09
5.9613870950409448e-10
0.005088181348914594
0
4.5432928670136303e-06
-3.5443093848161817e-06
1.6025784366641445e-09
1.371868658951666e-09
1.6563316352050591e-06
2.1696620346273663e-08
1.6174980676445508e-06
3.4497660333308716e-05
1.551493302635533e-08
-5.5137075127302504e-06
-3.2020065875832555e-05
-5.9733726577687054e-08
1.3601422314771742e-07
-1.4124350025634678e-08
8.0880362443613177e-07
0
0
7.3920710510007548e-06
0
6.8699350186201016e-07
0
5.7841289172387774e-05
-0.00026402406103290547
-2.1681327945365261e-06
-5.6784317916543688e-10
-3.7471173373305412e-05
1.1761684345154685e-08
5.5823337814997303e-06
3.9270119991781636e-05
1.4041347944141724e-07
-5.9234516897868018e-06
1.2572298216733303e-06
-1.5391961770897183e-08
0.00026811669450304252
0.0055854905975843685
6.0295573344573534e-07
0.00085472636853144905
-6.2139925203133134e-06
-5.0409176777145444e-10
1.5759765958857216e-08
0.00057032685671571455
0.0012394709510315362
-2.5879344838111061e-06
-1.7985924360921988e-05
-2.1115203580757261e-10
-1.5065815542035599e-05
-0.00013556520317442773
-0.00042476351341973819
-1.5875856389509662e-08
1.9215011751826421e-07
0
-4.1225439057815118e-06
-0.00097390341759779459
0.00057836274087769927
2.4411304411660291e-05
8.5566092775937253e-08
-4.3255842023822255e-09
-1.3389562101152192e-05
-6.4642894578379308e-07
0.0013917358229943713
1.6879438741516594e-06
3.3345997107044049e-08
0
5.3418025687462464e-06
-0.0024194876203458685
4.3311312201784352e-06
-8.6543805087990581e-08
0.00015671142039284504
0
-4.684784362933787e-05
-6.1226021404013511e-07
1.1542815882417462e-06
-2.2940539067215002e-07
6.6925297943422395e-12
1.2291283500618969e-07
1.7932319215036739e-05
-1.4304935078110869e-06
1.605877297931808e-05
-3.4513589082743017e-07
-1.4688028570325307e-05
0
-2.4017636214274044e-05
-6.6285793647904398e-06
-7.3675589362569709e-08
2.3405986638830648e-09
4.9581567955263178e-06
1.7006009616631977e-10
0
2.6010322414073412e-05
-5.6091010361782269e-06
0
-1.2297940739469186e-08
-5.3505656021005475e-10
0.00010732652063990019
-8.3157126871589803e-05
-4.3065670907042397e-09
-1.3251690432061713e-06
-2.0658019565557981e-06
0
3.933425287887445e-05
0.001638862229499809
0
-7.276438758529971e-10
-3.4927343826137537e-09
-4.1976647286920868e-09
-5.4157413957949387e-06
3.313390222789342e-08
0
5.2149197513223551e-07
-7.0168109767555136e-05
0
3.1439210256665048e-07
-4.5131411627688876e-07
-3.7168732207783591e-06
6.1280297789405969e-08
-7.7276183843793836e-05
-1.4193954924448471e-09
0.0010901968284000756
-0.00053375368780354511
-2.1917552489066313e-08
-8.2698343307962999e-08
-3.8747369289061492e-08
0
4.5403077161283424e-06
-0.00012470375468611613
-1.2833823905208848e-10
-7.8279820915170189e-08
-7.3089454110658802e-09
-1.8406460198117165e-08
1.0769609296432265e-06
-9.5635983029044986e-08
-2.5974681590182286e-09
-3.6303689848674412e-07
-2.924699640304414e-05
1.5497227535641433e-11
5.8841299137659479e-06
2.5056292991133286e-06
-2.0982676602536105e-08
0
1.2879812876753107e-07
0
0.0022336694287818297
-7.1452478670135505e-07
0
5.9352766394866157e-10
2.9743676191340285e-07
-1.1373998414580379e-09
1.4821939502789967e-07
0
0
0
1.4152971990803141e-09
-9.3912779206034203e-13
3.0693421616901966e-07
5.7663756507755728e-08
3.8497777064614999e-07
0
3.8451561673602554e-09
0
2.947380000568521e-05
1.344556822202417e-08
-1.1977944741455659e-06
-4.6436248215790085e-09
1.0244007689414122e-05
0
-0.00010872574437509019
-5.6592243356713493e-05
-4.0442045479040305e-07
-2.8568509115844426e-06
1.7619248052391816e-07
2.736633474020605e-12
-0.00042289256952241091
-6.1873869901861446e-08
-8.2579235315820642e-06
-6.8695396231382894e-06
-4.3386651018037657e-07
0
-1.5061507822423601e-07
-1.340168023282587e-05
-1.7403001850634611e-08
2.33569301638672e-07
1.9147972300987367e-09
-3.15536940489739e-10
-6.4682712989529457e-08
-9.2198369248048339e-09
0
-9.904944703269298e-09
1.3563639940347265e-09
-2.652659404149398e-11
3.0261992010542034e-08
0
0
-1.8820256311085608e-07
7.7460493988738567e-06
0
-4.0787933543887482e-07
2.5068545567880072e-07
-2.629255762237269e-07
-3.9060443599451279e-06
6.9378212234786392e-07
1.308969940082642e-10
0.00025160192473103638
8.3651249506011061e-07
2.2714893511215258e-07
0
-1.0155551848370122e-07
0
-1.2979097513485816e-06
9.0487825043056015e-09
-3.1322036852122284e-08
-3.3409385378229648e-09
-6.6645263123579914e-11
-6.281431747928094e-10
-1.5597989924866611e-07
-1.2074482210984328e-05
-1.2202977454381306e-07
-5.9399999993823175e-09
-1.5362086476324694e-07
-6.6410150745119775e-10
6.6329559993816591e-09
2.296372605323876e-07
5.6031505132701429e-08
0
8.745514893565337e-06
-1.1914949014113044e-08
-6.2640795336073803e-06
-3.6169224966496063e-07
-3.9928504951100094e-09
6.5052404033927788e-09
-1.1150341426690748e-08
0
1.6495232022378241e-08
1.2601521911811904e-07
-3.8032624953965907e-08
0
-4.5677703597915995e-09
0
9.5703599415414075e-07
-8.1797659099276047e-10
-1.3286137045201242e-07
0
1.962494330863012e-09
5.1361356569859602e-12
1.3700942780950392e-05
-1.1962565277927581e-07
-5.5679204005948877e-09
1.4597375372050264e-08
-9.1751628359487599e-10
0
-7.246136060759863e-07
2.1566507512689142e-10
-2.2837461586733487e-10
-1.0067469326349047e-05
-2.5531113597104424e-10
2.3282463974844534e-13
-1.3744318030797146e-08
0.00023489244516728178
2.6678997906869437e-07
-4.8782454128508463e-08
-4.3136342133961781e-08
0
-3.7728193995855817e-06
-1.1619874923835003e-06
-3.4934361092371183e-09
0
1.073204247835374e-05
0
3.1221509813734889e-06
5.0583498004460269e-06
0
-4.1727695869352031e-07
1.6900570049220091e-07
2.9645503293193298e-06
0.00012057700965713992
-0.0047284910098876285
0.017453286245674611
0.0096446828074793212
0.0010853244275962901
4.3976216158782548e-06
-3.1843117348131941e-06
-1.9859461963082393e-06
0.0068527470519357632
5.0480281747203501e-05
-7.5212917650828383e-08
0
-6.3462067395617864e-06
-7.6538128568633904e-06
-3.3274224815209759e-06
-0.013283788158716385
-1.394211452706331e-05
-1.0795748219261259e-07
-1.4288290520930844e-06
1.6967000541127288e-05
-3.0239859257956087e-05
-9.7619902889150355e-05
-3.0272501195396736e-08
-6.9859160060973166e-08
-1.219537325903546e-05
-0.027498170436941392
-3.4564293194340052e-05
-7.9224366184285164e-05
-1.4029737988255787e-08
-2.2689068644973134e-05
-0.00067471851565794911
0.0039925074751248858
-0.0050726238228830933
-0.017843675755884147
7.3518083562919762e-12
4.9378670830664574e-08
-0.0054190996802871635
0.0031527291491404287
0.00099873248204734432
-9.3677650023772822e-05
-2.1826614139577098e-05
-7.8285890733210199e-05
7.4752746806931147e-05
0.0033225777842089414
0.001155965574674738
-3.5107315352140798e-05
-0.0062886959307808998
2.0317731022585625e-06
0.019598889754980559
-7.7556460703806675e-05
-0.00074267388758239355
0.0001709246900247736
2.9484672978914384e-05
3.2121937591656932e-08
4.4113315265518521e-05
0.00061200572812668741
-8.3719222741495322e-06
-4.1385247332088801e-05
0.0014678258054253814
2.9764246551619556e-05
6.4518029560653926e-06
0.0048378357845425719
-9.5399006105328373e-05
-0.0036518458482623314
0.0012421306567681641
3.9476276797912003e-05
-1.3460780076483857e-05
0
0.0066925679008514585
0.001630465759819409
-0.0016208372546386257
1.2203795854555811e-06
-2.964583809617287e-05
0.0029864636651838659
0.0067375700868630107
0.0048254823533235248
4.1980428732926206e-07
1.2896586125321553e-05
0.0012742728215878751
0.00024504126851104645
-0.001354112642385407
-6.6739785248409102e-06
3.2921346855728056e-09
-3.539049501868787e-05
3.2713289931142689e-05
-2.2211217469526783e-05
7.0435086826856657e-05
1.1111545944908289e-05
7.7349983193808622e-08
5.04496412101393e-06
-0.001049753034592895
0.00060175489715558563
0
0.0025681238010708892
0.0043085993183604957
-8.1236446103910559e-05
0
0.00031162246206713733
7.195149357653963e-06
9.2002101084677329e-08
0.00017767373519851469
-7.1246115651655328e-07
-2.9369366689022652e-05
-0.020159604755784082
0.00032732018785313054
4.8343563443788901e-05
0.0030085149838780258
0
0
-1.8187956436388663e-05
-2.9000266027560214e-05
-0.003668327858174808
0.00054860888722136757
-1.4904780876573887e-07
-0.00012851107623145883
1.9140091908361845e-06
2.8924290491000222e-05
-2.6036730625868097e-06
4.228113504937519e-07
-6.768506986400557e-07
-0.0011297265135471557
0.0065453664866127487
3.1594390900149496e-06
-0.0010563392340204516
0.00086288257496399334
1.6850842219732404e-05
0.00011696055797352363
0.00025463698594791709
0.0010090242564451831
8.5306290646365085e-07
-6.9890969330754562e-05
2.2487229541996112e-05
8.345241699326908e-06
7.8999197513165681e-06
-5.4387698371199592e-07
-2.1474084008833071e-06
1.4844659761991847e-10
8.4616404891112656e-06
-0.0069253134686420702
-1.0658805106117808e-05
4.2519802294846116e-05
0.0043441743922338185
0.0084271410193133833
9.8613984323906422e-07
-0.0028756135758446189
0.0023731238836496205
-0.0011596479198760527
-3.1360587446051796e-05
-0.0003835616305550571
-9.8778159409498324e-08
7.3216573865031421e-05
-3.1710431134916093e-06
6.9994006288388714e-06
0
0.0003977787157800902
-9.2343331685006656e-05
-0.001475472293322838
-0.0044655741103344949
-2.5031468018691567e-07
2.3935082532243345e-05
0.00031241487212536781
0.00041556358491302489
1.1168244926504052e-06
0.028060403235735231
1.0746409194053771e-07
1.0764430917478176e-07
-1.3766163645023373e-08
-3.2989457122147187e-06
-1.2995920190929895e-05
0
9.123915651075961e-07
5.4623826059615873e-06
1.6586269127694811e-09
-7.7030681851796784e-08
-5.6148161319075215e-06
-0.00048013198866791941
-1.1117619151523619e-05
-4.4193494680568872e-06
-0.0016228651751746999
0
0.0022188225593781515
0.0034380326771866858
-1.5065562214957783e-05
-0.00012069603771554371
2.4055970816257014e-05
1.4864290769616672e-05
-1.725199967027189e-05
0
-1.1906499692059236e-05
-4.7898482201334378e-05
1.3493520649823432e-06
-5.7408997309201971e-06
0
-7.66856233400651e-05
3.2770537653780238e-06
-0.00041636708697514465
-4.4420291390059283e-06
-2.1607748964794318e-07
-6.0514128128241758e-05
-3.8996183489749671e-05
-6.3952878969288399e-06
0.0013170238635914443
0.00071105590951850829
-5.0986083884878538e-05
-3.9617321825265131e-05
-0.012862161367782654
8.2921344365105212e-05
1.3000169732799444e-05
1.3043381087456664e-05
-4.0881182172899789e-05
1.9305584567585812e-07
0.00029841435772268583
-3.7669625203644909e-07
0.00014690987571291622
-8.0504915397428066e-05
-6.4284123861655426e-05
-0.011778109870149066
9.0518854474352714e-05
7.3723106537062225e-05
-9.778561321890089e-06
0.00018565806492791773
3.5102011656390582e-06
0.00011118406308677449
-4.0751336204201897e-07
1.0084661269529082e-08
-1.4221282813082782e-05
6.6101501777594641e-11
-1.1151678981863088e-10
-5.6293231202321886e-05
-4.0633920646818047e-05
1.2148666865576807e-05
-5.5735107080729592e-05
-3.9603882769539888e-05
-0.0013390615993624929
1.9305270072527482e-05
0
2.6558452618289567e-05
4.3514626701616855e-05
-0.0066272246649517145
0.00043185701576673412
0.0004245880753583985
0.016977275938668816
-1.4099858421824688e-05
5.2532110234215803e-05
-1.3631107206663569e-07
1.3096228609001729e-05
0.00018476667701106906
-0.0054196494231542082
-2.2598632226205805e-05
-5.6490053518743375e-05
-0.00057981974898123714
8.0223463295330527e-07
-1.0260765440177183e-10
0.00034690199181197813
1.7731169244623805e-05
5.4924898491477457e-06
-2.5876247702984969e-05
3.2454627176602832e-05
3.7811937290461263e-05
2.9137238042229803e-05
2.3560205232015256e-06
-0.00059659172240332503
3.6804807377468446e-08
-2.5054424164701748e-06
0.022661018503728071
-2.2142932264289813e-05
1.2078036200744773e-05
0
-1.3021474742882763e-06
0
2.5066169866141695e-05
-0.005526539150631977
-1.4328546917124142e-05
-0.0025072773071031992
-0.0001149189166334051
-0.00053663670061014407
-0.011621309306389504
-3.9270119994197103e-05
-6.8019426176294762e-05
0.0023910078496633407
1.351541074703838e-06
-4.8175881958253801e-07
-0.00017605073398088063
0.0036406540361484411
6.6718138671346831e-07
-6.7839803875191686e-05
7.5705694255623794e-06
9.8102725713701329e-08
0.00026791928568910663
0.0019700274284533735
-0.0012395304468649515
8.9791352023779001e-06
-1.7985924426241306e-05
-4.4234804511459233e-12
0.00024358428907558026
0.0014322105480813025
0.00054576457464395743
-7.125970875803906e-09
-0.0014323234663540887
-1.0542755872954738e-06
-8.3024869509278255e-06
-0.00097392780675315265
-8.2798982404720726e-05
6.7201835011132906e-05
0.0012781858052567012
3.1473072403026711e-06
-6.8542721305914891e-06
-1.5867000159806442e-05
1.3055752480224926e-06
6.8022024252895087e-06
-0.0071801200530481873
-5.2216415615722334e-07
-5.1853389984494255e-05
-0.0063769647463277138
3.665791352235034e-05
-0.0011050425092063079
-0.00088639336703308553
0
6.4303293018740251e-05
5.8237023543313217e-06
1.0296086985287123e-06
-1.1750897890650117e-05
0.0082990512752134423
-1.2291151279971796e-07
-6.6840561953818362e-05
-9.7176655632232769e-06
-0.0079333229702793374
9.4620008863750834e-06
-7.9623926177097729e-06
-6.269354917937399e-06
-0.00022185122655227562
-0.00021755049888134235
0.00018112285480413064
-0.001462724373195528
-0.00010839171813798117
5.0451347731680302e-06
0
0.0021763065508682211
8.4122100666312707e-05
7.4344101190994513e-06
2.9634443546338579e-09
-1.0679523565882115e-10
3.5893700206408422e-05
-8.6735848129403217e-05
-1.9525180843365849e-09
1.3670688331559278e-07
2.0658019559358018e-06
0
-2.8897953620161095e-06
0.001636092552715844
0
-1.870777246461136e-08
-5.0492021958266658e-12
3.1354693448658767e-10
-3.555673055107147e-06
6.1890290605572865e-09
0
2.6709671906021364e-10
3.2929252470852759e-12
0
-2.9101437773057196e-07
-5.9435643659156307e-07
-3.9543975282402037e-09
4.045030729807684e-09
5.5241057239504569e-14
2.2386156087500311e-10
8.8535334912955786e-05
-0.00067983117067364795
-2.5075076872173781e-09
0
1.4234852400239226e-08
0
0
-1.6237320436703082e-05
-9.2270541713350935e-11
3.3199671837292582e-08
7.2733943451291354e-09
1.1566389100403393e-09
-3.4505478659019231e-07
-1.6558777204087986e-06
1.0042860547074059e-09
1.3564710458457786e-07
1.2226022897242225e-08
0
1.732285599061625e-07
-8.0632607319398079e-06
1.2311433571124567e-08
0
1.2952562444752594e-07
0
5.8871996837152845e-06
-3.9536581644633544e-06
0
-5.9032688174276411e-10
3.6704096110302115e-07
1.1832744008296929e-09
-5.2079916628279476e-07
0
0
0
1.9647402379112263e-08
1.9627045957343196e-12
-2.8546018360796919e-06
1.0659802681730547e-07
-1.1470022003317967e-08
0
7.4375197929371752e-08
0
-1.7465069978597461e-05
1.4838868888271447e-08
-2.514262795170181e-08
1.534416304904858e-09
3.2063152693232091e-06
0
5.0306859296071143e-07
-0.00012789535924185398
5.448065052515287e-07
3.5744677336084993e-09
1.4761911834952626e-07
2.736633474020605e-12
0.00017370275337434668
3.3646424724315593e-08
-7.9553463777442267e-06
-1.1782350529515289e-05
3.0300090622085956e-07
1.6929804130051156e-10
-1.4905208869650522e-07
-2.8945779356891839e-05
-7.96949942700405e-10
4.3832269362939461e-07
1.9370440230738841e-09
8.2251125427776981e-11
-3.4807271500581403e-08
2.0946813948187838e-08
0
9.0035786562329511e-09
5.50004863184549e-08
1.0390433430513243e-11
1.6617507418599688e-08
0
0
3.1915867798568962e-07
7.7468255769878443e-06
0
1.2827060099155157e-07
6.4650689864820076e-07
-1.6293712391000544e-08
-3.8894407198214233e-06
6.9389083077422075e-07
3.0871518685231863e-10
-2.0207563521966157e-06
2.3560195047379518e-07
8.8125585429098199e-11
0
1.7444877705095363e-07
0
1.5115817761171256e-06
1.1336039305745457e-08
-6.3206876630635047e-10
1.008722001135166e-08
2.2598985450302171e-10
2.8977400251038396e-11
1.8292297381545748e-08
8.7972996237433564e-09
2.8524156726490389e-07
2.0864928098893938e-08
1.3051803446189752e-07
1.3338536863265499e-12
-1.0544584668528899e-06
2.5180043336964724e-07
-6.5173218057784317e-08
0
2.955184620138106e-06
1.4119040678670873e-10
3.2766064891102102e-06
9.1664276361513613e-07
-1.338449932390127e-09
7.86901718076646e-08
8.4707145210006518e-12
0
3.6598608459969956e-08
8.8999663275508923e-07
1.6848549546283989e-09
0
1.2396489131508394e-08
0
0
1.111847637457661e-07
1.0647310568249868e-09
0
2.4959833645911961e-09
4.8936581957870784e-12
1.379175177157465e-08
3.823685974981192e-08
-5.7678088576140753e-09
1.3590971024564088e-08
1.2696097478128797e-09
0
0
-1.4641687172171193e-06
4.9322631853840226e-10
-9.32610580784134e-06
5.9364739656264064e-10
2.3282463974844534e-13
-6.4001236920363311e-11
-5.9307073772321131e-05
-1.5363400270668268e-07
3.1050451225034907e-08
6.673638571661051e-08
8.5074634613249291e-11
-1.3815456585557911e-06
-1.9513860868260362e-05
2.9034263792148838e-09
0
1.7066019189378983e-08
0
-2.7325240693551203e-06
5.0583498004460269e-06
0
-4.0685441993232107e-07
1.6900570047473298e-07
0.0014052034100306688
-4.7983032453744158e-05
0.0062930065487662905
0.00042071726129298424
0.0052724813149331567
5.4717274404327262e-05
-5.1283902635816912e-06
-0.00034871532826944454
2.7143132093312233e-06
0.0068499382327722519
5.1381824809342186e-05
6.7237892933867776e-08
0
5.4301983989176683e-06
-1.3023670176306261e-05
0.0005088379625611438
1.6429852776771532e-05
1.394210919049444e-05
5.1089054275236347e-08
5.7764281241996059e-07
1.7011310766255903e-05
1.2505273683867164e-05
9.7622090069618425e-05
6.4028339742613963e-08
4.3941148312683639e-08
2.236542207598465e-05
0.00026113070989281564
0.00019647876204159412
-9.9210462777461666e-07
1.4029816462339805e-08
-2.4458781475325581e-05
0.00019930971340748624
-3.722310189942849e-05
0.0061634689944126721
0.017869719224826296
7.7353245308083948e-12
-0.00085119328830457139
-5.1547998198241396e-05
-0.0011061262023192577
0.00093052497283225861
-9.0776974088844824e-07
4.1580995012469186e-05
8.8606918057030149e-05
7.5359604365195972e-05
0.0012439809213505184
0.0014877960103107761
6.9627213722383867e-06
-0.002602412413332741
-9.6823518075761171e-07
-6.2840989234688822e-05
-7.46659081462765e-05
0.0022118794360332251
0.0001965965614550196
8.5539490423811691e-08
5.411298951046444e-06
-1.576414966701286e-05
-0.0019996061348415551
0.00032700391713309031
-0.00019406947539036453
-6.8769762127876831e-05
-5.2003867060078927e-06
-1.2922817552744192e-05
0.0011858992536018474
-8.6769092245124973e-05
-0.00031079164831700158
-0.004871501779105755
0.00041241532906488636
-5.2904646260810507e-06
1.4104567010987544e-05
0.0025209740273205053
0.0016444941904192657
9.4816554763811856e-05
-6.6268473059730213e-07
0.00024808790919798028
0.0029877136690123407
0.00069513461464060927
-0.0061455668567282577
4.9259406058103379e-07
2.788419580935734e-06
0.0022360642317052954
-2.266860429594685e-05
-0.0012405419687710932
0.0027460956546617528
1.3216368984478736e-07
0.0001785656006844682
3.9581931910188889e-05
5.8657466615998679e-05
7.0438100073250243e-05
-1.1063654943038854e-05
-5.6572602928088096e-08
-2.0565774354641774e-06
-0.001096022943579085
-3.2752370880486154e-05
0
0.0037276988874114974
0.0038640134740341356
8.0272180850730897e-07
0
-0.019237867668298717
2.9920953689889815e-08
7.2544604837548599e-08
0.00024873568721965335
-3.6863134550472009e-07
-6.1004944418085772e-07
0.019986384482429231
3.5936662002069959e-05
0.017052802803820166
0.00089613828705637606
0
0
-1.0202229859780916e-06
3.3886453906278578e-05
0.00040559604433976638
-0.0003651951888385924
3.3262985589391423e-09
0.00010962311534466178
1.3212663370812098e-05
7.2952464576655333e-09
-9.4218003190266656e-06
-1.3618710140927853e-07
-1.1120964634418192e-08
-0.0019934156059095934
0.0066698032940286176
-0.0036037451865806175
-0.0019795653051506747
0.0025574828560415343
-4.312296245189084e-06
-0.00047556937545120573
-0.00044663104445622414
0.00042717100877933333
8.8189574842886933e-05
0.00010904708459649069
1.0803285718339847e-06
6.9920898448358609e-06
7.8999197513165681e-06
-2.7052257022656103e-06
2.2412711504571718e-06
-1.5537288952285157e-10
5.0566085790156293e-05
0.0070567630151558156
-4.4617329416495958e-07
9.5796467605353485e-06
-0.003760186408320181
0.0062804689130403187
-2.8992681527166975e-06
-0.0046390773237633444
-0.003235112580611993
0.0011622251101850785
0.00019599017757522129
-0.00010365506329531639
9.5896348748354475e-08
6.6463101245123319e-05
-2.060998936520488e-05
0
0
2.2283706878019469e-08
3.6268227949273766e-06
0.0011928549859293773
0.0025152294795777997
3.905473305989017e-05
6.637191200068183e-07
1.2107228351124733e-05
0.00019607370378685654
3.461336189850242e-06
0.0046375770875322136
-1.2319859571642899e-07
-7.1992197702916163e-07
-2.6529344787359016e-08
4.1555999080994855e-06
-1.1053872247069029e-05
0.00015676456405132075
-5.9669993511461819e-07
-3.9777422807421983e-06
-3.4305828448921957e-09
4.3926088179063834e-07
-7.3393425613324832e-06
-0.0074967263991536064
1.112992583163204e-05
-1.1272890054657169e-06
0.00104027681666057
0
-0.0013557905187892025
-0.0014667750408474734
1.0341179772587687e-05
-7.900141907992194e-05
0.00055245487594109209
-1.4353620958133318e-05
-3.2375461342945353e-05
0
4.0624794777638257e-05
5.822792155459574e-05
6.4906370980744779e-08
5.434230617819689e-06
0
9.0512983562924306e-05
8.5683350966298084e-08
-0.0012398995929395079
-8.409503226345317e-08
2.1607748964794318e-07
3.7682829616848936e-05
2.4500106893180453e-05
5.0801086643979928e-06
-0.0013170756775287464
-0.0007260672197339171
-7.5074140649447743e-05
-4.2143122858567727e-05
0.0030600605835301932
-8.3369781259888401e-05
9.76451702914364e-06
3.3698401552044835e-06
-1.2004348597854734e-05
-7.0123102776283041e-07
-0.00027820471915825692
6.6623301100810135e-06
-0.00020933930008180818
0.00016693180895095672
5.814742879425974e-05
-4.7303569179920437e-05
-4.2181270929359298e-05
-9.2301598176323181e-06
0.00029120202427937111
-0.00020273682366771559
1.139272678248876e-05
7.8595765150998285e-06
1.5459716692609346e-06
-1.0084661269529082e-08
-0.00011032177549948398
-4.3660892801843682e-11
4.7324492387422097e-10
-3.0398337890984529e-05
-2.6396358856363224e-05
-8.6762004798244193e-05
-8.7009224379810095e-05
-4.646305031036901e-06
-1.8419335972875185e-10
-1.8389505461885756e-05
0
0
-5.5690146598608424e-07
-3.2341672469648801e-06
-0.00013813473253744307
-0.00012391972140031671
-2.8840266770330667e-05
8.32856269658565e-06
-5.2273943532106408e-05
2.7579461734674368e-06
-3.09237113701504e-07
5.958802468176574e-10
0.00023702079336041104
0
0.00011383410406288393
0.0010497486343163838
8.0323521486871894e-07
-9.9068725923190827e-11
2.1213823706646777e-05
-1.12959863895023e-05
-1.9837610021617322e-06
-3.0929668382230559e-05
-2.2196296580234777e-06
2.8937173505034851e-05
5.807775220573454e-06
-2.3560205232015256e-06
-0.00053034717373828875
1.0564378227543479e-07
-5.5797503267063292e-05
-3.5778293939646917e-05
-4.7305661880570272e-05
2.7512779640116891e-05
0
1.1364468801075139e-06
1.9650064114995595e-07
7.3427034584551952e-05
0.00028235844482904634
0.00023274355174396461
0.0020453149592042866
-0.00011491953969444506
1.6980625831720438e-09
0.00013945443151819315
-5.6826724500132625e-06
-1.5604619306308945e-05
-0.00018121356659716399
-2.3130852772168385e-06
-5.3912813294823553e-07
0.00061129673207313616
0.0056292947542180404
6.3180052849857083e-07
0.00085467834126348307
-3.9489501422777947e-05
2.2989649742394781e-07
3.4057780032729925e-05
-0.0028365533727614579
-0.00056535818677657366
6.3724736711712187e-06
-1.0722725598108426e-06
-2.1115203580757261e-10
-7.6202420808270648e-05
-0.00091468349129488142
0.00077315500460620049
-1.358065100178045e-09
-0.00078946610844640903
-3.4626902598773163e-06
1.0388920510275039e-05
-0.00089390502703017591
0.00057170156990370223
-0.00014209856565594185
-0.0042167969363127418
4.0391140538038834e-06
-0.006768867802870334
1.5867000159806442e-05
-0.0013907525436399892
-1.4602475817634141e-05
-2.9061310457391127e-05
0
1.6828490553763306e-05
-0.0024158781778279566
1.978788470916027e-05
0.001045405542706818
-0.00088639535040877686
0
-0.00010861744538135314
1.7921753448094273e-06
-1.1525601081576535e-06
-4.3495233143413629e-05
-0.0051071310146948729
1.0466990964850103e-05
2.1558131718083549e-05
1.9088164272712875e-06
1.0648256136528322e-06
6.4642612806192813e-06
6.6714176218426517e-06
1.4197223989952822e-06
0.00012762797390826827
1.2433466119905699e-05
3.6154574341487374e-05
0.0011842437808663687
-0.0001550875995191951
4.6037091586423907e-06
0
0.0056129215360814725
-0.00013822237311079751
7.4344101190994513e-06
-2.963441891850048e-09
-1.80753312116769e-10
-0.00010729584765502586
-8.5002922278664853e-05
2.1214616903241734e-09
-2.9854674078837327e-08
-1.1208159701603851e-07
0
-2.3450084425186649e-06
-6.1641849865388423e-06
0
8.62764802809241e-09
-3.4877000814034751e-09
-5.124370637129506e-10
-1.4374828105430408e-06
-1.6787163409389607e-07
0
-2.3575139999905647e-10
-4.4968411373470628e-05
0
2.3161789777472439e-07
3.9470624529842919e-07
-5.0417463606997516e-09
6.4347894402522846e-09
3.2163569552161071e-15
3.6721974433516815e-11
-0.00013100314554521689
-0.00053336289718439623
-1.4005356108432851e-08
-5.8866991658859894e-08
-3.8746442766151118e-08
0
0
9.3226540784929005e-06
-1.2833238947373837e-10
1.0240213891192252e-07
-5.0185857328661786e-05
-8.5720196357514351e-10
-1.2408653122917725e-08
1.6373247183966243e-06
1.5881675496966116e-09
1.681684770102013e-07
-1.3524805172203811e-08
3.9373743219966148e-11
1.2739886743551031e-07
0.00013836649616054669
0
0
1.2473837802349069e-07
0
-5.8797745889145175e-06
-5.3619480979963604e-06
0
5.7233993612331585e-10
-3.6693292151807613e-07
1.1414184781665712e-10
4.4340585998158163e-07
0
0
0
-1.9647402232045354e-08
-1.9627045957343196e-12
1.5888082893010151e-07
-1.0820972327906603e-07
-3.8973546557980195e-07
0
-7.1066102071518018e-08
0
-3.8659636845765718e-06
-4.3692347159314906e-08
-4.4881792691536999e-08
1.396823503006975e-09
-2.5474974612725254e-06
0
4.7280074837612293e-07
8.078571049765006e-05
-1.487310061837574e-07
-1.3946116722525892e-09
-1.5106455999024136e-07
-2.736633474020605e-12
-0.00047678993753168524
5.0826572674539166e-08
-8.4796530611366842e-06
-2.1650302347023899e-07
-6.1409667221180845e-08
0
1.8201384112207122e-07
1.6274038357277472e-05
-4.5872587626225484e-09
3.447381404872321e-08
-2.7539489634880671e-09
-1.1144580009705516e-10
1.1255672655390471e-06
1.9517309342602769e-08
0
-8.4813940482199345e-09
-3.1483551584212486e-08
0
9.2008848571709326e-09
0
0
-4.1895051238041488e-09
-7.7468254709842323e-06
0
-1.8049380826012243e-08
-7.6180640324107605e-07
-9.8838855948009445e-08
-5.2214946963304836e-06
-4.0154593835195106e-07
-1.2508137076697135e-10
1.3858856992077179e-06
-9.8782693380469164e-08
-4.910439156661417e-09
0
-1.108568011903197e-07
0
-1.5430670185210136e-07
-1.6541323874343291e-08
-2.2079548879863155e-08
-1.0321795510059653e-08
-2.8055581065004181e-10
-4.8804020098193397e-10
5.9812020747426637e-08
1.9392360639871245e-08
-2.0015160896112642e-07
-2.0599286207622492e-08
