0.50012816973709007
-2.0392248164332055e-11
-0.0032485909659511897
0.030742130053188734
-8.0806843519298989e-08
-1.5367449977024096e-06
1
1
1
1
1
0.5000045191152519
0
-0.00010545227763505426
-0.0073691789397177581
-3.7582496344720672e-10
-1.6499862000063841e-06
1
1
1
1
1
-8.4308783065638598e-07
0
0
-4.7598408882217632e-06
7.4198281075221524e-09
-8.6566212916281064e-08
1
1
1
1
1
-0.0022722903438647329
0
-3.5787670604910654e-05
-1.3315678457094005e-05
-1.0442469010296674e-05
-2.420352937147158e-07
1
1
1
1
1
-0.00028752526635208265
1.9124248912702324e-10
-0.0049311613741390573
0.014406362538014408
0
-7.8661431660050678e-06
1
1
1
1
1
8.168038699560047e-07
2.4150979867012443e-10
-0.00026303233734312176
-0.0023289361794219792
6.6786296365496187e-08
-1.3477841609272517e-09
1
1
1
1
1
3.1948522342437688e-05
-1.9126347326139726e-11
-6.0714702897096903e-06
-0.0018290707634355024
0
-6.085928200387983e-10
1
1
1
1
1
7.6406240261703938e-05
8.1983066630314364e-11
-0.00032994140347774703
-2.8807050985349914e-06
-5.7780875984716055e-10
3.7009362223399004e-08
1
1
1
1
1
-0.0032528698046424913
1.7311499927906233e-08
4.8113313105070283e-06
3.455662564268675e-06
0
-7.416796647920971e-07
1
1
1
1
1
-4.8198496921143761e-05
-1.2412857871818464e-08
-0.00024139668592648567
-0.00019093232986629272
-5.2387148579292465e-09
0
1
1
1
1
1
2.0801566776447694e-05
0
0
-0.00010028933471153041
-8.190675332316255e-10
0
1
1
1
1
1
9.6305977482098946e-05
0
-1.5830738203103649e-05
-0.00075433128707402711
-0.00034658945023585902
4.9030758416209471e-10
1
1
1
1
1
1.3809891625839016e-05
-1.8291987826103903e-11
0.00024345836721675852
-0.00037581570641539546
5.2389788023544955e-08
-1.4472645563331865e-07
1
1
1
1
1
-0.0027653607385406185
2.2731970615166196e-09
0.0051010334284570559
0
0.00015928526642365522
-0.00024474525806290025
1
1
1
1
1
1.8250033468893352e-09
3.190590642901774e-11
0.0092384224297101178
0.0015716370434377856
0
-2.7244892220053366e-07
1
1
1
1
1
0.014757071085977159
0
4.075250552489391e-06
-0.0013770527617983639
0
0
1
1
1
1
1
0.00021233150212853646
0
-1.5377435051363002e-06
-8.029280305482929e-07
3.8497851937302333e-10
8.2153969383212253e-08
1
1
1
1
1
9.0150706513159211e-05
3.5471317217602538e-11
-9.9595475915202912e-09
0.00038940260429100711
5.2121123908742433e-09
7.9758859408335286e-05
1
1
1
1
1
0.00013290571347611971
2.6119533405530302e-10
-3.9238249554638196e-07
-4.5116893304335263e-06
3.877968894336092e-07
1.8790900911548608e-08
1
1
1
1
1
0.00025356496839981646
0
4.8454040717949223e-07
-2.4107488036558667e-06
2.7869202696959469e-08
0
1
1
1
1
1
2.444417324250917e-06
0
1.8971210142148581e-05
5.1914165569152378e-07
5.377962583675234e-09
0
1
1
1
1
1
1.915796745100815e-06
4.2342682021622033e-09
2.6205634611601597e-09
6.8608666380729093e-06
4.4577738967022847e-08
8.4961345974933552e-09
1
1
1
1
1
6.9546943375628173e-05
3.1073224539507341e-11
5.8867060324616708e-06
0.00011690234850199958
4.2954392756768145e-07
2.8386920958493655e-07
1
1
1
1
1
0.0059910708979450389
0
-8.3403834523431573e-07
0
3.5195320234033908e-09
4.3823029087773356e-09
1
1
1
1
1
0.00022211159929647073
0
2.9134460763543093e-07
-1.2386340677306279e-06
-1.7196102926564239e-08
0
1
1
1
1
1
2.0149286078979088e-06
3.0190333640885e-09
2.3222060083958115e-07
-0.00010518953615437856
6.5057029651452213e-09
8.055808891444077e-09
1
1
1
1
1
1.1952418947922489e-06
1.7505028239201095e-09
-7.8431146005498812e-09
0
5.5558103887789966e-09
-1.6765496037194006e-05
1
1
1
1
1
6.9353359066341173e-08
3.9817327403361649e-11
1.6791910212483549e-05
-0.00015428818291380347
0
4.9404898936186115e-07
1
1
1
1
1
4.0519303809130893e-07
3.2457557933670216e-10
-0.0035546742433673912
0.00010032176953203588
1.6683287371927861e-06
7.3713180501391121e-07
1
1
1
1
1
5.0444944736016622e-06
0
1.6518815212649715e-05
0
0
3.1480441893015474e-06
1
1
1
1
1
0.52848521241749546
-0.00689530174749888
-0.00018858891524247055
0.0043604756061010001
0.049857452156983825
0.018354998660061066
1
1
1
1
1
0.83691760477540034
0
0.00031692023938191191
2.2627121017182375e-05
0.013579822269629071
2.8125959380683516e-06
1
1
1
1
1
1.0295738470700151
7.8512727939128053e-05
0.0072002949903791011
0.063480484720865343
1.7702162274378103e-06
-0.0096570077933340447
1
1
1
1
1
0.85655864131641435
0.0086594274283042175
-0.063041428788480777
-0.028473401246950615
0.058414315602770821
0.0025677151738682873
1
1
1
1
1
0.82063476719094963
0.00011547860003763925
0
0.19496705289773444
0.093083007153779887
0.00093848412949212509
1
1
1
1
1
0.87724357094212913
-0.0072039444074207069
-0.0080243372627258926
0.00030001586956481181
-0.017734651155250743
0.0073833734078265871
1
1
1
1
1
0.81725188030050888
-0.005969372039943634
0.017882835824221139
-0.023617100245674576
-0.027938374369596553
0.2189201058146969
1
1
1
1
1
0.73837639942382771
0.00070471382844212646
0.000250693463285345
0.061363502178838153
0.0072418161247070926
0.051408730484568843
1
1
1
1
1
0.8164727201448353
1.0654312776426485e-05
0.12045792783967585
-0.00029866017343771213
0.029419904544702412
0.019167698228254766
1
1
1
1
1
0.85232092728608733
-0.0018280836561916473
-0.025778669479637025
-0.013770800821728464
-0.086929114909493357
0.17735803665823616
1
1
1
1
1
0.56925321154551023
-1.175251867826304e-07
1.2943352078351716e-05
-0.015132284376301621
-3.0417601213412273e-05
0.13897415575908195
1
1
1
1
1
0.92907838702792966
0.0022832319705466506
0.0011747894947306205
0.11635901018174304
0.07005487021365274
0.003429303589808873
1
1
1
1
1
0.66379906191408278
-0.0015381881594989689
0.003568119748642724
-0.019266612325156505
0.1175269574805667
0.0072931685904731522
1
1
1
1
1
0.64204458347063265
1.2020834764335224e-06
0.052598133132665204
-0.04114033940706599
0.080761654916633466
0.064861255012150856
1
1
1
1
1
0.61449530356885318
-4.5558667691389455e-05
0.056274467835095855
0.08985260114665837
0.0010709394809139644
0.11157643303405876
1
1
1
1
1
0.78299848484268608
-1.2174383913892114e-07
0.060836212992785181
-0.060385200603080051
0.0010863634089178461
0.13777364056179947
1
1
1
1
1
0.59373214930372897
-0.0060383449899794744
-0.00041440246278507488
-0.082198910732622837
0.11383676260978187
6.0136017466024612e-06
1
1
1
1
1
0.71856718568682265
0
-0.11566434368792478
-0.020992131815359385
7.7853161019191786e-06
0.067891233818422325
1
1
1
1
1
0.82748685600342964
-7.0833199552143007e-07
-0.00028837729898299595
0
3.2309037267200521e-05
0.11936457933694354
1
1
1
1
1
0.52360880855935454
0.00073365264915473344
0.10783866030735723
0.700013854946406
0.00011661621947536141
1.0996190717166021e-05
1
1
1
1
1
0.65822030625758776
0
-0.0066531404712454334
0.0065760931996271818
0.15213894158320979
0.065783992656929247
1
1
1
1
1
0.90000371588117223
0
-5.4284600279929769e-07
-0.04455954053279506
0.00034366569052787587
-0.00019817602598475205
1
1
1
1
1
0.64981756233069465
-9.3143169000950291e-05
-0.26758817206603502
-0.13170538801630421
-3.3200923970468028e-07
0.016002078800420264
1
1
1
1
1
0.77733454162229476
-0.00046822915960467601
0.0072047494043810997
-0.37089493810496205
8.741397646078995e-05
0.013012341075676328
1
1
1
1
1
0.85158459659574859
2.5690769185609891e-06
0.26184895292875793
-0.067977383480082212
0.035385539579040816
0.0040627974217776804
1
1
1
1
1
0.72188731932557071
1.4055431215082902e-06
0.065004805335285187
-0.093572607714085626
-0.00011774377969642158
-0.0002158162065098708
1
1
1
1
1
0.74358640804310849
-1.394610927316815e-06
0.0022250586302420871
6.7637095643527127e-06
0.061666866061870204
-0.00049594554723176752
1
1
1
1
1
1.0363378349458705
0.00050896422372029813
2.2588555417308948e-05
-0.025648225349891102
-0.024962067886910331
0.31675754049507421
1
1
1
1
1
0.80257582766861724
8.6676721319557749e-05
-0.19852979063712675
-0.23679055472553873
-0.13434464265983365
0.0031051013716845949
1
1
1
1
1
0.17008911675689201
-2.4768924801319819e-06
-2.6024092386686954e-06
-0.085280928530436714
1.2014773414485258e-05
8.2531784912124825e-05
1
1
1
1
1
-0.034089742218912165
-3.5245879535564322e-08
-0.05540972636802205
-0.088132114319714877
-1.8871539339503707e-06
0.024540407270890408
1
1
1
1
1
0.078923996604741517
-2.3565039001598321e-06
-0.0006446265952222141
1.9545062103854491e-06
-0.0014246602410791513
1.6335006583397399e-07
1
1
1
1
1
0.090101447987353395
8.9568019491628547e-05
0.0020986627434634881
0.00062141373351112003
0.02615652596113115
0.0071330264539077202
1
1
1
1
1
-0.053542315759696653
6.9468228646868848e-08
0.00047917785770813163
0.090153202064974444
0.0003942535732115911
-0.0026328409618819357
1
1
1
1
1
-0.011171072432367622
-3.8868128066550265e-05
1.6588262372671191e-05
0.070878633637143335
0
-2.2004214178316824e-06
1
1
1
1
1
0.024547901927888031
0.00057813735858981512
0.10725380175076793
-0.0005405592646900646
-4.9904526371363977e-06
1.3465191954759277e-05
1
1
1
1
1
-0.13859860847084396
-2.7005398951762419e-06
-0.042799476147035338
-0.00032576695644336766
0
0.0050458933791347992
1
1
1
1
1
-0.045257339759807023
8.1695944728178662e-06
4.6242314680363004e-07
5.7270913177501791e-07
-3.901350218992012e-06
0
1
1
1
1
1
0.049148849626330725
1.0221398878327019e-07
0.00068597768630266536
0.0011148298386965318
-0.00068939831863765102
-0.00016170077200108318
1
1
1
1
1
-0.062920770446949395
6.8366319446881067e-08
0
8.6272708406046852e-07
2.1175117376164106e-08
2.2470412981033282e-06
1
1
1
1
1
-0.027478630243666886
0.0029313047413628739
-3.2202301179680812e-05
0.11864288354812898
1.1662438820075101e-06
2.936565475433817e-06
1
1
1
1
1
0.0051374835312245027
2.8454602776453225e-05
-0.088247411769022163
-0.1066630504129794
-1.1310211504351973e-05
-0.00011639336764829487
1
1
1
1
1
0.032354488168682451
5.4913167464142819e-06
0.054421998764234709
0
-2.7697257919475503e-05
1.8153832396104426e-06
1
1
1
1
1
-0.10311573080341954
1.1197141604874866e-05
0.00013413577798735435
-0.019883005792182027
-2.4683449933578304e-05
0.010014893582705504
1
1
1
1
1
-0.00061008455515027666
1.1800771122676498e-05
0.00032672792036999736
0.080610129778212289
-4.6303419066553339e-06
1.1859521644727556e-06
1
1
1
1
1
-1.1929897651339977e-05
-8.8454383259090081e-07
-0.11428995813523957
-0.17675798263415066
0.00036905423786588243
0.024067833644208603
1
1
1
1
1
0.018020027121662448
0.0010381799030094998
0.019681611657725053
-2.5166241733618859e-05
6.7871880126513431e-07
0.012470510656785843
1
1
1
1
1
0.064935472384369877
0.00013223448890372638
7.6904262778844834e-05
-0.026406101849814002
7.8367074998009248e-06
0.00071555332756677228
1
1
1
1
1
0.0028730826033481183
9.6789227714964141e-06
0.0032233341681730289
0.0063015996836492724
-0.035059910616486348
2.4466395713897844e-07
1
1
1
1
1
-0.054248851666282585
3.2868099636529457e-07
-0.021873937265543795
-0.030958607676691483
0.0017769247942393818
5.6408115139842658e-06
1
1
1
1
1
0.050304501102391611
-5.777076669725527e-07
-0.0011122160640877562
0.038626496373058754
-0.038442355615148235
-2.392418737553027e-07
1
1
1
1
1
0.044474804054134787
-5.943594954321538e-05
0.0038620734522387765
0.21907354031775303
0.0012151648930730397
-1.3566233220278732e-05
1
1
1
1
1
0.026877014761769513
0
4.9479053536137981e-06
0.010195677886924569
-1.5056396757863734e-06
-0.0042369183723536428
1
1
1
1
1
-0.021724436215369111
0
0.038104660962751842
0.098579179096423525
3.1550694849131985e-08
-0.0068992314482508293
1
1
1
1
1
-0.029264904264088575
0.00010699499463576775
0.081897053362588026
-0.0011213480232329753
-0.036581461567500292
0.00013210111475391671
1
1
1
1
1
-0.011311071914031428
0.0001194316554216868
0.0015801649484989242
-0.12524069678565067
-1.619493743245532e-06
-0.001473699351745865
1
1
1
1
1
0.22412076884453255
-0.0019798948060173829
-0.22433211299709255
-0.10838420282188695
0.090628236258048417
8.9202478306931768e-06
1
1
1
1
1
-3.5134240951845136e-09
0
-0.0041156057332658582
-0.0098544432935285479
-7.4320870433924958e-11
-7.0451930279165432e-09
1
1
1
1
1
5.7456730856704776e-08
0
0.00011284943475415601
0.0016474172848229621
2.7898694899682197e-10
-8.5383409465018553e-09
1
1
1
1
1
4.8749307049580256e-11
0
0
2.485361197092737e-09
8.4502911580978622e-08
1.227570444491059e-08
1
1
1
1
1
4.8775526207469084e-05
0
-2.7314860279845232e-06
3.9799146138506313e-06
2.7655717115361341e-05
-2.1011364353309519e-07
1
1
1
1
1
2.4108395508002378e-10
2.6937769712099731e-11
0.00056483940995456458
0.00064824888191035662
0
-2.8123733495406881e-07
1
1
1
1
1
7.3458215166160265e-06
0
-3.2926876740542146e-06
0.00044482418200076566
-2.7020384389546579e-11
-1.0100789926240259e-09
1
1
1
1
1
-4.9190389427694114e-05
0
-3.6084932238896233e-07
2.8417904367158768e-06
0
1.7609572619681403e-09
1
1
1
1
1
2.3052182438164491e-08
0
-1.654734995251779e-08
-1.384892723603929e-07
-7.2614041112076962e-09
0
1
1
1
1
1
-1.7611280319251734e-07
4.1307197676280257e-13
-9.987760229901354e-06
-2.4201965445917036e-06
0
-3.6917733576906619e-10
1
1
1
1
1
2.4449488478967952e-07
1.4217250555289313e-10
-7.328720208886934e-09
5.6333246215074219e-05
2.3920540686931319e-09
0
1
1
1
1
1
1.8327164074803222e-08
0
0
2.7274414863941723e-05
4.3594369147679635e-10
0
1
1
1
1
1
3.3928974207470011e-08
0
4.7643967004109174e-08
-3.898483157784666e-09
-8.1377039284662211e-11
-2.5141940564199916e-11
1
1
1
1
1
1.3676614433509003e-05
5.6946906026819543e-14
-1.566281151257712e-08
-1.4205363334143273e-05
-1.3266567839425808e-09
-3.5463684141756202e-08
1
1
1
1
1
3.8815395655147191e-07
4.7537127898453209e-14
0.0010537655972881488
0
1.2543072366995224e-06
4.8714209992582638e-06
1
1
1
1
1
2.559775329644808e-11
9.1593372491672319e-13
0
-5.5936943677672059e-06
0
-2.5257938419171029e-11
1
1
1
1
1
6.6031094884756655e-10
0
3.3526718314878551e-11
-1.7289187611472886e-05
0
0
1
1
1
1
1
4.652293431761005e-08
0
-2.1646126202012929e-08
8.4133229370564632e-08
-1.7796093606377221e-10
-3.2618509199657201e-08
1
1
1
1
1
8.3731873663272646e-06
0
1.1184738839984133e-09
0
-9.2978176262998311e-14
4.1700176960221903e-06
1
1
1
1
1
-1.3432955471048828e-07
0
-1.1205568532949836e-08
3.6071806679739158e-06
4.21284894368852e-11
0
1
1
1
1
1
-7.5319558280054073e-10
0
-5.1773612711892232e-09
1.6691205547129833e-06
1.0042199160275605e-07
0
1
1
1
1
1
-9.1011310038202033e-09
0
-0.0002995348159550698
0.00024518023480041133
8.0701418476179413e-10
0
1
1
1
1
1
1.0777995013897925e-16
1.0846420743815511e-12
-2.2620506714990711e-08
-7.8393162581737603e-06
-2.1510948865339152e-13
7.3430368273250191e-10
1
1
1
1
1
-3.5258830079803757e-06
7.3618851599982749e-13
-5.3278224160307049e-10
-2.9711757337409901e-05
2.034293156858341e-07
1.2598441665448964e-09
1
1
1
1
1
1.2383964467555654e-07
0
5.95918658116284e-10
0
5.0387794065464036e-11
4.4886669577550161e-10
1
1
1
1
1
2.7330840981481192e-11
0
3.7461858226122857e-10
1.6754705335100917e-07
5.1037324949026041e-11
0
1
1
1
1
1
7.4476605825552349e-09
5.4844930126907777e-13
1.4851519781926562e-07
-9.845447535992772e-05
0
-2.930508087552849e-10
1
1
1
1
1
-7.4340333460969942e-12
1.8821979161129834e-11
3.3425560869991668e-09
0
0
9.3826996568232605e-06
1
1
1
1
1
8.7740354666996751e-14
1.2525361991642664e-11
-2.6797124110253873e-08
0.00018036807089637851
0
-3.2579990538592618e-09
1
1
1
1
1
1.8046790912722488e-11
0
6.540452227647239e-06
3.122215365874205e-06
-1.220197443384182e-09
-1.1234188443765472e-10
1
1
1
1
1
-2.8510315285118471e-06
0
-4.3179119808518418e-07
0
0
-6.5751554214320586e-09
1
1
1
1
1
1.8625145485858279e-07
-1.8098823225778692e-08
1.210673906935382e-06
0.016343607186076536
0
-8.7255184916306496e-09
1
1
1
1
1
-0.00063061663666689278
0
-0.00047635326814565628
1.7820656696348313e-07
0.0031775683400585746
1.3964823827710714e-06
1
1
1
1
1
-5.4372458565880932e-09
4.0462658271824427e-08
8.3981116329462672e-05
3.2805250112855477e-05
4.7559040069565149e-07
-8.8482160065588467e-05
1
1
1
1
1
6.948410488936606e-05
2.0981618107907208e-06
-1.133061671657041e-05
-2.0702324622340757e-05
1.6875696738531065e-09
2.6888405622368401e-06
1
1
1
1
1
-2.684104468537737e-08
0
0
0.01185825151721584
9.001534270410992e-05
0.00012668253752398521
1
1
1
1
1
3.2707820337392645e-08
-2.6692345336723001e-05
0.0064206053137895363
0.00022541345495078195
-0.003947138204930198
-1.4955153155580561e-05
1
1
1
1
1
3.5999535859509282e-11
2.0837618621346792e-07
-0.0082370411885373199
-0.0079674923237215874
0.0018055507396726193
2.4878600934434284e-06
1
1
1
1
1
-2.2994237331151668e-06
3.6139612410705278e-05
-8.8381399939484946e-08
-0.0059711965126283744
-0.0012218008879654812
-0.00013105148212752955
1
1
1
1
1
-0.0031187528111931858
-1.8574058062696126e-11
-0.0030581048713336709
1.1283208508784273e-05
5.3016752119092989e-09
0.000703606427355514
1
1
1
1
1
-9.9284377567517162e-05
-7.7908012002078605e-07
-0.00048276640947208095
-0.0046418458037496245
-0.003237110496890289
-0.00023961561801350969
1
1
1
1
1
0.00061718765264988829
-1.7547379137286263e-08
1.2989591570517801e-06
-0.0054709820826033279
-0.0010489520741671988
-0.007130550247587554
1
1
1
1
1
0.00042973250276127613
-4.4697814324528543e-07
5.759670099897147e-06
1.49664175433697e-07
0.0072126330697363577
-0.0014915322963840846
1
1
1
1
1
-0.0015887415616990109
6.5503472789806732e-08
-0.00030740108706449456
0.0023366646407110042
-0.00044599666816299037
-0.0022737431667430659
1
1
1
1
1
7.6341402723043139e-05
1.7087754624452344e-08
0.0012490729960406941
7.2661269452316553e-05
0.0019988643479114639
6.3980753546631315e-07
1
1
1
1
1
6.5336635281470782e-07
-6.8206963759653833e-05
0.00031398250890043343
0.00026472202804918158
0
7.3580155402618437e-05
1
1
1
1
1
3.3403915734316548e-06
3.9899135193859357e-08
0.00088177710948986524
6.3494898543043448e-07
0.0001898471026265862
-0.0019041403836955839
1
1
1
1
1
-0.0031554325316799519
2.0094996888284713e-08
1.0449140282171242e-06
8.2375385785198922e-07
-2.9700194979670469e-07
5.1035548535077816e-08
1
1
1
1
1
4.3222418844787846e-05
0
0.00015819309266089132
8.7351289485143455e-05
1.2458976217470808e-07
0.00036303118294483998
1
1
1
1
1
-0.00083735586282406807
0
-0.013478246396840135
0
-8.5576819228558531e-09
0.00012802880601184578
1
1
1
1
1
6.8756605699130449e-05
-1.6909744053132902e-06
-2.3896711223756361e-05
-0.00020264486837641527
5.204366985764873e-07
1.7255504164206158e-06
1
1
1
1
1
1.9581641370523063e-07
0
-0.00073502166594034929
-0.0061821152032539824
5.2090058473290038e-06
0.00017108792225620158
1
1
1
1
1
0.0020355443606802819
0
-3.3548453537971119e-06
-0.0003342116681142736
-1.5319672578696009e-06
1.6055154398536621e-12
1
1
1
1
1
-1.1216780313310756e-05
-4.1492312978934406e-08
-1.5865677891641131e-05
-7.2444883052076544e-06
6.6061359272967795e-07
4.1881441892847975e-08
1
1
1
1
1
-6.5207154601032167e-10
-1.4451969884716279e-05
0.00018836592747450731
5.9040843942168784e-05
-5.3016801517610839e-09
-0.0014757411110934687
1
1
1
1
1
3.4529637242845874e-08
0
0.0030381522230639208
-0.0012580869400497007
-0.0031253666222075347
0.00010060082999093097
1
1
1
1
1
0.000103959204895468
-8.6265249447563886e-08
-0.00017321366105804923
2.0923111225897656e-08
5.2259526025656934e-05
1.5840904660164432e-05
1
1
1
1
1
0.0011640814078289667
-1.1208198321984583e-07
0.0012171930274300512
-2.0208501501101954e-06
1.8524630798989436e-05
7.9271994472534743e-07
1
1
1
1
1
-0.00029161838088954169
0
0.00058776730435406419
-7.6269069961713083e-05
0.0058818220923031817
6.7706754740014518e-06
1
1
1
1
1
-1.5353954991202127e-07
2.5000051804193611e-09
-6.2811999164765706e-06
-8.8599920408543662e-05
-3.5407325004817033e-05
-2.7038305282789853e-05
1
1
1
1
1
-6.0832764809234518e-09
8.3869803019140548e-07
1.0668734727701714e-07
0.010149636794145709
2.5572899692001357e-06
5.9809813638521679e-06
1
1
1
1
1
0.0012373568438871221
1.3836585510698697e-07
0.0041190851931716217
0.012243677524667807
1.3996761459330073e-08
-6.8543247479199782e-05
1
1
1
1
1
-0.0015131772805716433
6.0387604638257448e-08
0.00022488002326312751
4.7637141756034238e-06
-0.00026704175694889347
3.9579489779456768e-07
1
1
1
1
1
-2.151935751272603e-06
1.3660485927189995e-07
-0.00029601048273354821
4.8071868111003116e-06
-1.699401095818686e-08
0.00034824728355835669
1
1
1
1
1
3.2481812811659349e-06
1.760755171721324e-10
-2.6312221169971783e-05
-4.217595850854027e-06
-4.8957583723898596e-06
-0.0014689981777966266
1
1
1
1
1
0.00073902060822616589
2.0049504370223108e-05
4.6957140870995922e-06
0.00066900558570581585
0
5.0693020994265752e-08
1
1
1
1
1
-3.9613466366649165e-05
2.8479083559474711e-05
8.2797595619686155e-07
1.1334080348736905e-06
-1.996557895843322e-06
-3.0281525893973884e-06
1
1
1
1
1
-7.8662331974537364e-05
-3.078548780490692e-09
1.6212363376739143e-05
2.0217252026839488e-05
0
0
1
1
1
1
1
-4.3761636208592254e-05
-3.3205557696092485e-07
8.8502765248566438e-07
2.4092765494344561e-09
-5.2518258984775908e-07
0
1
1
1
1
1
1.7540269193845167e-10
-4.9704683492931936e-09
-0.00010642295097664577
0.00024965758397197182
6.2427594383247001e-06
-1.5343453622630095e-05
1
1
1
1
1
-8.1021467100514825e-05
0
0
8.9261108835798268e-06
1.5148235104386678e-09
-2.2360722903870701e-06
1
1
1
1
1
3.3908097488444741e-05
-9.9806347781782487e-09
-1.8143443546503243e-06
-0.01913570234503149
1.4501876665918768e-07
4.3459501651158868e-06
1
1
1
1
1
1.8151212961786278e-06
0
-2.9738926865557277e-06
-0.0025967973142609797
-1.7068125952215002e-07
1.2433977990623645e-06
1
1
1
1
1
0.0025363558063991321
5.1478157875506336e-10
0.00016448998767990705
0
4.4177467487025018e-06
0
1
1
1
1
1
-1.8051301492569714e-05
1.7260180892241551e-07
-2.2545165962817516e-05
0
-2.8036085733963695e-08
-7.1939517638058384e-05
1
1
1
1
1
-1.2467838797200268e-07
2.7410236333587317e-05
0.022177579993970468
0.0080185300986188399
-4.3879137417063233e-07
4.3685902841160177e-08
1
1
1
1
1
9.0169134601821842e-06
1.2653682726241411e-07
-0.024822211675720841
-0.0089836803358892495
1.2247597737277951e-05
-0.0015838277298549188
1
1
1
1
1
5.6068912683338518e-06
-6.1488821066600627e-08
0.011584699870610607
2.4276493150796965e-05
-1.6891441438436695e-07
6.0085849718666699e-06
1
1
1
1
1
-5.4711071696230506e-07
2.014616680437388e-08
-8.0264141253156157e-06
-1.3774890382094647e-07
0
0.00093211912753688266
1
1
1
1
1
1.0339922377322374e-05
0
-0.0042919414486654039
-0.0063138511957172936
0.00056628805293529067
5.7140145612756238e-08
1
1
1
1
1
-5.2776244438147929e-10
-3.1307973674659274e-08
-0.00028791282596202136
-0.00048894724390348551
-0.00130579480867326
-1.1108371104137488e-08
1
1
1
1
1
-0.00078927999190939169
-5.2659187911403556e-07
-0.0001250988612057349
0.00053989494510400294
-4.9917238233011521e-05
1.2609709940497343e-06
1
1
1
1
1
0.0008925993371736345
2.9589363015781089e-07
0.0071162567058254966
1.0340111169148734e-05
0.0025313673358525017
-1.7187281158337609e-09
1
1
1
1
1
-3.1045225810609759e-06
0
-3.0474058974640065e-07
-0.0030937827787166122
-1.5228636929065394e-07
0.0021916529641038125
1
1
1
1
1
0.00042298287872388513
0
-7.1160077180144101e-05
-9.7853212337059007e-06
2.1891576899757336e-08
0.00018724331627348694
1
1
1
1
1
-0.0049068707074558984
-4.94364120324477e-08
0
-0.00041654339273839661
3.1208639386043009e-05
3.5035670835763782e-05
1
1
1
1
1
-1.720908363054125e-06
-2.0349973732128415e-10
-7.0618691989490808e-05
-0.0059781626206068007
-8.6551349164878566e-07
0.0010981903030042868
1
1
1
1
1
-0.00014653199356291216
0
-2.6341175914962324e-06
0.0022151900476350783
-2.3084498993684481e-05
-8.3843575674935056e-06
1
1
1
1
1
7.3499374568930652e-09
-5.3407073887675914e-11
-0.0026344259952714348
-5.3557495429267593e-05
-2.572793621835392e-06
1.5153695011220712e-08
1
1
1
1
1
-5.7238692839642785e-08
0
-0.00016291833767711865
-0.002126676535185498
-2.6691659472263651e-09
-7.7612398122212119e-07
1
1
1
1
1
2.5295579981272389e-11
0
0
-8.664023614727714e-07
8.4119537427259475e-08
1.423338904885117e-08
1
1
1
1
1
9.6136601022133052e-05
0
6.7576191850538043e-06
-8.3875358143720934e-06
0.00027358955647327509
-3.337923065905199e-07
1
1
1
1
1
8.2055865182524635e-05
4.3203067852167582e-10
0.00015402096554730974
5.0793958570198531e-05
0
3.6391488270653332e-07
1
1
1
1
1
0.00013393900947400033
1.6652477801874202e-10
-7.3256466747913434e-06
-0.0029444734080869704
-2.3933396793850242e-13
-8.1244432825328736e-10
1
1
1
1
1
7.6008885102589306e-05
2.0153179190185852e-09
-2.4921234022280208e-07
-2.5606241923115838e-06
0
3.0453362379719483e-09
1
1
1
1
1
-6.3911304560259911e-10
4.293888205742219e-11
-5.9000383842937727e-08
-1.4006418412287328e-07
8.6483085749174799e-10
3.7009362223399004e-08
1
1
1
1
1
-5.1027231665792423e-07
6.6409979527968268e-13
0.00058079950998232883
-4.8272767854861557e-06
0
-7.9647449176734798e-10
1
1
1
1
1
-1.3951155187653958e-07
8.2264408926040684e-10
-8.2238531382793678e-06
-1.2932839931532958e-06
-1.305089158462523e-09
0
1
1
1
1
1
-2.9773170634283466e-08
0
0
-1.9630058249982908e-05
-1.3261065134126406e-08
0.00041229714405119171
1
1
1
1
1
-4.0288944709188301e-08
0
-4.2181203940436767e-08
-1.2103989855541144e-08
-0.00015666609753781099
-3.7289904408788134e-10
1
1
1
1
1
-2.2343563924034381e-05
-2.1285592519779146e-11
-3.4578415640886955e-09
-0.00012132944701989979
-4.5249219242183808e-09
1.7155402113599942e-07
1
1
1
1
1
-4.4842963703274778e-07
1.4969158666564037e-09
6.624823546156067e-05
0
9.3973111993495184e-08
-2.1100760535803918e-06
1
1
1
1
1
-2.0891484752223608e-11
3.777264924358065e-12
0
-1.6012614483879502e-05
0
-1.7197533992747648e-07
1
1
1
1
1
2.9967437583706327e-11
0
7.5903604190318288e-11
-0.0013636894010697668
0
0
1
1
1
1
1
5.6534844173160328e-08
0
-6.1896576131110579e-09
5.3485283731061636e-08
6.8736283114930863e-09
-3.2622060387878712e-08
1
1
1
1
1
8.3299256822236271e-06
5.136239527815736e-11
-1.1712257037631029e-10
0.00011116972946965922
4.3967712932436585e-13
-3.2988132680677926e-06
1
1
1
1
1
3.4863444745389394e-07
2.1246240941675254e-10
5.8076948022503419e-10
-5.8592310016616893e-06
2.1267789605140784e-11
-1.6460866579687447e-08
1
1
1
1
1
3.8730123338130569e-08
0
4.2845894726145578e-09
3.1495537100533363e-06
-1.066319278337012e-07
0
1
1
1
1
1
6.3770056287913235e-08
0
2.3268632633305058e-05
-9.0726998597503905e-07
-2.6719931372068294e-09
0
1
1
1
1
1
-3.260733656443708e-16
1.1805704123792065e-08
-5.1377936798519371e-08
-1.0469329136775214e-05
3.0326812792345235e-08
5.0631352774229974e-09
1
1
1
1
1
-6.1038898536797876e-06
4.0197489574284667e-13
1.4679482617287593e-09
-2.9723264983202162e-05
-7.3341166866335334e-07
-1.1940426306263197e-07
1
1
1
1
1
-2.4080201569957609e-07
0
-1.9562197611763313e-09
0
3.1903933404144532e-10
3.0858047625492292e-11
1
1
1
1
1
1.0461242723618348e-11
0
5.9267202130391796e-07
-5.5195408003680225e-07
-2.024633258820865e-10
0
1
1
1
1
1
3.3376231676969144e-08
-7.8438929318746218e-10
-1.3763570951473677e-07
2.262960224517639e-09
1.8896893328308847e-07
4.3497090196965836e-10
1
1
1
1
1
4.6495246140914897e-07
-2.0259232426278552e-11
-1.5370509255108412e-08
2.6813815423904115e-06
-3.2569916669585646e-09
-1.4872053802543012e-07
1
1
1
1
1
1.2666713449019852e-13
-5.1791808929080533e-11
1.6365603328784352e-05
-1.0747585347606156e-05
0
-6.2871408792083159e-08
1
1
1
1
1
2.5483431735046719e-10
6.1358831345964982e-11
-2.5120730216152851e-06
-4.1610782911447156e-05
-6.6470869390865871e-09
-8.23276966363015e-09
1
1
1
1
1
2.8481932659046771e-06
0
1.7007437498129459e-06
0
0
-8.60481547123603e-06
1
1
1
1
1
-7.4540576397753186e-07
-0.001367093360779495
0.00017747966312263891
-0.012463230026936724
0.042160320649137051
-0.0065430862184517446
1
1
1
1
1
-0.0025336431321185474
-3.240541039141059e-06
7.102083425033214e-05
4.0036794421111651e-08
0.0083844883197679125
3.9405127776625219e-06
1
1
1
1
1
-2.6670284314863317e-07
0.00011358934442435717
0.0070980671142389321
0.000137900330290755
0.00016793895491143532
-0.02852179930371488
1
1
1
1
1
-0.029940355862305028
5.9491210282315313e-05
1.7480061329187948e-07
2.0693525080029407e-05
-0.096205672510612891
1.057708675535482e-05
1
1
1
1
1
-7.9176654281502609e-08
1.1917477254864205e-05
0
0.014912153405840062
-3.3355544007507978e-06
-0.071962125632634294
1
1
1
1
1
3.7574687280980946e-08
-0.00011679423062365608
-0.005149292845759549
0.069311043686861445
0.00011230876195608805
3.5924028410860873e-05
1
1
1
1
1
1.9868344822754132e-11
0.00014364158327159665
0.012949723542082169
0.0087530131003896589
0.0024418699251941038
5.8306984415844075e-06
1
1
1
1
1
-1.1290222599012179e-05
9.9823370212480703e-05
1.4269892061052128e-05
0.0018259210770056849
0.00093010033189342789
0.00031107295883977024
1
1
1
1
1
0.00066767749783018613
0.0034574818425028367
0.0040467545571385884
-9.6618371155512305e-05
-0.00031006238935171038
0.00089762285348317275
1
1
1
1
1
-2.1443102955624824e-05
0.0057391713806114091
-0.00042242220049407332
0.0033224122866565169
-0.013652961164797035
-0.00024702597481415122
1
1
1
1
1
0.00073551923981744435
-1.7463250390734833e-07
0.00022010452471519433
0.013646956208274569
0.020123382278540745
0.0019713101389350583
1
1
1
1
1
-0.0040056359402932673
8.36417306970879e-05
-0.042928462702567047
-3.5061528913502373e-07
0.0053829814706031981
0.00041342654039078328
1
1
1
1
1
-0.0094835164234335929
0.0032445405129753161
0.00031699827823084866
0.00089509313852200096
0.0051119797034934683
-0.0028438493053022894
1
1
1
1
1
0.043707381822286541
1.0207527779599044e-07
0.00087712986844212576
-0.12721395990531351
-0.0024816914785388664
0.018839851803626941
1
1
1
1
1
1.2611643660328083e-07
-7.2335171768804317e-05
0.0088489981631219294
0.03318424319058131
-0.00055067801583339403
-0.12392027947906509
1
1
1
1
1
0.0005096200121933954
3.9857858068662926e-07
0.00063249895832971268
0.050242842978036141
0.00015961405454357892
-0.00237791921608575
1
1
1
1
1
0.005575600576970507
-0.0031246379426762296
-0.00017663343463907485
-0.028264625846658696
3.9187751324022327e-07
0.0001344623515884636
1
1
1
1
1
-0.0001812579842650501
6.0953485753065759e-05
6.5557019294385923e-05
0.019676371795321553
3.7204432462572749e-07
-0.012752914626971765
1
1
1
1
1
-0.0019516468420349826
3.5280467455623314e-07
8.3347926724799296e-06
0
6.7860931164391469e-06
-0.0044691116588839487
1
1
1
1
1
-0.0018286115532446369
-0.00034106350087197054
-5.2444302661555304e-05
-0.054429957256733108
-2.811560897618428e-05
-0.00055123097420978109
1
1
1
1
1
-2.7217510279390091e-07
0
-0.0012072292631775576
0.0065498028146297295
-0.045514294616805298
-0.001700236239933017
1
1
1
1
1
0.004059645117183661
0
5.604702000252495e-06
0.00037456451821190706
0.00016064079732482588
0.0092441380673021038
1
1
1
1
1
3.9303477479600081e-05
1.1173862308549619e-05
-3.8432493211466515e-06
-1.5217939893348955e-06
6.2985225659468746e-07
0.0003541906031678709
1
1
1
1
1
4.6237641708866978e-10
-6.5300732538999432e-05
-0.0038713710534648239
5.8808152847485072e-05
-1.8006662497120089e-06
0.0091797977943962467
1
1
1
1
1
-0.01482321960293129
4.176906801990851e-07
0.0010554600369012436
0.0011233029430276883
0.0012224567692351413
-0.00096764993268504216
1
1
1
1
1
-0.00015907562036963772
6.628568340624546e-05
0.0021853792104710936
-3.5335083837883868e-08
-8.4839718386934025e-05
-0.00049231137343327871
1
1
1
1
1
0.00038240365744781073
-0.0090863625954163054
-0.0068442084926004518
-0.034476743689006509
-0.027598585628452663
0.0016353122895859148
1
1
1
1
1
-0.00069704216433633408
-0.00020244607102284359
-0.00058442148187852418
0.027206290300644743
-0.010723385586865192
0.065758945205705285
1
1
1
1
1
-1.3708769010930264e-07
9.2534376936600238e-06
0.0051099052442403368
0.00036474260239835899
-0.037247844567689335
-0.00107731844272833
1
1
1
1
1
1.1177834797869791e-08
-1.1694149671835774e-05
-4.3978190969884445e-06
-0.010043949029292882
6.3222284869939826e-06
1.7478813341649775e-06
1
1
1
1
1
-0.0022299502135342819
-4.4373065029151148e-05
-0.0026287134497531665
0.02559658083151297
-3.1412657279245039e-05
-0.00070609113319705164
1
1
1
1
1
-0.00028461861694396059
0.0031065149688876462
0.033743681264427366
3.953681529341263e-06
-0.0002667586949919684
3.5760553516193131e-06
1
1
1
1
1
8.5324175716696746e-07
-0.0046437032600677199
0.0002646768477054959
0.0018442428818635757
-0.022151996535983765
-0.0023743253532661542
1
1
1
1
1
1.1406974380498975e-05
-7.5122673164958909e-06
-8.6900575797804583e-06
-3.5652592253553603e-05
-1.8721909936301705e-05
-0.00023867248281156611
1
1
1
1
1
0.0013995904145497381
-3.4467724806932084e-05
-0.053367081006256548
-0.0033888924443706016
2.1699163937613539e-05
5.0842353814260253e-08
1
1
1
1
1
1.2024029668535163e-05
7.2873236150806262e-07
0.041765858851661966
-0.00065777733170395815
-2.2221933528604827e-06
0.017961558910613341
1
1
1
1
1
6.5353675009371012e-05
0.0030148877347825533
-0.0015615149505341088
1.805747634099359e-05
0
-0.0057364255749634786
1
1
1
1
1
-5.6415623672618025e-06
0.0018903115751632072
2.8901302282256706e-07
-2.5062007248743448e-10
-6.3706591709531329e-06
-2.7817692526912641e-05
1
1
1
1
1
1.6917965674251311e-10
2.1086025630701244e-08
0.00012671719074945181
8.7365884540132357e-05
2.3738338040812511e-05
-5.0467918489129639e-05
1
1
1
1
1
-0.00012559916466681643
-0.0016999236588559946
0
-1.3871188710460842e-05
-1.6128180127958195e-08
0.00066345182352740492
1
1
1
1
1
-0.0065273779533546548
-0.00022614726408664117
-0.00042671921795261569
0.016841878303853586
6.7781301966615958e-05
-0.00061848418268556067
1
1
1
1
1
-7.4678183419636784e-05
2.1509843882401963e-05
-2.0961029457258705e-06
-0.0046387460243905538
-4.2252012954426159e-07
0.0042861883405973722
1
1
1
1
1
0.0008915503176562525
4.3352820508694723e-06
-0.026233010476573289
0
-1.6630878597641836e-05
7.4736046510022742e-06
1
1
1
1
1
4.0255253932418543e-05
-9.0758954025843035e-07
6.2086898252239735e-05
-0.022022696015298875
0.00095375281066897193
-0.0051991153939976598
1
1
1
1
1
6.0804283026811237e-09
-0.0001061971373142129
-1.417935888078536e-08
0.0046601256055141078
-1.207484892324933e-06
5.1196940613959913e-08
1
1
1
1
1
-1.1733999113337791e-05
-5.7043557215284245e-05
-0.00024461979808978215
-0.0089857338781166671
-0.023370187171636077
-0.0039859639102893737
1
1
1
1
1
8.8559293669996839e-05
2.5086423693592699e-05
4.4776150318179073e-05
3.82546904118952e-07
2.4480646473891577e-07
-0.0097787311796249336
1
1
1
1
1
-1.7100106760695664e-05
2.7092419509000177e-05
-3.7327973296322951e-07
0.0055214216571506476
-0.038992721975178272
0.0015370761005510981
1
1
1
1
1
7.39044024794627e-06
-4.5272342131851766e-06
-0.0034738322053435326
-0.0011658307993736012
0.0060521943866755096
-4.2276562493329678e-05
1
1
1
1
1
2.4374903752347085e-10
3.6602543666777702e-07
-7.1834908762572793e-05
-0.00044932855163480341
0.0012806300273686393
-0.0017526332125062318
1
1
1
1
1
0.00063390145664451558
1.7937891386747677e-06
0.067638285894077319
0.0012432854220338705
-0.00053989257431775409
0.00020555254457365002
1
1
1
1
1
-9.3552776455722134e-05
2.1690702908555374e-05
-0.0061206426015961348
1.896827249758303e-05
-0.002656466927792376
-1.7098465072567471e-05
1
1
1
1
1
-0.0066625903688179991
0
0.00034378688159395464
-0.0017483611466682877
2.3856125007466655e-05
-0.0051967024218343393
1
1
1
1
1
-0.00032045906165826485
0
-8.1051216465617736e-05
-4.5489539428755825e-05
-2.8470717577889121e-08
-0.0021880809406903661
1
1
1
1
1
-0.00046983840952546219
-4.2955802807570785e-05
-0.03289752668697226
-0.00087784890698963322
-0.0023210898033250459
0.00016978067553974498
1
1
1
1
1
-1.7156257680625888e-06
-8.7914269564441741e-06
0.00035424250544309889
0.011581256535979407
-0.0099781466786607147
0.0018315120958696093
1
1
1
1
1
-0.00014186594958900717
0.0025148491431124555
2.842152704266596e-06
-0.0048502435941598894
5.1972232389661893e-05
-0.00015423174020722544
1
1
1
1
1
-7.1549136914797915e-09
0
-2.9697566950909716e-05
0.0048062037282624809
-7.8302396478232355e-11
1.4242698739176059e-13
1
1
1
1
1
-7.5058563023051076e-08
0
2.7677617833054312e-05
-0.0018514973857077371
-2.0313914784014071e-10
-1.3642523493367891e-08
1
1
1
1
1
-2.9812599347267219e-10
0
0
8.6549565366624893e-07
-1.9756613909654381e-10
-2.6692358725363343e-12
1
1
1
1
1
-6.9032810525734324e-08
0
2.11507187830597e-06
4.3558627110883845e-06
-1.7795482615517339e-10
-1.3108456997599701e-07
1
1
1
1
1
-2.869249757482568e-09
2.6434449811125343e-11
-2.2187607673892488e-06
-0.00056166413111876062
0
6.4607514337168495e-08
1
1
1
1
1
-1.2369068422519962e-13
0
-1.7707768697748591e-07
-7.0844717454698127e-06
-2.0248748448225899e-11
-1.7832387753427037e-10
1
1
1
1
1
-3.4400056106890887e-09
0
-2.3328888765762614e-07
1.018000239395115e-07
0
-5.0808035909948938e-12
1
1
1
1
1
7.3737972501945523e-09
0
-4.6801635503859439e-08
-1.0703510938272076e-06
-7.4141539767653078e-09
0
1
1
1
1
1
-6.9728878690410683e-07
-1.4296760233592824e-12
-1.532338321228988e-08
-2.4074629431437849e-06
0
1.1813699724945318e-12
1
1
1
1
1
-3.7522737323177986e-08
-3.5667753487022586e-11
-4.6920807214966998e-08
-7.8811596321785952e-05
-2.6804538815487785e-10
0
1
1
1
1
1
-4.7865362583937554e-08
0
0
1.3174352314347077e-05
-1.8056215334591161e-11
0
1
1
1
1
1
-6.51075500007876e-09
0
-4.8076338848704628e-08
-7.3961295879465504e-12
-3.7666186642120101e-11
-2.7065851675940104e-10
1
1
1
1
1
1.3307417602568194e-05
-2.9459207548246016e-14
-1.1700259520507543e-08
1.176421560544093e-05
-1.3266567839425808e-09
-3.4162823235784968e-08
1
1
1
1
1
-6.1004374079228036e-07
-8.9792693203908662e-13
4.2714775041425093e-05
0
6.7724451215220955e-07
1.0680968697336578e-06
1
1
1
1
1
-3.9731406012656321e-12
-5.8080992350569356e-13
0
-5.4951529561286274e-06
0
7.8467754761767793e-10
1
1
1
1
1
-1.1300120985469776e-08
0
-6.0375289405944434e-11
-5.3534075639024039e-09
0
0
1
1
1
1
1
-1.09717047362352e-07
0
-1.8452001810394196e-10
-3.9947805329023277e-07
6.162346658753202e-10
-1.4416446636172643e-12
1
1
1
1
1
-6.3817064146612842e-08
0
-5.4035740320543669e-09
0
2.1536625401740369e-13
3.3900741433619226e-06
1
1
1
1
1
-4.2767068336651995e-07
0
4.1492678305055514e-09
6.0769449799936721e-06
3.7468520561468713e-09
0
1
1
1
1
1
-1.682289216447467e-08
0
6.3379992410440568e-09
-2.7902996220447351e-06
6.3477092477677216e-09
0
1
1
1
1
1
1.0197463540138039e-14
0
-4.2060227912225349e-07
-4.5086442403644553e-10
3.2132177446519049e-10
0
1
1
1
1
1
2.2887583574865483e-16
6.7338882405105183e-13
-1.8978575792602317e-08
-2.5511383786362485e-06
-2.6409809201627524e-12
6.1224040813299113e-10
1
1
1
1
1
-3.530704308927243e-06
-9.7135575917354657e-14
1.3350439003057307e-09
-1.6309398744498688e-08
-1.1362247005125225e-07
1.3008835612498123e-09
1
1
1
1
1
-5.1817947496243107e-08
0
-6.6326029856823487e-10
0
4.3007110828687756e-11
4.5246828829931033e-10
1
1
1
1
1
-1.2898734185949222e-11
0
-1.030816869641294e-06
4.529384139805032e-07
7.3600758989094297e-12
0
1
1
1
1
1
-1.0142696344539012e-08
-1.4257323303430372e-13
-1.2017650155395938e-07
-3.696888789085672e-09
0
-8.6762308130755523e-10
1
1
1
1
1
2.7044055085427672e-11
-2.0166401983905322e-12
-1.311002741453497e-08
0
0
9.0926433847597709e-09
1
1
1
1
1
-3.8758354500100015e-14
-4.6344788875781981e-13
-4.5037572073886974e-08
3.5264725320881206e-07
0
4.2172858943692586e-08
1
1
1
1
1
-4.6059846603708512e-11
0
-1.02192290832448e-05
2.3845541770126312e-05
1.5178173211526961e-09
4.4427359914641001e-10
1
1
1
1
1
2.850550737116593e-06
0
-2.4987859715702223e-06
0
0
4.8902551351360472e-09
1
1
1
1
1
-3.4810312345197805e-07
1.5869695521863942e-08
0.00013757879781492758
0.0062452945458694635
0
1.8633632472778138e-09
1
1
1
1
1
-0.00092906324432820062
0
0.00061772908189627516
1.1341993929970166e-06
-0.0031775683400585746
-3.2002761033574957e-06
1
1
1
1
1
1.1552349408731613e-07
1.0368293529179152e-08
0.00020716907796242042
7.7748497062555302e-05
2.1706693252856039e-08
5.0703906776185142e-06
1
1
1
1
1
-9.2548442649675563e-05
-8.192031458647108e-12
1.5256327005419402e-06
1.0192374941166929e-05
-1.4416336718526993e-07
-4.3751415273018568e-07
1
1
1
1
1
1.5558110754753155e-09
0
0
0.00016761695089166997
2.421464296699086e-05
1.3417236261977722e-06
1
1
1
1
1
-7.2948551960920674e-09
1.208638857914292e-07
4.1996243890455683e-09
0.00020924582568533778
2.2407686921701906e-08
-1.1629552268868037e-05
1
1
1
1
1
3.1633353416255477e-11
5.0961620162169128e-10
0.0055291989726977721
0.00012831209153720845
-0.0013909089317758971
7.1467430966968902e-07
1
1
1
1
1
-3.014649385761172e-06
1.0739966688431321e-09
-4.0545978329164931e-07
-0.0011774939267603162
-0.00032527617941871051
-1.204286703953992e-06
1
1
1
1
1
-0.0024510760845595871
7.5497366387652011e-10
0.0029786474054493157
0.011890173766305568
5.2651879076358645e-09
-3.8104694488523499e-05
1
1
1
1
1
-0.00011495850326456782
-1.4358831750860071e-07
-0.00030071468134154438
-0.0034479831638405019
-0.0032353036596773329
-0.00023280295852061951
1
1
1
1
1
0.0006576537555452349
2.8335552159863995e-10
1.1972515512584449e-06
-0.013491601082251503
0.0010482647742320204
-5.9325470749328057e-07
1
1
1
1
1
-0.0017186020684799323
3.5839335238721862e-08
-8.7979890137651325e-05
-9.8636202560513663e-07
-7.4302704028678877e-09
-0.00014954609289268052
1
1
1
1
1
-0.001588741562754165
3.1546624561904906e-08
-0.00033456038956556359
-0.0011062703002365046
-1.3430599137481278e-05
0.0022729796535394318
1
1
1
1
1
3.2494711969463106e-05
0
-0.001832957556454761
-5.5980839094449247e-05
-0.0010238431358378687
-6.084592842552055e-07
1
1
1
1
1
-7.7120244118639696e-09
1.5954720087123876e-08
2.8622791383037842e-05
-4.101959148381487e-06
0
-6.777011184493265e-06
1
1
1
1
1
-2.565127187821139e-06
4.9880267201715585e-11
0.00052134847644406566
1.2103806891214478e-07
3.060876368892497e-09
0.0029152616127150347
1
1
1
1
1
0.00028370036437286528
8.0231201806068005e-09
2.3863035500605182e-10
1.0463903395692441e-06
7.9041493962077527e-07
7.5399085587923912e-07
1
1
1
1
1
-3.3456018393712476e-05
0
4.561954505580277e-05
0.0001213955729715733
6.2696954999458213e-07
9.2067735941935496e-07
1
1
1
1
1
1.6302358212661293e-09
0
-1.2565331704611531e-05
0
1.0274566430787429e-07
0.00053737547117369802
1
1
1
1
1
-0.00059898874804104518
1.0262478824996887e-06
-1.2201813463237021e-05
2.2270045505585491e-05
8.8081124431030203e-06
9.5024053054483031e-07
1
1
1
1
1
6.616472604946474e-07
0
-0.0013760486910026429
-0.0065334565817673964
1.3670646136290356e-05
-0.0011798143639828065
1
1
1
1
1
-0.0020364296839132817
0
-5.604702000252495e-06
-0.00039077207018228376
1.1721103520870695e-06
1.0257318979336562e-10
1
1
1
1
1
8.6822692822382597e-05
-1.8352003190872769e-08
-2.5961306784492397e-06
-1.2845290195783686e-06
3.5218926519543566e-07
-1.9320509162451195e-08
1
1
1
1
1
1.0009185650664151e-10
-7.4415678818249977e-07
-0.0049963816535207768
-8.7905241039213264e-08
-2.2049522553338671e-06
0.0055213005095277462
1
1
1
1
1
-1.8670570351572314e-07
0
0.010207295202369484
0.0014411253501908348
-0.00045606573431076981
-0.00068028405821143586
1
1
1
1
1
0.00036211069906166501
9.660783946875326e-08
-1.4041637640687569e-06
1.0836817581709825e-07
3.908323097548653e-07
7.4201595455803903e-05
1
1
1
1
1
9.2886260450696991e-10
-1.7428580742186927e-09
-0.001249659532588228
3.1341233421351949e-06
-7.1460489477794695e-08
1.2955407848035894e-07
1
1
1
1
1
0.00017916722527039944
0
3.4371441064174718e-06
0.027035987894237033
5.7089721050288362e-07
-6.8572780953636162e-06
1
1
1
1
1
1.2234555581210922e-08
-3.5420967863373497e-09
-0.037384587271682576
-0.00024664117459856773
3.5598005834440895e-05
2.0323450095150084e-06
1
1
1
1
1
-1.5320917702875171e-08
3.241563128472187e-15
3.478673061986606e-06
-0.0072501163216195375
2.1065564270868686e-06
-6.916428120832563e-06
1
1
1
1
1
0.0012373568435401607
-5.2589185946337696e-10
-0.00050261113160676859
-0.024364225866005271
8.3076141611481943e-08
0.00010652454532583876
1
1
1
1
1
-0.00057518713737345539
-1.3086874394159486e-08
3.6838983160707464e-05
-4.2179153433743311e-06
-6.3345771806012002e-05
-6.2663518590646961e-09
1
1
1
1
1
1.3210116473077759e-06
-3.8359827914295178e-11
-1.8527187858521688e-05
2.1249676245761975e-07
2.7051149147938172e-08
0.00049987140790022362
1
1
1
1
1
-1.3032950004371164e-06
3.1107777233871413e-10
5.9570220081109872e-05
0.00016427512313081413
6.7506458880439913e-06
0.00036875883894515175
1
1
1
1
1
-0.00026509513902585791
9.3957411221947812e-08
-1.3923684345102336e-06
0.006590740061651063
0
-2.3958238507583479e-08
1
1
1
1
1
-3.2952738162414391e-05
7.3981625330757561e-08
7.7739246678475787e-07
7.2001911247985895e-07
-7.2843109099857665e-08
0
1
1
1
1
1
-2.1458982257511782e-05
1.7346046038572183e-08
0.011243310847183833
-2.3615114553156565e-06
0
0
1
1
1
1
1
-0.00011836337511572866
2.6932998250936607e-08
-3.6403055075628967e-07
3.3399079514498304e-07
-6.3318400261090612e-07
0
1
1
1
1
1
1.6959919130883566e-10
2.5306829091723493e-12
-3.0747693603345605e-05
8.9120385300849847e-06
8.7673743758248128e-06
8.1417810774260029e-06
1
1
1
1
1
-6.9701951882255556e-05
0
0
-3.7081773089287646e-06
-1.5441789765567967e-09
3.6611951605304065e-06
1
1
1
1
1
-1.164483899826042e-07
-9.0389638799618863e-09
-1.8143443546503243e-06
-0.00060444401485669854
-1.9734265358094092e-07
-5.2815024285633066e-06
1
1
1
1
1
4.4684148666420618e-06
0
-4.0144259824897956e-06
-0.0026714676275539761
6.210341742588079e-07
6.4636713970618861e-07
1
1
1
1
1
-0.0015954501687402737
3.0879286017480813e-10
-2.1537972207935943e-08
0
-4.8885535718777984e-06
0
1
1
1
1
1
2.012013085476198e-05
1.9740464269134073e-07
1.3949128054291486e-06
0
-1.3559979838598702e-07
-3.2507206833159987e-05
1
1
1
1
1
-2.5395281136006966e-08
-1.2861233874397323e-07
2.6963930926744145e-07
0.004282999487897142
9.6537845655654352e-07
5.1196940613959913e-08
1
1
1
1
1
-5.1051073384240516e-06
-4.5399517340403203e-08
5.0651039394132818e-06
-1.5987514694877003e-06
-1.4083191660152698e-05
-0.0016046385401664118
1
1
1
1
1
2.3520091805149845e-05
-7.0965334628550468e-08
-0.011498950865372226
1.9939833534805678e-05
-8.1706989140744429e-08
-3.4723777116422766e-05
1
1
1
1
1
-2.8390970820637679e-06
1.1871369034764754e-08
8.2270816790989475e-06
3.4952266391542707e-06
0
-0.00066038136840921419
1
1
1
1
1
2.56865437107244e-05
0
0.00378221739788438
0.0039434089703356606
-0.00056612962797509669
7.2441957127249995e-08
1
1
1
1
1
1.5679096170793654e-10
-3.1142671077753147e-09
-0.00011654637462852298
-0.00043567308682235185
0.00025946745583337852
8.9860577239530238e-08
1
1
1
1
1
-1.1642414763484862e-08
-8.4482410541707146e-10
0.00012316134120452112
0.00054837923766025594
0.00061659115726811996
-1.4762652619713702e-06
1
1
1
1
1
0.0011968973187387554
-1.3310772654266714e-11
0.0063840075971594501
1.742011198107029e-05
-0.0012181060360742292
1.7083327339171321e-05
1
1
1
1
1
-1.5684820830731697e-05
0
2.1680807825297286e-07
0.0022206115775572012
-1.9422843186388751e-07
-1.7409884951704106e-05
1
1
1
1
1
0.00031732806782985308
0
8.1038503733250064e-05
-8.1511974154982659e-06
2.855593632351316e-08
5.6141964303203821e-07
1
1
1
1
1
2.4170967293182393e-10
5.2671325042948824e-09
0
0
-3.1869804592472809e-05
9.5961767459666784e-07
1
1
1
1
1
5.4861708892957925e-09
2.7581302518141989e-11
9.6954128954513497e-05
5.6229450825124932e-05
-3.512592745395882e-07
0.0010849145543841128
1
1
1
1
1
4.5422164802760516e-05
0
1.5614513139667091e-06
-0.0069103666055217328
3.0160241595384322e-05
2.6344537015460614e-09
1
1
1
1
1
1.7975740960390878e-08
6.0593257691132983e-11
-0.0098021752357429145
-1.9465229598716037e-05
7.6050796137931863e-08
6.6322409014874485e-08
1
1
1
1
1
2.9746306934270679e-08
0
-0.0059224716497929368
-0.0024930671395019619
1.0097308889730964e-09
1.3830095246773983e-06
1
1
1
1
1
1.8874652255400948e-10
0
0
-8.6722178604939523e-07
8.4892123144428448e-08
1.1701557865364531e-08
1
1
1
1
1
0.0001126294949832903
0
-0.0022365140996119877
-7.6634307062118224e-07
6.7412392927939695e-05
-3.0250876933769902e-07
1
1
1
1
1
0.00020577365216072231
5.0483906509525073e-10
-0.0016436979928307683
-0.0010486043675304525
-2.4232189521384073e-07
-5.3981053200877635e-08
1
1
1
1
1
-7.4091409697777581e-06
1.310519688555094e-10
-0.00049386945034831427
-0.00045329961327823657
2.9951577905988025e-11
8.1453097992529618e-10
1
1
1
1
1
-2.6803490416767696e-05
1.7947932395795945e-08
-3.6824589987958504e-05
-5.2377435389002834e-06
0
-1.7881638512811546e-09
1
1
1
1
1
2.5754555089207259e-08
3.8746862101874821e-11
-1.2152941418256622e-07
-1.6615045913281609e-05
2.3041197413447794e-08
-6.582635043724727e-09
1
1
1
1
1
-4.465318313436691e-07
-1.2054203128097165e-08
-0.001709550038847831
-7.1063923613323325e-06
0
-2.9320294800177353e-10
1
1
1
1
1
2.2646288380350605e-07
-6.7365431716038425e-10
0.00022472840256453761
-1.7580681998784904e-06
1.0535100733426184e-09
0
1
1
1
1
1
2.2883062752353126e-09
0
-4.6571690388202334e-06
-5.6601264254398497e-06
-9.8696264439443076e-09
0
1
1
1
1
1
7.0669611219323659e-08
0
-1.2854644052767081e-05
-3.1719569459511589e-08
-1.5555861027173279e-05
8.0607240221673323e-10
1
1
1
1
1
-8.1449415842239731e-06
5.6907632772687857e-11
-2.8814237190326757e-08
-0.00018898253787907261
9.0177196410289542e-09
-2.9572334689577622e-07
1
1
1
1
1
-4.7665514428808024e-07
3.0940570151527512e-11
-0.00012709478877749247
0
-5.0917805902064221e-06
7.2619690129810849e-07
1
1
1
1
1
1.8668503665545624e-06
7.0588523172079531e-12
0
-2.7950076729084185e-05
0
-1.759391170570671e-07
1
1
1
1
1
-4.0424621319731619e-09
0
-1.1865425039632104e-05
-3.8080264836969212e-06
0
0
1
1
1
1
1
3.810384977727262e-08
0
-1.944153324142766e-05
-1.0925059792709012e-07
6.2903814264991134e-06
-7.8331083776292129e-08
1
1
1
1
1
-1.6535136290379766e-05
-2.5816884310263498e-11
-3.2781742298832546e-05
-0.00011116972946965922
-4.59200063442257e-13
-3.6975157247881519e-06
1
1
1
1
1
2.2659535134508437e-07
-5.2800225847354755e-11
-6.0041403222591107e-08
-0.0010513379555160186
-6.6279252886570923e-09
-1.0921989654498345e-08
1
1
1
1
1
-4.9565509106952826e-08
0
-1.120179039601392e-08
-3.2179959601586145e-05
-3.3896937005778013e-06
0
1
1
1
1
1
-8.9259395532671435e-08
0
-0.00024716917947257259
7.5103946668914988e-10
-8.4431458085431611e-09
0
1
1
1
1
1
1.1476477568626927e-16
-7.8271080801674061e-09
-5.717214594312083e-05
-1.047640167084737e-05
-1.4130518842109375e-07
-4.6010281575673494e-09
1
1
1
1
1
-4.9242836918046727e-06
3.3057642191632207e-14
-1.8037139970726703e-09
-2.9876664363694602e-05
7.0945450300223862e-08
-2.4661518497322452e-07
1
1
1
1
1
-1.3053982837164988e-07
0
-4.4563238787753183e-07
0
6.9978877380025503e-12
-6.7508944003707752e-10
1
1
1
1
1
-9.3200971748388396e-05
0
-4.3867674533099179e-07
-2.028260932187984e-06
-4.2584625056690337e-09
0
1
1
1
1
1
-1.2879294804856431e-08
6.2080886748283193e-09
-4.8810271016914646e-07
-0.0076243584909651855
-2.6237633901048506e-07
-4.1457781029500172e-08
1
1
1
1
1
-6.0765541018307924e-07
-6.1526606721186476e-11
1.021963307551654e-05
-2.3126901482557897e-06
1.9860221086259916e-09
-5.2078351048611524e-05
1
1
1
1
1
-8.5031446332362305e-14
-9.78738553445134e-11
-3.5130547322404247e-05
-0.00026355429405966929
-6.6951084969530616e-08
-1.2146532065780865e-07
1
1
1
1
1
-1.1493738863905947e-10
-5.1881763910210782e-11
-2.954197621265346e-05
-1.3642586882314821e-05
-5.7436465380691909e-09
-3.950496653314723e-07
1
1
1
1
1
-1.6407670205685512e-06
0
-2.3880099856940494e-06
0
0
-0.00021705989593290422
1
1
1
1
1
2.3491450025795019e-06
0.0022761438717935397
0.00070518973034868176
-0.0062438229592783187
0.016927472774213088
0.0059088983749963743
1
1
1
1
1
-0.0016008122839011795
1.8608297745866968e-06
0.023456249859777865
-3.6384548040817139e-07
0.010490614498405975
7.1964899908174003e-06
1
1
1
1
1
-6.946724648391404e-08
0.00011922207833860136
-0.0070537778295499927
-1.067554334045919e-05
2.023176275018345e-06
-0.015300340510664175
1
1
1
1
1
-0.029971318320764599
-2.1139154694724196e-05
4.8689912411867904e-06
-1.5404319559630619e-06
-0.0002210560759668472
-0.011591560052166957
1
1
1
1
1
-1.0248009209022987e-07
4.3144067278892986e-05
0
-0.00021162326481353444
-5.2613416292260516e-05
-0.0023053659349710804
1
1
1
1
1
1.5393038520846842e-08
0.0001172204718251186
0.0064293384349903473
0.082531352392200205
-0.0017549220401138451
-0.05040000583669943
1
1
1
1
1
-1.4572081440254957e-10
0.0012161514835547732
-0.018790833742004735
-0.0089735382475042529
-0.0031548270956315056
-8.662124893363622e-06
1
1
1
1
1
8.1291176271561566e-07
5.7408885983400208e-05
-6.8812136369944093e-06
-0.0032109948202679707
-0.00013335938415857089
7.8783488192022582e-05
1
1
1
1
1
0.0055698228125539003
3.0052568251253794e-05
0.0030099862164033298
-0.00014095841751686066
-1.3046942382518866e-05
-0.0010404246803567495
1
1
1
1
1
8.8518762680843551e-05
0.0019611959858738381
0.0035070066016243779
-0.0031482032129442499
-0.010322297548539959
0.00046404594998147132
1
1
1
1
1
-0.00069770856927677417
2.1833482767852485e-05
1.4489658666508568e-07
-0.0052469864676078087
0.0068806838606590669
-0.012552886262367583
1
1
1
1
1
-0.0059730930754023116
-0.00014619577357537859
-0.041697864531868606
-1.0490003231640831e-07
-0.0090611564697949676
-0.0011974297083822462
1
1
1
1
1
-0.0040205377523675071
-3.1099835546363757e-08
0.00033269761521220991
-0.00022164490231684552
-0.0024265487003872028
0.0040765286262782691
1
1
1
1
1
-0.00018909028154910388
1.7631830952731495e-07
9.5191206473372515e-05
-0.0001434316606692708
-0.0014989870619118799
1.0279843015513501e-08
1
1
1
1
1
-3.769901995666017e-07
0.00021775242997942352
0.035653007269194605
-0.033996435190619421
0
-8.3338574082954494e-05
1
1
1
1
1
0.00018757896150325504
4.8353535917626867e-07
0.00056587294567944895
0.050243258979115253
-0.00018897575657921082
-0.0069206940878564164
1
1
1
1
1
-0.0055758031951422399
-9.9452025549224757e-09
-0.0001685623843246746
-0.038430172857530621
-0.0008855116716418274
-1.3862472540948359e-08
1
1
1
1
1
3.8737405916683335e-05
0
-0.00024376020680717372
-0.019738721807562296
-8.5754228652041558e-07
-0.013255294795316789
1
1
1
1
1
-0.0038109547178705617
2.3327813117070385e-07
0.0059932571828288303
0
-2.724173667599903e-06
-0.0040712481655429946
1
1
1
1
1
0.00011862879280659109
-0.00033648955763533953
-1.360147293507e-05
-0.0006393347561823603
-2.1304290933840114e-05
-8.2594223672212292e-05
1
1
1
1
1
-7.6610680802209434e-08
0
0.00038083108213895941
-4.2107443222305762e-05
-8.4083133955176005e-07
-0.0021778230462756155
1
1
1
1
1
-0.0040602156684363946
0
-3.7546425037395014e-06
-0.00044178517361799264
-0.00016246746880735992
-3.5699169213174348e-12
1
1
1
1
1
-0.00012355122977663149
-3.7948265861544656e-05
4.3753794776365728e-06
7.229637739721938e-06
-7.4361814110143549e-07
-0.00011007968624282438
1
1
1
1
1
1.0655187473011329e-09
-0.00014440613933105648
-0.0027777041532371176
-3.3621761025426537e-05
-3.9115636525658466e-06
0.0035733529242839295
1
1
1
1
1
-0.00035316659349261603
1.2986177967279151e-07
0.0090585979637595234
0.001438621477392376
0.0020577007543865853
-0.00069131626859225302
1
1
1
1
1
-0.00059782524456678671
8.7411703007434723e-08
2.9511089811846907e-06
2.3197809261019203e-07
-8.4839684305922005e-05
-0.00021501947101821309
1
1
1
1
1
-0.0027105576044826512
-4.3016405717543273e-07
-0.0038328798606235481
-9.495245816623841e-07
0.012915714174978646
1.1740580248304141e-06
1
1
1
1
1
9.4266466582616274e-05
-0.00019178280212427376
3.8473447202825194e-06
0.00010742537825304044
0.010528684832340648
0.00020390517713495294
1
1
1
1
1
3.580704567150255e-08
5.1916660287959629e-08
-0.037255780732537457
0.00059528543741259722
-0.017520838891280446
-1.8063303187487797e-05
1
1
1
1
1
-6.7876902987029616e-09
-9.910322075892109e-07
-7.7160728419246442e-07
0.0093348450841540479
6.8169353114911366e-06
4.8779163934620166e-06
1
1
1
1
1
-0.0023033673104354844
1.4467025747254571e-05
0.0046006533333640878
0.037365601668755931
-3.107314604723086e-05
-4.5705929773798111e-05
1
1
1
1
1
0.00057454119071837385
8.1884017142479266e-07
0.033720476077176501
9.4752952980832132e-07
9.3245006103658519e-05
-2.2109566456512441e-06
1
1
1
1
1
-2.974869824417887e-06
6.7138258962795428e-05
-1.9273646309216988e-05
-2.7713834272971116e-06
-4.7904213054646584e-08
-0.0012337675567673525
1
1
1
1
1
7.8532337819480637e-06
2.2941970730958831e-07
0.0091826356759759659
0.0001565168338282724
2.4486818749530798e-05
-0.00091395906248555058
1
1
1
1
1
0.00023197058511518806
0.0001345793691709132
4.8939905087400374e-06
0.009808566025951768
-2.5291997101586657e-06
4.1187463597958332e-08
1
1
1
1
1
-3.3392863844637249e-05
-2.8410839041694166e-05
-4.0487581970745757e-07
1.9801776438706183e-07
1.6950761682641483e-06
0.00031056350712678027
1
1
1
1
1
-4.7821982260652348e-05
3.3284777455757183e-08
-0.024741301984845084
1.9396191565605682e-05
0
-0.0057753042568514006
1
1
1
1
1
0.00016972699475144071
1.6765282768444419e-06
-2.917336388876535e-06
-6.8304139285957716e-07
-1.1397374823632972e-07
0
1
1
1
1
1
-5.9951591272165173e-11
-3.3849214050440266e-08
-4.5254615272122667e-07
0.000259062290661629
1.5677806233396934e-05
-0.00017802058769707344
1
1
1
1
1
5.7176360862316973e-05
4.9815591686321892e-09
0
2.1889152287858167e-06
-1.7803752304494847e-08
5.774537645893098e-07
1
1
1
1
1
0.00018252363047411359
0.00057569258231415722
0.00019661163040363632
0.0010761255524729977
6.7897371070651776e-05
7.1195491082156912e-05
1
1
1
1
1
-6.4303979370853808e-05
2.3764775727699142e-05
0.044440175638453067
0.0028199650098154195
-2.2044219405943336e-07
-0.0042862509798955537
1
1
1
1
1
-0.00065505270879155707
4.1562971641463036e-06
0.0014005566358258807
2.1488840240465816e-05
-1.3625962134181609e-05
-8.4074384996306179e-06
1
1
1
1
1
2.68373049183096e-05
-2.9117867959621322e-07
-4.4896374022420625e-05
0
1.3825957936749616e-06
0.0051188675261537855
1
1
1
1
1
-9.7383675631033397e-08
-2.1727911120547722e-05
-0.022177924268308367
-0.012347390742538194
-2.0439393066631908e-07
5.1196940613959913e-08
1
1
1
1
1
1.3987926644286609e-05
-4.6503866957449219e-07
-0.025747865901139602
-0.0089870936079249116
3.6242404947519991e-05
-0.0039621404529344983
1
1
1
1
1
-0.00012317881491880067
0.00021660900011382338
0.020429802767420752
3.1107238438014632e-05
0.0001476861116606181
-0.0025691278459816476
1
1
1
1
1
7.4409455357476217e-06
-6.360191737682045e-06
-8.8087918992867789e-06
0.0060607784481776185
-4.7783506044339212e-06
0.0018083704174415404
1
1
1
1
1
1.2485785739102075e-06
-9.8622542747272671e-06
-0.0072749898011168828
-0.0019029005962379988
0.0016513959346951582
4.5721304678970772e-08
1
1
1
1
1
6.2160354920221273e-10
-1.2328507571281773e-07
0.00019963420016184027
-0.0004308718468096551
-0.0020232176186429861
0.0070522028749616088
1
1
1
1
1
-0.00063390767085159266
-1.7734432066644875e-06
0.00051827547894867326
-0.0012467133431453398
0.00055975804964556179
-8.8824176465396588e-07
1
1
1
1
1
0.0019799788642412626
-6.9399713650351051e-06
0.0070487815128408831
-3.5519047925974289e-05
-0.00075829717850317243
0.034954149019960468
1
1
1
1
1
-0.0066480621264198613
0
3.4036156584154002e-07
0.0017362851597217213
8.8482105327369274e-05
0.0062099998792338289
1
1
1
1
1
-0.00066606799253026241
0
7.2809583034888869e-05
-5.764340045737416e-05
-2.6942636470639024e-06
-0.0061849855879034729
1
1
1
1
1
0.00020748326988583528
-2.1515783672288067e-05
0
-0.00072866288439812541
0.0078229179439348404
-1.4367363642757475e-05
1
1
1
1
1
0.030241989933809867
-5.1166446935963856e-08
-0.00092992510735751032
0.0094479277833957372
0.0099762738148567801
0.00056465488187441859
1
1
1
1
1
-0.00010862928484849144
-1.7602628607538476e-07
6.2259623743693621e-07
-0.0075445746197881905
-1.6573034301290658e-05
-1.3312856256232853e-05
1
1
1
1
1
-8.521929695179136e-09
2.7925272126218375e-12
0.0040487634248753948
0.0050818643237519933
2.5492407906760125e-11
-7.0479347566484372e-09
1
1
1
1
1
-2.0490262508680314e-08
0
0.00012062642758601319
0.00075332907603889486
2.8889693099297995e-10
7.7475078340229889e-07
1
1
1
1
1
-2.8044962967719458e-10
0
0
7.7674027753627083e-10
-1.3833614879628941e-10
4.6111135029152516e-12
1
1
1
1
1
-2.7986086896300176e-05
0
5.7383738089379931e-06
6.3195569721342875e-06
5.3701376341810787e-10
1.3951077296940266e-07
1
1
1
1
1
-8.2056362739642334e-05
2.3399529333656426e-11
-0.00057828585937747228
-0.00090370303783662875
0
-5.6353550527894886e-08
1
1
1
1
1
2.9416946939832027e-06
0
-4.9955620058739309e-07
-0.00063276429321629181
2.6111465442140794e-11
1.0149020603898396e-09
1
1
1
1
1
4.9189289189772741e-05
0
-6.4432753647628605e-07
5.8605915524912445e-06
0
5.6241729505124968e-10
1
1
1
1
1
1.0118653167235409e-08
-5.4871536724891411e-12
1.8184569776832594e-07
-1.9344599733993095e-05
4.5311290029176868e-09
0
1
1
1
1
1
-7.1032452007738886e-07
-2.0461101707493892e-12
-0.0020969327245955408
-7.1061050122425263e-06
0
-7.1115377690599643e-10
1
1
1
1
1
-4.4763048342735078e-08
-1.1544073647469724e-10
4.0441079424078275e-08
-2.1200224647315687e-05
1.483461742823991e-09
0
1
1
1
1
1
-5.2444838067187632e-08
0
0
-1.2159675073545499e-05
-2.2165878183950453e-09
0
1
1
1
1
1
-8.2974155211644224e-08
0
-4.6241218480574585e-08
-1.1447920320931458e-08
-1.2660735763450048e-10
-1.8464402124586246e-09
1
1
1
1
1
-1.3820221983595266e-05
-1.2663284159195089e-12
2.1290800852743681e-08
6.9794117888642211e-05
-2.7406188548123991e-09
-2.193973478452081e-07
1
1
1
1
1
2.5645344863619086e-08
-5.6219241379499437e-12
0.00049976517717614495
0
-5.2970256324925635e-07
-3.4898070350523829e-06
1
1
1
1
1
-1.7564707196012639e-11
-5.1673118688343799e-12
0
4.1970693228150967e-06
0
-3.8061661501566005e-09
1
1
1
1
1
-9.7493114036018419e-10
0
1.1363445936830836e-07
-2.1093573126598835e-05
0
0
1
1
1
1
1
-4.2543832985174081e-08
0
-3.5144471976453958e-08
2.5791545249383375e-08
-1.692051238389131e-09
-4.6638374564873871e-12
1
1
1
1
1
-2.1657910625534479e-07
-9.9124683716612005e-12
-8.3090670405190767e-09
0
-1.2683073552448299e-12
-4.1900295257298713e-06
1
1
1
1
1
-5.5946165389905784e-07
0
-2.4769548146720275e-08
-0.0013430247057454254
-6.2198339786292492e-09
-3.6553312525565551e-09
1
1
1
1
1
-7.5623515777091151e-08
0
-8.5510779605304319e-09
-4.4389336650135178e-08
-1.1608244544825002e-08
0
1
1
1
1
1
-9.7749487381555511e-08
0
-4.5284634302912443e-06
-3.106608416458363e-07
-5.2301633964072671e-09
0
1
1
1
1
1
-3.6929418398196156e-16
-3.5103282821987572e-12
-9.790749981751344e-08
1.103483750782851e-08
-5.2094689732760961e-11
-5.6604948071406735e-09
1
1
1
1
1
-6.2033879511658844e-06
-2.5924989701153679e-12
-2.7507491221054347e-06
-1.8256965905489289e-05
-3.8337668578784237e-07
-4.1601450002414404e-09
1
1
1
1
1
-2.0738109879994324e-07
0
-2.8556786545450408e-07
0
-3.0906867862148853e-11
-5.9516340844624661e-10
1
1
1
1
1
-2.8604937785137522e-06
0
-5.9498832684155193e-07
3.2924903942869155e-07
-6.1020099985617635e-11
0
1
1
1
1
1
8.2551578670521894e-09
-1.0168292124312202e-10
-2.8192613521717839e-07
-4.6937880274601067e-09
-1.8464731553489956e-09
5.5930968716340678e-10
1
1
1
1
1
-1.512618647567278e-07
-3.7268246471719189e-11
-2.5635310730353087e-08
-1.3406907711952057e-06
-5.1135050589449249e-09
-2.7435482836681194e-05
1
1
1
1
1
1.0859256667544822e-14
-6.6231291520777765e-12
-1.6064506131400155e-07
0.00096958927566240531
0
2.6475514876006324e-08
1
1
1
1
1
3.6341785823218718e-11
-5.355923660750127e-12
-1.7162996919750421e-05
3.5567053187985876e-05
-4.1421114788578624e-10
-8.6885147119110816e-09
1
1
1
1
1
-2.8461307897680335e-06
0
-6.1001104714099311e-07
0
0
-5.1652709871613698e-10
1
1
1
1
1
1.14766425824553e-07
6.5252526034442998e-09
9.9239534955283294e-05
-2.1706324420080465e-07
0
-0.004832741057075385
1
1
1
1
1
-0.0031712134305463195
0
-0.00059741400395857533
1.1245706596797146e-07
-0.0083844883197679125
1.4987650573680656e-06
1
1
1
1
1
-3.2472914343659645e-07
2.4578935259416268e-08
0.010073463049275247
0.0001115713840245168
-2.1704865989367114e-08
4.7467914899531987e-05
1
1
1
1
1
-0.00015611871158536963
9.4975481929160507e-08
-1.2508354099048631e-05
-1.0553005327941554e-05
-6.3409612234675089e-08
1.6248312219984163e-06
1
1
1
1
1
-3.8801446019780907e-08
5.5516411315023876e-08
0
0.00026124126618496388
-3.4206921842090492e-06
-0.00014291718525674297
1
1
1
1
1
-2.8044756599708911e-08
2.676817389703306e-05
-0.0062703169527811853
-0.00012120928422753133
-0.0023520419976496747
-2.9694559337959349e-05
1
1
1
1
1
-1.5398976308702307e-10
3.9815583824439319e-10
-0.0055284856488654228
-0.00055397996121660784
-0.0027908589590080143
-3.4934866147641779e-06
1
1
1
1
1
-1.2503954905053979e-05
-1.8841305150754676e-05
2.62570172157138e-07
-0.0032143442163252139
-0.0012212419720573164
-0.0001311185577641181
1
1
1
1
1
-0.0055698288707238929
2.2744170712588782e-10
-9.6610080138410852e-05
-0.00011578404646955112
6.4613195211805113e-09
-9.4914448426685697e-05
1
1
1
1
1
6.067237372422628e-05
1.5707529371497723e-07
1.6029549797027794e-06
-0.001377754788518395
-4.2383820804164459e-09
-0.00010767068691063912
1
1
1
1
1
-0.00068730349485375867
2.5130878829490653e-09
4.328430048460102e-07
-0.0054979192235333971
0.0010472422373304969
-0.00027911738353654546
1
1
1
1
1
-0.0016687040159732987
2.0916425469257035e-07
5.6425226370283854e-06
-5.252720185371415e-07
5.3329898966107677e-06
0.0012208459760729639
1
1
1
1
1
-0.0015887415633145873
-1.4770353911868107e-08
-1.3845444515890145e-05
-7.3249310724528213e-06
-0.0010041685512484416
-0.0022727003751106091
1
1
1
1
1
-7.6336196236928788e-05
5.399107315743944e-09
0.0014366542114333345
3.1773121380554441e-05
-0.0018208278290232052
-7.7477150806253958e-07
1
1
1
1
1
-1.273724568383437e-08
1.6581069181591791e-08
-0.0095334045344191154
-0.00020926701379137431
0
-8.9788601546584654e-06
1
1
1
1
1
-4.4154892076727778e-06
7.3422399362702098e-09
-7.065162407714555e-05
-1.9778654662048736e-07
-3.3520566192694398e-05
-0.002979020745669509
1
1
1
1
1
-0.0052890556456329906
1.9271340592062855e-08
3.6201963537486411e-06
-1.3780656790471453e-06
-5.1630589503850234e-07
2.8978018948142678e-07
1
1
1
1
1
-9.9899706155631989e-05
0
-0.00017303968245205257
2.5015506524604006e-05
2.4540094747583818e-07
-0.00036374438948733468
1
1
1
1
1
0.001486795266994052
0
2.1389329909685875e-05
0
-2.2711033548362458e-06
-0.0030471320588389117
1
1
1
1
1
0.00047766180224949632
2.8325569728958645e-07
3.1138758588517292e-05
0.00017420612715388567
-1.4052883498211665e-05
-3.1088116335871433e-06
1
1
1
1
1
-1.0618509129895983e-06
0
-0.0015919900639596945
-0.0067522495536429398
6.7403869146753009e-06
-2.1409801861498941e-07
1
1
1
1
1
1.2999372822638867e-05
0
2.9615757157859918e-06
0.00024555812976460314
-1.8065292943431444e-06
-1.3603179027199997e-10
1
1
1
1
1
6.9868270200657749e-05
6.3107622255276371e-08
-1.2534195206217753e-05
1.4896985539684655e-06
3.3743074692023499e-07
2.3154018690691979e-08
1
1
1
1
1
5.001120716437438e-10
2.7966963135878352e-07
0.0049929470398379083
-0.00041495601910878618
1.3543161409653327e-06
-0.0037522660577249166
1
1
1
1
1
9.8685503128398705e-08
0
0.00094479853413087663
-0.00069370439977692008
0.00045580526133530896
0.00043486330904411881
1
1
1
1
1
4.941796499417048e-05
2.8476206516862938e-08
3.2947651271596971e-06
9.1699647798643143e-08
2.5409312976111849e-07
-6.534753135647516e-05
1
1
1
1
1
0.0011640800856748917
-5.7513483934542474e-08
-0.0040040288660610967
-0.034479669886704624
1.8230591180207062e-06
1.5841177935196707e-07
1
1
1
1
1
-3.1717814458018336e-05
0
2.1191794351883154e-05
0.027142132762426548
-5.2504104057856714e-06
-1.5895123684888465e-05
1
1
1
1
1
6.459490763463263e-08
-1.0012467796908766e-09
4.0228767718860938e-05
0.00011893867343257955
-4.0991650268764789e-07
1.3717259567053104e-06
1
1
1
1
1
1.0751832127005869e-09
-1.0332266364869514e-06
1.8601843958230882e-06
0.0086960014569412592
1.4771754026761961e-06
1.0439015135208002e-05
1
1
1
1
1
0.00025831404836194649
7.6848311358723606e-08
0.0025598678251344438
0
-1.0931789253283e-07
-6.7741475594022051e-05
1
1
1
1
1
0.0005744953837993319
5.2012136384809566e-09
-4.1055194913624607e-05
-1.0921310516605069e-06
-0.00017811259768508214
2.0807324479637106e-07
1
1
1
1
1
2.4871846455310331e-06
5.1965662086432963e-07
1.9767443020240568e-05
5.3489216864171644e-06
-2.323311364040507e-08
-0.00046381134060661632
1
1
1
1
1
2.0389366712716954e-06
1.3929199562171367e-10
0.0001459190808061527
0.00017883589036898532
-1.060983042395843e-05
0.00038246949507553935
1
1
1
1
1
-0.0013335080116264255
-1.9766492633727848e-05
3.2713753335569322e-07
-0.0035455614179015788
0
-4.4314461772237126e-08
1
1
1
1
1
-6.3389741299399239e-06
-4.9253823455861511e-08
-5.5204516551414647e-07
-2.9808803717492031e-07
-1.1396413621256895e-08
-3.6351745391862548e-07
1
1
1
1
1
-2.6642410078152008e-05
1.324740458875806e-10
-0.00015201927661060642
-1.818478696749423e-05
0
0
1
1
1
1
1
0.00015990105556514607
1.6883000748631064e-07
-2.9371730232986636e-07
-1.7122498553554467e-08
-1.4856870415189405e-07
0
1
1
1
1
1
-1.5006411029422892e-10
-4.9609279988185676e-09
2.3388101007776105e-05
7.2256544606359881e-05
-9.7371958150064149e-06
-7.9020948222258646e-05
1
1
1
1
1
0.00014646237741709606
0
0
2.208083585763926e-06
1.6957582731398161e-08
3.928371932833847e-06
1
1
1
1
1
-1.2269320494895547e-07
-2.1799100687064519e-09
1.8143443546503243e-06
0.018004411016205184
-1.1491133009824511e-07
6.9651870754013289e-06
1
1
1
1
1
-2.6532931776715313e-06
0
3.2589834079358877e-06
0.0045088733199225867
-1.3893109672358112e-07
6.7587941296517033e-08
1
1
1
1
1
0.00094057544622917809
2.1252574869733845e-09
8.160760869192829e-08
0
-4.2199626258363253e-06
6.1781785504742591e-07
1
1
1
1
1
-1.4152850200098462e-05
4.7155666012100893e-08
-2.3262395583341425e-07
-0.022022696015298875
-1.1007343701097666e-06
-3.2423709035229703e-05
1
1
1
1
1
1.3952286528727907e-07
8.0801647313580055e-08
-3.5000658802618937e-07
0.003206244754524155
4.0120553353027939e-08
5.1196940613959913e-08
1
1
1
1
1
5.2606153960042085e-07
7.1263993577630118e-08
-6.555331833816853e-05
-0.0089934853094214319
1.3415082453617972e-05
-0.0016213221482976653
1
1
1
1
1
6.8129373011952785e-05
5.4331746302078589e-08
0.011584312942805165
2.2897383970906077e-05
-4.2816750898052731e-08
1.2834425183912422e-05
1
1
1
1
1
1.6508864392741193e-07
2.076793485921026e-08
-2.3625196336163031e-06
0.0059002962165647151
0
2.8242083165299742e-05
1
1
1
1
1
-6.0218044940316122e-05
0
-0.0037295806421932219
0.0014483548591906511
-0.0016471348428844814
5.8794828151952406e-08
1
1
1
1
1
7.8763883281440215e-10
-8.1326333042903043e-09
-9.0637065409002263e-05
-0.0003961367930385541
-0.0003191509205594579
-4.6602448400819504e-07
1
1
1
1
1
0.00078928040039190849
-6.7809099200171633e-10
0.00013173209015070907
-0.00053852828757825117
0.00063478147700141141
1.2039268686198474e-06
1
1
1
1
1
-0.0011696056835516964
-9.2443043546700341e-12
0.00013941508345586843
-2.9095881677204126e-06
-3.137563786755957e-05
1.7098570037307797e-05
1
1
1
1
1
-1.3091187490279768e-05
0
-8.151848243185683e-07
-0.0026416479113967259
-1.1903887662430568e-07
1.0988978706269256e-06
1
1
1
1
1
4.268611619024867e-05
0
-8.2935996748763365e-05
-4.0851555424732817e-05
-7.5261649777258886e-08
-5.6868911623453855e-08
1
1
1
1
1
1.6368807260078457e-10
-1.2928476069998306e-08
0
0
2.5378224535130004e-05
1.7879942035231054e-07
1
1
1
1
1
-1.1374126638716153e-06
-1.8260692223633266e-10
3.360463569974914e-05
0.0081728282455311423
-3.180395065759947e-07
-6.1498146694192133e-07
1
1
1
1
1
-3.2994222933289236e-06
0
3.4020540435216592e-07
-0.00098794459279298455
2.8507036735032815e-05
7.3649319126474484e-06
1
1
1
1
1
1.1699256955028915e-08
1.3253146489388518e-10
-0.0014665685994030096
-7.7914657538535691e-05
-3.5327006584539023e-08
-8.3295090268573598e-09
1
1
1
1
1
0.0015633492567568141
0
0.00011696778795049689
-0.0021973867247639081
-1.7787342291373726e-10
4.0682725771021833e-07
1
1
1
1
1
3.81815952225153e-10
0
0
-6.99840558925875e-07
8.4458297840080414e-08
1.8499718953795686e-08
1
1
1
1
1
-7.2117595315777146e-06
0
-8.4525182385458706e-06
5.6090517722033099e-07
2.64922895937157e-05
-5.0259665130117162e-08
1
1
1
1
1
-0.00020577024924606463
5.295872243324922e-10
0.00072496594021822635
8.6502600996145638e-05
0
-2.323486609287896e-07
1
1
1
1
1
1.5557018902825513e-05
5.9057095657590922e-10
4.5320201804068696e-06
0.00023153803472280126
3.7648485663154508e-11
2.207013159531414e-09
1
1
1
1
1
5.0034797537014737e-05
1.8739286788596781e-08
-1.4224816927627165e-06
-4.9225941806441751e-06
0
-7.4351178251391673e-09
1
1
1
1
1
6.2277225456041696e-08
1.2519204098689176e-10
-1.1011020398309434e-07
-1.60161044608592e-05
1.8816212560759868e-08
1.0730020417996685e-07
1
1
1
1
1
2.1681453251368297e-06
3.3298968540493784e-08
-0.00060850415109420274
-1.2182239301372977e-08
0
-6.6456472106177125e-11
1
1
1
1
1
2.2694529653663819e-07
1.6793453254758967e-07
-6.3691811322914658e-11
-0.00017104305679200161
3.7360674721633379e-09
0
1
1
1
1
1
3.1328446144640727e-08
0
-2.5467098746966797e-06
-1.0384927498267863e-06
8.5620171307022022e-07
0
1
1
1
1
1
1.1244613434809832e-07
0
6.6288609441919105e-06
-8.4879762104787425e-09
0.00016133378150082192
2.5867508792507369e-11
1
1
1
1
1
4.0777772226553102e-05
8.5831618361196382e-11
-1.4824347353505257e-08
-0.0001769855036508873
1.1823087055789965e-08
-1.2446081294506274e-08
1
1
1
1
1
4.1912822917177844e-07
3.0606483553951086e-09
0.0007594206872328697
0
-4.7606868616931047e-06
-1.0333638594155431e-06
1
1
1
1
1
3.6162795259971155e-06
9.6029620281833538e-12
0
7.8609313988864761e-06
0
2.9272721070252038e-07
1
1
1
1
1
1.6420817855061101e-10
0
-4.0455147274705558e-06
-1.3481698771142003e-05
0
0
1
1
1
1
1
7.1873001358013677e-09
0
8.4135466827871541e-11
-5.6371044730780425e-08
-4.7328323838429744e-09
3.217395648077327e-09
1
1
1
1
1
8.430212326718872e-06
7.6921244124098713e-11
-1.141612830552393e-09
0
8.2898683230291587e-13
-4.8084313563160536e-07
1
1
1
1
1
7.1889500676929124e-09
3.5644361325584365e-10
-8.3394208051370608e-09
-5.0796308088862667e-07
7.2156488382988201e-09
3.6373169817388219e-08
1
1
1
1
1
4.3314154420158778e-08
0
-7.3893208151520882e-09
-1.2616932406538285e-06
3.3854126045136986e-09
0
1
1
1
1
1
5.2157202109574902e-08
0
-5.8819993398812721e-05
1.1412761750934106e-09
2.8476936127091471e-09
0
1
1
1
1
1
1.781487316473146e-16
-1.5777602615841874e-09
-2.4077532748812974e-08
2.5462781002712164e-06
-1.3416169783675743e-07
-7.1052558569429692e-11
1
1
1
1
1
-5.7305826125432825e-06
6.1316782481799377e-13
-3.2387325594317334e-09
-2.6196770778470819e-06
-9.0343847693600703e-08
-1.1902836089293942e-08
1
1
1
1
1
-1.0105211606862735e-07
0
-4.6832914144414327e-10
0
1.3841043187966061e-10
-9.0043245070307443e-11
1
1
1
1
1
-7.4003876497318669e-06
0
-5.9415564537025366e-07
-9.609571981725323e-07
6.6884764279844407e-11
0
1
1
1
1
1
1.4973459055545299e-08
1.0745706638824433e-08
-1.5401443203251921e-07
8.2168210135935744e-09
-1.1288382905556109e-08
-1.1660997008360822e-09
1
1
1
1
1
6.4836574653974594e-08
-2.4524364183181569e-11
2.8299395148153856e-09
-3.1089919862720582e-06
2.9999951245417296e-09
-1.2682525073318741e-05
1
1
1
1
1
1.0330263474204744e-13
3.828796239110241e-11
-2.3154119766058471e-07
-2.2439464945105103e-06
0
-7.1360266675927061e-08
1
1
1
1
1
2.2731599507113e-10
2.7003503505108506e-11
-1.4225180865066484e-06
-2.6222007971795361e-05
-8.2043371644928522e-09
-5.2964952665826839e-09
1
1
1
1
1
-1.6258744347482424e-06
0
-7.4961676820444806e-07
-2.8846785257628722e-06
-1.3151605140653809e-07
-1.6733171526031657e-05
1
1
1
1
1
2.1160837194106149e-07
0.0021700729014053639
0.0005909978334820025
0.01347600533706505
-1.7080165761026215e-05
0.012908570692051915
1
1
1
1
1
0.0034588434914781321
7.4901974533569988e-06
4.5480798342717934e-05
-2.0467956853002877e-07
0.013668182838464549
5.3550033573877308e-06
1
1
1
1
1
-4.3646379562333617e-08
-4.5344235949634456e-05
-0.010234786227297515
-5.5175853751920952e-05
-0.00072417511765641908
-0.016481681757739588
1
1
1
1
1
0.030051298318173304
4.8459250257961704e-05
1.6726619030583309e-05
5.4183163342309011e-05
-0.00011511532991443736
0.011593014273413308
1
1
1
1
1
-4.9534455578804812e-08
4.6738037463913304e-05
0
0.0027111183589639118
8.2783974726898123e-05
0.0025750018943407338
1
1
1
1
1
-5.5795247206690556e-09
-0.00022127362581360181
0.0063368236332607408
6.3848135204566851e-05
-0.00075676935170804541
8.0770386938069775e-05
1
1
1
1
1
2.3366334752293806e-11
0.0020863052076710042
-0.0088570187974135045
-0.0044515680959751275
0.0053767617258527476
1.433386369107554e-06
1
1
1
1
1
6.1502945047173223e-06
-3.3653993881898688e-05
-4.0268531972207604e-06
-0.00086071802284536753
0.000308382286407524
-0.00027621788621936047
1
1
1
1
1
-0.00066767252963291881
1.3413254128125868e-05
-0.005732853858326733
-7.3181324460143204e-06
1.3051512818005558e-05
0.0012105092943030685
1
1
1
1
1
0.00017089357486555756
0.0057414354097710812
0.0010567032834439059
0.00037211117086524269
0.0074454683727031316
3.3981321628537841e-05
1
1
1
1
1
0.00075711975637044544
-1.7389864229902538e-08
-0.00022497055000710698
-0.014024998499678315
0.0037953906720907711
0.01210266768287808
1
1
1
1
1
0.0038784356034687988
-0.00037804259161520435
-0.0010023998330098676
-9.8636202560513663e-07
0.004081419270222094
0.00085400850517389649
1
1
1
1
1
0.0012596094685725365
-0.0011740212968582285
-0.00044547569577856034
0.00013948432927781145
0.0018902687826856575
-0.0015110689234074854
1
1
1
1
1
2.1095554267828399e-05
0.000194043782192827
0.0041304825503198205
0.12736304130069398
0.0073948980368287063
-0.00096951943491961601
1
1
1
1
1
-6.0470266129076473e-07
-0.0003826150283549468
0.0092644410367468226
0.0080587872352799773
-0.00036071561533004099
-7.7158316324186783e-05
1
1
1
1
1
-0.00018562448265809186
4.8354728222506099e-07
0.00066179215086000745
-0.050242100632833381
-0.00038208889324589917
0.0024266345720364564
1
1
1
1
1
-0.0038041185043725771
-0.0018217702846921523
3.0506470994610798e-06
1.2887438502686082e-06
0.0024366109796280263
0.0001344623515884636
1
1
1
1
1
-0.00024569193830356384
-0.00013604044852595293
1.3573242460858833e-05
-0.019619407943591374
3.5158401804311895e-07
0.00084616654912432151
1
1
1
1
1
-0.0056725273303967743
-1.0363663506046151e-05
7.7513432548580285e-06
0
-2.4849150482993449e-05
-0.0053889078561209355
1
1
1
1
1
-0.0014650182965892603
0.00033578904743191557
-3.9679110355020211e-05
-0.09924343391481534
-2.4514728452374484e-05
-0.00063517039425974465
1
1
1
1
1
-1.071283447160554e-06
0
0.00026145221328985964
0.0065836427996609128
-0.016034677140155423
-0.00023766661619253497
1
1
1
1
1
0.0020265227200328985
0
3.3101134866464203e-06
5.7046567513347103e-05
0.00040346591605474312
0.011662377655106847
1
1
1
1
1
-0.0001955905213991046
5.5080368677561632e-05
1.6072233118851803e-05
1.8635313549265942e-06
2.4551126370977455e-07
-0.00012181375270214014
1
1
1
1
1
-7.3356827962695899e-10
-0.00013976180253718782
-0.0056402427995401044
5.9092048350896166e-05
-3.2063831063327982e-06
-0.0042226839041370114
1
1
1
1
1
0.013690492060918226
-1.6295051817734476e-07
-0.0045271993283861828
-0.00044139631348040449
0.0014117314578302135
-0.00022081058588569905
1
1
1
1
1
0.00041600128518078544
2.0630987903951858e-05
0.029852523289222405
1.4271821082701212e-07
3.2951907475617346e-05
0.0065041880097874722
1
1
1
1
1
-0.0041310611150364536
8.5332663841052714e-05
0.0047548457264526061
0.069629133083546388
-0.021340259749512803
-0.00078102370709973125
1
1
1
1
1
1.9020753884053709e-05
-0.00019178280212427376
-0.00061935956343395823
-0.0001423704769443804
0.0052618601650327593
0.00046107422092847811
1
1
1
1
1
-6.0874825709817813e-10
2.0604974290192165e-05
3.1648835449023594e-05
-0.00026332553102445739
0.031436846189775616
-0.0010991887539783167
1
1
1
1
1
-1.1080287296417891e-09
-9.26130300871064e-06
7.8252820640721507e-07
0.0052063377030056165
6.8169353145768285e-06
4.2337617948611938e-06
1
1
1
1
1
-0.0031764706903076004
1.3178224363559366e-05
0.00049912449680900137
-0.011024749508046277
-3.336664567016646e-05
-0.0001523359531383341
1
1
1
1
1
0.0051523627793342549
-0.00095749685405883175
-0.0040768428336568361
-2.4958409757824501e-06
0.0004922883650320544
2.5885747003748796e-06
1
1
1
1
1
-3.8898831716460817e-07
0.0004003420264057169
-0.00029620733887120057
3.4393990645938841e-06
0.021608581735288228
0.0025404669402237065
1
1
1
1
1
-1.4387989830771146e-06
4.6351007718019839e-07
8.0264150708095881e-05
8.7419735300381751e-05
8.2808238429938232e-06
-0.00065243516580987878
1
1
1
1
1
-0.00088392346168916238
4.0478287712308555e-05
0.0029534179249749225
0.010600966928886865
8.7937434197575035e-06
-1.2853213728530369e-09
1
1
1
1
1
-1.6821074961282283e-06
-2.4294521089615283e-05
-0.0020721851446490495
-0.00065782452274102754
-3.8230929247291777e-06
0.017781244185709887
1
1
1
1
1
5.1116564491453259e-05
-0.0030148900643048749
-0.0098125867294030552
-1.9331862277910727e-05
0
0.0058221228006033986
1
1
1
1
1
0.00021045129573850561
-0.0014007119853701143
1.0537252913846628e-06
6.8056372506322891e-07
-5.9252163382466317e-06
0
1
1
1
1
1
-1.0859789103563955e-10
8.2889940183200115e-08
6.4183821928087716e-05
0.00026625244314106163
6.5642821958544334e-06
0.00016136882647553474
1
1
1
1
1
-0.00011984791148141758
-0.00037999789132216606
0
9.1624616026098817e-06
2.5217417496333354e-09
-0.00026066883392834113
1
1
1
1
1
-0.0069425561630746249
-0.00025682144462265376
-2.9098218719192529e-05
-0.019071652730773655
-6.7565826606023546e-05
3.7150953376857652e-05
1
1
1
1
1
-3.6265979425856891e-05
0.0027731429218830531
-7.6170385857473878e-06
0.0022259964903260554
6.2490582135936483e-07
0.00428852884965458
1
1
1
1
1
-0.0066750785635156023
-6.2330262562177932e-06
0.00026611569123858859
2.1960969141668158e-05
-0.0017162417866698968
-1.9280643963099808e-08
1
1
1
1
1
8.910773405292474e-06
7.8093549205480165e-05
4.1148378554772113e-06
0.022022696015298875
1.4668025051699194e-06
0.011088623898661098
1
1
1
1
1
1.628832404819463e-07
3.6188958439835594e-05
-2.1275176964342172e-07
0.0077401950924027461
5.6021205050438537e-06
5.1196940613959913e-08
1
1
1
1
1
-1.8084411720026594e-05
-0.0030344819579920732
0.024898984283101933
0.011392272751872701
-0.00030580931867354614
-0.0040106740470074219
1
1
1
1
1
-2.3676768714227305e-05
-0.00020550427684987334
-0.025424618991288291
-0.0027688304134921107
-0.00017573516376986046
-0.011432837938238846
1
1
1
1
1
1.665763100309847e-05
0.0039660677938168675
-1.2905367893541988e-05
-0.01449296776489261
2.7241116849725349e-05
-0.00033228831777907717
1
1
1
1
1
1.4749327119630554e-05
4.5327883173482668e-06
0.0068938996761846389
0.0034456968125665386
0.0026703868090426357
5.8362205154850739e-06
1
1
1
1
1
1.3957596013467113e-09
3.2569216248427823e-07
1.1524165496736688e-05
0.00039804834543467183
0.00051811699840051699
-0.0066535955861654148
1
1
1
1
1
-0.0042936589113403423
1.7050172554377819e-07
-0.00025727948674178025
-0.00055661568471336001
0.00056747193101480057
-9.2547164220436503e-07
1
1
1
1
1
-0.0008770234602131239
-0.0043514357082478699
-0.0060449745310593153
4.2234730796293396e-05
0.0014224978776913489
-1.7083116285900236e-05
1
1
1
1
1
0.017549457481583361
2.0559863852943456e-06
0.00034499244162743988
-0.00072000728919234449
7.9944614948893015e-05
-0.00080320160146118166
1
1
1
1
1
0.00033097770754931475
0
2.9301227473233215e-05
0.0001937328647674315
2.6724727807583818e-06
0.005997022783652186
1
1
1
1
1
0.0031935684739186039
5.1909348137231716e-08
0
0.00085242407650881454
-0.0078841515333834891
-0.00025430032368984121
1
1
1
1
1
0.0081126202304948446
2.8780285562863593e-07
0.00034391161821683609
0.0031491798958319371
-0.0010467572123074198
0.006196322890282875
1
1
1
1
1
2.7676945952388812e-05
0.00090135604236049149
-0.00028694059392825924
-0.0093453383547925338
4.5275683274282412e-05
0.00016576041549186708
1
1
1
1
1
-1.7372599334792387e-08
-6.7238683045709691e-11
0.0067077175294214001
0.0075213449590239134
3.7744774941545564e-08
-1.0701758431621584e-08
1
1
1
1
1
2.4033366349281562e-08
0
-0.00012047498723843148
0.0019181486982999536
3.6578601066729032e-10
-7.4513870846212412e-07
1
1
1
1
1
-5.6764321302812656e-11
0
0
1.7660962380006717e-06
-8.456521696217165e-08
-4.0293163307402571e-06
1
1
1
1
1
-7.9682066273603847e-05
0
-2.5314217925624361e-06
-2.165165286839865e-06
2.7657700072330035e-05
-6.3817552636887963e-08
1
1
1
1
1
-8.2052762441454433e-05
4.4495686311049798e-10
-0.0013087006478721599
2.8117215320811784e-05
0
-1.3798972454527189e-07
1
1
1
1
1
-4.7998256503189586e-06
-2.5665002272405462e-10
1.5098364706866886e-06
-5.2254431062460506e-06
2.7617955231419163e-11
4.4238009391323182e-09
1
1
1
1
1
8.8892853612026694e-09
3.0180071982919716e-09
2.3922578518623728e-06
3.862747830413543e-06
0
-2.3367833529960607e-09
1
1
1
1
1
1.7176103087042767e-08
5.9118661621563514e-12
-4.8262283744997128e-08
9.0762354951051566e-05
2.1073941356579753e-08
0
1
1
1
1
1
-8.7549995426414391e-07
1.1250564492672159e-12
-0.0026803339298357431
-1.2178872165419058e-08
0
-7.5430860143295092e-11
1
1
1
1
1
-2.9685967781198089e-07
-1.0582664985482298e-09
8.2642948889254351e-06
0.00016348949241533662
6.7918781226428572e-09
0
1
1
1
1
1
-7.7693214728655092e-08
0
1.5227262228484201e-06
-1.7812378146272194e-05
3.9334366240113992e-08
0.00041229714405119171
1
1
1
1
1
-1.1291650975800637e-07
0
6.181127848501077e-06
3.0491195455613622e-09
1.1303962987310249e-06
2.1028151727097148e-09
1
1
1
1
1
-2.2420647690759951e-05
-1.9956098669263672e-12
-0.00015084808088510463
1.3942651592651898e-05
1.609964850742268e-09
-2.4449451315785957e-07
1
1
1
1
1
-8.693892164084874e-07
2.5837025362521583e-12
0.00034740274136289432
0
4.536051362841158e-06
-4.2652677860196938e-06
1
1
1
1
1
-4.7149922097189953e-12
3.9557292440097827e-12
0
-9.888856939315004e-07
0
1.1987708883091315e-07
1
1
1
1
1
-9.7780060329543481e-09
0
4.1598524711640498e-06
-1.3481999213699863e-05
0
0
1
1
1
1
1
-1.062608189384362e-07
0
3.7803030481578571e-08
3.2882156569338648e-07
4.9944873984640646e-11
-8.8000103136847695e-09
1
1
1
1
1
-8.0667393706830377e-06
5.136239527815736e-11
7.0145701357983037e-09
0
3.4468263900712233e-13
-3.6564112644342768e-06
1
1
1
1
1
1.1357854487400392e-07
5.6065321607829601e-11
2.6418500736881781e-08
-4.5341516262061807e-06
3.6688103748279266e-09
3.0368320790770108e-08
1
1
1
1
1
-8.8491505982407874e-09
0
0.00013026385831385565
3.2401743996472594e-05
-1.0478549951886028e-07
0
1
1
1
1
1
-1.1403323615921944e-09
0
-0.00053575130535437232
1.8197336058751692e-09
9.9797116931948957e-09
0
1
1
1
1
1
2.3693617883497265e-16
4.9197439154366201e-13
3.0907017301960855e-08
-0.00051498578275612124
1.3416918732277393e-07
9.3028182707654476e-09
1
1
1
1
1
4.9323286239257854e-06
2.1828015743783096e-12
-2.749170908287847e-06
-1.4476758231671419e-05
2.7755672261406757e-07
-7.8332706513953916e-09
1
1
1
1
1
1.8625024347675742e-07
0
1.773159850173158e-10
0
3.4185904164161604e-10
9.3910226198533142e-10
1
1
1
1
1
-2.8258757234305585e-11
0
-4.3784735174551165e-07
6.6731240806338629e-07
4.7180132679021229e-09
0
1
1
1
1
1
-1.8073308509053561e-08
-7.7079309992334707e-10
1.3078008437538674e-07
3.4962424951777246e-05
1.4163271563817182e-08
3.7337376225654139e-09
1
1
1
1
1
7.592273798939123e-08
2.7974423150487856e-11
2.3711171905779905e-09
7.7343722827836368e-06
4.1053348892723305e-09
-5.4339419012298934e-05
1
1
1
1
1
-7.3814474652008286e-14
5.3870184794184675e-11
3.7918763343623013e-08
0.0001727560702184598
0
3.7185239046036272e-08
1
1
1
1
1
-1.8706416709922164e-10
3.1967455897843297e-11
-3.5002176887813046e-06
1.7600076915971568e-05
3.9735869481334508e-09
1.9903546363968846e-07
1
1
1
1
1
-2.8537046130638845e-06
0
-3.1408926060668787e-06
0
0
-0.00019422252696144559
1
1
1
1
1
-1.3644484491423834e-06
-0.00016039954491713364
0.00089118907236922858
0.0058552730756032314
-0.02539660814676312
0.0079879762741961249
1
1
1
1
1
0.002538694944108581
-3.7920167382498669e-06
-0.023412583387063948
-3.1888291415914568e-07
0.0052069199797093388
6.882651969781763e-06
1
1
1
1
1
3.4128720373553289e-07
-9.1578497833182206e-09
-0.0036294706591071995
3.9850245664765135e-05
0.00017720762372681829
0.0001854977223414179
1
1
1
1
1
0.00019303981823697708
2.5791396632984212e-05
8.9231588631348484e-06
9.3572840270401976e-06
0.00023086180019246051
0.00054615935628349657
1
1
1
1
1
-8.2276937703073569e-08
2.234810613137922e-06
0
0.0023429376681939791
-8.5657221995358616e-05
0.00013662967158674697
1
1
1
1
1
2.7094653159473948e-08
-0.00011673179477106731
-0.00048972099464238508
-0.00031699857061188769
-0.0039471352795337469
8.6503194891200314e-05
1
1
1
1
1
1.5398976264284792e-10
-0.0012384692215286518
0.012406769046086702
-0.0055339590368250679
0.0054755523560133783
8.2277163698409898e-06
1
1
1
1
1
1.0487630573650524e-05
3.5554946342577881e-05
8.9304884151558019e-06
-0.00086492353273743595
0.0011981291539476602
0.00015026703634317599
1
1
1
1
1
-0.0024510742137285086
-8.188085491011753e-06
0.010837440611764886
-0.011918167114827108
-1.3038589922069084e-05
0.00089630176084496728
1
1
1
1
1
-0.00011145557896121447
-2.3443554515167242e-06
0.00066481676249653318
-0.0010453877329085124
-0.013652243544250904
-0.00041214200385870144
1
1
1
1
1
-0.00060336927069440675
-7.8327264320114015e-08
-0.00010925206215652129
-0.0057625542951233837
-0.0023058402444577335
-0.0073970931537053934
1
1
1
1
1
0.0017962488174394868
-8.410896368582938e-05
-0.00046616589046747807
-8.5591758894437481e-07
0.010357542972723703
-0.00053106468131732497
1
1
1
1
1
0.0040205377533745149
-4.0196802592563718e-05
-0.00046140617538637055
-0.0025484920827121113
0.0045182401565747182
0.0022761946220278858
1
1
1
1
1
7.4573240696336484e-05
-7.2965716456994718e-08
-5.9974322163224658e-05
2.5770368472551715e-05
-0.0026350707731673624
-4.7052822182980813e-07
1
1
1
1
1
2.9516012710154367e-07
0.00012585654405558176
0.045040553867315501
-0.00077485089054303276
0
-0.00015774865028467863
1
1
1
1
1
0.00051761938491560371
6.4573570364072014e-08
-0.00030498951070739876
1.9335508098290447e-07
0.00018984675069861484
0.0068654019079074403
1
1
1
1
1
-0.0016674246300332209
6.2815447132256812e-05
-0.0001487577577986253
7.7543208625021544e-08
6.1563957718151056e-07
0.0001344623515884636
1
1
1
1
1
-0.00012307924312864767
0
-0.00033106376132269839
-0.00011243688874974805
-4.7624189015193681e-07
-0.015619372876134364
1
1
1
1
1
-0.0010960606918950029
0
-0.078993875503955022
0
4.8148589292320564e-06
-0.00044885338404184187
1
1
1
1
1
0.000118632709079807
0.00033804865892236012
-2.0958089116407845e-05
-0.0038167061257585537
2.6655085844473045e-05
-0.00016363171537532012
1
1
1
1
1
-8.3577631591079807e-07
0
-0.0012073588557193994
-0.0069668580819380503
0.015905665217018018
-0.0030112624487796283
1
1
1
1
1
1.2554300191553061e-05
0
-5.2511539648441065e-06
-0.00033364577930432103
0.00024049655982691465
0.011780522600434119
1
1
1
1
1
3.0127820065729697e-05
6.4360057035509999e-06
0.026608429351386499
4.7170811496899662e-06
2.5457754612556203e-07
0.00010772244248976867
1
1
1
1
1
-6.1627061452838445e-10
5.7605171598195554e-05
0.0031021912373219765
-0.00029674887422070565
5.547655492336653e-07
-0.0042818716872393857
1
1
1
1
1
-0.0072257269134885877
4.2845508427330399e-07
2.5169698805240481e-07
0.0013353297037366353
-0.00062709854116178518
-0.00014009457017420028
1
1
1
1
1
-0.00030994104298932325
0.00019093037225260812
-0.0014207394873540543
-1.4385220251859711e-07
8.4839739533459365e-05
9.5671996652562643e-05
1
1
1
1
1
-0.0011640811827606584
-1.080062838466804e-07
-0.0030080740060376716
3.0491413659373124e-06
0.012920860829588493
-1.3081225040986043e-06
1
1
1
1
1
-0.0012652330282322314
0.00041863893302380794
0.00059355975525045008
7.5918184333297934e-05
-0.010552854851946222
-0.00071958337523594549
1
1
1
1
1
-1.0900499957300855e-07
8.4272325692826605e-08
0.0051472082198014786
-0.00013265017126424031
-0.017556984834766018
-2.5003520515526021e-05
1
1
1
1
1
7.6265316957513082e-09
-1.2481795375715571e-05
-3.3350415943085429e-06
0.0015851163608044051
6.3662020497324203e-06
1.4014505395439007e-05
1
1
1
1
1
-0.0017431393981832541
-3.2272978128274352e-05
-0.005780211882995173
-0.012153970710538704
-2.7691448224285456e-05
-2.4324418150342835e-05
1
1
1
1
1
-0.0024177086531574498
9.8861937390435868e-07
0.03394707794141924
6.2331317583372655e-06
-0.00011045148146497343
-3.9254582395720429e-07
1
1
1
1
1
-1.3300898069318794e-07
1.3449242503845804e-06
0.00079389859221632613
0.0018436833966129719
-2.9179492037434013e-08
-0.0013310763735989025
1
1
1
1
1
6.4234014179246158e-06
2.8070435716224819e-10
0.011622804534179533
0.00019019771726979347
1.7891837869853348e-05
0.00023422426625702451
1
1
1
1
1
0.0018130539048034282
-0.00011078549899255857
-0.0013040930700185702
0.0065276132894254851
0
5.6272273352384083e-08
1
1
1
1
1
-5.3662966538535706e-06
-2.834636604103422e-05
-0.0006617629764953274
-0.00065650243362894178
7.445360373869364e-07
-0.00026601872315369125
1
1
1
1
1
-0.00014920908746665279
1.9396785870659897e-09
-0.025694335215211729
-1.7986398840978253e-05
0
0.0057753042568514006
1
1
1
1
1
-0.00018543932775543566
-1.0047731372782253e-07
-3.0389131341181175e-07
6.6710573583740545e-07
-2.0746043690562113e-06
0
1
1
1
1
1
1.1045488917610441e-10
-2.7120465094718245e-08
-9.5968157772443073e-05
-0.00017257740142147092
9.0674573788836247e-07
5.0173557363690393e-05
1
1
1
1
1
-4.8273641280370396e-05
1.1075517701392834e-07
0
-9.4764426211725634e-06
1.6688952362717097e-08
0.00026708845029752297
1
1
1
1
1
0.00035610998448584822
-0.00016614710617173111
-1.0547115949146837e-05
0.00014956948055905206
4.9512134503984729e-09
5.1602315259900974e-05
1
1
1
1
1
3.0887207589589355e-05
-1.9840060909262724e-05
1.0028821703338408e-05
0.011796397257411474
6.7264086764555636e-08
-0.0071267742882243478
1
1
1
1
1
0.0025361042291010697
-2.6545687972652108e-06
-0.026068685074189368
0
2.1387450469666266e-05
8.9940895648723226e-06
1
1
1
1
1
2.7362519270424827e-06
2.0797156071678008e-07
1.9338697703129036e-05
0
1.2245060688045033e-06
8.4571478953734706e-05
1
1
1
1
1
9.2795438733269873e-10
1.1132127327849391e-05
-3.5171678900252662e-07
-0.017135205467777425
-1.3525977417087816e-07
3.1249326499884225e-08
1
1
1
1
1
-1.0248916568754829e-05
1.6016281620936433e-07
-0.00090962806048171122
-1.181218051118422e-05
-2.3891017502666836e-05
-0.00074991572131573477
1
1
1
1
1
0.00011358609650119752
-0.00021654914975337142
0.011415472780400776
1.1853334882458391e-06
3.1375269978655306e-07
-6.0478652661555721e-06
1
1
1
1
1
-5.0627147800927244e-06
-4.4232899691488999e-05
-2.6862118691757643e-05
-0.00047411169235182928
4.7783506044339212e-06
-0.00023556837384729935
1
1
1
1
1
-1.2005239467644521e-06
-3.9380011419084142e-05
-0.011196310167779387
-0.0016557886810802877
-0.0026864502736607628
-4.3206613154616611e-05
1
1
1
1
1
9.1527864900827181e-10
-2.6307276105584255e-07
-0.00022087417228649155
3.8023510726433101e-05
0.001155721000392065
0.0059308465379319109
1
1
1
1
1
0.0006338948306019611
1.4113045759972583e-07
4.5851098367822157e-07
0.0012362641761736401
-0.00065429878683028798
-2.0627507439113527e-07
1
1
1
1
1
0.0014676750209509982
2.180182463725049e-05
0.00071617724068378131
-1.9789062559551687e-06
0.0033750972512436631
-1.8733697598830407e-08
1
1
1
1
1
-1.210699531562324e-05
0
0.00066467175476357535
0.0052615127177732413
-7.6538906001094888e-07
0.0021806752432619856
1
1
1
1
1
-8.5133881678136491e-05
0
1.3954694335650701e-05
-5.4134670129718346e-05
2.6942636470639024e-06
-0.013756290792366985
1
1
1
1
1
0.0050344104695524555
4.3401024052084238e-05
-0.00046505281666991592
0.00085242407650881454
-7.5941277627700245e-05
0.00014235634602217993
1
1
1
1
1
-1.59316455453723e-06
5.0455578603701886e-06
0.00074222347101228904
0.0086399122258605989
-3.6474866324167728e-06
0.001733112908851185
1
1
1
1
1
7.7150140105646802e-05
-4.300128805247454e-08
0.00028230716128899082
0.0015070520995330919
5.2511043161644735e-05
2.2609143939328674e-05
1
1
1
1
1
-6.7479114414543145e-09
8.7352639777871002e-12
-2.030394187208746e-05
-7.0176893994180822e-05
-2.4920222776529971e-09
1.4219465793750006e-08
1
1
1
1
1
-3.6331865906101277e-08
0
-0.000176747887303253
-0.0011038955784478663
6.257871826123493e-10
-1.8474144668838916e-06
1
1
1
1
1
-4.2579140073784444e-11
0
0
1.6653358098211809e-07
8.423162710785827e-08
5.7331499844105263e-09
1
1
1
1
1
5.2999213731215464e-05
0
-4.3438166551351354e-06
-4.9944567575637791e-06
-3.5227362867525404e-06
-1.4129120606256675e-07
1
1
1
1
1
1.8383999782462025e-09
4.1819708464614729e-10
-8.921550911456714e-06
0.00084449253332193053
0
-1.0781006387386368e-07
1
1
1
1
1
4.4191188356458885e-06
6.6299937453997306e-11
-2.6276162752407356e-05
0.00082789424986299707
5.386355307370055e-11
1.8181497780913201e-09
1
1
1
1
1
2.6804697710481342e-05
5.8225528603310299e-10
-1.6143182473855986e-06
-6.0468832926080185e-06
0
1.3929610135243325e-08
1
1
1
1
1
-5.7075864587509582e-09
6.8909438977970342e-12
1.7412561349357765e-07
-8.7239640439935632e-07
1.8174411503303758e-08
0
1
1
1
1
1
4.4719493919035249e-07
1.8708368332393626e-12
-1.2800131642764485e-05
-4.698773467359647e-06
0
-9.3650870904938917e-11
1
1
1
1
1
2.7443179051444502e-07
1.0299370181041298e-10
-4.7706572063108197e-08
-0.00019302549663357093
4.5999034438795092e-09
0
1
1
1
1
1
-1.7351748485925171e-08
0
0
-8.3114120138501043e-06
-4.8215214667675472e-09
0
1
1
1
1
1
6.6038221292360866e-08
0
-1.2096567366019422e-08
8.8599048716007926e-09
-3.5370890734407964e-06
1.2141038197813851e-09
1
1
1
1
1
4.5163529976753658e-06
-1.9657385098944324e-12
1.430698502607863e-08
2.2374096179887923e-05
5.4463169577458055e-08
-2.9003466196826414e-07
1
1
1
1
1
6.545263068797521e-07
1.5230497764462477e-09
-0.00015709472268960037
0
-2.9859166306217325e-07
5.0515769365502803e-06
1
1
1
1
1
-1.7494040533492416e-06
-7.6313656962658244e-12
0
-2.3433415365378202e-05
0
-2.9286354632361528e-07
1
1
1
1
1
1.1265106735382832e-09
0
-6.4939820612432723e-09
-1.7290920049015166e-05
0
0
1
1
1
1
1
2.0267382194001069e-08
0
-1.2355909873022607e-08
-2.2978172711243185e-07
-4.0657590027730715e-08
-4.5707482009091167e-08
1
1
1
1
1
1.6228062184408289e-05
4.3337400857577174e-11
-9.0483908849238788e-10
0
3.1921238275001795e-13
3.8338252846613433e-06
1
1
1
1
1
4.0808251849236571e-07
0
1.07511063760866e-08
4.4849405313321434e-06
3.1836883228073242e-09
-1.610003767154395e-08
1
1
1
1
1
-1.3159624873285722e-08
0
3.7852112332090541e-09
-3.5661011601835184e-05
-1.0652004699558885e-07
0
1
1
1
1
1
-7.9737729333751421e-08
0
1.0918019542847854e-06
3.573186901622303e-13
1.0437519011934484e-08
0
1
1
1
1
1
9.01998759299676e-17
3.9810612594826743e-09
2.0552120320169039e-09
-5.3193097699551502e-06
-3.7455616182543274e-08
4.1812445383882227e-09
1
1
1
1
1
1.4034494523732722e-06
3.5802592715423788e-13
-9.2127617490729703e-11
1.9679203672628565e-06
2.5012641289280463e-07
-1.1346580979256576e-07
1
1
1
1
1
-7.9657333814136054e-08
0
-1.1277183638007986e-09
0
-1.3131962158246272e-10
-1.2631306384167232e-10
1
1
1
1
1
-2.3361814442590581e-11
0
-4.7167133665657122e-11
2.9648108692380874e-07
4.5785389696577713e-09
0
1
1
1
1
1
-1.9798425000038609e-08
4.500292995309137e-09
-9.1068550305765184e-08
-1.2030269797481052e-10
2.3736266016633067e-09
-8.7299971209352013e-10
1
1
1
1
1
-8.3572974186938108e-09
1.4584076310797296e-11
7.6328348543181648e-09
0
4.4979731670003397e-09
3.5847217972107097e-05
1
1
1
1
1
-3.7676505467535715e-14
7.8775197270595566e-11
1.6743041633108093e-05
2.3198334869117784e-06
0
8.5082601121374743e-08
1
1
1
1
1
-8.3525685552380297e-11
5.3481931766597519e-11
-2.4309040534723727e-05
-1.8989412384673072e-05
8.1383443512171578e-09
-1.9075215015839561e-07
1
1
1
1
1
-2.8487374787863351e-06
0
-0.0001000023116775152
0
0
0.00022300892872707568
1
1
1
1
1
-2.0418747943151619e-07
-0.0016318154335275437
0.00055166506055635649
0.0076326387041791401
-0.00019420611055196078
0.0017578464270368787
1
1
1
1
1
-0.0023562680727912647
5.8777911844218479e-06
9.3215766819969275e-06
8.7070943065883005e-07
-7.6774538987296574e-05
2.2244776709539225e-07
1
1
1
1
1
9.1767348224522463e-08
-6.1947330538562499e-05
0.00011447667979517018
1.2141299405727985e-05
0.00057529623101814839
-0.011590898145126906
1
1
1
1
1
0.029849409248410012
6.6952854800169591e-05
5.3319238676313396e-05
7.2461535799580779e-05
0.0002826121762933211
-4.6791267049835765e-06
1
1
1
1
1
-4.431565870761472e-08
7.8574325591607952e-06
0
-0.014308869104369475
-0.00010925859470017137
-0.032883887343945269
1
1
1
1
1
4.2034791515628039e-08
-0.00021061972234354018
-0.00014356424227223721
0.069005879099007572
-0.0058143635181250077
-0.018532840722859215
1
1
1
1
1
-6.0422004385065568e-11
0.00038365071187831419
-0.0016661384198197082
-0.0086911938535447122
0.0022512429237820969
-1.5106390364461332e-06
1
1
1
1
1
-1.1095033917233503e-05
1.4518489821646791e-06
-4.0640675344449367e-05
-0.0032083163981184715
-0.00083104276552722239
0.00034428368416905742
1
1
1
1
1
-0.00066768206497630218
0.003533686343773696
0.0025629113870383555
0.010631261306575247
9.115658597009835e-05
0.0010763779798684959
1
1
1
1
1
8.6817743285509157e-05
-0.0018212366482709599
-0.00032587587762899101
-0.001244809133415491
-0.0071079253105537721
-0.00019281640850120628
1
1
1
1
1
0.00067933425793018358
-0.012546375643900869
0.00021524667920139764
0.0081665467980586125
0.018051550685335715
0.0073160942074290154
1
1
1
1
1
0.010971970100333911
0.00010578060777057037
-0.0012182620232629676
-0.0015636288670681478
-0.0032415678291654788
0.0032177659682277111
1
1
1
1
1
0.0058410049657535235
-0.0057807304152962553
-0.00013909107556608745
