0.49891533721232584
8.535147439505749e-10
0.012280012737109653
-0.00013852516970033667
2.3193542374040431e-09
-3.7683114218034649e-08
0.500000481621238
0
5.4854700417858194e-05
3.5046121550820208e-06
0
-3.1596704895202612e-08
9.6782138415152926e-07
-3.5294909777667846e-09
6.020465862600406e-06
-1.1926861188174724e-07
-1.3546176621759381e-07
-5.6837811438643099e-07
-0.0018769510759997744
0
7.3215446357537767e-06
7.4525299988811792e-07
-6.5312882710022903e-06
1.6574022264389336e-07
0.00023253426705279636
-2.0772273452685857e-10
0.0048071007114963028
0.0051891520887636699
2.2231873189894728e-08
-7.498145697303632e-06
-3.6787716150833246e-06
0
4.891040296687202e-06
0.0062492907118547021
-3.8558864139347605e-08
-4.4371120762272087e-08
6.8749090002574587e-06
-2.0447020968403429e-08
0.0071490494889120404
-0.0017614313198581063
5.7533480875534938e-06
1.7509986789863994e-06
-7.5935584774209928e-05
2.9852523951259102e-11
8.6796230922424947e-06
0.00027947684427614565
-2.0982676602536105e-08
0
-0.0052056798536983476
0
-0.00014953092646370915
1.0219828272643951e-05
0
-4.7066661236164712e-09
-0.00075839751434721343
-1.0995234939857292e-09
3.9037106280300207e-07
0
0
0
-2.2238726585756919e-05
4.0040879867382981e-12
5.4303821360138402e-07
2.4366714526055321e-06
-6.7125482823404176e-06
0
-0.0039753616591990176
0
2.0497146160347216e-05
-6.0777739243289939e-06
-3.7231410064065493e-07
-2.2552668113286071e-08
-1.4049985832197653e-05
0
-0.00010347459380691195
-8.9665957896569264e-05
3.4955293222119175e-07
-5.7254565443990232e-06
0.0020924458503414458
0
0.0016120558155315633
1.128710167528265e-05
-1.8032650395223524e-05
-8.3070148470304426e-05
-1.9638105350853558e-07
-1.6929804130051156e-10
1.9595792726306461e-06
2.9792828659355793e-05
-1.9803583084019107e-09
-4.3084935992490363e-07
0.010445122457997707
-1.8057060056994165e-10
-1.5363891415214834e-06
-3.0828504856182887e-08
0
-1.2780083829375622e-08
3.2246009892395337e-05
-4.5832227809227676e-11
2.6383187815558962e-08
0
5.6189790578242031e-08
-1.8897476688387872e-08
-2.0795409774975169e-05
0
-1.8326716812861184e-07
8.8866996789074238e-08
5.6686254914028281e-09
-3.2266053105046315e-06
1.9084833110875343e-05
-4.2193969872645965e-10
2.9886063909978342e-06
0.00056531727817189803
-2.677802033042066e-09
0
7.3855610531075406e-05
0
2.6391773939494047e-08
6.2173532151303494e-05
2.8852220822340332e-08
1.1465708344793181e-09
-2.1325523704258654e-08
4.3699188785798773e-10
1.1366070745359723e-05
-2.8028853564820617e-05
-9.6915048225061219e-07
-2.1192078569407288e-07
-1.5364907152983766e-07
3.4489811964979801e-10
-9.0111257836314826e-07
-0.00011355797314543982
1.3539985787320999e-07
0
-5.3479747451285386e-06
-4.1931194129327939e-10
1.2175186167137475e-05
2.8158920620398936e-07
1.8013800996077323e-06
-1.1123349090465429e-07
0.0043129481511422945
0
-6.9657567883505754e-08
-7.9234185730382894e-07
-7.5736306616171268e-08
0
0.0088664790091268122
0
-5.9103552637334899e-07
-2.4770662511188486e-05
-9.7962962704129446e-08
0
2.032148965074594e-06
1.0435232074967486e-10
1.3269122368583913e-06
-8.1065652377669975e-07
-8.9581654933378291e-09
-6.2107388500687097e-08
3.3767701750249549e-07
0
0
1.5613264620909652e-06
-4.7332745647634892e-08
-2.7473082240456703e-05
2.096575233347005e-08
3.3777562149199428e-10
2.2544050620025978e-06
0.00012801423474110887
-6.3298533934062198e-08
3.4092394265111563e-08
6.7503628921548934e-07
8.5074634613249291e-11
-0.0014119750754138733
0.0001574456464656657
3.2584233097750731e-09
0
1.9542492039856027e-05
0
3.2194309064501524e-06
3.2047816398732632e-06
0
-1.5805716064482298e-05
0.88582437434816286
1.4343040958311446e-05
0.00044407589922529025
0.22372262801405807
0.0057366562812764515
-0.011921518046236987
0.4431222373849959
-1.6273983467435424e-05
-0.025426331334998317
-7.2019239729195074e-06
0.02152218881937195
2.5333132743842891e-05
1.0298754035752844
0
-1.9402659717661025e-05
-0.012582131051680467
-0.00095448316735197289
-1.5572019822301646e-05
0.85552684368490717
8.0100952835839322e-08
-1.4281882547390973e-05
-0.029355097208280098
0.02744508987573201
-1.3614070625750457e-05
0.69368323397589982
-1.162540182828593e-06
1.9075196187691722e-05
-0.082437034813275134
-0.0044382380039344254
-5.3569346529950183e-06
1.0764853073822582
0.0079430204537507508
0.00024248521237519753
0.083671698468784556
0.012343610460074646
-2.7316687829684688e-06
1.0189859082854782
-0.00068028736267999499
0.0054038781769440627
-0.15578228768863955
-0.0083387732515342577
9.7519227564907355e-07
1.203438691342501
0.0006185308555377929
-2.535179029015346e-05
0.13639467016923856
-0.0099594363208283243
0.050393235737334612
1.0166853622328014
-0.024064780179112344
0.12395528169615491
-0.00087840642708219316
-0.0014148992031470396
-0.017549556094906729
0.80355942955818893
-0.0014663004108636903
0.051586722316474556
-0.010144375909812932
0.014791413841801652
0.0085839157989002594
0.50711153293466094
1.0364228274312043e-05
2.2373779481433756e-06
-0.045059910966798435
-0.0019142346510936173
-0.0057508185743736992
1.4139283712509507
0.0026298999387825441
-0.00072564954144672109
1.8202824815979405e-05
0.017910085940645373
-0.0092410115719942319
0.3443163873401961
-0.001628217664006161
-0.023462115115705232
-0.018764944244433601
0.00066392188231896804
0.0048015433485573177
1.5024684372588646
-1.0977680924243614e-06
-0.033659116042647208
-0.074049766983933257
-0.0046442752190057066
-0.0045396316532159064
1.1471536402312148
-2.6764603587906096e-05
-0.085290104357274188
-9.0826212685601062e-06
-1.8279485107526515e-05
-7.333131606449209e-05
0.95674914130649569
3.2120291519414961e-06
-0.017426807638663593
-0.057028857772256289
-1.8041919458794755e-05
0.0060950972624363589
0.96948793473054129
-9.1692102132662766e-06
0
0.013681104996923854
7.2005777191019543e-06
1.5065690252998614e-06
1.2186390827407376
1.4399796791557533e-08
-0.0074205559556336474
2.2154546749102049e-05
0.00068794939005384131
0.010996792258460198
0.43255879132456893
0
-0.041473721440135287
1.4631688675300012e-05
-1.1165109012935222e-05
-0.0091606275622990035
0.97832179152209786
-0.011693648893413832
-0.00051367257160044608
1.2431742675671683e-06
3.8302119105468745e-06
4.6003829492510649e-05
0.8611755511647553
-2.5613310967128257e-06
-0.015043848978045806
-0.0055997465553602561
0.0044048759952915063
0.0050501878642274876
0.6536197854589425
2.376514122085227e-05
0.00052242720060036987
0.014805795820102658
0.0015484347570883842
3.4172046928190984e-06
1.2336524130040558
1.6187563913012995e-05
1.0511189051340263e-05
-0.048142423741150124
2.9715351047434033e-06
0.016185080235440474
0.60527592799068031
-0.0016603250673911519
-0.007502513720302072
-1.2611469824652166e-06
8.0709295635674174e-05
-0.0013978844830725423
0.93289013719707892
2.930709258298018e-06
-0.022047610578578725
-0.062502016265433127
-0.051433728211986773
-0.0077834672562258969
0.99906991671974299
-1.4016957412032485e-06
0.093187291345334433
0.15896643612758357
1.7495519807073508e-05
5.1825431228947244e-05
0.76889300684137996
-6.1244954099985283e-06
0.089082653229056522
0.2581805464108054
0.011619793321825002
5.5343095774006737e-06
1.1037356473384461
0.00045540604547824454
1.2109985602744984e-05
0.028588074716404357
0.0057724647798953902
0.01583168166798277
0.57467462957406545
-3.1044172748452885e-06
-0.067364101405020291
-0.32153779302667274
0.062322454417972808
1.5202683513020107e-05
0.52297206003306507
3.0953780517842879e-06
1.5948040896462016e-05
0.043115901650772802
1.4073290887474417e-05
8.8675060364462114e-05
0.011471145092872842
0
0.067904950362111319
0.23234689137140019
-2.1294822006939292e-05
0.0063597610181296187
0.20743284860118377
-4.0901012052187346e-05
1.0808693604754654e-05
-0.065641926357242003
0.0091347124178861091
1.2983441740701228e-05
0.030876428161732899
-5.6578053297074124e-05
0
0.064167580197437804
-0.020625408231708282
-0.0020387386206343256
-0.1110293433965545
4.1588968062964385e-07
0.00015230043508022994
0.089963814670765474
-6.9378495580403712e-05
0.004468808785696052
-0.019498311883238303
-2.3277922010266866e-05
0.00021098947771148359
-0.12580717076067316
3.8614654101683475e-05
1.0132735852348388e-05
-0.0051725080410073556
-0.00013952900073621607
0.022748224681415383
-7.3806117093301436e-05
-8.5009734466808172e-06
1.983991286213719e-06
0.18876806767549811
0.00017510061646670261
0.021574511602485847
0.00019694629894273735
-0.00030461563759228723
-7.2423603928466922e-06
0.23891496744659799
-6.3920725736310441e-05
8.3627032609229909e-05
1.3740906486206867e-05
3.2159031048853472e-05
3.5099836571323767e-08
-0.00097767205070000579
-1.0227841374675198e-06
-1.970239546632914e-05
-2.0198353645813153e-05
7.1770777253655581e-06
3.2841748023552672e-05
-0.52141431178023845
-7.8301131899443893e-06
-1.8522527797838658e-05
0
0
-7.094038737129344e-07
-0.093383347681343182
-0.00075809687807570393
3.306675630878807e-05
-0.0051301045765510655
-0.000383710517258875
2.4679650470625782e-06
-0.70696958008294231
-0.00011524272262567966
-0.17493075211712428
0.0045400442482316505
-8.0986447715792784e-05
-4.6212898479077478e-05
-0.19819075296878855
5.8320871894867479e-05
-0.020709390860926904
7.1660627912631461e-06
2.7436668491880777e-05
2.8633796600036786e-06
-0.012403652515408625
8.4700378573829982e-07
0.057221380493649679
0.048048913290501954
1.1401393646349686e-05
-0.0052021646706027387
0.020006394761383845
6.1404411026454012e-05
0.022173102854148002
-0.040609095204380122
0.00015692001869372659
0
-8.6076946932627393e-06
0
-0.03233130477455725
-0.018726622456302824
-0.00045710791732251276
0.00098190610684115035
0.42699554477139934
0.00049701775100450673
0.011375477518752045
-5.6397931081875252e-06
-0.00034548620481449283
-0.0062649062481146883
-0.056958663263230756
7.2378483988090915e-05
0.0012587516366945107
-0.0053792178609206294
1.9236884837283356e-05
0.0021131580093973271
-0.0032067929639775002
6.5482381034128695e-05
0.00031295913080731455
0.012653464510331459
-0.005949158145747392
-8.3382091960400553e-06
-0.013615943214122475
1.7138220463437932e-06
0.0010060192355983032
-0.0089917942353707671
0.0011883507100347492
2.0617698289553676e-08
-0.17054803976816543
-1.0968849215598896e-05
-1.6969397321833606e-05
-0.046037411589577977
0.011769908890121035
-1.0378452851442554e-05
0.18454529066013267
-2.8106645169558408e-05
0.0083869165913668976
4.4987739617655733e-07
-0.010876216054372201
-5.3668117219049896e-07
-0.0088632326485022974
5.9910699571002862e-07
-5.1243262946367605e-05
-0.0030538922900429657
-7.1755103670019529e-05
0.0012868943285789651
-0.01222623947853659
0
-0.0029055128463237523
-0.033471152124252619
1.3498542351735503e-05
0.0044137505584669976
0.072733386604893563
7.6308803740355885e-07
-0.0001338056851518028
6.7689394614558863e-06
-0.0054410636580293796
5.6736587552121343e-06
-0.004682912627015038
-1.1979944716739563e-06
-0.0010374456364004539
0.012067237881165139
0.00079984614353074881
-0.00079755778758576566
0.25777240282842012
0.0001192680854776594
0
-0.00046389155837526271
-0.0062314896800256267
0
5.9804595454933915e-09
2.4267375866156149e-10
-0.0041322660873970209
0.00094264304024240008
6.013369900812601e-10
1.9641638762890389e-07
2.7265406281796066e-06
0
-0.00023537318565193269
-0.0016432483710094128
0
1.1428882902223581e-08
6.825190272948725e-09
8.2232165736577144e-10
-4.5082579212515432e-06
-1.6640418850941478e-07
0
-1.8290357699417489e-10
7.63842842196025e-06
0
-1.0472213971473132e-07
4.8158510617279456e-07
2.8295441813994834e-09
-3.0356145425666426e-09
1.1455875931407783e-13
-1.334547206567074e-10
-0.0011117782445197392
-0.0014538648056028136
-1.1664589550299363e-08
6.5796020021891225e-09
8.1756643422061957e-08
0
0
3.9966627215997323e-06
-1.2936674703834939e-10
-6.3213474692085737e-08
5.7535342844702773e-09
-6.6002559275034694e-10
5.6818384554546632e-07
-1.0307304323698977e-07
1.2012791079386651e-09
1.3638914799069262e-07
-1.6056229112223805e-05
0
6.6536557731560107e-07
9.3820607378393744e-07
0
0
1.2843558203374674e-07
0
0.000130924862764608
6.0607509626586988e-06
0
-5.7835536697032663e-10
3.3459679785407779e-07
6.8488825186462884e-10
-3.6702182183207625e-07
0
0
0
1.2939605231885513e-08
-1.0351230462149662e-12
-7.1628206422577004e-07
-1.4005314736662653e-07
5.1012698180848346e-07
0
2.8478300445121037e-08
0
-1.0291521561605059e-05
8.3676126475041139e-09
-1.1450837179163875e-06
-3.2462615331677642e-09
1.2849791057750104e-05
0
6.6333871622772514e-07
-7.1035155544328828e-05
1.4213095062277975e-07
1.9217426450828439e-09
1.6364672094179253e-07
0
-0.00071917032518548508
1.4558570985085245e-07
-7.6450838043232007e-06
-4.6399159679027265e-06
-8.1355214273562446e-13
0
-6.0627659492255473e-08
-7.2156948162349136e-06
-1.901117693948045e-10
-3.2162365831481205e-07
2.8095845519288867e-09
1.1309172777221656e-10
-2.235794350240792e-07
1.8359441944793884e-08
0
-6.6850095312799338e-09
8.0833112741451299e-08
0
-1.8095295010066589e-08
0
0
-2.2080644795530739e-09
7.7464694902961985e-06
0
-2.1280099034729898e-07
-1.946308332369631e-07
-4.4956475211045922e-09
1.1313159085053631e-06
1.2515126990444567e-06
1.653837182384781e-10
-5.2877251809423006e-05
-4.0222176843686367e-07
6.0532244017078286e-10
0
9.4521202836003766e-08
0
-2.8923596092390051e-08
-5.7892588931578949e-09
9.7753252668438737e-07
-6.2669947787933845e-09
2.5626903358089274e-10
-1.8001240832532046e-11
2.3871121348764195e-07
-5.8742701729180707e-06
-2.015827686618642e-07
1.0964556150327999e-08
8.8636948377401934e-08
-1.4650571739488956e-12
-4.4168045877803337e-07
1.4086660007418695e-07
-2.7496782097458252e-08
-1.799477252074014e-09
2.9553073968965065e-06
-3.1442209128934102e-13
-3.3409848022316733e-06
1.0906379445457359e-06
-7.6597047147814812e-08
-6.2537859297139375e-08
5.2359841335914426e-08
0
-1.0849666385476249e-08
-1.911334513269194e-07
-4.4403455427098038e-09
0
1.0659311071922475e-08
0
-5.9103552637334899e-07
-1.2770005335245835e-08
1.2965705257005093e-07
0
2.7038738465574005e-09
5.4537474567409553e-12
1.8679130119616844e-09
1.1896921708046141e-07
8.3136598667681032e-09
5.3397257003437701e-09
1.6181779954218947e-09
0
1.5158339071612668e-07
-6.7099816297745232e-07
7.5071147745860354e-10
-7.7240349335868961e-06
5.1897868648252183e-10
1.285017831772816e-10
6.4679801595714962e-09
9.4545857545860111e-05
9.6097093741049998e-08
-2.2660912444846657e-09
3.779949277051136e-08
0
1.14835262616829e-06
4.4665817107528629e-07
4.8379812401039022e-09
0
1.8620907797886371e-07
0
-2.5173470345084385e-06
-4.2270766999134509e-07
0
-4.8354235453549996e-07
-9.7630351633187976e-08
0.0014073626467074869
8.9904750537215465e-05
0.0095194285320726966
-0.015994659089190597
-0.0053783579644698393
0.00075031938014789488
4.4624486268332287e-06
0.00052203614301650069
2.6480417146774097e-06
0.0033558982138982884
5.1763917400715967e-05
1.6406103594747795e-08
0
5.2774622610222262e-06
-4.6768179471738091e-07
-2.4817611146177761e-06
-2.4308214935908716e-06
3.8132680919686088e-06
0.0069203990933751928
4.2640880795567793e-06
1.6028248116507849e-05
-1.8899682097707712e-05
5.8414631252400846e-10
4.2144312818551038e-08
6.8018754956913227e-08
-5.0054010238914619e-06
0.011541387969757231
0.00010703018059062044
-2.4327765810797442e-06
1.3479738848131269e-08
-3.1812712689316836e-05
-0.00042338616416170061
0.0039965184604496898
0.0054743079322581772
0.030064462307421352
1.0781705963846611e-11
-6.8697382978495682e-08
-6.0435271180352263e-07
-0.0071750211042070078
0.00090814465949831116
8.7477219232494852e-07
-2.720178828058259e-06
-6.4985612558653895e-05
-4.6904591050716084e-07
-0.00040839023274684123
0.00063307314024624414
-0.054281551446876061
0.0010476390805675276
5.5729975947361396e-06
0.014703382595768144
0.00012673453645420306
0.0007279674739669006
-0.00011873715131705242
-6.33526151477542e-05
-0.0019611701609542464
7.182660291730816e-05
0.0055268340161626923
0.0098593516157857355
4.0800518354844564e-05
-0.0010423962479369935
2.6965221162172428e-05
0.028876807837826601
0.0054880003393226054
-0.0044715918006295527
-0.0036152883435453336
-8.5528404240847513e-05
-0.00018768576650167573
-0.044662364148179021
-2.4396277431647806e-05
-0.0057302540460476238
-0.0047886532759401686
0.00016451422501017522
0.002608434755097087
2.2621559206623762e-05
-0.0031976313205486352
0.0013339353985168129
0.0059366863800207528
4.7327854011907739e-07
-1.4667326048250704e-06
-0.0027813773860186899
-0.0015479375870465883
0.0025509300148396272
-0.016891405454448657
5.7471031225313337e-08
4.2212386584922258e-05
3.9314106106104993e-06
-0.035851065018896636
0.00019236203168828366
-0.00093477423278610537
-4.9187633927499524e-08
-2.828664235614725e-07
0.00094388658532994826
0.049069823211785393
0
0.0038072147604913714
-0.0025986375847852372
-0.0017719829624372858
0
-0.019057479295146569
5.1773908884630752e-07
-9.7691388684976621e-08
3.4534672597518086e-06
-5.0165304394567472e-07
2.7572813569523778e-05
0.019639358557137068
-1.2859146831377267e-05
-0.014840905343346571
-0.001573496356675479
0
0
-4.4044434140104895e-06
-1.9785618202150974e-05
0.0050054809073316322
-0.00043021500102640017
0.00036391115680183055
0.00014805615791895109
3.8597568927205453e-06
2.2582928851497133e-08
2.6475425149781641e-06
-2.0270284657811365e-07
1.9467178458698833e-05
0.0033391760240217214
-0.0068955192263031612
0.018317442668204301
0.0023371018204319072
0.0045984276740339601
-5.4715580503243089e-08
-0.00051771402571590191
-0.00018086217417833512
-0.00034976875893235666
-0.011638826376707883
-2.6566833279374375e-05
3.6529094249430142e-06
6.3958954890636131e-06
6.1394995238829636e-06
5.3251691077193217e-06
4.0019298731890307e-06
-5.0747746541355936e-11
1.8083852161490697e-05
0.0026352482698129599
2.5020711738475319e-06
6.8325656288774724e-07
0.0043537634106514504
0.0059547079042532357
-3.438136778899664e-07
0.0037901476874426334
0.0010729744766366277
0.0011583870456139394
-0.0001259208614532435
0.00031586533912342061
-5.1895441836988988e-09
-0.00011561725001969358
-1.902432548893965e-05
2.9402014442741329e-05
1.0984250531259967e-05
0.00038988739923851443
-5.5735185708659382e-06
-0.0014908473659303941
-0.037398973230410811
0.00075032321632790763
4.3021696215571352e-11
-0.00029249541497405705
4.2141857760800439e-05
1.0929517135843687e-05
0.033617846443414312
-0.00066027515279409052
0.061789259644976863
1.5176927903256222e-08
3.152839032190086e-07
7.1656335742951974e-06
0
-6.2200382873020958e-07
-1.6666458364860901e-06
1.5935880442741763e-09
3.1905642199416467e-07
6.0125197280607111e-06
-0.00058918144326025688
-3.9559144047861286e-06
1.1309052119866346e-05
-0.00077523233309350606
0
0.00090115144576602586
-0.026604956812346182
-6.2679020455635652e-06
-0.00020066256319213377
-0.00099912596347589435
2.5433216603084751e-05
-0.0024918777421209159
0
-7.4695194331369995e-05
-4.9741887096432326e-05
1.7422338249983951e-06
-1.2956510230281215e-06
0
-6.8330933261457919e-05
2.1907369667355597e-06
0.00048095773696915721
3.2271832333079294e-06
3.9636215323677955e-08
9.2616064250099675e-05
1.4780176607044506e-05
5.9137395821271145e-05
0.00044861005548126108
-0.00032167961509577147
-3.798006773502506e-05
0.00015617066028508279
0.0037760285474654812
-0.00017052246574526461
-2.1525753721631876e-05
-2.3543404428263995e-05
2.7076029437174377e-05
-5.5800892625852428e-07
-0.00016095009238108684
6.2458092131725345e-06
-0.00010755825272797349
0.00016554349718637278
-0.001817516341790717
0.011286922591729842
-7.9270356816669485e-06
1.1302585142403591e-05
-0.0056633170288922924
-4.1003675458744323e-05
2.9072417182814019e-06
2.782376776009236e-05
-2.4751999354081673e-07
1.0708283313346804e-08
4.6528553468203562e-08
4.3367031969923791e-12
-4.6992136413245406e-10
2.8297038564881906e-05
2.5945303603086136e-05
-7.1934379128702502e-07
0.00017421322032192275
1.46058422127237e-05
1.0625400858018228e-06
0
0
0
-2.0572010009273982e-07
-0.0068934044316711143
0.00028749335678470231
0.00012626922659284896
0.016204133562604077
0.0010775250235017983
-0.00024625777085148789
2.8136622594373831e-06
-2.4582462026368678e-05
-9.6712705051076676e-05
-0.0074811510950816553
0
0.0072394287784792767
-0.0023299262020141983
3.037248011838706e-07
-1.1690917712014997e-10
-0.00012633154080770749
3.871645002561129e-07
-7.2534117722240153e-05
-2.7743279678692669e-05
4.3594210623725832e-06
-3.5486390919401049e-05
4.321246433778007e-06
-2.3090951438519029e-06
-0.0049726893413793985
-9.0287905231247148e-08
2.5717348409155249e-06
-1.3634786156132691e-05
-1.1018475760350348e-05
7.6406613519709374e-06
0
-1.5851915284402414e-07
0
-0.023924152642359385
-0.0087510887256365046
0.023417251319334659
0.00068090745202836278
-1.6504590072352843e-06
-0.00035897706074808713
-0.00036432936601216148
-4.3005581681032516e-05
-4.5970371361286512e-05
0.0049159778090289985
-2.3130839678214198e-06
0.0039748124116868499
0.00028820179329907576
-0.0017680686993816316
7.1333763675108853e-07
-0.0009043531775708841
-5.5408230657704398e-05
1.4647416165799408e-05
0.083270059135134772
0.0034830301852949237
0.00047088005242088102
0.0065205583326393641
1.3771443248311447e-05
-2.1463569292493192e-10
-0.00025198302451191334
-0.0015433730254464423
0.00034197959931207296
1.5779853740038061e-08
-0.0009198559260623399
-1.198511334734076e-07
-0.067695669430643673
0.00081106796789060204
0.0018833655057334904
9.7569303574567991e-05
-0.00095044379730503442
-3.6867063165677385e-06
0.0069091921567752713
-3.5160712990413564e-07
-0.0013351188029648985
-4.9198948463570441e-06
2.5281743483937986e-05
0
-1.7442298842953849e-05
-0.0024185488714562114
-5.537738366399346e-05
-0.0030364528350791203
0.00039165938610902039
0
-7.0369952830117937e-05
-2.3923033449080109e-05
1.1468802035352641e-06
-0.00019067256363883468
-4.7925918377905659e-12
-9.6012898627186835e-06
-1.6124589173804545e-05
4.0607427167787604e-07
8.2197808447359048e-06
-0.0072894847827846493
-0.0084341551128178285
-1.2693888251393863e-08
-0.00013627349298193459
-0.016446300385969139
-8.3635408720478003e-05
-0.0024227814127158144
5.3731897379183214e-05
-0.0015915787169676456
0
0.012231138180258078
4.4998580087979955e-05
-8.0355582362239211e-06
-6.4625459285193228e-09
0
-1.5110440930895944e-05
-0.0010278052536400711
4.7359456259732456e-09
6.0311860572691097e-14
2.6609035658245585e-11
0
-2.7281102082375804e-06
0.0016382878647011533
0
2.6269389543717262e-09
3.7801678925898062e-09
-1.3141108332468639e-12
2.1277239288394837e-06
1.0635487542469473e-07
0
4.2140184127875995e-10
4.8618521632875123e-12
0
-3.2795466753520657e-07
1.415135042608568e-07
-1.9913894761440155e-09
0
-3.3477607109958581e-15
-1.7861110388323765e-12
-0.00057067939960636117
-0.00032960564328340139
8.1889525760590966e-12
0
4.0327927297182147e-08
0
0
-0.00012432572252080401
-7.5758414183539662e-11
3.0164686953743883e-08
1.9410010487154246e-09
-2.8395375417344882e-15
1.1657659211249172e-07
1.6891142267417758e-06
9.2167098662489636e-10
-2.4258690439201211e-08
1.4651285551079253e-08
0
-1.2287751090211586e-07
9.416243491328957e-05
0
0
1.2437583165284625e-07
0
5.8526355433034423e-06
-1.2724260838346895e-05
0
-1.6695884248557593e-11
-7.5202377706196308e-08
-4.727734011253401e-13
-3.0270909085055737e-07
0
0
0
-1.1043366432487314e-08
-7.1771099524067291e-13
-6.6605788796394772e-07
5.6052025643103316e-08
-2.6008775268715054e-10
0
-1.9697188409529264e-08
0
-2.145271753241716e-07
-1.5011354998026443e-09
1.8678612917174258e-09
2.5722697497936951e-09
-1.4753714988077928e-08
0
-4.9310878219395824e-07
8.6794255912700844e-05
-3.2497703804767709e-09
-2.0193020190973881e-09
1.4445038386375154e-07
0
-0.00052454370077407726
-1.4557428230177282e-07
-2.0594650607466534e-08
-2.3728734595901942e-07
-2.272362860136244e-12
0
-1.9996344960206124e-07
-2.9036266170882071e-07
2.3151008201283775e-09
-1.4628731490572505e-08
5.8797580374914461e-10
0
-1.7846767485990683e-07
1.7926329104148912e-08
0
-3.899906987473266e-11
-7.3980368811445541e-09
0
-1.4454744257279171e-08
0
0
-1.2700621287222697e-09
2.1616683782922726e-10
0
2.3659438756158042e-08
7.6238369191876787e-07
-3.3067286906778712e-10
-6.9734525013371155e-06
-4.2600605946931897e-07
-1.7502529105047158e-12
4.3568662098638409e-06
5.4722804791022872e-07
-3.7679486004934533e-09
0
-9.7126609298614998e-09
0
-4.7958611174465068e-08
-3.1211186690219484e-09
-1.2520610492608968e-09
-2.4768681485471211e-10
3.6471742774658045e-11
8.0897682890320044e-14
2.4620010422102803e-08
-1.4863530119848648e-05
-2.7662648874961913e-09
-1.3173817767053584e-08
-3.6579555585084059e-11
-1.637639228794419e-14
-8.5729822993568681e-09
-2.0372756741536346e-07
-3.3687730066139301e-08
0
-2.3327983695857002e-06
-5.7048236418948274e-13
1.849009584285129e-08
4.2294872005618388e-07
-7.5470254220712217e-08
1.8723157216233108e-10
-4.564045275158796e-08
0
-1.6437680331963699e-08
-3.1953430139069224e-08
-5.4059677453944529e-09
0
6.0659561880291394e-09
0
0
-1.0612940182512674e-07
6.5662254158468956e-10
0
1.8777134435231183e-09
3.8877527042449809e-15
5.9255926298337416e-09
2.4746329336686403e-08
-1.6048210149379635e-11
0
5.7671751249286296e-10
0
-1.5158339071612668e-07
1.5215821783123459e-10
5.3408356030939754e-11
-4.2969881139750534e-09
1.1126563039993654e-10
2.4285491801959228e-15
1.8209296474850998e-08
0.00086723803477615352
3.3576732531207499e-08
-1.4383138984364802e-10
2.3471084108621393e-08
0
-4.0338010957821346e-06
1.9716298920769138e-05
0
0
1.018248367719804e-08
0
2.6511753534098805e-06
0
0
5.1788275267267329e-07
-9.7664716035371457e-08
-1.0628073132358601e-06
1.9936891272785301e-05
0.0066405162586968816
-1.1891093937001624e-06
-0.0053721765842706277
-0.00096471529654026662
0
0.023214705771082672
6.3767899116072769e-06
0.0032676546783082646
-1.5029223262430965e-06
-9.3858865307791448e-09
0
5.8601698896700655e-06
1.2512945479358979e-05
9.5757645522852015e-07
8.6712761682625898e-07
-4.8316789739481641e-06
-1.1044371909089747e-07
-6.3742749270528581e-07
-2.2668583971653088e-05
-2.8336074672323352e-06
3.8285600690684589e-08
6.3683351467680313e-09
6.9111890815562366e-08
-6.9004959214710587e-07
0
0.00010903474144373188
-2.3388147503864383e-06
1.0485795806944783e-08
2.5333568105026007e-05
-0.00042418853251044322
-0.0041452568261898786
0.0022825211165424302
2.1650069089930457e-05
1.0256453404474213e-11
7.981334124761034e-09
-0.0054185770072395787
-0.0060123240683028836
-0.0013422739518142931
-3.1948480327750164e-08
-7.0166965275605234e-05
1.8467624412386933e-05
-9.651693857034187e-08
0.0033124189564883656
-0.00078943133376603635
-1.0969752450806117e-05
1.127957378481915e-07
0
0.00019399516027275327
0.00014290317639656212
0
0.00019651711533335216
4.251408417105273e-05
-2.4964632196312387e-08
6.0673999478515684e-06
0.0018987769227609981
-1.5559120874140725e-05
4.2731633229094771e-05
0.00050248765122176166
-4.1568153490247951e-08
8.9437800969706604e-06
0.016669468970472383
6.919385819952723e-05
-1.5515110815924955e-05
-0.0023736749899724622
-5.3726081574349752e-08
-0.04151615041926579
-1.0291710420660261e-05
-2.7294025735959662e-05
0.0025396941150887405
-0.0015264435618719107
3.905218998860595e-07
0.00011873262302174483
-0.0017608797075788654
-0.00240649193061009
-0.0022771539212561361
3.4838503519015117e-07
-3.3178744234084379e-09
0.0022945640773039361
-0.00020904663511955596
0.00011456139287955735
1.033466082171681e-05
1.348472399736106e-07
2.2853555308131378e-07
0.034349044718822684
-0.035863701597019168
-4.0811420362775228e-07
-1.5081975128257104e-08
8.0303927720183568e-09
8.5941893091159365e-08
0.0014597325469636344
0.050019224178299924
0
-0.0028307174095484472
-0.0029717525035772609
-9.4389690335831226e-07
0
-0.019770039123216093
-5.1773908884630752e-07
-2.6511709991148075e-08
0.00018163105712442411
4.3032171173089445e-08
-2.8286271472901586e-05
1.6653869437455463e-05
5.0351517192630634e-06
-3.6130887704378361e-07
7.0201758677025338e-05
0
0
1.1677857901454529e-05
-5.166642348830136e-06
-7.494510930982889e-06
-6.435757457951379e-05
-1.7545755192718399e-07
-0.00010397646346763616
-2.7671158614512521e-06
-2.2582928851497133e-08
7.4639023256044314e-06
-1.2197861163617024e-07
6.411391990244171e-09
-0.0028296988838101013
-0.0038518597100262357
1.9361107961020067e-05
0.00073574957567735686
0.002314097334939794
-1.0203826386192293e-08
-0.00011517420666946441
-0.00018153131049571461
2.2464074884600522e-05
-1.3396376871510125e-06
1.2255899409990661e-05
0
-3.074948343865664e-06
6.1394995238829636e-06
3.8416768986303558e-07
1.0083652248889213e-06
5.0761559200185511e-11
-8.6014197476621503e-07
9.9670414578211265e-05
-1.4751802127957348e-06
5.4143734665839698e-07
-2.7619828250547419e-06
-0.0058969181967730554
-2.3658799637989725e-08
-0.0030656216363043449
-0.0015048306932247413
4.5639177566894957e-07
0.00028981973610791824
0.00010604931945864824
8.3822344545081145e-08
7.1759928985895129e-05
2.2711381321487017e-06
0
0
-6.5797375786805214e-10
-3.1328207945437507e-08
-0.001491020708960756
-0.0024109444711259407
-7.018726115416918e-08
-6.6792290381851743e-07
0.00018214754090293948
1.1996594580040142e-07
6.3523650746085276e-06
0.0018704547551979525
0.0058114016128363441
1.2588192253128871e-06
-1.1020950065922293e-08
4.2746623261937289e-09
-1.6353275951551363e-06
0
5.7608807153845112e-07
5.1974820936987479e-06
1.593585303996215e-09
1.4456633571324645e-07
2.1424414835590589e-06
-0.00051328350028417738
-2.7416550062069349e-09
-1.3313297332853874e-05
0.00076114885395058528
0
0.0023179162985370355
0.0017727467060729546
-2.8725180727314686e-10
5.257751954956031e-05
0.0010918421341728716
-3.5194340451702421e-08
-1.1647121498505655e-06
0
3.1912564645226451e-05
-8.6802407607010678e-07
-1.1095319174280339e-06
-6.6036447697751087e-10
0
-6.6228423162945633e-05
3.4313505814696252e-06
-1.6783594880850128e-06
-1.2344558905660506e-06
1.4372089634676373e-07
-1.9205326306741654e-05
-4.9375509198038464e-06
-2.5642337997055006e-05
-0.00039116879983488453
0.00034842510459652651
2.0811720397781096e-05
6.0151773511962694e-05
0.00037054568545973922
3.8507465583067652e-07
-8.6076851863318193e-07
-1.5229979149011336e-05
2.782168696929431e-05
6.4392935417143318e-07
-7.4011837166543682e-05
-4.0918251578966793e-06
4.5104068215849338e-05
0.000173864954390403
0
-2.2480588316839379e-05
-3.0082330120963569e-06
6.9978221950114063e-05
-3.5685316905334527e-07
-0.00018729890839899857
-4.1609008056358651e-09
-8.825369195095993e-06
-1.0364196298805487e-06
1.0708283313346804e-08
4.6528553468203562e-08
4.336746123111639e-12
-5.6645998549317404e-10
5.5825062547206782e-07
5.2897615917177273e-07
7.193437915503916e-07
-6.6090393491172347e-07
3.3385249540970534e-06
6.6330876492954187e-09
0
0
0
-4.8145547291222199e-07
3.5751094288306134e-06
2.5969503112995265e-07
-0.00011295948938503658
-0.017272794156866736
9.3880604540907577e-06
9.8410573702371013e-07
2.8136612975450284e-06
1.9103614406725382e-09
6.556859495237371e-10
0.0049427117618372008
0
4.3769814497481458e-05
0.0015663763211489358
-2.6420770406363522e-09
-0.025204438413347595
1.5669270609815669e-06
-8.1175648532526813e-08
-5.2722729751759078e-06
-2.5876500014258629e-05
3.219382896383058e-08
1.1525002532803369e-05
-1.1661068452546502e-06
1.058176913382451e-07
-0.0003621376872382566
-2.4781856818269965e-08
-2.6227016599130661e-05
0.022177215651178753
0
-2.7736252563666528e-05
0
1.0169796410964005e-06
0
-8.044036050109879e-05
-0.014292605588469835
5.9992495208902746e-07
0.0015367139100510895
-9.5688236802544109e-05
-2.4288964947053533e-09
0.011411387312567686
-1.008613887120886e-06
-1.3490760827422113e-07
5.7991963954575969e-06
-3.899955806295416e-07
-2.9728856956991405e-09
0.00022485200091018663
0.0090943794795272787
7.9233391286936945e-08
0.00085474420405572723
-7.602090943553596e-05
-5.5864309515027927e-08
-0.00025881284446003275
-0.00054238411416354714
0.00053228223723789418
-8.5668078689652366e-07
-1.3084142547453597e-07
-2.2873887970971653e-10
-0.00023847321013959258
7.252825476675757e-05
-0.00017763717458136767
-1.032504505997058e-08
0.00074339891907988678
0
-4.1531400026930645e-06
0.0011246530774271057
6.5633960206745719e-10
4.4533400849902257e-05
-0.0011795867088018157
-4.3659524502616453e-09
-0.006915555848215597
-6.6435047666533863e-07
4.5486196087205791e-09
-5.2302628246410137e-06
-9.8501965214150616e-10
0
3.9334172219515258e-07
0.0024172585458692971
-7.1149281868332016e-06
0.0034277391967103207
0.00023294684245416645
0
4.2007506381475474e-05
0
2.5346329953744092e-07
8.4295332061789485e-07
-6.3027875924184925e-12
-2.4632745193008419e-08
-1.5108973277925011e-07
2.0181416405380649e-07
-1.4427446600395795e-05
-2.2599041297312471e-06
2.1207044763276448e-05
1.5578422283305632e-08
0.00023372051805060155
0.0059324203968750969
8.7258080440111614e-05
0.0024620632868944813
-1.0751760116531643e-05
4.9593267186112646e-10
0
-0.0020798331815181969
-0.00013326209587675352
0
3.2335404441698401e-09
5.41667037476172e-11
-0.0063364680122363877
1.0347636891589935e-06
4.929463595119222e-09
1.5099669192658628e-07
3.2903482389049172e-07
0
-3.9108072259847281e-05
-5.1013707012642068e-06
0
2.1712646216247965e-08
-7.5439715666737472e-09
-6.6785692219369047e-10
-3.7779230426005407e-06
2.3123371752085308e-07
0
-4.7544502850672979e-07
4.3205110259315543e-05
0
-2.1371729188317998e-07
6.6148004983090182e-07
-2.49259433075568e-09
6.9523297233447057e-08
7.5745962138405826e-05
-1.9638500552708818e-10
-0.00091830318583352379
0.0011509098206681073
-1.1685347434713379e-08
8.700509708659125e-08
0.00013539666560116021
0
0
-0.00043222145890703558
3.8972569528497408e-11
1.9575451594094903e-08
-5.2634828907215271e-05
-1.9158726321273507e-08
1.5779221997624773e-07
-2.7430450358960466e-08
2.6043766906972425e-09
-3.5635593672688601e-07
-2.4516097601448103e-08
-3.9373743219966148e-11
2.1104007381673145e-06
-0.00014551226834045244
2.0982676602536105e-08
0
1.2582842094726529e-07
0
0.00013242758653211198
2.1164041383671546e-06
0
5.9047623692875967e-10
-3.8567452575723373e-08
-2.9106771523421016e-10
-3.5080805337143907e-07
0
0
0
9.5884229791866936e-09
2.092385882261965e-12
-7.3734095792134859e-07
3.9841947523538551e-08
3.7671824853490427e-08
0
5.8947158137192605e-08
0
-1.9693202068583718e-05
4.3714756965782877e-08
-7.8190705314310214e-06
-2.4224149549970159e-09
1.3473489539824828e-05
0
-0.00010719208678193121
0.00013079329040256382
5.3271811001019187e-07
-5.7230237251482668e-06
-1.6049144883069555e-07
2.736633474020605e-12
-0.00097726524571625003
-5.829083739655875e-08
-3.5800844167653439e-06
-8.0921547009548863e-06
-1.3915868110908995e-07
-2.9134277603276576e-10
-3.9687763465872791e-08
-2.8274376222454555e-05
2.5341628401509862e-09
4.1312310382039974e-06
-1.6965776525426161e-09
-1.2860447477273813e-10
3.0677374150081967e-08
2.0946813948187854e-08
0
-9.2923886186451618e-09
-4.7329750629618774e-08
-3.9003883414978309e-11
-5.7054071244955121e-08
0
0
-7.8521879245280592e-09
-7.7466304912621976e-06
0
-8.1094429819513686e-08
-9.5833329694981306e-07
-1.2657737423509748e-11
-4.4778106257400752e-06
-4.1196126735824415e-07
-1.5994593291741643e-10
-5.452932045982974e-05
-2.8065081903492843e-07
2.3545483120760745e-09
0
2.3607217447955916e-09
0
-1.4093748314795783e-07
-1.6325212894310373e-08
-7.2880145263391745e-09
-2.3041513822360657e-08
-1.2068188004686541e-10
1.6308701122711613e-11
-1.5984066496535591e-07
1.5483711889796329e-05
-1.2449148479478301e-07
-1.8332135855823851e-08
-2.1199849180592929e-08
1.5026477029417388e-12
-6.9473676695503003e-09
-1.6880666292743819e-07
-7.656504579096044e-08
0
5.7916029532661451e-06
-2.2636514276217005e-13
-3.3711524122883052e-06
1.1396422023348517e-06
-7.5286754437092147e-08
-2.2670309647122928e-09
-1.1150524192430113e-08
0
-2.1763705347213282e-08
7.0340716200667922e-07
2.3556927503278595e-08
0
-5.9114265600525091e-10
0
9.7637005464210316e-07
-1.0412510191670872e-07
1.1952704012923463e-09
0
-2.3301846552516334e-09
4.9545923714679787e-12
5.017833782940164e-09
1.2175985725030238e-07
1.0442388987009813e-08
-4.5358657353394242e-09
-2.1728994692211087e-10
0
-1.5158339071612668e-07
-3.6310262036320297e-10
1.302465105474544e-09
-1.0312680139226376e-05
-9.4528593349067004e-11
5.880004669328988e-14
-1.2503159614346014e-08
-0.00013510581116604327
-1.1781097419146959e-07
-1.7311435948104231e-09
-6.1348210863023649e-10
0
-1.2467105226770009e-06
-4.233078184022176e-06
7.2922557300457216e-09
0
-5.1263744641068238e-06
0
2.5801721329989309e-06
-9.2850580930915462e-07
0
-0.00020742443836302456
1.4642060084413815e-07
0.0014048914799621502
-4.2586017639039943e-05
0.00061292715506836958
0.017454753791142259
0.0098229583761155915
-0.00092854035342748264
-5.8374895977243884e-06
0.00024260612044536432
0.00060040764006937441
-0.0036187202199785963
-5.0930053104884722e-05
1.6406107363981568e-08
0
-0.00033543820543838784
7.5798261001513259e-06
-0.0012956159609213318
0.0083458843921056496
-0.044031264339360505
-0.0069204418765598588
-0.0010048519815490287
-2.2855664771784739e-05
-0.094388311561622598
4.5940377332845393e-08
-3.0750798628846504e-09
4.3065133070532025e-08
0.00063912385418747933
0.011541387969757231
0.00016046724644066393
-0.030358454697642753
-1.3479568280221927e-08
2.2493308281690048e-05
-0.00021258568584007093
-8.2729338243507435e-05
-0.006031657368729933
-0.017852583819531202
1.0591474937016398e-11
0.0020057472890614675
-0.0054185295357800116
-0.0014699265220954533
0.00067445403287652681
-0.039083895315314109
5.5519128940776779e-05
-7.5480534802762873e-06
0.00020031558960970268
-0.0033065358171205906
0.0030207752334553595
0.001246942801961085
0.0057647179524227907
-2.2965147713348252e-06
0.0083008265115311064
-8.5877025251057082e-05
0.0032157276404479146
0.00018558768359190357
-1.408104324997986e-05
0.0021025803484379709
2.5110094263324168e-05
0.0032402259426256119
0.0037645654200661491
-0.00033675622745795651
0.00019871154489663464
-1.5994208736685295e-05
-0.028870030866394517
-0.0077676376291441742
-0.021842592957073487
0.0026504149445995273
-0.0024901976122850668
-0.00066371581896443657
-3.0703360519879609e-05
-9.1451330571967724e-05
-0.0049178180490256082
0.001602620303976341
0.0043395947261093753
-0.00017569586883878471
-0.00011485075504544415
-0.0028525699969037324
-0.00061955350805007674
0.003978694406466342
-1.7118569899841936e-07
-2.5321962476651908e-07
0.00043142879153429793
-0.00011454400856416064
0.00099006570963149228
0.01553307711268209
-6.0006745165712431e-08
-4.1755335535669205e-05
-9.9781899844578193e-06
-0.0029701061590043979
-5.2785122761110586e-05
-0.00074286154406708212
-1.8005580225455664e-08
0.00017906491366332885
0.0014415783559324346
0.02453361888034947
0
-0.0011737389932062322
-0.0039773278539558419
-0.0054510518608644372
0
-0.041068610383706232
-4.2008158625627087e-05
-1.740839284838108e-05
-0.00019723209564533967
-1.4944565773694701e-07
2.8571330877330676e-05
0.033944422083973892
2.4509939835580285e-06
-0.016407744001441005
0.0043384475919546134
0
0
2.7016153058908369e-06
-1.56569786905001e-06
-0.0018725588246108022
0.00050328638625919057
-0.00088445446498285551
4.4752740275147979e-05
-1.5504247343363171e-06
-7.5929812381028568e-09
0.0005377011069921323
-4.1443884908404987e-07
-1.4337382870751798e-05
0.00021962813096189764
-0.0036478968996322045
0.011223376900220504
0.0015869146905192193
0.0045751206949386754
-4.3141249365489398e-06
-0.00028963314884808433
-0.00043458763498213263
-0.00045524964924615149
-4.6486264104892959e-05
-0.00011161690066045049
-0.00014356168983285889
0.026038492627770315
-2.4163587204808712e-05
1.6657032131972614e-06
0.05087409670308532
4.0024511262211079e-11
1.7967868036927825e-05
0.0021785344879513692
9.1794558209928956e-06
4.8483573523808492e-05
-0.0043626042188615564
-0.003320569929723433
2.749318522941163e-06
-0.0015150660149505278
-0.00076214883039368256
-0.0076501630824674597
0.00010935700054550718
-0.00013733188672859222
5.9686754557290814e-08
-0.030498989399674954
5.7174265863047711e-06
7.2850613013759141e-06
0
5.5272338307331038e-09
-8.6756929820973127e-05
0.0011221189937367288
-0.0031874034167351096
-0.018967447412496161
6.6736764484750475e-07
-0.00018509768557707775
0.00055303043998893725
-5.3938161061284904e-06
0.0010852812485560776
-0.014899746187029881
4.6355761426254012e-07
2.1053106186368081e-08
4.1846727288065957e-06
0.0365578279884358
0
0.023058707986085458
5.4527413732225608e-06
-2.8720153850519922e-09
0.011423635595415007
9.6116455007696047e-06
0.00062268166479541222
-4.0790048865195323e-06
-5.4786057643752378e-06
0.00023483053833467027
0
0.00048605395694446525
2.2602836082781678e-06
1.894013194686361e-06
0.00021739389712962593
-0.00019103773079494511
-0.0016256770916408506
0.033673952535923979
0
0.00016723585419877891
5.8289301916285677e-05
-7.7264150474127624e-07
-3.6762118958218059e-06
0
-3.0230796815559874e-05
-1.6975616297073194e-06
0.0019724572863708727
-1.9846779326934534e-06
1.954867237664747e-07
0.00073134172520935225
4.9639496426443833e-05
-0.0084300269270473245
-0.0013606171892064564
0.00043172019862383788
-5.5141914814849673e-05
7.8362289286632063e-05
-0.0019036810797859037
0.00029607101110220164
-1.4091822549887021e-05
2.1491975367955038e-06
-0.00014487888724044651
-0.038905243570393419
7.1845852376035111e-05
-6.748000073165611e-07
-1.9087674029073219e-05
-4.3054609121647854e-05
0.00012416496618103797
-0.019883516271194727
-0.00011733662084659395
3.0732351197240753e-05
0.0065217432358480017
-0.0001385697601395104
-0.0028830583530322198
-0.00033572223901359504
-9.8008946764339496e-07
-5.3771457464137933e-09
-4.6528553468203562e-08
2.156682109972135e-11
-1.531356630739148e-11
-0.00051796660229646815
5.1216395779069855e-05
-0.00039357084013266416
0.0005064203505380021
-3.8050996294891798e-05
0.0020382435783074465
3.6182033564861362e-06
0
-0.00011781999001714253
-0.00031295809286820798
0.01243069569404566
0.00028580538512810294
0.00031262169156163165
-0.00019018675469457179
0.0010756541128617441
5.6875955895824124e-05
-2.3546928039004137e-06
-4.0658286726274453e-05
4.8905826303019706e-10
0.0056983697212413765
-6.8619892840980431e-05
-0.0070217070145656485
-0.0026238634814937712
-4.9761867308586456e-07
0.008583739626388873
-8.6300259545186606e-06
1.0225676402063981e-05
-7.0040865794628184e-05
3.3558809703227684e-06
-1.4891482536785713e-05
5.0791822959783733e-07
4.2984025049679266e-06
2.5017136996689213e-06
0.0010529359919508648
-8.6676599096239397e-08
4.9636106495309279e-05
0
0.0066900748844855758
-4.4603298871526634e-05
0
9.365035064892805e-07
1.9650064114995595e-07
4.255062741381348e-05
-0.0055346019327930122
0.020666206395697374
-0.0031977970286286906
0.00011960988470080678
-4.2389343605035419e-05
0.00086330832691466138
4.3182596893311613e-05
-0.00064362009418295822
0.006412453439077659
2.3130838494954369e-06
-1.8475357509225998e-05
0.00021082423665906542
0.0018111522101502667
-7.9146669198957127e-07
0.0051624977802922356
-0.00015912418167828693
-1.4647410904493017e-05
-0.0010510596307659818
-0.0059364379481190617
-0.00079618731233115298
-0.0065303710127394294
2.090639901589037e-06
4.7919119460209477e-12
-0.00028368075211240618
-0.0010419436052709447
-0.00028330931412166681
-0.02616841432046978
-0.0022682788632015088
-2.7567004132066692e-06
-0.0003389401839453013
-0.00092564441597703384
-0.00045241990856248021
0.00018918424427062056
-0.00079918949559494861
-1.1062604570700999e-06
0.00055507949918213127
1.5537033383488838e-05
-0.0037620420132752938
-0.034491786640449475
-0.006267357334596409
5.9910699571002862e-07
3.6375476055803706e-06
0.0053557421486971199
3.2988166013412818e-05
0.0018164726913356887
-0.00038725188380301756
0
-0.00010632197450384649
-3.4037114348978806e-06
5.9624393012049596e-07
-0.00021849645602965272
-0.0046071338519012095
-9.8087496714636732e-05
-2.2233839172399957e-05
-2.2068038229013901e-07
-0.0073198024989010934
-0.0072931327380160215
-0.029367951617108076
-2.9712820573681877e-06
0.00021872021864743037
0.0026530561253258348
-0.035228733229336007
-0.00046198557473107012
0.00012390605123712312
0.0023725856953329856
0
-0.0087882204048198055
0.00026976079931351465
1.7923367293874329e-05
9.7994677711630024e-09
0
0.0020491284133409764
0.0086660092884897968
-1.9975116847032283e-09
1.5654995959224109e-13
2.9792313003452182e-07
0
-2.7471554488119517e-06
0.00049276437885673594
0
0
-3.7770365545734102e-09
-9.9859826223196741e-17
-2.6977679085190634e-06
2.3123371752085308e-07
0
-1.2651595437001065e-10
-1.7132921071061564e-12
0
-3.2882681954893756e-07
7.3678512392255876e-07
3.8340104057188164e-09
0
1.5618673966987688e-14
6.7516137217857045e-13
-0.00099358791095704373
-0.0010084798824214938
5.2743144317411096e-09
0
-3.5786449868150373e-08
0
-3.1287510301693986e-06
5.9389464767050218e-07
1.3092935380865959e-10
1.9583198586252005e-08
3.4410466648643905e-09
4.8785778787887988e-15
-5.0287561835524358e-09
1.689333068933156e-06
0
2.3225671443794688e-07
-1.3211619832700081e-08
0
-1.0078704134798148e-06
-2.9671844137830894e-06
0
0
1.2988817146809959e-07
0
-2.2224584777928513e-07
2.7436726248319091e-07
0
-5.7212591867053463e-10
3.7118604545954939e-07
2.4389844684358411e-13
-4.4738729600788791e-07
0
0
0
3.3408555503769932e-08
-7.2242612545582616e-13
-3.8348522589153377e-07
1.4815843449187405e-07
2.2282456151705232e-08
0
1.0750770442108902e-07
0
-1.0662239367108299e-05
7.9937915899707313e-09
1.8514302824929202e-08
1.9176020990091327e-09
1.3420897624490381e-05
0
-5.9059520654655233e-07
0.00010683353664950726
3.5919763915845344e-09
-3.1697799593862543e-09
-1.4445038431055623e-07
0
-0.00072245829886656262
1.65393813503553e-07
5.0179952477903108e-06
-4.2990211609269136e-06
-1.9469949130168093e-12
0
-2.3802595336661442e-07
3.6403113898368964e-05
8.6336651771041905e-09
-7.4778317146441278e-09
-5.9945721914557499e-10
0
-1.0734642381335265e-06
2.1379926788832827e-08
0
1.7049772656237855e-09
7.398046711501189e-09
0
-8.5202257705369509e-08
0
0
-9.7236866772342017e-10
-7.7468139994364453e-06
0
7.2635103979446105e-08
3.8151401478046143e-07
6.0215443029709031e-09
-2.8087561392735852e-06
4.7700829103782325e-07
1.8162172809726525e-12
9.5050126753829302e-07
4.2093896342561299e-07
-1.5967546811036567e-10
0
-4.5954753077345524e-08
0
-2.0519035553999915e-08
1.33674611858155e-08
-6.5136156900952297e-09
1.6830905152289673e-10
1.1986091233256496e-10
-2.6004301748014457e-13
-0.00071208380762404421
-5.5119358469623746e-06
-3.139025770399929e-09
-1.4115503717174448e-08
1.4767310959888555e-08
-4.5850517721326337e-13
-2.4809056273203146e-07
2.9463198527663592e-07
3.911975491809611e-08
0
3.4585406586690818e-06
-2.3151953363410182e-14
-1.128129062598036e-08
9.0186095124089131e-07
1.2599784206813457e-10
-1.6485499252620171e-09
5.907892382468765e-08
0
-2.260803345542357e-08
1.2156092622053691e-06
-5.806156599212679e-09
0
-4.2228011434124061e-10
0
0
1.1876840861136752e-07
-8.79794070697593e-10
0
-2.3794835016833734e-09
0
1.3142840380167684e-08
1.9945423526671523e-07
5.883363551953869e-09
0
-1.0903996669400991e-10
0
0
2.1426912291741074e-10
-1.0622183312496545e-10
-9.5300041677382e-06
-1.0489632602855715e-10
6.4672920715101573e-15
4.4146315879161683e-08
-0.00015560588120652912
-1.1652869592228921e-09
1.1708020232234516e-11
-2.274289044326615e-08
0
-1.6243065740326563e-06
5.1807300862873774e-06
0
0
-2.8551595635370373e-06
0
-2.5883148272768946e-06
7.6709578918940472e-06
0
-3.9973747070507003e-08
1.7238507247242888e-07
-2.959684277304426e-06
0.00013633325016078953
0.0066404296373369009
1.8373973000349133e-06
0
-0.00090702741059452933
0
4.0763050460606541e-05
1.8408131816598108e-06
5.0602376290011738e-05
-1.9856328961605002e-07
-8.7577255010416618e-09
0
-5.5567766551899086e-06
-4.1699829408716421e-06
3.4763732803707534e-06
6.6044849572336985e-06
2.7255876984801646e-06
5.0495585716027866e-09
3.9614842622985469e-06
1.1055585368700484e-05
8.295059003119423e-07
3.5427377717058337e-09
6.2760092490418078e-08
-5.608748574524638e-09
2.2365417892467331e-05
0
6.5082871350506517e-05
6.3753972947875038e-07
-8.5750708199450733e-09
2.5961348679665542e-05
-0.00030643068771951958
-6.0280429722681686e-05
-1.460696656666288e-06
5.6095694864314609e-06
1.0781233141699944e-11
-3.9203763028640003e-08
-0.0054194634372351442
-0.0060052817654268785
0.0012774768068311597
-3.5512822814884902e-08
7.0964782921881047e-05
1.09215266839303e-11
-2.0215472226062939e-07
0.0011854642827896849
0.00079772307494262054
3.216741903842159e-11
5.2641777013694902e-08
2.1245717879209373e-08
-0.00012215667932586393
-0.00011013471135689373
0
-0.00018529229710784447
-0.00011224451493822917
4.1621636580432057e-08
6.6218852587409291e-05
0.0032558387996468384
8.706045184204781e-06
-0.0001470150107517827
-0.0009233418067548045
-4.1637033453888546e-11
-1.9669259617144427e-05
-0.005467729821112273
3.8969746995534533e-05
1.7101680940434943e-05
4.1398919757261109e-05
-3.73130210938655e-11
1.0868672162412133e-05
-1.0291710420660261e-05
1.7544144394975322e-07
1.3599860683053715e-05
2.4676124297878358e-09
-1.774453078044969e-09
9.445416623198674e-05
0.0019623986044191065
0.0024685902403503413
3.4939819930392597e-06
4.7327854011907739e-07
1.4493828474398527e-08
0.0022031310982957059
1.7240073036400096e-05
-0.0019892762909863087
2.5079115400275714e-06
2.8581687275445946e-08
9.6311932367747413e-12
1.9327842444609769e-05
-0.0029867694720451081
-4.5317472056782749e-07
4.4318661273551728e-08
-6.9989053831410218e-08
5.987467143636727e-08
-0.00063389560627370419
-0.00061997599478356253
0
2.6683908673818874e-09
-5.382459625066019e-14
-8.0537865885796394e-07
0
6.5083411411727982e-05
-2.7413225312355209e-07
-6.2101549338062351e-08
-4.4024998500349098e-05
7.0537765204204661e-09
4.3631897017412392e-06
2.247703038088476e-05
-5.9054299223544784e-06
-4.483430828830442e-07
-1.0433272255508443e-05
0
0
1.6291087223496428e-05
-7.21960661727163e-06
-5.0670337224900764e-06
-0.00069212863822381209
1.640479238959747e-07
-2.28538182289582e-05
2.7953959565375501e-06
-2.2582928851497133e-08
-5.7113742777437854e-06
-4.1443885661800199e-07
1.0468908320347349e-08
0.0012831624754515763
0.0050587125959393941
-3.553454770354108e-06
-5.3621610186822037e-05
7.3039975659489451e-10
3.3417906339806756e-09
-0.00016903487064974512
-0.00042475699083202931
-8.3883729213371957e-06
0
8.4902835156029004e-05
0
1.846498134267024e-06
1.7959842724322642e-06
1.9822036322361705e-06
1.2597883072131059e-05
-1.4926077635993606e-10
-2.1695869011492274e-05
-0.002457265071644853
1.7908919578780236e-06
-6.9400615621429842e-07
-2.4730204750093111e-06
5.6561938173234062e-15
0
-0.0028289341108946888
0.0017244549522400241
-1.6031336688910673e-06
-0.00016741746119639013
-0.00037459309394913812
4.8885248486223268e-10
-1.4673187544633845e-05
-6.1123666660640714e-06
0
0
1.2117638439711262e-08
-1.3316333911326242e-09
0.0010920734700880239
-0.0024982117992062894
3.8005984961404363e-07
-9.8453498719632654e-10
-0.00025215171515605936
1.7887449575379245e-07
-1.041686099053499e-06
3.8450710047191494e-05
-2.8589434149721612e-07
-6.8050563240937905e-07
-1.1026021711240356e-08
3.2336276106637606e-07
-9.1139698656123724e-06
0
9.739596920522492e-09
3.2308473099608014e-06
-3.2960573755599772e-09
-1.5288923297506989e-08
5.0719043995590003e-06
-0.0065615604537941682
-6.1545240866701922e-08
-1.8877946417988232e-05
4.799512861390201e-05
0
0.0023223360199040193
0.0036862117108196648
1.1360588121078566e-10
9.9981504339678314e-05
0.0010917934831267846
3.2066176029248063e-07
1.9019630935321398e-06
0
4.7499079196983665e-06
-4.3411625711466857e-06
-2.7225043656498168e-07
5.2105435588958047e-11
0
-0.00011141120896045915
1.1554298301900104e-06
0.0012392129589212976
-3.6917613752722297e-06
-4.6272327546103582e-08
8.7412181866135957e-06
-1.0158769764248309e-05
-3.5231112594404566e-07
-0.00083723382044847809
0.00081104303861340567
4.8713288515158278e-06
7.4221424935609371e-05
0.0039341367779181539
-1.6045646512874126e-07
5.3624208796620528e-08
-5.9333975030647241e-06
2.0705365850879994e-09
1.4713352053150519e-07
0.00011354432285153156
-1.2473868823042809e-06
6.5204595808448428e-09
-0.0002401571303310345
0
0.019755421629828948
1.0515472986664302e-05
-4.6344018546650524e-06
3.9109899062428874e-07
0.0001867589121400208
2.6184541701354206e-06
2.161372424515483e-05
1.5409076504630076e-06
-5.0118263476733896e-09
-4.6528553468203562e-08
5.8147871341597313e-11
5.6645998549317404e-10
-2.9369575930949791e-05
-3.9305434215401276e-05
3.4186452453538082e-16
3.519468097680865e-05
3.7138960392281359e-06
-1.2185510833159451e-08
0
0
0
5.4270083150444852e-07
-3.9136164907155478e-07
-1.0718393077182865e-07
0.00014233297003073215
8.5314619651956675e-06
4.6236285172996176e-08
8.4898945940231319e-06
8.9692434181632582e-07
1.5928660592409792e-09
4.8884552163830309e-10
0.0024887439678961468
0
-1.6414458873873326e-05
-5.8618163435680924e-08
4.6986051047107002e-10
-1.3218196549644591e-09
-1.5222022033733063e-05
8.1175648532526813e-08
2.9418970232611009e-06
-4.6691384652973255e-05
2.2903926441383652e-08
8.490986306036318e-06
-3.5396415966397565e-07
-9.7886922925367567e-09
-0.00049420813172283034
1.084674260672012e-07
-8.0828581720331158e-07
-0.022185914718285037
0
1.8778337872208149e-05
0
7.5111736041134882e-07
0
-3.0663440358794135e-05
-0.0055346598641364741
1.3133274083509955e-06
-0.0015370096129566028
0.00010364514272920212
-1.4328303240011178e-08
-0.00014478137522988584
-1.7597527382114946e-05
-1.3490760827422113e-07
5.8496362110555019e-06
-5.4465880372495886e-06
-6.3593192985309786e-09
0.0001985978120897085
0.0036180299121235117
-7.9146669445690519e-07
0.0008546500278134502
-5.4760445913764922e-05
6.2259470336554578e-07
1.3158358026172805e-07
-0.0030623664720760267
0.0011676915100065771
2.4813535307455646e-06
1.5023015982127914e-05
4.7919119460209477e-12
-0.00013415701658074812
-0.0014775545852088593
-0.00017611387535469025
-4.2679094466104577e-09
0.00059370824910537205
0
8.9219956535572898e-07
-0.00077250109107461333
0.0010019046100083885
7.3158786740497314e-05
-3.205742189705985e-07
4.3226199146528011e-09
-0.0077093799897371305
-9.8270266272421709e-08
-3.248797821524521e-07
-1.5518398914198534e-07
3.6222508285172331e-08
0
9.1726585669011566e-07
-0.0024171423405839635
1.8553580605642523e-05
3.8600866697491785e-07
-0.00015082647711338641
0
4.5492821765523472e-05
7.933009207381021e-06
-7.5999070158654466e-08
-2.7365995925581908e-07
6.302785618040637e-12
-2.4632801192324703e-08
1.6330953011263452e-06
-6.6371680884793724e-07
1.4441215943372021e-05
9.3497524222203828e-07
-2.137819876075127e-05
1.5925294055734585e-09
0.00013360394858813197
0.0059358245266243883
-1.4643182184786568e-05
0.0011130959351487726
0.00013424297473272118
7.3870077643027286e-08
0
-0.002577852476399886
-9.8086317563495197e-06
4.3820197737719843e-06
-3.5426178319496196e-09
1.6816078005011203e-10
0.0042721965123827237
-0.0030718367160064764
-1.9601624193946035e-09
2.6257948238327456e-07
-1.9958217291268821e-06
0
6.7181982290073872e-05
0.0021447263115276917
0
2.1712646216247965e-08
-4.3292646605463239e-09
1.2830467235690642e-11
-1.2346175156067311e-06
-3.4180873628048556e-08
0
-3.2912902157940917e-11
-2.2316076990570302e-05
0
3.2882681954893756e-07
6.6426287525032443e-07
2.7977734475455769e-06
7.053271342068809e-08
-1.0228841509571527e-13
-1.715983288372072e-10
-0.00056912282500075524
-0.0010973629139035795
-1.8689767912244081e-08
0
0.00013544726543258465
0
3.1287510301693986e-06
1.2102222722118521e-05
3.7538351856242936e-11
3.6142713403853576e-08
-5.0192250067303002e-05
4.6964746154608935e-09
-9.3771538453931901e-09
-1.6705411224749905e-06
-2.6043766906972425e-09
4.1703548411153196e-07
-2.2201834756786638e-08
-1.3502387959923542e-10
2.0238883895499208e-06
9.021649364467721e-05
0
0
-1.2843558177191244e-07
0
-0.0020968129809107519
-9.3831805411666756e-06
0
-5.7835536697032663e-10
-3.343749431899e-07
-9.5757486264355671e-10
4.4474585066572876e-07
0
0
0
-2.0779602726966471e-08
-2.4921031830979755e-12
4.1685134830304186e-07
-1.5626325076381597e-07
-3.9091650548235535e-06
0
-6.3485182382610858e-08
0
3.5809635664601141e-07
5.7964838985162686e-09
1.4011901111285659e-06
-4.9997497285361286e-09
-3.3213954155754673e-05
0
-8.8934948125764172e-07
-8.6223299674190185e-05
-6.7690895074897956e-07
5.7263527895744667e-06
-1.6364672023510387e-07
-2.736633474020605e-12
8.0381565242287165e-06
1.9214315268642118e-07
-1.2775342412345977e-05
1.3176189113308936e-06
1.1327475993736291e-08
-1.6929804130051156e-10
-1.5844890979377832e-06
-3.1087177654968084e-05
1.8874344174319909e-10
-4.399295303848788e-06
-2.8011747124278767e-09
-3.730936180586101e-10
3.0500747845943163e-06
9.2198369248048405e-09
0
-1.1595001890882319e-08
-8.0833091855530123e-08
-6.8178425773504455e-11
7.0226660514259611e-08
0
0
-1.2458617258508363e-07
-2.0837787890187745e-05
0
2.778734065025989e-08
-8.2963564354660908e-07
4.0437854527203265e-09
3.6419404933989466e-06
-1.0393473869813435e-06
-3.640993932433153e-10
7.2658495471944172e-06
-2.1070792103691937e-07
-2.3423251544097744e-07
0
-1.0071738528470143e-07
0
3.1996704859674188e-06
-8.8678311958388774e-09
1.4188680017399689e-08
-2.59592915916675e-08
-8.423077088477077e-11
-8.7849317421191578e-11
2.6394417307392153e-07
-1.9133681748505435e-05
1.2497676690357379e-07
1.1496279711252597e-08
-1.2210420013253345e-07
-8.5370264935603126e-11
-3.2968087655771336e-07
-9.5204990785270363e-08
7.6564935685467382e-08
-1.799477252074014e-09
-1.1844774956034689e-05
-1.7569942163984274e-08
3.340984858636883e-06
-5.5761721685712487e-07
1.9293192670340603e-09
-2.8233443982034479e-08
5.2907710857167852e-09
0
4.7442512776476757e-08
-8.7893875880970662e-08
-1.6602588648494986e-08
0
8.5077697188719448e-05
0
0
-3.8137909210273032e-08
2.1808253269968582e-09
0
-2.3883329328413941e-09
-1.187848416644737e-12
1.6087923373268408e-08
-3.6731421499475978e-08
1.3984109737397725e-08
-1.2509048894303588e-08
2.5293300560660744e-10
0
0
3.7512831807510831e-10
-6.2935373244551086e-10
1.2252254811123862e-05
-1.048963261747363e-10
3.388284343568374e-14
4.4188673838449649e-08
-0.00091080762899532319
1.2653600852640206e-07
-5.010315888928927e-08
-9.3164550802916659e-09
0
1.436900021842453e-06
-3.3352407343320086e-06
-5.26275432751075e-09
0
-5.8906715684338143e-06
0
3.5501157972576405e-06
5.4810574704373723e-06
0
1.7687558129287245e-05
-1.1267209958534177e-07
2.9596842772823151e-06
0.00011482149727474314
-0.0066278848388250282
-0.00052475390563318084
-0.0053790305421506663
-0.00092854035342730982
-1.0995275532608196e-05
-0.00053436285132909872
-0.0006097768029720128
-0.0069122590343363042
-1.746417722756922e-06
4.5732854971131858e-10
0
-5.2529184286088156e-06
-1.7118347001547578e-07
-3.4765031634100341e-06
-0.013794746578275013
-1.366603310564656e-05
8.3759580319930593e-08
-0.0010073716744395335
-2.2683706977362032e-05
3.1473024022849901e-06
-4.8241164570880706e-08
6.2760452368754456e-08
6.8799640335974095e-08
0.0018049191718784174
0.011573014026438126
0.00015125803355439636
1.4236918956352342e-06
-1.3479584632839605e-08
2.7433965233581593e-05
-0.00085475350923732915
-0.0041344739111941597
-0.00078058305616009963
-0.02421068159306506
8.2248686823588155e-12
-0.0011172458722715339
0.0054195999198481592
0.0059918396759610706
-0.00036819129928145208
-9.4223349546758348e-07
-9.833114789970788e-05
4.108091340299684e-05
0.00020048206265339604
0.0032802574795984907
-0.0013978390859591993
-3.7822456930572323e-05
-0.0010476801092803901
1.0019890396006824e-06
-0.020723900799045895
3.4634732698933868e-05
-0.0007279674739669006
0.00015964387220359313
-0.00011224451510575021
-2.5203053196826592e-08
2.4097136751101169e-05
0.00048476473431585573
-0.023481448953922564
-0.00019295936393921105
0.00061956596060669215
3.9378212232285607e-05
0.015440224725985987
-0.0052571639731206193
-0.0068841401026987692
-0.010108880416756044
-0.0020833500956903756
-0.00041292200876370778
-3.3435225240985573e-05
-1.7793294169957765e-05
-0.0001728665743288696
-0.00167979662947202
-0.0028883719749137047
5.8447819915898531e-07
-1.3227339828370119e-05
0.0022083913245897701
0.0021561806146040354
0.00012251396248353426
4.0333947132493962e-07
2.5733944535548872e-07
0.0022055312406020948
0.00067345881811018522
-0.0016625127729734881
-0.0031036085419174761
5.7473957743469602e-08
-7.1718077506570301e-05
-3.5427790365651586e-05
-0.0029821854848184233
-0.0002014197057247187
-0.0007031934469676536
6.9989351869323911e-08
-3.1898438928682791e-07
-0.00044228937297031864
-0.0014337861283571483
0
0.0034138503708115316
-0.0035669244881279846
2.6152811110443752e-06
0
0.00018446708556814961
-5.1773908884630752e-07
1.7395303469528592e-05
0.00022365406302784219
-3.8501554181314397e-07
-5.0687021499868301e-06
-6.5934108588206131e-05
2.0066837522220223e-06
-0.0147734469508333
-0.0036487401596852964
0
0
1.2092736342885338e-05
3.2841843837620262e-05
-0.0015433867823824972
-4.7927860173200514e-05
-2.2673332562243156e-07
6.3732147042661907e-05
1.2792486831297403e-06
1.3530171828032557e-08
-8.5722248808893398e-07
-4.1443885534065725e-07
-3.2807768269389349e-05
0.00066728544165080847
-0.0065047751154854493
-2.3269376942191236e-05
0.0015181696784655311
0.002314094755702354
-9.3547839998863388e-08
-0.00042990181351752505
-0.00041456809908633525
-0.00042824450228130941
-0.011747402681185778
0.00017351070776889559
4.1983856209769149e-07
0.026071172675240829
0
5.2737341865731069e-06
-7.9718346603297859e-06
5.0770311456767753e-11
4.5341831019821863e-05
-0.0025385992270170795
4.4337888677612084e-06
1.0654418152277137e-05
0.011348036832086628
-0.0058890830088890161
3.4979887177139857e-07
-0.0030491154759603066
0.0015022311656505639
-0.0011614535594501468
0.0004820526785424964
-0.00014092383039678952
6.915079414384327e-08
-2.6029030841364765e-05
-2.5549656376287622e-06
-7.2850613013759141e-06
0
-0.00079586387481003296
7.0876932725669269e-06
-0.0012264451496319852
0.0023209116447704173
0.00019684995888756031
6.6455884743996518e-07
0.00016430975546678946
0.00020572477941929886
-5.8980281282140786e-07
-0.0016569935582212139
-0.0058107677393491744
1.2588192253128871e-06
-1.102095081693212e-08
-3.22892294261356e-07
-3.2926152656451594e-06
0
8.7594181811679549e-07
5.4713799818996379e-06
-3.2960717148178756e-09
-1.1172204747180442e-06
-4.5264206057775971e-06
-0.00066331782550389405
-1.1622822318922563e-05
1.2838663605953694e-07
0.0015099587855082201
0
-0.00068884874433560795
-0.00054486611178213495
8.188753200431038e-06
-6.6433776229686111e-05
-0.00034018682132629742
-2.6009499990180636e-07
-9.6704296015344552e-07
0
-1.6791725495195541e-05
5.8371848811283366e-05
1.0360066896625823e-06
-2.7197431041317863e-07
0
3.023069386161467e-05
0.021406637123788437
0.0026848166209674099
-4.4420291392137326e-06
2.0518709035879752e-07
9.6730056820858125e-06
3.4641807963816202e-05
-0.00010971745370365796
0.00050178450261107073
-3.0897679536527796e-05
3.0861268969121386e-06
-2.0680456580271463e-05
0.0028953952467824346
2.3954895592628956e-05
-1.4014120294947006e-05
-2.3883999633405669e-05
8.5522126514197297e-06
6.4023173093997664e-07
0.00013052904435971807
-6.0035803432923771e-06
0.00010175427153979608
0.00024046165980464216
4.5756175918216531e-05
-0.0082390096607883531
-2.5004173416068821e-05
-7.3390331060906296e-05
0.0059596434537770885
-0.00024488454132493037
-4.8084333635866097e-06
2.9444950224786949e-05
3.1703975764471754e-07
-1.3012044520247037e-05
1.0094631679317411e-08
1.1860368575506772e-10
-5.6014826385912076e-10
2.6060963432231842e-05
-1.1994613018564036e-05
-2.9792425738979832e-06
5.6339236112529841e-05
-2.0426918315514269e-05
6.1408285904788998e-09
-5.7339808489905403e-06
0
-2.6558452618289567e-05
-4.169355797723026e-07
4.5102475612020155e-05
-1.8395934132963381e-05
-0.00044826519539515155
-0.020676995403201604
-8.8504423244624984e-06
1.5586994989188544e-05
-1.3167306530074784e-06
1.0559246714562044e-05
-6.0073480872017786e-10
0.0064300731983535355
0
-0.0072001849176289096
0.0017257964314537026
3.578864854153829e-09
1.0600034857152884e-10
1.4941819285861143e-06
1.2604532173084749e-05
5.2496847741273395e-06
4.6691384651794849e-05
-1.6786873599701647e-05
2.0278101104982169e-05
0.023252833780889503
1.058176913382451e-07
0.00059480795441517909
-1.0846742607205983e-07
5.3645438466394742e-05
1.3634786156132691e-05
-0.0075794451851265137
-3.7878331937958998e-05
0
1.1816447177339375e-06
0
7.6855009123896132e-05
0.00029938099091592963
-9.9193143263176344e-05
0.00050528809655690896
-0.00011158201081270674
-1.1906077823828614e-08
0.00014872756190574394
-1.1322330841371064e-05
2.8376749716301221e-05
-0.0023975625667884905
-5.4465880383794001e-06
-1.8481287941044866e-05
-0.00055686505458788394
-0.0054997561757179105
7.0921728384441364e-07
0.0016367011580145376
-6.2027843652887805e-05
-8.2188079667525956e-07
0.00018433305898008293
0.00056248989691285616
-0.0011677963625749161
-1.5021853748013009e-05
1.5023015885452069e-05
-2.2873887970971653e-10
-0.0002035472485718204
-0.00013230352647342777
-0.00073103335856432056
1.0248717331734307e-08
0.0015590126356255394
-5.3032685768936257e-06
0.00016140718754418818
0.0011769458306807572
0.0038564683760883697
2.8627395176281213e-05
-0.0017069953828513749
8.6220932213763408e-07
0.0008108506582275185
4.6160926134395762e-07
0.0013370113867378628
9.8344069082015941e-06
-0.0062926733372424175
0
-5.8393766163376367e-07
0.0054465322872819981
-9.7996349004768744e-05
-0.0016208285523456193
9.0122017662137722e-06
0
-9.9126097294733088e-05
0
-5.8042824739717487e-07
-0.0080579293852693148
0.0046211078363283149
9.5833100027981827e-06
2.461270963423942e-05
-1.1855032847810425e-07
0.011988217267544015
3.9043318873588254e-06
0.002259084443808419
4.2289450764950485e-08
0.00015835480138677799
0.009999191958621971
0.00016295784988236054
0.0024769181817195802
-0.00016137495894077595
2.2713132445278307e-05
0
-0.0035217758566856343
-9.9949474202678428e-05
8.4643058986313987e-08
2.7639127311871352e-10
0
-5.9909365373903508e-05
0.0032449021070739053
1.2560809425836735e-09
5.947032146257777e-14
-9.1649589105692702e-07
0
1.9846084414354128e-05
4.8483834897092653e-07
0
0
1.8355755156627927e-09
-7.4490219907243327e-12
1.6496699064444189e-06
-2.2877974673162031e-07
0
-1.4692505154713745e-10
5.1736250319373987e-05
0
-1.9072017408089101e-07
-7.3123567667665165e-07
1.1586061942035286e-09
-6.4830673939986409e-09
-2.8251641445616807e-14
-1.545466226901867e-11
0.00058466018001330155
0.0003494309396952788
-5.4515930673743358e-12
0
-4.2040659931646901e-09
0
0
0.00045659275393660474
7.5755525192786811e-11
2.1129848274281043e-08
4.1344547968288255e-09
-2.2693797933808794e-15
1.1238176479217236e-06
9.1356987494815996e-08
-2.3555312349073387e-09
5.3379574094853871e-07
-9.4903996340399654e-09
0
9.7640103754460993e-07
5.2416686984169564e-05
0
0
-1.2950850217183031e-07
0
-7.0820515821091779e-08
1.8844838833644853e-08
0
5.9666568045743745e-10
-3.725795036464112e-07
-1.9479887482920752e-13
5.4946369142930308e-07
0
0
0
-3.6098486965140349e-08
-1.7156154875791589e-12
-9.1526442762485363e-07
-1.4005332077226989e-07
1.3267297596735395e-10
0
-8.9318732771072145e-08
0
1.9236368370559205e-05
-1.5585651312905789e-08
6.8973892539474251e-11
-3.6022532446176824e-09
5.5749768004941906e-08
0
-8.922214525114746e-07
9.6058823410317761e-05
2.5028963890981932e-09
-2.1258912259163345e-09
-1.9144468654978911e-07
0
0.00074454326623616144
-1.5663447935637576e-07
-1.4151998652857854e-07
4.2990344311175274e-06
-9.95579021158017e-13
0
-5.7923818468126071e-08
5.107715821088957e-06
4.7549150222551914e-09
-6.6260668720955949e-11
-3.5236591651909146e-09
0
-2.1578943988456529e-08
-1.8007066920583314e-08
0
1.1351004487162183e-09
-1.0177319732761913e-07
0
-3.7306572845608642e-08
0
0
-1.5377330391594953e-09
-7.7464730476331576e-06
0
2.4479454826847931e-07
-2.1557922628181617e-07
7.5958604855766659e-09
4.0672164474653995e-06
-6.1480499219217317e-07
-4.7060953855456857e-12
3.699396808550017e-06
-5.4544404727514394e-07
2.791187654407817e-09
0
-9.7126354561501948e-09
0
1.643511223476357e-07
4.7422024987504076e-09
2.191690405696459e-08
4.0408473914014321e-10
3.4283882145921622e-11
-1.5467105030988621e-11
-2.5473128853122972e-08
1.7263062510689188e-05
3.9369858660870263e-09
1.8884453103380293e-08
7.8942645100773902e-09
-3.029817994281897e-14
1.9093828647507599e-09
-1.0772646675595399e-07
4.0236586767976529e-08
0
-8.7455977033621324e-06
3.4526315563052345e-13
3.3395568345594848e-06
-5.2941120334599003e-07
-7.0101678833267013e-10
-2.0009640171462387e-09
-3.0112730125870959e-09
0
3.6533938377454279e-09
-3.3091319116875302e-07
8.3393162464052038e-12
0
-8.2740566773337756e-10
0
0
-1.1813772405850513e-07
-9.7987867262583564e-10
0
1.99178488764778e-09
-7.5273927755751186e-13
-6.0510546058933739e-09
-1.9441044124338649e-07
3.8086059027507689e-12
0
1.6180173898222024e-09
0
0
-1.7456701666069793e-10
3.3344837796076347e-10
9.9467013730405422e-06
8.8460651648043709e-10
5.880004669328988e-14
3.3026804067126324e-09
-3.5896350017068114e-05
9.7309055255389039e-08
-1.719921602901723e-09
4.1212035957277296e-08
0
-1.4368334969913903e-06
-9.1208705168491132e-07
2.8336502223682253e-09
0
1.3214602957921725e-08
0
-1.5828915309005943e-06
-2.8617006953397137e-06
0
1.0687960199022807e-07
-1.0390013585775802e-07
-7.8249659915816114e-07
-8.0556205469025236e-05
-0.0066406888412691373
1.6568345233717784e-06
-6.8156632604887981e-06
-0.0009320103831914607
0
-2.1974231255352345e-05
-2.8527509129644028e-06
3.7110811982434356e-05
-1.4048430825725685e-06
7.8910546463572032e-08
0
-5.2739178972381336e-06
4.4646573617589547e-06
2.1015515668395449e-06
-4.4825067557798269e-07
-1.3653190857761359e-05
-3.115810507987439e-08
1.7164520472261351e-06
-1.5948010236433209e-05
1.4036294863643875e-05
5.0679507815614463e-08
4.2144648285499143e-08
-6.7983921489674816e-08
-1.2195580779679567e-05
-1.4801722352345771e-05
7.371559746502855e-05
4.314803145376625e-07
-5.5481640057944321e-09
-1.3578764377239435e-06
0.00010167374200665471
0.004076767604847837
0.0023484454717727665
1.2297204622021034e-05
-1.0448474526837526e-11
1.4775147759702446e-10
-6.3636187928632295e-08
0.0059875171280146565
-2.6072270312005967e-05
-8.9012928206288889e-07
-8.8336648392948452e-05
1.1663868485066254e-11
4.7576147118098088e-07
-0.00088165950049866662
-0.00077616528195173853
-3.2123135376020779e-11
1.1280426064343137e-07
2.1245717879209373e-08
0.00019400712208701042
6.6736736386349623e-05
0
-4.2432818843415961e-05
2.8349408508063279e-05
9.2003269676771844e-09
3.3585402999418881e-05
0.00070745490522451399
5.9788351634148124e-06
-0.00019295667974141879
2.026403084562945e-10
-3.1426729880964342e-10
1.5444996686299864e-05
-0.0054534494292098057
1.13246349652998e-05
9.530969645108752e-06
9.842071458884037e-06
-5.3640005391146687e-08
-4.4724333340039791e-06
0
4.8933566172622119e-08
0.0015592639010483206
-2.8956028322657662e-09
4.9058592233902584e-10
-4.1283315826010632e-05
-0.0031260888227585219
-2.2308400529512325e-05
7.4336747651916788e-06
4.7327613617070146e-07
1.727303930250858e-08
0.00062554054962188159
1.419954150715104e-05
0.00019123366158937453
3.0870468614253951e-06
1.3484911670371803e-07
1.0034157144942256e-11
7.0972519033148315e-06
-1.4884696598826452e-08
4.0552235619954711e-07
2.9730213723920408e-08
3.455262647880314e-08
1.4338167712880098e-08
-0.00064053085447644213
-7.0645157123931606e-06
0
0.0028842262323351014
2.2171628058356294e-14
-1.5547146309496565e-06
0
-0.00016517053956134655
0
5.6675172440989431e-08
0.00025868505852950989
1.6221486435328115e-07
2.8383686352619124e-05
7.2981699921091989e-06
2.1803394954711454e-05
5.2750439675288004e-07
-1.466044944268496e-05
0
0
3.5341843814345169e-06
1.4591026204458548e-06
-4.4637620926144738e-06
-0.00020028172240666407
1.8274105846883759e-07
-0.00011562938811109932
-3.5577230271080869e-06
-2.2582928851497133e-08
-7.9542683358767556e-07
-2.2973173536977237e-07
-1.836535377832035e-08
0.0012082316741463064
0.0068902996182964651
2.8973604545316206e-06
-0.0012360951079587686
-0.0016347533020699297
-1.0250241449330883e-08
-0.00051773286012907248
-0.00026479779361025194
-5.9712788404928677e-05
-4.4257123097419902e-06
-5.1576929222323879e-05
0
0
0
-2.3636438810195642e-07
-9.5677599573886429e-06
-4.459720165418497e-11
2.8375171811361513e-05
-0.0068654568648142148
-1.3263114765203502e-05
-3.1805009462960024e-08
9.9970643283115334e-06
-1.1811790215674888e-13
0
0.0037818124052381532
0.00012174087978719656
0.0016398891614917888
2.7502811561829481e-06
-0.00027720683842325877
-1.9553157086207865e-10
-4.286589007843819e-05
-6.0714732290160746e-06
0
0
1.2118002400139409e-08
-8.2791563613324981e-10
-0.0012419662470257774
0.0013272353756372179
-2.2202834611491359e-07
-6.6652791741435786e-07
-0.00014020620635756751
-5.9218767290880237e-08
-7.8457601856283047e-06
-0.0017884625625247076
3.1366543280290441e-07
1.2588192253128871e-06
2.1051305904618233e-08
1.8922569593430812e-09
7.0626167051205657e-06
0
8.7661501123610909e-07
5.4713799818996379e-06
1.791863671800722e-09
-3.507064210776305e-07
0
-0.0065626192174295765
6.4991617893006052e-09
1.4569520652891718e-05
0.00042118701045112722
0
-0.002144913724925738
-0.0017778749955714638
-8.0675632488499768e-11
4.8095896912512887e-05
-0.001091939040432632
-1.6435727116302278e-09
-1.4280660659374433e-06
0
-0.00012005877011348154
5.4510199441096022e-06
2.7870849077144938e-06
-6.4647662866483235e-07
0
-5.5087004893179465e-05
-3.3434271607761751e-06
0.00041963095093079298
-2.5413797943793425e-06
3.0895334375533831e-08
3.944816813499393e-05
2.5049824206262593e-05
3.6867210441796399e-05
0.00083721692997961686
-0.00040344562698518778
-1.9833025341864273e-05
3.4544471393971377e-05
-1.0198850111832159e-05
-1.4501733384138334e-07
-9.3180275399182598e-07
-1.2738252466826849e-05
8.1271451532375102e-09
-7.2984978208434197e-07
0.00021730204053731819
-6.322184602003324e-07
-1.0698481235237499e-08
0.00020307026185775273
0
0.00012890434916652084
6.5070448963134178e-07
-5.2287803597236772e-06
-4.5053325726777163e-07
-8.4109758764553796e-05
4.367965463891971e-09
1.8960779762956825e-05
2.7688395773127762e-07
-2.955814155559435e-09
1.7064900412193515e-08
-2.1566830298640327e-11
-5.6347182360088767e-10
-1.2364105078411389e-06
-1.413259757581307e-05
-7.193437915641688e-07
-6.4884599335549948e-08
8.3035817348587182e-06
-5.3417920413779572e-09
0
0
0
-4.1529560235777137e-07
-4.9068871794090977e-05
1.6502070860746408e-07
-0.00011159984481885674
3.2728571114642282e-05
-4.7980844201070324e-06
-5.0244648588726438e-07
2.8136622573854894e-06
1.5019798670095937e-09
-5.9675219920663154e-10
0.00074025849827680907
0
-5.6185635151874871e-06
0.0015671659204258414
3.5715708793686086e-09
1.0975682619867609e-10
-3.4926165572245834e-07
-8.1175648532526813e-08
2.4200693369695085e-06
-1.240583792773992e-05
6.4792870354589243e-09
-4.601805072689807e-06
3.2512011951926912e-06
9.6309277908509333e-08
0.00053718309621989294
-9.7888045544365365e-08
-7.7401457535725653e-07
0
4.1370238179426738e-06
-1.3253490439305549e-05
0
1.1816447177339375e-06
0
0.00010520743987030358
0.0087529897826885018
0.000132793546687044
0.0015370109840796486
-1.7617815041998364e-05
-9.6701866489679274e-09
0.0002252916306153713
3.7063030906177832e-05
-1.3247626912386406e-07
2.5128775138036625e-06
2.8770988570118974e-06
-5.6277263560228276e-08
1.9114937716212738e-07
-0.0054604735094887251
6.0186945158668958e-07
0.0008546500278134502
-6.2022435523276728e-05
4.1899486150796531e-09
1.7417293074438136e-08
0.0014176430612349051
-0.00053230422982667228
-3.7158016360982429e-07
1.3623678632002255e-06
-2.2873887970971653e-10
-0.00011687363823533851
-0.00097648754340014644
0.00011460295707968537
-4.3314844057732423e-09
8.9842589860412604e-09
0
2.8954915725492246e-06
-1.1787808582809071e-05
0.0015585452975762095
2.1542029914348806e-09
-0.0011784524579095121
-5.2939381710517786e-07
8.154135992905566e-07
-4.6160926134395762e-07
0.0013361965034237016
1.6990652334367119e-06
-2.2068667616593042e-08
0
8.8012277826087159e-06
-0.0054438570338215106
5.6237953269227576e-05
-3.1211724377884189e-07
8.6914005067932688e-05
0
0.00010618289835464733
6.1226021404013553e-07
-1.0117755717521619e-06
-9.0880503029905599e-08
-4.7925406907750218e-12
-3.0482245173562964e-08
-1.4997192675468518e-06
-1.1420397283081374e-06
-5.8299281732936438e-06
0
7.7646118022279776e-06
-8.6390972829366526e-10
-0.00012932035753499934
-0.00015000859586816837
1.0907060679066691e-05
0.001121621361945085
6.2249918771327037e-05
2.3857136100888732e-10
0
0.0046782079857090883
0.00010623434953850445
-2.5825252906907796e-07
1.2546384375830374e-08
-5.9085802007731198e-11
-0.006286153991769362
-0.0032446413494225516
-4.2898038195250807e-10
-1.2114194451298004e-07
7.0008957906269926e-07
0
-0.00040157119539347693
-0.0016494405888063041
0
-1.6458768307504513e-08
3.779037446846143e-09
-1.2830526318723887e-11
-3.8756842476936049e-06
2.1965679774672675e-07
0
-4.7504600918812484e-07
5.1736252216248857e-05
0
-2.3550789023129864e-07
-3.8533418405134587e-07
-1.7276709295160978e-09
5.0544469170487254e-09
7.5745962254319724e-05
-8.6677132854079079e-12
-0.00048135550510192002
-0.0012847820429778732
1.1669178630330924e-08
6.5796020021891225e-09
4.0326651893499711e-08
0
0
-1.4729377764926954e-05
-3.8970708166488507e-11
3.3192857506714355e-08
5.0188449667215248e-05
3.9433693508510502e-09
-3.0700051139735616e-07
1.5698486870341425e-06
-9.8083341133739503e-10
-2.3999288875013477e-07
1.6119820714677956e-05
9.6484116924481296e-11
-5.5689103422599982e-06
-5.4769164888790485e-05
2.0982676602536105e-08
0
1.3059854532059515e-07
0
-5.9795376869034646e-06
-5.1350154122745585e-06
0
5.9340023598475433e-10
4.2786314656048435e-07
1.8062380744827236e-10
1.3587364576616666e-07
0
0
0
4.4147772323261739e-08
-1.0011903860675436e-14
-7.7785117000810516e-07
-1.5626332802580372e-07
-2.1448179147660144e-06
0
1.444187155924026e-07
0
-8.7458225993339763e-06
-1.000388913978563e-08
1.1514233280275216e-06
1.5516899076691081e-09
2.1210818917353365e-05
0
-4.5799313228217941e-07
7.3327389774150602e-05
-1.4091066580437368e-07
1.9337175677895819e-09
1.9144468735168023e-07
2.736633474020605e-12
1.9747658878775822e-06
8.8660258848556545e-08
2.7204596156178557e-07
-1.2153769282342731e-05
1.7507149023365475e-07
0
1.2137656844618102e-07
-1.0860592443044221e-05
1.8585763027851102e-10
4.232084438479369e-07
3.5172517808249829e-09
1.3754106514127843e-10
5.2037702673968223e-07
1.7926329104148912e-08
0
2.2108717360477837e-10
1.017731962987791e-07
2.8399698730312273e-11
9.5151757245011138e-09
0
0
1.3095256625375213e-07
7.7462858161344742e-06
0
-7.1505686534661071e-08
-9.137659525244379e-07
-8.3174298962448237e-08
-6.9739283489699071e-06
-2.5575039513298984e-07
-8.5698315686511882e-11
8.4886974049740884e-07
-2.3018276617256297e-07
-1.7388913978771783e-09
0
-1.1510367650717778e-07
0
-3.6200698904240478e-08
-0.00013639849501319176
-9.4771230458830303e-07
6.8105224075008363e-09
6.6441736341038622e-12
-1.8880319357270235e-11
2.420992924293943e-07
-2.2860531349338726e-05
1.2430987363646743e-07
-1.6682713765376237e-08
-8.7537354514831137e-08
-1.5256535338345338e-12
-2.3932943385089433e-07
-3.8938342330482143e-05
2.1871830174961383e-08
0
8.7461154394923589e-06
-5.0680399214108373e-13
-3.1941707254347044e-06
4.1219122182624329e-07
1.4109458799536563e-10
-1.814249025934938e-08
6.2081987851014405e-08
0
7.8330801328503829e-10
1.0536367586112667e-06
-1.40530429965039e-08
0
-4.0022124773163236e-09
0
0
8.0617087059272875e-08
1.1582678071563366e-09
0
1.6199064334930266e-09
-5.4537474567409553e-12
1.2192606406953592e-08
-1.9719584708117754e-07
1.7683829786085912e-08
6.5687051733694556e-09
-1.639687585822271e-10
0
1.5158339071612668e-07
-6.7076464799991475e-07
-5.8215999352207729e-10
-2.8749300222293446e-05
-2.6472993271939904e-10
-2.6251009838777472e-13
-3.8049579149458958e-08
6.6016329460971652e-06
9.6062408637159095e-08
2.0987517515368998e-08
-1.6899955626884964e-10
0
4.0058193130674678e-06
2.0117033250619049e-05
-3.6544566878442442e-09
0
3.0313150828391661e-06
0
-3.1324982754380161e-08
-2.189900421456675e-06
0
-4.8526811224232679e-07
1.7238098356921504e-07
0.00140859116072979
0.00014005913203078498
0.019884185217798524
0.00093545246798744667
0.0053814136493543722
0.00092854035342705915
0
-0.022773786001417263
-3.6576089341701081e-07
0.00037160656994196837
2.9753423325664295e-06
7.8910471854225287e-08
0
6.163751914229385e-06
-1.2226978234935381e-05
0.00049838415351718436
0.0096639103594400432
-1.3662009573471882e-05
-5.1664018562370867e-08
5.9257965917807688e-06
2.256668640999051e-05
-6.8951712579642181e-06
-8.2794324229728204e-09
3.6161889111192428e-08
6.9111890815562366e-08
0.00087633588118745818
-0.026971601400477076
-6.4687151095794445e-05
0.030315666173164644
-2.3987379802063328e-09
3.0841394004296378e-05
-0.0002236839775626044
-8.2706592947807638e-05
-0.00011074529930523673
0.017849894516088882
-1.0580903569116752e-11
3.5720928989188167e-08
0.005418530306076432
-0.0071788400483158319
-0.0037482098423116976
8.7171081732049949e-07
9.3145495263591941e-05
-2.4476184739495549e-05
1.8806432975225421e-07
0.0032905581331442906
0.0010589759732349783
1.1527486622418527e-05
0.0023551913428119507
-4.6857039774262873e-06
0.013173903830007598
-0.00011251652850824087
0.0007279674739669006
0.0001965965614550196
-1.4359871391592585e-05
-0.00013775633918046258
-3.7405251279719951e-05
0.00053454571185479536
0.0095470677796436112
0.0001865250382173515
0.00076205126898206657
3.8648901175470808e-05
-1.4518830448494849e-05
-0.00049284769984872339
-0.0042009408801359695
-0.0097384005208410087
-0.0049520667329752835
0.00041127918536707782
-0.0015848073742474589
-1.0291710420660261e-05
-0.0069819065157647039
-0.0042397101453274452
-0.002888374353156076
9.3663413717927782e-07
-0.00024818370313241516
-0.0031979962797873992
-0.0066601029974833669
0.00015517992704388225
-1.050613283474753e-07
2.2279336675047157e-07
0.0033460586376150808
0.00061518739125115463
-0.0027473816874256317
-9.866204484587759e-06
8.2710579667384909e-08
-0.00017856098380411684
-3.8266277306822757e-05
-0.0029909712316648351
6.4808151159476477e-05
6.8894388646587279e-05
6.997738386360723e-08
4.800480060807807e-06
-0.00022463012221033603
0.0025818827119669053
0
-0.0062859610741934184
-0.0019661771527926574
-0.0019225316245317248
0
0.04087390201077206
-7.4441845548247097e-06
-7.7030666741624147e-08
-0.00025868505836639557
6.035495777901553e-07
1.202270948115195e-05
0.019680799151556658
-0.00031705606754945244
0.014818716989538804
0.0018301802619002465
0
0
4.3459969925395435e-06
1.4000801502897423e-05
-0.00034262683787643014
0.0006921243264569097
0.00036403678808040338
0.00017580403334569445
0.048348818828631623
-1.8792307020920958e-08
8.2180805852735564e-06
2.5737214413620048e-08
2.2564655349807675e-05
-0.0008334199392030702
-0.010644829481968644
0.018283106064939443
0.0016519176982950118
0.00060760491021004967
9.3547839998863388e-08
0.00039284636623354715
-0.00025391114741439596
4.1439266939127335e-06
-1.8998359617708865e-06
-9.5178857066659738e-05
1.5505989319821907e-06
-3.3981108061924842e-06
-1.7959842724322642e-06
5.2222992654268921e-06
3.5784827851160404e-06
3.3390631087727063e-11
4.0906725986544513e-05
0.0069263029798175314
1.3385811898835482e-05
7.0259609527791117e-07
-0.0038133853367754897
0.0060009947876481923
-5.1892686534751682e-07
-0.0031874144775006948
-0.00015503249196351419
0.0016297396412625754
-0.00022348539390593431
4.3019384164325726e-05
1.2174150389745854e-05
-6.0056306432123283e-05
7.8442788265758923e-06
1.7026897661080311e-05
0
-0.00070674111211413686
-6.7002097255082963e-06
0.0002144121206827325
-0.034966986548887233
0.013048908112059807
-6.6792290381851743e-07
0.00015472658250061967
0.00057944659702037569
-1.0639772746059906e-05
-0.030605922555118535
-1.6763946899884177e-09
1.2588192253128871e-06
-1.9107196785493185e-08
2.7743022549177214e-06
-7.2388081128667009e-06
0
-0.016834522934709616
-1.6034202926137485e-06
1.5935799470727741e-09
7.41402487927872e-07
2.7554524824475241e-05
-0.00773664045825612
4.0623606146475778e-06
5.6841830078932009e-06
0.0014882220537241182
0
-0.001577909950320364
-0.026671823964002559
7.0277176512225446e-06
-0.00033852698941650952
-0.0021261945706907929
-2.9501242045476737e-07
1.2059327713224324e-05
0
-5.1918304583544008e-05
-5.8396727784613087e-05
-8.7846407810586677e-09
6.0959093368815287e-06
0
0.00014036555268648381
-0.020757859999687992
0.00041892473898049132
-4.4420041401720724e-06
2.0956354262686586e-07
-1.573572916369813e-06
2.9593048663893901e-05
-6.9081367120128661e-05
-0.00090458394742111805
-0.00075143476142745206
7.1134380566503468e-05
0.00018294553970427723
0.0048240363291099176
-3.1309041361035583e-05
8.2864274884131595e-06
2.3440741986442634e-05
8.2695125493091701e-05
-7.2984978208434197e-07
-0.00038542209963654685
8.590362132437851e-05
0.00033157601303656573
-0.00016535143125263809
0.0019171070287560827
0.011364145236362947
7.825684621159284e-07
7.4328105007562728e-05
0.00085650861987216257
-0.00018356483978723719
-6.0127119471528474e-06
-0.001297207656654161
-2.414523000615647e-07
-1.0708283313346804e-08
-1.4304028476321867e-05
5.8147744720071338e-11
-5.6347182360088767e-10
-0.00052042116809245854
-1.0780269508495374e-05
-7.1934379107851082e-07
-0.00015971472737522283
-4.9693161639334066e-05
5.7742973238532681e-09
-2.5443663746589673e-05
0
0
-4.3476978324389154e-05
0.0068985717624847056
0.00011730512115696946
-6.6505031014353006e-06
0.012798872334044616
3.2772524057953156e-06
9.0063003217675551e-05
2.8136597100529027e-06
-6.2729338207212663e-06
3.8307002575742582e-05
0.0023612681897464895
0
7.2251065926248317e-05
0.0024004226066231199
-3.0533551315028269e-07
-1.3218242706344123e-09
-1.8527726180608651e-05
2.4671300172410519e-05
6.2314488487345219e-05
-1.198186656669882e-05
-1.272689907507869e-05
-4.0704360830567792e-05
-0.00078629497613783689
-2.4247015274826842e-06
-0.0052545075696390992
-1.357011982580534e-08
4.488154757007896e-05
-6.3444340524484381e-05
0.0075519636437277743
1.9954896464822462e-05
0
-4.1560579469942665e-07
0
9.112180145492319e-05
0.0063358540087200838
-0.00051361717589765339
0.0014392715531240986
0.00011961010376732672
0.00039607918726260714
0.0004237017757325913
3.2989575814318995e-05
-0.00023096339254413122
0.002398986307996238
6.7953739660582225e-07
1.8481287941044866e-05
-5.4275073693912814e-05
0.002862691350942892
-2.340665769874715e-08
0.0017590077838052747
-4.2879567271452902e-05
1.4647416165799408e-05
0.00048438563684257541
0.00088120605490050617
-0.0015261779319339901
-1.4922106401835212e-05
2.0906135492380347e-06
2.2873887970971653e-10
-3.9065843071627158e-05
7.9647997645579922e-05
0.0004420238791830316
-7.6096346220138872e-10
-0.00085893424795758394
-1.0742436106622777e-06
1.1269185730210369e-05
-0.0008247455098903244
-0.0033630108337076503
0.00017268190119160181
-0.0012304613790640943
3.8861725137845896e-06
0.008273141358983627
1.5537033383488838e-05
0.0013345285055060805
-1.4874496812141065e-05
2.5325880434019289e-05
0
1.8374218272994667e-06
0.002418917338274866
6.319764333231944e-06
0.0018997177006266131
-7.3721747132069043e-06
0
-6.2917806760186631e-05
2.3923033449080109e-05
1.5238810869643016e-05
5.1162030989440088e-05
-0.0075676137411804269
8.6079496607269643e-05
1.7717618539672643e-05
9.6766102671377851e-07
-7.607927080955651e-06
-0.031183231934027673
-2.1115157653020382e-05
4.2289450764950485e-08
2.0117449140497815e-05
-0.00602452038357179
0.00016242627776542179
0.0047783454409676502
-0.00011277937993568355
-1.0860034803520332e-05
0
-0.0048375031198861149
-0.00016163786611160703
-8.3064673728955389e-06
2.6435367664055793e-09
-2.1442305328244379e-10
-0.0042722076075760868
8.4590168361677582e-07
4.9398007031313138e-10
1.5565088399150366e-08
-4.2176436599802561e-07
0
-0.00016283631337940017
-6.5942681225259091e-06
0
-1.1556763372322923e-08
-3.2295475108718212e-09
-1.4658560817618166e-11
-2.0305521841693776e-06
1.4673405953450849e-07
0
4.7523843334714194e-07
-3.5566688804350368e-05
0
-1.9072017408089101e-07
-5.6465522474016636e-07
-4.8837989516167259e-09
-7.4924835812396832e-09
-7.5745962242049293e-05
1.3646789021134021e-11
-0.00021387024575158776
-0.00024696019606713557
-1.5179356120677367e-08
-4.8619297580071114e-06
-0.00013551573879035138
0
-4.5403077161283424e-06
1.8524988371595089e-05
-9.2705823779202413e-11
-6.0459651816835011e-09
5.0188671068947733e-05
-6.2549472542357828e-09
3.4312465656656225e-07
-9.0938464882527644e-08
-1.3974436656020009e-09
-4.7317149193370231e-07
-1.3211619969715532e-08
-3.9373743219966148e-11
-3.9011272972006768e-07
0.00016783832952119989
-1.2560149400844255e-08
0
-1.2772520915791315e-07
0
0.0020908981975185947
9.7051397132063064e-05
0
5.6920191961453997e-10
-2.7779509950526926e-07
1.6185689052993626e-10
3.4350313579679157e-07
0
0
0
-1.4015119591309525e-08
-4.0972920469668613e-13
-1.8317019277257775e-07
-1.5626322093380663e-07
-2.127195297888695e-07
0
-3.7975228523468407e-08
0
-8.258619576324486e-08
9.0878162863892834e-09
-8.1094538898271242e-06
1.483412745612504e-09
-1.1005096969014611e-05
0
2.3148318045727841e-07
-3.2110927674149408e-05
-5.3520204624992775e-07
-2.5648513467104918e-06
1.630822738146289e-07
-2.736633474020605e-12
-0.00099011378984420885
-2.0040013805774151e-07
9.9315361509580245e-07
-4.3026922642901946e-06
-5.3517370535277725e-12
0
-1.6797697456087702e-08
-1.6478898075685145e-05
-6.7755487059572744e-09
-4.0746891339940165e-06
3.5252896317695074e-09
-2.8574821146055235e-10
-1.0406626973075686e-06
-1.9517309342602786e-08
0
-2.5658050585011663e-09
5.3327005867899117e-08
-1.0600341176584217e-11
-3.4391976989312824e-08
0
0
-1.3703862180219408e-07
-5.609445921073395e-10
0
-1.9391656691002548e-07
-1.1745144259889561e-06
-5.8255387513101678e-09
-4.4561439993203703e-06
1.7791219823274003e-07
-5.2639207211426259e-11
-5.2192383681923368e-05
-1.2518443436291744e-06
9.6894733721617513e-10
0
-9.4270657503380349e-08
0
1.2374847485761712e-06
-1.6353616944798998e-08
-3.7426370013211589e-09
-6.5073257606738522e-09
-1.6610903092508261e-10
3.2602428148957704e-11
-1.0667399804671114e-07
1.79723756132115e-05
4.1549044867140448e-08
1.7161635224772529e-08
-6.3605621256520694e-08
6.4623370840084971e-13
-7.2781460539120998e-07
-1.4100407276690393e-07
6.5700196209046084e-09
-1.799477252074014e-09
3.4583368805041192e-06
3.2214492271588538e-13
3.1523165097352605e-06
-1.1221936870536575e-06
-2.2563660609348183e-09
-4.6322621502773769e-08
-4.7060605721536569e-08
0
2.1284079213702097e-08
1.3850726814823786e-07
6.9291226383537724e-09
0
-2.4860236385512607e-09
0
-5.9990354230192341e-07
8.0028660963627448e-08
-4.8698332276416134e-10
0
-1.8777134206739306e-09
2.3779538757995033e-13
-1.6764825476333923e-08
-3.905203293658607e-08
-3.6947835561745391e-09
-2.4509922028068648e-08
-5.7671751588071289e-10
0
-8.76196996792113e-07
-3.8565159597038293e-10
4.7653303933402593e-10
-2.6368669918708092e-05
-1.1126563060978255e-10
-1.0103232236675687e-13
-4.2159267612145021e-09
-0.0001278035307424182
1.886041237432112e-07
-1.9455743824468823e-08
-2.3916512636392207e-08
0
-3.9137621957081702e-06
-9.5249443581510936e-07
5.040771613424747e-09
0
-1.1446831312829024e-08
0
2.4438996946711063e-06
0
0
-1.7464617622565403e-05
-1.3852331816826854e-07
0.0016236604042493181
-0.00013625486984322508
-0.0014092377078620531
0.00093691620388389803
0.014502835583153729
-0.00079421626401255546
-5.7909211006638144e-06
0.022629416112821977
-6.3329627224030169e-06
-0.011125828833724013
-5.0567267516861913e-05
-7.8910546463684369e-08
0
-0.00033568162973002442
-1.251839072454799e-05
-0.001294963127824114
0.015331514564070572
0.029790774927538153
7.6326209156621416e-08
0.0010054702889467004
1.5553516521342057e-05
-1.2123432570373417e-05
4.5090883052322247e-05
-2.022984000512152e-08
2.8761279812159358e-08
0.0015154599410954906
0.026971601400477076
0.00016650868091571885
0.03031907362966069
4.4497009115617887e-09
2.3603444355660019e-05
-0.00022851549883415399
-0.0040716468603633274
0.0038488689467372447
0.0242093661596153
8.0336952101994528e-12
-0.0007436249271296618
0.003550175462872905
0.0010034681980956651
-0.0012509933025864198
0.039082113277321341
5.0676104152390082e-05
5.1935218238367824e-05
0.00020086347046371417
0.0033854488112871613
-0.0016694986503685888
0.055467616892997396
-0.010474644020548304
2.9198295741653708e-06
-0.030878870527611499
-6.7241367412798565e-05
-0.00071214489530668692
0.00018529626984579639
-2.8522702071899612e-05
0.0047059169527168473
-5.1694713112952413e-05
0.0031416173717788488
0.02285591865959205
-0.0003392379714720328
-0.0022539543727992206
2.3123548913083683e-05
-6.8863815866857144e-06
-0.0094478183198814288
-0.0199982515698926
0.0097203025192281883
0.0010584816257080659
0.0012463578025547768
0.001613560863024457
0.00010073671570549451
-0.0057674614024848612
0.0015554530695073474
-0.0043395945393469356
-0.00015353999623709362
0.00012024835530284054
0.0021373925507909919
-0.0013538407505489932
-0.0010086945389042176
-4.7327502349047365e-07
2.9738772485998209e-05
0.0015219572269474652
0.0015876374698885897
-0.0023915819870111918
-0.019486557736291012
7.5656315635696351e-08
-7.735096704133607e-05
3.8117088887271852e-05
8.7135715220362104e-06
-0.00037729605231503392
-0.00012301837545213471
1.8017447270434921e-08
0.00010185192392401123
0.001159843657925565
-0.00072390661334278744
0
0.00074386857537792886
-0.0027124069904087174
-0.0017721538132808429
0
0.00052795985813519706
-5.1773908884630752e-07
9.7691388684976621e-08
-1.0636106998747098e-05
-3.8618700766316051e-07
-2.6887301740709506e-06
-0.019697346932873772
0.0012959111943176371
-0.014902047518329886
0.002576616050547318
0
0
-4.383155160302376e-07
-3.6696870832008482e-05
0.0021563941948455536
0.00069212863822066953
0.0012346918673366389
-0.00014303416532944431
-1.561569470372303e-05
9.0513204221458448e-05
2.283051562583823e-06
7.8245673336292849e-08
3.2800051561935519e-05
0.0020785031673670774
0.0029142553163074778
0.00065934136453879946
0.00203744615510809
0.0023418628676236996
4.3211725070501635e-06
-0.00071838189286506252
-9.9056237635306284e-05
0.00039072211194484822
0.011749124786103652
-9.8077586517786476e-05
0.0001901389094366474
-0.026054811528902665
-4.7008550110039621e-05
1.365047009043774e-06
-0.0041176511175728377
-1.4926127383524292e-10
-1.4760237538554264e-05
0.0024166466686439928
-4.5553767142491933e-06
-0.00033127665048117894
-0.0074882698473393442
-0.011857592527537007
-2.880712484459145e-06
-0.0043070833693602713
-0.0017848050178261017
-0.0062970439164514933
-0.00054763334070542574
5.2775088583570841e-07
-4.9503965789269769e-05
-0.00039628082689934944
-9.0893405706573153e-06
9.1660481266763068e-05
-2.4697404862721772e-05
0.0011127609292769418
-0.00018625769351654148
0.0014313312531649143
0.0029552329616258552
-0.012469317757267079
-6.6792290381851743e-07
0.00010116842623015876
-0.00099364579819557369
-1.0381945045352387e-06
0.028034643611551096
0.0045533265875563975
6.9261441602624895e-07
2.4984290714730226e-08
3.5431829285251042e-06
0.036588981066935027
0
0.035106174681338684
6.4333688829513606e-07
-3.0702988478950211e-09
-0.00071704843105485302
4.5397411012106036e-06
-0.0067143769484344085
-3.3111074687594077e-05
-5.5476313389473208e-06
0.00077869264594258652
0
0.0012250828635358136
-0.002286369121491444
-4.9944443484740965e-06
0.00079436372474273802
0.0025016434435736895
0.00095638966073504543
-9.5946934753146054e-05
0
0.00021976685576152724
-3.9005650899360727e-05
-1.1096880943157942e-06
-0.0023433420628327702
0
-0.00014036555248111168
-2.8011891949230312e-06
0.00047964034606500134
2.5414159661401535e-06
1.1288138556294843e-09
-1.0174165864400622e-05
-2.5057399447727805e-05
3.1181038947258055e-05
-0.0010925947677229526
-0.0007231604411203625
5.7772766287380062e-05
7.7852545831772859e-05
-0.0041256820526110972
0.0002072285005138956
9.6964140902136921e-06
-1.393009931528353e-05
-3.5159445002074258e-06
-7.2984978208434197e-07
-0.00019016532049639199
8.0904292793717612e-05
0.00010019101293110935
-9.0175187900064455e-05
0.00049717224553188989
0.01992834320619474
3.576293635781816e-05
-0.037616550069693097
0.015508661498811449
-7.5479088499233807e-06
0.0038254630911000263
0.0012623612669764377
8.2697933398064951e-07
1.2999827492959021e-05
-4.6528553468203562e-08
-1.1860370543533231e-10
2.3354975676784591e-05
-2.7978773884392074e-05
-9.8087760482578302e-05
-0.0022574915959992924
0.00016010360198953188
4.9693161632557422e-05
0.0019642647072419216
5.7339808489905403e-06
0
-2.6558452618289567e-05
1.2714903757763052e-07
-0.0055587966250171608
0.00039108276297355717
-0.00012096204614382028
0.0024070679976745048
2.6350297674390918e-05
-0.00012325135104965441
-2.8136537068261047e-06
-3.4119098260543463e-05
6.0117078491466483e-10
0.0044404249051300006
0
0.0071009797124348588
0.0039658929264654204
-1.110265319224266e-05
1.3218140715473443e-09
0.00012405886744241192
2.1892675165735901e-05
6.2828640937415137e-05
4.6691384652822605e-05
3.173790015544832e-05
3.6781448757037314e-05
4.3729722796312253e-06
2.5017136996689213e-06
0.0055886309607233722
-1.0846742607205983e-07
-1.6899301861823394e-07
5.7374748516023879e-05
6.1690548357307303e-05
1.3706747352556342e-05
0
4.8295905947320566e-07
-1.9650064114995595e-07
2.6889481700726659e-05
0.0063358070916784467
0.00023301074874513232
-0.00074642868737220586
-4.9403794886425285e-05
-0.0010728012835540242
-0.027819103718806547
3.7140075584639805e-05
0.003156489415312525
0.0049208953921784926
5.4465880148676552e-06
1.8481287941044866e-05
0.00048676845831961387
-0.0090446800582417042
0.092038551035657973
4.9647347375231147e-05
-1.9590144329883765e-05
1.2487913897839291e-05
-0.0010721199472652112
-0.0045535732599236876
0.0036525394733477622
-8.2682944540283558e-06
1.4499710627915827e-05
8.9610109405591761e-06
0.00017577936358133034
0.00027847794463542713
0.00040570248483369915
1.2581347641899107e-08
-0.003000357267426099
4.9038466364675831e-07
0.0006818003845458756
0.0011769872695639233
-0.0061747951237324733
-0.00015255926456605963
0.0030834216366750797
-8.2667820217299014e-05
-0.0008249683618933775
-1.5218089353951098e-05
-0.0012462161279827263
-8.3840893231923038e-06
-0.0059032087553422931
1.4644601361248205e-05
1.5943195921690936e-05
-0.006378485274443354
-6.9831424822027995e-05
-0.0033423614050541784
0.00021658749273033041
0
4.1842844189948791e-05
-2.3923033449080109e-05
1.5272584964008593e-05
-0.0075670237943716925
-0.0029465059127216134
-0.0001263431671807755
3.8745831627686666e-05
1.7200467580101096e-06
0.0026746606254239567
-1.9511737195353038e-05
0.006500218016670097
-3.4431765790647249e-06
0.00017977764639520494
-0.0058679954323954545
0.00087845641243177656
0.0036715839275211176
9.1273322983885126e-05
-5.1605482319823957e-05
0
-0.0038736429748049326
0.00010395774475902615
-4.7291389052317989e-05
-1.2546384956357447e-08
-3.3374158305811012e-11
5.996236005046967e-05
0.00046235412788553403
-1.4495989117296499e-09
-1.5823303781246774e-13
-2.7265686942807017e-06
0
4.0629304229582458e-05
0.0016436649872067833
0
-7.7688206113839183e-09
-7.5447574754343913e-09
-1.2830438770755048e-11
2.8584228973971093e-06
1.9345271080012915e-07
0
-1.4797885251589001e-10
-5.4120865037587002e-05
0
3.2310799250695891e-07
8.0103661500567478e-07
8.0713493870371251e-10
-1.1763402969062529e-08
-1.1926198857176619e-13
-2.0791695073181245e-10
0.00099367601901236328
0.00095464542364487098
-1.8685839874355515e-08
-2.5305050747679377e-08
-7.7216592938777665e-08
0
0
5.4077742070072204e-06
3.7546338044022431e-11
-1.9628111779749435e-08
3.066365464684656e-09
-5.8729024300083526e-10
1.1709381256379172e-06
-1.5228348216572224e-08
5.0515989812093333e-09
1.351803328173611e-07
-4.6343520164726746e-08
1.086000103911914e-10
1.0631185810607458e-06
-0.00014439647532297012
0
0
-1.2544875203731736e-07
0
-5.8577665148694009e-06
5.7909960434741109e-06
0
5.7508992249764351e-10
7.5345096079933991e-08
4.7599630432541828e-10
5.9494568176712038e-07
0
0
0
1.1137334001220271e-08
1.0351230462149662e-12
-2.298159715881396e-07
9.0387930761968803e-08
2.3047984532951738e-08
0
-4.0150209414915796e-08
0
2.9385660992485336e-05
4.163362847814433e-08
3.5889306856814884e-08
1.0936304228347476e-09
-1.5869902860052834e-05
0
1.4200819208923334e-06
9.657136410425641e-05
-1.4022227358462302e-07
-1.4024375505152845e-09
-1.7167120934242286e-07
2.736633474020605e-12
-0.00017255721365237183
8.8654486526504533e-08
5.7815682747720855e-06
3.2186554310189926e-06
4.6323169624260256e-13
0
2.3797533982066362e-07
-1.2439940088511089e-05
-5.1329764782840496e-10
-6.641206569352655e-09
2.4938392075108885e-10
6.9554502566582888e-11
1.3197941596169141e-06
1.2240321768843783e-08
0
-3.9998558116836629e-09
3.2119568045109461e-08
7.7484362821387096e-13
4.1270876730872357e-08
0
0
-1.316642443627278e-07
-7.7462203011744823e-06
0
1.7582511500469171e-07
2.6675194755218242e-07
5.6194224038260689e-09
5.313421904202715e-06
8.1783013652617176e-07
2.3430044871499482e-11
8.3230694485896011e-06
4.5543060301958156e-07
3.1494596043336384e-09
0
-1.151036350093417e-07
0
-2.4445222259122265e-07
-0.00012256681425617941
-9.352008804504038e-10
