0.50053469521076999
-1.3643123181540356e-10
0.0058179907466035094
0.026075157814413864
4.7459468045149594e-08
-1.656824227430015e-08
1
1
1
1
1
0.49999800002768086
0
0.013404668335521897
0.046456295760318539
-4.5320697671618002e-07
1.5467522621127153e-06
1
1
1
1
1
1.2904605561279768e-06
0
8.1802879055202348e-06
7.4804547321249792e-06
-2.2421295019441366e-08
-9.1771378501611912e-09
1
1
1
1
1
-0.00093917667860718608
0
9.8199950327121954e-05
0.027257448116723065
-2.7658272010782664e-05
4.1431332724306003e-07
1
1
1
1
1
-1.0891098804139052e-05
-2.7681721765427378e-10
0.019782841277805222
-0.0095161590504515715
0
1.0390834128674175e-06
1
1
1
1
1
5.8836623111584747e-05
-1.5226622936926971e-10
0.00072579480516232081
-0.0085166798393514331
2.7094169484929061e-08
4.5162926877394053e-09
1
1
1
1
1
-8.6227861844982899e-05
-5.3596161391439619e-11
2.9055023683137851e-06
-0.0017746480292813414
0
1.5924119886106245e-07
1
1
1
1
1
-0.00016320728769768646
-1.2694875047251035e-12
-2.3731474923560348e-07
-0.012525919915967526
9.8330976409552697e-09
7.1077967098045449e-08
1
1
1
1
1
-0.0045546566327722285
-1.1431561538882314e-11
-0.00057772619810870498
0.00099910056816347433
0
4.2518495178648338e-06
1
1
1
1
1
0.00075837621427371786
-5.5472533211762609e-09
0.00036964627000355999
-4.8776667830291937e-05
-2.9542623016620114e-08
0
1
1
1
1
1
-0.021690588600815387
0
2.5537534403323326e-06
0.00016737245296391304
7.4001504741581783e-08
0
1
1
1
1
1
-0.0002470885543711793
0
1.6511363250035406e-05
-0.039533201896752974
-2.0176204026223668e-06
-3.6787643310209042e-08
1
1
1
1
1
-2.5231895578387504e-05
8.6048654987558966e-12
5.8681296357704073e-05
0.0076359342798978441
2.4791254964899158e-08
4.1403764029548536e-07
1
1
1
1
1
9.0501471460774473e-06
-1.3682993634959372e-10
-0.010247247012717803
6.9608457783441934e-05
-2.1002487928637781e-05
7.4894759960842633e-05
1
1
1
1
1
-1.0190092692870543e-07
-2.3009036448045849e-12
0
0.0015775711901767483
0
1.2065766750477764e-07
1
1
1
1
1
0.018946629745646093
0
-6.008999656869254e-06
-0.0025058462221814533
0
0
1
1
1
1
1
-0.0055390776947122199
0
1.0922515379742944e-05
3.4284841410990747e-05
5.3066069277555727e-10
-4.029589083988173e-08
1
1
1
1
1
-9.474564010814919e-06
2.5558848845941341e-11
-1.0821205793258186e-06
-0.018042457557246039
-1.3008609789111356e-08
-9.857649701441633e-05
1
1
1
1
1
-8.7874537098106078e-06
0
-5.848892495376391e-07
0.00037251300499146133
5.0883193753564796e-09
2.3086773089132302e-08
1
1
1
1
1
-5.6900687359305908e-05
0
-1.7918642766512213e-07
-0.00034403364427021128
1.0349120969947904e-07
0
1
1
1
1
1
-5.3672210906518197e-07
0
-0.00030334809714014889
0.00025518048166083853
-1.0787718711162701e-08
0
1
1
1
1
1
-1.2077424749680405e-06
-1.7657837475878379e-11
-9.7497120203984951e-08
-1.8939873590342016e-05
-1.6015609984154781e-07
-5.5545933544919507e-09
1
1
1
1
1
-5.4378806686624943e-05
-3.8228352061140485e-12
-2.1983908088784902e-06
0.00010647375009690205
-6.1467276533364629e-08
-1.9384050422193832e-07
1
1
1
1
1
0.0060480230058092971
0
-7.9243627227716353e-05
0
-8.6171421315934696e-09
-2.148688580795248e-09
1
1
1
1
1
0.0087507113613167695
0
-3.273961569813132e-07
3.5136880362544645e-06
-6.8670762011411617e-09
0
1
1
1
1
1
-5.1589588900718403e-07
-2.0774465576237108e-09
-1.5253191661786537e-06
-0.00019673734162778747
1.8027053413625094e-08
4.9576928098459657e-08
1
1
1
1
1
-1.4627941372939787e-06
-1.6067481116815842e-10
-3.6773108460836014e-06
1.1202499442129115e-06
-5.8855476056122553e-09
0.00021732557028288424
1
1
1
1
1
-5.4032544578490573e-08
-2.2762029881991383e-11
-2.2821698459998125e-05
0.0094174317785364406
0
-9.1674009911642407e-07
1
1
1
1
1
-9.5147165976485007e-08
-1.5719060708516486e-11
0.0038235008769443956
-8.0135258995377449e-05
1.6641372528479138e-06
5.197945287359247e-08
1
1
1
1
1
-1.4178996822220089e-05
0
0.00021998779270928056
-4.2866027632613644e-06
0
4.5884987970415553e-07
1
1
1
1
1
1.031818155563843
-2.544260813456142e-06
-0.0028557086022855567
-0.18651079174119492
-0.040591124832564426
-0.015464601029021632
1
1
1
1
1
1.1799644988152964
0
-0.023807770256421123
-4.118608365465805e-06
-0.0085929922489686502
-1.1165932503498963e-05
1
1
1
1
1
0.9136065677206292
5.4807681181931437e-07
0.011010196631638833
-0.065039845955835396
2.0652626980489426e-05
0.013984815045901473
1
1
1
1
1
0.85638843629888606
-5.959912158812827e-06
-1.3060452258143094e-05
0.028676394896102537
-0.027276794075194528
0.00055515718241582758
1
1
1
1
1
0.80724532305055519
2.5688131993695041e-08
0
0.071309412657303492
-0.010578678563977394
0.00028658411020655606
1
1
1
1
1
0.46087063105882092
3.2041396668255175e-05
-0.11426686966186494
-0.084325268237803772
-0.023573908039436514
-0.0080433267037789326
1
1
1
1
1
1.0132665405263943
-0.00053768314755431854
0.10093067465794245
0.55990543177356555
-0.0011417164950208783
-0.015581132239477817
1
1
1
1
1
1.2844752538717965
5.0726785745859167e-05
-3.6542669873223477e-05
0.13488313730769008
-0.0010388584252075802
-0.00044749702506982885
1
1
1
1
1
0.72930417903634648
2.4949808609415113e-06
0.014359687635788836
0.015034794765531698
0.00024452161109418679
0.017387851812969018
1
1
1
1
1
0.38493812527522431
-3.8270821135448296e-07
0.41185006753085279
-0.04903738467471036
0.04309473507574213
-0.078019843350380688
1
1
1
1
1
1.4177347095778547
-5.2606587135326966e-08
-0.01546075391116432
-0.065536072861555439
-0.0014875682625001079
0.025498795481989689
1
1
1
1
1
1.2533665925439557
-0.00022655584840496786
-0.67275041237244848
-0.49038830062060879
-0.010827629650061708
-0.019030172316643151
1
1
1
1
1
1.6094545967231382
5.5282167537798108e-08
0.00093203836407111554
0.39983822809291331
0.11279408823847357
0.0049550962407438467
1
1
1
1
1
0.53204639586078573
8.9977953121858278e-08
0.27824201212031296
-0.084214153048142573
-0.051457601434154308
-1.9096276711117359e-06
1
1
1
1
1
1.1608993064426651
-7.0578283318726811e-05
-0.067786530148372506
-0.20546203141131938
-0.0016630552734550491
-0.00063390586463582792
1
1
1
1
1
0.74994175116692374
5.2341200535011341e-07
-0.034441355191935384
-0.11877351372628404
0.0002649923589855471
-0.010025196832484937
1
1
1
1
1
0.96821191079104429
4.1243496219650754e-06
0.00016880187824429079
-0.060464205427349427
0.00020971245775284943
1.3360176170941556e-05
1
1
1
1
1
0.87705539932063892
0
0.089156201612643676
0.096346023010688953
4.2842518652163915e-06
-1.8858605318986844e-05
1
1
1
1
1
1.1797452310631409
0
0.013283485029180078
0
8.6680606409250993e-06
0.030508621622810934
1
1
1
1
1
0.93421664790491898
-1.167567530681211e-06
2.5463207988019646e-05
0.27242147054806293
-0.00046180160528768647
-0.0001010351830743756
1
1
1
1
1
1.1065735067335849
0
0.0011357889009414718
-0.08932992381001921
-0.0055446283531020244
0.0034187261885574639
1
1
1
1
1
0.48266994556888221
0
0.00017086740106673907
0.026590384895832531
-0.00058994737337609193
-0.00017521380509564349
1
1
1
1
1
1.1977591926710158
4.9225572546362967e-07
0.070461844119063796
0.28285108871059217
2.6554425235239302e-07
-0.053173907683059858
1
1
1
1
1
1.0650206739535948
-5.6952545142192251e-05
0.014523249161920455
0.0034648978011611532
-1.734404639002982e-06
0.0080922202347934995
1
1
1
1
1
0.86822500851310591
-1.265492598729847e-07
0.025335272992558684
0.01213513251764918
0.0025069227963431364
-0.007378946537129844
1
1
1
1
1
1.0779150336881191
6.1347748919264706e-07
0.16629264586181547
-1.119891140408918e-06
4.5075715583147341e-05
0.0001767777391345087
1
1
1
1
1
0.94085756515491026
-2.4747072788458893e-07
-0.045161489125274137
-0.17098584667283909
0.063227662926800737
1.6127163798203052e-05
1
1
1
1
1
1.1202505132359286
0
-0.00061601922802762736
-0.36990569356835329
-0.016505605985048341
0.056454143694683608
1
1
1
1
1
0.93504637731408469
-4.0285403840146449e-08
-0.097651225657078511
-0.0010837163870236273
-1.1358455334414306e-05
0.0023680428859871971
1
1
1
1
1
0.57491516255859776
8.0995998377929728e-07
9.0739783761932897e-06
-0.0033249274714203026
3.997281271120001e-06
0.00011069418808028638
1
1
1
1
1
0.73047753377656177
1.0716334697497427e-06
-0.072735538992295359
-0.14863098825204085
8.4064109714791628e-05
0.0040661775050502575
1
1
1
1
1
0.59865104298068572
2.7624445936492379e-06
0.056130993307038003
0.16345595926358253
-0.0017988174466556279
-2.0953566676607246e-07
1
1
1
1
1
0.49297946639146395
1.2412174279721777e-06
0.0010029580709240405
0.16122572685106415
0.022429094254627892
0.0027094807632369535
1
1
1
1
1
0.38869044798072439
-8.23179437809629e-09
-0.0082278786099651557
0.087308012860628226
-5.5608252089134771e-05
-0.0059893327116214579
1
1
1
1
1
0.010282525397699466
-1.7016367726845357e-05
-0.054095791832620622
-0.15548991897162659
0
1.3971679866310942e-06
1
1
1
1
1
0.026718090173492241
-3.0738359916457582e-05
0.06241174343895297
0.00093140559248406361
-1.2442725238112629e-05
-3.1946673417390233e-05
1
1
1
1
1
0.36761043420822753
-7.3350950942265388e-08
-0.079470450527795541
-0.00032453851401380833
0
0
1
1
1
1
1
0.019925130960270657
-8.0363943847828259e-07
1.1796993826318089e-06
-6.991179512487698e-05
-1.0685256100791746e-05
0
1
1
1
1
1
-0.58074813563065109
4.5496604845501194e-08
-0.00064017923167479442
0.00042581700689682973
-7.4542467009325504e-06
5.1695747684182958e-05
1
1
1
1
1
-0.19508665971251707
-8.6665872160399253e-09
-0.0001039863184330103
-2.2604631120892193e-05
6.4113632713620206e-06
4.4011465399979027e-06
1
1
1
1
1
-0.030105308794065814
-8.7807964391532314e-07
-0.00028367532172429965
-0.33809164268275554
0.033466219312895729
8.5953709205448197e-07
1
1
1
1
1
0.73206363907083816
2.0173324271579475e-07
-0.016462089142285623
0.25684176873029341
1.755161371905864e-07
0.0001138547752594728
1
1
1
1
1
0.18571505669199967
-2.1740082878656301e-08
-0.030156536663225288
-0.16468810868347614
-1.8643238021334861e-05
5.2085491127429667e-07
1
1
1
1
1
0.20594409514866893
3.2992848530045396e-06
0.22074522714675515
0.39536973737713899
5.5838886969977774e-06
0.0035415150064919531
1
1
1
1
1
-0.011411428936605388
7.7050478865270072e-05
-0.28678358698358236
-0.11771756253607898
8.8312485943665841e-06
-3.3552922396236915e-08
1
1
1
1
1
-0.0001497630991431965
1.0336016809948632e-06
0.058385520097659405
0.13816166517959702
-8.7972056318564942e-05
-0.0072055743710219148
1
1
1
1
1
-0.0029579390482734227
0.0001248813599166052
-0.011400245025080379
-0.11523979318347977
-2.7759223945255511e-05
-1.0868219201214324e-05
1
1
1
1
1
0.16106364085482042
-2.8495052898700202e-06
0.36166757444349046
0.19698453898088225
-6.0416279617681344e-06
-9.6855545374642941e-05
1
1
1
1
1
0.0011810074560500265
0
0.0086933977678198982
0.0050764935977022215
0.009867477958722207
-8.0917800741875262e-08
1
1
1
1
1
0.12979582249329233
2.9132476582448924e-08
-0.022238817690238784
-0.013452985032114293
0.0020882714272967584
-9.5311054973722388e-07
1
1
1
1
1
-0.32441655168865069
-1.1776194006814346e-07
-0.14214762256299973
0.011481156528499932
0.022361768886855444
-9.7052432931867869e-07
1
1
1
1
1
-0.086087315140732729
-6.4924802963074253e-06
0.0016257595272243231
0.00085059373971204701
-0.017089888382305241
-1.2361071583042644e-06
1
1
1
1
1
-0.02129673761019554
0
-1.1251055554538388e-05
-0.317843149948912
3.2947919659982203e-05
0.0014971441117603724
1
1
1
1
1
-0.094561941851101478
0
-0.018786870834214639
-0.11626110840190523
4.2738195560392188e-08
-4.1733479861625123e-06
1
1
1
1
1
0.0087223259274896523
-7.8467239588957629e-08
-0.085446034692522682
-0.0037721564852947666
0.027688848577261702
-1.3906191637448356e-05
1
1
1
1
1
-0.08378416149587388
-1.3942526685220201e-08
-0.00059329189317787717
0.087990563029963553
-1.5769539463002262e-05
0.00024778580522128867
1
1
1
1
1
-0.0068601359917189204
-2.2855108767964592e-08
0.044385108447445844
-0.0062642225169760339
-0.0038281060469639518
3.4260034285032825e-06
1
1
1
1
1
1.7685453073725928e-08
4.7268519134546336e-11
-0.010200705231287016
-0.020570609971862306
1.3425114203689046e-05
-1.9675369602149638e-08
1
1
1
1
1
0.0017142746383809664
0
-0.019436506637598751
-0.0039651115551188757
7.6792690053650776e-06
-5.6148322202001645e-06
1
1
1
1
1
3.0128200751631688e-10
0
-5.653193775100771e-05
-3.3507657754935905e-06
-4.4621183356533462e-07
5.8809267724369643e-05
1
1
1
1
1
3.5261420678402357e-05
0
-0.0085938838970567727
-0.066678579143431685
-0.00037535124665591163
-8.1924242192273913e-07
1
1
1
1
1
-7.8834873998671475e-05
1.7512048218353213e-07
-0.0017308631878131481
0.00072236306155776123
-3.679764457880864e-07
-5.4791498376874848e-05
1
1
1
1
1
-0.0001152625754144761
3.9260238968100976e-10
-0.00095536792690669153
0.00242102684400933
2.4208239802491137e-07
-9.7366947708605907e-08
1
1
1
1
1
-2.5012896288203504e-05
6.7136883604532735e-08
-0.0047712228556544426
-1.2146177081876037e-06
-2.2090652750280409e-07
-7.2215532474079747e-08
1
1
1
1
1
-6.1031289392965536e-05
1.9945241634874833e-10
-0.00077424154146990358
0.0058192572006179263
2.4477951587112275e-08
6.4377821584807241e-07
1
1
1
1
1
1.0169638360255265e-05
-3.3711509382272676e-10
-0.0021493408512651365
-7.5997089540934967e-06
0
-1.8057188054151684e-06
1
1
1
1
1
1.1418792812044662e-07
-6.5753433534159021e-10
-0.005932402181916303
-2.2427204560570411e-05
3.9551972400321689e-09
3.0781090117438035e-07
1
1
1
1
1
-1.6854846637421507e-08
0
3.2576098527549985e-07
2.9297532953135072e-07
-8.9336365848927956e-07
0.00029550205904151821
1
1
1
1
1
-3.844539913851266e-08
0
-2.024697921106633e-05
-0.0030432036158301312
-0.00059828635682542843
-1.085658129475732e-09
1
1
1
1
1
3.609211552607709e-06
2.4311673809360531e-10
0.00016016007421250369
0.00017543079646918487
1.343567626148433e-08
-6.4793475476219438e-07
1
1
1
1
1
9.2832528968484606e-07
1.8590777593840945e-09
-0.00069505840774381942
-1.9199891941988438e-05
1.6249406120003054e-06
3.2259510993731754e-07
1
1
1
1
1
4.9359032894307662e-06
-4.8583580731402607e-13
0
3.9091837513924344e-06
0
-1.4562514932080943e-07
1
1
1
1
1
1.7074583972942344e-09
0
-8.8172846558266002e-06
0.0013663582399649416
0
0
1
1
1
1
1
1.0991996845121757e-08
0
-8.2105951495424745e-06
-6.5100719578332659e-07
1.7958092778488315e-05
-2.6075305941992611e-08
1
1
1
1
1
-6.8956003765027676e-06
1.0627682587229503e-09
-1.9987635009507229e-06
6.2449553665174686e-05
7.5416523999468168e-06
-9.63767874825424e-07
1
1
1
1
1
4.0370910837682759e-07
6.0126991797083061e-10
-6.7338178744946484e-09
0.00088952666213343323
1.246889789002687e-05
-6.6251674454901518e-08
1
1
1
1
1
3.4430502697872549e-08
0
7.6611084780203699e-09
-9.6663143307383165e-05
-5.8949579051513707e-07
0
1
1
1
1
1
2.6317315356352096e-08
1.9446357360807923e-09
0.00067564912593741204
-4.4975531227322862e-06
-3.90229486950812e-08
0
1
1
1
1
1
1.6327231031748689e-05
7.2897409412480714e-09
1.3978301342327395e-06
-1.0452802386497058e-05
4.8971135393166326e-08
-6.7576572303304019e-09
1
1
1
1
1
5.2339920539329044e-06
1.2827738293592788e-12
1.598574691161246e-09
-2.7471932859680245e-05
4.5057127468059839e-07
2.3615514737919321e-07
1
1
1
1
1
-4.4107797000195015e-08
0
-2.0881672670019809e-06
0
2.4088685027413211e-10
-5.503101408971682e-10
1
1
1
1
1
2.2727125485160141e-11
0
5.8572454245856649e-06
2.1151523982907412e-07
3.2140861199125998e-09
0
1
1
1
1
1
4.4006962382343624e-09
-9.1965871097759996e-09
-4.9840447453734645e-06
-4.8851091482565511e-05
-1.0622799174402249e-07
-2.902149416680519e-08
1
1
1
1
1
1.4965434959395802e-07
-3.3777041457362282e-09
-5.0572440466614171e-06
-2.5764287187496146e-06
-1.981722581033727e-08
-5.6599760892187247e-05
1
1
1
1
1
6.5758160576828453e-14
-2.2779933033529635e-11
-1.5841453256410462e-05
-0.00090737177124687661
-2.3654420747666943e-08
-9.7604591129813058e-08
1
1
1
1
1
9.376029441260893e-11
2.1282230408544632e-11
-2.1573954594326137e-05
2.4058464047910492e-06
-1.3436724128952266e-09
1.1841141116115118e-07
1
1
1
1
1
-2.9036245988962736e-06
0
0.00010155183517250857
-7.5375641161472782e-06
-1.3439052091198826e-07
-0.00043549342431711911
1
1
1
1
1
-2.9360387599014823e-07
-0.00037044277083685085
-0.37267880137970577
0.00096473353129908476
0.021329512678283834
0.0055749728981740673
1
1
1
1
1
0.00025042934571868961
3.2960863330730388e-06
0.06130546058228447
0.092219496865568337
0.010782408961560698
-2.29839747300593e-06
1
1
1
1
1
-3.1907712126492407e-07
-9.7447603306529236e-05
0.16809840377245919
2.4323376198271927e-05
-0.0018087312144590432
-0.02835739718434949
1
1
1
1
1
-0.00012647468941019664
0.017263578344897626
3.2478941210876561e-05
3.6323282059978805e-05
-0.077786850767248145
0.0075515738904791902
1
1
1
1
1
-1.1473822913065968e-07
-5.9598557207993776e-05
-2.3092247950494343e-05
-0.06148960051147194
-0.0001371451655747843
0.027877490956611604
1
1
1
1
1
-4.4728210640576425e-08
-0.00013314811371731899
-0.0061395525432845297
0.034244315490955204
-0.018061251490279605
-0.076641616846900476
1
1
1
1
1
1.3062053529482544e-10
0.00064825090417615046
-0.024932695747781695
-0.012275420903637507
0.0062891246226810154
0.097753047408836266
1
1
1
1
1
7.8736721998403907e-06
0.00019126449638525955
0.012896567456308735
0.015000380365958266
0.0010734100578561189
-0.19098588861700003
1
1
1
1
1
-0.01011174476400062
0.0035505493765923524
-0.009265152196131346
-0.037512203917424554
-0.046060022686576961
0.0011276253065252003
1
1
1
1
1
-0.00012363273891993418
-4.2949617916854372e-06
-0.011987491134236297
-0.0039176585766846723
-0.010373056574303379
-2.8846216250973462e-05
1
1
1
1
1
0.0011070021801275092
2.8466317678383546e-05
0.037723497142238188
-0.013948022098292243
0.0077718050399619978
0.0021745501908506885
1
1
1
1
1
-0.0021728601552923033
0.00042441274120060435
-0.055883177579688414
-5.0314426558645878e-07
-0.0099886868839756462
-0.002013092955842346
1
1
1
1
1
0.011290078512346308
0.0027412504993612639
-6.4721752373538151e-05
0.002234707820144597
0.0013412348656929157
-0.00021446109726897276
1
1
1
1
1
-0.077909100648802534
-5.8644009354590883e-06
-0.0039373342686229908
-0.20540871769901997
-0.0055169618545876245
0.0095109750491377352
1
1
1
1
1
2.1668138838041791e-07
0.0010251399546508063
0.075170741857974607
0.13868064790611309
0.0050179242146908293
-0.00042346021997638787
1
1
1
1
1
-0.35944154304225612
3.4357481195378592e-07
-0.0016702424612455285
0.0093117613384771543
-0.12741878452103905
-0.0010200989103742932
1
1
1
1
1
-0.0038714403969593507
-0.0049100860884618413
-0.00065828730009471169
0.043369019810839418
-0.0037724425430917213
-0.00029674734407868458
1
1
1
1
1
0.00047344764701530228
9.1093708033547621e-05
0.0004177041892325074
0.075485759303987682
0.16945452677658276
0.046079088371731448
1
1
1
1
1
0.0041192656723003642
0.00046570414757050556
0.017650007489367674
0
6.0313984967105297e-05
0.0097068794226429049
1
1
1
1
1
-0.0002915313155139214
0.00066177281324780919
2.9062331921470226e-05
0.027670626301526179
1.6116452659206013e-05
-0.00031118454487876542
1
1
1
1
1
4.526041448542797e-07
0
0.0046812248102488735
-0.0065427572562694542
-0.0024704022909653165
-0.0013942330652543043
1
1
1
1
1
-0.008140951068641376
0
2.9879603512724102e-05
0.00035217625872709676
-0.00051302507533163022
0.01301966389009101
1
1
1
1
1
-7.9581999925348667e-05
-0.019185460091151241
0.081335101205902413
2.9731805863310809e-06
0.14550385591873402
-0.1579304924188541
1
1
1
1
1
7.4393112081208246e-10
0.00016327300406212398
0.022946885236947184
0.0077902801830977159
0.0064801819378574529
0.00022992090105330084
1
1
1
1
1
-0.029262365155742261
-4.2466748409570745e-07
0.017876582389462201
0.002606720447544464
-0.0059297295640538226
-0.0026201520196883644
1
1
1
1
1
-5.1800876055948496e-06
-0.00013292332489175612
-0.057004520683193484
1.4750167503432361e-07
-4.4746425869969397e-05
-0.23515451035985099
1
1
1
1
1
-0.12061922268039969
-0.00073309405283845659
-0.0092192445359033127
0.036185765441262972
-0.037510336083950602
-0.0037418839197528335
1
1
1
1
1
-0.00088184792912724904
-0.00019376272324338821
-0.00059532059262729954
-0.026364096458558941
-0.0093101472192246414
0.065187823538567308
1
1
1
1
1
1.0801156048129219e-07
0.0003673711774999683
0.012611816555140069
0.00071173591819393821
0.011028400792016203
-0.11784490052687642
1
1
1
1
1
3.8992513788097216e-10
0.011440682979221061
3.029494058109281e-06
-0.0039839299998095639
1.0108299491110827e-06
-1.5366651965489919e-06
1
1
1
1
1
-0.002260302936817647
1.1618749031220027e-05
-0.011480201748060522
-0.069882802804574123
2.1292727019318095e-05
-0.0015203416479859407
1
1
1
1
1
0.0029287877440526753
5.0221046764801937e-05
0.0070719901813739933
3.122812003277283e-06
0.00045716079933126841
0.29832926736877069
1
1
1
1
1
-4.3381878993755902e-06
0.0036274359579969487
0.00017216737593284766
0.0009831961461006602
-0.044769598091139423
-0.0030037070434899612
1
1
1
1
1
1.3164155558674333e-07
1.1801162102926182e-06
-0.0027064466218255289
3.291892954871621e-05
-0.054955151326403134
-0.0018991071081678685
1
1
1
1
1
0.0040819034664297382
7.9947513280710292e-05
0.043261676844310933
0.0080338474807110285
1.9169964227454875e-05
0.00093999708136948497
1
1
1
1
1
-6.9137918896333182e-05
0.00055155423267469169
0.13528849373020366
0.13821478369802853
0.0034860945877559892
-0.064070702720304823
1
1
1
1
1
7.4862037561008559e-05
2.5796214071925065e-08
0.039869574235640005
1.9316052670180706e-05
-0.0020204878444622927
-0.013349565776927277
1
1
1
1
1
-0.00017717123716304151
-0.0042528775965977586
-0.089828512647140452
-0.0032831061049258974
-0.00028011685764877363
8.6142719498136285e-05
1
1
1
1
1
7.5087263639511206e-11
-1.1313900127729912e-08
-0.064309391121233309
0.00076066779059396077
2.3140858826255218e-06
-8.3362220587705971e-05
1
1
1
1
1
-7.6019113727559994e-05
-0.00010372159544088389
0.0010545963678014162
0.00034592605613736844
4.9336514952705687e-09
0.0016840764276195926
1
1
1
1
1
0.019724945611511596
0.00094782035881285837
0.00075113964512761849
0.069190574230201682
0.097679748342922409
0.00056788342121531657
1
1
1
1
1
-0.00060889260273827746
0.016338760270520686
-0.054593971652727571
-0.025874861797337782
-0.001295648771939545
-0.00063842611697404773
1
1
1
1
1
0.013040814741605672
7.6366361472839481e-06
0.061676383497537866
0
-0.0016722507837736251
-2.2758122108684361e-06
1
1
1
1
1
-1.3432031468876365e-05
8.1038927837270074e-05
-0.002310928379562315
-0.022921489853286785
-0.0056885746148750685
-0.010866249340882773
1
1
1
1
1
1.2252057449477995e-08
-6.7825784062537116e-08
0.0059289780879383299
-0.0084979838226975548
-3.3663449485652128e-05
-1.185550563910716e-08
1
1
1
1
1
1.7837590190903418e-05
-0.00061041397557430024
0.0012814388195377365
-0.03989725600183934
0.086588734213564111
0.010428685456395866
1
1
1
1
1
-0.00010502149604273064
-0.00012771479812328395
-0.020733473359664377
0.0010838422370753446
-0.28903183028029455
0.010770897179220701
1
1
1
1
1
-0.00041344352818204844
0.0040420422792677739
0.10955893269069626
0.038242381212605966
-0.13305131871751769
-0.0031760896700269332
1
1
1
1
1
3.192027133253756e-05
1.9786133514376038e-05
0.097196566432465034
-0.0012984798869686213
0.00034801294637188562
0.00054078007955783507
1
1
1
1
1
0.054514956597783271
-2.664905583978907e-05
-0.00050895232456489158
-0.00074872323993181321
-0.0042077119640356155
-0.019703603834795927
1
1
1
1
1
-0.010896518147390063
-7.1765935898676467e-07
-0.071468414940750874
-2.2599681530039477e-05
0.0011182331961751507
-0.0002033105476229303
1
1
1
1
1
0.0023497668137456443
-0.0063096695037138549
0.0068162886397589656
0.010779308119698749
0.007653670115752585
0.0008166134511136048
1
1
1
1
1
-0.037144836342101188
6.0102848072526178e-06
-0.00029606479578664401
0.00077418746564197405
-7.6238385809344701e-05
-0.0091502431352288912
1
1
1
1
1
0.0012152771134395998
0
-0.00012830678417821939
0.00029251464368017027
2.4801650904482043e-06
0.013037051603492115
1
1
1
1
1
-0.0016165880774952526
-9.1671073901937874e-06
-0.031098508768949495
-0.00092652533836118725
-0.010872900141421886
-0.086854946289297671
1
1
1
1
1
-0.031536264039704158
6.1749387243846633e-06
0.0017297073250091956
-0.0038449107073053918
0.044358765369480697
0.0051177409834489316
1
1
1
1
1
0.0002783757762234259
-0.0024614803331719387
-0.014860614826245445
0.0070513807886557331
6.9525118336990254e-05
-0.080045770370652802
1
1
1
1
1
5.7229064886380433e-09
5.6804103032633468e-11
-0.0030737196728238903
-0.013073331290382574
6.9261089783202509e-08
-2.75415411722507e-08
1
1
1
1
1
0.00015093043270953614
0
0.00021626356083953054
-0.00087677805512820456
1.3889147721232149e-07
1.475213787760941e-06
1
1
1
1
1
-1.8001385473960162e-10
0
0
-8.8978703148241185e-05
2.1864678806460748e-07
-2.2932776815779237e-08
1
1
1
1
1
2.2879022006673928e-05
0
2.5743648387425946e-06
-2.1715572256752741e-07
0.00023760891890031602
1.6084885419575242e-07
1
1
1
1
1
-1.6127086561994785e-09
-7.8503185510565714e-11
0.0042981301596026573
0.00015283933076504371
0
9.3508224372682194e-07
1
1
1
1
1
-6.9593665762686802e-06
0
-1.2566264468966464e-05
-0.0025813055493222204
7.9758589201163692e-08
-2.7499618824704449e-08
1
1
1
1
1
-4.7229670430743614e-05
0
8.4708522805975049e-06
-2.2807625111774477e-07
0
5.5087848482273761e-08
1
1
1
1
1
-2.5051613519930334e-08
5.3784971641230202e-12
1.1465941730448788e-07
-7.0283422213692141e-07
-5.352607757497564e-08
0
1
1
1
1
1
1.3448247191945275e-06
3.0714752428529166e-13
0.00059412735436816791
0.00053593828823172778
0
1.0698652838953112e-10
1
1
1
1
1
3.0594519527601781e-08
1.9309961223150381e-10
0.00025254477786711902
-4.5322227679032546e-05
1.5393002724055771e-09
0
1
1
1
1
1
-3.6705654241041794e-08
0
-1.4212385410249193e-06
7.9600344817338474e-06
6.7705615821878548e-08
0
1
1
1
1
1
4.7002043870303904e-08
0
9.4039925478551181e-06
-0.0027093798257628787
1.6450231561310333e-06
-1.085658129475732e-09
1
1
1
1
1
2.2129592101333974e-05
-1.1250058658095612e-12
-0.00018744371064819337
0.00023787500361391678
5.6438268902289259e-08
3.3317725595399009e-07
1
1
1
1
1
-8.6174970386767411e-07
-2.0621190900270267e-12
0.00043410594725038442
-5.5797338342808751e-06
-3.0951625056329016e-06
-1.5247601956013035e-06
1
1
1
1
1
-9.9422808641007888e-13
-6.2274572793248755e-13
0
2.9455834563969925e-05
0
-4.8187323745766145e-09
1
1
1
1
1
-5.5167437939981902e-09
0
-4.2348965498368956e-06
-6.2356656921941187e-06
0
0
1
1
1
1
1
-6.729679775343606e-08
0
-1.4373698139162729e-08
-4.615669920886075e-07
-4.8879965065987641e-10
-5.7397495417785882e-08
1
1
1
1
1
-8.1024789127166005e-06
-5.0057965276889064e-12
-1.2155437316987835e-09
-1.9669084352486189e-05
-2.7479867779843485e-13
-3.1548048312647585e-06
1
1
1
1
1
-1.165013498076172e-07
0
8.3697441719458678e-09
0.0013738925541272485
-3.680403505329134e-09
-6.2572930242706341e-09
1
1
1
1
1
-3.7652049188171371e-08
0
7.6615691729794614e-09
7.8927750166181288e-05
-3.0421619318645953e-08
0
1
1
1
1
1
-1.2588492392463612e-07
0
-0.00049443806485971161
4.6045124592261122e-06
-1.5898026533587008e-08
0
1
1
1
1
1
-1.0489742041893244e-16
-1.4731780758092352e-12
2.6584330332828998e-08
-1.2565095415883149e-05
1.6561600617418331e-07
-5.4728268476782155e-09
1
1
1
1
1
-3.4502841350454916e-06
3.8837226331639186e-13
-2.7485369769780447e-06
-2.8125619873326032e-05
-5.5068638714646188e-07
1.0258982651277774e-07
1
1
1
1
1
-9.5845646344936165e-08
0
2.0734378700289113e-10
0
2.435535405493414e-10
-4.5908685490664989e-10
1
1
1
1
1
2.3419366422510874e-06
0
-3.4699139064079887e-07
5.6915660128056357e-07
4.1600834322512417e-09
0
1
1
1
1
1
-2.567137896729853e-08
5.9000398977710597e-10
-8.4914900502554975e-09
-0.00011609455973913165
1.2175122018355714e-10
-2.5520214031921782e-08
1
1
1
1
1
-7.0185211000441752e-07
-1.1398851836955257e-11
1.0542394629896943e-07
5.5161478142978901e-06
-3.7616884455061759e-09
2.8678599017171841e-07
1
1
1
1
1
-1.3862508205241815e-13
-4.4723648631337467e-11
1.793079954620771e-05
0.00018214453199032044
0
-1.1825504642820793e-07
1
1
1
1
1
-2.3137416691745604e-10
0
-1.1193728174178803e-05
6.4452630464807563e-06
-3.3321767672098671e-09
-8.2684369466973055e-09
1
1
1
1
1
-1.9073324904895887e-06
0
3.7695476214299183e-06
0
0
1.6023206226436453e-05
1
1
1
1
1
8.1936482989708819e-07
-2.533546164722856e-07
0.00099339445545064561
-0.0041103855582800778
0.016594861826060202
0.0015382654915756251
1
1
1
1
1
-0.00022299194308475492
0
0.024054759323896901
2.8661965203630882e-07
-0.003177568340058575
-2.8214393527349788e-06
1
1
1
1
1
-2.4553411251274614e-07
6.82765554321701e-09
0.031187387579839659
0.00011595326337923694
2.2693112474652368e-05
-0.012845104147338979
1
1
1
1
1
-0.029781486824784095
-6.5045848763584602e-06
1.5599672977308958e-05
5.2468252694511332e-05
0.00022998907878363903
-0.0005187257382648962
1
1
1
1
1
8.0710842505738501e-08
2.2097302387691613e-05
-1.6261928917610247e-05
-0.000502687527323469
3.2439832440837737e-06
0.032507255157885433
1
1
1
1
1
-2.7753039670936852e-08
6.8165454552131919e-05
-0.0091398311143468577
0.083449055939590178
-0.00077203759876832609
-0.018075514387349386
1
1
1
1
1
7.547271266926227e-11
0.0011145263929743152
-0.015940643288942381
-0.0089642756883375248
0.0026588805253790577
0.039876664884997796
1
1
1
1
1
-1.2819534113551068e-05
-8.7155582812645111e-05
0.0012126508016114684
-0.0081578439577910649
-0.0018427417599723788
-0.00011931202508449516
1
1
1
1
1
-0.0090357348913291426
1.0125423576824678e-05
0.029454647906751872
0.01204257824792686
-3.5214337204790077e-05
-0.00017922096124853618
1
1
1
1
1
-0.00020055066583988791
-3.5324439021154638e-06
-0.0041463480521271943
0.0033998967943667416
-0.016724761225508977
-0.00073852264900585896
1
1
1
1
1
0.00012758635401205362
-1.1201912178020249e-07
-0.012733275236473714
-0.002569833830059503
-0.018230895078836868
7.9722914410467542e-06
1
1
1
1
1
-0.0053402728685977389
-0.00033999908066575745
-0.1018165871596462
3.7006458778103493e-07
-0.0047887767228080233
-0.0025913913390449724
1
1
1
1
1
-0.0076313332739057511
-9.7490248525564949e-09
-0.00055942359946696465
-0.0017228079010232465
0.00275825953938503
0.0015407314014099411
1
1
1
1
1
4.5652555919515401e-05
9.1192955865288754e-08
0.0036475236737175017
0.00025269794280415611
0.0042528095549346492
-3.7850702744953312e-07
1
1
1
1
1
3.6300443671557476e-07
-0.00012708790788945389
-0.026095873076372893
-0.033451536551570973
0.00026599839831244274
0.00029668477434148462
1
1
1
1
1
0.00016319903876290602
-4.0687286686039061e-07
-0.00082917723273390307
0.00034162933437211699
-0.0099421696429345761
0.0021351596533406487
1
1
1
1
1
-0.0062028973839332695
8.1429378134108333e-09
-1.2248939231041627e-05
0.039591619093812029
-0.00090770118875776876
-4.4060130879058344e-07
1
1
1
1
1
0.00032404967374700689
0
0.00036859414625445801
0.041085305935414186
1.2737195247152124e-07
-0.014076915523637724
1
1
1
1
1
0.0017390050269770784
0
0.10720710549095966
-0.15935308254830299
4.6401685644514226e-05
0.0021228932421809093
1
1
1
1
1
-0.0015347298586744695
-2.3502478724856414e-07
-5.3477689064511325e-05
0.027710442886361469
-1.4392705562792455e-05
0.00011642425158199487
1
1
1
1
1
9.4155940422818637e-07
0
-0.00063213820986435232
0.0072016793722036862
0.025350754976676965
-0.0010309634473099952
1
1
1
1
1
0.0025475542014510126
0
4.9726862399456119e-07
-0.00048002909903621519
0.00066522945158605689
-0.011629460679879777
1
1
1
1
1
-6.4319051942463657e-06
-1.5476524410915079e-05
-0.026039938271519372
-2.4263082522352471e-06
3.6432694091951117e-07
0.00027554782815518842
1
1
1
1
1
3.49270182258563e-10
0.00011723256836559067
0.0062445004218673475
0.00082001649864528437
-1.7608686502030123e-06
0.0044250101901551347
1
1
1
1
1
0.0060159628249345553
-1.8915574741139282e-07
-0.017623354798887932
-0.00064775499990402932
0.0046060653838484351
0.00064698927046251658
1
1
1
1
1
-0.00058172242617521199
-8.9530248859325933e-05
-0.079224551543091548
-1.4750167503432361e-07
1.3920510383955758e-05
-0.0011423540066165402
1
1
1
1
1
-0.0015158592864616999
-2.4360069393877398e-07
-0.0037023347822273903
-0.072585095954381326
0.0064134573216169041
-0.00078024567580016002
1
1
1
1
1
0.00017253717544205943
-0.00018798512287428813
-2.1636538000171073e-05
-0.028141077437994162
-0.0054663340529172832
0.003996477067010183
1
1
1
1
1
-6.0471354754095433e-08
6.7213893726247681e-08
0.10115683110488741
0.00092909091532366499
-0.027666089528847793
0.00036933121014205293
1
1
1
1
1
-8.5876431970858172e-09
-7.5776066286850896e-06
-3.7187395697920571e-06
-0.01247783249567215
-1.949310841405013e-06
-1.5426770888282253e-05
1
1
1
1
1
-0.0021211894488299184
2.828696077732621e-06
0.0054508781118782906
0.060272035119778952
0.00011580312951228425
0.00069057080356077342
1
1
1
1
1
0.0015867604835028673
1.6869564856459953e-06
0.03342270461840522
0.13547032401409104
-0.00042679706825058495
-2.1851260393196632e-06
1
1
1
1
1
-5.2901154102395904e-07
7.7786880232422813e-07
-0.081373618129060604
-0.0020359752691335086
-0.020761305550845401
0.0032398796850844794
1
1
1
1
1
-8.1091956699425813e-06
1.4803262280755167e-11
-0.00013728622808676885
5.2499755642537759e-05
4.5653250178689835e-06
-0.00043105486927910562
1
1
1
1
1
0.002612042090409251
8.0238486412175335e-05
0.058779979435226691
-0.001226862212279374
6.2645437095988379e-06
6.0225305958977571e-09
1
1
1
1
1
-3.0864741081862402e-05
2.3793420762098964e-05
0.040717197223482646
0.00078919019771029318
-5.5609710697767451e-05
-0.018314156632212468
1
1
1
1
1
-3.7372705776467557e-05
1.6526498598768072e-08
0.013995750691202923
1.7382523775398396e-05
0
-0.0056946623920817088
1
1
1
1
1
2.6827048413260155e-05
3.6989673990672667e-07
5.7367136152286782e-07
4.6983990952642779e-05
-1.2168387993747703e-05
0
1
1
1
1
1
2.5573464299969024e-11
-6.3231484425263176e-08
-0.00024113682536895138
-0.0016330735775608215
1.7665563614536187e-05
0.00023610320376755571
1
1
1
1
1
-0.00014874830987070432
-9.1628834629754662e-08
-0.14190971879476183
8.3370284459556994e-07
-9.0817120341110051e-09
-0.00028491784415851721
1
1
1
1
1
6.0961436757884085e-05
-0.0001200600727444741
-9.7719998357678863e-06
-0.028107177639030693
8.6726477711039493e-08
6.0933020154650194e-05
1
1
1
1
1
0.00042041264388937996
1.2412863504418049e-05
0.045117860272094724
-0.0013014669874044211
7.722477319745037e-08
-0.007126018376460496
1
1
1
1
1
0.003205737590092907
1.6846162122812984e-07
0.026577647884982895
0
-0.0004607191268556763
2.0233037768367939e-05
1
1
1
1
1
-3.7169691300147839e-05
-3.6425787977363953e-06
-0.14115970489791246
-0.064436157489557361
-0.0022569328556029003
-0.010521413070805691
1
1
1
1
1
-1.8662517021546035e-07
-2.6369275944896803e-05
-0.0059296800565287241
-0.0087337355806312994
3.3833691831252264e-07
-2.4830720924115109e-08
1
1
1
1
1
2.0602220984632693e-05
9.6378289694321649e-08
0.0028003935362084899
0.016520457779070779
-0.00010872099064442091
0.0047492049065751959
1
1
1
1
1
7.6886893891416571e-05
9.9867009950547146e-08
0.024975620706269519
0.005049543442604003
0.00014925630031712654
0.0080366531572024572
1
1
1
1
1
-2.3396854199143767e-06
1.3097472933290615e-05
0.10953540836806373
0.017783734985839367
-4.6837298003857238e-06
-0.00092505340044920343
1
1
1
1
1
0.00010018113320921805
-6.7258842002170591e-08
0.078526732176296937
0.0027198736316268626
0.0043789200754631415
4.8938148507502124e-05
1
1
1
1
1
-1.2225588842730495e-09
-1.6732321081254199e-07
-0.00042385430044451013
-0.00032138898167535356
-0.0012093845002322716
-0.0017578991933370628
1
1
1
1
1
0.00077365793864957405
2.6843548985382452e-08
0.026830532949953936
0.0024485311209789932
0.00063006182232592015
-2.1690372733169663e-07
1
1
1
1
1
0.0016169062879528011
5.7000256894234788e-08
0.0072504999579376854
0.010771489212639915
-0.0036583908187952287
-1.0255164956986649e-08
1
1
1
1
1
-0.0062829223165139321
0
-4.5589373262303045e-07
0.0020664516329725667
2.6460168605799153e-05
0.0031450571347940021
1
1
1
1
1
-0.0012529153005262554
0
-0.00018229457027027577
-0.21367289811633078
-2.6155632160104803e-06
-0.0083123645839171447
1
1
1
1
1
-0.0057565385833998461
5.2027721819435186e-06
-0.087636103079460723
-0.00043354342917298068
0.017627983016274804
5.9222341127851183e-05
1
1
1
1
1
0.036853453723202187
7.835767521734854e-11
-3.9798900250758713e-05
-0.0098535486218200366
2.7143430493533049e-08
0.0065615113106627107
1
1
1
1
1
-0.00015967902285477574
1.460860662616619e-07
0.00017679623314361843
0.012475049120879224
4.7376579841360289e-06
-0.055727447177852843
1
1
1
1
1
5.129699059471435e-09
6.2813683552801857e-11
0.0015720395535771307
-0.020619042315267264
-2.9382192436292051e-05
7.2387829511486008e-08
1
1
1
1
1
0.0008150709278721065
0
0.0015696220204038549
-0.0014933902893564501
5.4976569727808594e-06
1.3215770352968495e-05
1
1
1
1
1
-1.5908218801174169e-11
0
1.6647755712484092e-05
-1.7148315200301977e-07
3.5373687514300868e-07
-0.0006223461553727834
1
1
1
1
1
2.9785534547047567e-05
0
1.2852781558000543e-05
-0.046148847807860202
-0.00024892514479381696
-5.1045347059459013e-08
1
1
1
1
1
-0.00020889442298566851
7.6421528271948546e-08
0.0036794170720921941
-0.00042405514866540183
1.4259292795391616e-07
0.00013422801670765866
1
1
1
1
1
0.00015154659930783639
-5.8027751845416487e-11
0.0016719066577861503
-0.0024363969197111505
1.7668684582070882e-07
1.325065935262168e-07
1
1
1
1
1
5.0066085829133309e-05
1.8881523471415552e-09
-3.4696862060209622e-05
1.0002911857519523e-06
3.041319283057445e-07
-3.9366293410032649e-07
1
1
1
1
1
6.1064006481853571e-05
-1.8686691930552718e-10
0.0015422236016938938
-0.0048680365824927416
-9.439485502134472e-09
1.4624561333608626e-07
1
1
1
1
1
3.252460584791592e-06
1.8142105042458142e-07
0.00056256719358344868
-0.00087357379535153159
-1.1897921385483878e-07
-1.8051905592393527e-06
1
1
1
1
1
1.7045046192697859e-07
1.6670861352898196e-07
-6.1593673663199217e-05
-0.00043365768748865758
-2.4443410508774936e-09
-1.8313094879116435e-07
1
1
1
1
1
1.8174893474916218e-08
0
-1.9265922579603542e-06
-6.5397431574355338e-05
-1.5514823332480837e-06
0.00041229714405119171
1
1
1
1
1
4.8646754675838994e-09
0
8.4494949706931452e-06
-0.004621961814254596
3.0522850143681117e-05
-1.0596381578341793e-09
1
1
1
1
1
2.1118210229066533e-05
-1.2414024815688826e-08
-0.00023879474246087139
-0.00027993527705169152
-0.00052904317797940127
-8.8895981248538831e-07
1
1
1
1
1
2.4152675180918178e-07
-1.9962578515249766e-09
0.00090499878521882677
-5.5797338342808751e-06
-8.6885489097476829e-06
2.0865392041114197e-06
1
1
1
1
1
1.3797804981380817e-06
8.5866829673729715e-12
0
3.5750398885673714e-06
0
-3.1583840561881859e-07
1
1
1
1
1
-3.1137285910070778e-09
0
-8.7669827343700074e-09
-0.0013914054652735318
0
0
1
1
1
1
1
-3.5493097440321819e-08
0
7.2673615088897554e-06
5.3338700336034171e-07
-8.6156955762940394e-08
-2.8364495482273184e-08
1
1
1
1
1
8.5910091186304109e-06
-4.8715300544365642e-10
-8.0571874088824844e-06
-0.00027369579781003637
-0.00065764526196166427
6.1156622312981595e-06
1
1
1
1
1
-3.4426321215934235e-07
-7.4753896848566189e-10
8.108559147327162e-09
-0.00055673646683112254
-8.2574339171277648e-06
-3.1135761729374739e-08
1
1
1
1
1
-2.4189787281186204e-08
0
-4.0837645906086682e-05
6.9533253102205657e-05
1.1386917348655617e-06
0
1
1
1
1
1
-5.2124780042920478e-08
0
-0.00026291763780126145
-0.0001842517294285947
-1.1623070171428487e-08
0
1
1
1
1
1
-9.6258354130145553e-06
-3.076337694291432e-09
5.569010790288169e-08
-1.0031307566409211e-05
-5.7673712428862977e-08
-5.2855652873362889e-09
1
1
1
1
1
4.0389093480670706e-06
-3.8970305790617667e-08
2.7484022201649684e-06
-8.1269074541399661e-05
-0.00060732179601845815
9.1165824822099031e-08
1
1
1
1
1
-1.014961142778985e-07
0
1.9948647462716917e-06
0
-2.4611798501164525e-10
-3.6786356891613143e-10
1
1
1
1
1
8.0119797804041251e-05
0
-3.3480088437834127e-06
3.3514556517709869e-08
9.5218747906385586e-10
0
1
1
1
1
1
-4.1330530923164332e-08
-6.5034722362749689e-09
2.815430567774514e-06
-0.00012180561209297604
1.790539242891257e-08
6.3640480388072259e-09
1
1
1
1
1
-4.2210124397850327e-07
-3.3537071518897118e-09
7.5691985517218692e-06
3.2636717983452576e-06
1.1582557374099825e-07
-2.0137663126633564e-05
1
1
1
1
1
-6.9311120273927163e-14
6.0183565034742208e-11
5.0960891688992595e-05
-0.0017197863195758081
-2.8825721074631708e-07
-1.3605019820108415e-07
1
1
1
1
1
-1.2495438443384136e-10
-8.7447457625056139e-11
8.6759758122669538e-06
5.5355039147792587e-05
-4.2230739282996028e-09
-3.8414295857043993e-07
1
1
1
1
1
7.6833176758792232e-06
0
0.00010083447207953778
0
0
-0.00022485163321340478
1
1
1
1
1
9.6318436843320377e-07
0.00016665748837802122
-0.29402941718808934
0.0067888016979417197
0.021646929591923478
0.017437674856748991
1
1
1
1
1
0.0017467104728047741
5.5590104896938274e-06
0.02364127130291014
0.26989253298550048
0.020814513850875672
3.6099657366587341e-06
1
1
1
1
1
-3.632939062037966e-07
0.039010875833024532
0.18801232743595125
7.4069065485038695e-05
-0.0092010481201941288
-0.050094558409821799
1
1
1
1
1
-0.11288830395204269
0.0069842706329024508
5.6246247127585407e-05
0.34607668728974633
-0.090231550809478728
-0.036553746110887915
1
1
1
1
1
-7.5512383320275143e-08
4.5033347159252407e-06
-5.7328004252584413e-05
0.040556639416967098
-0.00017640033294945976
-0.033280944117648967
1
1
1
1
1
-5.1597323353990642e-08
8.6134149104592075e-05
0.23094461736697824
-0.1073180410719461
-0.0062141714182877058
-0.018325339690094943
1
1
1
1
1
-2.3348506156991823e-11
-0.0024616990868437426
-0.012409820826010748
-0.0094028506532694203
-0.0062275568187467019
-0.12975734867460631
1
1
1
1
1
-1.1762192492620913e-05
-0.00021562680932529871
-0.0067088511225836473
-0.025480206242673473
-7.9884973435437139e-05
-0.053324688873536308
1
1
1
1
1
0.0022369424756215352
-0.0019740835695357378
0.015672178902626809
0.022718545089479993
-0.10145036837137836
-0.0011177866766477341
1
1
1
1
1
-7.362761923782728e-05
-0.0016104055266695887
0.018948135923241235
0.00069517242108143326
-0.028942180690449161
-0.00085176038891950079
1
1
1
1
1
-0.001066348035840917
3.2367379081076341e-05
-0.029128894773553154
-0.0091003649546577154
-0.029110920488031832
-0.016622766846319637
1
1
1
1
1
-0.010930199662766692
-0.00067481689977949393
-0.13216359852499207
-0.49673102196443342
-0.02168837152482361
-0.0010395372221386962
1
1
1
1
1
0.003145702888311543
0.004449024419610907
0.00067556735242652575
0.0012916858660808081
0.0002834477792990845
-0.011240742583245382
1
1
1
1
1
-0.10099467321973735
5.2673435272830199e-05
0.0045070810945090269
-0.13475439044655277
0.0074768438264515933
0.00972335915392771
1
1
1
1
1
-2.6741167096779291e-07
0.00031715787713040275
-0.016297883304352192
-0.063395546405120407
-0.35634735779750271
-0.089972476453765438
1
1
1
1
1
0.16042072960020251
2.5245637324631771e-07
-0.00096006208193136027
-0.087501566227451408
0.1252985998151879
0.0064348762072042242
1
1
1
1
1
-0.007987511969123607
-0.0018473113991581962
-0.00036823563548401812
0.048677385679305435
-0.38032203348160698
-0.00074017639093017608
1
1
1
1
1
-4.0450722744202452e-05
-0.00015957443458042652
3.9658933304530487e-05
0.04088197581701828
0.071272881502265004
-0.014207981205347218
1
1
1
1
1
-0.0058798422742000391
-0.0023668264156379609
0.12596733142630881
0.15935308254830299
4.0284654270644643e-05
-0.0069699111770627556
1
1
1
1
1
-0.00078512598864924853
-0.00033043194448539946
-3.498955379920349e-05
0.032537910430812444
-1.6364717077129196e-05
-0.010606430878560988
1
1
1
1
1
-1.024633552432361e-07
0
0.00062467659554729226
-0.013101769917102279
-0.034992330176495647
0.0099513681809478248
1
1
1
1
1
0.0078466560238848217
0
0.00020989730801852793
0.00047622021885148096
0.08310216345653168
-0.043576975029193298
1
1
1
1
1
-0.00021365833877083734
0.010394738227259254
0.081337613351859253
-0.47004642972219129
-0.14610987332223443
-0.017697102298403919
1
1
1
1
1
-1.629015594119763e-10
-5.7547803354979819e-05
0.0045349259239374799
1.4558242473107221
-0.077521052795798712
-0.012532214621625236
1
1
1
1
1
0.006241998700749366
3.5533642662022586e-07
0.0030448436430364958
6.4359555697533573e-05
-0.0042126958332222436
0.0017881781956415831
1
1
1
1
1
0.0004413388514392778
-0.022277950262712117
0.018717392873757968
-0.54680055769388991
9.4883985474758213e-05
0.039533220197689567
1
1
1
1
1
-0.10762009486121435
-0.083822235040267701
-0.013441131161509265
-0.084654368116598586
0.0050302119062958879
-0.0039041603655303424
1
1
1
1
1
0.00023391351262774885
-0.0025546676059773196
1.9729791518576739e-05
0.083807823851694246
0.0065947033064931906
-0.012724229725959758
1
1
1
1
1
-3.4964021498899071e-09
0.0020324682090195573
0.019392582768989534
0.00019352479695904413
0.054109631784125325
0.21447954600573974
1
1
1
1
1
-6.5866087017065496e-09
0.010523311698834522
8.3646941283702389e-08
-0.011910514331687166
2.5580997206617775e-06
-1.636480343965635e-06
1
1
1
1
1
-0.0022603029374713411
7.7410561226241837e-05
-0.0017122754446255389
0.010519926993671701
-0.0025878567788747099
-0.0027987639222938113
1
1
1
1
1
0.0078496893246187902
0.0066944207797527801
0.045997844197375411
-0.1354650580018063
0.0003336608495250034
-0.03413494304229861
1
1
1
1
1
3.880974037231807e-06
-0.0052430056119058674
-0.087479947552406276
-0.2311739862796027
-0.027344795078430573
0.0047712139507085447
1
1
1
1
1
-4.3344064011775696e-06
-0.00063263163155048913
-0.00015393765747084712
-2.2464741947592911e-06
-0.05500557621457984
-1.4557264798070677e-05
1
1
1
1
1
0.00079498042250871653
0.0001620435461808173
-0.0035754688149667894
0.011031629060034971
-4.2542739779410277e-05
-0.0013361917926434143
1
1
1
1
1
-2.3555659400091019e-06
-0.00043700513415778842
-0.060532029892996955
-0.23002951710637798
-0.011712078987879909
0.030449089712614303
1
1
1
1
1
8.9261326808916068e-05
-0.0011499965025443483
-0.018362543932521333
-1.7541851804782491e-05
-0.0019365684602002434
-0.024796247382811838
1
1
1
1
1
-6.0348713156295559e-05
0.0045903927089175683
0.4100712991288602
0.29219531433226376
-0.00031797130602231524
-2.9896310266802159e-05
1
1
1
1
1
-1.2749434182224636e-10
5.1972097634994338e-05
0.064917296583483372
0.005959326865970116
5.3092102722809184e-06
0.00033201611217188948
1
1
1
1
1
-3.2579414957257087e-05
-0.0067527537832786566
-0.172124860184554
-1.3747198058447427e-06
-4.2947968921890252e-05
0.00068857436193918117
1
1
1
1
1
0.032860638923889178
-6.6237782016002758e-05
-8.205456885471836e-05
-0.010933989419113345
0.10058272102337654
-0.00072801130892595294
1
1
1
1
1
-0.00039429843770833964
0.0077085246385812951
0.067020688484042856
0.043479977135281747
0.0012955514500844559
0.0060733518679621295
1
1
1
1
1
0.0044240907178897237
-0.051240438069943377
-0.079072606051011976
0.00012728452024052622
-0.0034037810738405359
-5.4796885511760274e-05
1
1
1
1
1
-1.0316495971052456e-06
0.033112200498359584
-0.13766397102230729
-0.035888377801227542
-0.0051498107603690293
0.0034365345978507075
1
1
1
1
1
-5.1249792353208304e-08
0.00014288384579002456
-0.063466679879856616
-0.0360186906250431
0.00041390043089184909
2.3337944596790656e-09
1
1
1
1
1
1.4810641561089182e-05
0.0020904591869962993
-0.061269503538060884
0.0055095323151863728
0.001016140096293895
-0.0039568624857279459
1
1
1
1
1
-0.00012472205044689079
-0.00072868479948165964
-0.0073819729426058602
-0.1505865219334675
-0.00040885114399434705
-0.010277030503486497
1
1
1
1
1
0.065921385933148752
0.0046961004819699717
0.10958261113473182
0.047726261473840584
-0.13301064181082398
0.0015325571148410942
1
1
1
1
1
6.1847683436708218e-07
-0.00012592125567241499
-0.098375191353946304
-0.0061896324910888628
0.0034334373068440061
-2.3598840261627533e-05
1
1
1
1
1
0.097707931868229125
-7.9531702108322241e-05
-0.00021790758044517211
-0.00098081391731258405
0.0014796190170649477
-0.032123594171617635
1
1
1
1
1
-0.0051685200648238852
0.036191524747528389
0.099082873145309447
0.0010522899354490271
-0.00013024303684529382
-0.00048664163674318038
1
1
1
1
1
0.0005314230579595568
-0.0034735181265980034
-0.0063571389176790916
0.057900371894286026
0.0046812794204114851
-0.027814065304456355
1
1
1
1
1
0.0037182642608589705
7.6693886900615472e-06
0.000296457366118118
-0.0047832184802730276
-3.12294280291668e-05
0.0061717965587284457
1
1
1
1
1
0.00085386347656237719
0
-0.00025271031439966717
-0.27304665259968813
-1.5457470324806937e-05
-0.0069730278931738714
1
1
1
1
1
0.0056162174638654527
7.1555200062368515e-05
0.0870926856199183
0.63266694479512553
-0.017625367044073977
-0.070394636188078272
1
1
1
1
1
0.031536116958331251
-0.0014439879466964735
-0.0027998624683508435
-0.0087189212591054985
0.040267728452714029
0.0089592504053209454
1
1
1
1
1
-1.3734661393590619e-05
0.0033454974852442534
0.076839786217401743
0.0096236426391685705
6.8857410075227744e-05
-0.048475504869315962
1
1
1
1
1
4.773342181803215e-09
6.8782334025814774e-12
-0.0028459440375267686
-0.0070310487804382529
-2.9401568812319951e-08
3.9217742652916241e-08
1
1
1
1
1
-7.0658116017077978e-08
0
3.4474775236988403e-05
-0.0026519852752705836
1.7040319582317722e-09
-2.5811783429811152e-06
1
1
1
1
1
1.5156147657046298e-10
0
0
-3.3496883647048852e-06
6.3790505971507633e-10
-6.6938711456808828e-09
1
1
1
1
1
4.1252519434909308e-05
0
-5.0722098974919865e-06
-0.026919557692817765
3.1181042475179744e-05
3.4586234691050831e-07
1
1
1
1
1
3.5111096689457613e-10
8.2456934556207882e-11
0.00015895737852776246
-0.0018340602785438726
0
4.1805789757799217e-08
1
1
1
1
1
8.4686139691390496e-06
0
-0.00046390356681569219
-0.0032704028095500728
3.7734668390695325e-11
-2.7499618824704449e-08
1
1
1
1
1
-5.7243000125453382e-09
0
-4.4182126634976307e-05
4.2955926254072465e-06
0
-6.4970943634288802e-08
1
1
1
1
1
2.5051640617145194e-08
0
-5.8589661617791707e-09
5.6287952306012113e-06
7.6836457909404259e-09
0
1
1
1
1
1
-5.017582492389271e-07
3.0714752428529166e-13
0.00054203471143792164
1.2610628466213278e-05
0
-5.4378200689729321e-10
1
1
1
1
1
-4.3334139465829703e-07
-6.5357088879396538e-11
-0.00023331573967277829
-0.00012737225063548649
4.2081023587239247e-10
0
1
1
1
1
1
-4.0621411196343235e-08
0
-1.4212385410249193e-06
7.2589752753693272e-06
3.9902259945299703e-08
0
1
1
1
1
1
-8.4291395840400468e-08
0
1.1810157491895885e-06
1.5861688251979563e-08
-1.0645695548620369e-06
8.241038770983569e-10
1
1
1
1
1
-1.3739939422519101e-05
1.0766797477169981e-12
9.4652617847229339e-05
0.00017946842833245488
4.0288850228554865e-09
-2.5395515393399271e-07
1
1
1
1
1
-3.3920503375844787e-07
1.3153135691734516e-11
-0.00052391959141186595
0
-4.0975122934355263e-06
-3.3242225270001079e-06
1
1
1
1
1
1.400040955299565e-11
-1.8062561137490732e-13
0
-2.9400934048894043e-05
0
3.5408717680262555e-09
1
1
1
1
1
-3.963515942410844e-09
0
-8.714245322871814e-06
-0.001359053678001108
0
0
1
1
1
1
1
-2.1094235297747343e-08
0
-1.1834532384803701e-05
-8.057168228446143e-08
-6.5228283684703595e-10
-3.4259156402953193e-08
1
1
1
1
1
1.3821455711823439e-05
0
5.6122532637855502e-06
0
4.9501316687066972e-13
-4.2826173073038109e-06
1
1
1
1
1
-5.7889648479578304e-07
0
-2.6692338592615319e-08
2.2146930749173979e-06
1.7665076503202769e-09
1.4753729531372953e-08
1
1
1
1
1
-5.3740844259915767e-08
0
5.3138685767862059e-09
0.00019254042544069081
-1.6426026225825184e-07
0
1
1
1
1
1
-3.367252501627375e-08
0
2.8224621163533841e-05
-0.00024551658538304747
1.4520197326547929e-09
0
1
1
1
1
1
1.002263123730799e-16
1.4947521465510073e-12
-7.3490308784767526e-08
1.8005361581071966e-05
7.6012426268629047e-09
4.0599176838532182e-10
1
1
1
1
1
-7.921610730115356e-06
6.0905885256655623e-14
1.5885233579444126e-09
-5.8941654809226979e-06
-9.3224694272487115e-08
2.7613335133422507e-09
1
1
1
1
1
5.540497366713653e-08
0
-2.2732477406817265e-06
0
2.9477464365990511e-12
2.0708221032024597e-10
1
1
1
1
1
2.3419329887905039e-06
0
1.3550419266189642e-06
2.1824674438244146e-06
-5.1164956030562617e-11
0
1
1
1
1
1
-2.3688750982165819e-08
1.470561403784455e-10
-4.6894789796050321e-06
0.00022404246770484077
5.3445860607396325e-10
-5.4206034828442596e-10
1
1
1
1
1
-6.0025022071442872e-07
8.1872847043028604e-12
-5.3692001662425582e-06
1.5369570313838115e-06
-3.3357014565047138e-09
-3.7041266960032131e-05
1
1
1
1
1
-7.7797380837500944e-14
-8.4641465478352393e-12
3.2160404500656999e-07
9.6168741814795583e-06
0
-1.8900403114639672e-08
1
1
1
1
1
-1.5524485612469126e-10
0
-2.1592730512958321e-05
5.5368100461212624e-06
2.9177961912484432e-09
-3.5379546897705261e-08
1
1
1
1
1
-7.2506564184676833e-06
0
-3.2147958059621973e-06
-2.9429548596166674e-06
0
-4.1641067786067505e-09
1
1
1
1
1
-1.1858769753555626e-06
9.0923955478879893e-08
0.00045674329868222453
0.0064614780827258311
9.5004348317314929e-06
-0.0047279152734685569
1
1
1
1
1
-0.0010582679821864607
0
0.0007118464900286995
5.6328616849060559e-07
-0.003177568340058575
-4.1750320752897728e-06
1
1
1
1
1
-2.5241821900061418e-07
-1.1011775151148891e-08
7.5375280099924323e-05
-5.5751432734274839e-06
-4.2540460231036616e-06
-0.012997556398423232
1
1
1
1
1
0.00034469272724830169
1.1562309310215908e-07
4.6966285678074991e-05
0.33026838535707526
0.00022275272073467379
-0.011598857820311535
1
1
1
1
1
2.8028516048410478e-08
-2.0316593393819852e-07
0
0.010689386142497412
-6.0483425201469483e-05
8.6943306868649134e-06
1
1
1
1
1
-5.4409559516882947e-08
2.502280628426959e-05
-0.0080552207437564888
-0.084545156074501207
-0.004026929638004776
-6.9093854040574328e-05
1
1
1
1
1
-2.7808188762307347e-11
-4.9050225187881365e-08
-0.0088568922360436463
-0.011196094642109321
0.00053487668567401333
-2.7859313949941393e-06
1
1
1
1
1
3.2148996277430621e-06
2.1308426048045351e-05
0.0013547588158215177
0.010261287281030044
0.00016614854919067568
-0.00043390984061274202
1
1
1
1
1
-0.0090357348913301452
1.1880209771735071e-07
0.025063568283087669
0.011979287398405735
-0.0003708880140579513
-0.00085153450349214699
1
1
1
1
1
0.00013551089379409918
1.4654479617826411e-07
-0.00036107657519228388
-0.0046251792397022104
-0.0031071690918525567
-0.00047698301341833485
1
1
1
1
1
0.0004709310455280959
-6.0176327622989057e-08
-0.029672563619471001
-0.014608261391782867
-0.0012900907219947045
0.012466199662208771
1
1
1
1
1
-0.0037036244691711563
0.00016914354979852573
-0.049147620140077307
-0.0083315086890223631
-0.0067948898208908077
0.0001329797262544523
1
1
1
1
1
-0.0016208373518203133
4.7607102869899009e-08
0.00014888414622771777
-0.0027865686763477453
-0.0043821471515548011
-0.00064989110974669772
1
1
1
1
1
-0.00023702230471135685
9.1192955865288754e-08
0.00045016062732447987
-0.13513659014297669
-0.0014586731751791017
-3.8019445679475173e-07
1
1
1
1
1
1.8459957238286605e-09
-6.8200400662589644e-05
0.038573356939743911
-0.034707558180279562
-0.0010925746219425292
1.3421372762959274e-06
1
1
1
1
1
-0.00062556315530309611
-4.0687286686039061e-07
0.00038396404762534159
-0.080575501495547458
-0.00015078924648405072
-0.0014932309456270091
1
1
1
1
1
0.0024648401940952362
2.5875227216931366e-08
-8.9804942997450616e-05
0.011280713061741459
-0.00090736349126804264
3.6373540422257993e-07
1
1
1
1
1
3.4372375038657569e-05
0
9.7289659468817333e-05
-0.054549367060035985
6.2391797643720713e-07
0.0021577380461163431
1
1
1
1
1
-0.002533877370128093
0
-0.0063192992841719815
0
4.093132843752901e-06
-0.0034900756992469733
1
1
1
1
1
0.0014360071245982991
-1.4681100334502686e-06
1.385825985768765e-05
0.096832588362555996
2.259668440188747e-05
2.063618880852896e-06
1
1
1
1
1
6.8462962660380159e-07
0
0.0013119414636003368
-0.0062301995699433265
1.064915650810266e-05
0.004240691274004481
1
1
1
1
1
0.0015409617802685045
0
2.5325953336254309e-06
0.00056886624134210311
-0.000155011486235527
-9.9004399172414221e-06
1
1
1
1
1
8.4002272354729684e-05
5.7294349253009319e-07
-0.026029550656569009
-1.3089942522774571e-06
-2.5571599855541333e-07
0.00037886960877963228
1
1
1
1
1
1.1570105900637232e-10
5.3423264897311361e-05
0.0045242009452598304
0.00036415202432480049
7.1215992361948584e-07
-0.0036779848751428892
1
1
1
1
1
-0.0092850636862810941
-6.260648753840812e-08
0.0058157222702258805
-0.0025043598635603893
0.00048373799311200619
-0.00049222270296033041
1
1
1
1
1
-0.00041916850965304138
1.0558107600597692e-07
0.034621082331791224
-3.7984153793414905e-09
1.3920510383955758e-05
-0.00037922896773765169
1
1
1
1
1
-0.0026799371006058646
-4.8435586503845152e-08
-0.0084855959439926135
-0.07421990003201491
-0.012168398818355399
-1.1168129871805714e-06
1
1
1
1
1
-0.00085621718200604776
0.00010835646755741179
0.0012162810606136515
0.075554010360755888
-0.0061476320415003926
-0.040732866163955259
1
1
1
1
1
-6.7089773883925094e-08
7.1903810564078579e-08
0.0050860007321951008
-0.00059767400819493092
-6.1573005884117671e-05
0.00091235751625586947
1
1
1
1
1
-6.4549365872381237e-09
2.3480074040168763e-06
3.2536905338272756e-06
-0.0085089020856763363
4.1466891910993205e-07
-6.6235467329982316e-06
1
1
1
1
1
0.0006250671170449384
-5.2292190148155635e-08
0.0010721175538066625
0.002142743007251033
-2.6309408344952972e-06
-1.5751357597173338e-06
1
1
1
1
1
0.00061058740060351174
4.0449079301387103e-08
0.060735586617306304
0.13547130362581283
0.00025173505727496277
-1.9884668228498174e-06
1
1
1
1
1
-1.6480463290598712e-06
-2.3091122677786651e-07
-0.0003630670034881938
0.0019195834709621533
-1.7404436181171415e-08
-6.7346518762571977e-06
1
1
1
1
1
-1.0740804899174713e-05
-9.726516966732594e-09
0.0025236802611593692
-6.3572175056718586e-05
-3.2773804774753931e-05
-0.00042913732822503207
1
1
1
1
1
0.0008106803165769394
-5.0566836406056865e-05
-0.10547039311723216
-0.010209049409253637
-3.7353439994401726e-06
-1.9689889311923824e-08
1
1
1
1
1
-2.8624261667816998e-05
-8.1119670935914399e-08
0.0035325097991220338
-0.13920015719663636
-5.9448270893091562e-07
-1.9235224697000943e-05
1
1
1
1
1
-0.00012960976417973605
2.9097562849182842e-08
0.038724965680016751
1.9352677559088663e-05
0
-0.0056436428756353046
1
1
1
1
1
0.00025296323972836133
2.9404021925664543e-07
-1.9802266599853824e-07
3.8506871970856231e-05
1.6125282609794147e-05
0
1
1
1
1
1
-5.8639066745742285e-11
-4.8648108294661133e-09
-0.00021543293671884097
-0.000681889064103587
1.5948013138143247e-06
0.00021332664504885858
1
1
1
1
1
2.347470152762758e-05
-2.3391136617010471e-08
-3.4835110176192965e-05
-7.5813605447618561e-06
5.3717048539845442e-09
-0.00011636006976618632
1
1
1
1
1
-0.0065772455854344871
3.6074403861404772e-07
-8.0972148035748383e-05
0.017926878462218129
4.4057975241623121e-08
0.00010097795651944432
1
1
1
1
1
-0.00028267836965383084
1.3689959513003506e-05
0.12855814064925125
0.030932793642286769
-5.0570727398024526e-08
0.0071253882767034855
1
1
1
1
1
0.0025873119051579561
3.2532579529349759e-08
-0.080107621968563192
0
2.3823903703116329e-05
-3.3144625830141214e-06
1
1
1
1
1
-1.2253854503875298e-05
2.5261794223657741e-07
6.6175245960711212e-05
-0.09298393717788718
6.8493753767253453e-07
0.0047686897610898062
1
1
1
1
1
6.5077757950178625e-08
-4.2104222988193925e-05
-0.02308258681472659
0.0097876297639084755
7.3958522500521874e-07
1.185550563910716e-08
1
1
1
1
1
1.0038498205779072e-05
-1.3707972081694125e-07
-0.022755440536124223
0.015998486527402229
0.00012235538397297724
0.0037856565923546971
1
1
1
1
1
-0.00012511039789986933
-1.6950596727863831e-07
-0.024618699614577674
-0.0072325854803215297
8.5667666818276778e-06
-0.0063951536454705206
1
1
1
1
1
1.0739953526667152e-06
-5.4246013593897235e-07
0.065740726406788338
0.017559512836919242
9.9281292308575999e-06
-0.0017979076499924926
1
1
1
1
1
-4.701745930852041e-05
0
0.010640756797369557
0.0068341167542122373
0.00037063215940471374
8.6185419553240468e-09
1
1
1
1
1
5.9424259916402192e-10
-7.3390410889069858e-08
-8.2431125702544427e-05
0.00028733140097958199
0.000151980389769282
-0.00112790071875868
1
1
1
1
1
-0.0021686437140044147
6.2934983521493725e-07
0.0020787774332806548
0.0015809655808357991
-0.00052238723516412127
4.5017547579731298e-07
1
1
1
1
1
-0.0013722681670241316
7.1571894490246351e-08
-0.00067922852790553801
2.2881530013119344e-05
-0.0029909882994496365
-0.034497533248820815
1
1
1
1
1
-2.6973568158401211e-06
0
-3.6260761417880698e-07
0.00097046082494617401
-8.4764215711939234e-06
-0.0050981667271972559
1
1
1
1
1
-0.00060994745375230006
0
-0.00014793847677699768
0.00017606153414986763
-2.6156002692254171e-06
-0.0080882924609467916
1
1
1
1
1
-0.0046211079147679248
-9.1494853426782321e-09
-0.028957793704868704
0.0034581925471657711
0.0077454613166298971
0.031348664974738434
1
1
1
1
1
-1.5710119591469307e-06
9.8344018047848003e-11
-0.00016106935141008442
0.0044985132088340533
-8.0296049052252125e-08
0.00093774254994696143
1
1
1
1
1
2.1737968132517024e-05
6.3500138776554582e-08
4.6688208650146103e-07
0.01132640949644044
8.195805200627591e-06
1.3993363998587514e-05
1
1
1
1
1
-9.2983645678536e-11
-3.5931995936709472e-11
-0.0041733298120541764
0.0030240786220503452
1.217848805912628e-05
-3.2826172774882827e-08
1
1
1
1
1
0.00096587070030067018
0
4.1600453404098136e-05
0.0017114648539471968
-4.827291109274754e-06
-5.9763099131157595e-06
1
1
1
1
1
-3.0106777379369681e-10
0
2.7885333309333667e-05
1.7705995484658356e-07
7.6033247424908479e-08
1.1179559762889475e-05
1
1
1
1
1
6.1732331037606965e-05
0
7.9162250836262641e-06
0.026927785831010104
-0.00026504869535289212
1.3576429195467209e-07
1
1
1
1
1
0.00026928266971992055
7.9414252766045282e-08
-0.0024766912443888738
-0.00078267574004784715
-5.662200129909136e-07
7.9979813868979983e-05
1
1
1
1
1
4.9351604314703361e-06
1.5295768229366494e-10
0.0012328226255247823
0.0019010998682290352
-4.9483997469220695e-08
-6.9989194894910328e-08
1
1
1
1
1
1.3017206677470468e-05
2.1025100414019123e-08
4.0605354227963939e-05
4.925029815415322e-06
4.7768057217830142e-08
-3.3639653649608505e-06
1
1
1
1
1
-1.0355332795640753e-08
-2.4409299602538526e-11
6.6587525649482554e-09
0.0058209473335042988
-1.2268503111016796e-07
4.3486474614281799e-07
1
1
1
1
1
-1.7424938606583852e-05
-2.9699185957100987e-05
-0.0020550574007456371
-0.00088571665172197612
0
3.4865554605627132e-06
1
1
1
1
1
6.4292568736357015e-08
-1.6706301110512696e-07
-0.00041009980417368243
-1.5698426831906145e-05
-1.9316664250270681e-09
6.5793824653312626e-07
1
1
1
1
1
-4.6326650343283094e-08
0
9.3754838873003515e-07
4.7645663929584476e-06
8.1130016520902045e-07
0.00041229714405119171
1
1
1
1
1
1.4232235008595525e-08
0
-8.7445195508804279e-06
0.003043176447132586
-0.00014583246121291138
1.0592680447480223e-09
1
1
1
1
1
5.5408384657442578e-06
1.3373478573713536e-10
0.00029953956372399113
8.6142043784348491e-05
-7.924002347423918e-08
-1.1136599605052287e-05
1
1
1
1
1
-3.2311987895763462e-07
-5.3565179551945394e-08
3.0144792974190131e-05
5.2073737505786158e-05
2.3791460498048735e-06
5.9769265941561224e-07
1
1
1
1
1
-1.1745957176374207e-07
-1.258606587045416e-13
0
1.4270139612584706e-05
0
8.6744281544536827e-07
1
1
1
1
1
-2.6558201817661973e-09
0
-1.6360278760161011e-05
-2.3773981799232274e-05
0
-5.1733986528726613e-07
1
1
1
1
1
-4.1468002789979758e-08
0
1.9639846860345066e-09
-7.0373643481951312e-07
-1.3237748680580471e-07
-3.3346823034013389e-08
1
1
1
1
1
2.9464684260372763e-06
-1.582448584102585e-09
-3.0305636955070004e-06
-9.6415595511259958e-06
6.694001947838246e-06
8.0299762393937112e-07
1
1
1
1
1
-2.4835857091981032e-07
-6.1501779365173149e-10
-6.4379450722765465e-09
-0.00088779510198040321
-6.4998462434075129e-09
-1.1025390814618604e-10
1
1
1
1
1
-8.3031898238713021e-08
0
-4.0832588762288487e-05
-0.00034832175828005367
-7.8592725592496947e-06
0
1
1
1
1
1
-3.0878979107783892e-07
-1.9558529827984098e-07
-1.7489897469310959e-05
-5.6578403173337016e-07
-8.557672669694183e-08
-4.553864906156033e-07
1
1
1
1
1
-2.5256289483692002e-05
-3.0546910215328262e-08
-1.1617835260967503e-05
-1.803096847545171e-06
-2.4824487446564297e-07
-9.5835440238251921e-07
1
1
1
1
1
-1.563775885346273e-05
3.9465027873824144e-09
-0.00012901419136364533
-4.8605148821430927e-05
-1.5324576269868889e-06
1.3431624276720168e-07
1
1
1
1
1
6.910341070444698e-08
0
1.1421190475526731e-06
0
-9.2605678062415646e-08
5.503101408971682e-10
1
1
1
1
1
4.4187499160320085e-06
0
6.5207449699820354e-07
-1.0798318932035376e-06
-4.3373705086122993e-09
0
1
1
1
1
1
-4.1846449750670923e-08
1.9548172536534148e-09
-1.7055264380840094e-06
-0.00011449493232275065
-6.0786278144645478e-07
2.5045743858196139e-06
1
1
1
1
1
-1.145167964056176e-06
1.266908668435874e-08
8.854097876617891e-06
-5.2543156846182951e-07
-0.00034372023380876277
-3.5545458867272572e-06
1
1
1
1
1
-7.3215863198899296e-14
-7.9189405841293024e-11
0.00010441530089830651
-0.0007441094571496742
-1.2919865047805766e-07
1.868967359137636e-08
1
1
1
1
1
-2.1158576836262575e-10
8.2403448765410094e-11
1.9527670321240207e-05
2.5671609617473271e-05
1.8668056927324461e-09
4.7525808936093178e-08
1
1
1
1
1
-6.3021029744620891e-07
0
9.5118425786517473e-05
2.5734323215760117e-06
-1.3151605140653809e-07
0.0001784942061906475
1
1
1
1
1
2.3248454334503874e-06
-0.0020974605693838506
0.080127115034270488
0.02441927107027568
0.03950476336905389
-0.011764984643868494
1
1
1
1
1
-0.0027369704136832665
-2.7362923338576175e-06
-0.038221387352501288
-0.092218980622190208
-0.013774924141872563
2.2172441927419559e-06
1
1
1
1
1
-6.9628608966482131e-08
-2.5192286887950535e-05
-0.017926197112805169
-0.00016506737282005916
-8.7817667496262368e-06
-0.011403132174541992
1
1
1
1
1
0.00040246105988457972
0.0068782465571904875
-5.8812704101525679e-05
-5.0944280102622099e-05
-0.094314155014316212
-0.0026020931649265453
1
1
1
1
1
7.824681040057248e-08
8.9308186595002239e-06
0
0.011481382804651724
0.00013732450560881396
0.0051551027338492574
1
1
1
1
1
-3.6967939281824605e-08
0.00010445093543086577
0.007005039344249518
-0.070811598684331914
0.0090313677859723048
-0.049255090589604651
1
1
1
1
1
-3.3945933708499615e-11
0.0022525484160319893
-0.013186207874426051
-0.011666921282560999
-0.0027101024658172791
-0.035510074658626399
1
1
1
1
1
-7.7939647238729338e-06
-6.0557158584720818e-05
0.0028760546549028787
-0.020537378277188725
0.00046078971524576623
-0.0003654206010419201
1
1
1
1
1
0.011852878342115214
0.00014077961818035597
0.037305414682085661
0.03604229011649375
0.00013331710474315174
0.00071818450338879741
1
1
1
1
1
9.3895283568472639e-05
0.0018128309290913378
-0.0036613035753228287
0.001832046852740671
-0.016796765484778917
-0.00042112890700065779
1
1
1
1
1
-0.00020068958959741496
1.1201912178020249e-07
0.029246231534545763
0.014173065812845361
0.011554259481712131
0.0014350989365151971
1
1
1
1
1
-0.008431339200268579
-0.00012698484926004579
-0.047789200512461966
-0.018873562874269733
0.0051089016719614595
-0.0030810947493571813
1
1
1
1
1
0.00026378157472018593
-0.0043704170964915549
-7.0306748042786406e-05
0.0010423336628263076
-0.0019798760566473532
0.004893045254099373
1
1
1
1
1
-3.3650393038929173e-05
-5.8830358239525414e-06
-0.0026056606869068149
0.13502985785564314
-0.0041184561764025596
0.007280205156467023
1
1
1
1
1
-4.3700295594316789e-07
0.00086140282921995316
0.0027762950781582631
0.056905766729415337
-0.003331443221056149
-0.00054137747853391204
1
1
1
1
1
0.16391934351517889
2.5230610207025456e-07
-0.001484028086980099
-0.14176893277192745
0.034211642906889161
0.0032267861771105859
1
1
1
1
1
6.3553006762622966e-05
0.0049100669827509599
-0.00065828729953231434
-0.063113420982964283
0.0012070093744098475
-0.00013328738666171404
1
1
1
1
1
-0.00018484874998416206
-0.00041258957023858404
-3.1407652645585578e-05
0.040852253094417985
-0.00039280778560365305
-0.040731763914125016
1
1
1
1
1
-0.0060614757288622676
2.0891861844347164e-05
-0.065244894191756456
-0.15935308254830299
6.4053060739145665e-05
-0.0076687051682645417
1
1
1
1
1
-0.0025173869974411869
0.00032933931932493889
-9.211423464645855e-06
0.0069303272635678845
-2.0903104931174819e-05
-0.0007104017500628979
1
1
1
1
1
3.5144575891692455e-07
0
-0.0013188067408303654
0.0071419884734910269
-0.042779828844240031
0.0011763436242470011
1
1
1
1
1
-0.0010413911103643158
0
-2.6872144788506668e-07
3.7869665967119314e-05
-0.00013357598419375547
0.02198495948010348
1
1
1
1
1
0.00023660663647691839
-0.011209842394779764
0.026042690225538373
-2.5121404653219371e-06
-0.00076422897019167769
0.047028942018563002
1
1
1
1
1
1.0428058924459807e-09
-0.00033014331941238378
-0.0038466571294532982
0.0005077244672120454
3.9582627746826137e-07
0.0028775775818875187
1
1
1
1
1
0.013456130548263936
-5.5121674396869216e-07
0.00042820099304349688
-0.00064118709197428874
0.0011304583433320151
0.001513608998612172
1
1
1
1
1
0.00076372359259251532
0.00026285800323456727
0.030212280380235153
5.9242518587579293e-08
9.4884008990663189e-05
0.0010437925494620444
1
1
1
1
1
-0.11325430179034635
-8.4713144033503617e-05
0.0011714229081068465
0.08159865848181394
0.0064206918346610652
0.0024496448118507177
1
1
1
1
1
-0.00033918322558688062
-0.00048294449657187728
3.3863713892071874e-06
0.13607354042186112
-0.0024250724947605701
0.04224954704578314
1
1
1
1
1
-1.2497036030431617e-07
8.5242746589054757e-06
-0.024662044418597481
0.00096259415435580894
-0.023665042751347714
-0.00067532681932354626
1
1
1
1
1
-7.0749988073598537e-09
-1.7301166993796411e-05
3.7454964636715116e-06
-0.0053389901088834735
2.3371960479048294e-06
7.6350971549552224e-06
1
1
1
1
1
0.00029258098977129874
-1.8651856892767447e-05
-0.0051235244895826738
0.019057513799675685
0.0019224758064327408
-0.00041554919361469614
1
1
1
1
1
0.009112918597713425
0.0015659523524126828
0.022827589016936722
-3.122812003277283e-06
-8.1407581938700301e-05
-1.7899148457898543e-07
1
1
1
1
1
4.1526702240314246e-06
-0.00046444435014866169
-0.0019578002744744289
-0.0058648106171376793
0.043517942468124536
0.0032005111585026304
1
1
1
1
1
-1.390057215157771e-05
-1.9200589333017316e-05
0.020973736744264605
9.3740415666599455e-05
-2.8258282119558683e-06
0.0020528114974620155
1
1
1
1
1
0.00046479363751330118
0.00017904539855352202
0.037527344421603347
-0.0079720965157402939
-8.4960213966502325e-05
-7.4225863751443184e-06
1
1
1
1
1
-2.0301801504766251e-05
5.4901275922942665e-05
0.064864549847223715
0.0048840415164019225
9.4664812006771935e-05
0.00047026386658403268
1
1
1
1
1
3.6078380359302e-05
1.6222492374810042e-09
-0.038323762055752712
-1.7899537028761392e-05
0
0.024723504977474307
1
1
1
1
1
6.0764362849877765e-05
0.0038927189541498519
0.0011920428931420143
7.6587402487658105e-06
-1.1045106936207117e-05
2.1179980348631039e-06
1
1
1
1
1
-1.4033272741608444e-10
6.3216164951326553e-08
-0.064738247061391363
-0.004803037370703294
1.0277972788326197e-05
-0.00016866287673163936
1
1
1
1
1
-0.0001162261081977007
-0.0025601224206303068
-0.00023135512895529808
1.3367198166557288e-06
4.9336514952705687e-09
0.00069909044476789892
1
1
1
1
1
0.019530929458444431
-8.4826061843471469e-05
6.9228060319773246e-05
-0.030055971604892998
1.7407799023415135e-05
1.6617945436877875e-05
1
1
1
1
1
3.1019324309193889e-05
3.7644031239080842e-05
0.0080754186153560049
-0.016534700047539437
-2.7359412182644398e-07
-0.006217327057101968
1
1
1
1
1
-0.0022462234758270387
3.4612166769089955e-06
0.081615418720340088
4.477047135399773e-05
8.0644958974436236e-06
-7.2882086229417186e-05
1
1
1
1
1
5.0935468794551077e-05
4.2746430363748768e-06
0.14249353906260212
0.064436157489557361
0.0010407941501553012
0.01052512548901011
1
1
1
1
1
-5.7352191098553145e-08
-9.1055202007872982e-05
-0.052094482652885792
0.0021913907798306624
-1.8711022171929419e-06
-2.4830720924115109e-08
1
1
1
1
1
-2.4235096488917343e-06
-1.3337801255807775e-07
-0.026071962913535553
-0.0047932306450123056
-0.0028051919878568214
0.0021656383309968607
1
1
1
1
1
-9.8475865720755982e-05
3.355916747022956e-05
-0.0072386579136253914
0.0016018153396003198
0.00047432514656851562
-0.0094684957885936023
1
1
1
1
1
-7.8545715163242077e-05
-2.5002877307257872e-05
-0.10955869048954676
-0.041174634728723881
-0.13077748759797875
0.0016110866025526053
1
1
1
1
1
6.9515857334799021e-05
-1.8235634014168227e-05
-0.0026284830507749329
0.0017962030225010771
0.0078274549533290504
0.00066093353198962168
1
1
1
1
1
0.054514955354772243
-1.6732321081254199e-07
0.00044398040539142406
0.00042461185627716737
0.00083993724042145067
0.00022878834825301538
1
1
1
1
1
0.010182349285054461
-7.1765935898676467e-07
-0.0013812374859241072
-0.0015429200645695983
0.0010698492901774724
8.7492118071177928e-06
1
1
1
1
1
-0.0008672739850809567
1.2395888941082893e-05
-0.0067228580328830174
-0.010726760554753648
-0.00059145445631472791
-8.6621368651481693e-05
1
1
1
1
1
0.0062439033552126747
-9.3599921260032403e-07
-1.487544949507911e-07
-0.0051367450552534588
-6.5615287739796428e-05
0.006056329478448844
1
1
1
1
1
0.0013822132611544875
0
0.00016822375123457911
-8.1473909564980189e-05
-1.5457470324806937e-05
0.0019708380355422986
1
1
1
1
1
-0.0088593386085503208
-7.1706566665948953e-07
-0.00058727341727069079
-0.0037495108091190935
-0.020149562828176221
-0.051678293773990178
1
1
1
1
1
-0.02905827647136236
-8.6000908605110255e-06
-0.0017425945310791707
-0.00060879569652107126
-0.012090836240824505
0.0051742405735705982
1
1
1
1
1
-0.00020581315798899968
0.0015783246294204126
-0.01448502887675064
0.0025727806182865064
1.6179564067675898e-06
-0.05589735633737998
1
1
1
1
1
1.0434949973265803e-08
3.6814836043549153e-11
-0.0014024586349109572
-0.013911013017610972
4.3136815311334476e-07
-2.6082364204811904e-06
1
1
1
1
1
0.00037412210891524559
0
-0.0057478012037589978
-0.0033115370469449248
7.1305970228407272e-06
1.0327245124342791e-05
1
1
1
1
1
1.2984809763980541e-10
0
6.5851241716186472e-05
1.944741849685859e-06
-8.3111621331895247e-08
-2.5864794658074869e-05
1
1
1
1
1
5.9593098846986935e-05
0
-0.035692119332155554
-0.0058503975840852969
-0.00025194433553389026
-1.4548738531237729e-06
1
1
1
1
1
3.7680908854711473e-05
1.752188276200533e-07
0.0014323091713440684
-0.0011394406556698004
-1.6531358477318704e-06
0.00013469665535704425
1
1
1
1
1
-0.0001182252200885626
8.806993094247033e-11
0.0012545922975178332
-0.0035657478626694677
-6.4977473427307815e-08
-1.7493967582847703e-08
1
1
1
1
1
7.012530996411496e-05
7.1389189552089791e-08
-0.0046976936720039978
-4.0345708627684603e-06
2.8097240117742215e-07
-5.5527525328579179e-07
1
1
1
1
1
2.5051639271212094e-08
-9.9952998443422821e-12
1.0957595813341969e-07
-0.0058586256635224723
-1.2143600440232177e-07
1.0847564255367129e-06
1
1
1
1
1
3.8793429815044346e-06
-6.5754019835302393e-07
-0.00053995425373887349
-5.5129477144750231e-06
1.1897921385483878e-07
-2.1207480303069515e-05
1
1
1
1
1
1.4361818806438811e-07
-1.0068819015116944e-09
0.00091700929824751868
0.00020260437549781974
1.963136332584467e-09
-2.0743085895628174e-07
1
1
1
1
1
1.5753324296922744e-08
0
-2.915636127190673e-06
3.3561602378404481e-05
6.0322495465553097e-07
-0.00041229714405119171
1
1
1
1
1
3.6431973617164497e-08
0
5.8005312527016796e-06
-9.3306598851014846e-09
-0.00037760237210756031
-1.0304939314232827e-09
1
1
1
1
1
-1.3232926232665373e-05
1.2705827958767696e-08
-0.00033156940761260083
-0.00013021463377671741
-0.00052886517272020435
-2.1863738619053846e-05
1
1
1
1
1
3.3866252809715976e-07
3.9150940383324024e-09
-1.4950286805714483e-05
5.5797338342808751e-06
-9.3186516406458619e-06
-3.6010319903611784e-06
1
1
1
1
1
3.6162532164344518e-06
1.2143596056288854e-12
0
-8.6186332998066131e-06
0
-7.4281972260882439e-07
1
1
1
1
1
-1.2886245775815957e-10
0
-1.6584626219018961e-05
0.0013808801274213288
0
0
1
1
1
1
1
-1.8721600188487223e-08
0
-1.5436453834097021e-05
7.1140346443957436e-07
2.6656762741075441e-08
-2.0200657147357217e-07
1
1
1
1
1
2.0735865189949076e-05
2.2025438818237075e-09
-8.6571237577371806e-06
-0.00011570680648097072
-8.5930030253518952e-08
-6.4754585377657973e-06
1
1
1
1
1
-1.3075356265750335e-07
5.0806034291385648e-10
-2.0975002462062159e-08
-0.0013564619550848881
-5.7592225097499066e-10
-3.9483945783043959e-08
1
1
1
1
1
-2.2898782646363418e-05
0
-4.0835220441247577e-05
-0.00033702427581592148
-1.0924563269224706e-06
0
1
1
1
1
1
3.737872382126929e-08
2.6697985179768449e-09
-0.0010075099193490092
5.9033503890936188e-06
3.4587566667647534e-08
0
1
1
1
1
1
-1.5452477804109143e-06
-4.6837328431797613e-08
-1.532202147473207e-06
1.7678961914468901e-05
-1.6846549508735635e-07
-1.5254526557108467e-06
1
1
1
1
1
-2.1544248766716379e-05
-7.505819576422632e-08
-6.9785105250719554e-05
6.0120648780004079e-05
-0.00060838868926525031
-4.1207596507416647e-07
1
1
1
1
1
-2.4601415185092897e-07
0
-1.7853451143123699e-06
0
-4.6722793581730422e-11
-2.2540507768380009e-10
1
1
1
1
1
-1.2448066594847465e-05
1.2957773977091004e-09
-1.0089498043876402e-06
-2.1373590211739255e-06
-1.4210005525011675e-08
0
1
1
1
1
1
1.8081114975766191e-08
-1.5751803903990332e-08
-2.4139598523057325e-06
1.6335642095040781e-05
-2.7579534869881534e-07
-2.539390245088937e-06
1
1
1
1
1
1.1424946085924186e-07
2.0530429944713915e-11
-5.12215530155186e-06
-7.8771627558942256e-06
-1.837745520072306e-07
-3.3058562305863975e-05
1
1
1
1
1
1.3106540464261289e-15
3.9491698901005314e-11
1.9985906396194312e-06
-0.0014815034813620467
1.1174971877292551e-07
-1.6608850158187461e-09
1
1
1
1
1
-1.1054971290794437e-11
4.6924704781000475e-11
2.7565431148271045e-06
-1.4300728839528164e-05
6.7074653333855631e-10
-4.9170928387826569e-08
1
1
1
1
1
4.6844991140013118e-06
0
-0.00010245377391028178
-6.0495034128457306e-06
1.5894187159870086e-07
-2.4586933206925667e-05
1
1
1
1
1
1.3038058933254656e-06
0.005489852986502077
0.0013965997744435871
0.025207636304213972
-0.012871758452848185
-0.0056625403620779438
1
1
1
1
1
0.0057208235226811162
6.9304034541415771e-06
0.0035342018694794206
0.17977069514707017
0.01339318907176886
4.7601821102369637e-06
1
1
1
1
1
7.0012804309200573e-08
-0.033458723810257517
-0.17807032503734738
-0.00013931610756613548
0.007154933801291688
0.0031124561436407907
1
1
1
1
1
0.02033850024617927
0.0069622862587866751
-3.8587087011433149e-05
-5.0931474986571963e-05
0.094631270036277013
-0.0010381412541179771
1
1
1
1
1
-6.1661355913605068e-08
-0.0053829015011498922
0
0.04070251423785981
-0.00013611944277390134
-0.032764286609286604
1
1
1
1
1
8.8010994982471836e-09
3.8414663559758622e-05
0.2691102853432159
-0.079708644562264605
0.015674268794885843
-0.01810844505207964
1
1
1
1
1
-1.0027006369308542e-10
-0.0025337286892256092
-0.047833795981372863
-0.013280323032181185
-0.0021219389241440901
0.0043633686204497552
1
1
1
1
1
2.3277029967206015e-05
6.2460737116202476e-05
0.011099205165781318
0.012441367346122544
0.0018110124302318442
-0.052519302330278551
1
1
1
1
1
0.0084336406177392999
-8.933423023687779e-05
0.0067653852121515095
0.022717877085615019
-0.1009952663800316
-0.00084467090079116329
1
1
1
1
1
-6.7455762330224117e-05
0.0052331577278272937
0.18139024454279218
0.0019489004148848976
-0.021390620801195536
-0.00037567588289918005
1
1
1
1
1
-0.0012064687730026159
0.012517859933165766
-0.029329891685963182
0.0080770085580388357
-0.0204605332558076
-0.011864683988931571
1
1
1
1
1
-0.006369872961655948
-0.00074802449279664336
-0.10195267741718123
-0.48563284226145753
-0.012174711896683623
-0.0015192380573693745
1
1
1
1
1
-0.0059606139597685502
0.0027412110366124777
0.00035461582667184878
0.0022249644118230599
0.0023228875882282179
-0.0068571370903760861
1
1
1
1
1
-0.077611670363619906
-4.2761502385976291e-05
0.0072165271258670628
0.13537679891987106
-0.011178671248827756
0.04067230959021445
1
1
1
1
1
2.6228912274778688e-07
0.0010286886145163682
-0.0072367153419056248
0.080374336609632127
0.35467729180238428
-2.6896917780389279e-05
1
1
1
1
1
0.16429712167473506
9.9473878218316647e-05
-0.00052409755992516348
-0.087082664921040887
0.14733981400429164
-0.0049164599249389906
1
1
1
1
1
0.004154238492841464
0.0049100852651935518
0.00038244302333781383
0.048678892121229465
0.0028787913188575995
-0.00014786584844254149
1
1
1
1
1
-0.0001782594593218908
-0.00045678163599595308
4.7111410558491396e-05
-0.014189346665293751
0.00020667589730577235
0.015710640580707196
1
1
1
1
1
-0.0079136276824320687
-0.0010531851253360366
-0.078905886082625609
-0.15935308254830299
-4.6811381187580174e-05
-0.0034958547338126331
1
1
1
1
1
-0.0025173861923330587
-0.00066078064437999752
-5.7185337847526602e-05
-0.081945277649679182
-1.4721643439977608e-05
-0.29701125219570401
1
1
1
1
1
-1.1750581099665277e-06
0
-0.0055099964653911064
-0.014201308283833329
-0.073072035625158571
-0.010310278090420389
1
1
1
1
1
0.0053805009713587381
0
-2.264125090734165e-07
0.00076642249053486555
-0.0027523150383510974
-0.050697676864833924
1
1
1
1
1
-5.6036198042977163e-05
-0.0045047516772497012
0.068709719818971809
1.0947250754591121e-06
-0.14535947711699584
-0.052015723416167912
1
1
1
1
1
-2.3643079794098044e-10
1.4271640293931673e-05
-0.010218188877984797
-0.00053225477634173939
-3.6654256725547529e-07
0.011345137874542138
1
1
1
1
1
0.017556024771827643
6.7776600384167686e-07
0.00093325525330477724
0.0018004359463535328
0.0020061142744628134
0.0021818856523903593
1
1
1
1
1
-0.00026332957200863536
-3.5829683049649704e-05
0.037445695435930668
0.54680060615823178
4.4501805851557203e-05
-0.20413080315053728
1
1
1
1
1
-0.12294737831835609
0.00076790119091795807
-0.001956578045610593
0.0054119890319490483
-0.03003415946731872
0.0033969271844566857
1
1
1
1
1
0.0013946971011749556
0.0016657282624621241
7.5237045943749637e-06
-0.044968008776716882
0.0076496413462446506
0.0075383296214557288
1
1
1
1
1
-2.8834700801792894e-08
0.00032384914646701866
-0.077585173621510711
-0.82590514727673991
-0.016171388005954218
-0.10421713425036948
1
1
1
1
1
8.6481437046052472e-09
0.031633645228613269
0.74576060911983688
0.012277871066051214
-7.3541654922798303e-07
9.0032898010523454e-06
1
1
1
1
1
-0.0037784158684192864
0.00012795131914855013
0.0092330017639459631
0.055633484612012236
-0.00015461780165088151
-0.0044114567200286689
1
1
1
1
1
0.0021288963371093846
0.00022038257903690597
-0.020152756809968728
0.13547032401409104
0.0003422447229686227
2.1901744590936636e-06
1
1
1
1
1
-3.5675346366220297e-06
0.0020142964288446174
-0.079082165966621959
0.23696354160564873
-0.066042685573405868
-0.0036212379048231988
1
1
1
1
1
1.1294092874650195e-06
0.00067775734243315949
-0.47436388185666639
0.00021615581475936015
0.11644711712418307
0.0030249728558279128
1
1
1
1
1
-0.0028011962358635918
7.9009548937795991e-05
-0.056392589054945694
0.015940411171090255
2.5659798538200187e-05
-0.00017534969190621124
1
1
1
1
1
5.4222646825415688e-05
-0.00070735391515831228
0.0082965862635918028
0.12850731543120289
0.0040493780362732077
-0.018022661035761348
1
1
1
1
1
-0.00014759289055687409
-0.00020843723471895145
0.023438899799452132
-1.8314339934214622e-05
-0.15214109446140234
-0.024919321199238623
1
1
1
1
1
-0.00014195892770856898
0.0035063685146670041
0.001488523961512166
0.29086941498557883
-3.6187939112526551e-05
-1.0928826096796585e-05
1
1
1
1
1
-1.0931321601495221e-10
1.6382353736211308e-09
-0.064490490518814933
-0.00060353112111283637
-7.9679499611173359e-06
0.25688885298208192
1
1
1
1
1
0.00017065156081183397
-0.0062145527013510423
-0.14206714005631776
-0.00051003727557761517
0.00038217793686649485
-0.00043063195241432992
1
1
1
1
1
0.012407706659368741
-0.001101674179743649
0.00028943476220640154
-0.0084313216319871331
0.093814488209847252
-0.27369119235035877
1
1
1
1
1
-0.18639560159030119
0.0019512913805183431
0.11474850871739727
-0.030014459321863883
-0.26729435988388184
0.0080573672817955098
1
1
1
1
1
0.01347298585027404
-0.01042566758083696
-0.079817528973266619
-0.97761682956357943
0.0021357330468713492
-0.16215229602529052
1
1
1
1
1
3.4920053018088019e-05
-7.6212584951422933e-05
0.13956376639034168
0.09298393717788718
-0.0070247618144361548
-0.018744189851056726
1
1
1
1
1
-1.4137885979210437e-08
0.00020474714717754567
0.052094380657594995
0.029170101715796298
0.0012636417636574565
1.185550563910716e-08
1
1
1
1
1
-3.3913989574188398e-06
0.0047415807098211867
0.083362072001064408
0.035939253943787546
-0.069261451433844642
-0.0006151778280585517
1
1
1
1
1
-0.00016225330763357235
-0.00070301546376485137
-0.0092758663020575845
0.1479996038370601
-0.29825265302533321
-0.0092592927555865991
1
1
1
1
1
5.8988201270478703e-05
-0.012292416194052351
-0.10959823631559019
-0.04681441521409907
0.03900659078647379
-0.0012223048660041616
1
1
1
1
1
-1.569127321705285e-05
-6.4097741231819677e-05
-0.10062278807762257
-0.0056028606632625294
0.0037583410519999136
0.00048488179767268788
1
1
1
1
1
0.097707932000228398
-1.0144131651444474e-05
-2.3346546851978546e-05
-3.0136422791821502e-05
0.0015158285812352742
-0.028117959187818779
1
1
1
1
1
0.0061263536659265875
0.035343255245779776
0.045145460778545358
0.0017412979710537014
0.0012137498326806699
0.0022678083166508861
1
1
1
1
1
0.00040290121801449507
-0.00094103012448383679
0.0086195857763890198
0.28397794920791986
-0.0046889370665182091
0.03878428033314036
1
1
1
1
1
0.01672375700918954
7.1093951037145364e-06
0.00048784414378978317
0.009635721722727494
7.6956650973597292e-05
0.0048804824991966278
1
1
1
1
1
-0.0016837498497653239
0
9.6736790389757377e-05
0.21360345128489169
1.5464171737445635e-05
-0.024994167916604623
1
1
1
1
1
-0.0081232580105978711
0.00010471876554276038
0.10902992461923508
0.0021770405251855876
-0.020134789882603862
0.022934910414628088
1
1
1
1
1
0.047128001370711672
-0.0002644895541595805
-0.002341051285469643
-0.0082327693968296464
0.046635658725470902
0.0039654882546515157
1
1
1
1
1
-0.00016555051553014002
-0.0006949350080869399
-2.0770178229338325e-06
-0.0062362763041826259
-3.4570424793572262e-05
-0.057147354838943676
1
1
1
1
1
1.8471753285970873e-09
-3.9381953636353923e-11
-0.0070877574913436551
0.010599240503081156
2.6444256313996873e-06
3.9208891425238854e-08
1
1
1
1
1
0.00015099005356165562
0
-0.010917373281908857
0.0010785183237483351
-1.8119470455502844e-07
-4.0250713873137311e-06
1
1
1
1
1
7.117959282477692e-11
0
-0.00013281222492305772
2.6505848806217822e-06
1.3402076920794589e-07
-1.3537876057685209e-05
1
1
1
1
1
1.6894960729754995e-05
0
-0.0063691067373908318
8.5560795886694112e-06
-0.00034162480461630458
-6.2590794888961599e-07
1
1
1
1
1
-3.7678997045546671e-05
3.8624660974235886e-10
-0.0037391312563530023
-0.00057568438518155009
1.0843180019716797e-06
4.126482766639549e-07
1
1
1
1
1
0.00014113982081709401
-2.055715660008383e-10
-0.0010681777880354943
0.0014281547640412038
2.1104485918909985e-07
1.0402852173449981e-07
1
1
1
1
1
2.9302993402345296e-05
3.5391665066995594e-08
-0.013005516448821954
-5.6896202168589594e-06
2.1616074142070966e-07
-4.1317778827211925e-07
1
1
1
1
1
3.4333306162929175e-05
-5.3784971641230202e-12
-0.00077424153347839032
0.0058268950410191355
-3.515444898091192e-08
-2.249109258938886e-07
1
1
1
1
1
3.6717354440903752e-06
8.7650146949024506e-09
-0.0015873899683904995
-0.00034695681059957113
0
-1.2498937710285113e-07
1
1
1
1
1
-1.667477454949423e-07
-1.5287736566530805e-10
-0.0058796162640888478
5.7246507343108274e-05
3.9866671475895677e-09
-3.8270269323995822e-07
1
1
1
1
1
1.6122068703073906e-08
0
8.7771133484381921e-07
1.0102204424941392e-05
6.5145268667666029e-08
0
1
1
1
1
1
-1.192582764576727e-09
0
-2.027488093376452e-05
0.0019145055193617339
-0.00015578737465441806
-5.5905525686548118e-10
1
1
1
1
1
-1.0789203518353447e-06
1.8603899877810669e-10
-0.00024551903934096731
-0.00013496218838285741
-0.00052897998724218845
2.0723559048593115e-06
1
1
1
1
1
-4.3079153273479654e-07
8.2495915253826435e-10
0.00077045223362332839
5.2073737505786158e-05
-5.4041075567299624e-06
2.5897771785058542e-06
1
1
1
1
1
-1.1745943624871575e-07
-8.3535054006750713e-12
-0.00081533466557600872
-1.13240020751752e-05
0
1.7376166444597395e-07
1
1
1
1
1
4.2561135873242652e-10
0
-2.0586199298613273e-05
-0.0011140303164903457
0
0
1
1
1
1
1
-2.1452415694414917e-08
0
-2.6297583342888069e-05
-6.296514988960785e-07
-6.4494472882941281e-08
-4.1364180217021461e-09
1
1
1
1
1
-1.9865837643056812e-05
-3.0564645373630247e-11
-1.8809762468861617e-05
0.00074549814509476957
-1.7778861320542196e-13
-2.5994515625522564e-07
1
1
1
1
1
-3.6841056697205197e-08
-3.9181348960025313e-10
-2.2283097444303353e-08
-0.00032326417561604837
-2.7909736472689828e-06
-3.7715108216449197e-08
1
1
1
1
1
-1.5012261469412599e-08
0
-0.00024440104106773704
-4.0379383739742626e-05
3.5906321134180822e-06
0
1
1
1
1
1
-8.5664022722785885e-08
0
0.00077955853435858187
0.00062370601970711964
-2.0973512094800993e-08
0
1
1
1
1
1
1.8525562237197594e-05
-7.3474394933472302e-09
-1.4922186290055671e-06
2.565712442647643e-06
-7.9772486906316992e-08
-1.4972612320528957e-08
1
1
1
1
1
1.3580339426480465e-05
-3.5440302172064217e-08
5.497733528137185e-06
2.8934966052464238e-05
-1.8613736227199015e-07
1.2123253509125903e-07
1
1
1
1
1
2.7325700350959131e-07
0
-2.0459576257964677e-07
0
-4.2156016979902162e-11
1.4453352243771133e-10
1
1
1
1
1
3.78469161987258e-06
0
-2.890808144770433e-06
4.5800480495533941e-07
2.2133046029682468e-08
0
1
1
1
1
1
4.0019592073793543e-08
-7.7088038589025918e-09
-0.00023456113121882679
-0.00029219886982607485
-3.3932181202191222e-07
-7.4764089610002869e-09
1
1
1
1
1
5.922550662469103e-07
-3.4055344585133239e-09
-1.0946337089810382e-05
-2.0370622387993534e-06
2.2371861409655236e-07
-1.8851594879832696e-06
1
1
1
1
1
2.3993234154057715e-14
-5.9516203537674058e-11
-5.0621015095335479e-05
-0.00073258389708661005
-3.709117517932889e-08
-5.0855170116288408e-08
1
1
1
1
1
1.3161721043954466e-10
2.1533978515882961e-11
-4.0128154172672885e-05
3.7891900173087708e-07
2.6463025897996325e-09
1.5342795486787987e-07
1
1
1
1
1
-9.2072322180706886e-06
0
-3.8897318787365977e-06
-3.6952253804065571e-07
1.3151605140653809e-07
-2.2577648210938797e-05
1
1
1
1
1
5.9333478627068484e-09
-0.0018025755464246486
0.0012162627075626314
-0.012396831768899323
-0.037224259851835417
-0.0087842491644578927
1
1
1
1
1
0.0018812162661115551
3.9817828152969136e-06
-0.061925505897159269
-0.1100813398070272
-0.01137700350007978
2.7703764491207452e-06
1
1
1
1
1
-2.1101899764566098e-07
-8.2480503736603614e-05
0.0058017638687320773
-5.9132979410445414e-05
0.0044685905537209707
-0.027730884757704685
1
1
1
1
1
0.02941288291439385
2.5247488831318029e-05
-2.5187984989606356e-05
5.0926463398181521e-05
-0.077360834861237071
-0.017175026136065214
1
1
1
1
1
4.2525392264468777e-08
6.196881760778688e-05
1.6261928917610247e-05
0.033538947197225534
-6.9828621946368589e-05
-0.032759743360875004
1
1
1
1
1
-3.4300415629670025e-08
0.00012625186675516086
0.023173862811989559
-0.055931161526036922
0.0026320225835025279
-0.01838892669868632
1
1
1
1
1
3.1705959153170709e-12
-0.00034097627111961753
-0.034166354465158422
-0.0027848356870761757
-0.0069526634052707349
0.041841739249938392
1
1
1
1
1
-3.0205851572953178e-06
7.6015252925663781e-05
0.011159663851242755
0.0015881689669778377
-0.0015508299619728149
-0.052542573223929565
1
1
1
1
1
-0.0059786318543146172
-0.027516926739653981
0.026205789643287101
0.022789732527153363
0.00041285078974250439
-0.00076776872930917593
1
1
1
1
1
-2.1247143166148948e-05
0.0018060409672343927
-0.0052020458691619245
-0.0057574620847370226
0.009792348069671079
0.00022440092261516518
1
1
1
1
1
-2.8741399758023892e-05
0.012524675024121275
0.02955123115875569
0.019551073932899066
0.0023754907027264322
0.0016921615853922618
1
1
1
1
1
-0.006555366328814486
0.00026353431626840616
0.078438435704410267
0.0099258112685909894
0.0020053338865649397
0.002104965408930379
1
1
1
1
1
-0.0079549305453929832
0.0043703735015989667
-0.00032050062358139804
-0.0060910421015953316
-0.0062350727828000101
0.0051667457408495591
1
1
1
1
1
-0.077836491348051984
3.6885726166855871e-05
0.0018547243632804342
-0.00016282515805172764
-0.014351758178090099
-0.045361351206754635
1
1
1
1
1
-1.376260586866382e-07
-7.3468192721563258e-05
-0.046473170395818768
-0.035374121246915829
-0.0005301127641570817
-0.00019817450837905718
1
1
1
1
1
-0.0022613527910913134
-4.0686513386993742e-07
-0.00024415579402901118
0.089427362720620671
-0.1759681942015664
-0.012510283371623264
1
1
1
1
1
0.00020905909970261722
0.0049716115162668833
-3.6001367242135568e-06
0.04582149830710814
-0.0012701184735300199
-0.00029674734383027619
1
1
1
1
1
0.00013210772666407368
2.3611792714905594e-05
0.00023570111768768138
0.020156565517554639
0.071272124008452217
0.045590706120813132
1
1
1
1
1
0.0024611299480114413
1.7197115094903126e-05
0.093937318917375515
0.15935308254830299
1.4417365559571728e-05
-0.0016327410115973945
1
1
1
1
1
-5.3041163548972802e-05
0.00066213880569470707
4.6300837786727119e-05
-0.0022110461809383883
2.259668440188747e-05
4.3020001333712828e-05
1
1
1
1
1
1.1750581004391714e-06
0
-0.0017555809462522919
-0.013799495292733102
0.015095774803057365
0.015166070308576699
1
1
1
1
1
0.016397763321293429
0
-0.00010955655953176794
-0.00015387373454776157
0.00011959927819343077
0.04988185177841814
1
1
1
1
1
-0.00010816532139873567
0.011261024769971309
-0.068727697107348801
-0.47004622606856733
-0.00019231641816992921
-0.11823456650407298
1
1
1
1
1
-3.832078719567742e-10
0.00026591921396302133
0.017338659657240723
0.00073319555720107463
-8.2767669653409407e-07
-0.012283872846542523
1
1
1
1
1
0.0025581586165057484
-5.5121674396869216e-07
0.008590235278443761
0.0019389800440192759
-0.0018369742893499898
-0.0021609402686608896
1
1
1
1
1
0.00050736899319840797
-0.00012306403149948991
-0.032513915690862247
8.4460741067402823e-08
-8.0556684400987332e-05
-0.00033712973692716266
1
1
1
1
1
-0.11518713031765494
1.6168398232444165e-08
-0.00020386342607821094
0.00065634994348537259
0.01789810808803358
-0.0040024647504798951
1
1
1
1
1
0.00099644877274703502
0.0022520367896974474
0.00058969528116264969
0.07355057049805061
0.021099003577927797
0.070536754286330369
1
1
1
1
1
-1.2497035691358462e-07
-0.00053762597940483405
0.042308939446226705
0.00036693669617785419
-0.064973493943720442
-0.10898994635550439
1
1
1
1
1
7.4571118325426e-09
-0.011418473653429908
-1.7051075716102008e-08
0.015414532541449515
-2.5581001316855926e-06
-2.8597871067074295e-07
1
1
1
1
1
-0.0051780033939130615
-4.0243216827052895e-05
-0.018331465395495402
-0.017632003778663707
0.00015463769328551605
-0.0010651737948763446
1
1
1
1
1
-0.0030164546074875308
-0.0010163578336518106
-0.022214561397868093
0.13547000469731604
-0.00061384108297396608
-2.597887367781441e-06
1
1
1
1
1
5.6188616870045894e-06
0.0034888391687809797
0.0015380775394447255
0.002568981368280075
-0.0007398877747051395
0.0055267211369176943
1
1
1
1
1
-1.2460701261479064e-05
6.898779550829578e-07
0.020928766676748051
0.00012883737769127639
-0.054956915890817526
-0.00095841396323367086
1
1
1
1
1
0.0033985771104674337
-4.948092192710285e-05
4.8035770879572704e-05
0.011050505036301639
1.8189110539319839e-05
3.2711915772369238e-05
1
1
1
1
1
-4.3026273430018276e-05
2.7090724521410989e-05
-0.05058003781753146
-0.006398071704331384
1.0083826917432489e-05
-0.040056534787333072
1
1
1
1
1
5.9370636775388199e-05
0.0018649051685227446
0.012835797029035265
-1.7744077915388027e-05
0
0.015625471653261998
1
1
1
1
1
-2.2061771724963831e-05
-0.00039386158073637936
-0.0044868851146660487
-0.0054352994906707742
-1.1069712434674719e-05
4.9602974732181305e-05
1
1
1
1
1
6.6787157473296227e-12
-6.3231484425263176e-08
-0.00016827098855291313
-0.0023703750698825733
1.3037888247509556e-05
-0.00010039890597459336
1
1
1
1
1
-4.3798847702224744e-05
-0.00020570855347029044
-0.0021193107325063526
-0.00048226059853141891
-0.00012356523545411512
-0.0015206695904551113
1
1
1
1
1
-0.0066587536987905002
-7.9993947603797613e-05
0.00051066755788739689
0.026976544409554607
0.003709508434125514
-0.00051536724718712003
1
1
1
1
1
-0.00019746021558662646
0.00010268100474208151
0.048716731245890293
0.012498926691519733
-7.4439852276944122e-08
-0.014180094866472643
1
1
1
1
1
0.0035786009445137467
0.00019607056918930518
-0.027718423425663368
-6.1130627118045189e-05
2.5010186512177396e-05
0.1622156272612974
1
1
1
1
1
-2.5452698276280694e-06
-4.2612940016212698e-06
-0.13510707428705182
-0.064436157489557361
-0.0036778621186442308
-0.007840651732495079
1
1
1
1
1
-1.4868527850511226e-08
-0.00031769188997838558
-0.0059297432763752598
-0.012957455902108129
1.9824605975927882e-05
4.0290860698615067e-09
1
1
1
1
1
1.4554850042103272e-05
0.00061001273005974524
0.010726903151228031
0.015898747432951738
-0.02232381874535995
-2.3577930947678587e-05
1
1
1
1
1
-9.4200564555312099e-06
0.00018737223500882088
0.025179022592001731
0.0035062856916036342
-3.0423089461013995e-05
-0.0012634811351476957
1
1
1
1
1
8.8163803624816123e-05
0.0040839596138865855
0.065748283339596564
-0.010403011488327589
3.5391624001937714e-05
-0.00021907793296201781
1
1
1
1
1
5.8183549213146771e-05
0.0010202005961392794
-0.084536108446758476
-0.0013561007143355411
0.0049665023331895682
0.0034276905746039171
1
1
1
1
1
-1.1624000118085742e-09
-1.6732321081254199e-07
-0.00048159738841655131
-0.0010785055315628337
-0.0027670705588250183
-0.034837119941982124
1
1
1
1
1
-0.0076346741721036561
-1.7085957673865535e-07
-0.072701249419597533
-0.0015809652164333107
-4.5383260240191304e-05
-0.002497387790632224
1
1
1
1
1
-0.0013462919001605669
0.0073253175546477579
0.0073213674835643392
0.010779339787024875
-0.00074021318969578478
0.034618341036998436
1
1
1
1
1
0.0062684942189263444
6.1733958911142127e-06
0.00080900984162729972
0.0060797669789813017
2.9534680981176446e-05
-0.00017503245698688747
1
1
1
1
1
0.0003558624150772249
0
6.7047776012493099e-05
-0.21326609908501923
2.4868294498719599e-06
0.0080877400912490217
1
1
1
1
1
0.0029577357668378042
-0.00013532748189586959
0.032777831617445699
0.63096869345416706
0.0076061721409053503
0.00025125356070975565
1
1
1
1
1
0.047127999217314046
7.6042447067149832e-06
0.00031243979986694267
-0.011548276949456362
0.036492517702702419
0.010889157377562731
1
1
1
1
1
-0.00031460881847680404
0.00069987941096933716
0.082161212334106407
-0.0024142465768639751
-6.9217035021775639e-05
-0.085964466819409002
1
1
1
1
1
9.4361879124071682e-10
1.0023925659751801e-11
0.0014463040168464076
0.0050406402202504497
1.9800222496885835e-08
3.2835010668081943e-08
1
1
1
1
1
-0.00081504565283213647
0
0.0010017081889923359
0.0009164433717194461
3.2356135075558052e-06
4.1487051466888483e-06
1
1
1
1
1
-1.2555724057260243e-10
0
-4.7078567757151012e-05
-3.3535181862325405e-06
3.6237078321155565e-07
2.7276388292346553e-06
1
1
1
1
1
-5.5571989074148823e-05
0
-1.1098478975962169e-05
-8.1538393380863414e-06
-1.2892766954176887e-05
7.2769926687499236e-07
1
1
1
1
1
-6.8696838740165511e-10
-4.3371796927341161e-10
0.00083644507481525025
-0.00030524438914556612
0
-4.5644925391777643e-07
1
1
1
1
1
-3.3638441576350975e-06
-1.3508681216802638e-10
-0.00049333617049424875
-0.00042621429278926523
8.2594381311281019e-08
1.2059442316558494e-07
1
1
1
1
1
-5.1527394471372576e-05
-2.3331176246290703e-09
-1.1419725935882445e-05
1.6384978343452193e-06
-3.6434733471575594e-08
6.1728141922339302e-08
1
1
1
1
1
-1.7568645941793738e-08
-1.5022845859636373e-10
-0.00060769669277707498
-0.0056010003415005224
-4.3509000106251405e-08
2.5354581751605309e-07
1
1
1
1
1
-9.56258757833227e-06
-1.2055233036016841e-08
0.00057272223387417774
8.0100244155543709e-06
0
-1.9435735095412939e-05
1
1
1
1
1
5.6579944547547426e-07
-9.6838174936852087e-10
9.4066158591007721e-05
6.0250629891160729e-05
-3.9985015623356716e-09
2.6737643878568023e-07
1
1
1
1
1
8.9659530113137316e-08
0
-1.4971703154608493e-06
-5.6969207101936413e-05
-7.9844093235707467e-07
-0.00041229714405119171
1
1
1
1
1
1.1859622056297828e-07
0
-5.5552777715074379e-06
1.5860668925822972e-08
0.00015818061247482683
5.5942536995163801e-10
1
1
1
1
1
2.3460706416207271e-05
1.5965438821670207e-10
0.00043361075275698084
3.068053960901866e-05
-2.957002886861606e-08
1.0321307130304191e-05
1
1
1
1
1
-3.8784090433775817e-08
1.2888604787374845e-09
-0.00058573384594566786
-2.2483473049420708e-05
-5.5991500071327751e-06
-3.623351313301004e-06
1
1
1
1
1
-1.8668582558290184e-06
-3.1271945781210155e-13
0
-2.2169043180656774e-05
0
4.6380716893901921e-07
1
1
1
1
1
2.8350042344904267e-09
0
-4.010886193389294e-06
4.530922601573755e-06
0
0
1
1
1
1
1
2.5677436298509147e-10
0
-9.456759985664268e-09
-6.5780704862525868e-07
1.1625496468684834e-05
8.4317194674437175e-08
1
1
1
1
1
-3.8637241084414069e-07
1.2871880167663548e-11
-3.3372389885782972e-09
1.2653644311166507e-05
-7.6275822863267285e-06
-5.8921958473848917e-06
1
1
1
1
1
1.9082587282758102e-07
5.2800225847354755e-11
-2.3702289221431006e-09
-0.00033717303317699416
-1.2565577941607916e-09
3.7903335909391653e-09
1
1
1
1
1
-3.4770832046327468e-08
0
5.3147976619317842e-09
-1.7776357756105214e-06
1.5343833270341571e-08
0
1
1
1
1
1
-1.1317427801432361e-07
0
-0.00044919575736033639
-1.3644514750815929e-06
1.2107901813252721e-08
0
1
1
1
1
1
1.0461288391582574e-06
2.8237192918428337e-13
-4.6751314555396109e-08
0.000497081346922539
4.4367132414667194e-13
-6.2043564159258257e-09
1
1
1
1
1
7.6699077557397142e-06
1.2827738293592788e-12
-2.7472792506667914e-06
-2.5881319279761719e-05
6.6701003995474994e-07
3.0212972954151106e-07
1
1
1
1
1
2.111876487119179e-07
0
-1.719826169189768e-06
0
-2.4611798501164525e-10
1.1333619625000868e-10
1
1
1
1
1
-2.8909601776014576e-11
0
5.9306777577939576e-07
1.6497237832625515e-06
5.0461421574623462e-11
0
1
1
1
1
1
-2.5856107705630367e-08
-5.3779449666465566e-09
8.6615812684875147e-07
