0.49985780157579257
-1.1564465808881084e-10
0.023023154381851277
-0.014059575235346808
6.8853683991484489e-07
-1.6435245569604961e-06
1
1
1
1
1
0.4999906242889105
0
0.0066428056582992917
0.009890803228799358
1.2102180191528828e-05
-1.1408684937508462e-05
1
1
1
1
1
-6.3726656258363994e-06
0
0
-4.708160549584302e-06
3.1308853086520913e-07
-4.9244931615518116e-06
1
1
1
1
1
-0.0046551435289910485
0
-2.5296444162994785e-05
-3.5092634669430219e-06
-2.391208568450086e-05
-7.9245432044118957e-06
1
1
1
1
1
-0.0020979393214823772
-1.4747765766120564e-08
0.052700710996553372
-0.0037157711084494457
0
6.1031956781534877e-07
1
1
1
1
1
0.0014007063369856194
1.4603398490992549e-10
0.00027319462006179785
-0.0014479265048613088
7.3142281146563707e-08
5.9517525625658942e-08
1
1
1
1
1
-0.013582228373090113
-4.9170392174296109e-08
-0.0028306764153522273
-1.3972820640578035e-05
0
-4.332488406625697e-08
1
1
1
1
1
0.00080559845055605691
1.6384828197585241e-10
9.3793316502145768e-08
7.0956025804443925e-05
2.7903020157425095e-08
-1.0159427044380836e-07
1
1
1
1
1
-0.0035080520650005147
9.9206602609085056e-09
0.0026827568323310362
3.1966272858817252e-05
0
-2.3125262409713657e-06
1
1
1
1
1
-0.0020561324236985264
-5.2465225853147538e-09
5.5561066314243305e-06
-2.3329994225944906e-05
-3.3139556917269199e-08
-1.1381344154908105e-07
1
1
1
1
1
0.021689076908438559
0
1.4577696412041243e-07
3.1111092986303601e-05
-1.6146352865655424e-06
0
1
1
1
1
1
-0.0012375614748542359
0
-1.4638231753247741e-05
-2.2561704524537827e-06
1.0089096959074747e-05
8.4573274890767337e-08
1
1
1
1
1
-3.7676835395772086e-05
6.3546967566673288e-10
0.00027661129405764955
0.00012930509454704705
1.8737583299459142e-06
1.3473757419531605e-06
1
1
1
1
1
-0.00018661347883915566
-1.1868989932724803e-09
0.0070181438206828942
0
-0.00044556725643879886
-3.3932224560540552e-05
1
1
1
1
1
-1.6935141102248467e-06
2.4819895625429049e-10
0
2.7793230421029934e-06
0
9.8242431287064974e-08
1
1
1
1
1
0.010488647474821438
0
1.0302332351248731e-05
-1.1412078554469733e-06
0
0
1
1
1
1
1
0.0031378214862472715
0
-1.3377166588768881e-05
3.9177892745862127e-06
-1.407795660543401e-10
-3.5589000826309494e-08
1
1
1
1
1
8.5271950804335063e-05
8.0695964219302343e-10
4.614567251473182e-06
1.0401837901661575e-05
8.8595513649834004e-08
-9.9335952952687976e-05
1
1
1
1
1
0.0010259542566929234
-1.0505762991533019e-11
4.5111311922037394e-07
-2.0072124364123643e-06
1.1038271486053081e-06
7.712766247344027e-08
1
1
1
1
1
0.00028664789561411592
0
4.6454368742203833e-07
-0.00043000369162778676
2.6367232437334452e-06
0
1
1
1
1
1
1.9488670820211071e-06
3.7145011082006781e-10
0.00089490492317931378
-2.2911512787384684e-07
-5.2785400525236737e-09
0
1
1
1
1
1
-9.2323340601856628e-07
1.8988465316342705e-08
8.32786036559258e-07
-2.9401345383242556e-05
2.7934416983422717e-06
1.5670318841525047e-06
1
1
1
1
1
3.4885564584858386e-05
1.615890209771177e-08
6.872103912148033e-06
0.00016736016532817996
-5.7526345269340331e-07
5.4750008225596725e-07
1
1
1
1
1
0.0039139259114820872
0
1.6807466306265179e-06
0
1.7960287948465969e-08
5.1705296884914149e-09
1
1
1
1
1
0.0093568117750242805
3.9860813299533163e-09
4.4271163282506026e-06
1.1385957255604697e-06
3.567991698231297e-07
0
1
1
1
1
1
1.7455444516890378e-06
1.9438269064224313e-08
6.4067395445351312e-07
0.00011666748040970899
5.4195842199690876e-07
1.3195186917773089e-08
1
1
1
1
1
8.518362007457535e-07
1.105126748789467e-08
8.4753278049559203e-06
5.1949019830762356e-06
2.5864852968960644e-07
0.00018908358315445365
1
1
1
1
1
0.00014501861916085538
1.3348986841282179e-08
2.3963331383855351e-05
0.005067212229564173
0
9.6047860741689115e-07
1
1
1
1
1
0.0002648401601450183
1.0280532327914948e-09
0.0041015237841116456
-0.00013366621569484079
9.7225774631951928e-07
5.8174942119139069e-07
1
1
1
1
1
7.777653986029649e-05
0
-0.00011555786050028598
2.8846785257628722e-06
0
2.0485624201963603e-05
1
1
1
1
1
0.23813715591806256
-0.00039310425956875177
-0.0012047518741988145
0.20564002883499416
0.023965501999976314
-0.0020098980563938375
1
1
1
1
1
0.81111780910398723
6.5051788768563774e-07
-0.00079926332811851709
-2.8353676435520618e-06
0.020622521202301222
1.2390304239617769e-05
1
1
1
1
1
0.57264042820459582
-1.8066868736936625e-05
0.0091383755778610583
-0.060275858409342221
9.2794610525879828e-06
0.00068171552957952092
1
1
1
1
1
0.92000593883161608
-1.0096232790953402e-05
-0.06317039649136702
-0.028589878121801242
0.029854184695524373
-0.0013931109682599953
1
1
1
1
1
0.79561262580525915
-7.4551294743816889e-05
0
0.15341982971458276
0.092648657512482857
0.0034080752400543687
1
1
1
1
1
0.56179915624503363
-0.0057087109846812875
-0.0019097795508390169
0.00089420720150419153
0.028368487605864186
0.022568478778173136
1
1
1
1
1
0.7806500689020166
-0.012746387479654713
0.16929651110925803
-0.030342479021218536
0.031385554163350336
-2.3211681990706138e-05
1
1
1
1
1
0.61435790484178598
-0.0004032430697428839
-0.0027029103791721999
-0.059851549329224318
0.0013184253809100585
0.037063090593725867
1
1
1
1
1
0.84434649641114956
-8.1059751067898194e-06
0.14591753979294822
0.013748136499049624
-0.00044628624318872182
0.018542388260898615
1
1
1
1
1
1.1707040697296296
0.0019827939517104119
0.072915110232859237
0.078541744924934861
-0.046295523788174177
0.074460367929215635
1
1
1
1
1
0.59821928309706685
5.1380418889178384e-08
-0.00126290503160781
-0.14061547829640919
-0.0039334488530551178
0.086096537045107058
1
1
1
1
1
1.0073493702172784
-0.0012618092001549577
-0.00089910663100824413
-1.4206834075838164e-05
-0.0027378829863386389
0.0052680645082670572
1
1
1
1
1
1.0223512273203288
-0.0015346978907011713
0.011324612266801952
0.0036523805754066748
0.0039172910899585058
0.0078008885048390392
1
1
1
1
1
0.61476118451793349
2.3877842163423388e-05
-0.28631760556347491
-0.023271311655608726
0.040854127339867499
0.11612407893331532
1
1
1
1
1
0.61511510905541222
0.00018413478365736255
-0.11115640684262589
0.0042276515791155609
-0.00025050735647559781
0.041216310098541709
1
1
1
1
1
1.0495236316681384
-2.5915399394210175e-06
-0.21913790972513941
-0.035455133021006058
-0.0005310279713952444
0.044356935127452389
1
1
1
1
1
0.68717039057312024
-0.0052072672886434527
-0.00010934295817752983
-0.1060039898114616
-4.5248149945508952e-06
-2.0681385471304705e-06
1
1
1
1
1
0.86536181241151766
-8.8837499126329148e-06
-0.093594626313954155
0.018103162692082325
7.1012824907974975e-06
0.011731076754012505
1
1
1
1
1
0.91721109995097816
-4.5511375966440664e-08
0.002207941816643892
0
5.6522043816141571e-05
0.096490368542014857
1
1
1
1
1
0.78678866133786107
-0.0015575785502844588
0.10725352630276491
0.004678115059595778
-5.3887990828744187e-05
-0.00084319053372521947
1
1
1
1
1
0.94882507136874827
0
0.010915657709198065
-0.50705125290929154
0.058863139466762381
-0.028574801976828768
1
1
1
1
1
0.78406343555969615
0
-8.8245794338694139e-05
0.4567321488234829
0.0024989844521351844
0.016618466426746765
1
1
1
1
1
0.80973923436608142
-0.010292698258454764
-0.26791225337660113
-8.9027240079893072e-05
0.00012928633578340238
-6.961498775095229e-08
1
1
1
1
1
1.0891056591129611
0.001071392016815805
0.014942455303484736
-0.00073244035414681712
5.9101058630029707e-05
0.02196311798188615
1
1
1
1
1
0.82441136331118803
4.6311019600635962e-07
0.24602237741432961
0.08186429171203681
0.074690141844096114
0.0073644884467005513
1
1
1
1
1
0.77698141334936865
9.1998543380122536e-05
-0.087684994270836633
-0.66168704867852846
0.00031878277832088722
0.0014024440286853988
1
1
1
1
1
0.65217758504260359
-9.833993353231047e-06
-0.088378664398441026
0.49982817969310628
0.054785032910755253
6.0148080712355738e-05
1
1
1
1
1
1.0494058476144148
0.00076498742457429289
-2.3927288885920025e-06
-0.0025781165078069784
0.010831030441597249
-0.00099557232428423609
1
1
1
1
1
0.59140434094057004
9.7402267627326157e-05
0.12329551400794198
0.26973192899808768
0.12108487073909792
0.0021343447804887429
1
1
1
1
1
-0.017070503254407256
4.2295560146639587e-06
-7.2656253489407449e-06
-0.010299396735793415
0.00020906702077898992
6.5059891061870206e-05
1
1
1
1
1
-0.0021577074775132031
3.9551173959158244e-05
0.011736106699497239
0.069302017495734267
-0.0003147809937056486
0.02206990206165603
1
1
1
1
1
-0.15666736511666687
-2.7040673011714894e-06
-0.0013534385914046657
2.6895325008861358e-06
-0.00051590993305174291
2.2149329110187853e-06
1
1
1
1
1
-0.0078316686740529037
-4.9364804682957139e-05
-0.001585818228159154
-0.13808244582002996
-0.043162137271996422
0.0075692707183706029
1
1
1
1
1
0.053258733321187024
4.0085118453971512e-06
0.014461356718912284
0.090322905760199038
-0.00043804968204071073
-0.0025754945713489068
1
1
1
1
1
0.057433275917654909
-0.0014239747555839261
-0.0015105479600784216
-0.19270500934284593
-1.7963819938173365e-05
-2.6281784009774092e-06
1
1
1
1
1
0.019739834325835572
-5.3328605931770323e-05
0.034448432434013854
3.8138438465518884e-05
3.3196096427907304e-05
-0.00011900400317903929
1
1
1
1
1
-0.28711159195267222
-2.5327049778845495e-05
-0.07694727762871742
-0.00028396083174763158
0
0
1
1
1
1
1
-0.29274886983012638
-5.4812607878451802e-06
-0.00073672485828283122
-4.8781167630906334e-05
-1.2821452968607451e-06
0
1
1
1
1
1
0.12784411128892748
-2.3672580948107913e-07
-0.0015011744171592766
-0.0068457313764913735
-0.00025847728444274948
0.00011115593023177727
1
1
1
1
1
-0.15680335361175246
5.5834863297059179e-07
0
-1.4572196984399089e-05
8.7170296795587778e-06
4.3573289252416972e-05
1
1
1
1
1
-0.085769595399781975
0.00049122306242999005
0.00074503731852010161
-0.12324694210951193
-8.0450535839703043e-05
1.2320483262657018e-05
1
1
1
1
1
-0.013388443381583445
-1.2846900246985586e-06
1.7402480909916206e-05
0.097470862100996855
5.3896685251012536e-05
-8.4907807821667841e-05
1
1
1
1
1
0.032898737281691855
4.7158914430471454e-06
-0.046484090293010531
3.7284967229700376e-05
-5.1829880163441413e-05
7.4900139149827297e-07
1
1
1
1
1
-0.04772432425418853
9.2080402048972615e-06
0.026261307328342254
0.027621643734894386
-5.1130438114036745e-06
0.0064834252598151487
1
1
1
1
1
0.12357076951448133
-5.288229483004208e-05
-0.024182590518041915
0.018483299433657466
1.4138079901221855e-05
9.9830454905055042e-07
1
1
1
1
1
-0.00021297107717394419
-6.0239855559804538e-06
-0.067027599093217261
-0.23962384492200423
-0.0056499784056740837
-0.0013966743001631778
1
1
1
1
1
-0.0059020473085492483
-0.00065082068206935876
0.011612620185031399
0.00051679644010042499
9.5155891274589267e-05
0.0080930378397627498
1
1
1
1
1
0.15697027481900117
-0.00017613705522071468
6.1573010018205966e-05
0.097728389416267242
1.271490801727783e-05
-0.0031531810288018031
1
1
1
1
1
-0.0012432126179874898
-1.2091339121383595e-05
-0.0013491445642250756
0.00020277416772046641
0.019662413854972138
7.907780130234611e-07
1
1
1
1
1
0.030974066412622958
-1.5979007110361985e-06
0.001914991420676854
0.034432079366635546
0.0039932764760172434
-3.2195717557445612e-06
1
1
1
1
1
-0.0033088421586958162
1.1728064857616675e-07
0.00011049238771900776
0.015480753913046796
0.021394554701099921
-1.3245788320344444e-05
1
1
1
1
1
-0.18442711491171943
-2.7320612404468773e-05
0.12742515479680369
0.0020103766211536814
0.016587211222926189
-0.00011757582234664678
1
1
1
1
1
-0.014544712300077168
0
-9.5362959808809775e-07
0.010949497542983766
-9.4487848216187912e-05
-0.010815844438276906
1
1
1
1
1
0.02485129910319191
0
0.0058951919423526891
0.036126318576431601
3.4193319719033078e-05
-0.0030073578902229362
1
1
1
1
1
-0.05051931505111959
1.0290434770918111e-05
0.00026809870146555034
-0.0014378113697491399
0.0228045629312729
-0.00017900894094861664
1
1
1
1
1
-0.044520447562507136
2.3936189631539636e-07
0.0014185942929462172
0.15065099589722658
3.8737073646754109e-08
-0.00086837980836847704
1
1
1
1
1
0.15781755103671002
-1.568222546237721e-07
0.089209328184845504
0.1008514989704283
-0.031837026604048475
-6.161714519785499e-05
1
1
1
1
1
2.6236032156439583e-09
6.0605855847582961e-11
0.0043470481877124706
0.0011984847385840616
8.2090430805738517e-09
-4.5352390729214125e-08
1
1
1
1
1
-3.36349204180408e-08
0
6.9115785291788646e-05
-4.0800337109389986e-05
-5.2866202998346949e-08
4.0902737894685076e-06
1
1
1
1
1
4.6635167082172311e-11
0
6.1703141505016111e-06
-1.9100403311637925e-07
6.6257084076629465e-08
-4.0388499122024756e-06
1
1
1
1
1
-5.8596675487267039e-05
0
3.3036678436487029e-06
3.4094046444811247e-06
8.665361858467533e-05
-2.2617435269751305e-07
1
1
1
1
1
-8.8888744293173297e-05
-4.1350925459467896e-10
0.0013207306079537791
0.0005243469939267524
0
3.3638273033911441e-07
1
1
1
1
1
2.5965755416282472e-06
2.1751719228735149e-11
1.7510633230435352e-05
0.00027462002654764055
8.5741653781735826e-08
-6.630648875212204e-08
1
1
1
1
1
2.4742966232319413e-05
-2.0480649429327421e-08
-9.0833601158329048e-06
-3.8581315162826015e-07
0
3.898619161601743e-08
1
1
1
1
1
-1.5454418776636404e-08
-5.1403782655724907e-11
-5.8359115878885679e-09
4.5560399858947723e-06
5.81761277443666e-08
3.6953999447212734e-08
1
1
1
1
1
1.0213642845248795e-06
-1.2299237584469381e-08
0.00059973812332594705
7.1843102567709422e-06
0
-1.3320711260582663e-10
1
1
1
1
1
2.3495993027087819e-07
2.6107440977386718e-10
-8.0312553907947107e-06
3.2528988963239037e-05
-1.8917274612096998e-09
0
1
1
1
1
1
4.5788175535994448e-08
0
9.6674101835234784e-07
-1.1550662476231404e-05
-1.4568685710605303e-08
0
1
1
1
1
1
4.8336657773067414e-08
0
1.964796924749861e-06
0.0026031550415101701
-3.4746943111342591e-06
5.968949300930348e-10
1
1
1
1
1
-1.4232213416151634e-05
6.7606463833612892e-11
-1.332631082305954e-09
-0.00022590294313277513
-4.5624564215974873e-08
-1.1226320982029354e-07
1
1
1
1
1
6.777616939718143e-07
2.2894309060863611e-10
-0.00075830753516243125
0
-1.1702888948705009e-05
3.4833275025222282e-06
1
1
1
1
1
9.7304093100155484e-12
9.4918269530044402e-12
0
-1.0004477372375751e-05
0
-4.4698978896451175e-09
1
1
1
1
1
7.4507824846873121e-09
0
-2.2369048772290118e-07
6.9247109358908884e-06
0
-4.1234431277039872e-07
1
1
1
1
1
6.7928165199607629e-08
0
-3.6213916019637245e-06
7.336220769878295e-07
6.8693714645222108e-08
5.4374853131447183e-08
1
1
1
1
1
-8.2196288196084954e-06
1.3562605699754413e-11
-3.0362972674374252e-06
0.00027823287482134791
-8.5929725091107603e-08
3.4474763063813756e-06
1
1
1
1
1
1.3743819833315519e-06
2.5397938405402952e-10
1.0608624265823081e-08
-2.9266393194300366e-06
6.8752805268292578e-09
-3.4353656384297777e-08
1
1
1
1
1
-8.3020462533217186e-09
0
-2.7358786214612897e-09
1.0183496891468007e-05
-1.1986401385744766e-07
0
1
1
1
1
1
-3.3540870227874724e-09
0
0.00025768638969099684
1.0227679307129149e-06
8.9025365632482035e-08
0
1
1
1
1
1
-1.1395029189773951e-16
6.3656629859856999e-09
-1.4698762016498954e-06
-7.8707427114956654e-06
9.7186348604795116e-08
7.7482205807625034e-10
1
1
1
1
1
1.0313534267198783e-05
1.7137531481440682e-13
2.7496831129036379e-06
1.6451075135993438e-05
-3.995023822385441e-08
2.5685194717743294e-09
1
1
1
1
1
-4.7322384412314379e-08
0
-1.8421172877958255e-07
0
2.561625920930307e-10
3.0473921819589485e-10
1
1
1
1
1
-2.3056940989335539e-11
0
5.9324776548173521e-07
1.2907437445930008e-06
-4.6624952083248668e-08
0
1
1
1
1
1
-2.1225305334427038e-08
-4.8216273608921509e-10
-7.0870745932377913e-07
3.6578534844747966e-05
-6.3727578428126772e-08
1.6049837236795842e-08
1
1
1
1
1
-1.0127562313124169e-07
1.3777009706456983e-12
-1.0398443702003325e-07
4.3166234240141342e-06
-5.4135704418101459e-08
9.6015383414549545e-06
1
1
1
1
1
-7.3778933811622494e-14
-3.4605930423460995e-11
-1.8725864971161487e-05
-1.4769490256510566e-05
1.5285307122572461e-07
4.0485058702163235e-08
1
1
1
1
1
-6.4835678231960112e-11
-7.8579219172719212e-11
-1.5554454753932997e-05
-8.6965950099155104e-06
-5.1514751831346618e-09
-6.9655900136977847e-08
1
1
1
1
1
-1.1442121914394609e-05
0
-9.395086268116837e-05
0
-7.5974029781917119e-08
2.3861111097623181e-06
1
1
1
1
1
-7.2557180214999596e-07
-3.4183878325385534e-06
-0.00011748805928345031
-0.021204007360725176
8.2376062049542573e-05
0.010832847478077577
1
1
1
1
1
-0.003565428375550034
-4.0069442391643733e-06
-0.00012937500092190626
-2.4245071071832082e-07
-0.013397525752554363
-2.4996393698740564e-06
1
1
1
1
1
2.3019179255911695e-08
-1.6025400845310012e-05
-0.0033427579320639352
-4.6352609575967322e-06
-3.4789515532168777e-06
-0.015237827333129504
1
1
1
1
1
-8.6404884068354881e-05
0.0069438581460494206
2.665634909141713e-05
-6.2781814442851023e-06
-0.0001651968635262563
-7.6592176633596219e-06
1
1
1
1
1
-5.2759409158206336e-08
-8.7826033726228681e-08
0
-0.012108803664300406
-2.2845178927944902e-06
0.00014756800391818638
1
1
1
1
1
-9.1486222491228123e-09
0.00046529032522561953
0.015932213055834036
0.00063748386891872776
0.0037559284321811966
-0.018789478973777723
1
1
1
1
1
4.3135070651230355e-11
0.0012103794401276643
0.005566433808139426
0.0081577181752900164
0.0051266189389875677
0.039084292975297759
1
1
1
1
1
-1.7771307577832452e-05
0.00010767900833860758
3.2190371979205551e-05
0.011768825481024453
-0.0020503172323046931
-0.00080279294371927816
1
1
1
1
1
-0.016676700241615373
-9.3516779540050746e-05
0.015932733959607766
0.022621386444561475
-0.052122778410552177
0.00087538305583938214
1
1
1
1
1
-0.00012404062136771015
0.0016794118501165518
0.0033008017831268033
0.00066630157205298148
-0.017097399909946215
0.00035354567542480363
1
1
1
1
1
-0.0002393483167935303
-8.7751325714877388e-08
-7.6311874606286515e-06
-0.002997374098292014
-0.020864793927071208
-0.0063324501296318329
1
1
1
1
1
-0.004182428857972962
-0.00047246950122115219
-0.0015189505998201244
-0.0015322957471534037
-0.014017173287951476
-0.0011855733460734888
1
1
1
1
1
-0.013429003523385545
0.0013407166078918081
-0.00042205490068790847
0.00031652829272111525
0.00040830318867698023
-0.0037332024902616721
1
1
1
1
1
0.00024394078013065067
-5.8851815796953744e-06
0.0002943582935066723
0.00020477821416891887
0.0077828106400754651
0.019220988047563965
1
1
1
1
1
3.3493701167193103e-07
0.0006089256703374461
0.01000696229711881
0.033611210965573443
0.0011252885927248259
0.00022984367365002194
1
1
1
1
1
0.00034900624804581155
-6.0355774599569871e-05
-0.0026754369117251583
0.00070026149805827939
-0.00095696006551287667
0.0015847760753006791
1
1
1
1
1
-0.0041648503992232078
-0.001760219591050781
8.0492841710454931e-05
0.01578795594489614
0.0017550735933420112
1.1966304326571964e-07
1
1
1
1
1
0.00033431489626805733
-9.4660901276379502e-05
-6.2454017586676685e-05
-0.019732652023675589
-0.071271645756192756
0.017816561523463417
1
1
1
1
1
0.0034821442822502908
3.5506129928670425e-05
-0.02729636076226015
0
1.3852164849168577e-05
0.008315648408027277
1
1
1
1
1
0.0011711981642112642
-0.00033718880102373447
-2.0602871499884212e-05
-0.0024967284706291265
1.8708513921605218e-08
0.00015261494199466304
1
1
1
1
1
1.1030948697012869e-07
0
-0.0012490556030828042
-0.0069511953139685277
-1.3005609935739146e-05
-0.0051807908496785578
1
1
1
1
1
1.4057953570622935e-05
0
3.1699448744639783e-06
0.00019812973758937644
0.00045979180171141305
-0.0093651881418171413
1
1
1
1
1
-0.00017846283012429068
-3.8500878855400903e-05
-0.026576858603528847
2.439434414459138e-06
-0.00014773266385846974
-0.046324986360871637
1
1
1
1
1
1.0074239052359107e-10
-0.00032202351391349298
-0.0033161203282069001
-0.00030239639091265665
-1.8289949993311104e-06
-0.0036194331140759943
1
1
1
1
1
-0.0081435436392110934
5.7504562857896759e-07
0.013859776847634637
0.0010572178802821792
-0.0036664336487014222
-0.0020573896025113101
1
1
1
1
1
-0.00044658446898093181
3.8998137023087485e-05
-6.6049715840289447e-05
-1.4750167503432361e-07
-4.8131532634347615e-05
-0.05097211123505177
1
1
1
1
1
-0.0049824424685742637
-8.5081686346193794e-05
-0.0039371600928759512
-0.074532076444035422
-0.012634006315195834
-0.00050378768028042271
1
1
1
1
1
-0.00089180199338080677
-0.00065672307875786688
0.00062320140718449173
0.026716583823316774
-0.019135666846660588
-0.018576299708185345
1
1
1
1
1
-2.2246074676978861e-08
8.6478754084491759e-08
0.0050041908523324515
0.00023685061865169848
-0.019822727560527619
-0.0013060415807877872
1
1
1
1
1
-8.7180928652969101e-09
5.4096068794136756e-06
-1.3226597766044121e-06
-0.0017454350759281007
1.707713134900165e-06
-1.1018235617683696e-05
1
1
1
1
1
0.00044678056693665434
-9.9852396116367438e-06
-0.0086931713026602228
-0.019659533961568252
1.8097329857242445e-05
8.5943948489294403e-05
1
1
1
1
1
0.0022496499441008299
1.9320622541151408e-06
0.010882495361691091
2.1519534027151491e-06
6.2327252591014323e-05
-9.6222716925986892e-07
1
1
1
1
1
-5.4143248676600283e-07
0.00027101554547263271
0.00091802328220556221
0.0002897348167042885
-2.2365850305728603e-10
0.0046650515893741683
1
1
1
1
1
-2.2537543283506893e-06
1.7701798983541724e-05
0.0063235178395473577
0.00012949896202224775
-1.2063837036975927e-06
-0.0026543156134917101
1
1
1
1
1
0.0029945174723696759
2.5341627427893857e-05
0.0055110621193199746
0.015279820590320585
-2.580294653798235e-06
8.5086036903923769e-05
1
1
1
1
1
-6.5093141595638204e-05
4.8532731838032396e-07
0.044079105457962994
0.0014714877917238758
-5.4660291472752017e-05
-0.019564032131185103
1
1
1
1
1
-1.6021417775630911e-05
7.3264425914093308e-09
-0.0027890688011442495
1.7334996067670785e-05
0
0.0056253256637633382
1
1
1
1
1
-0.00018227170569404879
-0.0019002386594901136
-6.9231321827828223e-05
2.5035936272951858e-05
2.9469430726641188e-06
9.5585509283979098e-05
1
1
1
1
1
1.504257987051963e-10
6.5812551275989295e-08
-0.00024258017673754582
-0.00033494573527407352
1.6712441875895427e-05
6.7739193791694087e-05
1
1
1
1
1
-0.00016664917262762053
-0.0012050391972838774
-3.3469161340737883e-05
-3.1807676708761649e-06
9.0817120341110051e-09
0.00017409165298233313
1
1
1
1
1
-0.00024857736251253528
9.2357877459385028e-06
2.8885446102852397e-05
0.02901167749910024
0.00014071640230575163
-0.0006668089845095086
1
1
1
1
1
0.00043878425448632232
2.9978426017852167e-05
-0.012109189078549449
0.0021247007708668697
4.0929658397384189e-09
0.011413471857970123
1
1
1
1
1
-0.0033126947373502318
-2.1377094486277309e-06
-0.02722979944466903
1.6360155764047459e-05
9.5896256829158453e-06
-3.5293080178910375e-05
1
1
1
1
1
-3.0724493999449758e-05
7.384151836595347e-07
-2.4923362831286627e-05
-0.022022696015298875
-0.00046878316003352301
-0.010684557781720321
1
1
1
1
1
1.9542934372354043e-08
-0.00014875953328538142
0.022624930788952346
-0.0022178708111358211
2.9067114268489796e-05
-2.5844116329649858e-08
1
1
1
1
1
-4.6935329521223458e-07
-0.00027622163697262249
-0.029066465878433798
-0.0092382958115138584
0.024295575654034465
0.0020854018605770265
1
1
1
1
1
1.7112936370694759e-05
-0.00044304989993367277
0.0075703315397582837
3.9626093069837268e-06
-1.42329605247787e-05
0.0094913011117361556
1
1
1
1
1
-1.4005278361995033e-06
8.7702100882005906e-06
2.6679779109958044e-05
-0.006628172545432456
-0.091792016042988853
-0.00077716076216703569
1
1
1
1
1
-4.3608964482574426e-05
9.65138479391214e-06
-0.0080632123871343352
0.0029930108529829776
-0.0046475349570147904
4.8660901286639117e-06
1
1
1
1
1
5.5241351321687509e-10
-9.8311106793295603e-06
-5.5005778576277411e-06
-0.00045989212135878358
0.0016214925130647805
-0.023721445280673312
1
1
1
1
1
-0.0035706577211957941
3.0649705921524502e-07
-0.00087341054547570218
0.00087802670066607677
-0.00061703179072992228
3.2854045123308983e-06
1
1
1
1
1
0.0013639052615796482
-8.0056599878721398e-05
0.0085288893788016146
2.1125453727324994e-05
0.0024619097958175668
-0.034487861483484143
1
1
1
1
1
0.0066600260977874295
9.3599921260032403e-07
3.2757316869571021e-07
0.0038138127086002555
-1.9267427748511551e-06
0.00020571893207467585
1
1
1
1
1
-8.5814985154159939e-05
0
0.00016235012793034049
0.0002903724617457624
-1.8491424564813688e-05
0.018211881833478827
1
1
1
1
1
0.0072153993784420545
7.8401844860300572e-05
0
0.00012722526736710276
6.7354410417019874e-05
-0.051423097101262701
1
1
1
1
1
-0.0076409391789235255
-4.0704761529550069e-06
-0.0022530052351022955
-0.012935599604053235
-0.0099941374044013372
0.0032072912350887988
1
1
1
1
1
0.00014529021284160007
-0.0015790290666490192
2.318152962899399e-06
0.011110493502341438
4.6385321165646761e-05
0.00017613000592227998
1
1
1
1
1
2.1007206326872177e-09
-1.7009696444921609e-12
-0.0028202465366861705
-6.1408320575890573e-05
-6.2667169252369978e-08
-2.3976722621468772e-09
1
1
1
1
1
-4.4322352122368312e-09
0
9.6101741127962908e-05
0.0014801281566893545
-1.0568136644474817e-09
-7.7780892146389173e-07
1
1
1
1
1
-2.0748949718768381e-12
0
0
-1.7609086266064088e-06
-7.8862958881529717e-08
1.0765616748351306e-08
1
1
1
1
1
5.3807324888203337e-05
0
-3.8551433762481209e-06
-2.805405597405219e-07
-3.289666919582666e-10
5.6886729743599807e-10
1
1
1
1
1
8.4710048575474719e-10
6.0560734959918605e-12
0.0013211706272848098
0.0001920910646745058
0
-3.1888446929742277e-07
1
1
1
1
1
3.4181676967654923e-06
0
-1.3512146037030721e-06
-0.00023021357337102107
-2.5076765431882901e-11
-9.1003855772559576e-10
1
1
1
1
1
2.8529440895777054e-09
0
-9.8844442388288509e-06
1.7307591372565092e-06
0
-6.6645633836372103e-08
1
1
1
1
1
1.0100018258756567e-08
0
-1.0959249888510419e-07
-1.5413984982978366e-07
-1.3860862470370074e-08
0
1
1
1
1
1
-2.5551986501480522e-07
-3.3945164297052361e-13
0.002101661383195745
-2.3666602947836595e-06
0
-5.1851640342840708e-10
1
1
1
1
1
-1.4492736187476877e-07
-8.9872311373723383e-10
-8.5936379934352867e-08
-0.00015198671985206124
-1.230534311926738e-09
0
1
1
1
1
1
-2.2495556974509559e-08
0
0
-8.1224533506945983e-07
1.2496107716506182e-08
0
1
1
1
1
1
-7.8080534181096134e-08
0
4.8901603811349378e-07
-6.0550898044395364e-10
-4.310647193992929e-11
-6.0008230112034507e-10
1
1
1
1
1
-4.3919098697244278e-06
1.1703340383036987e-12
-1.1102044448696593e-08
0.00012088721786889653
2.4822716661597269e-09
-2.4791541737377342e-07
1
1
1
1
1
-3.463083012937926e-07
-6.5134183069632873e-12
6.6208918393519437e-05
1.8819696061949064e-05
-6.8668011993619108e-06
-3.5236990553496204e-06
1
1
1
1
1
9.4426191193212362e-12
5.144652670014405e-12
0
8.4768506486275665e-06
0
-5.4137112955925028e-10
1
1
1
1
1
-3.0189968669143611e-09
0
8.4763110580245668e-09
-4.370436105638195e-06
0
0
1
1
1
1
1
1.9550537354734846e-08
0
3.6275957795916858e-06
-3.4265928017937379e-08
8.331069724735661e-09
-5.3166937497669826e-08
1
1
1
1
1
-1.0018346829102356e-07
0
-4.5093620582837082e-10
0
-1.1894055365354651e-13
-3.4963704815680093e-06
1
1
1
1
1
3.5545967042714884e-08
0
7.122974567416567e-09
-7.8867531385766521e-06
1.0625111352688023e-09
0
1
1
1
1
1
-4.971079713992407e-09
0
-2.4345396342514308e-09
-2.4763882015475255e-06
1.8006190854060611e-08
0
1
1
1
1
1
-3.1462976788132348e-08
0
0.00028864507380025798
-3.5145300173396466e-06
-3.5568189223465624e-10
0
1
1
1
1
1
1.9956115428495652e-18
1.6587995101979581e-12
2.6761945846568453e-08
-2.5735506427701695e-06
-7.4611979714738428e-09
4.3532760731227418e-10
1
1
1
1
1
-2.6829540719350997e-06
7.2582287626090182e-13
1.3300402435054733e-09
-1.4514514259171827e-05
-2.5377396815153491e-07
-5.9121496866535078e-09
1
1
1
1
1
-3.1428822688699639e-08
0
7.6156730299415814e-07
0
4.6652018845974088e-11
3.6890593578762298e-10
1
1
1
1
1
-3.2697370669327708e-11
0
-9.7854896103557335e-07
-5.3245730370960344e-07
-6.086314071927034e-11
0
1
1
1
1
1
-1.3966369770491248e-08
1.4948392033652939e-13
9.2183520759387992e-07
-2.3980598680994456e-06
0
2.5086416776872764e-09
1
1
1
1
1
-2.3204742379446212e-07
3.6228509451548784e-11
2.4550955683768118e-07
6.4753034460466051e-07
-7.3290723618310732e-10
9.5694471267567192e-06
1
1
1
1
1
-9.6451317713868343e-15
1.8082257208602476e-11
-1.1146756772976391e-08
-0.00018113486410398111
0
-5.461341990468181e-08
1
1
1
1
1
-8.0272285172848558e-11
0
-2.172307945772843e-05
6.0615314268618532e-06
-9.0089321144764787e-10
-8.7943451980811511e-09
1
1
1
1
1
2.9683231275482177e-06
0
-7.53980731951881e-07
1.6035421453096251e-07
0
-9.4322399914199799e-09
1
1
1
1
1
-1.7825500658882516e-06
-2.1232495366089227e-07
0.00013766735843338137
0.0060850150699286966
-5.6444694602724927e-06
0.0051651131144444789
1
1
1
1
1
-0.00062452555994213206
0
0.00066914146963837685
5.7547262344299944e-07
-0.0031146461947108811
8.048400236972676e-07
1
1
1
1
1
2.0771036148840193e-07
-6.3720107609069968e-09
0.00062034047695287556
0.00013132812105199945
7.2464403377919062e-06
0.00011140441980216602
1
1
1
1
1
2.4602095525239539e-05
1.8963811966656496e-07
1.0563838675146509e-05
2.5855593184476191e-05
-8.6461684869924862e-08
-5.3990643782693707e-06
1
1
1
1
1
-5.6361135741873361e-08
1.9939865605453846e-07
0
-0.00018427634869629049
2.2704243037131556e-06
-0.00014866445315064953
1
1
1
1
1
-3.502658747052625e-08
2.6321965584415953e-05
0.00013570257337790177
0.00047325411711505154
0.00078834830616159274
2.1397250839843666e-05
1
1
1
1
1
5.4874210844881219e-11
1.0752754434131057e-07
0.010258150061459928
0.0040500905925100897
0.0021210251790679062
3.3778254505786466e-06
1
1
1
1
1
-1.7771263842112552e-05
-8.8625560425929011e-05
8.6256114304509097e-06
-0.0032065084961194145
-0.0018538476892305438
-0.00052791723906527477
1
1
1
1
1
-4.6267901245564975e-09
4.0631585224313512e-10
0.00032065349185197756
0.012022052488592469
1.2735972249759729e-09
-0.00016238474987141302
1
1
1
1
1
-0.00013600526070022283
1.1074774551134595e-06
0.00019355976940237584
0.00030724049092434758
-0.0031893764720563262
-0.00041429640713961676
1
1
1
1
1
0.00023792833562539219
4.4576642453789859e-09
-0.028865748323270008
-0.0028292179789479346
0.0010483832335026013
-0.00032389735430103243
1
1
1
1
1
-0.0020326343842566293
-4.1509984883511553e-08
-0.042503960827816094
-3.9083489134453729e-07
-0.0036279740376474038
0.0021670776747632486
1
1
1
1
1
-0.0017558368241297911
2.2730306506722274e-08
-0.00032658837961543002
-0.0048703096836273888
0.0010081834152130614
0.0022290612905130464
1
1
1
1
1
0.00013861074797270876
-1.8198971178096188e-08
0.00093392442770507767
3.9389953298077208e-05
0.0025748722634787087
3.4402609835755127e-07
1
1
1
1
1
1.393088037993961e-07
-7.018499044208645e-05
-0.0097350254545695292
-0.033203331202297834
0
2.1510208514326179e-05
1
1
1
1
1
-1.1083855146444136e-06
3.2163843247583774e-07
0.00041878954538597795
-1.1966077241853774e-07
-4.6240698644661733e-05
0.0020999720258369392
1
1
1
1
1
-0.0046900279381783799
1.9707628697734911e-08
4.9621820495993064e-06
0.02051230847784169
-1.5537393050478538e-07
-4.3135178001863351e-07
1
1
1
1
1
4.6607532315513598e-05
0
0.00017191432142366317
6.3362403470573487e-05
1.2484922164357245e-07
-0.00089871557998059514
1
1
1
1
1
0.0015474776826861531
0
0.078971888487925454
0
7.3164545641307337e-06
0.002738311893527448
1
1
1
1
1
-0.00056277463205686642
-1.4850836057861691e-06
1.7290373545494172e-06
0.00017176640839942551
-1.1086194820930486e-05
-8.8998906488042579e-05
1
1
1
1
1
8.9030659152977067e-07
0
-0.00099838606411278342
-0.0065861247638738657
5.326796516275775e-05
0.0022224770922320922
1
1
1
1
1
-0.0018661139972697858
0
1.6153629183281463e-06
-0.00025224761866793501
-4.225941813173635e-07
0.011668357552747295
1
1
1
1
1
-0.00017800648258967978
1.0716223292690268e-06
-0.026593608119191512
-1.1573662415022549e-06
-1.993913417819075e-07
-9.517955489082739e-06
1
1
1
1
1
6.8749909690930776e-10
6.3087638650113738e-05
0.0046443721791094277
0.00034866008831578116
-1.5607198019814085e-06
-0.0019471203810582879
1
1
1
1
1
0.014161886961545227
0
0.003473052848749541
0.00058362354879455539
0.001183203642781389
0.00091410912045940783
1
1
1
1
1
-0.00045401449788889372
7.716577949111776e-08
-0.00021193361194168293
-8.4460741067402823e-08
-4.4061987214802096e-07
0.0001562083642715837
1
1
1
1
1
0.0026568869069169528
-7.4436822489040133e-08
-0.0060412850971117262
-1.788188916615187e-06
2.0438824422432391e-06
7.2431552312411688e-07
1
1
1
1
1
0.0012090706992274136
0.00019178280212427376
2.7308086579107113e-06
-0.026517278827484139
0.0061819529551168885
-0.0001733144170174736
1
1
1
1
1
-3.4757040041616229e-08
-3.3372164585584411e-08
-8.2051909571690215e-05
-0.00065547180072960429
0.017521955107689446
-6.2970083525014874e-06
1
1
1
1
1
-1.9558391278160701e-09
-6.1919718055549543e-08
-1.0510668853138639e-06
0.007239179338472017
2.6097791073044919e-06
-5.9220349660858911e-06
1
1
1
1
1
0.002147840386900805
1.0543452126075121e-07
0.0027816864860447971
0.024373177165262716
-2.6582193319995016e-06
0.00022718129714365657
1
1
1
1
1
-0.0015441298080706414
4.2303613970097898e-07
0.00031273829469145902
2.2474998772345616e-06
-0.00040875736979284732
-2.0202011307364793e-06
1
1
1
1
1
-2.0965995147029934e-06
8.1355535739036983e-07
-1.3541143345389832e-06
-1.381297214632048e-06
-2.241838281372894e-10
0.0003620532052700807
1
1
1
1
1
8.8444972595225601e-06
-6.6790356053044891e-11
0.00016857149701366347
0.00012896801426194585
2.3810234562008323e-05
0.00089952107662005462
1
1
1
1
1
0.00082939875094507844
-1.9946478177638587e-05
-9.2755585081866439e-08
0.00070668705407784475
0
1.1069638646971542e-08
1
1
1
1
1
-6.5093145564381371e-05
2.7716999676454813e-05
-2.7341853299678111e-07
-1.658940159061105e-07
-4.2903869590691944e-06
-6.7126500386258667e-05
1
1
1
1
1
0.00014107617238896897
-1.1106947338847662e-08
-0.0097090738595267193
7.819610082630824e-07
0
0.0056609417963196908
1
1
1
1
1
-0.00013717398047961103
-4.5641730812798978e-07
1.7872650458205026e-06
-3.385642984516429e-07
-5.1582352643676377e-06
0
1
1
1
1
1
9.5725255380416056e-11
-1.011437926049672e-08
-6.6507763254902984e-05
0.00025561148868738742
1.0120989397963658e-05
0.00019507491353946201
1
1
1
1
1
-3.8274109946567949e-05
-1.0347777765616798e-07
0
-2.4798100743778659e-06
8.2184481262042845e-09
3.9480121029429615e-07
1
1
1
1
1
-4.4506432979756777e-08
-7.433107952845851e-07
-6.7996781026129493e-06
-0.018418687854360436
4.3564168103008464e-08
-7.3245739806339688e-06
1
1
1
1
1
4.8927478455370295e-06
-4.2379820552754255e-08
-0.000620910623177333
-0.006990862037364598
1.2677002938380698e-07
1.2825819854924817e-06
1
1
1
1
1
7.6264937281845116e-08
-9.0246752197646325e-08
-7.4897207993494008e-05
0
-7.8597034896514257e-06
-1.1776465684173341e-06
1
1
1
1
1
3.3830276970287831e-06
-2.3844643143343411e-07
-2.8985172495153209e-06
0
5.2982617791115025e-07
-0.0049668743650960771
1
1
1
1
1
-1.0664578217118081e-07
1.6962504250429231e-05
1.4692775779747098e-07
0.011909299132698861
-9.1657657836189994e-06
-2.5844116329649858e-08
1
1
1
1
1
-6.4498471787683896e-06
3.9254498428146232e-08
0.00063546598904034711
-0.0089350955020942938
-1.8786553294936828e-07
-0.0023176117286555394
1
1
1
1
1
0.00012666774242734113
-0.00012294147852171482
0.0087373154793511047
-1.4801490889977441e-05
8.0891413877344704e-06
0.00011252948969185859
1
1
1
1
1
-9.5582973978033652e-07
2.4266481330275806e-08
3.4152344998812381e-06
-0.00015450586478497921
-4.7783506044339196e-06
0.0013629899496393448
1
1
1
1
1
7.5639392147668123e-05
6.6776300019215874e-08
-0.006905820994124596
0.00093998962836625488
-0.00050665503225159956
1.2725642801748784e-05
1
1
1
1
1
-1.8218106391375647e-10
-9.5861933722862401e-08
-0.00012118294352148777
-0.00039402950544106054
-0.00072678530061052213
1.8808306353489233e-06
1
1
1
1
1
-0.00078928534110109954
-9.1483557026972317e-08
0.00024581878078069397
0.0015530360698082872
0.0006501421233839679
-7.1581539869888619e-07
1
1
1
1
1
0.0014912744399847226
4.6972263430262178e-08
0.0080155132168077889
-9.3900923762758163e-06
0.001330711648126217
-1.7070857377576888e-05
1
1
1
1
1
5.0049994348851196e-06
0
-1.4905318423524631e-07
0.0046498508290574135
9.3092628789314916e-06
0.0022432744561290841
1
1
1
1
1
-0.00035838322795967646
0
0.00016479989485889822
4.2170242630213417e-05
-2.7008295279752107e-06
-1.1535352110280014e-07
1
1
1
1
1
0.0088045180356941775
-2.6402441456827505e-08
0
0
-0.0076081250005804414
0.00011753777779084342
1
1
1
1
1
-1.0494557980669862e-06
-1.0033076588719849e-10
-0.00015468261788001094
-0.0037449989411240834
6.2952045276426705e-06
0.00098082298199813505
1
1
1
1
1
-6.3513707790982914e-05
1.9970978835436305e-08
1.6540736605511285e-06
0.01158634592840535
-4.5685222396313354e-05
-2.6989080473764233e-06
1
1
1
1
1
-3.4827230992642041e-09
2.3478970234727206e-11
-0.0044112688631081842
0.0031661397388150882
-3.228452096815351e-08
6.5237902351781962e-08
1
1
1
1
1
7.1646957424384943e-08
0
-0.0057961672055430831
0.0022437880678975951
-3.224718519757828e-07
-1.4856900796660681e-06
1
1
1
1
1
1.2531850187907218e-10
0
-1.3933882234007607e-05
-3.0930099518612892e-10
-2.892752564894744e-07
2.5409181329814447e-08
1
1
1
1
1
-0.0001079945710556574
0
-1.5160148248460956e-05
-4.2572150268058728e-06
-2.7711995643986927e-05
8.1548771365130335e-08
1
1
1
1
1
-8.8888998568776393e-05
-4.984236711721313e-10
-0.002021314969852779
0.00059267884360710683
-3.679764457880864e-07
-7.9011798130283023e-07
1
1
1
1
1
-3.8479017626025524e-06
6.460268704089923e-12
-0.00021121928716422037
0.00020458601454590361
-1.9704158173112534e-07
1.2162305251560873e-07
1
1
1
1
1
-2.9624337326433503e-05
-3.1501334751878384e-08
-1.3171050466977624e-05
-1.8973047427313302e-06
-1.2959544575433503e-07
4.7279060335632082e-07
1
1
1
1
1
-3.7213919092038205e-05
-1.1112320128567175e-10
-1.146601685662818e-07
-2.7463149221355083e-06
-4.2144705215628635e-08
1.1027091173197873e-07
1
1
1
1
1
-5.8407222858789425e-06
3.5100054058841643e-10
-2.8804401628291426e-05
-5.0053812937315927e-06
0
1.2560012797455942e-07
1
1
1
1
1
-4.8673754251353623e-07
2.831737638781415e-10
-9.2545620750394771e-08
-2.3800591260369582e-06
1.8917274612096998e-09
0
1
1
1
1
1
-4.5725126435948391e-08
0
-4.3123659474088465e-06
-8.0223450319872633e-06
9.7510459963716158e-09
0
1
1
1
1
1
-9.1924162681877512e-08
0
-4.90280925230791e-07
-6.7738402877717827e-09
-6.9864310345688701e-06
5.7072689257692368e-10
1
1
1
1
1
-2.2920553950752562e-05
2.6234160471290816e-10
5.8046774377868713e-05
-6.06981888712677e-05
1.1179993501168526e-08
4.4036129854601449e-07
1
1
1
1
1
-6.5887509226452756e-07
3.9347395745933863e-10
6.6011054445069006e-05
0
-5.3906226022494141e-06
-5.6974651976010782e-06
1
1
1
1
1
-4.9016359320155669e-13
-3.8903952596619431e-12
0
-6.5178305971918856e-06
0
1.6532121040730373e-07
1
1
1
1
1
-1.6927451056280257e-09
0
-2.2366142981753518e-07
0.0013567703728351583
0
4.1234431277039872e-07
1
1
1
1
1
4.6667566470768391e-08
0
-3.5919821770610471e-06
-5.9268955461730498e-07
-3.3578781330770024e-08
1.171589262786703e-07
1
1
1
1
1
9.6206703839074246e-06
-3.1424178864793337e-12
2.6105749711403636e-09
-2.3946608912183842e-05
-3.6650285375156057e-13
-6.6790984410977128e-06
1
1
1
1
1
3.9381481906435101e-07
3.5986613357293912e-11
-0.0007098791831775485
-1.1170512174838167e-05
2.138044344439965e-10
2.2237646425298029e-08
1
1
1
1
1
6.0136488036515736e-08
0
-7.8164035792213966e-09
-1.1764839458101652e-05
-3.4109782417289483e-06
0
1
1
1
1
1
1.5555420092074636e-07
0
0.00083015757099625797
-7.607325708769305e-11
-3.3892041456433332e-08
0
1
1
1
1
1
-3.0757965269468312e-17
2.47136589733809e-09
3.3498866475882596e-08
2.5883583750187626e-06
-5.6566074046440642e-08
5.4193658924660055e-09
1
1
1
1
1
3.9130704452513631e-06
1.380157563399694e-13
-2.7501534473177841e-06
-7.9839269454490418e-08
4.1060940255051969e-07
9.6249697708731887e-08
1
1
1
1
1
3.9547364131101682e-08
0
1.1498779905782937e-06
0
2.5418495913538963e-10
4.561500257555935e-11
1
1
1
1
1
2.9183357394037673e-06
0
-1.3559765877547473e-06
-9.6727745294463929e-07
-5.8146264371313174e-09
0
1
1
1
1
1
4.8834140965915561e-08
9.2297590250952832e-09
1.4108808003289088e-06
-3.8970881431384296e-05
1.7152034575739519e-08
-1.7027847393722539e-08
1
1
1
1
1
9.2755862386945196e-07
-3.3815192816191695e-09
5.3527522710423127e-06
6.1976890148040538e-06
3.0202597418427778e-09
-7.5337647400491027e-06
1
1
1
1
1
9.6255630084493506e-14
-8.4568667338729021e-12
-8.2752745446476145e-07
-5.7541393318683775e-06
6.845305455106183e-08
1.0668621974193227e-07
1
1
1
1
1
1.7186897290031731e-10
-2.4679322484240829e-12
-5.1009214390334647e-06
-3.0609251570929762e-05
4.5429446041736418e-09
-1.2040848849244274e-08
1
1
1
1
1
2.1913056098051192e-06
0
9.9749298755325784e-07
0
1.3151605140653809e-07
-0.00023644049881557495
1
1
1
1
1
-6.0556797753288056e-07
-0.0023189817278583447
-0.0016736672523653337
-0.010254856834548898
-0.034852334167732417
-0.0089850341025689024
1
1
1
1
1
-0.001725353781372342
-1.4656404285508612e-06
0.022870509208324948
3.4927761204407529e-07
0.013397525752554363
-1.2736962988840062e-06
1
1
1
1
1
-1.4827947360744385e-07
0.00021425569917533219
0.00073835763139025381
0.00012515227145900299
-2.2693112474652368e-05
-0.014763331595443414
1
1
1
1
1
-0.030737699686671945
-0.0069161728576844468
1.6530028734128771e-05
5.1635403278133079e-05
-0.094833372100036686
0.00052358456917521315
1
1
1
1
1
-1.6620712605375365e-08
5.3194599646858939e-06
9.6682181120688997e-05
-0.0091461865685535642
-8.662491410998076e-05
-0.032763713639063087
1
1
1
1
1
-3.0506611967852663e-08
-0.00015713636662137613
-0.014492090616409482
-0.082536295658764192
-0.0014039053121434547
0.018373551698479082
1
1
1
1
1
-9.4734045819041227e-11
0.00016194432960299292
-0.0032379156050677733
0.0062110789357632352
-0.0041803689466494414
-0.0013156704171093112
1
1
1
1
1
-3.3261761985550996e-07
-0.00015373944717781982
-6.6571997889446473e-05
-0.0014813770484447923
0.00043138351013009499
-0.00045126985116715848
1
1
1
1
1
0.013410098689396986
0.0035573132400853842
0.0065375583913824522
0.022755127898439653
0.00028331205386101306
-0.00059134519580237666
1
1
1
1
1
-0.00011406743108097061
3.1597725118577209e-06
0.0045999265342448479
0.0085365539044693073
0.0071085219569254057
-0.00053372211427830994
1
1
1
1
1
-5.9943960597067614e-05
-5.4115399264469461e-05
-0.045345190699635558
-0.0029922234513418012
-0.019172787408054212
-0.0063324509656431565
1
1
1
1
1
-0.0069788050791634876
0.00021717851409211943
-0.042791706788868039
-2.7852551710261585e-07
-0.0065098000479528418
-0.00030907445577443886
1
1
1
1
1
-0.018333441289845331
-0.00040226309006312296
2.5242646760874579e-05
0.00074877164817353196
-0.0041027159027962421
-0.0095788182809383102
1
1
1
1
1
0.00013016025198696663
-5.8825780635625645e-06
-0.0019379020648098082
-0.00010251296045487917
-0.0012144985891061246
-0.019220406344944357
1
1
1
1
1
4.4510738834124363e-07
0.00071207714488116228
-0.046310932938881381
0.0013775508934658013
0.0032795072800545595
0.00012904615135024615
1
1
1
1
1
0.0033718979336252886
-3.5263188241576512e-07
-0.00024441740217210695
-0.00089499641125006721
0.14871696577556204
0.010575070430441064
1
1
1
1
1
-0.0058436935811610165
0.001760240150807499
-1.071111481570059e-05
-0.0089077183880858189
0.00012177541741716415
-1.9355233361490987e-07
1
1
1
1
1
-0.00016318444266593147
0.00031461892368349765
0.00015157980207760712
0.073507695499653386
0.071272868543947682
0.028966030595472331
1
1
1
1
1
0.00028158429205239646
-7.028196840110891e-05
0.098431914509997803
0
-6.5732710219539226e-05
-0.0024495868306185727
1
1
1
1
1
0.0026050171004269639
0.00033756247149249876
2.7300158130723596e-05
0.048988084137282638
-2.9747899368506975e-07
0.00053584733593714301
1
1
1
1
1
7.5141570102022197e-07
0
-0.0013928165980569055
-0.007033846640144812
0.015684426801123173
-0.0014704051529008122
1
1
1
1
1
0.015662853322161181
0
1.9659059965305952e-06
0.00043160956395354202
0.0019792679281961786
0.013645936507718023
1
1
1
1
1
-0.00017846283011000276
3.4809616428391693e-08
-1.403138528383483e-05
2.2715983792636075e-07
-3.8223982559651857e-07
0.045697905141198945
1
1
1
1
1
2.2908644390394964e-10
0.00030308762294591041
0.017613523257133272
0.00048600758618148936
-5.2630505741469449e-07
-0.0088301299191414061
1
1
1
1
1
0.010859530503601836
1.5234970646585036e-07
0.0017362499604366005
0.00095043432084075479
0.0039912536589274961
0.0011865545610526902
1
1
1
1
1
0.00077603401760017033
2.7350353743620795e-05
0.0290199806267279
-1.4750167503432361e-07
8.5546955065069765e-05
0.05098749253040661
1
1
1
1
1
-0.1152743739573452
-8.5203768773932389e-05
-0.011118631882355521
-0.074467286775734429
0.01264631446616139
0.00050229946619099292
1
1
1
1
1
-0.00012606668700127031
0.00065672307875786688
0.0006080615022919562
0.028394630811957911
0.025614022484805571
0.068724451073229026
1
1
1
1
1
4.5974368981228036e-08
4.2702428256447163e-05
-0.036562419611227089
5.9952308765891156e-05
-0.03221331829054825
0.0024612465323556099
1
1
1
1
1
6.1688127233688554e-10
-1.6265133206944616e-06
2.148079685831687e-06
0.0089134208155612141
2.609779090002291e-06
7.2579766034664379e-06
1
1
1
1
1
0.0015784079537642778
-3.486721110843228e-05
0.011997032182719174
0.02485265229195498
-0.00010104605607201152
0.00048623425420441158
1
1
1
1
1
-0.0047188218012033135
-0.0026324876172310603
-0.063860558917109858
-1.7099207790635749e-06
-0.00020351983118635579
-2.6443228242014168e-06
1
1
1
1
1
3.1191248432500657e-06
6.8036641735986668e-05
0.00026983052898207151
0.0011041743011347687
1.0366866156877389e-08
0.0048990376240125215
1
1
1
1
1
-2.5713554190769968e-06
1.1607253525961781e-05
0.0061181499196205531
-0.00018141079036258748
1.1513647926815639e-05
-0.00074174932546583288
1
1
1
1
1
-0.0018472167477685205
-9.518625760689833e-05
0.0052954326798244295
-0.016499144304176396
3.8108054943783584e-06
2.0406614105365146e-05
1
1
1
1
1
5.5908489042772946e-05
-0.00052281445308241916
0.038904776275446064
-0.0006447373339503776
4.9265835717433377e-05
-0.00027671936526573913
1
1
1
1
1
8.5503428214880314e-05
0.0018648832544239957
-0.0013824661656465227
-1.7640646517490453e-05
0
-0.0055800343670873399
1
1
1
1
1
-9.540983198297475e-05
0.00099575875336679648
6.9455332034037477e-05
4.4436926846451428e-05
1.7170423593560124e-05
9.6452635240547946e-06
1
1
1
1
1
6.4273093383827802e-11
-1.6276345352809234e-08
-0.00012266983965129936
-0.00086226772292009716
-4.1091099783633117e-06
4.1676308401531199e-05
1
1
1
1
1
-0.00021236864926736949
-0.002526964738096279
-3.3469161340737883e-05
-1.7716588112566655e-06
-4.2945530283470905e-05
-0.00058338227489425614
1
1
1
1
1
-0.0079361242219774877
0.00076155560845845671
-3.8511858193101623e-05
-0.017293061298186977
-1.415136973802447e-07
-0.00067933468547690665
1
1
1
1
1
0.00025048850005931974
0.0029159151875212327
3.0268722647075698e-06
0.0077782303514111022
-7.7488413892955144e-08
0.014768714100859609
1
1
1
1
1
0.00493528135041112
-6.7155398959387597e-06
-0.027574650971015961
-0.00010383375576269145
9.0025804331311402e-07
7.5997968705259736e-05
1
1
1
1
1
1.2053136894624365e-06
-7.8836532789868758e-05
-2.4955773475691896e-05
0
-0.00059018437837354983
-0.0007331884094741117
1
1
1
1
1
-1.493656968340212e-07
0.0001622121770002307
-3.3321063147363649e-07
-0.025926216845493056
-2.6683934975053385e-05
-2.5844116329649858e-08
1
1
1
1
1
2.6276611094286255e-06
-0.00061009682363108257
0.00035941077271270616
-0.015769392294245781
-0.023511238303814692
-0.00074869491647012087
1
1
1
1
1
6.5866526227799789e-05
-0.00046669497975054922
0.0036143020232016314
-1.4767431317183108e-05
-5.7888966050314998e-05
-0.0070131046555233769
1
1
1
1
1
0.00023573292929184516
0.0040415038184537927
3.4329387245168633e-05
0.014952458845559785
0.091802186449672751
0.0034627752609501503
1
1
1
1
1
-5.7335791574095872e-06
-9.644112909939771e-06
-0.011482820569529581
-0.007551874678710103
-0.0037639000968472044
-6.0496285482557724e-05
1
1
1
1
1
6.5452440066781567e-10
3.8181654176437022e-08
0.00034817355606564092
3.0210139803466899e-05
-0.00081676796861039895
-0.0010245517397205878
1
1
1
1
1
-0.0041294359206699074
-1.3030254592642446e-07
-6.7864480530166447e-06
0.0005415429499101719
-0.0011395089507622552
-1.7984718619607292e-06
1
1
1
1
1
-0.0012235670813470975
0.004820934302478797
0.008276772064301002
5.6082774564845999e-06
0.004110676588880896
-0.00064576631173227485
1
1
1
1
1
-0.0042145512820080172
7.6693886900615472e-06
0.0005770865553090316
0.007482839896527765
-2.4639773725215915e-05
-0.0040162387268916737
1
1
1
1
1
0.0015352834713313467
0
0.00010076662269325063
-0.00019355579211133674
-5.3228913765346806e-08
0.007840039791658291
1
1
1
1
1
0.00097432891512025507
9.9020277230619335e-06
0
-0.00032896131572568226
-0.010162895423879903
-0.00042467233986768365
1
1
1
1
1
-0.010772387043537526
4.0795500110059147e-06
0.00012726029830848531
-0.0076655654664839635
0.024413871973288353
-7.0216196406169221e-05
1
1
1
1
1
5.6159044412770291e-05
0.0024674354277326909
8.3240757835213958e-05
0.011983962465329442
-4.7410302295185e-05
-0.055001807080795308
1
1
1
1
1
-3.7602275566824646e-09
2.8823490713423334e-11
-8.1724546402395652e-05
4.2649184089939369e-05
1.0525482473905372e-08
-9.4991268074219412e-09
1
1
1
1
1
-6.0626706908019405e-09
0
0.00011016548334960149
-0.0022864660074159381
4.2918786767456148e-10
4.2793616546198899e-07
1
1
1
1
1
3.8864049049063507e-11
0
0
2.6318071651713374e-06
-2.3035282591622873e-10
-2.7561388955756272e-09
1
1
1
1
1
-2.2950301874292547e-05
0
-4.8883062302335907e-06
2.2074615637661421e-07
1.1307572604526425e-10
-6.5398382912477003e-09
1
1
1
1
1
-2.9020235262300909e-09
5.0169061308790712e-13
-0.00059061175360457317
-0.00054845777676041318
0
-3.1906610091957105e-07
1
1
1
1
1
5.4504155355303719e-06
0
8.1588120027980546e-07
-0.0022990621368618722
2.1793962450927988e-11
2.028682835952259e-09
1
1
1
1
1
-1.3524146743397936e-08
0
-1.4073947852824422e-06
-1.869328805848366e-06
0
-1.1502525071037917e-08
1
1
1
1
1
-1.0247607914606733e-08
0
-1.0779275988462086e-07
-3.9184845384539795e-06
0
0
1
1
1
1
1
-1.8159206042158456e-07
1.5637487224686298e-13
5.2341012560421672e-09
-9.0419621895579134e-06
0
-5.2134456069836897e-10
1
1
1
1
1
9.1305925040266877e-08
1.6824186254162399e-10
4.5430218225434901e-08
-4.2871874227274799e-06
5.0166525941889462e-10
0
1
1
1
1
1
-4.8037272634684119e-08
0
0
2.9159705394347893e-06
-1.4232833999217916e-08
0
1
1
1
1
1
-1.9991019235804092e-08
0
-4.8303579670473735e-08
-4.9134446288962198e-09
4.7947473303411563e-11
-1.0642072143429101e-09
1
1
1
1
1
-4.3570766417697644e-07
-1.2212726047252272e-12
-1.9462415654279886e-08
-3.0174603662850321e-05
1.4661873834574981e-09
-1.2610332132431692e-10
1
1
1
1
1
-1.9267452413853231e-07
-1.1509262439351478e-11
-0.00028383162334160925
0
1.0008301581406398e-06
-9.6661927025253378e-07
1
1
1
1
1
1.4012839833776629e-11
4.0294181068888972e-12
0
-5.9576302418637765e-06
0
5.5500136862209489e-10
1
1
1
1
1
-7.8696192019483839e-09
0
1.0740271150562471e-07
-2.3934994531643206e-06
0
0
1
1
1
1
1
-1.0124872337996802e-07
0
-4.383054881936619e-08
4.7546648900771841e-07
-2.9775601466535089e-10
-1.1621331277863466e-11
1
1
1
1
1
-3.3900414395681842e-07
0
-6.3908617409900011e-09
0
-1.041688739641218e-13
-3.1069571410040974e-06
1
1
1
1
1
-3.1164587367395508e-07
0
-3.0652722873742107e-08
0.0010411673515825001
-2.6724603279053278e-09
0
1
1
1
1
1
-1.9019561113306997e-09
0
-7.4578367101108953e-10
-4.7409873018273449e-06
9.0357494678727089e-08
0
1
1
1
1
1
-2.7625516802910475e-08
0
-1.1049261491887998e-05
5.1297940867198911e-06
3.4119188575197993e-10
0
1
1
1
1
1
3.0757957383598604e-17
-1.6289343713732907e-12
-6.4428052905156219e-08
7.8728805201114442e-06
-7.4840945986787723e-09
-4.2685586469298e-09
1
1
1
1
1
3.9914281510605651e-08
-1.10983221885045e-13
-7.7124150814204887e-10
2.9034704669460001e-05
2.1057528348725611e-07
-7.0175123165090464e-09
1
1
1
1
1
1.3560481805968692e-08
0
-1.8585064942993959e-07
0
-9.7386234352689815e-11
1.203447559284099e-10
1
1
1
1
1
1.9641648768391831e-11
0
-1.0031859850752781e-09
2.7323621391085207e-07
-9.0672399535884414e-11
0
1
1
1
1
1
6.6109636340039081e-09
7.3740913399851785e-15
-1.775896567286168e-07
3.7962330888404588e-09
9.3068671971203774e-10
-6.4155246726371384e-11
1
1
1
1
1
-6.8307757249232705e-08
-5.5398000875664086e-12
-1.3712629180512896e-08
2.9212161638404481e-06
0
-9.5884784763120521e-06
1
1
1
1
1
4.3584314710137397e-14
-1.7353600199324656e-12
-6.6263565094135973e-08
-0.00072598530886521656
0
-9.7887821271138021e-08
1
1
1
1
1
9.0914463866077395e-11
0
-1.7469690552133716e-05
-1.852000501219641e-05
2.4910381574713257e-10
-1.4788948073342063e-09
1
1
1
1
1
-2.962871904286936e-06
0
-1.474586286541209e-06
0
0
-2.4525946842692371e-07
1
1
1
1
1
-5.3584488700076339e-07
-1.3449808705729256e-10
8.9686221389077008e-08
-6.3152516981923146e-07
-2.6920945090806463e-06
3.4451266092187849e-06
1
1
1
1
1
-0.00062460522666248791
0
0.00012612776373048678
3.2687576553855299e-07
0
-1.3035810443994929e-06
1
1
1
1
1
5.2339633985876526e-08
4.0443446730698724e-09
4.272415673880605e-05
6.9271244981667596e-05
-4.0300423211460209e-06
0
1
1
1
1
1
-9.2207843602092675e-05
-1.2595080764350316e-07
4.355508963405155e-05
6.0132490399898905e-05
-1.0450704628822207e-08
-1.8459366393785964e-06
1
1
1
1
1
-8.3118391446981198e-08
3.2009618280025814e-08
0
3.8953403624469525e-05
-0.00012554631650531434
-0.00028171974976899948
1
1
1
1
1
-3.9949074351114982e-08
-1.7007853179439951e-08
-7.6284199887142923e-09
-0.00011981579627091539
-3.3304255370291144e-08
-0.00011802240324668466
1
1
1
1
1
-4.5980209536855853e-11
5.5917499566745138e-10
0.0027626447920273823
0.0092091578294305233
-0.0013182949625431227
-3.989464034391792e-06
1
1
1
1
1
-5.9551409335697797e-06
1.9751146581295161e-05
-1.9906534458291529e-05
0.0059149075700832441
-1.0711235589635011e-05
-3.2120938925034331e-05
1
1
1
1
1
-0.0026552292256200537
1.2872823313470379e-07
2.956721738175445e-05
-4.3156714320647329e-05
2.3512113771503464e-05
-0.0005635919481636587
1
1
1
1
1
-9.4608421593563635e-05
1.643427282477905e-08
-4.431891357038135e-05
-0.003740544502542003
4.5325655563412956e-08
-9.050258077301614e-05
1
1
1
1
1
-0.00053908595020507708
1.5444838126064521e-08
-7.6392393215122409e-06
-0.013837609213593453
-0.0011380530254395205
-0.00025213620548279861
1
1
1
1
1
0.0015688443802739384
3.6723897726403451e-07
-0.00043657405015913716
-1.4544583929719209e-07
-3.047203383379037e-06
-0.0016469279429662893
1
1
1
1
1
-8.3109659016115889e-13
4.3677270375195588e-08
-1.8412991984887055e-05
0.002438179724799816
0.0018473450115622696
-3.2171423357428699e-06
1
1
1
1
1
2.4274894648188505e-08
8.1364509895885288e-08
0.0037070584531492764
0.00014468428687835434
-2.9706647858778411e-06
3.8763463897247967e-07
1
1
1
1
1
9.8778942872567816e-08
-6.8125932364532764e-05
-0.00024293126616563353
-0.00048010470165977788
0
-4.8142728143321767e-07
1
1
1
1
1
-1.4271365610300396e-07
-8.8019738951669779e-08
-0.0027431886885215286
-2.5014584675197067e-07
-7.9276563736207568e-05
-0.0027252939675202589
1
1
1
1
1
-0.0025533588599871591
1.940765327778779e-08
-1.4658133156002083e-05
-1.5052308767565863e-06
-4.6242794243966912e-07
-4.3187653039869056e-07
1
1
1
1
1
0.00025036750665822209
0
-0.00015826584297401304
-8.1302524892102224e-05
6.1169390018909873e-07
-6.9663576801224235e-07
1
1
1
1
1
0.0024190113296922388
0
1.4216313693972537e-05
0
1.2148041056359582e-05
0.0017551377481229121
1
1
1
1
1
0.00027778342484577242
-1.3676821026306116e-07
-1.7416350926890239e-05
0.00011232043772019617
-2.470651760248222e-06
8.5778114567197883e-05
1
1
1
1
1
-8.3124065064796837e-08
0
-0.00093911992148125651
0.0002506027097032822
2.0803545551173295e-05
-0.0011843959733055783
1
1
1
1
1
-4.4631831121308633e-07
0
-4.1011395475310727e-07
0.00031350275250308107
-6.6407722543555492e-07
1.977153169329216e-06
1
1
1
1
1
4.2297133275983326e-05
-6.671772573676155e-07
-0.026591234351669046
-1.7039933949961833e-06
3.8223982559651857e-07
2.198300008232881e-05
1
1
1
1
1
5.104468873110166e-10
2.2284610098671628e-05
0.00035749613446737019
-3.1986882641335564e-05
-4.6808726992369604e-07
4.1406373805882135e-07
1
1
1
1
1
-5.6449603159000494e-08
0
0.0037724799569251481
-0.001358628406557692
0.0018219850025541849
0.0002927032435829514
1
1
1
1
1
-0.00055158687598453856
2.0174830891226361e-08
0.032434987660342605
1.4750167503432361e-07
1.3247338802884335e-07
-0.00035561800976530676
1
1
1
1
1
-0.0011410296728406127
2.4698657185518915e-07
-0.00015545170192878026
-4.8999911589496743e-07
-3.6499216283775985e-06
-3.7376479877707784e-07
1
1
1
1
1
-0.00093842992418690404
0
8.7148044812746073e-07
-9.145519324768421e-05
-0.00018762926563673578
-8.6983583292420287e-09
1
1
1
1
1
1.6963267507801232e-08
-5.992465585781677e-08
-0.036569003121436197
-0.00057200824178732805
-8.2138664116086081e-08
-1.5001200702525241e-07
1
1
1
1
1
-4.517877812107596e-10
-5.9241952743958261e-09
7.8396585957861706e-07
-0.0070189975954350068
1.9886910998676956e-06
1.2541576296783176e-10
1
1
1
1
1
0.0010757013413369206
-6.5201298965139514e-08
-0.00078908609158878304
0
-2.6582193319995016e-06
3.139144974615743e-06
1
1
1
1
1
-0.0015433583758179225
3.7752761781375282e-08
0.00014188452651970715
8.0523512839810356e-07
1.5194068433328327e-05
-6.256241366100492e-07
1
1
1
1
1
-1.655053788075173e-06
5.7769350999483147e-07
0.00024416339539770713
8.7116727294680997e-06
-1.2709951806388282e-08
-0.00039386064798647199
1
1
1
1
1
3.1725075642808537e-06
2.5507134523479917e-10
0.000174923210326459
0.00011965830018482018
-6.0786053503125554e-07
0.0013703046333604003
1
1
1
1
1
0.0003345537659194518
-4.5343634106074283e-07
-6.2898618700996683e-06
-0.00061810928001412879
0
-3.3204190377866253e-08
1
1
1
1
1
6.5084815489414063e-05
2.785003179779081e-05
1.6842846663768701e-08
6.4054753123850726e-08
9.0960738373482346e-07
0.00011169285558229314
1
1
1
1
1
-0.00014103508019754101
1.4411531540432428e-08
0.012253086036022893
9.7631209385090898e-07
0
0
1
1
1
1
1
-0.00012041194597737907
1.7749156743281658e-07
1.7872650458205026e-06
-3.3209419769855865e-05
-2.0684897396872697e-06
0
1
1
1
1
1
-4.3522319528132581e-11
-5.0268491651521952e-09
-0.00011276951945434902
0.0002406848708768287
-1.3130895411981498e-06
-5.820578638809847e-06
1
1
1
1
1
-0.00015324614546127833
0
0
5.0501204243904217e-06
9.0817120341110051e-09
-3.3280010306322532e-06
1
1
1
1
1
5.0934518029513204e-05
9.9957242009364814e-08
6.1029546862133693e-06
0.019477945717791902
-9.4358372660276214e-08
-2.1105352790153928e-05
1
1
1
1
1
3.4886922647998986e-06
0
2.3435383316603053e-06
0.0047586741544469327
9.2675727094164657e-08
1.8138975499152375e-06
1
1
1
1
1
-8.858222943308145e-08
3.5391673190614199e-08
0.00016120759314069698
0
-1.1933290970718684e-05
8.9360669361121796e-07
1
1
1
1
1
-3.2087428589030158e-05
2.508760541886882e-07
-3.3878358840350409e-08
-0.022022696015298875
-4.0732018558833607e-07
5.540161473874963e-08
1
1
1
1
1
-2.8346090132022728e-08
4.0581764757616632e-07
-2.5564523325222757e-07
0.0073011307668591399
-3.0604352078426327e-07
-2.5844116329649858e-08
1
1
1
1
1
1.7155137295739252e-05
1.1354775963434785e-07
-0.00046866892887485653
0.0089863301747622592
4.8290288297479717e-06
0.0015831259024768219
1
1
1
1
1
0.00014074606697290218
6.1689364679750731e-08
1.5246257615804085e-05
5.6073540576769712e-06
8.6144532794549582e-06
0.0025487841183830652
1
1
1
1
1
-9.5582973978033652e-07
9.5126721180361805e-10
1.1595919992942477e-05
0.0060746381233485018
0
-0.00013985996713937612
1
1
1
1
1
-8.1821049615676654e-05
0
-0.00033536271307232338
-0.0062179105148853211
-0.00055445613117632636
8.3041059126737471e-09
1
1
1
1
1
9.7307225970599661e-10
4.6016375423570158e-08
-2.3812969952135705e-05
8.4749687871785029e-05
0.0008283021251761888
-1.1119079049210721e-06
1
1
1
1
1
-0.00078927732414015418
-4.497086597042585e-10
0.0001793698921389107
0.00031412253421274637
9.5498944364626564e-05
1.2938987754416957e-07
1
1
1
1
1
-0.0014053240251170479
-6.9951391262127135e-08
0.0078365489740828392
-1.1604322807010243e-05
-0.0004593228733856184
-1.7091939280239659e-05
1
1
1
1
1
-7.3520701521961801e-06
0
5.2803028109751055e-07
0.0025203614887424832
-2.7903296747016089e-06
-3.4607592456180256e-06
1
1
1
1
1
0.00012581694321771899
0
0.00017288082203141373
-0.00010014240713981771
-2.7239861375287642e-06
4.0494780300280373e-11
1
1
1
1
1
-2.2725611022480545e-10
2.6831885402972971e-08
0
-0.00012131047543522987
0.007561181602456668
-0.00019081162570420558
1
1
1
1
1
1.1822343861677406e-06
9.1312820136222991e-11
-5.231201949467877e-05
-0.0038593199393934375
-8.9061766797688439e-07
0.0011898614104797493
1
1
1
1
1
9.5313434935202925e-05
0
-1.6986024442602692e-08
-0.0026458941418444461
2.1720959423773892e-05
4.4946490535190492e-06
1
1
1
1
1
-4.2854543379387365e-09
-3.6331014768534854e-11
7.4637597683205988e-06
-0.009936048520530474
2.9522578306424413e-08
-3.8378604907012107e-08
1
1
1
1
1
-6.3586358534162929e-09
0
-6.0966633234412225e-05
0.0020962928726178569
1.5449660375403309e-09
-7.8192092814228468e-07
1
1
1
1
1
4.4047425239909751e-11
0
0
-1.6530816223607996e-07
8.5512521334706991e-10
9.4896110296029406e-09
1
1
1
1
1
-1.7073431891501398e-08
0
-2.695763627289335e-06
-4.2027666186640658e-06
3.7812010156818526e-08
-1.5329518318257721e-07
1
1
1
1
1
2.4224442683510138e-10
-2.327521044763255e-11
-0.0013306473363826875
0.0012542519317931078
0
6.9166366242386629e-10
1
1
1
1
1
8.0578826762218589e-06
0
-7.8182074685764596e-06
0.00021562143470148131
-2.3905650535882873e-11
3.3780161355003701e-08
1
1
1
1
1
-5.4370531296605143e-05
0
-2.3300058638696741e-06
3.4916577607495378e-06
0
2.9165995234111861e-10
1
1
1
1
1
-2.4658733594643575e-09
0
-5.439716513029907e-09
-6.9827667853974554e-07
-3.7732016425351797e-08
0
1
1
1
1
1
-6.9029096096843978e-07
-1.3837629660774556e-12
-2.6415365002941741e-05
-3.5565636110697136e-06
0
-5.4050533377729143e-10
1
1
1
1
1
-3.8529289196309636e-08
-1.1794289145333057e-10
-4.9245642664922124e-09
2.5423712241804011e-05
-2.2338648307645273e-09
0
1
1
1
1
1
-1.2798299593524724e-08
0
-3.6171772575016551e-06
-3.8572404909704137e-05
1.2233237431717442e-08
0
1
1
1
1
1
-1.2063778544903323e-08
0
-2.4794786692294965e-06
-1.0260624845618e-08
7.5186717946048056e-11
5.968949300930348e-10
1
1
1
1
1
1.4179349011617437e-05
7.7998264407321229e-12
-2.3803975353134721e-09
0.00021110237141943217
5.095479530050322e-09
8.2414239931599664e-08
1
1
1
1
1
3.7057639293309114e-07
-5.9468339681001883e-12
6.2607306349837707e-07
0
5.9213638148771695e-06
3.2555162645175999e-06
1
1
1
1
1
-1.4578386249122016e-11
-1.9821255346903568e-13
0
1.5642650670191618e-06
0
3.6494246215059521e-09
1
1
1
1
1
1.1397717569998259e-09
0
-2.236833246568445e-07
7.1871652205049026e-07
0
0
1
1
1
1
1
5.7679738990656019e-08
0
-2.3715341421868803e-08
-4.8406469134818441e-07
1.6687694291129365e-08
-5.1962335494146511e-08
1
1
1
1
1
8.6719816046057183e-06
0
8.8679085257097356e-10
0
1.8104735415786236e-13
3.4831187109266575e-06
1
1
1
1
1
4.2496508555616113e-07
0
-5.6150230898401379e-10
0.0013282773648689177
1.2000975446745397e-09
1.1269242698571847e-08
1
1
1
1
1
4.6166230018416784e-08
0
-4.8712800979358387e-11
5.296664219090959e-06
1.2582717294262807e-07
0
1
1
1
1
1
4.1476283706054585e-08
0
0.00030275371942521857
3.6114282782104688e-08
8.4234950559977627e-09
0
1
1
1
1
1
-5.7972955663229389e-17
1.4253847992353422e-13
2.4945300597558179e-08
2.6106467380780312e-06
-7.4306610435155202e-09
1.5638662797094988e-08
1
1
1
1
1
3.5353644137533495e-06
1.3896160059568865e-12
1.3274192065623242e-09
-4.699563891904415e-05
5.7813861158177643e-07
-3.2664376320152218e-09
1
1
1
1
1
2.2976971923725196e-07
0
-4.6125320457696942e-07
0
-9.7386234352689815e-11
5.4140431594353184e-10
1
1
1
1
1
5.6803716634448441e-11
0
1.9641813248321755e-10
6.948716255406931e-07
-7.2703528284699229e-09
0
1
1
1
1
1
2.3151061338487385e-08
5.2486095142177476e-11
-2.3348969303657468e-07
4.6147088489397291e-09
-6.0710655046228831e-10
1.1422412895834388e-08
1
1
1
1
1
1.5370937943039318e-07
2.4527993002945496e-11
2.3871007952106213e-07
2.2736858192357876e-06
2.1921360390522953e-08
9.6239070321929342e-06
1
1
1
1
1
4.2482372550286908e-14
-1.1626703782831927e-12
1.4582773607813476e-07
1.6653652918815514e-06
0
3.3318455202048047e-08
1
1
1
1
1
7.0644992635574603e-11
2.0918472325704247e-11
2.2229075592183388e-06
6.2836370459234462e-06
4.4443043822944548e-09
-2.4169273969196179e-10
1
1
1
1
1
2.9714761758703436e-06
0
2.6751747760307289e-06
2.8846785257628722e-06
0
2.2728427878647008e-07
1
1
1
1
1
5.0247361698310769e-07
-6.0509179460322812e-08
-0.00023735727487181088
-1.9385568404092089e-05
2.6920945090806463e-06
-4.8911945085472204e-06
1
1
1
1
1
0.00016628038859384245
0
-0.00012620607747555653
2.6059981674204497e-07
0
-1.0593229532335815e-06
1
1
1
1
1
9.9259794254765445e-08
-1.695510821062359e-08
-0.0043532125220930602
-0.00011826488791262056
-6.6905843027201971e-07
8.0520356622919653e-05
1
1
1
1
1
-3.5462835587911404e-05
-1.9431986871918491e-08
2.0321378691496365e-05
4.4307102458308013e-05
-4.5318878527702106e-08
-5.6134810608827388e-06
1
1
1
1
1
-1.8958594745478878e-09
0
0
0.011751443809425692
3.2875345588583967e-05
1.123653834609295e-05
1
1
1
1
1
-3.9949074238765908e-08
-2.6322512671273974e-05
0.00041566997902330651
-0.00014075475026339664
-0.0023520191897821534
-6.9260679468323468e-05
1
1
1
1
1
-2.3348516109841448e-11
-6.4711439663459236e-08
-0.00077804045123930972
-0.0078004123464049712
-0.00013134316432424515
-4.1825502198341e-06
1
1
1
1
1
1.2793009976651154e-05
-6.3853168493008154e-06
-1.5369064885346053e-05
-8.6220746121757258e-05
-0.00078876887500144534
-1.2608923342539415e-06
1
1
1
1
1
0.0026552282351193792
1.2872823313470379e-07
0.014799353120661871
-3.0932278318584898e-07
0.00023711855400417178
0.00065032376177901754
1
1
1
1
1
9.7657847005037536e-05
9.8278639204949789e-08
0.00016896883456434637
0.0022294485800676998
1.8142769622334253e-05
0.00042109928631213251
1
1
1
1
1
-0.0002393491220134788
-3.7968198447724427e-08
-4.2056100419534969e-06
0.00012160010470002472
0.001048336852962252
-0.0064959633720350742
1
1
1
1
1
0.0016939306791559892
2.2595978501364476e-07
0.00050743625729097325
5.0314426558645878e-07
0.0081953944483773942
0.0029090070784348787
1
1
1
1
1
0.0017558368233943928
7.1136952417825029e-08
-0.00022386803663212437
-0.0010018385816719217
0.002998804490724176
0.0022316046874032787
1
1
1
1
1
-0.00010214050904566883
3.2795622029482103e-08
0.00075188378337333892
-2.3584523317648001e-05
0.0017776236148918699
-3.8787515289161546e-07
1
1
1
1
1
3.9428237900993925e-07
6.8222443558127671e-05
-0.00030090781139075455
0.00021226381515246378
0
-1.2525527283672265e-05
1
1
1
1
1
2.0508537393071004e-06
2.7533568804510105e-08
-0.00030034903640197252
1.9665754965359176e-07
0.0001829931933137739
0.0038115014952924487
1
1
1
1
1
0.00061447120091704993
1.9374233683761927e-08
1.0148724125190464e-06
1.1976601975288536e-06
-3.594390412065045e-08
-1.9427297835913449e-07
1
1
1
1
1
7.123099025453181e-05
0
9.3708984836892665e-05
5.9897680803391614e-05
-2.3760430342304674e-07
9.6150610210529396e-07
1
1
1
1
1
-0.0019185733488527913
0
2.1685370487469994e-05
0
-1.1740969938262426e-06
0.0015268542108217167
1
1
1
1
1
3.6829330554259247e-05
1.3178274723363409e-06
-1.1283694077522875e-05
-0.00018324303777252109
-1.5107523697739965e-05
-2.5291319810154286e-06
1
1
1
1
1
9.7968913798860159e-07
0
0.0031603872315589645
0.00044885071688263744
5.0212706636630577e-05
0.0011854640718509581
1
1
1
1
1
-0.0018810019313918068
0
2.2604853288307266e-06
0.00074726797593766708
9.3889938705788477e-07
-1.9770653587321105e-06
1
1
1
1
1
-0.00017951590752838877
-9.4208076567589542e-08
7.2474523385647696e-06
3.1235873655249892e-06
-3.7937233535655856e-07
-2.3063208575975386e-05
1
1
1
1
1
6.8541136472654691e-10
7.6037421790704224e-08
0.0028900892491492973
0.00043256318373555185
1.5931183857786104e-06
-0.0055566102782223133
1
1
1
1
1
-1.4142054364457287e-07
1.265492598729847e-07
0.010025414279892921
0.001848872224637053
0.0026190302507338014
0.00039458535505849099
1
1
1
1
1
2.3254964955413152e-07
1.8436641499618966e-08
9.8322371098206158e-05
-3.5996399084548829e-08
4.4061676084272609e-07
0.00011681962471711904
1
1
1
1
1
0.001141028049262788
-2.4664096531874585e-07
-0.008963639912401386
-1.6240393113165235e-06
1.5391595946477208e-07
4.0104728521861116e-07
1
1
1
1
1
0.00077956435305311339
0
2.6206100923239163e-05
0.00012752923443547828
-3.4638059146214642e-05
1.3162004694323899e-05
1
1
1
1
1
9.2184123004528684e-08
1.1286223343920855e-09
-7.3429570834711075e-05
0.00011677994024708973
4.1277484108639526e-05
7.4793129580412551e-06
1
1
1
1
1
-2.4022263209064374e-09
3.0010891608001618e-07
3.5847356478241698e-06
0.0019169875441329652
2.1030720518432016e-06
-7.0923698954566016e-07
1
1
1
1
1
0.00033582505509758116
-1.7637283329138357e-08
-0.0039450692060711062
0
2.0373953948697201e-06
0.00019317690714173367
1
1
1
1
1
-0.00058648782307523949
-1.0020958452487293e-07
-0.00010511029578442251
3.13156512453771e-06
-3.7848020438425442e-05
-1.2038396375037766e-06
1
1
1
1
1
2.2466895038888092e-06
1.260281942159918e-07
3.6136681940001512e-05
8.7116727294680997e-06
1.7403564335394946e-08
0.00046707456295328668
1
1
1
1
1
-1.0051141286326525e-05
-1.5838290501694008e-10
5.7290130936624534e-05
-0.00010237295249087991
-4.3540954929566424e-05
0.00065277296832359311
1
1
1
1
1
0.00079560431383089172
-2.2131170738061827e-05
1.224778799078517e-06
-0.0030923994519713874
0
-3.3204190377866253e-08
1
1
1
1
1
1.9438187659994297e-05
-2.8844465524270447e-08
0.0021569990301355921
1.4140697699071121e-07
2.2415239659877447e-06
6.5607224602273815e-05
1
1
1
1
1
0.00014107972660351608
1.9741006566635597e-08
-0.013303291316590513
-1.6512500348514503e-05
0
0.0057026022539457847
1
1
1
1
1
-4.5687004176579348e-05
1.8899027794851218e-07
4.9550552793519785e-07
3.3916653997470469e-05
-2.5991391172552835e-07
0
1
1
1
1
1
2.2046537095949227e-11
-2.7005722350637598e-08
-0.00015705027644245052
-0.00017999476254143903
2.4253983601296673e-06
8.8917554888749074e-05
1
1
1
1
1
0.00010484252954684127
9.9689947247800644e-09
0
2.2921089960194573e-06
8.2184481262042845e-09
6.0047962772161082e-06
1
1
1
1
1
-2.5966553209535671e-05
8.7458045603529491e-07
-1.7363729627106067e-05
-0.00049626006970341328
-1.4151459948723173e-07
-1.6039518002101235e-05
1
1
1
1
1
-1.5549473287274392e-06
0
3.0500734091706901e-06
0.0069835442633240184
2.2986920607916694e-07
-1.2179805657639531e-06
1
1
1
1
1
0.0016279716213455364
-1.3382763400066196e-10
0.00020442215289219161
2.2404625083924083e-05
-1.6786250107289156e-05
2.8908368108891129e-06
1
1
1
1
1
-3.4806143729587089e-05
6.743647756444166e-07
2.9130570584334987e-06
0
3.7076827459759912e-07
-0.0048462888488252131
1
1
1
1
1
-4.1660615125556281e-08
3.1929558148696132e-07
-9.7694169445528139e-08
-0.012363383527682957
-7.4445105101162386e-07
2.3296107882374686e-08
1
1
1
1
1
7.4678742890044989e-06
-3.5605667018295876e-08
0.023435737825175006
0.0089897094209220717
4.4647437646675766e-07
-0.0015965170151643262
1
1
1
1
1
-6.9723754436593787e-05
1.1388899820414095e-07
-0.020253150585885508
-3.0407682063957412e-06
1.4758272416499188e-05
0.0024890922756343439
1
1
1
1
1
1.1624556507638193e-06
2.6277900781928291e-08
3.0746468345359816e-05
0.0068090323663219099
-4.7783506044339196e-06
-0.00066380731096267866
1
1
1
1
1
7.1983005585188675e-05
0
0.0038603086240285235
0.0012233450788285607
0.00011483165135652313
4.4420208497393308e-08
1
1
1
1
1
-7.0483738453309465e-10
8.6404050700636756e-08
9.8253459063560178e-05
0.0007210294187935621
0.00016632008380813702
-4.2344352913552506e-06
1
1
1
1
1
-0.00078928057802128985
8.137292748100322e-08
-0.00012768847910486577
0.00031398827163913595
-0.00063889609566410567
-4.1093983604014995e-06
1
1
1
1
1
0.0018754854655027343
-1.2488171958521926e-08
-0.0059160277355773524
2.1117706172408033e-05
-0.00095226332669992619
-9.6611981530147446e-06
1
1
1
1
1
-1.6119644021270384e-05
0
5.2803028109751055e-07
0.0021599995228459025
2.4345633296513509e-07
0.0022286325791232475
1
1
1
1
1
-0.00010626909864571259
0
-7.6297826429317116e-05
-9.6921665442318438e-05
-8.3508851917679491e-08
0.00022909549896674744
1
1
1
1
1
-1.8869720522213758e-10
-1.7860656305909598e-08
0
-0.0013005745059148463
8.3011251798570203e-06
-2.3627120705325951e-06
1
1
1
1
1
1.178577235974703e-06
-1.0033076588719849e-10
-0.00017541427873513229
-0.0088575586392938676
2.903550006258912e-08
0.0011993149299627992
1
1
1
1
1
0.00017620545765902954
0
-1.0157580096359614e-06
-0.0075945289986456702
4.7943236569076609e-05
3.4084570754136963e-06
1
1
1
1
1
-4.6346977543211041e-09
6.8861357498257822e-11
0.0011368717801903327
0.011023834861130035
2.4591898711174554e-08
4.9018084298595058e-08
1
1
1
1
1
1.7793352496379739e-08
0
-0.00016255893628889617
0.0026732608024975595
-2.8485595773365562e-06
2.2005572916221826e-05
1
1
1
1
1
1.7105492733480648e-12
0
3.1431744176279094e-06
1.6611258339966029e-07
1.8036898645332878e-08
2.4784818999745111e-06
1
1
1
1
1
-1.6724719743926433e-05
0
-7.060624212872975e-06
-6.4084305096826958e-08
1.6965217112718941e-05
3.5536474342103718e-07
1
1
1
1
1
7.4670540983956369e-10
-8.3006072222215105e-11
0.00052983083419057687
0.0019669771890836445
0
-7.5253287375616497e-07
1
1
1
1
1
-2.1819077692719956e-05
-2.8843459501801164e-11
1.441976333199078e-07
0.0036057768930513002
-3.4649612154986169e-08
1.0032029984447839e-07
1
1
1
1
1
2.4743782444391231e-05
-1.7363665765745669e-08
-2.4326291086523436e-06
-8.5536153071943939e-08
-2.4453766770584658e-07
9.0778675075379772e-08
1
1
1
1
1
-2.5557707158445363e-08
-1.2496180787824797e-10
2.808641585184859e-09
0.0057253359401241172
-4.2550985223096613e-08
1.4722491117919145e-07
1
1
1
1
1
-7.1043627779935632e-07
9.7427982951124656e-07
-2.5020669192999934e-05
9.451037551107409e-06
0
1.2504514899467471e-07
1
1
1
1
1
-2.9533222633466358e-07
-5.8221247383290906e-13
7.8932790651785368e-06
4.8595894548991005e-05
-4.878518877923776e-09
0
1
1
1
1
1
-1.888144355969012e-08
0
-4.3123659474088465e-06
-2.2301591179820736e-05
-3.9539433764967085e-08
0.00041229714405119171
1
1
1
1
1
-1.7573201641807957e-08
0
-5.7058476999579383e-06
0.0029829304707386624
0.00015394716915689569
5.7034930245872332e-10
1
1
1
1
1
-1.4090318955561328e-05
6.4622061528626858e-09
0.00011523745814355903
5.0489010333876479e-05
5.43487552703622e-08
-1.3763771839610734e-06
1
1
1
1
1
1.0226855691433955e-07
-9.3020107757987912e-10
-0.00050731261894839156
0
-3.3756336056384995e-06
7.2114616399678745e-07
1
1
1
1
1
-2.6341026858007983e-06
8.0304239061282963e-12
0
-1.0431801279045665e-05
0
1.2637190696760998e-07
1
1
1
1
1
2.2855166535989151e-09
0
4.1683120378990009e-06
0.0013598823076803096
0
0
1
1
1
1
1
6.2949147111771709e-08
0
2.1148617760540378e-09
5.4308878857349236e-07
-5.7903646624550509e-09
-3.4598799547506165e-08
1
1
1
1
1
8.683256675463405e-06
2.690763336361191e-09
5.6200791695793078e-06
0.00011116972946965922
8.5930433635763063e-08
5.5671865616824861e-07
1
1
1
1
1
7.3149879922328878e-07
1.2016068268580526e-10
-3.4499545458049315e-09
0.0010453843415122856
4.2743344385137789e-09
7.740436209417876e-08
1
1
1
1
1
3.1492979668230505e-08
0
3.4286626837023781e-09
1.4107305108883553e-07
-4.2045769048172551e-06
0
1
1
1
1
1
-7.1538689129515137e-09
0
-1.1286909626042956e-05
-3.9024763452192707e-07
4.3591220935270441e-08
0
1
1
1
1
1
-1.0461288391633013e-06
3.5576179975581375e-08
-1.868788421911911e-08
-2.6153654856680054e-06
1.8058718004201796e-07
4.5698760850036975e-07
1
1
1
1
1
-3.0930840244211339e-06
6.4793677488740463e-10
-1.0677683808895425e-09
-1.5568262169540393e-08
7.4224079542165738e-08
-1.9197459844394553e-07
1
1
1
1
1
-3.0095785857896796e-07
0
9.4099074693185119e-07
0
-2.4874033047939819e-10
3.0828825045131061e-10
1
1
1
1
1
-0.00010412826979677458
0
-3.9043246513351606e-06
-6.721923823023698e-07
9.4046655754009797e-10
0
1
1
1
1
1
5.8872544400233292e-09
-1.4314296143645778e-08
-1.5271584037051691e-06
-6.9697355762323868e-09
-1.4918220028056643e-07
2.8150747147875535e-08
1
1
1
1
1
-4.4304610718421681e-08
-1.9446377974124767e-08
-3.3906794269884613e-06
-1.0116687731246827e-06
-1.2219264612842877e-09
-1.3544935213683196e-05
1
1
1
1
1
8.7055436014689169e-14
-2.5201705701678763e-11
-1.8801450417998219e-05
-2.6973191630290582e-05
-1.2919865047805766e-07
2.6799528381721383e-09
1
1
1
1
1
2.6775419379635785e-11
-7.2579176702837685e-11
-2.3980328713435765e-05
-2.8822536215876107e-05
-3.1784130042213671e-09
-1.7175098634419908e-07
1
1
1
1
1
7.7919137099641041e-07
0
-5.0109146961095507e-06
0
-5.5542021624620974e-08
1.2177413293433223e-05
1
1
1
1
1
7.5758720349238821e-07
0.00039433392546056763
0.00062235471159394434
-0.0083390179236442069
0.016312544635350642
0.0039759113650487191
1
1
1
1
1
-0.00082309155584270918
-5.6849129727022806e-06
-0.00012840769739894391
5.238531935155601e-08
0.0082937130991759013
3.0293282434630856e-06
1
1
1
1
1
-8.0407670130405495e-08
-6.6102785354254297e-05
-0.00057811687757795729
-9.6523780993997444e-05
-0.0020046150280187921
-0.016843977772112193
1
1
1
1
1
-0.00010335709233057364
-3.6581346140851653e-05
4.2039217168420178e-05
5.0092392550671033e-05
1.6751704517589225e-05
0.011833726033967212
1
1
1
1
1
-8.3128452490865149e-08
-3.4802082306021051e-05
-7.3589933170194657e-05
-0.028244649377784963
-0.00012554631650551519
-0.051061265363337008
1
1
1
1
1
-7.9323132334606685e-09
-0.00029323317500086715
0.0067149041587732288
0.082233018450841355
0.00454429285498656
-2.3880501407544846e-05
1
1
1
1
1
-3.273175186600159e-11
-0.0017030817793973372
0.010746989923205195
-0.002547520178593846
-0.0054817471511285406
-2.8969057562438471e-06
1
1
1
1
1
1.2691956095294064e-05
0.00010044373565836754
1.8447421872761363e-06
0.013942493415191524
-0.0017845196677026929
-0.00046652733417331885
1
1
1
1
1
-0.010581295483264601
-5.9366324521094269e-05
-0.02140717465081992
-0.025026113520547694
-0.051942683569779581
-0.00046487109701952138
1
1
1
1
1
7.8322133747929886e-05
0.0018860251188620317
0.0010263709645058493
0.0011547280878349614
0.014039856711373743
0.00042733682886285726
1
1
1
1
1
-0.00011949963290421504
0.01252474488346564
-0.00011970710601018381
-0.0054535329153378937
-0.018110819118327692
0.0014982158044091784
1
1
1
1
1
0.0007368510215936397
6.7172727668778125e-05
-0.00023503489911985999
-5.0314426558645878e-07
-0.0081870364728790519
0.00014003278674523968
1
1
1
1
1
0.0062448971237136939
0.0057413515898182233
-0.00038232697704952088
0.00040839731804399296
0.0072127473796289926
0.0068691094527116624
1
1
1
1
1
0.042714206725419493
3.3608372600477814e-08
0.0028755329262588536
0.00014711124611642873
0.011815610048391444
0.00061498616153827298
1
1
1
1
1
4.0487454160248406e-07
-0.00011661846698624247
-0.028066471336079063
-0.032777652022280085
0.0015752047924570366
3.091473498217577e-05
1
1
1
1
1
0.0014419911356709288
3.849560891139942e-07
0.00017497636521130496
-0.049325224766157125
0.0045154099799519605
0.0079069232446453558
1
1
1
1
1
0.005355622936142947
-0.0018217982773839929
1.6388466247160322e-05
0.037460732037408094
0.0012103857455956907
4.3168683944889135e-07
1
1
1
1
1
8.229020232599366e-05
0.00078558982622259561
-4.6310841877675248e-05
-0.019816285957737382
-1.2558286907786506e-07
0.046905009572254859
1
1
1
1
1
-0.0055539271060197973
6.9383769731971087e-07
-0.013483064020973249
0
-6.5732710219539226e-05
0.0014190876100313248
1
1
1
1
1
-0.0024272550713067163
-0.00066753506710938112
-1.7733380055262934e-05
-0.0039348177283162113
-1.8142106962467732e-05
-8.6832214168602854e-05
1
1
1
1
1
-6.3037006183634631e-07
0
-0.0044631769228092154
-0.0072378562773766971
-0.026386323249654623
-0.0070661377365539976
1
1
1
1
1
-0.0068650902395726568
0
3.1699448744639783e-06
0.00065462960957655871
-0.0013331873805001522
-0.011627583923618524
1
1
1
1
1
-0.00017951590753819636
-0.006864885557095122
0.027058687122410472
3.1236975789142964e-06
2.8893958458246392e-07
-0.00032656019527600965
1
1
1
1
1
-8.6627756971062364e-10
-8.751573110465844e-05
0.0090421621484597613
0.00046452940960451441
-1.8531812662108152e-06
-0.01239548834895597
1
1
1
1
1
0.0062736783052085316
-7.0025860365578388e-07
0.0049879287186676315
0.0012897544939870199
-0.0020049269140239505
0.00032068890045423132
1
1
1
1
1
0.0006849334010412938
-2.8557352536753453e-05
0.032029601227240571
5.2262757362195479e-08
4.4059191596215877e-07
-0.00046376680050691206
1
1
1
1
1
-0.0069178706344307263
-0.00037813184642381079
-0.0060542043450512338
0.035079328783487441
0.0066469272436373199
-0.00050378775737120092
1
1
1
1
1
-9.260413383804649e-05
-1.5421421284258794e-05
-0.00059191628595145159
5.2456542250186654e-05
0.0046946066621826902
-0.00096468801983149593
1
1
1
1
1
2.1158769144497323e-08
-2.4860272427146636e-05
-8.4928617578107886e-05
-0.00054747564793225121
0.017459325177304558
0.0014929634802422394
1
1
1
1
1
-5.0640343158640371e-09
1.4023932519400575e-05
2.1732449615632716e-06
0.0077375283460204853
-7.5027326468895949e-07
1.6542084459448894e-06
1
1
1
1
1
-0.0029649536082674427
-6.0075846018501758e-05
0.0044586983096584583
0.025629032951005874
-0.00015464968464946118
-0.0015865989797190045
1
1
1
1
1
0.00050752714920554952
-0.00041638362361554759
-2.3733000844431917e-05
3.13156512453771e-06
0.00049141344632631695
-2.2041824626142642e-06
1
1
1
1
1
-3.8700789311016739e-06
-0.00032883400107909896
-0.00052574479896599089
-0.003653449350390775
-0.0039651031368394271
-0.0065076528723562819
1
1
1
1
1
1.1242665706059095e-05
-8.0003639791290867e-07
-0.0092551729370213328
-0.0001779825977414827
0.063113478836611864
0.0040426094961599655
1
1
1
1
1
0.00050700289526513123
-0.00024926181566191065
-0.045127621122419873
-0.0069119472304264105
4.0089001564189799e-05
-0.00013436016256991178
1
1
1
1
1
2.0973900573182624e-05
0.00012861919819669997
0.0038159530969326173
0.001972127424832396
-4.2153945989167698e-05
-2.3998321224316416e-05
1
1
1
1
1
-0.00012486142333837711
-0.0048797479240478888
-0.00072725167817335509
-1.6574792721573108e-05
-0.0020204878444622927
0.01013157856179475
1
1
1
1
1
0.00019510539900837129
-0.0027892522803770171
-4.2617224907367987e-05
2.2687391141128568e-05
3.9663646060531228e-05
7.719040202723767e-05
1
1
1
1
1
-7.1088761254591793e-11
-1.6267198756511237e-08
-0.00011735013527020471
-0.0012940047076787811
-7.5589858664732646e-06
-8.1441443617122767e-05
1
1
1
1
1
-0.0001240838467602415
0.0012527616854670291
4.3451856354870521e-05
-3.7286118004615925e-06
-9.0817120341110051e-09
0.00068523570100716569
1
1
1
1
1
0.0074831827887090986
0.00027219444531849255
-3.6278520140555614e-05
-0.019809864786684277
-9.5845900193600648e-08
5.4892142611999225e-06
1
1
1
1
1
-0.00025802339511773868
0.0028199376393104316
0.041229121397002973
-0.010909609040143896
0.0012953965553180798
-0.0042872381942934742
1
1
1
1
1
0.00023946656630506599
5.7872644095446985e-06
0.0012549451790205095
6.0444693198766237e-06
-2.5806106968581223e-05
-3.5892372594774832e-05
1
1
1
1
1
-8.3146174606960207e-06
-7.4330721769252182e-05
-2.4955773475691896e-05
0
9.3322272752891732e-07
5.5323408547566917e-05
1
1
1
1
1
1.3658114149672011e-09
0.00036586742055614056
8.0935524989307495e-08
0.017957232935336472
3.6123081024197877e-07
-2.5844116329649858e-08
1
1
1
1
1
7.2778583187742271e-06
-0.0026430115777455639
-0.00055997009185759154
-0.0089899855148134668
-0.024841395540627153
0.0038686307977289403
1
1
1
1
1
-0.00014473336038055526
-0.00045468472474973024
-0.011642496065297478
0.00059315004800506235
-8.1173902971660243e-05
0.003620262499856411
1
1
1
1
1
-0.00013863442167498359
-4.019507791443052e-05
1.4265331083401465e-05
0.0059495294183287964
-6.8008410531443377e-07
-5.1437748309256644e-05
1
1
1
1
1
3.3395859934961836e-05
-6.0152162015781463e-05
-0.10412013705798524
-0.0092105237008671265
0.0032899370486901398
-0.00040268528756410373
1
1
1
1
1
0.056739828770189064
1.6612191502762564e-05
0.0003278696689963653
0.00094489555963763578
0.00067360289899358317
0.031469555517823128
1
1
1
1
1
-0.007498362063099024
9.8286650852205563e-07
0.068744846849161143
0.0024135810681554142
0.00052130502417671598
9.4597653016539838e-06
1
1
1
1
1
-0.00078340682066681548
-1.033269590001528e-05
0.0084459979183469439
1.6707918331208377e-05
-0.0064070931606952722
0.00034814371913924927
1
1
1
1
1
0.0066799976436340463
4.5156449043987982e-06
5.2803028109751055e-07
0.0068704730183678743
8.3626894571231018e-05
0.0063381734912419229
1
1
1
1
1
1.8624255573082157e-05
0
-0.00014799302769048187
-0.00031259086613020658
-1.5744395402965666e-05
-0.008108523574408999
1
1
1
1
1
-0.010085943987207698
0.00014607242005519624
0.032246090514952995
0.002325279964811881
0.0076064140922859789
-6.5421723911041134e-05
1
1
1
1
1
0.028481178434587161
-2.8960708611689731e-06
-0.0016660332308259843
-0.016330658676739294
-0.0333404142322066
-0.0011174443951201705
1
1
1
1
1
0.000191401521844945
-2.1928718810537012e-07
-0.0791300175294532
-0.00031933867198703618
-2.6930410804939482e-05
-0.00028260244577230304
1
1
1
1
1
1.5782924424454373e-08
1.1305546910001406e-11
0.0042836258100092577
-0.001278190926698388
1.181204098336849e-06
-3.7376284241961606e-08
1
1
1
1
1
2.1247548336968782e-08
0
-9.1431475783336488e-05
0.00045844236160105665
8.4931860046384933e-06
-3.756829313102561e-06
1
1
1
1
1
6.816480359016399e-11
0
0
-1.5703543636758772e-06
1.6221174459459367e-07
-4.1837137297659046e-06
1
1
1
1
1
7.1832768893266818e-05
0
-1.0378109415567829e-05
-8.9213385843384869e-06
2.641162535371083e-06
3.0086906720969161e-07
1
1
1
1
1
3.1518223630409886e-09
4.1207385443354611e-10
-0.0037825269492403964
0.0002687364376246403
0
5.7934619099657985e-07
1
1
1
1
1
1.8152086912025176e-05
-1.703768295336091e-10
1.3284168428343681e-06
0.002181615535813097
1.3196185621753615e-07
9.0544016867606423e-08
1
1
1
1
1
2.9630687002554907e-05
2.5446069258741527e-09
1.7324671580378349e-06
-5.3070197363101155e-06
2.2090652750280409e-07
-7.8289884229430148e-08
1
1
1
1
1
7.7784878717768939e-09
-1.6458775018072341e-10
1.1161015453843074e-07
-3.488462626545166e-06
1.606836649419541e-08
0
1
1
1
1
1
3.0275505676626482e-06
-5.079462282839643e-13
-6.0378103628200019e-05
-3.0595269994098211e-06
0
-3.4863409655850696e-06
1
1
1
1
1
-1.3081285521590952e-07
2.1199127044187943e-09
-0.0002388029196501321
-8.4338389869392864e-05
3.8867884289856319e-09
0
1
1
1
1
1
3.6505288622487975e-08
0
2.6634324550059117e-06
-4.0372179616622945e-05
-2.9866280051769821e-08
0
1
1
1
1
1
1.0516415026720791e-07
0
-5.634172204600879e-06
-1.025782596408557e-08
-2.8695034498578444e-06
-5.9727252021123515e-10
1
1
1
1
1
9.8728785801141764e-06
-1.8727036109285976e-11
9.2799400824148073e-05
-0.00038030503534707525
7.1263340628269639e-08
-6.261177736543821e-07
1
1
1
1
1
-4.7138327538067508e-07
-3.7029207780664932e-10
-0.00067323326803094886
-5.3609421929013662e-06
7.0211798877736538e-06
-3.3852534967859856e-07
1
1
1
1
1
-8.8770730589623755e-12
1.3368712030543836e-12
0
-2.8435887257452169e-05
0
-1.9226499484448148e-11
1
1
1
1
1
-5.6739167410566117e-09
0
-8.7665763510081593e-09
-6.2066419412641502e-06
0
0
1
1
1
1
1
-6.0975672220615492e-08
0
-3.1675200660559254e-08
4.4641289435623024e-07
-3.9154938498042326e-08
2.1745023368843751e-08
1
1
1
1
1
-2.3567365201061059e-05
-2.3459542839716725e-11
-5.7812594412664507e-09
2.3946608912183842e-05
2.0343995738425585e-13
-4.4327412694956181e-06
1
1
1
1
1
-3.1322812752768889e-08
0
-1.808281087000536e-08
-1.0111392397644641e-05
2.1838333999698184e-09
-8.3721520866618724e-09
1
1
1
1
1
1.0159302325614801e-08
0
3.6423859490900747e-09
-3.0707650986976084e-06
1.1068053532877828e-07
0
1
1
1
1
1
2.7483205982180023e-08
0
-3.8117150283860817e-05
3.1983981504210719e-06
-6.5255678295574922e-08
0
1
1
1
1
1
-1.0461288390764688e-06
-4.1682949764467147e-09
-7.4207751473106833e-08
-5.292476744808709e-06
1.8804848366019712e-07
5.1130405537116468e-10
1
1
1
1
1
-5.0852676366055068e-06
-1.3896160059568865e-12
-2.7475513377897495e-06
-4.5569881487548024e-05
-8.2999673451754222e-07
-8.6542575787394502e-09
1
1
1
1
1
8.5189814421621195e-08
0
-1.5199912644544026e-06
0
-2.5071796343703926e-10
-2.3043733526240294e-10
1
1
1
1
1
-2.9182482638949349e-06
0
3.7572571300324552e-07
-1.1401450377610895e-06
-2.5473008555779218e-08
0
1
1
1
1
1
3.5621954993191915e-08
-2.3704694646107735e-09
-2.6561144465313763e-07
2.3931348434903053e-06
1.4199424694304271e-08
1.5917974891233875e-09
1
1
1
1
1
5.1920143945841462e-07
-3.4140654069093038e-09
-2.4152297394900155e-06
-1.3865255187768215e-06
1.9747512406144919e-08
-1.9862103352211775e-05
1
1
1
1
1
9.1900818269033145e-14
-8.8332203783439772e-11
-1.6346067562673157e-05
-8.5608478838053492e-06
-2.3654420747666943e-08
-1.582828404897596e-07
1
1
1
1
1
8.5743243483956865e-11
-1.0281208473404316e-10
-4.1021121599735671e-05
-4.9853591213328909e-05
-9.1820842047565829e-10
7.9206314456370038e-09
1
1
1
1
1
-5.2173179568975402e-07
0
1.6316575062654222e-06
2.8846785257628722e-06
0
-4.1805091933392333e-05
1
1
1
1
1
7.3064432946861898e-07
-0.00031867015187572831
-0.00016837011465378502
1.8758110409067162e-05
6.4190850284674186e-06
0.00093206539560897769
1
1
1
1
1
-0.00092005343701482255
0
-0.043599911971431662
-3.6613798044587396e-07
-0.0082184588480893432
4.7701015536602159e-06
1
1
1
1
1
-1.7505534260941831e-07
8.624040290442582e-05
0.01080621086653397
0.00013879874682412626
2.2693112474652368e-05
-0.013050760385830917
1
1
1
1
1
0.030660485994699973
1.6635316950292515e-05
5.4662446183315676e-05
6.9876087014107054e-05
-9.6434600417124024e-05
-4.6448085840531621e-06
1
1
1
1
1
-9.1680736121736831e-10
-4.5455122507164512e-05
0
0.0092550434886513704
3.6622850015575697e-05
0.030452953568598201
1
1
1
1
1
-2.886778497669347e-08
5.2404060625443462e-05
0.0056513833703265258
-0.00014583999766936792
0.0039156151771184856
-0.00020796426587143066
1
1
1
1
1
-9.4734045819041227e-11
1.717581528809537e-05
0.0024342654461110497
-0.004271647990177342
-0.003393431868625374
-1.855602874757446e-06
1
1
1
1
1
1.6416982927764077e-05
0.00014581435470412978
0.0013439248520173486
0.0052437785857611758
0.00028235561533974766
-0.00070384346981436905
1
1
1
1
1
-0.0026552201702160368
6.2382096842596727e-05
0.017356715280978062
-5.6822700418151957e-05
4.6045823998264244e-05
0.0011593838388599478
1
1
1
1
1
-4.8119158166287065e-05
1.7444735649128133e-06
-0.0032529085706146325
-0.00063619904101827509
8.1986112915117791e-06
3.0209659547372292e-05
1
1
1
1
1
-0.00014041956218733092
8.5904058655336194e-08
0.016593457217759813
0.0029931842245968128
-0.0063037487241471308
0.0013401182216110673
1
1
1
1
1
-0.005707160711302472
0.00040409592995738176
0.00072416995796911363
-2.6304536289257799e-07
-0.0077763710160495634
-0.0018100802984529014
1
1
1
1
1
-0.0029565706590936672
-0.0013800089634174294
-0.00032117783284621703
0.00010191991965329049
0.0010715407246420824
-0.0010973337758790145
1
1
1
1
1
-0.042841597019545465
-2.0201603008841221e-08
0.001076047078216822
0.00017853091629341832
-0.0072010021162787069
-0.019836052299613618
1
1
1
1
1
-2.0284242273915005e-07
-4.7239942729123335e-05
0.000408816979914297
0.0013451840801476176
-0.001880061260743496
5.7104121722501694e-05
1
1
1
1
1
0.001886189595088658
-9.9484614574873236e-05
-0.0015549923308898373
-0.0035407653103892711
-0.010167315667455001
-0.0012297961709124628
1
1
1
1
1
-0.0054340457938088279
0.0019474096261535144
-1.8605024806282387e-05
6.0672476363415799e-07
0.00012178871430499292
-4.3134968713959938e-07
1
1
1
1
1
1.0949524135231694e-07
0.0012108452360371268
0.00023324011470470451
0.019653593485241354
6.0574442957014084e-07
-0.0039731305430771562
1
1
1
1
1
-0.0095572930964246405
1.6962032637339369e-07
-0.0059724273922240924
0
-6.5732710219539226e-05
-0.0052088266975016066
1
1
1
1
1
0.00035628552835971126
0.00033751029091810028
-3.1060941268679321e-06
-0.051529844806978413
-1.614892808003739e-05
-0.00022394166353141313
1
1
1
1
1
-8.1899094146169162e-08
0
-0.0047554533612033699
-0.013682482656965124
-2.6411874174659118e-05
0.0034843164657311944
1
1
1
1
1
-1.17675639329167e-05
0
-9.6721481477030551e-07
0.00018536497545108423
-0.00097089588054822163
-0.013909483195080171
1
1
1
1
1
5.2821338329778975e-05
-3.9364774891886278e-06
-0.00047144281422465453
-1.5447055616248333e-06
2.1102203486965554e-07
-0.00030576036318220276
1
1
1
1
1
8.6556162754783877e-10
-0.00040016258851222552
-0.0042590106377103287
0.00020400288434476376
7.0014649838771841e-07
0.0049467180257164603
1
1
1
1
1
0.018059974097221872
7.0025860365578388e-07
0.010545011326511134
0.0014894142661942872
0.0081350402891062802
-0.0014697587166003052
1
1
1
1
1
0.00050710715842597863
-0.00012474174245346122
-0.00034514148685410177
-1.0778176604725305e-08
-3.785603948693391e-05
0.0004210234583487238
1
1
1
1
1
-0.0042162434747060468
1.3743491343250128e-07
-0.0080942260957428663
0.035052327874808532
0.012631753758960165
0.00050273401492691736
1
1
1
1
1
-0.00098538285476340495
0.0010695206066056479
-7.5689219257355375e-06
-0.00013527796698370817
0.0048229550467129012
0.039332156366547612
1
1
1
1
1
-7.1036256953306191e-08
-0.00034292193454701149
-7.5715912552261637e-05
-0.00010280322858602587
-0.017585460850273828
-0.0026066764575450835
1
1
1
1
1
-6.0901982116618896e-10
-1.5337521377840419e-05
-3.6427095736376538e-06
-0.010447152224613985
2.6097791073044919e-06
9.7380086690989273e-06
1
1
1
1
1
-5.3923381061195658e-05
-7.8716002635482988e-06
0.0078337301764919293
0.014487417236983524
-3.1098325872756499e-05
-0.0012612612996656134
1
1
1
1
1
-0.0007996197535319287
2.9636928402307851e-06
0.033865560014112617
3.13156512453771e-06
-0.00012045902367731336
-1.8029075054138952e-06
1
1
1
1
1
1.0886523022224247e-06
-6.1920903868264746e-07
-0.00026475126388290975
0.0011498040778349209
-1.7404516429560802e-08
0.00058849987372440406
1
1
1
1
1
-1.1240745727288491e-05
2.4239531536285143e-05
0.0002125219405525811
0.00017018207773360398
3.8345679430987742e-06
-0.0026187041547866123
1
1
1
1
1
-9.6451699402375264e-05
-0.00011327525674755436
-0.053362240187752874
0.013841024798642321
-3.8108054943783584e-06
1.448569358556615e-08
1
1
1
1
1
5.4169988742484265e-05
-0.00015722750132798663
-1.3682925836116743e-07
-0.00064490455787434239
5.5843525569358407e-05
0.017605195108343314
1
1
1
1
1
-3.8587020762211362e-05
-1.3838864237274473e-08
0.02936409462178622
7.9770719206273851e-07
0
0.0001013520384148492
1
1
1
1
1
-2.6675604699115519e-05
3.2477782295160527e-08
-5.7367136152286782e-07
-2.7124290253242626e-06
-1.4170700055533508e-05
-6.3454678619508453e-05
1
1
1
1
1
-4.6664408699699734e-12
-2.6357098197781406e-08
-2.2709875204460403e-06
7.0245623468355911e-05
-1.126265580276969e-06
0.00010802176213486393
1
1
1
1
1
0.00017927791913385126
1.199382401741342e-06
4.3451856354870521e-05
-8.358990529114576e-07
7.3722899146140211e-09
0.00015622778684034366
1
1
1
1
1
-0.0070541817266508242
0.00061790559766201165
0.0001315828449917126
0.00024256281844402294
0.00018828615887832978
1.50258913375839e-05
1
1
1
1
1
1.1252735914235185e-06
3.7920133343391948e-05
5.0272296358816732e-06
0.0048820475914432516
9.7256475649785229e-08
-0.0042870684442810969
1
1
1
1
1
0.004165035948044459
4.1978328826965037e-06
0.027119868506895677
0
0.00047696245805181023
-3.7956331838772383e-05
1
1
1
1
1
1.8121117233487883e-05
-3.9878953699092416e-06
2.8497620015971819e-06
-0.022022696015298875
2.7937353790212949e-07
1.0243496343860247e-05
1
1
1
1
1
-1.2319767007422201e-07
-0.00033271947308897705
-5.2005760781190571e-07
0.010864911589275522
2.1787157553908305e-05
1.2339354456130206e-08
1
1
1
1
1
-4.9295390856776384e-06
0.00018160337890155002
-0.029599893796525924
-0.011879050881771294
-0.00022477471248004817
0.0038609712445363442
1
1
1
1
1
-0.00013064570765966758
0.00061159316376653116
0.0090560636888822495
0.00093473613906631882
-4.3408850709791858e-05
-0.0041055501779035724
1
1
1
1
1
1.1399809747929376e-05
-4.5353729468158771e-06
2.8443497050574295e-06
0.0054986556529826027
-2.0407191998080001e-05
0.0015982020712698853
1
1
1
1
1
-1.7220101424931622e-05
-1.1028374568118465e-05
-0.0038134723220624267
-0.002939058299272337
0.0014330753281231168
8.486112204109461e-05
1
1
1
1
1
-0.056739828630465068
-9.6229678537742207e-08
8.4033989318362231e-05
0.00094155396888822749
-0.00021018999948370742
-0.0047975564339526097
1
1
1
1
1
-0.0022124475875294649
1.6319380566054552e-07
0.00042601011647902195
-0.0015457271172819706
0.0010996580210225378
2.6164668019353429e-06
1
1
1
1
1
0.0015138776862315649
-3.4353201530212387e-05
0.0074272867846424473
1.4278303862916717e-05
0.0022680854167930159
7.4394619253178156e-06
1
1
1
1
1
0.006666073154245322
-7.6693886900615472e-06
-0.00016838847704606525
-0.0059804876190908841
8.3626894571231018e-05
-0.0063110695388210077
1
1
1
1
1
6.1961558888695305e-05
0
-3.308383705635373e-05
-3.350122199298321e-05
-2.1162169268814306e-05
0.0084312115671866094
1
1
1
1
1
0.0019417044046573829
-9.3024585626315568e-06
-0.032278663778808996
0.0018797264203448993
-0.0075869638087017171
-0.00019529357201366308
1
1
1
1
1
-1.1956561855705369e-06
4.0705129860283956e-06
0.00027161819670830123
0.005057010446326074
-4.8401352200594294e-06
0.0024170981182309488
1
1
1
1
1
-2.2531835085751572e-05
-0.0015787783798992083
-8.1315832015631823e-05
-0.0023850165274054134
-1.3030820535343243e-05
0.00031066378271953521
1
1
1
1
1
-3.2768024234427507e-09
-1.192240761960756e-12
-0.0043598172642665784
-0.0099226320608905485
6.4064822051747959e-09
-6.0379641471358043e-08
1
1
1
1
1
7.2945736697119887e-08
0
-6.8479098557986905e-05
0.0018043832139042709
5.5112947984807268e-08
2.2190607492819746e-06
1
1
1
1
1
1.2680752741202482e-10
0
7.9877398277929918e-05
1.5701857809518773e-06
1.5041572571499279e-07
-4.0492908550288863e-06
1
1
1
1
1
-7.6708055094059941e-05
0
-4.5778127776087513e-06
-5.4750426264647834e-06
3.3671652098175266e-05
-3.3680493919031144e-07
1
1
1
1
1
-8.8888690158386637e-05
-5.0039259152836251e-10
-0.00058003276256757893
0.0010618167414115857
1.6938377379670482e-08
6.6517944425670305e-07
1
1
1
1
1
-1.3066060247576226e-06
1.3507310132771806e-10
-2.0931663243225775e-05
-0.00025617132101298645
2.5076765431882901e-11
-2.2402394283381907e-07
1
1
1
1
1
2.4748559001849605e-05
-1.100566024894641e-09
-7.7849043916053761e-07
-3.0514240236511254e-06
2.2182820674463558e-07
7.2586861224908144e-08
1
1
1
1
1
-3.2365308971691054e-10
1.7076758527214053e-10
1.1465161938099222e-07
4.1786089086214636e-06
4.1487963298367315e-09
-6.4995241395930868e-08
1
1
1
1
1
-4.9294640179582054e-07
3.003086042689234e-13
-5.898019955287088e-06
2.2173174628153149e-06
0
-1.2583048489681203e-07
1
1
1
1
1
2.2691629394571271e-07
2.9013665341856414e-10
-0.00018056642971706857
-5.4864715999922046e-05
-1.3600728543621048e-09
0
1
1
1
1
1
5.416437598657916e-09
0
7.2451477077221729e-07
-1.8873469618050014e-05
-4.8842317274901717e-08
0
1
1
1
1
1
1.6281901669801535e-08
0
2.8882515216052895e-06
2.3066625818450949e-09
6.5438493953504047e-07
5.9727252021123515e-10
1
1
1
1
1
3.7074517902806929e-07
1.9390851800600703e-10
0.00011524993354510023
-0.00019115874374524457
-5.3980435190100809e-08
9.2172252776849148e-07
1
1
1
1
1
7.5405351548411993e-08
-1.5241348256418002e-11
-0.00053705046850022556
0
1.9609307265563469e-06
-3.9103817495086556e-06
1
1
1
1
1
5.9137205587101241e-12
8.5472494122092652e-13
0
-1.3633401313145641e-05
0
1.0514281859532795e-07
1
1
1
1
1
-3.1745325552561854e-09
0
4.3832335500421286e-06
7.6402149986714741e-06
0
0
1
1
1
1
1
4.6421848472224422e-09
0
-1.4962511023281176e-08
-5.1535363338104562e-07
7.3990675812031459e-09
-3.2615361431670586e-08
1
1
1
1
1
8.8773457826688485e-06
1.0447510921198385e-09
-3.283571333841014e-09
0
-1.811560671441145e-13
-1.3213560325559851e-06
1
1
1
1
1
-1.6502950932879239e-07
1.0359686196156819e-10
-3.945986307036909e-09
-8.9835622725193093e-06
9.7040483209085522e-10
3.8773563763137494e-09
1
1
1
1
1
1.2238131345351518e-08
0
4.0841370804618934e-05
1.7565381889086204e-06
-2.8912479938779654e-07
0
1
1
1
1
1
4.2399911274348212e-08
0
4.7445733080840976e-05
-6.1157100704245491e-06
-9.2473359725946274e-09
0
1
1
1
1
1
5.7972947777359681e-17
6.8895242731038424e-09
1.398966102394723e-06
-1.3103748647948472e-05
1.5658836146844687e-07
-3.9679604779179704e-09
1
1
1
1
1
2.702804824879448e-06
-5.1481690292341345e-13
2.7488562853348416e-06
-2.5088397861326886e-05
-1.0750072101469988e-07
-5.5253820550285443e-09
1
1
1
1
1
-2.3218613802340443e-07
0
-1.2203684938869245e-06
0
2.4607122549419646e-10
5.8434058828927294e-10
1
1
1
1
1
2.7016138577047713e-11
0
-5.2194502466092984e-07
3.989114076468647e-07
-6.3199961159905563e-11
0
1
1
1
1
1
4.1685688229606955e-08
1.5704741040056448e-09
-1.6593105031076378e-06
-9.4115365620969104e-05
1.3864268666375368e-08
-2.8097099681673328e-08
1
1
1
1
1
4.7424124291652951e-07
2.378855962553471e-12
-5.2277836170710588e-06
-4.6718801111372918e-06
-1.3443908246837432e-09
-3.0323213393121401e-05
1
1
1
1
1
5.4524679580052283e-14
8.8239396987328993e-12
-2.9088830298673389e-05
2.6893969475714369e-06
-9.2107475298728769e-08
-6.1545863122509942e-08
1
1
1
1
1
5.7066809258812732e-11
-6.3601877964308349e-11
1.0112078116012317e-05
-2.5769705525211143e-05
-3.1695665832323682e-09
-9.715546501051044e-09
1
1
1
1
1
-5.4867694130111254e-06
0
2.4658710225644442e-06
-1.006955852185692e-05
0
-1.7976358016975613e-07
1
1
1
1
1
6.6963184872138146e-07
0.00075370952768547342
0.0015144736673995682
0.029269734487338727
7.4885975715462458e-05
0.012731459144489189
1
1
1
1
1
-0.0055831392762734269
-2.1651893649610766e-06
0.00042368619462287619
-0.00209730656986792
-0.0031146461947108811
3.0293282434630856e-06
1
1
1
1
1
2.8903662484921178e-08
0.0003463752417706268
8.016885855350838e-05
